solver_type L2R_LR_DUAL
nr_class 3
label 1 2 3
nr_feature 246
bias 1
w
-0.6079084562642819 -0.6943050644177293 0.6054856939411111 
-0.1194960571597185 -0.7654266623975793 0.3218950986637589 
0 0 0 
0 0 0 
-0.2419933366270425 -0.05674035478731389 0.1378635527061085 
-0.379255689622052 0.1982330850212301 0.04659591448339692 
0 0 0 
0 0 0 
0 0 0 
0 0 0 
-0.2138204097140944 -0.2397734347813355 0.3386948453344787 
0 0 0 
0 0 0 
0 0 0 
0 0 0 
-0.5847670430661942 -0.5179537431689844 0.2221530842836453 
-0.5664334403025225 0.1327378962754647 0.223107542993835 
0 0 0 
0 0 0 
-0.4291493544876617 -0.5494266337593645 0.6246351130921645 
-0.1726690005226706 -0.3875550944532073 0.3681570956114973 
0 0 0 
0 0 0 
0 0 0 
0 0 0 
0.1905448889918472 -0.2358148562566383 0.01248226914772428 
0 0 0 
0 0 0 
0 0 0 
0 0 0 
-0.1151316143680891 0.6755124934688703 -0.1001504318849069 
-0.3772504689857726 -0.3366431472996905 0.2763002941891583 
-0.2408414706618263 -0.3887272708552316 0.1967544680998313 
-0.06231460070789976 -0.208754243788814 0.06664963314792391 
0.5444777443181404 -0.2816693012169037 -0.3605123964445664 
-0.4307848450853467 -0.4067862203278658 0.4892236721234901 
0.1169562562165726 -0.3293054076148985 0.1316064325062367 
-0.3258859786223619 0.291838185028021 -0.1572864193248584 
-0.04312149601061407 -0.02819449473014121 0.07017193924652797 
-0.2567691512549123 -0.3534128134297951 0.4393762734834527 
0 0 0 
0 0 0 
0 0 0 
-0.3467918771011959 -0.2372317178752906 0.3790525706755462 
-0.5624118710451066 -0.8620741227053349 0.6680761587883597 
-0.008768282912252895 0.5830861176542259 -0.4196719819287549 
0.346646907613071 -0.2244023698653888 -0.1489634211792831 
0.17105027131878 -0.7434761353333569 0.1414990762075129 
-0.003289632698766403 0.3050544776849763 -0.2122275198803342 
-0.209772146933572 -0.4234126127819658 0.5034646188922874 
-0.005514650886962051 -0.007167728860422438 0.01145885779939772 
0.08244542734790632 -0.587501533082463 0.2982693204150025 
0 0 0 
0 0 0 
0 0 0 
0.5297747722738062 -0.02962805125133448 -0.2655005260421423 
-2.909129588049766 -2.801335812430184 3.11736267264377 
-1.724610541665087 -0.6444920695036187 1.248127343035643 
-0.2622140940038947 -0.4876725755094194 0.5229210563664255 
0.004254069103540589 -0.3264572227117774 0.1280809772614998 
0.1267025389936013 0.001163508350418879 -0.2067211689769372 
-0.8084826656071933 -0.6523612219961866 0.798783622804482 
0.5806393506393307 0.2321394932732838 -0.4895271772168483 
0.5212373931524966 0.3196676567345692 -0.5511295481454273 
-1.642616105358085 -0.2124246400550544 1.251665234946957 
0.3208640484584869 0.6952241518450817 -0.7366484497791034 
-0.0832493036246707 -0.06498874524594506 0.09856190942894443 
0.01408321780663486 -1.254663145615761 0.5528790516503873 
-0.5887363337064315 -0.3258168426245513 0.3898400525720587 
0.4485197188249891 0.2463293763662244 -0.431696064936206 
-0.03133919178809253 -0.6416725860327198 0.3259333712458272 
-0.2012049068559289 -0.01289634436691625 0.004719683142091236 
0.01148973364204696 -0.328092104067008 -0.002405437151913349 
-0.2078582753111148 -0.1037237209320516 0.07822597753892603 
0.2288947456319508 0.1860717259617012 -0.2661301952949085 
-0.3074004909989679 -0.2295087343816619 0.2576985555259923 
-0.5975979518032257 -0.3314919446276038 0.4608657411251765 
-0.02508580527169794 -0.4942357949920035 0.2921597133071978 
-1.088104166171824 -0.4990775874533597 0.9436803830705905 
0.06255378713991816 -0.3671413082681942 0.08691335593934647 
-0.4700874669418593 0.6009011337655509 0.07557689986661859 
-0.1655631028487338 1.116775650914214 -0.3884365994269634 
-0.6966161749579836 -1.268129425356659 0.9956850708866976 
-0.662991432284652 0.04303353495863699 0.5029935462471803 
-1.038604668279616 -0.8572306088333849 1.370570499109483 
-0.2632949815024106 -0.1173676088785952 0.1036874299725099 
-0.5720904704914923 -0.309477144968912 0.4431351393336352 
0.1304003881923441 -0.2434804809058815 -0.07939405555617082 
-0.3937778871653709 -0.6435516826521746 0.357705524442582 
-0.9002907183600504 0.1456871713907986 0.645527404034222 
-1.417480761289351 -0.6819526882724676 1.371683444129533 
-0.5980985085635783 -0.06946610903575962 0.5812329002736317 
-1.143543236131726 -0.6251369843557803 0.9885394072555331 
-0.3942038044616253 -0.1442725135354958 -0.1210859924815491 
-0.7919959699372376 -1.001952255534949 0.8432602491118255 
0.3822800438534144 0.3486872960520484 -0.4017667832715254 
-0.02313188336367545 0.1030289861529735 -0.03868838637617365 
1.171694040206685 0.5056965785058716 -0.844530825748818 
0.05025405101341682 -0.5824211059710057 0.365900711162102 
-0.1681892929947192 1.427389455494567 -1.306676430878398 
-0.140095207720356 -0.1418520985090175 0.2387065958569386 
-0.534828224675126 -0.1653532536377913 0.7022381632321865 
-0.461784612731672 -0.3629942066808732 0.5983638066765064 
-0.7839164615819307 -0.6653071311862768 0.9589792108047226 
-0.7694732281985102 -0.2835696106511092 0.7121702148935249 
-0.1793569191925652 0.29672460512612 -0.1714074042001278 
-0.07566780210615491 -0.01666871043404403 0.08931050395232847 
-0.04065365359991249 1.386610431028913 -1.778931862862615 
-0.6329441349295071 -0.04648016221896775 0.2738589213465326 
-0.3327864812379219 -0.7129785126099475 0.8407958104934451 
0 0 0 
-0.08515963701069948 -0.006781266267633265 0.07213089199220091 
-0.140095207720356 -0.1418520985090175 0.2387065958569386 
-0.01109389426564452 -0.001228970731011292 0.01091729678157941 
-0.461784612731672 -0.3629942066808732 0.5983638066765064 
-0.7839164615819307 -0.6653071311862768 0.9589792108047226 
-0.7694732281985102 -0.2835696106511092 0.7121702148935249 
-0.2602371605663503 -0.04349817729615587 0.3182234244324704 
-0.07566780210615491 -0.01666871043404403 0.08931050395232847 
0 0 0 
0.6433745170239156 -0.002066979094425669 -0.7381852026291125 
-0.1582104061937077 -0.01092899205416724 0.1646775532168629 
-0.05192690454656907 -0.3107008567405474 0.2460004588756546 
0.09721181722085623 -0.9933630704426355 0.1608399673158998 
0 0 0 
0 0 0 
0 0 0 
-0.3644784016774724 -0.2306844873670405 0.4686288097673644 
-0.06102831593805832 -0.1036281510536693 0.1520253937147062 
0.5735762524992307 0.24509925720024 -0.5579047132775808 
0.0809215200594318 -0.7195861956430967 0.6001823178802501 
-0.1557313916633349 -0.266531004088442 0.411986204651374 
-0.04259697005255525 -0.3008821289137763 0.1907618742014836 
-0.1695434044984836 0.4174558651397117 0.04515883200214343 
-0.569121659064849 -0.5310831653005119 0.8491487656557164 
-0.02242522803714127 -0.1983190426712754 0.09489441658774929 
-0.03648079573395838 -0.3478221451353223 0.1399123778312521 
-0.194630138347474 0.5551393339279244 -0.2710130765416289 
-0.4377796513621995 -0.04085567306115053 0.3559864846518026 
-0.002903466489943993 -0.001522322047119336 0.003801352203431184 
0.276982826412083 -0.2036843403202346 -0.07360352479081282 
0 0 0 
-0.3515165046616743 0.2122381338936915 0.002698431245296584 
-0.2318744206488809 -0.1530214490394148 0.3228562034128411 
-0.3052149845943721 0.1616435244721715 0.08835081615834714 
-0.0007518657425401291 -0.0002140016115304736 0.0006862225990810454 
-0.1116060066599062 -0.05524573540348849 0.1630735980373583 
-0.2953361699762558 -0.04579896789865376 0.3603172741798988 
-0.07008496917937332 0.4010700701463826 -0.4002528113623083 
0.7981123237592382 -0.1367011512165961 -0.5903593710024898 
-0.3642703392738371 -0.2015028140215272 0.6031980482794136 
0.2974130246512817 0.7884944234590023 -0.5724295665893765 
-0.02036446095072428 -0.02382458878033313 0.04706871167997408 
0 0 0 
-0.2619569833991275 -0.561640282747317 0.6533098227023049 
-0.06173409393609852 -1.073383159829259 0.6493400268094718 
-0.2165348449418834 -0.06472990110203104 0.1886652256712408 
0 0 0 
0 0 0 
0 0 0 
0 0 0 
0 0 0 
0 0 0 
0 0 0 
0 0 0 
0 0 0 
0.521540160955104 -0.3187161743481521 -0.06819288535453337 
-0.06622263882925278 -0.04646200168706893 0.1290562826003795 
0.1842492960369341 0.5861930835805083 -0.3864503057924013 
-0.5533574298230707 0.6288836122352831 -0.1123219598398127 
-0.1288336501283965 -0.07573804021955118 0.2295581801351221 
0.2837691262448178 -0.2889415379419619 0.03163888958868803 
-0.03558665508035133 -0.1057734537536442 0.09869328868281571 
0.1372939151621299 -0.5895194832246072 0.4106982937954324 
-0.1257434176323313 -0.331235144634666 0.2856776544019407 
-0.7389585375914949 -0.3131449197952608 0.8550391279705842 
-0.2444573212578425 -0.4811574155697159 0.6025232471981666 
-0.04776761369082727 -0.037344623176803 0.06394448135973768 
-0.0005038785178820439 -9.620091950555826e-005 0.0005073423247154082 
0.4244350079088988 -0.2246062771155865 -0.1331534865329954 
0 0 0 
-0.6689369781560001 -0.4384737694160703 0.8463041990418642 
-0.0371766863035621 -0.0252567831813655 0.08131574989338415 
-0.1373407657331369 -0.06148536488360468 -0.05540796129426942 
-0.0004353360222577047 -0.0001276549830021936 0.0003886139027781138 
-0.1420616587301922 -0.054983528243373 0.1995483167705764 
0.7121509787176696 -0.2663830773719156 -0.3339783112932336 
-0.02251856987285793 -0.03663474255617089 0.05883777768222537 
-0.1224775207212614 0.282899040249192 -0.1688663598179162 
0.2454085436805054 -0.2146262557476425 -0.07446861972081929 
-0.4042317177090488 1.984782327480798 -1.105391649771431 
-0.04228782269768582 -0.02849747757596111 0.06751183074876539 
0 0 0 
-0.3598489129126303 -0.4148823707286818 0.5424470636508972 
0.8532960741561737 0.2770732550673577 -0.5670307100304179 
-0.05518057519879203 -0.04389139310604368 0.08004860981870954 
0 0 0 
0 0 0 
0 0 0 
0 0 0 
0 0 0 
0 0 0 
0.7299070353866287 0.309051820741343 -0.7131403391398555 
0.02960778787187256 -0.7103727815617686 0.2523676023385627 
-0.7708405097581434 0.6081941578504349 0.3732349433549673 
1.368836097302419 -1.036039000304769 -0.4569173629451949 
0.4028321004088347 1.021307510072476 -0.8898580382878452 
0.6902744859446693 2.585957370195787 -2.248146400406401 
-0.6889561146286676 -0.403224439732358 0.7202172989751841 
-0.1414327621757311 0.01428984679460396 -0.09174204250968022 
-0.01651453315370738 -0.569926609735174 0.2219948892281399 
-0.1318237516790274 0.1654667236291147 0.02212739862078191 
-0.4083619544046559 0.4904598214962377 -0.09996294217650829 
0.1269107492838526 -0.1773514861817967 0.02044288120102445 
-0.1731177222437954 0.7488072034164754 -0.5549987599901513 
0.3479460659640855 -0.2983152285505322 -0.06111655475651599 
-0.6987777206553565 -0.116987892822896 0.4247173380096597 
0.3046211056709772 -1.135532334331408 0.3491713807171449 
1.098518509404002 -0.5608758767274664 -0.7689004565131737 
0.3944758990916436 1.128282005848392 -0.6860943577209202 
1.380494889275679 -1.07621804457238 -0.3323529255946429 
1.03392451911866 -0.2930343969902037 -0.5676052014744558 
-0.5885031372671477 1.676868182338158 -0.5243583415240394 
0.364912433110192 -1.194751849275176 0.1182585004517511 
-0.5076563769561815 -0.5453036492616364 0.7425651739704114 
-0.484668980020772 0.5801121081851764 -0.02148340447303891 
-0.1933706972623784 0.8081536098165763 -0.5185101021784999 
0.4399897311068527 -0.05005853491437111 -0.4140730866982819 
-0.6658344927589611 -0.3518736230197253 0.5504176551528522 
-0.7502436553366708 -0.2911540271799251 0.9070413682236455 
-1.073530393747767 -0.1067976003138953 0.9383570416313846 
-0.5496420672248201 0.2555460321823234 0.1934460037469549 
1.505475220215446 -0.4085080432993716 -0.8518764028992428 
-0.915854886468788 1.824223784463329 -1.662334905615365 
0 0 0 
0 0 0 
0 0 0 
0.1437774837715036 0.6391151513023053 -0.6227984174216643 
-0.2063552181495925 -0.2964878639896139 0.4263019905717134 
0.4056798402505617 -0.04875158097737044 -0.2475574092300481 
0 0 0 
0 0 0 
-0.01522021074964442 -0.09226539620987991 0.09935642869821701 
-0.0008226075593136475 -0.0001876935664609631 0.0008993656406273647 
-0.0190325477630777 -0.005096727023753458 0.03911407421784514 
-0.05780621380283974 -0.0100962659819285 0.07252352820091647 
-1.562473949387136 -1.558012431362722 1.4505351051289 
