svm_type c_svc
kernel_type polynomial
degree 4
gamma 0.00456621
coef0 0
nr_class 3
total_sv 347
rho 0.999696 1 1.00006
label 1 2 3
nr_sv 104 116 127
SV
1 1 1:1 16:1 31:1 32:1 44:1 56:1 57:1 63:1 69:1 72:1 79:1 89:1 93:1 94:1 95:1 120:1 121:1 130:1 
1 1 1:1 17:1 33:1 46:1 56:1 57:1 64:1 71:1 75:1 82:1 89:1 93:1 94:1 95:1 
1 1 2:1 16:1 35:1 45:1 56:1 64:1 71:1 73:1 80:1 89:1 90:1 94:1 206:1 
1 1 2:1 16:1 35:1 45:1 56:1 64:1 71:1 74:1 83:1 89:1 93:1 94:1 95:1 178:1 185:1 193:1 194:1 198:1 
1 1 2:1 17:1 31:1 35:1 47:1 56:1 64:1 71:1 72:1 82:1 89:1 93:1 94:1 95:1 138:1 169:1 185:1 195:1 
1 1 2:1 16:1 34:1 45:1 56:1 57:1 64:1 71:1 75:1 83:1 89:1 93:1 94:1 95:1 
1 1 1:1 17:1 33:1 46:1 47:1 56:1 64:1 70:1 73:1 82:1 86:1 93:1 94:1 95:1 
1 1 2:1 16:1 35:1 45:1 56:1 57:1 64:1 71:1 76:1 80:1 89:1 93:1 94:1 95:1 121:1 
1 1 2:1 17:1 31:1 35:1 47:1 56:1 64:1 71:1 75:1 89:1 94:1 95:1 180:1 185:1 192:1 
1 1 2:1 16:1 35:1 45:1 56:1 64:1 71:1 75:1 83:1 89:1 93:1 94:1 95:1 133:1 178:1 185:1 191:1 193:1 194:1 198:1 
1 1 2:1 17:1 31:1 35:1 47:1 56:1 64:1 71:1 72:1 82:1 89:1 93:1 94:1 95:1 177:1 185:1 194:1 195:1 198:1 200:1 
1 1 5:1 17:1 35:1 47:1 56:1 64:1 71:1 75:1 83:1 89:1 93:1 94:1 95:1 
1 1 2:1 17:1 31:1 35:1 47:1 56:1 61:1 71:1 75:1 89:1 94:1 95:1 206:1 
1 1 2:1 17:1 31:1 35:1 47:1 56:1 64:1 71:1 75:1 82:1 89:1 93:1 94:1 95:1 180:1 185:1 192:1 
1 1 2:1 17:1 31:1 35:1 47:1 56:1 64:1 71:1 75:1 82:1 89:1 93:1 94:1 95:1 174:1 187:1 
1 1 1:1 16:1 31:1 33:1 44:1 56:1 64:1 70:1 73:1 82:1 87:1 93:1 94:1 95:1 120:1 142:1 172:1 185:1 193:1 195:1 197:1 198:1 199:1 
1 1 2:1 17:1 31:1 35:1 47:1 56:1 64:1 71:1 72:1 79:1 89:1 93:1 94:1 95:1 
1 1 2:1 17:1 31:1 35:1 47:1 56:1 57:1 64:1 71:1 72:1 79:1 89:1 93:1 94:1 95:1 127:1 
1 1 2:1 17:1 31:1 35:1 47:1 56:1 64:1 71:1 72:1 79:1 89:1 93:1 94:1 95:1 
1 1 2:1 17:1 31:1 35:1 47:1 56:1 64:1 71:1 75:1 80:1 89:1 93:1 94:1 95:1 
1 1 2:1 17:1 31:1 34:1 47:1 56:1 64:1 71:1 73:1 80:1 87:1 91:1 94:1 95:1 178:1 185:1 192:1 
1 1 2:1 17:1 31:1 35:1 47:1 56:1 64:1 71:1 75:1 82:1 89:1 91:1 94:1 178:1 185:1 192:1 
1 1 2:1 16:1 35:1 45:1 64:1 66:1 73:1 83:1 89:1 93:1 94:1 95:1 
1 1 1:1 17:1 33:1 47:1 56:1 64:1 71:1 75:1 89:1 94:1 95:1 
1 1 2:1 16:1 35:1 45:1 56:1 64:1 71:1 75:1 80:1 89:1 93:1 94:1 95:1 118:1 121:1 206:1 
1 1 1:1 17:1 32:1 47:1 56:1 64:1 71:1 77:1 89:1 94:1 95:1 
1 1 1:1 16:1 31:1 32:1 45:1 57:1 64:1 71:1 76:1 81:1 89:1 93:1 94:1 95:1 
1 1 2:1 17:1 31:1 35:1 47:1 56:1 61:1 71:1 73:1 82:1 89:1 93:1 94:1 95:1 180:1 185:1 192:1 
1 1 1:1 17:1 33:1 46:1 56:1 61:1 70:1 73:1 82:1 87:1 93:1 94:1 95:1 162:1 185:1 192:1 198:1 
1 1 2:1 17:1 31:1 35:1 47:1 56:1 64:1 71:1 75:1 82:1 89:1 93:1 94:1 95:1 154:1 178:1 185:1 192:1 
1 1 1:1 16:1 31:1 33:1 44:1 56:1 64:1 71:1 73:1 79:1 87:1 93:1 94:1 95:1 121:1 153:1 174:1 185:1 191:1 192:1 193:1 194:1 196:1 197:1 198:1 199:1 200:1 207:1 
1 1 1:1 16:1 31:1 32:1 44:1 56:1 64:1 68:1 78:1 80:1 89:1 93:1 94:1 95:1 176:1 185:1 201:1 
1 1 2:1 16:1 35:1 45:1 56:1 64:1 71:1 72:1 83:1 89:1 93:1 94:1 95:1 127:1 
1 1 2:1 17:1 31:1 35:1 47:1 56:1 63:1 71:1 75:1 82:1 89:1 93:1 94:1 95:1 127:1 
1 1 2:1 17:1 31:1 35:1 47:1 56:1 63:1 71:1 75:1 82:1 89:1 93:1 94:1 95:1 166:1 185:1 
1 1 2:1 17:1 31:1 35:1 46:1 56:1 64:1 71:1 74:1 81:1 89:1 93:1 94:1 95:1 178:1 185:1 192:1 206:1 
1 1 1:1 16:1 31:1 33:1 45:1 56:1 64:1 70:1 73:1 83:1 87:1 93:1 94:1 95:1 176:1 185:1 192:1 195:1 
1 1 1:1 16:1 31:1 33:1 45:1 56:1 64:1 71:1 73:1 83:1 86:1 93:1 94:1 95:1 180:1 185:1 193:1 194:1 196:1 198:1 
1 1 2:1 17:1 31:1 35:1 47:1 56:1 64:1 71:1 74:1 82:1 89:1 93:1 94:1 95:1 
1 1 2:1 17:1 31:1 35:1 47:1 56:1 64:1 71:1 75:1 82:1 89:1 93:1 94:1 95:1 
1 1 2:1 16:1 35:1 44:1 56:1 64:1 71:1 75:1 84:1 89:1 93:1 94:1 95:1 177:1 185:1 195:1 200:1 
1 1 2:1 17:1 31:1 35:1 47:1 56:1 64:1 71:1 73:1 80:1 89:1 93:1 94:1 95:1 
1 1 2:1 17:1 31:1 35:1 47:1 56:1 64:1 71:1 73:1 80:1 89:1 93:1 94:1 95:1 
1 1 2:1 17:1 31:1 35:1 47:1 56:1 64:1 67:1 73:1 82:1 89:1 93:1 94:1 95:1 
1 1 2:1 16:1 35:1 45:1 56:1 64:1 67:1 73:1 85:1 89:1 93:1 94:1 95:1 180:1 185:1 193:1 194:1 198:1 
1 1 2:1 17:1 31:1 35:1 47:1 64:1 71:1 75:1 82:1 89:1 93:1 94:1 95:1 153:1 174:1 185:1 200:1 203:1 213:1 
1 1 2:1 26:1 35:1 52:1 64:1 70:1 75:1 82:1 89:1 93:1 94:1 95:1 164:1 185:1 200:1 
1 1 1:1 16:1 31:1 33:1 45:1 64:1 71:1 72:1 79:1 89:1 93:1 94:1 95:1 96:1 120:1 206:1 
1 1 2:1 17:1 31:1 35:1 47:1 56:1 64:1 71:1 72:1 82:1 89:1 93:1 94:1 95:1 
1 1 2:1 17:1 31:1 34:1 47:1 56:1 64:1 71:1 75:1 82:1 89:1 93:1 94:1 95:1 153:1 174:1 185:1 200:1 
1 1 2:1 17:1 31:1 35:1 47:1 64:1 71:1 75:1 82:1 89:1 93:1 94:1 95:1 
1 1 2:1 17:1 31:1 35:1 47:1 56:1 61:1 71:1 75:1 82:1 89:1 93:1 94:1 95:1 153:1 174:1 185:1 
1 1 1:1 16:1 31:1 33:1 44:1 57:1 64:1 71:1 72:1 81:1 89:1 93:1 94:1 95:1 121:1 211:1 
1 1 2:1 17:1 31:1 34:1 47:1 56:1 64:1 71:1 72:1 84:1 89:1 93:1 94:1 95:1 174:1 187:1 
1 1 2:1 17:1 31:1 35:1 47:1 64:1 71:1 72:1 82:1 89:1 93:1 94:1 95:1 125:1 176:1 185:1 200:1 201:1 206:1 
1 1 1:1 16:1 31:1 32:1 45:1 56:1 64:1 71:1 72:1 80:1 89:1 93:1 94:1 95:1 180:1 185:1 193:1 194:1 196:1 198:1 
1 1 1:1 17:1 32:1 47:1 56:1 64:1 71:1 72:1 82:1 89:1 93:1 94:1 95:1 177:1 185:1 192:1 194:1 195:1 200:1 
1 1 1:1 16:1 31:1 33:1 45:1 56:1 64:1 71:1 76:1 80:1 89:1 93:1 94:1 95:1 177:1 187:1 
1 1 2:1 17:1 31:1 35:1 46:1 64:1 71:1 73:1 82:1 89:1 93:1 94:1 95:1 
1 1 1:1 16:1 31:1 33:1 45:1 64:1 71:1 76:1 83:1 89:1 93:1 94:1 95:1 169:1 185:1 
1 1 2:1 16:1 35:1 45:1 56:1 64:1 71:1 75:1 83:1 89:1 93:1 94:1 95:1 169:1 187:1 
1 1 2:1 16:1 35:1 45:1 56:1 64:1 68:1 75:1 82:1 89:1 93:1 94:1 95:1 177:1 185:1 195:1 200:1 204:1 
1 1 2:1 16:1 35:1 44:1 64:1 68:1 75:1 84:1 89:1 93:1 94:1 95:1 181:1 185:1 195:1 200:1 204:1 
1 1 1:1 20:1 32:1 48:1 62:1 70:1 77:1 80:1 89:1 93:1 94:1 95:1 153:1 164:1 185:1 196:1 200:1 
1 1 2:1 17:1 31:1 35:1 47:1 64:1 71:1 72:1 82:1 89:1 93:1 95:1 206:1 
1 1 1:1 16:1 31:1 32:1 44:1 56:1 61:1 71:1 72:1 80:1 89:1 93:1 94:1 95:1 180:1 185:1 192:1 194:1 196:1 
1 1 2:1 17:1 31:1 35:1 44:1 56:1 64:1 71:1 73:1 80:1 89:1 93:1 94:1 95:1 206:1 
1 1 2:1 16:1 35:1 44:1 56:1 64:1 71:1 73:1 80:1 89:1 93:1 94:1 95:1 
1 1 1:1 17:1 32:1 44:1 56:1 57:1 64:1 70:1 75:1 80:1 89:1 93:1 94:1 95:1 120:1 
1 1 5:1 17:1 37:1 44:1 56:1 63:1 70:1 75:1 80:1 89:1 93:1 94:1 95:1 170:1 185:1 196:1 197:1 
1 1 1:1 17:1 32:1 47:1 56:1 64:1 70:1 72:1 82:1 89:1 93:1 94:1 95:1 120:1 177:1 185:1 192:1 195:1 207:1 
1 1 1:1 17:1 32:1 47:1 64:1 71:1 72:1 84:1 89:1 93:1 94:1 95:1 120:1 206:1 
1 1 1:1 17:1 32:1 47:1 56:1 64:1 71:1 72:1 82:1 89:1 93:1 94:1 95:1 120:1 206:1 
1 1 1:1 17:1 33:1 44:1 64:1 70:1 73:1 80:1 88:1 93:1 94:1 95:1 170:1 185:1 196:1 197:1 
1 1 1:1 17:1 32:1 47:1 64:1 70:1 72:1 84:1 89:1 93:1 94:1 95:1 120:1 206:1 
1 1 1:1 17:1 33:1 47:1 56:1 61:1 71:1 73:1 83:1 87:1 93:1 94:1 95:1 120:1 207:1 
1 1 2:1 16:1 32:1 44:1 56:1 63:1 71:1 73:1 80:1 89:1 93:1 94:1 95:1 175:1 185:1 196:1 197:1 
1 1 2:1 16:1 32:1 45:1 63:1 71:1 73:1 80:1 89:1 93:1 94:1 95:1 175:1 185:1 196:1 197:1 
1 1 1:1 20:1 33:1 48:1 63:1 70:1 73:1 82:1 89:1 93:1 94:1 95:1 120:1 
1 1 2:1 16:1 35:1 44:1 64:1 68:1 75:1 79:1 89:1 93:1 94:1 95:1 121:1 
1 1 2:1 16:1 35:1 45:1 56:1 64:1 67:1 72:1 80:1 89:1 93:1 94:1 95:1 102:1 114:1 130:1 180:1 185:1 191:1 
1 1 2:1 17:1 31:1 35:1 47:1 56:1 64:1 71:1 75:1 79:1 89:1 93:1 94:1 95:1 
1 1 1:1 16:1 31:1 33:1 45:1 56:1 60:1 68:1 76:1 80:1 89:1 93:1 94:1 95:1 120:1 133:1 175:1 185:1 
1 1 2:1 17:1 31:1 35:1 47:1 63:1 71:1 72:1 84:1 89:1 93:1 94:1 95:1 206:1 
1 1 2:1 17:1 31:1 32:1 44:1 56:1 61:1 71:1 73:1 80:1 89:1 93:1 94:1 95:1 96:1 205:1 
1 1 1:1 17:1 33:1 47:1 56:1 64:1 71:1 76:1 82:1 89:1 93:1 94:1 95:1 120:1 127:1 
1 1 1:1 16:1 31:1 33:1 45:1 56:1 60:1 67:1 73:1 80:1 89:1 93:1 94:1 95:1 149:1 178:1 185:1 199:1 200:1 204:1 
1 1 2:1 20:1 35:1 48:1 56:1 63:1 70:1 75:1 82:1 89:1 93:1 94:1 95:1 182:1 185:1 193:1 198:1 
1 1 2:1 20:1 35:1 49:1 56:1 63:1 70:1 75:1 82:1 89:1 93:1 94:1 95:1 182:1 185:1 193:1 198:1 
1 1 2:1 16:1 35:1 45:1 56:1 63:1 71:1 73:1 83:1 89:1 93:1 94:1 95:1 178:1 185:1 193:1 194:1 198:1 
1 1 2:1 16:1 35:1 44:1 64:1 71:1 75:1 80:1 89:1 93:1 94:1 95:1 180:1 185:1 193:1 194:1 198:1 
1 1 2:1 16:1 35:1 44:1 56:1 64:1 68:1 75:1 80:1 89:1 93:1 94:1 95:1 180:1 185:1 193:1 194:1 198:1 
1 1 2:1 16:1 34:1 45:1 56:1 64:1 68:1 75:1 83:1 89:1 93:1 94:1 95:1 180:1 185:1 193:1 194:1 198:1 200:1 203:1 
1 1 2:1 16:1 35:1 45:1 64:1 69:1 75:1 80:1 89:1 93:1 94:1 95:1 177:1 187:1 207:1 
1 1 2:1 16:1 35:1 45:1 56:1 64:1 71:1 72:1 80:1 86:1 93:1 94:1 95:1 127:1 180:1 185:1 194:1 
1 1 1:1 17:1 32:1 47:1 56:1 61:1 71:1 73:1 82:1 86:1 93:1 94:1 95:1 120:1 138:1 169:1 185:1 192:1 202:1 
1 1 1:1 16:1 31:1 32:1 44:1 56:1 64:1 70:1 72:1 82:1 89:1 93:1 94:1 95:1 
1 1 1:1 16:1 31:1 32:1 46:1 56:1 64:1 70:1 72:1 82:1 89:1 93:1 94:1 95:1 
1 1 5:1 16:1 36:1 45:1 56:1 62:1 69:1 73:1 80:1 89:1 90:1 94:1 95:1 96:1 153:1 174:1 185:1 194:1 195:1 198:1 200:1 211:1 
1 1 1:1 16:1 31:1 33:1 44:1 56:1 64:1 71:1 73:1 80:1 89:1 93:1 94:1 95:1 121:1 128:1 
1 1 2:1 16:1 35:1 44:1 56:1 64:1 71:1 78:1 84:1 89:1 93:1 94:1 95:1 179:1 185:1 191:1 192:1 204:1 
1 1 2:1 17:1 31:1 34:1 47:1 56:1 64:1 71:1 75:1 82:1 89:1 93:1 94:1 95:1 177:1 185:1 
1 1 2:1 16:1 35:1 44:1 56:1 64:1 71:1 75:1 80:1 89:1 93:1 94:1 95:1 177:1 187:1 
1 1 2:1 16:1 32:1 45:1 64:1 71:1 73:1 80:1 89:1 93:1 94:1 95:1 
-1 1 1:1 17:1 32:1 44:1 56:1 57:1 64:1 70:1 72:1 80:1 89:1 93:1 94:1 95:1 120:1 
-1 1 1:1 17:1 33:1 47:1 56:1 64:1 70:1 72:1 82:1 89:1 93:1 94:1 95:1 105:1 133:1 176:1 185:1 200:1 201:1 
-1 1 2:1 17:1 31:1 35:1 47:1 56:1 64:1 71:1 75:1 82:1 89:1 93:1 94:1 95:1 140:1 164:1 185:1 200:1 
-1 1 1:1 17:1 32:1 46:1 64:1 71:1 72:1 82:1 89:1 93:1 94:1 95:1 170:1 185:1 196:1 200:1 206:1 
-1 1 2:1 17:1 31:1 35:1 47:1 64:1 71:1 76:1 82:1 89:1 93:1 94:1 95:1 164:1 185:1 200:1 
-1 1 1:1 16:1 31:1 33:1 44:1 64:1 71:1 76:1 84:1 89:1 93:1 94:1 95:1 120:1 206:1 
-1 1 1:1 20:1 32:1 46:1 64:1 71:1 77:1 82:1 89:1 93:1 94:1 95:1 211:1 
-1 1 1:1 16:1 31:1 32:1 44:1 56:1 64:1 71:1 77:1 84:1 89:1 93:1 94:1 95:1 96:1 176:1 185:1 195:1 205:1 
-1 1 1:1 16:1 31:1 32:1 44:1 56:1 61:1 71:1 72:1 84:1 89:1 93:1 94:1 95:1 120:1 153:1 174:1 185:1 192:1 200:1 
-1 1 2:1 17:1 31:1 35:1 47:1 64:1 71:1 72:1 79:1 89:1 93:1 94:1 95:1 149:1 207:1 
-1 1 2:1 17:1 31:1 35:1 46:1 56:1 64:1 71:1 75:1 82:1 89:1 93:1 94:1 95:1 206:1 
-1 1 2:1 17:1 31:1 32:1 47:1 63:1 71:1 73:1 82:1 89:1 93:1 94:1 95:1 217:1 
-0 1 1:1 16:1 31:1 33:1 44:1 56:1 61:1 71:1 73:1 80:1 87:1 93:1 94:1 95:1 120:1 127:1 170:1 185:1 193:1 194:1 196:1 197:1 198:1 
-0 1 1:1 17:1 33:1 44:1 56:1 61:1 71:1 73:1 80:1 87:1 93:1 94:1 95:1 120:1 127:1 170:1 185:1 193:1 194:1 196:1 197:1 198:1 
-1 1 2:1 17:1 31:1 35:1 47:1 56:1 64:1 71:1 75:1 82:1 89:1 93:1 94:1 95:1 140:1 177:1 185:1 195:1 200:1 206:1 
-1 1 2:1 17:1 31:1 35:1 47:1 56:1 64:1 71:1 75:1 82:1 89:1 93:1 94:1 95:1 177:1 185:1 195:1 200:1 206:1 
-1 1 1:1 16:1 31:1 33:1 45:1 58:1 69:1 75:1 82:1 89:1 93:1 94:1 95:1 170:1 185:1 196:1 197:1 
-1 1 2:1 17:1 31:1 35:1 46:1 56:1 64:1 71:1 75:1 82:1 89:1 93:1 94:1 95:1 161:1 185:1 198:1 200:1 
-1 1 1:1 17:1 33:1 46:1 64:1 71:1 76:1 82:1 89:1 93:1 94:1 95:1 161:1 185:1 195:1 200:1 
-1 1 1:1 17:1 33:1 47:1 56:1 64:1 71:1 72:1 82:1 89:1 93:1 94:1 95:1 142:1 177:1 185:1 195:1 
-1 1 1:1 17:1 33:1 46:1 64:1 71:1 72:1 82:1 89:1 93:1 94:1 95:1 106:1 120:1 
-1 1 1:1 17:1 33:1 47:1 64:1 71:1 73:1 82:1 88:1 93:1 94:1 95:1 120:1 164:1 185:1 196:1 200:1 
-1 1 6:1 17:1 38:1 47:1 56:1 63:1 71:1 75:1 81:1 89:1 93:1 94:1 95:1 127:1 170:1 185:1 192:1 197:1 
-1 1 2:1 16:1 35:1 45:1 56:1 64:1 71:1 75:1 79:1 89:1 93:1 94:1 95:1 170:1 185:1 197:1 
-1 1 2:1 17:1 31:1 35:1 47:1 56:1 64:1 71:1 73:1 82:1 87:1 93:1 94:1 95:1 176:1 185:1 200:1 201:1 204:1 
-1 1 2:1 16:1 35:1 44:1 56:1 64:1 71:1 75:1 84:1 89:1 93:1 94:1 
-1 1 2:1 17:1 31:1 35:1 47:1 56:1 64:1 70:1 75:1 82:1 89:1 93:1 94:1 95:1 
-1 1 2:1 17:1 31:1 35:1 44:1 56:1 64:1 71:1 75:1 82:1 89:1 93:1 94:1 95:1 177:1 185:1 195:1 
-0 1 1:1 16:1 31:1 33:1 56:1 64:1 71:1 76:1 82:1 89:1 93:1 94:1 95:1 97:1 153:1 174:1 185:1 191:1 197:1 199:1 200:1 207:1 
-1 1 2:1 17:1 31:1 34:1 47:1 56:1 58:1 65:1 75:1 82:1 89:1 93:1 94:1 95:1 140:1 167:1 185:1 
-1 1 2:1 17:1 31:1 35:1 47:1 56:1 58:1 65:1 75:1 82:1 89:1 93:1 94:1 95:1 
-1 1 2:1 17:1 31:1 35:1 47:1 56:1 58:1 66:1 75:1 82:1 89:1 93:1 94:1 95:1 
-1 1 1:1 17:1 33:1 47:1 60:1 70:1 74:1 80:1 89:1 93:1 94:1 95:1 170:1 185:1 191:1 196:1 197:1 206:1 
-1 1 1:1 17:1 32:1 47:1 56:1 64:1 70:1 72:1 82:1 89:1 93:1 94:1 95:1 164:1 185:1 195:1 196:1 200:1 
-1 1 1:1 16:1 31:1 33:1 44:1 56:1 64:1 67:1 76:1 80:1 89:1 90:1 94:1 95:1 153:1 174:1 185:1 197:1 206:1 
-1 1 1:1 17:1 32:1 47:1 64:1 69:1 73:1 82:1 86:1 93:1 94:1 95:1 127:1 206:1 
-1 1 5:1 17:1 36:1 44:1 63:1 71:1 73:1 80:1 89:1 93:1 94:1 95:1 97:1 142:1 172:1 185:1 197:1 199:1 
-1 1 1:1 17:1 32:1 47:1 64:1 71:1 72:1 82:1 89:1 93:1 94:1 95:1 120:1 167:1 185:1 195:1 200:1 
-1 1 1:1 20:1 33:1 47:1 56:1 61:1 70:1 72:1 82:1 89:1 93:1 94:1 95:1 164:1 185:1 196:1 200:1 
-0 1 1:1 17:1 33:1 46:1 56:1 61:1 71:1 73:1 82:1 86:1 93:1 94:1 95:1 120:1 144:1 167:1 185:1 192:1 200:1 207:1 
-1 1 1:1 17:1 32:1 47:1 56:1 64:1 71:1 72:1 82:1 89:1 93:1 94:1 95:1 164:1 185:1 192:1 200:1 206:1 
-1 1 1:1 17:1 33:1 46:1 64:1 71:1 72:1 82:1 89:1 93:1 94:1 95:1 105:1 176:1 185:1 200:1 201:1 207:1 
-1 1 2:1 17:1 31:1 34:1 46:1 56:1 64:1 71:1 75:1 82:1 89:1 93:1 94:1 95:1 127:1 
-1 1 2:1 17:1 31:1 35:1 46:1 56:1 64:1 70:1 72:1 82:1 89:1 93:1 94:1 95:1 127:1 
-1 1 2:1 17:1 31:1 35:1 47:1 56:1 61:1 70:1 72:1 79:1 89:1 93:1 94:1 95:1 149:1 
-1 1 2:1 17:1 31:1 35:1 47:1 64:1 71:1 72:1 82:1 89:1 93:1 94:1 95:1 
-1 1 1:1 17:1 32:1 46:1 64:1 71:1 72:1 82:1 89:1 93:1 94:1 95:1 105:1 176:1 185:1 200:1 201:1 211:1 
-1 1 2:1 17:1 31:1 34:1 46:1 64:1 71:1 75:1 82:1 89:1 93:1 94:1 95:1 
-1 1 2:1 17:1 31:1 35:1 47:1 64:1 71:1 76:1 82:1 89:1 93:1 94:1 95:1 164:1 185:1 196:1 200:1 
-1 1 2:1 17:1 31:1 35:1 47:1 56:1 64:1 70:1 76:1 82:1 89:1 93:1 94:1 95:1 164:1 185:1 196:1 200:1 
-1 1 1:1 16:1 31:1 32:1 44:1 64:1 71:1 72:1 80:1 89:1 93:1 94:1 95:1 120:1 170:1 185:1 196:1 197:1 198:1 206:1 
-0 1 1:1 16:1 31:1 32:1 45:1 56:1 61:1 67:1 72:1 81:1 89:1 93:1 94:1 95:1 120:1 170:1 185:1 196:1 197:1 206:1 
-1 1 2:1 17:1 31:1 35:1 47:1 64:1 71:1 75:1 82:1 89:1 93:1 94:1 95:1 177:1 185:1 195:1 200:1 204:1 
-1 1 1:1 17:1 33:1 47:1 64:1 71:1 72:1 82:1 89:1 93:1 94:1 95:1 105:1 176:1 185:1 200:1 201:1 
-1 1 2:1 17:1 31:1 34:1 47:1 56:1 64:1 71:1 72:1 82:1 89:1 93:1 94:1 95:1 153:1 174:1 185:1 
-1 1 2:1 17:1 31:1 35:1 47:1 56:1 64:1 70:1 72:1 82:1 89:1 93:1 94:1 95:1 
-1 1 2:1 17:1 31:1 35:1 47:1 56:1 64:1 70:1 75:1 82:1 89:1 93:1 94:1 95:1 
-1 1 2:1 17:1 31:1 35:1 47:1 56:1 64:1 70:1 75:1 82:1 89:1 93:1 94:1 95:1 
-1 1 1:1 17:1 32:1 46:1 64:1 71:1 72:1 82:1 89:1 93:1 94:1 95:1 105:1 120:1 127:1 206:1 
-1 1 1:1 17:1 32:1 47:1 56:1 60:1 71:1 72:1 82:1 89:1 93:1 94:1 95:1 164:1 185:1 196:1 200:1 206:1 
-1 1 2:1 17:1 31:1 34:1 47:1 63:1 71:1 72:1 82:1 89:1 93:1 94:1 95:1 177:1 185:1 200:1 206:1 
-1 1 2:1 17:1 31:1 35:1 47:1 56:1 64:1 71:1 75:1 82:1 89:1 93:1 94:1 95:1 164:1 185:1 200:1 
-1 1 1:1 17:1 32:1 47:1 63:1 71:1 72:1 82:1 89:1 93:1 94:1 95:1 120:1 177:1 185:1 192:1 200:1 206:1 
-1 1 2:1 17:1 31:1 35:1 47:1 56:1 64:1 70:1 75:1 82:1 89:1 93:1 94:1 95:1 153:1 164:1 185:1 200:1 
-1 1 2:1 17:1 31:1 35:1 47:1 56:1 64:1 71:1 75:1 82:1 89:1 93:1 94:1 95:1 153:1 174:1 185:1 200:1 
-1 1 1:1 17:1 33:1 46:1 64:1 71:1 74:1 82:1 89:1 93:1 94:1 95:1 161:1 185:1 195:1 200:1 
-1 1 1:1 16:1 31:1 33:1 44:1 64:1 71:1 76:1 79:1 89:1 93:1 94:1 95:1 142:1 172:1 185:1 197:1 205:1 
-1 1 1:1 16:1 31:1 33:1 45:1 64:1 71:1 73:1 81:1 89:1 93:1 94:1 95:1 170:1 185:1 196:1 197:1 205:1 206:1 
-1 1 5:1 16:1 36:1 45:1 63:1 69:1 75:1 81:1 89:1 93:1 94:1 95:1 170:1 185:1 196:1 197:1 
-1 1 1:1 16:1 31:1 33:1 45:1 62:1 69:1 75:1 82:1 89:1 93:1 94:1 95:1 171:1 185:1 196:1 197:1 203:1 206:1 
-1 1 1:1 16:1 31:1 32:1 45:1 56:1 61:1 69:1 72:1 82:1 89:1 93:1 94:1 95:1 170:1 185:1 196:1 197:1 206:1 
-1 1 5:1 20:1 31:1 33:1 48:1 64:1 70:1 73:1 82:1 89:1 93:1 94:1 95:1 170:1 185:1 196:1 197:1 
-1 1 1:1 17:1 32:1 47:1 64:1 70:1 72:1 82:1 89:1 93:1 94:1 95:1 167:1 185:1 195:1 200:1 
-0 1 1:1 16:1 31:1 32:1 44:1 56:1 63:1 70:1 73:1 80:1 89:1 93:1 94:1 95:1 120:1 176:1 185:1 195:1 196:1 197:1 200:1 201:1 204:1 
-1 1 1:1 17:1 32:1 47:1 64:1 70:1 72:1 82:1 89:1 93:1 94:1 95:1 120:1 164:1 185:1 196:1 200:1 
-1 1 5:1 16:1 45:1 63:1 70:1 75:1 82:1 89:1 93:1 94:1 95:1 127:1 170:1 185:1 193:1 194:1 197:1 198:1 
-1 1 2:1 17:1 31:1 35:1 47:1 56:1 64:1 71:1 72:1 82:1 89:1 93:1 94:1 95:1 128:1 164:1 185:1 200:1 
-0 1 1:1 17:1 33:1 47:1 56:1 64:1 71:1 72:1 82:1 89:1 93:1 94:1 95:1 120:1 139:1 176:1 185:1 195:1 200:1 201:1 207:1 
-0 1 1:1 17:1 33:1 47:1 56:1 64:1 71:1 72:1 82:1 89:1 93:1 94:1 95:1 106:1 120:1 139:1 176:1 185:1 195:1 200:1 207:1 
-1 1 1:1 17:1 32:1 47:1 62:1 71:1 72:1 82:1 89:1 93:1 94:1 95:1 128:1 164:1 185:1 192:1 200:1 203:1 
-1 1 1:1 17:1 33:1 47:1 56:1 61:1 70:1 72:1 82:1 86:1 93:1 94:1 95:1 164:1 185:1 196:1 200:1 207:1 
-1 1 1:1 16:1 31:1 32:1 45:1 56:1 62:1 71:1 78:1 80:1 89:1 90:1 94:1 95:1 147:1 170:1 185:1 196:1 197:1 206:1 
-1 1 1:1 16:1 31:1 33:1 45:1 56:1 64:1 70:1 73:1 80:1 87:1 93:1 94:1 95:1 170:1 185:1 196:1 197:1 212:1 
-0 1 1:1 16:1 31:1 33:1 45:1 64:1 69:1 73:1 82:1 86:1 93:1 94:1 95:1 171:1 185:1 191:1 196:1 197:1 203:1 206:1 
-1 1 1:1 16:1 31:1 32:1 44:1 61:1 71:1 72:1 79:1 89:1 93:1 94:1 170:1 185:1 196:1 197:1 206:1 
-1 1 2:1 16:1 32:1 44:1 61:1 71:1 73:1 82:1 89:1 93:1 94:1 95:1 170:1 185:1 196:1 197:1 
-0 1 1:1 16:1 31:1 32:1 44:1 56:1 58:1 71:1 72:1 79:1 89:1 93:1 94:1 95:1 97:1 120:1 153:1 174:1 185:1 197:1 199:1 211:1 
-1 1 1:1 17:1 32:1 47:1 56:1 64:1 68:1 72:1 82:1 89:1 93:1 94:1 95:1 120:1 153:1 174:1 185:1 196:1 200:1 207:1 
-1 1 1:1 16:1 31:1 33:1 44:1 64:1 70:1 73:1 80:1 89:1 93:1 94:1 95:1 120:1 170:1 185:1 196:1 197:1 
-1 1 2:1 17:1 31:1 35:1 47:1 56:1 64:1 65:1 73:1 80:1 89:1 93:1 94:1 95:1 149:1 207:1 
-1 1 1:1 17:1 37:1 47:1 56:1 64:1 71:1 75:1 82:1 89:1 93:1 94:1 95:1 153:1 164:1 185:1 196:1 200:1 
-1 1 2:1 17:1 31:1 35:1 47:1 56:1 64:1 71:1 72:1 79:1 89:1 93:1 94:1 95:1 149:1 207:1 
-0 1 1:1 16:1 31:1 32:1 44:1 56:1 64:1 71:1 73:1 79:1 87:1 93:1 94:1 95:1 103:1 120:1 153:1 174:1 185:1 195:1 197:1 211:1 
-1 1 1:1 16:1 31:1 33:1 44:1 63:1 70:1 72:1 80:1 89:1 93:1 94:1 95:1 120:1 170:1 185:1 196:1 197:1 
-1 1 2:1 17:1 31:1 35:1 47:1 64:1 71:1 73:1 80:1 89:1 93:1 94:1 95:1 149:1 176:1 185:1 207:1 
-1 1 1:1 17:1 32:1 46:1 56:1 60:1 71:1 72:1 82:1 89:1 93:1 94:1 95:1 120:1 170:1 185:1 196:1 200:1 206:1 
-1 1 2:1 17:1 31:1 35:1 47:1 63:1 71:1 73:1 82:1 89:1 93:1 94:1 95:1 177:1 185:1 200:1 
-1 1 1:1 17:1 32:1 47:1 64:1 71:1 72:1 82:1 89:1 93:1 94:1 95:1 106:1 177:1 185:1 195:1 200:1 207:1 
-1 1 1:1 17:1 32:1 47:1 64:1 70:1 78:1 82:1 89:1 93:1 94:1 95:1 105:1 176:1 185:1 200:1 201:1 206:1 
-1 1 1:1 17:1 32:1 47:1 56:1 64:1 71:1 72:1 84:1 89:1 93:1 94:1 95:1 177:1 185:1 195:1 200:1 201:1 206:1 
-1 1 1:1 17:1 32:1 47:1 56:1 64:1 71:1 78:1 82:1 89:1 93:1 94:1 95:1 177:1 185:1 200:1 201:1 
-1 1 1:1 17:1 33:1 47:1 64:1 71:1 75:1 82:1 89:1 93:1 94:1 95:1 164:1 185:1 200:1 207:1 
-1 1 1:1 17:1 33:1 47:1 56:1 64:1 71:1 73:1 82:1 89:1 93:1 94:1 95:1 164:1 185:1 200:1 203:1 207:1 
-1 1 1:1 16:1 31:1 32:1 44:1 64:1 71:1 72:1 79:1 89:1 93:1 94:1 95:1 164:1 185:1 196:1 200:1 204:1 206:1 
-1 1 1:1 17:1 32:1 47:1 64:1 71:1 72:1 82:1 89:1 93:1 94:1 95:1 120:1 164:1 185:1 196:1 200:1 206:1 
-1 1 1:1 17:1 32:1 47:1 64:1 71:1 72:1 82:1 89:1 93:1 94:1 95:1 120:1 164:1 185:1 196:1 200:1 206:1 
-1 1 2:1 17:1 31:1 35:1 47:1 64:1 71:1 75:1 82:1 89:1 93:1 94:1 95:1 164:1 185:1 200:1 206:1 
-1 1 1:1 16:1 31:1 33:1 44:1 56:1 64:1 71:1 75:1 79:1 89:1 93:1 94:1 95:1 120:1 170:1 185:1 197:1 206:1 
-1 1 1:1 17:1 32:1 47:1 64:1 71:1 77:1 82:1 89:1 93:1 94:1 95:1 106:1 177:1 185:1 195:1 200:1 206:1 
-1 1 1:1 16:1 31:1 33:1 44:1 56:1 64:1 71:1 73:1 79:1 87:1 93:1 94:1 95:1 97:1 120:1 153:1 174:1 185:1 197:1 199:1 206:1 
-1 1 2:1 17:1 31:1 35:1 46:1 56:1 64:1 71:1 73:1 82:1 89:1 93:1 94:1 95:1 177:1 185:1 195:1 200:1 206:1 
-1 1 1:1 16:1 31:1 33:1 45:1 56:1 64:1 67:1 75:1 80:1 89:1 91:1 94:1 127:1 174:1 185:1 191:1 196:1 197:1 
-1 1 1:1 16:1 31:1 33:1 49:1 56:1 57:1 64:1 71:1 74:1 82:1 89:1 93:1 94:1 95:1 177:1 189:1 200:1 
-1 1 1:1 17:1 32:1 44:1 56:1 64:1 67:1 77:1 80:1 89:1 93:1 94:1 95:1 97:1 153:1 174:1 185:1 197:1 199:1 
-1 1 1:1 17:1 32:1 47:1 64:1 71:1 72:1 82:1 89:1 93:1 94:1 95:1 127:1 164:1 185:1 196:1 200:1 206:1 
-0 1 2:1 17:1 31:1 32:1 47:1 56:1 62:1 71:1 73:1 82:1 89:1 93:1 94:1 95:1 164:1 185:1 193:1 194:1 195:1 198:1 200:1 
-0 -1 1:1 16:1 31:1 32:1 44:1 56:1 57:1 64:1 69:1 72:1 80:1 89:1 93:1 94:1 95:1 120:1 
-0 -1 1:1 16:1 31:1 33:1 45:1 56:1 57:1 64:1 71:1 76:1 80:1 89:1 91:1 94:1 95:1 
-1 -1 5:1 17:1 37:1 47:1 56:1 57:1 62:1 65:1 76:1 84:1 89:1 93:1 94:1 95:1 
-0 -1 1:1 16:1 31:1 33:1 44:1 56:1 61:1 65:1 72:1 79:1 89:1 93:1 95:1 121:1 
-1 -1 1:1 17:1 33:1 45:1 56:1 57:1 64:1 71:1 76:1 79:1 89:1 93:1 94:1 95:1 
-1 -1 1:1 17:1 33:1 47:1 56:1 57:1 64:1 71:1 72:1 82:1 89:1 93:1 94:1 95:1 120:1 
-1 -1 1:1 16:1 31:1 35:1 45:1 56:1 57:1 64:1 71:1 75:1 83:1 89:1 93:1 94:1 95:1 
-1 -1 2:1 16:1 35:1 45:1 56:1 57:1 64:1 71:1 72:1 80:1 89:1 91:1 94:1 121:1 
-1 -0 2:1 16:1 35:1 45:1 56:1 57:1 64:1 71:1 75:1 79:1 89:1 93:1 94:1 95:1 121:1 135:1 
-1 -1 1:1 17:1 32:1 47:1 56:1 57:1 58:1 71:1 72:1 82:1 89:1 93:1 94:1 95:1 120:1 
-0 -1 1:1 16:1 31:1 32:1 44:1 56:1 57:1 64:1 71:1 73:1 83:1 89:1 93:1 94:1 95:1 120:1 
-1 -1 1:1 17:1 33:1 47:1 56:1 62:1 71:1 73:1 83:1 89:1 93:1 94:1 95:1 149:1 
-1 -0 2:1 16:1 35:1 44:1 56:1 57:1 60:1 71:1 75:1 79:1 89:1 93:1 94:1 95:1 121:1 
-1 -1 2:1 16:1 35:1 45:1 56:1 57:1 64:1 68:1 74:1 83:1 89:1 93:1 94:1 95:1 
-1 -0 2:1 17:1 31:1 32:1 47:1 56:1 57:1 62:1 65:1 73:1 84:1 89:1 93:1 94:1 95:1 
-1 -1 2:1 16:1 32:1 45:1 56:1 57:1 64:1 71:1 73:1 83:1 89:1 93:1 94:1 95:1 
-1 -1 2:1 17:1 31:1 35:1 47:1 56:1 57:1 59:1 71:1 75:1 82:1 89:1 93:1 94:1 95:1 
-1 -0 1:1 16:1 31:1 32:1 45:1 56:1 57:1 64:1 71:1 77:1 80:1 89:1 93:1 94:1 95:1 
-1 -1 2:1 16:1 35:1 44:1 56:1 57:1 64:1 69:1 72:1 79:1 89:1 93:1 94:1 95:1 
-1 -1 1:1 16:1 31:1 33:1 44:1 56:1 57:1 64:1 71:1 73:1 79:1 86:1 93:1 94:1 95:1 120:1 121:1 
-1 -1 1:1 17:1 32:1 47:1 61:1 71:1 77:1 82:1 89:1 93:1 94:1 95:1 106:1 
-1 -1 2:1 17:1 31:1 35:1 47:1 57:1 64:1 71:1 75:1 80:1 89:1 93:1 94:1 95:1 
-0 -1 1:1 17:1 32:1 47:1 56:1 61:1 71:1 72:1 82:1 89:1 93:1 94:1 95:1 120:1 153:1 174:1 185:1 195:1 200:1 
-1 -1 1:1 16:1 31:1 32:1 44:1 56:1 64:1 71:1 77:1 85:1 89:1 93:1 94:1 95:1 
-1 -1 1:1 16:1 31:1 33:1 45:1 56:1 64:1 71:1 73:1 79:1 87:1 93:1 94:1 95:1 120:1 
-1 -1 2:1 17:1 31:1 33:1 47:1 56:1 57:1 62:1 71:1 77:1 82:1 89:1 93:1 94:1 95:1 
-1 -1 1:1 16:1 31:1 33:1 45:1 64:1 71:1 72:1 83:1 89:1 93:1 94:1 95:1 99:1 
-0 -1 1:1 16:1 31:1 33:1 52:1 56:1 57:1 64:1 65:1 76:1 82:1 89:1 93:1 94:1 95:1 
-1 -0 2:1 16:1 35:1 45:1 56:1 57:1 64:1 71:1 73:1 83:1 89:1 93:1 94:1 95:1 213:1 
-1 -1 2:1 16:1 35:1 44:1 56:1 57:1 64:1 71:1 75:1 84:1 89:1 93:1 94:1 95:1 
-1 -1 2:1 16:1 35:1 45:1 64:1 68:1 75:1 80:1 89:1 91:1 94:1 95:1 121:1 
-1 -1 1:1 17:1 32:1 47:1 64:1 71:1 72:1 79:1 89:1 93:1 94:1 95:1 101:1 113:1 120:1 
-1 -1 11:1 17:1 40:1 46:1 56:1 63:1 68:1 75:1 80:1 89:1 93:1 94:1 95:1 
-1 -1 2:1 20:1 35:1 48:1 56:1 57:1 63:1 70:1 74:1 80:1 89:1 93:1 94:1 95:1 
-0 -1 1:1 17:1 32:1 47:1 56:1 64:1 71:1 78:1 82:1 89:1 93:1 94:1 95:1 106:1 150:1 177:1 185:1 195:1 211:1 
-0 -1 1:1 16:1 31:1 32:1 45:1 56:1 57:1 64:1 71:1 72:1 82:1 89:1 93:1 94:1 95:1 120:1 
-1 -1 1:1 16:1 31:1 33:1 44:1 56:1 57:1 64:1 71:1 75:1 79:1 89:1 93:1 94:1 95:1 121:1 
-1 -1 2:1 20:1 35:1 48:1 56:1 57:1 63:1 69:1 75:1 80:1 89:1 91:1 94:1 
-0 -1 1:1 17:1 32:1 47:1 56:1 57:1 58:1 71:1 72:1 79:1 89:1 93:1 94:1 95:1 120:1 
-1 -1 5:1 16:1 36:1 45:1 62:1 71:1 75:1 83:1 89:1 93:1 94:1 95:1 
-0 -1 1:1 16:1 31:1 33:1 45:1 56:1 57:1 64:1 71:1 74:1 81:1 89:1 93:1 94:1 95:1 
-1 -1 5:1 16:1 36:1 44:1 56:1 62:1 71:1 72:1 79:1 89:1 93:1 94:1 95:1 
-1 -0 1:1 16:1 31:1 32:1 44:1 56:1 57:1 63:1 71:1 72:1 79:1 89:1 93:1 94:1 95:1 120:1 121:1 
-1 -1 5:1 16:1 36:1 44:1 56:1 57:1 63:1 71:1 75:1 80:1 89:1 93:1 94:1 95:1 
-1 -1 1:1 17:1 33:1 47:1 56:1 57:1 61:1 71:1 73:1 82:1 86:1 93:1 94:1 95:1 
-1 -1 1:1 17:1 33:1 44:1 56:1 62:1 71:1 72:1 80:1 87:1 93:1 94:1 95:1 
-1 -1 2:1 17:1 31:1 34:1 46:1 56:1 57:1 64:1 71:1 75:1 84:1 89:1 93:1 94:1 95:1 
-1 -1 5:1 17:1 33:1 47:1 56:1 57:1 64:1 71:1 75:1 84:1 89:1 93:1 95:1 
-1 -1 2:1 16:1 35:1 45:1 56:1 64:1 71:1 75:1 82:1 89:1 90:1 94:1 95:1 177:1 185:1 
-0 -1 1:1 17:1 33:1 47:1 56:1 57:1 64:1 71:1 74:1 81:1 89:1 93:1 94:1 95:1 120:1 
-0 -1 5:1 16:1 37:1 45:1 56:1 57:1 63:1 71:1 73:1 81:1 89:1 93:1 94:1 95:1 
-1 -1 2:1 16:1 34:1 52:1 56:1 57:1 63:1 65:1 75:1 82:1 89:1 93:1 94:1 95:1 
-1 -1 2:1 16:1 35:1 45:1 56:1 57:1 62:1 67:1 73:1 82:1 87:1 93:1 95:1 
-1 -1 1:1 16:1 31:1 33:1 44:1 56:1 60:1 71:1 73:1 85:1 89:1 93:1 94:1 149:1 
-1 -1 2:1 17:1 31:1 34:1 47:1 56:1 57:1 63:1 71:1 72:1 82:1 89:1 93:1 94:1 95:1 
-1 -1 2:1 17:1 31:1 35:1 47:1 56:1 57:1 64:1 71:1 72:1 83:1 89:1 93:1 94:1 95:1 
-1 -1 2:1 16:1 35:1 44:1 57:1 63:1 71:1 72:1 79:1 89:1 93:1 94:1 95:1 121:1 
-1 -1 2:1 16:1 35:1 45:1 56:1 57:1 64:1 71:1 75:1 79:1 89:1 93:1 94:1 95:1 
-1 -1 2:1 16:1 35:1 44:1 56:1 57:1 64:1 71:1 73:1 84:1 89:1 93:1 94:1 95:1 
-1 -1 1:1 20:1 33:1 47:1 56:1 57:1 64:1 70:1 74:1 82:1 89:1 93:1 94:1 95:1 
-1 -1 1:1 16:1 31:1 33:1 45:1 63:1 71:1 76:1 79:1 89:1 93:1 94:1 95:1 121:1 
-0 -1 1:1 16:1 31:1 32:1 44:1 56:1 57:1 64:1 71:1 72:1 79:1 89:1 93:1 94:1 95:1 
-1 -0 1:1 16:1 31:1 33:1 45:1 56:1 64:1 71:1 76:1 80:1 89:1 93:1 94:1 95:1 120:1 205:1 
-1 -1 1:1 16:1 31:1 33:1 44:1 64:1 65:1 76:1 79:1 89:1 93:1 94:1 95:1 
-1 -1 1:1 16:1 31:1 33:1 44:1 56:1 64:1 71:1 73:1 84:1 89:1 93:1 94:1 95:1 120:1 213:1 
-1 -1 2:1 16:1 35:1 45:1 56:1 57:1 61:1 71:1 73:1 81:1 89:1 93:1 94:1 95:1 
-1 -1 1:1 17:1 32:1 47:1 56:1 64:1 71:1 72:1 82:1 89:1 93:1 94:1 95:1 120:1 130:1 
-1 -1 2:1 26:1 35:1 52:1 56:1 57:1 64:1 70:1 75:1 82:1 89:1 93:1 94:1 95:1 
-0 -1 1:1 17:1 32:1 47:1 56:1 64:1 71:1 72:1 82:1 89:1 93:1 94:1 95:1 120:1 176:1 185:1 195:1 198:1 200:1 203:1 
-1 -1 1:1 16:1 31:1 33:1 44:1 64:1 71:1 76:1 84:1 89:1 93:1 94:1 95:1 207:1 
-1 -1 1:1 17:1 33:1 47:1 56:1 57:1 58:1 71:1 73:1 82:1 89:1 93:1 94:1 95:1 
-0 -1 1:1 17:1 32:1 47:1 64:1 68:1 72:1 79:1 89:1 93:1 94:1 95:1 101:1 113:1 120:1 211:1 
-1 -1 1:1 17:1 32:1 44:1 56:1 61:1 69:1 77:1 80:1 89:1 93:1 94:1 95:1 
-0 -1 1:1 17:1 32:1 47:1 56:1 57:1 58:1 68:1 72:1 79:1 89:1 93:1 94:1 95:1 120:1 
-1 -1 1:1 16:1 31:1 33:1 45:1 64:1 71:1 76:1 83:1 89:1 93:1 94:1 95:1 120:1 
-1 -1 1:1 16:1 31:1 33:1 45:1 56:1 64:1 71:1 73:1 83:1 86:1 93:1 94:1 95:1 120:1 
-1 -1 1:1 16:1 31:1 33:1 45:1 56:1 64:1 71:1 75:1 83:1 89:1 93:1 94:1 95:1 
-0 -1 1:1 16:1 31:1 32:1 44:1 56:1 57:1 58:1 71:1 72:1 82:1 89:1 93:1 94:1 95:1 120:1 
-1 -0 1:1 16:1 31:1 33:1 45:1 56:1 57:1 60:1 68:1 76:1 83:1 89:1 93:1 94:1 95:1 120:1 121:1 
-1 -1 1:1 16:1 31:1 32:1 45:1 57:1 64:1 71:1 78:1 80:1 89:1 91:1 94:1 
-1 -1 2:1 16:1 35:1 45:1 56:1 64:1 67:1 75:1 84:1 89:1 93:1 94:1 95:1 
-1 -1 1:1 17:1 33:1 44:1 56:1 57:1 64:1 71:1 76:1 80:1 89:1 93:1 94:1 95:1 
-0 -1 1:1 16:1 31:1 33:1 44:1 57:1 62:1 71:1 76:1 84:1 89:1 93:1 94:1 95:1 
-1 -1 1:1 17:1 33:1 47:1 56:1 64:1 71:1 73:1 82:1 87:1 93:1 95:1 
-1 -1 1:1 20:1 33:1 48:1 56:1 57:1 61:1 69:1 76:1 82:1 89:1 93:1 94:1 95:1 
-0 -1 1:1 16:1 31:1 32:1 45:1 56:1 61:1 71:1 72:1 83:1 89:1 93:1 94:1 95:1 120:1 
-1 -1 5:1 16:1 36:1 45:1 56:1 57:1 63:1 71:1 75:1 83:1 89:1 93:1 94:1 95:1 
-1 -1 1:1 17:1 33:1 47:1 62:1 70:1 73:1 82:1 87:1 93:1 94:1 95:1 120:1 219:1 
-1 -1 1:1 17:1 33:1 47:1 56:1 57:1 63:1 71:1 76:1 82:1 89:1 93:1 94:1 95:1 
-1 -1 1:1 17:1 33:1 47:1 56:1 57:1 64:1 69:1 76:1 80:1 89:1 93:1 94:1 95:1 
-1 -1 1:1 17:1 32:1 47:1 56:1 57:1 58:1 71:1 72:1 82:1 89:1 93:1 94:1 95:1 120:1 
-1 -1 2:1 17:1 31:1 35:1 47:1 56:1 57:1 64:1 71:1 75:1 84:1 89:1 93:1 94:1 95:1 
-1 -1 1:1 16:1 31:1 32:1 45:1 56:1 58:1 71:1 72:1 80:1 89:1 93:1 94:1 120:1 
-1 -1 5:1 17:1 32:1 44:1 56:1 64:1 71:1 75:1 80:1 89:1 93:1 94:1 95:1 
-1 -1 1:1 17:1 32:1 47:1 56:1 57:1 62:1 70:1 72:1 83:1 89:1 93:1 94:1 95:1 
-1 -1 1:1 16:1 31:1 32:1 44:1 56:1 57:1 61:1 71:1 72:1 79:1 89:1 93:1 94:1 95:1 120:1 
-0 -1 1:1 16:1 31:1 33:1 44:1 56:1 57:1 58:1 71:1 72:1 79:1 89:1 93:1 94:1 
-0 -1 1:1 16:1 31:1 33:1 45:1 56:1 57:1 61:1 67:1 75:1 80:1 89:1 91:1 94:1 95:1 
-1 -1 6:1 17:1 38:1 45:1 56:1 63:1 66:1 75:1 83:1 89:1 93:1 94:1 95:1 
-1 -1 1:1 17:1 32:1 44:1 56:1 57:1 64:1 69:1 72:1 80:1 89:1 93:1 94:1 95:1 
-1 -1 2:1 16:1 34:1 45:1 56:1 57:1 64:1 71:1 75:1 80:1 89:1 91:1 94:1 95:1 
-1 -1 6:1 17:1 38:1 44:1 56:1 57:1 63:1 67:1 75:1 80:1 89:1 93:1 94:1 95:1 
-1 -1 1:1 17:1 32:1 47:1 56:1 57:1 64:1 71:1 72:1 82:1 89:1 93:1 94:1 95:1 
-0 -1 1:1 16:1 31:1 33:1 45:1 57:1 62:1 69:1 74:1 82:1 89:1 93:1 94:1 95:1 121:1 
-1 -0 5:1 16:1 36:1 45:1 56:1 57:1 62:1 71:1 73:1 80:1 89:1 93:1 94:1 95:1 
-1 -0 2:1 16:1 35:1 44:1 56:1 57:1 64:1 65:1 75:1 79:1 89:1 93:1 94:1 95:1 121:1 
-1 -1 2:1 16:1 32:1 45:1 56:1 57:1 63:1 69:1 73:1 79:1 89:1 93:1 94:1 95:1 
-1 -1 1:1 16:1 31:1 33:1 45:1 56:1 57:1 64:1 71:1 74:1 81:1 89:1 93:1 94:1 95:1 
-1 -0 1:1 16:1 31:1 32:1 44:1 56:1 57:1 64:1 71:1 78:1 80:1 89:1 93:1 94:1 95:1 
-1 -1 1:1 17:1 34:1 44:1 56:1 57:1 64:1 71:1 75:1 80:1 89:1 93:1 94:1 95:1 
-1 -1 5:1 16:1 32:1 44:1 56:1 57:1 64:1 71:1 75:1 80:1 89:1 93:1 94:1 95:1 
-1 -1 1:1 26:1 33:1 52:1 56:1 57:1 64:1 70:1 72:1 82:1 89:1 93:1 94:1 95:1 
-1 -1 1:1 17:1 33:1 46:1 56:1 57:1 64:1 71:1 76:1 82:1 89:1 93:1 94:1 95:1 
-1 -1 2:1 16:1 35:1 45:1 56:1 64:1 71:1 73:1 83:1 89:1 93:1 94:1 95:1 
-1 -1 2:1 17:1 31:1 35:1 47:1 56:1 64:1 71:1 72:1 82:1 89:1 93:1 94:1 95:1 135:1 176:1 185:1 200:1 201:1 
-1 -1 1:1 17:1 32:1 47:1 56:1 57:1 58:1 67:1 72:1 82:1 89:1 93:1 94:1 95:1 120:1 
-1 -1 1:1 16:1 31:1 32:1 45:1 56:1 61:1 68:1 73:1 83:1 89:1 93:1 94:1 95:1 
-1 -1 2:1 16:1 34:1 44:1 64:1 71:1 75:1 79:1 89:1 93:1 94:1 95:1 
-1 -1 2:1 17:1 31:1 35:1 47:1 56:1 57:1 64:1 71:1 75:1 82:1 89:1 93:1 94:1 95:1 
-1 -1 1:1 17:1 32:1 47:1 61:1 71:1 72:1 79:1 89:1 93:1 94:1 95:1 101:1 113:1 
-1 -1 1:1 17:1 33:1 47:1 56:1 57:1 64:1 71:1 72:1 85:1 89:1 93:1 94:1 95:1 
-1 -1 1:1 17:1 32:1 47:1 56:1 58:1 69:1 72:1 80:1 89:1 91:1 94:1 95:1 120:1 
-1 -1 2:1 16:1 35:1 45:1 56:1 64:1 68:1 72:1 80:1 89:1 93:1 94:1 95:1 
-1 -1 1:1 17:1 33:1 44:1 56:1 64:1 71:1 73:1 80:1 87:1 93:1 94:1 95:1 
-1 -1 2:1 17:1 31:1 32:1 47:1 56:1 57:1 62:1 71:1 73:1 80:1 89:1 93:1 94:1 95:1 149:1 
-1 -1 1:1 17:1 32:1 47:1 56:1 57:1 64:1 71:1 72:1 82:1 89:1 93:1 94:1 95:1 127:1 205:1 
-0 -1 1:1 17:1 33:1 47:1 56:1 64:1 71:1 77:1 84:1 89:1 93:1 94:1 95:1 120:1 177:1 185:1 195:1 
