solver_type L2R_L2LOSS_SVC_DUAL
nr_class 3
label 3 1 2
nr_feature 351
bias 1.000000000000000
w
-0.2728943237840388 0.05332027720208655 0.4049140430298732 
0 0 0 
0 0 0 
0 0 0 
-1.090062969683234 -1.387778780781446e-17 1.367404611766489 
0 0 0 
0 0 0 
0 0 0 
0 0 0 
0 0 0 
0 0 0 
0 0 0 
0 0 0 
0 0 0 
0 0 0 
0 0 0 
0.5990556100132229 -0.4372656455631490 -0.5528168453424860 
0.3350116732650350 -0.1720141040229406 -0.2919853590383935 
0.1526595538555043 -0.04830288337761329 -0.1688241495684184 
-0.5307197730653140 0.7845556415412877 -0.2230021593226187 
0 0 0 
0 0 0 
0 0 0 
0 0 0 
0 0 0 
0 0 0 
0 0 0 
0.2435165479169135 -0.1984179756844801 -0.1813051793264130 
0 0 0 
0 0 0 
0 0 0 
0 0 0 
0 0 0 
0 0 0 
0 0 0 
0 0 0 
0 0 0 
0 0 0 
0 0 0 
0 0 0 
0 0 0 
0 0 0 
0 0 0 
0 0 0 
0 0 0 
0 0 0 
0 0 0 
0 0 0 
0 0 0 
0 0 0 
0 0 0 
0 0 0 
0 0 0 
0.2926580523703391 -0.2757559225600098 -0.2269339219507846 
0.5052662693823928 -0.6936839156721825 -0.3239679486604780 
0.1448107801261543 0.1416041862332313 -0.1531244620868590 
0.6140009626333753 -0.4475785132828036 -0.5652469255342735 
0.1899876704031232 -0.07744019528996280 -0.1297850239565098 
0 0 0 
0 0 0 
0 0 0 
0.07916351273862138 -0.1807933216497487 -0.07273425820607678 
-0.2122816635414255 -0.1183501553622189 0.2461165761847934 
0 0 0 
0 0 0 
0.3691783995070377 0 -0.1612378077420341 
0 0 0 
0 0 0 
0 0 0 
0 0 0 
0 0 0 
0 0 0 
0 0 0 
0 0 0 
0 0 0 
0 0 0 
0 0 0 
0.1667016210227427 -0.1891523751315025 -0.1197751396782918 
0.2058897290508557 -0.3234940470619523 -0.2341002126330297 
-0.04256880272437995 -0.1342935689472122 0.03166600200445015 
0.02712797360516028 -0.01712850269133706 -0.1611966257700503 
0 0 0 
0 0 0 
0 0 0 
0 0 0 
0 0 0 
0 0 0 
0 0 0 
0.08269571630935522 0.2705417985250774 -0.2045687058044901 
0 0 0 
0 0 0 
0 0 0 
0 0 0 
0 0 0 
0 0 0 
0 0 0 
0 0 0 
0 0 0 
0 0 0 
0 0 0 
0 0 0 
0 0 0 
0 0 0 
0 0 0 
0 0 0 
0 0 0 
0 0 0 
0 0 0 
0 0 0 
0 0 0 
0 0 0 
0 0 0 
0 0 0 
0 0 0 
0.1061682903249880 0.09672870512411538 -0.1383199862828037 
0.2211444279347888 -0.3049620404668184 -0.08752518960339488 
0.1141049581249086 -0.2067062138851950 -0.1593798462830196 
0.09717201083830096 -0.01032101682042477 -0.07188685216438810 
-0.03120611975749634 -0.2530483121093208 0.08826872598746731 
0 0 0 
0 0 0 
0 0 0 
-0.1773601275188689 0.3754379531389409 0.1300727741598033 
-0.1109669788887591 0.1114970129176840 0.2008542018788735 
0.03429248899444242 -0.1151075697009621 0.09963830469051739 
0.2948753310257689 -0.1938794164996642 -0.2310320958730556 
0.07381489560004013 -0.2730894233933832 0.1318489878580691 
0.2427222753561305 -0.009980547534917398 -0.1987300065076085 
0.4243450652497453 -0.2183301035667039 -0.4760254597235130 
0.9078888805795204 -0.1051854050201507 -0.7507506705227588 
0 0 0 
0.4073762178924877 -0.1984179756844801 -0.3211417071984349 
0 0 0 
0 0 0 
0 0 0 
0.2108258214393464 -0.4631968224791489 -0.05269366969862691 
0.3118624321566031 -0.4187282830463041 -0.1707413553729337 
0.1598162374018529 -0.3447412078309839 0.1019250514847258 
0.1596457130101481 -0.1301749108695161 0.03440212396423924 
0.3347143879706359 -0.1388862086012444 -0.4250525280243613 
0.1163244850179092 -0.1807141707667931 -0.1183149771786731 
0.3691783995070375 -0.2972479420812394 -0.1612378077420341 
0 0 0 
0.2516984081547466 -0.004916718950705085 -0.3243452826938488 
0 0 0 
0 0 0 
0 0 0 
0.03228533195064790 0.006953154620287240 -0.0002292439606638675 
0.3309139454452745 -0.3753297526247070 -0.2653966369142746 
0.5656586507884560 -0.8441141566214490 -0.4822464372469046 
0.5037322227232222 -1.734723475976807e-18 -0.4928248457588199 
0.1374981731364413 -0.3223680716194274 -0.1337068205234491 
0.005798408687219623 -0.07804948501990540 0.006970175947710120 
0.1617479757032750 -0.1048801161661838 -0.2268617650304073 
-0.1519025984345233 0.02755360503345955 0.1990543861933253 
-0.03924277917063439 -0.04912082608302941 0.08494198642767653 
0.5910098955223400 -0.9888474646888615 -0.3671891645958144 
0.2989616696964567 -5.204170427930421e-18 -9.540979117872439e-18 
0.09407454670303482 -0.5103760750423161 -0.02690753866636814 
0.1542930903854417 0.04172489513795406 -0.4255291945027242 
0.08742108604226500 0.02901796084495058 -0.2063902137483557 
-0.1563507154910706 0.2727081772189542 0.08598085658179563 
0.1138804805749935 -0.2152065439472154 -0.1046380650594041 
-0.2304845159101520 0.3853608809795370 0.1051182939988665 
-0.2086801200107798 0.2240752607015523 0.1087429319384667 
-0.1929636075835759 -0.5216934410790988 0.2536234184835394 
-0.2855538224244479 0.5052920596659368 0.1318960475215613 
0.02381020426335409 -0.6302470751250867 -0.07476048034304503 
0.2399374161816461 -0.4952910744585048 -0.2131634605181203 
0.2182336128227208 -0.08326909171605293 -0.3376545231887549 
-0.01638920747596378 0.09519577005404474 -0.08605955344737286 
-0.1548044717022181 0.1288079618656921 0.1043588694864943 
-0.09519938669599107 -0.5054077357648543 0.2697963964812174 
-0.2007147262930163 0.09032381110327907 0.2097069902803055 
0.4899765327251333 -0.3571112908862278 -0.6906842751787220 
-0.1050427645430972 0.3721874094484908 0.1619757479464685 
0.2894469710311902 -0.5992729393825427 -0.4343701859626863 
0.003868846917864642 -0.3311305598665696 -0.09017977481476545 
-0.003266594994909125 -0.04352380071139934 -0.3853233354557051 
-0.3549021821287125 -0.1261253840223736 0.5506866307693890 
-0.08140090245548004 -0.1149927364313721 -0.1013812926064040 
-0.2148035379816432 0.2344215420650736 0.07694835432303404 
0.4008617167183310 -0.7857474942361696 -0.6225497940249769 
0.1315031537572298 -0.2553454890540475 -1.040834085586084e-17 
-0.1102883854478756 0.03139442766302794 0.08032542930764560 
-0.08790971754127541 -0.1115673797544279 0.002125319207547447 
0.01916148445869427 0.1464209267118409 -0.1880863752844478 
0.2758049462696063 -0.5050490538584506 -0.1729276352417875 
-0.7766475300002681 0 0.7366085833107189 
-0.3187164364595564 1.387778780781446e-17 0.4875886981403662 
0 -0.1459016943004474 3.469446951953614e-18 
0.05651308550348754 0 0 
0.2105749233282085 0.1100365321223872 -0.4261405277747967 
0.3650079475605468 -0.3314219718559804 -0.2003564853527921 
0.1546362603225869 -0.6739315175626356 0.2404013955944941 
0.09449182139680626 -0.05785342184785079 0.07610354463722588 
-0.1316076186329616 -0.1015248569123943 2.585822181377928e-17 
-0.8498030593686126 -0.3352683494171262 1.046517547896308 
0.3406679770761915 -0.6646134791999666 -0.3471210807198863 
0.4232296868372840 -0.2734047272976128 -0.4399150289943231 
0 0 0 
-1.387778780781446e-17 -0.008125894427166665 0 
0.05478155267633112 0 0 
0 0 0 
0.6961635637121705 -0.4474585445747275 -0.3963682314100505 
0 0 0 
0.01194835908331029 -0.3198494274893833 0 
0 0 0 
-0.04224780141147434 0.1890127509249386 -0.001410420648222496 
-0.2033968397393227 0.2730108465532764 0.2251887604530282 
0 0 0 
0 0 0 
0 0 0 
0 0 0 
0 0 0 
0 0 0 
0 0 0 
-0.01566947965035104 -0.1463880716566995 0.05710726712507055 
0 0 0 
0.6777941354908352 -0.1266805765930183 -0.6363239867474938 
0.2883827056602970 -0.4559265168746481 -0.2627245474879637 
0 0 0 
0 0 0 
-0.1103446619696211 -0.06366083308074953 0.2146219032243928 
0.02596966218776902 -0.1061223425132571 -0.08466998846495319 
-0.1621234271968085 -0.4094723138176203 0.2339149772632040 
0 0 0 
-0.01963012168979858 -0.06302432898890750 0.06418790081559297 
0.1545346535084941 -0.02071917957665051 -1.734723475976807e-18 
0 0 0 
0 0 0 
0.07369054567683820 -0.2260363545655354 -0.04034598671176791 
-0.2253132671389238 -0.1272326591901472 0.3849900768636427 
0 0 0 
0.1559635466906025 -0.1149808611148816 -0.1714561768768930 
-0.06946578728684732 0.02187876068504885 0.1089668231421155 
0 0 0 
0 0 0 
0 0 0 
0 0 0 
-0.3865253637560168 0.7330317390295958 -5.551115123125783e-17 
0 0 0 
-0.1621234271968085 -0.4094723138176203 0.2339149772632040 
-0.01566947965035104 -0.1463880716566995 0.05710726712507055 
0.6192773789240378 -0.2119250525340219 -0.4884822182042512 
0.02891304106737310 -0.2233529549331931 0.07055384521748550 
0.1559635466906025 -0.1149808611148816 -0.1714561768768930 
0.6777941354908352 -0.1266805765930183 -0.6363239867474938 
-0.1103446619696211 -0.06366083308074953 0.2146219032243928 
0.2155148607449101 -0.1750223170046525 -0.3075293021874965 
0.1253643573520743 -0.03298458181863981 -0.03750421186409843 
0.05478155267633113 -0.2789601490965242 0 
0 0 0 
0.04868735990176360 0.1898649642125828 -0.4421791888047655 
-0.9858810330982933 3.469446951953614e-18 1.065929908760054 
0.07369054567683820 -0.2260363545655354 -0.04034598671176791 
0.08179454729530955 -0.4328448129356530 8.673617379884035e-18 
0.02596966218776902 -0.1061223425132571 -0.08466998846495319 
0 0 0 
-0.01963012168979858 -0.06302432898890750 0.06418790081559297 
0.1545346535084941 -0.02071917957665051 -1.734723475976807e-18 
0.1902889660358731 -6.938893903907228e-18 -0.04765913856837212 
-0.2253132671389238 -0.1272326591901472 0.3849900768636427 
0.1016331758543080 -0.09767503113885571 -2.428612866367530e-17 
-0.5092323245818627 -0.1078705962916330 0.7826109802532906 
-0.06946578728684732 0.02187876068504885 0.1089668231421155 
0 0 0 
0.2883827056602970 -0.4559265168746481 -0.2627245474879637 
-0.2719100877014565 -0.01104853237458873 0.3600207768876659 
0 0 0 
0 0 0 
0 0 0 
0 0 0 
0 0 0 
0 0 0 
0 0 0 
0.7771354345730883 -0.5676258758217944 -0.9385978718454507 
-0.9728752012881980 1.180029936543673 0 
0.1707283797323850 0.09548002910713378 -0.3082808722192658 
0.1400909809438347 -0.4631975834292229 -0.06548245875055278 
0.4608216545778684 3.469446951953614e-18 -0.4695494259295208 
0.1710281071566116 -0.09863414111428083 -0.2411755221636262 
0 0 0 
-0.03377989464178562 0.04653681100635214 0.08030106647157520 
0 0 0 
0 0 0 
0.8820765569038052 -0.2119250525340220 -0.9018687439749402 
0.3783701341047427 -0.2986024611246392 -0.4398793592900984 
0 0 0 
0 0 0 
0 0 0 
0 0 0 
-0.2779577570240800 0.9465315409902079 -0.2827521736457315 
0.5164944827925257 -0.1073137390897745 -0.5516588608381091 
0.1707283797323850 0.09548002910713378 -0.3082808722192658 
0.3128526712812113 0.1722802705046980 -0.7249794768835427 
0.4022439430485334 -0.3322935990660709 -0.3906853708891455 
0.5634628046135411 -0.8060393168941623 -0.4054313577898405 
0.2310519678597504 -0.1973463536724747 -0.07801103695466058 
0.7770004706069141 -0.3570143922163743 -0.8207504796610751 
0.1772281134348525 0.3382459515568736 -0.9664577059164448 
0.6383857297800535 -0.2771223202502415 -0.7483809878169803 
0.4229278298352222 -0.3466555929917475 -0.4045405445166350 
0.2232289019377876 -0.4313126750060273 -0.1170900469636808 
0 0 0 
0.6291472060503991 -0.5643366228458013 -0.6621866361129105 
0 0 0 
0.3309139454452745 -0.3753297526247070 -0.2653966369142746 
0 0 0 
0.3345659681215394 -0.5241910672543519 -0.4648424683323524 
0.1027533310838121 0.1585945359089329 -0.3009958801524630 
-0.1561645620032419 -0.4735156693602550 0.4645813851312016 
0.1825095061134953 0.4675169810142660 -0.4234188560199666 
-0.09538145621727812 0.1302676142587478 0.03786766865977937 
-0.5567442350224745 0.02013885745201935 0.6268606083401347 
0.3083299896626532 -0.04637164902994359 -0.2739223561243176 
0.1765739498232106 -0.2837831444992771 -0.1372804812307288 
0.6167257556963330 -0.3912240252465967 -0.5373750172815950 
0.1087160710950711 -0.08491799187245455 -0.03611035073227784 
-0.05964280827420751 0.1544021036012614 0.01872213134357480 
0.01532545844507366 0.04350850971703268 -0.2804400440727287 
0.1082893893001614 -0.8101044785116582 -0.02681937090369068 
-0.2751090825013139 -0.2601911380781328 0.5323695334857239 
0.3581717651468274 -0.1321665036115323 -0.8269344272857617 
0.1660889635135083 0.03205825252543994 -0.7074778397611552 
-0.7205342455062563 0.6767961175008677 0.3350547920137801 
0.05238530503894599 -0.3148225051164978 0.1685137332101272 
0.07726159695976231 0.1569775173898469 -0.5537724301591894 
-0.2632270117677528 0.6820141380339423 -0.08952492260980575 
-0.1426505699091890 0.1074789183739148 0.1642340269368480 
0.8605813725851954 -0.2374499332124499 -0.9603472149902972 
0.1872987837864774 -0.06310746948370898 -0.3604483646768720 
0.1482294297205279 -0.5168946411961183 -0.04789191892374351 
0.1066153659522904 -0.2098446701827623 0.03113043604335618 
-0.09642294344993879 -0.1847716352105706 0.4057173280027488 
-0.1521702057831784 0.4758356173619269 -0.01790283830295432 
0.4109437644272157 -0.3624365880101367 -0.3604031270999761 
-0.03198676683896556 0.2860787989569774 -0.1751689599799868 
-0.1499862237191182 0.4556627155393320 -0.2945962852283636 
-0.6614502707944901 0.03700521449176621 0.7177075996270537 
0 0 0 
0 0 0 
0 0 0 
-0.1285906465922813 0.1095120128538257 0.1798029556410012 
0.5733792447980146 -0.2141310341696365 -0.4928168574632916 
-0.06355881806894442 0.3223857329460483 -0.1072591669701073 
0 0 0 
0 0 0 
0.08644718165319899 -8.673617379884035e-18 -0.02353322273011839 
0.2466694636132467 0 -0.3417045949280980 
0 0 0 
-1.734723475976807e-18 0 -0.1609230336396429 
