solver_type L2R_L2LOSS_SVC_DUAL
nr_class 3
label 3 1 2
nr_feature 214
bias 1.000000000000000
w
0.2628305020369183 -0.1763092430077011 -0.2569929015216355 
0.1720138203941215 -0.08982721194080254 -0.1956723849282970 
0.3194922583765641 -0.03890033449561939 -0.5009921165374668 
0.2077367579019749 -0.1161562263375870 -0.2163535662929564 
-0.02257032624843083 0.09689256806930586 -0.06754035326644150 
0.1370498320075572 -0.02221893715700265 -0.2717565250434971 
0.1021560255244596 -2.145339471515174e-05 -0.05539217787295082 
0 0 0 
0.4334216008956220 -0.1415893287994615 -0.4231495681528867 
0 0 0 
0 0 0 
0 0 0 
0.1562475173682603 -0.2949743505743528 -0.05391858974974496 
0.2106470968178524 -0.2679551518593427 -0.1964781298218751 
0.03305871170143605 -0.3150465672956541 0.1690626104322790 
0.05151455722824205 -0.1970896141647828 0.08715483069718857 
0.1273680227854119 0.01107417088526862 -0.2175468112513479 
0.04436692796890504 -0.1183353953814057 -0.04579460936331046 
0.5738115150712005 -0.2476665153715510 -0.2484690050012807 
0 0 0 
0.1498168443732788 0.05708640999413508 -0.2733216530745981 
0 0 0 
0 0 0 
0 0 0 
0.05486131120176033 -0.006682535095329748 -0.06761391205306891 
0.2955317965203113 -0.3606423237162248 -0.2461256897789522 
-0.09084360053743873 0.1049515308757036 0.06584106508715087 
-0.07965561553283047 0.1335024494682837 0.008264306987968796 
-0.04731333229525461 -0.4199983416690402 0.1872068792192474 
-0.1410213243027538 0.2156149638377963 0.07087457867687871 
0.1310943895486959 -0.6923181295268888 -0.1375192575822581 
0.05546606280590298 0.06766636805961440 -0.1215620287675859 
0.1026851810254794 0.06606754005592064 -0.1854358205828829 
0.01150699477824685 -0.01063336884424950 -0.0004848819834578112 
-0.1428811500398377 0.09485466927077045 0.1775347529070129 
-0.1204727771340139 -0.2785914747221245 0.3512658468468076 
-0.1542098982302062 0.08596286527594561 0.1837331776679700 
0.3741517625509816 -0.09529717643422173 -0.5810946922160054 
-0.06865561008673915 0.1264345561258729 0.1332819416088721 
0.2757960045511614 -0.3938178134792666 -0.2544225895168075 
0.03881687887478712 -0.08336646284658086 -0.07835175117708510 
0.1022371907845553 -0.1261513243644607 -0.3440507627751661 
-0.3118811761667364 -0.1500039908474952 0.4926120411620587 
0.1012388672191977 -0.1649918408400724 -0.1825398041712904 
-0.1583069494467558 0.1302684584718459 0.1442020656474226 
0.2475653734634510 -0.3600987160382178 -0.3203687612587255 
0.2279279102148562 -0.2706921115162461 -1.040834085586084e-17 
-0.1419510078419606 0.02943462627534389 0.1859802509256960 
0.02151715698931733 -0.08315099045263726 -0.1414376791939477 
0.01662800030553238 0.06517061675437431 -0.1800727159518263 
0.1279096364000919 -0.2170186352382877 -0.0006654442235850475 
-0.6593507676389891 -0.08940253786491964 0.7311505631890700 
-0.2416142106549541 -0.09648286959184875 0.4042448820065004 
0.02512719015041868 -0.1267484047441786 3.469446951953614e-18 
0.1395558731354843 -6.938893903907228e-18 1.734723475976807e-18 
0.1463535498947155 0.02409514090418356 -0.4462992441580476 
0.4672998370376137 -0.1411292261369461 -0.3660711015623513 
0.1484558125362432 -0.6066957834051292 0.2124626400156433 
0.08283216681740968 -0.05873396191188916 -0.01510201827770099 
-0.1790192056823114 0.1391979681411684 -0.06097885703969763 
-0.9227965778098723 -0.2152706340941463 1.052287946728478 
0.3306504736211136 -0.3295699183927282 -0.3770346084455303 
0.4363405656599914 -0.2526946852277700 -0.4698478267196085 
0 0 0 
8.673617379884035e-18 0 0 
0 0 0 
0 0 0 
0.4838354371699659 -0.2556816859415996 -0.1934507028628811 
0 0 0 
0.03849168454088070 -0.2869614601308365 0 
-6.938893903907228e-18 -2.602085213965211e-18 -4.336808689942018e-18 
0.02093645486600223 0.05390362117913462 -0.05672696258114986 
-0.09308753961163720 0.04337218790835295 0.1648892413543191 
0 0 0 
0 0 0 
0 0 0 
0 0 0 
0 0 0 
0 0 0 
0 0 0 
0.01576452289315776 -0.1650106386267084 0.03322326774896160 
0 0 0 
0.5669745877264878 -0.06850341018215667 -0.5655665140595912 
0.1908253579861809 -0.1865697090180040 -0.1910989052527759 
0 0 0 
0 0 0 
-0.1024594458387169 -0.06297771356080539 0.2223547134871644 
0.005048290174309397 0.02087742428305629 -0.05713544945767722 
-0.1284524639499280 -0.4405566575452978 0.1903125819290134 
0 0 0 
-0.07023485478380342 -0.07685585404474124 0.1306527550092927 
0.1383414805222086 -0.0004755549693725427 -0.01448090239510537 
0 0 0 
0 0 0 
0.08243867620009283 -0.1778832695692264 -0.03717765633391348 
-0.1833295014263207 -0.01957728464096614 0.2973482493750614 
0 0 0 
0.1975696021315825 -0.1602667447330854 -0.1683581736519298 
-0.03156213420118986 0.02543805944424563 0.1056253567827111 
0 0 0 
0 0 0 
0 0 0 
0 0 0 
-0.1698118386984045 0.3837251191346963 -0.03683618132970212 
0 0 0 
-0.1284524639499280 -0.4405566575452978 0.1903125819290134 
0.01576452289315776 -0.1650106386267084 0.03322326774896160 
0.5408172595962439 -0.09435615561342454 -0.4111972214113429 
-0.1521359574850669 0.06001677723831073 0.2524903231199540 
0.1975696021315825 -0.1602667447330854 -0.1683581736519298 
0.5669745877264878 -0.06850341018215667 -0.5655665140595912 
-0.1024594458387169 -0.06297771356080539 0.2223547134871644 
0.09697077169963090 -0.1492828408539669 -0.1210115186390686 
0.1898745716976883 -1.734723475976807e-18 -0.2413498790231695 
0.2550418056677571 -0.1176049177858569 0 
0 0 0 
-0.03030176294197783 0.3175984730787836 -0.3089700438953807 
-1.113905142613860 0 1.204239860283160 
0.08243867620009283 -0.1778832695692264 -0.03717765633391348 
0.007668819892991408 -0.1171019470917048 -6.938893903907228e-18 
0.005048290174309397 0.02087742428305629 -0.05713544945767722 
0 0 0 
-0.07023485478380342 -0.07685585404474124 0.1306527550092927 
0.1383414805222086 -0.0004755549693725427 -0.01448090239510537 
0.1843529835716307 -0.007331881870498394 -0.09990998441225364 
-0.1833295014263207 -0.01957728464096614 0.2973482493750614 
0.02834257705194370 -0.1504821159592321 -3.469446951953614e-18 
-0.3363189133807915 -0.1591031179791904 0.6284010893932984 
-0.03156213420118986 0.02543805944424563 0.1056253567827111 
0 0 0 
0.1908253579861809 -0.1865697090180040 -0.1910989052527759 
-0.1909977947917377 0.007387368973731896 0.3165642857434853 
0 -8.673617379884035e-19 0 
0 0 0 
0 0 0 
0 0 0 
0 0 0 
0 0 0 
0 0 0 
0.6384731085963938 -0.2144803085163908 -0.8349814122264203 
-1.016677594604084 1.256450946430315 0 
0.1514010018395325 0.07943187764032181 -0.2944340505157113 
0.2226094180426449 -0.2373302294856808 -0.1268141739923155 
0.3916266247551240 -0.08065588698363566 -0.3795757786195116 
0.1339288179838588 -0.03096207850317182 -0.1461383760188025 
0 0 0 
0.04717733030035042 -0.03334378855725408 0.009010555533503953 
0 0 0 
0 0 0 
0.8009196257029016 -0.2679984371288857 -0.8337370075644741 
0.2933074249778790 -0.09575699413897715 -0.2886500921291269 
0 0 0 
0 0 0 
0 0 0 
0 0 0 
-0.2530751419641056 0.7228170278899609 -0.2651578105729097 
0.4401788137339580 -0.2255670063287820 -0.5085239405623918 
0.1514010018395325 0.07943187764032181 -0.2944340505157113 
0.2155635643739381 0.1005307475051133 -0.6887088106158755 
0.3666341562599233 -0.1950792792819356 -0.4133694667588264 
0.3833761194762065 -0.4008705934615046 -0.2421947583907176 
0.1898486192251288 -0.2190413022935485 -0.08159773386890094 
0.6388137062251212 -0.2101852284725871 -0.7428843900045088 
0.2084978070942625 0.1409830249053487 -0.9919176212335903 
0.5438716519870208 -0.2067919563246924 -0.6447372542061401 
0.3548051463229444 -0.1779579777337989 -0.3283602338898111 
0.2320170070562156 -0.5901328622840198 -0.05593188762723850 
0 0 0 
0.5370784663728136 -0.6213654520102527 -0.5129197004268247 
0 0 0 
0.2955317965203113 -0.3606423237162248 -0.2461256897789522 
0 0 0 
0.4340868309850122 -0.2018436608762279 -0.5764646446306717 
0.2348890293112609 0.02561704829775447 -0.4409804317158741 
0.008943542880053664 -0.1820687199673295 0.2277636407527923 
0.1335257696288085 0.2239697671147452 -0.3658474596493722 
-0.05759353150794366 -0.01366702833861257 0.02027398513877778 
-0.4014004067387684 0.04067320205101659 0.4629153691969957 
0.2102799933628211 -0.08207533857750314 -0.1461451106344937 
0.06606147245606131 -0.2598269327456224 -0.003249448267931600 
0.4499218134514856 -0.1053640678450483 -0.4458920992429468 
0.07656130543341484 0.01045830599747545 -0.05873026245502759 
-0.06964121557133425 0.1245994358831694 0.04686950300235725 
-0.006141596604352062 -0.05820797602266564 -0.2321814643793076 
0.08407748073234783 -0.2096180521307967 -0.03462780779527440 
-0.2476770211854517 -0.1629102264825027 0.4724327154121542 
0.3009508083744726 0.01757101158825274 -0.7299560184638126 
0.2322471408136371 -0.05010730275022517 -0.6650127535911781 
-0.5821450368558213 0.4677748496515781 0.2300557027521821 
-0.06936756783056816 -0.1564227859212975 0.3302405442825379 
0.04741121454199354 0.09057139015873951 -0.5655723313087213 
-0.1118857487514755 0.2886672685767376 -0.06738737051323196 
-0.1610995331448448 0.1115181214188544 0.2293452980782110 
0.7064104403081107 -0.2191106311154916 -0.9058313463605345 
0.1699839245366688 -0.08956149977418386 -0.3177372331843242 
0.1013927266330596 -0.2154410971409617 -0.03105400237338352 
0.04071992002243716 -0.2721819038232157 0.08178075394838025 
0.06470125987629194 -0.3881675860293536 0.3729282271551752 
-0.02354109199138063 0.1818159390594044 -0.07886907318768314 
0.2513799771923627 -0.05394011496560396 -0.2692628646422146 
-0.01121442229903852 0.1918380817697200 -0.08902133428918642 
-0.1777205886066808 0.3321374483852792 -0.2610575114326288 
-0.6093539746217580 0.06307249152596248 0.6715976610387351 
0 0 0 
0 0 0 
0 0 0 
-0.1498874465188960 0.1120860198485623 0.1613259514150585 
0.5173881647887214 -0.1728472044142144 -0.4047729389200188 
-0.03531892118768463 0.2160995862280976 -0.1135315769234379 
0 0 0 
0 0 0 
-1.387778780781446e-17 1.734723475976807e-18 -6.938893903907228e-18 
0.3642297874590304 0 -0.4214121392964160 
1.040834085586084e-17 -3.469446951953614e-18 -3.469446951953614e-18 
0.1623002493542397 0 -0.2200715561885273 
