solver_type L2R_L2LOSS_SVC_DUAL
nr_class 3
label 3 1 2
nr_feature 374
bias 1.000000000000000
w
0.03926852579183897 -0.1452147936793899 0.09279423888822208 
0.2165659370624697 -0.08285400362984341 6.938893903907228e-18 
0 0 0 
0.03612455020297904 4.336808689942018e-19 0 
-0.03346703246593128 -0.3063727947633198 0.2944891260936697 
0 0 0 
0 0 0 
0 0 0 
0 0 0 
0 0 0 
0 0 0 
0 0 0 
0 0 0 
0 0 0 
0 0 0 
0 0 0 
0.2412530884079160 -0.1710072781355694 -0.3807289146469349 
0.1397885010296782 -0.1297794434515108 -0.2279534450280761 
0.05795796691546108 -0.1175842291378258 0.03549480093203721 
-0.2313993768586294 0.2350581106596326 -0.2660729997020954 
0 0 0 
0 0 0 
0 0 0 
0 0 0 
0 0 0 
0 0 0 
0 0 0 
0.1738601998882739 -0.1692572861034564 -0.1214514168546437 
0 0 0 
0 0 0 
0 0 0 
0 0 0 
0 0 0 
0 0 0 
0 0 0 
0 0 0 
0 0 0 
0 0 0 
0 0 0 
0 0 0 
0 0 0 
0 0 0 
0 0 0 
0 0 0 
0 0 0 
0 0 0 
0 0 0 
0 0 0 
0 0 0 
0 0 0 
0 0 0 
0 0 0 
0 0 0 
0.2476362554247649 -0.1956216061619322 -0.3188369402681958 
0.2488015226095028 -0.2324919852966379 -0.2193919273286507 
0.1796571798821621 -0.1490263212911579 -0.1651354809714995 
0.2880916162378011 -0.2481917383445638 -0.3727930065777780 
0.1277926317682326 -0.1457306816696155 -0.09378647132056907 
0 0 0 
0 0 0 
0 0 0 
-0.04857072798512155 0.1003923905021142 -0.2316895437411194 
-0.2115804455513680 -0.08285400362984344 0.2126010332554729 
0 0 0 
0 0 0 
-0.1514636777580208 0.1761179964988638 -0.3304832484480091 
0 0 0 
0 0 0 
0 0 0 
0 0 0 
0 0 0 
0 0 0 
0 0 0 
0 0 0 
0 0 0 
0 0 0 
0 0 0 
-0.06499840072305735 0.1456474481156216 -0.1647703922639101 
0.002803390764851087 0.01394142657995312 -0.1796412144749850 
-0.04221795546598549 0.04168433413805130 -0.1287193718763647 
-0.1738483888871974 6.505213034913027e-18 0.1201328505405191 
0 0 0 
0 0 0 
0 0 0 
0 0 0 
0 0 0 
0 0 0 
0 0 0 
0.01425088915843933 0.1527643076414764 -0.3670074878990081 
0 0 0 
0 0 0 
0 0 0 
0 0 0 
0 0 0 
0 0 0 
0 0 0 
0 0 0 
0 0 0 
0 0 0 
0 0 0 
0 0 0 
0 0 0 
0 0 0 
0 0 0 
0 0 0 
0 0 0 
0 0 0 
0 0 0 
0 0 0 
0 0 0 
0 0 0 
0 0 0 
0 0 0 
0 0 0 
-0.1325840004130944 0.1797188278567339 -0.1440222037115843 
0.03074215845600949 0.02575638435173668 -0.2746543995775346 
-0.08326423295053137 0.1592564176754043 -0.2252630818428398 
-0.09161649186954303 0.1981860158734936 -0.2075591041427108 
-0.008274748946937870 -0.003759601131188964 -0.1403838325290898 
0 0 0 
0 0 0 
0 0 0 
-0.03660049863752169 0.04134711382237181 0.06162184744956865 
0.1370122760551850 -0.1689668873634249 -0.06420714737750007 
0.1271296831904486 -0.1409403092059554 -0.06301114507339640 
0.1848197738625395 -0.09792474705446383 -0.2331718700904175 
0.1274922935066216 -0.09920071508383187 -0.06484926543556561 
0.2095946473049426 -0.1198729560184273 -0.1962661815410246 
0.1850532395042769 -0.05383155206634057 -0.1990106417551484 
0.1721261688561183 -0.1562946620900962 -0.2238542448790444 
0.1355852087052896 -0.1159160470449426 1.387778780781446e-17 
0.3026217954990362 -0.2448804231309622 -0.1214514168546436 
0 0 0 
0 0 0 
0.03031867430940813 -0.05740435480896550 0 
0.05277889698154417 -0.07447037140795361 0.01816654256247393 
0.09762606262384770 -0.07159185125871706 -0.2379288495242507 
-0.02261136626530425 0.09942065898875704 -0.1289553221769611 
-0.06058460050106953 0.1080928646029285 -0.01407754396693641 
0.07794969194922308 0.1016823448484513 -0.5525132210630652 
0.02715565039415739 -0.01146562514703685 -0.05052178538805415 
0.4923520901074493 -0.04599675297932289 -0.3304832484480092 
3.469446951953614e-18 0 0 
0.05178556493709228 0.06998877631454845 -0.3674826219567552 
0 0 0 
0 0 0 
0 0 0 
-0.01928460833232289 0.05911024527464114 -0.02351722754201590 
0.2990752117788345 -0.1637330200099427 -0.3306651902688503 
0.4900486382346644 -0.6556244064350520 -0.3897514120066306 
0.4452258318949429 -0.3366609336565921 -0.3438759487586260 
0.1791603409466575 -0.1580754115675126 -0.3002359244349485 
0.1428071080886162 -0.1429229203071187 -0.2137027263698107 
0.2439594879417454 -0.2327865439507366 -0.3111489622252101 
0.1042803615406489 -0.1723996053110569 -0.08584348721987060 
0.1264497972492438 -0.1596042297771203 -0.09881397576942210 
0.4349965356507864 -0.8498625189540908 -0.2986736542653299 
0.1353487598744215 -0.1164627215215272 -0.04307108844597267 
0.2209656352216911 -0.1818513925110110 -0.1699944593457518 
0.3102313378297273 -0.2099051203897963 -0.5511715756629514 
0.2480998166547807 -0.2028541536664635 -0.2844262140722400 
0.1210740208469040 -0.1143271166533436 -0.07169131097586916 
0.2612154598182130 -0.1828110273089491 -0.3243441340163911 
0.01580303694817596 -0.01431440514825239 -0.007041626877930369 
-0.004485460500201561 -0.006923536750985685 0.08482434669835208 
0.1167218075583452 -0.4484746130394534 0.1041660821923696 
-0.03866080610079981 0.02166145577220548 0.04630791160683795 
0.09813451352203834 -0.1217981491677782 -0.05336971116172767 
0.09431692996701631 -0.06528532219067075 -0.1400850867353012 
0.1436587585493762 -0.01454470107709541 -0.4195435913104356 
0.1634463520504517 -0.09072907915160075 -0.1802412615026605 
0.05647968508758320 -0.03232490313097140 -0.03548615356823848 
0.1648589852791223 -0.2578903155733794 0.03794846916765604 
0.002297022510427551 -0.04183072798426420 0.2376315566057016 
0.2144216110350106 -0.1029484086577373 -0.4349528181118406 
0.08169433528099054 -0.04908847051458322 -0.01387924291930125 
0.3769941024444660 -0.5273961535439626 -0.3813724134869594 
0.08697911909052995 -0.1926515678016583 0.06114184530925483 
0.2516216494147797 -0.2666036036155922 -0.3658635618737832 
-0.02196422380159179 -0.02672380425145787 -0.01815931236178987 
0.1088522352402392 -0.1637002959333148 -0.06186064666151739 
0.1349288049232978 -0.2014197648095662 -0.1001535381677327 
0.2458932933721917 -0.1875846241164043 -0.4068671033120336 
0.4696229127889903 -0.4623732642942400 -0.1019168239714183 
0.2097470826035732 -0.2508304053363022 -0.1614143983644642 
0.02493359889831964 -0.06628976329582784 -0.1239616613664879 
0.04412831007169427 -0.04201655473072138 -0.2908758086748771 
-0.01517098737694742 0.008414960528695057 0.0003128192171849965 
-0.01149264024878095 0.003279454492758175 -0.01943368483622071 
-0.1542395360291723 0.1271420815583907 0.2252910670646893 
0.1726933187172916 -0.1204185563183613 -0.2008052889689955 
-0.4636149989910718 -9.107298248878237e-18 0.5014623382879129 
0.03029060984155330 -0.2148439896078067 0.1194047276918083 
0.6432503698898049 -0.3600969447715570 -0.003028738763762153 
0.008603151702381824 -0.05094427594597626 0 
0.06712833940905977 -0.01230491532339704 -0.2728481209787346 
0.5169779362609113 -0.3616450055027413 -0.3783407225416483 
0.09209816871625555 -0.07732120133026561 -0.007994553072085726 
-0.06962308701486085 -0.07862992355967491 0.2344269522460646 
0.007710774324081536 0.009854326937631405 -0.1105278914281016 
-1.059535010682708 -0.2137487530958987 1.230448078389069 
0.1337194051341933 -0.2729785519501619 -0.1925646238413323 
0.2482500635920432 -0.2223988939940711 -0.2215022831003086 
0 0 0 
3.469446951953614e-18 5.095750210681871e-18 0 
0.1234263036521396 -0.1329985396323853 -3.469446951953614e-18 
0 0 0 
0.6585722357057056 -0.4412979613636531 -0.6503047944038776 
0 0 0 
-0.2132973064944640 0.2077344890553656 6.938893903907228e-18 
0.2272261297161775 -0.2743308465218902 -0.2506435720672552 
-0.04733384523922666 0.06289292370698271 0.03858523407982885 
-0.09592487516593205 0.08915331935462134 -0.1097540025552497 
0 0 0 
0 0 0 
0 0 0 
0 0 0 
0 0 0 
0 0 0 
0 0 0 
0.04466503721533744 -0.06444978672656514 -0.04493838151642941 
0 0 0 
0.1225937130805392 -0.1665606123116711 -0.1378577565282182 
0.2060141823490312 -0.1460196611359969 -0.03102602657773807 
0 0 0 
0 0 0 
0.003409797295555243 0.03990862905688117 -0.07236876130308288 
-0.05565917457042098 -0.02008368537696958 -0.05033249442433247 
-0.05661196905022721 -0.003558204647051706 0.1435201235767839 
0 0 0 
0.0008321812164574158 -0.2506681179725274 0.1188949723862499 
0.1357414866066025 -0.006647897925994801 -3.469446951953614e-18 
0 0 0 
0 0 0 
0.05382839880155029 -0.1413127337235110 0.01998428727680566 
-0.05343701233025080 -0.1684105584908988 0.2294254619409586 
0 0 0 
0.1618833559077415 -0.1570278016561593 -0.1035332637977663 
-0.01903500635365726 -0.02481291716650280 0.08980497000184130 
0 0 0 
0 0 0 
0 0 0 
0 -0.05675947671073804 0 
-0.1791613313765853 0.4897632971806288 2.255140518769849e-17 
0.1111158332653251 -0.2682506458894215 5.204170427930421e-18 
-0.05661196905022721 -0.003558204647051706 0.1435201235767839 
0.04466503721533744 -0.06444978672656514 -0.04493838151642941 
0.2306045544388725 -0.1554482312492204 -0.1515019177377993 
0.007669595650926898 -0.1008497851617063 0.1123947353033297 
0.1618833559077415 -0.1570278016561593 -0.1035332637977663 
0.1225937130805392 -0.1665606123116711 -0.1378577565282182 
0.003409797295555243 0.03990862905688117 -0.07236876130308288 
0.2313919346999625 -0.1387770358356275 -0.2725478945636790 
0.2105261531785382 -0.1358509984045672 -0.1592088186984134 
0.2116736272745675 -0.2666848375087670 -3.089976191583688e-18 
0 0 0 
0.009531191985466658 -0.006565520047463446 -0.3050035729415571 
-0.7510190229756641 -0.1889509767061009 1.062771465701159 
0.05382839880155029 -0.1413127337235110 0.01998428727680566 
0.4465206917137280 -0.1035930428725668 -0.3552384741435521 
-0.05565917457042098 -0.02008368537696958 -0.05033249442433247 
0 0 0 
0.0008321812164574158 -0.2506681179725274 0.1188949723862499 
0.1357414866066025 -0.006647897925994801 -3.469446951953614e-18 
0.1487881225167742 -0.1145720049394874 1.734723475976807e-18 
-0.05343701233025080 -0.1684105584908988 0.2294254619409586 
0.01253846265337073 -0.0006098966341347273 -0.1948790710774624 
-0.1981919157569002 0.05575492236929433 0.4861541569061778 
-0.01903500635365726 -0.02481291716650280 0.08980497000184130 
0 0 0 
0.2060141823490312 -0.1460196611359969 -0.03102602657773807 
0.03681864471199620 -0.1460534260501913 0.09506427974597431 
0.005852919591037478 0.06392849811861914 -0.7620965773716032 
0 0 0 
0 0 0 
0 0 0 
0 0 0 
0 0 0 
0 0 0 
-0.1726754224021851 -0.1234870474377936 0.1940444669217251 
-0.07689470638798768 -0.1601070789591813 0.2490696021397607 
0.5255742889767198 -0.2685505294772348 -0.4496961288532076 
-0.03092916165113177 0.1759757483251638 -0.1128621701460812 
0.009571880663276829 0.07154482808927917 -0.07859253117374294 
0.06276195087445524 -0.2911745023157747 0.1218067506924808 
0.1539339453735964 -0.3247340115575939 0.09842601245456477 
-0.1316045079798424 -0.06454958564631727 0.002722696871198900 
0.002325415937067310 0.07844909925550164 0.03221563073942647 
0.05648702116680003 -0.01842281196769999 -0.06111423924603257 
0.3234763733068625 -0.2648304706981346 -0.03804822945490145 
0.1543924964345412 0.03959606139046445 -0.3501683962362649 
0.5389520691053434 -0.2422652818213043 -0.7840957830421651 
-0.1576843480470174 -0.2764700615515495 0.5996788669039230 
0.1901182245751490 -0.3804284717570372 -0.08438356961714986 
-0.02007532038965216 -0.7994343360693499 0.2935879955126413 
0.08782828731520738 0.003261262008762107 -0.09008043798455956 
0.1558127318901262 -0.2458710520638092 -0.08802521373118749 
0.01389488122717473 0.03664148718349668 -0.01644666246594305 
-0.2824256927470257 0.4775570757526507 0.08811148546809422 
0.3765413296591510 -0.2808616062593082 -0.4778239544336507 
-0.1189720371433466 0.2921769263884877 -0.2086956742887609 
0.07120889468359093 0.07159165404202306 -0.5890980228641266 
0.002389335786778748 -0.001823419319376105 -0.06996512439849953 
-0.04021439664142557 0.2372017427053385 8.673617379884035e-18 
-0.2613593671066145 0.2160055654111487 0.04964556856070841 
-0.5992694707797431 0.2968058078897848 0.8470051886880733 
0.08769858585154650 -0.1220799845830270 -0.3118056025430006 
0.01826622345141349 0.09832936705001810 -0.2849560121314032 
0.05041502476351531 -0.003035073718496709 0.06006089706334945 
-0.2416126334437668 -0.06182880532325614 0.5892359073751126 
0.2375763462124710 -0.03069828589120555 -0.1455271476172346 
-0.3252108629528339 -0.007391923696452352 0.6037953429606958 
-0.1577332950347193 -0.1058967420711185 0.3394068248317036 
0.02647857541453574 -0.05527728183032919 0 
0.5230548419524216 -0.2370802997748881 -0.3968860409887615 
0 0 0 
0 0 0 
0 0 0 
-1.087791378634687 0.7105539395275313 0 
-0.1443402050358895 0.2440582397519302 -0.06492844945269173 
0.2666082618711464 -0.4368224204330186 -0.03908601866167886 
-0.01011822819106519 -0.07072307349158233 0.4415029180455021 
0.006312204740473851 0.04858348134158842 -0.001288591094305824 
-0.1734781480224955 0.2194072326213675 -0.1174330545604274 
0.2176934862543314 -0.1066506165751505 -0.2040005385242485 
0.1080927603832294 -0.08603880563510864 0.02618985612308594 
-0.2392020984312878 0.04060381608803844 0.4171422407974578 
-0.1249015441176663 0.03562297453207881 0.1673008847856482 
-0.08734420839068396 -0.05768881497974372 0.1432586653987705 
0 0 0 
-0.2343391753322786 0.1009509562114550 0.07838410238682349 
0 0 0 
0.1834404279149988 -0.2883843616890172 -0.01011715996400588 
0.1563096685326069 0.1190705752167836 -0.4435476977472788 
0.03759752999129054 0.2396278904047398 -0.1469493950380292 
0.2348621704442173 -0.1095244025909802 -0.03141996880422874 
-0.01599575311659126 0.02859448670726277 -0.05769024846349594 
-0.5406047586252230 0.1169196352547421 0.5847845468535463 
-0.01201778289988321 0.1490020484756348 -0.1821243534124971 
0.04337613144487165 -0.2107610275821748 -0.06379000389681881 
0.1675400572302236 -0.1005581902381696 -0.2102665943959033 
-0.03461557167814503 -0.004026241830831894 0.1706304711573997 
-0.02978840310403298 0.01867410303367372 -0.07921584004802158 
0.2258746229464234 -0.1477343938467251 -0.4482892141265951 
0.006367633388185856 -0.1334752857926880 0.1176733668407172 
0.04050790807971834 -0.2354112946033785 -0.1526722830292950 
0.02732927007110346 -0.1156803171266457 0.07520200325195021 
0.2112345927831768 0.1457413798713695 -0.5423863318036484 
-0.5930120780089506 0.4641682825076337 0.4108971352068827 
0.3181922984622523 -0.4002717247020933 -0.05515028973408932 
-0.07817787253783270 0.2074947167530120 -0.2540150783782674 
-0.2999616160507641 0.3744445316568040 0.2666626529775786 
-0.3944517858202108 0.2403934421554822 0.4323892070675967 
0.6575390130560239 -0.1834248880430507 -0.8376910425392945 
0.4458703703427745 -0.4287124789002392 -0.6416699551922898 
-0.01576750524171404 -0.2622833349001126 0.006896756439817919 
-0.1397108094442154 -0.1748061456830210 0.2133835797123870 
0.1305346458195581 -0.3025871702294447 0.2394314459392456 
0.2351137465167098 0.1797993888761843 -0.5938376514417726 
0.2469904930330941 -0.1762228867061166 -0.1782637328069259 
-0.03164416149519696 0.05671654720557490 -0.1394761167440951 
-0.1113307148436956 0.1529943648525973 -0.1223396423465438 
-0.3368123069113690 0.05865807600981908 0.5226218191301162 
0.2367255634254454 -0.01994888336270186 -0.08619613257108402 
-0.3853864613534601 -0.1044483937534275 0.6153378625283478 
0.1867822442691660 -0.07646124434535631 -0.1852228992071129 
-0.08451369172085135 0.04189737181608205 0.2129806291607664 
0.3259551969196214 -0.5008953682024199 -0.2506435720672549 
0.01694468680144219 0.005802904551602491 -0.07828201866962711 
-1.192622389734055e-17 -0.1091179672408500 -0.02136228437071536 
0.0001876247206596896 6.830473686658678e-18 0 
0.2760445479558981 -0.2600728692948049 -0.2287264607035379 
-0.2270895641903367 3.469446951953614e-18 0.5082496201957263 
0.07122404958326004 3.469446951953614e-18 0 
0.2625375534422443 -0.1653148266203539 -0.1709164997257236 
