solver_type L2R_L2LOSS_SVC_DUAL
nr_class 10
label 6 13 8 11 14 1 7 2 12 5
nr_feature 268
bias 1.000000000000000
w
0.2925026812771987 -0.3233904990938476 0.008440397160900476 -0.1517117305734687 -0.3875687338950004 -0.2256009039617059 -0.08379650468402460 -0.06108295194190446 -0.03368177789828785 -0.2404209499297457 
-0.9420870551649461 0.2093624422660652 0.5395588763658407 -0.07464942261187071 -0.5866919337508811 0 -0.2111734840745131 -0.1420454349430735 -0.3372896181055408 0 
0 0 0 0 0 0 0 0 0 0 
-0.1069348819195652 0 -0.8731233792589017 -0.02060438124590500 1.374243491707201 -0.04482705687273302 0 -0.1074076015500976 0 0 
0.1094183385673999 -6.938893903907228e-18 0.2568463145927474 -0.5802424220736653 -0.1441776037343264 -0.3209203483804660 -0.06825109290887140 -0.1156495362306135 -0.1284186516405732 -0.1011991161596370 
0 0 0 0 0 0 0 0 0 0 
0 0 0 0 0 0 0 0 0 0 
0 0 0 0 0 0 0 0 0 0 
0 0 0 0 0 0 0 0 0 0 
0 0 0 0 0 0 0 0 0 0 
-0.2839873668514336 0 -0.5367326958856962 -0.1092696113415315 0.2925266114737499 -0.04652942212867296 -0.1736347981391276 0.5551573043928656 0 0 
0 0 0 0 0 0 0 0 0 0 
0 0 0 0 0 0 0 0 0 0 
0 0 0 0 0 0 0 0 0 0 
0 0 0 0 0 0 0 0 0 0 
0 0 0 0 0 0 0 0 0 0 
-0.04375622580303320 -0.3052867305888372 0.2141165009090842 -0.1887435323468439 0.4136013840780479 -0.1563446427425608 0.1817837165527697 -0.4036712576896727 -0.1776123445532952 -0.1590679795527862 
0.1820261394100446 0.04007615255265674 0.1149588810643876 0.1732806771699212 -0.1591068341934716 -0.3983168584025180 -0.02955387243648017 -0.07472632087165172 -0.1253346343779189 0.02760178284522848 
0.03541989486644696 0.09681320810910504 0.1655180883143598 -0.1515617837095756 -0.1467381636427624 -0.2558509491463599 -0.1033897869741138 -0.1005697898940302 -0.1487946933004092 0.002447066573685037 
-0.02547240113631887 0 -0.2829359042045378 0 -0.4958580307822954 0.5206850188896146 -0.3517037450150395 -0.1328289783569590 -0.1824387790575252 -0.1187657822123437 
0 0 0 0 0 0 0 0 0 0 
0 0 0 0 0 0 0 0 0 0 
0 0 0 0 0 0 0 0 0 0 
0 0 0 0 0 0 0 0 0 0 
0 0 0 0 0 0 0 0 0 0 
0 0 0 0 0 0 0 0 0 0 
0 0 0 0 0 0 0 0 0 0 
-0.5034573352413398 -0.3415603819663138 0.7079370923617315 -0.09803434622801253 -0.6722346313019160 -0.02622231336538306 -0.6620422172102866 0.5850736397316229 -0.07894436837327326 0 
0 0 0 0 0 0 0 0 0 0 
0 0 0 0 0 0 0 0 0 0 
0 0 0 0 0 0 0 0 0 0 
0 0 0 0 0 0 0 0 0 0 
0 0 0 0 0 0 0 0 0 0 
0 0 0 0 0 0 0 0 0 0 
0 0 0 0 0 0 0 0 0 0 
0 0 0 0 0 0 0 0 0 0 
0 0 0 0 0 0 0 0 0 0 
0 0 0 0 0 0 0 0 0 0 
0 0 0 0 0 0 0 0 0 0 
0 0 0 0 0 0 0 0 0 0 
0 0 0 0 0 0 0 0 0 0 
0 0 0 0 0 0 0 0 0 0 
0 0 0 0 0 0 0 0 0 0 
0 0 0 0 0 0 0 0 0 0 
0 0 0 0 0 0 0 0 0 0 
0 0 0 0 0 0 0 0 0 0 
0 0 0 0 0 0 0 0 0 0 
0 0 0 0 0 0 0 0 0 0 
0 0 0 0 0 0 0 0 0 0 
0 0 0 0 0 0 0 0 0 0 
0 0 0 0 0 0 0 0 0 0 
0 0 0 0 0 0 0 0 0 0 
0 0 0 0 0 0 0 0 0 0 
-0.01182141431180297 0.03847418108533551 -0.09760214922063710 -0.4766659776881562 0.06528481614680201 -0.1856760458808775 0.1582460966320773 0.008738482494751378 0.1926082437656022 -0.02834614459147013 
-0.01793155447681727 -0.1277658035241448 0.08304168617553130 -0.1812032985305942 -0.2213743951419634 0.05539499663809065 0.1595216050957240 -0.1479594508897538 -0.04139955497926474 0.2075272797751490 
0.1946344837996011 0.04671476929562209 0.1151473461379327 0.02270121441125312 -0.4364024964351506 -0.1822361416801217 -0.1070953326718781 -0.05678378918969274 -0.08517254230336357 -0.06568090404058692 
0.1083545446513380 -0.2615048714525248 -0.1105141893705691 0.3896658124970010 -0.09167274863306053 -0.1221439070543735 0.4290102851841698 -0.3796632536229520 -0.2182750898921932 -0.02320399052022931 
-0.02106114777735941 -0.08861968558591121 -0.03050244303086753 0.1296406697941132 -0.3466322849895901 0.1983495045154038 0.07507552793912500 -0.1135281648288334 -0.01299156561899865 -0.3351217765128742 
0 0 0 0 0 0 0 0 0 0 
0 0 0 0 0 0 0 0 0 0 
0 0 0 0 0 0 0 0 0 0 
0.3153765000626046 0.008546073662004874 -0.01141186562699510 -0.07664241306848407 -0.2123894504739665 -0.2905625986093373 -0.1436008692187757 -0.04709409984637036 0.1375259135234658 -0.1108720546794076 
0.5844896978683223 -0.2559766496147103 -0.8482208459854927 0.3137959418304773 0 0.1372595657251237 -0.03845280616181420 -0.2633884765022303 -0.02231413011567362 0 
0 0 0 0 0 0 0 0 0 0 
0.3417363389081181 0.1155448133072826 -0.2248929916109511 -0.03576193759449534 -0.03946881924191428 -0.1946824128045268 -0.1259770519400111 0.01877356092416015 0.08234007869599652 -1.734723475976807e-18 
0.05071157876942069 0.1494031395451375 -0.2314373442836141 0.1719694258766226 0.001980496519976957 0.06721373582084889 -0.1186175081332384 0.02272862875965242 0.1936822946498722 0.09753955573768748 
0 0 0 0 0 0 0 0 0 0 
0 0 0 0 0 0 0 0 0 0 
0.09959431151914436 0.2659416657581179 -0.5027566768038265 0.2657660702411145 -0.1925031159347528 -0.2348943565401465 0.3371728810565249 -0.2396727230592683 0.07183213842484497 0 
0 0 0 0 0 0 0 0 0 0 
4.163336342344337e-17 -0.2133017927132529 -0.2442217228989480 -0.3401329540901708 -0.1718211349267314 -0.2039883595291222 0.6375776332830065 -0.2094574619686546 -0.007770339415254694 0 
0.1298369122670094 -0.002829559208616813 -0.08548087996748766 -0.03566166798590399 -0.1800126647703531 -0.07874636197513231 -0.08307452356271170 -0.05355548046756647 0.3884754390962973 -0.3053455788520669 
1.384999597032667 0 -1.257203314964053 0 0 0 -0.07789581791670029 0 0 0 
0 0 0 0 0 0 0 0 0 0 
0 0 0 0 0 0 0 0 0 0 
0 0 0 0 0 0 0 0 0 0 
0 0 0 0 0 0 0 0 0 0 
0.2838054802221446 0.3844271300301131 -0.5520312790559665 0.1999017474066694 -0.2403296583628681 -0.08494572535881192 0.001877209107070552 0.03760896827053400 -5.030698080332741e-17 3.469446951953614e-18 
0.02997149582548278 -0.02970666527099652 0.1989572090553896 0.04487945851415925 -0.4472112306900063 -0.02974944648062167 -0.1105886973312784 -0.1080363424602506 -0.004916862110174235 -0.2452614198072219 
-0.02390101335368206 -0.1241958824955714 0.3923110624652675 -0.1334622880765207 -0.4546563015006492 -0.08486565020550231 -0.3232239972043332 0.002098248367990836 -0.1114813339144846 -0.07659804463897786 
-0.05544071206183736 -0.1288368163576710 0.1666669762531291 -0.4352317051675236 -0.06184509132046055 0.04302040379348110 -0.1552886744290378 -0.08963319302886007 -0.03563369867023829 -0.2887926543224628 
0 0 0 0 0 0 0 0 0 0 
0 0 0 0 0 0 0 0 0 0 
0 0 0 0 0 0 0 0 0 0 
0 0 0 0 0 0 0 0 0 0 
0 0 0 0 0 0 0 0 0 0 
-0.1187721448152279 6.938893903907228e-18 -0.1465918855145747 0 -0.2246835689919986 0.3897935183620273 -0.08575742881779738 -0.1165941162148733 0 0 
0.1887118651048825 0.2564972384595728 -0.5285669096344877 -0.3626188449423387 0.4420254413920716 0.2402940111458488 0.5116848709271754 0.02797281907400723 -0.004838625105877056 0 
0.09412378799720902 0.08143013862579182 0.06810042776692109 0.1454823788284309 -0.3272345257732265 -0.1202416444946594 -0.4639162854158800 -0.1001699205588911 0.1879337996255356 0 
0 0 0 0 0 0 0 0 0 0 
0.06721399252335766 -0.3043993723740542 -0.03087610333644431 -0.2022237222173644 0.3620754292386565 -0.1435642207051530 -0.9224861222838192 0.1201445666279005 -0.2966797028298469 0 
0 0 0 0 0 0 0 0 0 0 
0 0 0 0 0 0 0 0 0 0 
0.6204059154599686 8.673617379884035e-19 -0.8143094588231480 -0.06485507199023400 0 0.2412184892092734 0 -0.8068639964207120 1.050016089013016 0 
0 0 0 0 0 0 0 0 0 0 
0 0 0 0 0 0 0 0 0 0 
0 0 0 0 0 0 0 0 0 0 
0 0 0 0 0 0 0 0 0 0 
0 0 0 0 0 0 0 0 0 0 
0 0 0 0 0 0 0 0 0 0 
0 0 0 0 0 0 0 0 0 0 
0 0 0 0 0 0 0 0 0 0 
0 0 0 0 0 0 0 0 0 0 
0 0 0 0 0 0 0 0 0 0 
0 0 0 0 0 0 0 0 0 0 
0 0 0 0 0 0 0 0 0 0 
0 0 0 0 0 0 0 0 0 0 
0 0 0 0 0 0 0 0 0 0 
0 0 0 0 0 0 0 0 0 0 
0 0 0 0 0 0 0 0 0 0 
0 0 0 0 0 0 0 0 0 0 
0 0 0 0 0 0 0 0 0 0 
0 0 0 0 0 0 0 0 0 0 
0 0 0 0 0 0 0 0 0 0 
0 0 0 0 0 0 0 0 0 0 
0 0 0 0 0 0 0 0 0 0 
-0.1321678102640700 0 0.3624688884969300 0 0 -6.938893903907228e-18 -0.06800587242603592 -0.07336293354677993 0 0 
0 0 0 0 0 0 0 0 0 0 
-0.2449559287579143 0 0.6442508302401343 0 0 0 -0.1819935615803653 -0.2191996428066277 -0.04233409216934262 0 
0 0 0 0 0 0 0 0 0 0 
0 0 0 0 0 0 0 0 0 0 
0 0 0 0 0 0 0 0 0 0 
-0.05331382014070905 -0.2202810363742617 -0.1364351181057802 0.3297747034039134 0.3572604323057133 0.2313296052159651 0.08602505548454234 -0.4458360303348830 0.1152467107361839 0.1481610535621819 
0.001551417528421185 -0.01412766112414019 0.1165724283447359 -0.07104146183153563 -0.3575570237684684 -0.3339915304771251 0.03732343761383426 0.02196121057289533 -0.1700046060616801 -0.1128332470242663 
-0.07168681406359564 -0.1792682928709663 0.05763596414645104 -0.1106568436755948 -0.2153961517153317 -0.3008084188013079 0.02764841315268287 0.08386864064904986 -0.1379218588890704 -0.2857941231713511 
-0.1541419806343090 -0.1848536142663097 0.1403657942108995 0.06957134446377293 -0.05279558547574589 -0.3184327617725303 -0.04588306786832837 0.06437445366470809 -0.2932186474052582 -0.2004075876075518 
-0.1162673729763808 -0.02813183114849614 0.03728552628417994 -0.2296736340786991 -0.1820729311711228 -0.1180762869289289 0.001285179657424741 -0.003115614293491469 0.07270231474751598 0.005225393407302935 
-0.5918330272468995 0.04084784605101825 0.1634449358506625 -0.1602983637707272 0.1872779541017007 -0.6689346756926083 -0.02238305665762472 0.1052887094659339 0.1693820899493323 0 
0.8127846299134330 -0.1548759028788002 0.1720320279699972 -0.004521783321583614 -0.5201687898119918 -0.8264678116115810 -0.4297544108174912 -0.3147466798296875 -0.6067716984586490 -0.2404209499297458 
-0.05019993724000259 -0.1274755621425869 0.1800550545585735 -0.03735301568905294 -0.08890933172091842 1.734723475976807e-17 -0.06825109290887137 -0.02865096351867975 -0.1284186516405732 0 
0 0 0 0 0 0 0 0 0 0 
0.2698661175269075 -0.1684262189587998 -0.08626412599300143 -0.4407672708502674 -0.02065308205898549 -0.2356166698890364 0.2376450599998808 -0.6221206647716173 -0.1068164045641194 0 
0 0 0 0 0 0 0 0 0 0 
0 0 0 0 0 0 0 0 0 0 
0 0 0 0 0 0 0 0 0 0 
0 0 0 0 0 0 0 0 0 0 
0 0 0 0 0 0 0 0 0 0 
-0.1920019771182236 -0.008393061692033587 -0.03396688520728049 0.1869234150135723 0.3169946862484940 0.1403128891496944 -0.0002127078765079683 0.03676497249314233 0.08042516633014007 0.03877481203345451 
-0.1790565370959028 -0.01150731414068438 0.03846632792311630 0.2911038473455522 0.3467659987520603 0.08446978734409527 0.1770022708710939 -0.04076831840361873 -0.2769685574537229 -0.3669738879806674 
0.3779007956040452 -0.1346439137635912 -0.5814985905696399 -0.04475723639211850 -0.1925031159347527 -0.07060816529566760 -0.4087551422776399 -0.05425042521920895 0.5232129100122811 0 
0.4133209539047875 0 0 0 0 -0.07060816529566759 0 0 -0.07119406101426975 0 
-0.03179867608960203 -0.4339125896784437 0.3778868447004200 -0.4245003960931403 0.1763321213117212 0.05198395629730940 -0.1763042947835909 -0.1647838897200717 -0.2040457552123552 -0.1010305649715515 
-0.4054200268001205 -0.1721535325527055 0.6718025097413328 -0.3040265892380453 1.387778780781446e-17 -0.01039196172090284 -0.2074489010746967 -0.4726533867471011 -0.1880549231991450 -0.3572152524620601 
-0.3333529671530518 -0.1254805524068993 0.1010634206997910 0.4455962965507174 0.1734353939278587 0.2197173986733326 -0.1912520755422746 0.05984752539279317 -0.5631064195619235 0 
0 0 0 0 0 0 0 0 0 0 
0 0 0 0 0 0 0 0 0 0 
0 0 0 0 0 0 0 0 0 0 
-0.1307819912666504 -0.008370738141593748 -0.3097800505341472 0.1033173299594165 0.1217899092319129 0.2751686645941600 0.1771399266848768 0.09423370955639404 0.09098743494622940 -0.1993859578243619 
-0.3325735181923413 -0.2147750251402885 -0.6161025744314018 0.2165260720740009 0.07880444615632634 0.5955126448725521 0.3698626356742219 0.1929275705317840 0.05729903730336954 -0.1260690101981730 
-0.5268290810981009 -0.5211566355582204 0.2021139284693825 -0.6383207722594741 -0.7133738549317012 -0.6210948538369855 -0.4449825395702153 -0.3699962939762332 -0.6576020446311714 -0.4434707426787498 
-0.5073242190125189 -0.4955305833445818 0.07204049364192955 -0.6790773602178375 -0.8294276981628992 -0.5691442157356766 -0.3420210631402531 -0.3169508094137853 -0.7201433317038776 -0.3907597716468638 
-0.4396554363839933 -0.1470228439047244 0.2149250479171762 -0.3525623402165565 -0.1240583933458547 -0.04378373554261282 -0.3326476730771338 -0.09003821036898177 -0.1047191697808451 0.009072876792571390 
0.03122337363163380 -0.3364495021964917 0.05138301064070971 0.5215946278186552 -0.4925534220373748 -0.3107443389313919 -0.03067610444083184 -0.07460524606506312 -0.3112244325561693 0 
-0.09517832577648026 0.09149037921740973 0.05677787857088210 -0.06179123597141126 -0.1811779488317435 -0.1385359822415415 -0.2610032764695555 -0.04760002993367050 -0.7034717650303489 -0.08364041332024391 
-0.2497475183348123 -0.1910616493539719 0.2485472817862498 -0.1721105781675506 -0.6377398424609859 -0.1522631938638797 -0.1538937362117189 -0.2079695456043709 -0.1279915253598014 -0.1165080837221619 
-0.1714104781512226 -0.2631674741424235 0.07726839522661200 -0.8864577906281050 -0.2048594363029500 -0.2952622215546861 0.04482194331524884 -0.04109567300727179 -0.1328093349050494 -0.2357571965913940 
0.08162819404574416 -0.05546537405531506 -0.4257026709527145 -0.1212063165552489 0.2063932525539633 -0.1770973789341875 0.1240718610299152 -0.1670297617638482 0.04296934948122044 -0.3041935058449079 
-0.1910131091414616 -0.1150107544672812 0.05095547892239449 -0.2448644987571183 -0.1088057626696681 -0.07255221850436905 -0.1776766168563932 -0.05860863664679126 -0.04049849818404398 -0.1032041916394755 
0.05511004548811857 0.1316096439169653 -0.06831017305156012 0.02541085472946899 0.2708955328946443 0.03456541007856032 -0.1903327967446335 -0.1511052571057325 0.03393870997349757 -0.0009340659976375088 
0.2062856777943671 -0.08124499237083350 -0.2559060249807486 -0.2549364459143352 -0.3377631110316233 0.08357312006089974 -0.04745477915750881 0.1368699375069518 0.08764200109441952 0.001513774541547900 
0.05382313097276241 0.1190497076331906 0.02305277441161029 -0.01186182077087018 -0.08224623218423911 0.09659336183517095 -0.1396541839930127 -0.1038607290712467 0.02271915672918567 0 
0.05529081503909995 -0.05779639725382646 -0.1537289470983236 0.04546668560213314 0.06617094768332989 0.2891482202449551 -0.02663877354758807 -0.1116676136589580 -0.06458012739589322 0.07152162730651176 
0.2052503380638623 -0.1636784836555274 0.01481380039855920 -0.2710520730648359 0.01622213574005609 0.2040274452297697 -0.02220614937396399 -0.2759539402252951 -0.05506187914186379 -0.02379497684565976 
-0.08263257024703988 -0.06745953986051516 -0.1318881813072688 -0.02213145364527999 0.3830420371472602 0.1356877861980632 0.08307276730862590 -0.2166799133637347 0.3167318121730598 -0.03341680597245689 
0.004817892406306456 0.1737161761637402 -0.03961475262410017 -0.1315661392594264 0.3594799702157830 -0.07448467084214261 -0.07235324864036613 -0.2245349316048274 0.1978755994925551 6.938893903907228e-18 
0.1856414700538371 0.1519777609256662 -0.1737022080228464 -0.2487649038062123 -0.02152095796621679 0.1814984041430734 0.1578031870131730 -0.4289537195908141 0.1661358964518119 -0.1087338511891826 
0.07186698769408074 0.04149836758360305 -0.2986417277674711 -0.08109332951646830 0.1646896774915938 0.5209474727803017 -0.2273472259856295 -0.3400666816200401 0.1810439670480703 0.3404861442699383 
0.008069002650596792 -0.1790590204348375 -0.1772711351869485 -0.08771235127396876 0.8330164104064781 -1.387778780781446e-17 -0.1039663915938869 -0.1535593122718949 0.2866553120460713 -0.03011783158907532 
0.2323678691189640 0.03977900649876136 0.03803356672543130 -0.2030998077264963 -0.3003838494666537 0.06666479588190924 -0.2420567335820988 -0.02435273404010261 -0.09456990262099410 -0.1867449084593748 
-0.07161483047422874 -0.09414055796462886 0.08219649008866915 -0.1085533903406652 0.2654628811410772 -0.04849904564921928 -0.1576297731998515 -0.01256535849616100 -0.02876599693730413 -0.09630574899327805 
-0.3140891924419385 -0.2497070340590003 0.05490195714261772 -0.3406262502757323 -0.2163288112281499 -0.1479220065494756 0.06263938541420933 -0.1792317593331085 -0.1843785104750372 -0.1213904411375622 
-0.1246911653654986 -0.2225873094014770 -0.09010721789847424 -0.7828053403486209 -0.01855282929403709 -0.2506802474469934 -0.4709186120284263 -0.09062990730054929 -0.02690921542862932 -0.1525961593409656 
-0.06048544401975520 -0.02046470191212475 -0.3389163728382197 0.07629513095516689 -0.8147154770562431 -0.06493853164291485 0.02267273865601629 -0.1765839633004792 -0.6179599090706380 -0.2030286613850247 
-0.5348874982833949 -0.5239281735301997 0.6482760557053824 -0.2702616728081422 -0.4932044355161807 -0.7266982839332803 -0.4013971147522677 -0.2405014734558536 -0.5484977413607367 -0.3572152524620601 
0.08832966058442873 0.02119833481585957 0.1625446350619360 0.08505881467222327 0.09358453761302374 -0.1830512839985232 -0.1495466060300808 -0.06124272589837516 -0.007063257507552464 -0.1385095451787766 
0.1254365973445251 -0.2111796458243195 -0.1725520311611445 -0.3012732821186080 0.07833788857225266 -0.1211537040883846 0.3712225746454637 -0.3112196422543964 0.0001150158196780039 -0.03018869142861359 
-0.4333834761369884 -0.1456086117778840 0.1320389284717915 -0.2466577699595709 0.2106863639936302 0.1700972031410621 -0.2592532145671421 -0.2253176617113969 -0.09724072401380093 0 
-0.007291243530832685 1.178606652170347e-05 0.1515714377464741 -0.1292094357903625 0.09865864481152833 -0.1933629847269636 -0.03455658398569821 -0.02621446150998124 -0.2674430061219127 -0.09584604608093186 
-0.1078361158861426 -0.1614275505574661 0.2500382061656977 -0.2487649038062122 -0.3006419657074282 -0.3253738825491904 0.1601896005889739 -0.3696277103837071 0.07665361421315840 4.336808689942018e-19 
-0.08473679315611717 0.1820819297670661 0.1007067501632265 -0.1314662766548642 0.1457345943523614 -0.3737933843847909 -0.2761019241874416 0.01705245096002686 -0.5877899208270099 -0.008457379884604578 
0.01224241096370646 0.04970044784634319 -0.09922305795819673 -0.5426420788031946 0.1453246280373110 -0.1847501504705130 -0.2095418499144062 0.07167070857327372 -0.03478689695588702 0 
-0.07882830808009139 -0.1286741674151332 0.2101368020435084 -0.1902291939390320 -0.2799737407559924 -0.1490959187750997 0.1138682344685706 -0.007996403744362328 -0.6306314262776055 -0.06242965298446827 
0.03220119565611437 -0.2162496337710968 0.06248611841671556 -0.2246250307237228 -0.1977090268620332 -0.1054789509417956 0.09006632080110655 0.07045304419045673 -0.03508986755671006 0 
-0.1481471260232894 -0.1458541940226163 -0.7599015037935870 0 1.467369110837348 -0.3761366685016779 -0.2186733613169438 -0.2417610568888441 -0.1307706320614632 0 
-0.3411523853262669 0.1120507171033106 -0.03904741839464856 0.07615187853325714 -0.2566128823123705 -0.3248115703051576 -0.1271944450712675 0.2123818942833215 0.04488174049227674 -0.01810667228597345 
-0.2143765529912128 -0.1073708765050967 -0.07573736642744480 -0.1604351144706236 -6.938893903907228e-18 0.1706813559630036 -0.1611627947760864 0.2462723150098305 -0.2589013168343058 0 
0 0 0 0 0 0 0 0 0 0 
-0.3965810569242973 -0.1917884351420336 -0.5918691872759694 -0.1747895459480139 0.8364093451199923 -0.2651612383394378 -0.3003874354902068 0.3559159481814884 -0.3412313890168144 0 
-0.09698017023826523 0.2898585644626699 -0.4029657519250707 0.2009559295671410 0.3930493840190263 -0.2248048453124346 -0.01241133550356561 0.1657647639634054 -0.01336477015223001 0 
-0.1864670584906999 -0.008048300367322542 0.1043976335900632 0 -0.08565143064193119 -0.2075320155586664 -0.1491677800033380 -0.1399245078474563 0.4947714308400235 0 
-0.06285712283674381 -0.09594739077464756 0.07027430259777340 -0.08744366239790104 -0.1695626539805939 -0.05889124896225870 0.07307695088255570 -0.03094537962022306 -0.04083566770729268 0 
0 0 0 0 0 0 0 0 0 0 
-0.07089537733764390 -0.04686666718606780 0.06887757138341633 0 -0.1402099109630768 0.08439485750507111 -0.06754794629284877 -0.07667958571753020 -0.02044325000255954 0 
-0.2912286056377139 3.469446951953614e-18 0.09114108601345719 -0.05869170775844707 -0.1882078280399097 -0.1997643760564903 0 -0.2106791155577996 0.2755041204190979 -0.03749520142735902 
-0.1803629420574136 -0.004738261686641778 0.2429355698195572 -0.2000615945353603 -0.4086567218325998 0.04429577228222430 -0.1578701082989057 -0.3549237188886992 -0.4803458164006824 -3.469446951953614e-18 
-0.5121065398009466 -0.1110990175478137 1.415342109709423 -0.1539157287272114 0 -0.2948753454094637 -0.2218377643605626 -0.1196737247081429 -0.4288088172597760 0 
-0.1229151841781166 -0.1497057902697982 0.1962072630341119 -0.2589744309833561 0.08240173103690229 0.07133635347870007 -0.3179759753523389 -0.02234992325209008 -0.2016438568019581 0 
-0.01428041649137047 0.1147004463129663 -0.04511142792883879 -0.09803434622801255 1.734723475976807e-18 -0.08231524774987359 -0.1488240318472823 -0.3041539403913866 -0.07450443674648322 0 
0 0 0 0 0 0 0 0 0 0 
-0.1675883953238367 -0.03251602734580582 0.4038670598746849 0 0 -0.09027709463894579 -0.08080381589226848 -0.1232036271173290 -0.01647631154195755 0 
-0.006165785719261033 -0.2450461914706661 0.01740627196445865 -0.01249856147592034 -0.2424059370842060 0.3538232942737490 -0.1468864281322063 -0.06940581880134271 -0.05687432965456324 0 
-0.05396672983334666 0 0.4928894660060921 0 0 -0.1473439383856622 -0.06728736588890974 -0.003603326132154934 0 0 
0 0 0 0 0 0 0 0 0 0 
0 0 0 0 0 0 0 0 0 0 
0 0 0 0 0 0 0 0 0 0 
0 0 0 0 0 0 0 0 0 0 
-0.5997503783610726 -0.1240428800543297 0.1787204218614126 -0.03629466824441689 0 0.3360950664375002 -0.02432945579809913 -0.1561542747403291 5.204170427930421e-18 0 
-0.06285712283674381 -0.09594739077464756 0.07027430259777340 -0.08744366239790104 -0.1695626539805939 -0.05889124896225870 0.07307695088255570 -0.03094537962022306 -0.04083566770729268 0 
0.03220119565611437 -0.2162496337710968 0.06248611841671556 -0.2246250307237228 -0.1977090268620332 -0.1054789509417956 0.09006632080110655 0.07045304419045673 -0.03508986755671006 0 
-0.3268989934389855 0 -0.1590760875696761 0 0 0.6002821269952079 -0.1251539771921282 -0.1171369898370554 -0.1258179464308763 0 
-0.1578289279017331 -0.3321832668296249 0.2422652312953867 -6.938893903907228e-18 -0.2323388442527549 0.2156132177173811 -0.005878014760749027 0.04009921582234918 -0.1508300426974255 0 
-0.1675883953238367 -0.03251602734580582 0.4038670598746849 0 0 -0.09027709463894579 -0.08080381589226848 -0.1232036271173290 -0.01647631154195755 0 
-0.3411523853262669 0.1120507171033106 -0.03904741839464856 0.07615187853325714 -0.2566128823123705 -0.3248115703051576 -0.1271944450712675 0.2123818942833215 0.04488174049227674 -0.01810667228597345 
-0.09698017023826523 0.2898585644626699 -0.4029657519250707 0.2009559295671410 0.3930493840190263 -0.2248048453124346 -0.01241133550356561 0.1657647639634054 -0.01336477015223001 0 
-0.2283535812025546 0 -0.09355867108743360 -0.1304961246133083 0 -0.4320293576577624 -0.4791384002228334 0.2541198268844754 0 0 
-0.4008827993754302 -0.2649580561547543 0.5198544068251487 0 0 0 0 0 0 0 
0 0 0 0 0 0 0 0 0 0 
0 0 0 0 0 0 0 0 0 0 
-0.2984847965968071 0 0.2506482511046605 -0.2622296947583727 0.4136558042309457 -0.1331755823546047 -0.4499093861273070 0.04812967012916178 -0.4103788248232699 -0.006574277569917758 
0 0 0 0 0 0 0 0 0 0 
-0.1229151841781166 -0.1497057902697982 0.1962072630341119 -0.2589744309833561 0.08240173103690229 0.07133635347870007 -0.3179759753523389 -0.02234992325209008 -0.2016438568019581 0 
0 0 0 0 0 0 0 0 0 0 
-0.1864670584906999 -0.008048300367322542 0.1043976335900632 0 -0.08565143064193119 -0.2075320155586664 -0.1491677800033380 -0.1399245078474563 0.4947714308400235 0 
0 0 0 0 0 0 0 0 0 0 
-0.07089537733764390 -0.04686666718606780 0.06887757138341633 0 -0.1402099109630768 0.08439485750507111 -0.06754794629284877 -0.07667958571753020 -0.02044325000255954 0 
-0.2912286056377139 3.469446951953614e-18 0.09114108601345719 -0.05869170775844707 -0.1882078280399097 -0.1997643760564903 0 -0.2106791155577996 0.2755041204190979 -0.03749520142735902 
0 0 0.2612391263073811 0 0 -0.09910572620817030 0 0 -0.03607512160882381 0 
-0.01428041649137047 0.1147004463129663 -0.04511142792883879 -0.09803434622801255 1.734723475976807e-18 -0.08231524774987359 -0.1488240318472823 -0.3041539403913866 -0.07450443674648322 0 
-0.2452840133409963 0.5800027071867271 -0.3017892216311284 -0.03131401473748727 0 -0.06886796566745246 0 -0.07717323194751033 0 0 
-0.03512411097886085 -0.3843202221738760 0.3989380373848894 -0.3030015846993295 0 -0.4424322316533175 0 0.1478419418037045 0 0 
-0.006165785719261033 -0.2450461914706661 0.01740627196445865 -0.01249856147592034 -0.2424059370842060 0.3538232942737490 -0.1468864281322063 -0.06940581880134271 -0.05687432965456324 0 
0 0 0 0 0 0 0 0 0 0 
-0.2143765529912128 -0.1073708765050967 -0.07573736642744480 -0.1604351144706236 -6.938893903907228e-18 0.1706813559630036 -0.1611627947760864 0.2462723150098305 -0.2589013168343058 0 
0.2309865256091289 -0.2506426999979157 -0.04004629598703791 -0.2836063311818072 0.4124758717358953 0.06914502895420617 0.1033346016414250 -0.8510774637131457 -0.3353162218953953 0 
0 0 0 0 0 0 0 0 0 0 
0 0 0 0 0 0 0 0 0 0 
0 0 0 0 0 0 0 0 0 0 
0 0 0 0 0 0 0 0 0 0 
0 0 0 0 0 0 0 0 0 0 
0 0 0 0 0 0 0 0 0 0 
0 0 0 0 0 0 0 0 0 0 
-0.2280642399278722 -0.3810440635930444 0.2646497375445137 -0.2487888494539970 -0.2387291041800634 -0.4388660961907201 -0.4710675867254816 0.3125206935791093 -0.6199033483519094 0 
-0.1597322319404143 0.1314363795820912 -0.2108843745935607 -0.3153093672922281 0.2004418126824784 0.2076958981040287 -0.3535144851658505 0.09227699126747715 0.1185765738730615 0 
0.04466607425719427 -0.05224591870982668 0.2435257469090048 0.3649012674794782 -0.2920372834151133 -0.2036569657438464 -0.5466814841984501 -0.4785577372954611 -0.1446585533741610 0 
0.1215636851983136 -0.3436197382341927 -0.2161820851226415 -0.2487649038062122 0.02069062712751456 0.4721807101850027 -0.4940679330600470 -0.5398569376556330 0.6924147371775040 0 
-0.1064837013031009 0.1197512567087806 -0.01114791682697635 -0.4422232786746796 -0.1685084095328325 0.01482106095802693 0.05346529074421999 0.07351145148320033 0.09427210596140795 0 
-0.3834409019513952 -0.02167631821013989 0.3532685029105119 0 -0.1072395006445160 -0.5353983421269531 0.8731410638567975 -0.2451783646722762 -0.1250451903494228 0 
-0.07636529145308431 -0.2585098101532496 0.1395215611586300 -0.3555229268342852 -0.5844685353591563 0.1201906674978354 0.2663518390324585 0.01893594220381103 -0.5412132672189485 0 
0.1675230090890502 -0.1450903760555142 0.02848385687177117 0.002970710702230173 0.2422032903346669 0.08707233777949466 -0.1841725634033128 -0.2216161429867753 -0.2396842263183933 0 
-0.01085824403112383 -0.03284890607009040 -0.08210563776363002 -0.1484547587160592 0.05101239882608265 -0.1164414283253194 0.1154714028990994 0.05663898691270967 0.2006681505365935 -1.734723475976807e-17 
0.1449033810337806 -0.07446660343691372 -0.01813583226810726 0.3529246464718248 -0.07722546012836981 0.06785093386105617 -0.02629939017343481 -0.1258379776243283 -0.1024236945662902 -0.04829536371458697 
0.6150333105672352 -0.1222093329799280 -0.2501610024509984 -0.1161782952474237 -0.4078981629931450 -0.007284612648202998 1.734723475976807e-17 -0.1802768658639294 0.1430344076483569 0 
-0.09229438812494001 -0.01179642269726290 0.2469710117653317 -0.1217780024544226 0.2925266114737500 -2.775557561562891e-17 -0.1736347981391277 0.2047973714507620 -0.7455645766628372 0 
-0.01668740498444279 0.03649733386199743 0.03931666584297916 -0.2201482188818396 -0.4066994957031315 0.03900368903642379 -0.02369876157114230 -0.2280534995638127 0.1966569485858173 -0.09584604608093186 
-0.4474394455211112 0.1501583498151428 -0.2121282683322082 0.7640113669485274 0.01913442326958531 -0.2096325889277795 0.2266876473008807 0.3838533040571754 -0.3986297108093838 0 
-0.3864377480545032 -0.3605108323966325 -0.5629247765809091 0.7878714744609820 0.4284757226127983 0.2945388510330768 -0.1691936152468938 0.5657980690240476 -0.1589888012573860 -0.006574277569917760 
0.1860269188135693 0.2827282649604675 0.08046220413735244 -0.1304794747121472 -0.09500101492085244 -0.5001634555464682 -0.3157638602322800 -0.1413204269615625 -0.2652729656187047 1.301042606982605e-18 
0 0 0 0 0 0 0 0 0 0 
-0.2466119096566622 -0.1345199011607708 -0.2213364012589162 0.1846012953680472 0.05649853622171951 0.3571542301754192 0.2733330051868261 0.5427910386227838 -0.3499605727183843 0 
0.2408719500889454 -0.4299467147209010 0.05240995872089828 0.1310567975723860 -0.01718516298301477 -0.3422938608542848 -0.5690511826473692 -0.06883587955778075 -0.07119406101426977 -6.938893903907228e-18 
0 0 0 0 0 0 0 0 0 0 
-0.02740627216648105 -0.3021861344901432 -0.1844104175945172 0.5179694570624508 -0.5844685353591568 -0.1126238608854045 -0.02705918493671971 0.3997964792651239 -0.2079513597505953 -1.084202172485504e-19 
-6.938893903907228e-18 0 0.7082153807980406 -0.1092696113415315 0 -0.5517418367725923 -0.1251539771921282 -0.3733079299365187 0 0 
0.1554080578442410 0.1088713395535619 0.01082690879607144 -0.1869426739712539 0.09670149016432997 -0.3369969158628103 -0.07469883818999246 -0.1798498565276684 0.07146536825788280 -0.006574277569917741 
-0.08307478504664388 -0.01622780027002207 -0.05294195877656439 -0.05134494376630829 0.1348125087644154 0.1708129573607886 0.003447957995936550 -0.05624554987190267 -0.1055164841573720 -0.008457379884604560 
0 0 0 0 0 0 0 0 0 0 
0.01491143222529658 -0.2198073031154493 -0.2382427341196674 -0.1217780024544225 -0.02873463866436233 -0.2719054457890446 8.673617379884035e-18 0.4892883907344693 0.7438347627028619 0 
-0.3715745969211757 -0.05276009121119085 0.1464410553978015 -3.469446951953614e-18 -0.2012604092393750 0.1368365839064658 0.1107809104193189 -0.1403492690415327 -0.1180939360409044 0 
-1.734723475976807e-18 0 0.01607206098193370 0 -0.009262145920496610 0.5513508184913077 -0.3915814897348749 -0.2730331274219665 -0.03508986755671011 0 
