solver_type L2R_L2LOSS_SVC_DUAL
nr_class 3
label 3 1 2
nr_feature 374
bias 1.000000000000000
w
-0.2454284657976244 0.1671679937269242 0.3420899446746046 
0 -0.1181974974840599 0 
0 0 0 
0 0 0 
-0.8925038398294689 0 0.9802778336301426 
0 0 0 
0 0 0 
0 0 0 
0 0 0 
0 0 0 
0 0 0 
0 0 0 
0 0 0 
0 0 0 
0 0 0 
0 0 0 
0.6988407804994794 -0.01932581947591407 -0.9621390522618132 
0.2972483594566950 -0.2779367359203898 -0.3214685038260486 
0.1255773524761167 -0.1332527639772378 -0.08340395533020677 
-0.1745006844963608 0.6441928293167325 -0.5287304824560669 
0 0 0 
0 0 0 
0 0 0 
0 0 0 
0 0 0 
0 0 0 
0 0 0 
0.1502750855597824 0 -0.1754090586655111 
0 0 0 
0 0 0 
0 0 0 
0 0 0 
0 0 0 
0 0 0 
0 0 0 
0 0 0 
0 0 0 
0 0 0 
0 0 0 
0 0 0 
0 0 0 
0 0 0 
0 0 0 
0 0 0 
0 0 0 
0 0 0 
0 0 0 
0 0 0 
0 0 0 
0 0 0 
0 0 0 
0 0 0 
0 0 0 
0.2402637362098861 -0.03325742507705273 -0.2428294061164872 
0.3663855111989048 -0.6502119721900723 -0.1228556198186734 
0.2132108453939501 0.01577986791708771 -0.2740950749754997 
0.5487830018698973 -0.5985546462627926 -0.2694052571843398 
-0.06073831996528779 0.2386472541186478 0.1415281015221493 
0 0 0 
0 0 0 
0 0 0 
0.2463758538238685 -0.07158958095767956 -0.2251851841253393 
-0.001416644637492614 0 0 
0 0 0 
0 0 0 
0.1334806015672214 0 -0.2892340926990141 
0 0 0 
0 0 0 
0 0 0 
0 0 0 
0 0 0 
0 0 0 
0 0 0 
0 0 0 
0 0 0 
0 0 0 
0 0 0 
0.2230718766583459 -0.1858915383756752 -0.2311869992457334 
0.2424361002850487 -0.3620581327128867 -0.2138278712827498 
-0.07301007360733097 0.07146292978614176 0.1751401044400542 
-0.06627939609117439 0 0.05927493276502983 
0 0 0 
0 0 0 
0 0 0 
0 0 0 
0 0 0 
0 0 0 
0 0 0 
0.1982590743072576 0.1809464432049773 -0.1667863484509056 
0 0 0 
0 0 0 
0 0 0 
0 0 0 
0 0 0 
0 0 0 
0 0 0 
0 0 0 
0 0 0 
0 0 0 
0 0 0 
0 0 0 
0 0 0 
0 0 0 
0 0 0 
0 0 0 
0 0 0 
0 0 0 
0 0 0 
0 0 0 
0 0 0 
0 0 0 
0 0 0 
0 0 0 
0 0 0 
-0.1566674366483720 0.5156994019049368 -0.1490369428873297 
0.2294960648387486 -0.3462805889468841 -0.09917644148988243 
0.1515275405162891 -0.4353150459647296 -0.1668387007795582 
0.1518009664027260 0.1817201075322497 -0.3461078253006267 
-0.01166116483916385 -0.3136429107785683 0.1365248382483024 
0 0 0 
0 0 0 
0 0 0 
-0.1287845215327945 0.3346050953439629 0.1231228598944153 
-0.07291111481880962 -0.1946123789292978 0.1570666091894898 
0.1087434423515671 -0.4775445554212757 0.08805028655840540 
0.2494737439709137 -0.02502704174848931 -0.1059876915308054 
0.05926580434928119 -0.01844971602814220 0.1594197292861428 
0.3702377959944390 -0.09284486177206300 -0.1515405235567593 
0.3776929241725738 0.06197523657064905 -0.3594299518861474 
0.4838336881803237 0 -0.4568314839175514 
0 0 0 
0.1502750855597824 -6.938893903907228e-18 -0.1754090586655111 
0 0 0 
0 0 0 
0 0 0 
0.2955142837580174 -0.3101049992020846 -0.1109323352235658 
0.4781403567566285 -0.5342414259724587 -0.3393930103161224 
0.2446786161999815 -0.1825948787791858 -0.1455317848081170 
0.2124696285048504 -0.1080003241475612 -0.1069295303913173 
0.3900025598974982 -0.01072705318982958 -0.4887004866139298 
0.1184527378899093 0.1672778675200966 -0.2336264854080573 
0.2775955084145613 0 -0.2892340926990141 
0 0 0 
0.2191729350388849 0.1809464432049774 -0.4265240707374769 
0 0 0 
0 0 0 
0 0 0 
0.05473906285369660 0.07090657551137358 -0.01508851825115760 
0.3365696627099160 -0.09439417028554827 -0.4717945767274803 
0.7314377838848045 -1.125975376430956 -0.6007047221246036 
0.5127173008495420 -0.02044929926116861 -0.5933112259021909 
-0.04525915248884930 0.1091458713881165 0.04849356222748356 
0.004495578836289079 -0.005934972343761063 -0.03747577667836302 
0.4101206110035361 -0.1292445116249195 -0.6544491528353329 
-0.2776493118959725 0.2255527227646101 0.2528017802500576 
-0.06844944761337730 0.1819566501999546 0.06820500425519616 
0.7812879419639848 -0.6736657101715087 -0.6262143805512534 
0.3393861123052567 5.030698080332741e-17 -0.05563443317802044 
-0.07942085815692809 -0.1614543296078686 0.1461098733571813 
0.1302830648057730 0.1018602334448354 -0.5143901881783535 
0.1413428904627488 -0.2909400829383553 -0.2504676443206624 
-0.2051325776827245 0.4047712896614054 0.05877293688724225 
0.1596667888778595 -0.1455203156966282 -0.2746166948238777 
-0.08522033585557953 0.3796057661579697 -0.1995338971672476 
-0.1251535568804466 -0.1783894278467205 0.03760711809903521 
-0.09553589509026297 -0.6034868285717528 0.1924784014533084 
-0.3048327117207995 0.5169578031490709 0.1551449935166345 
0.07492545200598989 -0.5211374461545979 -0.2203925364481343 
0.05456047512539693 -0.02292895876156086 -0.09840227336257605 
0.3214774303669929 -0.08171955284476992 -0.4967536628454531 
-0.02497262496549634 -0.1465561507980919 0.02077382656793127 
-0.09206102460245774 0.1539580520816723 0.02788807684374808 
0.06589064608685788 -0.2693821077225378 0.1274691069391559 
-0.2983839593817796 0.1438505495493910 0.5131682828579925 
0.5924918313417105 -0.3364858682160195 -1.145468946861953 
-0.08184156036525592 0.1413112209483096 0.2214121463459662 
0.4384526434312249 -0.4516446111508473 -0.4618643340870766 
-0.1961445341163191 0.2759909406311247 -0.1030460128050834 
0.1500374498052773 -0.1581580649634095 -0.7803717292952534 
-0.1251598385692250 -0.04574357277592312 0.3582537254652592 
0.01148778083154975 -0.5831879477641480 -0.1046878401193540 
-0.03317461295203881 -0.01315084692281812 -0.1213251113463670 
0.2634552066410206 -0.4155791455591586 -0.5155053233665898 
0.3994087980718391 -0.09830360300193558 -0.01964312666574238 
-0.03011344021601487 -0.2379153198242076 -0.04014828001554160 
0.002295882698373354 -0.2680796238902760 -0.04229471777462574 
0.1910899980039178 -0.4184595851841821 -0.3041876114417602 
-0.06724644862189269 -0.1741025630121025 0.1114408148036417 
0.1250749053748917 0.1370788124763834 -0.3180760734658129 
-0.3574300479841975 0.5523138850534081 0.3980269575256214 
0 0 0 
-0.5441387387791453 -3.469446951953614e-18 0.5502345278326806 
0 0 0 
0 0 0 
-3.469446951953614e-18 0 0 
-0.01321676257746954 0.3502595385730952 -0.2597377222865709 
0 0 0 
0 0 0 
-0.01340709086446845 3.469446951953614e-18 0.4007238924229895 
0 0 0 
-1.166877740508963 -0.2295074796413053 1.436581302781862 
0.2369223407757375 -0.5442766467089961 -0.2646074238344438 
0 0 0 
0 0 0 
6.938893903907228e-18 0 0 
0 0 0 
0 0 0 
0.6809260449295812 -0.7069215717838039 -0.3540606572455455 
0 0 0 
0.01822590268478454 0 -3.469446951953614e-18 
0.03755313100520702 0 -1.734723475976807e-18 
-0.03606961905754355 0.3254944921031522 0.05473294401115528 
-0.1542421236962827 0.4626508324934494 -0.3190065591188460 
0 0 0 
0 0 0 
0 0 0 
0 0 0 
0 0 0 
0 0 0 
0 0 0 
0.3486683532939520 -0.2251212621985342 -0.3829785942128821 
0 0 0 
0.3927073268867279 1.387778780781446e-17 -0.4346635972587128 
0.1310044534903124 -0.5618120754614785 1.734723475976807e-18 
0 0 0 
0 0 0 
-0.1338933281248740 0.4275114575714640 -0.09639867771564227 
-0.03640846022141625 -0.1353646178990712 -0.08221132731347577 
-0.1752109110355989 -0.1443211640069677 0.3244301185140476 
0 0 0 
0.01673973634968450 -0.1783988261698473 0.03759344920693986 
0 0 0 
0 0 0 
0 0 0 
0.3227507536178705 -0.2436158941801023 -0.4089120025042493 
-0.1843363593494389 0 0.3213188272070027 
0 0 0 
0.2245445445370854 -0.05176831607876694 -0.2366691334755695 
-0.04339706946701093 0.1274832855814304 -0.03667789453333071 
0 0 0 
0 0 0 
0 0 0 
0 0 0 
-0.1432575020163776 0.4981102714021090 3.469446951953614e-17 
0 0 0 
-0.1752109110355989 -0.1443211640069677 0.3244301185140476 
0.3486683532939520 -0.2251212621985342 -0.3829785942128821 
0.1636537371367029 -0.08238689800418658 -0.1924301777818081 
-0.02549284558037342 -0.1542226717684259 0.1402128049803231 
0.2245445445370854 -0.05176831607876694 -0.2366691334755695 
0.3927073268867279 1.387778780781446e-17 -0.4346635972587128 
-0.1338933281248740 0.4275114575714640 -0.09639867771564227 
0.1182769959899286 -0.02671121791162777 -0.2217917882656402 
0.003002157309359298 -0.1006294980192941 3.469446951953614e-18 
-3.469446951953614e-18 0 0 
0 0 0 
0.01216727117334432 0.3104691659623886 -0.3631672203073954 
-1.029296270876934 0 1.014093194857100 
0.3227507536178705 -0.2436158941801023 -0.4089120025042493 
0.5441717267572843 -0.3508189313431309 -0.2409646116822224 
-0.03640846022141625 -0.1353646178990712 -0.08221132731347577 
0 0 0 
0.01673973634968450 -0.1783988261698473 0.03759344920693986 
0 0 0 
0.03025269599094270 0 0 
-0.1843363593494389 0 0.3213188272070027 
0.1784795333867702 -0.4240849805383879 1.734723475976807e-17 
-0.5776435359470465 0.5637537197248580 0.7280406526135430 
-0.04339706946701093 0.1274832855814304 -0.03667789453333071 
0 0 0 
0.1310044534903124 -0.5618120754614785 1.734723475976807e-18 
-0.1196233055393745 -0.1104777939887399 0.3568500093302254 
0 0 0 
0 0 0 
0 0 0 
0 0 0 
0 0 0 
0 0 0 
0 0 0 
-0.5226164838292744 0.6355147542212379 0.4157524304139832 
-0.3215933956550576 0.6411609951135111 0.3047737303522192 
0.1171000979664567 0.1328712331290829 -0.3538029035432910 
0.1581818922643020 0.02336316175826184 -0.1796979834114720 
0.1172135994539580 0.009773388261370523 -0.1191966582413220 
-0.0002888105554038683 -0.4545097074436312 0.1895841986070743 
0.2946502410347865 -0.8728314522810061 0.08833067816309502 
-0.06149500341098994 -0.1201484486781909 -0.1254234952736492 
-0.2186646185664787 0.1535681607263973 0.2815560429502229 
0.06263298979914578 0.1379029672242547 -0.04893262713078321 
0.5303256632796316 -0.03518003665842259 -0.1879783084475658 
0.2741372106672596 0.1154158788946176 -0.5398921146259914 
0.3657281732192945 -0.1741764912112207 -0.4859701786977882 
0.3615076599787888 -1.387778780781446e-17 -0.6305552756125571 
0.09724064090885953 0.2646718216301426 -0.1701234626913724 
-0.2873480362535428 -0.9657485562797135 1.172462268333242 
-0.4431554181382977 0.7525198494979202 -0.1879783084475659 
0.4936458882126094 -0.7046461184009537 -0.5012556730561138 
0.4343873943394303 -0.7084933392853967 -0.07010042016524605 
-0.4249434379256017 0.5985536665397987 0.4037263637948494 
0.4537840134229793 -0.4158887280642710 -0.3922438164075889 
0.03060681069501074 0.3929185027763839 -0.1879783084475659 
0.3174147079136599 0.2825333348176198 -0.6909590529184553 
0.07337514952148488 -0.2149872503179764 -0.1358131708438932 
-0.1432575020163775 0.4981102714021092 6.938893903907228e-18 
-0.2423999978856668 -0.2354030524485133 0.2990137131961341 
-0.7402354041246424 1.450766266504053 0.2144375388830147 
-4.336808689942018e-18 0 -0.1738601984023428 
0.2984075216713706 -0.2014280862834883 -0.4390665937344578 
0.2009356853136881 -0.2221493243645302 -0.1918669030281591 
-0.3920716190388877 -0.0008783398084838733 0.6531315004533169 
0.3975258524830606 0 -0.3378567107026313 
-0.1004104150611706 0.1051032978738852 0.2361255766871236 
-0.3113180219708475 0 0.2392469914506223 
0.1303169070265075 4.163336342344337e-17 -0.01898176298713255 
0.6630373221783905 -0.7319838986662690 -0.4031601925080644 
0 0 0 
0 0 0 
0 0 0 
-1.026421535294071 1.257599044831954 0 
0.01153523615669447 0.1816289512601608 -0.4108409015667356 
0.5105580849435090 -0.9169230733945911 -0.1734144740254687 
0.1287958904770774 -0.3727639356425389 0.3335471126546851 
0.2308879138688907 -0.1546762362669729 -0.4240164217406678 
-0.2432077665760810 0.5494981397493404 0.1963550170131243 
0.5069476294709910 -0.1659099568027245 -0.5933680104103416 
0.2618946769268493 -0.09206549779386221 -0.1822747583629578 
0.1889624312672068 -0.2232255459814110 -0.1787667757959577 
0.3035643298124769 -0.1567096167377464 -0.4121091633799210 
0.4383169387863672 -0.2906195823034128 -0.4537700149043893 
0 0 0 
0.3365696627099160 -0.09439417028554827 -0.4717945767274803 
0 0 0 
0.3658084901715124 -0.6723549043369583 -0.1491312816642177 
0.1907951895589933 0.09731319055400975 -0.5619415946876004 
-0.03028076426055498 0.5806903673784476 -0.1767668286725636 
0.1047709622688471 -0.2431225841204962 0.08767025980127847 
0.0005110613144110668 0.2569712181589196 -0.1022056991554597 
-0.6903525377914549 0.3514205608269758 0.7373697384749155 
-0.03556653498212667 0.5868100033023151 -0.2830665759129604 
0.07662642969630429 -0.5754768334663105 0.008425752661299000 
0.4884805494373952 0.05016968007595375 -0.5433364761083441 
-0.09061485958254382 -0.02027811078883316 0.2116537465839764 
0.03070883665176532 0.1808538174292109 -0.1189208369552176 
0.4763183856191197 -0.08894193428724569 -0.5150574444417060 
0.2164968451236562 -0.2935666808526903 0.02438570334360164 
0.05759215454596853 -0.1809103183774884 0.01040624418562968 
0.1295963303920474 -0.1552905279517411 0.09031653503658879 
0.3524840657348519 0.09770119903722724 -1.003170419268843 
-0.2802594782836090 0.4285446054551558 0.1128897822645877 
0.07342231370986885 -0.4894301030710654 0.3513307712831876 
-0.1138453196116884 0.3834037276500135 -0.2094570791887160 
-0.4860239496754405 0.8887048965892438 0.1657839723011291 
-0.3808964032916870 0.2135399030106134 0.4022548219012523 
0.6913379669948125 -0.1433901233540176 -1.022164541759283 
0.4375898758293380 -0.4790200569161940 -0.3425261542714208 
0.06706664590277580 -0.6661061319307016 0.04128899629999779 
-0.004957270816553602 -0.2544871497449225 0.09501994176712754 
0.1577317490325178 -0.05043133954951465 0.02069195736825343 
0.2486893576134974 0.2268187765276592 -0.3581972705060392 
0.2877326516358135 -0.3313812116572336 -0.3305331116305781 
0.08984674227125253 0.3062002327010681 -0.4807332171289801 
-0.2202733740122962 0.7225862200320105 -0.07222033880198579 
-0.5707486956135284 0.1295485170689809 0.6056567367973968 
0.2256035263233572 0 -0.03822655193053912 
-0.2515707946108788 0 -0.04288520132157254 
1.036769744761199 -0.07883167813228044 -1.174576568824133 
-0.1329662691068002 -0.02854637283394746 0.2636628303702758 
0.3478075425329238 -0.1045220350591661 -0.4852431581262732 
-0.1452845526532207 0.5452113903987790 0.07570977848731301 
0 0 0 
-0.1585718777507089 0 0.4009201230353561 
0.1866536790060785 0 -0.1226238406698507 
0.1773568036511003 0 -0.2703584548371326 
0 0 0 
0.07869605686476848 -0.1783988261698474 3.469446951953614e-18 
