solver_type L2R_L2LOSS_SVC_DUAL
nr_class 10
label 6 11 1 7 5 8 2 14 13 12
nr_feature 276
bias 1.000000000000000
w
0.08864665198868005 -0.2437273339924833 -0.2170731617637452 -0.09311365125875892 -0.09770633500719059 -0.3066980941838441 0.02993199376983488 -0.4729111529628094 -0.5885333282462160 -0.3808593954090730 
-0.4235647126017306 0 -0.1493051287398826 -0.1684619307211526 0 0 0.4777079586274174 0 -0.1933150486427819 0 
0 0 0 0 0 0 0 0 0 0 
0 0 0 0 0 0 0 0 0 0 
-0.4033436429591539 -0.05649685729864686 0.1342810101584736 -0.04403157520127701 -0.3701902886871241 -0.2812725939546710 0.1576423115666470 -0.1100357017109056 0 -0.1170776129324915 
0 0 0 0 0 0 0 0 0 0 
0 0 0 0 0 0 0 0 0 0 
0 0 0 0 0 0 0 0 0 0 
0 0 0 0 0 0 0 0 0 0 
0 0 0 0 0 0 0 0 0 0 
0 0 0 0 0 0 0 0 0 0 
0 0 0 0 0 0 0 0 0 0 
0 0 0 0 0 0 0 0 0 0 
0 0 0 0 0 0 0 0 0 0 
0 0 0 0 0 0 0 0 0 0 
0 0 0 0 0 0 0 0 0 0 
-0.01837059929134607 -0.1640060864255319 -0.08052152031034160 -0.1468467876687691 -0.1734387768538260 -0.1551413569292415 -0.02811889394815513 -0.3086570104557815 -0.4892132831497695 -0.02232702181558904 
-0.01753690501703786 -0.09492415467031169 -0.1864744545111992 -0.1294518995713559 -0.1265649054743935 -0.09819504155814038 -0.08666081094110403 0.03753163130576799 0.03140781555393005 -0.04049239663469621 
0.002918534565332876 -0.06411064534460105 0.07863632451668098 -0.1929557342287232 -0.1607571344885195 -0.1362640478486020 -0.2552585462688585 -0.3060929381272092 0.02029608973766828 -0.1098588428416041 
-0.3776794507695752 -0.06361900294344067 0.3854856279063090 0.01892617489893190 -0.1399214726261213 -0.1668278831354329 -0.6501421179241154 -0.02295572260783483 -1.734723475976807e-18 -0.1509755305954595 
0 0 0 0 0 0 0 0 0 0 
0 0 0 0 0 0 0 0 0 0 
0 0 0 0 0 0 0 0 0 0 
0 0 0 0 0 0 0 0 0 0 
0 0 0 0 0 0 0 0 0 0 
0 0 0 0 0 0 0 0 0 0 
0 0 0 0 0 0 0 0 0 0 
0 0 0 0 0 0 0 0 0 0 
0 0 0 0 0 0 0 0 0 0 
0 0 0 0 0 0 0 0 0 0 
0 0 0 0 0 0 0 0 0 0 
0 0 0 0 0 0 0 0 0 0 
0 0 0 0 0 0 0 0 0 0 
0 0 0 0 0 0 0 0 0 0 
0 0 0 0 0 0 0 0 0 0 
0 0 0 0 0 0 0 0 0 0 
0 0 0 0 0 0 0 0 0 0 
0 0 0 0 0 0 0 0 0 0 
0 0 0 0 0 0 0 0 0 0 
0 0 0 0 0 0 0 0 0 0 
0 0 0 0 0 0 0 0 0 0 
0 0 0 0 0 0 0 0 0 0 
0 0 0 0 0 0 0 0 0 0 
0 0 0 0 0 0 0 0 0 0 
0 0 0 0 0 0 0 0 0 0 
0 0 0 0 0 0 0 0 0 0 
0 0 0 0 0 0 0 0 0 0 
0 0 0 0 0 0 0 0 0 0 
0 0 0 0 0 0 0 0 0 0 
0 0 0 0 0 0 0 0 0 0 
0 0 0 0 0 0 0 0 0 0 
0 0 0 0 0 0 0 0 0 0 
0 0 0 0 0 0 0 0 0 0 
-0.08186689530449054 -0.2030118271734010 -0.03674874983278665 -0.3013267606193532 -0.2453603576437362 -0.1629686081218554 0.1780328432872467 0.09500237843100554 -0.2288951481840892 -0.2045056969320104 
0.01700440243739555 -0.2836010352144407 0.09029548255122291 -0.2593693305408430 -0.2781304952050638 -0.2247719946620221 -0.03477891526031793 0.05334518425208932 -0.1649569101304720 0.009354725522580699 
0.06858177064730667 -0.2905712566329388 -0.001777609231790619 -0.2307765638020171 -0.1786659007470463 -0.1434591868845013 -0.1226899110180370 0.09023218448439671 -0.5162304917416539 -0.07746528394292610 
-0.07310849968214850 -0.5187005247090978 -0.07942378760682998 -0.09536131741347097 -0.2972727105143657 -0.08921104187526674 0.005539052176291276 -0.2452935310117173 0.4626842934371855 -0.1617625655694245 
-0.04403893216501614 -0.05647079773664879 0.08709580167905746 -0.3709627436462913 -0.1666976860651442 -0.2034677701725609 -0.01436672663112965 -0.2901601796676798 0.009662749976428563 -0.1000411475292166 
0 0 0 0 0 0 0 0 0 0 
0 0 0 0 0 0 0 0 0 0 
0 0 0 0 0 0 0 0 0 0 
0.04503020310941773 -0.3236294290552555 0.01811317066086855 -0.2251685711870341 -0.3587101243914742 -0.2401042532828523 -0.03383631035847003 0.02975763564635791 -0.4811268348990308 -0.1803674334728163 
0 -0.1661811087760867 0 0.7570561262588684 -0.5809958431077917 -0.4424146253239967 -0.04762265987286198 -0.1174627421282192 0 0 
0 0 0 0 0 0 0 0 0 0 
0 0 0 0 0 0 0 0 0 0 
-0.2838366878626924 -0.1199386599636246 0.4171130398246993 -0.3190607864465425 0.1765283139132207 -0.3684738480914450 -0.3303764292064426 -0.1553614983157621 -0.05806398163876907 -0.1366593156765444 
0 0 0 0 0 0 0 0 0 0 
0 0 0 0 0 0 0 0 0 0 
0 0 0 0 0 0 0 0 0 0 
0 0 0 0 0 0 0 0 0 0 
0 0 0 0 0 0 0 0 0 0 
-0.1945793366522693 -0.1187969082339644 1.182623032443064 -0.04991212266272298 0 -0.4018016295972112 -0.5266792230382550 0 0 0 
0 0 0 0 0 0 0 0 0 0 
0 0 0 0 0 0 0 0 0 0 
0 0 0 0 0 0 0 0 0 0 
0 0 0 0 0 0 0 0 0 0 
0 0 0 0 0 0 0 0 0 0 
0.04400035381784257 -0.09131401165822496 -0.2435575246772438 -0.1376010407188603 -0.2949877952561136 -0.05928620953159219 0.1113322980776698 0.06018219452276494 -0.4201844170380849 -0.09787523967869792 
-0.1001727461576516 -0.09578786782867110 -0.1629186229142082 -0.2594979561186722 0.02286030962138530 -0.03722061849317997 -0.001190971586895883 -0.005869435398787425 0.2099028480193168 -0.08221074049397548 
-0.09406251085719916 -0.3154665403244814 -0.3614267236671055 -0.2295426597803587 0.01152746610621072 -0.02983063020120056 0.2198303790501090 -0.02672300400057977 -0.2286944928132206 -0.1365818722713265 
-0.2568513223701232 -0.4003438966006989 0.2937475813691337 -0.5240473458863569 -0.1354382249287556 -0.4467605622652920 0.2035962820400601 -0.06130654430348757 5.204170427930421e-18 -0.2051590247597050 
0 0 0 0 0 0 0 0 0 0 
0 0 0 0 0 0 0 0 0 0 
0 0 0 0 0 0 0 0 0 0 
0 0 0 0 0 0 0 0 0 0 
0 0 0 0 0 0 0 0 0 0 
0 0 0 0 0 0 0 0 0 0 
0 0 0 0 0 0 0 0 0 0 
-0.4051144937544610 -0.08199971925488715 -0.7129607514618781 -0.1090548055655644 0.7738647999412631 0.4569976495510825 -0.1112711137999891 -0.06355272598156553 -0.06727581413465816 0 
0 0 0 0 0 0 0 0 0 0 
0 0 0 0 0 0 0 0 0 0 
0 0 0 0 0 0 0 0 0 0 
0 0 0 0 0 0 0 0 0 0 
0 0 0 0 0 0 0 0 0 0 
0 0 0 0 0 0 0 0 0 0 
0 0 0 0 0 0 0 0 0 0 
0 0 0 0 0 0 0 0 0 0 
0 0 0 0 0 0 0 0 0 0 
0 0 0 0 0 0 0 0 0 0 
0 0 0 0 0 0 0 0 0 0 
0 0 0 0 0 0 0 0 0 0 
0 0 0 0 0 0 0 0 0 0 
0 0 0 0 0 0 0 0 0 0 
0 0 0 0 0 0 0 0 0 0 
0 0 0 0 0 0 0 0 0 0 
0 0 0 0 0 0 0 0 0 0 
0 0 0 0 0 0 0 0 0 0 
0 0 0 0 0 0 0 0 0 0 
0 0 0 0 0 0 0 0 0 0 
0 0 0 0 0 0 0 0 0 0 
0 0 0 0 0 0 0 0 0 0 
0 0 0 0 0 0 0 0 0 0 
0 0 0 0 0 0 0 0 0 0 
0 0 0 0 0 0 0 0 0 0 
-0.1407001288928325 0.07687512704230554 0.3011741351518810 -0.1858976848337144 -0.3344694945643265 -0.1963630358716054 -0.3115596224225432 -0.06004884553559601 -0.2720473994155703 -0.1175224401567977 
-0.06232435953306778 -0.1921773866355416 -0.1042504451484060 -0.1693788675015901 -0.4085583364070400 -0.02470566981751010 0.2043422937910358 -0.09945568147703439 0.2078349108455573 0.02461796372653536 
0.1848444385502855 -0.03142712948993449 -0.2811671511798404 -0.1335665669127709 -0.2526908453224642 0.003151686994118622 -0.1306923783181684 -0.1781613375617122 -0.2144136144120817 -0.1554240712854959 
0.05317447396784858 -0.02750853579684211 -0.1762609713924979 -0.1921745793587769 -0.4237870245765467 -0.09473023728070729 0.1394271257369127 -0.7443756997670291 -0.1608524416839631 -0.2337249290244599 
-0.05176616151687905 -0.1515434555656402 -0.1457589341933038 -0.2358852590589763 -0.4298492643401032 -0.08673563611475145 0.2715385673435596 -0.05761717377002942 -0.1721720242192633 -0.03510366558662671 
0 0 0 0 0 0 0 0 0 0 
0 0 0 0 0 0 0 0 0 0 
0 0 0 0 0 0 0 0 0 0 
0.05301397457644866 -0.08495732996132827 0.01773258184830305 -0.07412401205816177 0.08128195462430360 -0.01957255810932474 -0.05061972222116644 -0.3389427925955802 0.04996821616659949 -0.02287896331079456 
-0.2526715629374499 -0.1513734713309971 0.06660419343605123 -0.0007678788937866460 -0.1529325603994935 0.009376912595574232 -0.03389571738318172 -0.3294802853371023 -0.1497545158137031 -0.2776158054350932 
-0.2396776315435145 -0.1886400483632689 0.02546123486892066 0.02558694721175386 -0.2549912973977693 0.01551638595892508 0.03072161102142323 -0.2424231558819373 -0.2103734217439669 -0.1782279027236167 
-0.1956667698981093 -0.1704402666539784 0.01118052341313581 0.06762000381640060 -0.1061181393070897 -0.04361229425296391 -0.1018331199710155 -0.1351625625124196 -0.4241939376080508 -0.07765640631083293 
-0.3591019940534690 -0.1458961910797972 0.1323667222714953 0.1254730769129793 -0.1270834276010576 -0.1488713498757984 -0.03192220636508102 -0.1825255511109166 -0.2226915864031119 -0.1889722610945824 
0.2592787694552832 -0.1941453334956367 -0.06295263993425015 -0.01352980053076862 -0.8871835042233689 -0.1788140641443263 -0.1919854480314806 -0.3271946581437525 -0.2858861893829142 -0.09538123601328494 
-0.8814433239455084 -0.1750543749521304 -0.001922364054317547 0.06702060204529998 -0.3664027918480786 -0.2062990511123282 0.5192786537696792 -0.05990131583188334 -6.071532165918825e-18 1.908195823574488e-17 
-0.6421995031667969 -0.2303732479038901 -0.4924282807508928 -0.3464621493546410 0.7463958521583220 -0.1981795973763925 0.4518002885055127 -0.1417100670893610 -0.2557092105762365 -0.1624216497616812 
0 0 0 0 0 0 0 0 0 0 
-0.1397692476262876 -0.06944132074623505 0.2374313298077131 0.3740516990112762 -0.1762345914779432 -0.2674853386952890 -0.5728001707140198 -0.06159726216331534 0 -0.1957839425566499 
0 0 0 0 0 0 0 0 0 0 
0 0 0 0 0 0 0 0 0 0 
0 0 0 0 0 0 0 0 0 0 
-0.03374551208309656 -0.1389255642101661 0.08598148155474074 -0.07227537091501911 -0.09104680247320028 -0.09967982406617662 -0.1495173490960838 -0.1273795068184160 -0.3565325039591525 -0.1203736632502077 
-0.08178755056895909 -0.1266986980955547 0.1150386966554305 -0.08336549612566543 -0.06806581265609240 -0.06917095690374322 -0.2172062411867151 -0.1316339848168814 0.09692931086424918 0.006331590835680320 
0.06957565054421512 -0.05419247624021759 -0.04270134323900604 -0.09711623154815599 0.08961271744102872 -0.05952727313110570 -0.2222936465486514 -0.2288158755388115 -0.5465415342239439 -0.3472594822570573 
-0.03950424888096578 -0.07318225818040755 -0.2124255280146384 -0.1416985319548339 0.03896487498079866 0.09374654007608843 -0.07464884047920850 -0.2349317155749189 -0.2295226174367221 -0.08885250305236547 
0.2501731187103480 -0.3172704885336175 -0.03451121836712953 -0.2809528517316391 0.3555227010677428 -0.09493470763929755 -0.3682330614448158 0.03610686037313801 -0.1743391289119524 1.214306433183765e-17 
-0.02522394791303125 -0.2260663901279817 -0.2852149719116722 0.08604338656065412 -0.009031580221791319 0.1927747704217579 -0.2476975329309529 -0.004289696176334332 -0.3798109735875879 -0.2590452506055047 
-0.05067513571189060 -0.2576058673705386 0.02690454129174514 -0.2323973118363405 -0.5019973863395620 -0.1384432003345588 0.1344100549862570 -0.06379356909464023 9.540979117872439e-18 -0.01371510456545523 
0 0 0 0 0 0 0 0 0 0 
0.2931987309924657 -0.1826123651583470 0.4596781311615386 -0.5362238412483280 -0.3926002079777998 -0.09607054832056332 -0.7778165990837425 -0.06355272598156551 -0.06727581413465816 -0.02448707235161755 
0 0 0 0 0 0 0 0 0 0 
0 0 0 0 0 0 0 0 0 0 
0 0 0 0 0 0 0 0 0 0 
-0.05307008844668545 -0.06304373074556625 0.008694305730109122 0.02334115611655633 0.03867573831866766 0.05001812895675117 -0.04306892395175810 0.04803261908223308 -0.07229172299756040 -0.003745483262913276 
-0.1434211937914158 0.02431482851440336 -0.1479886600413358 0.1612864073708845 0.7494211228587500 0.1205591655597742 -0.4499344279964157 0.02711374030378315 -0.09048158834664215 -0.04165920082363869 
-0.3182729982677798 -0.3185584454394161 -0.1467962919151176 -0.2797876761648249 -0.3926105743106668 -0.2113439305426304 0.2613759527212495 -0.4374155679798419 -0.5361715862351213 -0.2599114776087582 
0.2224161360983233 -0.3025600854559032 0.2014975560089917 -0.2703930166567314 -0.5129109199144902 -0.3705977793128401 -0.5569229910409661 -0.2142814142977217 -0.2993892620321894 -0.2451348664563457 
-0.2205243911038079 0.06170035619029991 -0.1490428197272828 -0.2166955874633454 -0.2310598394123412 -0.1682759264713580 -0.1327095859916440 -0.2136413174331415 0.1521354001149342 -0.2062825283769735 
-0.2433171906637297 -0.2275010291082305 0.07286968829484220 -0.3358733236023987 -0.2279149338758688 -0.2463494817325191 -0.03376352350129255 -0.1958239129792662 -0.4801031356046208 -0.1940914095123696 
-0.1842299452631107 -0.4858300817424713 0.08598506764983500 -0.3789558992694666 -0.3886402633439310 -0.2452637113636849 -0.03211087786767551 0.08768849645328856 -0.6951193065960128 -0.1753459264781030 
-0.1745880329845084 -0.5460915310850633 -0.1145704222552430 -0.2651769135360058 -0.1127370958547778 -0.4693572845611639 0.03531048063566210 -0.2308532973546631 0.07482121338960498 -0.2114440256761532 
-0.3438418559671862 -0.2203987055007605 0.07452705675914884 -0.2668497030803072 -0.3688324366004607 -0.2570895053419502 0.1156587824803904 -0.2756678444793317 0.1267334155736392 -0.06380053457121110 
-0.2763029612174693 -0.3466523855483906 0.1520587634508122 -0.2378504724682745 -0.1099939309280795 -0.3076454911718975 -0.1728158605517828 -0.3914408581017595 -0.5127186046634433 -0.2724847081541819 
-0.02573824881907200 -0.3192124191112085 0.05396065568013672 -0.5887479132430129 -0.7250403599136375 -0.3710794411921082 0.1208258794592250 -0.05977043804946940 -0.1849348061386449 -0.2838583860029079 
-0.1823246480579984 -0.3087681677559562 -0.001303388648515744 -0.1959087134737994 -0.3417562390073720 -0.2514450179171724 -0.1652254135834249 -0.005952486283787813 -0.1128369903983678 -0.01781404825294319 
-0.1775190675589956 -0.2459079688816629 0.008160523862767386 -0.1596823192549050 -0.2139792461028360 -0.2919782032976087 -0.1354671973762195 -0.4924780733973896 -0.2644726342739615 -0.1310293248716186 
-0.06293763201510187 -0.5677282555917961 -0.1682151462748253 -0.2406266018032555 -0.2860759592253421 -0.2713897676215535 0.03164155417766313 -0.3211848294686901 -0.2406211414387589 -0.2525365808617699 
-0.2343483885255271 -0.004400640246072839 -0.1964818987869748 -0.3057570598349693 -0.2154987671490131 -0.1081124375013909 -0.08852657415438113 -0.06504801048296185 -0.1688011103760989 -0.3912592656988414 
-0.3031873319576364 -0.2465696850064603 0.1762903255317700 -0.2851590396948608 -0.3423615609862561 -0.3666272606243989 0.06640584946463948 -0.1441201622866233 -0.1727079741004928 -0.007028454837649082 
-0.1131443225271662 -0.003419906464092340 0.1090674379869032 0.02765470908258736 -0.04278596468708178 0.01828846940312296 -0.06572947604005708 -0.03939762904135262 -0.09723956541977377 -0.02729179433634098 
-0.06682182225783047 -0.08748032909619066 0.05133761711511296 0.03141849474685521 -0.006848273049402513 -0.03952293158933874 -0.05697831648792917 -0.09172282036210473 -0.3429045698840618 0.0007068612948674375 
-0.02401639037377474 -0.2028878879170804 -0.2087008711640255 0.1042338483530741 0.008035583546839493 -0.04688099299168486 0.03459928868976368 0.002231825696851598 0.1375698554857226 -0.2623558432658454 
-0.1370046417797691 -0.09326175249140149 0.1018530225066209 0.06074004796074068 -0.004626736826991057 0.02081401042901317 -0.08798679654163274 -0.02899115140095752 -0.3229250231960867 0.0006593927965155575 
-0.09779183231331813 -0.01195123328903850 0.1309300604095411 0.07379731098531078 0.03202836484156047 -0.02417118023966042 -0.2386809487556665 -0.1064817565207702 0.1674913082979576 0.1108954637958265 
-0.07935886573895425 -0.1404128349075604 0.04893756291101424 0.1280920584011177 -0.04253677249452251 -0.07716567782353898 -0.09001871823302390 -0.05430086592609759 -0.1463646481675069 0.08054810392885367 
-0.06115427851663922 -0.1516915716646205 0.1146976459130905 0.05768407864912865 -0.1125482498625975 0.06395147853709826 -0.1398084605782463 0.1008029002124289 -0.1428293780055440 -0.02201493499361526 
0.002929961632253452 0.03288342448234762 -0.4718677017749039 -0.06478652646269188 0.08513365947818927 0.04550373438622785 0.3197038971478668 0.06311205544256325 -0.1845362720986118 -0.01419454870923247 
0.01334528284626796 0.04286712117227019 -0.06849915245109027 -0.1250798822147820 0.02807237255562222 -0.01218929308984817 0.07538489492837402 -0.09545982979668881 0.1517906485206773 -0.08188528603407397 
0.05458434099329220 0.04221231815878791 0.1419193424694809 -0.2619017970594558 0.08322489542020613 -0.05557696170827010 -0.1673395762513713 -0.05397569945810123 -0.4354799219492234 -0.1951378752591350 
-0.04364595470256085 0.1408396389561113 -0.2892802376942925 -0.07852848950901059 -0.1527368140946679 0.1034950246532276 0.4046295538912670 0.05808171975288542 0.1245273433712679 0.003572931949610062 
0.01655693613931890 -0.1014436627874726 -0.001734166591384569 -0.07175958399596494 0.02574069242675916 -0.08456975591885568 0.06195057557805789 0.08797955761469986 -0.4710145162432964 -0.2426504977252558 
-0.04237811796211487 0.05664787199346959 -0.3261807762547879 0.05131433121061448 -0.04505930898320942 -0.07482424706992312 0.3342406295632577 0.1011005655895040 0.2387204660430396 0.1128703936225029 
0.04699835925576085 -0.1603694639654235 -0.3292333713539113 -0.05927710211647229 0.07519496537331456 0.04956267544811482 0.1876968055781787 -0.06484981936693368 -0.3692524132350875 0.04439592775813352 
-0.07951748228081416 -0.03908225767743350 -0.07850449295082639 0.03160280295215209 -0.01129318737496692 -0.02375560605391747 0.05169032743119407 -0.09871606940081262 -0.1254880607718591 -0.03274729958005858 
-0.2117926037549320 -0.6346070730080948 0.2772835974030167 0.03399367066965686 -0.03171483695261716 0.1341791278578129 -0.2088526090984483 0.2153625885168181 -0.3033322180987918 -0.07632060193454786 
-0.1837295167621389 -0.001530445989568191 0.1462736072486942 0.4342657667035278 -0.08848626784629443 -0.2595126732886117 -0.5163210625106380 -0.2555621797469250 -6.938893903907228e-18 0.1001977268910922 
-0.1042525507095684 -0.01588573915488853 0.003069763977370655 -0.01624169214652020 -0.03778775635832010 0.06440232720972416 0.02887991623109813 -0.07894383671108149 -0.3183817420186425 -0.1099825761562248 
0.07271712454451285 0.004130552654122051 -0.4161682031725869 -0.08914327467454100 0.01264608778609492 0.09673929439931682 0.2589589130698542 0.1227308029294012 -0.08362432706443727 -0.05958468040884585 
0.01819490762755631 0.1017595204744945 -0.4893608299004386 -0.1238142737785715 0.05320590001383510 -0.02469136678060548 0.3665739101426605 -0.002070735300594057 -0.3596418909565222 -0.08098153335051718 
-0.1718525738445985 0.03827061188391920 -0.3004099851415538 -0.3089418468544516 -0.1179479112882344 -0.1594086209486774 0.7514491205952880 3.469446951953614e-18 -0.2365758994979718 -0.1465871379766672 
0.1293313498747562 -0.09052343700244905 -0.1389370454363182 -0.08811965484019489 0.1516663856645161 0.05876187003064426 -0.1607151633721657 -0.02467151785087791 -0.2654025480723083 -0.08587560266142047 
0.08302118553227764 0.02274874631210106 0.02018047449544518 0.1873998500865882 -0.06318740357806943 -0.1352430762544579 -0.1254280046565357 -0.1542249615941433 0.2117216899231506 -0.09173060550108564 
0.06075869378934615 -0.002226579261888845 0.07085186892501726 0.1379783229397841 -0.1232325449101193 -0.04190686347283867 -0.1574016879161275 -0.08988069502083300 -0.1113983353631968 -0.07031325281481532 
0.1603288507921259 -0.03827555912563752 -0.1622854281635628 0.008791861854594860 0.2850305651808731 0.01036187854574483 -0.1510609973851348 0.1188780694432777 -0.1610317961108542 -0.1838914594230572 
0.1080254817247054 0.01407802934878583 0.1519154038642497 -0.02940178629740782 -0.01382523598685948 -0.1327007859660950 -0.1016258574541420 0.02493340800871942 0.1660679126811025 0.04717323709170741 
-0.06057671472432847 0.04918094054073723 -0.07162016414348764 -0.02868218354231274 -0.02452311817985289 0.06546076713072309 0.09721819111088645 0.09281170462567297 0.03654522201232392 -0.002012272827455862 
0.4780445764243601 -0.1436094361068669 0.1934255703659429 -0.09897243087056529 0.1270511146699577 -0.08565962439354147 -0.8253284900635505 1.387778780781446e-17 -0.1963234875062037 0.03902544024501134 
0.1832192272248452 -0.06522373346697624 -0.6625881663754192 -0.1176850823464428 -0.3383935781736258 0.04612718306357653 0.3054360403640395 0.3916561170712762 2.602085213965211e-18 0.1290990765645318 
0.02445141703685713 0.1337087208380490 -0.3189844587456233 -0.1790187279765776 1.387778780781446e-17 0.1362245723433427 -0.08552258908085937 -0.1707149373168344 0.7535514263833960 -0.1084306992415853 
-0.02968373015028851 0.01972759134941012 0.1143609372012278 -0.08938469372785597 0.2193003705235471 0.1631438876454907 -0.2499030954788937 0.1218919271782178 6.938893903907228e-18 5.204170427930421e-18 
-0.3969839112318097 -0.1845658231248457 -0.3350143227635634 0.1925533061116116 -1.734723475976807e-17 0.07596462102588326 0.2724111096666659 -0.1557593032736458 -6.938893903907228e-18 6.071532165918825e-18 
0.2530570152660365 0.2530464559734134 -0.2474457282382996 0.4660240056799845 0.3512033326718578 -0.1107486007845074 -0.7260845429321710 0.1284126210868555 -0.4802940628188201 -0.1443117143775457 
-0.1163804706413667 0.2832000229998945 0.001875514497189887 0.1397995341125009 0.2216203321034533 -0.02137348400112424 -0.1660425301817499 -0.008814318214802520 0.3110054374420478 -0.2546418857915088 
-0.06800535237216315 0.1038820624795278 -0.06760566195766342 -0.04010420821311720 0.5610239875924301 0.1505483036912513 -0.4601053474469227 -0.003854400271326212 0.1566128058136598 0.1000434031689629 
0.3941083116471623 1.301042606982605e-17 -0.8103577437694784 -0.3243751906269498 1.214306433183765e-17 -0.2232956449542513 0.2922425205509158 -0.02599837723516669 0.8251776524146027 0.3390504839832486 
0.1993263755674550 0.1971539677287149 0.3423480036750980 0.03930225657906165 0.2474999650248385 -0.07619073940570262 -0.6045709360205394 -0.09422070068995649 -0.3696576292219886 -0.1166198103369993 
0.04570811841954060 -0.2818589202857777 -0.7743599092812148 -0.1098927729825265 0.2941306574094614 -0.5513732868185336 0.4703271687676985 -8.673617379884035e-19 -0.1579557274409044 0.4442577626903408 
-0.04539219119342193 0.1867357832791762 0.1842137432313207 -0.03596173500671368 0.01001854889633265 -0.1349900131322952 -0.003854501132261635 -0.2801912625358133 -0.1063615861075604 0.05725599164193866 
0.01494723299165294 -0.1409191740355626 -0.4095912919801441 0.03844850006846866 -0.1472927877650919 0.9390257629012286 -0.4705223478856250 1.127570259384925e-17 0.06146690322093210 0.09010497328352246 
0 0 0 0 0 0 0 0 0 0 
0.2789879310824247 -0.04709579756669544 0.2347492376654479 -0.06870150760340793 0 -0.1622601669092574 -0.5275331004358288 0 -0.06805034825339869 1.734723475976807e-18 
0 0 0 0 0 0 0 0 0 0 
-0.01490743329587065 0 -1.008096478934322 -0.006348799662190648 0 0 1.319909249255132 0 0 0 
0.3084846667612415 -0.1014154730508997 0.1417109453595498 -0.2345912673893373 -0.3012511614013937 -0.01850512008050158 -0.5249570966283289 -3.469446951953614e-18 -0.05420484531635966 -0.1476108475441120 
0 0 0 0 0 0 0 0 0 0 
0.3028495506042585 -0.04812489354851467 -0.3349662471568354 0.4133435725883080 -3.816391647148976e-17 -0.1371028165546268 -0.3251903432853087 -0.1102836989855884 0 -0.1541812874005810 
-0.02943765799353004 -0.2344940808662436 -0.5428252149220351 0.8667837440450703 5.204170427930421e-18 -0.1226791800163242 -0.4711241656810159 0.3554046773904465 1.734723475976807e-18 -0.05715653801021088 
0.04654545742290078 -0.06728049047884696 -0.1098133107199382 0.07070084930934437 -0.02722593497574383 -0.03165611250440813 0.1121071668261714 0.03911690612343391 -0.05417027303985977 -0.1103636812584846 
0.1406939640691340 0.003293067307954411 0.2043002410118577 0.01003276890662001 -0.2478410056924375 -0.007476678188139666 -0.1618652324681570 -0.05663680163532418 -0.1482183649100325 -0.04582852707067608 
0 0 0 0 0 0 0 0 0 0 
0 0 0 0 0 0 0 0 0 0 
-0.3052800394580895 0 0.3812307288722096 0.4334277250804794 -0.4774219871857859 -0.01414806818967396 -0.4699984385517619 0 0 0 
-0.5479459383148013 -0.07669688275682035 0.3591194840425518 -0.3342444214297904 0.1082878937131370 -0.2094786366372967 0.3263508090578039 -0.04583889352377622 -0.06195303379679718 -0.06965152153327817 
-0.1028185904518578 -0.05315911168055634 -0.9815471657152580 0.6700490459479826 0.3257435221237293 -0.1611875258148645 -0.2099973427279192 0 -0.1311077540252090 0 
0.1122780961003111 0.001761896690784461 -0.1430999208583755 0.03521231329383526 -0.004793754773507230 -0.01491049703067255 0.03773003666080908 -0.03695775571854921 -0.4220594793410333 0.02088660894693895 
0.01543104501060184 -0.3283141245980320 0.02305550633042065 0.1553429348574635 -0.2644890622138135 0.1215972326197979 -0.1990342142937528 0.09434047617535060 -0.5318652966754290 0.1500251844171985 
0.3795432213910796 -0.01076037859864477 -0.1042288150850795 0.002752391791100118 0.02206011019348542 0.04537820688855891 -0.2981613341703354 -0.2898532460602964 -0.1324924601615182 -0.3883498568214269 
0.1866217049039493 -0.1209741985146599 -0.1862441538235353 0.02380070400162997 -0.02376553564783292 0.1710995829876401 -0.04206989888763242 0.04317427113298238 -0.1590395602990894 0.08622569607940530 
-0.06053267792830519 -0.05371788858577585 0.1780619867533294 -0.5020837900083674 0.4383840206118715 -0.03071257603539861 -0.3146529282941294 -0.1454863410797920 -0.04329211948812923 0.2862821506078819 
-0.3356212923599061 0.02216479819461071 -0.1505077403029896 0.006489579571859215 -0.07224620097725737 -0.3692786972324811 0.4946926415220604 -0.3117005849221625 0.1609177384529223 -0.2873993162776558 
-0.5051288617052597 0.3517159085363233 0.3246342715791081 -0.3091324274949851 0.01662659817605839 -0.2749878103127676 -0.4766705362757244 0.5006477037622066 -0.03969508938558599 -0.2704834140529208 
-0.3790714373045501 -0.2038533309556905 0.2882066083038666 0.04472620909271741 -0.08967577560161731 0.01020947486632708 0.006577179498303155 -0.1250675896056978 -0.1724207294314425 -0.2168918936956162 
-0.05373642128152337 -0.09719934760716580 0.5198727662434373 0.2836450808021419 -0.2240929200697134 -0.1944027883671889 -0.6827215377223386 -0.09298420284053453 -0.07292450643221814 -0.07335625356590485 
0.1931494179340452 -0.01702850123995886 -0.2636900666409464 -0.1673999428487774 -0.2318424986839601 -0.2144897361682237 -0.1124959453798423 -0.07368666155714826 0 0 
0 0 0 0 0 0 0 0 0 0 
0.1808525598663633 0.07819860089624070 0.03707771670008350 -0.06796815254345383 -0.1109449781918453 0.03765877558223454 -0.1989544894844605 -0.02352987017604006 -0.1273959430533501 -0.05013879839470391 
-0.07788028850778100 -0.07619490996637060 0.5002835189321921 -0.2124157129232212 0.3821652832725765 -0.1812576270429490 -0.4462124788161224 0 -0.01683262711692802 -8.402566836762659e-19 
-0.3077406622837892 0.08113288221751082 0.03816077342412727 -0.05768882366395289 0.08291404686932848 -0.02563281229543707 0.1980251964911519 -0.09386718804161684 1.387778780781446e-17 -0.08861749599748343 
-0.4887753066824684 -0.1199386599636246 0.06550089473243645 -0.2899855226048297 -0.4479753116592110 -0.2076537248249011 0.5711978395531480 -0.1041604961189884 0 -0.1590024476873258 
-0.2084522668025624 -0.1404875526727392 -0.06668157873943854 -0.02773586197578420 0.04654864156693606 -0.4967839406793507 0.2632086755274996 -0.3620676867957310 -0.3503746219347901 0.1836148920692247 
-0.04015812590853789 0 -0.2189218810468715 1.267686539812255 -0.5723804293983189 -0.03995570592116134 -0.2208173349571830 0 0 -0.04317754036102421 
0.2265914095633385 -0.05944715838040304 -0.4048212782406467 -0.5205095929855110 -0.8691697618696452 0.05343344334075970 0.6058047150638763 0 -0.03372266424483539 -0.003134968906245272 
0.1230472553306422 -0.08829747041349062 0.07265924272187543 0.001475394791603717 -0.9746139853258500 -0.1106849844461272 0.05255760579309324 -0.07483718064347965 -0.09606380080937876 -0.2625437624414073 
0.3581812182269788 -0.02118833802442768 -0.5678960825221511 0.1068611671379016 0.1952486972952422 -0.1644129400208240 0.08968913904080000 -0.07174086892948807 0 -0.006387091030865076 
-0.001497585416210313 -0.08474001184752541 0.3712360620424641 -0.1553609629134180 -0.4898444097983100 0.2094041272582123 -0.3027579612618272 -0.03693175711358514 -0.09034580552647012 4.336808689942018e-19 
0.1854548992432158 -0.3100533557485017 0.007896297155260579 0.01118953106882331 -0.2140141222312299 -0.004865702221635061 -0.07267998355811066 -0.1510872154658180 -0.006629205493675168 -0.1051308982838184 
-0.007138195499788993 -0.1510811446511370 -0.8362381801440999 0.03130718665935067 0.1062168437003815 -0.06305014978359680 0.7048867906393389 -0.04406748026436273 -0.02321142071472949 -0.002542768253117026 
0.2187370717392366 -1.734723475976807e-18 0.1469284564153027 -0.2685929095083239 0.1165156516123359 -0.1188516574545105 -0.2168122296443953 0 0 1.734723475976807e-17 
0 0 0 0 0 0 0 0 0 0 
-0.5556193967503282 -0.07239010348929205 0.3963798090710012 -0.4343650199831297 -0.06141116889462565 -0.1820921873563936 0.1058286674381520 -0.3045081158834839 -0.1284109233092232 -0.3199397085457058 
0.1147074170082559 -0.5786812135066287 -0.1482979168653293 -0.05346761010753120 -0.09791919495727895 0.2414820850013403 0.0005760496695300177 -0.4211340236406990 -0.4327094489789172 -0.4605719454038897 
0.1643133223473885 -0.04386725262345638 -0.6303094531195100 -0.5959948293097259 0.3169659273384358 0.03942096919611260 0.2605492533196467 -0.04934125127652795 -0.09502259713612987 -0.02155523914749719 
0 0 0 0 0 0 0 0 0 0 
0 0 0 0 0 0 0 0 0 0 
0 0 0 0 0 0 0 0 0 0 
0 0 0 0 0 0 0 0 0 0 
0 0 0 0 0 0 0 0 0 0 
0 0 0 0 0 0 0 0 0 0 
0.005775298641907074 0.1859849531766817 0.1254735221946005 -0.03932411064539686 -0.01046026674452598 -0.01726506371330922 -0.08633341795498460 -0.01067677633574851 -0.05441380547925166 -0.1602810499335687 
-0.03130259728284045 -0.2360499530870997 -0.1010832856924476 -0.03972095463962434 -0.1556395914368977 0.09039887242143799 0.1704842155726132 -0.2882948364481081 -0.4640096509935792 -0.1471073553864353 
-0.02877598828659984 -0.2636775290202617 0.05023284902056622 0.01612395900062794 -0.01460070580350687 0.08226472100290572 -0.1594434317250271 -0.2916969893974953 0 -0.005396200972901544 
-0.02395676578913711 -0.04562412227977752 -0.07271683653600797 -0.001176727191458578 0.01699368380297180 0.004740272248217461 0.2736139595021567 -0.2594815339480998 1.214306433183765e-17 -0.04458504236836529 
-0.01113408156846688 -0.03883378322148539 0.04635955907451398 0.001291259976472285 0.07582571488881432 -0.07379334285566665 -0.05791478758171418 0.03701741223943771 -0.5288622731984237 -0.05375245586361591 
-0.2130562056686932 -0.02405331756443545 0.7936903109405052 -0.007491680731982869 -0.1495350537055040 -0.1188516574545104 -0.5505735416116851 0 0 1.734723475976807e-18 
0.09195569716706960 -0.2940302562155156 0.06425543939273587 -0.02862498441842512 0.06301469333830140 -0.1236094203400247 -0.09617705162190489 0.03939277334306731 -0.3894959433716190 0.2243200595862101 
-0.1578492186567081 0.4218435924490054 0.2581494264451235 -0.1658499808972861 0.2499265911845530 -0.1455405465048452 -0.1867721785281892 0.2768754520056162 6.938893903907228e-18 -0.1689657150879025 
-0.1182458807804561 -0.08379444505317970 0.1263540931637330 0.0001589641863971067 0.03677165950037008 -0.1359922287458607 -0.01678819252526263 -0.04758064473951520 0.1229645644279138 -0.08419306968970668 
0.07548425303295800 0.1212190203756680 -0.1766033174073977 -0.03147167133462207 -0.01201054672712638 0.04977795599176068 0.1105261469429698 -0.01690545549018915 -0.4375386023057070 0.09656530456548650 
0.3328701342734879 -0.07669688275682035 0.05399700559933893 0.2015063414944969 0.3926878513677850 -0.2752085177871808 -0.6251638103567859 -0.04583889352377622 -0.06195303379679718 -0.06965152153327820 
0.02546988981655740 3.469446951953614e-18 0.004537838611718220 0.01605667438577704 0.2860263092733226 -0.02982797287735439 -0.1294111254433266 -0.07347798895124105 0 -0.05013879839470394 
0.08627693132780513 -0.1889851238724095 0.02797505007989132 0.1338773165383548 0.1110691178885859 -0.02222068456048099 -0.3590955547062952 -0.1635995775247553 0 -0.2289250878706518 
-0.03648306873611964 -0.1122981454677738 0.08824676658910870 0.1096420306671923 -0.2836553879258756 -0.3425755083982137 0.2152817039191816 -0.2594815339480999 0 -0.1372865793430170 
0.04628830490851879 -0.1962759345749381 -0.3293205559951415 -0.1441803787191620 0.7499988488653841 -0.1756635668625494 -0.2490481492399116 -0.01964383049593001 -0.5307697353734512 -0.03551902021816735 
0 0 0 0 0 0 0 0 0 0 
0 0 0 0 0 0 0 0 0 0 
0 0 0 0 0 0 0 0 0 0 
0 0 0 0 0 0 0 0 0 0 
0 0 0 0 0 0 0 0 0 0 
0 0 0 0 0 0 0 0 0 0 
0 0 0 0 0 0 0 0 0 0 
0 0 0 0 0 0 0 0 0 0 
0 0 0 0 0 0 0 0 0 0 
0 0 0 0 0 0 0 0 0 0 
