solver_type L2R_LR_DUAL
nr_class 6
label 1 6 2 5 4 3
nr_feature 299
bias 1.000000000000000
w
0.2645058798620388 -0.5686606755744420 0.1960608183855343 0.05414067739027876 0.3881718540422752 0.1308218400716992 
-0.2196752395914469 0.9183818461436734 -0.6688038440249770 -0.8420004635840266 -1.264982696891897 -0.4498247131249031 
-0.3288828469449063 -0.06061107874126288 -0.04119645625953033 0.04801390093472611 0.1583869950300936 -0.1871867885607763 
-0.4938152974273901 -0.1665924014241932 -0.6049179136806537 0.3053391112066224 0.8295307428160034 -0.3420635826235515 
-0.1679958364278822 0.7506344403137201 -0.3162577288759258 0.01590176218231125 -0.4692975283190277 0.5111270898722337 
-0.4821002408521564 -0.01191900117535366 0.2407538220681380 0.7245261821270808 0.3090016588524466 -0.4807271761636268 
-0.001730997443973975 -0.2940172810685964 0.4760532828174849 0.3917033772962280 0.1500142879901824 -0.2038351632469217 
0.2062646223804669 0.3940784535928394 -0.2680865654375046 0.004446329102714215 0.6234461275479507 0.3111037104381695 
0.2507548519248503 0.1621161064431617 0.1029552645204662 -1.308959764680057 -1.688382255428600 -0.6124350872155169 
0.6241984646878063 -0.3693824865602277 0.3232252354260674 -0.3606583781614366 -0.5245343749384460 -0.1597099420518942 
0.7713982621591506 -0.4529498968076907 -0.1650101431818499 -0.2415466322924465 0.2317093303233264 -0.4164045829844523 
0.3973073200243495 -0.1516602422056634 0.3477711483102015 0.1652379091303025 0.5347905556275196 -0.2660355534810678 
0.3473151665685916 -0.5600719237235063 0.3748421388871278 0.5485815692868018 0.2352928125640312 0.1986588048937734 
0.5861540019736367 0.1344959058861959 -0.4318911388834010 -0.5309822883090947 -0.3255245635257946 -0.4289356624080622 
0.06003801833035562 -0.4240786834071235 0.6663033732762018 0.2683727017730956 0.5818587047161270 1.022150937676331 
0.9787761736530290 -0.2302893330427801 -0.7297694303278988 -0.9488021744804193 0.5955747301300356 -0.4333118770064211 
-0.2940167474603355 0.3810529537622022 -0.2995916033513326 -0.4513226220688545 0.1452188134736280 0.07604134061244010 
-1.171157464818807 0.5232035232692406 -0.5853781435602091 0.1273979545815773 0.03060263098035226 0.4745930525274916 
0.1360440202268826 -0.2450988171004746 0.3983666651692902 -0.1947015894228128 0.1417839894712715 0.7930057917098421 
0.1321623040413911 -0.4978179906607013 0.2467625806786787 0.7442477739440256 0.5792674012866550 0.6571158739846059 
0.6090635873516008 -1.170619246201760 0.8255385735509795 0.01348496103403587 -0.3601700878064955 0.4290379557292311 
0.09797725539880557 -0.1843602625613367 -0.3347136486592571 -0.6646111675254366 -0.1784328784320981 -0.5078219297946874 
-0.6837043323515136 0.7761124891772954 0.1804675184333404 0.1428628433790047 0.1215884674493988 -0.3260964504832852 
-0.5432755725159711 -0.2517178238323515 0.7493105215048149 0.2597900405592042 -0.2116795976360930 0.4073024009900639 
-0.7121736172660066 0.2136895426444208 0.02229084907351652 0.02941991152088273 0.2529859658588370 0.2297459675557142 
-0.3010496332907867 0.4584787893868318 -0.1564217612214345 0.006277064192809905 0.3313592339825184 0.5004163897550573 
0.2439540646028683 0.9443039561591975 -0.3914071209401367 -0.03202442714281271 -0.5553520646271122 0.01986794519479278 
-0.4952533647895188 0.7733484204499614 -1.172235153345484 0.2722546318099962 -0.5002938632059890 -0.5608532366809591 
-0.9524741134392826 0.6440814700813869 -0.4061496537580418 0.2602180140317364 -0.5634103027584894 0.5802774741545280 
-0.3835443956046526 0.6577041721061224 -0.3277303151717458 0.2679186679071165 -0.1852285162813630 -0.1878189360161061 
-0.3298000535747405 -0.1183117494592964 -0.8404365874199641 0.6170045736328392 1.138043957465047 0.3058778893244494 
0.1857451000331101 -0.3414880009162395 0.5350206772583417 1.057984312150209 -0.1187952772847639 0.4682258399633449 
0.2302566801880189 -0.5808570534414305 -0.05080682488316612 0.4209750207142538 0.8111515429768256 0.4206683185033963 
-1.048162023001396 0.07125132030832608 -0.1555713540215739 1.057049642654952 0.4805205722467154 0.0005435025383888992 
-0.8092040312636042 0.2242481988245572 0.1025481582433720 -0.2970157221523611 1.309014450973739 -0.1277709743854200 
0.05124464470741821 -0.4987016318574781 0.4934641466295886 0.1938585427396478 0.1448938011348956 -0.006262171563462878 
-0.4349689727394170 -0.5569771868790783 0.009581322594544129 0.4949251423354691 -0.3236724944175218 -0.05843754805778241 
0.3817085764004215 -0.006566717301996284 -0.3105781955279121 -0.1295431860763429 -0.04596568533170491 -0.05626969157167114 
-1.085750860390400 -0.06377168890339500 -0.05208950898619590 1.049159173580684 -0.07773877880222840 -0.1001147587046843 
0.6457438813855082 -0.6269022946692215 0.6152917341637410 -0.4088299462415005 -0.7112462722710448 0.2595409317106561 
-0.1527545577225644 -0.1497566772512089 -0.5429032365207288 0.6397137152863274 0.005838089255933349 -0.3381686659539319 
-0.3876191913342283 0.1557829414887227 1.030374474802965 0.2701850932769243 -0.01599390320868682 0.07188552078927489 
-0.1925942247449422 0.09003329082277614 -0.1264355142374010 -0.5192950879028598 -0.3500832776627227 -0.7218215259195061 
-0.2294824413900356 -0.3469505244943723 0.3868871476746914 -0.3651835091789982 0.5356333622397341 0.6627995473588868 
0.1706927625196626 -0.03588533252946251 -0.2258509070221600 0.6534488126364267 -0.09729938486908846 0.2810559451496523 
-0.2191442771448914 0.1947780859977345 0.4289755311374289 0.6074970503933548 0.8998573568786566 0.2365564435980442 
0.8240916703151948 -0.8044908686063739 0.1162695076057697 -0.1915547540879176 -0.05146636383686171 1.237187622751336 
0.3744824996950242 -0.6503131075439249 0.6515781249296972 -0.3729163479404425 -0.3783138043847651 0.9794852082755106 
-0.07773812403426753 -0.1287660521769528 -0.02877677259836861 0.3576178860958384 0.3799401446881658 -0.1904247089213837 
0.6217153936107692 0.1922142644619338 0.09591018325438963 -0.8868843332128401 -1.130243981716523 -0.9938394580902750 
0.2120452515374578 -0.4322698418946666 0.6615582957895758 0.2336926502048885 0.1831868362699921 0.2874225000198711 
0.1067327936445753 -0.2787637043991815 0.3056428026845527 0.1548646102763257 0.3360172835328470 0.3336456167366540 
0.7318071944609481 -0.7241870579728112 0.6663761037946863 -0.5506369420102947 0.1599634178887335 0.3248768490003510 
-0.5662811612860026 -0.03525821700003665 -0.1144169902169354 0.1987211478513627 0.7257053082618127 0.7050313894146107 
0.1022929003353905 -0.3405578757318485 -0.6801073857802885 0.6779681613233264 1.535088221610224 -0.5212476330340930 
0.3454247397764275 0.3412051103830069 -0.7793911030427532 -0.2082080796801290 -0.1841763433725504 -0.4305333507332280 
0.3509005206095876 0.4113272983308820 -1.172950020533978 -0.2207110765701347 -0.06552406824314666 0.3585278288052794 
0.1574068206843939 -0.1410775162628937 0.5309016907726668 0.1147779698887181 0.2976109763074721 1.171346049001995 
0.4506602136692220 0.1480072320512624 -0.5693843884472567 -0.006972923112270645 0.2512614682088553 -0.1199160077617965 
0.8090820757381683 -0.2710264552683695 -0.1261476977250108 0.5593753574346930 -0.3660679073884925 0.6210790073442244 
0.5462581474114310 0.1102446476203508 0.2234232623402068 -0.6605363562442215 0.07168734506388581 -0.2181420302335471 
0.1002489762462623 -0.8634902887544179 0.3892512440350655 0.2729756974397143 0.4712825478704653 -0.02934431179414646 
0.9512922927652028 -0.4067193216888779 0.8118341792881436 -0.3064665994791802 -0.5977803829896376 -0.05113630407782713 
0.1738941944840255 -0.07181501778884578 -0.3581298188442200 0.9163071419393267 0.1402921307315267 0.5772862193260299 
0.7133609504591539 0.1682410675987060 -0.6779910311853615 -0.4342261973141187 0.5067660284895150 0.02391371758416395 
-0.7839805244614900 0.1947347976745495 0.9064671168176152 -0.1456677434553650 0.04506094219158179 -0.2665041351137579 
0.4955467695670215 -0.5126465178347067 0.4338041162979723 0.03145804356455549 -0.4953682242424560 -0.03450733446236456 
-1.134882479259981 -0.2160119634884388 0.5713634330656863 -0.7312033976752985 0.1466528113941657 -0.02983595136377293 
-0.03484187869476120 -0.4148991988142046 -0.8062940839709263 0.3899612148631971 0.7480863692220251 0.3574247328778342 
0.04729588430984419 -0.9273355556676427 0.2606515323742564 -0.1884208221622232 0.3491937076417749 -0.6046887714512420 
-0.2875458978206645 0.01183016017769884 0.2431693422953300 -0.1096139256922190 0.001796178502016403 0.2955068508768428 
-0.2824649912800796 -0.09283048768213319 0.9338006905552139 -0.02956147398977172 0.1419675061217823 -0.4332765977898324 
-0.4673687678952662 0.5210619380732068 -1.190911454160829 0.4428159972096371 -0.6480812500848601 -0.8657000666315495 
0.6950367663782173 -0.4716000928450482 0.8070449674201224 -0.9408042692851236 -0.6253244776852611 0.05251650448713759 
-0.5684999597421384 0.4279079173520605 0.2343835513820437 0.1066870617778135 0.03101858836039218 0.5175338692866005 
0.1235736711620886 -0.3227631815146884 -0.6779037056491634 0.6470906315401045 0.7566849949990735 0.1193552954767669 
-0.06976936864384407 0.2718806540725404 0.1511759086093483 -0.7426940455894226 -1.081353964812595 -0.3017902151482613 
0.6885234024955114 -0.6421533405685436 -0.03971894689923886 0.04057412781518734 0.02612688249105410 -0.5953887686178347 
-1.212665072928832 1.379868976918196 -1.190018674988578 0.2359991584596674 -0.1732576316678003 0.08236149288564080 
0.09141886795849450 0.2900856574270889 0.05535417200433369 0.09542653987454310 -0.6075343024159764 -0.4797280620365118 
0.9853560116950097 -0.2341968185378904 0.5434272168731548 -0.6719315117024263 -0.7594864648350579 -0.1129452023111933 
-0.03955006843988292 0.02045132869095370 0.6758200190739454 -0.3805492008902103 -0.09485222008754580 0.4088640494513065 
-0.2152687831722260 -0.2477016909357578 0.5333216541905001 -0.1186598559072178 -0.001403198284751507 -0.06653787899685022 
-0.1844184832456407 0.4675383553054403 -0.2986884916579020 0.3052366017178180 -0.3465345400121680 0.03691760223362017 
-0.08542038990195257 0.09173912942618942 0.3565530455654782 -0.5808122558547497 -0.5109769393601525 0.4401208115690113 
0.4484760356604335 0.1669169451864040 -0.6689526486619160 0.04753890930314726 0.02721000477568330 -0.004548567198514642 
0.4555236103111923 -0.2150766109254894 0.2593221465113073 0.4284998667714160 0.2674170983490397 0.9115007734309399 
-0.2843971360196534 -0.5673549646809015 -0.09124242146174057 -0.07838885105983180 -0.1254411780566050 0.4741496889193290 
-0.02895278750337876 0.2425369487271072 -0.05599643005207253 -0.02898037662651888 -0.3769436107665158 -0.2917763955558886 
-0.3435795607581201 0.1790088234444144 0.3878267088107505 -1.252772932548045 -0.2893754499312389 0.1472565456696790 
0.3424855768446982 -0.1952360730105699 0.2230725612684055 -0.7589260053446314 0.5045589562883921 -0.6050325375809934 
0.6839155259225150 -0.1768987168344530 0.2017279912691488 -0.1652658450076683 -0.1565960017401575 0.9178983096673023 
-0.5670669978129819 0.6935013130827793 -0.8612907511684231 0.2002182005310759 0.4014673653236892 -0.5976617252760652 
-0.3815101221006101 0.1133734007735396 -0.5555814965251019 0.0006271686358666694 0.2494361060935276 0.4160323444126229 
-0.4207664386287870 1.139381414696583 0.4318183863619701 -0.7260067242101066 -1.572965760370157 -0.3874538086910769 
-0.8133534938349620 -0.07264074777052619 0.4409267129084131 0.7836875920889472 -0.07679185577994141 0.3978250304238262 
-0.5024764360742212 1.305292227498621 -1.325206756304037 -0.3443650819385549 0.09585291494564484 0.3362308009686646 
-0.4622036865148146 0.3463655595317147 0.02047762637889977 -0.1778877405126297 0.2449255387155011 0.5107920232665226 
-0.6871262076453843 -0.4003633785502004 0.02954266182664276 0.4449958938730594 0.3322397491927834 0.2369383529922865 
-0.3167726800355111 0.4615592038095817 -0.5070247604188945 0.03754942945078541 0.2240430973562906 0.02184382521276989 
0.1338466430903569 -0.7037068097533390 0.8569361868285679 0.3185661157390428 -0.4434567362467430 0.1248502732281423 
-0.1123652274947154 0.1467172805016183 -0.1300535122701202 1.260896037523539 -0.6670948484020934 0.08217714644190945 
-0.1534763274261698 0.1989780864552397 -0.8853506756158798 0.2464805990408663 -0.1335704087611463 0.4772021897832088 
0.8240659656800026 -0.2713429835026785 0.3589832130765241 -0.1700984059877378 -0.6081973024816762 -0.5552341476795798 
0.3905558596461243 0.1090928650416472 0.05084710705182005 -0.3804801149321949 -0.3609667943393812 -0.9462579302470665 
0.6615372639106456 -0.1782380020261221 -0.2151347014185644 -0.09865565932958810 0.8468126517165124 0.2107535605665183 
0.1007925428873868 -0.2662169857653574 -0.1789656374091940 0.1398652612190721 -0.5204115148364035 0.7175663502650204 
-0.9978111033701262 0.4229641125840947 -0.1191220166164922 0.8564420150566772 1.015268879377760 0.1127723483004120 
-0.3181935596878351 -0.1271785388373178 0.02800515758007270 0.3663991871812361 0.4407332978416444 -0.2713755732292876 
0.7033420443618701 -0.7133535258374955 0.3643941166434991 0.3341661666387185 0.5529879291865506 -0.2481903042788831 
0.3172600103929401 -0.4814869764480958 -0.03319612156350072 0.3801709405226685 0.4532023867978672 -0.2659992000386412 
-0.02079982676988134 0.3358097784569564 -0.2161280415380485 0.001719866528326692 0.1775630721282146 0.3791345871073492 
-0.2552543383520299 0.5861401986633379 -0.03304707343457525 -0.8641185301459209 0.2556568051450439 0.2827919506142114 
0.1068889809095123 0.2711764105862851 0.2028047461397433 -0.6282662063327845 -0.4131144234660419 -0.1641963723415130 
-1.049619335824185 0.2057834685549532 0.2436461296439081 0.2099646810216546 -0.5299848131964924 -0.2262362562077968 
1.077980450228233 -0.2307950787514664 -0.2859347125190226 -0.2385883172032580 -0.4457554966224403 0.2549479496844245 
0.6091201878877107 -0.4208593793777143 0.5786787525005797 -1.019829127299828 -0.6579954208288505 0.8673687141197440 
0.7936507089823893 -0.1808711885277747 0.5918092516488680 -1.423742644174693 -0.7136167666198355 -0.6567019043585685 
-0.8978166697583527 1.043077335626802 -0.7703264615856431 -1.073024190299367 -0.6502039256308295 -0.06882690579577841 
-0.6751784050117850 0.04785169475936879 0.1849244593707284 0.006419969381730625 -0.03035062495304255 -0.4219551154223855 
0.1955429119933626 0.2442460376702541 -0.05634852287299035 0.3527649069566385 -0.2514089017890686 -0.1418452437862366 
0.1269958490852132 0.1012690694115017 0.7386541231818610 -0.5204935830718999 -0.9952121464610416 0.6942101888481278 
0.3128877283882607 0.4233005081462317 0.02359652479338569 0.09501299889473318 0.3510226562256816 -0.3084785909131114 
0.6981677665228540 -0.5818131524713390 0.2197987217615673 0.07255900602855622 -0.6472829574504870 -0.08331530026791484 
0.4496148676201541 0.6923106981060244 0.05110891511241134 -1.445766911770886 -0.7792004317994035 -0.06440182109514737 
-0.6232491553706236 0.1106336648950838 0.2011096824438523 0.1503467235912277 0.2574173192563175 0.5295867905639536 
0.6435298292874742 -0.2295695142906731 0.7776927814984018 -0.5837765441149293 0.2889024104152890 0.1664266432769377 
-0.7909366327778374 -0.3720512502191552 -0.4238908069137688 1.175765971086434 1.446712680616632 -0.05708566764268887 
-0.1084057420779377 0.2388537300330506 -0.6977611703926512 0.1393485460647480 -0.6619820104648518 -0.2638720125078428 
-0.1829160259255878 0.2928541543821349 0.009824648212143827 -0.7543213127471724 -0.6232052039205880 0.05181550988367478 
0.3251738183206528 -0.1622326719551264 -0.2037608858285951 0.6009664475207044 -0.3180073018626891 -0.2240406588590334 
0.3982944061557328 -0.2488809560557617 -0.01900282357603972 0.2942061769036377 0.1525001603817889 0.6396468141035485 
0.6104910859402914 -0.3596702839921405 -0.3180872343948061 0.6727084005972630 0.02051255418590585 0.04084537739719762 
0.5045735699323916 -0.2234651276246456 -0.2412412475985122 0.1647189975079148 0.7409363348568915 -0.6811333286288860 
-0.4121691341286217 0.5284693907824208 -0.1345670531694595 -0.05094470838482652 0.3846815786528214 0.5601473447158210 
0.3723655053491959 -0.07879823766649999 -0.01907112874980553 -0.3363211647716915 -0.06382403355542142 0.1961548449266350 
0.8759817547386959 -0.6486582887956102 0.3455761916983118 -1.132539066986477 -0.7041303042563503 0.5267453099152972 
-0.6518911367345894 -0.08571630744301315 0.6036007177857514 0.1703599711682168 0.04323350509194351 0.3992901303265102 
-0.6932563667299853 1.008746800510727 -0.7564655117814905 -0.02961746830030498 -0.4576799929338350 0.2400454631554423 
-0.001098410434023894 -1.118333193350171 0.2569221482532995 0.9788951635300664 0.1686134591085366 0.2713795286875194 
0.1753264602367166 0.5338153628395351 -0.8100094319811101 -0.2213928457467880 -0.6134602355761228 -0.2320378117293782 
0.9027506783358231 0.02384895284031647 -0.01821672108317821 -0.6670952024095299 -0.003788068180767230 0.4667985978326104 
0.07413735805354159 0.6475640524100794 -0.9232209777964593 -0.01451801863623437 0.5395708253656307 -0.6485973492580013 
-0.3366383916044254 0.6172155558626694 -0.7920107108410724 -0.6635143850002715 0.2502761408448315 0.1060339521925095 
0.1421994228411399 0.5186764790649012 -0.7710394401222052 0.1315125402356064 -0.05598480150297047 -0.4867546353156073 
-0.3107087153151838 0.8923704871229830 -1.033742552985321 0.2489019082370933 -0.4965587471721306 -0.3495905359100692 
-0.06863429695858246 0.6108907103681338 -0.7151666132866681 1.072726084719030 0.3928288058295305 -0.3272270514202718 
0.06941058701142037 -0.1013755550059858 -0.2482854959039943 -0.2551420217420050 0.05137457981336002 -0.2641879623000342 
-0.6724977147434906 0.3359161713826019 0.5580160937138532 0.1020285876418461 0.009803374074514197 0.4348926127139758 
0.1236359387813110 0.3136277506549804 0.1659475278277905 -1.275753475272232 -0.06328336289454999 0.2891228110097467 
0.3035576141053984 -0.5177472433596942 0.04236488955533167 -0.7983995040266636 0.2062480496016333 -0.1576462601314310 
-0.5398892413879879 -0.1277842405990451 0.1358955186573617 1.334296286592664 -0.4084158344660135 0.5427888375318639 
0.8266022116739542 -0.1002491295117033 -0.2277060432935900 -0.3661738770290051 -0.8227746109019564 0.2582832709087269 
0.9606498099781018 -0.3767819434811501 0.1125707877264633 -1.295933851870762 -0.3851358504576104 0.1488359625013850 
0.6822100335455600 -0.9554218775779626 0.8138679555381920 -0.01635128511786146 0.01864444649535632 0.4963553628803119 
0.6984952832735656 -0.5579352965151625 0.004524861517786210 0.4451062697771575 1.008432542064768 0.1591396416002259 
1.206668272763619 -0.9497328899849389 0.9771394572357920 -0.1123437205445852 -0.2407685114218862 0.4726395915631420 
0.3541088067221295 -0.1005423958316534 -0.03731563089943460 -0.8985193498633130 0.9028579312199967 0.8920482724222465 
0.3845270385767523 -0.3446349246550494 0.05558766518463053 1.039247520713350 0.03228915125388839 -0.2446252444326019 
-0.6351364310091263 0.2618374852102361 0.4318095004827995 1.023566320041997 -0.1113823978239524 0.2585901652081130 
-0.8172214912296059 -0.01167162055675621 -0.2541224256655380 0.8783556987377298 0.05046937235240092 0.1080434451773741 
0.3753386379010044 0.4962661244042527 -1.258469909830595 -0.07325228207203506 0.2935905338979564 -0.4272348516241383 
0.6243700259054367 0.1248795976415721 -0.3928294485845583 -0.9328081033367251 -0.4196216752758925 -0.8145834798197266 
0.2540784687311498 -0.03480124693445246 0.2279879069361078 -0.6286228806081903 -0.6857430036550404 0.3176075157676351 
0.7070071341557922 0.02780969589177665 0.1908598905063745 -0.03779681022958155 -0.08441457683334452 -0.1603568359197278 
0.3843943505465725 -0.9071882175406256 0.6209833405124559 0.7240267693886004 -0.2408476372155449 0.4479442403384870 
0.1687248518033055 -1.046092505745893 0.4097823875247620 -0.3939028323573640 0.6955925970294066 0.3723664840902460 
0.3351712153051565 -0.3639881167933346 0.6704582717158983 0.8833503751971532 0.5441377614903895 0.4563626907486880 
-0.4536250727665783 -0.1427430244372060 -0.5699549440497680 0.8884073638336328 0.6975860522310907 -0.2338237506418229 
0.08770255307530658 -0.3831385800010689 0.4543623394443228 -0.3210443712104978 0.9362787959876683 -0.02939912510207480 
-0.8019001523028934 0.1721220913906923 0.2535205848247977 1.377583397104186 0.1314454902979347 -0.3270615363857634 
-0.6891607798986888 0.6388605641544509 -0.1707897986789269 0.9685552270268731 0.1456868659859470 0.1180663482706958 
0.1445291564030153 -0.4627812986092171 -0.8098953335326620 0.9964812015771005 0.4947753574349956 -0.1025104904452718 
0.7596800262963377 0.7247951217703764 0.01305555769614174 -0.8010789670295112 -0.08132335768522470 -0.1278075660861560 
-0.03640621723674909 0.2866340535289936 -0.5969143075569299 -0.2174125243788946 0.6123685763590518 -0.3045140429780505 
0.3036322767160649 0.2775498307842402 -0.07016606615643405 0.04496702017019588 0.4236042549619497 -0.2583373766910611 
0.4502297279217628 -1.261353873673549 0.3840170075747521 0.5101849511090581 0.6310695945999832 -0.1094705517131033 
0.4555878775114358 -0.3922824370339710 -0.2047612526207548 0.5918767212234882 -0.1420688537708877 0.5968412328514795 
0.2516879816000552 0.1139611871351078 0.2626799401520906 -0.2138593064530089 -0.4242562492084901 0.2548196637598825 
0.5089829148845516 -0.05693313053621994 -0.6911309893470392 0.3217725751027813 0.3245408531128097 0.004551069644454535 
-0.1588052055563067 0.1445782524479281 0.2194602833410606 0.5803003926301649 0.4431892586781805 1.263272424357227 
0.3969899483935799 0.1652458222973315 0.1295084084359087 -0.4181838223127579 -0.3561736217496908 0.5455871821887376 
-0.4050764154571265 0.7096186243864235 -0.7757549005115466 -0.1661268916406722 0.1519964211602378 0.1114462460493733 
-0.1283586452742907 1.068323064227360 -0.7703500550172090 -0.4572386504729649 -0.3346016564856447 -0.008175617964317430 
0.9273443602333885 -0.5757689370623463 0.3777114959260941 0.1302538258454252 -0.04518410354008153 0.3246039479130654 
-0.1022471407759666 -0.8656723339735590 0.7506042869598066 0.4818816315796097 0.5437954038794515 0.2113321789866847 
-0.3021269608008395 0.6963189191372753 -1.042291888977008 -0.01544210160779349 0.8283883658808877 0.1093756831768202 
-0.9514869532003472 0.5722554885084525 -0.3654272926717478 0.3099844172803887 0.1478212765524279 0.2581370611133000 
0.1396127131054748 0.3423354586227573 -0.4292501104529286 -0.2195773924154932 -0.6670566970249877 -0.04946504873285159 
-0.6448806070509583 -0.1852057446974516 -0.1361952632337330 0.2880632807786202 0.3933892162207319 -0.1774360997570419 
0.4937130675717651 -0.2028589974106731 0.5377159087324699 -0.5542548938524551 0.05887134360724097 0.004122883135298004 
0.3579161672655489 -0.4864610603796641 0.1722154714768680 0.8804549494538787 0.03689344419724035 -0.1176851188814816 
0.3467982155672693 -0.4437980037267056 0.2548024579888287 -0.3373893803211033 0.01202677926508494 0.6163566756493851 
0.2727588292133912 0.2515125459436196 -0.3138161893007931 0.02507202807231557 0.2928417055128991 0.8897063729672877 
1.100965848101044 -0.4691988820176091 1.395120122570061 -0.3596915645009598 -1.242501044847935 0.2617590823047999 
0.1932074443960719 -0.06420468213980579 0.2116590469386895 0.3784935974736344 -0.04829145165419316 -0.1907520317040896 
0.1902930590840816 -0.5309011129062057 1.228375416050485 -0.4172368529749821 0.1021101190328618 -0.6232247715612309 
0.6120267759326553 -0.1002595351498744 0.01067328215343096 -0.3248044519455692 -0.4204039519269236 0.4382229286427884 
0.2409329935962068 0.4004997497904291 -0.9905736013715152 -0.4599744147303750 0.2745360098633799 0.2201277410968270 
0.3131675901944855 -0.2808819218152346 0.5779779746830604 -0.2101327774443242 0.04264483717480092 0.1751229344519588 
-0.3374657241611787 0.6731152996972415 -0.7389667683699956 0.5656119369975443 0.3059609869419203 -0.7543634422849045 
0.02331478778222646 -0.1061124495767837 -0.6458932978133781 -0.2164316875181180 0.05027060769920356 0.1096683151611573 
0.6112401503825907 -0.1405075735207905 -0.2093035145571110 -0.2840011462476616 0.04897015084972884 -0.02941266099340893 
-0.06337864149085848 0.4089161650332622 0.008781508994930697 -0.8656835004924579 -0.1711450986524501 -0.4218782361646789 
-0.1908173348948614 -0.03757035110692455 0.2135150475418389 0.2812153698448978 0.3836544362324201 -0.3090575561794016 
-0.4101942879491772 0.06602446844516362 1.115313060841901 -0.1641271922962980 -0.08591822683224352 0.04257224962938774 
-0.001191927453610911 -0.2858338948302751 -0.2316692439521105 0.009326505501891340 -0.1365205113585715 0.2749728702998849 
0.5741935771292035 0.008658649395572201 -1.160304520063782 0.2489776221545545 -0.1930970775266793 -0.4847800119822445 
-0.9174883402505488 0.7835387365521581 -0.8065595482678064 0.2257474487728662 1.168616031702185 -0.4726899097994360 
-0.007634902442428943 -0.7821394290752328 0.8025719082932036 0.003298564356392259 -0.1547717819792813 0.9954458784292507 
0.4262908778761437 0.2518135273741955 -0.3537026291036167 -0.9581919041870254 0.1448037370523289 0.4539263911924966 
0.4220157843165657 -0.2750993884436649 0.01687697899080131 -0.3184608040136722 0.005011849497491370 -0.3777897480185237 
1.152257327031898 -0.9463163461890429 0.5122768913507488 -0.7372404702823073 0.4502859430364614 -0.03428212955610521 
-1.168327210695347 1.821083903014952 -1.378177773298528 -0.2252648662220954 -0.9652231739652210 -0.4805806854019594 
-0.3922699782214607 0.1162552655734320 0.08500631143918103 0.5877540120108158 0.2003081031759030 1.077308867960890 
-0.5612930309551144 0.1842037801560853 -0.3805633651818943 0.6628171454116252 -0.3030269708695290 0.5116236179890596 
0.4778037786841146 -0.2649654773613878 -0.3772505617065567 -0.1984310206590166 -0.1096711708037751 -0.9384329866060055 
-0.3327595959152019 0.06059178204478113 0.02689228749581933 0.5985180798796059 0.9224474396224457 -0.5325295414389923 
0.3694711184168446 -0.07980366840404920 0.9884979380516158 -0.03038858528420263 -0.3569335757109166 0.1206182952568751 
0.1806715200225920 -0.1355493510275429 -0.09464871125245866 0.3648864861140794 0.4202188565888939 -0.2657974546828537 
0.2969947276537028 0.07580795873980804 -0.5015092535768206 0.3114448881186941 -0.3886212194378028 -0.1573639071786656 
-0.2883440091040044 -0.3036231231971280 -0.1622790433812600 0.6856839093441518 0.4944962517693245 0.2435561027283623 
-1.082665592042335 0.6043141717852677 -0.06260793304090094 0.09836297301388733 0.4525734591181717 0.1834877536473744 
-0.4216448112046394 0.6254502358776420 -0.3455505795462893 0.3091640816106022 -0.8990213496810324 0.1177476769105147 
0.06574816927647345 0.05768157924680459 -1.282515572659098 0.4606862671714092 0.2708153655723479 -0.1118227104814179 
-0.1090687654807699 -0.3148857911269503 0.6367231255313421 -0.6015535382218531 -0.2736253240696723 0.4378739078905959 
0.3462838303372590 0.1082058689092111 -0.5787875588437660 0.03893356701020923 0.1459007945203038 0.2316759111680129 
-0.9482107174694158 1.273038291548017 -0.1615508257864053 -1.220701924676874 -0.2947008721109727 -0.2447170476934283 
-0.1194068209762335 -0.007808264480997936 0.2227971743151015 -0.06299790359083501 -0.9119042990088836 -0.1321523633844564 
-0.6089185730160127 0.4585654278472980 -0.5527740995610688 -0.1394280043912633 -0.02021425575893633 0.4841974450375564 
-0.6589503308365903 0.3052759905243163 0.2479901890254445 0.1023993934098652 0.2115462562379279 -0.2506163423838645 
0.2779608050473642 0.2776065732270162 0.1304471259152709 -0.3902852871352633 0.1108650521431737 -0.7262485440139321 
-0.06125239593283578 0.1041343650042553 0.4135199529597345 -0.3889384195981898 0.1787202973286871 0.3509518349503893 
-0.3727970241284135 -0.008627642026880640 -0.1464179097277807 -0.4616573642464311 0.06381611768757968 -0.07336315148838154 
0.2006729660508625 -0.06664349879111410 -0.7761296850439943 -0.4001677827817333 1.308117758678199 -0.07885368940207024 
-0.3447024978192822 -0.3854941990381072 0.5726425444555261 0.04019090156990423 0.6892615130075844 0.2767955780221160 
0.3991857248766033 -0.09069364326301785 -0.2029435909509928 0.3271177026555517 -0.2115663762013631 -0.4145772320871832 
1.075951307847176 -0.4823596831042242 -0.3547452290803937 0.07150664284308864 0.7286551652363883 0.4476518092831613 
-0.4581777796985713 0.3292621987395030 -0.2298105270629476 -0.1896644557594004 -0.3691146153254967 -0.4389727370934174 
1.257609047442015 -0.8004702332217769 1.010643427531477 -0.3344738252218396 -0.6437638238405415 -0.2960934401449837 
0.1220687129063238 0.1391703492303905 -0.1137075983940373 0.02326713422598970 -0.6494540194551536 -0.03845133848464777 
-0.6863961726787255 0.3871740880243040 0.2191824482908687 -0.2703950254222134 -0.3911384424534941 0.2154511662332859 
-0.04905057947849525 -0.1260788762991078 0.08367943766140844 0.6150645614930693 -0.06781262361801788 -0.1876874183501570 
0.2935750095849738 0.4302558515207710 -0.8666385948268628 0.2275672696952883 1.474736767225253 -0.2439870647032039 
0.01994469621389429 -0.3223930717488238 -1.161813126529929 0.3131272397551155 1.086426371741463 0.1470839063282435 
-0.4032093624811119 -0.1460187949155158 0.07965942529149933 0.3361629726169081 -0.2011735166616175 0.3887723962749742 
-0.2526909462362396 0.4425558077688507 -0.2939700796511108 -0.3059559287858077 0.6808403537156021 -0.06730005527853895 
-0.1755733821084047 -0.1679267183625640 -1.082901352423479 0.5375821353536497 0.5810729928760339 0.2561606166709486 
-0.06999502658945696 -0.1674329705067815 0.1996198186567336 -0.04475643638516099 0.03855679081192242 0.01859826765235789 
0.2414364319523265 0.5137845624399472 -1.117175904509447 0.1014695120727810 0.5684680731711835 0.5637954038273105 
-0.001292674888401245 0.5397547546972707 -0.4685697988323629 -0.05250477497053278 -0.2040283433970814 0.1388542119370911 
0.4989981322758593 0.3243798647374742 0.2018172482003711 -0.02047347763697162 -0.3515426292373470 -0.5342053190121068 
-0.5645502339492459 -0.02769400936799574 0.2358667178979005 0.8800316262220130 -0.3474364654638746 0.1567799196949282 
0.3749532929890829 -0.2412070040459299 -0.1094521886553514 -0.3577149092365215 0.4693202663954115 -0.7706434338442350 
0.2524925743629607 0.5035516554753682 0.03084154815426543 -0.9990157281488232 -0.8286865730518240 -0.4088800185252693 
0.2857155454886066 0.5288998193256065 0.1658276448986789 -0.5100138986391372 -0.5674002368868164 0.06279122302430480 
0.3228598857974280 0.1093542528320177 -0.6533404828101355 -0.2980901291199207 -0.2208327611833203 0.02947549300327338 
-0.1287069249153752 -0.1303826468624311 -0.1626686625588661 0.2089553928470307 0.8783558470476992 0.5807547347677791 
0.009139955374917156 0.2855198065053299 0.4712925887095339 -0.4897732789076290 -0.1382992970918756 0.8562325341885678 
-0.9092185272302580 0.02319603488997476 0.1183626411574211 0.5389437073329243 0.6020201835587105 -0.1051452598229931 
0.6772302906952335 0.1582485007551678 -0.5294270053610210 0.5635108272856301 -0.2185575405510630 -0.6233777674729962 
0.2231503434123702 0.5621108622603190 0.1555933120832677 -0.1211944945090467 -0.7327992628292971 -0.7395151310370579 
-0.8086886619203841 0.5277729948079914 0.2580349915596155 0.2335308810001369 -0.2555109005388471 -0.1102011932813158 
0.2930192236251584 0.6545582520377053 -0.8255504657922554 -0.7594084532094888 -0.1963084317830501 -1.061055150418647 
-0.3144056895967477 -0.3693969157758368 -0.6366099889140006 0.3790206716116285 0.5194296749577890 0.03042604776448103 
-0.9002214091656535 0.8539870438720150 -0.7520581374187645 0.1267797515859821 -0.1954008274341611 -1.573533666984958 
-0.1260432844359800 0.06404379981333608 0.2574534908257186 0.1722731650540278 -1.191880233794303 0.04311237696278179 
-0.2330803385201013 0.2693622980869163 -0.02952140933604977 -0.3533281069908006 0.3676640152133988 -0.5825944622622259 
0.4023400587914479 -0.6372333456238419 1.326719726488879 0.3816568748773516 -0.7360996183528523 0.2233508840392733 
-0.001870976746451847 -0.3546230042076223 0.9899344425440867 0.2846675015294410 0.03169641852358644 0.009852386646312333 
1.418346129381408 -0.2887718496370682 -0.7774666344480204 -0.6486807077055317 -0.09872652053972737 -0.1597132826410167 
0.5928547215458341 -0.3897820037884685 -0.2762052763822385 0.6139000683392410 0.3094266468634165 0.5183970248471121 
-0.5999776953258844 0.05602361410036299 0.7298093954849364 -0.3300050950127456 -0.2629115671993582 -0.5432198292092676 
0.7977165689432225 -0.2773241605946116 0.8664632308418111 -0.7670455302228419 -0.6319607412759104 0.1710874819682187 
-0.4087669836702884 0.2989684470078752 -0.5430887765231343 0.4641891052443484 -0.09134563184770539 -0.7399109080122571 
-0.08700751724822284 0.08822915993515820 0.7967613928960979 -0.2560687389449823 0.2243253318829426 -0.01263915198761880 
0.4893244229836708 0.2586012374862899 -1.100025106079161 0.8229689127787325 0.3418839719590157 0.04092011018539692 
0.3056315373883993 0.2408422659602997 -0.5847875278159121 -0.5919982175379309 0.7543484887514487 -0.03998399150513073 
0.4539092686808524 -0.04934237894944987 0.1047327578644468 -0.002189534209228016 0.3362143210511173 0.09413199574313069 
0.4919795897190262 -0.3161440626132650 0.7345235087109079 -0.5937648651711391 -0.5222363134648694 -0.2444433869447574 
0.3528600538888589 0.3484411876609534 -0.4662960429138597 -0.1449298934673074 0.6415586099554907 0.2149815522846529 
-0.04075350836580172 0.08557988626704303 -0.05347728035115399 -0.3422868435652143 -0.1960523435458788 -0.08022327298220802 
1.014485380689752 -0.5554264041630662 0.01624483657442263 -0.1247018455206871 -0.1072840796747801 -0.8244683455275433 
0.1505109259348190 -0.2562144506319331 -0.3497361187532003 0.2609047917519204 -0.6410367361427145 0.4971728549162823 
-0.04991875894100105 0.2082651804715259 0.3318267045798198 -1.327508051580156 -0.5172407590830053 -0.3566059250564014 
-0.5166767504756767 -0.2613498284279128 -0.3407303867642961 -0.1064422709456384 0.7555070259354629 1.068046089383610 
-0.2307840282219070 0.05645359079853616 0.4189238608572008 0.1992225462282717 0.01787887115754841 -0.2296557560765749 
-0.2960436614044340 -0.7320320889783642 0.05972765184017703 0.8414778447932366 -0.3026298430503582 -0.08482728532101183 
-0.1490900639296940 0.1188358875864104 -0.4871636992756288 0.04426494081010136 0.5738633313177609 -0.2517312671517333 
-0.4687962705182785 0.4760664193257359 -0.04498467923330626 -0.1995170754573505 0.04770080993942158 -0.03654314121505598 
0.1094899583359335 0.1827652824285556 -0.3422860587479927 -0.7712809588130973 0.9689392439913167 0.9040498288775619 
0.4378805691701343 -0.2109695933205908 0.4452713155357829 -0.5469954309258110 -0.1274259906214237 -0.03071165151617192 
0.9429529560541318 -0.6441937168064302 0.8871866097503531 0.4162142629406723 0.1272010972923868 -0.2349008587867183 
-0.2081372720693996 -1.121484000792013 0.03552229976754696 1.085576793174315 0.3916880296829384 0.3992428331197788 
-0.04868727164098882 -0.2540029453682129 -0.04464544550948821 -0.1412887675644682 0.6315195934298105 -0.6171879040548364 
-0.1798247520634927 0.1011676354733137 -0.6309778919305130 1.103479572971234 0.2928074212433525 0.3598416567548396 
0.6276124563751828 -0.5412395626783206 0.09917563102925579 -0.2176000532776860 -0.5989895830123325 0.5058299084027472 
-0.2424015823148591 0.5954746463949465 0.1348275323310893 0.08017965824646293 0.1509016015825495 -0.02345794119562706 
0.2215887829557306 -0.9419746794751969 0.7183025720697265 -0.004773920261307199 0.2070760675828312 -0.3334329192327188 
-0.4564131302141701 0.5124559305719208 -0.2136898318356133 0.3173409895889796 -0.1674943395308354 -0.1867483813041698 
