solver_type L2R_LR_DUAL
nr_class 5
label 1 6 4 5 2
nr_feature 769
bias 1.000000000000000
w
0.3701779433116824 0.1355768071416396 0.2088740690884087 -0.1603128006898054 -0.4426004605015256 
0 0 0 0 0 
0 0 0 0 0 
-0.5463545550361844 0.4673010176414412 -0.01864528346218016 -0.02885534122392235 -0.03213503349564718 
-0.2260254239126733 -0.5245313010514963 1.059025307771046 -0.1005405435501142 -0.3081493762921804 
0 0 0 0 0 
0 0 0 0 0 
0 0 0 0 0 
0 0 0 0 0 
0 0 0 0 0 
0 0 0 0 0 
0 0 0 0 0 
0 0 0 0 0 
0 0 0 0 0 
0 0 0 0 0 
0 0 0 0 0 
0.3633560601424866 0.3551258448826318 -0.3947174712815892 -0.2241560849151058 0.03073632863163883 
-0.02686487977343253 -0.4834236493324132 -0.1788701689556648 0.5391420674798107 0.8469035298851317 
0.2576015452020617 -0.07598009390773710 0.08397523150117837 -0.3459881438920873 -0.04113049297125058 
-0.1703006512647554 -0.02830765541818377 -0.0003088053615882150 0.1566612817695783 -0.03494373547629121 
0 0 0 0 0 
0 0 0 0 0 
0 0 0 0 0 
0 0 0 0 0 
0 0 0 0 0 
0 0 0 0 0 
0 0 0 0 0 
0.2116440870574717 0.4134908333294434 -0.5584410550541730 -0.01567774829331797 -0.03104449842007177 
0 0 0 0 0 
0 0 0 0 0 
0 0 0 0 0 
0 0 0 0 0 
0 0 0 0 0 
0 0 0 0 0 
0 0 0 0 0 
0 0 0 0 0 
0 0 0 0 0 
0 0 0 0 0 
0 0 0 0 0 
0 0 0 0 0 
0 0 0 0 0 
0 0 0 0 0 
0 0 0 0 0 
0 0 0 0 0 
0 0 0 0 0 
0 0 0 0 0 
0 0 0 0 0 
0 0 0 0 0 
0 0 0 0 0 
0 0 0 0 0 
0 0 0 0 0 
0 0 0 0 0 
0 0 0 0 0 
-0.03091514541941052 -0.009605354636908654 -0.7774114778101150 -0.3915660729185458 0.5667267250890935 
-0.1525201840759194 0.3706678574721980 -0.8685477029159169 -0.2375714921907140 -0.9899103782172702 
-0.6973104003439050 -0.2188835995528756 0.5680561365381913 0.9185594105504956 -0.5842054412315372 
0.3533225365653386 -0.2590511646898796 0.2598443171331273 -0.3056632358376202 0.1342181139798042 
0.1751163067886979 -0.1691062143163963 0.2995700129518101 -0.1284688093066713 0.4669330818287631 
0 0 0 0 0 
0 0 0 0 0 
0 0 0 0 0 
0 0 0 0 0 
0 0 0 0 0 
0 0 0 0 0 
0 0 0 0 0 
0 0 0 0 0 
0 0 0 0 0 
0 0 0 0 0 
0 0 0 0 0 
0 0 0 0 0 
0 0 0 0 0 
0 0 0 0 0 
0 0 0 0 0 
0 0 0 0 0 
0 0 0 0 0 
0 0 0 0 0 
0 0 0 0 0 
0 0 0 0 0 
0 0 0 0 0 
0 0 0 0 0 
0 0 0 0 0 
0 0 0 0 0 
0 0 0 0 0 
0 0 0 0 0 
0 0 0 0 0 
0 0 0 0 0 
0 0 0 0 0 
0 0 0 0 0 
0 0 0 0 0 
0 0 0 0 0 
0 0 0 0 0 
0 0 0 0 0 
0 0 0 0 0 
0 0 0 0 0 
0 0 0 0 0 
0 0 0 0 0 
0 0 0 0 0 
0 0 0 0 0 
0 0 0 0 0 
0 0 0 0 0 
0 0 0 0 0 
0 0 0 0 0 
0 0 0 0 0 
0 0 0 0 0 
0 0 0 0 0 
0 0 0 0 0 
0 0 0 0 0 
0 0 0 0 0 
0 0 0 0 0 
0 0 0 0 0 
0 0 0 0 0 
0 0 0 0 0 
0 0 0 0 0 
0 0 0 0 0 
0 0 0 0 0 
0 0 0 0 0 
0 0 0 0 0 
0 0 0 0 0 
0 0 0 0 0 
0 0 0 0 0 
0 0 0 0 0 
0 0 0 0 0 
0.5375918057568141 -0.1240815240753232 0.1600498910619201 -0.09823003138198833 -0.6621988141342046 
-0.3120571364917141 -0.1066303492545646 -0.06320556943017595 -0.1998125410352409 0.4507798553827201 
0.6530695274755494 0.07051949197439708 -1.302858262466094 0.3635896934570114 -0.08083671567561833 
-0.1315508220670765 0.2791512821080615 0.1023474605512349 0.1472712635523895 -0.3246805520522543 
0.006682921916667129 0.1772860134769799 0.4422738791763174 -0.1636028143595150 -0.3208796878933680 
0.003878636613937318 -0.004397974123320962 0.1382006723394341 -0.3378523677443695 -0.2028596519892701 
-0.1801513179681265 -0.3885178845646852 0.3187960454762022 -0.1012682908140208 0.2841346432181855 
-0.1156073008156080 -0.1111003292340569 0.2311834406258556 -0.008760827514674205 -0.01934111043664211 
-0.1449547912794930 0.06347845377968636 -0.3181670435080516 0.2721218416725527 -0.06286552967179612 
0 0 0 0 0 
0 0 0 0 0 
0 0 0 0 0 
0 0 0 0 0 
0 0 0 0 0 
0 0 0 0 0 
0 0 0 0 0 
0 0 0 0 0 
0 0 0 0 0 
0 0 0 0 0 
0 0 0 0 0 
0 0 0 0 0 
0 0 0 0 0 
0 0 0 0 0 
0 0 0 0 0 
-0.5226779454822019 0.2132422794053785 -1.034489768020856 0.5308610115342285 -0.5690630705194845 
0.5451659725028931 -0.1908193997114413 0.2565907950077332 -0.6144082281234694 0.2962950931519598 
0.004042258986193199 -0.02642787027333243 -0.2650540858866119 0.8203211493181778 -0.2015701092537436 
0.2156157285221593 0.1619409598602239 -0.6202515867659998 0.1943542352326324 -0.04211766742397335 
-0.4703142645835887 0.1027096866617215 0.5466344989907166 -0.08747559228212891 -0.1830463104835535 
-0.3687356747015325 -0.1450192346694780 1.258886517239199 -0.9518836805746265 -0.3092087344554267 
0.4778311639975320 -0.1423530937116111 -0.4599132604216569 -0.2162064081228380 0.5901091617928821 
0.9429949732797334 -0.5844153887936314 -0.4581664749783166 1.022770452309165 -1.537675734549073 
-0.8375380016011240 0.1849373049959585 0.7068864703387796 -0.2587743707126634 0.2100344079930888 
-1.084665639045888 -0.3031385722828422 -0.1506937866549159 -0.6346805657593446 1.535181457959013 
1.042080330760642 -0.5338567797781959 -0.2073946057767102 0.04579760118700708 -0.5745736227492257 
-0.7221250643716227 0.2722497769458884 0.3649447620035152 -0.3422287930873670 0.01222964042846592 
0.5812227857155655 0.01261221993855482 -0.4886970913272338 -0.2350393437799257 0.4665246710259549 
-0.09674273690581461 -0.08561416386836357 0.2914899973188712 0.2522777577659058 -0.3868882180688144 
-1.247170023562110 0.1949848067947740 0.6483136060555801 -0.2864564825961007 0.08766489448470140 
1.224500300262945 0.2578344057800953 -1.266042678752790 -0.5457932384025015 -1.398900046877142 
0.9209177622440454 -1.174405476674180 0.3836640792422512 0.1946168430676455 -0.1162255911206168 
-1.073021391113374 -0.3156393387433228 0.2924342643789508 0.4877556158537385 1.152293345552467 
0.2408241721167282 -0.1684954972084053 0.2029288438836257 -0.4705188856173977 -0.3230986369064126 
0.01161020891690972 -0.07921071497597107 -0.01787349462117632 -0.02771345636957677 -0.3177968496762044 
-0.1306829696754499 0.05248404253743236 -0.2997233952362954 -0.2967240566484432 -0.1008047875151395 
0 0 0 0 0 
0 0 0 0 0 
-0.4157522283479654 0.09992088667330619 -0.2725189631632555 0.4215704274994073 -0.3533178180945289 
0.6140447997635256 -0.4852233468511015 0.1570700510329214 0.1748383350897853 -0.4603202500334209 
0.1620150366801724 -0.4342677172454463 -0.07488963564044783 -0.1600359171347528 0.5526336687411322 
-0.2875334324116290 0.09751083694423390 0.8391976611016352 -0.1835657712826080 -0.1049868725240322 
-0.4706467318865995 -0.1375547739262115 0.4092235216900813 -0.4951168329138569 0.6244320828519597 
0.4457174414707390 -0.1525937353901876 -0.07262395997907180 0.2397158109920968 -0.2683728383145524 
-0.003434624554781241 -0.2911599958695717 0.4501577130656793 -0.09954332220966901 0.1779910335745149 
-0.1788432162016245 0.4173039125043968 0.3225201688453724 0.2793850663484090 -0.7214788453690569 
-0.3303427927192180 0.2498268670028244 0.3887802497433235 0.4498071280735162 0.1524683294046829 
0.8446020265884210 -0.3841498877106054 -0.8329933870230427 -1.010106236442859 0.5331359342936941 
0.4802494243264089 -0.01476640448694965 -0.8449670343265336 -0.4319280684819594 0.4921463053997510 
-0.4512767635569213 0.1188646550634379 -0.5382811658479675 0.1144009418546016 0.7625731942617426 
-0.3291375836976580 -0.3100516876261720 -0.6940364149150225 0.8809014035784789 0.8744341200055474 
-0.9388653654467544 0.5914621247447504 -0.5682273434297096 0.5154512725728041 0.4609860956873150 
0.01630561090439026 -0.2086761957755606 -0.3548111443254518 0.4313353598356024 0.03809987607812586 
-0.2111687400394039 -0.2009668751592715 0.2194221127888097 0.1281153644152678 0.4433281504912338 
-0.1351454311398759 -0.5539971861699751 -0.2092609694966987 -0.07528971003132687 0.5524669494886858 
0.2699783724447470 -0.8203576508087879 0.1889980740227061 0.4929217756199052 -0.06428325692216767 
0.2978538039652401 0.3405984090069739 -0.2144446788758925 -0.06945664712508909 -0.8268905448140837 
0.2553397962105805 -0.3913411574168875 0.2774087007479972 -0.6979662246192013 0.7232975468074808 
0.07968128181722149 -0.4570973229174841 0.5084092093286707 -0.06108841947856407 -0.07268307591179936 
0.07296072330965027 -0.8709900499357007 -0.5535550389735543 0.2511182909694107 1.189615162968085 
-1.019040367212795 0.2511598238293720 -0.3035017798893415 0.2537408614514583 0.7595442617803079 
0.2381155063628790 -0.2952623296643326 -0.8472871299660332 -0.02894877230787990 0.2370750701407321 
0.4195738166679413 0.04916255105937835 -0.1884874030664249 -0.1143797090501824 -0.5036195058262477 
-0.1257186973485571 0.1523153081152333 -0.3282622418819960 0.2566928878328563 0.4178352493344779 
0.1085260193464397 0.09345853273586473 -0.09276589511370702 -0.1046537589869445 -0.01363416119772729 
0.4735686524124886 -0.3140394871776235 -0.1894616072013225 -0.2974953344244543 0.5776986386805788 
0.3518126804012889 -0.3817483327642535 0.2152541754847286 -0.6118811734645725 0.1673883660992213 
0.05800152468473261 0.2688527582470486 -0.09011841066563255 -0.7373557449506507 -0.1724394983886193 
-0.1162895856642128 -0.8104384682235270 0.2153593732777271 0.7249524753222780 0.6057455627984052 
0.5736145401057543 -0.2828001705308253 0.3528730089605784 -0.4653535240830987 -0.7111422721427534 
-0.5242470223920893 0.1984154902943946 -0.1135489005684499 0.3573512790510787 0.2101616737371518 
-0.4701399934497589 -0.6764703572312160 0.6182418812852095 0.4819859732280352 0.04945806451655865 
-0.8131294798966064 0.6675777676879345 0.8534537915368471 -0.2153790452207926 -0.08456520470185200 
-0.09814159435175451 0.6337267653406038 0.2065004706604204 -0.1179502731182163 -0.1569174687510249 
0.1509738379642796 0.1103430157891778 -0.1415186945049647 -0.03978522602307047 -0.09715383435629198 
-0.4294650104184995 -0.03446694644779703 -0.3983154704771378 0.5389552476878950 0.2956585181254719 
0.3467324882526097 -0.08536548983635808 -0.2874290873438806 -0.3601448498838714 0.06227113954745695 
-0.5627375973155317 0.6208440642657052 0.6550561461583405 -0.05795099641328780 -0.4531435980629668 
0.09821626971792542 0.5561739866314552 -0.2167385697996062 0.04111551179530604 -0.3528571904450809 
0.09511071051925730 0.4924359573190773 -0.1255490354069902 -0.9794851652158224 0.04357703093785283 
-0.2710261060868526 0.1000654231758247 0.1656285522513618 -0.1265461587849184 0.2271872176402001 
0.06137520309366180 -0.1451651241237822 -0.4974135601847649 -0.02490438134725473 0.5979660945757116 
-0.3039681074692227 -0.7009094001873942 -0.01921461156367600 1.057761096161032 0.1598831139180423 
0.1209260921614230 -0.5342468735567609 0.8177911545393225 0.7757898819244715 -0.2170658899917694 
0.2461982819188182 0.1052431350763744 0.8283248236963602 -0.6996658400972724 -0.4491089161238794 
0.7947768819846720 0.4464095461046890 -0.1015321855779627 -0.5525415796552232 -0.5610956842195655 
-0.01252975712041810 -0.6241116048124423 0.2342724335201087 0.3863201357840476 0.07717895860629304 
0.3213248603506970 -0.3213611234712365 0.1119100221855114 -0.0009478402131015812 0.1299903050783841 
0.1270686339104838 -0.009839041369398473 -0.7194007068615215 0.5910295171964852 0.05642508074053845 
-0.5438128806335708 -0.1906805643597968 0.5146238185781118 0.3955394087519397 0.1003963146571773 
-0.6110960860489169 0.5361671114097076 -0.03486502846172702 0.1705653759030082 -0.1085826179697852 
-0.1592648167617757 -0.4743749399243070 -0.04420103134823174 0.5118107913630388 -1.001860430747013 
0.6580762551738402 0.4992008193169578 -0.1048533324548360 -0.3592430899615359 -0.9932544746053764 
-0.7894746765551699 -0.2766703475634854 0.2700057696728505 1.218423372497692 -0.08320169815858809 
0.1704398874000680 0.3389189950612967 -0.2568079819083308 0.1768922274853914 -0.5792096512154562 
-0.08432225774302678 -0.02873368516066002 0.8067031345187204 0.3419211405439140 -0.2942004229579976 
0.2256676127404590 0.1585784085359599 0.3768424183248455 -0.3741825622166994 -0.3169054692298805 
-0.003108342795951052 -0.3275536116798332 0.2017292642290019 0.3027335731765334 -0.1233932937493834 
0.4923333854160860 0.2600798497775432 -0.1898451176995813 0.3725892152186007 -0.3663458813019800 
0.4687257065149274 -0.1753399164276457 -0.5561263369287426 -0.3700134545154512 0.8519942395088619 
1.057934886301207 -0.7364948380017146 -0.3336825432083981 0.3414904953235627 -0.4543921716244576 
0.3130480039991461 -0.1452608930606212 -0.2396646225995138 0.002820290669788011 -0.5617898094260845 
0.3308234892550646 -0.04458986634131004 0.1369894482249475 -0.2465241385486768 -0.6315966826438433 
-0.5066402429022323 0.6489645488682311 0.05444121906516637 0.2804700245451072 -0.01395785463789752 
0.5406856115979889 0.2973366762547048 -0.06333099265204271 -0.7121695191871078 0.005144728870279859 
-0.1800900440266401 0.1824021889068252 -0.05618467027865880 -0.2840243471799870 0.2782063534247254 
-0.5029663977394200 0.5012603037612800 0.6435927996110126 -0.06057533914301493 -0.4695213388419072 
-0.1153722094159012 -0.3455232352685746 0.6805016287039716 -0.2565540212814575 0.5102674212342478 
-0.09636325287578280 0.4810244063277534 -0.7301756341967940 0.3235875585568548 -0.2530925214928798 
0.1179881544625661 -0.3178350113842438 1.013017498604608 -0.1602093399075278 0.0001336963762925210 
0.1259398258642014 0.4698012256392024 -0.2943710225419817 0.4343983410295081 -0.2983182430955937 
-0.7996881628398793 0.6963671927259868 0.06806900152279387 0.1670529730638382 -0.3303207755667252 
0.2791485649954020 0.6527612232577932 -0.7638034097573774 -0.8155793029174703 0.03617825147647740 
-0.6142674407022060 0.2769775277082390 0.4358585434036666 0.07107957416431689 -0.1139262898665493 
-0.4271352544994602 0.04629985625750020 0.4988368233643832 -0.01087595987360613 0.03316507182751175 
0.6834283712058097 -0.1210146949249423 -0.2552776691894861 -0.1070131890935821 -0.1038279353575705 
0.04167120202482230 -1.072723721300098 0.3567513062152526 0.6153134389995694 0.3374367028200992 
-0.7359236942952974 0.9621093383072847 0.1300333672583526 0.8191152831324667 -0.7173874505165928 
-0.4304342315666863 0.1037622624392157 0.1820256374027541 0.5902927830421910 -0.1989003897524680 
-0.05675971588462782 -0.6719275425767738 -0.1554352975170211 -0.1176018255698648 0.6423030814564117 
0.5968123765783097 -0.4768820105423468 -0.2338903412596101 -0.1642780936499518 -0.1585336302836778 
0.005017286881725246 0.02804951677962311 -0.4173249141238524 -0.3073686364305549 0.3087255694176281 
-0.07153227957863631 -0.06598477882153980 0.01238630302916207 -0.1727724330929913 -0.1459726964875131 
-0.9046855988908383 -0.1544469239989380 0.1715560331411367 0.2916804042283771 1.173201643360311 
-0.3996550126714914 0.3963899305697891 0.3676482868900384 -0.6361188700252174 0.09751612903599570 
-0.4242693900512570 0.04355055163752945 -0.06063166881806178 0.5202395682744213 -0.2941872010132520 
0.3752501698009997 -0.3409645989908793 -0.1243588900755815 0.2215004764681139 -0.3075605951239650 
-0.3693419076456095 -0.1028552353465997 -0.2173610137359708 -0.01999431447787332 0.5502386300550332 
0.1981608640935943 -0.1478188843680345 -0.6811831447032054 0.03072002717625763 -0.01933437274379122 
0.02651646182324540 0.3932199060578675 -0.1908171512240520 -0.2966224744561399 0.3867716550513825 
0.01457784731650355 0.1675496295754853 0.6192872475784008 -0.09084148718006717 0.02411977596153610 
-0.4916178856673085 0.1254169493143737 0.1079775111971363 -0.05292998604605010 0.7881460705267970 
0.6935159293878889 -1.213694457708557 0.8417302990396622 0.6310534379412809 -0.6262247778340607 
0.1066653339956476 1.289820557412584 -0.4593723589880129 -0.5361261184757715 -0.3789625068543044 
-0.3657797776897474 0.3246205208996709 0.2642105763685148 -0.1774927724206415 -0.5842309607356228 
-0.3305704950937388 0.6797818620751226 0.2732611780553979 -0.7638372064079408 0.04206732656651670 
-0.4969474878989351 -0.3051791944051522 0.3355850157333454 0.08896032979520765 0.1539188774474904 
0.01886653011776542 0.3194275804868701 -0.02278263440434678 0.1597821842690341 -0.6412022341637724 
0.9373172957667822 0.006147933308914840 0.02048504270727974 -0.2425457207261235 -0.8272999448735384 
0.08195824645115454 -0.1022555669927420 0.02092405598179475 0.2155893012414562 0.01724524792485672 
-0.2781221421510862 0.3559594376075062 0.3620921258183089 -0.2141020977189041 -0.6974874319306488 
-0.3770766176910903 0.9531723558312646 0.5051320958118526 -0.7940770694868585 0.4659135348209753 
0.5811262730570240 -0.4690104278771919 -0.5077458083181532 0.02836484868125842 0.04993511534388560 
0.8626516797802170 0.09413126646740433 -0.4810753019209068 -0.6996222605819236 -0.08991048141020835 
-0.9657999526047993 1.267643360448943 -0.3597982255616302 0.3740169960921895 -0.3311844969488405 
-0.5719096825575063 0.2129436237166041 0.1363067048507829 0.1050880063296388 0.1288635049224987 
0.2550864783534276 0.2318911747504322 -0.07299790955909481 -0.3109503340071537 0.4490684182724681 
-0.8723392668651623 -0.2196399331672078 0.5757928843922959 0.4079878073726086 0.3770426497899107 
-0.3985860610255989 -0.1393071832846160 0.09696844413067470 0.03174022660384181 -0.1834815693158599 
-0.1048034820126093 -0.4355144451827034 0.3929723896684208 -0.2720316430178565 0.1682965094376117 
0.3694055598253754 -0.9026727516951418 0.6549003022148349 0.7458408252630239 -0.2146214116826165 
-0.7318261943139132 0.5287395660229024 0.01153700891333989 0.01811285777574131 -0.2021653565484769 
0.2508657253038270 0.1972921475051129 -0.01337358175516057 -0.6122183535601489 0.008255407824544632 
0.8186511418233053 -0.2153387465968047 -0.4781097855926929 0.1606515069301426 -0.4777885175669648 
0.4824106562067040 0.5289470420456637 -0.2367376893988793 -0.7201171664944066 0.3340325885249313 
0.4926146283442494 0.1511345926633713 -0.3382953928940938 -0.4599512121289722 -0.04921599289590448 
0.5906262519332067 -0.7036637237112018 -0.5803965558469785 -0.3035709948589107 0.7764931255755549 
-0.7807907318299399 0.1178921106319741 -0.07100918928784967 0.006876861974732928 0.4299990798188966 
0.4796556921715179 -0.3031637325359547 -0.07274047190030353 -0.09326434487479375 -0.2765031112018918 
0.2557163154836683 0.3796267693807385 -0.02652932685282754 -0.2788925792640782 0.02524895989735282 
0.4504110852017821 0.2258985990250946 -0.8030809225101192 -0.001327027820242621 -0.3241067759358870 
1.193048378499309 -0.6076572371480394 -0.1900104774398394 -0.3406260698284282 0.3289842612172879 
-0.08901770429922445 0.1199111334715964 0.4135133540090913 -0.3053246266752346 0.3112439201668897 
-0.1441732637056780 0.1253123513845875 -0.7765226434708548 0.2032639601347363 0.3488866147401789 
0.2573564019114020 0.6982107912015088 -0.7276998472997561 0.0007260338563644974 -0.3843257845327608 
-0.7751009912634083 0.3297309027415009 -0.6371541835304116 0.003058814283927591 0.2866024289354958 
-0.1066142299515464 0.5244184861978044 0.5012199138400522 -0.3234364231397691 -0.2257148903223717 
0.08201294123196808 0.2744616633103956 -0.6584671009576566 -0.8931937968120602 0.4481996839497635 
0.5890610844470290 -0.08831150379196002 -0.6100255796272003 0.2048092016389303 -0.2757032006405032 
0.09086147272328661 0.3870770763793637 -0.6624340068690785 -0.2139923118493158 0.3401117253626265 
1.269136678122508 -0.4189815519010994 -0.3085924629596349 0.07073159233414157 -0.9410232567731740 
-0.6603932177050540 0.7474278638763590 0.4135313057647762 0.4813439415884712 -0.8437589206239323 
0.7526045951865481 -0.3002819140443474 0.4598584278533077 -0.3482051547197503 0.2363266758337367 
-0.3947878361631587 -0.3938625581198752 0.3450744763980201 0.2701991476856330 -0.1340473524070003 
-0.1287276083246187 -0.1815462940742189 0.4666910343223393 -0.5633708340973707 0.4033308535399747 
0.8343625510611721 -0.6742538866671532 -0.3757425395768868 0.4050609553649753 -0.4563916509420372 
-1.117153932961439 0.7581040900955873 0.3670880031558235 0.1908921054699941 0.09947764756378633 
-0.4737409744838258 0.4269682026212384 0.1136586853086813 0.3204741403951313 -0.2442513035297024 
-0.09815109974773849 -0.7134502401570212 -0.09427277980523631 0.1933523681731844 0.3250478493530178 
-0.3818285293460440 -0.4766695420005278 0.9214079319124380 0.03476686811536690 0.1603311240249836 
1.074202484153551 -1.102317422322200 -0.6380877162612774 -0.05901021740500955 0.6990912557330274 
-0.1268006348212610 0.6075497325119061 0.1472885583063308 -0.03960074082205385 -0.3200143348082090 
-0.2090070175482887 0.2384640683008586 0.2340511172119717 -0.001798291324119802 -0.5788486735491394 
0.1191503247665713 0.4936053558214373 -0.3041107743473082 0.3239834425662505 -0.4181799328876665 
-0.3470083058351967 0.1501466634488594 0.2066459976459940 -0.1364316435124466 -0.3714206002717304 
-0.2370323441334181 0.1365041122419654 -0.4622131392726649 0.6885271133794870 -0.04737911945454919 
0.03298056110323778 -0.3730515841256732 0.9109788352848905 -0.6818906763317439 0.3219210977903884 
0.8635310669018311 0.1963875299576615 -0.4178311650331451 -0.2032766502474149 -0.2158954976423457 
-0.5447703045002908 -0.1838718603813020 -0.3018321583477844 0.5170858227666858 -0.02734472020310850 
-0.4076720640568258 -0.04272735676528967 0.5719161421861632 -0.4724148702882899 0.1883221865847092 
0.3778503327225958 0.07367377094910957 0.01610907215683192 -0.1833052288335072 -0.1577746124595655 
-0.04820872998627755 -0.03201199388689079 0.5458373145806745 -0.02137451540291499 -0.4309679961566435 
0.001410081016660529 0.03041747127495788 -0.4656176999685151 -0.1670615741150030 0.4629756618930548 
0.4605625043288428 -1.253657424170455 -0.4256500390934941 0.8713890674918168 0.4092134936225980 
-0.1076965628049717 -0.3035565727342289 0.7854639337574486 -0.6087463476356448 0.7308381962769157 
-0.3977268040782222 -0.3878360769334582 -0.2244749789211991 0.1723483025048452 0.6770908618944670 
0.1487418572564005 0.005857824310360587 0.3071797214842281 0.2921469827268738 -0.5400614864773925 
-0.3944486624921574 -0.005342084001365104 0.2825630558781436 0.04634769984388231 -0.4958573883148906 
0.7820245706736669 -0.4232774401246190 0.3438964662922677 -0.4553867844045311 0.4477014426408230 
0.9000109056422968 -0.8994027568569563 0.1942389008157752 -0.1358363690419161 0.07292076649474843 
-0.3565704408616414 0.1641569718379516 0.5495230320850901 -0.2319618535899864 -0.3066715869317143 
-0.5839425175078349 -0.3287060002966839 0.03155126214385488 0.2717610567291274 0.5134317235973374 
0.3125549179452493 0.008729820725912437 -0.1267489329071430 -0.4314248570828186 0.2464264861711939 
-0.4808059956245154 -0.03499701939781586 0.3358886909822478 0.8608221148942911 -0.3478491003811809 
0.8028906502272948 -0.1689274201647123 0.3990010835636835 -0.4319680349079912 -0.7606007003704950 
0.8013571029484421 0.1918607524131349 -0.04719384904897550 -0.3577210819134019 -0.7593233755928218 
0.09175353552515490 0.07113862937573497 0.008777335131015602 -0.08669142839669772 -0.001318961805901168 
-0.3340889692881138 -0.2200226631845498 0.6822672464058461 0.3958651057406193 -0.3171986305226777 
0.5372653343143325 0.1231135410231510 -0.1237016722275771 -0.6913542790039492 -0.2747084952530531 
-0.4850171663354739 0.4011869676538232 -0.6171468863282178 0.5583503934693375 0.07747862478134440 
0.2382881021534804 0.5147431456909446 0.9906305689729057 -0.6084686017403440 -1.179518478040355 
0.08414979417087817 -0.06799312034515714 0.7033396528756283 -0.2598494272963931 -0.1870030413137292 
-0.7283418909915502 -0.5840441029019221 -0.08443639465596371 0.4782114528360765 0.6979468238147518 
-0.7105352814470348 0.06560142711149071 0.2500280475313753 0.1976956142671918 0.5260497464570064 
-0.1764384985282282 0.2859765285384995 -0.1892876322940409 0.4186368535647175 -0.2272054663119874 
0.3383077981597704 0.1170136918091382 -0.004236901102022705 0.4264647610680055 -0.6029739773295297 
-0.5353671152219861 -0.2824841272923317 0.04363636086100833 0.3353634457960246 0.5553831432828534 
0.3948833218734977 0.0006030605225046812 0.3741623539911436 -0.8426428916946247 0.005391340546051017 
0.3802186861042049 0.2576953212218348 -0.2938752667807711 -0.3773507420332392 -0.4565677799984254 
0.4330637282175809 -0.2993672969155267 0.09745708849679620 0.4708275237024190 -0.9774701515161729 
0.5086120747866122 -0.4018309955137057 -0.4492012412360963 0.3730412259480818 0.1872592769929023 
0.1769226313696702 -0.7286439365544481 0.5195432035748705 0.4666747468568833 -0.1837315603035527 
0.9588470656840687 0.9594910423390303 -0.9820695403261871 -0.1033649975800452 -0.5911604702041033 
0.5788338410417557 0.2594609070599730 -0.2828553940601896 -0.5252048896599082 -0.7660741284177893 
0.09037322268004712 0.2395916295258545 -0.4563435103988824 0.04286715836584987 -0.5914839703040237 
0.3938925131759022 -0.3063214436631449 0.7154832673406438 -1.066359251901211 -0.1900973041549480 
-0.4518589422332305 0.2464221749741684 0.1806845872955620 0.06414475904236372 -0.07780075059456878 
-0.5286850601306381 0.2625581290752895 0.1582505981121120 -0.3322434952505921 0.3815029279467117 
-0.7487369069980564 -0.5423270159028885 0.4342279358478876 0.03828945600242047 0.7117172099327665 
-0.05154043677826217 -0.2097927073746771 0.5102056843566688 0.4313462340452289 -0.1881225169258092 
-0.3623333709832201 -0.2819223087582957 0.8692043477678729 -0.1923711838198668 0.4746910880001122 
-0.07985768922204345 0.02988602154987561 0.5845005347634196 0.4091328958932665 -0.3013928676552670 
-0.6621147696969750 -0.2208210084574206 0.5784811166131612 0.2981378370140877 -0.2684106003937731 
0.5063809094209636 -0.3259904999024820 -0.7533722953061940 0.3324409194505800 0.1198709046743962 
-0.2960466888101618 -0.004110030966648482 0.5551636630537001 -0.04376045989466952 -0.1450596047926120 
0.04469040452077473 0.1224032619109711 -0.9420162954741814 0.4102475656865589 0.1410862398990803 
0.1101767465198285 0.07036449432414262 -0.4918821606064360 -0.9145253774157603 0.8130392272570017 
-0.3406767469275366 0.06830262417297812 0.1699820313443209 0.8963365997986731 -0.1088142017646251 
0.1959249228833554 0.4570343988297997 -0.5354590488537436 -0.03389076467652873 0.09240080772190984 
0.01987750257600321 0.1605503982628407 -0.01298155032862034 -0.3278555310513849 0.3759530548739216 
-0.1764429115666672 0.3810115958159162 -0.05231833312204873 -0.2544098617091483 0.1001403453473389 
-0.1179319861209784 0.3707997087455341 -0.4443914904121125 0.03834744169372516 0.4242354264851374 
-0.5606608579758713 -0.2016587265741758 -0.06564914061573876 0.2321540563783431 0.4395012407001547 
-0.6432204580650461 0.4388017914246659 0.2279850801409899 -0.4815341257982729 0.5376566867636667 
-0.6528462554093591 0.7407773541411392 -0.6555718768693680 0.8262238829736321 -0.2151486275009802 
0.2272654037708108 -0.1673899159408871 0.4703312841653453 -0.2203595002317709 -0.9223924897307194 
-0.1542324599526836 0.6587415896607991 -0.4315374368225603 0.04851223263422919 -0.7655672014753440 
0.2683123571979320 0.2510955994219741 0.1398228677254785 -0.2182334777150572 -0.02169319750516018 
0.6335771552197261 0.001348456182779053 -0.1108028728241986 -0.7417994290996842 0.3888654548680325 
-0.1153971994475858 0.2250364108474628 -0.5341937017373906 -0.09818756097674045 0.4454916460217118 
0.07170757109581606 0.2995738310303886 -1.001462787515008 0.5345314916397604 -0.07226238435671548 
1.329630827984408 -0.08976726681153843 -0.4146200203292356 -0.4792435055148329 -0.7286867202190308 
-1.060271876465464 0.1402603057585871 0.9270068376767352 -0.2824667017842019 0.1005338588282590 
-0.1829052644783539 -0.7327585975168057 0.8685940567107426 0.4073128839261955 -0.06521053039305355 
-0.5750069709230077 0.4786322893440685 0.8923301195291768 -0.5285717860605047 -0.3648264443585097 
-0.6938743874162818 0.7969066697930770 0.1730043153310735 0.1729913966979457 0.5892638024851855 
0.02620429298754898 -0.1362389633447466 0.5699700656198529 0.3783244608395380 -0.3705565074164975 
-0.2876768420103018 -0.3083625956223618 -0.3551735548799995 0.3282854657821134 0.7032882676955828 
-0.2279874065226779 0.2902776835824694 0.1976239520200692 -0.1821751449135415 -0.3744499979029470 
-0.4590094251217471 0.5671574833942141 0.2172045043488418 -0.7911619412315215 -0.1282164315822616 
-0.3944966394947161 0.3373472555189073 0.1459452710105818 0.1003583407402298 -0.4773261451331098 
-0.009389182337992100 0.2459088312567748 0.7113034461084764 -0.6756510957995874 -0.2315150889148994 
0.1368797264769927 0.5529991652444542 -0.1058197157877038 -0.7251559401935730 0.3448713244367533 
-0.2209908311682361 -0.6061384318334189 0.1479762211070722 0.7098511408785053 0.1406572748183185 
1.164346365996562 -0.9329246157851710 0.2494937817641951 -0.8186237715668067 0.1883470565002878 
-0.6313640521685304 0.3484375433630076 -0.1818106898333396 0.03467997889812996 0.1726228735028731 
0.1062006481573447 -0.3297011513518902 0.4124619796063023 0.6912646525677892 -0.4976123094934312 
0.1051038169192477 0.5682254733489661 -0.1343763124386752 -0.2771820567783322 -0.5779347425459557 
-0.6471996214791892 0.6004569805167239 0.3609427289280773 -0.3410485826307600 0.2872106937270806 
0.04336811705654733 0.4972478383497215 -0.5231715852222686 0.1218859016118020 -0.8677538072456651 
0.2043354403279639 0.3514504624131803 -0.8106297421906260 0.7525398822229619 -0.6461419902359842 
-0.4084698471346238 0.1720251432621889 -0.6570070676797112 0.2687483921713814 0.5003925856898924 
-0.3958518416005600 0.4621764360163858 0.3384549292195934 -0.2161578239757997 0.07673266980259605 
-0.3610045465836023 1.150529584999900 -0.8962948283338201 -0.06910209315893105 -0.5185584844907972 
-0.5835922218258848 0.1367444066070997 -0.8286252224747535 0.5490475887276669 0.7013447986585973 
0.5600940931284000 -0.4833003442937988 -0.3048265133414874 0.3916035281906582 -0.5313632136038559 
0.02988403768166882 0.5032439710783884 -0.1727866713676647 -0.3713233390494032 0.3016806268230105 
-0.1792261767169994 0.3102535980397462 -0.3573731528998808 0.2476987881830461 -0.4837824949914109 
-0.2942084299875108 0.01811810004944356 -0.7723023354148854 0.2518076989058216 1.017465366293507 
-0.01725835695798557 -0.4226741632814003 -0.1892102916889351 0.7253590687948717 0.3392415380392637 
-0.3546923677208048 -0.1837806097370732 0.8253502626154083 0.3635198140873388 -0.4362750515777535 
-0.6480531726666130 0.5297099600880639 -0.2023501940030725 -0.02525780934006899 0.7886900555003411 
-0.08505287937621087 -0.4055984135208022 0.5581272814389933 0.06802177645099282 0.02924262780387783 
-0.7565902255980463 0.3174201901266895 -0.2483618038855608 0.8953485766083843 -0.3180993517435823 
0.5327220311939476 0.3863890249659330 0.07376981025613920 -1.176321917347569 0.06287088714222860 
-0.04764751301783225 0.4026496118822288 0.2596714770715418 -0.2197664820706454 -0.2906316897375513 
-0.7916969321021138 0.8010627843026866 -0.1470659130379337 0.5477706441314669 -0.6841370962455858 
0.1467542286464457 0.2814236562730442 -0.5404175972476412 -0.6129695245510627 0.6676556413841723 
-0.6357729779688696 0.2350550960587602 0.1860321311555853 0.1224627341905054 0.1149228157924122 
-0.2000376749806978 0.6629842242453479 -0.3041944183385632 -0.7369115557074992 -0.08731338531417830 
-0.01709482587648113 -0.5325570473303738 -0.1740815217074663 0.5506046235716404 0.3700550214466742 
-0.6823506519973800 0.9473702235556083 -0.1843120804040029 0.1933937264833225 -0.2564875533171283 
0.1446315108250869 -1.092024244476522 0.7515325678471395 0.2874912364158291 0.2003390216698395 
-0.4697272959660632 0.9890751896092566 -0.009764365469769174 -0.2251041774601441 0.1408528270916388 
0.2861252724393506 0.09976656367824070 -0.8024134455583485 -0.07968348776402123 0.2726295538766064 
-0.4389455109896313 0.2310425414234916 0.1906898862809704 -0.7103519767916558 0.2578125546852703 
0.2447445309567540 -0.4337481474394512 0.6427128591960608 0.2376577698662027 0.02728456881907128 
0.08545697610062519 0.04769690979881052 -0.9703281488948395 0.4740747480694311 0.3283293066773583 
-0.7891367680292836 0.7151335864520828 0.8338071552073472 0.02629923911237614 -0.07968576185189886 
-0.2671159811432041 0.1253243331318084 0.1865423955505038 -0.1838146581281321 0.01288183656871660 
-0.1828276082987053 0.1013305494781351 -0.4391709722676197 -0.2169031474424118 0.1992032413998653 
0.04281245348314942 0.5944575070835864 -0.4963138029662567 -0.7515277292272100 -0.1811986386104324 
-0.4826353309332677 0.1587873543825727 0.2802265883596212 0.2174679845140500 -0.4706073823394266 
0.1044944620612304 -0.1807580928587407 0.2848369236039300 -0.2325660182433655 -0.09126781746359242 
-0.1374653730228919 0.4888145601067792 -0.04667122171274311 -0.09194458242620131 -0.9787777452782317 
0.3763240785258059 0.4061891562815367 -0.5310450779901170 -0.2363428028418992 0.1253989828660550 
-0.5495168196788130 0.06452820711690621 -0.06124653713543710 0.6806211344573790 -0.2145596065805921 
0.4436881420255750 -0.1131238937623280 -0.1269248327797259 0.08308429632666797 -0.01626120340872577 
0.3542322818218140 -0.6871214152292062 0.02904986853366766 0.4089466589555175 -0.004759059574145231 
-0.4694452524948602 -0.1285730648523450 -0.5349029192946088 0.4021605603123646 0.8891606579125485 
-0.2801516213550033 -0.1080896635171828 0.4347069309929974 0.1267251605215977 -0.3928597132999113 
-0.3971075841882880 0.6037608201149002 -0.06900277938473003 0.2850448516352523 -0.3319904716814985 
0.02930033274920698 1.028075400393738 -0.5999234500426217 -0.5732109242895274 0.1702522987820994 
0.2539580007609793 0.3429527627700392 0.09527063923815055 -0.6249830857295370 -0.5856050102433377 
0.5178136409291159 -0.6546335451423683 -0.3099993809778682 0.3624148051682418 0.2854235483131524 
-0.8396840417928546 0.5367632960711661 0.6395219755586152 0.8890617226080698 -0.5892613559858206 
0.9653721259635037 0.05763736070320290 -0.6062265714337054 -0.2541292867586605 -0.2097297717404389 
0.5969799411823897 -0.2081146265105617 -0.4049417678211772 0.6334384007062479 -0.4792956434395927 
0.8362970520066991 -0.2421697305012742 -0.7277734410505886 -0.1500185469109591 0.1494467644926129 
-0.2013322775170461 0.4777419906447472 -0.4498240981263375 0.3208034687658451 0.2429219616676714 
-0.1543907841519494 -0.1043873400275596 -0.9704333379583927 0.3547213364639694 0.2862423335067320 
-0.08702388300393861 0.7394768340708132 -0.1106920793327742 -0.7794542825790189 -0.1131753006400774 
-0.3337045332559402 -0.3241391696683221 0.6758597657599293 0.1786029015801546 0.3505063161683439 
0.1829457832855219 -0.8319370344086814 -0.2265104581050876 0.4128186988183751 0.8625177533115379 
-0.1771213734237984 0.5653687493701645 0.04081688909470798 -0.4130107275955009 0.2649844973030333 
0.2951439157483093 0.02790385742358766 -0.3383051133640866 -0.09181126730291292 0.1019975098631515 
-0.5884370370005102 0.5589879437753904 0.2771120784996486 -0.1657930973729749 -0.4926494476507682 
0.4511465313552306 -0.05555277955419114 0.2762529322829987 -0.1888391044816787 -0.3661864420778873 
0.2061935956900591 -0.3778616524327579 -0.03746196184445134 0.8312395826415027 -0.6009466382146108 
-0.3424538318090288 0.04291399177213801 -0.1739067927512666 0.4493205547581597 0.5310080124930774 
1.536947530466510 -0.7749200131644150 -0.2670629385838024 -0.4274253845364573 -0.4527142017955464 
0.1110378792386810 -0.1957166531492203 0.2479039662409923 0.1139747029842431 -0.05396459185057854 
-0.4492644349894922 -0.09380985085371818 0.01825154718217173 0.2351859126057021 -0.2241932718113926 
-0.4380071911307692 0.8003370098715911 -0.4706789789853483 -0.004951658196596331 -0.2590943901602618 
-0.1847325719574208 -0.08878502239842438 0.08972908124342058 -0.3465871977095518 0.2862124870426701 
0.6814667628603254 -0.4486764772826717 -0.2865461683357689 0.1680237833066318 0.1305692489126431 
-1.055789067931069 0.1789649547373947 -0.1619423992623854 0.2472361954061158 0.8242312393999864 
-0.1793379421007710 -0.4435257099341434 0.5917748966763320 0.2581956802330522 -0.3841086329375003 
-0.2384625760158967 -0.3066603430143977 0.4457180644363881 -0.3103772754397425 0.7713532262486599 
0.03232634938177253 0.007255863940304274 0.08622247404606662 0.08807959378418358 0.1136436468712543 
-0.02674481372121523 -0.006003051169747823 -0.07133511983399692 -0.07287158536146560 -0.09402169512791018 
-0.01534919329834066 -0.003445228437362435 -0.04094014468396749 -0.04182194205310117 -0.05396026264378750 
-0.001366359929704250 -0.0003066885662322341 -0.003644424311114518 -0.003722920461881779 -0.004803453786770745 
0.0009301964070457314 0.0002087887650898654 0.002481066903566561 0.002534505851696811 0.003270115989738811 
0.02011674756635206 0.004515337675128898 0.05365640655697115 0.05481209563683014 0.07072065359529153 
0.05116413642481589 0.01148413042677125 0.1364675724090796 0.1394069060936874 0.1798681002814755 
0.02604716641593089 0.005846459595930541 0.06947431965632271 0.07097070597269190 0.09156910813560623 
-0.007674596649170330 -0.001722614218681217 -0.02047007234198375 -0.02091097102655059 -0.02698013132189375 
-0.03325666486157767 -0.007464679432066707 -0.08870385854652216 -0.09061442407339555 -0.1169141814626315 
-0.005494374399681459 -0.001233248846331533 -0.01465487328869345 -0.01497052016319073 -0.01931553534492015 
-0.01976798345008983 -0.004437055251556559 -0.05272616526657806 -0.05386181816120000 -0.06949456939995796 
0.01546552738560173 0.003471340396334779 0.04125043684535787 0.04213891750331979 0.05436923644332401 
0.01186071862639747 0.002662217114930425 0.03163550860181290 0.03231689623421216 0.04169649047899224 
0.04069871240898677 0.009135096459475403 0.1085536641626134 0.1108917686370211 0.1430767837870898 
-0.02360522223829444 -0.005298348997560842 -0.06296104263912490 -0.06431714145571889 -0.08298442576008698 
0.02151216124968116 0.004828547549436319 0.05737832450921049 0.05861417885188797 0.07562624618153624 
-0.003750077527329501 -0.0008417298217793388 -0.01000239644917123 -0.01021783503498959 -0.01318343996170420 
0.0007594460681179765 0.0001704627168130080 0.002025632963510930 0.002069262458028981 0.002669841242006340 
0.02093072895889715 0.004698041207918888 0.05582749889603623 0.05702995047582118 0.07358221438713207 
0.01988419846459042 0.004463140483856497 0.05303613983107883 0.05417846917390538 0.06990312459785734 
-0.009825884217794710 -0.002205485009628238 -0.02620809535103857 -0.02677258357424711 -0.03454300710102991 
-0.0004197314816738617 -9.421152034584803e-05 -0.001119529036747605 -0.001143642233388542 -0.001475570771099487 
-0.02651226461945398 -0.005950853978475367 -0.07071485310810541 -0.07223795889854179 -0.09320416613047616 
-0.02093072895889715 -0.004698041207918888 -0.05582749889603623 -0.05702995047582118 -0.07358221438713207 
-0.01616317469088626 -0.003627931970152137 -0.04311123702303331 -0.04403979689209179 -0.05682182343562713 
0.006569958647613240 0.001474670878468820 0.01752372599477586 0.01790116421828246 0.02309676393366963 
0.004767554268011169 0.001070109237766704 0.01271626187300319 0.01299015358372853 0.01676039095150453 
-0.01534919329834066 -0.003445228437362435 -0.04094014468396749 -0.04182194205310117 -0.05396026264378750 
0.01389567210776109 0.003118975946905097 0.03706323944947715 0.03786153333169021 0.04885039245859280 
0.001700597169153473 0.0003817103357672215 0.004535918780944444 0.004633616560923395 0.005978468582366833 
-0.009302559434261145 -0.002088021284260827 -0.02481225702011499 -0.02534668070453337 -0.03270325290557400 
0.01651205787990843 0.003706241120397053 0.04404179591031522 0.04499039880523496 0.05804832623259831 
0.03162870207648764 0.007099272366487149 0.08436167386839138 0.08617871439541296 0.1111910598789502 
0.008081587345443132 0.001813965985076069 0.02155561851151665 0.02201989844604589 0.02841091171781357 
-0.006279182965840943 -0.001409404344373966 -0.01674815438974392 -0.01710888781149255 -0.02207453873564835 
-0.006715227415738712 -0.001507277418843864 -0.01791119420040233 -0.01829697798416435 -0.02360745793104338 
-0.03488462764666939 -0.007830086497646478 -0.09304604322465311 -0.09505013375137764 -0.1226373030463116 
0.01709349017069232 0.003836747461914530 0.04559262152348951 0.04657462718130248 0.06009235802700337 
-0.02918675789885157 -0.006551161768117442 -0.07784839685119499 -0.07952514987843853 -0.1026063775034319 
-0.006569958647613240 -0.001474670878468820 -0.01752372599477586 -0.01790116421828246 -0.02309676393366963 
-0.01203516022090884 -0.002701371690052881 -0.03210078804545379 -0.03279219719078390 -0.04230974187747814 
0.01395389868777174 0.003132045289727572 0.03721854432861754 0.03802018327555629 0.04905508865917937 
0.008197921432704133 0.001840077944048631 0.02186591067290722 0.02233687389626478 0.02881988551734972 
0.01000020673954530 0.002244612858078244 0.02667305719779019 0.02724756009330584 0.03515583989787803 
0.004564058919874810 0.001024433354569195 0.01217348878823693 0.01243568987398087 0.01604500075354422 
0.03232634938177253 0.007255863940304274 0.08622247404606662 0.08807959378418358 0.1136436468712543 
0.006250129212215860 0.001402883036298903 0.01667066074861893 0.01702972505831592 0.02197239993617360 
-0.008895568737988380 -0.001996669517865946 -0.02372671085058187 -0.02423775328503757 -0.03127247250965363 
0.001424467436954442 0.0003197311823822481 0.003799411593364963 0.003881245968234610 0.005007731385720009 
0.03209380028001021 0.007203666749032052 0.08560220732017448 0.08744596732126039 0.1128261178738205 
0.004709446760761010 0.001057066621616641 0.01256127459075284 0.01283182807737590 0.01655611335255493 
-0.007732704156420428 -0.001735656834831198 -0.02062505962423410 -0.02106929653290365 -0.02718440892084315 
-0.03465207854490805 -0.007777889306374300 -0.09242577649876260 -0.09441650728845313 -0.1218197740488755 
-0.003270452446994109 -0.0007340747851969265 -0.008723116176825457 -0.008911000732553073 -0.01149731256709730 
-0.02476808681986246 -0.005559361680595869 -0.06606269386547366 -0.06748559820785278 -0.08707248934889684 
0.008256028939954217 0.001853120560198526 0.02202089795515761 0.02249519940261748 0.02902416311629915 
-0.001918619394102376 -0.0004306468730021788 -0.005117438686273485 -0.005227661647259401 -0.006744928180064163 
0.007209498445647325 0.001618219836136263 0.01922953889020019 0.01964371810070219 0.02534507332702441 
-0.01063974653757941 -0.002388161815745683 -0.02837887009321462 -0.02899011397572587 -0.03740414929123262 
-0.007354886286533627 -0.001650853103183744 -0.01961732469271643 -0.02003985630409721 -0.02585618592603465 
0.01424455529678339 0.003197285097149981 0.03799379833675930 0.03881213524483287 0.05007689525556390 
0.01476776100755645 0.003314722095844966 0.03938931907079325 0.04023771367703369 0.05191623084938239 
-0.02244247672948761 -0.005037363041198463 -0.05985970900966697 -0.06114900914109810 -0.07889678077291336 
-0.02337267313653350 -0.005246151806288345 -0.06234077591323284 -0.06368351499279472 -0.08216689676265167 
0.03511717674843014 0.007882283688918990 0.09366630995054491 0.09568376021430217 0.1234548320437442 
0.02395410542731750 0.005376658147805728 0.06389160152640738 0.06526774336886225 0.08421092855705763 
-0.03093105477120346 -0.006942680792669558 -0.08250087369071574 -0.08427783500663957 -0.1087384728866480 
0.03348921396334005 0.007516876623339053 0.08932412527241315 0.09124805053631899 0.1177317104600660 
-0.005436147819670426 -0.001220179503509054 -0.01449956840955293 -0.01481187021932478 -0.01911083914433370 
-0.007558381634670056 -0.001696528986381150 -0.02016009777748294 -0.02059432001384501 -0.02657157612399515 
0.02814022740454459 0.006316261044054935 0.07505703778623753 0.07667366857652295 0.09892728771415597 
-0.02883799378258930 -0.006472879344545051 -0.07691815556080075 -0.07857487240280878 -0.1013802933080976 
0.02104706304615819 0.004724153166891306 0.05613779105742756 0.05734692592603954 0.07399118818666735 
2.012329656819365e-05 4.516807642113167e-06 5.367387438591294e-05 5.482993970004571e-05 7.074367668533764e-05 
0.02709369691023757 0.006081360319992829 0.07226567872127856 0.07382218727460788 0.09524819792488110 
-0.01593062558912447 -0.003575734778879815 -0.04249097029714118 -0.04340617042916786 -0.05600429443819283 
0.01418644778953341 0.003184242481000012 0.03783881105450946 0.03865380973847991 0.04987261765661419 
-0.009186225346999980 -0.002061909325288446 -0.02450196485872430 -0.02502970525431444 -0.03229427910603747 
0.003866411614590546 0.0008678417807518174 0.01031268861056207 0.01053481048520826 0.01359241376124010 
0.01023287491406740 0.002296836776023221 0.02729364152057150 0.02788151099374247 0.03597378749694977 
-0.004098960716352067 -0.0009200389720243157 -0.01093295533645361 -0.01116843694813239 -0.01440994275867486 
0.02523318502338540 0.005663756063140801 0.06730322731725646 0.06875285113370215 0.08870754734376743 
0.03302411575981687 0.007412482240794106 0.08808359182063044 0.08998079761046991 0.1160966524651966 
0.01430266280403364 0.003210327713300088 0.03814878561901026 0.03897046075118668 0.05028117285451247 
0.01377945709326069 0.003092890714605196 0.03675326488497688 0.03754488231898424 0.04844183726069382 
0.04255922429583926 0.009552700716327345 0.1135161155666381 0.1159611047779272 0.1496174343682076 
-0.03186125117824893 -0.007151469557759630 -0.08498194059428235 -0.08681234085833572 -0.1120085888763857 
-0.04325687160112355 -0.009709292290145076 -0.1153769157443129 -0.1178619841667001 -0.1520700213605102 
0.02372155632555562 0.005324460956533274 0.06327133480051571 0.06463411690593694 0.08339339955962310 
-0.009244451927010747 -0.002074978668110929 -0.02465726973786470 -0.02518835519818036 -0.03249897530662446 
0.004447843905374583 0.0009983481222692067 0.01186351422373612 0.01211903886127520 0.01563644555564537 
0.02965185610237425 0.006655556150662265 0.07908893030297709 0.08079240280428666 0.1042414354983003 
-0.003808185034579696 -0.0008547724379293344 -0.01015738373142176 -0.01037616054134239 -0.01338771756065360 
0.001264552719255695 0.0002838372612972830 0.003372878970286364 0.003445526388251425 0.004445549386971991 
0.001141074266349082 0.0002561217019785173 0.003043530995504171 0.003109084687251697 0.004011459489204627 
0.008314136447204466 0.001866163176348580 0.02217588523740823 0.02265352490897065 0.02922844071524840 
-0.03628004132999844 -0.008143296371953587 -0.09676796117689417 -0.09885221696643555 -0.1275428956325569 
-0.02546573412514710 -0.005715953254413298 -0.06792349404314930 -0.06938647759662503 -0.08952507634120128 
-0.002369190720812662 -0.0005317806015096242 -0.006319225317494132 -0.006455333196519632 -0.008328916775196232 
0.02116327806065863 0.004750238399191428 0.05644776562192817 0.05766357693874564 0.07439974338456627 
0.01337246639698807 0.003001538948210254 0.03566771871544369 0.03643595489948933 0.04701105686477368 
-0.003125064606107930 -0.0007014415181494516 -0.008335330374309464 -0.008514862529157962 -0.01098619996808680 
0.005523428153306395 0.001239770154406490 0.01473236692981864 0.01504968291636710 0.01941767414439495 
0.005581535660556617 0.001252812770556524 0.01488735421206898 0.01520800842271974 0.01962195174334395 
-0.0007884998217430630 -0.0001769840248880071 -0.002103126604636200 -0.002148425211205335 -0.002771980041481086 
0.02569828322690828 0.005768150445685568 0.06854376076903941 0.07002010405954900 0.09034260533863687 
-0.01081418813209075 -0.002427316390868116 -0.02884414953685557 -0.02946541493229688 -0.03801740068971790 
0.02209359354046517 0.004959053890953691 0.05892915012238394 0.06019840722795486 0.07767027797594298 
-0.001649753100309588 -0.0003702980466359671 -0.004400304908975247 -0.004495081742864712 -0.005799725683286031 
-0.009070010332499611 -0.002035824092988397 -0.02419199029422354 -0.02471305424160889 -0.03188572390813923 
0.0006432310536176395 0.0001443774845129890 0.001715658399010056 0.001752611445323359 0.002261286044107644 
-0.01459343848580594 -0.003275594247394973 -0.03892435722404208 -0.03976273715797569 -0.05130339805253421 
0.01319802480247670 0.002962384373087737 0.03520243927180197 0.03596065394291770 0.04639780546628824 
-0.01151195451013571 -0.002583934691358010 -0.03070526731142063 -0.03136661875858220 -0.04047040628365895 
-0.03139615297472667 -0.007047075175214804 -0.08374140714249924 -0.08554508793248819 -0.1103735308815154 
-0.01837256976676087 -0.004123845377249441 -0.04900424731433831 -0.05005973494614175 -0.06458897681371337 
1.166913055433697e-05 2.619213898976890e-06 3.112449520603244e-05 3.179487627576599e-05 4.102296044475150e-05 
-0.0003761508512362316 -8.442955823334447e-05 -0.001003288575059754 -0.001024898103623925 -0.001322362571887452 
0.0009375789182127506 0.0002104458187810568 0.002500757910737771 0.002554620977503913 0.003296069291244637 
-0.006395517053101986 -0.001435516303346406 -0.01705844655113495 -0.01742586326171093 -0.02248351253518444 
-0.002325610090375019 -0.0005219986393971268 -0.006202984855806314 -0.006336589066755050 -0.008175708575984129 
-0.01662827289440893 -0.003732326352697161 -0.04435177047481646 -0.04530704981794131 -0.05845688143049680 
0.01157006201738584 0.002596977307507961 0.03086025459367088 0.03152494426493514 0.04067468388260832 
-0.01075608062484058 -0.002414273774718160 -0.02868916225460524 -0.02930708942594398 -0.03781312309076812 
0.04558248169149862 0.01023129092954229 0.1215799006001197 0.1241985732334545 0.1602457299364932 
0.01366312300599958 0.003066778755632568 0.03644297272358594 0.03722790686876633 0.04803286346115756 
-0.02441920363084043 -0.005481052530350752 -0.06513213497819126 -0.06653499629470992 -0.08584598655192686 
-0.01354690799149920 -0.003040693523332674 -0.03613299815908463 -0.03691125585606074 -0.04762430826325938 
0.01046542401582884 0.002349033967295737 0.02791390824646308 0.02851513745666727 0.03679131649438426 
-0.02779134421552218 -0.006237951893810194 -0.07412647889895430 -0.07572306666338043 -0.09770078491718560 
-0.02604716641593089 -0.005846459595930541 -0.06947431965632271 -0.07097070597269190 -0.09156910813560623 
0.04046616330722454 0.009082899268203083 0.1079333974367242 0.1102581421740966 0.1422592547896560 
0.001257289280849457 0.0002822069342785400 0.003353505560005037 0.003425735699957357 0.004420014687103407 
-0.02383777134005589 -0.005350546188833430 -0.06358130936501612 -0.06495076791864358 -0.08380195475752233 
0.01139562042287466 0.002557822732385573 0.03039497515002993 0.03104964330836364 0.04006143248412329 
-0.001504365259423418 -0.0003376647795884966 -0.004012519106459280 -0.004098943539469666 -0.005288613084275501 
-0.006337409545851866 -0.001422473687196317 -0.01690345926888427 -0.01726753775535805 -0.02227923493623523 
-0.006715227415738712 -0.001507277418843864 -0.01791119420040233 -0.01829697798416435 -0.02360745793104338 
-0.03418686126862362 -0.007673468197156721 -0.09118492545008822 -0.09314892992509241 -0.1201842974523704 
-0.02244247672948761 -0.005037363041198463 -0.05985970900966697 -0.06114900914109810 -0.07889678077291336 
0.02232614264222647 0.005011251082226095 0.05954941684827594 0.06083203369087895 0.07848780697337582 
0.0009448423566190287 0.0002120761457998052 0.002520131321019036 0.002574411665798024 0.003321603991113334 
-0.005552481906931578 -0.001246291462481503 -0.01480986057094362 -0.01512884566954338 -0.01951981294386971 
0.008430470534465575 0.001892275135321044 0.02248617739879902 0.02297050035918923 0.02963741451478423 
0.01767492246147634 0.003967253803431868 0.04714344713666438 0.04815885555736974 0.06213638982140844 
-0.01395389868777174 -0.003132045289727572 -0.03721854432861754 -0.03802018327555629 -0.04905508865917937 
-0.01482598758756747 -0.003327791438667415 -0.03954462394993372 -0.04039636362090037 -0.05212092704996857 
0.02569828322690828 0.005768150445685568 0.06854376076903941 0.07002010405954900 0.09034260533863687 
-0.02255869174398804 -0.005063448273498556 -0.06016968357416822 -0.06146566015380330 -0.07930533597081146 
0.008314136447204466 0.001866163176348580 0.02217588523740823 0.02265352490897065 0.02922844071524840 
0.01755858837421507 0.003941141844459495 0.04683315497527246 0.04784188010715108 0.06172741602187210 
0.004825661775261411 0.001083151853916719 0.01287124915525374 0.01314847909008132 0.01696466855045383 
0.007383940040158532 0.001657374411258671 0.01969481833384164 0.02011901905727353 0.02595832472550938 
0.005697869747817767 0.001278924729528992 0.01519764637345985 0.01552498387293844 0.02003092554288003 
-0.004157068223602233 -0.0009330815881742902 -0.01108794261870412 -0.01132676245448533 -0.01461422035762420 
-0.01011654082680613 -0.002270724817050771 -0.02698334935918104 -0.02756453554352415 -0.03556481369741400 
-0.007442047547408821 -0.001670417027408691 -0.01984980561609202 -0.02027734456362631 -0.02616260232445902 
-0.01569807648736334 -0.003523537587607402 -0.04187070357124962 -0.04277254396624410 -0.05518676544075772 
-0.004971049616147605 -0.001115785120964124 -0.01325903495776971 -0.01354461729347634 -0.01747578114946434 
-0.01052353152307910 -0.002362076583445653 -0.02806889552871378 -0.02867346296301977 -0.03699559409333367 
0.02034929666811321 0.004567534866401592 0.05427667328286238 0.05544572209975406 0.07153818259272700 
-0.02721003099749881 -0.006107472278965200 -0.07257597088266975 -0.07413916272482729 -0.09565717172441754 
-0.01779113747597676 -0.003993339035731893 -0.04745342170116373 -0.04847550657007513 -0.06254494501930727 
0.008837461230738171 0.001983626901715934 0.02357172356833219 0.02407942777868487 0.03106819491070422 
0.02523318502338540 0.005663756063140801 0.06730322731725646 0.06875285113370215 0.08870754734376743 
-0.006599012401238350 -0.001481192186543868 -0.01760121963590099 -0.01798032697145885 -0.02319890273314412 
0.01139562042287466 0.002557822732385573 0.03039497515002993 0.03104964330836364 0.04006143248412329 
0.03488462764666939 0.007830086497646478 0.09304604322465311 0.09505013375137764 0.1226373030463116 
0.03534972585019188 0.007934480880191296 0.09428657667643704 0.09631738667722624 0.1242723610411805 
0.001555328401028063 0.0003491037953921954 0.004148450575318353 0.004237802795041409 0.005467774584993406 
-0.008721127143477248 -0.001957514942743501 -0.02326143140694072 -0.02376245232846588 -0.03065922111116818 
-0.004854715528886503 -0.001089673161991692 -0.01294874279637887 -0.01322764184325786 -0.01706680734992832 
0.03744278683880547 0.008404282328316210 0.09986929480635107 0.1020203492810556 0.1316305406197300 
-0.005029157123397826 -0.001128827737114160 -0.01341402224002015 -0.01370294279982943 -0.01768005874841363 
-0.05441994292223679 -0.01221491783125753 -0.1451516241684500 -0.1482780010121404 -0.1913139248471965 
-0.009360666941511138 -0.002101063900410836 -0.02496724430236575 -0.02550500621088596 -0.03290753050452322 
0.005029157123397826 0.001128827737114160 0.01341402224002015 0.01370294279982943 0.01768005874841363 
0.01604695967638547 0.003601846737852254 0.04280126245853243 0.04372314587938668 0.05641326823772861 
-0.01093052221935180 -0.002453428349840523 -0.02915444169824622 -0.02978239038251516 -0.03842637448925405 
-0.02000053255185140 -0.004489252442829008 -0.05334643199246936 -0.05449544462412467 -0.07031209839739380 
-0.002194868199062178 -0.0004926527530595915 -0.005854263470742744 -0.005980356677461193 -0.007716083978347966 
-0.02895420879709004 -0.006498964576845168 -0.07722813012530338 -0.07889152341551528 -0.1017888485059967 
-0.02767512920102133 -0.006211866661510124 -0.07381650433445318 -0.07540641565067459 -0.09729222971928714 
-0.01802368657773811 -0.004045536227004381 -0.04807368842705614 -0.04910913303299905 -0.06336247401674229 
-0.002645439525772543 -0.0005937864815670329 -0.007056050101963417 -0.007208028226721400 -0.009300072573480080 
-0.001184654896786727 -0.0002659036640910367 -0.003159771457191987 -0.003227828817016327 -0.004164667688416645 
0.03697768863528251 0.008299887945771050 0.09862876135456967 0.1007530963552072 0.1299954826248600 
-0.01872145295578333 -0.004202154527494254 -0.04993480620162076 -0.05101033685928418 -0.06581547961068330 
-0.008895568737988380 -0.001996669517865946 -0.02372671085058187 -0.02423775328503757 -0.03127247250965363 
-0.004476897658999549 -0.001004869430344217 -0.01194100786486129 -0.01219820161445174 -0.01573858435512043 
0.03000073929139654 0.006733865300907405 0.08001948919025917 0.08174300471742998 0.1054679382952695 
0.002180341322249638 0.0004893920990220971 0.005815516650180139 0.005940775300872991 0.007665014578610675 
0.01837256976676087 0.004123845377249441 0.04900424731433831 0.05005973494614175 0.06458897681371337 
-0.002848934873908884 -0.0006394623647644961 -0.007598823186729927 -0.007762491936469220 -0.01001546277144002 
-0.01686094106893115 -0.003784550270642088 -0.04497235479759804 -0.04594100071837846 -0.05927482902956846 
-0.02732624601199915 -0.006133557511265137 -0.07288594544717188 -0.07445581373753266 -0.09606572692231512 
-0.006831561502999788 -0.001533389377816284 -0.01822148636179297 -0.01861395343438316 -0.02401643173057878 
0.006133914197715504 0.001376797803998886 0.01636068618411777 0.01671307404561042 0.02156384473827480 
0.01523297828384020 0.003419143205062366 0.04063017011946699 0.04150529104039557 0.05355170744588927 
0.01593062558912447 0.003575734778879815 0.04249097029714118 0.04340617042916786 0.05600429443819283 
-0.008314136447204466 -0.001866163176348580 -0.02217588523740823 -0.02265352490897065 -0.02922844071524840 
0.01709349017069232 0.003836747461914530 0.04559262152348951 0.04657462718130248 0.06009235802700337 
0.0009301964070457314 0.0002087887650898654 0.002481066903566561 0.002534505851696811 0.003270115989738811 
-0.007558381634670056 -0.001696528986381150 -0.02016009777748294 -0.02059432001384501 -0.02657157612399515 
-0.008081587345443132 -0.001813965985076069 -0.02155561851151665 -0.02201989844604589 -0.02841091171781357 
0.01593062558912447 0.003575734778879815 0.04249097029714118 0.04340617042916786 0.05600429443819283 
-0.01709349017069232 -0.003836747461914530 -0.04559262152348951 -0.04657462718130248 -0.06009235802700337 
-0.01593062558912447 -0.003575734778879815 -0.04249097029714118 -0.04340617042916786 -0.05600429443819283 
-0.02197725945320406 -0.004932941931981231 -0.05861885796099446 -0.05988143177773737 -0.07726130417640575 
-0.01755858837421507 -0.003941141844459495 -0.04683315497527246 -0.04784188010715108 -0.06172741602187210 
0.004505951412624741 0.001011390738419201 0.01201850150598640 0.01227736436762813 0.01584072315459492 
0.01965164936282889 0.004410943292584008 0.05241587310518818 0.05354484271098176 0.06908559560042240 
0.01674460698167003 0.003758438311669526 0.04466206263620658 0.04562402526815949 0.05886585523003301 
-0.007325713460147700 -0.001644305068436254 -0.01953951345470099 -0.01996036911340786 -0.02575362852492323 
9.085251645876641e-05 2.039245107060537e-05 0.0002423264269612502 0.0002475458224327520 0.0003193930491769957 
-0.03046583749491929 -0.006838259683452334 -0.08126002264204274 -0.08301025764327720 -0.1071029962901398 
-0.008953676245238565 -0.002009712134015905 -0.02388169813283289 -0.02439607879139036 -0.03147675010860323 
0.01255848500444253 0.002818835415420282 0.03349662637637774 0.03421810006049799 0.04414949607293351 
0.03186125117824893 0.007151469557759630 0.08498194059428235 0.08681234085833572 0.1120085888763857 
-0.01674460698167003 -0.003758438311669526 -0.04466206263620658 -0.04562402526815949 -0.05886585523003301 
-0.03418686126862362 -0.007673468197156721 -0.09118492545008822 -0.09314892992509241 -0.1201842974523704 
0.005930418849579187 0.001331121920801456 0.01581791309935125 0.01615861033586269 0.02084845454031467 
-0.01029098242131753 -0.002309879392173262 -0.02744862880282176 -0.02803983650009573 -0.03617806509589918 
-0.008139694852693167 -0.001827008601226075 -0.02171060579376716 -0.02217822395239889 -0.02861518931676283 
-0.02883799378258930 -0.006472879344545051 -0.07691815556080075 -0.07857487240280878 -0.1013802933080976 
0.02325633904927195 0.005220039847316071 0.06203048375184224 0.06336653954257616 0.08175792296311614 
-0.01686094106893115 -0.003784550270642088 -0.04497235479759804 -0.04594100071837846 -0.05927482902956846 
-0.01203516022090884 -0.002701371690052881 -0.03210078804545379 -0.03279219719078390 -0.04230974187747814 
0.002645439525772543 0.0005937864815670329 0.007056050101963417 0.007208028226721400 0.009300072573480080 
0.03255901755629431 0.007308087858249296 0.08684305836884745 0.08871354468462207 0.1144615944703275 
-0.02162849533694254 -0.004854659508408655 -0.05768861667060104 -0.05893115430210714 -0.07603521998107284 
0.03953584782741833 0.008874083776440419 0.1054520129362657 0.1077233118848879 0.1389887201982813 
0.005930418849579187 0.001331121920801456 0.01581791309935125 0.01615861033586269 0.02084845454031467 
0.0005414238431690875 0.0001215261795780338 0.001444113058181951 0.001475217371692944 0.001903381644309048 
0.02302378994751086 0.005167842656043719 0.06141021702595081 0.06273291307965180 0.08094039396568198 
-0.007151390938397279 -0.001605177219986220 -0.01907455160794991 -0.01948539259434966 -0.02514079572807494 
-0.01697715608343135 -0.003810635502942092 -0.04528232936209883 -0.04625765173108386 -0.05968338422746741 
-0.0005341604047628110 -0.0001198958525592878 -0.001424739647900628 -0.001455426683398851 -0.001877846944440364 
-0.02372155632555562 -0.005324460956533274 -0.06327133480051571 -0.06463411690593694 -0.08339339955962310 
-0.01860511886852229 -0.004176042568521653 -0.04962451404022999 -0.05069336140906673 -0.06540650581114800 
0.006599012401238350 0.001481192186543868 0.01760121963590099 0.01798032697145885 0.02319890273314412 
-0.02081451394439690 -0.004671955975618901 -0.05551752433153483 -0.05671329946311524 -0.07317365918923308 
0.01534919329834066 0.003445228437362435 0.04094014468396749 0.04182194205310117 0.05396026264378750 
-0.0004542625822938318 -0.0001019622553530267 -0.001211632134806245 -0.001237729112163769 -0.001596965245884967 
0.01017464833405660 0.002283767433200796 0.02713833664143119 0.02772286104987703 0.03576909129636350 
0.002180341322249638 0.0004893920990220971 0.005815516650180139 0.005940775300872991 0.007665014578610675 
-0.02511697000888506 -0.005637670830840564 -0.06699325275275547 -0.06843620012099598 -0.08829899214586702 
-0.01145372793012491 -0.002570865348535508 -0.03054996243228004 -0.03120796881471668 -0.04026571008307185 
0.009535108536022338 0.002140218475533408 0.02543252374600637 0.02598030716745706 0.03352078190300906 
0.02581461731416972 0.005794262404658021 0.06885405293043094 0.07033707950976664 0.09075157913817257 
-0.02732624601199915 -0.006133557511265137 -0.07288594544717188 -0.07445581373753266 -0.09606572692231512 
-0.01255848500444253 -0.002818835415420282 -0.03349662637637774 -0.03421810006049799 -0.04414949607293351 
-0.02651226461945398 -0.005950853978475367 -0.07071485310810541 -0.07223795889854179 -0.09320416613047616 
0.02662859870671462 0.005976965937447786 0.07102514526949619 0.07255493434875934 0.09361313993001098 
0.02872165969532838 0.006446767385572354 0.07660786339941040 0.07825789695259033 0.1009713195085614 
0.04604769896778218 0.01033571203875935 0.1228207516487905 0.1254661505968148 0.1618812065329974 
-0.004651220180750038 -0.001043997278794254 -0.01240596971161263 -0.01267317813351010 -0.01635141715196826 
-0.006308355792226766 -0.001415952379121339 -0.01682596562775858 -0.01718837500218182 -0.02217709613676017 
0.02209359354046517 0.004959053890953691 0.05892915012238394 0.06019840722795486 0.07767027797594298 
-0.005697869747817767 -0.001278924729528992 -0.01519764637345985 -0.01552498387293844 -0.02003092554288003 
-0.001766087187570678 -0.0003964100056084090 -0.004710597070366059 -0.004812057193083336 -0.006208699482822079 
-0.04604769896778218 -0.01033571203875935 -0.1228207516487905 -0.1254661505968148 -0.1618812065329974 
-0.007035056851136148 -0.001579065261013734 -0.01876425944655938 -0.01916841714413074 -0.02473182192853899 
-0.0001389579118052172 -3.119002673577637e-05 -0.0003706355704636707 -0.0003786185776920315 -0.0004885081106022975 
-0.01348868141148839 -0.003027624180510101 -0.03597769327994428 -0.03675260591219481 -0.04741961206267241 
0.01354690799149920 0.003040693523332674 0.03613299815908463 0.03691125585606074 0.04762430826325938 
-0.006889669010249923 -0.001546431993966337 -0.01837647364404305 -0.01877227894073600 -0.02422070932952850 
-0.002296556336749995 -0.0005154773313221115 -0.006125491214681074 -0.006257426313578609 -0.008073569776509368 
-0.002180341322249638 -0.0004893920990220971 -0.005815516650180139 -0.005940775300872991 -0.007665014578610675 
0.03023328839315809 0.006786062492179770 0.08063975591615048 0.08237663118035515 0.1062854672927059 
0.003415840287880263 0.0007667080522443785 0.009110901979341451 0.009307138935948103 0.01200842516610806 
-0.003314033077431747 -0.0007438567473094208 -0.008839356638513176 -0.009029744862317723 -0.01165052076630952 
0.006046633864079542 0.001357207153101468 0.01612788766385234 0.01647526134856848 0.02125700973821373 
-0.005436147819670426 -0.001220179503509054 -0.01449956840955293 -0.01481187021932478 -0.01911083914433370 
0.001075584247931907 0.0002414220321373206 0.002868852706082529 0.002930644055091798 0.003781228588749467 
0.02360522223829444 0.005298348997560842 0.06296104263912490 0.06431714145571889 0.08298442576008698 
0.03883820052213471 0.008717492202623228 0.1035912127585923 0.1058224324961147 0.1365361332059750 
0.03534972585019188 0.007934480880191296 0.09428657667643704 0.09631738667722624 0.1242723610411805 
-0.02848911059356678 -0.006394570194299962 -0.07598759667351859 -0.07762427048966575 -0.1001537905111278 
0.02407032044181767 0.005402743380105762 0.06420157609090757 0.06558439438156780 0.08461948375495627 
-0.01244215091718158 -0.002792723456447780 -0.03318633421498730 -0.03390112461027835 -0.04374052227339826 
0.01837256976676087 0.004123845377249441 0.04900424731433831 0.05005973494614175 0.06458897681371337 
0.02802401239004373 0.006290175811755103 0.07474706322173648 0.07635701756381710 0.09851873251625805 
-0.01651205787990843 -0.003706241120397053 -0.04404179591031522 -0.04499039880523496 -0.05804832623259831 
-0.006017580110454418 -0.001350685845026440 -0.01605039402272689 -0.01639609859539195 -0.02115487093873907 
-0.01779113747597676 -0.003993339035731893 -0.04745342170116373 -0.04847550657007513 -0.06254494501930727 
0.008256028939954217 0.001853120560198526 0.02202089795515761 0.02249519940261748 0.02902416311629915 
0.01482598758756747 0.003327791438667415 0.03954462394993372 0.04039636362090037 0.05212092704996857 
-0.006337409545851866 -0.001422473687196317 -0.01690345926888427 -0.01726753775535805 -0.02227923493623523 
-0.02500063592162434 -0.005611558871868187 -0.06668296059136458 -0.06811922467077633 -0.08789001834633188 
-0.007907145750931781 -0.001774811409953673 -0.02109033906787521 -0.02154459748947472 -0.02779766031932827 
-0.02290757493301031 -0.005141757423743445 -0.06110024246144949 -0.06241626206694746 -0.08053183876778228 
-0.003125064606107930 -0.0007014415181494516 -0.008335330374309464 -0.008514862529157962 -0.01098619996808680 
0.01209326772815908 0.002714414306202937 0.03225577532770468 0.03295052269713696 0.04251401947642747 
0.01098862972660203 0.002466470965990615 0.02930942898049723 0.02994071588886869 0.03863065208820288 
0.03023328839315809 0.006786062492179770 0.08063975591615048 0.08237663118035515 0.1062854672927059 
0.003648389389641727 0.0008189052435168237 0.009731168705233028 0.009940765398872372 0.01282595416354259 
0.03418686126862362 0.007673468197156721 0.09118492545008822 0.09314892992509241 0.1201842974523704 
-0.01052353152307910 -0.002362076583445653 -0.02806889552871378 -0.02867346296301977 -0.03699559409333367 
