solver_type L2R_L2LOSS_SVC_DUAL
nr_class 6
label 1 5 6 2 4 3
nr_feature 266
bias 1.000000000000000
w
0.4076255958437310 -0.09344634457828856 -0.6044534609734575 0.2358134927054073 -0.4708530816252445 -0.3195361975579805 
0 0 0 0 0 0 
0 0 0 0 0 0 
-0.6183058159794961 -0.2501920342461020 0.7335509203956329 -0.05387846701865760 -0.1884890919316408 -0.09105005217640715 
-0.8120689455041137 -0.6727833545456205 0.2893691183015956 -1.057994300526183 0.5348219459716395 -0.1513036814482001 
0 0 0 0 0 0 
0 0 0 0 0 0 
0 0 0 0 0 0 
0 0 0 0 0 0 
0 0 0 0 0 0 
0 0 0 0 0 0 
0 0 0 0 0 0 
0 0 0 0 0 0 
0 0 0 0 0 0 
0 0 0 0 0 0 
0 0 0 0 0 0 
-0.09237512436001840 -0.1046746898742652 0.04567488186013503 -0.1074018995887537 -0.3104237961688498 -0.2903486467938145 
-0.08302076843871800 -0.1453916334890834 -0.3404265600682855 0.2586675460648822 -0.05579892621537191 0.02927485645507084 
0.01166962093274080 -0.009650400786728280 -0.1316031751211146 -0.04980878841448785 -0.1230507540672052 -0.2819532704533457 
-0.5264523387936202 0.1221998354957873 0.02962908540054432 0.3325670662767956 -0.08893774054970735 -0.07897230638628940 
0 0 0 0 0 0 
0 0 0 0 0 0 
0 0 0 0 0 0 
0 0 0 0 0 0 
0 0 0 0 0 0 
0 0 0 0 0 0 
0 0 0 0 0 0 
0.3556519092064029 3.903127820947816e-17 -0.09975046481491087 -0.2509864727745886 -0.2228476066785762 -0.3152272233858736 
0 0 0 0 0 0 
0 0 0 0 0 0 
0 0 0 0 0 0 
0 0 0 0 0 0 
0 0 0 0 0 0 
0 0 0 0 0 0 
0 0 0 0 0 0 
0 0 0 0 0 0 
0 0 0 0 0 0 
0 0 0 0 0 0 
0 0 0 0 0 0 
0 0 0 0 0 0 
0 0 0 0 0 0 
0 0 0 0 0 0 
0 0 0 0 0 0 
0 0 0 0 0 0 
0 0 0 0 0 0 
0 0 0 0 0 0 
0 0 0 0 0 0 
0 0 0 0 0 0 
0 0 0 0 0 0 
0 0 0 0 0 0 
0 0 0 0 0 0 
0 0 0 0 0 0 
0 0 0 0 0 0 
-0.1949768095539306 -0.3271315959354424 -0.02441754577711904 0.2054532040034152 -0.4501002425079103 -0.06342343767834865 
-0.1399946109346102 -0.05071332021704149 -0.1417464016080764 0.01977293729342304 -0.05642737187468352 0.03315477238742960 
-0.1992969952325986 0.1383299744688140 -0.0005188225584098483 -0.3093942485624368 -0.1079597416702461 0.01905853795180461 
0.1720611531609355 -0.2507348849133977 -0.03855968747150466 -0.1854533329229399 -0.3248753007965484 0.02919694447075943 
0.1166976872122776 -0.2982489431956488 -0.2024848422725172 -0.05552612207759367 -0.1502485717182961 -0.02055400452592041 
0 0 0 0 0 0 
0 0 0 0 0 0 
0 0 0 0 0 0 
0.08504425968611395 -0.5588391184799420 0.1207661304692546 -0.1457560533846670 -0.2499901214280065 -0.5570216421867485 
0 0 0 0 0 0 
0 0 0 0 0 0 
0.1049495056623879 -0.2038874834151017 0.05517008204307472 -0.2626890541166299 0 0 
-0.2978212169651415 0.5293805015613373 -0.5561814515391511 -0.7204082501976392 -0.4291911353462234 -0.01983074738955155 
0 0 0 0 0 0 
0 0 0 0 0 0 
0 0 0 0 0 0 
0 0 0 0 0 0 
0 0 0 0 0 0 
0 0 0 0 0 0 
0 0 0 0 0 0 
0 0 0 0 0 0 
0 0 0 0 0 0 
0 0 0 0 0 0 
0 0 0 0 0 0 
-0.2102126157938785 -0.02836542039044927 0.1046600236966717 -0.01417545017376667 -0.3420952888607375 -0.09031807580631127 
0.07371628251488668 -0.03937384128491631 -0.1206151606186992 -0.1144758764375446 -0.1109532045192948 -0.1869906054719977 
-0.2449516127682913 -0.2374502159903641 0.04399597913405612 0.1209132816859014 -0.03827800119652839 -0.1693536059905121 
0.2715998047502013 0 -1.005973249434102 -0.1269390124420256 0.9275639072920459 0 
0 0 0 0 0 0 
0 0 0 0 0 0 
0 0 0 0 0 0 
0 0 0 0 0 0 
0 0 0 0 0 0 
0 0 0 0 0 0 
0 0 0 0 0 0 
-0.7456364434173648 -0.3446231361426507 -0.04803587966167489 0.5691145516906225 0 0 
0 0 0 0 0 0 
0 0 0 0 0 0 
0 0 0 0 0 0 
0 0 0 0 0 0 
0 0 0 0 0 0 
0 0 0 0 0 0 
0 0 0 0 0 0 
0 0 0 0 0 0 
0 0 0 0 0 0 
0 0 0 0 0 0 
0 0 0 0 0 0 
0 0 0 0 0 0 
0 0 0 0 0 0 
0 0 0 0 0 0 
0 0 0 0 0 0 
0 0 0 0 0 0 
0 0 0 0 0 0 
0 0 0 0 0 0 
0 0 0 0 0 0 
0 0 0 0 0 0 
0 0 0 0 0 0 
0 0 0 0 0 0 
0 0 0 0 0 0 
0 0 0 0 0 0 
0 0 0 0 0 0 
0.1024388863375738 -0.3465329681503425 0.08672954976176316 -0.1439717158390596 -0.3969566377438153 -0.1730225399745343 
-0.1053180890469490 -0.2086014371539411 0.2277105721222059 -0.1246850578694878 -0.3424619098522293 -0.08433045011224645 
-0.2653322577284166 0.02947586246597624 0.2363814438215042 -0.2034146638842729 -0.2872688144916735 -0.08478127847875924 
-0.3597785857014354 -0.2583321705716561 0.3142563636520984 0.1599044000783585 -0.3554378806009413 -0.005559167591506100 
-0.01148335997069140 -0.2752879642649724 0.05539864184551019 -0.01158648465150968 -0.3901211930852522 -0.1304755961389477 
0 0 0 0 0 0 
0 0 0 0 0 0 
0 0 0 0 0 0 
0.01353121634961258 0.04086458580769076 0.009654048200529855 -0.007395482528305563 -0.05188986348361583 0.1540487813667784 
0.7585024854996685 0.07359683898589776 -0.2258302907031337 -0.6042962012372665 -0.05170596837859620 -0.2085772561539300 
0.6578473741875044 0.1331191168551514 -0.2767028919055107 -0.4658100871916334 -0.06731529692751446 -0.01296488076497821 
0.5602971529611689 -0.08966052280985580 0.08022465739943352 -0.9596098108215306 -0.1229807508237823 0.3229107582866122 
0.5943989659432892 -0.01429956211089580 -0.02342999586630347 -0.7469639242749618 -0.02007302404292890 -0.09461108719769060 
-0.2189189586842315 -0.01659193464860514 0.2799677922334992 -0.7278881014308263 0.4900527052481390 -0.005807560468024728 
0.2093680518546584 -0.03829165205884756 0.09940892325225803 -0.3146531238003338 -0.01776402089289774 0 
-0.1849603713564021 -0.4082387037640662 -0.4362426916393103 -0.1368763449449449 0.4269970713004546 0.3079678236092136 
0 0 0.2372168409473264 0 -0.9371134803206234 0 
0.1946255649900490 -0.3160525634427085 0.2002965362474732 -0.09860282806921052 -0.5839714098038113 -0.3152272233858737 
0 0 0 0 0 0 
0 0 0 0 0 0 
0 0 0 0 0 0 
-0.5677495294412634 -0.2135539046383139 0.5606552058121007 -0.01664662811096169 -0.04641834089874856 -0.2117294587432786 
-0.4758209591764626 -0.1474789101152112 0.6577655375449556 -0.2592360642503936 -0.04865706534817429 -0.3360229906210550 
-0.4378491153070077 -0.1804963224752759 0.8623577664611384 -0.2759718434440604 -0.6234702708798650 -0.6739096660097087 
-0.5689793034695808 -0.09579334076137201 0.6766802589846065 -0.1090229766829386 -0.3139932812453152 -0.1245110840324014 
-0.7342795473273535 0.6186425530890910 0.3010363106278123 -0.3188709192236967 0.1896884741829057 6.938893903907228e-18 
-0.4425090773383762 0.2788613703428310 0.2644607827374661 -0.2435156174841527 0.06091115327677952 -0.2417944188008740 
-0.7641193685637285 0.4259204779695444 -0.1052907490608831 0.4523136419046649 -0.4599431627522509 0.05696371628140005 
-0.2978212169651415 -1.019690343750552 1.675202086152451 -0.08013211687487266 1.734723475976807e-18 -0.07679446367095163 
-0.03090174084082401 -0.4548543584666067 0.5954322822006607 -0.2729675397634787 -0.2695355641875064 -0.4555701792194868 
0 0 0 0 0 0 
0 0 0 0 0 0 
0 0 0 0 0 0 
0.006064561887124039 -0.04432355574748765 -0.009199405007578910 0.06809948595333523 -0.08869630665405671 -0.06416505069200591 
-0.1248243208787029 -0.1994103055056501 0.3503950871279549 -0.05254560126675256 -0.1901593373472474 -0.2369162485836319 
-0.2106861581653534 -0.1114552946330803 -0.2062838387236807 0.07390170200167878 -0.6767723820902541 -0.2441351879863494 
-0.4844535578684573 -0.4500113723373824 0.3990429705621970 -0.3460110988995554 -0.4616911071799528 0.09357970796954215 
-0.3244166078727500 -0.04787479647099670 -0.06270007601842392 -0.1358680540472844 -0.2141954162112312 -0.5350219941570693 
-0.05988340823314444 -0.2058651672301897 -0.1847787165785892 -0.1132680940840980 -0.3308796550810283 -0.1066539786817912 
-0.2589538988701295 -0.2466071236234528 -0.08370615522837192 -0.05999640354069868 -0.2129394923845938 -0.5245745883201369 
-0.2538393644066133 -0.5343856567836662 -0.06748763478513169 -0.3873537885981824 0.09460007306845640 -0.05539806813034601 
-0.01055244702456656 -0.3462379807382573 -0.2798235039354909 -0.04957364837358021 -0.2133122999540323 -0.1294795998349670 
-0.06601635916270790 -0.8511029617244578 -0.09115200652611052 -0.1652473266673322 -0.1374227738799480 -0.5654304582993201 
-0.2662381081067242 -0.2046419207162601 -0.2471038179087011 0.06651681246288385 -0.3523391620148269 0.1778009399484989 
-0.2277075671994092 -0.1904854405314826 -0.07341779196482218 -0.1432634530747832 -0.1956649306571314 -0.09454234974542652 
-0.1253546327029430 -0.4188248008671330 -0.06460007691309012 -0.1428229254545920 -0.1739817829345393 -0.1903188818334495 
-0.2833958750836836 -0.01789643056408976 0.03685413844222377 -0.3760226313028383 -0.2867740166295988 -0.5463245237732388 
-0.5295047510750354 0.04959171956257404 0.1130813146580457 -0.1787695844801979 -0.6414801257724684 -0.08002394102340972 
-0.1045681491105096 -0.3090775569761809 -0.1593987144950377 -0.07856027702486560 -0.2275274879441315 -0.2028444944147667 
0.2627983401545421 -0.03793575328832369 -0.1566465250736918 -0.1270758648585071 -0.1242511958029033 0.03416375211367990 
-0.2002557544933690 0.04980264367146994 -0.05718400598208622 0.07841795187946904 0.2045324574733684 -0.06388500896080180 
-0.3810448368406220 -0.1384583249547338 0.04562835457877591 0.2800297901839007 -0.4315685456859253 -0.09477605122827713 
0.1184300398203953 0.02623876370321768 -0.1427024978629895 0.02908321133900317 -0.04279531855511647 -0.1572039647521063 
-0.02025648425111939 0.1095859823725685 0.1042210640005636 -0.1874973963010535 0.02501253730757073 -0.1453497415049044 
0.01165668441748164 -0.1323981411033387 -0.001292682699339187 0.1371998299556087 -0.07662783736157910 -0.2395430301417811 
-0.04357349803602403 0.01955835850238538 -0.06474113122541464 0.03390468612638917 0.02253336572185497 0.04274956400095852 
-0.1891576519892701 -0.009551517742877980 -0.1519672941641697 0.3659881827254176 0.1321371204633054 -0.1240916500607611 
0.04431826260362435 0.07769775931932173 0.0003360202811579401 -0.1985856792285551 0.1283637897760153 -0.04388280997970565 
0.6061561479831452 -0.4843615130537894 -0.1750615052591859 -0.2744710047519349 -1.064568843124213 -0.1986567462461925 
-0.2005157240981023 -0.1040793902552115 0.001501874733831883 0.2332494203009701 0.1421223324413132 -0.1307961592470947 
-0.06072857896103080 -0.06286279038937871 0.05597640830524095 -0.07596848435607224 0.2091871376743157 -0.1506606104028758 
-0.1004110206939871 -0.06938210857694159 -0.04690306713748281 0.2921931079442361 -0.05711195145882714 -0.02642171895802437 
-0.2148840278960126 -0.04675661051876195 -0.05497831753999394 0.2977435458291238 0.1801461699388237 -0.1029268386798399 
-0.1033595652310441 -0.3873628138442160 -0.07806204013928436 0.1137185399810408 0.1343207959103712 -0.1632916822094815 
0.02552331164775156 0.3119127638891890 -0.004341714571290220 -0.1423940687732552 -0.4010483986937285 -0.1794110425784322 
-0.07800144045403892 -0.2436508948881796 0.007987232974431158 0.1926185225272252 -0.09612243442192968 -0.2849957377034271 
-0.09640781519138228 0.2154944737464508 -0.1983009025280343 0.08011921458980350 -0.06031449969744217 0.003853982018111336 
-0.001972088021381893 -0.06254559148091982 0.04738181719737594 -0.2682240591487136 -0.1793890922840940 -0.2666200868334496 
-0.3318303970348492 -0.4686408565304824 -0.02715421771921085 0.5127538475177170 0.06497293009076914 -0.2019442599866275 
0.1825438334647487 -0.07846257656522465 -0.3736918192075029 0.4507625836200173 -0.2430107706137068 -0.1595978952061078 
0.03603605853984297 -0.08964714664101799 -0.01763166105126125 -0.05514328352583871 0.02770268851776694 -0.1492742915483117 
-0.02224004736195796 -0.06143322471834259 -0.1289600818366916 0.08483396690754594 0.3637667149901859 0.005617839471124339 
-0.04235343763251476 0.09580227466026416 0.04775472086948197 0.1324270116777435 -0.2203623647071851 -0.05409813209084519 
-0.1436781965675969 0.05249070167467060 0.1825998471056662 -0.1193472807664248 0.008718706676127619 0.1599527971627677 
-0.02631006093981927 -0.03281161421369541 0.08751527687702354 -0.05023000769278187 0.02378010826057479 0.02522477510566873 
-0.07009354336977844 -0.007717061174017115 0.03057636976670777 0.02007836471469689 0.04602059452446326 0.04527633621311836 
0.1899598228187961 -0.5424271883332100 0.3085529007797074 -1.035065981599795 -0.02691696375415436 0.2175939499584643 
0.5142476054163613 0.04410939386900628 -0.6255868176242738 -0.005618177003569050 -0.03758464433936144 0.2245150866109329 
-0.1323834975774345 0.3846231616141607 -0.07628531295664898 -0.3511037061585449 -0.2125940727069932 0.2644231705033390 
0.4755109659392332 0.1197632855039918 -0.3330084154331892 -0.8428992191288218 -0.2482908348742659 -0.2075278469899169 
0.02736392952014732 -0.03575070994804384 -0.2567910558556490 0.2906628612704492 -0.2397202691602155 -0.2369214881996923 
0.04098706232266896 -0.1373559555187186 -0.1685525494186945 -0.5895772829272432 0.2294526202129108 0.7249236244740684 
-0.08078008812419056 0.1597035487375705 -0.1843873618782660 0.06139786436243144 -0.1455555857742343 0.07973859142840904 
-0.2216200858946094 -0.2909122266157720 0.3123152856498349 -0.5702595321936301 0.1814420255203323 -0.01457381407608585 
-0.05912447291327247 0.09137672895557271 -0.4423241727708037 0.2742538562571049 0.2823971310640938 -0.3425212517263853 
-0.6326482343874393 0.09864011002624433 0.7053579941253383 -0.4441206698024316 -0.1500123105518004 -0.2631459742366096 
-0.6314520918981957 -0.2238920057421274 0.05055281016323177 0.2414475759939556 -0.07051263219044875 0.5322900011354483 
0.1463075819816508 -0.03160374485024653 0.1769396719917344 -0.2379345582447590 -0.4288122939884928 0.03153782655697068 
-0.6584374502673714 0.6485218549417356 -0.1904108803588466 0.1915918824315169 -0.1510263183102092 -0.2330522383070253 
0 0 0 0 0 0 
0 0 0 0 0 0 
-0.1736066217309896 -0.3573777169948121 0.7022439053880458 -0.4560508279684048 3.469446951953614e-18 -0.002946636860262349 
0 0 0 0 0 0 
0.8290411538761612 0 -0.4963262027866754 -0.1400495782079849 0 -0.07253786878985859 
0 0 0 0 0 0 
-0.3432616557591938 -0.2349078847411738 -0.03324489800112843 0.08657559569522721 0.3359574430411497 0 
-0.5402813836516627 -0.1024809412664078 -0.4890513280900978 -0.5667262067984329 1.507145294906676 0 
-0.1403317654723515 0.03091401764442470 0.06049254802762456 0.1024208575745677 -0.08750685313345462 -0.01683942084568755 
0.07713025251559984 -0.03283238628425508 -0.007254201478036546 -0.1748123974755605 0.08993006287835970 -0.1119709403723966 
0 0 0 0 0 0 
0 0 0 0 0 0 
0 0 0 0 0 0 
0 0 0 0 0 0 
-0.4219806238425011 -0.3685632138873369 -0.5671414509948547 0.3938655054255724 0 1.057507639448841 
-0.1007565863795346 0.3675861102047141 0.05566964765060776 -0.2030265696684185 -0.04619086054775770 -0.1405624729605565 
-0.2434045664592455 -0.2354481020843082 0.01962944163239733 0.2746167251058672 -0.03920642121373679 -0.1026855305382432 
0 0 0 0 0 0 
-0.1469600436992919 -0.01927895866028083 -0.08424337967850393 0.3797292083030239 -0.3474578638013558 0.2927415976819974 
0 0 0 0 0 0 
-0.03457135940160098 -0.08637029077915369 -0.1362503336825675 0.1921081265310432 0.03353688738816935 0 
-0.2212063124390777 0.6814258320525098 -0.2879616630171338 -0.009079829225748341 0.09299266063300937 0.02338544401273372 
0.07074341098236184 -0.2756030196205856 -0.09100356305084795 0.06959429280892078 -0.05824226831648851 -6.938893903907228e-18 
0.2607705594698089 0 -0.6369542962257586 -0.04023558417383805 0.4630966800992957 0 
0 0 0 0 0 0 
0 0 0 0 0 0 
-0.05891824370796793 0.4062088249349591 -0.2654870813049503 0.1499806340417313 -0.3592566916312353 -0.08815017532993644 
0 0 0 0 0 0 
-0.4741459773178111 -0.6063166027379826 -0.2382931021389858 1.074837868698066 -0.5975749185407387 -0.3594911600972255 
0 0 0 0 0 0 
-0.2240261004851947 -1.734723475976807e-18 -1.253939176440804 1.730271558639806 -0.2088191359123200 -3.469446951953614e-18 
0 0 0 0 0 0 
0 0 0 0 0 0 
-0.03898055582684099 0.07519978416890173 0.03625526930964224 -0.1836918645870593 0.05791011331944172 -0.06728365086220680 
0 0 0 0 0 0 
-0.6479520979475288 0.4701268809785377 -0.1548693006833257 -0.6821359136308442 0.5849187174606292 0 
0.2562486239559840 -0.6789983962865929 -0.04389227614849156 -0.2516919550057186 0.06417347320598336 -0.09173132447315716 
0.07550791745013337 0.7656518698293272 -0.2725665582606061 -0.1532510292206764 -0.3331662398662468 -0.1000162631245016 
0 0 0 0 0 0 
0 0 0 0 0 0 
0.05253311016910972 0.3224560455530525 -0.1665877960331352 -0.1559649396453278 0.03085108092735323 -0.1145539861759911 
-0.2253819525303171 0.3377931126778015 -0.05599890340242819 -0.01327432464242479 -0.1435722312132769 0.3159204104498657 
0.5893495166380167 -0.4013603190153263 -0.2177768595527767 1.387778780781446e-17 -0.1781306782632956 -0.1219793058725795 
0 0 0 0 0 0 
0 0 0 0 0 0 
0 0 0 0 0 0 
0 0 0 0 0 0 
0 0 0 0 0 0 
0 0 0 0 0 0 
-0.4323397388298807 0.4018484152916239 0.03210062998763869 0.1778510766381037 0.1452895509085825 -0.3282373037469790 
0.2520710741429798 -0.2446379460662271 -0.1848798484138513 0.09531463859431936 0.1756580939809783 -0.4054061590474184 
-0.7086820128052191 0.05130688807180801 0.03750191936216432 0.8621650206061604 -0.09292733418039215 0.1186477861992239 
0.1371077249615576 0.006567000686825001 0.1094592506856972 -0.1514000936151698 -0.3595555477038850 0.1186477861992239 
0.002646236109350458 0.06640119541116660 -0.1172315496174610 0.07475936631193030 0.09109713452360242 -0.08603077079706759 
0 0 0 0 0 0 
0.3382951243365014 -0.6399596013068156 0.4249766205761507 -0.7409258388719814 -0.2214455193100999 -0.1011972848762227 
0.04274927986875592 0.05130688807180829 -0.5269223866583167 0.06714933341041118 0.7271511339212450 0.1186477861992239 
0.03829995261415675 -0.06791737786230900 -0.1525772197014898 -0.04826206369683935 0.1982437168632894 -0.1533385409633526 
-0.03879418847490429 -0.2317151750552808 0.1651757663902684 0.04015135124867049 -0.05848985392309845 -0.4061321532137577 
-0.4671705387432228 3.469446951953614e-18 -0.1649037368136864 -0.4960367955203963 0.9837628989142456 0 
0.2552494217868103 -0.1794711630218456 -0.5427432385833111 0.3878388267510762 0.2875823318868776 -0.09086502945337215 
0.1383236859910876 0.4414465843095297 -0.07304047750708004 -0.2584795973024586 -0.3523388311655092 0.3254323463573507 
0 0 0 0 0 0 
0.006754127190521844 -0.1653728645654894 0.1944327970257066 -0.1209659872340471 -0.4463367771922183 0.5109476130056236 
