solver_type L2R_LR_DUAL
nr_class 6
label 2 1 4 6 5 3
nr_feature 299
bias 1.000000000000000
w
-0.8930101210842111 0.3960355057246728 -0.3677627704918222 0.6961016593281483 0.1764190629367764 0.1006182817141084 
0.3192777921626135 -0.8454620551082130 -1.217847385295705 0.7913833386549056 -0.6941130134320421 -0.7251971031150101 
-0.4680445750361509 0.1060690074226920 0.3723369048083983 0.3404336234163302 -0.6644885285200157 -0.4676188863665041 
0.1229166796228804 -1.550396139018536 0.1928225153640424 0.7930262872798951 -0.02933950730835531 -0.1443749755792210 
0.1003542991288792 -0.3382067985114801 0.08067163742692995 0.01481713078253921 0.4416354486494074 0.6798078122639690 
0.04059569232213239 -0.3965286142391765 0.9410887979537806 -0.03594562341972782 0.01749879715279786 0.3340873090012693 
-0.02457312807565869 0.9306627324697938 -0.4826513994313441 -0.3030500202446492 0.06096687538178183 -0.4076186903509168 
0.4055993122453891 1.044597905498310 0.09082380166590213 -0.1206193612764094 0.7228939563851029 0.5560305257345199 
0.005426565382823901 0.006843621806316029 -1.332224394729836 0.3108025393891782 -0.7074539387911037 -0.8668715885711578 
-0.2407107838966790 0.07898749636327071 -0.7951911613974321 0.1582302293611168 -1.063207077536582 -0.2377647250103549 
-0.01690253064540593 -0.08121179840987720 -0.3805026372950751 -0.2141763598288470 0.7608438047713520 0.3613822410150358 
0.7985817613345265 -0.01551861690674981 -0.5840122046165708 0.3313500065554459 0.2148202066903115 0.4093160564100982 
0.5207411999465134 0.6434848914504115 -0.08197612733162336 -0.6065554276579229 0.09064623635916050 -0.02511067147240160 
-0.2504887305262531 -0.1418932773308699 -0.6917366528647660 0.1090171137705753 0.05876765620556758 -0.5130067657052633 
0.05199812977992379 0.09719247560884078 0.5949897761770052 0.1642817194931766 0.3950727951181959 0.4447706311070193 
0.3671332432464478 -0.3739614388880966 -0.7833534347238160 -0.6891533796378402 0.4016012645346852 -0.7202212719285325 
-0.9304586091340200 0.2571398738165101 -1.053805121106455 0.5263870067431389 0.001336833242709388 -0.2169595169275681 
-0.2677316132015447 0.05107281092227256 -0.4801931342593926 -0.4032950317527118 0.1501554752775502 -0.2608415011671574 
1.238493931989222 0.3970411824724315 -0.4671217539485119 -0.8430995407729642 0.7056976999361378 -0.09577207625307680 
0.6105148787953255 -0.01728993485722529 0.5175980254033196 -0.3873517609215675 0.3912552401802772 0.3790969372627847 
0.7413144050454686 -0.2218124184550114 -0.1802920050099029 -1.067771893988721 0.2592901836221176 0.2827575558400359 
0.1766033056614804 -1.224892338412931 -0.7815919716865477 0.3760984293139583 -0.4071422654264366 -0.2204683696234673 
0.5578190966153490 0.08488695089927728 -0.5618353114288070 0.001469421550917320 0.3036001352584092 -0.06274748231197691 
-0.5350708072935165 0.6736027972290204 0.3321942254218099 -0.9921778540280697 0.6467526341445866 -0.3131849757173036 
0.4842954000134577 -0.5583064071538788 -0.3994252210051267 -0.1601626380485268 0.2351782846201572 -0.1802333994988184 
-0.9655042771856920 0.3773180661136121 -0.1525237225219447 1.248838193246188 0.1771974397124558 0.3585815689997789 
0.04172628319441550 0.06067127863219383 0.07554838027529240 0.4030315887996425 0.01823590549841146 0.3820580026646180 
-0.1055129730397022 -0.1744846222039342 -0.8303278964684433 0.3561809130370341 -0.6568347891467003 -0.007198895850897034 
-0.2682739630347593 -0.02085006370329435 -0.02458114847693770 0.3991234753693847 -1.041974205492780 0.004825509401285759 
0.5663195293169994 -0.4782845675307590 -0.4854476143188720 0.1611342045067625 0.5861553898232018 -0.4891040034931409 
-0.6951558826407258 -0.3858107795391248 0.4394459706299959 0.7862667770403521 -0.5054126825658483 -0.1335241197105685 
0.3680574998288517 -0.2543365990460433 0.6859797173790255 0.05591937887327730 0.4254108242274547 0.2272698655162761 
0.2570310619245624 0.4157593766081800 0.4090154450997542 -0.8105515620109437 0.3067489361391516 0.5518627747373036 
-0.1276205520178183 -0.2061048381995996 0.6319590419640901 -0.1591447438510481 -0.02813218146351461 0.1181055292097754 
0.3617242411870651 -0.4464411625873615 0.1469917871615813 0.1779322277388384 -0.5497444675664908 0.08864450681517980 
-0.04033606403820327 0.5044409512604914 0.02983575692955707 -0.3004656262245887 0.1711377626465888 -0.2029419044839989 
-0.5453969140834720 -0.4585372201796352 -0.1467593833246239 -0.2309212376231671 0.3951053172232112 -0.3203180685818383 
0.5282334174199433 0.03718099319258199 -0.7382450023886662 0.3479776737600255 -0.3516028051764143 -0.2416441059249398 
-0.2619543768237306 -0.06566472309527221 -0.07828232224798050 0.3655572887147496 -0.5056785858454679 -0.4543258759377369 
-0.02501235533289226 0.1963208367053668 -0.3099810413914540 0.3943690959838614 -0.4097084974675243 -0.2062854670070306 
-0.5897928655099314 -0.2831338274011988 -0.07912811282778787 0.3000985045591542 -0.2377150652211681 -0.2551411605252318 
-0.6061796843197081 0.7234992824413892 0.5960577922670180 0.3657316154449230 -0.3720836388314608 0.8106751128558547 
-0.01268959838180419 0.2035714589659358 -0.5168486010168550 -0.7694613943946396 -0.1031489602395239 -0.5226184986564718 
0.2259133112445718 -0.3980546279193835 0.1021994484852611 -0.3886801237591395 0.4377889647755635 0.5500773039653748 
-0.08362930788111493 -0.3809927013113302 0.3643755977449861 -0.001579889424979790 0.5391109126932860 0.3311632278417018 
0.4353782503957035 1.130188220013308 0.7861981967278845 -0.4824454814581944 -0.5730048246320304 1.146722715261239 
1.007294122267665 0.3380629646438531 0.4519129965249781 -0.9201465122349394 0.5885829531923082 0.7111240669385865 
0.5267476103278735 -0.3005829053146486 -0.07790078492072738 -0.2081711378873372 0.4532617351263314 -0.2808496757935199 
0.2389093591947605 -0.2311604454766724 -0.4207478531780546 0.4177417715075878 0.4533615671357096 0.3036293787027818 
0.6269607688623319 -0.8829991067927109 -1.161644346796482 -0.03071802577097726 0.2200084491744992 -0.2852115705471642 
0.6878385630870216 -0.8454096084933302 0.2219325995604009 0.3119022420596033 -0.2532076648474357 -0.4210363398983934 
-0.05662861831418886 0.6756362365942953 0.6362118576014217 -0.5978075744184596 0.3487803479733352 0.08940856052967408 
0.3979792001500252 0.1230161655404922 -0.7043643794694485 -0.4409938593830817 0.5013705625847835 0.07105703410764856 
-0.8715506349450848 -0.3467051504030186 0.4402929196075989 0.9532111104890688 0.02337805638798591 0.07667599669793884 
-0.6515347628268593 -0.2013801416871812 0.8202300131387673 0.09858276363083510 0.2200498564371458 -0.1491120030966767 
0.08134206184935260 0.07188660590492604 0.2450853348881849 -0.5229541242888414 -0.3710021506827767 -0.2804444589545619 
0.7173162141401472 -0.3956788768766014 0.5060647594963600 0.4773771522042603 -0.4633428772368406 0.6527079902819042 
-0.09312372631202340 0.3561286004459029 0.1815630489739295 0.8830491545741244 0.5379034704894479 0.5375507664622526 
-0.01899127142561473 -0.2467841867408958 -0.3839857543071543 -0.05571637766716593 -0.1448233574095313 -0.08016070792702033 
0.2147616591231445 0.06414880508501472 0.6602449979597815 -0.2853244615851713 0.7427892460074926 0.1886861903598359 
0.2948685084568160 0.3501882877953300 0.2981383517069443 -0.02435955618213431 -0.02127129055230655 0.3080241034753594 
-0.5971951716988297 -0.006938413858915074 0.3739851034854462 -1.039820268532227 1.123135617793834 -0.4760357509990107 
-0.06359882248265751 0.7929903323583430 -0.1931755910447349 0.4249406960657622 -0.1076327331022736 0.3596819610305583 
-0.04003005005139777 0.09963827801742844 -0.4294082853069521 0.7019840712654204 0.2493415105768064 0.8727810815913853 
0.5150841330592452 -0.2840795872386849 0.1010550460082846 -0.3857294839926832 0.4929997908925343 -0.1024782562012267 
-0.2131788591503127 -0.4504990925347515 0.5197505919126552 0.7689560658190939 -0.5874526781699799 0.05571443443606158 
1.226402492816530 -0.2958476229039753 0.1086871768252369 -0.6435069490590734 0.1260773655874607 0.02816565159996707 
-0.9470280387212654 -0.2074176722978897 -0.3405209536918890 0.4038008890940038 -0.5476486540353516 -0.3190049066051487 
-0.2644390122357917 0.2227087533519007 0.3410755783255575 0.5070772182492630 -0.4676820127027815 0.3391195552895779 
-0.01095088896638771 -0.1819233127728743 -0.7161211024892551 0.1197778713061764 0.004940457005500411 -0.3306320404889842 
0.1810859487778116 0.1636302285756569 0.2625799099401245 0.1799071512296288 -0.9461842419136001 -0.1030878554267930 
-0.1149639469901939 0.5208038325165235 -0.5294199462470610 -0.2263390540675861 0.6249127100170487 0.02168257209740668 
-0.4689316269793314 -1.045306810845559 0.1382577150059637 0.4427383396746470 -0.8236569691219240 -0.3570087133917676 
-0.1968479612912403 1.015756083326678 -0.7287255661584646 0.08631049293156046 -0.6583596130796905 -0.4095708211661145 
0.5696389613963901 0.2942097787830737 -0.04372314448245682 -0.1618686095116758 0.4899561225006391 0.7135640388088301 
-0.5055486618906514 0.2991237074814325 -0.1284140177122359 0.3759852791767924 0.6339176860494607 0.7231957885850473 
0.4285664604230449 0.3434249283260079 -1.069501613591290 -0.3291130099479702 -0.3088920744817401 -0.6944496199286854 
-0.7077152208534551 -0.1864161010840515 -0.4580106927402918 0.4024839553696566 -0.3149336867892627 -0.4390966425563484 
0.06390927409049083 -0.7231558427503444 0.08976316108775904 0.8728163829361085 -0.6524223387307463 -0.3143891444801132 
0.1217569808592674 -0.2092718659472352 -0.7873241391686941 -0.1380893121126161 -0.2976525890574006 -0.4216561968781641 
0.8111202172384636 -0.1130188545152010 -1.147408626261675 -0.6781102501822224 0.1155943535883248 -0.2769334930856195 
0.9209718998433127 0.6035785354363873 -0.01490801193204167 -0.2816746025019181 -0.3638047438847381 0.08976631823187722 
0.2024975259151735 -0.1914568163716292 -0.4158367238118690 -0.3941453630621522 0.7777917958664124 -0.2405395098807487 
0.2109355836315218 -0.4166322464430861 -0.04025575108283670 -0.4242372417311761 0.1063411920362610 -0.1519000090427148 
0.8063339779971094 -0.7564635438475890 -0.4758421770644216 -0.2245342968360846 0.5419986331123343 -0.1094158197715931 
0.8583588059873932 -0.7141161965429357 0.6824842407998207 0.2570657184797694 -0.8079973740935726 0.5992907383325465 
0.6558306319366254 0.7035966002887812 0.4364080310760671 -0.3579830070784337 0.6710258807140675 0.1348237509520735 
-0.1331038869787524 -0.3603745402936004 -0.2630404853257534 0.1473257672340798 -0.5901357162673899 -0.5531414277326104 
0.3312495468641596 -0.2824532482475846 -0.2956230767339814 0.03419389072875254 -0.6384427540855054 0.2804141152316912 
0.7148770439417641 0.1593410769005580 -1.018823331397846 -0.9397027433474786 0.4163822120008499 -0.1412746081104638 
0.04640672512442135 0.2433492163079823 -0.4164920965223096 -0.3509143165914592 -0.6639061290018662 -0.9244751573012729 
0.4141215277663603 0.6436319278278188 -0.03611591952328076 0.2447340345012444 -0.5467821276992316 0.7653770639987759 
0.5010432239655153 -0.3289670561461731 -0.02643226513898259 0.1133892001053991 -0.3360279521056270 -0.1723354579950100 
-0.3263967753744170 0.5914881287055225 0.07722626605626139 -0.3155752070499044 -0.03330564638431092 -0.3141163603213566 
0.1876942962635504 0.01573936585431198 -0.2858651513044497 0.7955363767684944 -0.3901164767883326 -0.1468689747775245 
-0.1396750264760161 0.1553579436175456 0.8611706794774379 0.06677060701983349 0.1355120013997740 0.3286697431903674 
-0.7521127356759691 -0.2446878737984310 -0.1411337421684479 0.5448392034926899 0.2705023491825785 -0.1995093807171391 
0.6966707926488671 -0.4444711655066266 -0.3978695245509599 -0.04417453858783706 -0.01599618742769815 -0.2748430431573635 
-0.2922850081546967 0.2013057043283597 0.9742566921813541 -1.066175704968610 -0.001652912828232277 -0.08088451153592843 
-0.5944350254311211 0.1993084610793014 -0.05161390035492377 0.1581850840739983 0.1863199274853600 0.06694937121330646 
0.07801875073363400 -0.07708920013499498 -0.3285783485262717 0.2765283229582291 0.008967884741756913 -0.1683400719602777 
-0.2843222296913854 -0.4266289829530325 1.153409706504034 0.3897626532916456 0.01870642469509177 0.4629160003007997 
-0.03824083352086385 -0.1168811864219404 0.4088051166187021 0.3556527009609183 -0.6374420099642895 -0.08338407266853100 
0.2900458221288184 -0.2961307095460025 -0.6284680251198550 -0.03039719209565076 -0.08449966802419366 -0.1611124112097840 
0.4104229403500114 -0.2147566976452244 -0.6561738692566027 0.2081697344854855 0.4142909595789663 -0.3168234979293180 
0.7119878229125050 0.5115494134580051 0.2708056653754247 -0.3001972309794846 0.4929291654103957 0.3090745857447079 
0.6639864278200254 -0.6534320712533014 0.1845799822267471 -0.08885877203237087 0.1618494025663184 0.007827824455282390 
-0.2079549736551991 0.02130426286429962 0.5438376414622674 0.9000706435688525 -0.2948087754144725 0.4985986223012352 
0.3982171634544000 -0.1655294067605828 0.1651995234589315 -0.4752216956985345 -0.09103779161821429 -0.1837235150663092 
-0.4207590274382768 1.053429880636842 0.4074734341478848 -0.3860736328292074 0.2461964938802812 0.3030813771455700 
1.011000376599233 -0.1742925996481016 0.3584352442320523 -0.4572917960500574 -0.3875565798594166 0.1554710245145339 
-0.5089932191548641 0.3542795405783516 -0.3137537598321199 0.4763378926301507 -0.09504194461368350 0.1223394483661948 
-0.7904204110278618 0.2744051870893952 -0.3193602802606003 0.7399937389447550 0.01781775770707217 0.02961338060833079 
0.3500892965426735 0.4773009866469476 0.2431134058211899 0.2565951952182320 -0.7087563901936073 -0.05276732274004108 
-0.04449705735117084 -0.2869863944517166 -0.6094698563293953 -0.1171140243369401 0.2931081531398246 -0.2136831098381419 
0.2704790712284376 0.7095849604973052 -0.1288750511400037 -0.3134685823052112 -0.3203790611215063 0.1329758098148078 
-0.3000569292442261 0.4642537201178480 -0.9418693666957683 0.2760327960603613 0.1389977100160511 -0.1559037097040613 
-0.3975911919486899 0.5476868772641781 -0.3456313327224398 0.1539444596841323 -0.06377777929044103 -0.5759704822047716 
0.2870679385759173 -1.311337456331191 -0.9918113762993461 0.3471861919377628 -0.7800221726814247 -0.8756675855992022 
-0.09993100057026515 -0.4686096660552622 -0.7553947423819153 0.5418039130669067 -0.3203549298727053 -0.9643586083084968 
0.5362227168376924 -0.3843030448967551 0.3278092279063883 0.06648483690348660 -0.005646014086962317 -0.04790204995158193 
-0.0008740909349629061 0.6776564323995852 -0.8002025013673225 -0.7875203708159181 0.2256181588372903 -0.3216359993355326 
-0.2633340816842505 0.7003785588514327 -0.05301579607636455 0.2211606455344064 0.1344580177269651 0.4338706811554847 
0.2672950942675408 0.01054461945630296 0.1466021130691498 0.3404999273683693 -1.292864175664589 -0.03107925799147862 
0.4238643857807987 -0.4167489425373852 -1.078638257068333 0.2056829802737344 0.4824788117552916 0.07610302604241553 
-0.1237001277574402 0.1304934548644721 -0.007670119984840343 0.2570952120966437 0.1328627261494919 0.3258708747038073 
0.7267247472284728 0.7986644409770854 -0.1198800094966341 -0.5825468264593314 -0.1169610623556467 0.05895792833118087 
-0.6780167071825218 0.4136702935486313 1.072756420446196 1.189248488128702 -0.4799112102777277 0.4382886205257446 
-0.2493833089313280 -0.4413103596151429 -0.3905485752754926 0.5080510070371295 -0.3839687473644989 -0.2231545792758072 
-0.3566018169660121 -0.3431451833527317 -0.3575690455333674 0.4981303790205121 -0.2985664505839721 -0.3295504240836545 
0.1702621015081963 -0.5217574917279388 0.02343124240429884 0.5582331844256403 0.07566611729825344 -0.2420763306832621 
-0.4278563880784111 -0.2490579294750106 0.4620711051429129 0.4603687085025625 0.5103499308066024 0.2650663161395873 
-0.8345762706946392 0.2273720459048669 0.03116382086835039 0.1916747854708148 0.5957817577394691 0.3775529950336898 
0.08334726498391998 -0.3690310633066493 0.5601060229441561 1.140222975615465 -0.7430633190681221 -0.4333081038483313 
-0.2865612112785948 -0.1461993611944828 0.7002059097786723 -0.3568780218858943 0.3478939318357324 0.05423546003633892 
0.3081906278303634 0.4293634618358757 0.2656698051911283 -0.4473649285600264 -0.1790515200221411 -0.03219419259607120 
-0.3939163488756273 -0.2460139562943701 -0.03310801114240461 0.3094843226848608 0.1601150315902426 -0.1250172806624046 
0.4067219287067544 -0.3208222206910783 0.4289416783140910 -0.2953136518237419 -0.8379928700812388 -0.1629493856900111 
-0.4006921393218301 -0.9823264945739380 0.4134428502045023 1.103768285061064 0.03713376394809836 0.2322085414203948 
-0.1445391817241930 0.1111471191928559 -0.3322778395376558 -1.009091451782329 0.2411314328101566 0.1285174483962788 
0.6982027674735357 -1.310047682788770 0.08081220688144578 0.5493318290734205 -0.7204527250900613 -0.09774559274971960 
0.4552927798356969 0.4366422472674093 -0.2264382551644621 -0.1725564127625799 0.2576211793491358 0.3989586249872705 
-0.1047650170928178 0.1225135955117680 0.9623698558017695 -0.2075112707907118 0.2468933939630942 0.6543742594002766 
-0.5600607638802994 -0.07658413236450753 -0.1045792502003082 0.2000853993069560 0.1457538844730519 -0.005282320079560875 
-0.2288251940819471 -0.6816680619091732 0.1495695611931430 0.1489644714302785 0.1398767802099577 -0.2970599442050892 
-0.3518639229153523 0.01285485114313732 -0.3984399856540040 -0.1386734138999164 0.1514574882827042 -0.3191697123524664 
0.6528839764107317 -0.1522686482150968 0.7370775878132034 0.05356165382949864 0.2548828250355104 0.1579922158798226 
0.2861871486808011 0.2166758879651168 0.5198758761076387 -0.1396996518637794 -0.8327111448457908 0.4870299620838224 
0.08119249689876476 0.7292983005641993 -0.1953006002875311 -0.5671574632644790 0.2196072008875343 0.3894596723740960 
0.08351631457206858 -0.5978059853589561 -0.3645599420230595 0.7874918167842678 0.2244012336305132 -0.2304871357418916 
-0.4611095017957351 -0.8085232078291107 -0.4331590158886872 -0.3490987698231190 0.4502762111367080 -0.6410391264546133 
-0.7955108283587379 -0.3783809937206257 0.4479558837011279 0.3575261877946072 0.1110255819347142 -0.1676015774404593 
-0.2186772261988992 -0.07664832970623284 0.5125742515605364 0.1542436218561063 0.4702679230935627 0.1334825392815825 
-0.1563985057729591 -0.1942662419710819 -0.02787883213008061 -0.5331404119930484 0.3688833000657575 -0.1819727201476781 
-0.2791482780954989 -0.01697679220482635 0.2195160776590447 -0.5579837659111007 0.6898568714113963 -0.2989190065998330 
0.3127695399088023 -0.01993296838324093 0.4977350959235132 0.06110384059398030 0.03502019469539840 0.4013861213583092 
0.7141986180543811 -0.002021333465855904 0.5901360861379301 -0.5888417486220149 -0.1705607009945017 0.6609502350639942 
0.03969279876030534 0.3228556393499076 0.7470296780926439 -1.092082129793172 0.7291661249613732 0.2948490575959839 
0.1073946843987984 -0.2564061479857804 1.068065642517456 -0.5358374711684484 0.4655734006933764 0.4402069093788716 
0.04944607780242757 0.4439558600848854 0.05828674914774211 0.2561348207759719 -0.6043739165198212 -0.2128001491614976 
-0.6710898423527628 0.3741429477674303 0.2196588351669677 0.3044740379460514 -0.07513177730250292 0.06916132336208142 
0.3492141005429831 -0.9433045840395764 -0.1207920815652096 0.3135831798565439 -0.2790126168905383 -0.06538415846558558 
-0.07332659699711438 -0.5161862564363869 -0.2899401132497912 -0.2896284438559765 0.1750156543395528 0.001033297079305531 
-0.4909630728174156 0.7132818952701690 0.3840425014866036 0.05118851915623981 -0.2625271032189103 0.4152017750779776 
0.2090131477497081 -0.2394711678749147 -0.4843755520705811 0.5736883626006453 0.07050468029579346 0.05227618927989555 
-0.2200125307876467 0.6115897774920210 0.3841770681642651 -0.2092389201055239 -0.3532026428913476 0.6847404223373086 
-0.4307689995953817 0.4409132576162687 -0.6370874663345230 0.1892663997088437 -0.8286998068151556 -0.8113962189047090 
0.6510681678256004 -0.1043953340343708 0.01792297675007237 -0.3025257017353297 0.5856986793078945 0.1462905211258798 
-0.01964524921367810 -0.1329607930893932 -0.1374019735240512 -0.1636208058637151 0.3655671580666805 -0.4743729621459060 
0.01907544325018108 0.05563626214515984 0.6014627663417594 0.2581763228825252 0.1275040721378062 0.2650144037905044 
0.4273678253547555 -0.1078168852313370 0.04004330934639110 -0.1487315974016126 0.4246140476716455 0.2094982607488338 
-0.8167121576583538 0.5337814760233128 0.5409765306638784 0.6023398978811384 -0.1902846051721589 0.1519052961586881 
-0.5251904093824237 -0.07647780654023009 0.3192517038488420 0.2525777715496311 -0.3631381876432543 0.03925591960125803 
0.5142294932677166 -0.3583659544272296 0.3699543651523959 0.4864997624484090 0.3490322701364292 0.6443361204043417 
-0.08530242098502410 -0.4858047553032783 0.4760883266131238 0.4160477227828139 -0.3323576566736931 -0.05549009493906878 
0.4020010286368329 0.4517173114931477 0.2990774874998859 -0.5996495521087543 0.6499549274209772 0.01592282232054259 
-0.4411215033551860 -0.1028680195138758 -0.1233394690217465 0.3424545308529497 -0.5613821608303011 -0.6471790126185049 
0.6875956408738988 -0.3458491512927263 -0.2992652439984151 0.1180996173048462 0.5069493069730117 0.06354891960585637 
-0.1438249529807266 -0.02521297797980333 0.4874624650205819 0.5784365281844678 -0.4289222695643410 0.5608722885088174 
0.6027898237309476 -0.4687718309650401 0.07880290374458392 -0.3205059034588515 -0.03569908931495521 -0.1066705367086486 
-0.006706256760954610 0.4438013555032578 0.2273728590300149 0.4795990117146023 0.6242853491154664 0.8483374794720459 
0.2640055654536606 0.3321194828385161 -0.09874207146659063 -0.01959006807265158 0.4176214778478060 0.1346072743032204 
0.07310111064171710 -0.1387656760784168 0.3026004982521035 0.03952690036113647 -0.2245047359773975 0.4955011725882613 
-0.3689323371698067 0.3221254063288530 -0.4522640549775529 0.8207371126098163 -0.1382365374175916 0.02657226688344747 
0.5019889407879786 0.03704321655033776 -0.4014834694594351 0.09815236736468934 -0.5420786164843042 0.3511162127563955 
0.6394154344774597 0.3903490881376593 -0.04072976085384973 -1.156066370676858 -0.02526304132469683 -0.009812756330423065 
0.05341853993624415 0.06616951489832548 0.3068030709546936 -0.2049072986397508 0.09213255444709303 0.5221249946351390 
0.3900126625933559 -0.6255760957240563 -0.1594750846137544 0.04654069645638213 0.2709237563566274 -0.5779362859735242 
-0.2801904328596235 -0.2185189586060006 -0.7338479590914490 0.3472201129747047 -0.1163334879782396 -0.2520401492237730 
-0.8098915745831323 0.06868673210826790 0.6297145559092334 0.1534096246785142 -0.9631899839379986 -0.8002963512955991 
0.4742805810029512 0.3138066728254668 -0.2531479460284046 -0.3291030172019341 -0.1857534293880532 0.3123047583266893 
0.5614031744281365 -0.3117496646601890 1.082394047380744 -0.5287408525114613 -0.3361407590378625 0.5329221454956042 
-0.3485651197090849 -0.1573827981476488 -0.3602537894031646 0.2486634816719105 -0.4041931838957886 -0.1078824601951586 
-0.5886382498081288 -0.2023615974641336 -0.3330387781312713 0.7961194772583745 0.2765372816336659 0.1769677231529706 
0.5354799878259248 0.7086738628849467 -0.1114770249053321 0.1639205129329709 0.2336604291820193 0.9311056701123811 
-0.7499518444829617 0.5604002997060132 -0.3784617619442250 -0.6726318524209198 0.04701748853533699 0.06225268629957928 
0.1072705050929609 0.4493056047773384 -0.4573759370160733 0.1864823410805705 -0.1433823712256518 -0.7110807554310109 
0.8961777482129918 -0.4315639992989421 0.01786955358924406 -0.2374542203467349 0.3222046473007291 0.2599991892617943 
-0.1771876564096906 -0.4132556021393786 0.5775981218915628 -0.02772441464568116 0.07219735710189923 -0.2226349090764862 
1.364407309331258 0.4249171304263558 -0.3393042283622051 -0.6803636488339659 0.5422858391233429 0.8053258804637980 
0.2304749105199276 -0.6715290993376203 0.3835789396489749 -0.7193269534323918 0.5051868044795221 -0.2775853038672750 
-0.6188387518998735 -0.06294394028496643 0.5706039287716448 -0.4700280444600249 0.05016677419234131 -0.2872885559835350 
-0.1778977558280923 0.7415602891096574 -0.1016237605272390 -0.3525936403997637 0.4811856523870208 0.05832058232187256 
0.8995019100195380 0.1338558320521114 -0.7388704062786197 -0.08430295878651290 -0.1826147355958602 0.1734522431639099 
0.4551374865337197 0.1948292373430316 0.1917639109762240 -0.1268728192158860 -0.4442265714416750 -0.08368956048177391 
-0.4788075729125672 0.7427640275387617 0.1287009082114703 0.03704403559079229 0.1798309206879089 -0.3460989614459898 
-0.7249416703946526 0.1279592991166465 0.1485281623839723 0.02069212451483532 0.04035297606149749 0.1060748819884937 
0.2675265155147464 -0.09559060677264067 -0.1715085706034288 -0.01796576010407074 -0.2340130562699304 -0.3360324383976470 
-0.8072444729941519 0.5716078612977454 -0.2331606379985515 1.052245577669187 -1.152663060571186 0.2137975619272667 
0.5213794746488367 -0.2044556443704894 -0.06738695753448498 -0.1943029766768008 0.03476693546949744 0.3701107690462726 
-0.04509602128552541 -0.2446145206373672 -0.05822109956715766 0.8974371331823472 -0.4606232410440775 0.2451021867611181 
-0.1590116038715324 0.1690865549054465 -1.460404091463206 0.4018295242024145 0.08956469857993540 -0.4524468296696482 
-0.1874383939485772 1.206923963157694 -1.022732450587535 0.07767076984181717 -0.5698804624456694 0.04787374982903379 
-0.5538540890386561 -0.5161205038246801 -0.07259992168410491 0.3128357207754927 -0.6509809555266359 -0.8634318928283672 
-0.5719257181534319 -0.3338277301919032 0.9287028360764683 -0.2427743371115398 0.8613713676179813 0.3873500055790602 
0.1083592760724256 -0.06792316485615908 0.07562199409482745 -0.02802390142965739 -0.6741153092034944 0.5265127535188163 
-0.2713534244765194 -0.4324916183619404 -0.5599902469606989 -0.1409356249360487 0.08383472408130956 -0.4363788167591123 
-0.007010573084972715 -0.3832697092031300 -0.2235120421130289 0.5312006647265264 -0.03313089408165269 0.07264875870830086 
0.1858817078156006 0.6252737301529364 0.2332605234870364 0.2407420213307823 0.6160008013831382 0.4618584788179716 
0.6845873357486545 -0.08550564870041290 0.2346389448962098 -0.5021892066075545 0.02925978944593153 0.3082552092689715 
0.06857352909181384 0.5405771370498862 0.07204532729031393 -0.6534687623195274 -0.3876615914738814 -0.1588619893640218 
-0.4956833595867333 -0.1472193768838630 0.1077006904976810 -0.2224988482029342 0.1943941451745345 -0.03124374954932393 
0.3962392150955058 0.3389036264324399 0.2982388492453331 -0.1150679578731174 -0.3187809455214410 0.6406128229226108 
-0.2717111787485334 -0.4593295863218140 -0.2232757761892583 0.6396658301592271 0.1450213193192987 -0.2919632859019574 
-0.2767881749669987 -0.8482462945511189 -0.3005733571217931 -0.2922249152165376 1.031892471017331 -0.3725569850552334 
0.1415202162665761 -0.3586346912763812 0.7064767669009594 -0.5849817534523719 0.7038226954648562 0.02421313014961664 
0.2570276958822315 -0.7328326997994711 0.6609757562652293 -0.4644456348912521 0.8692056682230375 -0.1506447780993838 
-0.1267708416765540 0.09827917859789026 -0.5190057685808496 0.5850532511067001 -0.1350279318655177 -0.2655463350491800 
-0.2277599276572792 1.061551925466208 -0.8700073069377007 0.2640496391535496 -0.6732438930382132 -0.3643467950802735 
0.7138891130630631 -0.6202721642350489 -0.2092855192788042 0.2128211119213454 0.08062460788987576 0.02533792774245351 
0.2691921625059323 0.4390750325762783 -0.2342208462088586 -0.3040336652044509 -0.1857367605238005 -0.5687787100879573 
0.1880414912793122 1.274334826700103 -0.1792935761832569 -1.086100089584752 0.2976859763322667 -0.08750833224383582 
-0.1061766048209137 -0.3660880194989635 -0.4063408539990024 0.7982277639999722 0.01944748197772021 -0.3821338305219192 
-0.2547003160845003 -0.5064494034999290 0.8175887254230470 0.7814639777159265 -0.6212009047218495 -0.4616335901016854 
-0.01690966473068479 -0.8786413115199934 -0.2437649744889832 0.8889824965523510 -0.5828792185813599 -0.3875887720813294 
0.4273656317493965 -0.3759496170252035 -0.3377887435021331 0.1656211588929604 -0.07295805129806714 0.008049323071160549 
0.1702723203486586 0.2969764517619664 -0.8237976913980489 -0.5615990487488612 0.6788464455660734 -0.4929045130462257 
1.036969365433375 0.04344961591782325 -0.4117148025333060 -0.3107300493305092 0.8858731848830489 0.2121154113880481 
-0.3432998826773197 -0.2117944488662227 -0.4031567940813118 -0.03146121254261616 0.4036112845892320 -0.6364516509503463 
0.2882265139503506 -0.04208574384570060 -0.3100944238472568 -0.05889478420990229 0.2917862930333466 0.1337716737975519 
0.5300743914895910 0.3502688846666860 -0.3053577930763119 0.1547981289137009 -0.2558614086358458 0.1057104741137195 
0.1674883912854141 -0.6915540320632323 -0.4419847505120640 0.6699717447164859 0.2391112997267051 -0.07148203824987405 
0.2644995254037809 -0.9084349661828188 0.3302186620142455 0.5015317080425911 -0.4093829586438266 0.4825727536908356 
0.6981509735803120 -0.1158490831999558 0.7398360377902327 0.08506940310983505 -0.03110113335144558 0.3557263338091375 
-0.1133062646294979 -0.5307597903471280 0.1273640780136657 -0.2294509217373777 0.2920914076098932 0.05481000408321305 
-0.2465780840995166 0.3969950480784410 0.1439086659105272 -0.2874357837082436 -0.6044872905343694 -0.04834203698699893 
-0.4115706171617543 0.4199850423571255 0.3422103334584378 -0.3963577800200786 0.1684191817777867 -0.1908045764815793 
0.08227915891172140 0.3944021134114700 0.07630479752864262 -0.6523541022736047 -0.4388292496170576 -0.3115309414410469 
-0.4680184162667457 -0.7232926783490650 0.005865852824699864 0.2688481083819509 0.3046560110646598 -0.2956900260861261 
0.3973708440437558 -0.3119045917845719 0.3423335517681751 0.2032574827487982 0.04048408561889594 0.5774006965468882 
-0.2699884690838130 -0.3608073029578883 0.3573309771670258 0.2994612095214114 -0.4541599880465441 -0.03645282393356134 
0.3133071012858575 -0.1263122804286713 -0.01501090947399427 -0.2024600851707877 0.1543788727199464 -0.2781421596336041 
-0.2220880547408911 -0.01934856623674168 0.5560255148129767 0.2911872938833561 0.2067455963259734 0.1167938281998504 
-0.5729528139878719 -0.2519267401156120 -0.4264612424424693 0.1202376891223889 0.2633009314973468 -0.2137634354335315 
-0.6215236156007239 -0.1395246987193567 -0.1853608922942121 0.5027397836883589 -0.5922872216440659 0.3297900924621381 
-0.03243774894747765 0.4024925329514593 -0.1336917202818058 0.1877769928476182 -0.5497431915847582 0.5227338147177503 
0.1081813017013843 0.6351548666727840 -0.2808982097871066 -0.6265486573870578 -0.2686334414740497 -0.2844887044719248 
0.2401172613202840 -0.4685608985112252 0.6348687845064614 -0.5131087528160614 0.5693994080642556 0.1676280954706852 
0.3425095554653144 0.3786547205117699 -0.05161869645423210 -0.1527798445292288 0.3129437054571358 0.6305027268903950 
0.4198792403711495 -1.177791353874837 0.8482141182232907 0.6432058764765136 -0.2679772633907270 0.1713504801071281 
-0.5667950006601205 -0.5913803619399276 -0.2277525281161496 0.8893506141000834 -0.4657975701954785 0.2596314658566569 
-0.06770802916620931 0.01336905221437740 -0.1572276884149000 0.5010444260859941 0.06081784552560569 -0.08395854351505508 
0.2043334773878180 -0.04424716063159535 -0.08683527854769983 -0.6351340747494357 0.6983391065725104 0.07372044539672476 
0.1605428606594845 -0.9286975945127537 -0.1737827246181709 0.1996931304082679 -0.4100413462912544 -0.2517003211784961 
0.3851141531704531 -1.156545386809653 0.4957657579877449 -0.6763710707692592 -0.05297808582725578 -0.4246854838869687 
-1.015512169323240 -0.3389457537286543 -0.8317396538923882 0.2414856709706643 -0.2128172256675819 -0.8100943708147117 
0.1421619511460903 0.2050125585578664 -0.1635205913095878 -0.1771123228709610 0.09408621684075670 -0.1149227595488680 
-0.1817630243517057 0.4216514034618202 0.003319393217198762 -0.6340562032173456 0.9213063597286626 0.1649620745819497 
0.3079429159036448 0.01922941795787864 0.1795613798329211 0.2643130230436163 0.6612715643216277 0.8098358862958428 
0.3222864235773955 0.6628177663747536 -0.2717638070884631 -1.278727842775061 0.5968023153969598 0.1480594582717204 
1.156477003065445 -0.3728499407813832 -0.6992805901552628 -0.5416584575032670 -0.5195433373067937 -0.3702956979468268 
0.008440697384642837 -0.1462413177777806 0.03060989865960831 -0.6826778986374633 -0.03830101119881928 -0.1989465099212753 
-0.6484838819199552 -0.4671816273293943 -0.1953900511161953 0.2362740620945716 0.2120318107326180 -0.1751596483525279 
0.1438512335663731 0.2488477811181562 -0.1787210637493390 0.5435104658743011 0.09173098270286710 0.1735814218954453 
-0.1246443795814317 0.2606827348916300 -0.7152811224378500 0.1430070135276421 -0.7110656045220345 -0.2094874340866116 
0.8577637866441137 0.09975534611916531 -0.1541514755942169 -0.08927968520925815 0.2670047370003501 0.2211679208815530 
-0.3943081351261069 0.3229552033771327 0.3433100824201776 0.8429300131370911 0.2766254357670387 0.5948437235287715 
-0.3252750859506132 0.5424414432000707 -0.3893532207867785 0.5948004046588130 0.7158769044586490 0.4827559774001730 
0.3106975145678667 0.8365451692712712 -0.2782301643764986 -0.5870459346983640 0.6665390142493091 -0.2017177322105168 
0.3128165323033836 -0.08570899951181489 -0.7304735163887929 0.4382269366165109 -0.2051144643234844 -0.3638119803180919 
-0.9242124650929996 0.3248958450540845 -0.5447549161936408 0.9221599044878653 0.1812854666316546 0.5195520596436576 
0.1162430345481700 -0.1891312480827970 -0.4288792114387193 0.2128957967170609 -0.2037789614040499 -0.5309422195707272 
0.1248846945562414 -0.05854285868741253 0.3325559790911482 -0.2436516398289289 -0.5441042717719036 -0.1370825682175387 
-0.07463256221211338 -0.3369974351501564 0.1960079218071172 0.05737452069124605 -0.5727008418750652 -0.1481442241394794 
0.1848341705706750 -1.046373789251231 -0.7782501925720654 0.7292423082671443 0.09737174598457149 -0.4344778269042615 
0.05335859352794904 0.09808245019432442 -0.3639982204038471 0.8286805316793890 -0.5745475261485532 0.1856987518913205 
0.3092198176471671 0.3572691698925220 0.4089429884093159 0.02225781374217103 0.2175004722109648 0.3366930543364669 
0.01405694710649072 0.1412631312805429 0.1023845372267234 -0.9752019216862232 0.2605124453616292 -0.3124136257750557 
-0.7156388566119963 -0.5362566230476811 0.03903866710685065 0.3318331372311648 -0.2477712126851376 -0.3212061677686116 
-0.07782864492469924 0.5545853588601298 -0.03870896262994531 -1.698298469688317 1.099271550174562 0.3942798660872942 
0.2117788676081242 0.2818853004670412 0.8425429386136598 -0.8078869395500103 0.9428189685296973 0.2879152326623237 
-0.1737883620343186 1.057165108657578 0.1301298072588763 -0.3179003529810585 -0.2230098326962098 0.05304486079702742 
-0.3882019124060611 0.4790047071947962 0.1943862148561054 0.4486422356701451 0.4444273682018065 0.4740764356616158 
1.426479110228519 -0.5562459362216661 0.5976378631511833 -1.587600677335304 0.2790949474189576 0.1281354365874909 
-0.1723497930387608 -0.5244284456055704 -0.3809229631514386 0.7128403482763676 -0.01496134655707238 0.5931797607880855 
1.165615087479947 -0.1263512013823438 0.6786613934574786 -0.6601285964972816 -0.1871388704371968 -0.07387310374517272 
0.2490830016957824 0.3145213957758143 -1.119693653183182 0.1103153847326257 0.2328906990715978 -0.5466908680179567 
-0.1591986488037488 -0.2887200114575754 0.7738602144544245 -0.2291459878499562 0.2237827769265418 0.3394559437523735 
0.8497097398868025 -0.6197984186009274 -0.4026744557862604 0.5143728604260952 -1.000546742002889 -0.3148211829164301 
0.4182180777911492 -0.8105989647480218 0.6741619688073050 0.7087493012484958 -0.4220319660885507 -0.2252452703740965 
