solver_type L2R_LR_DUAL
nr_class 6
label 1 6 2 5 4 3
nr_feature 266
bias 1.000000000000000
w
0.8606098759240093 -0.9947392270489877 0.5026174925443352 -0.7059269232045527 -0.6012638124624680 -0.6672518069375155 
0 0 0 0 0 0 
0 0 0 0 0 0 
-0.4762550876422405 0.6677977503474022 -0.08569902464776101 -0.1397455540922556 -0.1225245053127941 -0.01336574661597193 
-1.412603171204334 0.3626020693009706 -1.150237314013239 -0.5939608115013634 1.588935506817801 0.1154740584796535 
0 0 0 0 0 0 
0 0 0 0 0 0 
0 0 0 0 0 0 
0 0 0 0 0 0 
0 0 0 0 0 0 
0 0 0 0 0 0 
0 0 0 0 0 0 
0 0 0 0 0 0 
0 0 0 0 0 0 
0 0 0 0 0 0 
0 0 0 0 0 0 
-0.2612423287888856 0.3299882443049828 -0.1779231335259426 0.01094573625487869 -0.6891063740240029 -0.5062919352679567 
-0.1181219746112269 -0.5811952065387009 0.5796506566165122 -0.5536111466139855 0.2964944581183220 0.3591501111441898 
0.2124743125624371 -0.1263037427453443 -0.3981303555837915 0.3512868192272805 -0.01113495755559817 -0.6203840128897586 
-0.5844359613010345 0.2023940183691142 0.1453701439424057 0.2422476032065649 -0.06319824376651653 -0.05179793924178824 
0 0 0 0 0 0 
0 0 0 0 0 0 
0 0 0 0 0 0 
0 0 0 0 0 0 
0 0 0 0 0 0 
0 0 0 0 0 0 
0 0 0 0 0 0 
0.3138611860864398 -0.06892492990811466 -0.08555452681316060 -0.1958129040047192 -0.3181091919461757 -0.3464137017900710 
0 0 0 0 0 0 
0 0 0 0 0 0 
0 0 0 0 0 0 
0 0 0 0 0 0 
0 0 0 0 0 0 
0 0 0 0 0 0 
0 0 0 0 0 0 
0 0 0 0 0 0 
0 0 0 0 0 0 
0 0 0 0 0 0 
0 0 0 0 0 0 
0 0 0 0 0 0 
0 0 0 0 0 0 
0 0 0 0 0 0 
0 0 0 0 0 0 
0 0 0 0 0 0 
0 0 0 0 0 0 
0 0 0 0 0 0 
0 0 0 0 0 0 
0 0 0 0 0 0 
0 0 0 0 0 0 
0 0 0 0 0 0 
0 0 0 0 0 0 
0 0 0 0 0 0 
0 0 0 0 0 0 
-0.6208394070037456 0.09627785461724363 0.7041361519102429 -0.7603753056183611 -1.551443047990755 -0.2719058523795852 
-0.1644032161819007 -0.1327837335198887 0.05829372195082535 0.4785542021869468 0.09717967261242846 0.2464681426140152 
-0.4801282028037843 0.1196697190875712 -0.9076811467994603 0.5740318848221222 0.08624696570680618 -0.2907059628228570 
0.7044500056196530 0.01538549297882623 -0.2926186798825976 -0.3737019647218453 -0.7531939252971813 -0.04909352448885763 
0.5389303962502574 -0.3408438547210425 -0.1920349319788680 -0.4425551287595747 0.02556918488718119 0.003174475152665346 
0 0 0 0 0 0 
0 0 0 0 0 0 
0 0 0 0 0 0 
0.1822552279714450 0.09226281518593846 -0.3790539817176341 -0.7190442350311681 0.3517966041123545 -0.7104044276052953 
0 0 0 0 0 0 
0 0 0 0 0 0 
0.2054340133980410 0.006703928777031881 -0.2944054850868875 -0.1141743417810873 -0.06927085978718311 -0.02239654587209168 
-0.2348083562805955 -0.3975217557300423 -0.5097080747196132 0.6408842802645147 -0.1413224419092189 0.2062924989096446 
0 0 0 0 0 0 
0 0 0 0 0 0 
0 0 0 0 0 0 
0 0 0 0 0 0 
0 0 0 0 0 0 
0 0 0 0 0 0 
0 0 0 0 0 0 
0 0 0 0 0 0 
0 0 0 0 0 0 
0 0 0 0 0 0 
0 0 0 0 0 0 
-0.3749692559446885 -0.05097537961752567 -0.01211351214988048 0.5339189366352528 -0.2281816279848048 0.2111615827845451 
0.4007971983404782 -0.3269346912629094 -0.2330877901627320 0.3318509830690092 -0.2078960582620916 -0.3840976581721167 
-0.7101273024578042 0.02209452166186818 0.4344321515461582 -0.4795402832016696 0.1641198508118814 -0.3314410713200297 
0.2808072808729467 -0.8723915242174884 -0.1341409120454740 -0.01373878120069787 0.8330756366674328 -0.001152044474307565 
0 0 0 0 0 0 
0 0 0 0 0 0 
0 0 0 0 0 0 
0 0 0 0 0 0 
0 0 0 0 0 0 
0 0 0 0 0 0 
0 0 0 0 0 0 
-0.6339107668954433 0.03910733245157805 0.5954334331170891 -0.3480200325919789 -0.02474721767879042 -0.03220476660103900 
0 0 0 0 0 0 
0 0 0 0 0 0 
0 0 0 0 0 0 
0 0 0 0 0 0 
0 0 0 0 0 0 
0 0 0 0 0 0 
0 0 0 0 0 0 
0 0 0 0 0 0 
0 0 0 0 0 0 
0 0 0 0 0 0 
0 0 0 0 0 0 
0 0 0 0 0 0 
0 0 0 0 0 0 
0 0 0 0 0 0 
0 0 0 0 0 0 
0 0 0 0 0 0 
0 0 0 0 0 0 
0 0 0 0 0 0 
0 0 0 0 0 0 
0 0 0 0 0 0 
0 0 0 0 0 0 
0 0 0 0 0 0 
0 0 0 0 0 0 
0 0 0 0 0 0 
0 0 0 0 0 0 
0.5323065474406863 -0.04151603932930288 -0.6333980680487482 -0.8708421389145614 -0.5309457508132787 -0.4680823063864780 
-0.1079403314954067 0.4019348728679971 -0.2065385136138333 -0.5129114198835891 -0.3124200203851660 -0.2213564006378276 
-0.4709942403556944 0.2508311308848555 -0.4581939800412632 0.6887522169036763 -0.9965730278620178 0.01469532547187930 
-0.6999556978653476 0.4845630804250690 0.1628133617795340 -0.4031781332660266 -0.3636618088919367 0.2420047291191566 
0.1434021101770290 -0.05883383757303937 0.3681504248627784 -0.8425805438205395 -0.4895215482301421 -0.5959626102598685 
0 0 0 0 0 0 
0 0 0 0 0 0 
0 0 0 0 0 0 
0.1078379802989575 -0.02668479400764846 0.05319249458983218 0.2173951495538042 -0.2258012159290461 0.9777618081987447 
1.052491512383510 -0.4175027671940767 -0.8237294842452304 -0.2578456730365707 -0.2518315952911691 -1.131459310098623 
0.7273162697555107 -0.4821541333058487 -0.4134160951958203 -0.02802902557229140 -0.6468052239172548 -0.3886656095993840 
0.5101638932431429 0.09849880469225525 -1.282118474822694 -0.2918689682335112 -0.6369582599112252 0.9614522763637632 
0.5810412619766919 -0.04096442356634436 -0.9505309785007530 0.03205629847571678 -0.08084967376086849 -0.8175043006938383 
-1.329384500659558 0.4831811064619971 -0.6420208585580420 -0.05745789988117964 0.9126157637627146 -0.1887423710399996 
-0.1396310365069368 0.08495519094859658 0.4662826947362001 -0.1429787295841871 -0.3977831634009219 -0.06374652567323530 
-0.3730721020632941 -1.002204148514154 0.1457361849240112 -0.4192896667107861 0.6812910412756359 0.2092298639573664 
-0.09348513175773873 0.3512679519384755 -0.03991492151787027 -0.009428178508199640 -0.7579762706411572 -0.003243199574951782 
-0.04278302463692675 0.5381662197597605 -0.1091307833044019 -0.3748039787778586 -0.4181948418552077 -0.3643440700039931 
0 0 0 0 0 0 
0 0 0 0 0 0 
0 0 0 0 0 0 
-0.8303984798821317 0.4496003815540113 0.2572959697442051 -1.045779925927309 -0.1485275249843712 -0.1173510184683760 
-0.5128236221093535 0.6323035648347157 -0.6328387283774688 -0.7444918772223923 -0.2156003057643994 -1.172402877144758 
-0.2799881432367500 0.9653599677568361 -0.5936711468460306 -0.6621295575382355 -0.7441764044170589 -0.7911979821477466 
-0.7258403392001692 0.5533558637683036 -0.05024293664689833 -0.2717784503484172 -0.4716876243180582 -0.1416311155277229 
-0.9623302523360208 -0.2193522396747721 -0.3962452742159880 1.101783471726054 0.3041304149936154 -0.1343935953192409 
0.01049361499531944 -0.3024155596272293 -0.3652416018795315 0.2230878913700280 0.09867519687763100 -0.1485766062826312 
-0.4885851128555703 -0.7512738045949530 0.4746945325072663 0.8911790375286281 -0.3418988619574573 0.2064540148030139 
-0.1605186677420664 0.7848666051054084 -0.2179954515493817 -0.3850874373988175 -0.01182783934335093 -0.01819517093175953 
0.6332959313296771 0.1495224516710436 -0.1108907762873537 -0.7958659269500203 -0.2707893755644890 -0.4730209196559161 
0 0 0 0 0 0 
0 0 0 0 0 0 
0 0 0 0 0 0 
0.03602069630605228 -0.05507113961991293 0.2577893970322657 -0.2812230992037637 -0.1227193946711533 -0.3158421004532825 
-0.3717642440456717 0.7214627161573959 -0.1156319158563729 -1.052105316073910 -0.4273422626479855 -1.588394352558610 
-0.2064814093763331 -0.3230669894475924 0.4794736069796993 0.2165168744613350 -2.159462325368609 -0.9783076786238876 
-0.7240825024024710 0.5522100632492344 -0.3203840073243081 -0.5568493890911264 -0.5557380901381116 0.9079424659418217 
-0.6274086600429463 0.02228961726591272 -0.1799575818732269 0.3297028448978378 0.1407438965370195 -0.8812608579870359 
0.3037722695795643 -0.2849554158181261 -0.1533429435109646 -0.1330686512372243 -0.7557682726567072 -0.3328249860783910 
-0.3180048894715402 -0.07743399091865442 -0.02982809738059891 -0.2107818221171401 0.2242115960946136 -1.010163711276164 
-0.2724365668248590 0.1023833196204643 -1.165081901187945 -1.069044181601822 0.9815797743336332 0.2232457494141418 
0.3569381854442315 -0.4421021494272081 0.06930997801683535 -0.6850991681307275 0.1088851509852092 -0.02157467643432087 
0.2712567500754011 -0.1957205939384968 -0.1290976000505529 -2.343784402122537 0.3804669611804321 -1.240670044388894 
-0.1075974246625368 -0.3326200335847543 0.06739356594371626 0.02111694425313110 -0.2315624452306385 0.6302014514598774 
-0.2034795552610915 0.03949708563685059 -0.2110347964374161 -0.2793085317640347 -0.02217151088241426 -0.1959482948809691 
-0.02111177502925616 -0.05227341263733193 -0.03547397314772022 -0.8053640323043385 -0.08072682226474619 -0.05951000675467807 
-0.4762221915113056 0.1025496499658671 -0.8701525759901628 0.8083330479147398 -0.2848707378093647 -1.062946446639719 
-1.069386289537515 0.2561645099782879 -0.2086966671697830 0.8736307196417659 -1.493719319784104 0.02646570408867022 
0.1188369128319519 -0.2682727508963991 0.08725110057141160 -0.3832472384376077 -0.2829643954221210 -0.1905360579281279 
0.5660126471900225 -0.2758324702914097 -0.4617643991785839 -0.3293569137457920 -0.6617558287922661 0.2668935152145448 
-0.7200184679588009 -0.1002255016015416 0.03567696554128551 0.1026127102299543 0.7129430463471270 -0.3497441206991422 
-1.356836973555520 0.1993632645187578 0.5126822334905291 -0.4779855742970904 -0.8189463855695029 -0.2368956268494568 
0.2278418169215895 -0.1654501032248563 -0.03518668287884338 -0.3372907010682248 -0.1434307862965390 -0.8101213974124903 
-0.01426801417451009 0.2634092701841297 -0.8143014621568253 0.3809637934923598 -0.06688450447705344 -0.3979477784379749 
-0.04190552027367765 0.1053860274927664 0.2209926562856516 -0.05566501709125894 -0.3893463325999407 -0.5243408410586120 
-0.2363651958358536 0.003407444680925825 0.04120871150227681 -0.4152617039085456 -0.08682897942069977 0.2743851768464240 
-0.5527551814066304 -0.3389529092794829 0.8982242987952704 -0.1061945879847831 -0.1302306347682755 -0.5402464900022892 
0.07680929443121990 0.1020483169414393 -0.9167517319466306 0.3677436596377056 -0.1292542019397211 -0.2670479190781145 
1.441642149772094 -0.3775645493824483 -0.9287734114399807 -0.9684554053683769 -1.131688973211845 -0.3585412103918331 
-0.6858395066121712 0.1141530662255674 0.6046666614628848 -0.6430852760472501 -0.07874071680027533 -0.3188726205344459 
-0.2233348819593894 0.3143962960264489 -0.7113371864450044 -0.3670509015034245 0.3360567406636658 -0.6306489839454315 
-0.4751575406055630 0.07588725640923608 0.6055275552354118 -0.1863971303940726 -0.4155404659193222 0.1025527757709590 
-0.6153413419768596 0.03400422263225705 0.3264473927605145 -0.1153278779814617 0.3739540343146424 -0.1736023702411173 
-0.5961188672854907 -0.03992040469854577 -0.02573321525195885 -1.211443522241476 0.8151632815688802 -0.3503669815428679 
-0.1614532179043060 0.2617832727102443 -0.7182404108867348 0.4384638791226522 -1.882253042064945 -0.9168786196043099 
-0.3549667408485863 0.06195720923445597 0.4223177996730376 -0.5207490341946343 0.02433577681649061 -0.2690493319581659 
-0.4630008816483674 -0.2537621454873798 -0.1790361509288607 0.1617452709248632 -0.4114957871292904 -0.2414761392913626 
-0.2019777798975396 0.3032502024077562 -1.142079957883203 -0.1058197357912623 -0.7745639889943785 -0.6745044930880898 
-1.103866726213351 0.02633246549768581 0.9146700659911107 -1.486597074444602 0.07655504481782156 -0.6627278314743561 
0.2991615801677588 -0.4205302599651167 0.6622162237028868 -0.1712890501119824 -0.3467899563325980 -0.1295119880092495 
-0.02729408241416588 0.01491929163268803 -0.5568027533883242 -0.2550616592938194 -0.1306453171519708 -0.7196625058505867 
-0.1722633254362918 -0.1717467870373168 -0.08250495257493094 -0.5053916896455588 0.3484822981945606 -0.6563190162079394 
-0.1544911044850753 0.1459821517340207 0.07924039370432916 0.2727265533727391 -1.275146338310428 -0.7616664249098429 
-0.4204703720913552 0.3370631987156210 -0.3260036335822565 0.1140285147992780 -0.1346334578591953 0.7753882605349185 
0.01731024231165752 0.2136655976753875 -0.2063582020412328 -0.2010283464923295 0.2214327816320748 0.2366077165642534 
-0.2680784922221789 0.05670917441984354 0.1165235179785727 -0.1029050671418533 0.2211063114849342 0.2055181489158278 
0.3301871747188264 0.7091740190630734 -1.698308472594260 -1.040084906573602 -0.09493132803883572 0.5643146800689947 
0.7426638772577001 -0.8915741218054485 0.02708704530509772 0.3487352887089197 -0.08830226886631634 0.6389747106304559 
-0.3050387461649686 -0.2485475810589289 -0.6326131789263604 1.119951073594863 -0.2886322752382123 0.5582614666744149 
1.057427340007900 -0.8561168141396052 -0.9234820572305859 0.5429238256233084 -0.7122732516474387 -0.2166322222910280 
0.1082000506324349 -0.3625413117698119 0.3368056577225385 0.04066517402175091 -0.2209220463288965 -0.2234009600081227 
0.3354604820989329 -0.2671981120484565 -1.218404243947067 -0.3109409318696665 0.5270065537411688 1.581567705076068 
-0.1900249837348379 -0.3789645674809266 0.1795191242657194 0.4685789675829722 -0.6169180881074743 0.5543749603004434 
-0.4631269668359343 0.3185621575917048 -0.9542321192990532 -0.4622827454524131 0.7636291473608733 0.3096635930558514 
0.1044560309989893 -0.5153389800648613 0.2544333949157915 -0.2370014953318667 0.6216501405897024 -0.2292624624134684 
-0.8138794468046790 1.128255618711769 -0.6839379556709111 0.03453921328749045 -0.1333545802715601 -0.1969758259592778 
-0.6580674145390955 0.06257057888272707 0.3413025224809321 -0.1558001650393360 -0.05481812079817566 0.7040484044945083 
0.5445162803267992 0.3877727198447161 -0.3940258379227845 -0.4138303775491631 -0.5561226622850844 -0.6767759989466116 
-1.007247211509176 -0.3798584992609686 0.4041267692022790 1.336659242348041 -0.1413948142298241 -0.3363705947802241 
0 0 0 0 0 0 
0 0 0 0 0 0 
-0.1522030128764102 0.6164595442170067 -0.2963892817130125 -0.1845389797305108 -0.02160425583501105 -0.02509922337291629 
0 0 0 0 0 0 
0.5236603366923639 -0.2700883757863926 -0.09646855883654955 -0.004470960687912307 -0.02257239629500138 -0.04104126893343675 
0 0 0 0 0 0 
-0.3733034638729459 -0.007144563911067492 0.06901256282739873 -0.1517956589007046 0.2739773255436934 -0.04192645231089870 
-0.6196579632674774 -0.6597401139855541 -0.6570620095938780 -0.05169961547970589 1.847317451266434 -0.02495921177466949 
-0.5310136743923193 0.1836836248105128 0.2643605467023242 0.2015752343374471 -0.5712831735520113 -0.1678850967362552 
0.1913880180195418 0.02813317481438041 -0.5979716582457538 -0.08993825635689082 0.4650088548454012 -0.4252842520522828 
0 0 0 0 0 0 
0 0 0 0 0 0 
0 0 0 0 0 0 
0 0 0 0 0 0 
-0.3595964717984997 -0.4280865728488738 0.3887732761975741 -0.3318172128667365 -0.01337715977909051 0.8416858628917868 
-0.2506554828736224 0.1424894684226117 -0.4372338443358779 1.094199648224457 -0.2797713316817794 -0.3969163868967068 
-0.6360166311330738 -0.1860388294544950 0.8008118582128733 -0.5355479675295264 0.4803963811614987 0.06989886390527011 
0 0 0 0 0 0 
-0.3823787577236752 -0.2465226702494148 1.101291082167293 -0.08966740484863381 -1.026362143021594 0.5128851548969855 
0 0 0 0 0 0 
0.08801694905026951 -0.3805469873090229 0.5169777471659512 -0.3403833347643072 -0.002736329235903490 -0.2064447111111573 
-0.5695276923635745 -0.6119309541035309 -0.2842038341955840 1.595665944192876 0.2809283155584116 0.03242716572721374 
0.3029842973642247 -0.07353456347813823 -0.2020495471309111 -0.4575352792217403 -0.03823945447122097 -0.1934686352909759 
0.2223302446099315 -0.5457663067052043 -0.08608335379330431 -0.02044516957264402 0.6766454507573206 -0.01128791098894685 
0 0 0 0 0 0 
0 0 0 0 0 0 
-0.0006605347334909389 -0.3797175696736534 0.1518971425884289 1.248656464808516 -0.5427141616644425 -0.06831147346255449 
0 0 0 0 0 0 
-1.245843493701027 -0.5115001023471910 2.184701499180816 -1.072043668344311 -0.7789545446892097 -0.5274621825214323 
0 0 0 0 0 0 
-0.2603189819824645 -1.392557284734989 1.892612230530895 -0.1032593861238133 -0.1538088403057428 -0.04032355540172559 
0 0 0 0 0 0 
0 0 0 0 0 0 
-0.3605581591234948 0.4510641504441821 -0.6635334950250764 -0.006342093657579653 0.4070794943729987 -0.08656098616233347 
0 0 0 0 0 0 
-0.6766418231163571 -0.1954738694105985 -0.6867991904576103 0.6882757751294515 1.099289897983478 -0.03089850175648043 
0.8033029505614120 -0.1090592094930052 -0.7510396820987810 -0.9963625644828440 0.1504363738275516 -0.2188061991957772 
-0.1427229353696692 -0.5526194464248770 0.2737987480806952 1.872168471693972 -0.7461212156259766 -0.006183556473882314 
0 0 0 0 0 0 
0 0 0 0 0 0 
0.02032634618320492 -0.3077876223780393 0.09487037381865449 0.5703608805537480 0.02643540452110396 -0.09530907963900852 
-0.5122574370524390 -0.1209882303432896 -0.06702895019160822 1.017167627218746 -0.09448123114244561 0.6248603724582538 
0.7087363713124770 -0.3072209351983891 -0.04638615048627323 -0.2638025456231037 -0.1663527650579263 -0.05478543527827317 
0 0 0 0 0 0 
0 0 0 0 0 0 
0 0 0 0 0 0 
0 0 0 0 0 0 
0 0 0 0 0 0 
0 0 0 0 0 0 
-0.7877324019738424 -0.1101077388886396 0.5911537258474335 0.9379055475336548 0.01399047828187039 -0.4104610764658593 
0.5968955524801212 -0.3745623925750876 0.2200695864994898 -0.7096454413270458 0.5561960247312854 -0.7822262038915414 
-0.7193983883875753 -0.2418001098442057 0.9967975068801728 0.4923243221769027 0.1273135894479343 0.1110366599043037 
0.05495884896367651 0.03491847610904331 0.2870012848707679 0.3639809686983899 -0.2790815327726233 0.1063026869370348 
0.1314772716399947 -0.3404409869556822 0.1580999077841556 0.3098973864625925 0.5917785544421706 -0.3031189827197593 
0 0 0 0 0 0 
0.7021293689652599 1.051090105539031 -2.128088878366398 -1.577012085753477 -0.6193842563986143 0.1132791100645531 
-0.3860680159480155 -0.7627978398308692 0.6546819436028698 0.3576856167153002 1.187904736915053 0.08710988389317983 
0.1072844888404263 -0.3516094038048299 -0.3190871057775654 0.07528419417304183 0.5256653609219547 -0.05060136774822606 
-0.2160662245900745 0.3600549456856776 0.1373976579953649 -0.5612994087391654 0.06122439363154299 -0.7533031968249548 
-0.6784553474969692 -0.1692779323697723 -0.9131263052940797 -0.04114575357633924 1.552419771021028 -0.03197379133131325 
0.3295551829571830 -0.8193050789195504 0.6196933336952708 -0.3146296992846529 0.2500683746427475 -0.1002592742974580 
0.2327952826422425 -0.06019472725563277 -0.7886851795758543 0.9370495356500009 -0.8320988630531411 0.5835483927766504 
0 0 0 0 0 0 
-0.1977724841058547 0.4843555119057599 -0.4996345456971895 -0.7078376706826528 -1.595952997650403 2.372845250436272 
