solver_type L2R_LR_DUAL
nr_class 6
label 1 6 2 5 4 3
nr_feature 599
bias 1.000000000000000
w
0.2779483554196687 0.05820727195499079 -0.3670837322264245 -0.1895984543584572 0.5097846483439996 -0.03883251496260490 
-0.1271880524395652 0.7957281249314415 0.5011767387889299 -0.7281580472156409 -1.082060719799827 -0.4321807562732034 
0.6042567625075284 0.1080149337910058 -1.478680164086464 0.4014566445012494 0.4461763496163260 -0.08183840520225570 
-1.628649201905938 0.2426499345439227 0.7292915004788751 -0.09369975283619200 -0.1683652602804883 -0.1420242549109711 
0.2776093693301021 0.6305158117250735 -0.3748027224990513 -0.03441405122212788 -0.3930210499121671 -0.1433935506608895 
-0.8052122653737406 0.4100187800720796 -0.2528422535533700 0.07659689536851379 0.8652563112191372 -0.4988202225996745 
-0.1357502136909020 -0.5694460546253522 0.4072460992641415 0.08423427673550467 0.4205939689528954 -0.2591762023044665 
-0.009544393795090976 0.2120269464971669 -0.1562671920243140 0.4220619315197231 0.5131769933048779 0.6705182587934742 
0.2802810896055611 -0.4721868209507027 0.2482065649307832 -0.09298745644135409 -1.806836372779659 -0.6305636670270990 
1.268885912182183 -0.6564202954190175 0.3750669825051511 -0.3968744265096072 -0.6943667921966329 -0.3791285196039700 
-0.2628032493926306 -0.5803124255272183 0.5225476572383779 0.7938506398026928 -0.2387526411695356 0.1400151883651295 
-0.2368709213201955 -0.1461913440784077 0.01008556978008341 0.8272338933664793 -0.06273913513495674 0.5333092730974510 
0.9590199021207741 -0.5171370119432963 0.4207387908618435 -0.04939975446441967 -0.06532746546638696 0.09214155947271813 
0.3612726906313690 0.2094436131647785 -0.7208824869703597 -0.4601339157595880 -0.4228031860922576 -0.5928254095499789 
-0.3987914817869697 0.08651397880569490 0.2783936628940716 0.6352417801538668 0.5222835083028028 0.7949099412006315 
0.2548402069791457 -0.5648406932779211 0.3300338635001102 -0.1530285330048795 0.03594574620293776 -0.07200430566571969 
0.3860629681991087 -0.4160721505478732 -0.5479800391703429 -0.0003158740783289394 -0.2417544127331072 0.04352728165867325 
-0.7564892598091313 0.2250772256014839 -0.3540037645893965 0.1734372127275695 -0.09828540110053488 0.07080071039415045 
-0.07080352713966329 -0.3053049394055671 0.7216292717272812 0.5458206784206985 0.3505738046872783 0.06705904152856028 
0.4427174405614059 -0.4006424610231549 0.03620076631273467 0.1057943594137841 -0.003271151572133548 0.5980731300635495 
0.1535780483911451 -0.5711844301257950 1.140824483312746 0.03416375407079419 -0.8018903279421723 0.2010021658276476 
-0.2705849051027873 -0.1183972406510339 0.08676304764547786 -1.253481075897535 -0.4127195888999090 -0.2277822867322769 
0.1994212500392315 0.4642271831931819 0.1424479015662318 0.6352038164004153 -0.5552162817999761 -0.5681748334746143 
0.01692637594552398 -0.1304672211214713 0.1777127010983522 0.5819712804140180 -0.007428067009844773 -0.07465111055352408 
-0.7203637918922698 -0.04760514506007400 0.5351743597756917 -0.2136480575688087 0.4990782966691336 0.04541361263352470 
0.6992723783863918 0.4809193710000669 -0.9479990831497175 -0.2104593510415293 0.3939156012982786 0.4625001028588628 
0.07123136018465627 0.3111563821683273 0.9071368212965678 -0.2134500423614990 -0.2775922893049130 0.4802685666780444 
0.02797322273260320 0.5242826239579336 -1.614479291516793 0.2814205785649580 -0.2171317234981348 -0.3663867325017731 
-1.048470596646993 0.9979994197757310 -0.3016219455664620 -0.9329743077956173 -0.001201154903336534 0.4842669757899874 
-0.5384826336502261 0.5282919507996314 0.3840512779968798 -0.03534421293255941 0.1031136485923221 -0.1842267755087498 
0.4133115099916407 0.1361948704177832 -1.632706539970937 0.001237308442289195 1.109096310579852 0.2644569207976237 
-0.04321129615349447 -1.045854753681981 1.555768139678615 0.5285166822832909 0.3781210192213976 0.08578394183094344 
-0.3889326122788563 -0.08012715752867370 -0.5401273903680930 0.2609482921008590 0.7368997188211630 0.3391787147555265 
-1.094926896712164 0.4298307866527292 -0.2156835669594470 0.6678233618898700 0.6820537474525040 -0.1185554805341724 
-0.2404380852279957 -0.08879117431373804 0.2668651177311372 -0.2553939605470788 1.029976838860428 0.1630378867494450 
0.4993818870330136 -0.4744012742694503 -0.5349973355545937 0.7298366130337652 -0.4662304760013749 0.05991317801082351 
-0.05454064679515171 -0.2755756947158906 -0.1620757842595232 0.3456679155200259 -0.3608287770803582 -0.05465606065839547 
0.3758756302942653 -0.03216790619646105 -0.4873881557075256 -0.03762332640198945 -0.2988642936124631 -0.2492018631597037 
-0.3111701297179735 0.1750589697334835 -0.1329521461473590 0.1762651426827322 0.7132410951820568 -0.1642432505114204 
1.768393324872494 -1.468692223335282 0.5913369146819035 -0.07585888528454664 -0.2920702069996646 0.4479911410996060 
0.6860879357811600 0.005860277857717785 -1.821271641371485 0.03495783220747199 0.1907007825849062 -0.6400500547286331 
0.3325832687896104 0.3521392234641010 0.5790199494828491 -0.2614826896379104 0.2223821088974258 -0.1040079360720410 
-0.3908187250758552 0.5988472217504396 0.08516063415002872 -0.5907330927008526 -0.4758651601216904 -0.3719532800700941 
0.5358810416592399 -0.6320576598188773 0.6174248075362962 0.01444440408348123 0.4079918280970132 0.7419537116084822 
-0.5129447407293980 0.2038604186422215 0.1979091065180026 0.2346991114382512 0.4073715331085284 0.2728738484779728 
0.4892116302067348 -0.08118912060477602 -0.5795175038499902 0.4745965340315383 0.8477635648189379 0.3168565243698348 
0.8080109981881833 -0.1033474465941622 -0.8934093373003582 0.7063259472755506 0.3884815846459759 0.4513777196900193 
0.2581395758723676 -0.6878538157784266 0.3775750062182099 0.07990065016977665 -0.2043843501141718 0.7416500573044370 
-0.4277752931594582 0.4521015715525379 -0.5378989887239100 0.4993717731635713 0.2205550511348561 0.09487786606642640 
-0.04659761141581018 0.3582077680285677 0.1218052417981322 -0.09689491570893448 -1.055172301563971 -0.7194887019261723 
-0.6453491328840514 -0.5470522297754556 1.509878280967016 -0.2053215948886848 0.5438182408410066 -0.1547099929295116 
-0.2351499283139673 -0.3554973005100240 0.2370528086206676 0.6813839855550152 0.5081243138178806 -0.1661166588603233 
0.8359112863116391 -0.8065813430467682 -0.1475674940197777 -0.1947236479732451 -0.09334231219385960 0.08335555997103819 
0.4022464596636780 -0.5115218662266424 -0.8139699616150806 0.01390667622177154 0.8881783524077760 0.6683954044066877 
-0.2046472727324354 -0.4829158238695274 0.05025980997644937 0.3419646915687454 1.314927072405106 -0.5774198661933531 
0.6440788400645359 -0.03207489271758504 -0.8289647701680048 -0.3854026082622757 -0.5365533272690833 -0.4368187491470358 
0.1866472652062724 0.01490032953063510 -0.1460087804958844 0.02258549098432644 0.4984685663850141 1.027552309364611 
0.9628458444781783 -0.4417723353152102 -0.1378417227728555 0.2001654955068079 0.5231533418669112 0.6621881374197836 
0.8215757717695291 -0.09387298488739719 -0.4407493091024453 -0.1408924334492735 0.2428799896310914 -0.4131193086649165 
1.530869513203187 -0.3616130769919820 -0.4554261415797417 0.5839028421243550 -0.6909191813123039 0.1899785407980647 
0.5176440687487650 -0.06667742670853025 0.8200858627767661 -0.5755696320541537 0.2540322325341216 -0.3650794783908707 
0.06839798264775910 -1.122376611534156 -0.3267896983103666 0.7157960524359543 0.9738660956471016 -0.006418630269156480 
1.044753437285740 -0.4252016437003462 0.6697634959935909 -0.2107341898699204 -0.3524861390069400 -0.4676442084516269 
0.9261077615574819 -0.3683100558675722 -0.06092378229581028 0.5478992105727306 0.4077388969163902 0.3235969188594394 
-0.2118062247410938 0.2097084531408563 -0.2055839126067313 -0.2032315273178152 0.05655454750833377 0.4634231539830644 
-0.5430925023187627 -0.08227950456457765 0.5787501379500396 -0.1937649268620172 0.1063244296799342 -0.1409765642745366 
0.06958686555667123 -0.8451750009792703 0.8416444068739382 0.3249675289940897 -0.06448683610809137 -0.01617287769209693 
-0.8916127293580247 0.1242083217713152 0.3789913542304185 -0.4586623973944266 -0.4163861996507016 -0.06105454479508352 
-0.1240744735445330 -0.3285936811779298 -0.03635448219534165 -0.4767420121837539 0.8323236303471232 0.9868090006053560 
0.2321389370047548 -0.9015525280441021 0.4319535111108931 0.1559979274626716 0.02005374748073323 -0.6094683382921521 
-0.06324314381758893 -0.3290941073395344 0.3345516625018221 -0.07197914485336211 0.3142021949509360 0.2241744834539304 
-0.1737598874133690 -0.3543498467372854 1.148085301520471 0.3374077885625518 -0.03787918265381562 -0.1771235022655195 
-1.283133371233254 1.211734444381428 -0.4125280465260173 -0.6442279609648492 -0.1145551088101048 -0.9722689811125630 
1.153998795120872 -0.4675232809520970 0.2288003186153442 -0.1803986712351516 -1.001541645975959 -0.1659708154067385 
-0.6171147096457218 -0.03137712833784115 0.2825830399865974 0.3594071352277858 0.6331747942432175 0.5738985714074059 
-0.3784522093474064 -0.1000768718549418 -0.1380399195667249 0.5080559722050954 0.2954220120964923 0.2203743747809621 
0.3713871100148498 0.4836518032444547 -0.4509265032274403 -0.3276517959198163 -0.6914453483403816 -0.5746990469238932 
0.6384904652624249 -0.9425039993882032 0.4903839499207065 0.1631294519067126 -0.1101576242604815 -0.6858348655577182 
-1.086775526730367 0.9599274662326316 -0.3054622096293826 -0.1750218327757529 -0.1752995615365724 -0.09319056360995709 
0.02942495440097669 0.1741817540788296 0.5620838963974889 0.1555889627236385 -1.027742333541788 -0.9528057257326179 
0.3196265629333704 -0.4261994715748768 1.312471032013134 0.2149156116990957 -1.579226970218832 -0.3007482099343762 
0.2091272194879973 -0.1210066674854844 0.7754078585395703 0.5799773094087193 0.2483676564988976 0.3223232682080630 
0.09812456231941300 0.4190962371911949 -0.3171964891619677 -0.1833400613371319 -1.186177367278066 -0.7060587038493535 
-1.683409191409498 0.8580040690114069 0.6466649496040879 -0.4270256344799555 -0.9266082954869188 0.1049600022257873 
-1.029880899726767 0.7739858359589891 1.120660388196443 0.006476247513042158 -0.5515892164205656 0.1834680260584745 
-0.3302479460852937 0.5865093142796745 0.3549336171032487 -0.7364339133390849 0.1757551332478040 0.7740645513579932 
1.359302399949630 -0.7087659697773974 -0.1875073592117626 0.6873517591616604 0.09716933711144900 0.7157864990245933 
0.2283562641220373 -0.2141109691413726 -0.04658621976071786 -0.5415082801057013 -0.8897443227409929 -0.1131178002377056 
-0.3463219543533546 0.01269645086724794 0.7865886339365868 -0.2791374838891695 0.3224987155788556 -0.2524690680227397 
-0.2644955253515146 0.1150418507808819 -0.3433620579363782 -0.4198288339921108 -0.7016117226509666 -0.1414838198338788 
0.4022957472127403 -0.2958613555275107 0.5302374493526844 -0.4515954838613329 -0.5551480903088367 -0.5313031516440506 
-0.3480250236726208 0.03538760484009147 0.4230573967902838 -0.6441128148492217 0.1563566427510972 0.5652677726575910 
-0.06705283424649214 0.5202594903588296 -0.7538889207226713 0.1652461841689056 -0.09658228190968358 -0.3338671745746899 
-0.003742427446203836 -0.3168469040806463 -0.6214147310470427 -0.2323591899976127 0.6790611730070127 -0.1549366569327677 
-0.7819205407291496 0.7909016943048129 0.4577282671602118 0.2255478891527001 -0.8618834232215787 -0.06672142905094865 
-0.2772495679707253 -0.1797131852551807 0.6045187814634985 1.093814116056046 -0.1106114042536664 0.3831569193056945 
0.1975250319090795 0.1234664762752506 -0.7581515805782344 -0.4090645205101123 -0.2617578817294925 0.2344633080293303 
-0.4094080338086857 -0.003305258031531491 -0.2066062817422023 -0.4935324710437278 0.2298471738801187 0.5863316216072485 
0.7577385943839026 -0.6260564709514880 -0.9962540594070236 0.1877652873666901 0.9439882107639546 0.1999018814705942 
-0.1224906728178974 0.1084249329977551 -0.4249506770754113 -0.004884772617415753 0.2005994242571948 -0.4976885789460352 
0.1270084618484693 -1.115985649236575 0.4516297718065290 0.9546364292656980 0.07493009032407327 0.6057463450713440 
-0.4420145738767485 0.4211820437135885 0.3027674523409957 0.1771097320587572 -0.3553234469931000 0.4494418967087717 
-0.2870445165743883 0.03357816252771269 -0.2078894649261285 -0.1233168825208113 0.2550864155247553 0.09603762669208656 
-0.009093737984253251 0.5136997900289930 0.05761023436022014 -0.3304296370881361 -0.5236357034379449 -0.07290325006647301 
0.03343636752647741 -0.1567828651339241 0.3799873981003029 0.4936367612528411 -0.4851248045746541 -0.3506233962174437 
-0.3123903665285733 -0.02493234221229238 0.2989105661135026 0.3830580596590130 0.5820516306978392 0.6659358277921242 
0.9952388467271636 -0.3244654229352962 0.07750107368947817 0.1019801884601019 -0.4604643950217608 0.3846071307170913 
-0.1444479425579950 -0.1329868108807020 -0.2905433355372919 -0.3301444181132975 1.192591471962357 0.6637367158190944 
-0.3282235260358453 0.2641955675849584 0.1851445315094394 -0.1783782690649683 0.7839043255284623 -0.2292942353999944 
0.7483528043568617 -0.5892633020952173 0.6849628654081655 -0.2155577569667982 0.3318685144349094 0.1850687841601845 
0.2965194049125334 -0.2424069399372495 -0.4660037637605122 -0.3091858246660788 1.078283440243610 -0.3987320752121319 
0.5797531864439567 0.1474906554732018 0.6789007932099012 -0.2368098463965086 -0.3721565764223508 -0.2646307793266341 
0.09850859029755137 0.02671423679845459 -0.1839232017959822 -0.3853164076849571 0.03898309250525657 0.2320452841238094 
0.3666203312894141 0.2140954225128000 0.1352482248232801 -0.9320108808980375 -0.1094871350137270 0.07839667095096414 
-0.6492073416621184 -0.1792692811459953 -0.1154198643747155 0.5146834104658454 -0.8768847862889395 0.2328032794980890 
0.4124696699360499 -0.02545256267178729 -0.2558971933592018 -0.007755653419129552 -0.05701481943854420 0.1365509886471927 
0.8443554565576410 -0.6002627593699389 0.1238655528906798 0.7257649348046623 -0.9062880330887243 0.3198090678541281 
0.4311627847070222 0.1371098051231330 0.2285327056943413 -0.6066289419224078 -0.9230826113547579 -0.5208564054252700 
-1.492260902565428 1.146968386320405 -0.8628182479220685 -0.9780113036519776 -0.02890015162824785 -0.07778644058515018 
-1.234448745584829 0.6141019275076235 -0.1653790339310243 -0.4533835168155946 -0.1710824831531084 -0.6901451859583331 
-0.9224861873310491 0.06700410705681219 0.6089481332216337 0.3318863660146350 -0.7231883278162900 0.001887075367104285 
0.1904555802999213 0.4984636268073170 -0.04012292965806004 0.2933214912718992 -0.7164822171744920 0.3435207089855237 
1.320817699676924 -0.3723054377902654 -0.4013152244013014 0.4827122916597174 0.4727412807884215 0.1050304242447355 
0.3767017923173249 -0.8414480808835537 0.9258116490774496 -0.04801993404058771 -0.2780669908484644 -0.3517709205411384 
-0.07455977856014097 0.5344464553649921 0.05032019587008493 -0.05558961614419310 -0.7543527424501081 -0.4187730640635998 
-0.1079879890326178 -0.3285461969017852 0.7793219999361660 0.04071235651737278 0.1984275387504706 0.7522563820129355 
0.9273093599208356 -0.8619171790877610 0.5169570023955724 0.4722636237882844 -0.06576464942008069 0.06846828698685924 
-0.5468695472713369 0.4250203725009585 -0.2789614718044847 0.07672607125326565 0.6200012689000806 0.01497521836221301 
0.7364301532790108 0.2593974329909270 -0.6356306814239300 0.4160459923321461 -0.9727942928610831 -0.06018813961494873 
-0.4423282857442140 -0.5221643577232552 0.1098002854098835 -0.1868493445127898 0.02574830536027839 0.3584553808774175 
0.6163843128719942 -0.6285692280949510 0.5165465356943847 0.3336617837585588 -0.2798654888956527 -0.3875092892283081 
1.010870997553060 0.1870744624572468 -0.9526040167930786 0.1314592238424176 0.1441478810910206 0.4307046090715005 
0.3490446682751406 0.2496326958087472 -1.129131809154439 0.4265339923980475 -0.1675565238579627 -0.1051391021222967 
0.3656884575296814 -0.3719819620886424 -0.3134900403034948 0.3847763036446595 0.9246662941932616 -0.2202713285971794 
-1.270988776037214 0.1709280771273586 0.2764836924940357 0.1754192864239100 0.8253756319621839 0.4819681558622414 
0.6830282835625371 -0.4018618274588866 -0.4098340739733252 -0.07334096253134198 0.2390772215457230 0.07459077504807780 
0.2503578196921234 -0.001261555313367021 0.04965595395156092 -0.3052424948193834 -0.5556999950279079 0.2750074045453329 
-0.5130944053675149 0.07938117529173899 0.6287334081544071 -0.3472921066992974 0.07520556719196139 0.4635674166467398 
-0.3568803790537798 0.5766231108169307 -0.04680875937726702 0.3962968211973637 -0.6016377671270428 0.1252284814874202 
-0.01388028057883618 -1.138770381735152 0.2989477977874822 0.7039937811972910 0.08616386894800752 0.1227298624637806 
-0.5958651067347247 0.7345075340401865 -0.5573358555228536 -0.1087208678544613 -0.7942756560339176 -0.02695056610312920 
0.4093576586798123 -0.07698273589523660 0.3373237793404750 0.2353821877650109 0.09616167018786342 0.6182843972364823 
0.1757920696850391 0.5232820207641574 -0.8518340986318972 0.1890476317555892 1.061489919735062 -0.3503251849288631 
-0.4313961599313578 0.9189098209069202 -0.6117773179507326 -0.04830919335054761 -0.4558383519871627 -0.1548918446483198 
0.9944337670005068 0.1870170284061876 -0.4962332550815236 -0.1167134256150667 -0.3798002770739399 -0.5643616390118068 
-1.479688458508236 1.698279722030051 -0.9327304807560987 0.2559194390887117 -0.7754315146432292 -0.09542756642980296 
-0.6167485116333628 0.7108926292713417 -0.3797379990603696 1.175622424457421 0.5782372581517339 -0.1964666128507114 
0.5711203396129071 -0.6132839964717851 -0.1414303453696490 -0.4148593458914189 0.6317191539858806 0.2443956543289253 
0.9135624399723195 0.04335684563951694 -0.2510768200535703 0.2724899617612634 0.01418245129645337 0.09945300835560394 
-1.103155256660241 0.1250371093773570 0.8339688728261265 -0.3570632555466249 -0.2360481496676603 0.07870816567986935 
-0.6143871804634539 -0.8987541364346804 0.6135333243723399 0.05872792442099195 0.1396189087781938 -0.4814409020345232 
-0.5970805904804479 -0.2142031097798961 -0.2402887463684426 0.6133005730866653 0.2140599750819670 0.1120267733276301 
0.8690905340359276 -0.4874577126783632 -0.3457298953065048 -0.6898439832239233 0.6648205481236998 0.6937688897782043 
0.1946593230002383 -0.2720566669346043 0.4642411746124163 -1.322670543652784 -0.5625344573610314 0.2388566233022219 
0.07786786328318997 -1.091725063797029 1.192822492604253 0.4067252379783360 -0.4360051223718029 0.3371275741066980 
-0.1977044852451419 -0.1395604093193445 0.4404590398015785 0.4475884670049684 0.9573205135181455 -0.1967725592922318 
0.6380558683087900 -0.2013223044500328 0.5532240089170558 -0.1606686943738826 -0.3851906582891003 0.6036378055243535 
1.464093501056577 -0.9171749706302148 -0.4889082083494905 0.3089300963660997 0.7923335605992178 0.4459015736630038 
-0.04185084213462757 -0.1048232107178358 -0.3374210643832804 -0.01952752078245301 0.8919562337124957 0.1722906753677958 
0.08286573403050188 0.3278687961857291 0.4942388690905957 -0.005205206309930299 -1.055523867828988 0.5384003801862536 
0.1802793466782163 -0.1269660485945181 -0.9468801945775978 0.7039936638766833 0.1020435674757502 0.3711262610153230 
-0.1278359394053177 -0.1854777521758906 -0.03609836992115221 0.05554698564417102 -0.2486605265741149 -0.1019529050420996 
0.2110863092896783 0.3473733138196627 -0.3700775393362968 -0.2640050465140528 -0.1236500682451456 -0.5222116614492869 
-0.06042288292209459 0.5534855451567534 -0.1343587720975474 -0.2911139709898267 -0.5008107444597834 0.1417492520408655 
-0.1499530400867255 0.5012656571279931 0.5434343336041272 0.1094937505929823 0.2134515297060860 -0.1655448870146984 
0.8830663518345573 -0.4717850514261157 0.08628586015127263 -0.004380532537592259 -0.4680409433338957 0.5699550494096176 
0.2165434147797525 -0.7674100547238002 -0.7400341573513004 -0.3387448899511329 0.6468826657434654 0.3119659481150948 
1.006209286602662 -0.5328803878305552 0.1606068027110285 0.8692819869393340 0.2826823062417364 0.5828929106128940 
0.3077610597415784 -0.1285833925302465 -0.6056340153368603 -0.3144777232270845 0.07668246327044716 -0.09381240727961317 
0.1119025446045548 -0.001430709358896433 0.03007293015447848 0.03516376418510765 0.5348537255007676 0.02958542712278467 
-0.9404200585869195 0.1255877810068386 0.7622773324735601 0.6272869531554314 -0.7590225632336874 0.7396591900779792 
0.3808268751483990 0.1250039860650047 -1.339738382228235 0.1087716490179300 0.9660137686867689 0.4623686659377409 
0.04788787904874494 -0.1606360723868585 -0.8258082002058424 -0.03521362492142461 0.6622831344906341 -0.2324422927647915 
0.6696437299622490 -0.06122238377337094 0.4763474786402872 0.5428737203364012 -0.03199067804823262 0.02671813922111273 
-0.09878001886284407 -0.5172353043379472 0.1509410180595521 0.5177298078278845 0.2116554340475913 -0.1501112431762795 
0.1723366196606076 0.1675584217532783 -0.006596192685122566 0.1641218362504072 -0.2922686036675187 0.2574931882695568 
0.4234204606619558 -0.6267973703642419 -0.2513963229054949 -0.1090350467253726 0.2723636490757032 0.08304378737106452 
-0.04951736394842405 0.01030289507618238 0.5452151295489801 0.8119583976657455 -0.7206681622917686 0.2668418703611553 
0.7515046210480267 0.5835815983432887 -0.3799256889400617 -0.003298504134228462 -0.4804179472194653 0.4042122825176512 
-0.2277596977823809 0.03784888561787913 0.1770126515485634 0.7843191839045942 -0.2952944221024165 -0.5861230910033142 
0.9354159569345184 0.8304241595977790 -1.308322801240461 0.2128007372354710 0.1402456011551274 0.8533002598350293 
0.5165873484008808 0.06244496024435769 0.6145885757446612 0.08203464636876086 -0.4751445254567600 -0.08687288041676192 
-0.5343747715904191 0.5802608228681571 -0.6446422586248821 0.02840805574040799 0.3769838569222764 0.3366504862750924 
1.073172247305839 0.3426838597641856 -1.117862583204083 -0.05764565658086107 -0.9993847295162517 0.2093442925525791 
0.2622444308159640 -0.2639852609230574 -0.1376022342493375 0.8992889515618606 -0.2315806068714136 0.1582228689004520 
-0.02730695306468204 -0.6490188966977825 0.7477594589279446 0.4479693529248868 0.2824257151504366 0.1183176738129614 
-0.2455389250559807 0.7338183710705976 -0.5419531243468446 -0.5672485949218894 0.4790417768915499 0.5636797045647260 
-0.8425975456092347 -0.003187982978612019 0.3153304451894292 -0.01394489710928565 0.6521427572269580 0.1574020683710448 
-0.6156687969358860 1.223649476551083 -0.5615393549894797 -0.5432433052324381 -0.6872430953884895 -0.2267849575242075 
-1.094872444054746 -0.1223029823032200 0.2123805255613730 -0.5474993552038999 0.8542635559962648 -0.1022959204278549 
0.2984994585853278 -0.2416682329118185 0.5783850850077548 0.5429890856826532 0.2451113486890610 0.1672003590515201 
-0.3725977733705354 -0.1778716179030501 0.1899643256927742 0.4442816284892167 0.7277084713697760 -0.06327073972745366 
0.5914884858500957 -0.4561276841930056 -1.149950814751650 0.02623904617150622 0.6350061584904878 0.4902612748383615 
0.07735868683420079 -0.07325483543384896 0.4910651450271699 0.3489720758420244 -0.09050230548048517 0.3699730483148210 
1.344840420609412 0.4722809319359776 -0.07641932025312004 1.035286820405628 -1.095046339879599 0.002452616902113259 
-0.1769250755389454 0.06142002359356365 -0.1386790735513471 0.09338066665175124 -0.4874499766612001 -0.6154035131795912 
0.7446572645292692 -0.5630817075819199 1.138559503397824 -0.4381586264291452 -0.09683156885292507 -0.2944632107864015 
-0.1609475652709130 -0.2794082607096994 0.7764162621287759 -0.1664788716571790 -0.2423810187220920 0.3799015130738040 
0.1370293857692413 0.03229408239614476 -0.7610567084812174 -0.1542758273104150 1.004876410835955 -0.04371974271210897 
-0.03152300462817248 -0.3402532560804606 1.227445471740438 0.2253436627235852 -0.1661710193874925 0.03576695391042460 
-0.5094771806361514 0.6441715264391049 -0.6164386125904160 0.2515332067304342 -0.2660043515240672 -0.4123217434757264 
-0.9758426804123025 0.2909220888955496 0.2081027093553518 -0.4399003011373178 0.1169073987651433 0.1941096454687618 
0.9293310491948122 -0.3326645872856761 -0.4451674443776436 -0.5427140128777755 0.4492993647094123 -0.2759535560281458 
-0.6444097681186665 0.8539740011445508 0.6674879208072790 -0.8470066219382243 -0.6392130479159287 -0.02940312455448400 
-0.4088921037239194 0.3086665411020235 -0.05885379177857999 -0.1647514321473362 -0.01688406211493088 -0.1557736029327510 
0.08829742109916817 -0.5754337264466981 0.8789076707518627 0.8972030105081737 -1.143369857565498 -0.04793901230576970 
0.6515784160358433 0.4620720518298323 -1.150343252910626 -0.3897072063621127 0.3898980450451946 0.2738773426272931 
-0.1952075255953664 0.01786650896736612 -0.003376265192152955 -0.5175387259342600 -0.4437701507571825 -0.06080163306963321 
-0.2222040160752996 0.1675496307426502 -0.5689104889311777 0.5158272481751771 0.4291523948920730 -0.2185419665894294 
0.2586532162788066 -0.1767368651006446 0.3047124683520978 -0.3037880956351734 -0.4058981322298682 0.1052118349150743 
0.2215826634460532 0.3018018773311944 0.1612326777736559 -0.5661909518057714 -0.4198563933237064 0.07534928540150520 
0.2527788057727641 -0.1191365148861681 -0.4143917453581714 0.08727031621156049 -1.067631921622159 -0.2503689543238898 
1.731302552865261 -1.183482372237721 -0.2308938440255871 -0.2498649112153040 -0.8758035494120061 0.09833208958847992 
-1.867240561274196 1.651328917106102 -0.5392135830879980 -0.5255060700677392 -0.2092033218459068 -0.5475109996613056 
-0.2826924023048343 -0.2206646045783871 -0.06961799934907119 0.03449614710695873 0.6398531552300981 0.5429136688382104 
-0.2667528170408695 0.9167180454940953 -1.011846901363949 0.1308145499747006 -0.2494131312283838 0.09616732614741250 
-0.1481918080011291 0.06829240784837902 0.3790998775913276 0.5357922885633221 -0.8448546083284922 -0.9804183939054530 
0.1204574298934509 -0.2111142555376650 -0.3055192799776555 0.5672712872195073 0.09031497957489634 -0.3085533189177516 
0.1777326831560877 0.05754479125878746 0.3628934112269661 0.4751766105504004 -0.4576399525880737 0.3760811478396341 
0.3764011067089659 -0.009866469297575581 -0.3498027884901701 0.4245487846548525 0.4403638933788079 -0.3336713578745085 
-0.3985115164366573 -0.001675172091379216 0.2184727677605618 -0.1180203343470493 -0.05987424086095244 -0.4458911982959062 
-0.5331157282023216 -0.4440904153409444 0.2245548551490631 -0.03094441056961923 1.021237060107136 -0.5185362029761745 
-0.1155149038531425 -0.2731639483916608 0.02326606620324181 -0.1120047444593074 0.8170829104828744 0.2941431775525850 
-0.9317134569535014 0.6119066718762508 -0.1351485113901233 0.04640717878930383 -0.4619881951248095 0.1823790004412883 
-1.247690741851074 0.2548790726271278 0.003874653319204462 0.05402996375934506 0.2748698078193209 -0.2263871752782211 
-0.4514907836799260 0.1061907399250403 0.6225879806578369 -0.4251801292928931 -0.2327886249572063 -0.2616999156297339 
-0.07797837867795111 0.2551438581108434 0.003176605736139900 0.1301194723074782 -0.05685063944152226 0.3679169777553038 
-0.03308395925746184 0.6855083743662401 -0.3675313636261801 -0.2848183276919902 -0.8557901078637965 0.1412833404191518 
0.1632924045517440 0.3047415111517619 -0.2758348932776613 0.4262953482321488 -1.253013553138699 -0.3689608447546048 
-0.6428549529612873 -0.005933701406584921 0.3063862205409201 0.1824940975815302 0.2306797737065841 0.2796199756796534 
0.006751424251125866 0.2181619152636239 -0.03192821992492022 0.1705241899959093 -0.7816268961728411 0.1244648429000947 
0.7950323625363671 -0.002401990660978062 0.2291545128821660 0.03285100662416426 -0.4443422664520963 -0.3579379878852426 
-0.5014705639728018 0.02230573103073737 0.4628023883632862 -0.4080183034828094 0.7584539898957110 -0.02842853707614431 
0.1690563594310895 -0.3441413884052774 0.2142362865899641 -1.233692931145001 0.3969522555335210 -0.2030196436096420 
-0.2321964978993635 0.2315825893817196 -0.4193666754816521 -0.9508937248830764 0.9832538805972169 0.1574273902048625 
-0.8290570798145707 0.01074126666467522 0.7195606314681657 -0.7036276752249918 0.5519231383981347 -0.2706204192564318 
0.1079614913344114 0.8203459686231553 -0.2871028266999400 -0.2723229103026502 -0.2895720865910388 -0.3477223770328601 
0.8174469084818883 -0.6482039436018056 -0.04692119839127665 0.06028949708885231 0.3141496585539262 0.3071305685634436 
-0.3532362529580448 0.4024664270883486 -0.1842627564162607 -0.08024799878150979 -0.8520501754597162 0.01488796972490097 
0.3635321967053228 -0.8290249095840410 1.083747117351119 0.1498614303190119 -0.6858235884175319 -0.1724447403007066 
0.1567888863214759 0.2660769106063259 -0.08682093594072358 0.2695235177554121 -0.7811510872882274 0.1849635149856180 
-0.7111208473280887 0.2132765829131620 0.5143073791680620 -0.2098838562135121 -0.6190270150269355 0.1821981361337040 
-1.175774816452358 -0.6825556098445016 1.559797088973034 -0.2005292784143337 0.2860908197500718 0.04946759839669809 
-0.3088144450952729 -0.2209885609355823 0.2621705275155862 0.7580593620065743 0.6058472060077765 -0.1182977402886120 
-0.3645284191159833 -0.3454649804506146 -1.026138243967645 0.6037182599326699 0.7542536002468672 -0.2199018065847369 
-0.4582609842520221 0.4538921072845255 -0.1955747767187263 -0.1695865966858148 -0.5223511157065300 0.2417102206699157 
-0.01792969188281664 -0.06891989166471432 -0.3126371572776668 -0.05539564845012347 0.8445899397568161 -0.5542182102305038 
-1.062743668900962 0.5335887174971617 -0.8387764983502232 -0.2689295672600829 0.8065537165174794 0.1617943233006326 
-0.4645691636363124 -0.03832714981075171 0.1446709526996853 -0.4852418085086567 0.2644771566247659 0.1602971677992497 
0.1233706381524805 -0.6936140478888476 -0.07665823120133370 0.8473597877700748 0.3703002243659975 0.6518301279536195 
-0.9225124099895959 0.01512109587979949 0.3815273142799071 -0.3277798463370744 0.2523460229423418 0.3829721424078941 
0.04504342036558162 0.4549562990426824 0.1703392890103280 -0.1075616646660229 -0.2059031993855662 -0.5307138640695133 
0.4705895979986253 -0.6654242724404805 0.1699762809070006 0.7618129718170180 0.03725574518317990 0.1968202507245934 
0.3682646308196404 -0.2338046473086751 -0.1356666773277150 -0.2881582858649436 0.7022353841142079 -0.6024412744036604 
0.7523729786991489 -0.7638405178301295 0.1005742310319691 -0.5074381509684290 -0.09668143690580507 -0.6395137049500548 
1.369487162924498 0.1992710473649292 -0.4152999285229999 0.06973161248321066 -0.9534791053751621 0.09420251246592598 
0.0006912996167145219 -0.2403805472858335 -0.3902865734971389 0.08768006567603691 -0.006074802153008959 0.01636667736320869 
0.1738165199660864 -0.6607769504470469 -0.1847748433597788 0.1341054559483952 0.1664236906146712 -0.1241648285972989 
0.2052984245326163 0.1157374083375885 -0.1607449812683710 -0.1184417581871743 -0.5072976623466363 1.040999470693484 
-2.230473384807215 0.6217487782136282 1.235721657167894 -0.1777747086347854 1.213115198550534 -0.01099645713857178 
-0.5552381092912594 0.4745782058563141 -0.06418733544526646 0.6271234179571247 0.01364663466016844 -0.4507976232201111 
0.3378559909532348 -0.1738364100237884 0.2962079532835006 -0.2234787775292429 0.09103692246346484 -0.2722669434197660 
-0.9437109306832194 0.7374639349782698 0.3648728897944728 0.1477496038575704 -0.8189499159611842 0.5860192908678878 
-0.8579234154284988 0.6057427663566873 0.06036278680856906 -0.4794670454285205 0.03227375427323195 -1.060905064058852 
-1.210373960656921 -0.06144544803694505 0.09814191701715862 -0.009375447367725762 0.06866636575256925 0.06297279858950135 
-0.8381218396880962 1.189917427957793 -1.459660788192353 -0.3474190937680635 -0.1667134149195761 -1.000444472116939 
-0.8231750164473641 0.7379440933170143 0.7010130825450487 -0.1388521503600753 -0.4695743238907223 0.2824903061208956 
-0.1413196248275312 0.6724040589116643 -0.3501723283176423 0.09550081121360553 0.3221566228772618 -0.3510025162295652 
0.8252637446717282 -0.5147539859973351 1.199694287778341 0.4171098414567603 -0.3386611370077152 0.2542624792073601 
0.6558526244164564 -0.2879665072059658 0.07071237164640694 0.5870273899035978 -0.1085473044837920 0.1799663866888857 
0.6083728840880690 -0.7234180524811712 0.9447855846629510 0.4411706255029086 -0.3443167886140893 -0.5367876685204599 
0.1115131978144256 -0.6056519295648423 -0.5819596514776030 -0.4151969920921655 0.3758298870153118 0.3761601485835466 
-0.7878107311462798 -0.009804124744861623 0.4907021042962629 -0.7740567611540373 0.4646617757763238 -0.1079828800718928 
0.2643738363963805 -0.2775553299847079 0.6563391492806350 0.4029243284144847 -0.5171272195201947 0.3204360664451615 
-0.5597509795843223 0.7535303447959933 -0.4983260135208530 -0.6261745186552538 -0.3017456999830721 -0.4170917333857870 
0.1118509317456610 -0.08043505392850815 0.9151022018164207 -0.4344078143413584 0.1793364878683505 -0.3979750654604658 
1.379920982837548 -0.6416586463875739 -0.1162187597268392 0.7185124817532624 0.5620937786609190 -0.2588264486691574 
1.182883987199837 0.2666299164220107 -1.336265716333500 -0.1947969364655201 0.3017884760043907 0.09000787683235860 
0.7302325669336435 0.6816520946098944 -0.5559033520527985 0.2673820354233464 0.6971027990001338 -0.01264509320874079 
0.7055860350326090 -0.7167629571174815 0.1110513501579911 0.3786346285137210 -0.4504960594561385 -0.09602100618529957 
0.08890033596512250 -0.2972332614991735 -0.1387071271209776 -0.05848460496343429 0.5308544903205309 0.06161393097168956 
-0.2138546225364638 -0.2594618202655796 0.1629882162576290 0.3094588229721500 -0.4907531314515032 -0.1358120995144611 
0.8514822777183635 -0.5146623266810364 -0.3846488302570657 0.04870691199655509 0.01807789606029082 -0.4072463702210654 
0.1332106708875734 -0.02431197335902783 0.7236511717214991 -0.9934480978203250 -0.5759818636341596 0.5051019558061778 
-1.041167997387847 0.6022638219211646 0.8569258740764392 -0.6977674500789450 -0.9574196789927427 -0.5228982462193208 
0.4775489088816690 -0.7193069177309404 0.07377742588583690 -0.1835621577204996 0.6581367451843952 0.1783800234174028 
0.2554957066221216 0.08866633954047227 -0.03619859685229653 0.2598148768838701 0.2428480146085278 -0.3499445195175679 
0.5525900832232311 -0.6014860216952612 -0.4976647294515981 0.1091585429731380 -0.1398371417013871 -0.1413376816877674 
-1.136389708376809 0.01341110508793062 0.1271134416958766 -0.2324774612746581 0.2001306706773264 -0.08248834221839968 
0.1751553042807591 -0.07854799600314284 0.3416494402987178 -0.4081415936790417 -0.1582498935675088 0.3696252753785291 
0.2527386345523806 -0.2290183585289423 0.1212332361263247 -0.1940943093712291 0.4836511694022967 0.2408851629613637 
0.9386056623347617 -0.01527640760756030 -1.031740006827006 0.2153252224853690 0.01557300757078631 -0.2096953392032486 
1.145795916538864 -0.7376526276200871 0.1316515898682351 0.9325659677301589 0.6545426318374551 -0.06587131620191101 
-0.8833585125547257 -0.8268654262671418 0.2311507225146242 0.2316117212298187 0.4907090865794445 0.3003493340847975 
-0.3532539346367359 -0.2824501003894741 0.05370677187956890 0.1090404701241446 0.7468685105545493 -0.8901941435060844 
-0.8388534385718928 -0.5372424457599018 -0.1604076673187953 0.9494178080697597 0.9636899331484216 0.2243772805330423 
1.283817846517519 -0.5060969991074566 -0.5096443564610811 0.5422703400004384 -0.8282667092461489 0.4654810042631271 
-0.3685201367147599 0.6146398819407070 0.2034891119645648 0.4459254553369733 0.002916287281963465 -0.3001829745745379 
-0.3400661468444737 -0.8885901618866696 0.6111226696232677 0.1927338773276247 0.9198714136990740 0.2672788117603960 
-0.8354094368838492 0.7203878422804350 -0.03127920460209489 0.5622646307077913 -0.1873379695090023 -0.3854591905059527 
-0.03529634665791784 -0.3968825477323856 0.4197230323496798 0.2054406089963695 0.07919709674167870 -0.08575845957877994 
0.1931474133967059 0.4704201121895822 -0.5741647818417126 -0.8581533004382091 -0.6265902802121577 -0.6081343440358250 
-0.3746811011501510 -0.3906993857856242 0.5821170572098586 0.3840100602033694 -0.4560991905247136 -0.2172693352235764 
1.004545191503620 -0.1419950133227189 -1.785229944517730 0.2381182842001602 1.052950565592506 -0.8232581514386479 
-1.357090337259276 0.5865892174810974 -0.3552706177263523 0.6815887289751996 -0.01813004719374621 1.027140750658909 
0.3445063911513071 -0.08664213612059614 -0.02349292444194824 0.9660913069652157 -0.4364615395424042 -0.1114586405928307 
-0.9318577401651582 0.1543745673169714 0.6027550583238991 -0.1976436956117205 -0.05337277063912455 0.05288231137224127 
0.6431964732689447 -0.08239302329348806 0.1437902718303053 0.6139412093483488 0.8916251186421349 0.05631282854251608 
0.3346726770398864 0.7659540935375607 -0.3324720871687752 -2.084070218078416 -0.2752650190195795 -0.7616610322907704 
-0.3633780338385691 0.1957465831848404 0.1817636103072049 -0.6754982366227950 -0.3587024020453432 -0.06802111753609012 
1.317000668072489 0.1580674509565245 -0.6636889204073800 -0.8769473062147223 0.7976354735596095 -0.7237902961818896 
-0.07997867980594577 0.1083305540615455 0.4872865688288962 -0.6913336299716321 0.6826827950475629 -0.4158286421581899 
-0.1243828226938460 -0.1136478209183076 0.1454692229071766 0.2453500137376678 0.09259524881679330 0.1121041022365018 
0.3687265988614373 -0.006239705829365320 0.1549654741772531 -0.4494834149220298 -0.02045913371948004 -0.2988655412010789 
0.4575989628820411 -0.3648788959628506 0.7943728509670902 0.3332050909334856 0.3555485945240761 0.5260593566643986 
0.6797580519605922 0.2430371295296471 -0.9324355903640291 -0.8200013137892816 -0.2064319874086384 -0.1638390417078790 
-0.6638747802923286 1.057587484640328 -0.1432158649252810 -0.7271945076572541 0.3969538631365845 -0.1201400699654884 
-1.176123603022627 0.4066112757201144 -0.5242514621335910 -0.3319130439318151 0.03552238457393473 0.1370109160570919 
0.6226300464288518 0.1542191292380825 -0.04123838534798380 -0.3426129583320281 -0.1660462287820484 0.3614718537045522 
-0.1720519286615989 -0.06136746214834268 -0.1880812045997470 0.7404654227733470 0.5891454971759551 0.1824671795460196 
1.549151403261078 -1.431142551272383 -0.2036873916336419 -0.1312407127692249 0.6102681634529453 0.2520329050746916 
0.3361360506346014 -0.04041873276077970 -0.2137366417312565 -0.5149105309189463 -0.6009771693361837 -0.7046543955247623 
-0.1994454249033106 0.6010869183927087 -0.07617834826932472 -0.6125238646818226 0.6349834642455893 0.04822681183001402 
-0.3049582670437241 -0.4569683109600307 0.8593793772349602 -0.2790838647673811 -0.3276464344928106 0.6747612883536530 
-0.09229861429269504 -0.004096337944953400 -0.5113410522977412 -0.5037082934314568 0.05542957493794742 0.3170801295040561 
-0.1545097319018659 0.08583378518513804 0.4022956833719659 0.2593959353646675 0.1159301039347309 0.1484121837836071 
0.3443739957036789 1.056596525781109 -0.3991908428336863 -0.08732195239915422 -0.3723910357845404 -0.09372995564577508 
-0.1690084033129148 0.6471433970216929 -0.4363158652929429 -0.2186010319185929 -0.4137081116359820 -0.7014979071714442 
-0.06242666290859937 -0.3342675946540962 -0.1958858055942125 0.5750765606425613 -0.4546524185368944 0.2038760529078141 
0.1261188202099631 0.6362474511223528 -0.7717579489626825 -0.1069986973702947 0.3539256558668925 -0.4971504700234511 
-1.812507383741639 0.03138178205111469 0.6878256316354391 1.111681302531074 -0.05618068947192270 0.04603739764424388 
-0.09727133155798971 0.3445166819014733 -0.1024409945450580 1.174905466144810 -0.8627702859863494 0.7331486021523107 
0.7210536065972978 -1.029266656146891 0.3316569708657421 0.6489531545383838 0.03815105454018435 0.2006661749275925 
-0.1997224091859313 -0.2675684784283254 -0.2793795179352221 0.4914309342187932 0.5544472927372904 0.3052950388585517 
-0.6169286168653741 0.3495062110734026 -0.2643328328453916 0.3349325653393625 0.3735869880616538 -0.1606771967043790 
0.5524937421119229 -0.4864419758032920 0.8875751273644382 -0.4334099773000217 0.1844009966513271 -0.2370216314989542 
-0.6184394226876226 -0.2983910316673783 0.03930451319198284 -0.2960570845178173 -0.1915365884717069 -0.4275195887772370 
0.2042687109861764 -0.1873532115940083 -0.02672759135816697 0.05120126833935888 0.2067410972431406 -0.2018429134878930 
-0.7351980086264319 -0.3287252066681467 -0.1162772782428042 1.326786339315120 -0.7519846911342953 0.2749614334034621 
-0.001997381596634819 -0.08771848785443799 0.7757632550608509 -0.2832152634662050 -0.3271103159022057 -0.1375862653817113 
-0.7444252954508903 -0.2880616433904029 0.2759944860883572 0.6860887192561004 -0.4921102129111493 -0.06572322925897943 
-0.5987297580982167 0.2774677644257595 1.054691377599331 0.4080732694608901 0.02135496561285691 0.2807984297390784 
0.1652030358705516 0.005010068431214097 -0.3401361234174286 -0.7821035553948358 -0.2019883825820615 -0.5889874300497813 
0.01694737163973522 0.4741893709693413 -0.2041940393840107 0.07231188580450058 0.2337412174175708 0.4638290312478796 
0.5016962435666789 0.3401504607040352 -0.8017742018697493 0.5980868071880262 -0.3940789685386814 0.2524986833227514 
-1.130052257597986 0.7693934862415269 0.6219081119849997 0.6980863138603183 0.4957201155291234 0.3886389113341403 
0.1564148172376122 -0.5063800975051049 0.6574783745559439 -0.3669414685583766 0.2181303228512711 0.9970542638446047 
0.8542270563530290 -1.063982551693770 0.3752451355719925 -0.2696412439224279 -0.6158736096123694 0.5571828972333802 
0.4449178956188529 -0.5211958369604679 0.5003487275354654 -0.2848900983834902 0.5801774710635872 -0.1412820303238629 
0.3995289321687627 0.1943081338184748 -0.1298635805179533 -1.322821211903199 -0.3597784710842237 -0.5745500302070766 
1.276954411628438 -0.07163933833816954 -0.6180998877320314 0.6122873543747795 -0.6144338414758821 0.2049509604169704 
0.2882724368668321 -0.0001837782084591684 -0.1591419217344590 -0.02654769465036605 0.2937787812304866 0.6274159747776565 
0.2199581855754996 -0.3285641068982106 0.9803714517850682 -0.5048650398214316 0.6159913720068461 0.3589043285545581 
-1.304366092086541 0.6097070041812847 0.6313648624674091 0.2616464072789163 -0.2684657444391254 0.2407065590661046 
-0.2621752528741412 0.3077428556892811 -0.1493824853339610 0.9952340813753322 0.08111374351446393 -0.007106161762958706 
-1.305927117134642 0.9717167907578088 -0.5067403733491264 0.03755302392477073 0.07881014653793833 -0.3077722420260995 
0.02805982251433437 1.001305659694264 -1.020908849657503 0.2897547458592268 -0.3124569975705232 -0.07097660349881638 
0.1135053973019184 0.1212729940491316 0.7493367952583342 -0.4200493731810238 0.1957287196473808 0.8913214096147499 
-0.7699957859744656 0.2961801295888093 -0.3083958935472022 0.04626698315677103 0.3956721687374416 -0.07568279988280155 
0.07181609372276787 -0.3883715386906346 0.3250725563779340 0.5094359011650748 0.3331041449603899 0.1800211822294199 
0.5401172753416399 0.2234822821461163 0.01181073056015883 -0.9581511667723659 0.9179209647747975 0.1980898247823397 
-0.01239807138254362 -0.1886297692099735 0.9347844847033684 -0.07038932114015069 -0.8037402085526410 0.2039772504855037 
0.3476235552492917 -0.2208816456688273 0.7699754754230307 -0.1656708710182447 -0.1603158284084542 0.3552851155291650 
-0.3386702596910509 0.2991402289105837 0.3930316627247627 0.1110789244075002 0.5531103758716290 0.3246924481889612 
0.8441445130237852 0.4498523328872923 -1.377791640895734 -0.2480848478602722 0.2754125459970099 -0.2056377473355861 
-0.3290447567707600 0.1212774287547485 1.199178506310115 -0.2090165252684793 -0.4076717112494135 0.0005673978633658008 
0.2043469364181742 0.5281400291531047 0.1361144703356712 -0.3410566037754725 -0.7915190507591711 0.2659722257072176 
-1.565266016470232 -0.2441441262911131 0.4204268282303810 -0.3745073851666320 0.09057982286180856 -0.2189651735315851 
-0.4879846032376221 0.07516211318039813 -0.5326309502477075 1.109593947302676 -0.002648133188226944 0.4411170992847123 
-0.3421721232709716 -0.8104403474792118 0.6418658473325547 -0.2948021722035250 -0.07909044300132415 -0.3578680854656165 
0.06444913227595458 0.1450319317724889 0.009696978528967797 -0.1444091844180623 -0.3512752562734963 0.04573413926900160 
-0.1123861737833633 0.4644370933497242 0.7075212998731600 -0.5039653914210002 0.1787370375624926 -0.3811679965210747 
0.4475557531018672 -0.06210530456384338 -1.450853301437665 0.6887058664049688 -0.1491833901343890 -0.8779441976668534 
0.1655635634906253 -0.5959963074303549 1.387648637169354 -0.9525903580925843 -0.1298259312592392 0.1242849380338183 
-0.1168867669846062 0.6985182080389339 -0.4438663314939300 -0.1114453870487537 -0.2799922092152209 0.4969969955047978 
-0.3228490694854815 -0.09972315880494143 -0.08723605870843620 0.4209095194151569 0.4132229089057084 0.5089987694419190 
-0.3032687704590610 -0.004838883681641286 0.5605513936085407 -1.128692460394332 -0.2340971035933009 -0.5523884173470410 
0.3861272491880092 0.3104187390013534 -0.6040505876116320 -0.5552379264676609 -0.03163307209205821 -0.4965353702510978 
-0.4319715939517024 1.117165136406229 -1.860800440077346 0.3931108106203647 -0.1671844116240706 0.3195644661244533 
-0.3090816655091200 0.3507936527292221 -0.1441948762428147 0.1152139671236802 -0.5126266000734271 0.4483857445042969 
0.6949503192944091 -0.2067344499736590 0.3974104475020591 -1.334217977767573 0.1392662480444359 -0.3797677562648291 
-0.2542598377619801 0.3396204528650156 0.8204717385769347 -0.9774280876415243 -0.5255695433753774 0.03147733859220068 
-0.1975504263719199 -0.3704677308550802 0.3305798297411158 -0.02374001169244390 0.6008290537854040 0.3487813034377942 
1.116994782917368 -0.4273328743912240 -1.018730199919531 0.2476775224674482 -0.3036178967142090 -0.1944440745478326 
1.115239923837687 -0.3161688824190367 -1.033736876079361 -1.138918578027114 0.1209472746291056 0.1145861053540998 
0.2335996276312474 0.2975030529227664 -1.070151027679634 0.4902531347355025 -0.2388156228215716 -0.4479586557682814 
-0.4194734340182847 -0.3917070759944356 0.7439033425850663 0.3301841211518852 1.032214601287201 1.114308497066542 
-0.2631997196199871 -1.245556912032700 0.6057520570944754 0.01479931124893550 0.5859869651885773 -0.05821784425757314 
0.1009645648077355 0.09266151795508100 -0.6433342764405179 0.6925189530455275 -0.1686464312084939 0.2008507672961854 
-0.2931976025716037 0.2786817446740245 0.1322822960684806 -0.8065501929626051 -0.02490673447726249 0.1511200222393246 
-0.4940030880668538 0.1061485056032452 0.06140314095783202 -0.7459145129652787 0.8650402128555320 -0.2260484207997084 
0.7873566754266829 0.3374868540908326 0.1484463730895700 0.1357301523872980 -0.6801000922898196 0.3598229622459532 
-0.6754181923646315 0.5559183895066324 -0.4218166095943121 0.4147712988771765 -0.2415352385968694 -0.02760651792627961 
-1.395088086687443 0.7409071427521033 -0.05292194449696404 -0.008638321613074667 -0.2125576557027038 0.4499944622026950 
0.07317460918534620 1.226116221982096 -0.2052486008211091 -0.9344635940978150 -0.8871800144502604 -0.2607499307313912 
-0.2049315970358038 -0.6317328382595903 0.5324658862505841 0.2808858342489000 0.2374350067777797 0.2861585970531256 
-0.5945131774378595 1.639718763782522 -1.654924370660446 -0.2532772235960871 -0.07923279896448060 0.1098834001154160 
0.09464594381330098 0.1380376451831187 -0.3764251594362620 -0.04510176750458301 -0.2116558224070997 0.4211633813513412 
-1.646579928776510 -0.3276527337898966 1.157646125462615 0.7840166695872762 -0.5480522999453863 0.03432170950431257 
-0.9518431395257515 0.7073274408247717 0.09851985464887833 0.5221546882660626 0.1313563370846489 0.1507485986949202 
0.2245933532177919 -0.3015497774543831 0.7786197119454186 -0.4537683267360320 -0.5603151426104860 -0.5533543689971820 
0.3159703543905297 -0.4094255439742725 -0.5546341655109943 1.612963250128516 -0.02306988578879910 0.2692365778426175 
0.4623041176834188 0.03357799172507183 -0.7066703991499269 0.4248213756509302 -0.1924199988052608 0.08836024781675153 
0.1247177439337330 -0.4520954328580457 -0.4284128833177411 0.5117305974572152 0.09418356898319925 -0.4736555987445608 
0.8449263550287122 0.2528665537978731 0.1104866242251885 -1.112160794843190 -0.5495820815903941 -0.6909292356802813 
1.327539860489292 -0.3719137455798793 0.1532352588304144 -0.2293722063490100 1.064120507369185 0.1181184884807653 
0.03293098269026743 -0.07540187568660680 -0.5310241797748505 0.5327171922512447 -0.1004727813513191 0.5391493035742772 
-1.153638108026760 0.5723637873738318 0.06013770777076705 0.5033276016724016 0.2331630833332890 0.2538381491680730 
-0.7905515123489374 -0.2474707953884153 0.4578857849071115 0.7500087149561749 0.1436226014167218 0.09641862541207256 
0.4624095282676364 -0.2986546586732840 -0.1502705406183659 0.5231898672509662 0.1732465782799949 -0.1488307587827271 
-0.1655128788232850 -0.3243336978456717 0.7144245799139931 0.9033432455629464 -0.3180641064820404 0.2902078524104029 
-0.1806444397605178 -0.1084247755460926 -0.1208511789222008 0.4885917381577287 0.5741283702364591 0.6891321276339337 
-0.3800361753695579 0.9149214771147229 -0.2350874613657593 -0.7560228321504535 0.3230113563010315 -0.1999515214478917 
0.1728405021755937 0.06026304393117590 0.1807918385298210 0.07822235484447682 -0.3121227832813100 -0.4840010134184412 
-0.4341807356960860 0.3402837356457620 0.02312233185246424 -0.6987588612381589 -0.1539079762219004 -0.4239434999029788 
0.3094868784334189 -0.06762121900320596 0.8058593061386140 -0.2197264135101394 -0.6679619753472400 0.4660426154256595 
0.6445617043251978 -0.3425477641413384 0.6646111904597853 -1.378543278153864 0.002976927967809445 0.7218454484346487 
1.478351863017463 -0.3201031021679521 0.1928179377873956 -1.147174294152509 -0.2940685294747704 -0.6034226865983513 
0.08958868361233685 0.9706827065207829 -1.441686736901305 -0.1255022438228279 -1.044360149032552 -0.5282701523456105 
0.2651698686153997 -0.4476743065311970 -0.7097437099551347 0.3224905246914761 -0.4047914879299916 -0.05532760790825204 
1.358366682706740 0.2011114912375692 -0.7243721845930157 0.7379280148684767 0.8141557749223240 -0.2595153187345233 
0.1005701633725107 -0.1724919504196607 0.7354538050347185 -0.9120660085102767 0.02708472421968778 0.1110734255387018 
-0.02291046687720702 0.1897857411529724 0.3464576044030479 0.1546767210951366 0.1583387686552368 -0.2930853443573261 
0.1525503659099448 0.03911723521606018 -0.2722522571154619 -0.03366597505033608 -0.4714510983461452 -0.2933686517966996 
0.5737277514632882 0.3356116568645305 -0.2236627398502278 -1.326196011706244 -0.08064096304624002 -0.03563627757661722 
-0.3001811938681606 -0.1586232124458131 -0.05565855905090280 0.2050896094698045 -0.01849705490993422 -0.04817072273321986 
0.07503593923045676 0.05970044173723319 0.9229278360587873 -1.247644994546855 0.6288369850233513 0.3444018496035983 
-0.4878981256520441 -0.8528743600315372 -0.2670487812344260 1.964623847986388 0.6726598784518941 -0.2220719827516629 
-0.4287097745121893 0.1043179604674376 -0.1257925730790677 -0.7566942764852438 0.04087986334047560 -0.2996316485098938 
-0.1204047961488430 0.6727375377309232 -0.3929093230515640 -0.2177556827444559 -0.8083286966340300 -0.2820940634000576 
0.6238215942538538 0.07295806849589194 -0.5660104352189133 0.4587644708437810 -0.2375757499863847 0.2643125994190446 
-0.9858527097873163 -0.09310930481471016 1.143594151907259 0.3811215615036070 0.4404966986731584 0.3050624172557576 
0.1307506388252989 -0.3474985114874596 0.3131646354697850 0.1280319973817431 0.3126419094863273 -0.1465268089636637 
0.7891717028144366 -0.4360140086429756 0.09538617938177210 0.7833690315294729 0.09384697125460573 -0.6517655242459458 
0.5041177775860151 0.4522490629673560 -0.8005682757433364 0.1383503734230860 -0.1277741333388714 0.1853087497441942 
-0.2290927914858334 0.2150514508357066 0.1095416860414277 -0.4621991652226835 0.03709467526233534 0.02777303033412247 
0.5483433180179949 -1.132657367743437 0.5461741171317434 -0.6681774177476978 0.2310971286719371 0.04636366573026968 
0.2680632115565671 -0.5303774189359483 -0.06975902326987633 0.3553065383738025 -0.5232082074995820 -0.08287052685115160 
0.4223591271684251 0.6029566846903260 -0.5229234454722468 -0.1275397543317689 -0.01527003600923150 0.09011225157696853 
-0.3578658048284030 -0.4400761385556921 0.1029882770075177 0.7526863198023689 0.2335979584561207 0.2158621080901065 
0.2219185005355319 0.3758583989775838 -0.6273959132927982 -0.2388109526963024 0.008312233221145071 -0.08722997358760905 
0.9776620813940752 0.6877693687617089 0.2671385271202517 -1.352968205016959 -0.6139784273909132 0.03697490800496319 
-0.5242674028840187 0.7805695270087130 0.09642595912159377 0.2950924826041398 0.2309632364908964 0.08515212301737746 
-0.5773610817705369 0.5724269137126913 -0.1826874202789728 -0.6307450378318314 0.1505404554470604 0.01175633330053507 
-0.3682070240789551 0.3995939064932519 -0.5819632651973652 0.1294861618311153 0.3707350131838492 0.004313143092565888 
0.09933982255351659 0.1694161664732479 -0.2295309671343026 0.1728680183403087 -0.4586649846316217 -0.3043832075047338 
0.7500513786196871 0.1284628291502372 -0.4703182274103106 0.5037050631799815 0.9508278495009219 0.02013083907942354 
-0.9204842162279621 0.4552852868928228 0.3315685333470881 0.2471380137787479 -0.1953169649081338 -0.2687431846230425 
-0.9539713507348404 0.1311220321807730 0.9769285532362222 -0.1471691781278569 0.8062818033952976 0.1992133928185176 
1.071265166091609 0.3420347430036357 -0.7324724248670723 -0.7280172483493051 -0.02427121314642368 0.09009044120036093 
0.1629938943308101 -0.06605802466598325 -0.7465355876529101 -0.8990049482889759 -0.5712697006001270 0.1407607653039020 
-0.6225427858523709 0.2962213557579754 -0.5888737728058330 1.054276894041657 0.1934705113521808 0.5639102757501205 
-0.006022932583626926 0.4669123000573796 -0.08764949334396085 0.7926165815609153 -1.451807570348267 0.1025818293624228 
0.6331166598308624 -0.1621907724546259 -0.4761567495664340 -0.6764083242448451 0.1872746340079384 -0.2582430226758361 
0.9540148510423239 -0.5250619547986304 -0.09593736213127771 -0.2581303236024007 0.2101831916501011 0.01506335480261669 
0.9829709706166800 -0.7194579435283541 -0.09109065571724141 0.4310470892275361 -0.2356152185262818 0.4774950089128457 
1.271560916364950 -1.479819000160606 0.8574621623927620 -0.03423494870348633 -0.1271120393647111 0.5962218665268068 
0.01093586641573982 0.1920201470456544 0.2947128841884260 -0.6651086799838004 0.8526192000404186 0.7074448203705779 
-0.04136592929688529 -0.6471015359978014 0.7260412842591374 1.179148504370345 -0.5351296475453485 -0.3868419232286516 
-0.4690609942199706 0.07614015968581526 0.7545002845435386 0.5841613146199907 -0.05702026480658924 -0.3762589849851933 
-0.6033759014021528 -0.3694911769722227 0.5249473975665646 0.4991650303592215 0.2991316010939042 -0.2192942133199211 
-0.02859672270705609 0.8367456306613924 -1.376471550375915 -0.2093391825592205 0.3508327234313347 -0.7198908733527267 
1.196843377853479 -0.05777694485486099 -0.8213257852237155 -0.5306304223741035 -0.3198873738486559 -0.7707236390020755 
0.6232201703240924 -0.4969819366011651 0.4883173201071799 -0.1874702291701335 -0.4462440791964238 0.4870912498295735 
0.7188756197839934 -0.1705217463798420 0.04106169764142031 0.2653107768798034 0.1544144027920608 -0.1699488726005719 
-0.2339246622303852 -0.6949657153561636 0.9776031575110228 0.6565105066733768 0.2859936919776308 -0.1980332662633178 
-0.01550146190704806 -0.8349428614715411 0.4931523784879010 -0.05471068834477869 0.2478001584566095 -0.2234631622745022 
0.3744068729216772 -0.9619679449466731 1.165878035759282 0.6902489473259028 0.4470660206310330 0.7960944261027437 
-0.8172594022785690 -0.2310860976380345 -0.07470309391874269 0.9689628702905132 -0.09838998108479172 -0.4723425822197631 
0.6197265490883019 -0.4590580745258245 0.1826974070856563 0.01971072747976637 0.3247323492423245 -0.5810434448698044 
-0.5598413376383692 0.05415900294989583 -0.3123674174460968 0.9151000357243969 0.3975684205676490 -0.6597100984468950 
-1.231518946213359 0.6528900942295061 0.6977147930883759 1.764932975581442 -0.08301339116214568 -0.06433940086240583 
0.1689697233130291 -0.7330087049202990 0.1049641734672007 1.319977482102784 -0.4541819136198700 -0.2604171298792055 
0.4213448001117290 1.317414480527549 -0.2287813165094632 -1.005168336836129 0.5731097643477630 -0.07514167718398583 
0.009628417211833957 0.6968963789587510 -0.6650262863709858 -0.1646451294278747 0.6152014938805872 -0.6647352182003756 
0.2371883998482892 0.07583766688766486 -0.2066031769855871 0.5532999397200835 0.5406830025636125 0.02685121762276554 
0.7162868831178066 -1.458306625868752 0.8319767916995993 0.8309437820885166 -0.2618988294527342 -0.2991900654227611 
0.9898953914597051 -0.5040107990385218 -0.5901923687427936 0.08990349534574979 0.5956371008757249 0.1302905440018351 
-0.1155332753930672 -0.3999689113406518 0.8030133941836879 -0.1621460626974660 0.08141653846898253 0.5670540593897975 
1.034829826367798 -0.2162053618578845 -1.036935128780291 -0.3427495818061534 0.5132958616023985 0.07968225682001172 
-1.009364414091365 -0.2663866094728681 1.391067732927592 0.4785236670126651 1.436865822385774 0.4635713359965688 
0.03020208614554481 0.5569497614628234 0.6835745277023176 -0.7425519271659748 0.1896019689870744 0.4184170761026603 
-0.3391393866058232 0.6018821027774572 0.1146060074187671 0.1807980556591155 -0.4220622999284350 0.1789969675539124 
-0.9219851823256254 1.081876451374505 0.5067933036134652 -0.5234784984801072 0.1237809371696508 -0.1872739201013447 
0.5098497947535080 -0.4661883868893695 0.2996312863350565 -1.083826921883087 -0.01024293705341972 0.2043068880594918 
-0.1256389165281988 -1.137834868054488 0.8122846351396468 0.4514735805654057 0.6149210011009862 -0.1437681654291444 
-0.07023525853050962 0.5699226082820034 -0.5742581580071258 0.3232411425030784 0.2270633101276965 -0.09728680282769937 
0.03996491144683714 0.6575014887683985 -0.9036587028637478 0.03465862776074651 -0.4740218552156283 -0.1159297829085838 
0.5372722186758191 -0.7034785845639157 -0.3180724162123405 0.4216942712126741 -0.5081069277408609 -0.09156732814257453 
-0.07096318691029119 -0.1361435923266194 -0.5326951327029940 0.7852550143569885 -0.6734548748869533 -0.2029074283872811 
0.1355489862583520 -0.3457096750482315 0.7722488738489305 -0.7926420456195626 0.6441209387038078 0.03833393212635206 
-0.1043725435404343 -0.2612179866264420 -0.1317053382880410 0.9805251246738953 -0.1103566580386175 0.2552272487806006 
0.03058118768581963 -0.7414207198725380 0.4807601106600161 0.3958080668992556 -0.3499961974057348 -0.2317206627267253 
-0.06729218285287773 0.5021222630821012 -0.6491050071537176 -0.002468714426305675 0.08130474080267062 0.4618471525027202 
0.6335294089988690 -1.216351546693633 1.684359607656170 -1.174608477334552 0.8694014781833691 0.4483508751660763 
-0.2035622455311002 -0.4908630359670422 0.2261430091285707 -0.4279044158703702 -0.08706888144652067 0.2473751002345437 
0.1241044736226820 -0.7407350515009478 1.046410750707494 -1.175157280545907 0.03138457587749764 -0.5726598917769071 
0.4354026023378520 0.4340595990662087 -0.3281983525503751 -0.1301622883117962 -0.02454161853628000 -0.1464904317280541 
0.4553259933881483 0.5161097280609501 -0.7675957710939465 -0.2982124636737975 -0.2456316787403776 0.08182367268310275 
0.3413316819319168 -0.02475960404598911 -0.1564608206618778 -0.4113171501665486 0.4276247126128811 0.2127879790620081 
-0.2087349054290340 0.7740301909832612 -1.108203074598918 0.3213443912038389 0.4799172728957766 -1.017490773237326 
0.9302926640253654 -0.4554880568784717 -1.557384662439888 0.8032519781615050 -0.1628160686382079 -0.09350081214224698 
0.2438614477071784 -0.2259621515293686 0.1206156087082200 0.1704047544649242 0.2522870010365775 0.2015030166379468 
0.6332267996467906 0.3809594913672462 -0.4264306804021708 -0.6941949995613389 0.2407037488646528 -0.3838977545472374 
0.4348433793363055 -0.2829681849460068 -0.2173986123849346 0.1401688975264516 0.4013883969112496 -0.1877527700196129 
-0.4091930453281829 0.7064962551194391 0.2579936635156395 -0.8359365044360043 1.300448673542971 -0.05545556756263642 
-0.9728991525493630 -0.2200286678442699 0.7376647717370081 -0.2282285714527985 -0.3294125524985791 -0.005951715257405522 
0.7239087721147515 -0.07266821699480895 -1.194845143097068 0.3476929604548493 -0.02391813734191386 -0.2713660339231955 
-0.3176766073834025 1.083357136168670 -0.9534586817953244 0.4311835641271755 0.1464376084818080 -0.4753512857319465 
0.05234966152170775 -0.7086657900505613 0.3418501603296163 -0.1139827237795273 0.01689429757506934 0.9049253884184534 
0.7898259101531353 -0.05498875889380456 -0.5942066751025674 0.2163979411680998 0.2015118772623640 0.4613906422311250 
-0.1054862105951884 0.009012536613486409 0.6494559633324670 -0.6402444143629591 0.8290017107235964 -0.3552368352640699 
0.1514902985345674 -0.5101753013141914 0.8420420905408933 -1.043921822743986 0.4031111308223640 -0.4620803684425331 
-0.6358291526442268 1.704308488868092 -1.750510312584626 0.3132901728778497 -1.150047447979274 -0.3277383876943593 
-0.6258360460110810 0.5627041213303690 0.04717167988548494 1.219491531076897 -0.2004026508127918 0.3454535153262444 
-0.1871028095179993 -0.5836771410211063 0.05608376633472682 0.7008726652845474 0.03106067341535658 0.8168873819515899 
0.8022701352592704 -0.1055094435784391 -0.9375699768478230 -1.003844467633419 -0.2799614740695854 -0.5262095947025720 
-0.6425657834369215 0.7739399119226095 0.3311309929249783 -0.1685882140012351 0.2836633461528405 -0.5365292389464783 
-0.01198164878838874 0.0003384357600895932 0.9593770905282528 -0.2041884381633269 0.4973090769349549 -0.1634370541529781 
0.1579173731940259 -0.5183077141995204 0.5222164531128095 0.1889641180094509 -0.09457747299465662 -0.2250232295052834 
-0.2363375795386390 -0.2823678567597962 -0.6766842302240053 0.9291664906778802 -0.02464751400395054 -0.3292005272238551 
0.2726316123920796 -0.3481612540978228 -0.2665240834648945 0.3323282902325798 0.007334803802192285 0.4553389114149411 
-0.9653422616334042 0.4117376970240818 0.3174633656860167 0.4608141870413712 -0.4206837355203763 0.3691919019591276 
0.4110338793171328 0.2035857757255924 -1.212615707683824 0.5812037104608948 -0.7713211109850910 -0.02370436839847028 
0.5862864180887841 0.2647071102431894 -1.424580617255374 -0.1153142895635323 0.06001501960965709 -0.3575390702131425 
0.8134563566545391 -0.6299529662979392 -0.2183583991726646 0.1788009910792643 -0.3648885556886427 0.4096835334240390 
0.3759489609460477 0.06119621716622899 -0.7660299982046289 -0.04126364873491823 0.6347453359542069 0.1238102834963647 
-0.6851475962631919 1.299421247070147 0.8157350470124218 -1.545746750251343 0.5456208099320485 -0.3357380719504021 
-0.5521493386699539 0.2342086090660246 0.4316663794467306 -0.3803093349745816 -0.3547697559603754 0.06644383162698324 
-0.6533271390646834 1.082663834317353 -1.156102786565838 0.2902289359167191 -0.3152313210826642 0.4427792520059520 
-0.6660756730949104 -0.2253882449520986 0.5847196073792288 -0.1155300075257496 0.8099500346141210 -0.2595040831439169 
-0.8295733256998927 0.8902552306584010 0.3472210974386187 -0.6045384104094963 0.7841832111882497 -0.4223521010191213 
0.1473490416065084 -0.1089065247049050 0.6444111805040993 -0.1442392325106600 0.003125612146826366 0.1825391434297743 
-0.8796611714394300 0.4143086783819105 -0.6581467859704286 1.055755499421187 -0.5266180129410977 0.4736176783346411 
0.06576506478519191 -0.3516975684067933 -0.3627796291318289 0.2183009861654008 0.3814490236245745 -0.1336340229661428 
0.04673839211861859 -0.5870469820602872 -0.6029045369903108 0.4044082923736376 -0.1658286695912210 0.5978337364433025 
-0.2041165960470684 -0.2695528156117908 0.1676425548761142 0.4022252875474559 -0.1197108480241342 -0.4766399922892367 
0.8223584233116087 -0.2141527991109686 0.1696882932643995 0.3907418148557587 0.2361244002338620 0.3476050957605026 
-0.04877005177517723 0.4923395647449276 -0.6872883143420934 -0.6312336439755758 -0.4671928140628122 -0.5380117494519591 
0.8104204263165449 -0.2531194521374123 0.5708823318815699 -0.6835719818839511 -0.02337842357359427 -0.1009153943707834 
0.6287693489140121 -0.4459410997784016 0.4559388770827748 0.08302606207307780 -0.04077080951137797 -0.06389560203119762 
-0.02885945961683362 0.04139144691688559 -0.8398351796121085 -0.2446530289584667 0.5948210867337782 0.09409127772795890 
0.8983641202587189 0.3082077738258885 -0.9918574757190836 0.4119769544807148 -0.3142928539581409 -0.5448210753084811 
0.0002139577439249317 1.216203194075044 -0.7486570070496598 0.1724063456910329 0.8589749732401539 -0.1664622989172031 
-0.3362260961162848 0.3028512094704506 -0.3852392972892365 -0.3823046222950843 0.6994804360897114 0.2340922635795342 
-0.1218459901593481 -0.7239552355234802 0.4222629078435644 0.1762111738304389 -0.1937580215220921 -0.09101835996133383 
-0.4837077754904952 -0.03377190111132594 -0.4097131708164918 0.3226512243717618 1.022981613211333 0.1413585717852419 
-0.03468299421879133 -0.1614666360089020 -1.241281173836530 0.2571546837363471 -0.3772111190963498 0.2160565573572856 
0.5654698882193330 -0.4853213806241824 -0.3159307126767742 0.7486581274541680 -0.4729492709346581 -0.01732479068790464 
0.09522840995153503 1.441002725015719 -1.011161650395140 -0.4681935745982125 0.08637179334887793 0.09479814295266686 
0.1418667689286539 0.5967658004869600 -0.2452938953989055 0.4322560196050333 -0.8466916562176524 -0.1875881558798080 
0.7289638196676689 -0.1035888590676205 0.02802660075962481 0.08765508680939030 0.1644780793764764 -0.07773238776347054 
-1.017689545268538 0.7995515820474048 -0.4581311399226193 0.3345728932285542 -0.07061876965986878 0.1088336857674876 
-0.4260015648519919 -0.2650200793670862 0.02759337288363966 -0.4388525304434777 0.1806134948466600 -0.6401552295714853 
0.5410275632603287 0.4807785086454586 -0.6835394097064239 -0.02214202226518575 -0.6953865631349269 0.1040220199218275 
-0.1769536936015039 0.7646129446494424 1.072340352643395 -1.007419644032008 0.05817906270559068 -0.2364716356483332 
-0.2537671269405633 0.06395317221739505 -0.3254636146657400 -0.5447625712928071 -0.2514192536015760 -0.2750099227429085 
-0.5280503076286233 0.1039080053917521 -0.3165895876950554 0.4458898745347831 0.7154456051342585 0.8059944716860387 
0.04764248411330654 -0.04790803947519896 0.8493227565266394 -0.2986778335201919 0.2742679235790151 0.6657239951161555 
0.9557476217328785 -0.3766936505912907 -1.652602697412514 1.638366107383792 -0.06730427189140382 -0.1279958445473373 
0.1878113663183234 -0.07348499640264840 -0.3779495243520375 0.1611611557761062 -0.3002437710767653 -0.2442785721483803 
0.004526507139822930 0.6386394755485244 -0.4212527537514567 0.3023485504182411 -0.4533408553208941 -1.048757792100201 
-0.1818970503978843 0.3084125510344858 0.1151552631487854 0.08588254023894890 0.2273176576234959 -0.5829809414402979 
0.3477450092521661 0.7516477630410620 -1.099793333897943 -0.4733302825982964 -0.1441157000248455 -0.3776757047247811 
0.9016909305651067 -0.6489996038783871 -1.483621148095888 0.4868837822279131 0.3097647631748780 -0.4775696984438166 
-0.6244837912271061 0.3093656802597358 -0.6230650687663460 -0.06401379712275790 -0.3170694884461733 -0.8812936364649224 
0.6179006474483353 -0.05145999394162805 -0.1023917936036132 -0.04680056380841514 -0.5983283893098887 0.02684354543963134 
-0.3064631647130502 0.1970493578478132 0.5460788466403197 0.04531982468896390 -0.06849385438925089 -0.2250947873487761 
0.7458689547496876 -0.6671530897213028 1.031512224528187 0.2328458054440969 -0.04570626368527259 0.3839092629309929 
-0.01309606282816003 -0.4156599459613059 1.265357960064453 -0.6704746098043021 0.2226619664402954 -0.1782538482079434 
1.778582948874761 0.1702285891326962 -1.392912813304907 -1.211592414753818 0.1651043473472780 0.3369678635045452 
0.2255886420436840 -0.1817597743122860 -0.5034312823623959 0.6446148390489930 -0.3040346102277441 0.01716755800747135 
-0.2096657561888713 -0.1463725555176043 0.2770904276576661 0.3228190674131568 -0.6388466110162870 -0.7349075526372141 
0.9155439617247958 -0.4715402854935850 0.6004282704096093 -0.5691136652183125 -0.2744683405099802 0.2802234327802863 
-1.286982543906146 0.07649834479784173 0.4074066762758694 0.04947042747056925 0.2515887479069804 -0.3057198639580062 
0.4409502047971665 -0.2851928991057199 -0.08413724360680530 0.006199212504700953 0.8787914992036409 -0.03192285132762310 
-0.6078478464389914 0.7409654180565668 -0.7190299959780615 0.7138318574735332 0.8102388140685640 0.05536436442593769 
-0.5213108083327382 0.09415374630891490 1.157121564828101 -0.3068043567399195 0.5041203682285418 0.1070500243029176 
0.1145634098956079 -0.4203045528923702 0.6790172551017707 0.4203955927367746 0.2143960128796535 0.2455846391432951 
0.3594210121952572 0.05336895680587348 0.9413540964901232 -1.251834220123809 0.09983490636124562 -0.1323611541094882 
0.7785889477193744 0.2812157201621415 -0.3836897950594179 -0.3307797944822154 0.5202333765504054 0.1065115531281818 
-0.3421904015087225 0.5447716429378889 -0.3987783211369425 -0.8042579881568531 0.4171770749015611 -0.4088370884908983 
0.1924690448423676 -0.06621750997352276 -0.1502981998945704 -0.3685254438535192 -0.2961040130307986 -0.5043057972895039 
0.03654708211857940 -0.3418029398842423 -0.4586853858537929 0.05229263071509493 -0.3238175075102776 0.2765357114667789 
1.052873169750286 -0.4932615346292005 -0.04179775699732127 -1.112828311691996 0.2436622329154762 -0.2918911792599946 
-0.6607008118591633 0.7684126458674215 -0.4304341767988303 -0.4523805016387221 0.08229149620071502 0.9343927811376532 
-0.6719503734775020 0.02215096332988111 0.5361637154012726 0.4376103444126205 -0.2337928112267882 0.4852643760879463 
-0.6266593810546722 -0.6316373837429237 0.9232737132128521 0.4762102846959939 -0.6361682923467842 0.2681574702429128 
-0.2197844042192525 0.7806032157394363 -1.082962449617253 -0.3698915086176299 0.3871070225635135 -0.3067725854257861 
-0.3787067337057752 0.2566111419766410 -0.09599316058378264 0.02235442972672484 -0.2949940287759797 -0.1464604320362229 
0.1813491450702078 0.6060929340897300 -0.4994858035421573 -0.2528760980735542 0.5766374464064947 1.008765756041187 
-0.5400249736670993 -0.2823149661671201 1.235450421896203 -0.2328323876683799 0.3648630405465468 0.2702587763336782 
0.3675161969463413 -0.2270155788635553 0.6017185964379174 -0.2657289974582986 0.1475615062663387 0.4378860006716162 
0.1815223649495377 -0.7019081577776259 -0.2184515039388836 0.8589316887280743 -0.1099640922056370 0.1383615835163946 
0.2213430693058561 0.3469586320713070 -0.5864949019709937 -0.3904551779226128 0.09970035216538730 -0.3693687500821775 
0.1103166261065001 0.5394768872838274 -0.9182967576707459 0.07899113523309162 -0.6735514696954733 0.4767501102412108 
0.4094341209419665 -0.7684915653939567 1.070337198302407 -0.3346225641470236 -0.09977374100690964 -0.2258165067728693 
0.9584787072452616 0.2515936563165981 -0.2852477050276766 -0.2207426818219941 -0.4576531087088701 0.2957038371781630 
0.1752353176912019 -0.1246923841761975 -0.5890322969055499 0.006074611112665847 -0.5364057360826993 -0.3221401678995524 
-0.02582134451618483 0.2923889234982564 -0.4124550382782165 -0.2978519618920315 0.05750473272648065 0.1525530221304758 
