solver_type L2R_LR_DUAL
nr_class 5
label 1 6 4 2 5
nr_feature 166
bias 1.000000000000000
w
0.3969268767111501 0.06220126255362143 -0.5042507571600856 -1.031023994318482 -0.4324645576298798 
0 0 0 0 0 
0 0 0 0 0 
-0.4513711803654267 0.6555240835548966 -0.03932615541950560 -0.1565515757899595 -0.1445363706380801 
-0.7094635869300586 -0.5373619166172559 1.313148304333315 -0.3621133865435303 -0.2345184423352332 
0 0 0 0 0 
0 0 0 0 0 
0 0 0 0 0 
0 0 0 0 0 
0 0 0 0 0 
0 0 0 0 0 
0 0 0 0 0 
0 0 0 0 0 
0 0 0 0 0 
0 0 0 0 0 
0 0 0 0 0 
0.09098978190851746 0.2455655998559428 0.007318666526396921 0.1551802202561197 -0.6918791959166440 
-0.1741765149191617 -0.6672598787597828 0.2282754201153877 0.2893237445994966 0.07947476785490552 
0.1391414652670807 0.1358152265674268 -0.1682991223652932 -0.2952179426190122 -1.057614232778130 
-0.1740306054127669 -0.2513110424386781 -0.01136456820598125 -0.03907951045847249 0.3829377866227894 
0 0 0 0 0 
0 0 0 0 0 
0 0 0 0 0 
0 0 0 0 0 
0 0 0 0 0 
0 0 0 0 0 
0 0 0 0 0 
-0.1891602204099168 0.5963546889703420 -0.3572944779403690 -0.08189328052338486 -0.06089297386866408 
0 0 0 0 0 
0 0 0 0 0 
0 0 0 0 0 
0 0 0 0 0 
0 0 0 0 0 
0 0 0 0 0 
0 0 0 0 0 
0 0 0 0 0 
0 0 0 0 0 
0 0 0 0 0 
0 0 0 0 0 
0 0 0 0 0 
0 0 0 0 0 
0 0 0 0 0 
0 0 0 0 0 
0 0 0 0 0 
0 0 0 0 0 
0 0 0 0 0 
0 0 0 0 0 
0 0 0 0 0 
0 0 0 0 0 
0 0 0 0 0 
0 0 0 0 0 
0 0 0 0 0 
0 0 0 0 0 
-0.2632991993045356 0.1509071265660701 -1.090387765022420 0.4120565828245237 -0.4275803249142673 
0.1171743822948282 0.007692928919353609 -1.505903641128026 -0.9709866964180176 -0.1602457447360673 
-0.9930206489881319 0.1765152567260016 0.1928734740780763 -0.8260490438062739 0.5752236684675116 
-0.05394850499333070 0.3127114014989625 0.1005121704463123 -0.5001138554172356 -0.1629255173997144 
0.6441496868561808 -0.9695215791071288 -0.09635157067993023 0.3480380443242923 -0.05797284905576872 
0 0 0 0 0 
0 0 0 0 0 
0 0 0 0 0 
0 0 0 0 0 
0 0 0 0 0 
0 0 0 0 0 
0 0 0 0 0 
0 0 0 0 0 
0 0 0 0 0 
0 0 0 0 0 
0 0 0 0 0 
0 0 0 0 0 
0 0 0 0 0 
0 0 0 0 0 
0 0 0 0 0 
0 0 0 0 0 
0 0 0 0 0 
0 0 0 0 0 
0 0 0 0 0 
0 0 0 0 0 
0 0 0 0 0 
0 0 0 0 0 
0 0 0 0 0 
0 0 0 0 0 
0 0 0 0 0 
0 0 0 0 0 
0 0 0 0 0 
0 0 0 0 0 
0 0 0 0 0 
0 0 0 0 0 
0 0 0 0 0 
0 0 0 0 0 
0 0 0 0 0 
0 0 0 0 0 
0 0 0 0 0 
0 0 0 0 0 
0 0 0 0 0 
0 0 0 0 0 
0 0 0 0 0 
0 0 0 0 0 
0 0 0 0 0 
0 0 0 0 0 
0 0 0 0 0 
0 0 0 0 0 
0 0 0 0 0 
0 0 0 0 0 
0 0 0 0 0 
0 0 0 0 0 
0 0 0 0 0 
0 0 0 0 0 
0 0 0 0 0 
0 0 0 0 0 
0 0 0 0 0 
0 0 0 0 0 
0 0 0 0 0 
0 0 0 0 0 
0 0 0 0 0 
0 0 0 0 0 
0 0 0 0 0 
0 0 0 0 0 
0 0 0 0 0 
0 0 0 0 0 
0 0 0 0 0 
0 0 0 0 0 
0.1826632519219088 -0.3547136420280837 -0.2108990684192448 -1.044432488483132 -0.1160930836264334 
-0.1638339570018922 -0.05281035169693660 -0.6558924823724315 -0.2690095074016011 -0.6299539781478553 
0.3887658458197959 -0.2901217440124124 -1.138306967263659 -0.5085300489263090 0.1928249502658344 
-0.3405367020452190 0.3787283467578699 -0.1064845333121601 -0.7244911740656961 -0.4265936203910081 
-0.1375225768238778 0.3425470704224836 -0.3926457836629298 -0.3549950496050317 -0.4305861692794604 
-0.2901840591571662 -0.007522129355180651 0.1872674711749650 -0.2064889642100898 -0.1701942699692758 
-0.5072808169673753 -0.4590977850339084 0.3282619410723927 0.3536636229955225 -0.1665941767567721 
-0.1497448405548268 -0.1599339644420071 0.2121150406671392 -0.07119924031059849 -0.04757695548646106 
-0.3883978603804751 -0.02635886008040231 -0.01574944538631028 -0.1995594517839362 0.03906052955981751 
0 0 0 0 0 
0 0 0 0 0 
0 0 0 0 0 
0 0 0 0 0 
0 0 0 0 0 
0 0 0 0 0 
0 0 0 0 0 
0 0 0 0 0 
0 0 0 0 0 
0 0 0 0 0 
0 0 0 0 0 
0 0 0 0 0 
0 0 0 0 0 
0 0 0 0 0 
0 0 0 0 0 
-1.275467454864671 0.1894180065480881 -1.812550201552713 -1.349481381623949 0.9438792959784842 
0.6102521659778538 -0.3152568146179627 0.03902407058962891 0.03665485963908605 -0.6820343674318408 
-0.2218999731993590 0.05437515939324883 -0.3184275712007291 0.1399619057684176 -0.1720423841524315 
-0.1669044220959758 0.1888332224346110 -0.9120632456419185 -0.6481685709570084 0.2016851829038526 
-0.5475862946393617 0.2872910047409312 0.2974912496179401 -0.6953067142315327 -0.2301487775319054 
-0.3813757729305042 -0.2193739194538165 1.290069086484510 -0.8293638117198680 -1.671241574036263 
0.3628934834664497 -0.2674535007553267 -0.5145934107188300 0.2872730192349132 -0.7830913620571394 
0.8234796086419454 -0.5504133182318378 -0.3749672307427097 -2.172067529743976 0.4749373971390004 
-0.9344669863653652 0.1390160233739233 0.2761782109807722 -0.1711410142340614 -0.5273594378770355 
-1.015331283179512 -0.1515742780241328 -0.4795466428433796 0.8327957830244634 -0.6720072360290628 
0.6883448526665179 -0.4676632693163606 -0.5922469926594924 -0.4583761811991670 0.1269226528362408 
-1.295360830191334 0.3568835292737692 0.09400220200354667 0.1860321027997922 -0.7579189431141091 
0.8005886373583989 0.1748355654518099 -0.5609257937526860 -0.1162437169028498 -0.6049341472825764 
0.01475053749430828 0.01558360208774061 -0.3185149712592080 -0.4791274682682194 0.2109444106354580 
-1.237415997211104 0.3381976372883265 0.3256074219298306 -0.4907863660179570 -0.8070362177480794 
0.7040670539833068 0.3406545619553870 -1.889734838762955 -1.872082503499199 -0.7697923659322544 
0.9075609116150523 -1.064169932717834 0.1305974819661829 -0.1851265989620190 -0.01464093905361356 
-1.292207431962296 -0.09801441191096431 -0.5224912834062162 0.1698674439551548 -0.1579457809581376 
0.1085765033489893 -0.1754188999168792 -0.3886348435132287 -1.017913147738217 -1.012146815883202 
-0.4366609843755833 0.1091292390421261 -0.4678352411073594 -0.5764866845194311 0.6431064785633728 
-1.250243914922369 0.3945888041344420 0.1061703458553764 0.4247533129235122 -0.6080552747025122 
