solver_type L2R_L2LOSS_SVC_DUAL
nr_class 3
label 3 1 2
nr_feature 374
bias 1.000000000000000
w
-0.2018494145967599 0.08322336282891633 0.2828820796010931 
3.469446951953614e-18 -0.07791114283154939 0 
0 0 0 
0 0 0 
-0.8580277077461025 0 0.9836100146782640 
0 0 0 
0 0 0 
0 0 0 
0 0 0 
0 0 0 
0 0 0 
0 0 0 
0 0 0 
0 0 0 
0 0 0 
0 0 0 
0.6946585294618189 0.006414654754478336 -0.9321512476419503 
0.2863343957927808 -0.3228529990767030 -0.3043943187406342 
0.09573282556828959 -0.09395030154999776 -0.08256066207118964 
-0.1320553978576664 0.6208504272847026 -0.6326456735267024 
0 0 0 
0 0 0 
0 0 0 
0 0 0 
0 0 0 
0 0 0 
0 0 0 
0.1362273978767742 0 -0.1718530819389920 
0 0 0 
0 0 0 
0 0 0 
0 0 0 
0 0 0 
0 0 0 
0 0 0 
0 0 0 
0 0 0 
0 0 0 
0 0 0 
0 0 0 
0 0 0 
0 0 0 
0 0 0 
0 0 0 
0 0 0 
0 0 0 
0 0 0 
0 0 0 
0 0 0 
0 0 0 
0 0 0 
0 0 0 
0 0 0 
0.2306898728913932 -0.007255872617189754 -0.2142480478171931 
0.2955887576957336 -0.6156377311835259 -0.05809637751087744 
0.2269524225800933 -0.004047825004588741 -0.2766597240910668 
0.5323197437366248 -0.5656323012744817 -0.2138872460965759 
-0.1093398128718457 0.2404490814828990 0.1796988517724218 
0 0 0 
0 0 0 
0 0 0 
0.2351621101675652 0.02682442674215716 -0.2231618241854623 
-0.03907798180929396 0 0 
0 0 0 
0 0 0 
0.1338581714863038 0 -0.2834432130822603 
0 0 0 
0 0 0 
0 0 0 
0 0 0 
0 0 0 
0 0 0 
0 0 0 
0 0 0 
0 0 0 
0 0 0 
0 0 0 
0.2553044412861373 -0.1930711425865639 -0.2025434801617935 
0.2524470293967703 -0.4570210460715840 -0.2278451027419026 
-0.09231443076527815 0.05208055220813743 0.1923594435454836 
-0.04097775078072294 -3.469446951953614e-18 0.05849011030773160 
0 0 0 
0 0 0 
0 0 0 
0 0 0 
0 0 0 
0 0 0 
0 0 0 
0.2210719625698052 0.1625546189370046 -0.1937039690703636 
0 0 0 
0 0 0 
0 0 0 
0 0 0 
0 0 0 
0 0 0 
0 0 0 
0 0 0 
0 0 0 
0 0 0 
0 0 0 
0 0 0 
0 0 0 
0 0 0 
0 0 0 
0 0 0 
0 0 0 
0 0 0 
0 0 0 
0 0 0 
0 0 0 
0 0 0 
0 0 0 
0 0 0 
0 0 0 
-0.1646682213160323 0.5175397831852985 -0.1606881217746721 
0.1521158404170730 -0.08821828160511033 -0.04819948748494142 
0.1546671583877760 -0.6519163776063320 -0.1689288253949225 
0.1807335710309657 0.2241337242622722 -0.3371267750092091 
-0.05109028753993370 -0.3292569046523145 0.1544858116689065 
0 0 0 
0 0 0 
0 0 0 
-0.1285935498865775 0.3231412549610718 0.1441812021658519 
-0.06576734561351127 -0.2170961683149185 0.1203402676555212 
0.1196207518063119 -0.4820840578966169 0.05608639220333246 
0.2596842329053298 -0.01793311575628472 -0.1313617372701111 
0.06372060668907857 -0.05187879633165348 0.1610920966571069 
0.3145529334702027 -0.02869811350093383 -0.07323731709793922 
0.3922644792311267 0.07982269488153008 -0.3438561690892993 
0.4328915364689930 0 -0.4477926600030097 
0 0 0 
0.1362273978767742 0 -0.1718530819389920 
0 0 0 
0 0 0 
0 0 0 
0.2751540138611707 -0.2731011677851364 -0.1136453093786103 
0.4793312725237056 -0.5212117767361041 -0.3416788523557835 
0.2313347096421650 -0.2009928930375879 -0.1153616111094101 
0.2306431919624722 -0.1281509633880288 -0.1083383763499449 
0.4319847349529682 -0.02735488794967968 -0.5459407456122853 
0.1732100017038009 0.05417931469183679 -0.2568921135761209 
0.2597000210780516 3.469446951953614e-18 -0.2834432130822603 
0 0 0 
0.2352267979607116 0.1625546189370047 -0.4260602386108715 
0 0 0 
0 0 0 
0 0 0 
0.05171983238784925 0.01989309079265081 -0.008045891507853469 
0.3259115382751280 -0.09140744488999694 -0.4756042694801982 
0.6849643480393492 -1.095349257626035 -0.5765171934785334 
0.5402084335273096 1.127570259384925e-17 -0.6211145254502815 
-0.05574788540560752 0.05567172410214648 0.07508660507571092 
-0.006048956227313789 -0.008016426713408131 -0.03569113772867145 
0.4152208403503681 -0.1284314777969264 -0.6485168883406653 
-0.2901256683802892 0.2528520475445097 0.2600098145987814 
-0.09123949937267636 0.1869227433026731 0.1064378919402506 
0.8551903428069412 -0.7708347271268212 -0.6137130099476121 
0.3670058586148464 -1.734723475976807e-18 -0.1143451815302480 
-0.1123973408343337 -0.09219741140228332 0.1662458015961376 
0.1057127946124059 0.1517815217231682 -0.5192279177854497 
0.08641004413645778 -0.2943422262678428 -0.1664051666793874 
-0.2489244121865671 0.4435241725259334 0.07103109872806115 
0.1442343253813868 -0.1742819766391958 -0.2638910577649091 
-0.02915763289782155 0.3003952136024579 -0.2281511412371373 
-0.1307427111866878 -0.2243796754069788 0.02669976411249848 
-0.08076370105993234 -0.5435432457943754 0.1862139459425147 
-0.3085177293594228 0.6100770777024936 0.1301920891097963 
0.08680052457022817 -0.5764574036067500 -0.2331729697135218 
0.04710759978234444 -0.05066255948211534 -0.07280409359903914 
0.3464230100210054 0.0006802204872053243 -0.4986932286771108 
0.06311425034506048 -0.5385104481873590 0.03000273641677949 
-0.1065105567327874 0.1625504858458127 0.03505975378357278 
0.05269180937262064 -0.2338298460874050 0.1463874983157641 
-0.3290729677122415 0.2780491882736726 0.5465041466825357 
0.6305467228643742 -0.3042278124200074 -1.168447786341155 
-0.07948294668342278 0.3169651015421594 0.2449954139113283 
0.4577397982337493 -0.4173473161539114 -0.4588346266380369 
-0.1714126784883209 0.2515220444946460 -0.1302377327509241 
0.2021703768106102 -0.06587551820182871 -0.8139602665839740 
-0.1509662082476719 -0.03921204186596490 0.4037508618035741 
0.05135786979509045 -0.6303248569249140 -0.1492684965306718 
-0.04239173698173436 0.1298452362498330 -0.09144681122263687 
0.3175672225436212 -0.5077296470847983 -0.4963213980601611 
0.4541588687211319 -0.07177849279466567 -0.02343007644798763 
-0.04030824459566649 -0.2866877435574120 -0.01313457813842290 
0.02010109435828114 -0.2377654093642639 -0.07659047281477285 
0.2171458164907912 -0.4924655858657315 -0.3117197549098337 
-0.07326795200384350 -0.1985643037775287 0.1100608930833043 
0.1374766074150745 0.1131993762603538 -0.3172377879809639 
-0.3568439699860512 0.5550406077224539 0.3964087309872926 
0 0 0 
-0.5275497042603384 -6.505213034913027e-18 0.4961021678056615 
0 0 0 
0 0 0 
0 1.387778780781446e-17 0 
-0.06120369751179866 0.4362633611303645 -0.2323562695405083 
0 0 0 
0 0 0 
-0.01477739014820416 0 0.4066560909511253 
0 0 0 
-1.174400743125451 -0.2460139012443757 1.446297666885434 
0.2355062066723909 -0.5741347135624938 -0.2521805999476655 
0 0 0 
0 0 0 
8.673617379884035e-19 0 0 
0 0 0 
0 0 0 
0.6753157835606244 -0.7133231430550787 -0.3871384728490945 
0 0 0 
0.05788087620747354 -0.08753143792095280 0 
0 0 0 
-0.04887673172763152 0.3659459683770247 0.05974025194166162 
-0.1320205784747333 0.3784971044008960 -0.3562069467187641 
0 0 0 
0 0 0 
0 0 0 
0 0 0 
0 0 0 
0 0 0 
0 0 0 
0.3519415016013102 -0.2184948112101787 -0.4101135939914202 
0 0 0 
0.3921863472744064 -3.469446951953614e-18 -0.4257625905354650 
-8.673617379884035e-19 -0.2871971649186875 -7.155734338404330e-18 
0 0 0 
0 0 0 
-0.1541190070118500 0.4911612413654710 -0.08551766520456142 
-0.06199402140886143 -0.1971322406208390 -0.04489225680479621 
-0.2004184853987371 -0.2162101983488201 0.3504991017091660 
0 0 0 
-0.0005259529248827950 -0.2475569536803817 0.03290342112848385 
0 0 0 
0 0 0 
0 0 0 
0.2849539205603144 -0.2849474574136409 -0.4155322378584749 
-0.1870344331341675 -6.938893903907228e-18 0.3284243039504428 
0 0 0 
0.2171971811696783 -0.01986475556569437 -0.2291342103544096 
-0.06705757076700042 0.1780610867275073 -0.02800798690987265 
0 0 0 
0 0 0 
0 0 0 
0 0 0 
-0.2383803798017935 0.5224474876166763 -1.734723475976807e-17 
0 0 0 
-0.2004184853987371 -0.2162101983488201 0.3504991017091660 
0.3519415016013102 -0.2184948112101787 -0.4101135939914202 
1.040834085586084e-17 -0.08396079099508096 0 
-0.05788396984412976 -0.1082587175213343 0.1077568238823098 
0.2171971811696783 -0.01986475556569437 -0.2291342103544096 
0.3921863472744064 -3.469446951953614e-18 -0.4257625905354650 
-0.1541190070118500 0.4911612413654710 -0.08551766520456142 
0.07255305773893575 -0.1124741352533581 -0.2212487559831026 
-2.081668171172169e-17 -1.387778780781446e-17 0 
0 0 3.469446951953614e-18 
0 0 0 
-0.01229607081445839 0.3829298867999151 -0.3482055577643102 
-1.041737007666918 0 0.9934796249633837 
0.2849539205603144 -0.2849474574136409 -0.4155322378584749 
0.5781411255929554 -0.3817767960389436 -0.2636422927804686 
-0.06199402140886143 -0.1971322406208390 -0.04489225680479621 
0 0 0 
-0.0005259529248827950 -0.2475569536803817 0.03290342112848385 
0 0 0 
0 0 0 
-0.1870344331341675 -6.938893903907228e-18 0.3284243039504428 
0.09251213434639864 -0.2948512169928155 -3.469446951953614e-18 
-0.5742595996511517 0.7274304794108958 0.7269182459984688 
-0.06705757076700042 0.1780610867275073 -0.02800798690987265 
0 0 0 
-8.673617379884035e-19 -0.2871971649186875 -7.155734338404330e-18 
-0.1383026987963620 -0.1821914883166906 0.3760508010140288 
0 0 0 
0 0 0 
0 0 0 
0 0 0 
0 0 0 
0 0 0 
0 0 0 
-0.5470113873137754 0.9468583411567107 0.3760856924014471 
-0.3446543525218168 0.7837040056860448 0.3075491965000979 
0.2017013816674201 0.06442057603679935 -0.3906572289548015 
0.1934185049656412 -0.005529187359772985 -0.1984664256518135 
0.1582291655353791 -0.001851190529534639 -0.1740478918732373 
0.03125655419311697 -0.3656030559673570 0.1750171434929244 
0.3360999044132975 -1.021803212598462 0.05354163194843389 
-0.1011205250911672 -0.1323005962402471 -0.07717276112214193 
-0.2034639241399750 0.2353885812974092 0.2812742581581100 
0.04469568266873695 0.1382230848898439 0.03636988650630621 
0.5965608719025506 -0.09804569472677643 -0.2311969021209402 
0.2707744796194909 0.1716973032671602 -0.5517227899220939 
0.3770451057102517 -0.2139586304923729 -0.5198240944666693 
0.5079551500782960 6.938893903907228e-18 -0.7335997619099034 
0.09645237331926239 0.1031631870287091 -0.1737679859628798 
-0.4013557422051945 -0.6852802553971983 1.227322819089991 
-0.5513140868707802 0.7116343090508411 -0.2311969021209404 
0.5044552457107137 -0.5917925688353057 -0.5056557714238494 
0.4625154983297451 -0.8512234796151097 -0.05345304662254841 
-0.4414547469538720 0.5535917270930073 0.3733754779153635 
0.4715712338830401 -0.4366291554807946 -0.4013972856019529 
0.06082419436415627 0.3009545062814237 -0.2311969021209404 
0.3580303013008690 0.2604978614605467 -0.6945331254968465 
0.1017767068493310 -0.1085107730114603 -0.1409983676011920 
-0.1572862193259104 0.5224474876166765 -1.734723475976807e-17 
-0.2303952546234415 -0.2100794927717833 0.2978712117149727 
-0.7775714941324902 1.449399616095850 0.2035625379315651 
-7.806255641895632e-18 0 -0.2083005900078521 
0.3552875254058012 -0.2002333491536742 -0.4306513982830299 
0.2360527920365786 -0.2152603008833809 -0.2129862611615560 
-0.3984751798250165 0 0.6567608753507548 
0 0 0 
-0.08159510788198568 0.1361240305119425 0.1997325102324269 
-0.2930470058377200 0 0.1956448194523927 
0.1201811408466748 6.938893903907228e-18 -0.03638906128745195 
0.6902559064264188 -0.6682908184856848 -0.4028470626386745 
0 0 0 
0 0 0 
0 0 0 
-1.022954798777377 1.204314834598109 0 
0.01969532775436672 0.1128049669631221 -0.4445187352116745 
0.5373433058220017 -0.9641099586754098 -0.1874332256645865 
0.2023832102344971 -0.3186158181968851 0.2538914784056682 
0.2331041751698193 -0.07679902874609339 -0.4434709806433635 
-0.2343012348387871 0.6192950596184796 0.2077355220207828 
0.5536482867226058 -0.3350415483454745 -0.5907521496110818 
0.2796532692732658 -0.03053871639209449 -0.2050217643440146 
0.1611604788051378 -0.1185450551669231 -0.1877554329564590 
0.2608521711545531 -0.1444929847679825 -0.3321102518670808 
0.4493074242963187 -0.3819051623621390 -0.4448354790796678 
0 0 0 
0.3259115382751280 -0.09140744488999694 -0.4756042694801982 
0 0 0 
0.4060030473329800 -0.7054336699539767 -0.1700287106194423 
0.2517660740932815 -0.04827809983509503 -0.5829382347060001 
-0.02441269157667960 0.5348744389846372 -0.1486316372552041 
0.06943835393909215 -0.1797010416541035 0.07928022594797374 
0.008931425326594800 0.4080320216269422 -0.1018829411719590 
-0.6935930122800152 0.3211739714960515 0.7350400154648200 
-0.05348174801636106 0.6640162315507392 -0.2730477349950992 
0.06718540198512893 -0.4759939506763180 0.02029435816776488 
0.5301647915221110 -0.03365891539111236 -0.5770464197593518 
-0.1156934030165697 0.01123135292308312 0.2105239475872699 
0.02593306335102843 0.2199746938001276 -0.1319557733362543 
0.4942421309057969 -0.2737317125127672 -0.5018641635698016 
0.3155871223710031 -0.5208337381829338 -0.02290851473881225 
0.08397386124213899 -0.1485875901554213 -0.01457047561541052 
0.1176813841979798 -0.1992229339134504 0.09286962630784096 
0.3799108467668708 0.08242569597754060 -0.9921948295399498 
-0.2946123074062794 0.4333838970940838 0.1144071897347242 
0.02577547595783765 -0.4964039360804619 0.4046281028882724 
-0.1287430715829537 0.5237125063504083 -0.2393733757823863 
-0.5308214095430154 1.028874204074283 0.1182823601643874 
-0.3869376548048589 0.3109985695647070 0.4185004827577764 
0.7223984083186554 -0.1121800918269657 -1.032694970782512 
0.4431718887512776 -0.4084380225689931 -0.3929909716502120 
0.06477413591398959 -0.7072965152948674 0.04720729013477700 
-0.02604328664030924 -0.05258963524420679 0.05074005496773149 
0.1658458707286774 -1.127570259384925e-17 -0.001755203043046064 
0.2645967967564316 0.2406057176090502 -0.3775409402619623 
0.3099814968037661 -0.3494737470242005 -0.3521260497918045 
0.05726850227488073 0.4405066200140028 -0.4698436358849157 
-0.1718456110615708 0.6192694501012455 -0.07458185033559900 
-0.6075122569205597 0.1860610900957824 0.6205914234641302 
0.2234188021407471 0 -0.03538718106569573 
-0.2849213465840083 0 -0.05508807911558827 
1.042949073137040 0 -1.206128052874339 
-0.1622035326657962 0.02432508768821667 0.3043830071150419 
0.3478773020027946 -0.1911651129639692 -0.4754245579312699 
-0.1311999134498548 0.4878909368347570 0.07074155916689158 
0 0 0 
-0.1522156396108791 0 0.3921724059809087 
0.1891123062487567 0 -0.1103071982561524 
0.09744063608889492 0 -0.2476486239096118 
0 0 0 
0.09525452662962249 -0.1707626725295173 3.469446951953614e-18 
