solver_type L2R_LR_DUAL
nr_class 5
label 1 6 4 5 2
nr_feature 166
bias 1.000000000000000
w
0.2491156442022109 -0.03962645605086032 -0.4547258252184318 -0.4609986853074484 -0.7370476360467013 
0 0 0 0 0 
0 0 0 0 0 
-0.4419996542540853 0.6417406458038336 -0.03568296350173265 -0.1401955350764772 -0.1803186951644937 
-0.7690232791994314 -0.5129636435172217 1.318014276028952 -0.2147188908700996 -0.4010489846663896 
0 0 0 0 0 
0 0 0 0 0 
0 0 0 0 0 
0 0 0 0 0 
0 0 0 0 0 
0 0 0 0 0 
0 0 0 0 0 
0 0 0 0 0 
0 0 0 0 0 
0 0 0 0 0 
0 0 0 0 0 
0.2559419775490356 0.06126090995636194 0.09845443758830051 -0.6186475733724547 0.04748360855257520 
-0.3095533766913249 -0.5880073538894374 0.2326395306604918 0.06900756596913128 0.3397127208846141 
0.1561747189881587 0.1439947282255823 -0.1669860867203314 -1.130120483039382 -0.3834357083876054 
-0.1622187782974016 -0.2787957620012712 -0.009889331281619985 0.3983788837705375 -0.04395568483981383 
0 0 0 0 0 
0 0 0 0 0 
0 0 0 0 0 
0 0 0 0 0 
0 0 0 0 0 
0 0 0 0 0 
0 0 0 0 0 
0.2491449178644734 0.3769966408468464 -0.5582171896496082 -0.1046569966293821 -0.1699264166547351 
0 0 0 0 0 
0 0 0 0 0 
0 0 0 0 0 
0 0 0 0 0 
0 0 0 0 0 
0 0 0 0 0 
0 0 0 0 0 
0 0 0 0 0 
0 0 0 0 0 
0 0 0 0 0 
0 0 0 0 0 
0 0 0 0 0 
0 0 0 0 0 
0 0 0 0 0 
0 0 0 0 0 
0 0 0 0 0 
0 0 0 0 0 
0 0 0 0 0 
0 0 0 0 0 
0 0 0 0 0 
0 0 0 0 0 
0 0 0 0 0 
0 0 0 0 0 
0 0 0 0 0 
0 0 0 0 0 
-0.3661772549420004 0.2309494588156485 -1.256963739846966 -0.3383078853551961 0.4235285216951489 
-0.04501492580549872 0.1129113700045066 -1.426151502566566 -0.2412069867213990 -1.159294318328436 
-0.9429497387196262 0.1390380941985979 0.3637867454430153 0.5904143474950969 -0.9450366971885962 
0.04623195326691290 0.3158013739357068 -0.08745757199476180 -0.2522870693946712 -0.2253589541926790 
0.4758111567780037 -0.5925396810637334 -0.1627061439774100 -0.1055993893064558 0.09439471135998730 
0 0 0 0 0 
0 0 0 0 0 
0 0 0 0 0 
0 0 0 0 0 
0 0 0 0 0 
0 0 0 0 0 
0 0 0 0 0 
0 0 0 0 0 
0 0 0 0 0 
0 0 0 0 0 
0 0 0 0 0 
0 0 0 0 0 
0 0 0 0 0 
0 0 0 0 0 
0 0 0 0 0 
0 0 0 0 0 
0 0 0 0 0 
0 0 0 0 0 
0 0 0 0 0 
0 0 0 0 0 
0 0 0 0 0 
0 0 0 0 0 
0 0 0 0 0 
0 0 0 0 0 
0 0 0 0 0 
0 0 0 0 0 
0 0 0 0 0 
0 0 0 0 0 
0 0 0 0 0 
0 0 0 0 0 
0 0 0 0 0 
0 0 0 0 0 
0 0 0 0 0 
0 0 0 0 0 
0 0 0 0 0 
0 0 0 0 0 
0 0 0 0 0 
0 0 0 0 0 
0 0 0 0 0 
0 0 0 0 0 
0 0 0 0 0 
0 0 0 0 0 
0 0 0 0 0 
0 0 0 0 0 
0 0 0 0 0 
0 0 0 0 0 
0 0 0 0 0 
0 0 0 0 0 
0 0 0 0 0 
0 0 0 0 0 
0 0 0 0 0 
0 0 0 0 0 
0 0 0 0 0 
0 0 0 0 0 
0 0 0 0 0 
0 0 0 0 0 
0 0 0 0 0 
0 0 0 0 0 
0 0 0 0 0 
0 0 0 0 0 
0 0 0 0 0 
0 0 0 0 0 
0 0 0 0 0 
0 0 0 0 0 
0.1424218416680362 -0.2293442833872296 -0.3339605194797153 -0.1841799018179565 -1.100950033538693 
-0.2386402926097206 -0.1590068213437819 -0.5053828909888343 -0.7074222374983616 -0.1728958989000188 
0.1137179861542164 -0.08075927567533812 -1.283078848941938 0.1967236584715887 -0.3573951784472766 
-0.3948686925124343 0.4380989199506165 -0.1902796985183273 -0.4220066908808401 -0.8228832668473022 
-0.1779947229872772 0.2463428041046252 -0.1442342684490999 -0.4374453404235651 -0.4576093837178899 
0.02842273700628120 -0.08143854430452832 0.09769595011088798 -0.2195048197881503 -0.3550282136924212 
-0.5428663252204519 -0.4379192171132350 0.3278373361838924 -0.1629088956717116 0.3183663492728823 
-0.1632944028557864 -0.1491051492444865 0.2086560511164194 -0.04340272296381612 -0.08358780562644727 
-0.05636898608816462 -0.09089902165775687 -0.1973778695135366 0.04328975508604366 -0.2968076719000753 
0 0 0 0 0 
0 0 0 0 0 
0 0 0 0 0 
0 0 0 0 0 
0 0 0 0 0 
0 0 0 0 0 
0 0 0 0 0 
0 0 0 0 0 
0 0 0 0 0 
0 0 0 0 0 
0 0 0 0 0 
0 0 0 0 0 
0 0 0 0 0 
0 0 0 0 0 
0 0 0 0 0 
-1.294763774729542 0.2258974543724324 -1.865445767702343 0.9342390370136360 -1.459896226622813 
0.5691349633313223 -0.1201094889085207 -0.02151109805150594 -0.7045468819371707 -0.09409953836812282 
-0.1944226007448950 -0.04027596671669462 -0.3563315488917257 -0.1813545151019248 0.2421464557932376 
-0.1009946384543355 0.1287095133744320 -0.9109351687655651 0.1891646831231689 -0.6781639122693134 
-0.5743465330166589 0.4051345309023090 0.2846527638998700 -0.3172526375297657 -0.9019413706256408 
-0.4035625630613252 -0.2620930092560244 1.254384844623503 -1.717203665009734 -0.6910723212112304 
0.3944385074148598 -0.3265027085033746 -0.5306993901489090 -0.7519847183964079 0.2427233803267558 
0.8831163293469590 -0.6806772111518905 -0.5029101050541803 0.5764376994561371 -2.003213688806591 
-0.9421863797858110 0.1583628176983019 0.3167537143750590 -0.6595878622371685 -0.2158542195787563 
-0.9808606817837853 -0.2334833061164656 -0.4291435690738599 -0.6859622477053522 0.7864356255007336 
0.7838709950768379 -0.4985863217500964 -0.5884379470089915 0.007496983304468075 -0.5507840974382833 
-1.046302218511411 0.4201931360278323 0.01518842032853354 -0.6554699009594971 -0.09053060708249512 
0.5848400126295893 0.1650227463414700 -0.5767636652284567 -0.5706665612904915 0.06978704789789397 
0.05333205711641267 -0.1771016371163478 -0.1713066088968555 0.1999677614599208 -0.4552699169055692 
-1.256176411825952 0.3075788467816233 0.2281153322536308 -0.8395229785914203 -0.6438856870615899 
0.8957750905674626 0.2086709109005737 -1.995049131474315 -0.7801760027970909 -1.826391812669713 
0.7909414435199520 -1.117241558968364 0.3119408602641758 -0.03849793081036484 -0.2696485338137892 
-1.094730008172681 -0.2452779747810304 -0.4816268216022462 -0.1295872157731073 0.2804961771320394 
0.01200969759128288 -0.07408622478045832 -0.3756045319588331 -0.9949223160729941 -0.9489892517159830 
-0.4378123359694299 0.07831490723255116 -0.4369406928484961 0.6446158897824096 -0.4887164992882389 
-1.280793776977906 0.5550434055144436 0.04575553856113177 -0.6186871969591379 0.2104111668976427 
