solver_type L2R_L2LOSS_SVC_DUAL
nr_class 5
label 1 6 4 5 2
nr_feature 169
bias 1.000000000000000
w
0.2343327192169933 -0.07831974072854403 -0.2495648987764085 -0.1079002681062979 -0.1545606500914483 
0 0 0 0 0 
0 0 0 0 0 
-0.7666493476846992 1.023288670222455 0 -0.2739324045865256 -0.1959437693304654 
-0.6240354119531807 -0.3526833424189658 1.160173637978094 -0.2361189727354150 -0.7264823070558880 
0 0 0 0 0 
0 0 0 0 0 
0 0 0 0 0 
0 0 0 0 0 
0 0 0 0 0 
0 0 0 0 0 
0 0 0 0 0 
0 0 0 0 0 
0 0 0 0 0 
0 0 0 0 0 
0 0 0 0 0 
0.1403101092561870 0.003232625000499367 -0.03648776192234913 -0.3666845689402961 -0.04194434082476520 
-0.1446712152495085 -0.2927428748661587 0.1346132519519359 0.02313037533206739 0.2233374149520458 
0.1147225953430793 0.02168611650882824 0.03623048390017549 -0.4492582932338572 -0.04035680762983729 
-0.2646796804790376 -0.4799580735088890 0 0.6399055917980245 0 
0 0 0 0 0 
0 0 0 0 0 
0 0 0 0 0 
0 0 0 0 0 
0 0 0 0 0 
0 0 0 0 0 
0 0 0 0 0 
0.3716965448204332 0.5403691512565283 -0.9353356384208623 8.673617379884035e-19 -0.03661852751306317 
0 0 0 0 0 
0 0 0 0 0 
0 0 0 0 0 
0 0 0 0 0 
0 0 0 0 0 
0 0 0 0 0 
0 0 0 0 0 
0 0 0 0 0 
0 0 0 0 0 
0 0 0 0 0 
0 0 0 0 0 
0 0 0 0 0 
0 0 0 0 0 
0 0 0 0 0 
0 0 0 0 0 
0 0 0 0 0 
0 0 0 0 0 
0 0 0 0 0 
0 0 0 0 0 
0 0 0 0 0 
0 0 0 0 0 
0 0 0 0 0 
0 0 0 0 0 
0 0 0 0 0 
0 0 0 0 0 
-0.05091682473842813 0.1158061052606651 -0.3772766351003509 -0.1650615200568473 0.1216903532418192 
0.03866153091749447 -0.003375977575924866 -0.2765308681506206 -0.1825967957348808 -0.1571283143196402 
-0.4121299453511007 0.07991810905908205 0.07446636689606158 0.2607499501976340 -0.2246445127825054 
0.1007553582071795 0.1574908623839193 -0.1417943501392284 -0.3262412259767304 -0.07225317915103012 
0.2365069656040808 -0.2845135350667791 -0.05218406221394357 -0.1491622979437112 0.07542796111185670 
0 0 0 0 0 
0 0 0 0 0 
0 0 0 0 0 
0 0 0 0 0 
0 0 0 0 0 
0 0 0 0 0 
0 0 0 0 0 
0 0 0 0 0 
0 0 0 0 0 
0 0 0 0 0 
0 0 0 0 0 
0 0 0 0 0 
0 0 0 0 0 
0 0 0 0 0 
0 0 0 0 0 
0 0 0 0 0 
0 0 0 0 0 
0 0 0 0 0 
0 0 0 0 0 
0 0 0 0 0 
0 0 0 0 0 
0 0 0 0 0 
0 0 0 0 0 
0 0 0 0 0 
0 0 0 0 0 
0 0 0 0 0 
0 0 0 0 0 
0 0 0 0 0 
0 0 0 0 0 
0 0 0 0 0 
0 0 0 0 0 
0 0 0 0 0 
0 0 0 0 0 
0 0 0 0 0 
0 0 0 0 0 
0 0 0 0 0 
0 0 0 0 0 
0 0 0 0 0 
0 0 0 0 0 
0 0 0 0 0 
0 0 0 0 0 
0 0 0 0 0 
0 0 0 0 0 
0 0 0 0 0 
0 0 0 0 0 
0 0 0 0 0 
0 0 0 0 0 
0 0 0 0 0 
0 0 0 0 0 
0 0 0 0 0 
0 0 0 0 0 
0 0 0 0 0 
0 0 0 0 0 
0 0 0 0 0 
0 0 0 0 0 
0 0 0 0 0 
0 0 0 0 0 
0 0 0 0 0 
0 0 0 0 0 
0 0 0 0 0 
0 0 0 0 0 
0 0 0 0 0 
0 0 0 0 0 
0 0 0 0 0 
0.2371779739230023 -0.1913333862018247 -0.02175573966155971 0.1368179555220037 -0.4028896728174091 
0.09390737716826805 -0.1256092643124183 -0.06319711661840975 -0.02143720745421951 -0.1048377283886626 
0.3215573963137621 -0.1284858452349916 -0.8576747181267805 0.1883515834385200 -0.2499558063846510 
0.1126502505548092 0.1063457297276115 -0.1518307103670105 -0.03362565649001938 -0.4540807140110769 
0.01590082033031497 0.1179271942879461 0.0008236601857577464 -0.2063839952726595 -0.3505388288003951 
0.09754528898899509 -0.08874929894424344 0.1929183184977912 -0.1062296598861018 -0.2906040290861523 
-0.5187142585592223 -0.4726056408193959 -5.572799166575493e-17 -0.03794008986243038 0.6472194681016968 
0 -0.1978298150121021 0 0 0 
0.03337569568776887 -0.2975586381502450 0.2370258320927141 0.1888508856265969 -0.2148162925915411 
0 0 0 0 0 
0 0 0 0 0 
0 0 0 0 0 
0 0 0 0 0 
0 0 0 0 0 
0 0 0 0 0 
0 0 0 0 0 
0 0 0 0 0 
0 0 0 0 0 
0 0 0 0 0 
0 0 0 0 0 
0 0 0 0 0 
0 0 0 0 0 
0 0 0 0 0 
0 0 0 0 0 
-0.5502582920879492 0.1538221424712988 -0.6576214770172638 0.4000903832713312 -0.5768729090347322 
0.2422850198060133 -0.001473772964358966 -0.06679068366285507 -0.5769711307946593 -0.09309807441810997 
-0.1549505672897717 0.04652654506254467 -0.1124409846008378 -0.09515436486927138 0.09086570464033927 
-0.1067725427624738 0.1217701068579726 -0.2280140771257856 0.02219217711945775 -0.2288881296763354 
-0.2790737047051436 0.2485963224262298 0.04242867255797309 -0.1271496438901120 -0.2974488446522636 
-0.2515191588849172 -0.04541400983136937 0.4933602158774079 -0.7204033352513826 -0.2039811866296812 
0.07419264383373238 -0.07362923849560190 -0.1346121400261335 -0.2357745155721997 0.07994676037785944 
0.4869523285676586 -0.3923103351284494 -0.1073038266700100 0.2739871530497887 -0.5298166928366357 
-0.2036384566033638 -0.05312103901054469 0.1437930597822647 -5.284792253672319e-05 0.07229371952511743 
-0.6667551419875155 -0.08517598917191027 -0.1961287978437726 -0.3198827003518559 0.5459837772215340 
0.3977083770368434 -0.3315683465791049 -0.1397855086285098 0.07357135860925408 -0.1273919881770983 
-0.1622310257351025 0.01235600988109781 0.08769794152332087 -0.06469636512120000 0.03487895030451333 
0.4420164164014357 -0.09020974204988214 -0.2231570993447487 -0.3125145197802886 0.03325482225136832 
0.1584661499751439 -0.1703014144766585 -0.1233082738370773 0.1488235483224372 -0.1644680690358907 
-0.3709843225320235 0.03195946515619919 0.05607506369366569 -0.3109458347153054 0.01444445799201036 
0.4455812560051148 0.001111721069447957 -0.5745513786920562 -0.007872496264935327 -0.3643887046729835 
0.7031909454512380 -0.9688677182401093 0.08637119616093575 -0.08433708796810671 -0.1339737863017318 
-0.3252692312692321 -0.1745343245209864 -0.1260873861810762 0.2023910457539452 0.3486525522356143 
0.1299488884069460 -0.03757866193922446 0.02539486374131296 -0.1541461255398290 -0.07415047245668133 
-0.4485414034113427 0.2114966503838604 -0.3205362728589373 -0.6637114038555401 -0.6825610100065616 
-0.5775551986791623 0.2387014451428539 -0.3431542011385615 -0.6694590261312936 -0.5469156693863637 
0 0 0 0 0 
0 0 0 0 0 
-0.1760284981515037 0.03725788405043884 -0.06743414150327733 0.2185200133675982 -0.1264086842652025 
