solver_type L2R_L2LOSS_SVC_DUAL
nr_class 10
label 6 11 1 7 5 8 2 14 13 12
nr_feature 247
bias 1
w
-2.653197271780883 -0.3901236164164061 -0.1606523336207673 -0.05426975112830507 -2.221476743190885 -0.05201311937712669 3.214532703617893 -0.08113210502713425 1.173776094408842 1.067344060635317 
-2.816557562105387 0.9142055419371633 2.788128305462982 -0.04059819529895655 -2.025593110168355 -0.04417066730268263 -0.1680767988732967 0.9117597384414782 -0.3306955557594109 -0.1325938558813441 
-2.260973742324453 -0.06408646783922417 -0.01948338330050287 2.004975960844923 -2.302452128237695 -0.03669540161971996 -0.02564836479633674 -0.1043591687543442 -0.01366226439890229 -0.4060121666648459 
-2.372449513813401 -0.2417763672036927 -0.001357056900607695 -0.02518665743514777 -2.315076311442981 2.00530219802274 -0.02876340202134633 6.938893903907228e-018 -0.1912596176179393 -3.295974604355934e-017 
0.3389143032013556 -0.2131678702718557 0.2255378801109347 -0.05272227919241652 -0.4273193894399087 -0.05332581642383782 0.2906002488241634 -0.4278614789312268 -0.4000823511762467 -0.6958103638826908 
0 0 0 0 0 0 0.1652255792796588 0 -0.2365255524127913 0 
0 0 0 0 0 0 0 0 0 0 
0 0 0 0 0 0 0 0 0 0 
-3.469446951953614e-018 -0.1568883558367135 0.1566058726666178 -0.0354830525880635 0 -0.02860637377691067 -6.938893903907228e-018 -0.2603374974071873 0 -0.154445574275976 
0 0 0 0 0 0 0 0 0 0 
0 0 0 0 0 0 0 0 0 0 
0 0 0 0 0 0 0 0 0 0 
0 0 0 0 0 0 0 0 0 0 
0 0 0 0 0 0 0 0 0 0 
0 0 0 0 0 0 0 0 0 0 
0 0 0 0 0 0 0 0 0 0 
0 0 0 0 0 0 0 0 0 0 
0 0 0 0 0 0 0 0 0 0 
0 0 0 0 0 0 0 0 0 0 
0 0 0 0 0 0 0 0 0 0 
-0.2213173919595592 0.01588336523602402 -0.1281157333604397 -0.04597057751199672 0.222030344609351 -0.03935743730666787 -0.1540664353355438 -0.2641231236373283 -0.5593768007015753 0.2802584273525773 
-0.04099068899779156 0.062544916005126 -0.302479037575531 -0.05200360926024621 0.03576294749103118 -0.0506123045762079 -0.2095346166241367 0.2048110277393136 0.1072334782085598 0.02932969446826565 
0.09459196732827767 0.01294336048408303 -0.07470978145120411 -0.05414492573705266 -0.1109982780814599 -0.05995949681259173 -0.1230592054865295 -0.3348658108262722 -0.1086010883232993 -0.09768933532340225 
0 -6.938893903907228e-018 0 -0.02244089004216648 0 -0.01706334899219444 0 0 0 0 
0 0 0 0 0 0 0 0 0 0 
0 0 0 0 0 0 0 0 0 0 
0 0 0 0 0 0 0 0 0 0 
0 0 0 0 0 0 0 0 0 0 
0 0 0 0 0 0 0 0 0 0 
0 0 0 0 0 0 0 0 0 0 
0 0 0 0 0 0 0 0 0 0 
0 0 0 0 0 0 0 0 0 0 
0 0 0 0 0 0 0 0 0 0 
0 0 0 0 0 0 0 0 0 0 
0 0 0 0 0 0 0 0 0 0 
0 0 0 0 0 0 0 0 0 0 
0 0 0 0 0 0 0 0 0 0 
0 0 0 0 0 0 0 0 0 0 
0 0 0 0 0 0 0 0 0 0 
0 0 0 0 0 0 0 0 0 0 
0 0 0 0 0 0 0 0 0 0 
0 0 0 0 0 0 0 0 0 0 
0 0 0 0 0 0 0 0 0 0 
0 0 0 0 0 0 0 0 0 0 
0 0 0 0 0 0 0 0 0 0 
0 0 0 0 0 0 0 0 0 0 
0 0 0 0 0 0 0 0 0 0 
0 0 0 0 0 0 0 0 0 0 
0 0 0 0 0 0 0 0 0 0 
0 0 0 0 0 0 0 0 0 0 
0 0 0 0 0 0 0 0 0 0 
0 0 0 0 0 0 0 0 0 0 
0 0 0 0 0 0 0 0 0 0 
0 0 0 0 0 0 0 0 0 0 
0 0 0 0 0 0 0 0 0 0 
0 0 0 0 0 0 0 0 0 0 
0 0 0 0 0 0 0 0 0 0 
-0.0383210268403788 -0.2636619147500318 -0.2486485704381276 -0.05625382665809699 0.05332521280359961 -0.05078776137965272 0.08367790570571994 0.290007736700784 -0.07116889329173165 -0.2840856663092892 
0.07505640376121497 -0.368785896093881 -0.02023600692685388 -0.04886496484592801 -0.09641540508419488 -0.0477395911633561 -0.09232774668048577 0.1236217570946402 -0.288280395603377 0.1529523690977421 
0.1916723828370841 -0.3974816276366825 -0.1674912586957216 -0.05831010053946704 -0.1988736855161053 -0.05845744594490114 -0.07967765449044828 0.2196184643860814 -0.489737139804137 0.030138765097296 
0.07598720236196474 -0.4175147209656061 0.1994846316571754 -0.04193984462013141 -0.06180618056270187 -0.03599777173941236 -0.3283247038207676 -0.3221935066556521 0.6773090227027988 -0.319137961638873 
-0.1066336241539358 0.1284266004637009 -0.1601981710209655 -0.05749464907184652 0.1108470908522035 -0.05496417463538611 -0.08145953604743658 -0.252937238640073 0.02329772398715568 -0.06682634485772926 
0 0 0 0 0 0 0 0 0 0 
0 0 0 0 0 0 0 0 0 0 
0 0 0 0 0 0 0 0 0 0 
0.4382749494108985 -0.3921623578671293 -0.1242260366316933 -0.04536997101066417 -0.3779607814222604 -0.05498246789801498 0.2511493320130562 0.08357196358309475 -0.2520234739758879 -0.268892783177737 
0 -0.007503869354137328 0 0 0 -0.006729424873429988 0 -0.1043591687543443 0 0 
0 0 0 0 0 0 0 0 0 0 
0 0 0 0 0 0 0 0 0 0 
-0.7690874274683164 -1.829591166069289e-018 0.00557112878963316 -0.04096004464243233 0.4971755190173571 -0.03549831835472465 0 -0.1542490203519056 0 1.734723475976807e-018 
0 0 0 0 0 0 0 0 0 0 
0 0 0 0 0 0 0 0 0 0 
0 0 0 0 0 0 0 0 0 0 
0 0 0 0 0 0 0 0 0 0 
0 0 0 0 0 0 0 0 0 0 
0 0 0 0 0 0 0 0 0 0 
0 0 0 0 0 0 0 0 0 0 
0 0 0 0 0 0 0 0 0 0 
0 0 0 0 0 0 0 0 0 0 
0 0 0 0 0 0 0 0 0 0 
0 0 0 0 0 0 0 0 0 0 
0.2720762270879486 -0.1364382600620459 -0.04330303558115051 -0.04176876689051676 -0.2599702678602416 -0.03704701976061218 0.02424656977561335 -0.002391202894629657 -0.4776803100158973 0.1322859729031805 
-0.1571479382650079 0.02462604482129517 -0.2234701530003481 -0.04913274793506246 0.1809004456154603 -0.04097081167826118 -0.2907368476819501 0.04835353129198176 0.4070464964096296 -0.1477634962740002 
-0.03423088119402526 -0.3693739697421107 -0.004070534221387055 -0.05367425312735265 0.05900618563196493 -0.0421917084428123 0.07996667246616576 0.0448788130177756 -0.491404718463184 -0.2766128639767239 
-0.140577156958409 -0.3898617258130332 0.128265621424487 -0.03172131764733777 0.09112976180994374 -0.02414481002610656 0.1391994345012972 -1.387778780781446e-017 -0.07616715017487796 -0.3406146547275974 
0 0 0 0 0 0 0 0 0 0 
0 0 0 0 0 0 0 0 0 0 
0 0 0 0 0 0 0 0 0 0 
0 0 0 0 0 0 0 0 0 0 
0 0 0 0 0 0 0 0 0 0 
0 0 0 0 0 0 0 0 0 0 
0 0 0 0 0 0 0 0 0 0 
-0.1535978013174138 0 0 -0.02127130157975503 0.1445664517972882 -0.01136018730879306 0 0 0 0 
0 0 0 0 0 0 0 0 0 0 
0 0 0 0 0 0 0 0 0 0 
0 0 0 0 0 0 0 0 0 0 
0 0 0 0 0 0 0 0 0 0 
0 0 0 0 0 0 0 0 0 0 
0 0 0 0 0 0 0 0 0 0 
0 0 0 0 0 0 0 0 0 0 
0 0 0 0 0 0 0 0 0 0 
0 0 0 0 0 0 0 0 0 0 
0 0 0 0 0 0 0 0 0 0 
0 0 0 0 0 0 0 0 0 0 
0 0 0 0 0 0 0 0 0 0 
0 0 0 0 0 0 0 0 0 0 
0 0 0 0 0 0 0 0 0 0 
0 0 0 0 0 0 0 0 0 0 
0 0 0 0 0 0 0 0 0 0 
0 0 0 0 0 0 0 0 0 0 
0 0 0 0 0 0 0 0 0 0 
0 0 0 0 0 0 0 0 0 0 
0 0 0 0 0 0 0 0 0 0 
0 0 0 0 0 0 0 0 0 0 
0 0 0 0 0 0 0 0 0 0 
0 0 0 0 0 0 0 0 0 0 
0 0 0 0 0 0 0 0 0 0 
0 0 0 0 0 0 0 0 0 0 
0.04500502254665022 0.1670529638090038 -0.136845524419694 -0.04612317020091673 -0.01656043078847533 -0.05165851646708357 -0.05950541539234061 -0.1445325299689633 0.1245188603296775 -0.1578107870221346 
0.08418225631551479 -0.3593101192942839 0.1554880229315298 -0.04345819421431012 -0.0725681102070283 -0.03732804618216329 -0.3665249573849754 -0.178726803956044 -0.1590766437186276 0.2312488791352447 
0.2189699718529432 0.117491328368618 -0.08753488592487566 -0.05261566426573415 -0.1785784389377449 -0.04872595265662505 -0.3699072502196289 -0.2137750880504434 0.2448966761370083 -0.01380147758850344 
0.2316738612785549 0.1062668316123979 -0.1947619378577774 -0.05267412238070099 -0.2193218443757912 -0.06211227618983387 0.0626348455808735 -0.3279079514308024 -0.2346991696201796 -0.05041513051464506 
0.3334184442488968 -0.3584890098444097 0.004637159457154218 -0.0468591661726286 -0.3212658332086597 -0.04412198291265781 0.0005314516660800317 -0.07512221266264561 -0.4313425633223058 -0.2329396490291651 
0 0 0 0 0 0 0 0 0 0 
0 0 0 0 0 0 0 0 0 0 
0 0 0 0 0 0 0 0 0 0 
0.09624143170233407 -0.1002389418726318 0.1994019709109723 -0.002767438291770846 -0.09492767819120014 -0.005768433217119674 0.0263590958724052 -0.4153118806743751 -0.07271330785370661 -0.0359534618056674 
0.09957962157665275 -0.1686710502970571 -0.112006613983462 -0.04903560498411842 -0.06290359747361959 -0.04980355739849075 -0.03924466117994127 -0.3062156394934724 -0.2146871797960589 -0.3733574046719011 
0.2259883440115604 -0.2902804543350934 -0.07669719013574466 -0.04742026322631456 -0.1997082392291092 -0.05056236839822841 -0.1040844260503915 -0.227424589704585 -0.3872140860502946 -0.2210172907902674 
-0.03097150660384189 -0.2474959536166119 -0.1953514593894276 -0.04324343666709773 0.05346243013764329 -0.03903559277221452 -0.1753625952596095 -0.06342330719471133 -0.2045270756172926 0.05313603434843525 
-0.1813785118912328 -0.2429128870702463 -0.1582933561908013 -0.04350058261384798 0.1993300328239179 -0.04675044140465494 -0.1119244771972261 -0.09178346692520359 -0.2327132792182309 -0.1798376974392343 
0.542195027950512 -0.2143293973363236 0.06221268596469485 -0.06126341048978318 -0.7414114921456118 -0.05630235725860271 -0.0983300049886387 -0.1697120261526989 -0.3067903757327688 -1.387778780781446e-017 
-0.03300589037905184 -0.1326605973737778 -0.04011424129937909 -0.01213476915351293 0 -0.001784156088570355 3.469446951953614e-017 -0.07806656973616225 6.938893903907228e-018 -0.1177375773443424 
-0.5157831735875839 -0.01694933108020381 0 -0.04403619657020599 0.5286704051373713 -0.0403345822004246 0 0 0 -0.0183281611279501 
0 0 0 0 0 0 0 0 0 0 
0.2623356164612187 -0.1074531062718909 -1.040834085586084e-017 -0.02541747394940316 -0.2508868821787794 -0.02691446843625936 0 -0.08763407097009522 0 0 
0 0 0 0 0 0 0 0 0 0 
0 0 0 0 0 0 0 0 0 0 
0 0 0 0 0 0 0 0 0 0 
0.2077806899997262 -0.1986149477559321 0.03702821441958289 -0.05154147882440065 -0.1898225992823476 -0.05390276453195493 -0.02259473736797374 -0.2199255938732372 -0.4181389021488091 -0.2312056550634831 
0.003946256914213891 -0.1081942223809797 0.006442643744524124 -0.05143462342661162 0.005369625585614641 -0.0496994515582002 -0.5260484135543695 -0.2654056107055142 0.03160073942518158 0.2708480761571285 
-0.08418065371331895 -0.0365285248371202 0.02174327940420911 -0.05004954180164865 0.07667464642425541 -0.04990396125824907 0.2635052520996383 -0.3825886646206265 -0.5833578686191843 -0.3812179096684613 
-0.1531577899410928 0.06236711746591167 0.05269605768235662 -0.05350902746211152 0.1415949041782221 -0.05055788092590631 -0.2089361134644273 -0.4049496213658552 -0.1326695886461438 -0.0709288236663826 
-0.241158159468426 -0.4169183442878534 -0.1488467051657009 -0.04641373919275392 0.1990290759306205 -0.04296385959857918 -0.1709630167600839 0.06475366704225129 -1.040834085586084e-017 0 
-0.1631642029332796 -0.007503869354137328 -0.6805462232531078 -0.03157614959682711 0.08883577485813142 -0.0429908621832102 0.1360908643714102 0.4044700834265361 -0.1590766437186277 -0.532537182638699 
0 0 0.005571128789633167 -0.0354830525880635 0 -0.02860637377691067 8.673617379884036e-019 -0.1542490203519055 -0.05393113950767599 -0.07585623636257083 
0 0 0 0 0 0 0 0 0 0 
0.798893386680411 -1.734723475976807e-018 0.05571944674084018 -0.03038773556344329 -0.7951287706226826 -0.02774124263511989 0 -0.06636490972857269 0 0 
0 0 0 0 0 0 0 0 0 0 
0 0 0 0 0 0 0 0 0 0 
0 0 0 0 0 0 0 0 0 0 
-0.2499254545918766 0.02137162178713311 -0.06763867863336334 -0.00270881390056068 0.2621020027661969 -0.002539069490464579 0.0207120861050659 0.1330034052078868 -0.1216483937321671 0.02123268835027051 
-0.7899618162069467 0.2020805465949465 -0.08600641784917842 -0.001715455699638873 0.7917332301122313 -0.002732517418145481 -0.08323840019683558 -0.09191583118345441 0.2213015742101737 -0.04329076154326365 
-0.1197803513408644 -0.1971814002100061 0.1012313903018736 -0.07794907782226193 0.1293674541059579 -0.07149146777541286 0.1583674542850499 -0.363136924651866 -0.7208960393754336 -0.4221228290970273 
0.7505309412577713 -0.440379524089585 0.1213191225983874 -0.06891139204214397 -0.8758637467381141 -0.05448723030053363 0.0246571350620005 -0.1774083186383634 -0.0987760849208256 -0.2678863605105582 
-0.0641503686481902 0.5581013809744311 -0.6358669772862891 -0.07257960430483029 0.1150695684342138 -0.06958103464889592 -0.3710203636634466 -0.1341424657743088 0.2900365228703695 -0.02821127261380194 
-0.05348709422084395 -0.211474737176654 0.00498213603251016 -0.07747534421861942 0.06189694276495799 -0.06729063094716513 0.03677271579190934 -0.129583171343941 -0.439195160584069 -0.1453149824891064 
0.1840479300253054 -0.6161248322715422 -0.1548999791925807 -0.07187036429566937 -0.2231834845048066 -0.06704217671451955 -0.02388357721296331 0.2368077666002509 -0.5324050298927778 -0.3159340561594409 
-0.2497376861943303 -0.5950071407144012 -0.01862763147208488 -0.07685984201729854 0.2340089507503815 -0.09270587702451605 -0.1257367824492053 -0.05839752917865949 0.1055142009604408 -0.2533322056842298 
-0.07846384334061358 -0.09563588987807094 0.06161176398406303 -0.07998309536658962 0.08525697225922338 -0.0742731053400767 -0.2281027464891501 -0.398399027190035 0.04978959452765244 0.3074857162820833 
-0.271341174782896 -0.309537880773808 0.1024826463164808 -0.07782057119845101 0.299213278873896 -0.07598793680286246 0.007873940582839394 -0.4327213882380429 -0.3072447240590145 -0.4874945948024221 
0.3517400265845198 -0.4022152381489945 0.1111885048465493 -0.06155030118921312 -0.5415777131145451 -0.04929088344811843 0 1.517883041479706e-017 -0.06468359509607587 -0.08380508326760117 
0.1440836597607385 -0.1609163134634525 -0.3319885013661922 -0.06965337339290803 -0.1572158020980701 -0.066847665454341 -0.4667561537607702 0.2266283147208608 -0.09684390705135854 0.2841922062175134 
0.08440904529190828 -0.1919719055671793 -0.02451172954349972 -0.07579313920239236 -0.04528129516022649 -0.07423844527815385 -0.1503237103183575 -0.5407780669633996 -0.1351114382294623 -0.08677631558445546 
0.2276750113654302 -0.5371497829980341 0.2406494201558196 -0.07969560350498071 -0.226192422788857 -0.07943759533799938 0.2048781405808644 -0.3888830775575655 -0.1835523653471066 -0.4607917699606909 
-0.2264554595327913 0.2888650776886116 -0.6273601443475562 -0.08415286202101366 0.224937112495641 -0.07203732386889897 0.04370132107777625 0.2899281644386864 -0.2108874907469471 -0.6470518863146569 
0.05884841885132261 -0.2847761001029771 0.00928962890427457 -0.07696286955845418 -0.02733050113602589 -0.07903167256074573 -0.1683197028381571 -0.1784336165774659 -0.3476084758846815 0.3564114534402337 
-0.1428082823940385 0.07708843085376937 -0.1553294257782631 -0.009343834111021127 0.1313723273977304 -0.009899451366202225 -0.08798073304292223 -0.06565203561904222 0.04750988837085153 -0.09011494716122279 
-0.06648321129108173 -0.05478133143481729 -0.03236972001879209 -0.01367885533062538 0.03906345175422401 -0.0214518016503228 -0.09581756937890516 -0.1546288396868971 -0.5874604046768857 -0.05294656625112641 
-0.03894341895802389 -0.09167695428324271 -0.1301476291555909 -0.01069006604230507 -0.002829305630038602 -0.01492644776430052 -0.1856141837192473 0.02267576742510602 0.2845597516685119 -0.4351286173758949 
-0.3243947889846167 -0.06820699917883838 -0.1357238362873934 -0.01286366289909624 0.3276413786801915 -0.01269872078386264 -0.07350302824428734 0.09598122626520589 -0.6294279010423776 0.02107065317392205 
-0.3502794473224516 0.1256764768593679 -0.02021889083330315 -0.005609642835709186 0.3249940888693667 -0.007299642710974172 -0.3336006781224871 -0.184520961608809 0.2614325701916908 0.248428518696545 
-0.3810604814287337 -0.2909329588022666 0.05589166254829092 -0.006283145174148088 0.3696992475251597 -0.009248182736671162 -0.1066361683148637 -0.1264615084723034 -0.3457783475278517 0.08014034143077199 
0.04703166114391526 -0.2710068749969843 -0.04556271515556664 -0.006456111210696922 -0.1079666593453428 -0.008194414051576131 -0.03379204294143288 0.1287333750250467 0.02574129210918911 -0.02430490972656842 
-0.02266607354074354 0.2962696530870376 -0.4174740938455482 -0.01208326250706349 0.03316411351965849 -0.01098100288258193 -0.08671830723341704 0.2392863662082582 -0.3895844242556268 -0.09138364793266124 
0.02794476897391772 0.08737463519019469 -0.1255492452464569 -0.01690959000739925 -0.01714068953605894 -0.02348936904245012 -0.231282463976992 -0.1371088508972572 0.3970157134967567 -0.2562780206975026 
0.01781672698829205 -0.0594383878233271 -0.05350187036541899 -0.01198073296966062 0.003824174931366817 -0.01273298947763901 0.2687937992256742 -0.08772574568389124 -0.7134819357528386 -0.3225508919823553 
0.1833427724575516 0.2779467505609621 -0.3233434143562264 -0.0130075432303741 -0.1496799144139941 -0.007383680991717673 -0.1705794356809402 0.2003365143205001 0.3239533649238704 -0.01646035069390554 
0.1023833124312504 -0.1370778733535062 -0.1802106415491444 -0.01237215501419411 -0.108629104072665 -0.02266507327080408 0.3159785723943438 0.1907121881063779 -0.7186101408015149 -0.355794522313835 
0.009049557823301937 0.3218509415831485 -0.2923121058706187 -0.007505148383248329 -0.0230749315015323 -0.01346680791004873 -0.2463669493504797 0.1099187647522866 0.4027342410579305 0.0580851320572271 
-0.2134390227791412 -0.2042115166651174 -0.1250863756889403 -0.01302417003579383 0.2349480623288647 -0.01408648741909268 -0.3787713800539921 -0.07415559908832031 -0.6479588150832241 0.3499263773217528 
-0.2766710542102249 0.1383575061216433 -0.1882243207278606 -0.01628500294639874 0.2351980970498193 -0.02103384334599158 -0.192034442043098 -0.1109324265324244 0.05648785983003359 -0.1283797850778603 
-0.3743113709194404 -0.8511881632351031 -0.0713570125336723 -0.02146192154572221 0.3273062494984441 -0.02313953506407664 -0.07084448169564278 0.2281463854805676 -0.7306466593305365 -0.1389857342550123 
-0.5076614054808297 0 -0.05827705883014221 -0.002389485211793492 0.4811820603688887 -0.005054058850527538 -0.5430767864347204 -0.248392172790568 0 0.2976121960489933 
-0.0982941386245354 0.1389904461304476 -0.1456021625889453 -0.02478890789968815 0.03828812233414238 -0.03449122380331444 -0.1109886935906856 -0.1526947628292717 -0.2692643514063691 -0.2831022039296923 
0.2098738919958229 0.06257191403720633 -0.3626461459700613 -0.02058503115945684 -0.2003953477513641 -0.02730762894784665 -0.1083263505113883 0.183763137672308 -0.2032766896196898 -0.3410111700934145 
-0.02359343853770974 0.4393172543823429 -0.4519232760121769 -0.02812678104980429 0.049353689363567 -0.03921610709781283 -0.2888266479026039 0.2221097380284141 -0.1396476074782949 -0.01936915132382848 
-0.1530149511252588 0.1901982988146546 -0.5216255803188081 -0.01293492691109588 0.1617876227125391 -0.007143225680891624 0.2598399979830026 0 -0.5718488932093542 -0.2846032505809546 
0.07116654002158063 -0.1093732646548069 -0.1812827446213082 -0.02523586302737724 -0.03733425306910048 -0.03113844926778314 -0.3916331642448171 0.03539076201723136 -0.4311588061073037 0.0105276477569149 
0.2592806132443878 0.1341376652882222 -0.03514093987909066 -0.0287722673755241 -0.2266673919898804 -0.04382475316239946 -0.2340417490987893 -0.1924195771141796 0.4432979898949589 -0.158536410768694 
0.06200574732801827 0.05243533969709412 -0.08582586088423175 -0.02127206601074225 -0.07678288315777787 -0.03117748368401875 0.03438279669266474 -0.1916431177922469 -0.2720386399875934 -0.09670728402884779 
-0.1425542848490196 0.007784655825087538 -0.1747204304796811 -0.0003667588838242911 0.15791020237058 -0.0004399821867066794 0.1830456985593892 0.3521488867380856 -0.0116574949812766 -0.6128185510969879 
0.07227715570652699 -0.04880702805073296 0.0643931986410721 -0.003637069852092556 -0.06875904997058623 -0.01315950291638468 -0.1245731572223343 0.004135846263044833 0.5826566977515073 0.1298495611808573 
0.05868018973752752 0.08554165330187219 -0.1398585193379474 0.005254323592407691 -0.05892060675952885 0.01323967688151894 0.0008896130878289279 0.2595856746606999 0.03101219460056144 -0.0512334214856813 
0.1501926572174811 -0.2084893586130754 0.1726336765046071 -0.007257509685815576 -0.1466452729637194 -0.01722364559293868 -0.3686746601372352 -0.2028521059813978 -2.081668171172169e-017 0.4332120494268567 
0.1455175715891245 -0.1232267653786405 -0.6503265491906766 -0.002904518225233606 -0.200075028451535 -0.002336610628256102 -0.1011569287158351 0.6341118763309257 -0.03035859319938368 0.03220200765029251 
0.05988764136713762 0.4164174611398301 -0.2979157820850388 -0.0001903215501158795 -0.2268065884749031 -0.0003552078980905953 -0.5983029109496613 -0.04487859214919785 1.293306336332915 -0.3954236066496069 
0.09650463681887619 0.07220611779789189 -0.1318828061804065 -0.0101441850372897 -0.01317600747978086 0.001717979689558764 -0.02272147264989648 0.1706107308594476 -8.673617379884036e-019 -0.05455624713266068 
-0.06161620083879965 0.008085153953854105 -0.1819032630139804 -0.0004643289455735563 0.05975003032966018 -0.007893617634203046 0 0.2790720382227776 -0.06355512355143714 -0.1177375773443423 
-0.7389534214028852 0.4404956539449453 -0.2191065322303615 -0.00518097455797647 0.7829186154728823 -0.01827068983654922 -0.2688051239628779 -0.04669418481397804 0.3672319049551461 -0.4036218631532639 
-1.023323256640931 0.2496937873984663 -0.205430420694667 -0.01088999157808399 1.064950639651634 -0.006798705673422556 -0.9543626282245128 0.06898976008011813 0.5719150704830965 0.7155751607584037 
0.2945456513072053 -0.238523845529508 0.1327720484825706 -0.006988105101345449 -0.4892885490121084 -0.001553069347579426 -0.8063938268496961 -0.01974094609164437 0.98577305319591 0.5272355856681542 
0.09003598879312284 0.6535454798723791 -0.4230771130772821 2.168404344971009e-019 -0.05347097835538026 0 0 -1.734723475976807e-018 -0.01366226439890227 0 
-0.4119564157361888 -0.05404363198789289 0 0 0.4253467407296502 -3.089976191583688e-018 -0.4003252071351138 0 -0.3547648584566358 0.5683057690109397 
0.09576567732244193 0.2460913900305329 -0.1289358883536929 0.004489963095084318 -0.1128285237304211 0.0007781309840818139 0.1106294726757567 -0.3398232924007796 -0.2859656987484321 -0.1285101562981446 
0.0754658609446085 -0.104735633611051 -0.05195304111746787 -0.0002141186907942982 -0.063670753910023 0.0005531483151520383 0.1537927434341801 0.1392294978699196 -0.08868456952486474 -0.2484329210560555 
0.3589943183839094 -0.02647409018634349 0.05691882497730801 -0.001044953729222641 -0.3650622996119993 -0.002823176768310022 0.2496510615648605 -0.08390287422396224 -0.3366329639182841 -0.195712821161712 
0 0 0 0 0 0 0 0 0 0 
0 0 0 0 0 0 0 0 0 0 
0 0 0 0.004921435902155287 0 0 -0.02564836479633676 0 0 0 
-0.7467220467336513 -0.09091364909958979 0.1013517024052658 -1.084202172485504e-019 0.7577462428625891 -0.00232120888495936 0.360487327337971 0 0 -0.2084908593185159 
-0.1938684801974725 0 0 0.0009667810228279902 0.2043640997436753 0 0 0 0 0 
0.1354125992121605 0.09062038099808922 -0.04119094482495898 -0.004590536210626924 -0.1345877770826264 -0.00409978671027076 0.09491471892432943 -0.04154024462901901 -0.6581047920037076 0.1680351317835283 
0.2767434176541849 -0.4346465222841605 -0.08749371121793852 0.003418001723111912 -0.2951175541001173 2.974383742971416e-006 -0.3319133979123299 0.1976804298172688 -0.7644216797415903 0.5975671030739299 
0.1621473737980502 -0.04693156721261183 0.139021277623548 -0.01089986759965408 -0.1527462918484769 -0.01720693540504129 0.7104624268985115 -0.3079391501135029 -0.2048057067569331 -0.6435071358707973 
0.02711181581964597 -0.2291803544947765 0.02313253265377178 -0.003744795000806335 -0.02559569682738598 0.0002579093662150784 -0.06162036162127097 0.07420682211133141 -0.1214199902697098 0.063534220284759 
-1.065746889620332 0 6.938893903907228e-018 -0.001589720622382907 1.07326501532825 -2.941466908194403e-005 -0.7422164384717563 -3.469446951953614e-018 0 0.8094199390643422 
-0.222583006186588 0.06023873031077626 0.1617612295995863 0.002976447970217557 0.2105849261657494 -0.002384219705356102 0.203308482560102 -0.2031779167036915 -0.1149721171954874 -0.4688355141436326 
1.387778780781446e-017 0.453874015797632 -0.5461280778307194 -0.01007342968298563 -1.387778780781446e-017 -8.673617379884036e-019 0.06348235902231526 0.5119494208934177 -0.2005498340809936 0 
-0.2780870082697162 -0.2938036345622379 0.2989996107559338 0.005369216745772241 0.290529048849982 -0.00156834794527155 0.3900701549469438 -0.2245290681998461 -0.434688286191677 -0.1738324139577562 
-0.06452029387069536 -0.01277373630935054 0.1040642680240104 0.004282260291692981 0.06033751054346295 0 0 5.204170427930421e-018 0 0 
0.4052592664607796 0 0.02611190948169287 0 -0.369552619498569 0 0 -0.08587361611926596 0 0 
0 0 0 0 0 0 0 0 0 0 
0.1347102759244706 0.189911602502656 -0.06935248468962174 -0.0004164476504813139 -0.1483774292404809 -0.001104237800654246 0.07124816313208453 -0.04534991173658125 0 -0.05123967984464749 
0 -0.03213922776067532 0.1658927070137772 0 0 0 0 -0.02342953016797184 0 0 
-0.4455060325931753 -6.938893903907228e-018 0.3763224233440506 7.589415207398531e-019 0.4521311701236208 -2.602085213965211e-018 0.3160968815385348 -0.2586433967007825 -0.1300725015199021 -0.1854513581254056 
-0.3069287500080257 -0.2020542040471987 0.2798834600714903 0 0.03201901052003675 0 0.4408051112341234 -0.08070066256280661 2.602085213965211e-018 -0.4315231836080953 
0.2236362908768671 -0.1632841425732854 0.290607928023348 0.009122032089992786 -0.2235109067348235 -0.001873448165347208 -0.373221460623854 -0.1634734114526643 -0.1212546372776037 0.3960255866511143 
0 0 0 0.002670308428229797 0 0 0 0 0 0 
0.4930810627057025 -0.03313883408120298 0.2612828006082555 -0.007290093244455219 -0.6721668548968135 -0.003421039993174944 6.938893903907228e-018 0 0 -8.673617379884036e-018 
0.5019587533986327 6.938893903907228e-018 0.1259070481737613 7.423956883097281e-006 -0.7464979735608788 0 0.49131870520949 -0.1500022282406647 -0.09425814204280725 -0.4463915823959422 
0.2455391932562092 -0.08455770637734558 0.1718412337643978 -5.421010862427522e-020 -0.25182168466951 0 0 -0.03107476199200277 0 6.938893903907228e-018 
0.01731692008547235 -0.2551572126957663 0.2723047107548862 -0.006334861245617658 -0.0204339496841395 0.003205894418436011 0.1232450264991772 -0.1482942409091621 -0.04266186552223872 -0.0183281611279501 
0.4735539937972816 -0.2149514419058854 0.1421751676254947 -0.0003169124908335012 -0.5324771035328746 -0.001553069347579423 0.07777335177612617 -0.1066098633432926 0 -0.02078411669791557 
-1.327554092214123 0 0 -0.002473506148372948 1.006517168714986 0.00734870364079812 0.6309095008205774 0 -0.161758477026023 -0.4677323712165121 
-6.938893903907228e-018 1.040834085586084e-017 0.02684844200892473 0 0 0 0 -1.387778780781446e-017 0 0 
0 0 0 0 0 0 0 0 0 0 
-0.700765414714752 -0.4016514725084669 0.643056749177617 0 0.6064033026378404 -2.710505431213761e-020 0.4238057533487974 -0.5185455948019802 -0.1422284763113581 -0.4612539581586777 
0.1569280237775588 -0.4119315354543902 0.3149796415373499 -0.00555594139941128 -0.1531951685646487 -0.007228084622550971 0.3837907296318149 -0.2001760469178004 -0.1820250214541218 -0.5403591594941246 
-0.680199745408967 -0.1013811968007769 0 3.252606517456513e-019 0.6871454838508426 -4.336808689942018e-019 0.07530758926735365 0 0 -0.1829082704736761 
0 0 0 0 0 0 0 0 0 0 
0 0 0 0 0 0 0 0 0 0 
0 0 0 0 0 0 0 0 0 0 
0 0 0 0 0 0 0 0 0 0 
0 0 0 0 0 0 0 0 0 0 
0 0 0 0 0 0 0 0 0 0 
-0.4765048024600678 -0.1267208585544462 0.06899052614897563 -0.007834323068053551 0.471143753432709 -0.01895657989308897 0.02195951973760679 -0.1802130548831536 -0.7137414595515931 0.2330969731322998 
0.3689595275382305 -1.597702143365836 -0.5202501750341233 -0.5256287200674101 -0.4734473429281816 -0.4968715227511151 -0.5289461646757985 -1.024259670176923 -1.345931996414636 -1.125315990272055 
