solver_type L2R_L2LOSS_SVC_DUAL
nr_class 10
label 6 8 2 13 1 14 11 7 12 5
nr_feature 269
bias 1
w
0.06280591430944892 -0.1744619512432339 0.02349231067952233 -0.3094012952619755 -0.0659660623107436 -0.1767038690525247 -0.1597453422818753 0.1972284583713452 0.01554408383318266 -0.2298254567995137 
-0.6279335060822026 0.3843554894641214 -0.5726703361585627 0.218378112554118 0 -0.3303562421836234 -0.09524246465313105 -0.3095329588740348 -0.2689938468159333 0 
0 0 0 0 0 0 0 0 0 0 
-0.2367789222930581 -0.9618440607851636 0 0 0 1.432373111326091 -0.01905056245637403 0 -0.2063151502537411 0 
0.05784512085096492 0.2730048875067315 -0.3209823099050818 -1.387778780781446e-017 -0.01656484302445896 -0.1214805425372535 -0.672619480809458 -0.2457694168762078 -0.1050356035131692 -0.1180165504269391 
0 0 0 0 0 0 0 0 0 0 
0 0 0 0 0 0 0 0 0 0 
0 0 0 0 0 0 0 0 0 0 
0 0 0 0 0 0 0 0 0 0 
0 0 0 0 0 0 0 0 0 0 
0 0 0 0 0 0 0 0 0 0 
0 0 0 0 0 0 0 0 0 0 
0 0 0 0 0 0 0 0 0 0 
0 0 0 0 0 0 0 0 0 0 
0 0 0 0 0 0 0 0 0 0 
0 0 0 0 0 0 0 0 0 0 
0.1088823091085967 0.1848847984602457 -0.1652796358406123 -0.3030731076956019 -0.430288603852418 0.02696621219140433 -0.08677139853542122 0.1788918151058541 0.1000617694434175 -0.1705481896681979 
0.0706088439684178 -0.01242413469437595 0.006031274029171439 0.1367136927289629 0.01201731333353374 -0.06009526667734589 0.1745472599308891 -0.1080603185690313 -0.09394048399700633 0.0140310072591814 
-0.02686766648455323 0.02743310236727548 -0.02785667482586172 0.1649569787253851 0.1062295324909932 -0.06229321803405992 -0.1818815801699656 -0.1445212965912045 -0.1436487083383713 0.02889896257904519 
-0.1444080861622647 -0.1721902869253856 -0.228436100145274 0 0.309320208297509 -0.1293993642909086 0 0.0311892460144719 -0.1917608532571976 -0.147617986650463 
0 0 0 0 0 0 0 0 0 0 
0 0 0 0 0 0 0 0 0 0 
0 0 0 0 0 0 0 0 0 0 
0 0 0 0 0 0 0 0 0 0 
0 0 0 0 0 0 0 0 0 0 
0 0 0 0 0 0 0 0 0 0 
0 0 0 0 0 0 0 0 0 0 
-0.4258989949878655 0.5233930280461842 0.4827667406252753 -0.3545401013621632 0.1061930305740022 -0.6436062177746835 -0.1063279491367813 -0.2169039169989015 -0.03862524400508669 0 
0 0 0 0 0 0 0 0 0 0 
0 0 0 0 0 0 0 0 0 0 
0 0 0 0 0 0 0 0 0 0 
0 0 0 0 0 0 0 0 0 0 
0 0 0 0 0 0 0 0 0 0 
0 0 0 0 0 0 0 0 0 0 
0 0 0 0 0 0 0 0 0 0 
0 0 0 0 0 0 0 0 0 0 
0 0 0 0 0 0 0 0 0 0 
0 0 0 0 0 0 0 0 0 0 
0 0 0 0 0 0 0 0 0 0 
0 0 0 0 0 0 0 0 0 0 
0 0 0 0 0 0 0 0 0 0 
0 0 0 0 0 0 0 0 0 0 
0 0 0 0 0 0 0 0 0 0 
0 0 0 0 0 0 0 0 0 0 
0 0 0 0 0 0 0 0 0 0 
0 0 0 0 0 0 0 0 0 0 
0 0 0 0 0 0 0 0 0 0 
0 0 0 0 0 0 0 0 0 0 
0 0 0 0 0 0 0 0 0 0 
0 0 0 0 0 0 0 0 0 0 
0 0 0 0 0 0 0 0 0 0 
0 0 0 0 0 0 0 0 0 0 
0 0 0 0 0 0 0 0 0 0 
0.01899331697740555 -0.1782269340407551 0.2947449814155785 0.007973034767657313 -0.2848634389304011 -0.1166259091527642 -0.3881503149913673 -0.03706329597248934 0.2336037824251326 -0.01049593662523931 
-0.06807547708668285 -0.07770616456843002 0.004966213252385884 -0.1283704057090728 0.2267494521294403 -0.1821638934513158 -0.1595937706996702 0.04300906234984868 -0.01962195551139341 0.1784170788932774 
0.1789899258860371 0.04515466863301549 -0.0455456236670887 0.02428459517411478 -0.1660793071127337 -0.3219476162139808 0.06694518805801862 0.003747070545091471 0.04515511760053253 -0.07512339943357639 
-0.0206422325249456 0.05599551637962789 -0.07216074177120463 -0.2259556338412256 -0.313388128343248 -0.0807212024825095 0.4741705662874292 0.3166503352190502 -0.284038876302125 -0.01793318719540805 
0.04834667303464199 -0.1263534885657536 0.0212697505078509 -0.1569507031303432 0.2158418271455014 -0.2038446803065155 0.2129337721782181 0.01466713419973311 0.01905101504402098 -0.2427387413879362 
0 0 0 0 0 0 0 0 0 0 
0 0 0 0 0 0 0 0 0 0 
0 0 0 0 0 0 0 0 0 0 
0.2999833356028724 -0.03934697757533034 0.03577887507330099 5.853197581912647e-005 -0.2121323237219652 -0.1911213535484005 -0.05061438383782943 -0.2110549068019149 0.09712200415026211 0.0126775412815357 
0.5417512413272663 -0.8232167811909302 -0.1564584893611383 -0.2144424939441291 -0.0234672875930405 0 0.3285435019626128 1.387778780781446e-017 -0.006164419086810741 0 
0 0 0 0 0 0 0 0 0 0 
0.3522833262537485 -0.2420016455384739 -0.04943519365815351 0.1094810316723922 -0.187913087526013 -0.1089018531514652 -0.03912496534059712 -0.09057139459386054 0.08146490831507731 -0.001335472728234494 
0.02448099341579108 -0.26730562666068 0.2154886103863294 0.1464706385586669 0.1060300081797236 -0.01272943677373661 0.2175193745066831 -0.3495856715251847 0.1525329204135798 0.2593356446901836 
0 0 0 0 0 0 0 0 0 0 
0 0 0 0 0 0 0 0 0 0 
-0.01045809276632305 -0.5010874246144654 -0.3829913150573315 0.2232154498646424 -0.2479955143532854 -0.09620368387461499 0.2759892349009984 0.5310817940540614 0.1367993827648884 0 
0 0 0 0 0 0 0 0 0 0 
-6.938893903907228e-018 -0.1520629000965446 -0.3136303721402995 -0.2366123668711981 -0.2595688758308886 -0.1983201274005492 -0.371449469878114 0.9856615600156088 -0.003429631052576095 -0.06495057971990718 
0.1118289469949499 -0.1192810757760908 -0.03836857197805046 -0.009659552849084034 -0.02974667706549793 -0.206144608318656 -0.05341516112252714 -0.03690860984210107 0.3347792693996894 -0.1723766308027972 
1.345575024381386 -1.157904923494536 -0.003477536660545665 0 0 0 0 0 -0.09278649781330295 0 
0 0 0 0 0 0 0 0 0 0 
0 0 0 0 0 0 0 0 0 0 
0 0 0 0 0 0 0 0 0 0 
0 0 0 0 0 0 0 0 0 0 
0.223019141518185 -0.5143335487617242 0.170780931393718 0.3715395454229798 -0.1543729813776952 -0.262581441447 0.254290828968252 0.07688036937112085 -0.007084585517860703 0 
0.02423643031220982 0.194762938570015 -0.1495592719185683 -0.01539590574398613 -0.02595316205591097 -0.3859606511399847 0.03056793092006729 -0.1807962217613738 -0.01713805450993304 -0.1279511812163156 
-0.08309043954698196 0.4559862200998225 -0.02484831260212612 -0.1005208234379552 -0.1263434557628688 -0.5956562775983474 -0.1796907570502205 -0.5157282024492513 -0.06990787424654306 -0.02882202127376691 
-0.0652772994015125 0.1924824706934632 -0.1079100997772662 -0.1226360783869512 0.06671373063928435 -0.1067794108818398 -0.3378454344847163 -0.199940616738504 -0.05709833070684679 -0.1477809108141055 
0 0 0 0 0 0 0 0 0 0 
0 0 0 0 0 0 0 0 0 0 
0 0 0 0 0 0 0 0 0 0 
0 0 0 0 0 0 0 0 0 0 
0 0 0 0 0 0 0 0 0 0 
-0.1949206342314971 -0.1395623176175843 -0.0905036554920345 3.469446951953614e-018 0.4529776807364675 -0.2946896348276482 1.734723475976807e-018 -0.01097414940405959 0 0 
0.2535845990152923 -0.5137132860014085 0.04671275448244053 0.2476505583172316 0.3871927744662471 0.3717483093287983 -0.3901637356466994 0.403329830241768 -6.895525817007808e-017 0 
0.1171116919391426 -0.009293742183036385 -0.1468281462200613 0.05322780975570631 0.1866998452592549 -0.2952279357093717 0.1574426733303608 -0.7081745055452179 0.09595353254126908 8.673617379884036e-019 
0 0 0 0 0 0 0 0 0 0 
0.00086517086623643 0.001589097552399084 0.04222772058813121 -0.329298578941318 -0.1750322520667462 0.3938793068239957 -0.2876705357253401 -0.767437602383123 -0.2583693076768831 0 
0 0 0 0 0 0 0 0 0 0 
0 0 0 0 0 0 0 0 0 0 
0.6008802523494684 -0.7910896539707751 -1.33566315669488 -5.204170427930421e-018 0.4028662995495666 0 -0.09486148582015404 0 0.8794550337740181 0 
0 0 0 0 0 0 0 0 0 0 
0 0 0 0 0 0 0 0 0 0 
0 0 0 0 0 0 0 0 0 0 
0 0 0 0 0 0 0 0 0 0 
0 0 0 0 0 0 0 0 0 0 
0 0 0 0 0 0 0 0 0 0 
0 0 0 0 0 0 0 0 0 0 
0 0 0 0 0 0 0 0 0 0 
0 0 0 0 0 0 0 0 0 0 
0 0 0 0 0 0 0 0 0 0 
0 0 0 0 0 0 0 0 0 0 
0 0 0 0 0 0 0 0 0 0 
0 0 0 0 0 0 0 0 0 0 
0 0 0 0 0 0 0 0 0 0 
0 0 0 0 0 0 0 0 0 0 
0 0 0 0 0 0 0 0 0 0 
0 0 0 0 0 0 0 0 0 0 
0 0 0 0 0 0 0 0 0 0 
0 0 0 0 0 0 0 0 0 0 
0 0 0 0 0 0 0 0 0 0 
0 0 0 0 0 0 0 0 0 0 
0 0 0 0 0 0 0 0 0 0 
-0.1969849203095226 0.3234259160060491 -0.1308425398559439 0 -0.1023413608592556 0 0 0 0 0 
0 0 0 0 0 0 0 0 0 0 
-0.3179419927749507 0.4151259668975621 0 0 0 -0.05246042398559041 0 -0.2518302745433653 -0.0108511418418499 0 
0 0 0 0 0 0 0 0 0 0 
0 0 0 0 0 0 0 0 0 0 
0 0 0 0 0 0 0 0 0 0 
-0.06987797139949464 -0.1683074707386658 -0.3346817065562421 -0.2734904755922736 0.4257218429853006 -0.1029716894085032 0.4442935777505432 0.002859983915045661 0.0741216497825309 0.1737418998012037 
0.09149752972994171 -0.06588465993195383 0.06241598385628194 0.02299990171816687 -0.2396142833624896 -0.16627086371478 -0.05501565950255559 0.1067694699387486 -0.135771911420029 -0.1004099835945376 
-0.09579206547906162 -0.0740673344527268 0.2301331478733522 -0.0967317379671819 -0.3014182663157149 -0.04969255916196384 -0.1064486836460776 0.1484263816741857 -0.1419362871780195 -0.2687229660687481 
-0.02398051919479035 -0.0037794342360606 0.1499111534333479 -0.2364977543484134 -0.4465931739097792 -0.02609959672915037 0.1642682090931549 0.1022273364626477 0.1039719883429499 -0.2044831845054674 
0.02141210830445981 -0.1455659098508789 0.06780368509620426 -0.06891022733271247 -0.1029254442652682 -0.09395509149798778 -0.1960849364696319 0.1004263536597219 0.06122613933163187 0.01248919151249536 
-0.05412158886367983 0.005377754167679109 0.3537718632899377 0.04959820959728224 -0.5081049650924501 0.09891781368524813 -0.1076059493656217 -0.3723864222196009 0.1117214235640959 1.734723475976807e-018 
0.4745721895772604 -0.08297466972224993 0.04312980028565051 -0.1406213923051392 -0.2784818686180668 -0.4587841251649303 6.071532165918825e-018 -0.1630045409720251 -0.4874662864738311 -0.2298254567995137 
0.01515534962802183 0.2738470477700752 0.3817600791830172 -0.2110451195603535 -0.8855545230558789 -0.05000468683759736 0 -0.04098019305307717 -0.1050356035131692 0 
-0.03763579714332558 -0.2398979095600788 0 0 0.8280962529089005 -0.07147585569965617 0 -0.5338367528614724 0 0 
0.1322803169094668 0.3589746452984215 -0.4610264954352052 -0.2186071229366735 -0.4213160472932598 -0.03978993342313308 -0.4073752193418052 -0.295239305063187 -0.08441062261858534 3.469446951953614e-018 
0 0 0 0 0 0 0 0 0 0 
-0.03354548803400421 -0.3138572689172529 -0.03397276138600462 0 -0.7528733926774814 0 0 1.032081811051828 0 0 
0 0 0 0 0 0 0 0 0 0 
0 0 0 0 0 0 0 0 0 0 
0 0 0 0 0 0 0 0 0 0 
-0.1721092481086256 -0.02829982083448291 0.03296332916144266 0.009300686284098416 0.1525971640985725 0.3456482784849965 0.2104837642140592 -0.02391025653270715 0.1244460117630259 0.235382087716444 
-0.1557208206275429 0.03843490244050082 -0.09691912441838764 0.0103302648864421 0.0713302620934882 0.378237333834627 0.3661852134182286 0.2147781385844397 -0.2481183665887222 -0.2620685277151705 
0.5282979575889346 -0.5812579440428454 -0.162671301115737 -0.07127724734705719 4.163336342344337e-017 -0.09620368387461492 0 -0.5226248648139896 0.5271199066882358 0 
0.449325092956013 0 -0.02129952080900978 0 0 0 0 0 -0.08768668520016794 0 
-0.03283225128360695 0.3325797492541904 -0.4462204619591338 -0.3671004642191886 0.181078935839 0.2896780934140424 -0.4809029066054757 -0.4308628099250054 -0.1401794585967812 0.0650144840365634 
-0.2498470839810403 0.6465611088774409 -0.6529875666152089 -0.1731043755668329 -0.1061224644093452 -0.1187116662027641 -0.2969963802973507 -0.4441651830465851 -0.1482409642637438 -0.2432456021731046 
-0.357619162669358 0.1146168193563913 0.02008349723970332 -0.1171950712489576 -0.002185587776988143 0.1734281819282496 0.3926214950964065 -0.1325176872046242 -0.4980654386132649 -0.06495057971990718 
0 0 0 0 0 0 0 0 0 0 
0 0 0 0 0 0 0 0 0 0 
0 0 0 0 0 0 0 0 0 0 
-0.1270442020062941 -0.3363386931485667 0.1528767356392212 -0.03656158198635415 0.3915918875393336 0.1316288218974092 0.1337170160001611 0.2317596033013143 0.05914163007715106 -0.2121615163004708 
-0.1793347747746313 -0.3417500052965032 0.1945803921177203 -0.2055807553384553 0.4007842340756593 -0.05491839628287362 0.1424650245207452 0.2398667229466032 -0.01870064186828584 0.07494209186150229 
0.1791004775034601 1.200037722111319 -0.1986543687763501 0.2632895190487294 -1.664460550250064 -0.09717126630659211 -0.1056864793269573 -0.2019914530074663 0.1247850275963754 0.03244667034119547 
0.1995454565415469 1.086977787900127 -0.1446998783992323 0.3011579447669055 -1.56709946312548 -0.1849323287340862 -0.1960218909061129 -0.08020864436274108 0.08826066774615081 0.08965487895861492 
-0.3227443320271131 0.1272372742686412 -0.1507364672975354 -0.1614675856538688 0.2680978934213783 0.05960952440495706 -0.3483876975819469 -0.4880465016835129 -0.1354906028998495 0.004345183865684294 
-0.05466859752838565 0.1361141854607567 0.1109248628940061 -0.2714558627417795 -0.5913976029545243 -0.4324480726599638 0.5234457752673046 0.06364869463818745 -0.276919947785974 0 
-0.06874953074696694 -0.04574356245116047 0.006886920704518205 0.1113648463182953 0.06895501688129684 -0.04521104554776365 0.1158499012015507 -0.1638906773765686 -0.2340507236602736 -0.07724101828839684 
-0.2276068256479306 0.0003270254003360507 -0.1073826582968457 -0.1731534788253575 0.1983387001939435 -0.604821865044793 -0.1286395095701873 -0.08268800823134344 -0.04615271995417734 -0.1478567695751076 
-0.252253819796875 0.04676485712428388 -0.1928065518203952 -0.2786624488466569 -0.2340320060972077 -0.1486673537362549 -0.8837943382651253 0.2390787948567294 -0.1703889724306006 -0.2350149387359398 
0.02452052519961582 -0.4063660275488936 -0.2332095238074884 -0.04849966234553287 -0.2658944597026673 0.2170832613332407 -0.03582596173335319 0.3770596785945605 -0.01316158203149121 -0.2321521080857124 
-0.1026302009383964 -0.0673192822198565 -0.03333673418016591 -0.1041106409552454 0.2551334386547566 -0.01544314738940611 -0.1834342465977316 -0.2216300628745309 -0.06240040488536869 -0.1030327486362988 
0.07573008656523403 -0.08462337262030255 -0.3020754229012905 0.1432780559166201 0.4744544089935601 0.1031094020227161 0.09186621306429778 -0.3348816753789861 0.01678057146011015 0.01192205702119693 
0.2436018716171329 -0.1169735277209266 -0.09392260248310033 -0.09301326030021639 -0.08673703602887788 -0.1176871505856177 -0.2893560125087371 0.1617530825254073 0.04312793473666915 -0.02225182626097887 
0.08066878437806804 -0.1568458732611797 0.4758096545532322 0.1496983261276037 -0.7730142278053627 -0.0377053308589613 -0.1049144225273392 -0.2258521764311435 0.0426066814104276 3.469446951953614e-018 
0.1383560225781569 -0.09006778025171654 -0.218578328697109 -0.05659966481811914 0.3416022864387679 0.009473230163635068 0.1246108661618829 -0.03420341197219801 -0.05748072574688175 0.06005710119174385 
0.2092070488090927 0.004483185388992079 -0.318596659452854 -0.1879835872963334 0.2491182003327236 0.1291773511335717 -0.2123042365951471 0.009244877895123588 -0.1081336964958456 -0.04357186437265881 
-0.01518644789323335 -0.09614311471885609 -0.1605533999456607 -0.1130091434976303 0.2343736466306129 0.230827294973509 0.0328475314215711 0.007243892819134028 0.1361702755716742 -0.04789985470725409 
-0.001308466484791395 -0.0721029810211143 -0.2574993283399573 0.2461690876122122 0.3798413093272045 0.148022961309545 -0.1593490415946397 -0.2316872543276028 0.1407938588104027 0 
0.1630857860420968 -0.1199693067702061 -0.3291547602819133 0.1168322524628896 -0.2190060196701534 -0.05009108783051285 -0.2728800713515455 0.3444414511138981 0.03720942270168442 -0.07808809538844161 
0.06054478972121658 -0.2426379572882459 -0.3581688597928331 0.1083064609132182 0.8522762604973604 0.1942139334715358 -0.006508767915321826 -0.6059681792775704 0.1015751813346512 0.2479378677694256 
0.3019210023505366 -0.3274622712475844 -0.1959233709579943 -0.1824452338019378 0.1341990698455502 0.4349087179588415 -0.04957073214079256 -0.09312010906928914 0.123629333140472 -0.04980969045083243 
0.2055173214558148 0.07779607110093548 0.007830903766014081 0.04584633416996817 0.05216927721586728 -0.1138138054414717 -0.1876395311704505 -0.2937358276372941 -0.04854903743024688 -0.1617844690581018 
-0.03022490236560814 -0.0900438824273075 0.1091727472029971 -0.05576569236030811 0.09476972373658053 0.004716274741984296 -0.0560307572042009 -0.1559949332535446 0.01346005838235672 -0.1181681109107551 
-0.1681851176795662 -0.2188272271985653 -0.04888666083968537 -0.2357842529522745 0.04377828382862847 0.03614279219655783 -0.3014483485704638 0.09546018060903816 -0.1018613225154478 -0.1397167976288165 
-0.3356902305230829 -0.1956624711334918 -0.1688420849430924 -0.2349677545072283 -0.1473218773669373 0.08091078154608916 -0.7130264310994885 0.4299803597708032 0.01472784716464341 -0.23156523804502 
0.09666489959532894 -0.5975155854369292 -0.06495381426615286 0.001122737691364607 0.139379119177619 -0.8296227073785719 0.2087937399228106 0.04134197029240883 -0.4538962083785996 -0.1764247616088293 
-0.5969223328787343 0.803019753803087 -0.3169775917549723 -0.4563555632820077 -0.3366345452423354 -0.2573295650040621 -0.1351050375323518 -0.8432505927487386 -0.3975352699183304 -0.2432456021731045 
0.08712933609633985 0.09527673126785693 -0.08476636290150834 0.005744589830304931 -0.03532850459435635 0.08632779361638769 0.08697078098477164 -0.1202238813112712 -0.007435882623380431 -0.133757770801905 
0.168938444227687 -0.1958706429038026 -0.2287951705551914 -0.2819384317111979 -0.008593081965938627 0.08514832868058886 -0.2680754896703252 0.5703120131031163 -0.003924345122727262 -0.02802426050610182 
-0.213350127133578 -0.01254207789364871 -0.166376508149426 -0.1474720390756505 0.2858390812151115 0.1364015963836471 -0.3010402827355501 -0.1182139412419823 0.01762532555957487 0 
-0.05471025923958077 0.1452789401402135 -0.05968894633877306 -0.02484387126428728 -0.147239571574837 0.05789228145801698 -0.001880565949205473 0.06273574936871629 -0.223284659981724 -0.07343966686557531 
-0.09224278792555633 0.2274711325570286 -0.6787230657374824 -0.2035809254597942 -0.3139775375829808 -0.6226698585130684 -0.2728800713515455 0.2886918524171946 0.03724256724383883 -3.469446951953614e-018 
0.003372782455002749 -0.04039965581119864 0.1887223931904595 0.183966518560073 -0.5070849385752878 0.1618998898986192 -0.07952985969571245 -0.3360280955526501 -0.5567603640811319 -0.01540626786462997 
0.07201239701853303 -0.1746271811430945 0.1851920514470334 0.07461473316250253 -0.1762917207272475 0.1829383298751464 -0.5880367073523126 -0.1471065423544823 -0.008565527490672947 0 
-0.003147850836663843 0.1705665884369757 -0.0533787871747646 -0.1620601299278139 -0.1959065825310107 -0.332932033726458 -0.231602680530283 0.2214643936796559 -0.5658249758757231 -0.07968734612835533 
0.07421908115533543 0.04296341493998618 0.06576233262682735 -0.09910664611521571 -0.06935439773282509 -0.1946466340607982 -0.1985050242894549 0.161051095976294 -0.1116854518115845 0 
-0.1614072754058786 -0.7125722188767353 -0.408676954294683 -0.152148844752099 -0.4202006286475644 1.444097269804214 0 -0.1920159861028333 -0.181102550047118 0 
-0.3021812866534536 -0.05413921403444191 0.2883272536262548 0.1183335176091295 -0.4987659549511789 -0.2855730843998503 -0.03779249953336804 -0.147501487693346 0.05566107493321065 -0.01670523595174063 
-0.2142385777016884 -0.03278921234993509 0.1737161782429472 -1.517883041479706e-017 0.3698075660842397 0 -0.1746130482421815 -0.06134877685441638 -0.1969002476535537 0 
0 0 0 0 0 0 0 0 0 0 
-0.3344511545418953 -0.5855928857528721 0.5180728394306873 -0.2152708456446722 -0.08880206202882088 0.8054816041375659 -0.2128521101018019 -0.2932142091942619 -0.3176428992576978 0 
-0.06861579809295025 -0.4731362611546715 0.2716689250372916 0.3128600745286242 -0.3091188104081072 0.3575672703027406 0.1895998476074977 -0.02517684470479102 -0.02996249390959105 0 
-0.1045159628397943 0.04555562564486435 -0.04490947654414173 -0.03701232829115583 -0.2888155885323607 -0.1563072010119374 -0.03868998641629123 -0.2069095410229385 0.5439710069832764 0 
-0.06275765536978825 -0.004630188884897801 -0.02461444910613305 -0.115167301654718 -0.05421364184276506 -0.192294922951515 -0.1191702167677363 0.07378415158896953 0.02475437053146546 0 
0 0 0 0 0 0 0 0 0 0 
-0.02321524288798676 -0.02007141629193418 -0.1686804102599535 -0.05890815805970009 0.3800060130491212 -0.113362234990308 0 -0.1887691890079156 -0.01911667660014661 0 
-0.2670094839040496 0.1068858950887371 -0.1130160218333032 6.938893903907228e-018 -0.3793086872586324 -0.3299770944503014 -0.06989611169520948 0 0.277122982201834 -0.03483964848829549 
-0.102696036867946 0.1419197265332171 -0.362396069883677 0.05215555549900598 0.1087532586003189 -0.3020190074708649 -0.2077917757377484 -0.2302818779965648 -0.4442108630919188 0 
-0.4565393738981014 1.198602629742713 -1.734723475976807e-018 -0.1490879580953151 -0.06973500098799379 3.469446951953614e-018 -0.2550211120500471 -0.5368182456461259 -0.3840686177663964 0 
-0.04132939247138993 0.1253941783062549 -0.1222246397997793 -0.09638144428601167 0.2127426980757683 0.05088799830299973 -0.1997759083474934 -0.3575315979866253 -0.1877037663128046 8.673617379884036e-019 
0.007549802463247185 -0.02245304785522162 -0.3202149450594065 0.1135051689272082 -0.01910801940712326 0 -0.1063279491367813 -0.1158001017635212 -0.09007412723667028 0 
0 0 0 0 0 0 0 0 0 0 
-0.1176489760652186 0.3437325701496191 -0.0680212316305287 -0.04279192116366812 2.255140518769849e-017 0 0 -0.13291431277071 -0.05563254251296701 0 
0.0440995847497471 0.1525004444081185 0 -0.257801679689036 1.214306433183765e-017 -0.1629208615950557 -0.06619802841082588 0 -0.05589092308542563 -0.001335472728234524 
-0.1136113222633221 0.4940457381334494 0 0 -0.03950279179266922 0 0 0 0 0 
0 0 0 0 0 0 0 0 0 0 
0 0 0 0 0 0 0 0 0 0 
0 0 0 0 0 0 0 0 0 0 
0 0 0 0 0 0 0 0 0 0 
-0.556990976929028 0.1783282800936759 -0.1265170559577754 -0.1372787974761925 0.332417675549255 -0.06026245546905442 0 -2.42861286636753e-017 3.469446951953614e-018 0 
-0.06275765536978825 -0.004630188884897801 -0.02461444910613305 -0.115167301654718 -0.05421364184276506 -0.192294922951515 -0.1191702167677363 0.07378415158896953 0.02475437053146546 0 
0.07421908115533543 0.04296341493998618 0.06576233262682735 -0.09910664611521571 -0.06935439773282509 -0.1946466340607982 -0.1985050242894549 0.161051095976294 -0.1116854518115845 0 
-0.1077607084563982 -0.2677550387509518 -0.004609270436621482 0 0.824586184757278 0 0 -0.03756992868463766 -0.05895297251106518 0 
-0.09355733841851435 0.1635938494072738 -0.157545834703317 -0.3265879880451677 0.298461682832789 -0.3416774842169284 -6.938893903907228e-018 0.07525699995422069 -0.1754625221251205 0 
-0.1176489760652186 0.3437325701496191 -0.0680212316305287 -0.04279192116366812 2.255140518769849e-017 0 0 -0.13291431277071 -0.05563254251296701 0 
-0.3021812866534536 -0.05413921403444191 0.2883272536262548 0.1183335176091295 -0.4987659549511789 -0.2855730843998503 -0.03779249953336804 -0.147501487693346 0.05566107493321065 -0.01670523595174063 
-0.06861579809295025 -0.4731362611546715 0.2716689250372916 0.3128600745286242 -0.3091188104081072 0.3575672703027406 0.1895998476074977 -0.02517684470479102 -0.02996249390959105 0 
0 -0.3255732812927224 0.4025629097782548 -0.04651518773722003 -0.3450913654056685 -0.01871803155467606 -0.143406099059202 -0.5187920911829835 0 0 
0 0 0 0 0 0 0 0 0 0 
0 0 0 0 0 0 0 0 0 0 
0 0 0 0 0 0 0 0 0 0 
-0.3729055639078256 0.1715454228785197 -0.2325663900190946 -2.081668171172169e-017 0 0.6214652600965728 0 -0.6479386244022904 -0.4239941318568141 0 
0 0 0 0 0 0 0 0 0 0 
-0.04132939247138993 0.1253941783062549 -0.1222246397997793 -0.09638144428601167 0.2127426980757683 0.05088799830299973 -0.1997759083474934 -0.3575315979866253 -0.1877037663128046 8.673617379884036e-019 
0 0 0 0 0 0 0 0 0 0 
-0.1045159628397943 0.04555562564486435 -0.04490947654414173 -0.03701232829115583 -0.2888155885323607 -0.1563072010119374 -0.03868998641629123 -0.2069095410229385 0.5439710069832764 0 
0 0 0 0 0 0 0 0 0 0 
-0.02321524288798676 -0.02007141629193418 -0.1686804102599535 -0.05890815805970009 0.3800060130491212 -0.113362234990308 0 -0.1887691890079156 -0.01911667660014661 0 
-0.2670094839040496 0.1068858950887371 -0.1130160218333032 6.938893903907228e-018 -0.3793086872586324 -0.3299770944503014 -0.06989611169520948 0 0.277122982201834 -0.03483964848829549 
0 0.2716149006377266 0 0 -0.03738341012614773 0 0 0 -0.05242127807645463 0 
0.007549802463247185 -0.02245304785522162 -0.3202149450594065 0.1135051689272082 -0.01910801940712326 0 -0.1063279491367813 -0.1158001017635212 -0.09007412723667028 0 
0 0 0 0 0 0 0 0 0 0 
0 0.06082521887724424 0.669341922647774 -0.1651754707202918 -0.1289448823257323 0 -0.2525130536130608 0 0 0 
0.0440995847497471 0.1525004444081185 0 -0.257801679689036 1.214306433183765e-017 -0.1629208615950557 -0.06619802841082588 0 -0.05589092308542563 -0.001335472728234524 
0 0 0 0 0 0 0 0 0 0 
-0.2142385777016884 -0.03278921234993509 0.1737161782429472 -1.517883041479706e-017 0.3698075660842397 0 -0.1746130482421815 -0.06134877685441638 -0.1969002476535537 0 
0.295338422194852 -0.07991640423289659 -0.4772795992947738 -0.2110451195603534 0.04439482514124526 0.3269303856574272 -0.3446549742417162 0.2745335125527135 -0.3267728131960984 0 
0 0 0 0 0 0 0 0 0 0 
0 0 0 0 0 0 0 0 0 0 
0 0 0 0 0 0 0 0 0 0 
0 0 0 0 0 0 0 0 0 0 
0 0 0 0 0 0 0 0 0 0 
0 0 0 0 0 0 0 0 0 0 
0 0 0 0 0 0 0 0 0 0 
-0.2441841573227866 0.3058541615507814 0.563145932125058 -0.3940936988333117 -0.7121488138998171 -0.332452569853406 -0.3137611129538217 -0.4892530750869082 -0.6339041293740129 5.204170427930421e-018 
-0.2567894050922115 -0.1344637976809434 -0.2969798344955574 0.1676450537946055 0.06851561333924013 0.182693019902037 -0.3348633457999804 -0.5095492228263736 0.08372472032177074 6.071532165918825e-018 
0.0198765320029275 0.3241073424369235 -0.0882419057294567 -0.09389787396367703 -0.8047721570342343 -0.3551487660955016 0.3251766818183154 -0.5977010923921735 -0.1896767554037804 0 
0.1553117489834023 -0.2279276408525909 -0.7138870688475718 -0.4011806613573946 0.7834090910664835 -0.180582558297444 -0.2728800713515455 -0.6953417143613654 0.6511153440763807 0 
-0.1590318943909101 0.01167722821512459 0.01886107876337946 0.1655060965423905 0.09370759618500558 -0.1896533869607047 -0.5050820354764453 -0.007229398916779125 0.1228316402026807 0 
-0.3606602719004963 0.3672261147692234 -0.1171868476216122 0 -0.8775493005126681 -1.734723475976807e-018 0 0.9086500805315624 -0.2039346395089566 0 
0.02396352437405551 0.3071728529112697 -0.3550388537844381 -0.1463302191390942 -0.1371462543803103 -0.6266422536125946 -0.3833449606580078 0.1438463322935598 -0.7930010463744244 8.673617379884036e-019 
0.207561678787832 0.02543700145542818 -0.6065158836793414 -0.09389787396367706 0.4991142187295734 0.2281740803820781 0.02514266138048549 -0.2152928991960788 -0.2816300647280081 0 
0.04256683906801949 -0.05779632580929697 -0.02589105056598626 -0.03735863042078044 -0.2862192458508547 0.06425918313780141 -0.1289809064514975 0.1059535227889272 0.2085830013705603 -3.469446951953614e-018 
0.04556203673337354 0.003126102452068125 -0.178283472423162 -0.101486969302798 0.1426172579796353 -0.08318074564655169 0.3431988225600625 -0.084159997620949 -0.09387359765822007 -0.04472949645784252 
0.4053178262510597 -0.1475046202879712 -0.1386993051152821 -0.05733130331562354 -0.08115606897679674 -0.5758428197147489 -0.1576520879268399 1.734723475976807e-017 0.05583427832628706 0 
0.004343922584314167 0.004008359977634594 0.5993223552105441 0 3.469446951953614e-017 0 -0.1985050242894549 -6.938893903907228e-018 -0.8284089982253005 0 
0.05893016430713313 0.01846946260040542 -0.2818557406331542 0.06552497455107015 -0.06172709106582278 -0.3851434568751126 -0.3713914624385907 -0.1136740521497338 0.2042236752415204 -0.01954185542625603 
-0.3780337422055184 -0.1966586173881485 0.4302075534779101 0.1513039757226793 -0.573310099017422 -0.06686904001264972 0.6618254428391197 0.2196174533993694 -0.3635091289532562 0 
-0.4170345937387265 -0.4441497051249979 0.409768942648125 -0.3776521410487059 0.2668037793842348 0.7437156121464665 0.813018598795857 -0.08572136877645054 -0.224525546660188 0 
-0.3203758184199977 0.3198434937477133 -0.05568878574152084 -0.1651754707202918 -0.7667007113917497 -0.0228654409609622 -0.1126895082712773 -0.4462819564097921 -0.2780357498156377 -7.155734338404329e-018 
0 0 0 0 0 0 0 0 0 0 
-0.1200630434144278 -0.280677896991121 0.5288790473892132 -0.1180665542634007 0.7048834041745071 -0.1211582542947955 0.09867815070548265 0.4243213901325691 -0.3614817660881816 0 
-0.1341504154267597 0.272140886527913 -0.05600631089451228 -0.4284300591543927 -0.6791098012894679 -0.03078008537544467 0.2464408942937836 -0.813461321980294 -0.08768668520016802 0 
0 0 0 0 0 0 0 0 0 0 
-0.09809164861646399 -0.2201862108954502 0.4899120204147142 -0.09096002818385254 -0.03912468756481267 -0.626642253612594 0.5477626894035214 -0.009265827517431366 -0.1989863192794986 0 
-0.02481050443287465 0.6421999038691485 0 0 -0.4056071511900141 0 0 -0.03756992868463767 0 0 
0.07144601863750155 0.04605581822584548 -0.214219580797186 0.09177773877048187 -0.4529604035444025 0.2531637279175004 0.02660243891685519 -0.1144885151897595 0.06365520983196292 -0.001335472728234524 
-0.1057695311524832 -0.05881193374643007 -0.02317359631727909 0.03352705108651927 0.3136862026467191 0.1216358320570883 -0.09621145631827834 -0.05581916176883679 -0.08941119387869788 -0.01540626786462997 
0 0 0 0 0 0 0 0 0 0 
-0.02597352243377574 -0.03444722053689434 0.3744958183175505 -0.2727998469824491 -0.04783193528179468 -0.2385802040071616 -0.2145131498939871 1.734723475976807e-018 0.7512077811667079 0 
-0.2026098300799832 0.08887672114557119 -0.1611969910132944 -0.0584860753250445 0.5648795975770625 -0.1832538506511008 0 -0.5959287098930075 -0.1225375464985365 0 
-0.01567639720950911 0.01786364873165913 -0.2323831087753609 0 0.621087051726065 1.734723475976807e-018 0 -0.4724088046648549 -0.0007754081792091056 0 
-1.004132781486119 -0.2089855299658966 -0.5996601518038468 -0.9259848330501588 -0.3007990196030113 -0.969898698639995 -0.9407860772794866 -0.2764680820764847 -0.9385649536477616 -0.7909523994557678 
