solver_type L2R_LR_DUAL
nr_class 10
label 2 1 6 7 5 12 11 13 8 14
nr_feature 282
bias 1.000000000000000
w
0.2725371873165402 -0.3096267813312689 0.3167954703289626 -0.3180082939446119 -0.5624547114996277 -0.5885413387542998 -0.4090780097946717 -0.3328107880375068 -0.8267871536033335 -0.6085588131678655 
0.2905638328441852 -0.1373872131608056 -0.1833085613084166 -0.01611531094957884 -0.005333463544579205 -0.01506746521960564 -0.009999703177509483 -0.04192668388524559 -0.004857843549856369 -0.01465019211988038 
0 0 0 0 0 0 0 0 0 0 
0 0 0 0 0 0 0 0 0 0 
0.1673466922379643 0.2158956476307951 -0.4957556195220685 0.1420241407132713 -0.2283619834930474 -0.04459116055943654 -0.02664810198939515 -0.02320431623840763 -0.1392572587649002 -0.04576513760423036 
0 0 0 0 0 0 0 0 0 0 
0 0 0 0 0 0 0 0 0 0 
0 0 0 0 0 0 0 0 0 0 
0 0 0 0 0 0 0 0 0 0 
0 0 0 0 0 0 0 0 0 0 
0 0 0 0 0 0 0 0 0 0 
0 0 0 0 0 0 0 0 0 0 
0 0 0 0 0 0 0 0 0 0 
0 0 0 0 0 0 0 0 0 0 
0 0 0 0 0 0 0 0 0 0 
0 0 0 0 0 0 0 0 0 0 
-0.09175585929327776 -0.3156075923434210 -0.2121597966410085 0.3610484679510444 -0.0002652798554432769 0.1800005923065320 0.1830444656108088 -0.6516947622019655 0.04591885261245532 -0.6528783030434978 
-0.1011197603457081 -0.5156657029018767 -0.1208365508283319 0.01156972975321731 0.02795528086589752 0.3459268938066303 -0.1532259693431866 0.01986765198347977 0.1144925725120145 0.7107810581981095 
-0.6528585747325993 -0.02134026830700762 0.02241883317641618 -0.1102715961009099 -0.1409115375072977 -0.04524637169540622 0.06808017074602306 -0.2523012851720751 0.1393964450021105 -0.8672700723813443 
-0.5403867859098282 0.5415026132718191 -0.2901695961891221 0.1808055089908915 -0.1681282791877843 -0.05874876521985117 -0.04711117568477896 -0.03001987837763958 -0.09991284123277580 -0.01605142973953911 
0 0 0 0 0 0 0 0 0 0 
0 0 0 0 0 0 0 0 0 0 
0 0 0 0 0 0 0 0 0 0 
0 0 0 0 0 0 0 0 0 0 
0 0 0 0 0 0 0 0 0 0 
0 0 0 0 0 0 0 0 0 0 
0 0 0 0 0 0 0 0 0 0 
0 0 0 0 0 0 0 0 0 0 
0 0 0 0 0 0 0 0 0 0 
0 0 0 0 0 0 0 0 0 0 
0 0 0 0 0 0 0 0 0 0 
0 0 0 0 0 0 0 0 0 0 
0 0 0 0 0 0 0 0 0 0 
0 0 0 0 0 0 0 0 0 0 
0 0 0 0 0 0 0 0 0 0 
0 0 0 0 0 0 0 0 0 0 
0 0 0 0 0 0 0 0 0 0 
0 0 0 0 0 0 0 0 0 0 
0 0 0 0 0 0 0 0 0 0 
0 0 0 0 0 0 0 0 0 0 
0 0 0 0 0 0 0 0 0 0 
0 0 0 0 0 0 0 0 0 0 
0 0 0 0 0 0 0 0 0 0 
0 0 0 0 0 0 0 0 0 0 
0 0 0 0 0 0 0 0 0 0 
0 0 0 0 0 0 0 0 0 0 
0 0 0 0 0 0 0 0 0 0 
0 0 0 0 0 0 0 0 0 0 
0 0 0 0 0 0 0 0 0 0 
0 0 0 0 0 0 0 0 0 0 
0 0 0 0 0 0 0 0 0 0 
0 0 0 0 0 0 0 0 0 0 
0 0 0 0 0 0 0 0 0 0 
0.2929367716482264 0.09899453244198245 -0.2539995678502323 -0.8965454150533085 -0.5808000644009508 -0.8249802099927803 -0.1539311261987006 -0.2003265763660984 0.08935884526055989 0.7282326796307109 
0.02656667348017953 0.3266810381649063 -0.1144761414980898 -0.4081795805186281 -0.3445617849128392 0.01033278728345011 -0.5211340910770840 -0.4412458515077790 -0.5795807388350709 0.3079558593897009 
-0.3483851064308967 0.009320334205761959 0.2875347404693114 -0.1325325029509167 -0.1163451180732927 -0.01024908034352885 -0.9877969178167532 -1.257548747072644 -0.3806295529699636 0.2829874352006489 
0.2605931086650768 -0.3315163438027576 -0.3603002710354318 0.1480428589052707 -0.4155094166549649 -0.2786285630544814 -0.6521959415745260 1.188414731376867 0.4974946022463166 -0.4795903097954529 
-0.1063259123093902 0.4059067527867494 -0.2164795825844174 -1.256948861368890 -0.06464972182476289 -0.2267429972124588 0.3780596394782905 -0.08078619057327209 -0.5509602106394604 -1.118416371775119 
0 0 0 0 0 0 0 0 0 0 
0 0 0 0 0 0 0 0 0 0 
0 0 0 0 0 0 0 0 0 0 
0.05776528422397170 -0.01112424195326185 0.4599688853299083 -0.4283841399147604 -0.4561268260318543 -0.3851061638103934 -0.5416756178230578 -0.2921965994818488 -1.023998387035071 0.7427900429025459 
-0.06008997215749527 -0.08248589252364402 -0.02030485306019446 0.3784927826457454 -0.2983069662741826 -0.005142377195910624 -0.05518482932006377 -0.001097165369241518 -0.08934517887464491 -0.02532965947278005 
0 0 0 0 0 0 0 0 0 0 
0 0 0 0 0 0 0 0 0 0 
-0.2627698194626725 0.5427091722891175 -0.4789888627672501 -0.3619638636176680 0.2357133692256009 -0.05732112310777836 -0.1251191236856052 -0.01863672074919151 -0.2754352149609509 -0.1066896477661190 
0 0 0 0 0 0 0 0 0 0 
0 0 0 0 0 0 0 0 0 0 
0 0 0 0 0 0 0 0 0 0 
0 0 0 0 0 0 0 0 0 0 
0 0 0 0 0 0 0 0 0 0 
0 0 0 0 0 0 0 0 0 0 
0 0 0 0 0 0 0 0 0 0 
0 0 0 0 0 0 0 0 0 0 
0 0 0 0 0 0 0 0 0 0 
0 0 0 0 0 0 0 0 0 0 
0 0 0 0 0 0 0 0 0 0 
-0.03317277535290085 -0.1483920963358610 0.2359287094907497 0.2649471800405754 -0.4091665282890870 -0.008495285299583983 -0.04472772402698959 -0.3340276204632534 0.08165809764605539 0.4265485414237383 
-0.1470784942002056 -0.1111289401749295 -0.6320117275572712 -0.5892896600051954 0.5649725634666690 -0.1671445745017433 0.2098670267516638 0.9931769112171258 0.4129609846795862 -0.1305863085578755 
0.4165547701442428 -0.7481756963164617 -0.5262453303100724 -0.3683007194135587 0.4827835564888064 -0.5643350440686848 -1.081496278633224 -0.8591071780102202 0.1731031416095917 -0.2317504704124241 
0.05667414122723562 0.5996924423437453 -0.4009477566387369 -0.8108308851642317 0.1863786410425628 -0.1064965877311630 -0.2912486736823304 -0.03506259901992578 -0.4979426731874251 -0.03685377783116888 
0 0 0 0 0 0 0 0 0 0 
0 0 0 0 0 0 0 0 0 0 
0 0 0 0 0 0 0 0 0 0 
0 0 0 0 0 0 0 0 0 0 
0 0 0 0 0 0 0 0 0 0 
0 0 0 0 0 0 0 0 0 0 
0 0 0 0 0 0 0 0 0 0 
-0.2719531768785622 -0.3616250141583185 -0.2267930475976880 -0.07519165158154796 0.4376188217736025 -0.01410379058867321 -0.05922433186170716 -0.01495412007400909 0.4525669068354952 -0.02063582357393826 
0 0 0 0 0 0 0 0 0 0 
0 0 0 0 0 0 0 0 0 0 
0 0 0 0 0 0 0 0 0 0 
0 0 0 0 0 0 0 0 0 0 
0 0 0 0 0 0 0 0 0 0 
0 0 0 0 0 0 0 0 0 0 
0 0 0 0 0 0 0 0 0 0 
0 0 0 0 0 0 0 0 0 0 
0 0 0 0 0 0 0 0 0 0 
0 0 0 0 0 0 0 0 0 0 
0 0 0 0 0 0 0 0 0 0 
0 0 0 0 0 0 0 0 0 0 
0 0 0 0 0 0 0 0 0 0 
0 0 0 0 0 0 0 0 0 0 
0 0 0 0 0 0 0 0 0 0 
0 0 0 0 0 0 0 0 0 0 
0 0 0 0 0 0 0 0 0 0 
0 0 0 0 0 0 0 0 0 0 
0 0 0 0 0 0 0 0 0 0 
0 0 0 0 0 0 0 0 0 0 
0 0 0 0 0 0 0 0 0 0 
0 0 0 0 0 0 0 0 0 0 
0 0 0 0 0 0 0 0 0 0 
0 0 0 0 0 0 0 0 0 0 
0 0 0 0 0 0 0 0 0 0 
-1.084162912343784 0.6969242986977195 -0.4762583381239747 0.03774593458068346 -0.5248102908728791 -0.6915444332045958 0.4585048068356580 -0.6912782796474881 -1.132146678587421 -0.2307802593522683 
0.3753067562169755 0.07355087084101716 -0.2400737191887853 -0.1283988430784780 -0.6955857026844583 0.5857393670631496 -0.8703523676697383 -0.6025471122401170 0.4933950686143479 -0.3566477601194746 
-0.4710209878753520 -0.4621022033264432 0.6642878333270186 0.1413456045103824 -0.3724169476896804 -0.2977901392501356 0.3985115786754054 0.3031298627529179 0.4363764360648758 -0.8815599655970487 
0.2963882885915266 -0.02433444748329075 0.1293697710373104 -0.03588424227281770 -0.7870343950144527 -0.2939269878550643 0.3030607394773052 -0.1549418596071984 -0.4095392127502379 -0.7408662680807059 
0.5972711650374787 0.003648764755479046 -0.1086682074234384 -0.3193983513022866 -0.9633853752293385 0.4491314608953474 -0.6328519658588130 -0.3960402153798375 -0.3169775720160952 -0.1808622407702302 
0 0 0 0 0 0 0 0 0 0 
0 0 0 0 0 0 0 0 0 0 
0 0 0 0 0 0 0 0 0 0 
-0.1883855025540385 -0.02235591418379017 0.4517661870628999 -0.4349576872589996 0.06559500714940371 -0.3239481146562291 -0.6178755084711705 0.1830629289481601 -0.2228346161382923 -1.834576029916208 
-0.1186008869914604 0.1108140046664103 -0.3826144850759090 -0.4432523406314333 -0.4947278771367590 -1.030710987444410 -0.7580360438954050 -0.4363306960746002 0.1516816516288816 -0.8582720038002944 
0.1698392583941200 0.007553618860659153 -0.4201971487395571 -0.4585128759911078 -0.8224795134508786 -0.2855530889258702 -0.7100549871164377 -0.4384409464205726 0.1384658930864422 -0.3895356837353572 
-0.3151105370793878 0.03760082671625989 0.04615367363634512 -0.1956551463480957 -0.04886104251984121 0.5298340036524959 -0.1728898244614366 -0.6508936559978480 -0.005446929197227952 0.08371343816022829 
-0.2147866543364564 0.3552582563804537 -1.055240809005110 0.2211821798813245 -0.2197311166180488 -0.3534561818470814 -0.03474611021849117 -0.2647239116692204 -0.6817446169031388 -0.1023058826696500 
-0.6222363453480693 -0.3340371036168677 1.240700441877709 -0.7900774916258266 -0.7749348945873660 -0.2137246351884318 -0.1920922840665459 -0.1514210489597327 -0.3620238474235998 -0.3322928061997630 
0.9677607051186551 -0.2102462379142242 -1.164151573523392 0.3507291501872341 -0.3691061478394812 -0.1049717393544980 -0.1441132516707881 -0.06411143450862196 -0.2935903386781624 -0.1303578112917979 
0.4192839051202142 -0.3731028554878861 -0.5467501818154541 -0.4838300515782267 0.6385704222572004 -0.02708079927800180 -0.07827571525158797 -0.04105596357346476 -0.1366772109160570 -0.02104317859363102 
0 0 0 0 0 0 0 0 0 0 
-0.6865411487019960 0.3523956019250243 0.2202893650866776 0.3289514384551566 -0.2007144478762760 -0.04104482881025673 -0.04385137603776066 -0.01239635790161391 -0.2499004923380817 -0.01282880227120254 
0 0 0 0 0 0 0 0 0 0 
0 0 0 0 0 0 0 0 0 0 
0 0 0 0 0 0 0 0 0 0 
0.08841487610762983 0.1122270578385321 -0.3139694267060449 -0.08191060632165706 -0.8949949532414908 -0.4258018889885954 -0.8042959046970654 -1.227649656627129 -0.7814113379195762 -0.3545841068740832 
-0.1221065754609622 0.1770743264379340 -0.6470660213243191 -0.2107056033552134 -0.7180115939057320 0.2367889878688494 -0.3634202470499376 0.2353250994246720 -0.4941230057445103 -0.3141214609748062 
-0.2565751571903789 -0.09451198847795450 0.2168744881619257 -0.1274500086884216 -0.02667241653719098 -0.7217233209121837 -0.1274301656874081 -0.9043552133428205 -0.08489958627367361 -0.5370220982430854 
0.2355301950815570 -0.6672268109665598 -0.4783759943733780 -0.5667107231045984 -0.2301269891101193 -0.2154848494418486 -0.2566963448596261 -0.002174106048922225 0.5495567477030632 -1.047491878004006 
-0.5411597838703837 0.2740385322624788 0.1538819620175552 -1.051593783588737 0.4809490145499297 -0.09670963184175517 -0.3919997480595280 -0.09571825867514215 -0.06303210103098958 0.1638360831941108 
-0.5506059641652197 -0.2884077641257522 -0.1325600537672936 0.6782188600182816 -0.3495530264976634 -0.1521765108979263 -0.1291547125678421 -0.02391860950724879 -0.3335617622095098 0.4923196934459283 
0.5482846664810012 -0.2209264906368280 -0.3146480340625158 -0.3166195294645257 -0.1693523055522836 -0.02496894818176144 -0.05383604357814462 -0.009619747001255565 -0.06554979923642341 -0.05855473912593587 
0 0 0 0 0 0 0 0 0 0 
-0.7587771754863855 0.1794411650316724 0.6135311049249252 -0.4753607739316845 -0.2503970339615583 -0.04238565963438323 -0.1015664736150317 -0.03335196121376439 0.03458828529162461 -0.03008021669211356 
0 0 0 0 0 0 0 0 0 0 
0 0 0 0 0 0 0 0 0 0 
0 0 0 0 0 0 0 0 0 0 
-0.06072072382416749 -0.09147304567548817 -0.1760349433016803 0.2329472758355528 0.0007545915931519490 -0.001962274681373996 -0.6507353097701448 -0.2585445148906257 0.2798585685803532 0.5096159044817331 
-1.259409495886036 -0.5585693808623892 -0.6655035261433676 1.009558800182093 2.500347782165229 -0.8406946028826106 -0.3384927378652783 -1.152335437046779 0.6193453111105980 -0.3181432061255553 
0.6175489041213291 -0.2997292206588775 -0.9531865866321593 -0.06404885680390927 -0.8070091274106241 -0.7517027826451728 -1.194598393697551 -1.129987088429793 0.1130090760514290 -1.392326702931046 
-1.025911707564553 0.4933099993067568 1.074409996834372 -0.5608327290488547 -0.5989847122551991 -0.1719138657643627 -0.1919410321637915 -0.2225224829604318 -0.4632149019807824 -0.1392075159941214 
-0.3754166401306249 -0.6837589468539795 -0.2773356458299665 0.1724605829729863 0.07637225908704635 0.04902301057240138 1.513301907821255 0.6841588920264645 0.2623034438114070 -0.3397707148046262 
-0.1705456417526583 0.2305520973733418 -0.3701214933376933 -0.4182046392595926 -0.1655725369002403 -0.2424286495331716 -0.1482421572098547 -0.9407456411071888 -0.2461434654312651 -0.2937041482848172 
-0.09806197985878280 0.3440519011612552 -0.2772644220963149 -1.181843315711389 -0.8078343723243370 -0.2362046809120613 -1.067058517014295 -0.8558999957597198 -0.1218058007650366 1.114409750253506 
0.1959818637720435 -0.3558914806908883 -0.08363425966551699 -0.09852575782404750 0.3236973970098208 -0.2145632610917756 -1.168583631248570 0.2278885809347145 -1.052363021548011 -0.07512774133434864 
0.3261174685836999 0.2386226670172574 -0.7336042327551454 -0.1441161388983420 -0.6200349872951403 0.01125455071890483 -0.07481493730869218 0.1335250392236596 -0.1871096120996452 -0.6474965241123222 
-0.3214156692081660 0.2669147375777038 -0.6855843552245334 -0.2966774555098174 0.2438834458778965 -0.9833740289706253 -0.8568999271981724 -0.6968874860061766 -0.3166306299921693 -1.195739756660090 
0.4943828661275261 0.1758931424602521 0.05748510009516262 -0.7507104451633471 -0.6488009626368936 -0.1594257378838613 -0.2720686473977347 -0.1325426685858281 -0.3339609782570611 -0.1190048378051153 
-0.6343999083238960 -0.1663149938456317 -0.05236075591340807 0.05727890141826668 -0.4320423140272428 0.8421963586677408 -0.2231608061843085 0.3053696877436376 0.1278117860713655 0.7992712247739892 
-0.4190550897304527 0.08002266009022752 0.02354789634022172 0.03535427775852099 -0.3023453315258241 -0.02067563145020370 -0.3430105393851661 -0.2345205726991654 -0.3261661971230887 -1.158961524491250 
0.1434029922892571 -0.4380815435240740 0.3550041938230109 -0.1002476977501176 -0.5122265487674463 -0.6457446334098170 -1.119952670469574 -0.4154946717698344 -0.1902967113929379 -0.6164193855499467 
-0.09286483222970762 -0.3859320473255468 -0.5463062584991594 -0.7650354557027109 -0.2513858904923159 -0.7083968697290596 0.8456281948126014 -0.4176090998626982 0.1566392540472432 0.5724138736073985 
0.2996619082459125 0.4346550612219380 -0.7725224641037257 -0.4750729796239598 -0.6964484785168575 0.1188848641206034 -0.3624723649991348 -0.5118978848922100 -0.8127208053152610 -0.05478319108275327 
0.008070343398150270 0.07157882742177882 -0.4043495644412988 -0.3591878300097409 -0.2638513076768813 -0.1471480456730222 0.3484831478197723 0.006644271956475452 0.1207828969146444 -0.1784089019186624 
-0.09783289267610332 0.06952495515205608 -0.2066412792106471 -0.3153808904775806 -0.1745263789879116 -0.2117761374470127 -0.4085596570382952 -0.9241352215879627 -0.2752916147042678 -0.7297634894599142 
-0.1537382356269328 -0.2647065954035089 0.2622771016263575 -0.2834204342229715 -0.1876031034732303 -0.7315206777916439 -0.5465635049956797 0.05635416082828820 -0.2138809838068960 0.1702288784738409 
0.009944195744371439 0.1133876057448515 -0.4484043203417533 0.01718346983457514 -0.2199601869409261 -0.2312301410043090 -0.5198192199400803 -1.008450858224849 -0.01177031528644759 -0.1776960156408123 
-0.4161990170798715 0.05704348666833104 -0.2836240352642368 0.1192071698770834 0.1796463658772463 0.2151443945496065 0.07905001618293099 0.3131593667078110 -0.1607221616446843 -0.3867587590578440 
-0.1516149718871480 0.1326602545294789 -0.3788333157803624 0.2123783631445285 -0.2262960581080113 0.2790898410339863 -0.7150033242648375 -0.3582953721270937 -0.4773773279529993 -0.01901707262288818 
-0.1249156814310819 0.08266086901695857 -0.06631528533140477 0.001584460977387541 -0.4238690051671663 -0.1619387887159280 -0.2238239532548036 0.1216075604670511 0.3813967422915355 0.1604001221614098 
0.5309762975781442 -1.128660190522477 -0.07509171485367948 -0.1040804057852784 0.05154772438346162 0.01465585259804765 -0.3873900723789565 -0.6172097726648244 0.2938369951356136 0.1517954759999113 
-0.01816953794607564 -0.1179698701724391 -0.03610645400956165 -0.6588218960104366 -0.1262436104118307 -0.6493369847347964 0.02242786177373410 0.4092887594893883 -0.2054811763692655 -0.7497318637485084 
-0.1731895088397324 -0.1505409341521784 0.05305504623235571 -0.6524255304106285 0.5007464605963436 -0.6501770464606961 -0.3547821997736274 -0.7037019675707971 -0.1772085651087260 -0.2109620764917243 
0.9125828916959318 -0.5543683697456190 -0.1992157182450426 -0.1472016650428342 -0.7437178975511696 0.3296264676569826 0.1713513151376597 -0.03055775932074260 0.6957010472561793 -0.2487086061822639 
-0.2486964749696339 0.4035064733144207 -0.4870565663737953 -0.5397921384578829 -0.2396232438718090 -1.003531969293964 -0.6189557800712415 -1.373656631961974 -1.085209539843048 0.5168529631086630 
0.6040825756296390 -0.7436282190825232 -0.2493206190360620 0.3642911240195654 -0.2390185456319849 0.3690716386399852 0.2683999160194401 0.9299340975284142 -0.4047916364964583 0.1553828568438583 
0.3322727640322414 -0.7129883514370360 -0.06579208025036581 -0.3897921543824368 0.2800079501153634 0.3394629790881455 -0.5019443601850548 -0.3706339550122597 0.2677758180723739 -0.5803843984662086 
0.4073361505242781 -0.4552636741352090 -0.1676712457418751 -0.5590115461410203 -0.2143870305146848 -0.08285711624736133 -0.1616929677384904 -0.006224716302863851 -0.1322204590796630 -0.2509147632862596 
-0.5076016552517664 0.4325744880241765 -0.6599722689728710 -0.2329553977723415 -0.3076647575565091 -0.4143157188901321 -1.759600609009114 -1.043777860195773 0.2734222506781252 0.4548343554320787 
-0.9285033198284858 0.5148072912271899 -0.5423545620446646 0.7046077652362638 -0.3108770372812549 0.3509027109416045 -0.06550803864845231 -0.06351611198708389 -0.6640901858851541 -0.2685516557816133 
0.1024825649973593 -0.2299687019862164 -0.1558926219839454 -0.5202765121996253 -0.4835308491244318 -0.8431094308524486 0.0005651199050548104 -0.6795974034945736 -0.1139743699024234 -1.096383174429101 
0.4581387749242666 -0.9721863474069037 0.01226601450547244 -0.1703418450618660 -0.1739226499343127 -0.2960546477829249 -0.3507757778046548 0.01519252309527900 0.3193042859984889 -0.1271310851359582 
0.7065864560056243 -1.076554915052710 -0.6575319234594340 -0.8988470112589582 -0.2708054431463473 -0.2656849930501438 -0.04098077324823056 -0.5879472847311783 -0.4331412404655858 -0.1922283995585702 
1.430744692147167 -0.6109454414957310 -0.5584104049745484 -0.7397425358883476 -0.3040387135596639 -0.1334709834527887 0.1015904046078748 -0.2605797349606947 -0.5249082981418822 -0.07287514745675894 
-0.6556109158965521 -0.3449627578424843 0.1441482073923580 -0.3188912738607598 0.2324656442687088 -0.5550184382204522 -1.110727173033053 -0.9232027329161944 0.02336819525564472 -0.5735210167849861 
-0.3353868057499365 0.09122978946035233 -0.06427861170228950 0.4190415010226992 -0.4027596347306844 -0.8098828361212191 -0.6385200658442706 -0.4512591945454086 -0.8719043707201509 -0.9024437421010664 
-0.3899087750527475 0.1200990702767073 -0.1621406371397382 0.3032540507210413 -0.6665790185344785 -0.8943559307518094 -0.4838041782646491 -0.9627497639677449 -0.7214321879607167 -0.8936558173546715 
-0.4438013461318558 -0.4374728468655998 0.8088900970538189 0.1114767734601929 1.116313201065200 -0.6214961508899297 -0.4777802531502376 -0.3102300531962535 -0.1881008930317288 0.5705738330388689 
-0.3824880401928919 0.4755820497098353 0.5048387799321987 -0.1670516652954300 0.1151100689928078 0.2046668104908408 0.2178880216909369 0.6118001373383507 -1.095294878406124 0.1368065544640557 
0.3748957051474732 -0.2026173793839527 -0.08137810258145045 0.009534601366243844 -0.06747296296469123 -0.04993320504748375 0.06339298593411691 0.02215482620106338 0.4952723969536956 0.6452597134534129 
-2.821639435286636 0.5416442315921040 1.350002720111487 -0.9337295125935552 0.3818521086790555 0.1521827917649042 -0.3313255563931126 -0.2979371864623521 -0.5000158958596235 -0.2401336468995797 
0.8886848818230556 -1.949137306656435 0.3617519937437421 -0.5717002482685211 -0.5557061298985769 0.7143026407148304 -0.1678618649085850 -0.07307410256148726 0.05051245561689032 1.256062466807629 
-0.3219528315730463 -0.5759809232376717 0.1419386930145181 -0.6116817888043091 -0.3130327025985193 -0.2535019625048695 0.4309797346578623 2.377684078903039 0.8108802760706831 -0.2972697779591008 
-1.330343163396982 0.5353394702199871 -0.6202908674274086 -0.5419175814943361 -0.2848376872776516 -0.2495316958796490 0.004071783453999120 -0.1075790315465900 1.014757899788151 0.8216043170753813 
0.4510986665146474 -0.6244929114385205 -0.8591373563863364 0.7288674225829518 -0.1373330244046173 -0.04676711942090100 -0.03339454965097243 -0.01286178109350829 0.3007294729698271 -0.1241984351237375 
-2.273224568713058 -0.6217960223445316 0.8365506739312991 1.369099005122113 0.9694401860063568 -0.3268214116027037 0.8490724080060102 -0.3911609459473489 -0.6416963001959913 0.5580885398373926 
-0.3229685117438972 0.009665123972260055 -0.2957305124543124 0.7289795237201715 0.8754541902498554 -0.7407306443946800 1.342917214856383 0.9777679468612543 -0.02325084723218551 -0.2821033139718520 
-1.292080822330621 -0.6322107059912445 -0.1104939951247060 0.1594531903839593 2.161161248279804 0.9753007936723542 0.4766973525001867 0.3451660986356081 0.9965185653022846 0.1432400325714282 
0.4940708736441705 -1.722141456764398 1.056158655247868 -0.7676097816236511 -0.3181709959497782 1.244358336345858 -0.06925039794702272 0.8828431287135446 -0.3759714197718382 -0.1938178601752984 
-1.539176340226410 0.7648091011255496 0.6963051223598115 -0.2342974505398305 0.2000555922925429 -0.2940883689923056 0.5084537556372689 -0.1831904987433538 -0.1721400660497225 -0.1730177292506542 
0.7624058266291978 -1.490026367964576 -0.01793154614206577 -0.2499207071352005 1.029454052750503 1.493737049024098 -0.3072485591328028 -0.1484554629143003 -1.073793561991804 -0.02983293795662973 
-0.05868081367697474 0.4938430536237597 -0.007721828208708592 -0.2624574773838967 -0.1689357049828176 0.1051834253688295 1.000657213153950 -0.4481031241047666 -0.5188526221133856 -0.4670383665871625 
-1.575950656209726 -1.187172418628826 -0.1973333424285395 -0.03574459127609538 -0.6287565301025554 0.3690824393969253 -0.4134819693180584 0.2208046333513128 2.776730503350044 -0.1444836588715687 
0 0 0 0 0 0 0 0 0 0 
-0.8884409118076179 0.3299006916605159 0.3335524845114820 -0.2280222722061920 -0.07051517797644587 -0.03156095998381953 -0.07267586809022937 -0.06965538974026860 -0.1605353839185769 -0.03664266825368399 
0 0 0 0 0 0 0 0 0 0 
0.8361860886296493 -0.5466744412228578 -0.03660029860552776 -0.04155477623409323 -0.02403806857966228 -0.001957553036866183 -0.005216731663597604 -0.002542099783945331 -0.008342335370709863 -0.007440250839632122 
-1.001051955597853 0.1207593100986406 0.8735705250430975 -0.6186290481989382 -0.2176095102649345 -0.1251810392675674 -0.1619933648037183 -0.1251243451352121 -0.4884617130837851 -0.03967896188866874 
0 0 0 0 0 0 0 0 0 0 
-0.2526264059198798 -0.6864242949732886 0.3789273104049787 1.116949636844154 -0.06015207004120157 -0.1811654330929061 -0.05638274676189990 -0.03461112013751142 -0.1787979048518627 -0.08603524471625339 
-1.225270917472960 -1.530979764847518 0.1013735708699727 1.810872092626894 -0.2824593754065526 -0.2519347816032028 -0.1610561038960980 -0.02939908580963272 -0.5562210434461631 1.320640179579339 
0.1684793612244658 -0.1734178730932890 0.2135664893828950 0.3696018660698522 -0.08060755248745062 -0.9981253492986866 -0.3984634021918263 -0.5341410021781565 -0.3517675985163402 0.3860735948410300 
-0.4903448262660031 0.5799071594865428 0.6907666401298737 0.03063551659535636 -0.7282278289897912 -0.5251138581387061 0.06173753930684241 -0.1394719948283590 0.02887408211355684 -0.3091524856713647 
0.3483881161260609 -0.5253930464727282 -0.2671688269033560 0.4488151463379256 0.5850963842120358 0.04868000892737574 -0.2578824682396524 -0.6424089676772420 -0.01493371030493329 0.1525201612965382 
-0.9807048779752376 0.9798618638723465 -0.1630673131763918 -0.8016571696373590 -0.9048866894289430 0.06799090996817410 0.6250685605736482 0.4775840782774902 -0.8442200890575299 -0.9219820013084787 
0 0 0 0 0 0 0 0 0 0 
0 0 0 0 0 0 0 0 0 0 
-0.3766458529030675 -0.04930445881054937 -0.1677410615979678 0.6797272709282922 -0.01929045738747907 -0.001347828262401407 -0.002299989013101851 -0.001566161880826838 -0.05238209902565501 -0.0003042945692954397 
0.1771929072068936 0.5346561182425875 -0.4088975937083254 -0.3411500064290176 0.4300806324854463 -0.09363804552211770 -0.05348299011914837 -0.08678483602745987 -0.3224587286195864 -0.03225046746686480 
-0.1309789948821137 -0.7321833161267546 -0.07165378462836813 0.7602237210280933 0.3200244434620916 -0.01659418835291665 -0.06789914502995338 -0.04833702577011554 -0.06711032184431180 -0.007952461863478158 
-0.1554779772154153 -0.2998656574001820 0.3582005880989350 0.2218633222306924 0.04936301078934494 -0.03787184173124674 0.2517499454552188 -0.7697358809744826 0.05833212332147576 -0.1213335677914473 
-0.3852965743186333 0.0009403730540782050 0.1778112025797015 0.7135045083136939 -0.6143827883269739 1.161709381780200 -0.4728717282858729 -0.4415308654513440 0.2036750887681159 0.5900263425097854 
-0.6880526710886364 -0.2322616421718594 1.256481219421584 -0.2127648705931644 0.1700834081697372 -0.2663145449337664 -0.1683136118988271 -0.1269717645499147 0.1211026009430866 -0.3852102728306652 
-0.1100573104167551 -0.5011960436719377 0.9112006077204335 0.1844288608031514 -0.1641034900527118 0.2900462429296581 -0.3426218044787848 -0.2051319551477679 0.6025448773687816 0.08030309188073258 
-0.6604438710493831 0.2939683404540396 -0.1230222902545578 -0.7951846862527169 1.046835399085209 0.8700013761655533 -0.09252386894273139 -0.05623540632725525 -0.2209294347220425 -0.07548730921210528 
1.230835400509321 -0.4825679245330057 -1.049487305242943 -0.07762035148708210 -0.2308676168361193 -0.6413927952673671 0.09545920390275701 0.3772134000104318 -1.316356810311161 -0.5278646410850955 
-0.9086226101341782 0.5763044375380937 -0.8527006801335417 -0.5172240583966690 -0.08723439457051470 -0.2388813717800542 0.6224788447588193 -0.1597300159470999 -0.4988457457225397 1.764833804415396 
-0.008174948885489497 0.6527315035658342 -1.092336625752350 0.1673649971667727 -0.1375035290626636 0.1117145839925559 -0.3164593361938950 -0.2704771985080287 -0.1614517906468720 -0.4454120949879435 
-0.9985968422396898 0.9327054225379451 -0.05185272345379457 0.4569106422857794 -0.04741928227537585 -0.06306401214008502 -0.05531656294450255 -0.04054496984649808 -0.2146987177654700 -0.07456143660896136 
-0.1411797245728077 -0.3739083239378490 0.3847008489394399 -0.1129072612299462 -0.2037005012225944 -0.006207691368771549 -0.01092103321812403 -0.001485364906762039 -0.1685660076064884 -0.06205931831725940 
0 0 0 0 0 0 0 0 0 0 
-0.2680283805920344 -0.0008374106136755308 0.2332737455529915 -0.04359506344370423 -0.1652271778523282 -0.1257356630928178 0.3659477510725115 -0.08981872491508056 0.1510163967124683 -0.09928940604101441 
-0.3956091621003521 0.4713708431079943 -0.04206028725057755 -0.1256642295833037 0.3114773880648743 -0.02575366809729142 -0.02796588939682648 -0.01938913518647243 -0.1428180635601736 -0.009227376001692416 
0.4183944159052436 -0.5017241877343568 -0.3494791055704281 0.3786550604454258 0.5699125704699940 -0.09231390786031635 -0.1324573665509364 -0.06625797773800053 0.1095524138071838 -0.1145854377510109 
1.293338012316904 -0.02976205038652571 -0.6091799805399177 -0.4545500313767153 -0.4346562175123956 -0.09709512519600182 -0.1372120472500685 -0.02160300653148826 -0.3052195621485139 -0.1135861173418085 
0.5168088330191903 -0.1585164105071205 -0.4513546975014457 -0.1654472835357445 -0.0004804834068213443 1.303531335401944 -0.2926981156972254 -0.1782991442060882 -1.266581558497402 -0.2909014117756377 
-0.1122892732927550 -0.1351119197323798 -0.03805055109490901 0.9000344929686940 -0.3512614402874555 -0.008055967565936071 -0.001783524100696141 -0.0006624342156105833 -0.02494692369049134 -0.004048205038293531 
0.8649360931897624 -0.6747391651370717 0.8814188425855161 -0.5859680562829743 -0.8920490198539520 -0.02245838998937629 -0.04571196656091970 -0.01458465676667693 0.5431331753447945 -0.02172761663709436 
0.2119468453420361 0.2754053094580942 0.02772564956242224 0.2285846920617881 -1.149367775937302 -0.1296286868389722 -0.1710646959433113 -0.07614453504912524 -0.2425149635975855 -0.1345407915711184 
0.2248282661548613 -0.8605419956168460 0.8128340382766064 0.1676419388346657 0.2974069660544596 -0.02162275315418259 -0.02222478987099821 -0.04477130597936817 -0.1862003827141642 -0.06320685186242024 
-0.3559804892899423 0.5818525978505460 -0.3749858803609249 -0.3221285430409377 -0.3097487865342840 -0.05371655502300462 -0.08819681948794893 -0.06636759601564930 0.8528933550628210 -0.1049283408427273 
-0.6559571635800537 -0.06080682100122940 1.096267082879515 0.2111068101851270 -0.3541682353223177 -0.2081963358300425 -0.1453335073931511 -0.06107057781752717 0.1945558475490495 -0.1916806635994265 
1.412107307074970 -1.276243389838223 -0.5203638917410740 0.1174826200832439 0.5646079328114243 -0.05827019908389509 -0.1359668607088031 -0.09415984423138891 -0.006729647557142373 -0.09263758045505280 
-0.5574986924726480 0.4455055109661026 0.2766271095337680 -0.4180148678936934 -0.02424015048625136 -0.05358265044826795 -0.05660836346039327 -0.004873072054055262 -0.3288625031337868 -0.02404307157268398 
0 0 0 0 0 0 0 0 0 0 
0.1067296625078802 0.9749791132917065 -1.065410600724906 -0.9657823785112035 -0.1587273120816738 -0.2559664260171319 -0.2261094601329413 -0.1949660404437316 -0.5346689681026846 -0.3342553440904776 
0.1285697325123430 -0.2074579743612832 0.7883188801816416 -0.4228856246055766 -0.06232306889711353 -0.7107095799161307 -0.9272600826917943 -0.5282919169485550 0.3270397439743369 -0.8204981469097429 
0.4240490881492530 -0.9464310763064634 -0.1187849864015095 -0.5301830468990402 1.261603605838675 -0.07833031918730064 -0.05425596498141076 -0.04927495664125482 0.4427526978697676 -0.07029237834605070 
0 0 0 0 0 0 0 0 0 0 
0 0 0 0 0 0 0 0 0 0 
0 0 0 0 0 0 0 0 0 0 
0 0 0 0 0 0 0 0 0 0 
0 0 0 0 0 0 0 0 0 0 
0 0 0 0 0 0 0 0 0 0 
-0.09397983451520062 0.3081714431301150 -0.1384001723187989 -0.04076447504584364 -0.3274086728881830 -0.3575673826665201 0.3335820350967552 -0.2754049768466000 -0.02522228298237723 -0.2763236738993435 
0.4140797459264278 -0.1855542527589801 -0.1709887196013981 -0.2024119570114664 -0.4100792144646488 -0.4258923570651971 -0.3999286853671529 -0.3239655545533602 0.6511018152616785 -0.4050882697622077 
-0.09726330439217873 0.09888412209253465 -0.2853184004908924 -0.1004545651591927 0.1754575177436359 -0.08453080277894442 -0.1215204373025089 -0.08443544285720654 -0.06343115883044387 -0.2416281088895078 
0.3709406338099237 -0.2590800915281329 -0.3019803835792118 0.01409758767091947 -0.03819516923161082 -0.08354673280413309 -0.1563128592345017 -0.04827136501182560 -0.2086351729163592 -0.2203054659080650 
-0.2555704551695047 0.1736690245798951 0.007271881083773308 -0.004399002851225886 0.09635959471585671 -0.3488214298712010 -0.3234344555597871 -0.4536946218159643 -0.4579862158293654 -0.02318440193726823 
-0.7576095173674592 1.214895848544521 -0.1390058851281045 -0.3801652140288067 -0.1027695220440414 -0.04967727403357627 -0.05733104436737799 -0.0007402018192414977 -0.3010423468991722 -0.02496120245524371 
-0.2065633347944020 0.1228721846452194 0.04581892970326321 -0.3591412375125302 0.2137942379651632 0.6117799039722160 -0.5187791148305650 -0.4921783087545542 -0.8638554664518416 0.3118264562193996 
-0.4077164681287406 0.7361088904391805 -0.6845310952074187 -0.9914462013557170 0.4902221740521583 -0.2462152759285596 0.6774030987438516 -0.1515778308181087 -0.3637915923310839 0.2624870534010074 
-0.08731716028540838 0.3682070000747587 -0.4727403004775087 -0.05562713230713268 -0.01403423278974113 -0.1596229645303378 -0.2482062363770967 0.1675653121585652 -0.5691861868088712 -0.3188321167959377 
0.2594651000688408 -0.4850358756108630 0.3324723161262528 -0.05459558333164987 -0.1168592745213679 0.5487691394307214 0.5559350709882703 -0.6847296516107996 0.1420068984175888 -0.3054385713273245 
-0.7743635186357620 0.1516872006923516 0.5697374653369705 0.2805016675048664 0.3496038070871427 -0.1281334005535176 -0.06852678633295783 -0.06203585776351635 -0.4617145941429707 -0.04501361385645608 
-0.1980693269827629 0.3948115758691395 0.1167749920628641 -0.5819838304189558 0.2958784989902849 -0.09119564414616910 -0.04674407721151200 -0.02934093152722857 -0.4696213193063109 -0.1157502293200200 
-0.6360679136282261 0.08763418905348402 0.2437125005278353 0.05446744349405542 0.4837183874318151 -0.3152753868710198 -0.2563844402983595 -0.07922289733732257 0.2058287081295830 -0.1317496269343477 
0.3858870514399955 0.2206282921281383 0.02622060376645983 0.2468595598221052 -0.4590556952240387 -0.08575295975906363 -0.1152561190623756 -0.03184201874066546 -0.4507535078360481 -0.1348846688175614 
-1.021139239599011 -0.8931462015389954 0.1468104281184484 -0.8629896627811909 2.139588572938735 -0.2775412412690380 -1.145114004809567 -1.547647641253672 -1.188227650992811 -0.3567966534014078 
-0.03150305998708123 0.05545231740480023 -0.04475501417840910 -0.5724984464949242 -0.1891327120814546 -0.2967700353308213 -0.2424527564125097 -0.2977709791164349 -0.2134172549994925 -0.2179044724892660 
-0.02029565875236739 0.1968650769083536 -0.05938204860598721 -0.5462481791177992 -0.4102736304556586 -0.2511866415164307 -0.4542548241850719 -0.2153189787850632 -0.4180911131611205 0.09480089427154756 
0 0 0 0 0 0 0 0 0 0 
0 0 0 0 0 0 0 0 0 0 
-0.1208083298840106 0.1150862177243394 -0.01723273096083739 -0.4560276060024155 -0.1550631831216679 -0.2447728784208244 -0.4113077152714025 -0.7233090783332586 -0.2371621279498872 -0.3307871508601587 
-0.1526972283329045 0.04323099633286347 -0.03716435879961319 -0.3701050723494082 -0.3365519009493274 0.1575139916562741 -1.332073009671218 0.04314750254222971 0.1564635366624492 -0.01495309849033489 
0.1461607910022446 -0.1196205917261252 -0.01637174929789177 -0.1531327910221995 -0.4974879806525038 -0.002812001723447996 -0.2182282816930802 -0.6475679556687812 0.03384537511360753 -0.5669735670729846 
-0.3866279107028515 0.2563484001811938 0.03265235435834929 -0.2753716872561565 -0.1284816879591443 -0.4429741595325839 0.2091839146810545 -0.6749712945626518 -0.2592689065131484 -0.5732930127520043 
0 0 0 0 0 0 0 0 0 0 
0 0 0 0 0 0 0 0 0 0 
0.2156792836947894 -0.9407842834775164 -0.4636730227637286 -0.1793056963302262 0.8425746714065181 -0.1079966973782055 -0.1326307745192734 -0.02581589655004939 0.1669463715163161 -0.1378097482158865 
-0.7060346035851290 0.4702410113103497 -0.5236818002588190 0.6142667440036691 -0.3279904547348336 -0.1480744901991127 -0.08839604068572030 -0.02658376273447980 -0.3496040408089167 -0.1450749495279101 
0.06462630132084886 -0.07224920888288476 -0.7705611382348894 0.5236525136384473 -0.8244779018198394 -0.03446948261655753 0.5755618107457063 -0.1265279792279345 0.2960784007180846 -0.03871486496241968 
0.4612126823969253 -0.03741291912050225 0.2794328652594026 -0.8803406336421546 -0.5724812997207741 -0.1849932835935269 -0.2373390838099717 0.5911357263641428 -0.8711145225398000 0.1574863728916646 
