solver_type L2R_LR_DUAL
nr_class 10
label 1 11 2 5 8 7 6 12 13 14
nr_feature 599
bias 1.000000000000000
w
0.02789903254163263 0.1370596637845065 0.02827109483151754 -0.8481865293798445 0.2047317993965140 -0.5080881318981357 0.3250799558799521 -0.04484814305991462 -0.1233235575647580 -0.3262079738263433 
0.2000452696191830 -0.4581009772772921 -0.6415793319022957 -0.4790277608942340 -1.300004124706098 0.09043371671684716 -0.5940893441349435 -0.7684571843286508 -0.9946696678600337 -0.8403697631770550 
-0.7135869067666460 -0.5315406999761643 0.3435535493888499 -0.01581565268372379 0.1029755947465564 1.212580845710349 0.2488867765784821 -0.06302754546296026 0.2468367834478150 -0.5215832945452209 
-0.5017114922171599 0.1927059952192428 -0.5451868217831211 0.9089082413911869 -0.2548979682941816 -0.1629303529766038 0.009031964853598307 -0.3886465051892033 0.1799009495355313 0.1094803925359915 
-0.4583345059696720 0.3256694055167329 -0.1727812438250087 0.7734411326321925 -0.05181070978906719 1.282469082262554 -0.9387474986035136 0.5526095568919619 0.3222343995594876 0.2952227753401107 
0.01111689817438191 -0.07792662545079095 0.7178558816528828 -0.6313858461906920 -0.1449970743482273 0.7460975865254135 -0.07523071054949232 0.5403579181771957 0.2183968709618912 0.6085421065567281 
-0.7258341553938913 -0.7051659538786574 0.09712662945030853 -0.2072601667536936 0.5905787354904304 0.1312516964864864 -0.06761751177511918 -0.4321119050677353 -0.3778133161501151 -0.2185364453026259 
0.5500008878280094 0.3828264117494031 -0.3200175990943033 -0.1830508206838802 1.246628584903449 -0.3746470310783275 1.332174690945251 0.7738483996305974 1.002789639192779 1.289428171500979 
-0.8616054765379024 -0.1618264016106438 -0.2196486030690498 -0.7654094196626972 -1.004540507944762 -1.068547806849438 0.3278206742429325 -1.820217636889208 -0.5295361717341546 -0.9280379602132656 
-0.2528145611188188 -1.081713536022969 -0.1042674051622566 -0.03950233429046386 -0.4195475753565162 -0.9862420016475880 0.4799071749107569 -0.7522160075826138 -0.7404262734114736 -0.7790226833932451 
0.4764349521661535 0.4765586222444664 0.09259917109844360 0.6838050948940154 -0.3068887135079491 -0.7128627545807346 0.2092986987995096 -0.1399881261785294 0.1638616647091494 0.1826490646216469 
-0.5626456693822994 0.9698065747501295 0.5321208301422028 0.4414948271871075 0.3766141520781653 1.195596848456640 0.2301850970449138 0.4616920582219768 0.6800381250952281 0.7161767554744125 
-0.04493561958538443 0.2293822336269275 0.2335539469578342 -0.1576460113443919 0.3228826498421982 -0.5653149263512591 -0.009997926395186565 0.1672997543961790 -0.2076370298266044 0.5575120714982069 
-1.287410273756565 -1.109071040168978 1.103443021584733 -0.1295631995799551 -1.135524885244379 0.1528493568486246 -0.4665921473899329 -0.5052252936595069 -0.6563089630748112 -0.6665280521055619 
-0.3090105434490842 0.7549236027239977 -0.2798925009388579 0.3241797825116021 0.6182531360486944 0.7025731869025535 1.017315133208488 0.7216188151517992 1.025204131352317 0.3779203045129671 
-0.2958921659254285 -0.2410118445860678 -0.1642786322144810 0.3682497829319628 -0.4562325539797731 -0.6938504125285663 -0.6438382755731804 -0.8600306226244122 -0.3026901078370028 -1.155207659932219 
0.1723408398488797 0.1927847525030055 0.2206678197596370 -0.008286054399089552 -0.1867150962244681 -0.07276864516637441 -0.7710567697125539 -0.1092869730546322 -0.3133305572787729 -0.2105565876259639 
-0.8390967645909889 -0.5488915562297156 0.3017703404311151 -0.1695985047195355 -0.1323956909484164 -0.4071266028878878 -0.5698814350784825 -0.4983478181393172 -0.3815585224599124 -0.5563416157738078 
-0.5176171184158840 -0.1804761606912903 0.8817116158290296 -0.5177666351319167 0.3031471984506768 0.8914527647434997 -1.043656133633647 0.5066430844557739 0.2914471008337708 0.3869841427191925 
0.3211783375702832 0.3071907845514153 -0.3490109457641802 1.160444881447416 0.2115322845594089 -1.024860151561598 1.129380967249797 0.2295637000987777 0.5366046349722599 0.4455022172120374 
0.4117933546688114 0.2479720168048132 0.3395051377391529 -0.7635955472470707 -0.6636976840480019 -0.3554171949543762 -1.254262046371450 -0.08839433861529081 -0.1558827451044658 -0.1777610768164980 
-0.04782827468446086 -0.2615771162864946 -0.1100524481025866 -0.5406438984557318 -0.7153381084694770 -0.1017977582941150 -0.6414799997317727 -0.7348302529066392 -0.7141032934136663 -0.8693507832474670 
0.3033154736033558 -0.2574335940958514 0.6038919539982116 1.400180177932096 0.2148257169391049 -1.391751069118878 -0.3393191101686774 0.1025550481598129 -0.07089915976426206 0.1312789674524521 
-0.6345167765158284 0.3809573298020473 0.1477115740729089 0.2179002072547083 0.5081759316784099 -0.2635342446730776 -0.07152235472592453 -0.2648732925994601 0.1010783095933042 -0.08659015648705487 
0.3545013918567239 -0.3850118509213100 0.7930978102073420 -0.3850448442669751 -0.4163761700341427 -0.9367765123704590 -0.2424771578907685 -1.110356028788664 -0.06348481643681544 0.05489294759501254 
-0.04634900556694985 0.2342308982596985 0.3755003590024159 0.8961053406058558 -0.6197545183413883 1.280346036318155 -0.01874486574290775 0.6560571532613606 0.6930901226128756 0.4559051739235482 
0.7796839666035271 0.2398868914064827 0.7519466011680174 0.2850241301331141 -0.1657651454054491 0.02640477394008380 -0.04447539994489247 0.3272538684602167 0.2373034007353253 0.2765481177922211 
0.2523433229194200 0.2087833842069642 -0.1342071083278882 -1.426578492324074 0.2979199070234511 -0.1792943496048824 0.3387814617591476 0.1707727137871927 0.1383408358408736 0.1474914381149058 
-0.8351013113721998 0.4689904197571040 0.7658067989917686 -0.01329396263536109 0.05167754106047436 -0.5245617461417751 -0.1926043655692732 0.7004574944611609 0.1937252734770962 0.2619597547799309 
0.4191296549032834 -0.2107368341856306 0.1190600919694574 0.2438491484612800 -0.5802918597260721 0.6039411707231555 -0.2187051047739227 0.08112073554272904 -0.4125464949918743 -0.2606479005893819 
-0.09818651697797529 -0.3044513795750331 -1.180685135203882 0.2185332440678628 -0.1155978338638412 -0.2266938730272774 -0.04068553313786603 -0.03497238787022652 -0.3426658114808444 0.3444406989520722 
0.3040422984938829 1.122194311599564 -0.06519978345069893 0.5249051461819660 0.1623531282130149 -0.002710866515940954 0.5722972406255482 0.3770348785638243 0.8824619404587739 0.6835773377844320 
0.4744094370548343 1.180552955900779 -0.2838220578334531 -0.2622995742207011 -0.2643066464115859 0.7170212746385289 0.3706783077343789 0.3263542523637073 0.6551489433673024 0.04542803891045869 
0.4501613302654731 -0.2112211733971194 -0.1456746106389657 0.6839477180529537 0.1645794994914736 0.3687436083005505 -0.4949800153982831 0.1682600662451371 -0.1914158691483099 -0.3812864678320408 
-0.7750868272980181 0.1512318987328220 0.7147460941086177 -0.5099369479120090 -0.06128461898153553 0.2171531242542659 0.1247660230132524 -0.3485044347076198 -0.2593471299263585 -0.1590585970271713 
0.3557253734973058 -0.1185822529168684 -0.7047283469031239 0.5148939865768523 -0.1189533510354928 -0.6298399202039602 0.001668648681245484 0.2750194078919058 0.03835069769443148 0.07291947429120085 
0.03307547339847440 -0.6007526754747651 0.05957716254489470 -0.7057763970769555 -0.02994354772459381 -0.2929398368568193 -0.1442422730163704 -0.5310602133203266 -0.6526281054033687 -0.5158192477484072 
0.2758106453092335 0.2322139781712653 -0.5384848354873801 0.5224709724926183 -0.1832621924693482 -0.7729644445415739 0.8674851211273300 -0.2189571785749133 0.2533583014869449 -0.2797239045646882 
-0.5320452876840782 0.5235109519787668 -0.04746152767174088 -0.9056728785305097 -0.3257245815082022 0.3092241301638060 -0.4439667365202444 0.3806971947940696 -0.3434521849522109 0.4526455689731878 
-0.3910664471905010 -0.4587897830880392 -0.1904111950741905 0.3905822883302798 -0.2154715694390692 -0.2140787881021458 0.1071444341216029 -0.4532827107587987 -0.3682850083585145 -0.3910063148690757 
-0.3311575322013268 -0.5903057128317527 -0.3949899263034816 -0.6295645381179681 0.5531188942367125 -0.8315297401287951 0.6478595272870926 -0.6819591658664461 -0.2896252507342542 -0.4116015998525157 
-0.1470735345449963 0.07579566854485450 0.2209867195332159 -0.3078589253342941 0.5195805321576620 0.8051561428154512 0.08878173604921641 0.2214137432615594 -0.03289786144820750 -0.004097656719393585 
-0.2383610926987655 -1.032971777193795 0.3218697081134391 -0.1386598061265460 -0.3454402312481622 -0.1346838476175238 -1.425987480258307 -0.9678902413981229 -1.008956641230986 -1.080009243665999 
-0.4474371745026375 0.9446304149291613 -0.09298497981750539 -0.3170610529502543 0.3000664622029205 1.111980231331436 0.06452653345001788 0.3314659498341916 0.6130325565910294 0.4798181289177756 
0.5054371516918371 1.009817146087315 0.7498515196448945 -0.7763634929212685 -0.03188832147945180 0.08585148469862176 -0.3532235126496465 0.4336035314456448 0.1626089607762716 0.3086982890741680 
0.4487293560768669 0.8399402690003969 -0.1230256765444445 0.4484767161983682 0.3871601082665510 1.617857822555761 0.6473202026931995 0.8059431507774344 1.026877873254669 0.8604547273047050 
0.9150748245270596 0.07599521866261476 0.4106786986600058 0.2232097123154028 0.9791238945966091 -0.2082604423968698 0.1803096926343012 1.086149995249030 0.9564592380938823 1.041558920837951 
0.3676496247908002 0.2423099943213295 -0.07125794454412117 -0.5368934523687968 -0.6480586558924535 -0.1410055861790825 0.06641160882592655 0.007197954867746856 -0.06323339232201136 0.4360068634170173 
-0.3989593565955856 0.06149722331334841 0.7049255245365569 0.2571194986876847 0.5444459517666640 -1.113725405022587 1.230238461017480 0.2355143078631109 0.3066383783709563 0.1471700621199971 
0.1777180106416629 -0.03912252595893108 -0.2176325085493564 -0.2518456516830011 -1.059253812551477 0.3236878939060539 -0.7655230710896616 -0.2201887237171570 0.1104603939040371 -0.4965412396785933 
-1.196851566857461 -0.2487199099901578 0.7466378584088595 0.3653334238539540 0.2343973836711988 0.9833571924875564 -0.7071174902648183 -0.8072035515494976 -0.1350196169069667 -0.1654774450927402 
0.6986656429503246 -0.02323692132669991 -0.2898790330720083 0.09123022768612583 -0.1986413039299374 -0.1816811813420154 -0.3738654559722963 -0.1451758333975785 0.4330044153669365 0.3307012784557601 
0.6263399536788027 0.4782274311196578 0.05066169868459889 -0.1805977007026225 0.09013092000048965 -0.6091366581947550 -0.3438181690160454 -0.3798961854274321 0.09334244659612914 0.07072257332565327 
-0.1649063435528887 -0.2364262375327213 0.3696849051894029 -0.1892027359190474 -0.6569795474033177 0.3097555113433488 0.3077537431994622 0.2356792301708368 -0.5891307288068354 0.4987113190635835 
-0.002118926697914418 0.3969979026075471 -1.185363878418569 -0.1040500194291910 0.4606203949130667 1.366523128892680 -0.04998819830545116 0.01872848045697726 -0.06196343912378528 -0.06990568481676798 
0.4825948400937811 -0.6155542122232529 -0.5409147700920258 -0.1535655019799988 -0.6670074829328664 -0.5879932662438161 0.4787881403406850 -0.4009260210521651 -0.7444358486544421 -0.2703261954400049 
-0.2740503156757113 0.9429964341036048 0.002958044502652527 0.6612924786027806 0.9412244912265622 0.2004335604272518 0.2179488486474750 0.5535740871928267 0.8437923864841269 0.5687471484728940 
0.5006534001425167 -0.03576495185656101 -0.08172031307538384 0.8045575368583376 0.5822897356285172 0.2072092659210307 0.6873571730189784 0.6020129426335399 0.6730316880814075 0.7148013587247669 
-0.3745172949672730 0.04053191224825459 0.4264613674371203 -0.1132343922278521 0.1178637581329858 -0.8778208817401805 0.7195677502212864 -0.4611484080483034 -0.1847998271941743 -0.4119967086661260 
-0.3314695339291859 0.01171904983690613 1.148472784767226 -0.01268969803331476 -0.08640535570988253 1.309317731319638 0.04904411452212804 0.6220263637608286 0.4764557705740846 1.195291241178249 
1.279107889447757 0.5940120347270088 -0.3248554500441962 0.5733479758571040 0.2098933829417452 -0.4770074847777143 -0.2392743440225331 -0.1864597724646326 0.5458572051269136 -0.4203284455300139 
-0.2937371784434523 -0.6756785167700361 -0.6108363540065381 -0.3049787304264033 -0.1108289270868182 0.1576399931528561 0.1433315426553692 -0.6449619523039969 -0.6542048911618875 -1.080019517277356 
1.057282622483193 0.3361709713510527 -0.4854807246669895 0.3561396818455184 0.7855829262923725 0.1232934981499969 -0.2037525750057100 0.6500368913716416 0.8615896456753808 0.6171681404665115 
0.2133862616570334 0.4681520241678213 0.3888161946462099 1.615345428362887 0.3913554644502247 -0.01368267615260441 -0.7607070796992039 0.4622043700932140 0.2124792270093557 0.7766850701957809 
0.2412157481540072 -0.003934929157582929 0.2070917660128327 -0.3216128615289952 0.3268396361977566 -0.1619506346828233 1.274903138967777 -0.009476833353317704 0.2996106939138590 0.2578822492463511 
-0.1162389102740112 -0.3999126391878606 0.1558228539418819 -0.3110419648118181 -0.06806312943010753 0.07332638076749938 0.2841044361091970 0.03749490606937567 -0.6262395037303836 0.1547748234284957 
-0.2751632989040787 0.4633323620517199 0.7538210580432235 0.3654690706115329 0.2277558938457649 0.4852891476918088 0.1383396202647965 0.5284324257638471 0.5395041401699681 0.1137400152934076 
1.135903028219515 -0.6106178570941685 -1.059507386990861 -0.3114004206993037 -0.6344059038036737 -0.4275529534162949 -0.9286895571114900 -1.057049940926574 -0.5331757457702620 -0.7358268596440399 
-0.4772393932053289 0.4203608436759996 -0.1989617487820123 -0.3041034717082696 0.2936636340431104 0.9137517268581582 -0.06031568233147986 0.6070326680997418 0.2848489048716043 0.4786546752317049 
-0.1031669193223189 -0.06057014295564387 -0.01456715073847706 -0.2481590360604470 0.4713439953474106 0.5851352326425843 -0.4933394155632502 -0.5160856551540075 0.03396940528175001 -0.4540823102564963 
-0.2154814708576293 0.04257969786234112 0.5972568213547021 -0.06739303486372433 0.05077726156608657 -0.5285268385795490 -0.3244444014690502 0.5949284552274094 -0.1190265009610939 0.3243590461926839 
0.4340563887965641 0.06850383500371810 -0.4668836291564413 0.1686022596048758 -0.1148636454271340 -0.3772316727102937 1.185787509251678 -0.1166657473612399 0.3783159377482797 0.4418419260857552 
0.01913993867250005 -0.6101035241041618 0.07126548975384099 -1.328656058238898 -0.1888967414459380 -0.5434024833794938 -0.4238467952801117 -0.6427148590108360 -0.7210633919181270 -0.2108771152298574 
0.08539805331233391 -0.5107419402927732 0.6009588600825626 0.1042176484034350 -0.5332689877988306 -0.6882410912416324 -0.6021239516453893 -0.4598685410920529 -0.1236422138301178 -0.6612037806456459 
-0.1651611338919364 1.149260452657169 0.6058181564303857 0.5798631632698660 0.5767108833449244 0.06615276567193870 0.9535818850884068 1.203094259605199 1.190173973464094 1.142606261020787 
-0.9918474408690776 0.3217201463228547 0.9296268703557129 0.9785758764681592 0.6565652330517817 0.3507130065064213 0.6031740359676205 0.5656324838104404 0.5819234850991500 0.5670624196798930 
0.8967173421290716 -0.7239362133400379 -0.7055017470830143 -1.175580694677070 -0.06483966296101360 -0.3543671037767635 -0.6400438456063554 -1.173800687941732 -1.335274278760311 -0.5960529016460715 
0.05165620228504704 -0.6994251329144656 0.4631415969743350 -0.07689140487786139 0.4720825994544701 -1.192104021239668 0.01895390990271715 -0.7782060076689313 -0.7022305245876339 -0.8306229024271020 
-0.05356522229098840 -0.4543078095168757 0.4185750636145315 -1.267820542974020 -0.2581989183593340 0.2386966623055870 -0.1352925194221788 0.003951794479924531 0.1910925281489420 -0.1455513475085858 
0.2930309129493628 -0.6787669972024668 -0.6268473604727944 -0.6300427690137483 -0.5403255049236022 -0.2929108482224728 -0.3720951232853877 -1.012232607299471 -0.4472029774015358 -0.8151651069354787 
0.7327179355347978 -0.3259357349955540 0.3340940568698408 -0.4750103138966290 -0.4792069685726211 -1.815810299267832 0.06216652428893241 -0.7170073954162353 -0.7717373695208611 -0.5946081030695447 
0.3437224195974537 0.3913181134401128 0.5724766295555612 -0.2078194992052928 -0.3001593473363122 0.5319928611012085 -0.2624850171077314 0.6976388562374887 0.1078827733571607 0.02588329841165847 
0.2792241519433195 0.2823753453712886 -0.2322865266806838 0.7905591492965892 0.1631206795142985 -0.6784974307006335 -0.3541584169986338 -0.4170232631884063 0.1981878293619208 -0.3208711302425288 
-0.5651550843715617 -0.6789964855316671 0.06082443912177257 0.8919047797687831 -0.3037791705167942 -1.167080914390047 0.3262036585190031 -0.1500311090794985 -0.5310822979335862 -0.4461626312988930 
0.1920844654492251 -0.005211718115218250 -0.2643610435731634 -0.1407004959098371 -0.6085608464656064 0.9061213626630209 0.2165283503122504 -0.2548711144331608 -0.2873408688822209 0.6281829692097219 
0.1398572159232641 0.6855932860937403 -0.3233406801932053 -0.04675956185327396 0.08726567914423897 0.8676434931676094 -0.2713482775721721 0.7234696607014469 0.8232032428545905 1.000260430563869 
-0.2284335509702843 0.7738101668451062 0.7008449573624472 0.4930430850890671 1.504475922621591 -0.1309480354865518 0.7275835958624600 0.5393669751707336 1.170209666116295 0.6934143168937793 
-0.8056399474500544 -1.004708848811575 -0.4151667673322176 -0.5959946158429046 0.1413986225785353 0.1227322071190779 0.06259942787019343 -0.6479935868780254 -0.6340353007376647 -0.6639396804419953 
0.9427467852749937 0.1868774907264046 -1.046809944315039 -0.03067392738455643 0.3881585226774876 -0.3872758594269057 -0.6540821358291925 0.1429496952659836 -0.09269086178891035 0.2603825507029190 
0.2574453708469688 -0.1270752578534311 -0.8547820892284210 0.6113289426489559 -0.9256074008832347 0.09239664375954251 -0.04077781823334806 -0.7314690969397506 -0.3030578385980107 -0.4555024773699742 
-0.5599852379632628 -0.7099167702712132 -0.06023828820086671 -0.5145222506887823 -0.2945741171073020 -0.6437078848217550 -0.3928032418561486 -0.7159679939546620 -1.358615775803656 -0.9186773732267904 
-0.9936248373107982 0.5653108586768506 1.482775274513410 0.1052748786936999 0.5662193438913605 0.4168147591046509 -0.1248594348785727 0.5378561586742333 0.5243614814063453 0.5161478025034142 
0.09577366640733224 -0.2765568128727521 0.6751526647482987 -0.6246086433721276 -0.5878574761036405 0.3682793729818223 -0.05707823544160461 -0.4632849226605874 0.2823335065133301 -0.3884833123042845 
0.4557250718430776 0.2279943368917640 -0.9937645918352375 1.376034110336456 -0.6659008029081156 0.1269766333594101 -0.6652598449938926 0.2926671030192288 0.1951441777435224 0.08934020313811707 
0.4026497664364379 0.09849924421053592 1.129698185820504 -1.197913686972243 0.4716230968969879 -0.5119403551774886 -0.6128502704993307 0.1959536429236206 0.01559272329073329 -0.05326767469120049 
-0.9070955402992583 1.258643168520000 0.4833712906634711 -0.05319724781552088 1.097057745134595 0.7860693890351587 -0.1300260727184404 0.5079241141781534 0.2089072157000402 0.7064543750650992 
-0.2733286248447592 -0.3688119670449132 0.08693926854515442 -1.266486446692233 0.2348360306673942 0.1766054669112097 -0.2550241644823136 -0.6784339725634854 -0.3272064864174112 -0.06186072997238915 
-0.09332146030490782 0.04407014303712185 0.2295625708556371 -0.3692796466376304 0.4037063080042896 -0.2672394899043770 0.05474057501993040 -0.8858504762744461 -0.7513795538686608 -0.9558880331865511 
0.1648869565499975 -0.1590931398361527 0.1718031583112415 0.5600136109295937 -0.2781459647757354 1.111429497052401 -1.648925080910479 0.03202493089948375 -0.1505643420046134 -0.08547813035055510 
0.2573638769108900 0.06650873037002965 -1.075363405184724 0.4768711735288247 0.4903780017085038 0.03603516167491407 0.8416958368939791 0.3720343247367344 -0.03392516136254405 0.4784881421953463 
0.2325742624283405 -0.1009693602899135 -0.4161875025540896 0.4735393330369646 -0.3322371878034074 0.2381086936439419 -0.6723435367487182 0.1886427658454515 -0.003212062827077291 -0.1006782746749976 
0.7444067313374151 0.2376110553832349 -0.09404524243321691 -0.005941176902102713 0.6398152669666901 -0.4696132820569607 -0.06128396685423192 0.7573772133472808 0.2067503821713083 -0.04579975088319764 
-0.07095808269952587 -0.04230448974467641 0.2749114454546753 -0.2194426785870613 -0.1577567603008963 -0.6067386405332205 0.1366056739312485 -0.3868823528164005 -0.2441224870791828 0.2174186077669149 
0.7880373355110999 -0.1917051016663187 0.01689546888068613 -0.2547723381415577 -0.4332233546422732 -1.478945723183047 -0.2610683196775391 -0.6690663992315871 -0.3748187228325261 -1.112038148876525 
0.1867636310635728 -0.9920213483424618 -0.2586213981393080 0.03834131426825045 -0.6210977054828213 -0.2523646895372099 -0.05622928169367642 -0.8736695258398491 -0.5983631109063984 -0.9901387699622862 
1.068075597964305 0.5231987799496389 -0.8112634735823259 0.3898539644184039 0.1504899306950933 0.2042679364835146 0.5324754487339949 0.02678491108461652 0.1946837251050199 0.09908260276109143 
-0.1076246001166331 -0.1289251392998869 -0.4818662723845478 0.4401591593545436 0.4327089228312856 -0.6768575133682656 0.2270695328903557 0.3951577117828391 0.01934274865886481 0.2179512299919615 
1.482320737764919 0.3620000455385668 -0.7457891454479370 -0.8908669058293276 0.5182413765162597 -0.07927971883192997 0.5117954596379235 0.6027167109536317 0.1140132297504344 0.6232069702329107 
-0.7302894832717672 -0.3077530867582253 0.8982969710014892 -0.3790496216564164 -0.1159615324277560 -0.4919342131325468 0.2976017897067386 0.1792765037241062 -0.3464085032096143 -0.1846208614216765 
0.6240463745729273 0.2863232112602776 -0.6408073742076434 0.6409197119885230 -0.2716319876208354 -0.6641609105211832 0.4252014473389507 0.2744021007879209 0.3341307569856640 0.6635056030726770 
-0.5823102746411296 0.3353449093981544 -0.5532973867328643 0.7226574306133877 -0.004405149173240432 0.7299836773915013 -0.08344402151647282 0.1013010594287117 1.027707398223187 0.5571721552122626 
-0.1143102376085486 1.034174070658291 0.4949644458399379 -0.3950037166358008 -0.4461932694270991 -0.06188316655295126 -0.2492586680268877 0.3446278617357992 0.4943621465888131 0.4060253114989968 
0.03365708319251402 0.3471205567144963 -0.5865455510990000 0.4384865922626815 -0.1721217501123538 0.3198706978649885 -0.5705879421644530 0.1683568876232310 -0.1860784449456690 0.01027178036150336 
0.2751711393194174 -0.7787801455786194 0.6317582120752211 0.1997184081558809 0.4310752790666894 -0.7662361574843061 0.1828068177132056 -0.2523587245771417 -0.1945590468257535 -0.2056161226580890 
-0.08550420053733454 0.1438607925667595 -0.4615790922991594 -0.4374220944690311 -0.5435434385996356 -0.6473360520254454 -0.008043991353886204 -0.2588650249578587 0.1695863057799597 0.06294388851134883 
-0.05290815592284989 0.3968027237406256 0.1524229041231792 -0.5226483674888789 0.4842350499265275 0.2479186280518153 0.3229870222807408 0.2120963110912423 0.09230924027992960 0.8386601348906499 
0.2974021393279138 -0.4581719867260641 0.7261970825685046 -0.1632371489418791 -0.1384655253567998 -0.6335797938619854 0.01616812279053619 -0.4112347630094670 -0.1559411354321703 -0.2203354016612707 
0.1094093672060846 0.1083122167535126 -0.3427320333780815 0.4579211841322426 0.07449560103826745 -0.1017874601920358 -1.047135494513278 0.09535223054165347 0.1313991104501040 -0.2913306824058586 
0.4853942574003198 -0.9107444438771870 -0.01231423555070219 -1.844383503992639 -2.091678527728119 -0.5065968438531970 -1.000554060275975 -1.430440752934917 -1.085908468451077 -0.9714896467079088 
0.5171639993558484 -0.1637106166471145 0.1605362367130999 -0.009919719011455025 -1.014922601078921 -1.176943444627971 -0.08426858642545426 -0.4808865803693924 -0.9397134925197187 -0.8921596439103286 
-0.3745910355258436 -0.4052760911680731 -0.01378417231246897 0.1462200674353215 0.3634884899012568 1.043382187185434 0.4407277690041564 -0.4697223542629910 0.3988551591997498 0.01798144470772861 
-0.7978552078144094 -1.122826045829288 0.08016317428202427 0.1955632902943054 -0.7086902470358035 0.1013257189778925 0.1181673159993695 -1.078312859039999 -0.8426592613449604 -0.8748135456206361 
0.4384341416754775 0.3547942443186286 -0.5067415503416677 -0.07217558906622491 0.4866474260915524 -0.6850475948548675 0.2365347856288444 0.2204093056701528 0.4344387686374208 0.1620274640839565 
0.7489289037467213 -0.2156948341365918 -0.7088093294705307 -0.1027146435437760 -0.6104725911068921 0.2271122787378166 -0.4363051540955368 -0.4879427689354656 -0.5971100941449021 0.08527505684984558 
0.3019228689761509 0.5541739180972349 -0.1802978376614434 -0.1625753993133239 0.1771574317843049 0.7735908300126207 -0.3728824700613739 -0.3296348756938491 0.1559391572107355 0.1483414970156702 
0.4458458871554775 0.8274362018598822 0.1046776683893686 0.3659917902904497 0.5573109538304273 -0.3430546063392534 0.009827673434808346 0.3332023097043241 0.6304947867540274 0.5195179041097072 
0.02464185405164815 0.3485722135086257 0.1930057563178548 -0.4994637666443052 -0.4290195381394476 0.03671854788525673 0.5256230452833969 0.07013091987147650 0.1557837196923434 0.1087401262614319 
-1.613153452170239 0.5770046879604215 0.9385370164558210 0.4213109307445888 0.008781496900313622 0.8767885487525469 1.195264010558109 0.8419276333702435 0.3728052795367195 1.051919256726821 
-0.5671777852567549 0.6399802516383981 0.4730504522828655 0.3867962142534209 -0.5808463037617847 0.4158547581219749 -0.6064018825909601 -0.3400116967065214 -0.1534782357332304 -0.6584169547284061 
-0.2821883915295607 0.1093024412178341 -0.9919994886523101 0.2376715161401766 -0.6634562947020949 -0.5246683476540049 1.011457431498026 -0.3839695919988574 -0.2544098384920349 0.05259251543910876 
0.6733719723566417 -0.3107112634707376 -0.2488508728017722 -0.9130145584270626 -0.6084989858111424 0.07299154278837480 -0.1991396867502435 0.02973264270310547 -0.3147949867867198 0.3275297689074847 
-0.05563758737899562 0.2833747849495830 0.3447104106969635 0.4316847021478482 0.1938752665401052 -1.058292207964476 0.5797756371878362 -0.01311613188487217 0.3530580016552010 0.7563809155952028 
0.3991100479686516 -0.09855821497947904 -0.09819061458936751 0.01780566177455221 -0.09896200151780027 0.1313608128723554 0.9396899504494950 -0.2170590114781224 0.09004855283743620 0.01318566943113777 
0.9072369673540842 0.08576093406701574 0.02635015113440640 -0.5326869293157637 -0.1574334912493399 0.1594678655910314 -0.1119877758212252 0.05765485915977255 0.2092007588114961 -0.2309503050017585 
0.4043885135668502 0.2305330079839188 0.1421413840860804 0.3577117824154153 0.6876354783319831 -0.2726230063401929 0.3602767984177521 0.01796790634056059 -0.006985092426427792 0.5083071940675465 
-0.5122393205429581 0.4974984669444880 -0.9762289419804572 0.8862331837950578 0.4297255754766315 -0.4819708004227480 0.7476545719032033 0.1603403190990908 0.2816531636858329 0.2931071051229926 
0.1601478355462128 -0.2486552918596642 -0.7796725537225548 0.3978553411504963 0.3252954238756041 0.7500987938804372 -0.8153807135120976 -0.3013321770610054 -0.3837016157430037 -0.3401589896500689 
-0.8522259279972926 -0.4853245428734630 0.2916571470016500 -0.1832861710951949 -0.2375694971647542 0.8545705313692679 -0.2836900352968663 -0.005531529544391162 -0.08202831672987144 -0.6857721788513383 
-1.089529684510882 0.8582633856660570 1.181551395344697 -0.2191274454473439 0.9145632222260478 0.4974734999308326 0.4081964900974707 0.2550094282155723 0.1481993421552947 0.4760173190386602 
0.9308569716628385 -0.7234433891032592 -0.3186635539968525 -0.3832976557666919 -0.002943857410642843 -0.6298181910910029 -0.7575987080154790 -0.9073667604263093 -0.004808128593353254 -0.3247591296479357 
-0.3044110543131037 -0.2168435665511712 0.7082187503368098 -1.248676155914756 -0.9428183036060177 -0.1546392606609643 0.6651247422128971 0.08627383536284510 -0.2712442347443863 0.1724899273568447 
-0.1182282809169657 0.6275689043143950 0.01932918389840339 0.7006963264462418 -0.4956243007167361 0.9137001501615091 0.04592810645806664 0.1421159678425692 0.2296303251692140 0.04868787171053002 
0.9665277512565296 0.4768525991043981 -0.4327252740040581 0.6958567164763044 -0.2091757612995387 0.5838546501304405 -0.6619143740344856 0.3907330744809077 0.6206743937433078 0.1818896972493116 
-0.1374063940329569 0.1274362845113505 -0.2881647654403950 -0.1394443054358678 -0.1682568280945026 -0.6569059767512370 1.078752977443793 0.06145822706051022 -0.1346448525006188 0.3227163284067562 
0.4901323028964933 -0.1251138530796644 -0.08207522615081053 0.3604879284817805 -0.07428289016079362 -0.2283797965840335 -1.539338766156295 -0.5354772062535369 -0.1402873893507173 -0.4662257436582628 
-0.08732439251153533 -0.3315863148802291 0.1926340767740636 -0.2343839552143021 0.1325942921437513 -0.6853881444994134 -0.7327740392456679 -0.5772026100130856 -0.3916412541460890 -0.5687309766949818 
0.6667883480961883 0.4654733267498583 -0.9683830348894932 -0.5050347627851848 0.7622151560717660 0.6340059834693691 1.222884704690922 0.5683367238935059 0.1650918797697140 0.5225205420947078 
0.9671041728316777 1.309076138662903 0.05145905623962804 -0.08774764567863681 -0.06061570724985926 0.4107887910697261 -0.6107690952880904 0.7971665928399017 0.8031799610965477 0.04398744558341964 
-0.1731025749038617 0.3492492959137654 0.5392396525009854 0.02787690967559374 0.4510225389155353 0.1743395443067399 -0.1524447550372499 -0.4152598029630000 -0.5228661154084032 -0.1379016473680503 
-0.3667816725509575 -0.1391261028101788 0.4496857805577422 0.8257557893622458 -0.1567755174303988 -0.02089514283409041 0.5974648333889389 0.1704007498937638 0.01750229012806075 0.4919134056650554 
-1.393303600693463 -0.3386701623843348 -0.5222306826401832 0.1867126898733688 -0.8217934568809937 -0.3079088454158667 -0.8200209557799406 -0.6494424004339225 -0.9452257025937554 -0.8772607912668400 
0.4409686371363377 -0.3453625793631679 0.3629159314087083 -0.7138510487405556 0.3684240717275333 -0.8069806353688851 0.6286528238852435 -0.007109400156786230 -0.3702477903645775 -0.2763127357537498 
0.4336317867329431 -0.3052394111448073 -0.3206656713776513 0.5794542865766619 -0.1770366925548416 -0.3962516824439716 0.4824283741278284 0.2323843416433803 -0.05779043320636286 0.3110789609228316 
0.2663728550081700 -0.02039549250757190 0.3241616536032321 -0.9170779441103314 0.3579122953049629 -0.1853290380443499 -1.221961849054648 -0.6380255773778211 -0.3133052634078414 -0.5570608848181767 
0.09236221393930368 0.1929241704311119 0.06772147881159968 -0.2028209202038714 -0.1778337999944941 -0.6998067884870744 0.2970841800137227 -0.2216837625965515 0.02469169951413486 0.003472824138513717 
0.6667846776458127 -0.1487204926662876 -0.7683294001526516 -0.4144408061224270 0.2222025008628668 0.06530334952359161 0.9625526604801372 0.02390021611944972 0.4009674844692578 0.2239774280681319 
-0.05026910628011492 0.7181775366154220 0.8488776713457670 -0.1168900519035512 0.6798456083677180 0.4697067181159456 -0.05558430196021660 1.151086796059469 0.7527880241574709 0.2657290932425303 
0.2294262022579347 0.4036343892439740 -1.057335964834006 -0.06063775470508256 0.5491421790242571 0.5951709933318694 0.9833132198560585 0.3983665369792659 0.2159282690940741 0.2682707213071312 
-0.08532730457657624 0.3055685738261189 -0.1083428467995384 0.4567815400016257 -0.3007706629981593 1.590522499087102 0.2239900215868949 0.5204021924144789 0.04293391400671849 -0.002762973470330160 
-0.04093659702832356 0.1962928014147029 0.1091333842828894 0.3887877315938416 0.7547389201531505 -0.2879106687591818 1.308045735355562 0.07634965019764194 0.6322730081320947 0.1860520593518649 
0.1141359265623174 0.02310647189798341 1.076663126788275 -0.7423421062181355 0.09747678503040771 0.1081492101605684 -0.8865891677115343 -0.3286697939137897 -0.4397118705442445 -0.3703434356809929 
-0.1946360683013854 -0.9289454107442883 -0.3798745597081839 -0.5656567297829428 -0.3108214126722305 0.2570374813687331 0.08666418403379127 -0.2139952312388841 -0.3926162321268963 0.02905591783725327 
-0.6943832815020774 -0.1969303329800068 0.2792747901559365 -0.1382270646260127 -0.05094874189220212 0.1471736877717254 -0.8127019113210106 -0.2105338614551220 -0.4608642468155691 -0.4509917927513327 
-0.1842647654649620 -0.1789742301835701 -0.5511161176144156 1.458542061023229 0.6431281974736434 0.1190896767517702 -0.3563474874911599 0.3025996485030182 0.8257121340712614 0.4898473911363759 
0.1291438828544717 0.4047832889424145 1.215685390389838 -0.6185838755895499 0.4071596930010831 0.5113985063090497 0.3060595350904558 0.5200708629501621 0.3203013835454702 0.3078461132847965 
-0.3295914263478742 0.08182641891652154 -0.1330155835093093 0.5548357349613685 0.1291553593615409 0.4119853930050216 1.279987284774418 0.3178802540710201 0.4949583123129108 0.6940338434599834 
-1.209424100063879 -0.3958009349009152 0.3125468293548548 0.4888073141981518 -1.025482679868285 -0.3363457930252103 -0.2499818803793977 -0.8098295075016252 -0.6902993368877618 -0.4065913250368121 
0.1478281413051137 0.6863870322431569 0.7803755177333882 -0.2779579227983535 0.5359642161850112 0.9751904529101981 -0.1541254856773537 0.6087973808234920 0.3072790952319963 0.3983172907053533 
0.5939124235285630 -0.6245110034498916 -0.8860517767118077 -0.1749250478365213 -0.05455712299161421 0.5390162792248477 -0.7194936143474905 -0.4506812429270099 -0.3551737770150995 -0.7158199398497328 
-0.2478952787253516 0.2593811133752842 0.5067930330536733 -0.1573600524964649 0.2015128525690268 0.6113824246506389 -0.1508783322363032 0.3678165777847611 0.5421799441922222 0.07178926638217467 
-0.2374867965030959 0.4462046553325866 0.3078045363137974 0.3643039252029776 0.2585448307164743 -0.2204701994796638 1.718255712122261 0.6502944268522025 0.5472896404039688 0.08119803340322570 
-0.8440393678532083 0.05390713403084203 0.2950409943641473 0.1187554969144593 0.6698605776450908 0.4130708705597414 1.013878586814058 0.007659759684019600 0.3655397210298236 0.2981651637005092 
-0.1337200710731401 -0.1099174871400426 -0.5753329984017873 0.1685249571154473 0.3517079171559743 0.3228496381837377 -0.04948417300380650 -0.1222396521682961 0.04730046140766794 -0.02077906292193072 
1.580000298832788 0.5390445783146908 0.7425820999244046 -0.2914041355292563 -0.09607012691722856 0.3418285861211617 -0.7169491985617127 0.7273702953288197 0.6759522357611119 0.7504172924147423 
0.4354484100185866 0.3041399643425528 -0.8111700361257679 -0.2342154200270930 0.5142799295605572 -0.5841044806590503 0.5182508266282360 -0.2445095039463936 -0.08673375252403104 0.0001004339359387397 
-0.7527267302343130 0.7815890103195755 0.5250680529891495 0.1028898420913202 0.5974665140524631 0.1006275425370067 0.3272650246590899 0.1314801536196979 0.3087966699323115 0.4532950351393709 
0.3666239835222325 -0.6323371275872735 0.6515567401638620 -1.037481859407859 -0.5653841557571184 -1.560100496095124 -0.9971029058769779 -0.6519165428368416 -0.6759382938288098 -1.000637313363390 
-0.1285675747578902 0.5311391553283424 0.6886892242054883 -0.3440354198745358 0.4291842735239975 0.7226769166586123 -0.2312090455015621 0.6368273827470937 0.4375029287687696 -0.5633554965465754 
0.2546986251642887 0.4538001680666350 -0.1746268961907890 1.149073213238700 0.5733035035575065 0.4625905712695043 -0.1504287069937170 0.4991945960862445 0.3316328881170008 0.4494322203983910 
1.038497679045308 -0.1510338892702775 -0.4693411366457288 -0.4178433978585008 -0.5109040022109204 -0.06877345142449164 -0.3934710483996959 -0.3004677322455190 -0.4348522581299128 0.02960884993207052 
-0.8142023623104450 1.267201498485820 0.7714694970740987 0.5664216924566651 0.3115615896661854 0.7082183395153746 1.296639002133951 0.6493606712669859 0.8233626527995449 0.8468184780848452 
0.8627153974234270 0.01759798091421978 -0.1802068989775703 -0.6405340614339349 0.6234151495811951 -0.3359380577673656 -0.1739474092876258 0.06254335620725736 0.2426947625773730 0.1795964533955982 
-0.2367529803701872 -0.6652626303240894 -0.4521955177614470 0.4236763043047568 -0.1893098042216068 0.1647906914357798 0.7700849123210782 -0.01919208589360485 -0.1114480722712985 -0.1652571908336223 
-0.2591672597712771 -0.2240777410024102 0.4722332071930694 -0.2104852721770608 -0.02786795028538224 0.5382001142883576 0.6890355132368727 -0.2042787847672001 0.2164681583611420 0.3551517194892399 
-0.03859430735255882 -0.5890641208182706 -0.1292944287833657 1.072839060113873 0.05753056294788210 0.2256809160497219 -0.3280348549721419 -0.3450328690446525 -0.7251190476431914 -0.4819648272130050 
-0.3029731905807671 0.9007665693306650 0.8944709462215277 0.09131718476524840 0.6284944583932094 -0.5832274468631509 -0.1613750555006722 0.1231184720108286 0.4540224551366877 0.3290906222239883 
0.1138609795255449 0.5338486002757541 0.1333867656491254 0.2823602200506971 0.6734720428178020 -0.4350657973674383 0.3108967957277747 0.4086688099119135 0.6540705454059580 0.6999980757110801 
-0.08464173860210386 -0.6637602709874554 0.6428329297010484 -0.4874803893044180 0.1887477434792989 -0.8198558075796148 -0.2052341582655397 0.02642249299370991 0.002084059770454644 -0.3990015121813443 
0.09669045007892080 -0.2943487980869460 -0.4302057751686219 0.2755424304058048 -0.8806699702395188 -0.2859352765933069 -0.4344783148736373 -0.1380743885420094 -0.04420152473487965 -0.3410720052833379 
-0.6970897946082513 -0.9340661122638405 -0.6078042060118609 -0.3341228913792290 -0.4264789010061046 -1.052324100016733 0.5003379824073884 -0.4947139800686097 -0.1692099929897476 -0.1333426908497135 
-0.4507828555784667 0.4418797130436798 -0.05765854274786346 -0.6334264483090153 0.6553783537329422 0.3056969215176322 0.5116473527832172 -0.2406689729270320 -0.2235424625104546 0.03434272465034698 
0.7307267130834497 0.2978131098750732 -1.154151652572349 0.6016439846537751 -0.2311961663067869 -0.002489474488270286 0.7284547868853879 0.08987582104582023 -0.3077044916534391 0.3407491437848597 
0.2899810675737001 0.2007724013347756 0.4505329307791575 -0.5653882125352476 -0.8446530797311820 0.8418497756508219 -1.113912856830827 -0.03878107529371654 -0.5985202821432629 -0.5428138227476881 
0.04663374774697179 -0.02403077291621003 -0.1228578309442599 0.3428603945201474 -0.7038597582959892 -0.1115487860640771 0.01333955489281381 -0.02666683409664081 -0.07051957210369382 -0.2701787656819195 
0.5407820773366090 0.7332273704457233 0.006864244751635430 0.2145171018303850 1.613799255789228 0.07998922479751577 -0.4921820915740735 0.2134512591445327 0.7229459060848716 0.5765979163892371 
0.8829137420200011 -0.5090552518797917 -0.2891601627354704 -1.328975820692467 0.3696920019934474 -0.9657378690106891 -0.7320236481355693 -0.9178439096692956 -0.8238228272951098 -1.047456313421027 
0.06853855254656349 -0.7931480409606309 0.9509911789768453 -0.9536959905116359 0.05986457797020662 -0.6426070929953142 0.5720540600241538 -0.6030179750543440 -0.08483784522164725 -0.6261931762774264 
0.3149911683576860 0.3973383519503604 -0.3046647353316849 0.3266621565311252 0.9489258532003609 -0.0008090668002088802 -0.2721982252628927 0.3698542700766808 -0.02004912192836189 -0.06660260448043864 
-0.1792231010342591 -0.2761189772171194 0.09224706512474001 -0.5330719691610750 -0.1340812957587328 0.2629062493030920 0.1653382353294354 0.2028235556560216 -0.1403107731402994 -0.3004531820256783 
0.07439280350203205 1.307778818381773 0.3513103574933615 0.3561120315700037 1.114464924034932 -0.03907627148346988 0.0006937805115217660 0.3248560803963264 0.5352431047390258 0.5863881029699286 
-0.2174946916005009 0.004073361197336980 -0.8536117138696863 0.8184341780136840 -0.1500413504632134 -0.3602720983473015 -0.5758238445955031 -0.3881573641495275 -0.4906062059343821 -0.5251981228470389 
0.1545760463654700 -0.9084514301374165 -1.074458967803017 -1.007234473626554 -0.3768610284544764 -0.01481147141792695 0.4852113979498854 -0.3605853173453528 -0.2294213373154439 -0.3391475457322158 
-0.2680587117665386 0.2812776604834460 -0.5979680056749673 0.5758197668725681 -0.06769637594210934 0.5365044366284418 0.8098431515827292 0.07127547553192172 -0.2294007582722582 0.09734168929634414 
0.8533553184597581 0.5601592995135928 -0.1442989195393904 0.1953588216669057 0.4550597134106771 -0.3293296867827512 0.2558547191652073 0.1745943584115376 0.1167759613548883 0.05658628878134736 
-0.02433088917883415 0.01872408499077240 -0.1421213936793352 -0.1807899179752328 -0.7235726970025467 0.3333101087575051 -0.1829322354421170 0.1716177570931712 0.03581094490893304 0.2447911528270558 
-0.9260635116190779 0.5083462723794666 0.9664203915560381 0.6715348542653146 -0.6983742132982150 0.9840906791846490 -0.4484286185408529 0.2642798532344692 0.2727756234336497 0.1778978865391248 
1.180015256317357 -0.4228419113461984 -1.540981543331384 0.3549430824087163 -0.03846235737151780 -0.9205408166267123 0.4936978567451674 -0.7640023040971037 -0.3507695906015257 -0.4778543724245148 
-0.2464037035910403 -0.1675042392417780 0.4796358183506031 -0.1504842705462542 0.4457903265760899 -0.6617973697048178 -0.6837220778926391 -0.2072942994043292 -0.06188600880593025 -0.08089330370248167 
0.8083156380439973 0.2099714790477382 -0.3630453879974819 0.1331397100228763 0.05436536383165753 -0.3562031282653359 -1.203489832299515 -0.2022038665207854 -0.05146159746271675 -0.6183010833190713 
0.1940670048785968 0.4426741286670004 -0.5221679406328433 0.5709224713506681 0.6504249797357670 0.4155033263302205 0.5528460845279183 0.6926185803450353 0.08479639425353240 0.1602958096070425 
0.9188887165204703 0.07636281640445935 0.06291578610728904 0.1391549076405768 0.4082662219353255 -0.08459110752092683 -0.2684310766715162 -0.03804582593525247 0.2032335511072342 0.1092286554151673 
-0.5130234294705626 -0.2092410415280812 -0.2770909236858996 -0.7088164702879003 0.1098986921744029 0.1982119763373949 -0.1218850102249536 -1.086314396188413 -0.2245678503625892 -0.6784929529457099 
1.189207778297802 -0.03314351718923270 -0.5146671252564375 -1.031465063994189 0.1547027528015708 -0.3982791424192173 0.6749703783417192 -0.3859148308390931 -0.2986802514955084 -0.3602607373796447 
-0.5851515603672407 -0.6704441553071829 0.7272621438070155 -0.1703212886025459 -0.1638826190780684 -0.7524188409428775 -0.1380527197263931 -0.4621557734852120 -0.1252270539988115 -0.9107888782224836 
0.4179192950450683 0.3743258452848276 -0.002637029281636556 -0.01305682141838794 0.2182592682919096 0.2895085407481622 0.3292885306338271 0.9402895097144313 0.2231726419213992 0.2718283226709276 
-0.4192982268418836 0.04745403124166620 -1.196139739190295 1.343705219713220 -0.1864649375380854 0.1114513361589543 -0.05015869380175909 -0.2434987325323627 0.1675196161247912 0.1507717144846783 
0.2428174036069372 -0.6687564311437255 0.3481341981514863 -0.5223864401858485 -0.3133159726859353 -1.052308865023835 -0.5616191140598128 -0.9599858177522675 -0.6893170029984673 -0.7653046924213593 
0.9721960219245211 0.09189134092877461 -0.4730412021386758 -0.03406189534362835 -0.08352912964602907 0.2401225069982523 0.1946906851475769 -0.05737767914908915 -0.4121568862524602 -0.3104107865948308 
-0.1062433707127561 0.9425136530376456 0.5374093296337197 0.3355310585971877 0.9466883545634274 0.05620386537602786 0.2179712680864151 0.3811461802611804 0.7144771593526071 0.7655285682569021 
0.2236783975329927 0.2247024189689221 0.9686009321495713 -0.2841346251203167 -0.2857253404511005 0.3017736437601606 -0.1557932948762191 0.7573610634943743 0.3630955425707608 0.4736486029698862 
0.1785885075308740 -0.4355188355193762 0.1647733794829087 0.08330172082317344 -0.4656952535109240 0.07797690924472427 -0.04109881434069373 0.07152286935832607 0.1412564424207881 -0.4809417591634291 
-1.892991373537930 0.1665222768717587 0.3101344571345660 -0.3470608271836296 0.02891335889394756 0.6087919079918185 0.3941110283562394 0.1511897653026268 -0.1451999006369374 0.1779371900328957 
-0.1180183063968713 0.03668333400011991 -0.5570428150596879 1.272011534757747 -0.1554386507081616 0.09632636048431260 -0.2046417720578843 0.3657346267349695 0.2552483110971957 0.3520763767667682 
-0.5240243983264563 0.7767579619461916 0.2948433119292950 0.2530120579241343 -0.2251546798319856 -0.4423223370159157 -0.8566059300529266 0.1167533262453352 -0.1534503790432427 -0.1651911446666882 
0.09361248988383038 -0.6519664108582838 1.147521403824207 -1.065493366971676 -0.1960907130673396 -0.7131480146453670 -0.08314819975936952 -0.7133960930864851 -1.078765623520799 -0.8124068136620614 
0.2008888423379300 0.9324189146555266 -0.5429354091924099 -0.3150734888594424 -0.2121840828884015 0.8590947418734746 0.3832776260032385 0.7631654391829754 0.6151738514927991 0.5706327542618373 
-0.02020998205146777 0.1900387581361129 -0.4213746075795670 -0.2286668109918085 -0.1250133340853142 -0.1911302641511420 0.9887183681104028 -0.2049347476934958 0.4335943873633587 0.1464730739266604 
0.2745202384723769 -0.02851330591126890 -0.8643344332860162 0.5652053125705566 -0.4679829871730813 -0.2055550408897401 0.2575282380763218 -0.3508850356820474 -0.2581525221394647 -0.2022594785263595 
0.1382545682041175 -0.2407085477411802 -0.8863685909666811 0.08117166406866323 0.4815436016537080 -0.7028586745162251 -0.5073877870054030 0.01799002612202038 -0.4369197789414886 -0.2986332244314981 
-0.9292433288550643 -0.2301216487452906 0.8070009024474036 0.4672846302223119 -0.6912746340760222 0.6895178718019579 0.2271958824712645 -0.1416096354934235 0.3291951701237491 0.1927805515793694 
-0.6531757049079650 -0.3536286400507133 0.4428468714455663 0.3721328008545765 -0.4563458370781630 -0.4009084961937616 -0.7064778460147577 -0.1117903055374702 -0.2575788662322616 -0.2106767102287158 
-0.1640101336549534 0.1800263944220364 0.2693923697219955 -0.01388621729674738 0.4873332908458328 0.2007554006445732 0.1158122154224992 -0.04001168762145188 0.2762318592029075 -0.005656434571050833 
-0.3799923779868273 -0.2511409436478618 -0.3508773822640591 0.06236296707943596 0.1581471445403383 -0.04785815159125487 -0.3660671133992698 -0.1775408120919761 0.07373319190679774 -0.08640584796012396 
0.6285036710104176 -0.3148769773108350 -0.1356778873585322 -0.4281773048804451 0.09321259468827722 -1.564737341363655 -0.1822606067357503 -0.3453928283372447 -0.6251636380460064 -0.1825820127265842 
0.08484253956337512 -1.218707192330827 -0.1946722485745771 0.04619850355066610 0.03031467312000376 -0.5690036022517412 -0.5965829879288506 -0.7088285100204728 -0.5674540194952100 -0.3584317290129055 
0.6601775782679765 0.3786800706066407 0.1802509507621977 0.4407952346900119 0.5266498018024310 -0.7908362499606936 -0.4497129988194868 -0.1513881770462126 -0.08079556535002770 0.1055671936189291 
-0.04398897527141850 -0.3033897326466425 -0.3316852999298351 -0.1682860665988075 -0.6461701913475093 -0.4743678923992170 -0.04792561397577859 -0.5344222678842878 -0.4260425839464901 -0.3911464875524444 
0.3175691561514775 0.7389821225423754 -0.5500172929055274 0.9033484069224834 1.298831377881219 0.8109985094108180 -0.5221239063612595 0.3656808465707768 1.311949024863711 0.4551395122032144 
0.2118000287498944 -0.6412107247412162 0.1557944810846397 -1.375125414292467 -0.1430016099771993 -0.3528113865318717 -1.406788104850068 -1.044702664497373 -0.6055080033086462 -0.9766734672680254 
-0.3195758927951582 0.4389126279031322 0.8706574941440304 -0.4852945258184840 0.6539294476448203 -0.09011821887864738 -0.01904121677562063 0.1898946479744540 0.4582426096201072 0.06922315084634924 
0.08284133115916524 -0.5318701796447024 0.05981621139055180 -0.3256875169536767 -0.4161220029769908 0.03843430316780602 -0.2820454241095798 -0.2813496967140601 0.01276000410464514 0.5142770059954385 
-0.2046295647193944 -0.2611347169856335 -0.1887983434274055 0.4430375946308858 -0.02819892288564345 -0.5585665642304568 1.469138949341700 -0.5840865526169394 0.07956438499163053 -0.002247036603263545 
-0.3596351867460836 0.02808744258063729 0.8168236810562673 -0.4662829959526585 0.6212469905087179 -0.04281617899566787 1.343164058092602 0.3753544539578269 0.03480472495592109 0.3806378329054427 
0.1684231302542634 0.6886295852375294 0.1508222650316757 0.7597334983450617 0.2318199199335861 0.3935825406785808 1.154240717940554 1.029673257176689 0.4089049849987841 0.6122744777127679 
-0.7137241111246393 -0.4418223297094504 0.1279567424124156 -0.01363935657194544 -0.3451721187924252 0.2321124957236113 0.3167091846190194 -0.5610041017587941 -0.2195394720409556 0.03841317149488637 
-0.2905719034873084 -0.2561111464835932 -0.1802164456658588 0.2684878635249511 -0.3560533186265821 0.3137271833512008 -0.6838719226254550 -0.1158961278384567 -0.4005332115677642 -0.8186412429126638 
0.02826650555048480 -0.1452705549614491 -0.1051168325040695 -0.1589246258478214 0.6265257905333274 -0.03349730921714358 0.7814196212962281 0.1756268920051845 0.2854741737748058 0.2110009787952865 
-0.6209789985381741 0.01796408351772504 0.5801449345831810 0.2060807526375212 -0.09246776901519309 -0.8142494696865340 0.08502151265243820 0.09975424655422682 0.07482946388278953 -0.1903852434020435 
0.1997272613978435 -0.5060017915505576 -0.3539633534306736 -0.6086275523838713 0.1732155683448112 1.283645160832079 -0.9546016217095183 -0.1961301239057575 -0.8307275979899347 -0.8008096615726711 
0.6419286594455678 0.9888687246287979 -0.3636687913136422 0.3961138648654426 0.3235411830878753 0.3008641987662267 0.6083174018533676 0.3287962849357681 0.4498038748607047 0.7018748428610730 
0.6188032036228853 -0.05829243197905872 -0.3271622433345002 -0.2392171841250417 0.4857905765980432 -0.9026615930566955 -0.3728375541355448 0.1770205112722416 0.4247459692683009 -0.08618015179491643 
0.1321930906999855 -0.3191655959150572 -0.5364737243205823 -0.3824624620655974 0.3970779620859920 0.4418409663142490 -0.7060951147244180 -0.2592644490898895 -0.3256036698957467 -0.2347039063909798 
0.3715182244645931 -0.1235890627788748 -0.3300094300581666 0.1947796760422871 0.1182115656505087 0.3684320588744079 -0.1466013723783250 -0.1496470913943625 0.2973379110765455 0.09259689390610987 
0.7554136840555314 -0.3085937229775455 -0.3626537005465670 -0.4454407647842771 -0.6682529128939882 -0.8866782433406846 0.2723878690282010 -0.3864914868369792 -0.2777118130304151 -0.09356453148540060 
1.443221270988166 -0.8635663994327704 -0.1299061342117317 -0.1143739787361852 -0.4301157411109549 -1.332256915098559 -0.7907871209851884 -0.8390734654661492 -0.8312954161905834 -0.8696539192381711 
0.5468987137003049 -0.02624697620050576 -0.04046658030341881 0.08329726815393051 0.6829036033645356 -0.07376047628584807 -1.018423031042423 0.4721406834997512 -0.2048258650119262 0.5352775397438879 
-1.120254042331298 -0.2658500112259691 -0.6111997759861740 1.145833104252842 -0.8660973303915513 0.4930918652372902 -0.7689112295414845 -0.2076982618605554 -0.4094697006098262 -0.5463051016545655 
-0.01604648055421695 0.04937637178127968 0.05195060630370359 0.4816823803877435 -0.3467039000151501 0.3429442328106234 0.07025003287276720 0.2512381820409576 0.1909981638878340 0.4957033832890077 
0.2688052006036404 0.2703253169279464 0.08472135549787191 0.2652441871839835 -0.06276835602791642 0.4707820543774903 -0.2322305926735926 0.05536766506568693 0.2260939498888577 0.4577213590922922 
-1.108602234115666 -0.1439682480722289 0.09566176054584599 -0.1511430740261289 0.4943526679009045 1.649629167118316 -0.2107857952564238 0.5236302537153570 0.3482395414389428 0.5738540189031353 
-1.116611286256633 -0.1576754265845800 -0.02466939947329172 0.8796586733297863 0.3592490662762889 0.6307503205943059 0.06790209457879522 0.5684320396413768 0.7014314158361209 0.2470681776156324 
0.03269287191659383 0.2403777796315672 -0.08857230187575427 -0.5510277141935100 -0.2256963404834647 0.6204743211096530 -0.9920089794057984 -0.1593122935279803 0.1788531135667072 -0.2500252064690486 
-1.006775109909596 -0.2041073042150535 -0.2523727205113985 0.4199110154059602 0.03200463984407298 0.4204370449010561 0.6419796761594679 -0.3706731885037588 0.06955196233921122 0.2435597413341969 
-0.8100748234952017 -0.5944422283390280 -0.02356886919758717 -0.2249174986364613 -1.121763365325342 0.1493153754550327 0.6031262418352739 -0.1961918250744259 -0.7888790807094027 -0.5505713640927036 
-0.7823929061270833 0.2140607079532340 1.186202763327521 -1.350505796596428 -0.2715120460745271 -0.4141438336699380 0.2009452391699230 -0.7988691229743763 -0.2211143508909541 -0.3377758808679251 
-0.2672687990328180 -1.055345086508467 -1.319665130880761 -1.047224683506158 -0.1528572176257723 0.7199586050586986 -0.9030057284566501 -1.115080608791069 -1.120022838252430 -0.6872622815626979 
-1.135531821918846 0.07690260601220100 1.472720178123244 0.4006809380441140 -0.5929937351369810 1.008680668988806 -0.3468011505546854 0.09469336677036833 0.2401903637493564 -0.1761508679712932 
-0.6246304308036601 0.4840201906330151 -0.2318617785336956 0.3002204170518633 0.5277392177702487 1.044233978419846 0.5278587312008997 0.4063829468971190 0.1815279699056610 -0.2551372769435075 
0.1401501263167733 0.6234364024880685 0.5370678439647180 0.7154263650762288 0.4348000424130128 -0.05106616099382258 0.3810037550405442 0.3017442890384484 0.6302086646172498 0.4464575126225973 
-1.244544343247189 0.03964427365769963 0.04000761890618153 0.5384665134356522 -0.5372492785041703 0.5265847255461399 0.9367265681910292 0.2173584371855273 -0.1717144486029669 0.4613354994244752 
1.343181144999097 -0.5184158427052974 -1.490033934679547 0.6473328941774102 -0.8013742481745199 0.2334806063359694 -0.9737408118364070 -0.2956289539613019 0.04960657619445776 -0.5786482182712417 
-0.5080588548291428 -0.4339833140825537 -0.8305415612072268 -0.2850447120860767 0.2062853279963882 -0.5991594744006943 -0.007319621049817228 -0.1254009930870588 -0.6257242238431713 0.1803679568656214 
0.1274294387379528 -0.1969505705577473 -0.1289372671374846 -0.2147067446080660 -0.1962172117892262 -0.2074652587791644 -0.5547910200566152 -0.2723127986417792 -0.7109059046199145 0.06552226559823375 
1.232268778466380 0.9849956760052067 -0.2151670277586733 -0.1885507495585933 0.3929303046394925 0.1947961825377059 -0.09072720649227228 0.4910343000863396 0.1312278909724169 0.1969588861952026 
-0.9263325645473545 -0.7458088035673450 0.4313915729412710 -0.09919765665983289 -0.1490544595617399 -0.7273951713866654 0.3676890953626242 -0.5546462464742472 -0.4985139645865601 -0.9421075174160459 
0.7345906377213832 0.3056600188638208 -0.9305544068120166 0.8738615970733090 -0.3131674729797209 0.07378221406329145 0.9385607029949232 0.4580726081798203 0.8059281569688796 0.5901798814356549 
0.6343190343383039 0.6808896498984589 -0.6670914783866960 0.4572643598760570 0.9578789750349515 1.573679600406355 0.04135977127738728 1.153144214484877 0.6169876765466463 0.4900647597565138 
0.7365349280553496 0.2205429608853834 -0.9567145345484417 0.7617238963425097 -0.09855221995806820 0.03896427147581370 0.2939737043771105 0.01158308221022546 -0.1828057847978182 0.08742251652590888 
0.5849363778272300 0.4796634549835159 0.4208320537172875 0.003958671792369584 0.09935095473412190 -0.4716976160559817 0.2091618020331451 0.1957410142414075 0.7407172999145839 0.2471383890892942 
0.3470184922620367 0.1470869579146460 -0.1861157595647639 -0.7894363017075292 -0.6087504962848740 -0.8494956022053220 -0.3773664084666012 0.3316985281414175 -0.4101519400652072 0.02637308426276921 
0.3052436087636109 0.3071657584492235 1.329791888785531 -1.062822366132045 0.1199712440939312 0.09890868856930632 0.1012810773287959 0.2352439632619169 0.8013166268834739 0.4315902597407859 
-0.4187196322671026 -0.3565466376668380 0.1050825649842239 -0.8414260648219100 -0.02898075733332713 -0.6674865681809843 1.564124355165919 -0.7656212027225714 -0.07528745469063322 -0.04317924291108823 
0.5317712062544007 0.4167423594850436 0.1634487706774328 -0.4900452561958993 0.1411483267078547 -0.3263030767149231 -0.3401886106863767 0.2498655947841449 -0.2194161971600983 -0.2250601765495255 
-0.03286398528477132 0.04757895851477470 -1.153686717363942 0.01247906406011497 -0.9360081754263474 0.2640895655261313 0.2578921848613943 -0.06266392505982639 -0.4558806495276225 -0.6284978387270808 
-0.2858947893745636 -0.2836457760072261 -0.9275749985476259 0.7238023408424353 -0.1434063120726954 -0.4542179984535820 0.6587993924802055 -0.01240352964025071 -0.8135747113755604 -0.2911463595958326 
-0.09692166187643432 0.1224747427642203 0.3561796534053552 0.1641810110908155 0.05704777288008672 0.02134078438052502 0.02626276113411107 0.03105682834514111 0.4363943159977030 0.4166965522201845 
0.8379573638954744 0.1625343418800945 0.1058541911282057 0.2057248131881859 0.9646957187375231 0.8867477422770340 -0.1447567091577024 0.3597303487501346 0.1919651205981850 0.01304542540066981 
0.02002210585899390 -0.9382438073074104 -0.2298693492565451 -1.847026731327151 -0.2206705335747229 -0.7363055682069503 0.06084712484025782 -0.7168974401818121 -0.8876522869471805 -0.4939091498667695 
-0.6651458079450416 -0.1848041099985023 0.06238473362191849 -0.6167851693748143 0.1435050122589007 -0.3588533452601401 0.4257531556320996 -0.4781304823528107 -0.3735700878319087 -0.2645632110630862 
0.03553690384969795 0.4051034888859446 0.3009278924125760 0.04445738864654560 -0.3299289594538943 0.4457936990242387 -0.7070829759907655 -0.1535486248143895 -0.01203216494159471 0.1637660286915534 
-0.6445873032583290 0.6458775811265700 0.5500281082712937 0.8301055280026085 1.373357455384318 0.1291998871866990 -0.1579470742556728 0.6540752462703956 0.9977129618009595 0.2438044311813783 
0.05130106125625845 -0.05610872291905179 0.4240708229429802 -0.07618507933789632 0.02922492852436060 -0.5181529487691877 0.7547129100460908 -0.1411636978191463 0.2810122195289548 -0.1407561658988104 
0.6063586772935758 0.2569533369987371 0.03007136803530612 0.02651072093642982 0.06199985021232659 1.290549152945577 -0.1869640257834559 0.6164924715622794 0.4489236574327409 1.087945120852578 
-0.6187726915714896 -0.4172101854708076 -0.07476600549291460 -0.1176638213213924 0.5617455210786060 -0.01077586312285983 0.1257325587084790 0.06474709549938552 -0.2212364888085201 -0.04699579223690345 
-0.04364137893164714 0.006169126403193927 -0.2455866630894445 0.5302389486526783 -0.6434272180682956 0.9376251139734498 -0.1395260459484734 0.4887356433870311 0.09830967288968048 0.1194531311782994 
-0.4075072018411769 -0.2539672398243514 -0.1377902713314492 0.9446599987431895 -0.1006783934950500 0.3791117525429753 -0.9174352997027366 -0.02492906690237023 -0.2050680856400670 -0.2391852399035899 
-0.1671176586701039 0.4625775091434208 -0.9063946952651607 -0.3178658427911455 0.002390265363247914 0.2875962738858796 0.7662062998659396 -0.3456057415404440 0.05372993474905848 -0.4579327700090992 
-0.4964687040809183 0.4355650102617784 0.4963150789239463 0.1901865314890447 -0.2060355101028397 0.4503840501988632 0.6638198837006141 0.4550273706858199 0.6668644350780271 0.2561718075886068 
0.4169456186367122 -0.7508940362201342 -0.2140462524128365 0.2562645598073493 0.1841286445211324 -0.4569578599120137 -0.1500971025016836 -0.6605593060319086 -0.4475595931217536 -0.4582831681513607 
0.5313883695725042 0.3823083192655577 -0.9626342483018296 -0.03182170566030631 -0.005618015438372879 0.4397216544283440 -0.7028019875047811 -0.03088090093385987 0.1754503163523031 0.1323137666267182 
0.6044405278918352 0.2744461279447947 -0.06010102048409404 -0.1419521991931493 0.1771963123503952 -0.5597166520275474 -0.5143068376194575 -0.2062102085437727 0.2548458155862854 -0.2345725054551082 
-0.8260059584100596 -1.193486873892160 -0.4748770032600855 -0.8704759800464553 -0.08692038518951949 0.1546070935565843 0.3570415017738211 -0.7092803003170740 -0.4308561268136207 -0.8142572869192866 
-0.5716378950110856 -0.1224512569496527 0.6419744463579677 -0.3059372523485746 -0.4555796941928250 0.4726066504056999 0.2159596791372824 -0.2991007138960438 -0.04705686611025108 0.2383673602992260 
0.03524631316239903 -0.05017808423667817 -1.077766358509882 0.6514713717183034 0.4906825631955237 0.05901089364193407 -0.1164612219228365 0.1049075047562788 -0.1108477276831020 0.3513843670275671 
0.2350635326215157 0.2144753679463767 -0.3347714141155181 0.2964422830253301 0.6741823121864716 0.4613328125756704 -0.006958016685518504 0.2587056394308483 0.2415925971041209 0.5112522939387727 
1.322764728275494 0.8206147420038199 -0.5675431704142182 -0.8644459087897836 -0.1671534899801712 0.6403098461047705 -0.1866701399160617 -0.09499356928465368 0.7344841032381056 0.2910488535232122 
0.9598473603098238 -0.1022090365514449 -1.267789216543350 -0.7767480131691584 0.3194533496799667 0.02895801814490804 0.01467764387589521 -0.5592401889959832 -0.4059069764966072 -0.7145430168850279 
1.247236955406972 0.6132283717071034 -0.1124854466103970 -0.7515333175665850 0.6514731063873459 0.09733577234151201 1.112296472743416 0.9343326931894222 0.5201099311754364 1.122826866380837 
-0.5086983553884771 -1.196735910191509 -0.5416884477459513 -0.8692053967619667 -1.050037051834367 -0.5075854979152429 -1.118725227067247 -0.6732122184631859 -1.099359536064633 -0.04889804917723404 
-0.3578148600175951 -0.3401793543837591 -0.05265399981093402 0.2045345639484191 -0.5099806391303833 -0.5196781870628451 -0.05363793998061660 -0.5913967217766919 -0.5476603597545844 -0.8648405007349823 
0.6036084331290047 -0.4770243498117017 0.4232061634945812 0.6840520908174341 -1.033955396754604 0.8849458278414898 -0.2118328692448500 0.5123844616794279 -0.03807040087437404 0.002818082086853537 
-0.2906352653592491 0.1470342360522259 0.7369083226288229 0.05984045699962732 1.028905092330233 0.4333788165075003 0.4065750233573438 0.3670375618910342 0.8352253540150469 1.015921946488765 
0.5372650999982927 0.2595302439415218 -0.7756773615219381 0.1734997213311515 0.1703705104237187 0.2977842881086539 0.1062865733922327 -0.04263930175312022 -0.2247631054224744 -0.01603459190271746 
0.8602769790928990 -0.9805630703038588 -0.9897700179777794 -0.2630586155848219 -0.1219566900801400 -0.7093007928292038 -1.399222168917148 -0.9592178700116417 -0.9026093939874482 -0.7212016488211909 
0.4158474867618124 0.1347193941437720 0.4784458183737397 -0.1186162053131046 -0.1652731526341106 0.5464653415466187 0.9342992845046448 1.190683704115944 0.3431221098099402 1.023123939001162 
-0.5544202307277096 -0.5834370404619236 -0.1332946834314792 0.7894920926668713 -0.8273083996821459 -0.2640000912466955 -1.060866508873188 -0.6307662639548407 -1.373049810292679 -0.3210211200405410 
0.6696190024416511 -0.3532204116303995 -1.381746181342643 0.8667723423684107 0.2083284404996540 -1.230561941955013 0.3911486611351254 -0.2899611867870580 -0.1913348358308252 -0.2493051102580595 
-0.04369690758885322 -0.5390824392098179 -1.079688258441463 0.1299121490673926 -0.04256923451240795 -0.1975265584804546 0.7844519388284099 -0.6262062355591707 -0.5833354171412671 -0.3515062190482804 
-0.03733228993167904 0.08899513641359295 0.6990720289161817 -0.02637911809025531 0.4648992656184094 0.007820874905006152 -0.9563740703413856 0.2187416449006132 0.3949128144836289 0.2338898955402746 
0.1356454520195319 0.09669266426534737 0.6877895353332465 -0.8371426807688029 -0.03675167324361714 0.2450328881379388 0.5982334198641844 0.6405834642151749 0.2529584590060729 -0.1249750153660097 
0.9965391113919835 0.03064959630291965 -1.016659263531175 -0.2442637236021192 -0.2657892683859996 -0.1968703550545077 -0.9449417711143800 -0.3118767758456411 0.06650604042411346 -0.2653892165120194 
-0.6043609209220053 -1.067802824765853 -1.145834585297640 0.1315592073017776 0.3391127919950133 -0.3758819917388633 -0.1947395014542817 -0.3739809798230784 -0.6865922550732662 -0.2089945780730396 
0.6398068759730203 -0.01083374380243228 -1.123621824541320 -0.006979996745250062 -0.2070066558086093 0.1436464550816398 0.5466166266021616 -0.2670034535724732 -0.1022643354453146 -0.1131375997649588 
0.5481417258202492 -0.2411887646946440 -0.2462466827872222 -0.1597774403899794 -0.7313225886532136 0.2086669000186308 -0.0008367495757021389 -0.1392145061165784 -0.2667989817624682 0.1315097072958149 
-1.229494279903403 -0.1307189835542250 1.137596000514030 -1.137521319458323 -0.2274101368317159 -0.09850009582112380 0.4665495549286686 0.02593270147762440 -0.1659171591669090 0.6666109363254709 
0.1475839698110950 0.2976895234055771 0.2308026185435627 0.9681985412589618 0.7054794378370500 -0.5833769002488269 0.7557659425771608 0.2705373303075016 0.3583525402337291 0.5787248309119511 
-0.2215374386030014 0.2903456710113760 1.076897943588732 -0.08558857005434921 0.07873569466522964 0.3410482842720077 -0.4024387867066337 0.5285559202307004 0.4353155318856132 0.7552298195303364 
0.1880591076127528 -0.04816299451333587 -0.8241170928446389 -0.8219756102918738 -0.1917856953000894 0.5382541081166424 1.468107276717169 -0.1151629644929163 0.3982594960087146 -0.01074232132661097 
0.7304678296636299 0.1772203856177009 0.3308617028654164 -1.017607856720554 -0.4038276439664139 -0.5582182660948086 -0.2449934610437795 0.5141463313288369 0.4729164011148025 -0.1520669397798072 
0.2908767591370199 0.2203768072542998 -0.6614640900261072 1.261826837148130 0.2087978794285792 0.5193854193553202 0.2427994710636042 0.1611641001940519 -0.1314854998660867 -0.7019766512076466 
-0.3770589320684014 -0.5597872665281796 0.1320585269433094 -0.3837637245813853 -0.5041777017879457 0.03531822709848372 0.01204863298377605 -0.1032533038816274 -0.3032032275634199 0.1966218300130116 
0.5599882259250050 0.7179860216012992 0.09521450238398707 -0.06435505415821872 0.06903644844694642 0.5791332586547756 0.3277945926528571 0.7930827921778857 0.6482738368693709 0.5993066948027239 
-0.5362828521715921 0.4601313775643129 0.4482389754077976 -0.3327317019933041 1.059468642235794 0.2627364057840864 0.3063573815228688 0.3434754020635532 0.6577626803136662 0.7855362443284300 
-0.5227956948713866 -0.1024255560243808 0.2565968333635922 0.3797182083951323 -0.8643314819423029 1.169530009294914 0.3532995380520136 -0.03158856126727899 0.06508834329129419 -0.04155834431504784 
-0.9035049899783617 -0.5099350627943650 0.1391994284052406 -0.6944009155038712 0.7679995495836045 -0.1306812500603983 1.005308065764264 -0.2881693771675354 0.1649742781457433 -0.3177152276958781 
-0.6277939824152462 0.2684231346967000 0.2678717951995109 -0.1076734424701820 0.9120019280475304 -0.3924817569121872 0.5400099937003730 0.5468352200091613 -0.09524788755605486 -0.2052965594789720 
0.3820344071415615 -0.2204541506204042 -0.8275622069096878 -0.1965411260963820 -0.05996351642164249 0.4208647291541660 -0.7497102660169225 -0.4124668788312746 -0.02478038266393507 -1.228315708493142 
-0.6835785308989236 0.07882000100355525 0.9699560692086072 0.5456562898265174 0.2662715637865374 -0.5894311327040713 -0.2648989528286492 -0.1476748465790919 -0.2105677340138545 0.1801673821328494 
0.3828699447718064 -0.2491398545794892 -0.3436103038381301 -0.7030287000660997 0.4253520012462368 -1.281618975322091 0.1850671823357502 -0.1509330274375446 0.06438533494753439 -0.3519145430807266 
0.1870465452491952 -0.1431641478568612 -1.147688979924928 0.3735555440638690 -1.202422384906001 -0.2363856714516673 0.2038676798627979 -0.5966976827462300 -0.5687340058757725 -0.5559235374855909 
0.3938864670883979 0.01583409329364876 -0.01850077382479203 -0.2777607591508479 -1.344383041356389 -0.8841504957435059 -0.1249581124735445 -0.4815719164514254 -0.5309849062085935 -0.06480045688594854 
-0.1870032824215687 0.2383887168245224 0.7520735925112539 -0.001581404525471417 0.3807292253712857 -0.1459637272347489 -0.2131733467830875 0.2036904719257162 -0.1008796814100916 -0.04827818496557839 
-0.6616888724052843 -1.330282165455331 0.1018275437284672 -0.4764410759142906 -0.5737924760250003 0.1535425763389252 -0.5135880136840313 -1.061102704927056 -0.7076205286276840 -0.7882469084629921 
-0.3115061878218464 0.4697088966652619 0.1125107914664738 0.5175367630051643 0.5658194968388666 -0.1257879737860708 -0.2123590617722203 0.8454853428071574 0.3067297873232614 0.3837512178853317 
0.6725772819946756 0.1529179264963082 0.6675015720223257 -0.2396668378518223 0.2714657176474201 -0.2692235694255208 -0.6831254285554622 1.058623714968892 0.8138484155515621 0.8932855456434300 
0.1321879722721819 1.028248051168295 0.4841624901643623 0.8688268985837242 1.389198650998275 -0.009348528648180140 0.5383901886995841 0.8284874412288380 0.9881966842872444 1.068528704399781 
-0.5210758996249654 0.5584054255542511 0.7987497113766909 0.5206490390584174 0.5951178737822190 0.05087718381779842 1.099106676508810 0.4611483194994962 0.5783206208271130 0.9868068245502597 
0.3625119331509852 0.04171517858026908 -0.01072005024720644 -0.9120049854558665 0.5904620111591835 -0.3934324530886008 -0.6818096274724963 -0.3587503448130781 0.3064160596642331 -0.4469296358446312 
-0.05718724842434881 0.8357119580587469 0.003050170330013629 0.6133687658214616 -0.9090140865555836 0.9727458188771756 -0.3666210553657484 0.04473975039288870 0.2550611289100710 0.4039353891059794 
-0.5598988612408212 0.2936348643177901 -1.041683774842656 -0.2630950475762524 -0.1334255254083305 -0.7542696913614957 0.3449243630632477 -0.05838278387483298 -0.3160394439898223 -0.4270526132126292 
0.1154103969372552 -0.2831269488050666 -1.708652292153795 0.9547986150810749 0.8690458902912459 0.3623840793709514 -0.2539956685712965 0.08730102077821507 0.07842757404966118 -0.5090637488978368 
-0.9110348321040869 0.2629386718624061 0.4189111742703623 0.4141194341585875 -0.5319270965552151 -0.3115862550698835 0.7185520833477503 0.4245523702757428 0.1480919648218594 0.04696249255328128 
0.01308283078910042 -0.2419154398814268 -0.8225075911849741 0.3540770971637938 0.8822285565345281 -0.002377772026856205 0.001685250408255850 0.04078648937197681 0.1269784438617969 0.09238286094843036 
-0.4783231901301968 0.05815700242175104 0.1833813772672768 0.1913320731970966 -0.2060078743262338 0.5732275545694910 -0.3203928505078646 -0.09911459950432630 0.03073370167631422 0.2140594100379898 
-0.9354370657092900 0.1810957286399129 0.1880680432180992 0.9560891007711707 0.4570707688147545 0.2014957600560832 0.3929026094682193 -0.04914363868662602 -0.01416291938888927 -0.3851248846543834 
-0.7173611366631064 0.02233365970271027 -0.02901338250465113 -0.2483698668043675 -0.3733980285325485 0.3359060099277554 0.9102250480041938 -0.03132794109102769 -0.3142278344891564 -0.4524316917837593 
-0.04881193928121845 0.8742122628093245 0.5715667426474156 0.3210263320135134 1.254518715986497 -0.9606976399443558 0.6447250324702027 0.8221381382563650 0.9892522270430643 0.5308824110974623 
-0.2922902770029017 0.1478794535970169 1.179273641079977 1.449217423044750 0.04255144677340144 0.2754909340968249 0.3590157665296917 0.2113161420624889 0.1395913159815602 0.6211423122338777 
-0.6496093717292244 -0.4306632734317199 0.1800710746963282 -0.3582113628678365 -0.006322341234750199 1.276310893151314 -0.2053062540149748 -0.1367142190822074 0.03134610431968164 0.1198546689458658 
0.2832879530691299 0.6687920021627561 0.9285960748363900 -0.4239683737513840 0.5459575126891489 -0.3647667161153747 0.4929934184117854 0.2246868425454970 0.5909934238760836 0.3440828886902791 
0.6313566060922368 0.5719052351203975 0.7410149911236330 0.1238063164777140 0.05254486662057799 -0.2501007282850314 -0.8358516560601581 0.8619307452744123 0.4217354722458879 -0.2227316879297539 
-1.544448589905420 -1.026884056317482 0.2508568461247835 -0.6615937141523942 -0.1406173861314309 0.6259308667463767 0.2265809159413238 -0.1649957507586824 -0.4749815026290961 -0.5700691500332137 
-0.1356779938410160 0.1090142399204400 0.6221147954368635 0.2128404493493229 -0.02459026643193873 0.1838013678073560 0.4002086196071932 0.3703331989949211 0.7438141087693609 1.092438512554729 
-0.6808720033468278 0.7283602428909145 0.4710479284017065 1.947212523328493 0.5913573354664398 0.8685651825295683 -1.455814878695940 0.4433374487299703 0.5839252211966026 0.2615200262106396 
-0.7796856267490516 0.09727063371634449 0.9460399148306570 -0.8684720257698999 0.1719158644579384 1.287086106488364 0.2564678312311667 0.02870284062642042 0.2489035080715038 0.006727071634486053 
0.3186692095858065 0.01508741980292275 -0.4049353379577064 -1.391239896339369 0.9053441332863952 0.5191755058238373 0.3310854289282730 -0.4271375338671215 0.01582085753168422 -0.5283075891368395 
-0.2355378544826544 0.4695343935460047 0.2739158750135040 0.1103287779813803 -0.08523779806600268 0.6445548873296050 0.4503830009227947 0.3166380834130539 0.1271803655229024 0.5305322312047627 
-0.1289289935364747 -0.6014888312723549 0.1739622482216196 -0.4270337667118185 0.2990278126098163 -0.7249897875363682 -1.383277868669286 -1.194010742022178 -0.2767596373372611 -0.3755902701299939 
0.1879481585393643 0.5583682988663053 0.3056461708136531 -0.9826619791998141 1.258313336408270 -0.1022889700684905 -0.4890434456190871 -0.02365428947420837 0.8149080905962145 0.1969641455935756 
-0.3298249117483444 -0.3511401314869287 0.05747182486203877 -0.2811748231200822 -0.4084219768656742 0.2681477294728445 -0.3494154300912805 0.2083246241852619 -0.3591807595842403 0.07177024053290810 
0.4640829983344720 0.3166635865747413 0.4612906395216103 0.1312920914878815 -0.1268942135512110 -0.4337108697319844 -0.7995223716025535 -0.4149956428358180 0.07347621490088016 0.07568091484712264 
1.278627832067634 -0.03923322885795692 -1.388334565018651 0.02572321590029329 0.2300397404142290 1.107184332339852 0.1222420090346336 -0.05214220467690291 0.2217705940111390 -0.08006252320548501 
0.9796769653242549 -0.4331503730933894 -1.401763791140985 -0.3676024642720865 -1.271629744946064 -0.4080099305428415 -0.04678761078434888 -0.8321379538775872 -0.7462139162791445 -0.4711842212190152 
-0.4911965964297571 -0.5553220748782340 0.8954449306983112 -0.1966058109274231 -1.237689782556120 0.1245915867693196 0.6747097887838568 -0.4727727993690732 -0.5515612591644153 0.3112174373577827 
0.6348121765377519 0.9165835815348016 -0.03112841303707810 -0.05734646155564176 1.078349469084608 0.3599243866858506 1.108756999447950 0.7634861434608040 0.8148154017754495 0.9786580205030436 
-1.358706055692615 0.6467476091926283 1.206020002880595 1.577067578497399 0.6196736150311537 -0.4743681348491501 0.9080602449084304 0.3708333404635485 0.2061668735368175 0.7015551238991925 
-0.5581846349950005 -0.7627316166336542 -0.2385277575173339 -0.7636297688652406 0.1771367615741459 0.3715848320520865 -0.1028258034899764 -0.4458124513132896 -0.1708043370009812 -1.368464607336369 
0.5455603900345707 -0.6969772070042597 -0.2340433357808553 -0.04566567482483212 -0.5109111343855752 0.3407799224875314 -0.4078841973540368 -0.3746889803513956 -0.8435502643544898 -0.8308607724704501 
1.153842419316877 -0.08686185321063772 -0.5847798309175287 -1.067787813588080 -0.04915845827176454 -0.1908158068136461 0.2690630094865596 -0.1957455627411893 -0.1329934390695094 -0.05115031066951169 
-0.9456218147595523 -0.7373623811416129 -0.04157082923943132 -1.014835504810076 -0.3382318808412279 0.2623057371827265 -0.6251596115425163 -0.4547168422327355 -0.5282350451375173 -0.2547581747462632 
-0.6697242540075595 -0.1148930544740123 0.8480848981193474 0.02303387983754475 -0.7398894363937110 -0.8415193153452103 -0.02725617446935451 0.007279139443971676 -0.6024736797024203 -0.5261793816257959 
0.5167872618823447 0.1234216110354595 -1.003296031490277 -0.6827702538723032 -0.2216655600874365 1.221120989668523 1.432813250417647 0.4761237554018007 0.6098542062215885 0.3335925511802166 
-0.8480114596348227 -0.4505067941989736 0.8304950704770386 0.8385200729297763 -0.9826374287718906 -0.4295161039810046 0.2763461663391770 0.5705105904463841 -0.3436395254253006 0.08630377149848789 
-0.6226345838026054 -0.4891392950248951 -0.4743628861860949 1.154000724575808 -0.3770936515659920 0.5255888055085945 -0.4167164850843211 -0.6993546584732933 -0.5603456016336559 -0.3297211513164872 
1.563360091076688 0.2534992809001526 -1.520809891224582 -0.07566291266839273 0.4956719962256473 -0.4151189877525257 -0.2842596506258780 -0.2583954754601501 -0.2157325965425332 -0.1279567487988879 
-0.04615831411199631 0.9045234816453097 -0.3022182057856929 -0.2342201112060497 1.061307873515080 0.1910177750834102 -0.4586697814126697 0.8055731168508294 1.012624351601603 0.05663863870774995 
0.02951306671856202 0.6770024189579156 0.04788488634987079 0.8915297874195762 0.3026488874333084 0.8739378791035807 0.3852524306190781 1.211280158720796 0.9687199823824749 0.7741497859831479 
0.2106686679592831 -0.5438754126956464 -0.6704516368258269 -1.187344570884412 -1.108350236438274 1.304501858900133 0.01935362282686410 -0.9810736489660329 -0.4943100794972849 -0.9108889363014230 
0.06647166787692504 -0.6857444529071488 0.7602714186570879 -1.080144837025044 -0.03650336244046293 0.3144243794206718 0.2178221520302156 0.1437651179558902 0.02624979143821811 -0.3328884953675059 
-0.9291304525801280 -0.9970861843757716 0.3582980482167492 -0.7772339066817046 0.3648627592107233 -0.1783846624546489 -0.1675303002322099 -0.1732836206165214 0.1851747105240175 -0.04204978849633580 
-0.1082615038113044 -1.048152922211485 -0.09397272940190997 0.3217773236334744 -0.6550612598768880 -0.4779384050193516 -0.06172917777169122 -1.358345449511239 -1.095333256933307 -1.251846468066433 
1.039485745668002 0.2754165811636752 -0.2586461478023220 0.3494189134442071 -0.5336970336539908 0.6822186368463918 -0.2269737875594714 0.2582891323325878 0.5025874126447858 0.6390635974538583 
0.6497864663499459 0.07031521148166520 -0.04104264516648975 -0.1197529177229134 -0.2903550865113028 -0.6600016792370174 0.2034777406279160 -0.1027647831067832 -0.3175796133559827 -0.3050621145528756 
-1.776298240909793 -0.02675389940955798 1.549199851916522 0.6343533457306002 0.4483181963019922 -0.1940553763603796 -0.3162717849776096 0.3096051914964690 0.4886403427474477 0.2171868589423255 
-0.1744167011080918 0.01358574396254613 -0.1061165891076022 -0.5043855426276718 -0.4468979357861022 0.7950845324543530 0.1424617382244881 0.1063237527623860 -0.03284117422366453 -0.05344247001031305 
0.4319016654222239 0.2071484033429264 0.7557538566812073 0.5507488884187879 0.6001270969782650 0.1335286043636552 -1.183788662853852 0.9145696038884503 0.7687693076373862 0.5987201309522961 
0.4106122203328853 -0.2929200985534899 -0.8068314864548959 -1.584316350331625 0.9756982058528292 0.5115287528278301 -0.4603302535439074 -0.6264931253109159 -0.05765913981809308 -0.8672420212312972 
-0.1947929984244493 -0.8743363998313147 -0.6005939374171670 0.2449671680565022 -0.1979747922602720 0.3723317057789619 0.4507913775264857 -0.3779106533199294 -0.5335736212771434 -0.6771288403490922 
0.3705350160835920 -0.1855110330175187 0.2752408190977967 0.8408310601043644 0.7347250704184239 -1.063465880396391 -1.635543911524165 -0.2103603339639040 0.1069764866398484 -0.3640731200218682 
0.1358424069766424 0.5448894691967251 0.2750272940652210 -0.3281863195045470 0.01623145660462848 -0.2719789847680007 0.3397217310817453 0.4783246555441946 0.3043471280605226 -0.2042114882973845 
0.3667959537348723 0.03237865680007069 0.08215509105441743 -0.7316026526206053 0.4225334724513061 -0.6431008626028075 0.3079163498649217 0.02619943885594372 0.2220620409588642 -0.2081069807834051 
0.2306991414708543 0.5143090044607814 0.2921007442553168 0.09663732950762878 -0.4644084769161623 0.3603344127906009 0.2973875787992051 -0.2209804375383758 0.2050535281707526 0.1783923011696875 
-0.3993417024960644 -0.02970211315168210 0.1368702928761412 0.8640969433729889 -0.9467049097568846 -0.8630683309268686 0.1402418755306907 -0.3856479711750940 0.4131586720801134 -0.1994918293847933 
-0.7348674512464126 -0.2518247266916863 -0.1499956375282034 0.3835429757554443 0.2092312897166447 -0.1104613242231250 -0.3103780218542976 -0.1228255053385600 -0.8880733799842907 -0.4824627367146844 
0.3625561880813910 -0.4898798505245403 -0.4100074129790057 0.2467046265177708 -0.6677934689300903 -0.3070772301764811 0.03140565239463610 -0.1360943662780087 -1.036450409599703 -0.3673993938776151 
-0.4247367858858250 -0.4794972993735777 0.2359683259464141 0.4278228122332533 0.4407263615553305 1.221893377628078 0.9774278630450549 0.1053328355568633 0.2446475301225533 -0.1856172087885794 
-0.2745438021206152 -0.1693199375393119 -0.8394589721602421 1.037993000526207 0.08538939961409195 0.2564642777216233 0.5151745616680532 -0.3563709665793828 -0.04055737522405328 -0.1017947303453359 
0.3930940032868210 0.5049126587795083 0.08297316615754692 0.1522742487692981 0.3950732616327227 0.2360683525033647 -0.3556313703575714 0.5135674189208798 0.5883959160162735 0.3360572572515235 
-0.4478068366180373 0.1621069691392650 0.1354861079640589 0.09297387566879974 -0.6024385116987206 0.4400645295837138 -0.4906014044565431 -0.4780832782680004 0.04223757123089261 -0.5630110424197524 
-0.2735792309355206 0.08483517495399384 -0.1517599049742925 -0.002419889259421477 0.4400730714514640 0.1969295422955404 0.3718855422754382 -0.08262643106924102 0.3073725571760461 -0.1044353699929754 
-0.1813718513767990 0.02164783850146070 0.5272639189927012 0.4013255329320294 0.5573776147697046 0.1143276912646003 -1.156940816712064 -0.1829594991525298 -0.2010313024233155 0.5919529198271113 
-0.1135216052793678 -0.3906349892962323 0.2795598445503351 -0.6107689061640467 -0.03361202666604628 -0.8314081560346152 0.2848675726626136 0.6590343544814888 -0.1761418049416504 0.4113457613701438 
0.7427354945297338 0.01092283637525109 0.008245551621631287 -0.02663162600817457 -0.2940771833899351 0.05737158025095680 -0.1413486259507762 0.1191010877600513 -0.5858231555399200 -0.2790254613155622 
0.4075284326216538 -0.1250044249130368 0.3888133813440875 -0.3641418310703111 0.1705075263191234 0.8239913997013011 -0.4523912433563805 -0.3616119986563554 0.06907099016902676 -0.1125467753708632 
-0.2365850723870187 -0.4648319720651989 0.8345754351222879 -0.4731931599322864 -0.5727885315825368 -0.5994912501711214 -0.4050426387159392 -0.2818033881843157 -0.2084534536934602 0.2106101507814412 
0.7574653548615922 0.04184666665634419 0.3167428639859587 -0.4892628557507468 -0.8409359120000652 0.1041736117648122 -0.4666243140636329 0.1279106918366604 0.4609448260633140 0.09693364499959221 
0.3595494770689935 -0.7718924751482310 0.2289057684043469 -0.01547973382593046 -0.7730327541381985 -0.6016137572278862 0.7133775960416036 -0.4563363069400249 -0.5283687698442471 0.1886216091443476 
-1.413423775087543 -0.01764401427573455 0.6993262187911528 0.8304462666846306 -0.5131999660980687 0.01739461535789196 0.06128478632263350 0.2191709411725270 0.08417810679425450 -0.5209587484778884 
-0.3443949996314709 -0.8713279491059301 -0.8943072667282251 -1.332616633094423 -0.1712537775333228 -1.098141207726869 -0.1630327119079685 -0.9340714657826915 -1.261988684207815 -0.9445292440327818 
-0.7764096521528171 -0.6146563459946258 0.2661137993106202 0.09355733610767639 -0.5470219857508330 -0.02462024831895098 -0.4256076383709083 -0.2882077888391169 -0.5746240873363482 -1.028087874100979 
-0.3167785170926143 0.3378719383493190 -0.7541886942372000 0.05935158120264245 0.6600339485473785 0.7337589115511272 0.5147828560075549 0.2563154172723284 0.01486980913186294 0.5725434091245333 
-0.1235146796470816 -0.8039523703957866 0.2782359326884596 0.4852435480809645 -0.8842177560559558 -0.5102081026940418 -0.5803859158345509 -0.6844080478321626 -1.258840201019740 -0.6979097196915846 
0.3389482655066583 0.02484030133594810 1.211232119901842 -0.5534911633922709 -0.4501360793356099 -0.1921458275803862 -1.258617800183554 0.02720502913679674 0.3707182763244936 0.9203745067942878 
-0.1585524545287824 0.1853353440931979 -0.3948551038142811 0.09589565917596574 -0.5365299417286519 -0.8706918386838636 0.7489329050655462 -0.5931956625145717 -0.3354942009856367 0.1649321609476393 
1.335732872039515 0.006842219636535553 -0.7786622639526435 -0.1475924796784278 -1.255681574363078 0.5261579434075524 -0.1709317256187819 0.1873784566422896 0.04865275861648694 0.1392009173525580 
0.8445926280801388 0.1512812754805608 0.4427301378013327 0.1467917813104119 -0.8249790358440388 0.2930151672306475 -0.3417383758841845 0.5532547919450143 0.02937239161111011 0.7161074025115080 
-0.3784878571208050 0.1324489347520573 1.252309063422626 0.4806522825599047 -0.07445849333585766 -0.9824170581079892 0.3326330247762042 0.2938611103116301 -0.3933291929136681 0.07529985041150537 
0.2577832451741751 0.6957246540268663 -0.3899839603615140 0.6123616482063495 1.156367127120282 0.7166686941204983 0.4174341879810071 0.1633422750982944 1.085118959782252 0.3951970695935070 
0.5972075096244578 -0.1565644253028958 -0.6927510393909654 0.5645785622005599 -0.4027773752982159 -0.4209101128534371 -0.3717290371788469 0.3987287535036814 -0.3098003518824165 -0.2777369618031743 
-1.092894042913029 -0.4371630452067035 -0.05337128453542198 0.4958830048783228 -0.2158244877688403 -0.1231217889842840 0.07468650921136194 -0.04631397639754167 -0.3653869761310523 -0.1101587320257179 
0.2664431720498151 0.4495825181769367 -1.172112940555354 -0.7788537072548293 -0.7386462642660827 0.2574136499136033 1.045094320010575 -0.2564807803239040 0.3431215103229118 -0.6468014280895477 
0.8407956813384471 0.2728592215658572 -0.06534955041981738 0.5519953753093301 -0.8527527611439689 0.9047327728470003 0.03019064994285620 -0.1912890512026243 0.5888772717201967 0.2603163072109834 
-0.1867372892044159 0.4662554965637332 0.08545001320650140 0.5252041569794537 0.7688210336332317 -0.2452003133904194 -0.6404770950859784 0.1693779202958689 0.05445265737371918 0.6345707281543749 
-0.4724856048529942 -0.005532130120619439 0.6127559531758064 -0.05724390228288757 0.2246295832859440 0.4408960920714523 0.1515573115041838 0.3702293275472623 0.02989485694914364 -0.05686522333872314 
-0.3959510901598221 0.3206172649960258 0.4902133829848658 0.6973468000745820 -0.05728237726179195 0.2417870643589072 0.7600761655730455 0.5706975908957983 -0.3006776224817838 0.07932515176480560 
-0.01505890124598491 0.05970739425628209 0.1300320600007975 0.5323929712842596 -0.2003856152261436 -0.2030010218223126 0.01236065835009928 0.4488315793041699 0.07470437420061199 0.02999903469798421 
0.06467899826810823 -0.06201049218965110 -0.4804102576117181 -0.04899772524099999 0.3719651663514303 -0.1863085720438410 -0.5023605692777955 0.04016329618489090 -0.1206875000274296 -0.4017571331330996 
0.04135634028982158 -0.6898476808888402 0.1593995859177178 -0.1139898784879527 -0.07651771872255536 0.2746046114891254 -0.4050287023738873 -0.4380796735276590 -0.3439784358090900 -0.4456045099659707 
1.441871142991002 0.9147218966395250 -1.112093451964143 -0.2854459182410856 0.01717557402194569 0.6154064415901970 0.2416521032394173 0.4008150672125362 0.8052329175236325 0.5717575981348986 
0.05828813696672620 -0.7294222458310516 -0.2545328459204340 -0.4890236822894031 -0.7136463516252585 -0.06089574419565421 -0.7367992714447319 -0.3880528133412696 -0.3669502717240412 -0.6104782690773763 
0.8350471595036520 -0.01774868898507075 -1.529150765950786 -0.7095905979914221 0.01409275471135875 0.2521561396307294 0.2185252310516212 -0.8765391625524503 0.1480150085009286 -0.09638272902219666 
-0.01550007432710490 -0.2821639347398779 0.3903042121723652 0.4396946416820778 0.3213296372868466 -0.09552008599049770 -0.2610432364298190 0.5477239442230162 0.1058543032417858 0.5917943450746238 
0.3664780634632693 0.3847945675017438 -0.4074869650916947 -0.4710464475490105 0.1301396802936757 0.3819660186859819 1.529907490942163 0.9802301213970195 0.1060741334726974 0.7523562105764514 
0.6791342160803557 0.1404127507985557 -0.06503793839693632 -0.8263454800046974 -0.5331599936612059 0.1681669442074484 -0.2376453225996941 -0.1052874818710100 0.4453006909805360 -0.5995244583199323 
-0.8208858197457942 -0.2261338352345061 -0.3049333424835959 0.3971527709372282 -0.1487464887995443 0.2139628623075652 -0.2823464999448852 -0.4535892749736408 0.05268426154546522 -0.5559530215809737 
0.4255482559759553 -0.6492577001591718 -0.5993147302659839 -1.246365803735333 -0.6211830979743883 1.710635556815854 -0.3331118843876068 -0.1520017593993230 -0.1422893554456912 -0.4371440006178234 
-1.021626979478524 1.151948796006744 0.3424636042278355 1.095928635526174 1.505591419231743 0.07935432487306533 0.2314949795933858 0.4275218709400188 0.4813734625775673 0.1180357197837726 
-1.231676480037008 0.7835399898377072 0.6611774788478840 1.425325554290776 -0.07085091394652333 0.005848866051263326 -0.02205204198804442 0.9933787197444645 0.4867839980200063 1.065270592286195 
0.5386658243047424 -0.1877768052066625 0.6308186150705749 0.5409915273223336 0.2531039396717993 -0.4133070327524934 -0.7733314404908517 -0.1769475111018173 0.3023117221456643 0.05397831864422006 
-0.5663557694367527 0.7115678492381801 0.2919070313115239 0.7925074203911932 0.4382980866069551 -0.3616177905007614 0.4073917722689544 -0.03473075165413548 0.3495204890822954 0.06725735632860813 
0.04653624058408131 -1.297982925862442 -0.9900662465829264 -0.009984590748968604 -0.7826761728017205 -0.7312530158388351 -0.5297592915723016 -0.3988122024483326 -0.8335444565967947 -0.9712956820021516 
-0.1437658399417011 -0.4132896308140277 0.6383868998676133 -0.09331314583910513 0.3359041422890006 0.2244367840574312 -0.3391463739991788 0.1182177965653850 -0.5917851772428556 -0.02834640833654420 
0.3119438103792371 0.4775219791463997 -1.175375239380996 0.3694823759561677 -0.03931494649821077 0.5570219534068042 0.6550963335418175 -0.6926711433977980 0.1891293279390584 0.5002811694171418 
1.139155193705761 -0.9377296868404269 -0.4874659589858281 -0.2822310490953095 0.1905085078665662 -1.002690880010077 -0.9731036512379778 -0.6299632697066324 -0.3894687428925507 -0.5201410900168902 
-0.2789651868575911 -0.2108300479752135 -0.4635592609012481 -0.03287405316242700 -0.3517058640803824 -0.3125909437418558 1.130141536912380 0.1898246122102298 -0.09470807477659861 -0.1204269489280915 
0.05821579515737846 0.07405811679699777 0.4427197495814960 -0.5798895828544357 0.03448009452554511 1.125468457440986 0.5485667834811843 -0.3186738059535887 0.1679298075021551 0.3446691417593315 
1.319138273208111 0.5900491086145614 -0.5925977572083306 0.6615079629601232 0.1672019024932128 -0.1512145850630570 0.05251289963964601 0.3027975483804556 -0.01427465054453222 0.6652225888563688 
-0.3324512271534256 0.03662722125601284 -5.159784350493405e-06 0.6071640071754996 0.2192650757750022 1.036062896526144 -0.01469315480489884 0.1052481599836795 -0.01455467038580581 0.5404185684499248 
-0.5763420704839086 -0.08138741671034011 1.430562945839903 0.6285900076366366 0.7532173183915362 0.1478916986916838 -0.7003923475675894 0.3867130120005747 0.1739104303646070 -0.008075759795594143 
0.8648380472945760 -0.1417295294117156 -0.03179025683793016 0.01123851872598556 0.5636229527747911 -0.1914199898231418 0.5661443781957033 0.3392344599563503 0.5121363283791435 0.2400651124319030 
0.7152006133409896 -0.6143094822521448 0.4075506883453905 -0.7243680977632890 -0.8396205196966348 -0.1169998837384634 -0.3203446791069223 0.2833831954383986 -0.3234547758222313 -0.2886446084262244 
-0.2023916490319178 -0.6126729832232011 -0.2147376969456730 -0.2176607954966126 0.4660130902860746 -0.3110439916326057 0.1230219566803386 -1.120420533098595 -0.06545925417146770 -0.3559727920679257 
-0.4020136850010959 0.08829424140259837 0.3393285934299503 0.4698671363680637 0.2418777182347025 -0.7982055966597563 -0.6295617055874781 -0.7481475407052991 -0.7330667573453995 -0.3219485893142755 
-1.677739337407541 0.1767181114775214 1.302378475982610 -0.08306052681880660 0.4372575672980543 0.07944973841547363 0.1709775017782799 -0.03850097853503515 0.4596787893541068 0.9286447165849020 
0.5855226524381260 0.7138728570973016 0.2317415742656652 -0.5773260507775071 0.3117411439127165 -0.3012432902437657 0.4053855528360938 0.1797559348091567 0.5477078865564649 0.6614666024687609 
-0.4492654304169222 0.5983314137714767 0.6611492556471075 0.2947604909040891 1.312528521498924 0.5558688725201897 -0.1572449107621581 0.3775267195560739 0.4505138457939060 0.6466931199416018 
-0.9713255073616472 -0.5529705902310884 0.2656954097857006 -0.08484947490127177 0.1953388862981362 -0.3789361529362416 -1.090204274102356 -0.2937374062064521 -0.3308469827677286 -1.217923794672218 
-0.1105606348710664 0.6419927569879562 0.7726497126827115 0.2959039185370295 0.6919271056051083 -0.3649987426807499 0.2672413765457410 0.6466110774905720 0.3784185500300364 0.6857788287151604 
0.06338877340857219 -0.7225534360488910 0.2371563820127209 -0.1277972369376245 0.5144617846651587 -0.4779528279229289 -0.5660206974059329 -0.5327449814950727 -0.7139000612403245 -0.4731239027071801 
-0.4041945319445118 0.01395960534126289 0.1097464085923942 0.5532025339024358 -0.03356912001662698 0.007217409509479369 0.09592518459041237 0.4918289702678992 0.5721737281407293 0.6361969990151830 
0.2770083569251551 0.3535986465054635 -0.1169464082144662 0.5742382161288285 1.069463602105732 0.5371906864730523 -0.1272383801811163 0.4497683532914207 0.3745213556899552 0.4497755081396769 
-0.4703245354765754 0.1764253436128044 0.1144164955696469 0.6580373439020496 0.9738165786533250 0.2035652228872799 0.7035397159947600 -0.1161978914282508 0.5309433311185155 -0.2325562800677087 
-0.1183317268709189 -0.2808966664016739 0.03761360869810811 -0.1797887245544532 0.8630851810891805 0.1014838501616977 -0.8972067141588440 -0.01671963971115137 0.05622297996471057 -0.04685508936259859 
0.9275341890816726 0.5438236969346246 -0.2400410512078259 -0.03593326592086789 0.3898405122172303 0.5752414686954194 0.4514092835052890 0.5002220798187872 0.7696011747305864 0.4595697104412307 
-0.2923476676180630 -0.1336572500290134 0.2115402798544603 -0.1202209278262283 -0.07266646997754374 -0.05438736865939962 -0.2750479275974867 -0.3016987548176205 -0.1130090461084839 0.04175933988823923 
0.9282304612951731 -0.1395303795507651 -0.6884428661268593 -0.09371997882968393 -0.6761402926825689 0.9984292668851181 0.2896978206704212 0.7364073218325199 0.2817030713927975 0.4881150601627449 
0.07685630122562262 -0.8504616670514116 0.2312966139648918 -0.3729432806488124 -1.436510559277306 -0.2317952155249562 -0.8314131195102417 -0.2095976514661068 -1.282647582286183 -0.7354837996823292 
0.1685960831981961 -0.2184766117880101 0.07014605095115105 -0.2022245430108100 1.127808164545464 0.2177021134368809 -0.3747914741653332 0.3710338015416881 0.03314469462529762 0.2634418343885389 
-0.02268880490602069 0.5838718315983253 -0.04861401082232884 0.9418179576406723 0.5288588883180895 0.2235050525498268 -0.008525072215228650 0.6708553971864065 0.3548457854029365 0.6760242413676586 
0.4848425377540497 0.3099322438229054 -0.1548460197744663 0.6515763782393768 -0.7538429965279990 0.3749861001667871 -0.9332847846935857 -0.06245582245722089 -0.2041619513564465 -0.03847580674088669 
-0.8823500175920616 0.6831924348919739 1.082768318186741 0.08534852071935280 1.167117040478217 0.3017626974542980 0.3467976450736578 1.484978675609191 1.240216098587176 0.5340245829967061 
0.6105397744117532 -0.1702303414427906 0.1200855597837029 -0.3427192935792194 -0.3255449566432319 0.2985730025141651 0.3058795969501881 0.02263842604861164 -0.03911006858423289 0.3056648661545903 
0.8534482865146781 -0.1096109537133874 -0.5843464195346840 0.02992276321176733 -0.1187608019072248 -0.4550643539938680 -0.1877593645050246 -0.1903554952468903 -0.2965365722275634 -0.6545779548019307 
-0.2819148803919697 0.1151600588897104 0.6601575299110081 -0.3559592609555202 0.4180239702944790 0.8751787082944056 0.1899623269885103 0.3673012661904515 -0.05292332308500815 0.1675788531874510 
0.5141109051353470 -0.8340725681370695 0.3026832567550205 -0.5868325820072583 0.9106522653886840 -0.07209869129056823 -0.9121431711314573 -0.5411436722117255 -0.1665571236609041 -0.1944030967343661 
0.2292899336743790 0.6204000776378840 0.08978759782092147 -0.008459132233253110 -0.1038125280216531 0.3917894508012815 -0.3759475699620880 0.3746838385010007 0.1944304054594551 0.2982124855478727 
0.8225911670224142 0.2118220810844116 0.1407448796793234 0.4185854796083977 -0.7170487600775866 -0.5024129119704813 -0.0003749369731561665 0.3000700274418396 0.4648507378807150 0.8825993738572613 
-0.5913293147177324 -0.1331605761626389 0.06824591686373141 0.4091063537746493 0.2475102609871744 0.05030626559782290 -0.2246267039436012 -0.6407064441091130 -0.6276765100170814 -0.1387213910923439 
-1.353804064312756 -0.1262636827986749 0.5533072459408197 0.3407778479056023 0.2393817718394334 -0.9488109973898181 0.2725546294280808 -0.5382584125432126 -0.5579921135535623 0.1304399705167902 
-0.4747844920160140 -0.7729355830681273 -0.05514848941769427 -0.6750883204381128 -0.7586370170247614 -0.2964667511508399 -0.1197737122804011 -1.172434139446581 -0.7421434473184259 0.008972698175506546 
1.019586537203415 -0.4067207916837980 -0.1646179755838253 -0.3596452006799754 0.5832724435438539 0.6302486427840981 -0.5635259356729934 -0.2518815300580745 -0.2148691158031220 -0.2437020251316067 
0.3884303763857271 -0.03412940137505161 0.6676587334767068 0.1694015056872311 -0.1989073455121729 -1.069231737167720 0.04878100414136407 -0.1034641131584470 0.2764923495137282 -0.1431326166702903 
0.4940263918772774 -0.2627696631460065 0.6055337758243748 -0.6996610964239623 -0.3843488454110900 -0.7678596464014648 -0.5612565066494039 -0.04118834690343932 -0.3899408599856045 -0.1689883164734501 
0.8612758809238230 -0.2072476846136064 -0.8106153822494181 0.5420698772281034 0.1329329689459492 0.1132950763097346 -1.071334144751374 -0.1194623454302512 -0.2859361708946060 -0.04946297604770642 
0.2581185243312588 -0.05593242819012129 0.1590804293233634 -0.1696197822161729 -0.1416369376912160 1.381592315162361 -0.01938535301184365 0.5466152828510203 0.7358815226594925 0.5870006397057900 
-0.6431453308933872 -0.6705433639718238 0.2922452711683070 -1.060926529611821 -0.4181062412665089 -0.7754355919420614 -0.2558860821237281 -0.06671883924203206 -0.6600587771924079 -0.6918026171840493 
0.8572177427225935 -0.2625466490235115 0.4338772629594375 0.01470491819647217 -0.8407861778809114 -0.07115550460432983 -0.5867239079184493 -0.7421613823513388 -0.8457538600727710 -0.1950365744444481 
0.2620284466074473 0.5381646836556513 -0.5881345555984271 0.5224640902440535 0.6679871111812827 0.8553720378918896 0.4164401048103332 -0.1819033712028363 -0.04607437358210105 0.001186258848364907 
-0.8501377277374567 -0.1033231878249366 0.4058010049148466 -0.1585966737694824 -0.2333283778220471 0.6322321675329012 0.5291462048223317 0.4544853581361757 -0.4610603356135747 -0.2115157922795224 
0.7610642093403990 0.8949599292278773 -0.9874981156994233 -0.2399023835428160 0.8521821029440453 0.1350732157137541 0.4416367219327054 0.5421170809415402 0.6696798613529138 0.9822913905960421 
0.04197241112909803 -0.2337498361157515 0.3675678982767598 0.08108135732286796 -0.3678351359936590 -0.4344056817328116 -0.6692274095949394 -0.3377264790530722 -0.4016645917876576 -0.4176139415571827 
0.07777629885622320 -0.06406821556511290 -0.6691018843754992 -1.237705371875455 0.1853816960089806 -0.8445971358557140 0.2858714870069128 -0.7111442422380204 -0.3589931646975801 -0.1247305680861277 
-0.5113947884652655 -0.1745110600479392 0.7213271581314592 0.3641539790375326 0.5677495024239072 0.1440857751913580 -0.2743024514388876 -0.4634174610992125 0.1418674722988213 0.008997138027420097 
-0.1518114297767343 0.1098241182380852 0.1034191693000056 1.300331529132116 0.3507304124311376 -0.4856770753724847 0.05843042036559491 0.3814293046759625 -0.2172838023124213 -0.4710874763381322 
-0.5703005352668475 -0.1101771404479943 0.8875407172035022 -0.2757861909410809 0.6330763740449590 -0.5393409639007453 -0.7288274671684330 0.1381736178798537 -0.06212371422852634 0.5168930965229587 
-0.6826570312487568 0.04219313805936602 0.4401910046920222 1.091428764596202 0.4330285280036809 0.4724572128260557 -0.6765112204343717 0.8300187879457683 0.5114658472637205 -0.4314019039440779 
-1.230140852689480 -0.2003932182786396 0.6734480616033118 -0.1886457043541774 0.1421714186151332 0.4201326876003149 0.3251094828727071 -0.1125918127553245 -0.1913327781531460 -0.6320900513945406 
