solver_type L2R_LR_DUAL
nr_class 10
label 6 11 1 7 5 8 2 14 13 12
nr_feature 256
bias 1
w
-7.158289375986018 -1.308463815697994 -1.749927435871794 -1.544853538330936 -1.472353495269735 -1.628110487168238 9.486474727726703 -1.284515161848615 -1.262015865659581 -1.312940391028343 
-7.704146483140567 -1.593894985286522 9.90096124224868 -1.853561272646989 -1.74462628228323 -1.701586734988378 -1.965434347326098 -1.700530370286499 -1.406761859479829 -1.516369639145996 
-4.082889160664721 6.691344832409839 -0.2965109746240078 -0.2341024298156372 -0.2437898383168631 -0.2610340863329361 -0.2778388609675112 -0.1658256409659483 -0.2555516294491471 -0.1507540063246633 
-3.996520958758737 -0.178003596100997 -0.2711097228569545 -0.2265512262732598 -0.1900735592115795 -0.2040263757362714 -0.2846205789323782 -0.2033617175516873 -0.1711371696207829 6.480401454717368 
0 0 0 0 0 0 0 0 0 0 
0 0 0 0 0 0 0 0 0 0 
-4.148746877386251 -0.194393764172013 -0.3631051340581258 -0.2452806970111845 -0.2088102884633817 -0.2004861234275932 -0.3011356051697559 6.494737333910551 -0.1948343046631334 -0.1957318570567806 
-3.703798308723833 -0.2236940599272604 -0.200109023411593 -0.1479000892759765 -0.1748222492943446 -0.1804174925377314 -0.2200119313909217 -0.1160353758814167 5.950437582303681 -0.1417293902422441 
0 0 0 0 0 0 0 0 0 0 
0 0 0 0 0 0 0 0 0 0 
-6.841134120789462 -0.9809923909008368 -1.240456513786699 -1.24760702527574 8.797853033307474 -1.181788716733666 -1.188655663427322 -0.7862023426055096 -0.8588787817420343 -0.8070915970454725 
-6.447160966753405 -0.7878091834330835 -1.167175245902852 8.859889786746548 -1.092836044412648 -0.9488235575121194 -1.092733119580817 -0.8242422883253836 -0.6353636763336844 -0.8034555464384119 
-5.744050862977916 -0.6436896861989119 -0.8497736791624323 -0.7543719700722061 -0.8539433991926989 8.297573157406017 -0.9669397689539229 -0.5003545753253014 -0.6311103829185796 -0.5743313528001035 
0.5270032524967193 -0.1660382409283317 -0.1700615085076785 -0.1276773975099339 -0.176297014511096 -0.2112270002848394 -0.1097372021779557 -0.1845036363105825 -0.1544907203155484 -0.1977850593463432 
-0.007630446842597826 -0.002558532789017341 -0.002451351950274011 -0.001526975624524417 -0.001001856568550714 -0.001133039279514533 0.00283297441366166 -0.002979932404381892 -0.003752812404015562 -0.002691029797072374 
0 0 0 0 0 0 0 0 0 0 
0 0 0 0 0 0 0 0 0 0 
-0.04295070739473738 -0.005589581840230977 0.003987537496468614 0.007079444383286653 -0.00307573524674831 -0.007020288971372912 0.005373765290952072 -0.007583673794298583 -0.003093232540582409 -0.005999706580008868 
0 0 0 0 0 0 0 0 0 0 
0 0 0 0 0 0 0 0 0 0 
0 0 0 0 0 0 0 0 0 0 
0 0 0 0 0 0 0 0 0 0 
0 0 0 0 0 0 0 0 0 0 
0 0 0 0 0 0 0 0 0 0 
0 0 0 0 0 0 0 0 0 0 
0 0 0 0 0 0 0 0 0 0 
0 0 0 0 0 0 0 0 0 0 
0 0 0 0 0 0 0 0 0 0 
0 0 0 0 0 0 0 0 0 0 
-0.08817017750754584 0.07195186278294057 -0.07719580917195826 0.01187597338379887 -0.03644253035257134 -0.04962501696772962 -0.09651209067017981 -0.1994015236351975 -0.1950823853155731 0.008258518372820586 
-0.1245651446516772 -0.1002148364593741 -0.2678704912047154 -0.01442105243596779 -0.01559694086674607 -0.1093152327643355 -0.1584992181670872 0.2262330232034617 0.04457562261380161 0.07866009184267557 
0.03668599034948893 -0.03600956984431506 -0.07188766391079375 -0.08317328484829017 -0.06039258464534833 -0.1063762192804156 -0.2181421063164872 -0.3534521908888417 -0.2100226786116274 -0.01322882950294299 
-0.02291537603626713 -0.007978110197199372 0.0122706689231122 0.005849720708661868 -0.001675693023057117 -0.006278446926513189 -0.006804643076236053 -0.005516716401472914 -0.007727181986658184 -0.007922015494115531 
0 0 0 0 0 0 0 0 0 0 
0 0 0 0 0 0 0 0 0 0 
0 0 0 0 0 0 0 0 0 0 
0 0 0 0 0 0 0 0 0 0 
0 0 0 0 0 0 0 0 0 0 
0 0 0 0 0 0 0 0 0 0 
0 0 0 0 0 0 0 0 0 0 
0 0 0 0 0 0 0 0 0 0 
0 0 0 0 0 0 0 0 0 0 
0 0 0 0 0 0 0 0 0 0 
0 0 0 0 0 0 0 0 0 0 
0 0 0 0 0 0 0 0 0 0 
0 0 0 0 0 0 0 0 0 0 
0 0 0 0 0 0 0 0 0 0 
0 0 0 0 0 0 0 0 0 0 
0 0 0 0 0 0 0 0 0 0 
0 0 0 0 0 0 0 0 0 0 
0 0 0 0 0 0 0 0 0 0 
0 0 0 0 0 0 0 0 0 0 
0 0 0 0 0 0 0 0 0 0 
0 0 0 0 0 0 0 0 0 0 
0 0 0 0 0 0 0 0 0 0 
0 0 0 0 0 0 0 0 0 0 
0 0 0 0 0 0 0 0 0 0 
0 0 0 0 0 0 0 0 0 0 
0 0 0 0 0 0 0 0 0 0 
0 0 0 0 0 0 0 0 0 0 
0 0 0 0 0 0 0 0 0 0 
0 0 0 0 0 0 0 0 0 0 
0 0 0 0 0 0 0 0 0 0 
0 0 0 0 0 0 0 0 0 0 
0 0 0 0 0 0 0 0 0 0 
0 0 0 0 0 0 0 0 0 0 
-0.04840759781449214 -0.1178717946371937 -0.09422007741807773 -0.1947398292935895 -0.110950115935805 -0.02458268150580983 0.02794900752521405 0.1739188924160868 -0.09218179325979495 -0.4118813360452825 
0.06227077794617692 -0.1994167934256902 -0.01402703366999652 -0.1153732583218619 -0.1608675424064465 -0.1122691920782403 -0.04358381975064194 -0.05777369380945748 -0.1847074830990482 -0.1047219897668097 
0.28234706627091 -0.3897154564348471 -0.2098769328946037 -0.1171935157127403 -0.2266590994226497 -0.2535581547374846 -0.2293950757613631 -0.06450883860048032 -0.4468578044926734 -0.1168694610046345 
-0.1401619054811542 -0.1411007265155684 -0.02031301289890281 0.01517683599636139 -0.08826813706779868 0.09892513528966375 0.003513887701310134 -0.1305396393852301 0.2673961737386245 -0.1055416670193628 
0.07240169182143691 -0.01552348308589353 -0.05762761000363819 -0.4018969287812406 -0.2356788607092529 -0.1741688805590873 -0.1122431580538147 -0.4170758705949227 -0.142007598160683 -0.1246115816201939 
0 0 0 0 0 0 0 0 0 0 
0 0 0 0 0 0 0 0 0 0 
0 0 0 0 0 0 0 0 0 0 
0.1600200777389388 -0.1564004676681399 -0.0730125392528956 -0.1119187474515198 -0.1093444693850448 -0.1646206586850443 -0.09088580029650535 0.1600315913528409 -0.1082918095452808 -0.143267663934994 
-0.003366930964995327 -0.005849220993791301 -0.002654964250612914 0.006466377870751796 -0.007106861298578556 -0.004447660647469116 -0.002999909238667606 -0.004794720121138531 -0.00122454523586665 -0.002882065304349859 
0 0 0 0 0 0 0 0 0 0 
0 0 0 0 0 0 0 0 0 0 
-0.03217657409924004 -0.01124275952148335 0.006283831189888625 -0.01150172801571903 0.02061459183497962 -0.01108054231333955 0.004705692128582505 -0.01256843025366214 -0.006316588277467073 -0.009928676844331248 
0 0 0 0 0 0 0 0 0 0 
0 0 0 0 0 0 0 0 0 0 
0 0 0 0 0 0 0 0 0 0 
0 0 0 0 0 0 0 0 0 0 
0 0 0 0 0 0 0 0 0 0 
0 0 0 0 0 0 0 0 0 0 
0 0 0 0 0 0 0 0 0 0 
0 0 0 0 0 0 0 0 0 0 
0 0 0 0 0 0 0 0 0 0 
0 0 0 0 0 0 0 0 0 0 
0 0 0 0 0 0 0 0 0 0 
0.07622068644711619 -0.1160438467942078 -0.072125544828961 0.0108227870247124 -0.03672948004697624 -0.05775202797579956 -0.05101725251157704 0.07705088501520156 -0.1551404487730138 0.004263707633858246 
-0.1672723878062946 0.1227427312183734 -0.236077865966079 -0.2767593627020897 0.075983242224961 0.1017565240290754 -0.1621681047804837 -0.1902365379507571 0.4560150709585423 -0.1967132274880688 
0.1093875649935368 -0.425977919662528 -0.2895811091940201 -0.1498458644187928 0.02501465808258835 -0.04309985157865106 -0.04099996144823911 -0.1392702937611319 -0.4188770598062468 -0.2752739904339631 
-0.02827683359649616 -0.01830619644063258 0.02690384393368704 -0.01773338496004901 0.0006086422755434876 -0.01829517527121211 0.0008772509067266929 -0.009531430298595087 -0.01070020720388747 -0.01338128546843293 
0 0 0 0 0 0 0 0 0 0 
0 0 0 0 0 0 0 0 0 0 
0 0 0 0 0 0 0 0 0 0 
0 0 0 0 0 0 0 0 0 0 
0 0 0 0 0 0 0 0 0 0 
0 0 0 0 0 0 0 0 0 0 
0 0 0 0 0 0 0 0 0 0 
-0.02589300000250264 -0.008334109694634462 -0.007506575807732788 -0.00562115081809495 0.008502377078865954 0.01216708337503813 -0.008525276528239126 -0.007906833738195273 -0.005178596489440037 -0.00645035271280771 
0 0 0 0 0 0 0 0 0 0 
0 0 0 0 0 0 0 0 0 0 
0 0 0 0 0 0 0 0 0 0 
0 0 0 0 0 0 0 0 0 0 
0 0 0 0 0 0 0 0 0 0 
0 0 0 0 0 0 0 0 0 0 
0 0 0 0 0 0 0 0 0 0 
0 0 0 0 0 0 0 0 0 0 
0 0 0 0 0 0 0 0 0 0 
0 0 0 0 0 0 0 0 0 0 
0 0 0 0 0 0 0 0 0 0 
0 0 0 0 0 0 0 0 0 0 
0 0 0 0 0 0 0 0 0 0 
0 0 0 0 0 0 0 0 0 0 
0 0 0 0 0 0 0 0 0 0 
0 0 0 0 0 0 0 0 0 0 
0 0 0 0 0 0 0 0 0 0 
0 0 0 0 0 0 0 0 0 0 
0 0 0 0 0 0 0 0 0 0 
0 0 0 0 0 0 0 0 0 0 
0 0 0 0 0 0 0 0 0 0 
0 0 0 0 0 0 0 0 0 0 
0 0 0 0 0 0 0 0 0 0 
0 0 0 0 0 0 0 0 0 0 
0 0 0 0 0 0 0 0 0 0 
-0.07058653597671147 0.190154096643213 0.2669097252825596 -0.04882929796443063 -0.1934586384470248 -0.4027009619797533 -0.3847842539310625 -0.03711163917103329 -0.231619540663597 -0.3070810488485085 
-0.1332447118743647 -0.3725071539172746 -0.01318855648580405 -0.06235551343461823 -0.1968722276970787 0.05785775260369563 0.01097386338945498 -0.2162992724529487 -0.3764818436127485 0.1486743710332665 
0.4240222430066644 -0.001135379639462244 -0.3852933121342382 -0.06609268080835414 -0.2677678160952206 -0.1320535049249082 -0.2971338947218977 -0.3556002935618293 0.134365898668722 -0.1859045943453183 
0.1464679615008689 0.05355127275802323 -0.03458125290443113 -0.02594274931130676 -0.1042007578428924 -0.091999452031885 -0.002657729901124507 -0.1226792702176149 -0.08218442696733111 -0.0990414657779 
0.05060586378973667 -0.3607163096621777 -0.1553489647924186 -0.2567089530665266 -0.332149371440193 -0.2023605426654295 0.08936769789040149 -0.1642675550464581 -0.3223177968861576 0.08265222653027997 
0 0 0 0 0 0 0 0 0 0 
0 0 0 0 0 0 0 0 0 0 
0 0 0 0 0 0 0 0 0 0 
0.2853350463111002 -0.3450743668407627 -0.07674251683676936 -0.2466531622054152 0.0375984392842681 -0.2256350152541298 -0.190228343326972 -0.6882576711427887 -0.04290067349692908 -0.1223875585049001 
0.1646377440357303 -0.4509082189198853 -0.2326997749150948 -0.303957488444397 -0.3496869421454319 -0.1980937092158116 -0.2554915257855301 -0.4941373248366348 -0.3484840134556527 -0.5963584252043452 
0.03294261460904362 -0.3648231129770487 -0.2560291192060657 -0.4445315178946427 -0.4647371137170375 -0.2486236325853585 -0.1626870422529678 -0.2388642859796839 -0.2980074669710071 -0.2885687948976888 
0.1253526119901854 -0.09012134133649373 -0.14372360220251 -0.131217245461597 -0.08492101502618794 -0.05788959173445121 -0.1577394318574271 -0.05473377353779713 -0.2254050319346379 0.1895247707568801 
-0.2151047584626361 -0.04906190258652857 -0.1676414969091619 0.01909606322455162 -0.06008101847693725 -0.2596934962791382 -0.2361219409594312 -0.06627820190704196 -0.1274934902553754 -0.144445992969245 
0.4679223116919077 -0.09354763900893073 -0.139299685060906 -0.1436710878360812 -0.1360684194090019 -0.1324949146808377 -0.1248599631250442 -0.1257474831326965 -0.08403756917062631 -0.1130599495683548 
-0.1416016659531673 -0.02173268252855164 -0.003994968825220883 0.01776846773881106 -0.01794331660888956 -0.0217889718192279 0.02629187012889433 -0.02037356440924812 -0.01804352916900179 -0.02141388752227835 
-0.03313262389600807 -0.007477624088499547 -0.006564433415935518 -0.009752600921171939 0.01936259014104628 -0.00560711948928978 0.00526917216203498 -0.005642865224601992 -0.005348945629146643 -0.005602088417799455 
0 0 0 0 0 0 0 0 0 0 
0.04190853288548802 -0.01250643031595125 -0.007751056938070698 -0.002200102046649199 -0.01223022623708434 -0.01745591187898402 -0.01784679511377783 -0.008055103555838931 -0.007579445753979812 -0.01158326070537436 
0 0 0 0 0 0 0 0 0 0 
0 0 0 0 0 0 0 0 0 0 
0 0 0 0 0 0 0 0 0 0 
0.2863151613272312 -0.5279879937887978 -0.2017682913612265 -0.1457418673283208 -0.5090176065818259 -0.3983650612470343 -0.215444194995506 -0.1871590607589608 -0.7688926727441778 -0.2465207598209512 
-0.08183715230402457 -0.1995952710924198 -0.1249853293660043 -0.3041397182645029 -0.4847843181273062 -0.4280962293697057 -0.3198979161691913 -0.2400584468142355 -0.04141813938051526 -0.09865537211536538 
0.2322172887538031 -0.03452612309711232 -0.1447790994800569 -0.1034821897325841 0.006912432212191087 -0.1329409966818327 -0.1527996210673713 -0.1875603510533767 -0.3151225970807272 -0.2912083653944351 
-0.1468440682982082 -0.1836396205736859 -0.3970953110554045 -0.3253667618934997 -0.02104662061921998 0.1535304357309582 -0.1097117134399429 -0.5189008348756417 0.09653424338838466 -0.2274230974234871 
0.182098250148413 -0.08949563503190296 -0.05462050113788471 -0.100093089404913 -0.04106237605325064 -0.06653137053151396 -0.08146668645369652 0.1123366663375195 -0.05017982526646092 -0.05974764957157444 
-0.1151767076564092 -0.02738372963706731 -0.0306042748950985 0.00665061850829888 -0.03358444992416433 -0.03862072467398518 -0.03779725593088187 0.03814735613464195 -0.01890025732513404 -0.03026571082515146 
-0.02338773498235023 -0.006870700001815277 0.0006926681336235996 -0.007821367144532052 -0.002125413615924105 -0.006149929497061427 0.01093762266243057 -0.008023905888719039 -0.003745328050056131 -0.005837854899733676 
0 0 0 0 0 0 0 0 0 0 
0.15034347650228 -0.02091084090478501 -0.0136128837834268 -0.02255251422305077 -0.01521248234807319 -0.01355212998127704 -0.02784536265307629 -0.01344442325776584 -0.01207125497104223 -0.01838636553984186 
0 0 0 0 0 0 0 0 0 0 
0 0 0 0 0 0 0 0 0 0 
0 0 0 0 0 0 0 0 0 0 
-0.1348170795646254 -0.1714312435266648 -0.1458681080656557 -0.009182955162155176 0.1366058718773887 -0.02168858479441313 -0.09096702938930826 -0.08577208005679372 -0.4783993353039762 -0.198470219251231 
-0.1920434596032128 0.1009554415214284 -0.09783670748645468 0.1928339625087998 0.7103159447412903 -0.04134791218320257 -0.3392091227731303 -0.412188171041162 -0.4448756240493207 -0.4780214389201806 
-0.1385285587711105 -0.5208189558007043 -0.1752593524167941 -0.1041621385963661 -0.2086606901482411 -0.09603299849058074 0.006201994033456938 -0.5531050301761591 -0.5082492095164919 -0.3740857484855323 
0.4449191608202474 -0.0569299177701135 -0.01788915037752833 -0.05370457321708797 -0.05826430240377903 -0.05099252686240721 -0.0694274556225811 -0.04406253997482278 -0.06141971131628375 -0.04424434931142838 
-0.09781183760283103 0.4148271607730993 -0.2585788868750795 -0.06482315865203131 -0.1003369340836991 0.02462818430110829 -0.2082439547787224 -0.1044436098260505 0.1688441772346838 -0.06315073468505084 
0.1338827608969593 -0.1498898393832239 -0.07805549612251364 -0.2047040741067266 -0.1365702117063416 -0.1135347815604476 -0.2217864297878899 -0.167871857206505 -0.3689958561184684 -0.1775887444316643 
0.08051552733961206 -0.3126932048213246 -0.06860018788457885 -0.2573149027059066 -0.2403452698063937 -0.1265814197645926 -0.1357448081911087 0.2752698228931936 -0.2696552738085465 -0.1054119621633838 
0.207541748784651 -0.3737055405147012 -0.2438826017143129 -0.1519462527266377 -0.06556589397956013 -0.3547388778395325 -0.1576506844235805 -0.1169811221740826 0.02212685659496626 -0.132981369157999 
-0.1246113783112674 -0.1108549658577493 -0.1270076098202507 -0.1793651680512819 -0.3071628086280507 -0.2393765978492241 -0.1485963402722045 -0.3119894637408885 -0.1106028769036263 -0.1068711577262059 
-0.02570520522148805 -0.357145959824428 -0.09261638841717393 -0.1543464804451428 -0.003064591304810549 -0.1502343079430216 -0.2159281573128865 -0.5333430940642272 -0.3279883389963522 -0.358143256859264 
0.2558299442206126 -0.04378643813717777 -0.02168994251794045 -0.0512682716649099 -0.04092073143875033 -0.04028332738339876 -0.01850474299349823 -0.03260939733109525 -0.03183954244238983 -0.04878075200942825 
-0.08394392426006937 0.04646715898626543 -0.1280152082943268 -0.04420419185095288 -0.1223911315437704 -0.03895078183005692 -0.1410403375401079 0.1633347354858151 0.1384297060247328 0.220276628176144 
0.1947401215742813 -0.1903589975962767 -0.1818723776334742 -0.1427467817286902 -0.2024634527646539 -0.1673142467908724 -0.2464680250453193 -0.451105093630276 -0.206050604887387 -0.08484286549376589 
0.4045685263432195 -0.3999772465427479 -0.2628553117205378 -0.1349925379427932 -0.2564752941595448 -0.1269572181706569 -0.1301646511635025 -0.2833983887140268 -0.1768542857578111 -0.3434535421699569 
-0.1850349580181824 0.1536150828602263 -0.2040049697078689 -0.2076189145437488 -0.1058707791314869 -0.07789194782182018 -0.15348393326247 0.1568144148180273 -0.1234331102079174 -0.2684577628600048 
-0.05454708148211036 -0.3188788631205806 -0.07821908691973728 -0.2808430898798026 -0.3857201304130507 -0.3549971881258502 -0.02965783172484513 -0.0428769767695302 -0.40021571756665 -0.1209325147449942 
-0.00326194207990537 -0.009653181384414861 -0.1407850443771247 -0.2430714352893942 -0.196077160836852 -0.144269374071747 -0.09780421310117242 -0.2890102372378507 -0.07545582012306466 -0.2019994457144704 
0.1290112960054906 -0.3981239725211562 -0.2642403130971471 -0.3134993879697637 -0.3142198186815682 -0.2834137856021797 -0.260609938816436 -0.4745957794386533 -0.4608969734666455 -0.2531741512755057 
0.2024230596761077 -0.1862232920918061 -0.1508827346946549 -0.1001787688726101 -0.05422407711702914 -0.1018506551502937 -0.05247499024009918 0.1016045081997991 -0.1096575626524774 -0.216269357800805 
-0.0650335890938904 -0.1831067394191148 -0.1328827973312816 -0.09672804719130476 -0.2051727198714646 -0.174039451557611 -0.1590501457301099 -0.05775701076303548 -0.419018618754738 -0.224451906380043 
-0.05969668000929349 0.06316948037865743 -0.04787903830235837 -0.04237177866793863 -0.05755449011992488 -0.08555667076767957 -0.1346199635580362 -0.0875618719446653 0.1540536433106659 0.06384070540462107 
-0.08533117859589567 -0.254984816644921 -0.08006492685322755 -0.02995927015996171 -0.09087562002777483 -0.1093440319019803 -0.121171884095017 -0.070013779801647 -0.1922212794579085 0.003098545580913359 
0.01836555558624681 -0.04730953750453034 -0.07311449445183307 -0.09773977194978115 -0.08613275437847817 0.04904085069159476 -0.04822095836726224 -0.02887749669013664 0.0631575726336011 -0.06887231501874103 
0.06394235035010518 -0.3441789014884794 -0.3201181952722065 -0.1351891819158431 -0.1252871238508461 -0.03793847379187246 -0.05352541408376534 -0.06892761080894927 -0.4649753771608813 -0.003415596312714785 
0.1088524146314689 -0.09009012046361946 -0.2133714980690299 -0.3856174257538153 -0.2552374098288174 -0.3201777323501743 -0.2878256930362858 -0.5241324528041416 0.02157067481577931 -0.4265364461654709 
0.2678879899385415 -0.03112693397551989 0.02803146041743395 -0.1263474216773206 0.0006143954025474781 -0.1263308458935667 -0.1279199775192255 -0.1448838372448609 -0.1925656294500653 -0.1686755410861606 
0.01599603030873967 -0.1520937494795666 -0.2560969383331359 -0.2552257322751492 -0.4094194253667854 0.1044226715576778 -0.04697510575161958 -0.2955146857628747 -0.1938718573533892 0.007145089424408654 
0.05490978338166228 -0.2241709386008489 0.09556723105514739 -0.07022528063942421 -0.1231223237818397 -0.2771081894747921 -0.199206969415736 0.3863966622670099 -0.4297320654475099 -0.4005420427605997 
-0.1687633147127345 0.06765263661595355 -0.1930271049035459 0.1015127127818051 -0.08221876853479396 -0.1996779339501958 -0.1018191758303152 -0.05947129906163304 0.3846441062179724 0.007539568110751481 
0.1193724344465021 -0.1871744807131603 -0.09272632406488006 -0.108051342705997 -0.01911147259159839 0.01432273583276893 -0.008926821303934055 -0.2405244317893449 -0.138256433888123 0.05070194938389357 
0.09760288718002619 -0.1665482647490529 -0.2211045690960208 -0.1800846824691704 -0.1637252847548677 -0.1500512456949591 -0.1158425245016164 -0.1054697965786003 -0.04360758993229299 -0.1070832603776436 
-0.08265743793971338 -0.5349574050579206 -0.1089423128419702 -0.2215123612533594 -0.2234786662631598 -0.1387146522411666 -0.292438911807046 -0.005867738973100276 -0.4891080410997497 -0.2218565150074312 
-0.1267980471665888 -0.02099958359785181 -0.006399262515181032 0.04582710680313422 -0.02604416901730218 -0.04210969183208832 -0.03720428503786716 -0.03974918673494746 -0.02602457514490852 0.05787490454461437 
0.2483291194151341 -0.2937268057824589 -0.5534032046544534 -0.567778523181361 -0.5910085209977641 -0.5185575285916863 -0.4284663725616052 -0.7551249453895466 -0.4812988323336181 -0.6267630543635709 
0.08366731900859803 -0.1558603131826444 -0.2159865588185447 -0.1422103486914269 -0.1764681091715729 0.00938123280096682 -0.124514563016332 -0.1505555220871565 -0.04030171658533638 -0.1700754596806291 
0.09178492013434063 -0.05497635959866348 -0.2458640080000577 -0.2781523506810598 -0.2810693777609074 -0.2767147618778584 -0.03128111350661073 -0.1881631273583802 -0.1783381232973989 -0.2148574533216683 
-0.1134402707991862 0.04960961195076367 -0.03343409387047937 -0.04076042861283775 -0.03536242432547061 -0.04138821099798827 0.02646583411307845 -0.03199228073955808 -0.0491373649305934 -0.03612819265949293 
0.4001857200005413 -0.7999554272746918 -0.4564567084811338 -0.5180205442004262 -0.5208822172941838 -0.5337660279952765 -0.6968693145310121 -0.5763467250197097 -0.745409377452891 -0.5127219137441003 
0.3923172193398634 -0.7309690911757617 -0.6323520124852549 -0.6454076973059244 -0.8046195981826947 -0.7362979358712614 -0.6451514636368499 -0.7874916129797357 -0.690712212389396 -0.767369321747265 
0.3052706181298242 -0.6752609407848554 -0.6527085533195312 -0.6608097877682942 -0.8006426318115864 -0.7134421267880804 -0.6290879806873471 -0.7830978015291326 -0.8806132566509849 -0.7533213559903995 
0.2277810791583396 -0.264969886860921 -0.1979883033096227 -0.1027230411044514 0.2756984200015235 -0.2269548187172962 -0.2371181253888178 0.02871482173748977 -0.1531630240778066 -0.3624561611292137 
0.2114544493897264 0.07094123936222499 0.05902255571362981 -0.07794545001362051 0.115500575880994 -0.3556522316269148 -0.1512171888575234 -0.08635507722930035 0.2033274676080285 0.106475178616945 
-0.1454496770674584 -0.1669474810877634 -0.09655135741471815 -0.1446406170064689 -0.123178932382731 -0.05617708565124847 -0.0733663208496909 0.1232269665301347 -0.04333278763668456 -0.2078942899698964 
0.7356660364836964 -0.1887783427340993 -0.01556411403070009 -0.2201342425700272 -0.05757405428966401 -0.1563629160737672 -0.3818128150416345 -0.184348171328993 -0.2007882112679171 0.02157644234467801 
-0.1008445742177342 -0.06286117678755662 -0.1274715186312351 -0.09984615135877217 -0.0804739400699563 -0.05712850442346681 0.06594194679278986 0.2951043067825257 -0.05305359755942149 0.1325518846802224 
-0.3387542044286663 0.06200507460181573 -0.09924420677332942 -0.07049463089214081 -0.05771812231757877 0.07227792393483995 -0.06069189279144896 -0.1039539794676882 0.7695693875091954 -0.09291934089180567 
-0.122306250903997 -0.06601004373425716 0.01929782942707699 -0.09990175540229601 -0.0413842329608196 0.0117876696477474 -0.1565123527721089 0.3591280829605373 -0.1062384265917883 -0.1100433410311982 
0.2034117325227973 0.04152486300406492 -0.1316005984576545 0.1983948212540797 -0.01932432477916666 -0.1543842583836906 -0.2915581808522604 0.1632793516993946 -0.1393038683188191 -0.1586424513793628 
-0.3098803245740767 0.5126415123636546 -0.07443687630868895 0.07927728567964922 0.1277407998326222 -0.1573331047286087 -0.08622848950943123 -0.134750209629938 0.3124372186790182 -0.3397816344720878 
-0.3621809853600182 0.1638565734747349 -0.1039987492337732 -0.07990725067172926 0.210553763899243 0.0638019412106835 -0.1996845082566591 0.09640921031526101 0.1076601894138057 0.2531296160777024 
0.1417945156472475 -0.06797126750344852 -0.09947238563660443 -0.1303202379916558 -0.08065193459561297 -0.1122873793388784 -0.04523290957566175 -0.08282394887076555 0.1601487958615497 0.2813965288509629 
-0.05375958004839627 0.1253254207581521 0.01014533942530479 0.01390614679231313 -0.009425903055004656 -0.0122233362032086 -0.01972536349104632 -0.01129499164883003 -0.02052943313224381 -0.01602020650564167 
0.001716158241764531 -0.05311141431969542 -0.04574220671917418 -0.02495474330282103 0.04687210328381683 -0.0790428176677461 0.02932733477202621 -0.02178620696465987 -0.04631014223418341 0.3345763713758433 
0.04161753836430449 0.2136599372874882 0.04085371126912522 -0.02609422720969745 -0.06285260626693731 -0.119470911977882 0.03029842342080658 -0.1567429336362624 -0.1976881535235913 -0.05148153323004696 
0.04748012276358063 -0.2277624266312855 -0.1026698087476481 0.03425764568967647 -0.1389886436602967 -0.1628450085769 0.0340567645105565 0.05282946177355366 -0.2156633814278784 -0.4713488000165501 
0.3130077166806674 -0.1249024581909538 0.02645346934402158 -0.0354940081807703 -0.234221232749948 -0.03502649114792661 -0.2608071726880787 -0.207949357287596 -0.2118725741013909 -0.3974197854516691 
0 0 0 0 0 0 0 0 0 0 
0 0 0 0 0 0 0 0 0 0 
-0.03689314864423098 -0.001318910146694703 0.01068711369253377 0.01547156748679296 -0.003957896516614973 -0.003330167026526594 -0.003387845371070187 -0.0006540042464725015 -0.0007370345873166802 -0.001043953995171614 
-0.01999479986696997 -0.007163358278172043 0.008919420367709987 -0.007359771587233613 0.02867510997763759 -0.01103852683279639 0.00379012451387263 -0.006736641364018832 -0.01323886359079511 -0.01053966631652679 
-0.01299521099877972 -0.008053087119487254 -0.006387250482691872 0.01255632216655417 0.007397439211016664 -0.003438649014292445 -0.003256823468291352 -0.004704443768274032 -0.006280206621583595 -0.005398892131734999 
0.2028701558379591 0.07940934346729479 -0.08268423852417532 0.01917598181497835 -0.02273360206839225 -0.02364405123881539 -0.09477694833348144 -0.09643110116546547 -0.2152539469657471 -0.04601524999768226 
0.009724903695565737 -0.1141703776551926 -0.02633365446375769 0.03208937866844355 -0.05194578380008354 -0.05573078442540885 -0.08832543566716637 0.09468228446381158 -0.1383367823204652 0.2832048001887534 
0.5034057924854357 -0.06632626069388986 -0.0560105500385354 -0.05577579271844167 -0.05181010816403925 -0.0537959708460715 -0.08149368617229578 -0.06586029643989994 -0.06826652255264759 -0.07647268346041093 
0.2094249129654594 -0.102774670997103 -0.05002030484625124 -0.02281539474952899 -0.03840555335608125 0.009754430587498976 -0.05462006522842634 -0.007704037434986441 -0.07913345132891732 0.05716599071226343 
-0.1213978464426419 -0.02046549127318902 0.01772324179927848 -0.03322287370566592 0.09549822317061228 -0.009075986315539738 -0.02631650820091743 -0.02236298844084339 -0.01819235222901571 0.2075776276616457 
-0.3844281986390325 0.01306531238521483 -0.01428613906403277 -0.003514743784852344 -0.01568876160260756 -0.1177501619636373 0.2291457232357531 -0.09312876401955969 0.1848849771201151 -0.1050775376939542 
-0.4711919956691523 0.0702601999023935 0.01797543947753366 -0.04108869873554108 -0.02212594186671566 -0.04918121527864841 -0.04557451797737477 0.4847923895956817 -0.04155828459751559 -0.0385157711730212 
-0.2920794993778637 -0.08175162147534716 0.1384654835805245 0.03527567381999443 -0.01052708746327489 -0.03881138923893095 0.07232783400220105 -0.09818068732739417 -0.07491188841429861 0.05804638034022905 
0.01443484699547222 -0.01239979269962352 0.03540409588158937 0.03333557353004024 -0.006400215182969943 -0.01507947282342622 -0.01930777943907908 -0.0135428144232816 -0.01527968031046034 -0.01172341166617333 
0.03519687988403634 -0.004721227109737343 -0.0008178244134422197 -0.008257280250142374 -0.02330252896796256 -0.01230608709834158 -0.007144246563477517 -0.005813809452350366 -0.002596294925979665 -0.004716244521096038 
0 0 0 0 0 0 0 0 0 0 
0.04589267542079904 0.05616831627989465 0.004951627259657483 -0.00344431083261954 -0.05916788516108554 -0.01346103888313379 -0.04256659082064809 -0.0336246739473636 -0.02526414534756438 -0.0364691950686818 
-0.005317397958434059 -0.004024336455398057 0.003759114221760759 -0.002833518804424835 0.005802767914411394 -0.003149591558489021 -0.003564238290372151 -0.002175693072323095 -0.003388658140524571 -0.00323080033683084 
-0.1230304404394676 -0.01923196412172549 0.005398081923085744 0.02202618757099121 0.02939775996459109 0.02751440406157291 0.03467808113969666 -0.01703980785360251 -0.01878495186951172 -0.0173918127162733 
-0.06867816996534269 -0.0132065582198834 0.01692811158658176 -0.01702440947587946 -0.006055134765998082 -0.01379600035184779 0.06080901084288927 -0.01349670105919275 -0.006935210741229169 -0.01420658440017456 
-0.2976438034359211 -0.04488850268518987 -0.02253920974718073 -0.02257300919968993 -0.009988876457607604 -0.08196420979849019 0.03580234712888792 -0.0471634821113533 -0.04768464219834548 0.2885104370597331 
-0.007186133802521071 -0.001120727664745161 -0.002081119520658909 0.03149421982299835 -0.003807444504358693 -0.001367922687088363 -0.002207716616192581 -0.001601459820869131 -0.0006563123038709119 -0.001188591263443182 
0.1448017773600409 -0.01040744900831361 -0.02838283897430085 -0.02955294020219715 -0.02830345837992553 0.03469011526969371 0.04062710262422775 -0.009912003602519858 -0.006928162476928517 -0.01194590337615816 
0.1617681453967659 -0.0309309798579463 -0.007226793569747923 -0.002782327827158297 -0.04948254880257769 -0.02758418323752605 0.00489218957967224 -0.03637751097422344 -0.03936012559451054 -0.0427313441866074 
0.07505886780877014 -0.007478382885149746 -0.01705364048983757 0.007446010430555585 -0.00115554140577466 -0.01333004900053528 -0.001086851082441392 -0.009044938702863034 -0.005893645919102618 -0.007281007447696051 
-0.06777876849371876 -0.01440082975561495 0.02361470665774846 -0.007268242125757669 -0.01096107524254447 0.05019950939001908 -0.005242060442685261 -0.01623830105108225 -0.0134921269334121 -0.0140806457277998 
0.3638708420746668 -0.0445519447752702 -0.005622723017257216 -0.02086443207009622 -0.02977424270290562 -0.002734065175606826 -0.05065562668603625 -0.05581195273072321 -0.03108184170804149 -0.05268173040608654 
0.005384265388601889 -0.02665521460261021 -0.03582861343173005 0.00148316231332092 0.08248693498476085 0.01404838060305159 0.06620427008109105 -0.02913083576845253 -0.02432876566541777 -0.01812854666106846 
0.000545047441421627 -0.01009293319098743 0.02713581202405256 -0.02190117535613846 -0.007068148365674762 -0.01646934673773586 -0.01558996781808025 -0.01300122313786876 -0.004081173807353645 -0.01693933426420653 
0 0 0 0 0 0 0 0 0 0 
-0.1723614151450603 -0.04020351316033807 0.1113778879653423 -0.04427004505440423 0.0002346112364612893 -0.03743570685169459 0.05069933441587 -0.03915877263187364 -0.04391224014181164 -0.03845043417537745 
0.4724974091973166 -0.2173284906004412 -0.1023173368499677 -0.1259017586791567 -0.1042586271264287 -0.0583082518667571 -0.03624632917747569 -0.2424925411595543 -0.1873949917415713 -0.2271938920149086 
-0.03236734976760204 -0.01538381009031187 -0.01774706985305345 -0.02297406656709975 0.06064433752728473 0.004484093897619274 0.01074422964354725 -0.01793129335421772 -0.01393852915554087 -0.01618680239665931 
0 0 0 0 0 0 0 0 0 0 
0 0 0 0 0 0 0 0 0 0 
0 0 0 0 0 0 0 0 0 0 
0 0 0 0 0 0 0 0 0 0 
0 0 0 0 0 0 0 0 0 0 
0 0 0 0 0 0 0 0 0 0 
0.1133113052645423 -0.3920221923585145 -0.2987248610668444 -0.2449494519581402 0.7012585119764492 -0.357875263855065 -0.3427238366620642 -0.2477241156104506 -0.5300114403876546 -0.2505214839607268 
0.505907423156242 -1.110065263374723 -0.9692732852110626 -1.016020268056022 -1.116906110756054 -0.9566290180656816 -0.9352476790426259 -1.023183800205298 -1.127951893833767 -1.004334065961259 
