solver_type L2R_L2LOSS_SVC_DUAL
nr_class 10
label 6 11 1 7 5 8 2 14 13 12
nr_feature 247
bias 1
w
-2.647517256104419 -0.3683386212851723 -0.05459780545284339 -0.08350197433643317 -2.220280671632884 -0.7975301054287328 2.007023841694909 -0.4973907681834874 -0.2895188155362767 -0.3180756320966207 
-2.798267722738729 -0.4344411054123641 2.006742172337961 -0.1923001966846939 -2.011783594774875 -0.2018821877405359 -0.03937723578347209 -0.8739127890962618 -0.3016367805673579 -0.4169543577145407 
-2.315834115534383 -0.269525334538952 -0.0325816529148449 3.448553559881903 -2.301822929762649 -0.3750176487992687 -0.03410520093377357 2.112007877343789 -0.3484856856003086 1.739128483848416 
-2.388481176425541 1.86948911445275 -0.02014397130232837 -0.1624141356130957 -2.315418886347345 4.007186685023825 -0.02456853380739989 3.469446951953614e-018 1.701893393557669 -0.236169658915488 
0.3470673287675863 -0.02919019070367035 -0.05511820572527313 0.4546598341683221 -0.4280668721919417 0 -0.05296822755896014 -0.4593407962460305 0 -0.4851489647625384 
0 0 0 0 0 0 0 0 -0.017852498633789 0 
0 0 0 0 0 0 0 0 0 0 
0 0 0 0 0 0 0 0 0 0 
0 0 -0.03674615833381741 0 0 0 -0.03486406771731722 -0.137006905236858 0 0 
0 0 0 0 0 0 0 0 0 0 
0 0 0 0 0 0 0 0 0 0 
0 0 0 0 0 0 0 0 0 0 
0 0 0 0 0 0 0 0 0 0 
0 0 0 0 0 0 0 0 0 0 
0 0 0 0 0 0 0 0 0 0 
0 0 0 0 0 0 0 0 0 0 
0 0 0 0 0 0 0 0 0 0 
0 0 0 0 0 0 0 0 0 0 
0 0 0 0 0 0 0 0 0 0 
0 0 0 0 0 0 0 0 0 0 
-0.2202845799966688 0.1343372073134587 -0.05092450225323224 -0.1773769532976405 0.2211667565884114 -0.259859539735413 -0.04544941746082809 -0.50513323079149 -0.8076821628429405 0.07352845874056149 
-0.04547749232943488 -0.4616682197344305 -0.05362969973881702 -0.3756929665539934 0.03624999013162954 -0.2290604314881514 -0.05162361675622526 0.2908019777155385 0.05650975537451591 -0.05080182839613714 
0.0908521989098052 -0.05905593805712083 -0.0535788546401127 0.01071042231394048 -0.11087316186622 -0.5123079910584697 -0.0567770380615931 -0.8034817131830679 -0.02152430195554216 -0.09583111495208953 
0 0 -0.02432869019927979 0 8.673617379884036e-019 0 -0.02270753686158405 0 0 -0.2797369743025835 
0 0 0 0 0 0 0 0 0 0 
0 0 0 0 0 0 0 0 0 0 
0 0 0 0 0 0 0 0 0 0 
0 0 0 0 0 0 0 0 0 0 
0 0 0 0 0 0 0 0 0 0 
0 0 0 0 0 0 0 0 0 0 
0 0 0 0 0 0 0 0 0 0 
0 0 0 0 0 0 0 0 0 0 
0 0 0 0 0 0 0 0 0 0 
0 0 0 0 0 0 0 0 0 0 
0 0 0 0 0 0 0 0 0 0 
0 0 0 0 0 0 0 0 0 0 
0 0 0 0 0 0 0 0 0 0 
0 0 0 0 0 0 0 0 0 0 
0 0 0 0 0 0 0 0 0 0 
0 0 0 0 0 0 0 0 0 0 
0 0 0 0 0 0 0 0 0 0 
0 0 0 0 0 0 0 0 0 0 
0 0 0 0 0 0 0 0 0 0 
0 0 0 0 0 0 0 0 0 0 
0 0 0 0 0 0 0 0 0 0 
0 0 0 0 0 0 0 0 0 0 
0 0 0 0 0 0 0 0 0 0 
0 0 0 0 0 0 0 0 0 0 
0 0 0 0 0 0 0 0 0 0 
0 0 0 0 0 0 0 0 0 0 
0 0 0 0 0 0 0 0 0 0 
0 0 0 0 0 0 0 0 0 0 
0 0 0 0 0 0 0 0 0 0 
0 0 0 0 0 0 0 0 0 0 
0 0 0 0 0 0 0 0 0 0 
0 0 0 0 0 0 0 0 0 0 
0 0 0 0 0 0 0 0 0 0 
-0.037271392532093 -0.04527143913832123 -0.05329765390368525 -0.2936105310591936 0.0531824042619037 0.09149889006183699 -0.05080204729607112 0.7373402757146961 -0.1601541573771075 -0.378649112857319 
0.06831960160656304 -0.1396437039496308 -0.05015107914558093 -0.8397670838015786 -0.09695944961203408 0.1215071096988211 -0.05061264566992962 0.6018671785718586 0.01121389555610034 0.4674602830168141 
0.1856436147818283 -0.1275610997715443 -0.05819864454946683 -0.2713897312086661 -0.1987067723522425 0.287554389001543 -0.0609756171159931 0.1804373044336729 -0.5504026758685058 -0.2302652020764507 
0.07585819594992059 -0.7584410167287445 -0.04567581600330546 0.07958100790340833 -0.06191324607280063 0.1859607628540098 -0.04552579290995346 -0.4908737494879158 0.5467093489731434 -0.01749324371835795 
-0.1109472545090096 0.2904011223753493 -0.05388415357694332 0.01727774568118255 0.1105871534400775 -0.3236292008134768 -0.05404998834843677 -0.4278998430683242 -0.03582561836673937 0.2729604135290699 
0 0 0 0 0 0 0 0 0 0 
0 0 0 0 0 0 0 0 0 0 
0 0 0 0 0 0 0 0 0 0 
0.4269845584940758 -0.08673484108063731 -0.04660151836973107 -0.1323340592025989 -0.3775056885620323 6.938893903907228e-018 -0.04778313755847199 0.4342529991982036 3.469446951953614e-018 -0.4238677125294909 
0 0 -0.003092157979286264 0 0 0 -0.001718550099581697 -0.176984106001712 0 0 
0 0 0 0 0 0 0 0 0 0 
0 0 0 0 0 0 0 0 0 0 
-0.7656462138636484 0 -0.04270400193665293 0 0.49549668765209 0 -0.04357051024726196 0 0 0 
0 0 0 0 0 0 0 0 0 0 
0 0 0 0 0 0 0 0 0 0 
0 0 0 0 0 0 0 0 0 0 
0 0 0 0 0 0 0 0 0 0 
0 0 0 0 0 0 0 0 0 0 
0 0 0 0 0 0 0 0 0 0 
0 0 0 0 0 0 0 0 0 0 
0 0 0 0 0 0 0 0 0 0 
0 0 0 0 0 0 0 0 0 0 
0 0 0 0 0 0 0 0 0 0 
0 0 0 0 0 0 0 0 0 0 
0.2649889496276986 -0.02009264263671677 -0.04533855106812158 -0.1390297896551643 -0.2590262248059284 0.5361138949186248 -0.04536197520756093 -0.0005601612976587319 -0.3999254554648833 -0.002607575440968624 
-0.1570188824317055 -0.5847336726729191 -0.04764972681531479 -0.302187326323661 0.1817723703940064 -0.2878694149284082 -0.04686109302828955 0.2401009415465697 0.4015284986251171 -0.1322297490764053 
-0.0339777447287527 -1.198679917050461 -0.05308397737649098 0.005562000924016181 0.05916419674513701 0.5650258246146277 -0.04952717457064011 -0.406840006324029 -0.3258518094900221 -0.328691214986988 
-0.1381375459685883 6.938893903907228e-018 -0.02985429659418199 0 0.0834370554966354 0 -0.02995679421053887 0 0 0 
0 0 0 0 0 0 0 0 0 0 
0 0 0 0 0 0 0 0 0 0 
0 0 0 0 0 0 0 0 0 0 
0 0 0 0 0 0 0 0 0 0 
0 0 0 0 0 0 0 0 0 0 
0 0 0 0 0 0 0 0 0 0 
0 0 0 0 0 0 0 0 0 0 
-0.1555284054424883 -0.1504877981823694 -0.02860692610177053 0 0.144999840673376 0.01126364572395272 -0.02355407082793712 0 -0.1256933724993944 0 
0 0 0 0 0 0 0 0 0 0 
0 0 0 0 0 0 0 0 0 0 
0 0 0 0 0 0 0 0 0 0 
0 0 0 0 0 0 0 0 0 0 
0 0 0 0 0 0 0 0 0 0 
0 0 0 0 0 0 0 0 0 0 
0 0 0 0 0 0 0 0 0 0 
0 0 0 0 0 0 0 0 0 0 
0 0 0 0 0 0 0 0 0 0 
0 0 0 0 0 0 0 0 0 0 
0 0 0 0 0 0 0 0 0 0 
0 0 0 0 0 0 0 0 0 0 
0 0 0 0 0 0 0 0 0 0 
0 0 0 0 0 0 0 0 0 0 
0 0 0 0 0 0 0 0 0 0 
0 0 0 0 0 0 0 0 0 0 
0 0 0 0 0 0 0 0 0 0 
0 0 0 0 0 0 0 0 0 0 
0 0 0 0 0 0 0 0 0 0 
0 0 0 0 0 0 0 0 0 0 
0 0 0 0 0 0 0 0 0 0 
0 0 0 0 0 0 0 0 0 0 
0 0 0 0 0 0 0 0 0 0 
0 0 0 0 0 0 0 0 0 0 
0 0 0 0 0 0 0 0 0 0 
0.04104605936828022 0.7340725662658526 -0.04714197208447238 -0.1523564141395351 -0.01594194579258144 -0.9050903172748424 -0.04926908342391453 0.1155867006219596 0.01389232392960132 0.1829588442246869 
0.08044559562910254 -0.439818057813868 -0.04354560130336029 -0.2041092594432158 -0.07152401207027392 0.1136791262110862 -0.04213784786750997 -0.3618219210986798 -0.1188630732517058 0.2301877686944751 
0.2264602563579498 -0.1160158686201624 -0.05132728960557601 0.2469198172021205 -0.1779898271324679 0.09667169794575253 -0.05132739020365858 -0.5752222386257938 -0.2922996128307339 -0.3398975796037217 
0.232310429215445 0.6155692354340959 -0.05092153002519796 -0.3251241076588262 -0.2178041324161611 -0.5040209072693738 -0.05222583858624981 -0.3720626444494605 0 0 
0.3318331643911302 0.0508277179625348 -0.0456659088093581 -0.3929491175573483 -0.3204115178550171 -0.2641095614207169 -0.04306252992527686 0.09026093485268427 -0.131795914158847 0.09016993293938011 
0 0 0 0 0 0 0 0 0 0 
0 0 0 0 0 0 0 0 0 0 
0 0 0 0 0 0 0 0 0 0 
0.1002115568338987 -0.2836797526596848 -0.002891783984335034 0.3059656059429137 -0.09458000084205058 0.01310034469986707 -0.004801387587735913 -0.9314882580758048 0.325543799256262 0.1003589436485727 
0.09077610374476033 -0.6454040127212917 -0.04876522462115101 0.02892310338415332 -0.06269306114385394 -0.1758580620975642 -0.05484118269598712 -0.38271215268563 -0.1513774781552155 -0.4501418120303893 
0.2139608923189886 -0.6077533424744857 -0.04780148203628402 -0.3844929950795918 -0.1995785478116146 -0.3253444516523394 -0.05442348458090099 0.04945083848266968 -0.147404709865106 -0.2649863110329647 
-0.03995612344202421 -0.02987556168002055 -0.04574329090163101 -0.8233449570714123 0.05268480522185694 0.2069893480173272 -0.04976236151938381 -0.09955838275635412 -0.5343174535968875 0.4355924078507131 
-0.19160929508845 0.3160729291185661 -0.04912318450420086 -0.1238167903132917 0.1993892083292781 -0.3441228457467254 -0.05379087689917148 -0.2666313556659656 -0.1280562748898674 -0.2968023234893071 
0.5470282971407567 -0.02919019070367036 -0.05033771693465042 1.734723475976807e-018 -0.7403754634063657 -6.938893903907228e-018 -0.05931242295444672 -1.040834085586084e-017 -0.01785249863378901 8.673617379884036e-019 
-0.006511878871577748 0 -0.01393025896809531 0.09942357991062122 0 0 -0.0123953500450207 -0.3138384489526372 0 -3.469446951953614e-018 
-0.5212115458530121 0 -0.04127615235942692 0 0.5278034679047614 0 -0.04411325025935266 0 0 0 
0 0 0 0 0 0 0 0 0 0 
0.2612837706990554 0 -0.0310267591856461 0 -0.2525636067672825 -3.469446951953614e-018 -0.03124174959544173 0 0 -0.1476392470770815 
0 0 0 0 0 0 0 0 0 0 
0 0 0 0 0 0 0 0 0 0 
0 0 0 0 0 0 0 0 0 0 
0.2359555726205052 -0.07215178535830202 -0.04557411271066067 -0.238383999449536 -0.1903661770630526 -0.5861687429392289 -0.04634981474396394 -0.03061449373291502 -0.1700970497203136 -0.197389505317724 
0.03061994040372142 -0.5760639380022478 -0.04685591882661219 -0.2797659971773537 0.005159563214668205 -0.247360888889827 -0.04670569664725174 -0.6073752482587326 0.1737052257556938 0.2068993708664145 
-0.05930960907054839 0.08283861614577393 -0.04773055982958885 0.1645927034140897 0.07597860232166383 -0.01624883914513628 -0.04742271164857045 -0.3972676672282819 -0.5210328362993699 -0.5064570718454236 
-0.1289656248118101 -0.311832851646085 -0.05059922164151381 -0.1434952212608324 0.1414093487026512 0.2001788137709338 -0.04819478828196651 -0.2353009855544817 -0.335890382377485 0.05048122066860018 
-0.2103664955003351 -3.122502256758253e-017 -0.04292028961409475 -1.635242994532991 0.1993339265418496 -3.469446951953614e-018 -0.04370154839980451 0.795826873152375 0 0 
-0.3251612207206765 0 -0.03986588189852684 0.04256845968264947 0.08881750086060196 -3.469446951953614e-018 -0.04018146586875791 -0.3080587652911966 0 -6.938893903907228e-018 
0 -0.1683955213514191 -0.03674615833381741 0 0 0 -0.03486406771731722 0 0 0 
0 0 0 0 0 0 0 0 0 0 
0.81098765772764 -0.1504877981823694 -0.03353533577806112 0 -0.7956659622516007 0.01126364572395272 -0.0324791991462664 0 -0.1256933724993944 0 
0 0 0 0 0 0 0 0 0 0 
0 0 0 0 0 0 0 0 0 0 
0 0 0 0 0 0 0 0 0 0 
-0.2481498891108074 -0.07105756267788961 -0.002228547003570937 -0.03664320890365608 0.2623528590667008 0.2226644572128167 -0.001207521819028177 -0.02007689211921547 -0.1674174458302964 -0.02529925483074252 
-0.7890721932414548 0.3362066398568399 -0.003390782794157316 0.2649247587025915 0.7916231791009712 -0.2500557036919067 -0.006708312425531409 -0.1752592741324512 -0.3352007635867211 -0.3250354905351321 
-0.1186356606913827 -0.673089102094623 -0.07823251828591943 0.2824213741968248 0.1292895358100677 0.669107465582075 -0.07745490872080785 -0.5241487022186339 -0.9757053760881191 -0.8379764463106054 
0.7462746143411856 0 -0.06892432811871568 7.806255641895632e-018 -0.8764143582868773 0 -0.06530621338240635 0 -0.08393413560282159 0 
-0.06586290024117525 0.4217387468542246 -0.07558567980299075 0.2584032315484783 0.1148308139106733 -0.4991058140287735 -0.07421842464636058 -0.4465380636939026 0.06252703566165947 -0.1717566484696445 
-0.05434168928371987 0.1025099958093756 -0.07731116961429928 0.002910291797465315 0.0613898637090845 0.09890229441238702 -0.07612447766361714 -0.4059312556139433 -0.6594989616255791 0.01342949250602758 
0.179608026463651 -0.6542859354329504 -0.07393991328736452 -1.407637988167563 -0.2234324498334814 0.2709499337339609 -0.07322463199015715 0.9778461615667088 -0.5669768796897058 -0.115399333337872 
-0.2559827154946815 -0.2713962595128162 -0.08221540018684678 -0.4767992131531394 0.2336910290941679 -0.8106624930392383 -0.08061390039778434 -0.126715159707376 0.8036298601730688 0.3550661019058629 
-0.07729945444538058 -0.1215707240178623 -0.07932444877337741 -0.05490595207627876 0.08531236792314882 -0.3675273981397089 -0.07941343895575849 -0.4878024819107741 0.4409500420306308 0.03265954792720057 
-0.2745981833839646 -0.4596758438227463 -0.0778846488310735 -0.1599994180991157 0.2987480385467201 -0.02686976178277927 -0.07683637449177272 -0.2882565563162159 -0.1188630732517056 -0.3595243473387226 
0.3386034126631324 0 -0.06745358524076085 3.469446951953614e-018 -0.5420321340333859 0 -0.06337398607256001 1.734723475976807e-018 0 0 
0.1490297979031931 -0.03664611498207321 -0.07290987590243842 -0.5967394841632476 -0.1572049981903143 -0.2015088118491805 -0.07149974382219961 0.1619200617865212 -0.2048835823145269 0.3390076444345553 
0.08152186747931625 -0.208386266072577 -0.07759687326667433 -0.08726872426614198 -0.04521220232906448 0.1152962546479399 -0.07882499082506701 -0.7797467239579767 -0.2799561839892973 -0.07954241437171325 
0.2198632238033038 -0.7741936867154287 -0.08106461432236083 0.2706911785385515 -0.2266020154264209 0.1430826612377042 -0.0798498749354123 -0.5353224414258209 0.08194210401496131 -0.484062890452826 
-0.2187802348397533 0.3290366342032348 -0.08058004444962977 -0.3423371668396066 0.2243230031311082 -0.4204949584516088 -0.07926798269326166 0.2808068839992359 -0.3113765065883257 -0.3735096146416454 
0.05812033702327068 -0.04622800100505858 -0.07804381605657602 -0.4799546410246535 -0.02735288937185812 -0.2478413952813778 -0.07670304291661927 0.1473092743363373 -0.1458711730119716 0.2336543365913241 
-0.1399260738830966 0.03882336040270623 -0.01115259054964533 -0.01238109869975582 0.1309147325042169 -0.2289632085257304 -0.009154069454273968 -0.2491721143712311 -0.02684556992748099 -0.1838147696604741 
-0.06599468226795233 -0.0884829588553244 -0.01412667168746204 -0.1236692622734775 0.03820398316569947 0.0500480207452416 -0.01501891683929617 -0.2056931665420217 -0.8092245413947828 -0.001159257699108665 
-0.0404630577834974 -0.2537539860882597 -0.01239061555268481 -0.3969452710933819 -0.003160003887410449 -0.2194626467166876 -0.01369045403385225 0.5385716919745903 0.2717857939126774 -0.7084015004536912 
-0.3205008050384837 -0.06851511090325327 -0.01201013877042799 -0.3425697216654853 0.3285304499396373 -0.04711331939729736 -0.0123561218459652 0.3718881338250438 -0.729471943617977 0.06420611598658488 
-0.3504404652981916 -0.06178171371614549 -0.01024538264217909 -0.3235645750248082 0.3241411054827635 -0.2124786299605498 -0.01147130216283772 -0.493870254490994 0.3315487101639301 0.6617188674528542 
-0.3774878950570332 -0.5009088968661681 -0.008312214907660855 -0.4341121112838671 0.3684220228267749 0.01081906074571434 -0.005040900888137847 0.04833797406809456 -0.02815706944624495 0.4972903048787901 
0.04941799575081046 -0.2614739723682052 -0.01037975776171345 -0.2627339692962481 -0.108442220763138 0.008814711630008933 -0.008015541980529896 0.2073548081105593 0.01135620516901289 -0.2265010742894876 
-0.02034403588171826 -0.249175716341383 -0.0157259984802102 -0.23129819038106 0.03259153677993343 0.3924071849370523 -0.01564946247874817 0.2081707788494793 -0.9120507552482324 0.09146836070566403 
0.02690268558320027 -0.1439444370015526 -0.01373356329985939 0.007937512466726679 -0.01684915685580626 -0.4324562855034873 -0.01518287819037148 -0.4018906163914188 0.5475094275434095 -0.3411208871301304 
0.01993741453945794 0.2229979683588482 -0.01111156980310687 0.1036045452632301 0.003446785426437657 -0.3775161226048707 -0.009682013195445675 -0.298473863653361 -0.5749407583516694 -0.1169270336374307 
0.1831214334201192 0.2438196982113384 -0.01101990638076708 -0.3810800265309017 -0.1479223430028666 -0.2769396188133989 -0.01153609879542188 0.00785361450862984 0.05727137836126234 0.3397729754191585 
0.1020561985345155 0.2399924830866922 -0.01102741080446506 -0.2939680289205247 -0.1076888008539971 -0.3369522661282942 -0.01164682433280913 0.6220724362095726 -0.4525897111902757 -0.933371120507893 
-0.001643195577921237 0.139325006895679 -0.01041673553174494 -0.3503190769238413 -0.02233289778955467 -0.574788073016856 -0.009435902193693323 0.01535516134717915 0.5202808034446911 0.453530818965487 
-0.2172135440043977 -0.7567839926239863 -0.01501706336821457 0.03347730588584179 0.2356683948198885 0.9679091696505464 -0.01396313611264882 -0.6992707964883252 -0.1644887997000509 0.4499971126579976 
-0.2772256020674135 -0.1616406305108505 -0.01988129073777595 -0.6907563995667114 0.2344307405475604 -0.5075968065466099 -0.01677651628268154 0.2667826802730726 -0.1492807482636113 0.3221397980521214 
-0.3677737313216221 -1.416115368721532 -0.022364499262579 -0.8234872466541415 0.3258517440833855 0.3429224094062038 -0.02417077880255916 0.5418052646253778 -0.3710347178266401 -0.122481571730456 
-0.504326533175483 0 -0.01053932983048573 -0.140084890458724 0.4801425130194449 3.469446951953614e-018 -0.005944735177299489 -0.3825990943155813 0 0.2285992306647817 
-0.09606911701292309 0.3816627208377366 -0.02583225204093255 -0.2416474726574492 0.03818507161815297 -0.4736616143388984 -0.02785527694235303 -0.2085717780088304 -0.4586929490506143 -0.3249187707709798 
0.1971841881175786 -0.3345319010598464 -0.02189234050414761 -0.4905474583135858 -0.1991439810890677 -0.09652736900254051 -0.02076892763093971 -0.1449712529310474 0.01802685477241542 0.2093668863061584 
-0.02325665255956206 0.1553048608409249 -0.02448016476528352 -0.3145465810851138 0.04997312905725086 -0.2459498528772229 -0.02644595892555983 -0.1335116832198439 -0.2050671714375721 -0.04429993760829584 
-0.1563423517788397 0.5026144746778967 -0.01771351568128055 -0.01379392240116623 0.1624398621019471 -0.6060640571186327 -0.0148983949870476 0 -0.01894018393756179 0 
0.07523177283408022 -0.6271564238733369 -0.02396622671765607 -0.292757997340667 -0.03635549154609558 0.3102052675190943 -0.02498303375559168 -0.2677003494673547 -0.7730279145381463 -0.2217167222250134 
0.260687428235924 -0.01419882869498624 -0.02208324745140257 0.6526154907971644 -0.2255129709269102 -0.852017658790849 -0.02361430189958997 -0.6286104091399644 0.1365331359113289 -0.5953250752055643 
0.05676745493175413 -0.04954299221124386 -0.01860798522731789 0.3416539158001727 -0.07776969002323163 -0.2950429892550272 -0.0194027458458135 -0.6213677798524134 -0.3986715096089894 -0.4558473980066058 
-0.1459016406975748 0.0547913397263224 -0.0001361763369171131 0.005509304074588169 0.1579766386139707 0.05497323996325795 -0.0008308754769795291 0.183118935443323 -0.2517391194124757 -0.2735797855627229 
0.06445964557599931 -0.06211097476045907 -5.524593624217685e-005 -0.0181302854720507 -0.06833161404788508 -0.2091746710909121 -0.001870456806967617 0.02547975910246102 0.8222468797003978 0.07908775853779436 
0.06168753081099677 0.1348369386389923 0.003906730253950944 -0.2271694925609386 -0.0577120589720618 0.0523291145314747 0.003654899409228089 0.4704981264883904 -0.2805246465924887 -0.015726449938015 
0.1500208849349401 0 -0.0008541464516936199 -0.6198868550707506 -0.1466393794087323 -0.2289116660703049 -0.007485608815258865 -1.214306433183765e-017 -0.1188630732517057 0.706343079858396 
0.1568040752611717 -0.2632615455115592 -0.002033709557523462 -0.5323234919209487 -0.2002309084526854 0.3841196316000911 0.001855651974190099 0.2268886915248521 0 0.2317923736771563 
0.04612542827294946 -0.1807228899301629 -0.004861795121943634 0 -0.2264498699309234 -0.6979311149737411 -0.002458170687272523 -6.938893903907228e-018 1.418657067620856 2.602085213965211e-018 
0.09465690303248088 -0.6411576651366027 -0.005387917602536997 -0.8442177456525679 -0.01295055866447636 0.4340185910396309 -0.008398933875944975 0.6731150404109239 1.387778780781446e-017 -0.07900232364277285 
-0.05974781236316799 0.6078075027382405 -0.004698933202368117 0.02674779086761416 0.05956129853507569 -0.6057253460549419 -0.009110775228346028 0.3103940430611909 3.469446951953614e-018 -0.4249269902404375 
-0.732446233676859 1.289930740719961 -0.004575726576719733 0.4621434172599968 0.7831278955836205 -1.731960522922435 -0.00446842077060763 -0.6029464247966044 0.870828688845332 -1.02923612382637 
-1.013121526244266 0.1743054868157337 -0.005540383055129396 -0.5322150144284514 1.0652701782699 -0.1290903253718345 -0.0115882715745508 0.2744677973003062 -0.004002735379182873 0.4603673105337859 
0.2714594858890069 -0.6010995813523404 -0.003938910909669264 -1.559180205381687 -0.4889713082422203 -0.7158998911201961 -0.001550050239932415 1.387778780781446e-017 1.032392881566275 1.352563198140023 
0.09173627527058584 0.9114083680807671 0.001275638401264888 0 -0.05354006376149077 -0.2387679526347034 0 0 -0.5628848943565437 0 
-0.4122295684058654 0 0 -1.549060890384834 0.4255188476551485 -0.127353552761504 0.0001755619256663761 0 0 1.266827387138314 
0.1006493886696631 0.7590990093359207 0.00365212088363258 0.2962601255189946 -0.1129079489921817 -0.677545685334043 0.0007451182770167521 -0.3747771252016497 -0.2040079604094044 -0.2197969177829408 
0.07651544463927454 0.02097909988043208 -0.0008144610135520561 0.2801589118714668 -0.06374583074670641 -0.08731574990331679 0.0006946157200826955 -0.1425279597289658 -0.04886571604630526 -0.2080886759698192 
0.3575420387899548 -0.05729443003924828 0.001148311491006711 0.2430723744550063 -0.3653425853743976 0.1158897675693254 0.0002640483536013368 -0.15838850792712 -0.3360076434370904 -0.2603100879035288 
0 0 0 0 0 0 0 0 0 0 
0 0 0 0 0 0 0 0 0 0 
0 0 0 0 0 0 0 0 0 0 
-0.7466004509266302 0 0.003507032539303801 0 0.757272545246011 0 0.0008341906848572989 0 0 0 
-0.1915503238600426 0 0 0.4202645560065386 0.2047227103826322 0 0 0 0 -0.07388428877014898 
0.1398599435753009 0.2574707672197624 -0.002305982138103686 0.2945019081615045 -0.134406291308643 0.09274332370472208 -0.006064189639788876 -0.1284378423457492 -1.028873854676713 -0.2303864734479804 
0.2576523068700133 -0.05167355410297836 0.001539598358545595 -0.4019864276476134 -0.2945937410558066 0.4178648946129959 0.001215223813994996 -0.01977701386555859 -0.2840807528702666 0.4048463519576089 
0.1679566730873753 -0.2464026483119843 -0.005081526731392432 0.1925365339811348 -0.1522667778597357 0.03567449459678914 -0.005627979980636916 -0.1780538262783935 -0.04084101657064524 1.474514954580286e-017 
0.02703268572178187 -0.723953330100432 -0.0004439444666715445 0.2114667415720372 -0.02558304767592762 0.4243285261233394 -0.002752231882835876 -0.06382542441736319 -0.1256933724993944 -0.1905307773852125 
-1.06753224534086 0 -0.000737014094224158 -1.442274483886765 1.073188862170461 0.09953241169364177 -0.002698410183258991 0 -0.1524228891136122 1.592110046760061 
-0.2225902152820687 -0.2494488937249434 0.002706983512196823 0.5785100143323515 0.2080719402609085 -0.7874550430981582 0.002814337813971323 -0.3492593928091204 0.5052860984009262 -0.4170978768308045 
2.775557561562891e-017 0.8742954538024382 0.0005179803678291049 -1.142120358900074 0 -0.6733347252246552 -0.002141624344149776 1.2253860912694 -0.1436484061905739 -0.3212151538922677 
-0.2750693349855319 -0.153287673820273 0.003044946202326635 0.3485758090238311 0.2891864992308639 0.4589239857992105 0.005382731031941201 -0.7621095627515411 2.775557561562891e-017 0.2545732533148319 
-0.06606746419432574 0 0.001866546782963862 0.4965731789010299 0.06046649889392664 0 0 -0.300836095888577 0 -0.3657027270826879 
0.4090183879058833 0 0 0 -0.3690530135961173 0 0 0 0 0 
0 0 0 0 0 0 0 0 0 0 
0.1334514627999811 -0.08800786038392894 -0.001025199115925074 0.4206474030032511 -0.1492078018651466 0.06961440740627926 -0.001654500354969212 -0.522641930039313 -0.01087315388018588 0 
0 0 8.781915751022716e-005 0 0 0 0 0 0 0 
-0.446696297580267 0 0.001693686299010779 0.3640650615702991 0.4523393109066983 7.806255641895632e-018 0.002532409217785119 -0.4141457820724361 0 0 
-0.3064303295816389 0 0.002686895642564013 0 0.03221343456944013 0 0.001959028787461415 0 0 0 
0.2256942473703265 0 0.002183978716610535 -0.8981520919612553 -0.224493705493295 -2.168404344971009e-019 0.003518274657117669 -0.203257343436589 0 0.9725398540426797 
0 0 0 0.4197534788635419 0 0 0 0 0 -0.3841623248019597 
0.4987920299795365 0 -0.006213462087968481 0 -0.6719153783594809 0.2854093892604244 0.001147997796532809 0 -0.563303135399144 0 
0.4962259334861168 0 -0.0008521111183123759 0.439338439825957 -0.7463471040981302 0 0.0004645153303290083 -0.05995538037186432 -0.2006972403408505 -0.4459518062218679 
0.2451034525744139 0 -5.421010862427522e-020 0.3585676779162476 -0.2525133262039662 0 -1.050320854595332e-019 -0.4370016305528838 0 0 
0.01641709708626526 -0.2924748573506734 -0.001284890095466934 0 -0.02012962763934505 0.4380202249807659 -0.002905930434651756 -0.00832389574382319 -1.387778780781446e-017 0 
0.4844451332819132 -0.09313841781886142 0.002592039085955006 0.1297181590163959 -0.5325181991772446 0.4208596431121218 0.0005663799462118286 -6.938893903907228e-018 0 -0.01749324371835791 
-1.328285849387321 0 -0.003864547659447336 0.1639993764733174 1.005936131682301 -2.775557561562891e-017 0.00558156829802824 1.387778780781446e-017 0 -0.1387644106024653 
6.938893903907228e-018 -3.469446951953614e-018 -0.001044648006259671 0 0 0 0 0 0 0 
0 0 0 0 0 0 0 0 0 0 
-0.7009861349516994 0 0.005786956516965729 0 0.6022400387479931 -1.387778780781446e-017 0.004277924754037054 -4.336808689942018e-019 -0.1798567380151096 -0.01471774526688851 
0.157647540975351 -1.344333981242341 -0.004294309662180657 0.1247369979240224 -0.1532341827727837 0.5942874092718625 -0.004158270563086149 -0.01703243524027342 -0.3295243267375311 -0.2338336422214307 
-0.6791331845641117 0 -0.0001142978847046392 0 0.6867657869718843 0.2082909203703926 0.002585661928402415 0 -0.2793981816113945 0 
0 0 0 0 0 0 0 0 0 0 
0 0 0 0 0 0 0 0 0 0 
0 0 0 0 0 0 0 0 0 0 
0 0 0 0 0 0 0 0 0 0 
0 0 0 0 0 0 0 0 0 0 
0 0 0 0 0 0 0 0 0 0 
-0.4766929857868556 0.05170395076244943 -0.007194618330423247 0.03381777216691265 0.470521852868851 0.1644397332246166 -0.006900056971705412 0.1362584280684874 -0.4650001206885721 -0.3123824882031491 
0.3537602206484952 -1.196093278394639 -0.5355334580695171 -1.395608255854204 -0.4753331976732245 -0.6383360114792935 -0.5263559957568846 -1.013289501577918 -0.9790084151408579 -0.7239772857790301 
