solver_type L2R_L2LOSS_SVC_DUAL
nr_class 10
label 6 11 1 7 5 8 2 14 13 12
nr_feature 267
bias 1
w
0.2561396792976315 -0.1333716802418515 -0.1371298337847709 -0.1041743952484916 -0.1132851632436728 -0.1742827760434079 0.04765372942919617 -0.3845805473001446 -0.3181678812106298 -0.3137713650327623 
-0.4635176923603215 0 -0.1854913934657111 0 0 0 0.55869622593182 0 -0.1006691753103068 0 
0 0 0 0 0 0 0 0 0 0 
0 0 0 0 0 0 0 0 0 0 
-0.3505869478858263 0 0.167482479909946 0.02429269360945865 -0.2861003091630894 -0.1893513434847397 0.1143448605070042 -0.0489015884264544 0 -0.09045780298692847 
0 0 0 0 0 0 0 0 0 0 
0 0 0 0 0 0 0 0 0 0 
0 0 0 0 0 0 0 0 0 0 
0 0 0 0 0 0 0 0 0 0 
0 0 0 0 0 0 0 0 0 0 
0 0 0 0 0 0 0 0 0 0 
0 0 0 0 0 0 0 0 0 0 
0 0 0 0 0 0 0 0 0 0 
0 0 0 0 0 0 0 0 0 0 
0 0 0 0 0 0 0 0 0 0 
0 0 0 0 0 0 0 0 0 0 
0.02353420211327334 0.0007430176133324249 -0.1134805509594986 -0.0023690277035994 0.00343574442548345 -0.02976164023943916 -0.04237034739114656 -0.3042947670402538 -0.4482852959832299 0.07106315289348808 
0.03986033836571162 -0.028166168527274 -0.1788732022705148 -0.03732464422781815 -0.0029793636220985 0.0132667370471241 -0.05957754756313889 0.1599546520089719 0.08610141605341551 0.03545042115971988 
0.06902873008622444 0.002581440814155925 0.08450713626164755 -0.08866380044641212 -0.04227672557855158 -0.002769878180036557 -0.2604236410416709 -0.2825451209554891 0.08590098852294213 -0.05126023862852794 
-0.2852943705369501 -0.02445661215396273 0.3647395275572102 0.09550637199093763 -0.03658893399533954 -0.07297009838660479 -0.5851060737283649 0 0 -0.1330267567656259 
0 0 0 0 0 0 0 0 0 0 
0 0 0 0 0 0 0 0 0 0 
0 0 0 0 0 0 0 0 0 0 
0 0 0 0 0 0 0 0 0 0 
0 0 0 0 0 0 0 0 0 0 
0 0 0 0 0 0 0 0 0 0 
0 0 0 0 0 0 0 0 0 0 
0 0 0 0 0 0 0 0 0 0 
0 0 0 0 0 0 0 0 0 0 
0 0 0 0 0 0 0 0 0 0 
0 0 0 0 0 0 0 0 0 0 
0 0 0 0 0 0 0 0 0 0 
0 0 0 0 0 0 0 0 0 0 
0 0 0 0 0 0 0 0 0 0 
0 0 0 0 0 0 0 0 0 0 
0 0 0 0 0 0 0 0 0 0 
0 0 0 0 0 0 0 0 0 0 
0 0 0 0 0 0 0 0 0 0 
0 0 0 0 0 0 0 0 0 0 
0 0 0 0 0 0 0 0 0 0 
0 0 0 0 0 0 0 0 0 0 
0 0 0 0 0 0 0 0 0 0 
0 0 0 0 0 0 0 0 0 0 
0 0 0 0 0 0 0 0 0 0 
0 0 0 0 0 0 0 0 0 0 
0 0 0 0 0 0 0 0 0 0 
0 0 0 0 0 0 0 0 0 0 
0 0 0 0 0 0 0 0 0 0 
0 0 0 0 0 0 0 0 0 0 
0 0 0 0 0 0 0 0 0 0 
0 0 0 0 0 0 0 0 0 0 
0 0 0 0 0 0 0 0 0 0 
0 0 0 0 0 0 0 0 0 0 
-0.02721001993924031 -0.08056583190315732 -0.02973988000130555 -0.1799675545474715 -0.09994995892647968 -0.02594632835978493 0.1477347366557884 0.2016811595779279 -0.1565646767495642 -0.1386014761988565 
0.05924280988531284 -0.1641218696963274 0.1005877851854582 -0.1501352623345374 -0.1200832356380015 -0.1257064324751475 -0.02244796660957164 0.1430606239192219 -0.1321756037125374 0.09776750149389585 
0.1568006387894758 -0.2371816621177219 -0.01068855097792084 -0.1217198792536987 -0.05232404990468848 -0.05380749899658393 -0.1184080923364285 0.196427948664511 -0.5842029069929488 0.0003222350036708288 
-0.01338348976571981 -0.462154319527178 -0.1197787038779058 -0.01501148264217945 -0.1864351060370968 0.03642564915979894 0.07971386697191986 -0.2565718716889149 0.6102906228852534 -0.1177732051267447 
0.03763492344077143 0.0615621137597297 0.1132316187318321 -0.2837304602771779 -0.00875109128046696 -0.1646876938638874 -0.01488790804671465 -0.2444638614664478 0.01223654798067351 -0.02854448569583917 
0 0 0 0 0 0 0 0 0 0 
0 0 0 0 0 0 0 0 0 0 
0 0 0 0 0 0 0 0 0 0 
0.14139159751202 -0.2830344272640138 0.02085827106284482 -0.1616368294894796 -0.2333341119484494 -0.2438476883182056 0.05416369724620315 0.1603667799344818 -0.1677492258733322 -0.09811333606064854 
0 -0.1251416157415872 -0.03554633900401794 0.6630218072795214 -0.5386404052729903 -0.1008982832890754 0 -0.308411752987631 0 0 
0 0 0 0 0 0 0 0 0 0 
0 0 0 0 0 0 0 0 0 0 
-0.2545894689896594 -0.09519681340885831 0.3749040691124397 -0.2375864153707708 0.3409608390040996 -0.2492708863170165 -0.2873930753934543 -0.1260316322435738 6.938893903907228e-018 -0.1060482651100264 
0 0 0 0 0 0 0 0 0 0 
0 0 0 0 0 0 0 0 0 0 
0 0 0 0 0 0 0 0 0 0 
0 0 0 0 0 0 0 0 0 0 
0 0 0 0 0 0 0 0 0 0 
0 0 0 0 0 0 0 0 0 0 
0 0 0 0 0 0 0 0 0 0 
0 0 0 0 0 0 0 0 0 0 
0 0 0 0 0 0 0 0 0 0 
0 0 0 0 0 0 0 0 0 0 
0 0 0 0 0 0 0 0 0 0 
0.1019300694794239 -0.001018337160156826 -0.1059037520208571 -0.007159141097951395 -0.2547618618796416 -0.03253718772661852 0.05211872377741489 0.1667888429207783 -0.4227337070067561 -0.02864361900481351 
-0.02115523048738728 -0.02703132441182678 -0.06231440209259132 -0.1738154738163603 0.1573432550917886 0.02033506884802397 -0.05243128220309203 0.08484118867399462 0.3784304811950166 -0.02910053898384139 
-0.0028115077858572 -0.2731458320287078 -0.2719233197152925 -0.1428503421149369 0.1732650916538428 -0.01293898433617846 0.1821271990597057 0.04697673862419582 -0.2650505731822556 -0.09622579999693288 
-0.2074527794593782 -0.4053536275427147 0.525362737745515 -0.48115166479467 0.003669975189107565 -0.3996748083622009 0.04659585347528156 -0.009967214049795264 6.938893903907228e-018 -0.1874624158241839 
0 0 0 0 0 0 0 0 0 0 
0 0 0 0 0 0 0 0 0 0 
0 0 0 0 0 0 0 0 0 0 
0 0 0 0 0 0 0 0 0 0 
0 0 0 0 0 0 0 0 0 0 
0 0 0 0 0 0 0 0 0 0 
0 0 0 0 0 0 0 0 0 0 
-0.4892165807863445 -0.04549186185887266 -0.5819739310111423 -0.07087898854131441 0.8505028553644648 0.4642345687374899 -0.1365361005868152 -0.03261260492209039 -0.02814977458540454 3.469446951953614e-018 
0 0 0 0 0 0 0 0 0 0 
0 0 0 0 0 0 0 0 0 0 
0 0 0 0 0 0 0 0 0 0 
0 0 0 0 0 0 0 0 0 0 
0 0 0 0 0 0 0 0 0 0 
0 0 0 0 0 0 0 0 0 0 
0 0 0 0 0 0 0 0 0 0 
0 0 0 0 0 0 0 0 0 0 
0 0 0 0 0 0 0 0 0 0 
0 0 0 0 0 0 0 0 0 0 
0 0 0 0 0 0 0 0 0 0 
0 0 0 0 0 0 0 0 0 0 
0 0 0 0 0 0 0 0 0 0 
0 0 0 0 0 0 0 0 0 0 
0 0 0 0 0 0 0 0 0 0 
0 0 0 0 0 0 0 0 0 0 
0 0 0 0 0 0 0 0 0 0 
0 0 0 0 0 0 0 0 0 0 
0 0 0 0 0 0 0 0 0 0 
0 0 0 0 0 0 0 0 0 0 
0 0 0 0 0 0 0 0 0 0 
0 0 0 0 0 0 0 0 0 0 
0 0 0 0 0 0 0 0 0 0 
0 0 0 0 0 0 0 0 0 0 
0 0 0 0 0 0 0 0 0 0 
-0.09087268967043091 0.1944455187409728 0.3841465990918899 -0.04223422563542673 -0.2491235367452258 -0.1747840948626208 -0.3227428783070969 0.009207371305459349 -0.1016303712501922 -0.05340916496498556 
-0.03071883381339136 -0.09306166278763581 0.04177957536805484 -0.06411414052222567 -0.3298387660367715 0.04590045991767377 0.1477312568025518 -0.008743323628080581 -0.120876506328201 0.1165790495086229 
0.2367497365099394 0.06628914070753464 -0.1794401886743768 0.01977430274091324 -0.1365515698856905 0.05447277551417074 -0.1916595289513641 -0.1069488978229039 0.03056349984563457 -0.08237360032072082 
0.1309479796254892 0.08866020468903083 -0.05453383591302784 -0.06351508993169738 -0.3641527082358627 -0.1012337335018146 0.1289612570061626 -0.7034571041746383 -0.247861601317118 -0.1539939984124256 
-0.01195349064408011 -0.06605093391341926 -4.905164097430449e-005 -0.1011512397865936 -0.3646772492626665 -0.05934851012634285 0.2239867208531996 0.007758235662735719 -0.0004781860143219371 0.04995966928544711 
0 0 0 0 0 0 0 0 0 0 
0 0 0 0 0 0 0 0 0 0 
0 0 0 0 0 0 0 0 0 0 
0.07085890861855398 -0.07992504611394508 0.01405042565136753 -0.08306982349212518 0.06928872978449796 -0.01723020916259861 -0.05082707267789464 -0.3718144159295467 0.08294682577893021 -0.02481450880554508 
-0.1679238255915819 -0.05439144290856143 0.06552463586398995 0.1161617933130165 -0.04064158764257427 0.1125997071063139 -0.01670156028316626 -0.211390079890821 -0.03084735357746234 -0.208275256568309 
-0.1868119725718 -0.09369658198570825 0.02560181006070444 0.1237591588974251 -0.1314632887649608 0.1103925584417197 0.08788526472529702 -0.1186374720598367 -0.07279674333843597 -0.09759541266925627 
-0.1033631865954403 -0.04284783511048775 -0.02447340261134525 0.1732996108353782 0.04659265607511567 0.04665386356052893 -0.08061843539640751 -0.02971273741569865 -0.2894275658317382 0.01875928238385255 
-0.2913700264385224 -0.007140200832869014 0.1515901233450064 0.2372875771430139 0.01433416539901856 -0.06414173608122691 -0.03265374486423545 -0.06844974544074697 -0.08055295783267313 -0.105107470443852 
0.4028006432092881 -0.09494466351586144 -0.05643481344252389 -0.4002817126824163 -0.6934549456689625 -0.07596108485696995 -0.2650045069046434 -0.3155331980263434 -0.3525455445008282 -0.03002227316138907 
-0.8704075007399009 -0.09868517466623145 0.04849595094120803 0.2637719643610097 -0.2507493753873881 -0.1578820478721144 0.5027842380054413 -1.908195823574488e-017 0 -6.938893903907228e-018 
-0.6163028829976143 -0.1562173079570972 -0.4470764675001002 -0.2791581029960964 0.8272876006543826 -0.1177827259175683 0.3841577694398503 -0.07651013987361981 -0.1193657994357948 -0.1091635943105612 
0 0 0 0 0 0 0 0 0 0 
-0.05454725434547839 -0.009004838337213168 0.2644537749482985 0.4530613151340229 -0.07700785621098832 -0.200890905946247 -0.5766454462146293 0 0 -0.1374272951149961 
0 0 0 0 0 0 0 0 0 0 
0 0 0 0 0 0 0 0 0 0 
0 0 0 0 0 0 0 0 0 0 
0.003951503458893898 -0.04340957474756248 -0.009028016053364155 0.009048157057492573 0.02791545986495055 -0.02523283275362381 -0.07024466106698175 -0.1038981517223004 -0.3309274172014939 -0.04848012883595466 
-0.04223469753935543 -0.02919400020837752 0.03915322143232839 -0.03136907082087672 0.03956825782767207 0.0108784832844614 -0.1512632082466344 -0.0905579033841326 0.06063466199555199 0.08797976298307232 
0.07673224169573993 0.06444834424326898 -0.1277552177469074 0.01944689250865742 0.183618029166333 0.06438904613865727 -0.1886193582382838 -0.2030635899752459 -0.448995781364976 -0.3045126052298499 
-0.02660844614322017 0.04493253721095151 -0.3105576529288985 -0.04690412934329295 0.1329122945291895 0.1773023900492182 0.02576444109340944 -0.2215887649122128 -0.1980976533606116 -0.002956835985262898 
0.2309882959661525 -0.2377550388842614 -0.04308801685472913 -0.883802641769981 0.4188786480961824 0.08440394011167866 -0.3399660550665988 0.05653783211489375 -3.469446951953614e-018 -1.734723475976807e-018 
0.03651952705328519 -0.1376821655164845 -0.2439651647976114 0.397013008417883 0.1008676105181027 -0.1502782482496115 -0.4124755519471873 0.3520288948782208 0 -0.2450738551177669 
-0.02661883599838712 -0.2046101972040582 -0.2408402104220863 -0.2245433388542035 -0.4405389373716487 8.673617379884036e-019 0.2997240328338526 -0.01543056200370454 -3.469446951953614e-018 0 
0 0 0 0 0 0 0 0 0 0 
0.4991801292588288 -0.05811580700480445 0.1782896556065673 -0.5350424009813644 -0.2847293652598267 0.0225167667324481 -0.7024961895763936 -0.03261260492209039 -0.02814977458540454 0 
0 0 0 0 0 0 0 0 0 0 
0 0 0 0 0 0 0 0 0 0 
0 0 0 0 0 0 0 0 0 0 
-0.04890538693814119 -0.06036802566757042 -0.01632077118424865 0.04400860324113645 0.05061390197228483 0.06008347279470427 -0.0391324176721484 0.06563359193344637 -0.07366116918790458 0.008324850938087216 
-0.1177937706591152 0.09403643442853295 -0.1569587164906157 0.1638962194919459 0.7287346049656502 0.07067115641157419 -0.4210431686847846 -0.02962534581986375 -0.1134822821473118 -0.03880306631001233 
-0.2261377577581669 -0.177012101852861 -0.1188631380961463 -0.03980718546786166 -0.1737951124218087 -0.03405145533436441 0.2541546418856139 -0.3302242768843016 -0.3304583937835844 -0.1757846897809516 
0.3279187905333855 -0.1548405386231486 0.2648860897955668 -0.3827238783758701 -0.4333417004668743 -0.2129952936763622 -0.5042497168339312 -0.3526589388160562 -0.2558322414625722 -0.1716064986394597 
-0.06679773172787541 0.2364184398988869 -0.2861085294144989 0.01190694131683137 0.003750981365113312 6.418953850894629e-005 -0.1123444858232473 -0.0790416607029151 0.338755350894189 -0.06074913932944036 
-0.1177251558670763 -0.08183596456206727 0.07218076020600189 -0.1059041635753514 -0.04193564560454432 -0.09620654164301816 -0.02100240409058114 -0.06865205541552064 -0.4918836154665355 -0.1038523559313329 
-0.09751790104089034 -0.3796296264814832 0.1494432122568476 -0.2455951241709093 -0.2173112148672161 -0.08179890423728692 -0.00370279766272663 0.2620613230268549 -0.6402917232805758 -0.09383656049899083 
-0.08686075824509743 -0.4439207828044197 -0.1112180166154503 -0.05485156505112179 0.09148597519738502 -0.2710010311035234 0.1027714273521182 -0.1128013346577535 0.1793783707193652 -0.1254069221274094 
-0.2306306844039363 -0.06431099755516537 0.08504605417614121 -0.04632246575671289 -0.1741914761660573 -0.09360226736666338 0.1292951779514536 -0.1389164292573697 0.2547962878627826 0.06240414642307629 
-0.1818645950871524 -0.2076529047621807 0.1078912205623158 -0.07432771766223623 0.05356111988334427 -0.1169271778415666 -0.08191006814701413 -0.252966548208715 -0.3280571496153516 -0.1797390451355995 
0.09069205448874057 -0.2288321048931217 0.02786523261539822 -0.4552394428835347 -0.4333417004668747 -0.1949358427298238 0.1350840422023155 -0.006629175005324948 -0.1677492258733323 -0.2360668190512617 
-0.06049283191159958 -0.1460730053748857 -0.03854482049104459 -0.01851622373531193 -0.1481430123333473 -0.04154619063216492 -0.1841344946451451 0.1301102176259976 0.002151174621344267 0.135492181047011 
-0.05454361720569789 -0.1207194953593024 0.04393460122335176 -0.0002443455515049398 -0.06730398014036393 -0.1284963730637337 -0.125826827841888 -0.4609858758223738 -0.1846648725345571 -0.02194457200031943 
0.05683631749377966 -0.4498158263283987 -0.1710852755552592 -0.03995998249814082 -0.1109193728563612 -0.1136920354577265 0.05712278259426572 -0.2767317612755296 -0.09439289150906852 -0.1645036283734705 
-0.1632705713436514 0.1856036486955257 -0.09449727940332592 -0.1643445453812142 -0.05370217255217447 0.006630805039980139 -0.04919485964857791 0.0869476736953973 -0.1013801208789567 -0.3388624524817689 
-0.1851079549440708 -0.09764188395789201 0.1798027533570275 -0.1106651833690512 -0.1854890744982273 -0.2006244891376805 0.09378126826474201 -0.0399779037165186 -0.07144287872701011 0.1367923161109018 
-0.09226511218783831 0.03776510339067375 0.07042083002087272 0.00684511450271738 -0.02705275132739506 0.06932701560847934 -0.0358202699239521 0.003573993975463246 0.01725155941628056 -0.008045897878615609 
-0.04128414865846519 -0.05273994559794223 0.05040943765733063 0.01482441766775777 0.02205138034445638 0.004640205385054843 -0.07094368565429601 -0.06507538203900382 -0.607226187762387 0.02485556678032659 
0.04551708033838026 -0.1255595080261406 -0.1987902948522753 0.04106779073566622 0.02319799230343987 0.01819866851290793 -0.01375349042259555 0.04326889943284357 0.2322663903067382 -0.2026004540595551 
-0.1119151549955526 -0.05602559895209949 0.0551972273680157 0.06382421186005459 0.01134995083169098 0.06212214048523578 -0.04383282104606866 0.00348863581048066 -0.4324723792640782 0.02799481058367598 
-0.04906776001854656 0.01848847893525246 0.1105583983765563 0.05391710390935366 0.04149016440396126 0.03318597675457156 -0.2281912263444588 -0.08429435808803916 0.2595259561187789 0.1334866688419806 
-0.08412404232498807 -0.1197812133134196 0.08247509998098644 0.1183949680086224 0.01162830526803849 -0.06013497522036922 -0.1188640628974742 -0.03306645493050575 -0.2928810793468103 0.110789482990092 
-0.06397854187095926 -0.107872722497895 0.06074554658245759 0.07634335079018337 -0.1133474648838297 0.1630226566567541 -0.1033433760684474 0.1731156225497289 0.01145576073127789 -0.02071490218001217 
0.01097044323760908 0.06092057313111747 -0.4925871028404634 -0.02355197557014906 0.1020575980089979 0.06847393522857524 0.2829025198297983 0.1083308442027212 -0.2812431811361077 0.006212223673703135 
0.006818914907739213 0.07744001984512182 -0.09745905765021991 -0.1163710862480395 0.05010446820381859 0.01393878427563143 0.07233119324740386 -0.06900760548580651 0.4068485430237356 -0.06889602109135942 
0.02516818788735831 0.01566162799837576 0.1204880937883694 -0.2220612691541843 0.09851640189781108 -0.02818183250390062 -0.1171262608726487 -0.03696959353717488 -0.5075057240550595 -0.2268506887320176 
-0.05491130971780776 0.1806544399666396 -0.2788786134229595 -0.04605152514247418 -0.1767113692906187 0.1211702494666538 0.3858292545381889 0.1164764289506085 0.2462039577215243 0.05809881079344674 
-0.001322955585930627 -0.06707922971549055 0.02852205090544328 -0.0699548862779433 0.03018011281180667 -0.1502659497890882 0.03883805442614297 0.1474447704248362 -0.6249740819107386 -0.2046895849509548 
-0.06224400530273092 0.1312926703560663 -0.352578677251577 0.05885937944174271 -0.04322078430516282 -0.04722014917425794 0.3424075706439204 0.1550734396236483 0.4989331669760576 0.1508836864651081 
0.04307644756130485 -0.1434998945535567 -0.3592760568036814 -0.08858033104210041 0.1089398318301967 0.06392757978918121 0.2188727405288451 -0.02915215216156945 -0.4848179368653309 0.07030179895440913 
-0.04399256039072365 0.09975496610029308 -0.1557453426069036 -0.02322701235089944 0.04236989552532688 0.1014878389126226 0.101641171195371 -0.0413102502269494 -0.04796069096111764 0.03790777600188341 
-0.1257404779202538 -0.6042703402307342 0.2098337406139755 0.03111806301772562 -0.00133998922487752 0.2430867545326469 -0.2318387172164367 0.3253048869485751 -0.501491492721949 -0.04757654417970607 
-0.2166455903092348 -6.938893903907228e-018 0.2463882304291534 0.3921377511484946 -0.06492474405479677 -0.1858705316625758 -0.5075233179293645 -0.2180839075585103 0 0.1541741608385208 
-0.01073905109775624 0.09878996806886982 -0.06946038330228117 -0.02481184434096663 -0.00678758530529135 0.1316576263999341 0.02297193159313106 -0.0248997724521456 -0.2626277961171377 -0.07874011758280601 
0.0302150288059164 0.05415376867158989 -0.4351655480396185 -0.03736438051012789 0.01554538467700269 0.1075329943235893 0.2691036112277344 0.1717176565988489 -0.04160536507350046 -0.03667768829464693 
0.003545382171164255 0.1605218879132299 -0.4705644406046476 -0.1407127244164549 0.06561261910375096 0.0182111163670448 0.3490636095917498 0.1520318069631 -0.1549805398662439 -0.02114562387301258 
-0.1791132196826792 0.1031597157988329 -0.3754411358696154 -0.2808192940607802 -0.1040241433828269 -0.1601450302379257 0.787291037137469 6.938893903907228e-018 -0.2561339312710219 -0.1176999817669776 
0.1129085316931437 -0.0624451653553785 -0.1505982387612022 -0.04881529500579118 0.1927323987589176 0.07624353684008246 -0.1814031856153066 0.06844666845531529 -0.2938354200351543 -0.0394164809530298 
0.07190374159069113 0.09742481956398756 0.01367861821701713 0.1875344610302841 -0.03968777237664729 -0.1403774946456418 -0.08865473306139705 -0.1583286686449802 0.1829580815585334 -0.08818907225959305 
0.04251644238036962 0.07278977954854106 0.07937077733619093 0.1644508838304005 -0.119133042528979 -0.03972913199215002 -0.1450842952708498 -0.07653512182964987 0.01332518407551047 -0.08667475615538628 
0.1394365105159107 -0.04460581085074228 -0.149205986333831 0.01130415344903207 0.2806656072142433 -0.01518079213315076 -0.1311380466759826 0.1056258599053663 -0.1421444044016392 -0.2214054140785749 
0.09963623908948947 0.02985936902217115 0.1637916052855061 -0.02535491206295056 -0.01584290712815549 -0.1399934322731867 -0.1135078786776497 0.03477273214748246 0.5148610779855778 0.04574497349760522 
-0.04307606122455664 0.02778584022459862 -0.08516549181571634 -0.03131745940172385 -0.03800644982063989 0.04678704141514847 0.1167301116003132 0.1081459571702192 -0.1366431644640971 0.002276030410982173 
0.4442986283262104 -0.2012337548831855 0.2157125329908053 -0.1126408320227955 0.1353702208832793 -0.06847832316546612 -0.7999007505591753 7.806255641895632e-018 -0.1314228454705073 0.0414101033409203 
0.1576672060317319 -0.04153691255395901 -0.7169496608227147 -0.1099206846005955 -0.3693215314037113 0.04153310913063579 0.3671085083418748 0.3895136362224501 -6.505213034913027e-018 0.1512932983951289 
0.05067202069293117 0.1150293157323079 -0.3045283010153762 -0.165248486626545 -0.04734569508591368 0.1527322977385691 -0.1355771563985158 -0.1843099647531489 0.9122777823285428 -0.1498502425485516 
-0.04368347110693955 -0.01109107174531944 0.101544383127939 -0.05325852009388233 0.2322941386681336 0.2795763835595418 -0.2087079430983515 0.120996817815022 -1.040834085586084e-017 -5.204170427930421e-017 
-0.4073770405704224 -0.1879882362710506 -0.3176134549073514 0.2198674951094594 -3.469446951953614e-018 0.1018213388975373 0.2409059302667224 -0.1594355002846188 0 3.469446951953614e-018 
0.2210131899431377 0.2195695280438247 -0.2071881418794446 0.4746193000392516 0.3315104512684677 -0.1074334272350374 -0.7090130249075886 0.1405432502999864 -0.5760069060395324 -0.1542684777989957 
-0.1321266869799643 0.2948572006549919 0.01803510364432742 0.1569151251112733 0.2051057631047921 0.002090869723184975 -0.1772717996835654 -0.01977960764563558 0.356651840924486 -0.2329829845911738 
-0.09024081896087044 0.1222506365787057 -0.1018807825741435 -0.02437642360566352 0.5879790545351247 0.1665031451742175 -0.4209422427528665 -0.02693540281712798 0.2266656686569471 0.118826645575075 
0.3660405076719276 -6.071532165918825e-018 -0.8116691027693098 -0.3135670946718868 -3.122502256758253e-017 -0.1676435501604647 0.2881748134473806 -0.002457184824917939 1.111931144267735 0.3763015431682816 
0.1796683679446319 0.2110382168614326 0.3736885184920061 -0.0214555874495477 0.2285075364911482 -0.03857434111987151 -0.6435433762810056 -0.08803159180406507 -0.3806451158179358 -0.1242206614997403 
0.04237325539424537 -0.324743758248582 -0.8059474440781944 -0.1034692747238277 0.2954131485474435 -0.4544112448246678 0.4196525817523531 0 -0.1647098121129927 0.498341431892777 
-0.03117673316612142 0.1854250701779452 0.1636138762962898 -0.04573529523661006 -0.004547332324184335 -0.09763925275052419 -0.01649206318654953 -0.317208822090608 -0.1424408690852014 0.0565869261649191 
-0.007645516431729907 -0.1733657824100926 -0.402176454520074 0.03334026854023861 -0.1318424306291868 0.9465102588526833 -0.4508495600217906 -2.34187669256869e-017 0.05852164771206243 0.0875943149979081 
0 0 0 0 0 0 0 0 0 0 
0.257524917906471 -0.06946918755314352 0.2216783202480852 -0.08665513134576608 -1.040834085586084e-017 -0.1025731823148178 -0.5154402629861616 -0.02684552335678817 -0.06862715254086078 0 
0 0 0 0 0 0 0 0 0 0 
-0.02218130014211727 0 -0.949764128993821 -0.01496213477026953 0 0 1.2767019077862 0 0 0 
0.3171641196438431 -0.1242271657124784 0.1474041762181624 -0.2640670325989391 -0.3077637433939594 -0.2520986343101778 -0.4601903569810157 1.734723475976807e-018 -8.673617379884036e-018 -0.1610833123011134 
0 0 0 0 0 0 0 0 0 0 
0.1203943617384855 -0.01195024056261586 -0.3101947250433232 0.5392155605636662 0 -0.1559267509964187 -0.2758331085807855 -0.1414635403324697 0 -0.1906300326903875 
-0.01737122213564274 -0.2756023376957595 -0.5892099233678394 0.9265189479413416 -8.543513119185775e-017 -0.1475402360657556 -0.4790572598752652 0.3601540907985792 0 -0.06229033744825196 
0.03022986012587932 -0.0599646391441714 -0.07023555584477165 0.06897135532316978 -0.009680199692551987 -0.05530239085163587 0.09182871090793757 0.04826864261807842 -0.06582053688395555 -0.1284437721092125 
0.1478988729843318 -8.78429145599862e-006 0.1945991611106502 -0.0007641429045326386 -0.2328219309776773 -0.003706905145174822 -0.1501096990953539 -0.05702653749133602 -0.1168032282439717 -0.04556001990868305 
0 0 0 0 0 0 0 0 0 0 
0 0 0 0 0 0 0 0 0 0 
-0.2717046607985071 0 0.3721904797158001 0.3873915674024199 -0.4568782694774956 -0.02399925785140356 -0.425445979663036 0 0 0 
-0.5283489990784412 -0.02151936559134752 0.3959665145969749 -0.3056222628503404 0.1149256315660606 -0.2797107513615886 0.2910332981123261 -0.04526095946166307 -0.02806515327070868 -0.05638436468973519 
-0.09576820137305385 -0.06392997240800764 -1.016052084981145 0.6666308048973523 0.3284079259111285 -0.1523988197023696 -0.2047274520002204 0 -0.1211433552370677 0 
0.08939022886550105 0.03187479562512488 -0.1364501351890859 0.04028154148662639 0.0379694545878709 0.02141985269628977 -0.01281270129217622 -0.03175880132964727 -0.4312143943793199 0.02876749905072396 
0.07297297171549871 -0.3435379075681974 0.003832557873111144 0.1610686344629642 -0.2634221336806415 0.02590082732755681 -0.181312385124155 0.1448525831795612 -0.6619262400498789 0.2079784913499799 
0.3795251199557013 -1.040834085586084e-017 -0.1188736203302246 -0.008166639846640036 0.04698283263942762 0.06220259213607844 -0.2705327760972296 -0.3010958608972862 -0.04165120080281198 -0.3905981815955591 
0.227590418034849 -0.1608126817707325 -0.2245059204645259 0.02946264968369428 -0.02871780453267838 0.1610278847331116 -0.01866256863856488 0.02932082818396269 -0.05340209829172653 0.08457709323119916 
-0.0430619639191971 -0.06125036459763644 0.1917018981603932 -0.49512075315365 0.4325583424459442 -0.04759158448811043 -0.3011054135940377 -0.1535716482939789 -0.04986656416134774 0.304991661590469 
-0.3097210186013097 0.01842863375011528 -0.1886665931859585 0.002419926110893199 -0.03659583999400411 -0.4325641027744648 0.5234882611574335 -0.2476372047101115 0.1894144902170327 -0.284563661020971 
-0.5046186777354794 0.3595304903195926 0.3450841770637776 -0.2745972467860696 0.03160964592772224 -0.2790551243028513 -0.4942504324665251 0.5449082519745629 -0.05410093176040444 -0.2686533518505682 
-0.4077372795242385 -0.1901516043751753 0.2840699162452524 0.04253161792136487 -0.07394591493273836 0.01038604764823466 0.02088756120912774 -0.1373318633626075 -0.2152322520100202 -0.196523768712166 
-0.02367600246227715 -0.1028566523343424 0.512408745953972 0.1524409859887854 -0.07639491419423655 -0.1658579299172309 -0.7150135462659033 -0.1073228444911969 6.938893903907228e-018 -0.08835577064141359 
0.2265849849623215 -0.02829725914847041 -0.3182681627398882 -0.1215214330867334 -0.2349568923878863 -0.203662356988258 -0.03766009837465525 -0.0794672969428975 0 0 
0 0 0 0 0 0 0 0 0 0 
0.1208228642589172 0.1288269589116095 0.02019651511684406 -0.03519414293567207 -0.1027389408302799 0.0728569469921047 -0.1510817722085773 -0.02791281120220927 -0.05636357795879724 -0.06840537776765443 
-0.04027449119259415 -0.1013201999211383 0.4865657121444251 -0.1651117077860367 0.403517841343068 -0.1839498940468728 -0.5037667993608023 0 -0.01143170880942914 0 
-0.1646897731650792 -0.1385097425707718 -0.156690991603363 0.09156904476282869 0.122905529030805 0.004335519954686802 0.1798847516533623 -0.1272845063885107 6.938893903907228e-018 -0.1061253854717767 
-0.4797072009461965 -0.09519681340885827 -0.02142960501284005 -0.2460483468654043 -0.4383880596074302 -0.11502662318105 0.6905884208734356 -0.1016123027611691 -0.00240295092500491 -0.06878576912582483 
-0.1702484891523436 -0.1444374533882855 -0.09354089839319668 -0.0246727342913952 0.04631153617143056 -0.5220247789828432 0.2655909744546863 -0.333033184012186 -0.3279355092663905 0.1982117613869762 
-0.02467896026548032 0 -0.2315372945850008 1.299415911647895 -0.5676997339440714 -0.03244956154621145 -0.2386360376426134 0 0 -0.03708153497306362 
0.3487806768510021 -0.1073101090097087 -0.4112550862922887 -0.5799307268625491 -0.8857699868838682 0.1964045988579853 0.4798681934606278 4.336808689942018e-019 0 -8.673617379884036e-019 
0.09875515605764335 -0.09461567079256422 0.08583115573526877 0.01942827091386812 -0.9939800695654696 -0.07035747711417877 0.04668046641583417 -0.09262658366656805 0 -0.3201948469148184 
0.3751703506849792 -0.02363487007724934 -0.5993784584779034 0.09794282000124445 0.1990681501103799 -0.1762846097299888 0.1153826681157873 -0.08984492909348757 0 -0.00482816473181944 
-0.1116610528873311 -0.09318556480967077 0.3702075053487547 -0.1173876978548401 -0.4456061922159292 0.227075612543296 -0.2284164117485821 -0.04200732034274701 -0.05527487980846857 -2.34187669256869e-017 
0.246241797839974 -0.3532719639366863 0.05430214395450286 0.0659860852168265 -0.2316187939049591 0.03566594304494845 -0.2859457643092774 -0.1140604387636365 -0.03624194801839904 -0.1158123013765469 
-0.01699320105612583 -0.161518116493753 -0.7385553935119895 0.02251267826992714 0.1571288265289663 -0.05497055020945193 0.6451549707713673 -0.03449157823567794 -0.01658100224878049 -1.994931997373328e-017 
0.2233793669647913 -0.004616084733099679 0.1561423729528935 -0.2659480986168061 0.118909594907865 -0.1948457083998214 -0.1849164500582528 0 0 0 
0 0 0 0 0 0 0 0 0 0 
-0.5600806087572661 -0.09064203307242791 0.4722435646023215 -0.46616055282869 -0.07211380074484994 -0.1812700971470545 0.055058016010278 -0.2962462320267397 -0.1538845270573623 -0.3443747732302294 
0.1442014705450642 -0.6635782027745325 -0.09772383182265347 -0.07482931007871152 -0.02908493213752582 0.07651662414982344 0.06269124805783577 -0.4282627363149785 -0.5309579658307492 -0.4837528949183971 
-0.05886437044463171 -0.01436993093130227 -0.6082807043425293 -0.5401628393607151 0.5965986016547595 0.2068656965442157 0.216136884255084 -0.08546153195799565 -0.1279132392036447 -0.05218340853408546 
0 0 0 0 0 0 0 0 0 0 
0 0 0 0 0 0 0 0 0 0 
0 0 0 0 0 0 0 0 0 0 
0 0 0 0 0 0 0 0 0 0 
0 0 0 0 0 0 0 0 0 0 
0 0 0 0 0 0 0 0 0 0 
-0.03378766807966441 0.2135163130547385 0.1125977933890569 -0.008392017076073285 -0.04710131256988977 0.008536845177598226 -0.05179832936376385 -0.01705180746884449 -0.01658100224878047 -0.1040877463222828 
-0.01904451997867245 -0.2594736840480946 -0.08314146409969243 -0.01670042426154252 -0.1656391187410497 0.1121822299168509 0.1271995607864051 -0.1252522641153157 -0.5758848676051804 -0.1520018688716232 
-0.01697691806121092 -0.1676137774638322 -0.05214624364215674 0.1460585724192633 0.05337926179632836 0.02970270018078778 -0.07019547782658905 -0.2875241381423266 -6.938893903907228e-018 -0.01988600532634005 
0.03048600202605307 -0.08548028505171791 -0.1812590042088966 0.1158833566677155 -0.05027991860550932 0.03767709453609639 0.2144394027412334 -0.283802041931241 -7.37257477290143e-018 -0.01988600532634006 
0.0184351781875993 -0.0884204835927937 0.06160120398822117 -0.008024687671886476 0.04595165143985194 -0.09134050969722572 -0.07975712694747263 0.01228696401344346 -0.665886866609486 -0.07479870905685765 
-0.2730057607394736 -0.06800976277931035 1.015901427343808 -0.09512239262004393 -0.182448263540654 -0.1948457083998213 -0.5542993695427233 0 0 3.469446951953614e-018 
0.08944741303591512 -0.3198085974217441 0.07130265105759365 -0.04629985483475924 0.05555611307638923 -0.135166868170724 -0.0904773967480895 0.0276643539440189 -0.3026870061116638 0.2139344496777447 
-0.2001541569095438 0.4003350338273468 0.3363912780774718 -0.3741363671166273 0.2441269264917279 -0.09369878642884666 -0.1547880738782441 0.2350147897851138 -6.938893903907228e-018 -0.1659535523147873 
-0.1430123747741896 -0.05956133237917213 0.1723053005314152 -0.00432555989963297 2.279599963867559e-005 -0.1350068141828965 -0.07587981431625947 -0.05745348097515161 0.1232432943910404 -0.06764414269624083 
0.08018419214128829 0.1342902960437589 -0.190871185669026 -0.009064612745990783 -0.01514809325006131 0.07375597709666915 0.1034988371309841 -0.04679626828922649 -0.4433219644844413 0.1089643924867119 
0.342712665657045 -0.02151936559134752 0.03327222708796856 0.1727602617148437 0.3905011053255244 -0.250609154795657 -0.5904658761330822 -0.04526095946166309 -0.02806515327070865 -0.05638436468973521 
0.05696198276411139 -3.469446951953614e-018 0.1899364323693305 -0.3396181608189567 0.2831351018975416 -0.2585108170113256 -0.1225347339599811 -0.09455788765537539 0 -0.06840537776765444 
0.08190115228835121 -0.200444715573559 0.03628089942538884 0.03123305396623094 0.1567929041601076 0.005392355966501797 -0.3180579658578991 -0.1994435408034463 -1.431146867680866e-017 -0.2504665794840837 
-0.05578813240685181 -0.1171119995913551 0.09450931133110743 0.1027609198096162 -0.357676524400864 -0.2812974571063643 0.1992624198435499 -0.2838020419312411 0 -0.1516181193513622 
0.03902792847412393 -0.184948152778328 -0.3211295756086524 -0.1702237629962816 0.7513079667656314 -0.1741279676767584 -0.2406797367335968 -0.01638014114687561 -0.5485911032333831 -0.03965820267219843 
-0.4977511985096894 -1.065131571980239 0.05536643230846498 -0.8632974410810255 -0.9453381929639575 -0.7895913038226936 -0.1550781572212955 -0.8202333727070665 -0.9455359645169342 -0.6688320198845098 
