solver_type L2R_LR_DUAL
nr_class 10
label 6 11 1 7 5 8 2 14 13 12
nr_feature 249
bias 1
w
-1.965023234545112 -1.304647278637698 -2.103255840458619 -1.8238577428741 -1.331059672486593 -6.790529371488896 9.119922584618632 -1.299111104343311 -1.235692504349109 -1.320453833352449 
-2.23483638108327 -1.719185384976781 9.341743943979356 -2.181629664508408 -1.531135270139648 -6.847863964728751 -2.255224663365334 -1.896323451193592 -1.353721883961358 -1.5085787532343 
-0.3235762675571957 5.546947449523985 -0.6038562445641603 -0.4585981133483337 -0.4275114011935937 -4.408984893827453 -0.5349690802227118 -0.2235523743537834 4.471511657109261 -0.2608868004398104 
-0.5301022716089832 -0.2924551141256376 -0.7402452939656309 -0.5501338881700194 -0.3538492001064011 -4.153584915445983 -0.6267956559984973 5.107951193071934 -0.3795472609504246 5.200481757391382 
6.399861557284717 -1.375973091458206 -2.133631630007793 -1.970542518598982 5.535218768317698 -6.685982425405919 -1.914448254363572 -1.292070534625294 -1.151313755339239 -1.28786940790478 
-1.096515346341432 -0.9597632447700703 -1.511672888853379 8.400624052601755 -1.270235600062049 -5.736276340068496 -1.330823511209393 -0.852170012041505 -0.5211350406663099 -0.8115138898760869 
0.6969589151471872 -0.1101888121208071 -0.05537825819730561 -0.0324039886507726 -1.218050504678179 -0.2021822129117542 -0.003473689360481004 -0.1073621120824751 -0.09196690080506732 -0.1180742729666669 
-0.007152333020367309 -0.0009395056413442544 -0.003430190318749323 -0.002057248357794171 -4.869547049847478e-005 -0.001184961411373642 0.002264324885614745 -0.001623766535335461 -0.006692602643082706 -0.001494462541581802 
0 0 0 0 0 0 0 0 0 0 
0 0 0 0 0 0 0 0 0 0 
-0.06363386584148127 -0.0093541887219315 0.002904654394653858 0.003992553554117436 0.005809452650506996 -0.02272088143774559 0.003810376446388447 -0.007661146715143737 -0.002121053971382646 -0.004527076991847007 
0 0 0 0 0 0 0 0 0 0 
0 0 0 0 0 0 0 0 0 0 
0 0 0 0 0 0 0 0 0 0 
0 0 0 0 0 0 0 0 0 0 
0 0 0 0 0 0 0 0 0 0 
0 0 0 0 0 0 0 0 0 0 
0 0 0 0 0 0 0 0 0 0 
0 0 0 0 0 0 0 0 0 0 
0 0 0 0 0 0 0 0 0 0 
0 0 0 0 0 0 0 0 0 0 
0 0 0 0 0 0 0 0 0 0 
-0.6062865599397171 0.3408849428596757 -0.0838471040380752 -0.001529688871504161 0.3745306999615934 0.08406659045344646 -0.1128685241501239 -0.300990818399002 -0.5241980400006657 0.1481178060647016 
-0.6320352558074014 -0.2908315642700433 -0.2958327581183347 -0.0242919338521376 0.1130394445882897 0.1055713604627814 -0.1784750380203953 0.2487848294739487 0.1011427140404515 -0.2700276739276558 
-0.3418843918255288 0.1435900384632195 -0.07497647519095434 -0.09112808753734761 -0.1834606697844152 0.1445274416597841 -0.2220640338242423 -0.7971973191546012 -0.4080107577804588 0.3497386896841339 
-0.02267257932319924 -0.008500383489829819 0.01027956347989489 0.004213368921981005 0.009470232948945952 -0.0200416468710369 -0.007841383148903095 -0.002314109143489525 -0.005149723246540392 -0.01109900761665992 
0 0 0 0 0 0 0 0 0 0 
0 0 0 0 0 0 0 0 0 0 
0 0 0 0 0 0 0 0 0 0 
0 0 0 0 0 0 0 0 0 0 
0 0 0 0 0 0 0 0 0 0 
0 0 0 0 0 0 0 0 0 0 
0 0 0 0 0 0 0 0 0 0 
0 0 0 0 0 0 0 0 0 0 
0 0 0 0 0 0 0 0 0 0 
0 0 0 0 0 0 0 0 0 0 
0 0 0 0 0 0 0 0 0 0 
0 0 0 0 0 0 0 0 0 0 
0 0 0 0 0 0 0 0 0 0 
0 0 0 0 0 0 0 0 0 0 
0 0 0 0 0 0 0 0 0 0 
0 0 0 0 0 0 0 0 0 0 
0 0 0 0 0 0 0 0 0 0 
0 0 0 0 0 0 0 0 0 0 
0 0 0 0 0 0 0 0 0 0 
0 0 0 0 0 0 0 0 0 0 
0 0 0 0 0 0 0 0 0 0 
0 0 0 0 0 0 0 0 0 0 
0 0 0 0 0 0 0 0 0 0 
0 0 0 0 0 0 0 0 0 0 
0 0 0 0 0 0 0 0 0 0 
0 0 0 0 0 0 0 0 0 0 
0 0 0 0 0 0 0 0 0 0 
0 0 0 0 0 0 0 0 0 0 
0 0 0 0 0 0 0 0 0 0 
0 0 0 0 0 0 0 0 0 0 
0 0 0 0 0 0 0 0 0 0 
0 0 0 0 0 0 0 0 0 0 
0 0 0 0 0 0 0 0 0 0 
-0.3738446053370151 -0.1678977135502734 -0.10993468610366 -0.2338178709334 -0.05883939018028842 0.1834661970892259 -0.01569311225613267 0.6180119292869015 -0.0863653111272136 -1.067930226866948 
0.07060277041495824 -0.2187005639369082 0.01286345734081167 -0.09243851224437788 -0.4324753999805521 -0.05251327678786266 -0.01574872692611039 0.04628317782725051 -0.1562337573970195 -0.01372361051189759 
0.10835089892343 -0.2049666732621075 -0.1328924789377871 -0.03916774572589715 -0.5870263761146327 -0.03732476429981912 -0.1667215403869846 -0.04392378678064891 -0.5214782629954595 -0.2645261620180028 
-0.04424782897138908 -0.7133599353848082 -0.07553008523235995 -0.03104410066258119 -0.1625432082556272 0.293360944834848 -0.02870274478046552 -0.1630676757440551 0.7070489564889166 -0.09305235651627386 
-0.3588270141883392 -0.0206710782087844 -0.05147831867437766 -0.3899403650128636 -0.1058303127466219 -0.03787837162205258 -0.1027180429091959 -0.7189581393450346 -0.2066462830270281 0.1946954302301257 
0 0 0 0 0 0 0 0 0 0 
0 0 0 0 0 0 0 0 0 0 
0 0 0 0 0 0 0 0 0 0 
0.2549485787110227 -0.1571782098319882 -0.01812841326380936 -0.06685928217402064 -0.7086778555558019 -0.2392553422398882 -0.02854765016916193 0.436051251103777 -0.06793004549332114 -0.625012358688764 
-3.544860594663373e-005 -0.0186051792527627 -0.002631340958624879 0.007486061202531021 -0.02615704696353107 -0.01225705855207487 -0.003020129014859915 -0.004105973138112859 -0.0001951469494435193 -0.001253243636158157 
0 0 0 0 0 0 0 0 0 0 
0 0 0 0 0 0 0 0 0 0 
-0.5398043326213082 -0.02764477123534024 0.007647680258122142 -0.01194359489726491 0.4249977817502795 -0.02729594822349724 0.006213948819885425 -0.01041561442436014 -0.00368610113805262 -0.006828322137354421 
0 0 0 0 0 0 0 0 0 0 
0 0 0 0 0 0 0 0 0 0 
0 0 0 0 0 0 0 0 0 0 
0 0 0 0 0 0 0 0 0 0 
0 0 0 0 0 0 0 0 0 0 
0 0 0 0 0 0 0 0 0 0 
0 0 0 0 0 0 0 0 0 0 
0 0 0 0 0 0 0 0 0 0 
0 0 0 0 0 0 0 0 0 0 
0 0 0 0 0 0 0 0 0 0 
0 0 0 0 0 0 0 0 0 0 
0.1779213353701792 0.02922712466606983 -0.04308743000717594 0.03280005959669826 -0.4205508304096194 -0.002553877603806099 -0.04382466715528985 0.1279444413504253 -0.2582409962866878 -0.009167137932227171 
-0.8820642152848511 -0.4439194145196584 -0.2910023054247612 -0.3184209303114152 0.4106204591325735 0.3449100986757568 -0.2342681546923193 -0.197842797139521 0.6873612764404066 -0.2519247672373019 
-0.6278571810482545 -0.3501819596195975 -0.2953142861111465 -0.1548229674378935 0.1550979771589902 0.3167069486766126 -0.02756973578100272 -0.02347158188126036 -0.4252376609211593 -0.4028307963248999 
-0.1539625675600196 -0.0290707371022426 0.02949031035960055 -0.01775403182252867 0.07902641601766382 -0.05312169381057302 0.002268833160261385 -0.005059374022176521 -0.005021305734329065 -0.01692616430498637 
0 0 0 0 0 0 0 0 0 0 
0 0 0 0 0 0 0 0 0 0 
0 0 0 0 0 0 0 0 0 0 
0 0 0 0 0 0 0 0 0 0 
0 0 0 0 0 0 0 0 0 0 
0 0 0 0 0 0 0 0 0 0 
0 0 0 0 0 0 0 0 0 0 
-0.1728899728397732 -0.01286513614794806 -0.01931655378159169 -0.01180117163972559 0.1385860749684498 0.1027332300796351 -0.02157278881367043 -0.009014003688220446 -0.00439407292203559 -0.00671427811613544 
0 0 0 0 0 0 0 0 0 0 
0 0 0 0 0 0 0 0 0 0 
0 0 0 0 0 0 0 0 0 0 
0 0 0 0 0 0 0 0 0 0 
0 0 0 0 0 0 0 0 0 0 
0 0 0 0 0 0 0 0 0 0 
0 0 0 0 0 0 0 0 0 0 
0 0 0 0 0 0 0 0 0 0 
0 0 0 0 0 0 0 0 0 0 
0 0 0 0 0 0 0 0 0 0 
0 0 0 0 0 0 0 0 0 0 
0 0 0 0 0 0 0 0 0 0 
0 0 0 0 0 0 0 0 0 0 
0 0 0 0 0 0 0 0 0 0 
0 0 0 0 0 0 0 0 0 0 
0 0 0 0 0 0 0 0 0 0 
0 0 0 0 0 0 0 0 0 0 
0 0 0 0 0 0 0 0 0 0 
0 0 0 0 0 0 0 0 0 0 
0 0 0 0 0 0 0 0 0 0 
0 0 0 0 0 0 0 0 0 0 
0 0 0 0 0 0 0 0 0 0 
0 0 0 0 0 0 0 0 0 0 
0 0 0 0 0 0 0 0 0 0 
0 0 0 0 0 0 0 0 0 0 
-0.3259442656509058 0.5118779214744353 0.3101745869135231 -0.04391507860597856 -0.07974429795885492 -0.4510666982593294 -0.3685495937735487 0.2191894043625159 -0.5306394372308841 -0.498316590380754 
-0.1671416884590994 -0.5884614858791805 -0.06646471188426406 -0.1025766551725411 -0.1720136258600837 0.2645064769072079 -0.0353151274293575 -0.5733221507355001 -0.2368381349250155 0.4668769261572329 
0.2519662604236663 -0.02825190409564841 -0.3288994055101796 0.003860181456396412 -0.7778390608729672 0.3278424965142784 -0.2349441317421907 -0.4821352535414912 0.01939398274066579 0.05744976852437295 
0.2028569135409147 0.1844086163636492 0.00541110930437046 -0.008496862847030459 -0.43486700499563 -0.1214608587929662 0.04320442768910377 -0.1324164612566417 -0.1417175890609052 -0.05682320798265233 
0.4073347342555262 -0.3302703020837254 -0.1451319194903039 -0.2371693467198046 -0.8339037134729532 -0.01254135421291069 0.0976926344711171 -0.5754208243011236 -0.2335257909837801 0.1995672480810506 
0 0 0 0 0 0 0 0 0 0 
0 0 0 0 0 0 0 0 0 0 
0 0 0 0 0 0 0 0 0 0 
0.2274908791867938 -0.6013931380101016 0.06390388848322026 -0.1480777263789052 -0.2600556676944069 -0.1284773002243582 -0.09154100551157629 -1.013606977518643 0.4693686773531005 0.4735265584125464 
-0.389109716366483 -0.5835668474724506 -0.2178322725913071 -0.2930586287785937 -0.393456983290046 0.2961474230725953 -0.2533391014632904 -0.4148988598516292 -0.2747222635909797 -0.550470430659748 
-0.09360773179789386 -0.6227798255616096 -0.2697853376351398 -0.4689080865772133 -0.724829250229451 0.2199220765858038 -0.1780829129819989 -0.1765342588436903 -0.1866405416034815 -0.5800068924971236 
-0.3777779720430755 0.05051006704602666 -0.1306056184882894 -0.1074731217531214 -0.1530885137716392 0.1743212615386382 -0.1424769386022165 -0.3758137287000037 -0.2774033766708534 0.3180118792688224 
-1.049195267351742 0.007301545297900313 -0.1855418876645111 -0.0003283855668841626 0.3825162738548038 -0.05846154781005973 -0.2493556153183316 -0.1663416856982437 -0.3880009958128708 -0.2409031751912747 
0.6629233541256283 -0.04954699270169814 -0.03185422385316906 -0.05531870156255352 -1.17910076861356 -0.06798458771414058 -0.03002693190879591 -0.06576896436728129 -0.04417677207797699 -0.0494935774369689 
-0.07611829637967831 -0.02264930274565056 -0.01124953807815574 0.009173885670485263 -0.004465010248241906 -0.06235117528615148 0.01818787374443419 -0.02072654535790448 -0.01732514356816281 -0.02395246485773564 
-0.3878390623376102 -0.00712909548846304 -0.006628072266194477 -0.01057405526138565 0.2356916582802309 -0.01114418722877169 0.003190963854018762 -0.003171611624295178 -0.003080912741411227 -0.005255502614801469 
0 0 0 0 0 0 0 0 0 0 
0.1185692964803682 -0.018240113541211 -0.002360199843347138 0.005870448926564928 -0.3016410034113229 -0.04246797636987289 -0.01488031211014107 -0.003622996657158414 -0.003956745159816371 -0.01454602764230758 
0 0 0 0 0 0 0 0 0 0 
0 0 0 0 0 0 0 0 0 0 
0 0 0 0 0 0 0 0 0 0 
0.3297525026662975 -0.356248771943859 -0.1306904213757546 -0.07875414024615815 -1.067982998226144 -0.1436998413176088 -0.1549498938242248 0.05734570259255748 -0.8209076318355213 -0.4042781875563751 
-0.315835803549233 -0.6473539466057425 -0.08369164618007449 -0.2901463956832652 -0.522275414563496 -0.1188127101767002 -0.3076537393118629 -0.7838188840920627 0.1863569029051584 0.2591219734934433 
-0.6199300929448574 0.3679856693618213 -0.1118874998903988 -0.06551293140673971 0.02905638834286004 0.1876503653582295 -0.1124390129843717 -0.1219033272719885 -0.6718156439518952 -0.3376228588773824 
-0.8069771544414258 -0.4286669529780163 -0.4781404383376279 -0.4059859318810193 0.08859427184069701 0.560738377206078 -0.187316211349656 -0.7069945326021352 0.1619605493866291 -0.1309412901892701 
-0.4146584783121627 -0.1069319474278891 -0.02555074149441484 -0.07226974897992287 0.01719808302079146 0.03310522267606112 -0.04870569978774298 0.2709807457622739 -0.01717532720221685 -0.3377372029482835 
-0.1726079345142788 -0.04206394331956821 -0.02241446222558469 0.01467846405326007 -0.05993827521628882 -0.08326724396642929 -0.02719880439199163 0.07989166730566183 -0.02138051594529614 -0.1588093005131334 
-0.06159384941895851 -0.01117497672662619 6.72261334825207e-005 -0.008895284018450847 0.007911804591203088 -0.01250402613637531 0.009520782412617499 -0.00785066443012571 -0.002538551330612074 -0.004013867816980347 
0 0 0 0 0 0 0 0 0 0 
0.4792577564048592 -0.01818262203817034 -0.01058946240228943 -0.01796739408178725 -0.653716375174526 0.06555058204999051 -0.02795160519948315 -0.009574752449769547 -0.006743421589627717 -0.01619149620201509 
0 0 0 0 0 0 0 0 0 0 
0 0 0 0 0 0 0 0 0 0 
0 0 0 0 0 0 0 0 0 0 
-0.6759826976353596 0.02568245289922447 -0.1777554489267043 -0.02364091752316653 0.6475699331746513 0.1255990982294963 -0.1115590567200248 0.0338598864947017 -0.4695698627488039 -0.2715472041716671 
-1.971212017107576 0.5897543044998922 -0.1016706618354926 0.1848920672211886 1.927116951206391 -0.04893428631635641 -0.3564355622897236 -0.4337310006776467 -0.8584225009654931 -0.2550878927321298 
-0.552839464159447 -0.3679490150307137 -0.2344474238649646 -0.1381667860857323 -0.1674894786432883 0.2782975164138888 -0.05961784160401447 -0.7122213153622981 -0.6410288128988188 -0.2082683043794008 
0.8955693521585905 -0.02552517854422586 0.03052525271338983 -0.03611516671093822 -1.130676163744198 -0.01802822004733506 -0.03246717313406117 -0.02984035258128492 -0.02582841186589749 -0.02128446679409071 
-0.4152676893421599 0.3296323278446902 -0.2867688334159295 -0.06275832613890665 -0.08317929314853373 0.2388103236311294 -0.2065888373622224 -0.1981689323773185 -0.1847474461461782 -0.01115275854378534 
-0.4421447916376513 0.2986687736692218 -0.03398932583172527 -0.1725451069656808 -0.1282564148863842 0.159229710975048 -0.2012742366753809 0.07073248066408483 -0.8768126359304915 -0.4013613687876282 
0.2354845859532079 -0.2998335184219124 -0.04114716242527305 -0.2478011202505701 -0.8044106691668176 0.05184348820995072 -0.1290429537457955 0.6204807128603216 -0.1904490921017278 -0.6481820565206787 
-0.787801960477402 -0.9202783828402931 -0.1398793615364055 -0.06796854647014694 0.1920888734049357 -0.3733632697574493 -0.03925211071719576 -0.2708469921994374 0.6395416369238591 -0.04129482189751097 
-0.5076718822639845 -0.2756504439407077 -0.1515458252353363 -0.2042585667506048 -0.123501580877201 0.1003568697332109 -0.1799889811923612 -0.7101545383157546 0.07865373955470592 0.1796408529445169 
-1.035144253205139 -0.3985613979817856 -0.1111673794465459 -0.1644998647471176 0.460408898501195 0.1311227868244173 -0.2267142185254915 -0.5653345167531507 -0.2820366857823408 -0.2056875103119825 
0.3972295862442426 -0.03069288867225372 0.01211157781942792 -0.0296054185153682 -0.5880161334751493 -0.06038839673946554 0.009528012573493692 -0.01749769459704991 -0.015508852763547 -0.03476440191403769 
0.1148359801291863 -0.2122115194245559 -0.1252319528808617 -0.05638388814876898 -0.6195138982727962 0.02368396992427697 -0.1438156282937037 0.01148287054196303 0.2545814969908586 0.1584443290402675 
-0.1658085031295228 -0.2383518595771539 -0.1495518582630119 -0.1067091960388406 -0.3890301022771038 0.1597270407337303 -0.2046018342556378 -0.9069165646707423 -0.1703281760494403 0.3185587886069538 
0.2332615207045653 -0.5629756772880672 -0.1890261157029351 -0.07385555791323226 -0.8629861561399758 0.2319449104424693 -0.07609884794676639 -0.3656507584694873 0.1214718627879902 -0.381302480483207 
-0.8493804452766426 0.4057162346391839 -0.215948818534721 -0.2102607435423922 0.1421724475807566 0.07292221359702553 -0.1647848848360587 0.5395423942031181 -0.6256658337780928 -0.7328263298022185 
-0.2696657352355257 -0.223858328959309 -0.07843813258759681 -0.2882989504668582 -0.3884597829784049 -0.121866105624011 -0.04174473314686741 0.07435533243367126 -0.4831848338699911 -0.2743253191143575 
-0.2205324205101156 0.07085170821515312 -0.1719629073883418 -0.260779174089902 -0.09460508459764941 0.1615794718800783 -0.1228538893679192 -0.3841052851024157 -0.2181767049744634 -0.2593976164059857 
-0.1515068600536686 -0.3678322096351956 -0.2270165965075657 -0.3094666812998931 -0.3433149536457387 0.06750233947109208 -0.2220254902837803 -0.5329570061513612 -0.5390744897338705 -0.1795113270569973 
0.09308725300859834 -0.2094684156407841 -0.124357261677929 -0.06428546715985228 -0.4091854698675511 -0.05897563542417712 -0.03004643871038478 0.5340487316640995 -0.04453347992797298 -0.8146481392823242 
-0.6910476994251752 0.1345725420813425 -0.1119618544490252 -0.07404880342283049 0.2919257709917572 0.10401233102601 -0.136900246637235 -0.06153573035856683 -0.6560753400306622 -0.3471219629290598 
-0.6356053841203543 -0.1948923167470961 -0.04241214132448535 -0.03859443864410291 0.335350910401616 -0.01363490799105296 -0.1260654534422165 -0.3819734378039659 0.2502057746778459 0.3303201130325397 
-0.5202480341610476 -0.4211924143035022 -0.05696469201250849 -0.01930897194308314 0.2333675657156236 -0.03311605072505209 -0.1058776942164532 -0.288770383601436 -0.08089979642404296 0.2421857228822977 
0.1614973322026524 -0.2316132142775265 -0.09180549813275223 -0.1161174884889688 -0.4458848709294344 0.2958093074513484 -0.07787035198002509 -0.04949659406221452 0.1597254660340974 -0.05227181798329148 
-0.245207184037172 -0.22643685773949 -0.3339007122536531 -0.1368430543294167 -0.2112670578618792 0.2964852485025077 -0.04390240868264464 -0.008295698456334173 -0.598133970474475 -0.1800209823082364 
-0.1729547335380985 -0.3994060805413937 -0.1709797550672786 -0.3452514963575941 -0.3607730455550735 0.09488458107692405 -0.2529966471461144 -0.6361865864201399 0.2488740836447274 -0.3911868031473656 
-0.07042514927963449 0.1835758739133066 0.07712739682740133 -0.1068478887268262 -0.2233741138372487 -0.1171009391233992 -0.1082934492508212 -0.05927137474473993 -0.3751502851940615 -0.3277192477321782 
0.2986701360552088 -0.1625533214667224 -0.3170579294293235 -0.2940011300695497 -0.7039045521268896 0.5109945827492505 -0.1072680383126975 -0.5385653430248746 -0.2380831290348735 0.2932122252342356 
0.08426605786433328 -0.04210125754734988 0.1258905344842946 -0.06388048008720718 -0.4136843141878733 -0.3516238736584015 -0.1781640152473218 0.9386092979521044 -0.5355064280969816 -1.147206184688097 
-0.2603469573401285 -0.243786032976192 -0.1683859547628659 0.1338950116924678 -0.0785310530401773 -0.230033500626521 -0.07642244751116818 -0.1718408548327779 0.4772355561733557 0.1541333191051391 
-0.612431457499039 -0.2358978464575468 -0.07056862411678934 -0.09098064450600493 0.2651875681136942 0.2585966657306338 0.01079871549361382 -0.6709375808508034 -0.09924487583992013 0.5046305884395799 
-0.3831267043967658 -0.4014089332276639 -0.2058500220275593 -0.1715343605215889 -0.2303203667669932 0.1161767476571448 -0.08630432390229785 -0.1418216654891595 -0.01629816328070976 -0.2364127995613031 
-0.9654624100223732 -0.8380805584815345 -0.1264276820173844 -0.229676781069635 0.2219367906474694 0.3573100108023462 -0.3193394462648814 0.1016256409682597 -0.3407504135848307 -0.5681637709277559 
-0.2258722312575756 -0.01174317479393428 -0.0008831427962074348 0.0456068803349221 0.1222960916210007 -0.1225533826735092 -0.03941159346880661 -0.2684800846510738 -0.0330394568476325 0.2216763835704684 
-0.3898944673823993 0.03165834619552081 -0.4933201046514514 -0.5269967637923405 -0.5462586474328572 0.1722434799022676 -0.3765842010020289 -0.8561135962438928 -0.7387405366659015 -0.4975448408242276 
0.01145662786909456 -0.5153329379193606 -0.2208845327137075 -0.1441916485954089 -0.6822931918210217 0.3487034982948613 -0.1343722906112667 -0.1697201738962631 0.1398892051945692 -0.1786343924151344 
-0.560562288362943 -0.1390879736894321 -0.252325639839994 -0.2777734245236991 -0.3620633178934134 -0.007409150067523687 -0.01625885881027604 -0.2809519993733343 -0.2041492013356784 -0.4308106477188877 
-0.1346211342271502 0.1906047072708074 -0.0210100401380048 -0.03253561848439246 0.003762885745957447 -0.09943398238880664 0.0371469338432475 -0.01524201462163006 -0.1746078217544028 -0.04468352404788127 
-0.2947024930535329 -0.6627893184773906 -0.3636548316265085 -0.4494089907806316 -0.6857529445269539 0.2203423988124562 -0.6427640750788469 -0.6805739524863336 -0.8811412309267165 -0.4400285209150227 
0.001591141113145273 -0.9566057143931378 -0.5266815340280124 -0.5239825879658057 -1.108577006033372 -0.1513950994144012 -0.5624233964729994 -0.7058005028906866 -0.639591435855943 -0.7355472069213282 
-0.1003582820872922 -0.4644202052444869 -0.585091355427415 -0.617565490023658 -0.8442669856082814 0.06600593308592739 -0.5882502764267442 -0.6846430862884693 -1.122953289096084 -0.7665959008531413 
-0.3867772518070949 -0.3187131727846921 -0.09076627892255333 0.0006554786444558612 0.4902023532331399 -0.1546067530207253 -0.1324091993992654 0.4318977901124843 0.1313390048205285 -0.5775540930379717 
0.2147196641218668 -0.176289991684667 0.1761459330009793 0.01753203664601144 -0.1652368620532126 -0.528450850750981 -0.04568836701847837 0.01790900552488656 0.4161249255509195 0.02734401431204836 
0.04688164303267889 -0.09509547489551977 -0.07580696125387111 -0.1345871626504587 0.008165686759923393 0.1977240211051815 -0.03895268774961335 0.3591191693120056 -0.1193025651525929 -0.4895965893691062 
0.4769486693004883 -0.07424940233457343 0.1519109879446734 -0.1192763753546724 -0.4760565539148998 -0.1178785288586079 -0.2334581158581658 -0.1868197295557381 -0.1564860297451054 0.2175321899645253 
0.2851834867859678 -0.04860776463735778 -0.1063844336753707 -0.09081186179355262 -0.4635165124388506 -0.1848232143266601 0.08053379583540928 0.1476862195813654 -0.0389112993505989 0.0283771785930501 
0.04765473271144848 -0.8226735613904169 -0.1051221377081315 -0.07700563495288443 -0.2853722372435666 0.1325511537341226 -0.06690720140757377 -0.08991870727408992 1.319469335685217 -0.07710311520344891 
-0.2527812938118448 -0.05487342836680592 -0.001089663644757428 -0.1110193400213108 0.05161522303250097 0.2883296008340934 -0.1651226989156933 0.4773545988045769 -0.09525679739579175 -0.3732533933114065 
-0.136198410114747 0.2477794773186904 -0.06515149840764581 0.2764136123435085 0.1055253349988839 -0.3510108858014289 -0.2222922444581428 0.4125169346099193 -0.2280161746860175 -0.3900709750596638 
-1.4847463477355 0.4414526180271541 -0.1035604348816773 0.04953565406215193 1.424334883204977 -0.2906765979585132 -0.1033012067701097 -0.02887577903370681 0.06902184678638945 -0.7348876446956137 
-1.975341022477466 0.131983066191632 -0.1370672385581059 -0.1004645191451441 1.939186934112255 0.1958776915705848 -0.235235840061146 -0.3534392863727996 0.1214526608361213 0.3832503439722871 
0.6560184643760343 -0.5556237309003705 -0.03120544652345797 -0.0808899728661204 -0.7717432876025 -0.2802738980650901 0.01595144981607322 -0.4361066533087264 0.4717213699774296 0.7525649332729651 
0.06122474876520215 0.4351167985206724 0.003717647797491645 0.01317760956428875 -0.07454058937857055 -0.04996547076779161 -0.01856668945084522 -0.005374204054599356 -0.2674598877100493 -0.01769535187148822 
-0.5370812117736076 -0.0316072280767235 -0.03163958147923034 -0.01908985237923039 0.6182238719840354 -0.3454318878381061 0.05966026905827868 -0.219534278647324 -0.02655143850146349 0.6081101305931428 
0.1974497909589232 0.7298855789462576 0.06384880035507948 -0.01186026386663929 -0.1256870685669556 -0.3031158573998342 0.0503237632812706 -0.3303177748717265 -0.7279606679498502 0.1192646894345129 
0.08602643461102187 -0.1140680716064175 -0.08568716183790465 0.05347587507127421 -0.1296206869615041 -0.1028228343062297 0.05000464796415459 0.3585011467642068 -0.1002361020778834 -0.7618905799657121 
0.8355261301416316 0.01950833778239437 0.06116707507815745 -0.01117812647850909 -0.826386968002332 0.08829773283619316 -0.2457980599132686 0.01057702045868996 -0.4248968633890011 -0.4833554298992581 
0 0 0 0 0 0 0 0 0 0 
0 0 0 0 0 0 0 0 0 0 
-0.00792826209686468 -0.002931451840700399 0.006845265407761151 0.01319155640682006 -0.002129398512316537 -0.02490614974755722 -0.004415814181003785 -0.0008916377819583786 -0.0005087307544950107 -0.001909228907519508 
-0.5549967117812795 -0.003072779545683696 0.01175871683509765 -0.006823891924052024 0.5343820547186198 -0.03622545218166638 0.005681933374356415 -0.002303580718581882 -0.01915141551412291 -0.01127974362403098 
-0.110270371941789 -0.005505383151946022 -0.007748430736168919 0.01234318564038274 0.118586600326369 -0.0121331223542552 -0.003067455294532147 -0.001987367984785074 -0.003508432560165373 -0.003146982201740514 
0.2725976154380317 0.6540109581497632 -0.07789096136600804 0.03790063074607918 -0.2615793657979977 -0.002901355713560362 -0.0697655238423336 -0.1413873904148718 -0.8134688823951786 0.06085362768684447 
0.4592326161853497 -0.07370876598259062 -0.01743855362037874 0.04325801242141041 -0.4764652593552031 -0.129550621103262 -0.07567161251835758 -0.10696035303001 -0.1308526098782855 0.3606860400307012 
0.3524844903870674 -0.03638029378175852 -0.01705989956421314 -0.02871517287058471 -0.5051310796205679 0.1119648782272142 -0.0347701088243205 -0.04462588939514389 -0.03742257825747803 -0.04530144118602213 
0.2670747387971404 -0.09357528433033013 -0.03620330050507421 -0.01896816230223622 -0.2083344637760181 0.1351383286426259 -0.04043093801397504 -0.01947947520784506 -0.05065284513775085 0.1259729658491253 
-1.236956531866325 -0.0213283877056528 0.01244428845437354 -0.03120922371659865 1.273881501887266 -0.09521831184658314 -0.02648790737869959 -0.2396007051802909 -0.01423423682060819 0.4096047866791815 
-0.2598086030881224 -0.08177600292610797 -0.02557175979670659 -0.003690534406530008 0.2420843466679764 -0.4157055887289433 0.2259940921475919 -0.08263471810075451 0.3004800917495606 -0.1039609587211377 
-0.1047791282720154 0.3366755716356961 0.005936390294423981 -0.04565882622701642 0.02049724779608029 -0.2935976622426538 -0.04986815957369084 0.8270374672350067 -0.3257300132659669 -0.5194037805816195 
-0.4251259478125093 -0.07976835648615777 0.1045718435125009 0.02013599208287319 0.4257176639369817 -0.1885182445875157 0.05063990411747091 -0.253810054322463 -0.07611790069209952 0.2474981589585051 
-0.07575663195193304 -0.007028810534627542 0.03420654109277444 0.03832841748453943 0.07724016421555625 -0.06526440584601534 -0.01597872132022341 -0.008807092151091548 -0.01278107699607925 -0.009586046209382278 
0.444855332070796 -0.003342338399620575 0.001558678483328197 -0.004825170692633813 -0.4333095179524473 -0.02499677177323624 -0.004020129630155783 -0.007655370079413059 -0.001449528240243065 -0.00286334606106122 
0 0 0 0 0 0 0 0 0 0 
0.2536662939000406 0.1463666086123595 0.01514932922098532 -1.802358133452331e-006 -0.3449120963894741 -0.02095806429464098 -0.02630291762037771 -0.02597535609457712 -0.0899159211185513 -0.02521114448551592 
-0.04029261620826716 -0.002146616500725944 0.004456716951153818 -0.002485129012246701 0.04875712745574812 -0.01083064388693609 -0.00317322962056063 -0.0005161778775793298 -0.002654585136480765 -0.002828430317185306 
-0.5857378617789885 -0.02141620417709808 -0.009357159237902514 0.01274184311402901 0.5877299146977584 0.05729031024237528 0.03124112339374608 -0.0191743583514878 -0.01725882866405875 -0.01552117631198319 
-0.1860649252651062 -0.03170070617813887 0.01221411894428781 -0.01953000930783624 0.1445263404018575 -0.05190389948189476 0.0578282634068453 -0.012956808377971 -0.005497109529975856 -0.01543904392985852 
0.09452382231753671 -0.02757653492202853 -0.02194770812508529 -0.01667990401412589 -0.08845294083337507 -0.3218597900317953 0.04642624623644052 -0.6872612233401771 -0.04719704106193672 0.6957731281378684 
-5.886465589162703e-005 -0.001022198566099066 -0.002747390772650365 0.0307846817208006 -0.00862023854066182 -0.008930061800391843 -0.002689099276168231 -0.0006176402672606605 -0.0006145778617749055 -0.001363416269508051 
0.4601877082724863 -0.01463900192714881 -0.0237831443540197 -0.02138949190351646 -0.5752143147983205 0.1192438669338672 0.03510462570017214 -0.006972064891788905 -0.007885759225955687 -0.010182480812029 
0.5653267445636587 -0.02003655541774624 0.01659012681320039 0.01473224479249453 -0.6043016330268123 -0.04508509355760483 0.01192415591895934 -0.02348155786969031 -0.039568584858187 -0.03512123149156308 
0.2372896994331276 -0.008148373762140579 -0.009057264931870718 0.01504593379805784 -0.2095192282823419 -0.03474570063927762 0.003964529272202183 -0.01159451048654579 -0.005306561988233543 -0.007463542086475097 
-0.08960276458184702 -0.01504877616992194 0.01318977452175788 -0.01816876048321094 -0.01159104120855318 0.1455198182111568 -0.0199424634474061 -0.01818805452014355 -0.01557544271970839 -0.01243956826075191 
0.6965634037405296 -0.02905581778712457 0.0006999006443084948 0.0001403361009473949 -0.652612262568409 0.08839577062782156 -0.01658382455678744 -0.04239030349471835 -0.01959037018657352 -0.03074360599018428 
-1.288219295331504 -0.02040017181855122 -0.03046287947588413 0.0005966587620576473 1.261736167190161 0.04530561226306604 0.06123005036871956 -0.03674630330263812 -0.01869185431919182 -0.01270265561139105 
0.01120578607487167 -0.02926671873103087 0.03706524751151556 -0.02050190210434709 -0.01559572282081378 -0.05202373240147478 -0.0121070659946775 -0.01025128134251633 -0.001712537787415748 -0.01490629481970654 
0 0 0 0 0 0 0 0 0 0 
-0.5262512403923881 -0.03327484211839812 0.1021724049309239 -0.05141552077173588 0.5039032923582126 -0.1306467387809402 0.03998769603325857 -0.03568442513894324 -0.04905741519960138 -0.03861090843595949 
0.4658436224740605 -0.2043438277389969 -0.04448838533283892 -0.07100994802606468 -0.5349785333104326 0.1432570457560624 0.007663684856890518 -0.1860280178226437 -0.1442093634347564 -0.1493539531184942 
-0.7365177825602165 -0.01325444762931766 -0.0202397299093916 -0.02069533534098948 0.7903758444633368 0.0407363625464719 0.003927083550247258 -0.01036490085618507 -0.01841305318915944 -0.01035446285324978 
0 0 0 0 0 0 0 0 0 0 
0 0 0 0 0 0 0 0 0 0 
0 0 0 0 0 0 0 0 0 0 
0 0 0 0 0 0 0 0 0 0 
0 0 0 0 0 0 0 0 0 0 
0 0 0 0 0 0 0 0 0 0 
-1.197892080135598 -0.1529258114583713 -0.2078274112266634 -0.1471416285148853 1.258523674692704 -0.4322033994821519 -0.2448632433524834 -0.2186520995170892 -0.5316328581025268 -0.199550204835711 
-1.574671849768864 -1.26093543726394 -0.8572526795962351 -0.929613619372587 -2.245424727061451 0.4371464191584427 -0.8482321344310214 -1.230018937311667 -1.200671022464551 -1.151902923978564 
