solver_type L2R_LR_DUAL
nr_class 10
label 7 8 1 14 6 2 12 5 13 11
nr_feature 299
bias 1.000000000000000
w
-0.6250041209833930 -0.5162318296530050 0.7262760670545960 0.05374629951400391 0.6957979141578573 0.03811784169972651 -0.1463667618055576 -0.07856428567895307 -0.8270744256049280 -0.02349516212354716 
-0.2606329628381176 0.3896675544548628 0.03499649709752874 -1.040398533143133 -0.6228996689057491 -0.3434523721039470 -0.4242119441083142 -0.6752828085324731 -0.9400596830443986 -0.08262941729545802 
0.3382485961054732 -0.4264818212006448 -0.02511012540201760 -0.1036591910809616 0.1230790995279683 0.4480275922744676 -0.2704508449102898 -0.1457143752874585 -0.2744333016266245 -0.07510219737414008 
-1.016788552352810 0.5171524017806621 -1.043800649681831 0.02931746015461909 0.1692287549870616 0.1867883030973221 0.01833670250399654 -0.02844813624680436 0.1540833867849567 -0.1035978193431190 
-0.5329050958873000 0.3059922000172987 -0.4158598991175735 -0.07602111337903862 1.067463183545352 0.2988989758232725 0.3909889501881281 0.09848881683482730 0.4582481788745794 0.1411124349891541 
0.6344382847517032 -0.4893761279504113 0.1516969745794166 -0.1126607224853024 -0.06288461031817935 1.034992998811523 0.3008729905486051 0.1668948039544395 0.1934543635986369 0.4293543549946063 
-0.2380098591956636 0.2735367630946935 0.2682593487333193 0.7713502023246952 -0.007857452843247344 -0.4282045912690100 -0.2526193248969424 -0.4540609644018310 -1.047134237288371 -0.2330514036785509 
1.271041543983908 0.03509391791870207 0.01223079065165770 0.6462113621777743 0.1082603931989122 1.005853414401012 0.9183237688342972 0.5382395214278200 0.9034212438463437 0.7749810514195973 
-1.386761065158487 0.1521805330581222 -0.2457814910212062 -0.3656810176939131 -0.9023928812598753 -0.3061114132016028 -1.044310083477159 -0.6600654142649853 -0.1586919342676013 -0.4746133931600850 
-0.8400377245114429 0.3174999958219190 -0.7956776212642651 -0.2950438130806023 -0.4874762841075316 -0.3771869058103659 -0.3354886199652488 -0.5230278317346254 -0.3226390977596549 -0.2348508941855542 
-0.3574309736247772 -0.1918365021822868 -0.9770881036625398 0.2625314460655472 0.5790920412744861 0.6623663121875476 1.461391938880180 0.1588457945385330 -0.1089793195622449 -0.2278990452446408 
0.2233370851188316 0.1358546551296410 0.1796632943384330 1.314323409510814 -0.1364406697697138 0.5559149950329990 0.9941520366090448 0.7074986839221458 0.6939793370014765 0.9362289121283179 
-0.1287957597925730 -0.03994192077780069 -0.1271861994021710 -0.3487878411109843 0.1189092587669221 0.06258425300600855 0.6113523454614253 0.1035165455453443 0.6355768795170682 0.6662777001750539 
0.3168302892440769 -0.5103441468013269 -0.05660065538321440 -1.317878031971147 -0.6861242525054430 0.2992559391923521 -0.5156707457634836 -0.6838602818024591 -0.3489060597344266 -0.3215867723477933 
0.4641407215877405 0.08468715873522129 0.2393830983468561 0.7764323511577511 0.3120769617481738 -0.2550867786661785 0.4562539405629275 0.7708968186080511 1.459081088092068 0.1434867571569853 
-0.6595462904646624 0.1189367828204544 -0.4053863326434157 -0.4043722039836994 -0.1807156586637481 0.04069563062630426 -1.036775474670677 -0.4862964103453812 0.03163802778930554 0.02183185328065345 
-1.217619392446005 0.3062783455142003 -0.7443144453730286 0.08814107337959176 -0.2689757420521999 -0.4069055380948081 -0.1057598896207800 -0.4683419492778112 -0.1142248537079412 -0.1414098619926003 
0.1699466053592814 0.1087895824464485 -0.07937372245154634 -0.3132288551934627 -0.1588968716474421 -1.060999556502615 -0.7058145275386822 -0.4210224928859455 -1.277966814314685 -0.4669159491911135 
-0.02755922240277709 0.8816205211262946 -0.3454814145845718 -0.1732286582008306 -0.1925935688312374 0.2418122303310289 -0.7586875238368230 0.01100855234720352 -0.1645990761366861 -0.1924584328837926 
0.1599551721857128 0.7230117863634755 -0.8806679072473481 0.7985833144484631 0.3387378629548601 0.2092138296727160 1.127136921924231 0.3578008730312831 0.01540897419743504 -0.1671605098119774 
-0.2717726380210011 1.229456540095603 -0.9771255953912567 -0.6809114693884363 -0.9171418851858861 -0.007888523585011898 -0.2162156788380286 0.05777625062749394 -0.2595504326992426 -0.01310613401168299 
-0.1246710063115204 0.2445109409485351 -0.03583950599449413 -0.7130249098224483 0.1939323065045602 -0.9321144133295073 -1.309122841073871 -0.6779733235063783 -0.5899366475269371 -0.6684160411096598 
-0.05939695921839776 -0.1194569116087017 1.004949612241405 0.06805740375240520 -0.09783073141289465 -0.05028267762059389 0.6439881128325761 0.1981530400120298 -0.5412090505480633 0.2498833871616813 
-0.1374988489345456 -0.1755321579357610 0.08226584375152422 -0.2013175730130198 0.5502902711007496 0.3877387241824042 0.09430125727457997 0.2080154272631656 -0.2269301521382259 -0.1279973030691159 
-0.6620064222652976 0.1260307695002278 -0.2047875857067258 0.3376228481267135 -0.6466493051024540 -0.06287326731758566 -0.5069802307621548 -0.4276586961294036 -0.1263485547537680 0.07872183695470142 
-0.08449440271644294 -0.3161752217287160 0.6231135814807998 0.9381545661538481 0.3725795636928100 0.5568113709261923 0.6246064548568208 0.3230290083415066 1.166516680485243 0.3796131511990381 
0.07052401521532893 0.3813293131042007 -0.4208860028794219 0.2756400857285145 0.2933061234072052 0.5511686045615639 0.1417012660204785 0.7740767308852130 0.1834410508688185 0.4317965284529772 
-0.1530460724759241 0.8312440381360288 -1.415734290693800 -0.2810113062303540 -0.2843285388896273 -0.6379143535159243 -0.1316344860578336 -0.2395238270694356 -0.06141430391935716 -0.3303997807651745 
0.8288743908385822 0.3637038541455364 -0.8109578772709380 -0.3825817583243383 -0.6388335085853483 -0.09131512824962008 -0.1072258617141754 -0.07302361466296042 0.3754339292661607 0.4542312445037258 
-0.5887807255742552 0.4572977629690001 -0.2875612535251537 0.01022514123785184 0.6542757137097254 0.2941153764385492 -0.8358613963835055 0.1696931208111339 0.4466435734470126 0.3254546514571707 
0.1789801649744344 -0.9245021183970875 0.7417377319584773 0.08788021651252463 -0.7058351212967071 0.4426846275829330 0.7248536885493557 -0.1150756119239286 0.002721486069597883 0.3397676261600313 
0.04633192452802015 -0.3570204163656739 1.116431962113039 0.1592465379177620 0.3325867727054678 0.2716854714998076 -0.07202770590080020 0.8081252109757386 0.6917930054246769 0.4378470977535304 
0.03314014275884208 0.3098900649698020 -0.6289930370772833 -0.2169291838923987 -0.06122658444790608 -0.3888418355405298 -0.2632663919026205 0.2058100098746824 0.9419388832100866 0.7825187680074345 
0.6630737792969167 -0.2787106941619790 0.1584173951443439 0.8475900189843567 0.05980237771100794 -0.4725627534706837 -0.04559669340040915 0.1152925757427267 0.06812966204966870 -0.5103542039265624 
0.2719532851107571 -0.2112260821210175 0.2915320476289681 -0.6562558043265860 0.1895234392635152 -0.1663949837582269 -0.3151504948163664 -0.2280451666133868 0.7764780006001342 -0.1564953600314302 
0.2445357463002033 -0.5438865966177926 -0.4501121772534047 0.7617638291501824 0.4404000233199173 0.7262866210473995 0.1995330189637735 -0.01959444517761706 0.3905475199199338 0.1283538144014542 
-0.3818143328572622 0.5248716179681203 -0.05271192244829356 -0.5213085266629230 -0.6512139103251553 0.05587406160545438 -0.4270258585475518 -0.06864436649119743 -0.4647748067164149 -0.1834301277304299 
-0.04054254712285708 0.2351907125411633 -0.6669999520500463 -0.3448814069123600 0.5897158988772366 0.2259940472500750 -0.1799231115767789 0.4565237671241492 0.4998300063944491 0.08823020881491271 
1.017069972662200 -0.5668637517651866 -0.1239305464916584 -0.09479838757057589 -0.3958606136021968 0.003213483055699782 0.1410729932830630 -0.3376752947154075 -0.2946649242863368 -0.8750128547331210 
-0.1401434422341871 -0.2198803503953139 0.6281394078362385 -0.2436957784042201 -0.1501388140529293 -0.8546221112753232 0.02592966780468206 -0.5396986957044543 0.1204616261205462 -0.1968387398102231 
-0.8622205250442229 -0.3552896412808740 -0.1176759636036111 0.1148278812104139 0.1593438773078312 0.3078607645858266 -0.4328094029366572 -0.7989485311758666 -0.5042161083011194 -0.8124444293474522 
0.6754951873797309 -0.7974759825099185 -0.02716168007992019 0.8312864280048073 0.7078862113751406 0.5060184161550141 0.2855672414923145 -0.02373597545487161 0.3557382611448358 -0.1668773258170538 
-0.3165589216699326 0.1540830017027363 0.2592198967602499 -1.138438290415966 -1.387160905235611 0.2226397205888186 -1.395936322916197 -0.6663027803458602 -0.8011803992512219 -0.6878574581058445 
0.4454764808532570 -0.1008261568147713 -0.7024809909787748 0.8127198676147951 0.09588416775379248 -0.03170571898745955 0.3268765286774041 0.1172177747522172 0.3660108807945695 0.03651431990730488 
0.1748432912704014 -0.5217591460635609 0.3641595435203466 0.1671796156460212 0.3306663758791086 0.4245538777995627 0.6508384568801335 0.3671087501508403 -0.04750243991587547 0.1694571952047757 
0.1559897390144773 0.2779994504241312 0.3050965918619462 0.3729789513688759 0.07534400238358842 1.265014868409031 0.6615643940323050 0.6779663770708473 0.7767863324260934 0.7241169165533226 
0.6747720176393612 -0.2956681348619313 0.5206379256556840 0.6848293712801051 0.9133083269919396 0.5806739278916492 -0.07093339486747781 0.6547466440599166 0.4148422251709239 0.7955075786273496 
-0.4730141073977034 0.4535975118344305 -0.03590344558510748 0.4394109080669820 -0.5473055466165054 -0.5376201011934688 -0.02427059002621192 -0.08234493403752699 -0.3614548764802324 -0.4454732402199970 
-0.1994679881165173 0.6389720434627277 -0.6863030170051568 -0.1324281111113089 0.8178038859275263 0.1411657398869676 0.2332515371726617 0.1103144098161380 0.08672419529733759 0.1979118375059747 
-0.3068369517571202 -0.3658026380632749 -0.1263236321999759 -0.7363618282443015 -0.1005192316263906 -0.02441614118504836 0.04783047291715870 -0.3866159374913593 -0.09392416853096267 -1.241190821121128 
0.1582076897156148 -0.1714842678005177 -0.8014263010946288 0.05752462231738633 0.6309000274857710 1.214830522924139 0.2510309170339402 0.02382978063939015 -0.6750604733144283 -0.4394849506889497 
-0.8140195004555701 0.2083214107814065 -0.08340530666378052 -0.1600421203314455 1.017131159331699 0.3354798079341950 -0.4553619261330524 -0.2265938257678241 -0.1976465737379838 -0.2057798769019613 
-0.6923599016952029 1.498964400545453 -1.462120460369982 0.4266291408508730 -0.1009785484632248 -0.5017832197289636 0.08456878762648293 0.1379021957300116 -0.09706791836045970 -0.4120279207142605 
-1.011040683883905 0.2831024035920697 -0.5771426038335985 -0.1288704884793616 0.2435559658561917 0.5295349015019053 0.1241043051830858 0.08385013180617013 0.2788541023515664 0.05014808184485876 
-0.3144610250101329 0.09409636910679266 0.3755516533009108 -0.1615974396191957 -0.2667721665691290 -0.5763535190699520 -0.09723357656970755 0.3048417168122825 0.2769599170645432 0.1141971703833988 
-0.3426898654696379 0.3644259190690372 -0.5533959730874797 -0.7637570899432359 -0.2940725052824354 -0.8939392872506953 -0.4336243296312043 -0.2927921994589605 0.05617359227974585 -0.5900606403603703 
0.4627228584211272 -0.9479306055638755 1.003682005268424 0.4360839192269330 0.3851960057768654 0.7083347454109269 0.1979938136281587 0.6015966792803781 0.1553173986732598 0.2651953184298567 
0.9166268406104436 -0.4163827452781202 0.4942180541088841 0.7230146862864851 0.4052798973551012 1.327428029415086 0.3882936522879411 0.6036800179084907 0.6821249433666473 1.235881415722042 
0.3838497356870677 -0.4235128467903814 0.07188729079032799 -0.05859933098416428 0.07390793772478550 -0.4522799805277388 -1.234281133552120 -0.2060168154786059 0.1492735685244720 -0.07690616251832032 
0.5518716085408256 -0.5093706302268229 0.6915472782874649 0.3635233379146206 0.1825970178888720 0.8210452254310062 -0.02002253907189537 0.4878190756758397 0.8861635522184310 0.9395222300208883 
0.2142559494747617 -0.3138035748250852 1.015821253891716 0.09733430483446213 -0.5587077341855192 0.3734274832212279 0.04966943566370995 0.5056928993316630 0.4295785963191964 0.2863859987040442 
0.1051130345083906 -0.4759033569155078 -0.03050158315061295 -0.3087005915544618 -0.02631141711533382 -0.6100425221216438 -0.6260171998144723 -0.5439857606002577 -0.1710095759487476 -0.6392703628806241 
0.9986122463546080 -0.04126031063225000 1.052582642038145 0.1412940255842107 -0.4228496922008500 0.3858665452021399 0.5991536404147931 0.4174371389509053 0.6084956875867974 0.6136646238666004 
0.4860590225821464 -0.8283682073914649 0.5792865528849579 0.5122459993629754 0.5396029528039502 0.8411668524494360 0.7320030688170137 0.7103630696208388 0.4908385094290294 1.408012884799976 
0.4867522591370128 -0.6582183682335553 0.2854125865961345 0.3293978492026561 -0.1517925845479332 0.7892813940783469 -0.1251720831733834 0.2576867456800146 0.6383669576596349 0.6146188566560580 
0.3425334084609579 -1.215867591101642 0.7817532639722242 0.4321426673589843 -0.07314107240751909 0.3308583376010209 0.07534749317102342 -0.1181519647255207 -0.2568643960007927 0.008254154742498628 
0.3979938235850516 -0.1282356013514661 0.1853661545671313 0.1378542509977916 -0.4860710774027782 0.4832928792561632 0.4207984146485975 0.3956705701476440 -0.1831103435214168 0.2450137370700682 
-1.126901001341204 0.5028852130949644 0.5344562977767254 -0.3726368097033188 -0.4441830033787823 -0.3658622211372898 -0.6207863564368654 -0.7804167236834237 -0.4047622980162947 -1.023410237552090 
0.3408654051057466 -0.1609058149255881 -0.2447424662333179 0.3670432410103150 0.5385184756915364 -0.7438082935261555 -0.1085894549115101 -0.03081617947017864 -0.5215919427602507 -0.06312044874717304 
-0.8224034880694401 0.05221193801374193 0.1498783794303684 -0.4562532646832706 -0.5953563011446237 -0.7623737373115814 -0.1006232897794961 -0.06386826437234482 -0.4784620138753444 -0.2226240076705787 
0.4690867721182575 -0.5151455356541425 -0.1836645121695524 0.5198354476828038 0.08340023844352788 0.2071517978290433 1.047436663941765 0.05568365607092602 -0.5101929187732014 -0.3280185887415534 
-0.1045686816214862 -0.4889412272454432 0.9821920297386530 0.4392516772734076 0.7335622857685930 0.4483606700999665 0.3857138470711874 -0.01464099860055277 -0.2444832155905574 0.5822783978632956 
0.7134518169564192 -0.1677701579670628 -1.035702564503467 -0.8230761258176948 0.06612552762743354 -0.6996821893262292 -0.8579901830812200 -0.8080323398448828 -0.5980977129345857 -1.221558092353820 
-0.05796821043247059 -0.009785685535498065 -0.3382482684639760 0.03131092015352761 -0.5843405592935949 0.04223646777190682 0.07190477936931762 -0.4124445681582798 0.1325123860179346 -0.5949921025452760 
0.1851772300179706 -0.2927597130354285 0.8381221341615411 0.8355319053142882 0.7007324901729907 0.8272775341886798 0.7483906766895853 0.5028626084931637 0.7853586048503040 0.7882773581443566 
0.5993058838563784 0.4819711032157547 0.1187462656652671 0.2814861555639842 0.4474755878488684 -0.2420449791902684 0.2345367911660082 0.7734082131114088 0.3784782855790041 0.8681662070384802 
-0.3718536593094505 -0.3360040818338974 -0.2524734366219052 -0.1381275842482331 -0.5152719278246803 -0.3372504895397218 -0.5822162540350347 -0.6121305003229952 -0.1978130656841048 0.1194672770870826 
0.01921117272663944 -1.130953040314620 0.7936039739956554 -0.8994448819767885 -0.4273104619849735 0.08478755930239795 -0.7952405228686222 -0.3309176217403425 -0.02720242375829558 -0.5505174280305585 
0.07100330237861818 0.4096077493400146 -0.4863362000315244 0.1451904308181412 -1.025602569251560 -0.1862606284470864 0.4518945363592508 -0.01191042906587836 -0.1847197395840210 -0.2001604653888900 
-0.5181801384580582 -0.04786255407647645 -0.2805972833602126 -0.5581704363507775 -0.1170676525487330 -0.4375406213117489 -0.4097087259738300 -0.5498534415209696 -0.9470285345721506 -0.2787024869290574 
-0.1877130829149916 -0.5052417968818615 -0.3119377159906808 -0.8518371949981905 -0.2493961726783772 -0.2704138972798978 0.4363748276400801 -0.1401654997886188 -0.3583795552588954 -0.3529097694723427 
0.9757785062231878 -0.1993131513505938 0.6343000402717427 0.05150971103003092 0.09621650650072941 0.4124611438853540 0.5204632817254518 0.7648414316523304 -0.3279489753186956 -0.04577663715570751 
0.4273883596121559 0.4614069640583452 0.03853696042218718 -0.6092484445689039 -0.7797392936409403 -0.09949535593738290 -0.6035315483872330 -0.02833475663039075 0.09683895864076691 -0.01068150021514116 
-0.9167030313154226 0.6111952290018985 -0.2592869654852152 -0.8088727141284469 0.1683627018714455 -0.6454724078706922 0.2552112775304956 -0.4528825393720483 -0.07981843045787610 -0.7100080323739432 
-0.5224184717015222 0.7352817823123768 -1.009282711589049 0.3862795463423075 0.08492967074682242 -0.3234420801922620 0.2182641123495468 -0.1653470453367190 0.1957563320656126 0.3189009771879292 
0.6766571550780471 -0.4606961044274441 0.7918639726365788 0.2624349759664384 0.2050326221014578 0.3121259306404938 0.2623186704097832 0.4606296866497238 0.3383095470678291 0.5703565717929450 
0.3477046884577524 0.03451631609608603 0.4824936205727485 0.6713443777701188 0.02842744739973070 0.8683754334871514 0.3640023389135158 0.5427842439811182 0.5711874373353651 1.183687676159888 
-1.443544402710437 0.6117103910967141 -0.9821436719547550 -0.2825903003879770 0.01615816315680437 -0.8517003003793187 0.08834644050117953 -0.4836651093462960 -0.8845300960092275 -0.4144861732467570 
0.7341222760482202 -0.3257518121264467 0.3743696335806092 0.01200698235506094 -0.5180931491548301 -0.4850384335389453 0.5284010449679906 -0.1268171754352455 -0.1410051075244481 0.04974130350612412 
-0.4168387248395671 0.1211983071005053 -0.3050909372479521 -0.7033574475508113 0.2399888869039775 -0.2065420433483507 -0.3993168284996089 -0.1962662426234957 -0.6829574371965588 -0.2163301715501801 
-0.7286884819776395 0.6750720452828906 -0.2882406431140983 -1.001176038440618 -0.8069739276423010 -1.194578776689653 -0.7062019062125263 -0.7450951543873435 -0.3467831487999726 -0.2738852884453046 
-0.5555962088058018 0.4835738770886579 -0.2888403915530834 0.5021187616905879 -0.2229202989812455 0.1164755344704149 0.4062800881332658 0.3301512008088343 0.3410351817941423 0.4687146961343280 
0.03726320722989662 -0.3463121829524092 0.1746163335830980 0.2789965719356453 0.2154128851926993 -0.04219398556589848 -0.03493828189755245 -0.1106705741334533 -0.6189746151614307 -0.03997709830015676 
-0.4470849889971471 -0.8742282670974594 0.9608561467914741 0.1276066467064061 0.6838282710370264 -0.1781401786670767 -0.3059272258797879 -0.03360088180859740 0.3737907348942514 0.2186943800671245 
0.04672924987262098 -0.1178327570599369 0.1099650064888020 0.1232992353937237 -0.3409174149327090 -0.005892937372374992 0.2077125270184747 -0.1378680881089630 -0.1681436151209600 -0.5024830617701014 
0.06727442483152977 -0.4273562366393619 0.5807215525128091 0.4641068669411456 0.5198850030567594 -0.3871311918628921 0.08834216496361902 0.4268387172935400 0.3370798029865197 0.4500291883545913 
-0.1947991030190682 0.4223582733323884 -0.01184360633601667 -1.258786826165349 -0.7807310260194630 0.03939700939262025 -0.3706701347559185 -0.2250058940162456 -0.8578931540865804 -0.2107957649987246 
-0.8972244698330980 0.02746186972325376 -0.08457726697080784 -0.3621976217258864 0.1738498605550101 0.4405951057488739 0.08244711708402402 -0.2633372919880456 -0.1255655831716274 -0.2886849579936123 
0.03641109849088919 0.001103333825322198 -0.1437273277774462 -0.5069864116766115 -0.01100894281493647 0.4031405801730424 -0.3400375810947898 0.008357553036006856 -0.3768169341563339 -0.1084899126218069 
-0.8787261704546675 0.6333989587534501 0.7576713903789997 0.3549979951887310 0.3971413140036392 -0.1600218955174615 -0.1764423607057232 0.09213851589059492 -0.1786524219026675 0.007277047935836532 
-0.2127135662890923 -0.1152479688141958 -0.1086800282576968 0.1530558246194372 0.6187357987128240 0.1782796581349617 -0.1937435149236548 0.04747369154483263 0.1441068019176995 -0.4809268473208287 
0.6268344785454237 -0.5025488011134566 0.5100980917010596 0.01732062349456984 -0.6835103985870877 0.5625370075401035 1.302864907071102 0.3563816119303675 0.2598059415054096 1.101066542401045 
-0.1998225477386686 -1.240278033233462 0.09998968757529733 0.1877181565877715 0.9342340507236317 0.2084611779110192 0.3586718910565357 0.1538017030268427 0.01823592513114368 0.04581014461638104 
0.1060121545490709 0.7109683125511999 -0.7868656045678477 -0.8942875061522996 -0.1482015417073850 0.2268364224807453 0.08597455332461112 -0.2068665216321790 -0.3707083068194504 0.02489108629432823 
-0.2893364345237015 0.8736141178053449 -0.5099318992277873 -0.3333878675272700 -0.9802009941945190 -0.5048533162511404 -0.4323836170018128 -0.2787503136592093 -0.1423988673971701 -0.2211130556803125 
0.05887325211269685 -0.2829113131263383 1.102059710583041 0.2040762312640438 0.4129396250388275 0.2890469261492921 -0.1119119650640627 0.3889577976540461 0.3896044724949476 0.7257081006811698 
-0.6922566474186892 -0.2177569788107106 0.7163457119709747 -0.1321809740934041 0.07333243418565812 0.6980487711780065 0.7079446753783302 0.04159827339026807 0.3532863230078031 -0.05348269538036302 
0.5162361703871930 -0.5399319410751017 0.1996917617132512 0.9684975816329793 0.1794963424734956 0.3089015046361676 0.3583397454545407 0.3786490987145179 0.6311504483922460 0.7205590790158543 
-0.3618538732478553 -0.2709690607174797 0.6678272220073989 -0.003629817387582742 0.1444498446552353 -0.2810150594470777 -0.1325843425224841 -0.2509132526708589 -0.2581884033631987 0.2858883256551192 
0.4923720177317149 0.4120512245848438 0.5513055978381785 0.07339365770783278 -0.1812249014412739 -0.4886882724639357 -0.07341840771677895 0.3796453938338521 0.4938151259808009 0.1392740252588893 
-0.07518952018993502 -0.09218280485433879 -0.1413247749879007 0.3884979710670221 0.2305878564108794 0.1127541393842129 -0.2823817416560757 0.3388549312059963 0.4201627931999499 -0.2776019498034031 
0.2856544535464187 -0.3520641471132214 1.201665304747713 -0.02762759311555531 -0.04845065664365050 -0.08502152545125485 0.1511930193523275 0.08866111749760693 0.09744337996449927 0.02023025634745743 
0.2753599263048656 0.1150404492178650 0.2239919139489036 -0.2032017669462170 -0.6430861004316624 0.04887254610722748 -0.6438821918381302 0.1403695728967225 0.4665977963518933 0.8159395278828192 
0.9275644119079397 0.2412082428623068 0.1081643567906984 0.2762163883987806 -0.3147438273901075 -0.4709854926533969 -0.005919708779598316 0.3949768203559614 0.3796595315630109 0.2478617580745287 
-1.083598177993701 -0.7213562613622998 0.6890295104838485 -0.5404632435802261 -0.01619884841236666 0.1177720725545711 -0.1097030778272102 -0.5056617197004589 0.3108291836435331 -0.005568668311870844 
0.2256388784542389 -0.6363610370109631 0.8035446906497372 0.5569150357223638 0.03127809790087725 0.4221360337154473 0.4040180811830271 0.2768638417888669 0.1107418608161863 0.1989886403179318 
0.5092071185299005 -0.2837195483356976 0.7228681317345477 -0.7841768482500707 -0.2323101404489307 -0.04310923097413993 -0.2811956904926260 -0.2622594072282986 -0.1252359305230540 0.2405743046702319 
0.4282107280900611 0.1305767884116903 -0.02627532726012649 -0.1120966025925095 -0.3844788569067728 0.3981811360412911 -0.1713539484330262 -0.1254633170017930 -0.7988440557036882 -0.1597088941424773 
-0.8982557201427674 -0.4316553939359558 0.1257258399010561 -0.6676859917418289 -0.3848188927728252 -0.7434924478270217 -0.06258087700409810 -1.219225934634398 -1.315773514552650 -1.097500767237840 
-0.5837793305398342 0.3735975726928562 -0.1637767396836009 -0.04335060161943403 -0.7100563281250670 -0.4171921592389667 -0.5952021031740282 -0.2686799725751659 -0.4862082344518768 0.2077810825722388 
0.9375463066683288 -0.3459059803010097 -0.9318638843512648 0.06727976686608021 0.7541469155856619 -0.2152344552072757 0.5460923449648237 0.1534408463086999 0.06202296043559161 0.6972188553667528 
0.07343745674244648 -0.3734120228446637 0.5081106395358754 -0.2594328388616891 -1.154058536849408 0.2853377884602663 -0.3979366666661673 -0.3298267998822083 0.06471782184092510 -0.5459487549327258 
0.1768441507858773 0.5827182286752887 1.223379258474993 0.5982820116636792 -0.5520120495650577 -0.01369907425436463 -0.3492858401138335 0.2564996149411535 -0.06609573137877445 -0.03984003107860203 
-0.6620611155205521 0.1528150494409287 -0.3014218830616140 0.2405076018907454 0.4658947309628878 0.2024186086952107 -0.06086114004830134 -0.2469070080931679 -0.1623958189007810 -0.1166463242448592 
0.1394863759138817 -0.2318797879848169 0.5238317436691297 0.3346097178637782 0.6387000063954082 0.09039749766772188 -0.9692943787583794 0.1878197104445626 0.1928565129438131 -0.2449241355795957 
0.3992859010731168 -0.6392461381534045 1.167434844635493 0.7018970662278011 -0.2775698490420410 0.7339285419318068 -0.2613544586670988 0.3146039106434406 0.4866609989922012 0.3546680653427147 
-0.2800841901164576 -0.2482508361366379 1.749380010790781 0.09512213284061398 -0.8146389080953973 0.4519172159795467 -0.2891580431619993 0.4527358606832504 0.4511193258125749 -0.1344819858376851 
0.2638761639761984 0.05726002766511144 -0.1366736393765424 0.4758251511241272 0.3485753214137234 0.1435672868679296 0.5096054448877595 0.4505106483773881 0.06318450425962938 0.3403640277138637 
-0.2140159401549815 -0.4093143079196276 -0.1608687835122569 0.1995544293095618 -0.5442580404417550 -0.8279738579623351 -0.5720313851546687 -0.2279681184053579 0.05408455383793261 -0.4936146267981240 
-0.7122479983509657 0.7449772762219802 -0.9241914052181818 -0.08349304764642804 -0.6948290042705662 0.2901732561094197 -0.4175011120058092 -0.3893134960782924 -0.3590832617841904 -0.2683043963221837 
-0.2557195255940370 0.3407893933382403 -0.4024216179495980 0.2048117689525513 0.1495564864276932 0.07301066695847955 0.2762837544927937 -0.1388916752640278 -0.1675574916602619 0.07703339415538243 
0.2543774792975342 0.2497283599012845 0.6764554272509408 0.6197359148671967 -0.7283948884733537 0.5135708214508690 -0.001450138279522264 0.5726387111289507 0.1458596838357019 0.07915856656931557 
0.5458245446235963 -0.4251359847342635 0.2055938035848943 0.01529645205335847 0.2327378723267521 0.4222313131004336 0.4829683454523772 0.3275623964679221 0.1262161444347699 0.3250847251326047 
-0.5581505615049056 0.3366176422611472 0.3222805467401799 -0.1623992356737813 -0.2814800200125706 0.2961351133182800 0.6361429054580557 0.3555395857721148 0.1044770676407787 0.2613520994517039 
0.7128717023610937 -0.4912624087653592 0.6541336310330418 0.1388355293799848 -0.9976914069883255 0.3297402563301331 0.7538315870986728 0.3076853631530410 0.5877876406382483 0.7284790074712078 
-1.059910192080806 0.9811112233496401 -0.4924190013565881 -0.1050918988031972 -0.1359648776957162 -0.3017706619483686 -0.1458226114731520 0.1681644421854442 0.4966310648862685 0.3214286510845438 
0.1164969867680604 0.2291634915462767 -0.9933011312328047 -0.05629455198493713 0.2216886724699009 0.1824302428403587 -0.3828411211767137 -0.06409079612558581 -0.04375394474972461 -0.6203690306097376 
-0.2910727059421542 0.2662216130190646 0.2182425316037650 -0.3011227432077142 0.1989989060886711 0.04717978545319032 -0.1690248001543802 -0.07873648536580968 -0.3484561117978762 -0.2390802928197051 
0.4701725836020216 -0.7352748541581844 0.3447100742340051 0.1446748359415175 0.4495499891198436 0.7324140320566598 -0.2415100349375559 0.3133676087424359 0.2315216049112966 0.1183072350577530 
-0.6743039785856300 -0.2508117918144139 -0.7734715294462088 -0.06783734172143788 0.3397644342067174 -0.1354712022451661 -0.4038546944490239 -0.3412706863545161 -0.5283786159725257 -0.8771087548628034 
-0.4622205486925803 0.3900723183495687 0.1076501301374168 0.1488346840392740 -0.5642872925046739 -0.5512975502912989 -0.03639234155956431 0.2266044482674879 -0.4103240224188378 0.2833214437607218 
-0.1992562606984112 -0.4125498219152862 1.277796444236018 -0.1562998499633546 0.2884656749105126 0.5955144412759138 -0.03928890510760865 0.3064716630570990 -0.2166513469822328 -0.1647781155522157 
0.5160884838325769 -0.05833206678730295 -0.3213398244519925 0.2317970844865333 -0.009485898768337593 0.07699780823030287 0.04904677456527096 0.2966854925802815 0.7261164244551980 0.2139079694737604 
-0.4810615059050977 -0.2384321479209242 0.4583688241539630 -0.2287702131346968 0.1831271475317749 0.5029664356476837 -0.1761057158027510 0.2047045967919994 0.1704157616230763 0.1164004049440977 
0.08615961722207177 -0.03931710380813799 0.3321425757562170 -0.1139224869482417 -1.457016617689066 1.039861698221200 0.09975570426097956 -0.03700224641971158 -0.4135898043039540 -0.2442189974836587 
-0.7611165433689978 1.236136256763812 -0.7343236611215164 -0.2094917023980157 -0.5957490234336146 -0.03522374114133085 -0.3847808737434632 0.09521355175904606 -0.3928021193103949 -0.3365965957488839 
-0.01578913161648633 0.2855660588637007 0.3347729816039810 0.006239833825107464 -0.2026056251891782 0.06526234473241758 0.01947690459907683 0.5167859497166146 0.08943216520042768 0.3183402774815641 
0.7395178387353435 -0.6270870618352913 0.3593382462653025 0.3193462695414468 -0.04097502979197142 0.1765114870662440 0.8068314727586899 0.9783243226716951 -0.1275001333172800 0.7630255950824513 
-0.3096859560146598 -0.6395380310687496 0.01567723593616597 -0.2590142364142430 0.9044813989683932 0.2361052226857243 -0.1914393279920402 0.1955743488095008 -0.02143061103809906 0.6155635618236337 
0.1526109400975630 -0.3174054903104946 0.8763500758903445 0.03329399338932877 0.4148071319959038 -1.049059603328627 -0.6353292023002960 0.2842904935697642 0.01740581306042498 0.3365033670502064 
-0.1642424981591227 -0.3021566440400603 0.4690742022987302 -0.7543990355138925 -0.7273963670258408 -0.2084291549125344 -0.7124466218434011 -0.8625522658007453 -0.7825296012089431 -0.7257016587657545 
-0.1636072379331310 -0.04863908127461174 -0.02395496857317791 -0.3952408521710379 -0.1138486721069365 0.1923001536620540 -0.4602885414795543 -0.03217971864746238 0.5205109278643231 -0.3629183979895831 
-0.4697791665375252 0.03127139628425956 0.1185042746619626 0.4616254087436448 -0.05025968757462269 0.3415013509239366 0.5247370546253918 0.3029295358839649 -0.8397931944631363 -0.4003847725135942 
-0.02105860751305574 0.9538534766645996 -0.9757074098408614 -0.5014717132980268 -0.4740194416582987 -1.364401204135512 -0.7547956337532589 -0.2802590646418409 -1.065873218132279 -0.6322065572103935 
0.2900694217632130 0.6170690577461946 0.5027025624057909 0.2644931153852642 -0.4349377912354263 -0.5216084164841923 -0.5003780477120235 -0.1591302253142942 -1.075062809719616 -0.1135775443050775 
-0.1257095237449489 -0.4197072312130059 0.4523141231506656 0.4447193154625609 0.2803866301283822 1.145011574142593 0.4237599877493734 -0.03351217723515814 0.3238152014290963 -0.2305349836589903 
0.7222063946410088 -0.5825944585334710 0.1009300865578890 0.6261041476694873 0.8557621078130926 1.145771730507101 0.3739095333669317 0.6390399734407497 0.4260528115302742 0.6806832389384823 
-0.7421310626821435 0.1826517572004018 0.2348973868857001 0.8674799911325461 0.4135400855001959 0.8257250131574012 0.3420594290666868 0.5204375441199850 0.2051476093339288 0.8687643346784671 
0.1161409449382827 -0.01442992401456295 0.6168636576961414 0.2420728509345988 0.1761571831917729 -0.2143622572027613 0.7781515063870090 0.2974419823833817 -0.1170398817812696 -0.2851642442820408 
0.4215587890508843 0.7302364648088178 -0.3838590400531172 0.2005434670350812 -0.07635410503746766 0.7160065140074465 -0.2351099691100414 0.3582250613059476 0.01753449904683820 0.5979253885252264 
0.09040629801339865 0.7582907280404440 0.2154707769284438 0.3327516764334366 0.04814389440661199 -1.278435434966053 0.3449641023804258 -0.04802024473792398 -0.3876623026660933 -0.5640558055384466 
-0.9141667001763190 -0.4620725978127934 -0.4967925483997245 -0.1343004503423440 0.3224969876412532 0.009646276026713974 -0.3018768195648962 -0.6680276257169490 -0.05499877618500225 -0.1433603395785401 
-0.9574056614979602 0.2061796925473147 -0.3130574047543477 -0.3850423887405157 0.2268823041538843 0.09188165344947259 -0.4688702651702497 -0.6063629568613605 0.2270270531717800 -0.5033997412644604 
0.07479578767804462 0.1473205083642708 -0.5784220355160158 -0.04693624437389690 -0.03757907349995401 0.03315103443732412 -0.06405796073253545 0.01870141003232387 0.6608531084903190 0.2959915207963370 
-0.5476968805321123 0.4565509130666243 0.6296542811257488 0.3595538951857290 0.2097799805324828 0.2684418183291583 -0.1730614172755657 0.1040372590099698 0.04566716090275176 0.3080205205157205 
0.2143573858552063 -0.7580095844494197 0.5043720520628437 0.6056555554598962 1.366908972269843 0.01498310680914099 0.4945823759799815 0.5093749286516063 0.2265785938990401 0.3366903997585877 
0.2980176666408964 -0.5779952405982967 -0.5805460149277221 -0.2715844089534392 -0.06373973212094902 -0.4446140987493855 -0.5967271804693668 -0.5706348110302831 -0.8689658913892966 -0.3014059563716784 
-0.6422662006594071 0.3355847079189009 0.8140872945629853 -0.03095688314612157 0.2047820473724357 0.1796560931435032 0.4277956993968352 0.2879540821799889 0.8112074201930115 0.4647766168302515 
0.3613490301570009 -0.3307137534471293 0.4827489258408034 -0.4759128569671653 0.02316357336221781 0.2329560682172695 -0.6325626017108923 -0.1884295143575349 -0.2637198908573600 -0.6630592487466848 
0.5908254483237012 -0.2638370211391880 0.6308077149730980 0.3667376421860233 0.1907429570889681 0.3653023560794031 -0.1306205724047605 0.4159622625616807 0.4334266127652363 0.2881077802380849 
0.05925028298843807 -0.2176897027243196 1.188020784314118 0.8509042086355370 0.5217673627124959 -0.4016117641144147 0.5421506016549474 0.5527773057990515 0.4537892131739991 0.7556441014917261 
0.08756113734607210 -0.2755186428568541 0.7647417769747623 -0.4568814946955028 0.8044044131672251 -0.2162132613170433 -0.2275476114236789 0.3828960229955566 0.4247383361822419 0.6870360248379389 
-0.1636014052360948 0.1383924304658234 0.4884634597047591 -0.09870536956055542 -0.4006226526862461 -0.2687982053682907 -0.5922888933569462 0.06315735506662563 -0.1268598825979856 0.02517152497784010 
0.1486562402130325 0.6374969579354948 -0.8042549394736003 0.8088581817450549 0.4393513141794079 0.4033089734877933 0.4315874872332808 0.7296750865792453 0.6123733314256175 0.3907240597033990 
0.04080920726080864 -0.5607025195412583 0.2704514398935459 -0.3065632217493841 0.2300560584317830 0.2998380269972303 -0.06721074922721043 0.2031713599814534 0.01207235565994319 0.4566152606776854 
0.6866088876422707 -0.9683603981721809 0.5326857778951729 0.3958411400430327 0.1658789254366505 0.5236289208016107 0.4832883801770059 0.02707790242653796 0.1574181434231061 0.5996171488646013 
-0.7284148231240586 -0.4305666035475766 0.4854781728820195 -0.3858916399795960 -0.1602458504175502 0.3017626639157702 -0.06963101709213988 -0.5246239799357667 -0.8085983270917879 -0.2219616426011436 
0.2735650670238807 -0.6965062724002248 1.211698685775649 0.03156767303700069 -0.3385533557937448 0.03217495879544661 0.7090242534353712 0.2964652546481164 0.6066512138534383 0.6375567548188356 
0.1210103507874174 -0.06065451123326648 0.9292602241856689 0.8311312546406786 0.5508877193174594 0.1032646765803363 0.1323558274128766 0.5188765321787899 0.4593306467960486 0.1299204017226234 
-0.5921301027570436 -0.6838541439635467 0.3790711508452934 0.4253116939727423 -0.05235735603151864 0.7151875316676475 -0.3184704076245508 0.01927456900657005 -0.5474030540019601 -0.4195635573714358 
-0.3035764571259457 0.2348961585035678 0.2313516817106587 0.7417061907179027 0.3224995238664439 0.3531721783583067 0.9383760570305624 0.7028169423991871 0.9696698359989979 1.076566965188635 
0.2853995646068088 0.3977571796425706 -0.01666035785732262 0.1864276847065470 -0.04651720843587651 -0.5439818372624511 0.1452498231427273 0.08742573150827690 0.05301700202400245 0.7090346741695015 
0.5231494385213373 -0.1636103556731667 -0.7933946775117150 0.04706314253452858 0.2177436595172686 0.4952462542052241 -0.4946443162749240 -0.1205666383346215 0.9869722289110346 -0.01639284047441515 
0.1496477393119198 -0.1143294731843416 -0.4999401645206659 0.2745323437498825 0.1508601902977564 -0.8683602187783707 0.02260049388270585 -0.2490237590293639 0.8664124680203272 0.06850192229294612 
-0.2211676701381085 -0.1696609483018162 0.6169643027150932 -0.06895537554619603 -0.09906972255495436 -0.3794760308830145 0.08075644539325101 0.1600112776590751 0.1969720787258024 0.08090143735360220 
-0.7190759367772256 0.4729185294138981 0.07572175516959558 0.1523660850911818 -0.5220007853923880 -0.7752288839669366 0.6412940759414125 0.1532745048770620 0.3714114066339053 0.3092342012951738 
0.5698638493129372 -0.03206502639310183 0.3504690380423363 0.3564212142686063 0.09167628906813584 -0.2908824311486113 0.3114429030979518 0.6438825689361776 0.4984296383861371 0.4476165053497102 
0.4127420962408573 -0.5433098693153982 -0.4603889306247355 0.1434672530210922 0.1005174789620502 -0.2333596625620905 0.1382988130305903 -0.2099403108716549 -0.1085192282821676 -0.3609255057710881 
0.4231507226047271 -0.5187468347901980 -0.7439001026065686 0.3824308660430239 -0.6576033095405280 -0.03740874800508115 0.5394775830962545 -0.1459161406742804 0.03293191333410666 -0.6162407669423232 
-0.4902603438479609 0.4957069894224037 -0.8975748817379430 -0.4206111611720056 -0.4663329308205152 -1.071016949730428 -0.9785585419277398 -0.5273540151768965 -0.7402640161439781 -0.3222805444750564 
0.3761055470323461 -0.7391478796426617 0.4904608173247183 0.2422100102619286 0.5784462377227405 -0.5877939792292481 0.2451117277609784 -0.1068068975066129 0.2725068627805871 -0.1241753853436203 
0.2906861206896063 -0.1722580773409433 0.06607043818217784 -0.04132490985096732 0.6852117625608843 0.1749332092536119 0.6454297619718429 0.1921145612979618 -0.01788410411012656 0.1047088586741189 
0.7861729847432727 -0.3772068615751378 -0.5005153517324539 -0.04679704505709550 -0.03856860262890369 -0.01849632707415731 0.2116112208595881 -0.2710896178058893 -0.3106255572850122 0.02984036582516004 
-0.06324244458759580 -0.3876731098058939 -1.137416821375887 0.5133980483962739 0.6472200773967394 0.2688653074111168 0.1686041207268489 -0.2888381226229473 0.1483579028935515 -0.7443533371054264 
0.7073703454222099 -0.07554671958389936 0.8797974554531132 0.6279084360814763 0.1760048151032881 1.673241686119126 0.6935378309912522 0.3233580521705715 0.8472128307249626 0.3788570795097666 
-0.4034317422712362 0.6734682359131021 -0.2477301967536041 -0.6584511799750029 -1.103233517869833 -1.103963286339090 -0.6808269165593241 -0.8530322445476793 -0.1571621783398754 -0.5586684935663515 
0.04813357179948487 0.06590421597337895 0.2000971908001026 -0.5123264235730252 0.06950718080475365 -0.6684305445631850 -0.5529435768830157 -0.2735179781621654 -0.1131834754193697 -0.5020067003418090 
0.3637102901963398 -0.2776281543725889 -0.1287747084807802 0.04671154819264470 0.1961734661357933 -0.2351612657471448 0.1466874966495602 -0.1345376481129847 0.09658351276625779 0.2789269565193788 
-0.6799833110997940 0.4219784897963322 0.1202497544897815 -0.2245749892109783 -0.4477770863548760 0.03072720566590930 0.3599344793161453 0.2144317950556760 0.3463613649827262 0.1168983653495921 
0.2838202453462200 0.08698321956975520 1.117424303783047 0.4310037012154264 0.1892761189034607 0.3948284436294559 0.4283982717815711 0.5544825547987675 0.1034449335371745 0.3000264825975456 
0.05882970618637182 -0.2071284645072334 0.3936863047874956 -0.5566881266100087 -0.2732366159165002 -0.1951115570356626 -0.4807490401812508 -0.5047458084232027 -0.7861352349614488 -0.1841495391285879 
-0.9058936108089629 -0.8974709486485992 0.5505728567268653 -0.1582236780314150 -0.07266488781557782 0.4621698207815318 -0.2182341980361668 -0.3772695547563231 -0.4767151565189567 0.2704903145148392 
0.2083264470438963 0.5718997762426714 -1.025442627486386 0.04276513856123144 0.7418129197027377 -0.1537126214364781 0.03765704827662996 -0.1168411065458582 0.5215237442865481 -0.04401819144189353 
-0.6937431209090852 -0.5250385095138722 0.3957163292324630 0.6828573024857475 0.6534695069074594 -0.006077724111577779 0.3940453587140755 0.1489884926646302 0.4108839538157888 0.3812670962116040 
0.1027419885727093 -0.9081042537403340 0.3660573337372987 0.05000350055082858 0.2093216309908777 0.5136627680479710 -0.3780818955438829 -0.2083518243922946 -0.3058957079614535 -0.07011792385656461 
0.4045937305179163 0.9134210290158601 0.5323250934267769 -0.2970966477751590 -0.6993714693540340 0.1721264178080761 -0.1773717446391751 0.1423040529277064 0.1115250356163214 -0.6686960892889844 
-0.2285257729158655 0.6795561841526903 0.3870272367649008 -0.04132637903349572 -0.5066396624585111 -0.5248658453473979 0.2861007629555734 0.1622902919112931 -0.5997518702549846 0.02022228476549856 
-0.4942264820445108 -0.5040402715921074 0.8112798376516406 0.03299264988461682 -0.6629882408073312 -0.3643913012975235 0.5661588258763046 -0.01820353117705625 -0.2171210369232311 0.1057226653112501 
0.4639393184857176 -0.5645774617254992 0.04159762154069380 -0.1089667116965270 0.2199175603862590 0.7538771725290302 0.2161344960130182 -0.02877462415843591 -0.2294393556556625 -0.1065717453251307 
1.022147439687345 -0.8600274931481706 -0.1644921855500137 0.3639237222690623 0.4200047366338952 0.1398364949345372 0.4658139123339765 0.2222968349505069 0.1736261446376829 0.9751755847401670 
0.1688770410078135 -0.2910440199049050 0.9135085781884943 0.2191564654411916 -0.3689074999343600 0.2250771447987296 0.2579213567535840 0.02837343575522637 0.3339874860146359 -0.0008474687490331892 
-0.4458347660783872 -0.4289635129968079 -0.02088412334098044 -0.5431899086889302 -0.8702108015138313 0.6314762260766085 -0.8995840977636963 -0.4658426548714044 -0.003701795684737292 -0.3002297702003910 
1.049324274225860 -0.4764239472394178 -0.1531138324489624 0.2153743671974615 0.07844485930578390 0.5169186377892065 -0.3361768862283450 -0.2537803504860673 -0.1779249816260579 0.1399146530748482 
-0.4274281236117120 -0.3464549362035062 0.2157752995443558 -0.5765119586281790 0.2321524172703647 -0.3394579284565116 -0.6097822069183017 -0.4933982319764160 -0.4610058526144130 -0.5608352793716960 
0.4837914713953977 -0.4041384170940070 0.1493337524383253 0.9339844319549065 1.214004158389379 0.08742212043385938 0.7867391413055909 0.3421156369850398 0.003183067581962961 0.7518915334197173 
0.2941662402677794 0.06512415360199528 -0.2945498774246128 -0.7081125112476061 -0.4598566399946454 0.04717979943428096 -0.1246264138574195 -0.08523450751577984 0.1709234714955139 -0.09526722929427443 
-0.6027721911756939 0.07986670798120273 -0.3369736557198791 -0.6015002917612910 -0.3081539153567342 -0.7103796996345006 -0.6722448715219862 -0.6535473500044295 -0.4926635783116147 -0.8998827504929369 
-0.8823511104297472 0.4518796606215303 -0.2416297881613886 -0.1493886087675090 -0.2983084938829599 0.2304518454310117 0.1387730303272146 0.3386567461096328 0.4593345709548554 0.002100218098915719 
0.5114411183862937 0.2220678519071010 0.4068190970694156 0.2396264274400695 0.3535558914976749 0.03935177237312291 0.4975300850372126 0.5171176048505558 0.4279313927853873 0.6447680324081522 
0.6773965055682529 -0.5491274189510250 0.1759903198760853 0.2279518818754232 0.3588063291372867 0.2895212767909717 0.4722595343335869 0.6390928873740561 0.1505080120860760 0.09027914428106541 
0.1064577772566865 -0.1735708364520147 -0.6506380842720362 0.09014102611166265 0.3677070335702391 0.2745489703308333 -0.3209354276290642 -0.01362972235674830 0.2577806393167123 -0.1212890082943279 
0.3463834403619183 -0.5690849448645241 -0.4586018641058419 0.02953313612417990 -0.05543084540133816 -0.1882785636186688 -0.06579001991678050 -0.4997706009312715 -0.3102478584639752 -0.3108982273375232 
0.6949708304738647 -0.5535070161971470 -0.3037492980029246 0.5118324466936216 0.5333801165189817 0.8741192710339657 0.1959179106805495 0.1757237429107239 0.1282694503099985 0.1640578937501255 
-1.043522547239243 0.8169615158851076 -0.8970537283662865 -0.4677887042434532 -0.2125932764591146 -0.3147139781367241 0.1442763093302204 -0.06544146872943683 -0.06890863637202790 -0.03686256534545884 
0.7293556097112340 0.1391307512064746 -0.4758464968041901 0.1177042004819668 -0.4253747499197767 -1.156926069238232 -0.08538263872474840 -0.8236853045897108 -0.4724156929303535 -0.7403516804091201 
1.006632823665519 -0.07520381145036287 -0.06811191031904372 -0.1438579089871317 0.2130754757599983 0.2893285433018049 0.3714569290333154 0.5414476949256650 -0.4709581400121337 0.2377479942799491 
0.7387546540752299 0.1268089160990122 -0.2452790580340226 0.3373861765237195 -0.4065400544990097 -0.1098450750593353 -0.2748675253408777 -0.08801146591935624 -0.1450180976798119 -0.3618348995330061 
-0.3734565434802591 0.3084648739460194 0.2984906788526336 -0.3275647030134282 -1.063697441592596 0.2084714796714886 0.1472157561905288 -0.5243542343937415 -0.1607942000036939 0.05239667119428016 
-0.1535480629966224 0.2874430194933413 -0.01211370602585271 -0.2905918885924642 -0.2167840287431017 -1.283565076368458 -0.6055496501447596 -0.03331809957322138 -0.4635576547716717 -0.1615456788047927 
0.7308642731452248 -0.2566146780941653 0.4507562082218966 -0.4190092348973740 0.6543023686091057 -0.8753118135173672 0.5845875988583602 0.1606186209951504 0.6867391813901657 -0.04747937043696156 
-0.5817332218059162 0.5502869122906282 -0.3448708117058170 -0.02037118293736599 -0.8404232201141569 0.3446364292878819 -0.7240359285661381 -0.1241859008732661 0.1829339410501778 -0.05863772088058123 
-0.1949805272957559 -0.06972764185674166 -0.1482956221911433 -0.1002428636832006 0.2970890087382342 1.006671219277058 0.1382198065911001 0.3765266317514863 0.6948846310023371 0.08306855514812078 
-0.06855811188017624 0.05377198351342085 0.2816710807130485 -0.1362094134407986 -0.1995616939142783 -0.02603312108596175 0.1924555018969923 -0.0003630806143046836 -0.1739068701710101 -0.009963349811412697 
0.9303257167502148 -1.531987043712096 0.2275910242133079 -0.4596386781336720 -0.4942304953426775 0.1278420734669559 0.6876634384482715 0.003576797902928361 -0.06921402057130484 0.1927672011920212 
-0.3664537124850960 -0.6603779069609039 -0.2378397184664650 -0.3806073587787951 0.8600193158187475 0.1819874223899619 -0.3743214690958602 -0.5804580749895571 -0.3850905308828196 -0.2675171064674582 
0.06428704612196283 0.4195026152118037 -0.3475485606429388 0.1879785250919759 -0.07567990962396465 0.8584851370782998 -0.3849252541298711 0.2868782682786364 -0.04411568472938270 -0.1246029124350032 
-0.9704694971854607 0.3111984329566849 -0.2634999717751349 -0.03701703420425857 -0.3536613582962862 -0.2828250460007807 -0.3469194046567568 -0.6401305457963127 -0.09647062270153680 -0.2149682582660416 
0.1838795418413376 -0.1790096781552435 0.4638143797868646 0.5931803275747358 -0.08786242047876826 0.4191781976512951 0.03035573041414561 0.5116034665425467 0.04200178954062434 0.5418540080805766 
-1.619339674259919 0.9628028156023322 -0.2419626061315750 -0.4181299214503514 -0.6403927857523019 -0.6498628484868137 -0.3854957214518039 -0.9268653720304150 -0.3809628595542569 -0.7962748553267840 
-0.3192428516445163 0.01158111458687141 -0.05163876364008374 -0.1521873333190412 -0.05410893041871121 0.2701308984199640 -0.2765396771163270 0.1796991875161840 0.05388851208955769 0.3126816504415151 
-0.8879920003722677 -0.3966386410586803 -0.3784087102168785 0.3604437383154087 0.9360091113387714 -0.2294445305911342 0.4319742597716775 0.06814884498788425 0.3682617702457429 0.1689078727512162 
0.1620080995433615 -0.1521223640273725 0.01917340704845970 -0.4249437030325417 0.8161195531426777 -0.4025023703967047 -0.3285431809811787 0.01524222225042419 0.3257936737809188 -0.04382777013654115 
-0.09596585533220571 0.07764636741832567 -0.1044922638839979 0.5997764562032385 0.8217548909398111 -0.06207545820736573 0.4255038193964271 0.2326442869540849 0.5794805281223170 -0.2583201447203302 
0.4515338786071077 -1.044191328184992 0.3068925694425659 0.6917889413669470 1.058764717293930 1.184762906931464 1.357737188981173 0.8417195154185385 1.274031838439861 0.3122846838140392 
-1.202095575358075 0.2327906997469825 0.1460050182352669 0.2870894487067585 -0.8715754481989881 -0.3160197011414727 0.1904998106307954 -0.1880143493520228 -0.1320796627926592 -0.1394523881048772 
-0.3950815174611357 0.4454198101677548 -0.3020966138000744 -0.2728946512224224 0.03083910701710020 -0.8030802375555954 -0.05054717493229169 -0.2445622612518483 -0.001443759725752888 -0.2670570987225461 
0.1253799404966368 -0.1789347420089234 0.7772081394804821 -0.4217045689265697 0.7504301957799531 -0.2573788813738318 -0.2730507636394906 -0.009653370313504248 0.2082096166169646 -0.2096250887412276 
0.8492171786324301 -0.6182993358471272 -1.166259384930166 -0.7323053207326321 0.3024516313158338 0.1019063046531372 0.2191688846718872 0.03793219077521104 0.5567373618011560 -0.1181409783501191 
-0.1293889291345707 0.4711823691194679 0.03022516537852795 0.03716674377229818 -0.4815013863894236 -0.4188890955205915 -0.6264568121479529 -0.3162002029424517 -0.9940108603976670 -0.4855810419554841 
-0.03446941270665539 -0.2715264371610072 0.9122585322405558 0.7882112978637189 0.06401836226668360 0.7499503458650267 0.2598771247707720 0.6834773335887575 0.6059757432187586 0.3526176871542797 
-0.7427693896565230 -1.098653567807308 1.488912463580360 0.1048001223407211 -0.2210521821511980 -0.08365567978183160 0.6957773326898965 -0.1184790056419083 -0.07855190208298224 0.2178352216820066 
0.1643205061611862 0.9024269468103066 -0.2153648070638253 -0.6927095880107375 -1.106391472941737 -0.2246923560734651 -0.8460227668712939 0.01350646109193319 -0.1838810356347913 -0.6171887157931841 
-0.6132080689279804 -0.06048516075922009 0.7447390024481879 -0.2856373527371510 0.4645730429430118 -0.8168570063998204 0.3628545538601964 -0.1251900643713789 -0.5153125138041403 0.3263120461322791 
-0.3111632539854875 0.1914089004638006 0.05628832583115912 -0.3448921242018385 -0.2391183733622751 -0.3952274539148928 0.04360067944032833 -0.1148723446171360 -0.2961958173130266 -0.3020032753048691 
-0.09663097985914686 -0.6588711035245850 0.8629528225243887 -0.5900342694901789 -0.1847297668945952 -0.3822987220759317 0.1021318656526455 -0.4211833333741548 -0.6263215298830761 -0.1829386151197082 
0.8684580795290415 0.7094347424719558 -0.02603195450896472 -0.1702486344554080 0.2298636796015837 0.1606015348095464 -0.1206501679579856 -0.1899196713894649 -0.1409432543564449 -0.08312319471236296 
-0.3901742288130146 0.1479179680568546 -0.5047073178903428 0.2371460049485470 0.1953529025196814 -0.4321575406192872 -0.2357745032710049 -0.5731999874071529 -0.03007257878706751 -0.2644623064734774 
-0.1468262894120087 0.2204729752297225 -0.8461073793147578 0.1755527362785126 0.2295150215880234 0.1708835528671213 0.5565709927414513 0.01602158767361121 0.2517461214694264 0.1193144920146187 
-1.015751212930305 0.6363413923268252 -0.1398109280062845 0.3486641383779516 0.3017506450970973 0.8797959846047902 0.4583670492115725 0.3473997725989760 0.009667918688299222 0.2975756118733936 
0.1014855352833424 -0.5231527206421516 -0.08702108280807422 0.6623712859152271 0.4924918517736934 0.4090159732526362 0.3938047308386787 0.2527013523775143 0.3436605648839261 0.3902479928093939 
0.07701297659922428 0.03153040203689731 0.2167437895105275 0.06389642115199158 0.3596456816781050 -0.08215830230120741 -0.05172602064043255 -0.04569794332083461 0.3149107670401397 -0.2179293339279289 
0.5531921976947941 0.1517998727509814 0.5963817832688450 -0.5818484407681312 -0.1077524630269846 0.003037902443032388 -0.5317021939048518 -0.03759535630635738 -0.1121712183256722 -0.3080703060533499 
-0.1857293456894417 0.4750190962327474 -0.5292292081758424 -0.5100899825713435 0.1542256026512868 -0.2966152634802379 -0.3880392666236516 0.01907241797244426 -0.1849853466051201 0.01177932502462236 
0.1141003927641071 -0.6639604052970235 -0.4923572723367296 -0.1795062647663766 0.5138630849903136 0.5518126005101139 0.2334534421486233 -0.6832372236854533 -0.1617337335050919 0.06760239079984162 
-0.3759212307749884 0.5400052159683144 -0.2392899977487128 -0.5965150017678380 -1.580810919526099 0.2136630644699300 -0.2878413664638811 -0.3303262804712689 -0.8638458481804774 -0.2884230411553271 
0.1203006382637861 0.1380344182368370 -0.8574375913563896 -0.7110182845044797 -1.148086611394128 -0.8647223385861642 -1.158440388257636 -0.9230667584956598 -1.408877270221222 -0.9290045723177522 
-0.02599542010023094 -0.3764916859310565 0.3939610510482941 -0.09231037927188496 0.01185463842091143 0.1012745656551238 -0.2170214423704484 0.1007168254237092 0.4609739522076489 0.1579234455404271 
0.5676049439362120 0.006063800581788787 -0.2546420563381229 0.8691941228998670 -0.5404266405857090 0.1116923094742977 0.6429010845785145 0.1849635940597929 0.7488899497386468 0.5214128886403762 
0.8740240553730990 0.1880344865816523 0.3790706619744587 0.4939082884366909 1.127222570317514 -0.4372832053934456 0.2099701266490368 0.5492122333277898 0.4312525166508177 0.1807507703383570 
-0.3848368523235801 0.3808830609318406 0.6345213399122671 0.1400934986081869 -0.09601142880833063 -0.4997501524352948 -0.1852921883821793 0.1109985766455846 -0.3447562272821027 0.1965512679652890 
-0.2861225924174569 -0.7595587332687818 0.4928237967005640 0.1901907731383213 0.05860965327467808 0.09459990577775058 -0.03794556555179985 -0.2854428824582332 -0.7080298493291382 -0.08211370500106085 
-0.3550773392165072 0.7720835424914865 -0.2422877010454493 -0.4639678767213842 -0.1854703580615856 -0.7336454641211597 0.1627041527088528 -0.3695710920294104 -0.6400498922915594 -0.3183285077349437 
0.2197531620912167 -0.3629034232313971 -0.4568408438645860 -0.1122918977199682 0.6823118513079178 0.04470372048349174 -0.2372161799835694 -0.004361847396342429 0.1328905911312269 -0.1076562840136009 
1.202976272857563 0.3250608233887826 -0.5589254129586436 0.1327125863269193 0.1827898029540384 -1.278143838124445 0.06247299609221634 0.5327756054276904 -0.01014900221588657 -0.02298962668391340 
0.1057995429445058 0.3420579484057720 -1.208855795230413 -0.4817952425657381 -0.08396252058491022 -0.3044223305797971 -1.282149653964248 -0.7608205722235049 -0.4275984384676047 -0.6550169728389201 
0.9188364344386363 -0.4079715780235452 0.3750774746686783 0.2851627170756566 0.3373971103993004 -0.01037565497440793 0.2321117900229563 0.6213458353625991 -0.08763852540200581 0.3157224180824776 
0.5406924404620016 0.3273312592716148 -0.6402182565630784 0.2270756756072492 0.3409499429739363 0.6679107725088340 0.9643615717435510 0.4666539640172594 0.4286244140909699 0.3301417723807802 
0.1691966486848952 -0.1733662779500609 0.5316887382554343 0.6802340630107814 -0.2003243632854440 -0.2727133361957245 0.5843086651588912 0.2563836957549569 0.8375770180171398 0.8914316224012835 
0.5722505064138295 0.06689001611892247 0.7367789230934324 0.02133420849939348 0.01671233288732552 0.3551132486637432 -0.2617491260718571 0.2134926348408132 0.3768441826573648 0.3251767383602924 
-0.1811548554762356 -0.6084312756953374 0.4327204857671173 -0.1757962894494597 0.07277718399996236 0.01551822287609405 0.02501218192886540 -0.09525241924842816 -0.1578564269525135 -0.05662834903179422 
0.3184630848736085 -0.4804355038966928 0.1424517808611969 0.4962521848454294 0.7176572590851893 -0.4908550185096008 0.4103967281359279 0.2573407162418973 0.03971350640694397 0.2961061075889497 
0.2120798446334656 -0.1714556516365051 -0.3196902066919175 0.5349797789065357 -0.4796068711563212 -0.07548245939363891 0.1006493942251997 -0.08163586390735494 -0.1221861646345266 0.1379060946556538 
-0.6060624604558463 0.4370408952564499 -0.1534295631532248 0.1737370807621451 0.08784193413313424 -0.4668016471054201 0.2580533440338557 -0.1027529783778633 0.03009190993547084 0.2588830205396866 
0.4394626987933900 -0.5565882667296828 -0.5188709804218634 -0.4536690224277375 -0.1687295306758579 0.1538714802686434 0.1848890636418295 -0.5538370734955190 -0.1620678806300074 -0.5755043043624968 
-1.293423494603013 0.8312579258811519 -0.9928855183140445 0.01362316149596444 0.4494764190172583 -0.5980011481972660 -0.5676640086398628 -0.3375078002171189 -0.4148051441808279 -0.4441499396054827 
-0.06019989440357364 0.4124638046214117 0.2625151291766354 -0.9912265303059455 -0.6194469694237800 -0.1291918445220525 -0.2082600762895723 0.1727615947466661 -0.3750825308492153 -0.2318952032345209 
0.01593163533113030 0.8017692288581397 0.7276677793335906 0.9804468526620047 0.2717891812247504 -0.6893060259531876 0.03356976337986486 0.4379385921880619 0.7919838785831318 0.1662204393460807 
-0.6045351465047354 0.8199911679699037 -0.7019940779580172 -0.3320019160322213 -0.1340139390004749 -1.066277787378293 -0.3995665374590512 -0.8806133048318790 -0.1816355849563774 -0.4304647612568018 
0.4209166946454205 -0.5392309901068902 -0.3347912539193054 -0.7310996985786364 0.1662191390170139 -0.6384121862029499 -0.5014628539862571 -0.4881947011809693 -0.1317156574662766 0.09131340845362626 
-1.085925430918179 0.6413922543682699 0.7564494105645422 -0.3616015861096191 -0.6443810104433539 -0.3075706008305660 -0.6405864341254338 0.2886542704094425 0.1252880257862872 -0.1999274303072340 
0.7315001156433596 -0.5334739489289633 0.7299194435890395 0.3540748199337349 0.7050723760146653 0.08749547233385346 0.4459429535214391 0.6821684169324754 0.4058612163641071 0.6897878242305685 
0.3299417487288960 -0.9521184098596136 -0.3115061608175590 0.5143571884727389 0.8519404356367479 1.039876663314576 0.7546194410413591 -0.1585406217481601 0.5912536438860686 -0.4879079093550183 
-0.1444156308276489 -0.4159428257041678 0.3554309861292282 0.3326417888697689 0.7179941338565220 1.352278168209666 1.267009722572730 0.8060932082829789 0.3891702108009203 1.014585189479449 
-0.1830618223238550 -0.3819808456402296 0.2328486845764005 -0.03873505708337525 -1.399263322791498 0.5855394614496814 -0.2870680033125908 -0.5421771881868924 -0.2044026812542986 -0.5504060967953001 
0.1593914358293986 -0.9993236567488025 0.5211845064189989 0.3348689355481685 0.4558047581120801 -0.08075708943350057 0.7469860490468030 0.3100397451257817 -0.2570050264102239 -0.09308362788110663 
0.5061996278532200 0.08936019796196512 0.7843588516141262 0.3325106422163930 -0.5153401396518797 -0.05995739212079054 0.5125151687226650 -0.02294200171299976 -0.3300206991294536 -0.1094159543530214 
-0.5917463431009297 1.017371465330483 -0.2975672223367075 -0.4222825971700572 -0.8645636334450783 -0.04915494144207904 -0.02271275527253736 0.06900420500048847 0.09609837905617338 0.7008908476689331 
0.05911879307607963 0.5676778702320660 -0.7337954193742580 0.1196446612487421 -0.2937597895099939 -0.6404125585520568 0.4209446075163387 0.5453192744105763 0.6902683627617834 0.1392645192757648 
0.9848063274050980 -1.035341533334193 0.5565169148212368 -0.3140272389185555 -0.01065055169495744 0.3726067987923331 -0.04190515275018959 -0.2762893818737907 -0.2511374601326298 -0.8385160496423324 
0.4207966653098465 0.4354769265006314 -0.1720406814701536 -0.5154073749794419 -1.148710890835103 0.2932518661619913 -0.5593105904579363 0.2204134438879893 0.4220373513315739 0.2782180872237826 
