solver_type L2R_L2LOSS_SVC_DUAL
nr_class 10
label 6 11 1 7 5 8 2 14 13 12
nr_feature 259
bias 1
w
-0.8402268263782009 -0.4320981272212796 -0.3169017296662832 -0.4817877215856507 -1.990774574372436 -0.3381051640277612 3.18309547992908 -0.06628586229752047 1.118191212631525 0.9662268309056006 
-0.7175235219102771 0.8750223794067676 2.636237469056294 -0.6191514491906778 -1.992076338537347 -0.2917373175796703 -0.320607872853582 0.9056732293462686 -0.3899116668894789 -0.2328641591433874 
2.253808917939563 -0.2833819146536967 -0.4240442235610961 1.932392121690842 -1.992933735946092 1.690978311788463 -0.4820799261267407 -0.2809301748588582 -0.2826310480030064 -0.6875013856870249 
0.3354101684606953 -0.2133201260563726 0.2128781671153299 -0.07145445964041973 0.04008502421172033 -0.9186430828051029 0.389666048637157 -0.3981341566916787 -0.408545896938838 -0.7761553100315959 
0 0 0 0 0 0 0.1155043242156257 0 -0.2211103173553251 0 
0 0 0 0 0 0 0 0 0 0 
0 0 0 0 0 0 0 0 0 0 
-0.6493103042062379 -0.1622346623950832 0.1534339585969526 0.6040300321644599 0.04405674798710968 -0.08574867511137672 -3.469446951953614e-018 -0.228702009353773 0 -0.164335450372276 
0 0 0 0 0 0 0 0 0 0 
0 0 0 0 0 0 0 0 0 0 
0 0 0 0 0 0 0 0 0 0 
0 0 0 0 0 0 0 0 0 0 
0 0 0 0 0 0 0 0 0 0 
0 0 0 0 0 0 0 0 0 0 
0 0 0 0 0 0 0 0 0 0 
0 0 0 0 0 0 0 0 0 0 
0 0 0 0 0 0 0 0 0 0 
0 0 0 0 0 0 0 0 0 0 
0 0 0 0 0 0 0 0 0 0 
-0.3345669547945696 0.02074598620938957 -0.1246821343559973 0.0142114127445734 0.04753050851555862 -0.001187914557021981 -0.1642010374265235 -0.284796953807566 -0.5661987212672383 0.3466107009057075 
-0.1340348275170805 0.07081742041753522 -0.2735219477991468 -0.2546190308170369 0.04757792385099188 0.0500263438021807 -0.1815371245859255 0.1637334295375034 0.1086189929563008 0.03338484283947708 
-0.08254890555372989 0.01620004687469596 -0.05766080876616288 -0.1822319906004505 0.04755273840077712 -0.06250395973239498 -0.1127441843060561 -0.3375376519528223 -0.09728041448589259 -0.05889068207848196 
-0.371669480091428 0 0 0.1076295292411376 0.03160306623994872 0 0 -2.168404344971009e-017 0 0 
0 0 0 0 0 0 0 0 0 0 
0 0 0 0 0 0 0 0 0 0 
0 0 0 0 0 0 0 0 0 0 
0 0 0 0 0 0 0 0 0 0 
0 0 0 0 0 0 0 0 0 0 
0 0 0 0 0 0 0 0 0 0 
0 0 0 0 0 0 0 0 0 0 
0 0 0 0 0 0 0 0 0 0 
0 0 0 0 0 0 0 0 0 0 
0 0 0 0 0 0 0 0 0 0 
0 0 0 0 0 0 0 0 0 0 
0 0 0 0 0 0 0 0 0 0 
0 0 0 0 0 0 0 0 0 0 
0 0 0 0 0 0 0 0 0 0 
0 0 0 0 0 0 0 0 0 0 
0 0 0 0 0 0 0 0 0 0 
0 0 0 0 0 0 0 0 0 0 
0 0 0 0 0 0 0 0 0 0 
0 0 0 0 0 0 0 0 0 0 
0 0 0 0 0 0 0 0 0 0 
0 0 0 0 0 0 0 0 0 0 
0 0 0 0 0 0 0 0 0 0 
0 0 0 0 0 0 0 0 0 0 
0 0 0 0 0 0 0 0 0 0 
0 0 0 0 0 0 0 0 0 0 
0 0 0 0 0 0 0 0 0 0 
0 0 0 0 0 0 0 0 0 0 
0 0 0 0 0 0 0 0 0 0 
0 0 0 0 0 0 0 0 0 0 
0 0 0 0 0 0 0 0 0 0 
0 0 0 0 0 0 0 0 0 0 
0 0 0 0 0 0 0 0 0 0 
0 0 0 0 0 0 0 0 0 0 
-0.01394862378781963 -0.2634101381154529 -0.2419256191973175 -0.4296156386873099 0.04774135621110767 0.1341024737872999 0.1012997563049509 0.3073606612064022 -0.07330102951255064 -0.273744039637072 
0.1103978108399595 -0.3651834338184375 -0.005577597424315596 -0.2505145328152006 0.04725379671684041 -0.1660729404062358 -0.1035260403408639 0.1305192001744001 -0.3084224165158724 0.1937161384479878 
0.09243625713011737 -0.4047657353658498 -0.1699533016092322 -0.4039659694135911 0.04718850997244 -0.0458109428088308 -0.0932129736522941 0.2446373390818001 -0.4753425215960652 0.05001601181718333 
-0.5244235100802345 -0.4267969328768394 0.1954884007629494 -0.1001763978527479 0.0464641174191681 0.301867749391592 -0.350457765444571 -0.348380509417795 0.685954602143327 -0.3570506950568423 
0.3594938256794654 0.1386281015379157 -0.1604729873162792 -0.4691662881983404 0.04849824575020176 -0.3002723893518651 -0.0566989712067708 -0.2444436057410522 0.006050324843065526 -0.07306695219713255 
0 0 0 0 0 0 0 0 0 0 
0 0 0 0 0 0 0 0 0 0 
0 0 0 0 0 0 0 0 0 0 
0.357602515266389 -0.3848725373492614 -0.1354513695417966 -0.3268480836164776 0.04302326296059287 -0.6409718057947296 0.341808860455639 0.07891570311117285 -0.2436283477391955 -0.2246944030874879 
0 0 0 0 0 -0.3743915134886868 0 -0.007586811129166916 0 0 
0 0 0 0 0 0 0 0 0 0 
0 0 0 0 0 0 0 0 0 0 
-6.938893903907228e-018 1.344410693882026e-017 1.734723475976807e-017 0 0.04780558757590531 0 -1.214306433183765e-017 -0.1551037085877238 0 2.602085213965211e-018 
0 0 0 0 0 0 0 0 0 0 
0 0 0 0 0 0 0 0 0 0 
0 0 0 0 0 0 0 0 0 0 
0 0 0 0 0 0 0 0 0 0 
0 0 0 0 0 0 0 0 0 0 
0 0 0 0 0 0 0 0 0 0 
0 0 0 0 0 0 0 0 0 0 
0 0 0 0 0 0 0 0 0 0 
0 0 0 0 0 0 0 0 0 0 
0 0 0 0 0 0 0 0 0 0 
0 0 0 0 0 0 0 0 0 0 
-0.04388416579122439 -0.1498956905599869 -0.02728265452306097 -0.05472406047635744 0.04129677615607552 -0.2117147214980689 0.0655952784914767 0.01085994497480889 -0.4790235829937759 0.1409284264724668 
-0.0465159817189741 0.03278038706990408 -0.2241192582628364 -0.4205621657523583 0.04451338852196749 0.2109501145072595 -0.279964456655466 0.04636419416325335 0.4038512428232716 -0.1814796681145832 
0.01258562846698201 -0.3674704830649256 -0.005866522537370862 -0.4058546863008726 0.04517241164428791 0.1214283486156165 0.07584638840759243 0.03618720715412475 -0.514577776161976 -0.2919639793670003 
0 -0.3970926153290009 0.155142503700991 0 0.03853923896472195 0 0.1528896973863625 -0.01372617502508175 -0.04460982697177493 -0.3403374620987331 
0 0 0 0 0 0 0 0 0 0 
0 0 0 0 0 0 0 0 0 0 
0 0 0 0 0 0 0 0 0 0 
0 0 0 0 0 0 0 0 0 0 
0 0 0 0 0 0 0 0 0 0 
0 0 0 0 0 0 0 0 0 0 
0 0 0 0 0 0 0 0 0 0 
-1.021783668152526 0 0 0 0.02866997358468749 0.7580371634017695 0 0 0 0 
0 0 0 0 0 0 0 0 0 0 
0 0 0 0 0 0 0 0 0 0 
0 0 0 0 0 0 0 0 0 0 
0 0 0 0 0 0 0 0 0 0 
0 0 0 0 0 0 0 0 0 0 
0 0 0 0 0 0 0 0 0 0 
0 0 0 0 0 0 0 0 0 0 
0 0 0 0 0 0 0 0 0 0 
0 0 0 0 0 0 0 0 0 0 
0 0 0 0 0 0 0 0 0 0 
0 0 0 0 0 0 0 0 0 0 
0 0 0 0 0 0 0 0 0 0 
0 0 0 0 0 0 0 0 0 0 
0 0 0 0 0 0 0 0 0 0 
0 0 0 0 0 0 0 0 0 0 
0 0 0 0 0 0 0 0 0 0 
0 0 0 0 0 0 0 0 0 0 
0 0 0 0 0 0 0 0 0 0 
0 0 0 0 0 0 0 0 0 0 
0 0 0 0 0 0 0 0 0 0 
0 0 0 0 0 0 0 0 0 0 
0 0 0 0 0 0 0 0 0 0 
0 0 0 0 0 0 0 0 0 0 
0 0 0 0 0 0 0 0 0 0 
0 0 0 0 0 0 0 0 0 0 
-0.2189346985989771 0.1720500514454694 -0.136127895875038 0.213330560273072 0.0416596688557367 -0.4557394284864649 -0.09051566316324869 -0.1692083364430117 0.1426336258335546 -0.1365130302665605 
-0.2902872652904835 -0.3643789311079915 0.1918863799197774 -0.006524380233266585 0.04108240391838544 0.1130102432534424 -0.3851151066476051 -0.2299644953557214 -0.1540536694958348 0.2243493392657677 
0.108264698375775 0.1172408434681672 -0.09419097532163272 -0.315655606535713 0.04283760268081896 -0.1459906434486236 -0.4092941737711368 -0.2060477207903826 0.2447199040900134 -0.01661836718327843 
0.049714251530731 0.1068321232919794 -0.1870538090074999 -0.03334339090582297 0.04012799615662652 -0.3571630475255549 0.09351192986291765 -0.3144267747720814 -0.2385703661263135 -0.008124694836892529 
-0.1195258580085519 -0.3545126214528512 -0.008930268544754106 -0.0856915203271386 0.04082372425605967 -0.1116980473277166 -0.02067072217180528 -0.0720072842647706 -0.4663186009870578 -0.2450615961467436 
0 0 0 0 0 0 0 0 0 0 
0 0 0 0 0 0 0 0 0 0 
0 0 0 0 0 0 0 0 0 0 
0.1837364998804565 -0.1124073892713021 0.1878245382392234 -0.1320033926417746 0.0009056890289537613 -0.07203209621680889 -0.004755444625760813 -0.4193418194782274 -0.05710375663117646 0.00856692293191139 
-0.2105578208349011 -0.1626129241310302 -0.1252719893680561 -0.2482534190777654 0.08563097042324257 0.1906852820067745 -0.03911683151452162 -0.3116875293062966 -0.2050281117280177 -0.4118496924727154 
-0.2243625434236845 -0.2838391020015434 -0.08986693595475764 -0.2525428187521059 0.08498397234489492 0.2257086003441863 -0.1119248318460322 -0.217436206415137 -0.393142676417432 -0.2308358172271825 
0.032914897140844 -0.2488751977592921 -0.1923123355064917 -0.1627802311327105 0.08597678534834148 -0.1501139846296072 -0.1888721323339191 -0.08600559474002542 -0.2102270575530119 0.07598144564447297 
-0.4284379846868849 -0.2362446736786688 -0.1904316432344741 0.3785980048780523 0.08593313877265546 -0.2324049189297149 -0.1311684776674487 -0.03439660317656239 -0.2275571676255304 -0.1841042960541705 
0.5854900070867406 -0.2110449809480386 0.175824092172605 -1.094364557578934 0 -0.2585346086985561 0.01517430555664742 -0.1838652130782889 -0.3136223844050997 0 
-1.487841538627937 -0.1268329932748969 -0.0499350581020426 1.211048833386056 0 -0.2443203833635415 -6.938893903907228e-018 -0.0818285199819366 1.387778780781446e-017 -0.09256176485331093 
0 -0.04160177209782954 0 -6.938893903907228e-018 0.08902324943942487 0 0 0 -3.469446951953614e-018 -0.01417433919762762 
0 0 0 0 0 0 0 0 0 0 
-0.1310233673042862 -0.09531482327926472 -1.734723475976807e-018 0.2014338106243345 0.06400391894730183 -0.3123810069684687 -3.469446951953614e-018 -0.08052459026633381 0 0 
0 0 0 0 0 0 0 0 0 0 
0 0 0 0 0 0 0 0 0 0 
0 0 0 0 0 0 0 0 0 0 
-0.1180389775609436 -0.1985245672585216 0.03608135690422615 -0.1025908808665939 0.07260222594492342 -0.1688936304009898 -0.02854261084232907 -0.2305119523074601 -0.4290472631233118 -0.229164776805678 
-0.2707889989401946 -0.1106522642745573 0.008182211123354016 -0.01684076273102324 0.0726666704886272 -0.01471370682678773 -0.560374280139474 -0.2775206773152937 0.04450983641768953 0.3140810721679729 
-0.2717867571319931 -0.04774622575513218 0.01773082838151589 -0.04767930249404143 0.07193313290071676 -0.05088717099716347 0.2896908927064361 -0.3787962670329339 -0.5854235623770905 -0.3585915729027527 
-0.5671195990111069 0.05928922187752123 0.0449095677122289 -0.2282137495513321 0.07205258060261108 0.4713113205573506 -0.2507999429341204 -0.4088682357031662 -0.1143191824972733 -0.05302663097483222 
0.2835598410935981 -0.4082598315424764 -0.1532300307082076 -0.7426017082033344 0.06797665389432891 -0.02692521239042335 -0.08377376897574436 0.09850482904043967 0 -6.938893903907228e-018 
-0.4948208729520086 -3.469446951953614e-018 -0.6927186891080946 0.5330540396669227 0.04946361303442855 -0.3743915134886868 0.1778917423799614 0.4694084342675801 -0.1540536694958348 -0.5162539391942298 
0 0 3.469446951953614e-018 0 0.04409183858100654 0 -2.602085213965211e-018 -0.1551037085877237 -0.05513150330140459 -0.08196727049181038 
0 0 0 0 0 0 0 0 0 0 
0.6663272457292501 -3.469446951953614e-018 0.1041220885554928 -0.5364896028371782 0.04476531982921932 -0.3799142607917881 0 -0.1128566793260154 0 0 
0 0 0 0 0 0 0 0 0 0 
0 0 0 0 0 0 0 0 0 0 
0 0 0 0 0 0 0 0 0 0 
-0.1511847443200365 0.01704538266016505 -0.0675251267924591 0.05905666348347817 0.001934056521922477 0.1195362383413057 -0.003991668434791144 0.1361173180160147 -0.08614660509681012 0.03731459683807898 
-0.3020652450782507 0.1981552455868377 -0.1063162694525004 0.3174355804218166 0.004263154827274397 -0.04757959911841898 -0.09039609801745877 -0.04083193689583254 0.2287071850195764 -0.04955627397864415 
-0.5428551366161163 -0.205578168087696 0.08965427117316528 0.05963829789174496 0.08216216946514848 0.008443503922650628 0.1881778143582022 -0.3685371980716136 -0.7362546355685729 -0.4502292537464285 
0.6138553485432038 -0.4534625197712361 0.1363404342328165 -0.8441881039606528 0 -0.3972376108022552 0.01785509952754341 -0.140637912637676 -0.03801219170912534 -0.2423601606723577 
-0.4874377046838462 0.5794531128356925 -0.6479781312845816 0.02241827505355098 0.08297836502323247 0.02289229282355141 -0.3548685377488948 -0.1247817566423076 0.2562295641266957 -0.01459862651879733 
-0.3034511863056549 -0.2155513765392049 0.01305520920270104 -0.2082667059374297 0.08294046459835537 0.01542846082655621 0.05764891097879581 -0.1435337908097042 -0.4081753693017302 -0.1454227692769762 
0.02632120668039443 -0.6203156672928242 -0.1507057074758167 -0.5997818649092717 0.08010960489949635 0.005962894059006636 -0.0155357569012677 0.2516114850101192 -0.5431140365733774 -0.3379320744931742 
-0.05539492411641321 -0.5851788175148862 -0.007169816114860249 0.08236894264698356 0.08425986723689591 -0.6489511546329426 -0.1245094967919747 -0.05038518793488562 0.08499431965187236 -0.2408685443830325 
-0.4638021474224303 -0.08868603721834384 0.0948098702733528 0.05193782534014306 0.08310156405273364 -0.1007817239883259 -0.2246760012276804 -0.419479895878511 0.03475495164515084 0.3518959937277241 
-0.3143114085051112 -0.3116776668867697 0.07390440718142582 -0.05435765221764749 0.08376196274337217 -0.1889043998715212 0.01623608391278229 -0.4048757801842307 -0.3057426206011891 -0.4813947138356318 
0.5894513003561929 -0.4038228648600875 0.1144614819975343 -0.7223993918513971 -4.336808689942018e-019 -0.3204533941983416 0 -2.602085213965211e-018 -0.05021557358464151 -0.06412909407410526 
-0.3594457221467 -0.1666218140403946 -0.3356033996604122 -0.01907623360811593 0.07880684097059998 -0.09333376279283664 -0.4613172452875877 0.2611749591511489 -0.1232106260708553 0.3056289588034438 
-0.2257392651379291 -0.1939793215205374 -0.01550364060102939 -0.0784001434668725 0.08337291581098004 -0.2430148135499585 -0.1486131947325443 -0.545174344570982 -0.1395617147171921 -0.07813179761542101 
-0.1055405114857358 -0.5395723159000501 0.2669014938627535 -0.2678946471133717 0.08347440424235519 -0.2055683190112906 0.221176734590967 -0.3939162169839218 -0.1528823854010886 -0.4727452287268936 
-0.4624752243232535 0.2992963167081518 -0.6051479611703987 -0.3207067696657726 0.08358840551494913 0.2241717267566158 0.07891422251324244 0.2697094438763898 -0.2183004876304076 -0.6918219619524286 
-0.3347037126783249 -0.2729418070888067 0.02899374839690614 0.02696150404824515 0.08254750599360511 -0.2671403751244314 -0.1623045688021302 -0.1826623182529856 -0.3596639897237162 0.4030784020379943 
-0.2237207593648832 0.07364948951841346 -0.1548820856674638 -0.004856533503402394 0.01033008045026014 0.1092501585374809 -0.07502033908813124 -0.0550693508407424 0.05571552152505005 -0.09458948033486954 
-0.07942608883010602 -0.05853688768380724 -0.02164010258179926 0.003292390377991273 0.01117939104392362 -0.07141459629075898 -0.09640479399332434 -0.153741455050167 -0.6033958773883583 -0.06174775866719866 
-0.03835254286843487 -0.09580241395920289 -0.1126436258254555 -0.010852601296982 0.01098909975420558 -0.1480479248930813 -0.213199020583732 0.01906136684326198 0.3082082846115572 -0.4485667832802658 
-0.3322592297026914 -0.0520325075581454 -0.1086963799517826 0.0843091937151938 0.01096013696162121 0.1699177355091194 -0.08710862226307513 0.06153739848579368 -0.6215287943087774 0.04986547907179472 
-0.2337853191263495 0.1395308409499969 -0.006754624440149744 0.2004895674066917 0.01044817038732892 -0.1090539979023121 -0.3634714619690859 -0.204406213835244 0.2965626517086573 0.2618070196434719 
-0.2333013935262214 -0.2946028626252483 0.06473067518781184 0.3334598735356369 0.01186124646883236 -0.2979673338377976 -0.09876726671558189 -0.1124612789359443 -0.3740556929789859 0.09471631746360616 
-0.4150244128182439 -0.2797756439232647 -0.03340557500761313 0.05910260332572642 0.009310863193175926 0.2851274624575095 -0.0004792285188973885 0.1341591992170415 0.01098221821396994 -0.06208759060030682 
-0.06311558647143255 0.2989256481695231 -0.386706863467808 -0.2508762459852836 0.008151021936647041 0.2227929588753991 -0.09747777731718003 0.2308208983029019 -0.3885821926638033 -0.07122135566695359 
0.1112119584843661 0.09112634358000717 -0.09181370218023092 -0.3332183348198326 0.008735759706411373 0.1433492004874875 -0.2033287949684627 -0.1897310550339703 0.3971453516374574 -0.3002799737460258 
0.4785396035761368 -0.0627541005942286 -0.04413367269536715 -0.5347311992330197 0.008328432416470619 -0.149783360484766 0.314122867472047 -0.07970766772235216 -0.7262968641482384 -0.3940116976021262 
-0.1051767355181035 0.2897632431479572 -0.3122050308358691 -0.2218617015830285 0.006655898897468091 0.315870838721231 -0.1662376964105314 0.2144809051494023 0.3429159559967144 -0.01974449880106428 
0.002407674943010793 -0.1501636130074628 -0.1704503677301649 -0.06129259407646052 0.0077421172073879 -0.4555998481640572 0.3481539413691156 0.2258136701275636 -0.7553636911232261 -0.3826571577126732 
-0.3041361845785803 0.3352260967209221 -0.2760370407590199 0.2084714769258642 0.006677083482369352 -0.04220362601039762 -0.2487311808243488 0.09654588215985643 0.4112489860695865 0.06834767493674326 
0.1343495171293221 -0.2183322838339895 -0.09415827804217933 -0.3922612523569072 0.008087769904784129 0.233115290013043 -0.4024093271259128 -0.07703699235344116 -0.6306449434975798 0.3910145013327304 
-0.07385332391765301 0.1433638322226205 -0.1778795126049855 -0.07853926456656789 0.02025187469657713 -0.02921220796266118 -0.2055394062699125 -0.1278724223436627 0.054772677663952 -0.1319001089172966 
-0.7088177834790316 -0.8543573909020311 -0.05539642723286802 0.06845065966442285 0.01948369522554376 0.5423080948831889 -0.07193586334226999 0.2141946189767945 -0.7345317367173614 -0.1485345466469359 
-0.6852929080589949 1.387778780781446e-017 3.469446951953614e-017 0.8331027458236812 0.01585545672747981 -0.6065768191327675 -0.5368651149262099 -0.2344494114316463 0 0.3113465038193287 
-0.08790573078125553 0.1434235733981536 -0.1400157784485991 -0.158069647360683 0.01948796160974863 0.03129243579239575 -0.1201103485934339 -0.1627931193174869 -0.2477526295634781 -0.2915146449588696 
-0.04959754145324241 0.064642475612117 -0.3152285400626969 -0.4043226037841614 0.01287810902898778 0.2058049593770039 -0.06833027418176085 0.1580133764852699 -0.2154322005648448 -0.3689093208981762 
0.3661426446586074 0.4362908142701367 -0.4279384609771399 -0.6795446943963881 0.01470616161946379 -0.00120745972985351 -0.297038671121203 0.2561721049425741 -0.1298331379062626 -0.02894039851665885 
-0.2726134603672695 0.1885040224116361 -0.4957741809750124 0.01602847445019822 0.01150903077611249 3.469446951953614e-018 0.2717067904001646 0 -0.5430732692762849 -0.3018868153918893 
0.2101486047266255 -0.1056459781111634 -0.136563773695786 -0.5179310273983192 0.01528478212697455 0.06294395379078666 -0.362245812902466 0.007000159202116258 -0.4612387899816983 -0.008815972452644578 
0.1949423262653648 0.1299092100023424 -0.06242138085850951 0.558463930603888 0.01766096889787476 -0.8301948633106417 -0.2385139636153886 -0.1820631817258978 0.453679776216943 -0.1791522453317656 
-0.1129029129466153 0.05814417040999949 -0.03214075792126368 0.2549117038603298 0.007856191789304887 -0.3301892057731971 0.03639830908216185 -0.2098040879932906 -0.2557743875071401 -0.09351225446620554 
0.2312767713664204 -0.01066646735366017 -0.2005324739119172 -0.1323818097696537 0.001761756584700008 -0.09237043586168764 0.2063747243060836 0.3652149383922092 -0.01994678143197295 -0.6785814485561479 
0.3668191836843844 -0.05797236374019675 0.05703076228958831 -0.0731318108322305 0.000151931218384758 -0.4216237241174658 -0.1373137606242691 0.01699027051156968 0.5832698010411447 0.1126512046893418 
-0.07241621431768595 0.09893971627375417 -0.156963443050049 -0.03527940068669708 -0.001624116435678172 0.2708605332532876 -0.01108940122285859 0.2844877749347932 0.04768825920054793 -0.02979649966862522 
0.7668730914253165 -0.2159905825033119 0.2078174379677284 -0.5999931840689299 0.002984289108611764 -0.4491816137091502 -0.3290852547826614 -0.2157044408460297 0 0.4332683610906677 
0.4101210590787055 -0.09187565868008547 -0.7643826554377668 -0.4410962441820612 -0.00274776232378628 -0.01853778650656691 -0.1060354165555328 0.6459622086850625 -0.05611205335186626 0.04017797435431021 
0.03548215692013135 0.2102910991155989 -0.1600556278163281 -0.2333395945140359 4.065758146820642e-019 0.2286008552016714 -0.3220100609342912 -0.004469536302758573 0.7038805595936284 -0.2378438845073795 
0.3579907130912423 0.07011061960478626 -0.1308572329976928 -0.5859647515428318 0.003968848524010158 0.7088400429586075 3.469446951953614e-017 0.1791365770481699 0 -0.04767030601961874 
-0.01696192701167393 -0.003254279691130384 -0.0850252543277405 0.148168649167359 0.002208323431609768 -0.177371933407575 -1.214306433183765e-017 0.1484050977237038 -0.05449824119912778 -0.09256176485331097 
-0.1162064097995125 0.2238230671506334 -0.1020899152136115 0.276799340029054 0.001881526599929475 -0.1528358510284243 -0.159070634938855 -0.03811357910344917 0.213661857380364 -0.2249173895445378 
-0.161026665342694 0.1254837720191221 -0.1161546461203186 -0.02062950622278126 0.002881131991245543 0.2174573292280667 -0.4902047025421168 0.06382357657192292 0.3201039542263519 0.3887077405652838 
0.9870378748884149 0 4.336808689942018e-018 -0.9193067389348055 -2.981555974335137e-019 -0.5452884107889298 -0.9841114526669492 0 1.077793534878182 0.7052192733612106 
0.02943817146143979 0.3599291075962915 -0.2234387081949986 0.1420867323063098 2.710505431213761e-020 -0.1271805257174859 0 0 0 0 
0.9818669814869911 3.469446951953614e-018 -1.734723475976807e-018 -0.05829913331141628 0.002215984381320516 -1.17482779796659 -0.4892640725181671 0 -0.3162890406488802 0.6813326572813352 
0.150237285003638 0.2409111702071524 -0.1319426430919305 0.0812491286011644 0.0009517009042336509 -0.2500386475551926 0.09707292914228896 -0.3490044762401183 -0.2663647688780179 -0.09975545878522713 
-0.4699394691508791 -0.4866085434641286 0.4277555870684495 -0.3034407975378287 0.000381392736143892 0.6337017160503623 -0.3881606116282714 -0.002079947586188442 0.1872823691358697 0.5335648195276784 
0 0 0 0 0 0 0 0 0 0 
0.3702956354605244 -0.1110791998971236 6.071532165918825e-018 -0.1300757293496196 0 -0.2337494918362043 0 0 0 0 
0.03548215692013135 0.2102910991155989 -0.1600556278163281 -0.2333395945140359 4.065758146820642e-019 0.2286008552016714 -0.3220100609342912 -0.004469536302758573 0.7038805595936284 -0.2378438845073795 
0 0 0 0 0 0 0 0 0 0 
-0.01696192701167393 -0.003254279691130384 -0.0850252543277405 0.148168649167359 0.002208323431609768 -0.177371933407575 -1.214306433183765e-017 0.1484050977237038 -0.05449824119912778 -0.09256176485331097 
-0.1162064097995125 0.2238230671506334 -0.1020899152136115 0.276799340029054 0.001881526599929475 -0.1528358510284243 -0.159070634938855 -0.03811357910344917 0.213661857380364 -0.2249173895445378 
-0.161026665342694 0.1254837720191221 -0.1161546461203186 -0.02062950622278126 0.002881131991245543 0.2174573292280667 -0.4902047025421168 0.06382357657192292 0.3201039542263519 0.3887077405652838 
0.9303351367541097 -0.2477544028847169 0.3159888632560375 -0.5322835453509522 -8.163632335791158e-005 -0.6071672953046984 0 1.040834085586084e-017 0 -0.02750949648709873 
0.02943817146143979 0.3599291075962915 -0.2234387081949986 0.1420867323063098 2.710505431213761e-020 -0.1271805257174859 0 0 0 0 
0 0 0 0 0 0 0 0 0 0 
-0.1805412655896812 0 0 0.4133413713757366 5.421010862427522e-020 -0.3668585274694683 0.02611626152948581 6.938893903907228e-018 0 -0.1782570818334322 
-0.3069803087848146 -0.4247622655095644 -1.02858328181814 0.5597896361683925 -5.421010862427522e-020 -0.3549351620926148 0 1.142644212116246 0 0 
0.002044627751162621 -0.1013588310903287 -0.05016094078896264 0.1292211119825367 0.0002804583490156416 -0.1341451522008327 0.191511181155091 0.1489526824028853 -0.113092649044977 -0.2857644877279161 
0.2370191705633109 -0.01739202818580664 0.07969650715239431 -0.1782579693082053 -0.0008918280821531136 -0.0710906494381558 0.220562127988062 -0.1526879329645439 -0.3392546464902536 -0.1816542082539092 
0 0 0 0 0 0 0 0 0 0 
0 0 0 0 0 0 0 0 0 0 
-0.6861128996464444 0 0 0.8362606885320325 -0.002336284679491114 -0.1482303484937793 0 0 0 0 
0 -0.08370089382344192 0.1000078612111233 0 0.002418754015245593 0 0.3804215802293363 0 0 -0.2092908657425757 
-0.6107938555861865 0 0 0.510728871893911 0.001527872276185231 1.734723475976807e-018 0 0 0 0 
0.09832597466220003 0.08257536029377419 -0.04175346403878383 -0.03217269061121053 0.0005941263062195226 -0.1201026695738889 0.1034276020928945 -0.02141046639212629 -0.6669842801643532 0.2306215305365227 
0.1391847980186642 -0.4418942106256489 -0.09423126887075801 0.0737650312411019 -0.000318969038902938 -0.3242941526618896 -0.3673955147172787 0.1869632255295116 -0.8341245475946362 0.6815559943289465 
0.4814642887615018 -0.0597981684780454 0.1294223149917645 -0.2560197854370067 0.001398863257247138 -0.3104914524689039 0.7311127275470528 -0.287825785382196 -0.2063561604743287 -0.6685861894688209 
0.1248916336754983 -0.2255099181197708 0.02146603991409128 -0.145389366726651 -4.965721056617577e-005 0.0131115237678922 -0.07874187009711813 0.08592803354450898 -0.06736194153635433 0.06233175181820265 
0.2989563798693267 -4.336808689942018e-019 1.040834085586084e-017 -0.5716839299202002 0.003509584280278171 0.1094541813625456 -0.8092896950093057 0 0 0.8772528749954033 
-0.2488143492653826 0.0550347053164478 0.1274409454273397 0.5195571913344821 -0.0005585296693453251 -0.869822981736875 0.1942854889114675 -0.2050590779520182 -0.104202424244142 -0.5105108473194212 
-1.734723475976807e-018 0.4500653754228944 -0.539909198798588 0 0.003079003717917815 0 0.02258443066747317 0.5423781333269618 -0.1806402907685332 -1.040834085586084e-017 
-0.4256147511013426 -0.3258989852749735 0.2828619966626215 0.350545877404138 -0.0005575634484727896 -0.02694427091555509 0.4576743360174654 -0.2180661407956413 -0.4775037726503948 -0.281750581803552 
0.07190827964961973 -0.01229029186290704 0.1036721376864573 0.4746067428576908 -0.0001187262915543491 -0.7073851953658304 0 2.775557561562891e-017 0 0 
0.2513285845073744 0 0.00890514091311383 0 -0.002056619509477907 -0.578958094440401 -1.734723475976807e-018 -0.05047428598986593 0 0 
0 0 0 0 0 0 0 0 0 0 
0.205945858049811 0.1814406519153028 -0.07573270486799001 -0.1404861495905397 9.609034288799486e-005 -0.04260725593013846 0.0242352880120708 -0.002928715988158099 0 0 
0 -0.03743649618704283 0.150753797823166 0 0.0007896544268104799 0 0 0 0 0 
-0.5984805447557939 3.035766082959412e-018 0.355206003657134 0.2965492090300471 0.0005428102147361058 0.4455973076523956 0.3230967655957282 -0.2233950731021184 -0.1222285031112729 -0.1792334353569972 
0 -0.2015864102757256 0.2760305508603058 0 -0.002268737077105657 0 0.4636435267406212 -0.0802025929808086 5.204170427930421e-018 -0.4394756045945246 
-0.3921544725759855 -0.1730773446732467 0.3360957115689763 0.7226097139860995 -0.0004462043934716455 -0.5250751786511076 -0.4427040933343374 -0.1748732804428881 -0.06716870945991704 0.4605421907999747 
-0.496835545146226 0 0 0.8641737466356614 -0.001920962164104971 -0.4262872599276996 0 0 0 0 
0.4661447274711238 -0.009391627295792347 0.3072562363238715 -0.821149563961311 -0.005138454679507943 0.1453112148079707 0 -0.02549661014762064 0 3.469446951953614e-018 
0.2998468714426574 -5.204170427930421e-018 0.1133417559963788 -0.143634333460253 -0.005143425991740811 -0.3056777097838153 0.5061176899717051 -0.1565586741091241 -0.05891956619280769 -0.4263475231724763 
0.3307509284463553 -0.08464276817342334 0.1756654949458691 -0.2282539711825233 0.001041919812640369 -0.1604625314486534 0 -0.03403371723541983 0 0 
-0.4910508602016105 -0.2649162918095224 0.2726858320686163 -0.1810965857919418 0.00118930917608554 0.5774136672852341 0.08434035349494418 -0.1452741907801186 -0.04045363552364067 -0.01417433919762762 
0.4613357743491294 -0.2195784387442857 0.1654340435604304 -0.3864401657488508 -0.002916261014279507 -0.07802112856755253 0.04270257555716332 -0.1247311338419356 0 -1.387778780781446e-017 
-0.1322996769752491 0 -6.071532165918825e-018 -0.02007157923779309 7.915430556379904e-005 0.06585719814150429 0.5617486278642691 0 -0.161967917425864 -0.4333233845551222 
0 5.204170427930421e-018 0.008435082927196793 0 -0.0004410588109580389 0 0 -6.938893903907228e-018 0 0 
0 0 0 0 0 0 0 0 0 0 
-0.1751620070895364 -0.4071815584287953 0.6239562541744486 -0.1425089835509063 -0.001421691712430395 0.2806118675474164 0.4498327298017303 -0.5052145773984487 -0.1007987650420801 -0.5049971812056363 
0.3752479144050094 -0.4208185568188961 0.3395714352911903 -0.3473486293402615 0.0007917688175061543 -0.08263763469307953 0.4113561338467785 -0.1896549420167455 -0.1698832053742021 -0.5980634061052046 
0.1070078220412001 -0.1115547899939772 0 -0.7029872708181082 0.002766003727524544 0.4538797218915835 0.1033655158483685 0 0 -0.2029326760439535 
0 0 0 0 0 0 0 0 0 0 
0 0 0 0 0 0 0 0 0 0 
0 0 0 0 0 0 0 0 0 0 
0 0 0 0 0 0 0 0 0 0 
0 0 0 0 0 0 0 0 0 0 
0 0 0 0 0 0 0 0 0 0 
0.4290543041009203 -0.123861976431433 0.05666140809387552 -0.3219845607472472 0.004414988243287462 -0.1750161468573284 -0.005655339557002535 -0.1898156639232098 -0.7770541019256831 0.2295716700696084 
-1.212764543920856 -1.589319473588508 -0.4719938699932091 -1.435873333874943 0.4955520352758595 -1.094243337791763 -0.4559079678052662 -0.9957442569645887 -1.349577397729084 -1.079515435363044 
