solver_type L2R_L2LOSS_SVC_DUAL
nr_class 2
label 1 0
nr_feature 268
bias 1.000000000000000
w
-0.2151329876238553 
-0.3822107960852021 
0 
-0.002744269046238636 
-0.2846406311660178 
0 
0 
0 
0 
0 
0 
0 
0 
0 
0 
0 
-0.3123387331984421 
-0.1699529574757032 
-0.1328320553773374 
-0.3610948972315850 
0 
0 
0 
0 
0 
0 
0 
-0.5006108997347387 
0 
0 
0 
0 
0 
0 
0 
0 
0 
0 
0 
0 
0 
0 
0 
0 
0 
0 
0 
0 
0 
0 
0 
0 
0 
-0.1136616206018511 
-0.1266899486998978 
-0.1394067220037585 
-0.1188301454828129 
-0.08003876507847590 
0 
0 
0 
-0.08050762730381754 
-0.09081328425804128 
0 
-0.4768067881565043 
-0.3954201642332978 
0 
0 
0 
0 
0 
0 
0 
0 
0 
0 
0 
-0.3342055991281590 
-0.1001047732878497 
-0.08713767430860335 
-0.01954990183011936 
0 
0 
0 
0 
0 
0 
0 
-0.5558856986493140 
0 
0 
0 
0 
0 
0 
0 
0 
0 
0 
0 
0 
0 
0 
0 
0 
0 
0 
0 
0 
0 
0 
0 
0 
0 
-0.1654414741766329 
-0.1645997166898406 
-0.1447317474752409 
-0.1798158715982805 
-0.1451651077102182 
0 
0 
0 
-0.02501766116743307 
0.2442697607959172 
0.1947359210896114 
0.1621369016692301 
0.2403337828706041 
0.3185744780661742 
0.3851078955235797 
0.1493621521541129 
-0.1274474410858385 
0.09387338170459016 
0 
-0.1917115559875907 
-0.2997293991741277 
-0.03936543350333417 
-0.05776413182795369 
-0.1095386561305896 
-0.08556341599618662 
-0.1433796870000899 
-0.009136550683340211 
0.3633263950789270 
-0.4893789935869828 
-0.4764176359118791 
0 
-0.7012114173139339 
-0.2179602660324959 
-0.4456660640193915 
-0.1809274316188515 
-0.3799664737616063 
-0.4560130237721292 
-0.3964092365919775 
-0.4485624304692349 
-0.4575534282208533 
-0.5206045173920596 
-0.2810763185980841 
-0.3257567465820596 
-0.4728099154792058 
-0.4624908479862264 
-0.3820624036703625 
-0.3719674590663319 
-0.5946861787794980 
-0.3304118772422575 
0.1723004051983570 
0.09095143309347611 
0.1540564065893386 
0.07109124107200764 
-0.02432583877302060 
0.08361741973311354 
0.07601051898706204 
0.1038220167293883 
0.07138754332427094 
0.008916189832296417 
0.1001659426441945 
0.03436670162088724 
0.1070917261372193 
0.09181050788267658 
0.1733633455967624 
0.1358729965737145 
0.2007580169186351 
0.1137072268112177 
0.08473659577127542 
0.1009425419841009 
0.2966436314889951 
0.03523785892655844 
0.08107958145513953 
0.07532960421101630 
0.1154195216639461 
-0.002153950511848829 
-0.07333561508183640 
0.3329529078658106 
0.8600931954983633 
0.1522609102045458 
0.1193725625499213 
0.2050822097071612 
0.7410270278997656 
0.06971116102124937 
0.4757670294374947 
0.5401251416613438 
0.3414675825423659 
0.5470976314497871 
0.1052144203927083 
0.4635536335550855 
0 
0.7349278099520169 
-0.4987885463194055 
0.4811531772697877 
0.9949282334913303 
0 
0.3222822777312451 
0.8815823934404131 
-0.2107804462091531 
-0.2938052593917755 
0.06444595922422823 
0.1670372045343293 
0 
0 
0.3893704524553224 
-0.3824677894334336 
-0.3862896953168795 
0.02684852769204029 
-0.004813902207711894 
0.1174720771294530 
0.1935946516499911 
0.07200394601322238 
0.1361448393941142 
-0.01042449774156152 
0.1495490174813306 
-0.002355832790298363 
0.2384696090320746 
-0.1279498911649998 
0.1699664378173817 
0.7833751408497096 
0.09564085113715752 
0.4516281788465316 
0.1183447561225226 
-0.07251873356609690 
0.1688765329627581 
0.1648242966830450 
0.2359710458435804 
-0.01239426337739837 
-0.05330884678492312 
0.05779394249092132 
0.4297660826826968 
0 
0.1898087425389600 
0.003058281074379378 
-0.1359922076839569 
0 
0 
0 
0 
0 
0 
0.06028834976212371 
-0.002015956840908184 
0.1730195568894227 
-0.1968842612761650 
0.003325723809972755 
-0.2083064532534338 
0.1024266768392400 
0.1416410386897621 
-0.01680610434290598 
0.04586385804287552 
0.3053884526201513 
-0.08285604780397425 
-0.1808289242777607 
0.2532653936623767 
0.05841753526652018 
