solver_type L2R_L2LOSS_SVC_DUAL
nr_class 10
label 6 11 1 7 5 8 2 14 13 12
nr_feature 266
bias 1.000000000000000
w
0.1822169473565358 -0.2327200350267738 -0.1289769049602982 -0.2312377191202892 -0.2338139704768951 -0.2882615418604653 0.02487051633088397 -0.4828131972432893 -0.4111837080731796 -0.3977972515655946 
-0.5119068163232150 0 -0.1800648115805185 0 0 0 0.5441903941963353 0 -0.1709109004697569 -0.007311892655073825 
0 0 0 0 0 0 0 0 0 0 
0 0 0 0 0 0 0 0 0 0 
-0.3970831027231911 -0.06433655285492097 0.1744659664125526 -0.08363365007679810 -0.3821140817385272 -0.2709105859418023 0.09422660560533794 -0.1038464396032002 0 -0.1319325093682314 
0 0 0 0 0 0 0 0 0 0 
0 0 0 0 0 0 0 0 0 0 
0 0 0 0 0 0 0 0 0 0 
0 0 0 0 0 0 0 0 0 0 
0 0 0 0 0 0 0 0 0 0 
0 0 0 0 0 0 0 0 0 0 
0 0 0 0 0 0 0 0 0 0 
0 0 0 0 0 0 0 0 0 0 
0 0 0 0 0 0 0 0 0 0 
0 0 0 0 0 0 0 0 0 0 
0 0 0 0 0 0 0 0 0 0 
-0.04897595165108899 -0.1124794788825571 -0.1055186042248582 -0.1263687625934789 -0.1211628906916513 -0.1347506265238818 -0.06426382222707354 -0.3436819852437075 -0.4960735165931053 0.004140120704144675 
-0.03170618857267240 -0.1317937567869182 -0.1710209254016264 -0.1600577632113813 -0.1239104548065815 -0.09048843228043224 -0.08186493267334174 0.07534688596233857 0.01788648118698906 -0.02896820101555664 
-0.003099501746129473 -0.1029332063717022 0.09240209042145496 -0.2118825552712627 -0.1641318555337452 -0.1057728819794050 -0.2821670489800436 -0.3419833252946123 0.008590733438240223 -0.1145987838094318 
-0.3335795980976797 -0.09198840590239657 0.3718988958899552 -0.01227801069218514 -0.1397461044777381 -0.1463162764122664 -0.5993707881536730 -0.001275830503735153 0 -0.1746407771289978 
0 0 0 0 0 0 0 0 0 0 
0 0 0 0 0 0 0 0 0 0 
0 0 0 0 0 0 0 0 0 0 
0 0 0 0 0 0 0 0 0 0 
0 0 0 0 0 0 0 0 0 0 
0 0 0 0 0 0 0 0 0 0 
0 0 0 0 0 0 0 0 0 0 
0 0 0 0 0 0 0 0 0 0 
0 0 0 0 0 0 0 0 0 0 
0 0 0 0 0 0 0 0 0 0 
0 0 0 0 0 0 0 0 0 0 
0 0 0 0 0 0 0 0 0 0 
0 0 0 0 0 0 0 0 0 0 
0 0 0 0 0 0 0 0 0 0 
0 0 0 0 0 0 0 0 0 0 
0 0 0 0 0 0 0 0 0 0 
0 0 0 0 0 0 0 0 0 0 
0 0 0 0 0 0 0 0 0 0 
0 0 0 0 0 0 0 0 0 0 
0 0 0 0 0 0 0 0 0 0 
0 0 0 0 0 0 0 0 0 0 
0 0 0 0 0 0 0 0 0 0 
0 0 0 0 0 0 0 0 0 0 
0 0 0 0 0 0 0 0 0 0 
0 0 0 0 0 0 0 0 0 0 
0 0 0 0 0 0 0 0 0 0 
0 0 0 0 0 0 0 0 0 0 
0 0 0 0 0 0 0 0 0 0 
0 0 0 0 0 0 0 0 0 0 
0 0 0 0 0 0 0 0 0 0 
0 0 0 0 0 0 0 0 0 0 
0 0 0 0 0 0 0 0 0 0 
0 0 0 0 0 0 0 0 0 0 
-0.09870778099533922 -0.1883911111907397 -0.02184375526234872 -0.3040431681937970 -0.2235072934337961 -0.1302487786290340 0.1258497933522333 0.1201876575823750 -0.2132461114567041 -0.2059225735904625 
-0.01201016314725624 -0.2666104484628587 0.1084777456490400 -0.2729040939449590 -0.2425836578151948 -0.2288122846421597 -0.04408981990176796 0.06445159746435926 -0.1984849428607090 0.03278285394796632 
0.08491218169698055 -0.3312331315366481 -0.002786131338400509 -0.2440972643031251 -0.1732477970580081 -0.1595274873175501 -0.1401406929994482 0.1164084124715436 -0.6492436596092499 -0.06413817289397639 
-0.08432965818929547 -0.5277970130597859 -0.1119629286388024 -0.1366021296519903 -0.3068165780946403 -0.06547757787349577 0.05789962180378695 -0.3152579960658525 0.5445357597336933 -0.1676487225511420 
-0.03377218355257276 -0.05112761491932846 0.1211453163873308 -0.4065863869417302 -0.1322198710818767 -0.2690392716159146 -0.03690603115933711 -0.3211260587052392 -0.05109957110923945 -0.09333903697300773 
0 0 0 0 0 0 0 0 0 0 
0 0 0 0 0 0 0 0 0 0 
0 0 0 0 0 0 0 0 0 0 
0.07071232865919085 -0.3534642692178434 0.02832386699553469 -0.2755380332411467 -0.3445002358872839 -0.3343143115876160 0.03253036744282530 0.09231840933829347 -0.2385203594088984 -0.1751266711473480 
0 -0.1863590973454414 -0.03082032646850957 0.5939428896106845 -0.6095571795717493 -0.1576407349530397 0 -0.3349874067255014 0 0 
0 0 0 0 0 0 0 0 0 0 
0 0 0 0 0 0 0 0 0 0 
-0.3171276615297682 -0.1395054289599698 0.3821959161136834 -0.3159665572305141 0.2123952170037305 -0.3427074066175601 -0.3089612902182505 -0.1664207036529864 -1.734723475976807e-18 -0.1503809549263656 
0 0 0 0 0 0 0 0 0 0 
0 0 0 0 0 0 0 0 0 0 
0 0 0 0 0 0 0 0 0 0 
0 0 0 0 0 0 0 0 0 0 
0 0 0 0 0 0 0 0 0 0 
0 0 0 0 0 0 0 0 0 0 
0 0 0 0 0 0 0 0 0 0 
0 0 0 0 0 0 0 0 0 0 
0 0 0 0 0 0 0 0 0 0 
0 0 0 0 0 0 0 0 0 0 
0 0 0 0 0 0 0 0 0 0 
0.03319609108617279 -0.09009672193723336 -0.09863710295998625 -0.1182340616315923 -0.3546408373017269 -0.1225785047012765 0.03115870287004948 0.1114433132903568 -0.4524686869170114 -0.08728364072888620 
-0.08976932223079692 -0.1201948589056360 -0.05505103111319203 -0.2845758926533799 0.05527007423259890 -0.06995029321693909 -0.07337959627536512 0.01909283539320304 0.2853985144827731 -0.09060388533872452 
-0.07145276689025498 -0.3598555405026412 -0.2646277478011123 -0.2537583275600213 0.07085870271065373 -0.1034374240286724 0.1612450640007766 -0.01779765335131726 -0.3225604713755075 -0.1600201963903862 
-0.2691380438797381 -0.4634401505144917 0.5325079632450173 -0.5828544678218188 -0.09087597180922942 -0.4597158297924699 0.02517597133009891 -0.04774591635423570 -1.301042606982605e-17 -0.2250648292169037 
0 0 0 0 0 0 0 0 0 0 
0 0 0 0 0 0 0 0 0 0 
0 0 0 0 0 0 0 0 0 0 
0 0 0 0 0 0 0 0 0 0 
0 0 0 0 0 0 0 0 0 0 
0 0 0 0 0 0 0 0 0 0 
0 0 0 0 0 0 0 0 0 0 
-0.5320128549917665 -0.1047858933514634 -0.5763008664007785 -0.1405192060702444 0.7717738597040860 0.3943030814589937 -0.1493573649865952 -0.07706390255345070 -0.09545820117629930 0 
0 0 0 0 0 0 0 0 0 0 
0 0 0 0 0 0 0 0 0 0 
0 0 0 0 0 0 0 0 0 0 
0 0 0 0 0 0 0 0 0 0 
0 0 0 0 0 0 0 0 0 0 
0 0 0 0 0 0 0 0 0 0 
0 0 0 0 0 0 0 0 0 0 
0 0 0 0 0 0 0 0 0 0 
0 0 0 0 0 0 0 0 0 0 
0 0 0 0 0 0 0 0 0 0 
0 0 0 0 0 0 0 0 0 0 
0 0 0 0 0 0 0 0 0 0 
0 0 0 0 0 0 0 0 0 0 
0 0 0 0 0 0 0 0 0 0 
0 0 0 0 0 0 0 0 0 0 
0 0 0 0 0 0 0 0 0 0 
0 0 0 0 0 0 0 0 0 0 
0 0 0 0 0 0 0 0 0 0 
0 0 0 0 0 0 0 0 0 0 
0 0 0 0 0 0 0 0 0 0 
0 0 0 0 0 0 0 0 0 0 
0 0 0 0 0 0 0 0 0 0 
0 0 0 0 0 0 0 0 0 0 
0 0 0 0 0 0 0 0 0 0 
0 0 0 0 0 0 0 0 0 0 
-0.1607620945452655 0.08416095576728125 0.3915350460500233 -0.1560910547771557 -0.3543088231248289 -0.2681502219703472 -0.3438953896756110 -0.05943584319749858 -0.1902006659791415 -0.1215379008569806 
-0.09932946215440953 -0.1821463413109812 0.04906730720344245 -0.1750507357597536 -0.4303200307605614 -0.04431502372740833 0.1262976612594406 -0.07281339812253380 -0.1600693515391749 0.05239781283853141 
0.1674060710856642 -0.03034653305411298 -0.1721026724131081 -0.09211417025992073 -0.2394475705620083 -0.03728769106805752 -0.2128075928199031 -0.1750307253077936 -0.07451441757703128 -0.1493408022127404 
0.06145107468143070 0.0008400146347565226 -0.04715375067186421 -0.1761030991862812 -0.4629758986419426 -0.1930538432886604 0.1076390363897069 -0.7474147555086311 -0.2771283860791046 -0.2278659722271084 
-0.08121517523539026 -0.1562168902968558 0.007279351574332188 -0.2128287874198391 -0.4669258612003960 -0.1507575415833381 0.2025882258767198 -0.05773453242692565 -0.09370741024362626 -0.01454790669245062 
0 0 0 0 0 0 0 0 0 0 
0 0 0 0 0 0 0 0 0 0 
0 0 0 0 0 0 0 0 0 0 
0.07062328075248529 -0.08129488752289654 0.01408387026055894 -0.08329369639490125 0.06807760643906105 -0.01821722595220257 -0.05091355934999709 -0.3716099694637025 0.07554579970744013 -0.02622222641584886 
-0.2211744566493939 -0.1662684055332750 0.07179672407812394 0.02308423524203908 -0.1783952159269021 0.02985560397653716 -0.03346837876345362 -0.3308042790393622 -0.1600061591075893 -0.2898167111625516 
-0.2403090818840203 -0.2024899367288575 0.03186226719661819 0.03085820284405582 -0.2690093563208031 0.02785942111346307 0.07111158538060658 -0.2391370216873503 -0.2107907473522959 -0.1797734985885432 
-0.1559633132737510 -0.1514869280203439 -0.01829465566734815 0.08137726509377856 -0.09182771332979077 -0.03609102426442443 -0.09698382427543220 -0.1453902453916925 -0.4119282017918933 -0.06341735298226024 
-0.3444957716602305 -0.1208920754962417 0.1578855436302102 0.1440525041791531 -0.1252585395262074 -0.1462609267638276 -0.04917638678730048 -0.1846756656925798 -0.2036945231177270 -0.1880264286738874 
0.3504162144692876 -0.1787560868391866 -0.05035440761519693 -0.4594600412327107 -0.8197639255948996 -0.1402991041776809 -0.2814136945577974 -0.3827786356099272 -0.4276935218975065 -0.08710837287070931 
-0.9136549015256612 -0.1756336652026146 0.05441646325813922 0.1759012256925238 -0.3392144267665097 -0.2046090714273470 0.4868292845076618 -0.05713078205795825 1.301042606982605e-17 -5.204170427930421e-18 
-0.6561473046453352 -0.2327382062236683 -0.4432171438044710 -0.3410773183739978 0.7225016818434598 -0.1804257948099439 0.3695872669738674 -0.1469263783129850 -0.2023348450620217 -0.1645987028514600 
0 0 0 0 0 0 0 0 0 0 
-0.1026818402815845 -0.07865813064876477 0.2701351940282676 0.3689486890133357 -0.2010419297602706 -0.2642258600637583 -0.5905673426307021 -0.04674727138717751 0 -0.2018440460496967 
0 0 0 0 0 0 0 0 0 0 
0 0 0 0 0 0 0 0 0 0 
0 0 0 0 0 0 0 0 0 0 
-0.02248858196151057 -0.1466228885419170 -0.006053072134975227 -0.03878968954427212 -0.07959466812046073 -0.07865151265106007 -0.07872688966139595 -0.1618513513881448 -0.4609668624850906 -0.1141645014642436 
-0.06876351601986165 -0.1279824756906487 0.04211140793880264 -0.07907794636445930 -0.06667677204866193 -0.04159941915287354 -0.1592680035284782 -0.1517031521162053 -0.06801556539847747 0.02186569402758679 
0.04990343990280056 -0.03891603839027297 -0.1247618022924406 -0.02839187997855696 0.07677437297559059 0.01097156212594063 -0.1967431214239709 -0.2591194118171301 -0.5569034296626211 -0.3590129414036076 
-0.05376823269507815 -0.05764795338648521 -0.3075567872348251 -0.09552575080415994 0.02508860132686520 0.1227171299934371 0.01707865818831553 -0.2761759665624066 -0.3229122189113817 -0.07424367304177076 
0.2055652462375721 -0.3137575171214160 -0.04023142981286051 -0.9277904105617117 0.3218414910953479 0.03252401492489967 -0.3474875124655946 -0.01096137437126102 -0.01720949951157341 1.301042606982605e-18 
0.01218131075734802 -0.2311265646717952 -0.2409440019898293 0.3438743889174218 0.001654167546049051 -0.2064810353444782 -0.4197994046334790 0.2798734238402216 1.387778780781446e-17 -0.2903722819223568 
-0.04441336089504296 -0.2614990683897550 -0.2382568030089981 -0.2550783674686837 -0.4914881204553241 -8.673617379884035e-18 0.2922356419203345 -0.04987212225714286 -3.469446951953614e-18 -0.004177447191236638 
0 0 0 0 0 0 0 0 0 0 
0.4696127780673994 -0.1436757542622496 0.1811777310968115 -0.5654581821646955 -0.3764314033762280 -0.02768974218611316 -0.7118198302431272 -0.07706390255345070 -0.09545820117629930 -0.02971971978865894 
0 0 0 0 0 0 0 0 0 0 
0 0 0 0 0 0 0 0 0 0 
0 0 0 0 0 0 0 0 0 0 
-0.04909072384943577 -0.05993949462435634 -0.01614915447522114 0.04311684970502026 0.04622680736617739 0.05900642071655326 -0.03865426712630559 0.06348772100531802 -0.07294249056604049 0.005241000290258407 
-0.1669293699407215 0.03036202543808730 -0.1729931851404890 0.2054649221277668 0.7714701206303303 0.1291901246170877 -0.4595224286444098 0.02651540139016099 -0.1912263431748844 -0.03263204640264061 
-0.3396291947494240 -0.3270555022371796 -0.1057861994542899 -0.2360745350755222 -0.3659179127952419 -0.1932141910529006 0.2188410679121475 -0.4136691761670226 -0.4348452114151826 -0.2731793808382954 
0.2173722824026428 -0.2900111616740100 0.2775912909421210 -0.5347266938800399 -0.5834320577461024 -0.3628538948496879 -0.5385248237830517 -0.4149845703677064 -0.3312225974962038 -0.2516044984451898 
-0.1795645523697701 0.07614656092127309 -0.2731807678762653 -0.1830426783018645 -0.1861844522375038 -0.1576478326305772 -0.1476521647390492 -0.1911502037811645 0.2240019759593049 -0.1548961214246486 
-0.2309195889406540 -0.2380144477309706 0.08519302665044509 -0.3013961696426870 -0.2332551580977042 -0.2544393487733811 -0.05655466156503645 -0.1809724969480750 -0.5626631692859360 -0.2040834575862746 
-0.2105535304025237 -0.5164444415306298 0.1624101185950599 -0.4403011504601145 -0.4068678123460725 -0.2398857358878605 -0.03883089863366611 0.1482116692788967 -0.7208124679802705 -0.1891291122912261 
-0.2004786715735587 -0.5835323294749775 -0.09813927327641635 -0.2512391559222454 -0.1009083802779088 -0.4291599337778848 0.06734676021941383 -0.2246753836421213 0.06508366264562018 -0.2205856731535685 
-0.3442685603116329 -0.2224994332681337 0.09812775777282419 -0.2429111207185033 -0.3666887817081348 -0.2524048081041079 0.09360851578314056 -0.2563501175518244 0.1412283717596500 -0.05589670316016140 
-0.2954790355169389 -0.3618048405418790 0.1209357510853155 -0.2748888738841573 -0.1381219635830529 -0.2769118175936360 -0.1173922568387153 -0.3470513768996340 -0.4207948585729318 -0.2822486546372073 
-0.01941010574149024 -0.3481732428119354 0.04055905623535255 -0.5825603189319938 -0.5834320577461030 -0.3354365283109997 0.1010538673888218 -0.09054793768737840 -0.2385203594088982 -0.2960734522934619 
-0.1732654881670314 -0.2987069399642571 -0.02559805575194607 -0.2171864383371472 -0.3354891930114847 -0.2004139774827923 -0.2190302096991259 0.02467310524155356 -0.09380339840126192 0.03156287101400258 
-0.1680611104929705 -0.2780110663470448 0.05698530893835244 -0.2004214677890198 -0.2591037909755860 -0.2883618167737291 -0.1614237901914047 -0.5622216915696537 -0.2903126706488478 -0.1266761906811080 
-0.05676181129657377 -0.5820402660814783 -0.1580388636624875 -0.2400015678735691 -0.3033912059296494 -0.2741219953709955 0.02135609277365167 -0.3854124246266599 -0.1956989402577991 -0.2683312318281738 
-0.2765840324160753 0.02265715198444815 -0.08148462566586805 -0.3638323705672292 -0.2461648719727938 -0.1541484702336673 -0.08455228810560042 -0.02350868865381496 -0.2066351148072992 -0.4204852349916505 
-0.2984802323138474 -0.2553315512324846 0.1928573821747604 -0.3108004666178788 -0.3775514719899951 -0.3602111393105819 0.05822237986626959 -0.1495212649834365 -0.1734640937159837 0.01287694651823611 
-0.09902731293013858 -0.008578796660779323 0.07133291176055281 -0.005833362470940879 -0.04172367077712456 0.03654683519307943 -0.03873185963298053 -0.02840568749177239 -0.003809668145299964 -0.03256708012379130 
-0.04797250654022751 -0.09682227133993511 0.05133215271925726 0.001555578339646637 0.006353148735867964 -0.02881879105472252 -0.07391599655226089 -0.09880647057024251 -0.6187509022349191 -0.003171310949124160 
0.03867401885770725 -0.1693376582443988 -0.1978894887903678 0.02881238559020417 0.007058354294750099 -0.01420158572870294 -0.01684986623777567 0.01309798518273659 0.1916000426963733 -0.2201323479427292 
-0.1183181119527079 -0.1051271454127963 0.05610538283744804 0.05089021913849325 -0.004213059124427756 0.02816703203000544 -0.04748290999530278 -0.02950183031972985 -0.4474799284071504 0.004658096210983638 
-0.05576004145603861 -0.02895307264189918 0.1114726531623220 0.04142135877598430 0.02676021620478008 -0.0005535302933638935 -0.2311735800629869 -0.1130239600456984 0.2310865616095579 0.1094608462296305 
-0.09069614606523094 -0.1618294746910079 0.08337237628586239 0.1048476089984741 -0.005509411929564060 -0.09165707199921024 -0.1220186883739143 -0.06203327981394483 -0.3077608276964139 0.08646053510894933 
-0.07069720655555280 -0.1441533650654503 0.06162124784008841 0.06356435899313834 -0.1282623723785021 0.1307533095480597 -0.1060878249687315 0.1461664585464809 -0.01180960925190315 -0.04069682345932844 
0.003476948857101595 0.03719768471515645 -0.4921013542704268 -0.03138954053659642 0.09413813433397768 0.05849537295045632 0.2809882893777232 0.06826066757306094 -0.3363641669319318 -0.01968194755316029 
-0.0005335050369824329 0.05295931967346688 -0.09697206904685221 -0.1238573761044629 0.04201399333968929 0.003583282470283528 0.07056144411325860 -0.1165167228855269 0.3292064114355927 -0.09496363399199693 
0.01809415708068269 0.0006425697252157303 0.1209711740672684 -0.2286822828117484 0.09241783439276854 -0.03831790938635301 -0.1190869709122087 -0.07115299998681152 -0.5373988445052591 -0.2493608272764990 
-0.06132188689880292 0.1545194149828416 -0.2784449657225669 -0.05334655460287854 -0.1832280851316543 0.1116949784172551 0.3846160518912686 0.06972733803728690 0.1818546094779387 0.03383208615117396 
-0.008509410449747210 -0.08428896035703658 0.02898576777587899 -0.07664646453539346 0.02314843817529010 -0.1578114283079553 0.03716101818764302 0.1086092162236520 -0.6734977687389045 -0.2426052944585337 
-0.06972546097524704 0.1012205520050343 -0.3521051270512320 0.05110030049085015 -0.05056599365102986 -0.05727138923901234 0.3404051303882833 0.1159598462578767 0.4343780798073075 0.1260577940363087 
0.03575212291144616 -0.1636229819951309 -0.3587995840719299 -0.09612642563363087 0.1031096880284603 0.05369943143282398 0.2168640177613536 -0.06998806770601566 -0.5237370228831760 0.04358138696665398 
-0.05554365908619510 -0.01117516139528376 -0.1541590642142088 -0.04482363889836615 0.01429367805616446 0.04039488742656835 0.09658256590538175 -0.09638372316977950 -0.09676168756429882 -0.004767245168795312 
-0.1375112877929212 -0.6793505936746013 0.2113858791283045 0.01010735501136126 -0.02678501549390018 0.1814258813005050 -0.2373085582735877 0.2661943884740375 -0.5511403538134962 -0.08493148082979136 
-0.2284902233913974 -0.007287085815167156 0.2480046047483602 0.3657339989080114 -0.09417204615414511 -0.2312575779224227 -0.5129955210016397 -0.2602346619475653 0 0.1103686115034748 
-0.02225213637166918 -0.01698894317121110 -0.06788418384728860 -0.04575956765600487 -0.03287341138233976 0.06967300689049400 0.01746078754589192 -0.08208278786885820 -0.3190222900519593 -0.1166579704302970 
0.01751020748402018 0.008754143357523694 -0.4343246434256700 -0.05073061612196630 0.003827310392203173 0.09029045242502660 0.2656919949828751 0.08112268039499575 -0.1364159511706087 -0.08675465078719306 
-0.009002050087624221 0.1152133314972397 -0.4697018223922955 -0.1548126978673983 0.05085745887983809 -3.535121518435610e-05 0.3459752785565980 0.05415927059937734 -0.2564285247302837 -0.07547051066421216 
-0.1916957178538195 0.06899605327089921 -0.3746766516662173 -0.2910093892119882 -0.1134811546031474 -0.1755391711682240 0.7846651036030625 -3.469446951953614e-18 -0.3340856939815635 -0.1452793273468368 
0.1004205259458735 -0.09433592937611718 -0.1497630408356785 -0.06239564053250831 0.1798303948186116 0.05935640829588260 -0.1848233963351995 -0.03038267348084863 -0.3986285324559781 -0.09563594732780764 
0.06525420866920750 0.02922687386401939 0.01421579483758136 0.1662534541364929 -0.05505862757196885 -0.1480869567882490 -0.09041647903997450 -0.1770799789999591 0.1476329187341352 -0.1048397443755490 
0.03516626350141176 0.02310030060445195 0.07995321920084390 0.1476227025879057 -0.1323234226558569 -0.05106318325162095 -0.1471626815768979 -0.1006005779843248 -0.02020695414409963 -0.09746352085794063 
0.1395861887376729 -0.04457437739225720 -0.1492406048810817 0.01176006781461225 0.2803179650093490 -0.01552063362608866 -0.1311037849351910 0.1083786610704622 -0.1428959242140889 -0.2015961268003549 
0.09933156439598980 0.02665957203460086 0.1638235510120763 -0.02623924758521385 -0.01601271412878823 -0.1398787892803443 -0.1134231670746472 0.03663244299775674 0.4961325287539860 0.04256933509794480 
-0.04106970763073765 0.03746002730829169 -0.08532452087006900 -0.02809659569473278 -0.03443496551841919 0.04913039079103668 0.1168004080980836 0.1088421282709207 -0.1192725756567108 0.007900207638990669 
0.4439025137689397 -0.1883374066129531 0.2157699920226484 -0.1137901036386597 0.1331420537153169 -0.07062918069623664 -0.8000881087462206 -0.01173620239647941 -0.1314527891132195 0.04075644134433722 
0.1569466264747872 -0.09139632674747541 -0.7168262084834014 -0.1126496757684459 -0.3684217419091906 0.03840197783001267 0.3672636259858781 0.3794257291085447 -0.02475306791573394 0.1467906229103038 
0.05015567026851084 0.1120090989454342 -0.3044395840608766 -0.1660956870354617 -0.05186760677681217 0.1518390626680309 -0.1357410172881315 -0.1851585590202564 0.9032476548834255 -0.1467005900402380 
-0.04373056728210794 -0.01724684704720236 0.1016178219127685 -0.05405210339443864 0.2300270085936224 0.2767632796552308 -0.2085982416702138 0.1199236409933316 -0.07301059075184067 3.295974604355934e-17 
-0.4067273767916589 -0.1807427056279049 -0.3175753150604143 0.2170441630057153 -1.734723475976807e-18 0.1003966950163946 0.2404733287361864 -0.1538318215964954 0 6.938893903907228e-18 
0.2204899053998688 0.2147647999357263 -0.2071906458479083 0.4735956837418082 0.3308797338101358 -0.1068602800097013 -0.7088658396754701 0.1381827619346346 -0.5833261255348109 -0.1544329563117004 
-0.1329455327376002 0.2801060295679632 0.01822392798012411 0.1540396042982082 0.1998475196654496 -0.001307775569521379 -0.1773546658683992 -0.03312231401089860 0.3479306626607092 -0.2522036249039087 
-0.09135517140295885 0.1086804563932144 -0.1017296811653690 -0.02553295978717049 0.5821880899391279 0.1624115804369988 -0.4210212626637681 -0.03345583608408932 0.2115091107296396 0.1173287496183127 
0.3656066977348998 -3.469446951953614e-18 -0.8116566256354520 -0.3130883758436429 -6.331740687315346e-17 -0.1678528269435125 0.2878353182206480 -0.001692983663812869 1.075207013407870 0.3716899132156223 
0.1797262321028820 0.2097653629446181 0.3737048238717183 -0.02309358875340558 0.2263975071008370 -0.03965727646330430 -0.6434466918132984 -0.09298720437078623 -0.3803010032420111 -0.1195491130359189 
0.04268269178496448 -0.3171896012366053 -0.8058555141499508 -0.1045751643479498 0.2940689782547538 -0.4550741747917305 0.4196757013338147 -3.469446951953614e-18 -0.1674214781048998 0.4940950676538001 
-0.03101468817087048 0.1841314326187330 0.1636313487649616 -0.04559423902793753 -0.005896411237874668 -0.09695140298119295 -0.01639660550142880 -0.3115414017224755 -0.1335668257924820 0.05576114782830721 
-0.007507787861194082 -0.1714640742682390 -0.4021543989351228 0.03336168283169649 -0.1330293848328620 0.9467655623674159 -0.4507734648255259 6.938893903907228e-18 0.05855920466270743 0.08991574264971479 
0 0 0 0 0 0 0 0 0 0 
0.2570492892086499 -0.07772406969014199 0.2217599838671197 -0.08690104204692518 3.469446951953614e-18 -0.1027899706138397 -0.5155852849771975 -0.02604992048986444 -0.08456759221397576 0 
0 0 0 0 0 0 0 0 0 0 
-0.02199381934438935 0 -0.9498287560256273 -0.01401400484426477 0 0 1.276696311111769 0 0 0 
0.3172473750713307 -0.1104534788498008 0.1474062625491700 -0.2616553647600904 -0.3087403343008351 -0.2519859365376553 -0.4601565221536814 3.469446951953614e-18 1.387778780781446e-17 -0.1592764112406602 
0 0 0 0 0 0 0 0 0 0 
0.1203715364897645 -0.03645852576820317 -0.3102279325095122 0.5385011759739782 1.040834085586084e-17 -0.1568791714991950 -0.2758075679829707 -0.1525997180746914 0 -0.1928576822023437 
-0.01665643698705075 -0.2593728718145031 -0.5892597799446317 0.9278337063433514 -1.090707385520418e-16 -0.1453076855721388 -0.4788650253721147 0.3513567223142323 0 -0.05874212789210584 
0.03035401965194142 -0.05861754129156244 -0.07024913643718977 0.06910155864023310 -0.01071486962092893 -0.05529545394806305 0.09179346290370534 0.04761919544941723 -0.06680733793319109 -0.1254582787883886 
0.1475813673362641 -0.003395698373804415 0.1946159656811861 -0.001374270567073735 -0.2341003019721654 -0.004530743876468749 -0.1501398795853156 -0.05420520817822629 -0.1163001340727489 -0.04657638441271653 
0 0 0 0 0 0 0 0 0 0 
0 0 0 0 0 0 0 0 0 0 
-0.2714075982559100 0 0.3721640802668523 0.3888909472224043 -0.4550177766627391 -0.02444947724624296 -0.4253309320074462 0 0 0 
-0.5328898821023709 -0.08531604473801074 0.3963283829144301 -0.3178444955753870 0.1109827953902249 -0.2786554137554526 0.2893497223274459 -0.04748217595418931 -0.05707114029200236 -0.07660063398328470 
-0.09562887325444130 -0.05812793061629855 -1.016112380372994 0.6669059231770779 0.3282590382302322 -0.1528880421559475 -0.2047023129446705 0 -0.1228930006331605 0 
0.08855878618024375 0.03214868706316473 -0.1364224509564121 0.03941347938502034 0.03632118286064760 0.02066848112540128 -0.01319044451022237 -0.03545519086019036 -0.4275190897211343 0.02912567358608663 
0.07320601798619715 -0.3436103649278066 0.003950784269587478 0.1611151098349485 -0.2628732159491726 0.02673412774720326 -0.1812913544459500 0.1385721877880589 -0.6535916849708191 0.2086081191848201 
0.3788849475461700 -1.778091562876227e-17 -0.1187843819691479 -0.01003872602479976 0.04527103209062503 0.05970919111647578 -0.2708670406914016 -0.3012979418744205 -0.04449205684051882 -0.3902253196167176 
0.2265124505180721 -0.1749660300129196 -0.2244372387687200 0.02939130569901244 -0.03485595586356058 0.1585731334983550 -0.01910232453469212 0.02410127572703013 -0.09545820117629931 0.08491810143519736 
-0.04288376929170801 -0.06099584655032592 0.1916840085143382 -0.4947157658671154 0.4314935019719443 -0.04734032404840419 -0.3011791253579485 -0.1526941038843211 -0.05085692656585125 0.3054867239969668 
-0.3089915226799803 0.01900509255279408 -0.1886762336153747 0.003408242482310390 -0.03612243140326408 -0.4324679002736213 0.5230207257212893 -0.2579705944177670 0.1946118955887309 -0.2856530061753734 
-0.5040910036172698 0.3419978420842100 0.3451253116410230 -0.2783228679031659 0.02877430387348532 -0.2776496359872870 -0.4942429967662844 0.5269217237210001 -0.05643498470666024 -0.2756414897281225 
-0.4075269756084274 -0.1739294528582921 0.2840634659004022 0.04198433798672811 -0.07264435167164758 0.01166949438597504 0.02070622283904181 -0.1477639440736520 -0.2206650518890530 -0.1987299728825741 
-0.02361645901205509 -0.1032995105731064 0.5124045148975287 0.1528449434412907 -0.07737599685325462 -0.1659199569510469 -0.7150406546056385 -0.1062622980758394 -1.734723475976807e-18 -0.08681323607751035 
0.2269397580695746 -0.02850439834048537 -0.3183164457420832 -0.1212823036668607 -0.2328721839687162 -0.2026334785803124 -0.03784459519533147 -0.07923034290816879 0 0 
0 0 0 0 0 0 0 0 0 0 
0.1203202225792416 0.1258280062428184 0.02022637337833486 -0.03550248447553188 -0.1029585215650622 0.07163321958837776 -0.1514358825187114 -0.02576899512350098 -0.05210291665945246 -0.06298904953888002 
-0.03874982833066733 -0.09543393078162403 0.4864426565310852 -0.1634218980180049 0.4057211128019150 -0.1825936478919521 -0.5033800248494825 0 -0.005213683676164034 0 
-0.1647045636062255 -0.1349761340726121 -0.1566891501673809 0.09234788769786870 0.1233582924482078 0.005107244050641241 0.1799615399014367 -0.1199507601303651 -2.775557561562891e-17 -0.1035100016874641 
-0.4789993791351710 -0.1395054289599697 -0.02139602077856465 -0.2449854266365037 -0.4331444282073854 -0.1137060040151705 0.6905637965155885 -0.1023399539660225 -0.002542543691207910 -0.07328633029786823 
-0.1696998561335833 -0.1466401015631714 -0.09346782520648039 -0.02382679746520661 0.04403051485735213 -0.5239054297297142 0.2654933276148186 -0.3420211837795985 -0.3275008156072585 0.1967408889679529 
-0.02477541438910934 0 -0.2315430195716971 1.299430163648527 -0.5693582237144564 -0.03264679869250721 -0.2386269129415956 0 0 -0.03745277414894067 
0.3479582371457690 -0.1045499193647220 -0.4111869284604652 -0.5782977740292761 -0.8876430447695383 0.1948690505725974 0.4797904990837736 6.938893903907228e-18 0 1.734723475976807e-18 
0.09921522844719206 -0.09854947110257499 0.08573812046628697 0.02118424067819374 -0.9919726619050038 -0.06743948648280294 0.04693194225579321 -0.09083101553009328 0 -0.3211398111202287 
0.3753144975485729 -0.02288654590705035 -0.5993788905088541 0.09872273397040560 0.1993222008885855 -0.1758614051210433 0.1155187875224400 -0.08799452402866868 0 -0.003694376226678124 
-0.1131116036640929 -0.09192426092257847 0.3705362157867265 -0.1214356759602308 -0.4601531743063293 0.2235955205538825 -0.2282982237959276 -0.04195552421027047 -0.05192275825636653 -6.938893903907228e-18 
0.2465261905266898 -0.3459562893061262 0.05426910961264184 0.06685845794659355 -0.2296234293119772 0.03625908307935703 -0.2857034508888850 -0.1179101284270641 -0.03247854916150000 -0.1094107862091881 
-0.01655414602986894 -0.1653842448857706 -0.7385346852330675 0.02321585749366554 0.1578013059659258 -0.05442370476638171 0.6453446031143018 -0.03359879322986231 -0.01450325005520470 -3.469446951953614e-18 
0.2235208312273482 -6.938893903907228e-18 0.1561072100076247 -0.2648472179780830 0.1192330119119070 -0.1929628123012625 -0.1851450913037857 0 0 3.469446951953614e-18 
0 0 0 0 0 0 0 0 0 0 
-0.5606184852668852 -0.08950056227073244 0.4722288931681363 -0.4643980522562086 -0.07070956728315934 -0.1798188775785489 0.05500355888722176 -0.3007631067583900 -0.1534464561168679 -0.3428520661103492 
0.1439899184935974 -0.6519944686282783 -0.09771701875360987 -0.07463254124982964 -0.02939701915305979 0.07687974939324856 0.06323823295103495 -0.4375650740516829 -0.5306108772523260 -0.4845208453809574 
-0.05848938396143744 -0.01264684732272123 -0.6082479223238930 -0.5379167115694468 0.5957939250919845 0.2078872667614821 0.2160181378402962 -0.08780065080462765 -0.1247972630985301 -0.04969936899708376 
0 0 0 0 0 0 0 0 0 0 
0 0 0 0 0 0 0 0 0 0 
0 0 0 0 0 0 0 0 0 0 
0 0 0 0 0 0 0 0 0 0 
0 0 0 0 0 0 0 0 0 0 
0 0 0 0 0 0 0 0 0 0 
-0.03454381828063678 0.2117448598289789 0.1126329965726006 -0.01023241699358385 -0.04762105853036388 0.008121240207362442 -0.05191686302570907 -0.01277195900297147 -0.01450325005520471 -0.1420740651684725 
-0.01994196209980859 -0.2520531737543105 -0.08302420440009234 -0.01889464470623238 -0.1666994679794257 0.1103659576596244 0.1266737840422309 -0.1256562329361045 -0.5636674681721859 -0.1518002572580625 
-0.01716947848111752 -0.1781046913758282 -0.05208969613069089 0.1452683066531588 0.05410643133045906 0.02912212728567736 -0.07003547031855749 -0.2823138264552054 0 -0.01992193601576255 
0.03103841444358006 -0.09123230994550660 -0.1812462516298312 0.1153783637564640 -0.05020992279407652 0.03781776197716008 0.2145987743654086 -0.2757822979215930 0 -0.01992193601576255 
0.01848069909339047 -0.08182976131672350 0.06155864241066664 -0.006974373577420638 0.04713878776373543 -0.09081217970405661 -0.07922523578935466 0.01366325577732136 -0.6619120732813033 -0.07160643611621652 
-0.2720131361675441 -0.06500559154648843 1.015659872846990 -0.09292213538823044 -0.1771108008969563 -0.1929628123012627 -0.5546069775984511 0 0 3.469446951953614e-18 
0.08851960697509331 -0.3056572822798938 0.07127833526056902 -0.04755981448604671 0.05363231964837237 -0.1361377659956084 -0.09048872079311779 0.04420581444095335 -0.3135803001522236 0.2175329909731440 
-0.1999082905103101 0.4080418843177637 0.3362827198827524 -0.3718565308433187 0.2444258559813221 -0.09289642582830437 -0.1544201122428862 0.2340794143291429 -6.938893903907228e-18 -0.1690712902582223 
-0.1422620275877444 -0.06105700222643896 0.1721989950632569 -0.003860719342065653 0.002340029854458694 -0.1331190720623059 -0.07575320936366733 -0.04900187661498155 0.1245463173011613 -0.06709329331985087 
0.08015182631145722 0.1343570345535407 -0.1908088346162966 -0.008962617870703052 -0.01606674409513383 0.07392271818782226 0.1032778343071736 -0.04359536985575409 -0.4443082141036696 0.1075261793161823 
0.3429803555111592 -0.08531604473801073 0.03331978187230519 0.1724922348042761 0.3864309786859133 -0.2499606415562239 -0.5908496600480424 -0.04748217595418932 -0.05707114029200236 -0.07660063398328468 
0.05754901587728374 -1.734723475976807e-18 0.1898894889091309 -0.3369946212380068 0.2824125238530736 -0.2561991014728337 -0.1225014134034678 -0.1002995752394196 0 -0.06298904953888004 
0.08170965046766465 -0.1976467755684003 0.03628431145365742 0.03039106547575567 0.1567629696946173 0.002542466054495315 -0.3183647230756456 -0.1950733906496477 0 -0.2468071371593715 
-0.05549932381165680 -0.1231006518097384 0.09446741628392673 0.1026736987304072 -0.3550020174778749 -0.2809194951551117 0.1994241453508758 -0.2757822979215930 0 -0.1538045685869764 
0.03915489002971884 -0.1860094394664243 -0.3211067195404909 -0.1700931047820545 0.7516356218348844 -0.1732208344806655 -0.2405100131902448 -0.01841832133363985 -0.5519598102476913 -0.03845243474551513 
