solver_type L2R_L2LOSS_SVC_DUAL
nr_class 3
label 3 1 2
nr_feature 376
bias 1.000000000000000
w
-0.2630007764418880 0.1833233146272965 0.3677235913302795 
-2.168404344971009e-19 -0.01927040779115477 0 
0 0 0 
0 0 0 
-0.8577624748288489 0 0.8568346478918362 
0 0 0 
0 0 0 
0 0 0 
0 0 0 
0 0 0 
0 0 0 
0 0 0 
0 0 0 
0 0 0 
0 0 0 
0 0 0 
0.6758147951890519 0.03108837182494520 -0.8772064125524978 
0.2975760496117446 -0.3797460373184197 -0.3017530411372619 
0.1223801428631268 -0.1825545862665094 -0.05933921887223889 
-0.1757566530762419 0.6541251872970056 -0.5235687057204483 
0 0 0 
0 0 0 
0 0 0 
0 0 0 
0 0 0 
0 0 0 
0 0 0 
0.1540163168183551 0 -0.1692725482081906 
0 0 0 
0 0 0 
0 0 0 
0 0 0 
0 0 0 
0 0 0 
0 0 0 
0 0 0 
0 0 0 
0 0 0 
0 0 0 
0 0 0 
0 0 0 
0 0 0 
0 0 0 
0 0 0 
0 0 0 
0 0 0 
0 0 0 
0 0 0 
0 0 0 
0 0 0 
0 0 0 
0 0 0 
0 0 0 
0.2842536431869098 -0.1830399503569278 -0.2489664303382430 
0.3498812534782423 -0.6080338768089951 -0.1080670752166222 
0.2217509351505440 0.01333635663796861 -0.3042112584790361 
0.5192041974272780 -0.5554318578717600 -0.2312376758946943 
-0.04875635526077708 0.2642099253089296 0.1230580933130213 
0 0 0 
0 0 0 
0 0 0 
0.2516520775168948 -0.09715779416639078 -0.2655392893220954 
-0.01641308012309393 0 0 
0 0 0 
0 0 0 
0.1849615380936060 0 -0.2767747557390718 
0 0 0 
0 0 0 
0 0 0 
0 0 0 
0 0 0 
0 0 0 
0 0 0 
0 0 0 
0 0 0 
0 0 0 
0 0 0 
0.2213506030824337 -0.1822348312699901 -0.2036172224739452 
0.2460319713734276 -0.3604575222707486 -0.2419011746558975 
-0.07230047732475291 0.06964986800726784 0.1341302077198738 
-0.06783577116106320 0 0.06186010879541590 
0 0 0 
0 0 0 
0 0 0 
0 0 0 
0 0 0 
0 0 0 
0 0 0 
0.2116349922016074 0.1539766984599351 -0.2040749854721169 
0 0 0 
0 0 0 
0 0 0 
0 0 0 
0 0 0 
0 0 0 
0 0 0 
0 0 0 
0 0 0 
0 0 0 
0 0 0 
0 0 0 
0 0 0 
0 0 0 
0 0 0 
0 0 0 
0 0 0 
0 0 0 
0 0 0 
0 0 0 
0 0 0 
0 0 0 
0 0 0 
0 0 0 
0 0 0 
-0.2329662193397900 0.5520079595926951 -0.01935063857666464 
0.2432353553760372 -0.3288533143379571 -0.08667921912726830 
0.1674948213659095 -0.4151195741324302 -0.1785379865483918 
0.1663703226772435 0.1539829902076980 -0.3279350909636192 
-0.02361505962096707 -0.3277880408076968 0.1324140124796831 
0 0 0 
0 0 0 
0 0 0 
-0.1275916925661683 0.3861838225904749 0.1199149961835240 
-0.05782561289433969 -0.2278529188321300 0.1466912717502180 
0.1299465301510873 -0.6803391959227084 0.09202062557427690 
0.2431797520815357 0.007800141667331832 -0.09879855264157787 
0.05991349180770745 0.06536186706384456 0.1360106238753762 
0.3941012150816835 -0.08174743564165504 -0.1756031307782125 
0.3707169556268671 0.07581504693313167 -0.3083122509041570 
0.4847964394865485 0 -0.4644637796770386 
0 0 0 
0.1540163168183551 0 -0.1692725482081906 
0 0 0 
0 0 0 
0 0 0 
0.2924877611713895 -0.3362286752441238 -0.1123995090302632 
0.4554215024035730 -0.5739551880207990 -0.2281183205338235 
0.2490681039046634 -0.2033235403285391 -0.1261838290695540 
0.2116359051039208 -0.08748411393494254 -0.07684685540266628 
0.3767227440365088 0.002341874753661495 -0.4641358012385509 
0.1292668492035451 0.2037104495826169 -0.2740381926159757 
0.2192942334311704 0 -0.2767747557390718 
0 0 0 
0.2076028415754725 0.1539766984599350 -0.4139674877221838 
0 0 0 
0 0 0 
0 0 0 
0.05515998623722106 0.1103401708497082 -0.01303812548626483 
0.3402262676910411 -0.08132208721751086 -0.4474638149968035 
0.7284567024433035 -1.138397319782850 -0.5948894127455783 
0.5616851860606765 -0.1340923309159715 -0.7032017485344197 
-0.05956241695258888 0.1003006906865740 0.1021904735037032 
-0.01858186849355478 0.03433041923790405 0.01836474112724613 
0.4151313123394863 -0.1231441801586776 -0.6797147670287974 
-0.2719418216680929 0.2487454368987310 0.2754328721943161 
-0.07558601961173778 0.2302637233166742 0.1058118075994332 
0.7944766950218374 -0.6781204966557329 -0.6318515582497230 
0.3851535063043902 -7.806255641895632e-18 -0.09221789209326292 
-0.09164701387078318 -0.2084769474585886 0.1867834717566283 
0.1223479385989918 0.1167714847744074 -0.5228527081186644 
0.1341766880182397 -0.2700728958787479 -0.2371803786971174 
-0.2129901737151674 0.4262529204452392 0.07740633145207838 
0.1480834337599838 -0.1683476259441949 -0.2560932999340355 
-0.07952945082755494 0.3707845070838262 -0.1950450032780899 
-0.1156510063666567 -0.1406281719109970 0.01299997282542267 
-0.04633959161715831 -1.011477757867726 0.1805051465296338 
-0.3097419099592075 0.5576001989031278 0.1645922107551632 
0.02030489832994949 -0.3489812124895617 -0.2078024920636143 
0.02480481715890854 0.07507204427557389 -0.05353933692820992 
0.2970395268729775 0.03330496608087488 -0.4598356092420564 
-0.03709833463663780 -0.1365709462785558 -0.01049678255490559 
-0.09039727983368365 0.1687737895140979 -0.005071406689039956 
-0.01988321217183894 -0.3557858570853772 0.4865950421745080 
-0.2924323013840948 0.1936344909408248 0.4539134463445181 
0.6573412539595935 -0.3474027326971614 -1.248685782357417 
-0.08631810845285012 0.1510357911632974 0.1870360150108206 
0.4800185586969499 -0.4556780962747434 -0.5992123712084734 
-0.2078901418407886 0.3323719011342798 -0.09476436097613950 
0.1296498567567410 -0.1024476239412411 -0.7520520091195154 
-0.1437734354128689 3.469446951953614e-18 0.4125396529128639 
0.01290100408817885 -0.6942497031179227 -0.1238483942189643 
-0.04842953602105394 -0.02037969382254625 -0.1272418500634939 
0.2681244603473374 -0.3858819080255046 -0.5471715183926492 
0.4327989306696051 -0.1126719818004106 -0.03316994875921633 
-0.04126327881844768 -0.2630599770691559 -0.02833852206462037 
0.02474414343053227 -0.2443654763667453 -0.03764585148315078 
0.1792328945791142 -0.4927567037306072 -0.3053771702160532 
-0.06638300809448744 -0.1995104440977679 0.1089060856256324 
0.1214284697877965 0.1366337045713578 -0.3185850383248302 
-0.3476452332260918 0.5702532116044828 0.3836914195034288 
0 0 0 
-0.5597965791275947 -1.734723475976807e-18 0.5560516949880158 
0 0 0 
0 0 0 
-1.734723475976807e-18 0 0 
-0.01813498542395835 0.4072830143566076 -0.2098925022500671 
0 0 0 
0 0 0 
-0.01067812189304974 -2.081668171172169e-17 0.4303177686480604 
0 0 0 
-1.175647722191490 -0.1555983768143227 1.422092682833834 
0.2307380796501430 -0.4988312833170095 -0.2586741282582694 
0 0 0 
0 0 0 
-3.469446951953614e-18 0 0 
-1.734723475976807e-18 0 0 
0 0 0 
0.6993381762165547 -0.7813987592005527 -0.3683877727524316 
0 0 0 
0.02606293133869601 -2.081668171172169e-17 -3.469446951953614e-18 
0.03743014378398196 0 0 
-0.04044592496166371 0.3061390727774587 0.06075632261968237 
-0.1665032707993502 0.4734652108989033 -0.4013114076379365 
-0.1360606762313338 0.6791537494900295 0.04673546228537069 
0.2176339394102346 0.1510481011320798 -0.7210607239352534 
0 0 0 
0 0 0 
0 0 0 
0 0 0 
0 0 0 
0 0 0 
0 0 0 
0.3531919950732426 -0.2348999777899533 -0.3728008217603638 
0 0 0 
0.4033116676064597 -0.05680324324552955 -0.3915593008913020 
0.1224828953207094 -0.4678673777299232 0 
0 0 0 
0 0 0 
-0.1431139797465071 0.4630727408306708 -0.1369310943714794 
-0.04229055541509347 -0.1871752226996622 -0.07269940502287424 
-0.1747014528248991 -0.1340923309159716 0.3094634863756032 
0 0 0 
0.02038458611112776 -0.1897376782464721 0.05139676170911167 
0 0 0 
0 0 0 
0 0 0 
0.3288425890434210 -0.2291170794277206 -0.4314272838683695 
-0.1868839093081105 -6.938893903907228e-18 0.3346863886889589 
0 0 0 
0.1890462120241175 -0.07182035969528881 -0.1712767730419341 
-0.05985112566136021 0.2017818705590675 -0.04406589942302743 
0 0 0 
0 0 0 
0 0 0 
0 0 0 
-0.1301721201977770 0.5786874346222166 -0.02694564353958196 
0 0 0 
-0.1747014528248991 -0.1340923309159716 0.3094634863756032 
0.3531919950732426 -0.2348999777899533 -0.3728008217603638 
0.1727918778879309 -0.06964805854872234 -0.1841684972121991 
-0.04465962955658985 -0.1477025816942527 0.1828087126447675 
0.1890462120241175 -0.07182035969528881 -0.1712767730419341 
0.4033116676064597 -0.05680324324552955 -0.3915593008913020 
-0.1431139797465071 0.4630727408306708 -0.1369310943714794 
0.1579431971939374 -3.469446951953614e-18 -0.2760532345876864 
0.003560926434584214 -0.08235342740528920 1.734723475976807e-18 
-1.734723475976807e-18 0 0 
0 0 0 
-0.04499047892556907 0.2957681952944646 -0.3633763814697997 
-1.043526789917451 0 1.016243886560958 
0.3288425890434210 -0.2291170794277206 -0.4314272838683695 
0.5383852605611343 -0.3847027584472842 -0.1995514791867208 
-0.04229055541509347 -0.1871752226996622 -0.07269940502287424 
0 0 0 
0.02038458611112776 -0.1897376782464721 0.05139676170911167 
0 0 0 
-2.949029909160572e-17 0 0 
-0.1868839093081105 -6.938893903907228e-18 0.3346863886889589 
0.2201199297319317 -0.4372197916839679 0 
-0.5804055255682190 0.4540333280532077 0.7160447172573404 
-0.05985112566136021 0.2017818705590675 -0.04406589942302743 
0 0 0 
0.1224828953207094 -0.4678673777299232 0 
-0.1202606082866178 -0.04846451428206999 0.3691765232920755 
0 0 0 
0 0 0 
0 0 0 
0 0 0 
0 0 0 
0 0 0 
0 0 0 
-0.5354006204332561 0.6215360956269912 0.4687638659112690 
-0.3218656355104142 0.6333101171551399 0.2605875699859169 
0.07840187077449096 0.1753480832619694 -0.3064086798591185 
0.1345258677357454 0.1124287257716468 -0.1507515501118601 
0.1113533734504258 0.01435284515005742 -0.09347325584691774 
-0.004556085414749553 -0.5054049409382697 0.2011570036976255 
0.2831102241321277 -0.8119684354828304 0.1493153780275039 
-0.03081057704957492 -0.2327228500702660 -0.1712185519669763 
-0.2219312773061725 0.2169697281247199 0.2883658494292656 
0.05535499651942907 0.1039662907139524 -0.03596500571787780 
0.5290224988888568 -2.081668171172169e-17 -0.2160992718782268 
0.3112829251061733 0.1407159968275082 -0.5299173700925803 
0.3539117282515119 -0.1709343532996975 -0.4630746549839059 
0.3394539129089828 -1.387778780781446e-17 -0.6306896143013810 
0.1099217285757008 0.2480690319192953 -0.2384301407342263 
-0.2909300415568485 -0.9279164928350182 1.195761074093259 
-0.4212443504069340 0.7935095257792639 -0.2160992718782266 
0.5152461821232384 -0.6057010647477462 -0.5358267852290216 
0.4241504962163175 -0.6250887739320579 -0.08432518881094728 
-0.4192990891998049 0.5983066537222399 0.5150997009682040 
0.4655092058973675 -0.4814778771636506 -0.4426858360753604 
0.03009951175893962 0.2863245988426209 -0.2160992718782268 
0.3470400904313725 0.2676999573370753 -0.8043386503795056 
0.07066854399251969 -0.2396721308377657 -0.1315348800446902 
-0.1301721201977771 0.5631179928477479 -0.02694564353958196 
-0.2464037714776514 -0.2439867616197760 0.3002271915544101 
-0.7495783750524423 1.593142844922587 0.1953398964442396 
-8.673617379884035e-18 -0.01556944177446832 -0.1240077077048557 
0.2842142652029566 -0.1408017994894616 -0.3611409040570310 
0.2105257333365690 -0.1877134511315704 -0.2301135186071677 
-0.3941869507255883 0 0.6444068586399329 
0.4153215958545046 1.734723475976807e-18 -0.3431147068778269 
-0.1134700460164523 0.1212997294173180 0.2765915696393445 
-0.3759272547358031 -5.204170427930421e-18 0.4465753196671965 
0.1311676925896367 -0.09387028031523607 -0.03689004259214646 
0.7095224037262355 -0.8115021161360574 -0.4825613066532434 
0 0 0 
0 0 0 
0 0 0 
-1.072776377076816 1.354085993956853 0 
0.05398384783912734 0.08573992998772824 -0.4006139559660364 
0.5387903242873403 -0.9730305084020253 -0.2707681041149926 
0.1315191978688577 -0.2852210615291990 0.2964968691765358 
0.2346463095387100 -0.1929313118460801 -0.4511058833542626 
-0.2564161477940448 0.5862024553197183 0.2351059857928303 
0.5145793597611383 -0.1497039680469516 -0.6067225358889305 
0.2681071204611265 -0.09454717250265403 -0.1921516786883094 
0.1954225403534677 -0.2399674850079988 -0.1965938101724523 
0.3179876137377143 -0.1520426194672221 -0.3898665508862384 
0.4259646523352687 -0.3086613690248889 -0.4420818578286017 
0 0 0 
0.3402262676910411 -0.08132208721751086 -0.4474638149968035 
0 0 0 
0.3259729628088515 -0.6701647314822605 -0.1436518082503159 
0.1919970185614793 0.1790142203676910 -0.5435501226207273 
0.005267103469547962 0.7282578637510169 -0.1925826857609030 
0.1141689371729482 -0.2764516987535339 0.02587802590829831 
0.004437054711951091 0.2617507108692143 -0.1049654522039433 
-0.6953900785473038 0.3431928669591136 0.7717018915147051 
-0.03375534687230530 0.5845521582233719 -0.3335884216281240 
0.06720817612918707 -0.6514862042068581 0.03880194313057363 
0.5081994650019552 0.003402068603940872 -0.5605740676343817 
-0.08154294223726796 -0.01844084006869913 0.2006406074710900 
0.01248329470317105 0.1728987327546011 -0.09476557330025141 
0.4631686631884863 -0.09575812092538938 -0.5044828365294363 
0.2103429831684844 -0.3343804654252698 0.0002635270995468785 
0.07000050083961495 -0.1987725206957204 0.02662118061566598 
0.1213939508538809 -0.1203818103402096 0.1467759796619889 
0.3457939694079822 0.08963021195784626 -1.024515449642888 
-0.3144198168639365 0.3940675797417613 0.1064507692386424 
0.1163382945524278 -0.4691474260251056 0.2348014036897077 
-0.1108930464660479 0.4225254935020180 -0.2160717803157052 
-0.5304219249321426 0.8856254320535651 0.1968068578091896 
-0.3890880078123761 0.2199062821923422 0.4459027145635010 
0.7315372939189743 -0.1210071891891379 -1.020246247693741 
0.4713065271443105 -0.4580715398349421 -0.3476831266729897 
0.05355746048349339 -0.7300100060625893 0.07275657290779697 
-0.01384895410859733 -0.3250815200421431 0.1332498383475892 
0.1681329917046961 -0.05574638747334648 0.03773682056887515 
0.2543359698901999 0.1336257591242401 -0.3415438352538213 
0.2882055542018724 -0.3049601606395783 -0.2986577854414700 
0.09582459770820495 0.3874255089224885 -0.4539131853322893 
-0.2308111339560212 0.7496172890039707 -0.06374400910689539 
-0.5669235004643419 0.1617140535175007 0.5995286880799170 
0.2804499791518690 0 -0.1566852106537920 
-0.2444248446952152 0 -0.03152575145491957 
1.044554510679894 -0.07500061673181745 -1.143897762714500 
-0.1340310476234639 -0.1473262974042185 0.2725973357026660 
0.3720703780124690 -0.08235342740528932 -0.5293930534043392 
-0.1294195653486075 0.5053349706131227 0.05972989116763836 
0 0 0 
-0.1500460437890859 0 0.4480169841238141 
0.1730001813063898 -3.469446951953614e-18 -0.1233165095791640 
0.1849723840826129 0 -0.2652037715230614 
0 0 0 
0.06691969241226718 -0.1775490979208135 0 
