solver_type L2R_LR_DUAL
nr_class 7
label 1 6 7 14 2 8 12
nr_feature 299
bias 1.000000000000000
w
-0.4461618241805889 -0.4169877338511848 0.3606872442421900 -0.2966926176434839 0.8866889402169167 -0.1790947461116034 -0.3055695528807038 
0.2577858066281876 -0.7177670716392095 0.1505944803558746 -0.5162781087695968 -0.7716637321413518 -0.04242381981000624 -0.5567280490515160 
-0.09230685669984294 -0.3193679590333037 0.1152901592252765 -0.6620167163920112 -0.3764599082307232 -0.1771668824168630 -0.3845231075409910 
-0.5985062936167252 -0.3113647835355047 -0.1732576013047836 -0.4044143935966141 0.7467528098482403 0.7951652214239271 0.2718378803033026 
0.1926091388072442 0.8233558026644074 -0.1137210526992645 0.3710386212290914 -0.05441016815357685 0.1360926361432965 0.2022443326444642 
-0.8206853744579620 0.05525771925565826 0.4875785622859273 0.1799308089896477 -0.4432440126346505 0.4877815055588192 0.2571033407047178 
-0.4683002444442627 -0.4177271971686785 0.4023490939640732 -0.6031270542522023 -0.3359794710427231 0.1008328192073581 -0.3205848776345612 
-0.3806772480379292 0.4161709830210329 0.5627624783551435 1.129645160031836 0.9951202419919386 -0.4913637653089704 0.9376314685455637 
0.7024700643897229 -0.8159065223581720 -0.9848171379386748 -0.9838769263457930 0.09377557774053814 -0.01540030804660882 -1.163884973160626 
-0.6458431156316121 0.3237786478970365 -0.2325045430514191 -0.4533252242963279 -0.2280586756088431 -0.3656839325517390 -0.6266168392353891 
-0.2502379709387532 -0.7673216553603670 1.203466080824690 0.1324134603208055 -0.1086472512844094 -0.4787811034727789 0.2016880135481150 
1.136357196036699 1.047999417064903 -0.3912915491022204 0.5659165935946314 0.2366164586508165 -0.4607875878221842 0.6640750659098675 
-0.7006043195163897 0.06737506906181513 1.658272551539765 0.3305934892248642 -0.3193272551016890 -0.2420768500183951 0.3535164977945710 
-0.4734083923515937 -0.4076013774034725 -0.6375518805372279 -0.3274967915560602 -0.4286291985390002 0.1503704579621652 -0.1721719746368738 
-0.5262767570666208 0.5729162566806989 -0.003248552477297760 0.6721545127348186 0.3667333758601618 1.450760098592676 0.7156728195527790 
-0.5359614070788177 -0.7744972294145739 0.2782353494139026 -0.05317814755395724 0.1132392743720695 0.006745532643494251 -0.3460134692936567 
-0.7673424041795448 -0.05592202131218129 -0.1113194923858352 -0.2461434080544774 0.4490249114873674 0.2525822264371352 -0.08014667587766071 
-0.9608875647461907 -0.3929513555471401 0.1567537480553655 -0.4581462465327576 -0.9137980069567033 0.1946977970552745 -0.7172905849234709 
0.9748042214906102 0.6984481740026900 -0.7061443110992216 0.2432136283650703 0.09707966793630028 -0.4385479030143257 0.5505565467098715 
-0.03697244263308355 0.8614069763897331 0.3433797408226690 0.2295850212711435 -0.3608942297271381 -0.03466847919358707 0.3894186876941604 
0.8314548956208887 -0.5293017031056655 -0.8808685474345884 0.01485763486739247 0.06965587887077769 -0.5953648233270072 0.1709704346731348 
-0.8516303184571423 -0.4952473842770737 0.4911322220641780 -0.2776984491742209 -0.6346863749717703 0.1448831899528945 -0.6130826936256090 
-0.05034139079158537 0.1865915010788543 0.1116067728708975 -0.02141664923751974 1.011563290015889 -0.8699674552668891 0.2400221168259750 
0.4175310483686862 -0.3028583148637978 -0.4641057898551129 -0.4396838421047988 0.06991737559570912 0.4895366762432074 -0.07836231231855230 
0.1065048123466838 -0.2743368284551684 -0.7054600539240042 0.3512856949508541 0.6017651213508728 -0.8429338772096466 -0.1242539731495140 
-0.06803057103811225 0.7041545102411394 0.6977942816329743 0.5112174897413550 -0.2672698841656619 0.3475693848234387 0.2802763960843573 
0.03907186688862269 -0.4446513168614654 -0.1705690321415156 0.4600047201236375 0.1229174079232598 1.606336201656552 0.4234349737865325 
-0.9003352266334093 -0.2383395816642662 -0.2566227621417401 -0.1606352263182309 -0.07095641931178762 1.243135241366803 -0.1874315638014046 
-0.7502338988318914 -0.08989582117605675 1.217200348896866 0.3677659469277544 0.1276953980158685 0.1940687443174057 0.1798792799997901 
0.3034207233102754 0.07846908462687671 -0.3644093209998016 -0.08431003079609391 0.4435527259888589 0.1839345494361773 -0.03939459742062415 
-0.4438677770653674 0.4833442835052312 0.5577474465551527 0.1356843043653599 -0.8094494724011002 0.2957014195898351 0.2007775291409314 
-0.7222509307618020 0.7937555330649256 0.2913899933629551 0.4065221768693057 0.9455940980185128 0.2405096451502046 0.3705069640513592 
0.01485937588375308 -0.4223788351934554 0.1434488263476608 0.5339835198698943 -0.1009099298092132 -0.1493690384822734 0.3015694799004605 
-0.1513278710551285 0.2121867826916054 0.1427760605052531 0.3475246054644031 -0.7211026759914909 0.1659693888702712 -0.2816317655687028 
-0.003873765201393957 -0.08739929322738482 0.02976272512484637 -0.1119400751031771 -0.7103174307245314 -0.07851875786376250 -0.3083776844022409 
0.5575406670709326 -0.1433955423215445 0.09439907643773590 0.1767705810890151 0.03900786741294050 -0.4565575157918120 -0.09386643457144617 
0.05213338665366667 -0.2224278861774386 0.6712021267999627 -0.2737950134862644 -0.3132197481779924 -0.3206957321534414 -0.3818033446963348 
-0.5631503944728152 0.1572614468837729 0.3820123213478915 -0.3408770969073990 -0.2843333781364316 0.1677576432078548 0.2622773817607554 
-1.309251960120721 0.6174722116453821 0.7129949346683616 -0.2008624396495058 -0.1797655602967333 -0.3635347269500612 0.07208090621612859 
0.1318446923378653 -0.2191383541197725 0.3701455693669853 -0.3974328851740379 -0.03638023394912381 -0.8251718970710581 -0.1431760124462523 
-0.3931034698408986 -0.01248952728624212 -0.2219736112059801 -0.5889198742754252 0.5980070245768786 -0.3662531812451280 -0.3950326092194458 
0.6059721155042389 0.4652146005720408 0.3868014869600626 0.4717683052641631 -0.5082319668983375 -0.3991070332854724 0.3027930635385734 
0.8430567680921409 -0.6850500369935311 -0.3859147193341211 -0.4825128003274399 -1.000491493715803 -0.3990102402072213 -0.3640228815702465 
-0.4810642189096563 0.9031274487474867 0.7621741661911962 0.2030613850663192 0.2475285731224456 -0.002186850675228866 0.3217756786830505 
-0.2541655563774585 -0.06807374082083548 -0.3424427991384688 0.9572540536247399 0.2515597766067751 0.5459286493442331 0.2292017432297332 
0.01884014446513540 0.9805759879648893 1.185686750379823 0.6476932768402540 -0.2175858357029205 -0.1866010827000308 0.7979752036048948 
-1.031909907046673 0.7721190271864802 0.6602447761274776 0.6162535340792401 0.4268376342385732 0.7406868709931214 0.6903679913241860 
-0.8896438362674908 -0.5400079298491278 1.143466078696707 0.1556131179533702 -0.5037210294250177 0.1850620960091684 -0.1939558574696028 
0.02812620763383146 0.2866233355170440 0.3452557930488444 0.1582658871661495 -0.1332969924401658 -0.4816599809843775 0.2303659120202376 
0.3597850634858943 -1.621527431591287 -0.6996860111707967 -0.5514735153752414 0.6006681654801015 -0.01774589983280072 -0.1486949261789247 
0.2635519974311499 0.06106956929304865 -1.308753804947008 -0.07883606802318287 0.8845244080179293 0.3997995640107345 -0.2310021636432940 
-0.3780616455469166 0.2819102562573916 0.4996797675432342 0.3866024878463090 0.2316824873160616 -0.5006516480196435 0.3802237808161680 
0.5653588832825744 -0.02927013755076560 -0.3864214504661507 0.1749250606588189 -0.5074206044130566 -0.3492567761749772 0.2184128782788579 
0.5118449870407200 -0.1765218815924093 0.6464449650472653 0.3407693916107809 0.1665309663477251 -0.7691216578224360 -0.02529521148000696 
-0.4711320820240276 0.4764145063731477 0.5969007777115000 -0.2672874704875517 -0.6138594110411668 -0.1055462713492204 0.2850090925274418 
0.4992151067180471 -0.4679041139212163 -0.09316631435914567 -0.2434291637457186 -2.077950704522778 0.3212697444620487 -0.5050051743490882 
-0.02341501881574868 0.8964792731613243 0.9590421095494412 0.3837285985092392 0.3017853827287221 -0.4620512964299876 0.3563200972946769 
-0.1080783656869606 0.7462245405682921 0.1645617498997168 0.3556356764824338 0.3096206524417291 0.9801793114492652 0.6410121488086958 
-0.9908980914326848 0.5376657684242426 0.2864045160795498 -0.2800179108055352 0.3244138281899254 0.06193074067753563 -0.2523665720930066 
0.6119331391903723 0.5296873860671314 0.4033864430254215 0.5007486711566672 0.4221759418323558 -0.7843312984257336 0.5054077285940580 
0.03503368416002542 0.5811598324503889 0.04230262041437240 0.1785736349320223 1.435830514824483 -0.4977270267969304 0.1959322960099788 
0.1920444871274088 0.009818068524597880 0.6410703952595700 -0.8074575560394465 -1.442936892975122 -0.4770635888187415 -1.083141935271013 
0.3894929277880325 0.7640592213418199 0.5518215078838189 0.5842804458721577 -0.7110570656138243 0.2711737876363097 0.2913395845029131 
0.6653343970064526 -0.3109193000703031 -0.06447970877744504 0.5261535581256670 0.7735501257642419 0.1375850283110324 0.6933159683613772 
-0.1590656768480072 0.8140733344211771 0.6190877534047077 0.08097112691285917 -0.1980379676902379 -0.4976873553972955 0.2153490370475597 
0.7628722532307036 -0.3672082925403993 0.03373344166021386 -0.2627370391535002 -0.4679574564268321 -0.7163822086789640 -0.1246553940558567 
-0.5465427180175246 1.013007440146585 0.3529655485204375 0.5338096484797301 -0.6622915497842143 0.2623214363852252 -0.02795902990333380 
-0.2292869936624028 -0.6655358120864272 -0.9674540059944435 -0.6610114693732789 0.3670505352677890 -0.04550962644890163 -0.5367621754727556 
-0.2309022088775196 0.2279019535423727 0.1308959053342510 0.05797148674450414 0.6837388819422872 0.1079396467876864 0.02948655907749010 
0.1012125817140358 -0.5440905856368625 0.2725672939557761 -0.1566712026699841 -0.5851615731282319 -0.4470018898340277 -0.2173233279404480 
0.2903897520512010 0.01426537117615100 0.8141080350608142 -0.4997090612027576 0.2675690960295731 -0.7290723469957240 -0.2005245959941009 
-0.4452775858442088 0.5602578892938431 0.003572320387230728 0.4351079203840104 0.3939689290909819 0.7190147981921431 0.2560108295025240 
-0.6410561858991071 -0.7658093315173513 0.1124422677211221 -0.5554664193268852 -0.5848107804466743 0.2901118621952897 -0.5759830964489563 
0.5280098950729370 -1.048202160528184 0.8806510178580840 -0.3386191839807207 -0.7216849235124378 -0.8265472215871035 -0.1953953519375480 
-0.1912776660072073 0.2484065470072160 -0.004648108459406165 0.8049555419373063 0.7187365574086559 0.9573002304941847 0.5547991457275903 
1.195635111555131 -0.07628546987111279 0.08789334237840642 0.5478985825407957 0.3167606473624426 -0.6275331699649611 0.4602270858553700 
-0.01322767699365830 -0.7975963325760541 0.2489521758600621 -0.9221043115788963 -0.4590525761260336 -0.6925243658479898 -0.8299038328943382 
-0.7338934217988747 0.2543514619224955 -0.03237938614847773 -0.7261353880904147 1.059472976660372 -0.5706357735211040 -0.8571601854412757 
-0.4528352561518279 -0.6629790793615964 0.3804962325422479 -0.3932252674689434 0.1671240607354977 0.1832381311752261 -0.3985072295608179 
0.9196478916695721 -0.2224118842326120 -0.4850139898701164 -0.8679480116882013 -0.9961220601906202 -0.3869686647422602 -0.6031857769830082 
0.03634235451248993 -0.4194626727750502 -0.2698163315070952 -0.2131184432133338 -0.5172598411438242 -0.2559546921685370 -0.3228949352408521 
0.7832972966769636 -0.02502446804539491 -0.4293596908788712 0.3734277458374171 0.2551363119332954 0.1764329932190799 0.5459841446285937 
0.4296003966537177 0.008062068586928928 -0.6458071118547710 -0.2429967531551968 -0.2049054210565033 0.3857804155395558 -0.5224088553423712 
-0.1151050104866085 -0.07852633127037631 -0.6119637622883739 -0.6873023553517659 -0.5386664239179204 0.5171984745152259 -0.4245847422190105 
-0.2369402904027200 0.1803185922682823 -0.5855999185719270 -0.01657747906924015 0.4247516967920021 0.2032688350962293 -0.2184352677733529 
0.1940226075951272 -0.1061120752201826 1.015771288066590 0.4512486826157302 0.5383514525904858 -1.011209136413561 0.8411226099875385 
0.6980087304493364 0.8364764228270140 -0.6861165155775413 0.8460022479598267 0.9746337946010140 0.05649756608529076 0.8772050213521932 
0.2343002974112463 -0.4436843926950363 -0.8536840509637114 -0.2866601275317152 -0.07469070220925990 -0.4811678112600883 -0.3500482745130080 
-0.1400537935522674 0.04561823227759296 -0.2442974165624197 0.02650783942369180 -0.4130862542888415 0.2579786883209954 0.2431241190453649 
0.07099981090167524 -0.6375242711664492 0.04275637663942707 -0.3383803117238635 0.02837669868226890 -0.6989001621755224 -0.04673641413573399 
-0.1117757868722322 -0.6685126256944496 -0.3841999443210198 -0.6479638491178529 0.2164394914675857 -0.2061684748475771 -0.5332634462094334 
0.6033840368099294 0.01077564559793512 -0.4069799020705075 0.5617839036335900 0.09849151532547906 0.3450309434657322 0.2391059232973073 
0.9716999499372075 -0.4534209696471299 -0.2411165997369249 0.1819714916387847 -0.3284130779520145 -0.9618326866064400 -0.1746025963777349 
0.5855634494251285 0.4961830390390983 0.7921283061916126 -0.08439684211722749 -0.5220518697334342 -0.9479486796226388 -0.1161740028995438 
-0.2364543008953489 -0.3262136419664291 0.07016961688672171 0.2681279912275970 0.4783612859882956 -0.3026294896942443 0.1379670599037715 
0.3900974236825516 0.3503087794276789 -0.2225636393062442 0.09961455560547526 0.5064005804263768 -0.5978263448710629 0.1337835276831872 
-0.4159537590552958 -0.5685223267553104 -0.6101838112499768 -0.6708497335737595 0.3652091333075871 0.9002766160273096 -0.05582493331202006 
0.6284019065477735 -0.8242433901674180 -1.083537500873458 -0.4662289714305853 -0.02755176265733192 0.1765781267875632 -0.1040775240580768 
-0.2094297962116429 0.1224741512122055 -0.1004889165070234 0.1598358628009771 0.3387946932851100 0.4125680420959340 -0.09347867042684144 
0.07395690182331086 0.3645264752409206 0.01177432420535261 0.1031241758381382 0.7648386955965370 -0.7195265484476391 0.1432425157638833 
-0.6821402772936337 0.1444333332852678 0.09084640581878028 0.1949862999852624 -0.2136080575046642 -0.06273332989833601 -0.1522166859386385 
-0.3242098141640740 0.08178120890084857 0.5863220752795709 0.4985216128332766 0.2809357237525676 0.007482682346742157 0.6261677582489766 
-0.3641590683643539 -0.2743810666084143 0.2037225568574118 -0.1146678028748523 0.1271104830418643 0.2880211786819569 -0.1591377884902720 
0.2778075348267118 -0.1717481967891125 0.4197463286559284 -0.02915919697497901 -0.1033057416360367 -0.6501622676193732 -0.3579521473788481 
-0.1442215952297027 -0.2531915454843003 0.05048632124028680 0.3662174481368796 -0.5971759524471194 -0.1796901472862325 -0.2858075637236983 
0.2945430084990336 0.1612611055895041 0.1642997135818378 0.3903297616304509 0.4290569582660055 0.7465437008415117 0.4131926072185189 
0.2363667563893964 -0.1301349634533413 0.3205056209856552 0.4487730676338546 -0.4393996033528242 0.9332653805895259 -0.2622024987499854 
-0.4339280837789226 0.6499195703686405 0.04108923363115510 0.7122261814768092 0.6504774652300835 0.1513646150660544 0.5899106823175768 
-0.3805104295897037 -0.2866805086028717 0.4111267515186057 0.08236748945197019 -0.4215403786607258 0.5728461825093007 -0.2741963214411138 
0.1100365975640187 0.1037206439560513 0.3934275332354533 0.04434127186765856 0.1628920891850087 0.01283494172017121 0.2807396583958848 
0.1129289779385930 0.2718882780824917 0.2024179006785974 0.02693088635982569 0.3626296708933618 -0.5831583690337979 -0.03977058483427463 
0.1378790163756433 -0.04995047518417432 -1.018062982316103 -0.09065308453053610 0.3474588011252678 0.9994402919018345 0.07445500259273347 
0.9901609988139245 -0.07309558665944291 -1.600497315894519 0.1003392608251514 0.1081302255177457 0.1624244928963949 -0.03691721435476929 
0.06083777185825771 0.1765596047471602 0.5093125997341473 0.3856089962774902 -0.2323731190398700 -0.4930158745598262 0.2157566338658626 
0.3696147356740994 0.06338135207695483 -1.029407729535572 -0.4721593233345099 -0.6929153952076886 0.2069619061054007 0.03686405069604429 
-0.5396872496732210 0.1821349966956365 0.8062168571415184 -0.07724899632180640 0.3875265064074349 0.3072814993772673 0.3727487962035431 
0.008486823671695756 -0.05743189755283618 0.1927798024597324 -0.09266083899806764 -0.3190373259781041 0.5793213195755519 0.2281859837235479 
-0.02935856638646046 -0.4463616824985045 0.3127628963086492 -0.1121872597212172 -0.7908137888210431 0.8464357143074728 -0.1119791450049158 
0.1817816658288340 -0.9060899781730992 -0.09294054697603628 -0.8049589548928977 -1.190803349085321 -0.9889803189926419 -1.189114938980582 
-0.7360594248299328 0.3925991554355024 0.8051815893967039 -0.3584583553141387 -1.104906087186762 -0.2264191468627329 -0.6676162656151389 
-0.1034666948815720 -0.08088493152656064 1.051662935397543 0.4549162696231575 0.3091294017576606 -0.6754611343741938 0.2401684209469014 
-0.1453545836152645 0.2869720768840482 0.06519184323259415 -0.5547991865146751 -1.071893424148984 -0.01690642108833784 -0.2996147774618187 
0.3417251981372773 0.1419722945851732 0.5041150245197640 0.5443519175136902 0.4008627029374456 -0.2420596444372141 0.1065935339449347 
-0.5869234405792833 0.2780310616099246 -0.06439544108374676 -0.7386407745449443 0.2657542914261257 -0.4198883928475888 -0.3016120150582102 
-0.3423175301554491 0.3016032552665741 -0.2041719187201300 0.2306764198457934 0.4194060246757426 0.04484575905615994 0.06844012449593165 
1.010743817510628 0.5874981034542898 -0.3296843645875049 0.8872296694805509 0.4560593834608527 -1.045917605902541 0.3539367568324565 
0.7466914996601699 -0.2523842842237801 -0.2442021744508310 0.2326799992925860 0.1056559147434069 0.1332433501918370 -0.1069990867125102 
0.1292130001505315 0.3863408318122840 -0.3071806321562398 0.6472890219058336 -0.4362208832203841 0.5713605753740784 0.6507642585975639 
-0.2550653169823433 -0.8893272516972123 0.03597799001395988 -0.08754331434902653 -0.3470721003989504 0.5407404130798317 0.1659025749905816 
-0.03320204707190851 -0.2810904290204711 0.05169215102054576 -0.4310018529375173 -0.03014412976670452 0.3044003638528733 -0.5559843488339894 
-0.03306192522593558 -0.4664553833664940 0.01366116569073710 0.05639494195217844 0.1646175029484935 0.06355083912357545 0.002183943889643083 
0.8003226110241050 0.3601060548268845 -0.4663371788504983 0.2899955034534693 0.03051622688278445 -0.3223471594662433 0.6083258075559589 
-0.3156529653424600 0.3198986544490375 0.7478967785774485 0.2839124231668193 -0.05573135880539404 0.5863664191542680 0.3968644389318985 
0.8503700578032721 -0.1345521335841366 -1.019718972219319 -0.2255511014334514 0.3738446572000063 0.2251716525423032 -0.1614036809148909 
0.3815368447931188 0.6248772155082777 0.2818372376768771 0.4353500494850758 0.1678275005252885 -0.7322659286064507 0.3903795447673627 
0.6222556253727295 0.1642187303739023 -1.603862812918715 0.3345714552720642 0.3516875427562223 1.184237647845638 0.2241095749668372 
-0.5844625114865525 -0.2534982317166825 0.8274271293380235 -0.3786920125824348 -0.3111347385148840 -0.1661296945947784 -0.01815357793313703 
-0.7116088079493905 0.05917072197461753 1.209469555271993 -0.4373508734028108 0.3346549936520356 -0.6997465431428364 -0.4127489253388128 
-0.3173934022660742 -0.003123903794117629 -0.1799602283257439 -0.007760112906337600 0.7334288653358263 0.7125214970255476 0.3882661050572484 
0.3965165119445293 -0.2416728740764452 -0.5076246213321921 -0.1137620422638996 0.7576041263768000 -1.125061666740405 -0.2616723526573918 
-0.7118240481513103 0.007378346074400825 1.016161081874042 -0.09455586706229754 -0.4488051716039194 0.03643868510576256 0.4423309547208572 
0.2753152345631434 -0.1029957176996309 0.3400921337147949 0.2208565965477211 -0.1037087088710977 -0.5875865321231437 -0.05071424795043888 
0.6787748340650270 0.4777769479614053 -0.07512449407132261 0.6004631693970158 -0.1958367213876645 -0.4758379948197462 0.3006530630923522 
-1.217574128589526 0.3359103214634374 0.5545202475420802 -0.07742318062638887 -0.5592364907110878 0.5683634485970377 0.3277702604623765 
0.1917583003132695 -0.2785219837671245 0.02113756901828851 -0.6542043975996605 0.008532949306620902 -0.3241943263084899 -0.001890774907646016 
0.3688110840889714 -0.2430747294336400 -0.5595267093268410 -0.3356527531284550 -0.8438026739997702 0.7398669451044586 -0.9161724068729113 
-0.6197378353340942 1.036163892637811 1.063978008913484 0.04446540135660102 -0.4398291295911223 0.07419941941028659 0.6074598625984050 
0.8421526137312777 0.1398080413608722 0.1583867440102163 0.7576634546933128 -0.1246825958723672 0.5677134602298743 0.4893562047804763 
0.2164941061302800 -0.3761405224968556 0.03738085343748052 0.1144073370652980 0.6188063801720992 -0.6621695853150111 0.1463105124026379 
0.9047846909049816 0.2655704863949228 -0.1095605893758755 0.03372068833516758 0.5261986342949434 -0.7196147498475524 -0.3979665415023582 
0.5974558811094260 -1.473989244330528 0.1712666784185950 -0.6208055900343109 -0.5769025907901277 -0.9656265041154216 -0.7168966658467023 
-1.116293925102851 -0.6489881459230722 -0.6639620488969188 -0.5402710209872039 0.3038207407345661 1.051073973679262 -0.2638795769024024 
-0.01159876598426065 0.4645137202242104 0.1228234407962716 0.1621891922988643 -0.9080133540268197 0.2386108185204303 0.4574459279496906 
-0.03126934753739685 0.3382397159546652 -0.1430858451305625 -0.2478666437760819 -0.1899508448560866 -0.6728986505874354 -0.7625084518625700 
-0.5332576280379672 -0.1672309467755067 0.2088909632583129 0.07945353209900752 -1.429767628130393 1.380148228855018 -0.01190265967063426 
0.2661554096349991 0.5447411198297618 0.4910268246376825 -0.05905874783794696 -0.8941124533530761 0.3612007138413536 0.03806916465488715 
-1.009183642381457 0.4557816028047774 0.2055411281808828 0.8621961811398368 0.5931369086932733 0.8474166486379419 0.6623022428359001 
0.7136282763758721 0.4345100758775528 0.1612917456422345 0.3910345050397508 -0.5968859413476726 0.01752276874202688 0.1297614652887990 
0.9512108541422847 0.1235672670814673 -0.7203428640221201 0.2634597889020972 0.01883074913357134 0.4780267943567493 0.3352098803198873 
0.3499813043175342 0.002597211631076511 0.03204031433281685 0.2921362289663386 0.4184346501500314 0.1091850849540613 0.3238219249920653 
0.9573949404161275 -0.1493330716607642 -0.7458042318900276 -0.3944061987331639 -0.3432545978936387 0.3813369064752193 -0.1341139366218066 
0.4352910491197080 0.6986406462161677 -0.2622641126976176 -0.06096716323142888 -0.6337844442680186 -0.9244635451005447 -0.6781629936288361 
0.9881041487220935 -0.6032208715565260 -1.085856195448390 -0.3972756198673790 0.1916026719897583 -0.3160284712510785 -0.4927882097822902 
-0.08536740725727290 -0.4153863082331452 0.4908591926786096 0.3353035346529634 -0.002068353172733080 -0.01266184625323185 -0.06217050808207138 
-0.5175194974885177 -0.2525539785186109 0.4841482842062378 0.01894389385790622 0.1873550363290840 -0.007338056332174646 0.2424883973456321 
0.5405696162505688 0.7755121802566197 -0.3133593630083000 0.5670658198864048 0.5949898639744090 -0.07423278717646295 0.3475964526221395 
-0.5924428539679310 -0.4035826049464949 0.1797637722253488 -0.6131724968887458 0.9757567686257710 -0.8416845053272270 -0.6135717421791070 
0.1668680288024012 0.01091775091356751 0.3569223732618808 0.3290410736654078 -0.6078239614676408 0.2520092585456788 0.4256718131731797 
0.2978944264031875 -0.07479969284422525 -0.07584712935771697 -0.4413388883193528 -0.1708096221074743 -0.2598585392488375 -0.3447503749310812 
-0.7885270387047362 0.3123524260932626 0.3343887287435934 0.3638200279880853 0.6346458476491240 0.04336847294492814 0.6814756167216305 
0.5214643904550612 0.5193425750850925 -0.6216159715480879 0.6322554347344453 0.9072527481003061 -0.1505607041631772 0.4020884756683930 
0.4409972171943156 0.4003309416268176 0.007712009844565253 0.4234595584434671 0.3392976902211800 -0.3113973293300880 0.1791983750403488 
0.2725471940028709 0.6638067970698941 -0.3357410417986868 -0.04493113057579068 0.4985220652538628 -0.4312551574671375 -0.2511575835224325 
-0.06606119264118218 0.6361112049229953 0.1300222303564949 0.5678359006913770 0.4913879156464075 0.3955737150021887 0.8646356921648507 
-0.4337556129747055 -0.1553294735069168 0.06960418582708465 0.2604849554211029 0.3290002223550829 0.01410749428334994 0.3516209516838807 
0.5284924421225339 0.1312229640729553 0.2079059132005107 0.1748991937980113 -0.6222116727529671 0.5182334488888749 0.2863592102889878 
-0.4309531322046223 -0.3462572274249602 0.4761760048166129 -0.5680158745947477 -0.3764588615099969 -0.07674780709708240 -0.6869833243923436 
1.471215095157847 -0.3284950173392748 -0.4783805552110886 0.2381952316455992 -0.2772702590544830 -0.08384766896155096 0.08611802398104779 
0.06740226593436428 0.09673956253920603 -0.1958737386746953 0.3626844939130938 0.1130204026020001 0.1987815846917750 0.4975271413057453 
0.2043880533003029 0.05591198934367658 0.1012682459626600 0.1833893540890938 -0.6237649408582432 0.3499495223377291 -0.4196373466096751 
-0.2930237802306214 0.6114720024106023 1.240257764101954 0.8520613171198379 -0.07009436595253718 0.1835940328948225 0.2131637455356526 
0.1154337300271398 0.07637856400863037 -0.3501626391004630 0.5680829820316909 0.8083559825953631 -0.08593546309142752 0.2750586536676467 
0.9258984368952314 -0.1277272354562649 -0.03391637395697344 0.03151664963419048 -0.3553359898919605 -0.7586647489343707 0.1043251979974283 
-0.5236349879532785 0.3428082068618445 1.196921317994073 0.02378015978499778 -0.5909712667075457 0.2835091360750562 -0.09692185433442216 
-0.3741939152590612 0.2409458166520764 -0.06258913434904834 0.3746166407602847 -0.4847767686339596 0.1328737852089146 0.1823383612666887 
0.2899855884283367 -0.8519320010192585 -1.289456817706383 0.1701488250065749 0.7005664685968331 0.8632505326518080 0.9219572849363395 
-0.6326139179197618 0.1951464101074780 0.6891162338504109 0.4922661060009040 0.1263156544887580 0.06881090174998906 0.7818466113137450 
0.1422113233260297 -0.6884994210328028 -0.1378858673954499 0.007306865447991112 -0.2536969372057777 -0.2288066667798333 -0.4786086861628131 
-0.1104370894150270 -0.8978089925679023 -0.1270445395187436 -0.5078566976042220 -0.5871479489677504 0.2312023061424178 -0.1815970611433938 
0.1426278863245055 -0.3996031589286048 -0.7146242142307468 -0.8103803230171861 -0.1683750942329240 -0.7924599727861269 -0.3526776081857017 
-0.3281799632055666 -0.06807627982198373 -0.5562296729365503 -0.3149445128173323 0.6831565675556056 0.8270769910132721 0.01285989060713515 
-0.6027904933749048 0.3691472395602409 0.9689817823854701 0.01142508871615664 -0.04956161237424599 0.1592691344227674 0.2494141653302375 
-0.2778667229142920 -0.3899357112600273 0.8357189842129688 -0.3119329190086470 0.06998028701644436 -0.5393461961303858 0.1099399211646660 
0.4383918740277589 0.2507697174627729 -0.8641748013686159 0.07862990189950049 -0.3006345562294228 0.5807853476487389 0.2715179941896798 
-0.3602715749685531 0.6942255861290066 0.1710193141287268 0.8645906132419598 0.5554314128860653 0.5129327550642907 0.6680888375041293 
0.7397592251515598 -0.5218913238172198 0.6487860287013066 -0.1709831137980643 -1.199091230618899 -1.322311240920927 -0.5895144281237226 
1.115632801043673 -0.6156791552469042 -0.4702453022668394 -0.2036007512323600 0.3039377835868165 -0.8831483356597315 -0.4276053613726374 
-0.5483849550485121 -0.5882038438447849 0.1487963570228394 0.1622250408105983 0.05305908619551301 0.1390367080888508 0.09470216436022887 
-0.4638270784500498 0.2098118156648038 -0.1612488528339985 0.2199103473413956 0.4713791523100721 0.6584513690274131 -0.1498295729915895 
0.5673982432237082 0.3061400971693284 0.1203451714329709 0.4680830309544565 -0.1218804241703159 0.4988771960696833 0.5055846082926088 
-1.356683462719508 -0.08150826258501442 0.2466300533940768 -0.1787677655805611 0.2153479696699243 0.5394707803959253 -0.4431947376827164 
-0.9693558914819207 -0.5167687195668843 -0.005057903662306842 -0.3465940388236549 0.1047820721499240 0.7179743142476667 -0.3526139910709628 
0.4403958987486298 0.6323101575863252 -0.03250465487342813 -0.1973298197655367 0.2871834468646089 -0.5146766826204551 -0.01645158640669523 
-0.01145521585390499 -0.08546668938676140 0.1965556564342627 0.2883495685869777 0.9650390002538688 -0.3027033152146590 0.4890031632369629 
0.5013743664984910 -0.2095721347422459 -0.2885899225711485 -0.03837292810343494 -0.1671223668235441 -0.3376157548710965 -0.09107266775387343 
-0.5214784700468628 0.3941790902575428 0.1256816930524633 -0.3991059720102411 -0.6404946492081337 0.6982539985686665 0.2936559432086868 
0.3990507402808888 -0.3449936988283148 -0.7364953396162373 0.08812726236831761 -0.2412947581661913 0.4006743693874776 0.01510943223586439 
0.1585550046517384 -0.4203087795305320 0.2029736396500669 -0.06318057736033758 -0.8871106282807666 0.009204922517406578 -0.1949937646595208 
-0.1626460263358803 -0.2276611058928517 0.5956177854105440 -0.2869082721013522 0.4689993905452846 -0.6280583849213398 -0.1059670226725945 
-0.2827114524869112 0.5020577672161355 0.3916522174450421 0.3025944270175171 -0.7881913291111123 0.8403213041032596 0.2204228255288399 
1.394019322922152 0.5596484885315222 -0.3524366923470474 0.08999854663362471 -0.6500945753617947 -0.3140272621319821 0.2366605466419260 
0.4696143735915512 -0.2212102261157241 -0.7561765425047630 -0.6207810936959226 -0.2362401655717049 -0.1044394516319021 -0.3093929059653487 
0.3466441076682597 -0.3561232852343668 0.09981854959311694 -0.03458633569982574 -0.2165653420501956 0.2376239176298044 -0.02941216818236566 
0.7786339107405362 -0.3299431547744616 -0.3178515403066419 -0.5330630526175025 -0.6005506104480557 -1.042875334914497 -0.3323981654138614 
-0.2497863721037980 -0.1445142425758614 -0.1424951900789974 0.5039459555301505 0.4246690248532128 0.1051014766748619 0.3469280443762115 
-1.017761207333976 0.3681093315047438 0.3234521160435934 -0.3168949508780345 0.04597344141044361 0.1768107075507867 -0.2807779388916097 
0.3816065286711945 -0.6116651318077652 -0.4405314177856115 -0.6868452024477456 -0.4017441955374588 -0.8877420352721830 -0.3259551832687421 
-0.2120180372473737 0.5005723908196064 -0.03243523579281395 0.1172894044667737 0.1684380913248151 0.4737957273811049 -0.05344269888726181 
-0.2951020838925033 0.7973894910400664 0.1109963670322872 0.4787870412437125 1.016449829370724 0.7904017247370104 0.5446958728669828 
-0.2103221242443132 0.3145330363580282 0.1215153158501785 -0.2633825954137914 -0.5007681484811929 0.2088163235673437 0.5586175946557731 
0.6451702551085460 -0.1750009441410216 -0.6456755729169333 -0.3382639602023834 -0.4179393348050927 -0.3251233855571906 -0.04822979202865177 
0.4715703891021847 0.08349319809963192 0.1725417368547342 -0.08814636929722476 -0.1467521891952713 -0.2937124856292713 0.01265737867546957 
0.1907725987242563 0.4235422728161212 0.01565593321767575 0.1075973661484908 0.4033779170019149 0.03857056248074521 0.06109630847401686 
-0.9531400870261783 0.6695139748418923 0.1719766642850537 -0.3514266539419252 0.9331217838262675 0.009220477918298770 -0.08384492913194946 
-1.013952807406818 -0.001464800404063902 0.07942081759300669 -0.2531509733815486 -0.1977171607657494 0.1284945757648514 -0.4285548895712219 
-0.2442314487199423 -0.03326342569775860 0.1514459391088963 0.4687236624166608 1.062102814149525 -0.4480983964756878 0.1844841458019947 
0.8437353292035644 0.003261025280188864 -0.1144194529082707 0.1519621914850473 -0.3341665229574711 -0.09505993604366902 0.02797160223885134 
0.1619614703137300 -0.5125968328666413 -0.5323236779697014 -0.1325279192047088 -0.3198815910992821 0.1653281560592327 -0.2017111967701376 
-0.6949760669827828 -0.3474489682280220 0.5201812013163538 -0.2341632895084796 -0.06142989086508732 0.5933186952408126 -0.4648012006201996 
-0.4346874102336570 0.5575947075251172 -0.2642263841504735 -0.1361370006364869 1.049169074058431 -0.3299004393169421 0.2886853088366838 
0.1738487964215948 -0.1464575994728402 -0.3996521625430989 -0.3363388645844825 -0.5542540127612023 0.3146311906502824 -0.3233577151761168 
0.1526496901958512 -0.2988153783243944 -0.2047320145314310 0.2285601805872715 0.3228175042140590 0.6560183629776243 0.3627875075187403 
-0.3793722917826395 -0.02162695586267377 0.2503378420435579 -0.1676427420813107 0.8016950402155867 -0.5702940645796594 -0.3207844498562580 
-0.7812218492488406 -0.01221475640520593 0.6605882656580968 -0.4813616126843253 -0.6898734685849766 -0.03184321037209450 -0.4096488202311615 
-0.6709624763879442 0.1607252262306748 0.1582025148764260 -0.5977292734113238 -0.2388404326909162 0.2124000209457786 -0.3545329708300782 
-1.384811905055348 0.3052300822255527 0.2530648662983445 0.3100221356619565 0.4603946158097035 1.042845321529966 0.05198188743792579 
0.6014450624332722 -0.5622650962776619 -0.2379961416999600 -0.4397640137985163 -0.2951989423430696 0.07645511856512019 -0.5134550943084978 
0.3326422121472285 0.1454088522406167 0.1112449359458393 0.7142210857578165 0.5767201112229243 -0.3459490096608765 0.7461506140582436 
0.05768842629490142 -0.3153154169149612 -0.3945213537418469 -0.4786899036586915 -0.3134979591598988 -0.2971483274168235 -0.5577965258626671 
0.1374406525650136 0.6320759548445445 -0.4687611987832661 0.1654399424527532 -0.07130782858420268 0.2848607939629690 0.05837549775152660 
0.3626648855931274 -0.09939531699601183 0.02985550345911213 0.1893979689629308 -0.4692715215878923 -0.4343599913794384 0.01747056860260604 
0.2037370644910989 -0.4768169046690736 1.061984568943687 0.1875476212566799 -0.2099719993621438 -0.5004904664058627 -0.07979245751417513 
0.4606609208593459 0.6302988990792340 -0.3850147172208119 0.2260213517723597 0.3084151966739532 -0.02307816306864350 0.2052309222638739 
-0.6210760494500900 0.5417375212898694 1.445345062833063 0.5661796205819853 0.5085560588119202 0.1250998090311931 0.5367303954582457 
0.08844966679312276 0.07062037762349944 -0.7757436828788026 0.2635276674217712 -0.4381755576971717 0.2076608729804547 -0.5459921116945196 
0.1417931640298220 0.1768579407380382 -0.2576614089325343 -0.2974608286405746 -0.9241325134994699 -0.08426342454730784 -0.5156372104384158 
0.06226059047158813 0.3188427142211892 0.3063105330832964 -0.2527339886714606 -1.021985298357852 0.07456917608483986 -0.06471063546499656 
-0.7005436836917621 0.09266234205177906 0.5006103963174369 -0.4416443611802005 0.3154269591241219 -0.1918436447042916 -0.1789250330136721 
-0.2351259568920136 -0.0003896941880257946 -0.2723957047826230 -0.5550707907518356 0.2841082077169389 0.1145322400114420 -0.7459758929587885 
-0.1175196156654317 0.7337945567100528 -0.2163955967353142 0.5215860870486961 -0.08112139930643615 0.7499385156176567 0.7291118971340412 
-0.4091150934889844 0.1575222166423721 0.7011832658432486 0.09436198880558270 0.9835941338678835 -1.445226912271898 0.004935786742227597 
-0.5922085797622239 0.2287031553850285 0.8851576763390031 -0.2219156554088371 -0.7670023431063294 -0.01355229199436326 -0.1039140795311964 
0.04746272740404970 -0.06383467104658304 -0.6024679216546268 -0.1736228117279804 0.1675693955549949 0.6851319232746726 -0.02731806291584583 
-0.05288168938165060 -0.3139421184451195 -0.6321631263238170 -0.2827759951156331 0.5237550387875951 -0.006697713162743750 -0.2968699892354306 
0.6924723561681209 -0.3109066606180159 -0.3697972590136509 -0.4955942342637294 -0.4470143017309843 -0.3742428309904656 -0.3030572020867958 
-0.4126688385096984 0.1728288765832188 -0.3336448922010222 0.2281439943630023 0.4051846618669870 0.7001042707338601 0.07593683812806752 
0.2369788733549705 -0.6595269211991783 0.06448617316464235 -0.5094212343913120 -0.8133564057168043 -0.1729313897473360 -0.5276961446635601 
-1.065954608595733 0.2932062630470132 0.5416661713268622 -0.01169922463199273 1.106030108591252 0.2993967445934975 -0.1619081004356746 
0.6921625751331925 -0.09925248306367775 -0.05741652631789600 0.6590595013257511 -0.3448848980894432 -0.2072591225942326 0.04193911999265579 
0.4237017135936571 0.4143616497286883 0.6932711238300768 0.2437327891234066 0.1888888296094501 -1.292129270841080 0.2102370589087351 
-0.3838586216767841 -0.2416705510528904 0.6631460576102334 0.2934999705499113 -0.06063516763681772 0.1035634175527089 0.1639693732290287 
-0.07258462057047062 0.07424757045892763 -0.9045463689545886 0.2256892935093627 -0.1535354714900886 0.8112434762917866 -0.08126508728308203 
-0.5464375311316562 0.8661774498110715 0.1783683869335633 -0.01985259489217960 -0.4857513409934406 0.05241650078113301 -0.04942212472952107 
1.153055767731747 -0.3512779674385249 -0.1546228753823379 -0.3393679943658802 -0.4373914259411904 -1.114569732061177 -0.06701957541668883 
-0.8540613772943845 -0.1137909381686515 -0.9440173928941535 -0.4793586201150137 0.6729099735404566 0.4473148139671279 -0.6157554522637996 
-0.1426708041716758 -1.005127863687640 -0.6704839618724574 -0.8350532316405594 -1.191257835792674 -0.3381292165940138 -0.9309637943133329 
0.5740598775019724 -0.1713941181933413 -0.1095892730441183 0.02295335732347129 -0.1709618030087477 -0.2338555783193618 -0.07439018520775394 
-1.683954319386080 0.1192628077172635 1.054932273915746 0.7672008078355020 0.1780921194340797 0.002397635631830427 0.3665632733414360 
0.5864474282372036 0.6345224932342779 -0.1391331916363144 0.3644478775108204 -0.3319615998938809 0.06114465622604959 0.3432073154050473 
0.6986151602032186 -0.07876510232562890 -1.018589683066085 -0.3947985099981201 -0.1388900108757166 0.2742737599071768 -0.3209372716007434 
0.8600612370383847 -0.6319600803379221 -0.3924295736023538 -0.5405251765295509 -0.3389942488055459 -0.1025720717714133 -0.6196008156794768 
-0.7571234703275748 0.3658260246321912 1.213689497699033 -0.3862251009286569 0.2736796974821265 -1.329502927128324 -0.2587622210503506 
-0.3831217721006712 -0.2943310619103992 0.1642853197266312 -0.4225756313380056 -0.6376554802148442 0.4948282813666396 0.1217209922288268 
0.1464118664860239 -0.02791124002585839 -0.1501768834429905 0.1053044166681885 -0.2178893586748690 0.5198862590430189 0.6179809662476895 
0.2667037616594416 -1.278856668214751 0.04135976441534895 -0.6086868727780813 0.1661627912283843 -1.335975061322332 -0.3376233314420234 
-0.9154531328482715 0.1723234094156924 0.4932742007648868 0.6964523519109176 0.06677771269074008 0.2776839745621433 0.2657920349574541 
0.1971626955033999 -0.05072335730952976 0.6510784574163615 0.6260282897385013 -0.4063848805058108 0.4278787033227431 0.6566063156310352 
0.7853419670875061 1.421100088384431 -1.076935625392732 0.2472605527567743 -0.4419720494062399 0.4832726583404597 0.2730733568633966 
0.6904431505784128 0.04283568405248434 0.01332629935044104 0.2117857031643867 0.2767322343433890 -0.4689633836053772 0.3190755666971093 
0.4428191843999024 -0.3672947038417684 0.1876718104099874 -0.2719697230229089 -0.09454667978363314 -0.1972749446840418 0.07847099020595528 
-0.4545439728309872 0.3875155190178204 0.3469069045831427 0.7019442729686246 0.2360489938742072 0.4028534104212348 0.5752876479683658 
0.2365579386625351 -0.2256766697550711 -0.5500014564190415 -0.2042339114036935 0.1312647048906794 -0.3129499277057485 -0.3809456718944814 
0.3325673052756590 0.7648842826853874 -0.3586887434141806 -0.1492041393107018 1.069405013973582 -0.9641781465820260 0.1773614500800004 
0.6186185867524905 -0.2059288206622475 -0.1862443544337230 -0.4063509397290646 -0.4679917686695376 -0.9753392135720254 -0.3574389071403133 
-0.02554992516565522 0.003969109709015079 -0.4893114280274900 -0.4018504565548750 -0.6373454757431263 0.2666523772677393 -0.1608526325748279 
1.071955835317993 0.2771436285680390 -1.499665615276709 0.007057942384227870 0.8560863616221466 -0.8269071911583722 0.5034414623727618 
-0.4823537357582517 1.108384673533261 0.3818052501636736 0.1547391578313124 0.2851497693529743 1.109071694838342 0.1545813567430004 
0.6466578205608163 -0.09799161463977425 -0.9970297698834403 -0.3248113545548564 -0.9859376597055965 -0.06777533596701552 -0.4534038239090380 
-0.6657194956061306 -0.2848795751089737 0.8034953411415714 -0.7021108649776027 -0.1661952328320545 0.04114413088578486 -0.4451612318083391 
0.7693203083023703 0.2779903674180317 -0.1119863823475424 0.08314610990207359 -0.2014150711206340 -0.8331396298606996 -0.1595933796878925 
0.09186073377003162 0.5379793467176682 0.2240122255414190 0.6945361061859073 -0.4725517693306471 0.7879842618002498 0.7481662367782054 
0.1639896790066410 -0.3421270017538014 -0.1171560441465754 0.2085123943398718 1.266738744562268 0.06498432656533307 0.6259182306231774 
0.6408823873175891 0.4619808960635579 0.02780580031227297 0.7207451746729698 1.320571854991008 -0.09483856905627112 0.5994649981254687 
0.3771075442307724 -1.412276200993140 -0.2375683627026775 -0.3191266611096017 0.6531304888632113 -0.7982429368714901 -0.3974932073804924 
0.6415454080459735 -0.05735578915296664 -0.6051379566200853 -0.07232172145574155 -0.09925335658035064 0.08166658786585032 0.1294675280807226 
-0.6169811569294709 0.4696925223396150 -0.2297761955060956 -0.3213160829260005 0.8746986420318379 0.2939812194566792 -0.05305457428496192 
-0.2213293885021727 -0.1611128386167380 0.9881615759194933 -0.4098916355311649 -0.7465269979060386 -0.3123945426662622 -0.1639754888500214 
-0.1169664319523574 0.4448124387895969 0.2711636456673983 0.1267537631677368 0.08706180176996399 -0.1450066145776940 0.3192878733241799 
-0.6767001353109645 -0.08866875791826226 0.3968469106813709 -0.3958318318433290 -0.1141919940857192 0.2581874974693333 -0.2596635831389292 
-0.2602312643193622 0.5504524872503511 0.1620724375644183 -0.001282139041117794 -0.4646120973223767 -0.07351498727837558 -0.2471288305226677 
