solver_type L2R_LR_DUAL
nr_class 10
label 1 2 5 8 6 7 13 14 11 12
nr_feature 599
bias 1.000000000000000
w
0.2096697336968849 -0.2232523490198576 -0.3662127007229279 -0.1528096064295857 0.7687737359387863 -0.5610811781342630 -0.06803994504159463 -0.2185647868361250 0.08371243636888595 -0.06046898398902625 
0.8623440346960046 -0.4155726189688485 -0.2416440574338765 -1.063082756029048 -0.7058648106092519 0.3955898593528617 -0.8652073137387768 -0.6692573047610413 -0.2301150140729044 -0.5020998911385863 
-0.6843084918110892 0.1890482053212797 0.08281984869868757 0.1727034769477271 -0.2271619645815677 1.137150140926004 0.3137926460737449 -0.3635173472154653 -0.4495735696627568 -0.1800543985231299 
-0.6304576472385104 -0.1695930575486433 1.141859440457846 -0.4962463754664905 -0.05627621956704113 -0.08991934796374068 0.2743480421309745 0.1782426521219038 0.1046102607279518 -0.5241047400955473 
-0.1381497999979864 0.06024453728538966 0.3633118054684190 -0.2253602547755640 -0.8045079272988349 0.9938189419909313 0.1285854513425078 0.1004421254042303 0.03405080166230099 0.2581081141048549 
-0.06193062788106768 0.1461017915569496 -0.5196891006966939 -0.8630416412619462 -0.1340119484945921 0.5664172701929446 -0.04440762919284654 0.5117929553206080 -0.5398328922359142 -0.07704619532402576 
-0.7086326113855148 0.5784066469426510 0.05678044520616324 0.1279090330162890 -0.2253679773116317 0.5547721988341235 -0.1093015632013541 0.1428127006127619 -0.3554265266989406 -0.3516444353115474 
0.3090505366850982 -0.2771884532382281 -0.2978838024991546 0.5287083932912455 0.9909474812877547 -0.4876858323408245 0.4643693378750209 0.8339846627072247 0.1806162397650243 0.2691862966543865 
-0.08943292626587443 -0.3729997140253730 -0.6179204831913507 -0.3913223894755311 0.3485990463966104 -0.3887076469279709 -0.2516200576948990 -0.3410765416787440 0.4772770365284929 -1.311788722852706 
-0.2765199319072129 0.7247642897511755 -0.2572057137296436 -0.6178127737778911 -0.2569065726940251 -1.009051545946244 -0.3275687561749048 -0.6251646317598526 -0.9690247673005973 -0.5363965905480838 
0.09873211604881774 0.1110553860315121 0.9335980956874143 -0.1397304718675711 -0.2198349972393034 -0.8495516981846885 0.08143577608225120 0.1647243543568732 0.1735731457379005 -0.1989552097236854 
-0.2857050412332448 0.3895528842736008 0.4746423060901415 0.05055157580871313 -0.04169804670940730 0.7238539682419237 0.2856229135200315 0.5225795329367805 0.5842320029584064 0.02844178675396954 
-0.3843016418588399 0.001512246381831422 -0.6957832201312455 0.4582635955237788 -0.3741467926480861 0.04109519229530508 -0.2969669725076825 0.4970462427571386 -0.03721001395599958 0.4291490141542739 
-1.049774911504921 0.7760622958227947 0.7726775740575574 -1.174251514119901 -0.1463778160928660 0.4328034307901180 -0.05236836963386629 -0.1508188997762903 -0.3349495497759514 -0.2247046042479296 
-0.2809533261606835 -0.4040163208644359 -0.06251907942130731 0.6598427399115087 1.235850504545496 0.4247187610875041 0.9689461284000507 0.2728621550904681 0.4805682541709342 0.6702092631846008 
-0.04756454076528250 -0.1610851122948362 0.2495169249540184 -0.2340462514795783 -0.5060126056343037 0.3354211219268912 0.2259434274212888 -0.8307795662277663 0.1747395641168106 -0.4850994510172930 
0.1365568914148847 -0.2120068739301139 -0.04512580874771985 -0.2086762082343497 -0.9993885621559209 0.4985779087281329 -0.1773967309413490 -0.1636611098115733 0.08193312182967052 -0.2792089926688298 
-0.3421884494139544 -0.04384097008145844 -0.4342418340261555 0.2302899414323945 -0.05357520137334475 -0.7834132045765165 -0.2495887446053920 -0.4798439375620892 0.01625112267214010 -0.2685132619764724 
-0.2389386779039087 0.3373560543715582 -0.1851281199062488 0.9075076495139809 -0.2679715676380786 0.7346995673733154 0.3169947486613403 0.3435818398181176 -0.1693032773917468 0.4929386766382369 
0.2092216059470309 -0.8042869726531029 0.9514358622388340 -0.05771533369755354 1.218977521389749 -0.6239471439865292 0.3337527909899883 0.4464016900966953 0.01531569262904672 0.05995737551838567 
0.4214212913269833 -0.2075803531921310 -0.8369000053607280 -0.4072456590119493 -0.4119663471306199 -0.3940900383573106 -0.06692175955813183 -0.1079653494848004 0.3556319609563980 -0.1789527604732856 
0.3794592748033563 0.05211354349730801 -1.123827240527422 -1.083403952257888 -0.1963040932629971 0.02635300873688776 -0.5086122407767324 -0.6967151222246285 -0.04925949761849627 -0.6060112028946999 
-0.04142095511315952 0.2965372247081918 1.266767780124612 0.3903991219757411 -0.2868815267385824 -1.120588774442292 0.1185928385300523 0.1799953857189629 -0.05757004212645232 0.1588653779159039 
-0.2533580271007049 -0.03236900941653217 0.4923007320267974 0.3955839118168505 -0.07222932823127538 -0.4498379000432569 0.3645268451327516 0.1160422259080279 0.4708352835753032 -0.1611384479259198 
0.1996217638224766 0.4256908080477490 -0.1076868130234635 -0.6035100938628978 0.04652976631454293 -1.105854029700910 0.2152463429260451 0.3913596554092692 0.03443899969470476 -1.002169607539918 
0.2692657122976951 0.05496785090293373 0.7181068140173502 -0.7572279233002885 -0.4366534011678756 1.215359805395008 0.7217938667511337 0.006737531187531909 0.1549905231568275 0.5051505541650584 
0.2912081234948138 0.4760736291327160 0.2131504809737843 -0.3205566559139580 0.4313029509203774 0.3390529194016843 0.007578031493278487 0.4324725507746575 0.04321608715301983 0.1529733145790488 
0.4414531943540832 -0.3126902910155966 -0.8037230555738937 -0.07723451910078143 0.1417388355230426 -0.7085148321393709 0.2445125687174780 -0.07807037528322765 0.1586828684059488 0.2885679623453958 
-0.4311280616332907 0.6436943085187199 -0.5556903129429911 0.2165997592553212 0.004828000805778281 -0.1549101763160325 0.3034987416769986 0.3115309417027403 0.7320404800420526 0.6651105600368148 
0.1228877437036595 0.2657159093946034 0.03415438491994175 -1.060038429027560 -0.4608985668985022 0.3705896878656526 -0.4624809768133827 -0.2490351072535595 -0.2543107844628833 0.2053993623634985 
-0.1563182771804879 -0.8296546962429036 0.3142554565729528 0.4144333396238190 -0.2499023939964573 0.2025892850951524 -0.03223579832795648 0.6578949084136030 -0.1165337499919762 0.06130069271401099 
0.001932854696995621 0.02265494599653345 0.1595711988482286 0.1678358925219548 0.3403981007711898 -0.2825091738095044 0.6312943074652192 0.4881310511688842 0.9004474034133710 0.07665330138067422 
0.6123742322850357 -0.2630092848386673 -0.4362652440961766 -0.5540202725659275 0.3763957417231175 0.3126415018755922 0.1700132298856588 -0.3214259179328565 0.7788235064224777 -0.06789776072458223 
0.1071332925252362 -0.3205690715134000 0.4503221970670528 0.4637823569405494 -0.3259746591146138 0.8130983135324464 -0.2729379479776408 -0.3947159485375087 -0.4244902071985818 -0.05298385944303380 
-0.2635554953740419 0.4889030919647969 0.2545265877502549 -0.5238392040445062 -0.4770071560369132 0.4029245435268389 -0.1533493300713512 -0.1248699662114681 0.5167696353837953 -0.3916552917473898 
-0.3470409412430512 0.1191642110271255 0.4205029770562780 -0.1086309111483429 0.3853486431515204 -0.5184554582411927 0.06318633432778009 0.1763096828507311 0.06423908476677516 -0.1293729297935687 
-0.3525071852987832 0.2654128192565919 -0.7553441317095022 -0.004430831694264232 0.5073557293907918 -0.09525163084153836 -0.5100837264693401 -0.1160344258009816 -0.3553358965963172 -0.2312594170153121 
-0.02520981948282497 -0.3800029419425845 0.2330522992467740 -0.2080574962471763 0.8437629500579080 -0.5503419741104404 0.2774416430676196 -0.3161852519820577 0.2740429966005747 -0.1317745103895355 
-0.4922159234142338 -0.1415472733870511 -0.2771653109795355 -0.2613346051092566 -0.2090132399910787 0.3925444349513009 -0.4058028421357733 0.8167761424644023 0.6365919666233351 0.3518169236171494 
-0.1323742686319303 -0.2080131135843543 0.6275760776056140 0.2006521747506461 0.09508639304813915 0.01332434951531284 -0.1673458445392514 -0.2660029078482027 -0.2450222271452193 -0.1595237102292945 
-0.3484094030811623 -0.4780958786148506 -0.1676180170563313 1.006350167564194 0.9012539964368287 -0.9013230750802129 -0.05380988064675012 -0.2889947987783552 -0.3736909798485706 -0.6294508466430854 
-0.4746016594384128 0.4823539734277619 -0.5091662365301123 0.4021952850119623 -0.1578662627754709 0.4724299706561703 -0.2759812549808929 0.07061376010319627 0.1584656340444882 -0.02726511948281739 
-0.2920480517307496 0.7231588532708476 -0.01070195400021332 -0.2748013444501606 -1.112299127999867 0.1806881127653864 -0.5066127223727926 -0.5775552825466128 -0.7755821154567318 -0.5657720832996855 
-0.6452468439846843 0.05525844274835198 -0.3136246690602133 0.2430183362650526 0.1775507090411220 0.6911953099409074 0.5869853025536090 0.4057270910471277 0.4983577055158732 -0.03460626521808389 
-0.1587090632017243 0.4422716414492793 -0.8107041725298204 -0.2635673668708641 0.2006906991871467 0.2349576444075091 -0.1735924816221697 0.01538641840707916 0.9558348591564332 0.3511596085080928 
0.02643842492653760 0.1239438537257255 0.4203991121459856 -0.06845652413558613 0.5889173621825061 0.7015542722357948 0.6315674688744805 0.3277765242765676 0.4074972116566116 0.3596378839536391 
0.6122616647724561 0.05174210216406939 0.01918789263117136 1.225923045074306 0.1550308889586798 -0.9191454152206693 0.5391233966763371 0.5413798707608000 -0.1802792800374619 0.8427866651429384 
0.6176901277181837 -0.1045166209854267 -0.7402181545963151 -0.7647497518628164 -0.2866367565492077 0.2549499568673304 -0.1925361361358543 0.4245198689045198 0.3228658191415767 -0.1109359496482461 
-0.06954958398451017 0.2667076825158135 0.05111116244424507 0.1689209088268921 0.8613588056075034 -0.7886680492744739 0.09762364955252041 -0.1089148421904546 -0.1795772898146882 0.1397322884938519 
0.1492540956473363 -0.1711004636072514 -0.2138864718518947 -0.8604173092026282 -0.7868465740041595 0.6710037711072898 0.2297771778620155 -0.3986024696282483 0.2651169969910589 -0.01388700486826553 
-0.5360218509614153 0.6847619265755395 -0.06054672780930029 0.5501386032424012 -0.4089599665191133 0.6327214636629268 -0.002007536430428243 0.1585028248148236 0.2570791286560257 -0.7448022777380194 
0.5554897205330387 -0.2882010900143057 0.08789609810529467 -0.4853743396683967 -0.5625345746341980 -0.3165163180889927 0.6291858038460226 0.1854646185607448 -0.04370005737625186 -0.4632081812673733 
0.5941841979371882 0.01252268839879939 -0.3708921829847727 0.1526126318091433 -0.2624290801772127 -0.5330141192387882 0.2085794673692040 0.2345153626687399 0.5877441656136176 -0.1543223075876408 
0.2151749589988484 0.4410050386591141 0.07875915388081857 -0.03129443054455349 0.4042090319654837 -0.06769141624600969 -0.3842111154538270 0.9654114880176948 -0.3843762856505003 0.4780619770740294 
-0.09061767697956803 -0.8665263743663322 -0.2909611116713282 0.6853737458849692 0.1932898246156447 1.074205985757928 0.01070032170564247 -0.1807642452808391 0.3746354311839606 -0.04149317426216576 
0.3952701586605096 -0.3382501647836875 0.2166493390445227 -0.6056352191116315 0.3459269806237930 -0.5810595255668036 -0.5652832140210564 -0.3443392460782373 -0.4978126550755451 -0.4524559371040566 
-0.7427505828561350 0.4063295266675424 0.4556572667840333 0.6731852640594294 0.1576934522611750 -0.4080753309110163 0.4370717425329640 0.05673176421571426 0.7933548815055333 0.5224363276704383 
0.4844362296784271 -0.1972246623540754 0.6236133678090805 -0.07641786486091110 0.6553263670882192 -0.2603575423594072 0.3639830398191019 0.4887964178675088 -0.1434599615683782 0.5031702936729429 
-0.09239418670039318 0.4461661724422202 -0.2478986441157493 0.2803372078034126 0.6906789669817744 -0.9631775863441133 -0.2802474975509376 -0.4542623417176008 -0.1350018683013580 -0.5802643477980405 
-0.3226035130074620 0.6683504984939705 -0.2994776593352363 -0.3270042002500930 -0.4071847665404367 1.678488768803235 0.3405155347270235 0.9776418683411763 -0.5166970317040142 0.4367764697534478 
0.7342288147366203 -0.1582733369309738 0.9815498469030183 -0.2179624146396752 -0.1642862224186953 0.03878169992888194 0.4494935124562901 -0.6897134228299455 0.4884737979142591 -0.005958451108153877 
0.1935484434965178 -0.5439599339424684 -0.1451176498647352 0.3738182906993434 0.1351602126701735 0.1697686511362021 -0.1791221532110748 -1.204929661725639 -0.2139941267477799 -0.2484146105108655 
1.158748545426663 -0.7089689517849980 0.1096261825697699 0.3125723098618065 -0.05057050578071834 0.1546797481146859 0.5271818975425676 0.3942837209425468 0.02558690088319219 0.5723190640955266 
-0.1518220406126980 0.2961174283308564 1.275868362458337 -0.1203828968252937 0.08755525361475279 -0.06604995569252872 -0.2860858309412271 0.6215156292873772 0.08515085582813497 -0.08239671921782757 
0.4389156176288989 -0.05724789326401055 0.2235726298574613 -0.07343065241171973 1.127801917572816 0.1513343390181435 0.3175423230701227 0.03572549327382070 -0.4225948971148719 -0.3641297048516262 
-0.1129011676858720 0.06769334500317149 -0.04112376285250961 -0.6107332095593303 0.3839438442040902 0.6383211899581545 -0.5774804317569349 0.08912951046769904 -0.5095343832307199 -0.2115257384892715 
-0.2976799408900488 0.1221462791142190 0.8399620898254092 0.4019219998116554 -0.1905857838574110 0.1933698745076955 0.4115199248126597 -0.04171041679916783 0.2383663287351928 0.1314745908893176 
1.037041606455641 -0.5209706259229049 -0.4071416171102006 -0.2284195729259346 -0.4613610988225399 -0.3372912837583646 -0.1401538066750905 -0.6165275931387946 -0.3862103773391685 -0.9275148810329044 
-0.1239280888491540 -0.1561905864767004 -0.6302789633031791 0.3550668833819611 0.1320128477178642 0.2093358095360766 0.02437474722722575 0.2943967744244918 0.3768572110161781 0.3669587155080662 
0.2696622576362506 0.3250510796445373 -0.06334784132168882 0.1191818055174164 -0.8774380772028915 0.2199146429004340 -0.1559294211579230 -0.5638455977133032 0.1898792741376465 -0.5617178284177230 
0.03145554828858500 0.3665693454796072 -0.07272038784519891 -0.1729982276151032 -0.4195471043406706 -0.3915038908204584 -0.1019655384263054 0.3525640330576002 -0.1425814409052664 0.5109693536621669 
-0.02727816481306808 -0.1937134424245311 -0.4262573963739957 0.2952659149525770 0.8238282965305944 -0.06248653659722359 0.2561797357162228 0.2486462885461066 0.05257892700718019 -0.1593598611401768 
0.2962776128050280 0.08243363301451001 -0.8429472501153799 -0.1507727906737137 -0.3808563496981097 -0.5451159408173882 -0.1961634760019469 0.2472546450825987 -0.3289443567043652 -0.2380520354891275 
-0.02118969800199894 0.2227220296768003 -0.06698904682664810 -0.6607959421199557 -0.3804646109473184 -0.2760489564122733 0.4224895181343519 -0.4400942665548027 -0.01925826368739340 -0.2706247294197722 
0.4773483563577855 0.2157839403589498 0.3662092921488137 0.08353102347219063 0.2834074417979431 -0.2092458569077174 0.7830279011250257 0.9753956591346593 0.5903623910531307 0.8134952518793893 
-0.7210043431855455 0.4560498125190661 0.2549816317887806 0.3263435831692131 0.5417315913737198 0.3372534440620460 0.1961733323982149 0.2962105739091206 0.07089020659280536 0.09347281934247503 
0.6811442048931078 -0.4983627231317555 -1.004780615399885 0.1052823921152722 0.01170804463510497 -0.1689691759864345 -1.051162269652456 -0.2885087082561716 -0.4244263596118248 -1.024857309400091 
0.1878774785058938 0.2246294273504287 -0.2194377030895295 0.3358824783926119 0.5082291248798031 -0.7301535358378993 -0.6139700927221033 -0.6086896603709949 -0.5127774494860344 -0.6144931060571089 
0.4586588040079406 -0.1347378447265793 -1.001992440717405 -0.8336378324974879 0.2795083024046172 -0.1186280467413921 0.3675772895219527 -0.2330770515381983 -0.5860925478631389 -0.07148446303069952 
-0.03699662054611273 -0.5541992258678362 0.2010862029998354 -0.04260413213645214 -0.4076831818889710 0.3163806705115951 -0.1494610614963801 -0.5701296784083832 0.1261006292124987 -1.008992796612854 
0.4140727271807198 0.3426607909970826 -0.5975885438726092 -0.2900170767535124 0.2654691381141382 -1.427257061403567 -0.7612651784589459 -0.3452936835725919 -0.07394505097747160 -0.5154967791809500 
0.1404424093884784 -0.001234790854807533 -0.1975067386812063 -0.3265258346764776 -0.5516021628955452 0.2453234587689802 -0.1135522657573698 -0.1516306205721855 0.2972127892748617 0.7242374171839155 
0.2697794883732732 0.4043347363281063 0.3359592827410161 -0.009773282883805448 -0.5458379257556913 -0.1852570291038912 0.2779594826614315 -4.715203103519898e-05 0.3537757622313885 -0.3218128571418497 
-0.1528059364801849 0.1121452490843444 0.8944533740658505 -0.6406969169413200 0.2661847207714551 -0.9403005250831491 -0.2951007066284694 0.008014118090611020 -0.2873017839291007 0.2003079368547838 
0.3714190474458958 -0.2207607748373185 -0.3362504515821971 -0.5914193214469134 0.1570234712462752 0.7793251968388756 -0.3553827367924035 0.8651276739979575 -0.09510741953024777 -0.09934345419085940 
0.1868686866099787 -0.08330726878117155 -0.08248929322650929 -0.4233191094673324 -0.4756293416163557 1.420222785041649 0.4541694211015604 0.6559966390230568 0.4956807014839211 0.5903614946469635 
0.1999327419763529 0.2901143005203639 0.1450320660033549 1.249921791451794 0.03906793806735649 -0.3818062874426028 0.7823996690701522 0.1316775732570009 0.3959882543070841 0.1569309149883455 
-0.4334469762625926 -0.6472148614958272 -0.04822148687372251 0.2257932683101761 -0.03667814485856107 0.1026928114519180 -0.4130834562011053 -0.2064473816254224 -0.7096935590735827 -0.3302724447499198 
0.5619232247261742 -0.9092937421091956 -0.1512128478047670 0.6562060613746363 -0.06318565434716988 -0.6634098903901758 0.04331634778080627 0.4425199201490368 -0.04591595546769003 -0.1041984069039940 
-0.02034498199202248 -0.3793810864698016 0.6946910467009151 -0.8796979108922309 -0.4825449435497352 0.1599141424572438 -0.4913241698487833 -0.6021192303356401 0.4042518859401021 -0.7144203336191817 
-0.3205396954685028 0.4275953095062092 -0.2134538743272950 -0.7599018103117879 -0.6180695546353244 -0.1736795410837115 -0.8646718584606179 -0.6180516080835230 -0.3386417164393572 -0.1197147745950695 
-0.4225034451881786 0.9343673478185938 0.006920421774799378 0.3850148201290111 -0.3256554498509300 -0.5864766826126557 0.1493080893667528 0.2104660799356071 0.6935433493600758 0.05525606849646669 
0.2887719180352857 0.3269556105294670 -0.1798848209737285 -0.2822015896358518 -0.3053557685466065 0.3485739562857748 0.2506962332190423 -0.3335141007527568 -0.3639179047059790 -0.4942273140121243 
0.2129068926607855 -0.9537595935070796 1.425391498589292 -0.7674482059748591 0.08220242936564090 0.3653573671771569 0.01009647883706928 -0.1106797918225651 0.2428455078499475 0.2226856225830069 
0.2811755331400490 0.2292392232211287 -0.4069932175580447 0.4504413747695678 -0.6778972437038895 -0.5511956238916640 -0.08740503199999827 -0.3370160161547496 -0.05255695592198158 0.2214884892130591 
-0.7644128625462462 0.3449589418257876 -0.2356057937159648 1.131381005119369 -0.5025287003176154 0.5579525097426056 0.007526825141920554 0.5189173727629826 0.9446913930481191 0.2205337103750672 
0.1122840927584661 0.06362868191210386 -1.023549709773931 0.4086370363477543 -0.3063913043951468 -0.08152992437294686 -0.2122588809327008 0.08696241792057866 -0.3194666437624079 -0.6397168008449649 
-0.3030998659035187 0.03198754389061058 -0.3678581062983564 0.7233160050147345 0.1068810613947560 0.2565339734116830 -0.4366402102582846 -0.8976287952055652 0.3124083641842939 -0.5172529746700179 
-0.06251791960173425 0.6485311299725731 0.5002767419953240 -0.2551857390876162 -1.444361670043917 0.6383688513209226 -0.1820866005334630 -0.4409979323306359 -0.4390002906811437 -0.08637422888028601 
0.2577331247292254 -0.7335334767885476 0.1883377796837467 0.3432210157440349 0.5250758411038251 -0.08150571526657376 -0.2365282916010428 0.3629085537770286 -0.2261274316245011 0.1426451046124375 
0.1697245550770736 -0.4252880740306665 0.9123799493613193 0.03273030377054746 -1.039104020700093 -0.1493716626575469 -0.07480284518676714 -0.04180772450895374 -0.2667586843638168 0.2557484551713582 
0.3402105887615328 -0.03875652601563283 0.09671741648138908 0.3616924044404356 -0.4196003887799463 -0.3601693052121862 0.4374130570639164 -0.2715334916525271 -0.06595564258074828 0.8055811633347950 
-0.03832692522229637 0.4222786833561171 -0.03595501646010346 -0.1209617156329341 -0.07490219297108816 -0.7985618217898387 -0.3478799645982781 0.4701013838193060 0.07180104142772861 -0.3802979989716865 
0.7971946321258254 0.3051917603407365 -0.2303357842181709 -0.2962341961928090 -0.1004055583553077 -1.251391730503152 -0.1583910150575257 -0.6705492742172798 0.08985402526741822 -0.6202168222434878 
-0.02653882462285901 -0.2072301992570881 -0.06115704412761058 -0.05568405745906522 -0.08250727659286931 0.05915475186354371 -0.3710793156752200 -0.4630212093242542 -0.6068728425440009 -0.6601365341311534 
0.4394370049658987 -0.3375433633154308 0.1426508719177047 -0.2030033972766399 0.9377341974915584 -0.02582565053817756 0.1258170731237709 -0.05121238254397246 0.1386744426294223 -0.5256582452954905 
-0.09406032769042184 -0.3709976797947674 0.6566622140226813 0.5962947124096443 0.4001165147221988 -0.6128579417779462 0.06196433107953286 0.4381464239911737 -0.001393620616861486 0.7319236630620290 
0.9000462861670944 0.2904177468507704 -1.217924713037009 0.02129961034846510 -0.1331343625912345 0.4007562025479836 -0.04328307175509332 0.1807839080459816 -0.05050465281909007 0.02185651488918444 
-0.4479045084264460 0.5263373649187052 -0.4401445607921963 -0.2428185193815949 0.4618987019022304 -0.7706314254757550 -0.1162493756214730 -0.09609201090335474 0.1605485026211392 0.3222580264130452 
0.07770854257486486 0.1316359280594860 0.4183840261747160 0.09729856732225000 0.2399465168333871 -0.8460257502321047 0.1844297093161197 0.5478599636180161 0.08395104268261021 0.01401891113829269 
-0.2886833076482693 -0.1065574821356079 0.1248634130949402 0.03719408346909157 0.2864075679185317 0.2849914838177812 1.071254117283116 0.3598283231720896 0.2531565279225688 0.1372626250929039 
-0.2927490783070910 0.2073468069362748 -0.2034843624604089 -0.2662319867061471 0.06848872407409991 0.2072282372091612 0.3915533096691328 0.4004050038859933 1.019540558534489 0.3189874376670214 
0.2105578771616538 -0.5559401747352744 0.5589277274118246 -0.2783874707412620 -0.6040850557222230 0.6198699982169731 -0.2078824770278276 0.07998430226238865 0.2078039941944113 0.2675723314693428 
0.1668392641937499 0.4822332967335341 -0.1258498378331155 1.034091073171782 0.2297745735671058 -0.5425963143358906 -0.1462782644227044 -0.3952710028293599 -0.9708196036619158 -0.2982503374728419 
-0.3933288823050711 -0.1751276270549862 -0.7517895155439661 -0.8314709969739560 0.4389151387442576 -0.4300844299525017 0.4584666307508444 0.4652803246194893 0.4957356441769235 -0.1166801359593784 
-0.1734982640623793 0.9522279137191779 -0.4531562201312652 0.0001482124989132694 -0.1709415795129580 0.3115600498029231 -0.1343764192639636 0.6023402232948403 0.1177413767120397 -0.2202427467326207 
0.3510402209478884 0.4357918540403447 -0.3262173999483280 0.6042092558633243 -0.2647029341043002 -0.6634715118871517 -0.2264847964547150 -0.08463656269241598 -0.03467279087850303 -0.1530026155444397 
0.05339447030235103 -0.03576556516473781 0.2316058791821805 0.4037971005244967 -0.4749203649430713 0.6099972089737552 -0.03403144119305551 -0.2621362114739214 0.2171418559454884 0.01361699532973320 
0.5987000245389476 -0.07095988894137581 -0.9893678104227672 -1.494136564060092 -0.6933531806952223 -0.4103454213954272 -0.6158709118093955 -0.1224055171769391 -0.5029601266068706 -0.7869289571877521 
0.5792307212491469 -0.2027473433247519 0.2515198059290941 -0.7268844140620326 0.05259471986940793 -0.1901616220946044 -0.7464880231965502 -0.5470254077734196 0.2689039375808436 -0.09324860629821005 
-0.04867558639778426 -0.04573613268998878 0.02699271385958371 0.3523350135750007 0.3965318307066968 1.553223820056084 0.1663644268056045 -0.2166877185867093 -0.4651802462145918 -0.5873428223939525 
-0.4571014208621684 0.03976594143565738 0.1683647184804700 -0.04390977165317429 0.5689900753001144 0.2754748309758832 -0.4789853020326580 -0.4933258419290311 -0.6248077756032613 -0.6502030994784086 
0.5947200755020154 -0.5605497296581671 -0.2484750255823324 -0.1745676185579676 0.2969185864018788 -0.4418097383190525 0.6923433217866851 0.1763031572212863 0.2790367939685497 0.1189373780213032 
0.6074140024561425 -0.5871197640195279 0.1408034746489786 0.03194573180069727 -0.4518906933787846 0.4468316667351211 -0.4573206537154902 0.3351999652285824 -0.1941163371790170 -0.2128839457738286 
0.3429134523483434 -0.4389361313362319 -0.4754889929835713 0.2810410322653354 0.08983709736071636 0.1441706695964208 0.4081792316702135 -0.005595442229460893 0.4543544711115189 -0.7561179726257528 
-0.01468240724116440 -0.1883401993120857 0.9426581965806365 0.009449309766424467 -0.06245176816351865 -0.4155857987381121 0.4292358965967039 0.2117369739935085 0.6045863548534325 0.1505123405600637 
0.03149312378848315 0.3566960193672132 -0.8795028231061759 -0.1274573480116749 0.2861044681364948 0.06065747845199013 0.4006311128355521 0.4053699585206732 0.3083171100634819 0.2041943938930782 
-1.057321493974592 0.8919078261167405 0.06356245523393268 -0.3225150439996586 0.9337911220183392 0.4004904069801349 0.01429041263735352 0.7256945885034590 -0.08428424095371363 0.09258105797282175 
-0.5469364995961142 0.04737114470936418 0.5658828577579875 -0.4217541488189777 -0.2193173841559422 0.5114495493489980 -0.08841752788308663 -0.5237820752848912 0.7788246897332572 -0.4463275967861388 
-0.2784494542063264 -0.8743444313730977 0.6390882717695088 -0.5251053260562060 1.081672345692096 -0.9818978000806331 -0.1971003790514636 0.1543811768405519 0.1863447828043654 -0.7066516343877746 
0.5710607414822310 0.08926932753262702 -0.6338694137931257 -0.7260913124659768 0.03706790907676900 0.1136909483984905 -0.1975632829267345 0.7671866869050202 -0.07013391195593590 0.2734698863990417 
-0.4230154539525617 0.6050321238912633 0.2505470774920936 0.2861597252675245 0.3028525852110010 -0.7331690628820514 0.4546713106066825 0.8121590808360825 0.1143863210030189 0.0007122634498190615 
0.2271297729987688 -0.3883159069596708 0.3111200613532235 -0.1010835070954577 0.8330703309965167 0.4849277090288908 0.005106055986305774 -0.4252607575125649 -0.1709386396589626 -0.3764672308688007 
0.7719140512325854 0.4441763032504690 -0.6908768430860995 -0.4529917813694748 -0.1174438319436516 0.2285183899343748 0.05205131240387299 -0.3268331407078419 -0.1777886258554070 0.2680920470550345 
0.01087213507714327 0.2020311037479162 -0.05976821333436508 0.7596730005856521 -0.2544646396920755 0.08296980511762243 0.06032087194408734 0.2543772349656215 0.4089898703326598 -0.03403318045867013 
0.03289752589956277 -0.7876813415011008 0.9068809456951081 0.4213896674210351 0.3138677673230895 -0.4672941749527020 0.1520405029351942 0.3014521746807162 0.4303630960675900 0.05627085342846084 
0.6200766780776411 -0.4811536063126478 0.1611866671242225 0.3060445771846879 -0.7580504258996221 0.3194571387580609 -0.3981720753136879 -0.5357756433469607 -0.001561973951895393 -0.1690135641893306 
-0.6369045319061124 0.03809272894923058 -0.1372447088325166 0.04934924506867637 0.4686519609153242 0.5257852050338057 -0.02359019304761240 -0.5212129620424044 -0.1376916922759224 0.2190308216848103 
-0.7958027555731475 0.6878605926760631 -0.3256199932162966 0.4295774008601219 0.1982372950837762 0.7557045028392337 -0.2611251815450098 0.3202734931673263 0.4772041660933192 -0.1163259420300912 
0.5234150348737611 -0.1725635366241821 -0.5889514670993647 0.1658493844692659 -0.3389150338667850 -0.5729084009557862 0.1882315501379360 -0.04865952885514301 -0.7421851322888408 -0.7365976621037359 
-0.1004467572974690 0.4750742690725508 -0.6748491725430538 -1.103700212777276 0.7220535870871110 -0.05598433049448337 -0.4515763537718798 0.1616971587953129 -0.5525830182382997 -0.01586070170516382 
0.1972610452618066 0.04921920497733368 0.3802731159401578 -1.115154633724868 0.2502799542040955 0.5677831783106835 0.09088832635879024 -0.09197496990515817 0.5421384130886282 -0.3094286359431450 
0.5089310764469387 0.07287619522612596 0.3307161637769764 -0.3614353705047747 -0.7259085187554349 0.1671456791207985 0.3642598587713433 -0.03769594932932980 0.04721620258416338 0.2596840691953761 
0.2038710765120899 -0.6516484927764459 -0.3760906977678571 -0.2197971947470471 1.156348224610760 -0.8854405411871612 -0.3040904374093058 0.3219463852263580 0.2861994605618357 -0.03467767584341459 
0.3408047216394211 0.01442872194400053 0.4990642596620699 0.3675450726998312 -1.488962959044386 0.01765365888814863 0.1424019151646477 -0.2844527933594535 -0.05003646951031644 -0.4183313339246686 
-0.3258191509195640 0.4469787813153529 -0.3234173062508283 0.2173551401514910 -0.9138624747442424 -0.6801859453108564 -0.1037857192327410 -0.1928028398863262 -0.2024501089265751 -0.2869330084625830 
0.8141889891122648 -1.286163985417209 -0.7927901990512612 0.2887591518443685 0.8784954524507456 0.7975341863986788 -0.1717582896656992 0.2744523643448412 0.04004652482034633 -0.05411948218171328 
0.5120936766486207 0.5024414849138124 -0.4483654022637911 -0.5616624852617149 -0.5883190624532786 0.04425252134025686 0.4267820279766734 -0.1470564240035613 0.9261445090775474 0.4797701691481079 
-0.7059175818810693 0.9959877409367782 0.1500377598113513 0.1052196387413558 -0.3258465937277018 0.2813912543731097 -0.6562587016314361 -0.01921837807059696 0.2220044255319414 -0.5959226162101529 
-0.4325951754361073 0.2180624790217009 0.4999348802493214 -0.1352910460377852 0.9872740005482882 -0.08640313123610607 -0.2823974502388226 0.3557577236319694 -0.2252231277823604 -0.05683854411608350 
-1.088551781295598 -0.1147765310058701 0.1557412247722728 -0.09952824295311788 0.09875673281727444 -0.4553673329521683 -0.5637838302454039 -0.2478174585011473 0.3423967862985536 -0.3780505302501385 
0.1525532898837860 0.4850067842167037 -0.08221796275023020 0.2013774769682313 0.3570643200803749 -0.8884842852879373 -0.07437751527106766 -0.06081875538163164 -0.2567524120631774 0.4443987055269393 
0.1346060039230741 -0.1162672712902831 0.4701942938275965 -0.04835855000110613 0.3691910291278051 -0.5592219495030222 -0.1173611190752467 0.2070482395583310 -0.3064096268054590 -0.1450625689277386 
0.1991432724110878 -0.1295403530617551 -0.5895247991757385 0.6464071094975432 -1.120057206859436 0.08909908413904857 -0.2452825346606867 -0.3880692963777208 0.08091523856553182 -0.5340713502189250 
0.3348495308720063 0.1029130896331561 -0.2128210472532692 0.1051074551576058 0.1758013779572986 -0.7859193290867695 0.09410414211728780 0.09776293973829658 0.3317544906116495 0.01648450807357417 
0.08328122781647651 -0.9519927031862938 -0.05095434706636171 -0.04277388508027216 1.103315589359407 0.2964282466182088 0.4689822679346264 0.1454723802442742 -0.1962467516391772 -0.02571354350927542 
0.1867153010287170 0.5335776474209254 -0.7957970223034188 0.8726837720357802 -0.4557854932242224 0.1638949770147170 0.3208300233820703 -0.2579823664197561 0.3065958422436090 0.8961698607323688 
0.08972403618474042 -1.181028482011524 0.2378622565923859 0.4097368965021906 0.9668761277031994 0.9531717103167199 0.08645919399902940 0.05913263874302750 0.1520290422125448 0.3426160882247185 
0.06908238044738200 -0.1502998161481644 0.1360669173578268 -0.3198748180728960 0.09537986899273718 1.801434197797434 0.05212197509558824 0.01304318695916847 0.02938993056846768 0.5662451700041873 
-0.01352073539824339 0.03625733712057509 0.4145726792968502 0.6503224430982160 0.7701091826123362 -0.2843265749260103 0.5726132011381174 0.3869541592235955 0.3215450670333775 0.2084251822960015 
0.4121092299103014 0.7242239563693478 -0.7783938609649037 0.2813482659326766 -0.7108886128489479 0.09808232275226458 -0.5003018732774612 -0.2677328953971103 0.1198324503315024 -0.03121314730022239 
-0.4065999379552489 0.08179601781885965 -0.2355071281178955 -0.3159756149917994 -0.2613463189922096 0.1212825790753498 -0.3751215315964481 0.1353570730036215 -0.8219966124691311 -0.05339365832916870 
-0.9005282227397451 0.08151130706764007 0.1232232680978557 -0.1943175281482150 -0.3448630406346398 0.1041679190781988 -0.1320982483605859 -0.2908433928090530 0.1687945273258033 -0.05305493106345004 
-0.5072618367799461 -0.5819986058491495 1.040036864809510 0.7143865926257826 -0.3383296385493014 0.4538935056628217 0.6801185886029409 0.4385989477868952 -0.3901775638181267 0.2674785657857930 
0.2170686939984475 0.4662701118641204 -0.4191240371380287 0.09483828737697920 -0.4708043683971893 0.08455065282274540 0.09237884870675155 -0.04852235643403528 0.2225426894174300 0.09289171116893774 
-0.2813501096655674 -0.3770902076530791 0.08702126444383598 0.1043867716725981 0.7250344307177861 0.7577989817807237 0.1168038060675207 0.6753007312571225 -0.09978656645115850 0.2461134841392866 
-0.9019653637143465 0.9309607689948532 0.6015237338918554 -1.299742589522026 0.04292429789254311 0.03139180304358928 -0.2664003986252997 -0.03453489548266511 -0.1853991345421795 -0.3842245033379729 
-0.1432745841348524 0.5285227051413761 -0.7732332762967942 0.6549875487377226 0.01647718671532376 0.6151047086577672 0.09038072310023461 0.3653541384508754 0.7015528356171828 0.6023237296682872 
0.5914702857902117 -0.8836073478255007 0.08365403141682975 0.2337814962358258 0.1171236547444723 0.5544978896073632 0.01167080004545822 -0.1575059937445010 -0.08528183476702325 -0.07530310724918363 
0.1009427609210348 0.01893417580515461 -0.4073037349508467 -0.6341449084695969 0.3322279724610329 0.5366620914374630 0.4557420236471936 -0.1435444011019120 0.01764056795106698 0.1716145229469036 
-0.5129844016771785 0.7183141779022283 -0.1107339207240800 0.2737316587066208 0.8900806944871482 -0.3759455147347992 0.3273239350382347 -0.1534979588169977 0.1299589158843207 0.3538287846948602 
-0.2826460957284282 0.1944305131059015 0.5706425251298013 0.8594456456606099 0.5295883886644505 -0.1145377470977509 0.3277105866985523 0.07668505366553027 -0.1933497696191260 -0.3851650633693348 
-0.3685414119671751 -0.3839207797953036 -0.1577392658351627 0.5247081400158874 0.3619731049893430 0.2172992190363693 -0.2896139545516835 0.1200254391049227 -0.1742737800095240 -0.2263415561707835 
0.9420569389828835 0.7191799997677158 -0.2442158999346895 -0.4506430228896656 -0.4288814496036670 -0.1100330425000000 0.6484903743732204 0.5520376478252139 0.4931589536619930 0.5986427349232659 
0.3098947610882720 -1.032503643747797 0.1169402999985009 0.9756432872755859 0.4959933071823462 -0.01985514771898098 0.03673155340142165 0.02610584552201589 0.3000900483046137 -0.1082072811204171 
-0.7207720273024205 0.2610824883438991 -0.1913578156570651 0.4481332248129918 0.2304315860046648 -0.1564651989818246 -0.01619917330770472 0.4028164471422436 0.5983569819057851 -0.08152482043050921 
-0.07434591728479930 0.4087177128315229 -0.8387821171395153 -0.5526095810526567 -0.6723905261962007 -0.8534189221949982 -0.2605184176515294 -0.4439270099973472 -0.3937594614976409 -0.1615064124426517 
0.05648963200738157 0.1599600046918042 0.07959441495445603 0.2268005050767568 0.3527945031374193 0.3805349887964663 0.4435327869775703 -0.6981282292897849 0.3422886149894998 0.6887305957728528 
-0.08177092613566081 -0.1507684761914308 0.6200147571268135 0.5055261742600261 0.3857161788836438 -0.09310850506744583 0.2063166891054839 0.01336079364216037 0.1116847596617467 0.6575625815434185 
-0.2099863379442796 -0.2170259861122792 -0.2448352257129211 -0.2319723593360519 0.3750092517242038 -0.05670542704667360 -0.1517036766981397 0.3288164044162811 -0.02298047800977826 0.1843929217329672 
-0.7755766386245639 0.05823859405328839 0.4775226369280565 0.3519290129327877 1.235744932916724 0.7053076618942433 0.3861904431086132 0.4199639523841337 0.9692657214403533 0.2485369130052856 
0.1027835525386999 0.2694691724994730 -0.6494880714239955 0.7680441156198405 -0.1591886883278791 0.02502273435853729 0.2602278346783459 0.2846894446405595 0.3464556690472880 0.1040137574998154 
-0.5049895626097461 -0.03400479587211720 0.2535214642448835 0.1028413309127962 1.040185243297040 -0.2680845091632927 -0.09164008327383737 -0.3965081530503848 -0.8098076065602059 0.2491373559207439 
0.1249408790887235 -0.2975617374693187 -0.2063305479688860 -0.3157875966675952 0.2451521724329136 0.5014244853664955 0.2004049658303111 0.2285019405612144 -0.4700113738350832 -0.4516083261208515 
-0.04195545544516509 0.03166616462539242 0.7564821170948569 0.3474929740054596 -0.2131505340775989 0.3078114897085432 -0.5908199257546028 -0.4637933929542915 -0.3193215005282607 -0.06650646587098888 
-0.5204303814318223 0.4039398597489636 0.1296241306068283 0.8046881345819682 -0.3711452748019344 -0.7084875785449734 0.2815076425403064 0.2077591752796651 0.9330589467200835 -0.3078054284009215 
-0.02944022308070369 -0.05214121091825943 -0.3003881665217256 0.4777640576531056 0.4094506068779793 0.09493315037149999 0.3273922292872322 0.5881238324468090 0.1851288535613719 0.08892999608256971 
-0.09205471316647411 0.5259112020093171 -0.4464078318010097 0.7161200375764600 -0.1556798008106279 -0.5256564184970661 0.2304780718664750 -0.3844181547928955 -0.1719420546298860 0.2286248073734310 
-0.3853907960255306 -0.3441946126838691 0.5646036600857111 -0.7870843919649757 -0.2744825160283206 0.1042706539827136 0.07843556113812168 -0.3790484109488362 0.05728767219721777 -0.2888924860611513 
-0.2543383897807815 -0.1530308153715966 -0.3817680047697452 -0.3486320421404173 0.4003810338129509 -1.186894445866992 0.2172983218251295 0.3254236133195897 -0.5988607430834925 -0.02821930601516994 
-0.3807638641035691 -0.6167577739387508 -0.2927723651282040 0.4192473123972728 0.4696085934988941 0.4255089793034329 0.03054162052879533 0.2409330249453833 0.4422334280003648 -0.06091740598337180 
0.5540046347517267 -1.017367723366610 0.5302037555471867 -0.5043680511048341 1.163753006611064 0.01952963519870693 -0.3326761567964235 0.1983769415075497 0.1203012199156548 -0.02915355887960197 
0.3412242427474077 0.07152191509308430 -0.09409765692776079 -0.5584577676755041 -0.6416548473828075 0.7133246151333179 -0.2066692985430140 -0.1499617099894441 0.1940212299323055 0.2801190703206495 
-0.09923685010035097 -0.1785528595593494 0.3823759139515173 -0.5425121433915522 0.2859987828824963 0.1495898229936985 0.2147067301881454 0.04789851067052947 0.1509187134498556 0.005341682456869744 
0.6546097566240423 -0.09784273518150652 -0.02169072725636153 1.371956915227882 -0.07305323703812290 0.2160043907336592 0.6533354998605525 0.2951178920546772 0.6020483281391108 -0.07485986462826152 
0.8229815758630734 -0.3563672407527490 -0.5885449389682962 0.5808074557721605 -0.09924717176942696 -0.9076677595468259 -0.6286220611326915 -0.7518715033615242 -0.2307923182131597 -0.6937664380105800 
-0.1050575591994775 0.3325596719091690 -0.3395999695823652 -0.06344759124987721 0.9449870500676330 -0.3036496041118738 0.1522177036995750 -0.3292080876846295 -0.4302753755469195 -0.7287886602703891 
0.7060575915881253 -0.6510491614947381 0.4186572701232703 0.8938681297195333 -0.08272512488695292 -0.4958995393179941 0.2484606603467672 0.1759864533601220 0.3401030102462227 0.3964505147338139 
0.1309308093876183 -0.04296741272507867 -0.5241444952169585 0.04698921172339970 0.01712592619871685 -0.1583190747032064 -0.2114813439678714 -0.08410664794456300 -0.2092305935995039 0.3836615819378908 
-0.1115971208091303 0.3410312171039886 -0.01110047325925441 0.3826738086793806 -0.2749775985243435 0.4189794556958493 0.3851593405848431 0.4501266511312499 1.117783227445486 0.07514704915159211 
-0.5618432956586747 -0.2685700411458620 0.6852777501285221 -0.4152514320566667 -0.07248247705247021 -0.02881692722113523 -0.3429654741772473 -0.2451558226233388 0.1445190780245252 -0.1754768365106967 
-0.1605472510717771 -0.7236138954502201 -0.3443782796912250 -0.2889720840828117 0.8341989075382430 0.3632838643821305 0.2611004209056473 -0.2439025879518047 -0.7961991839523350 -0.3502165071536723 
-0.09834182726584850 0.006296130639665275 0.4752223311275036 0.2545193208612195 0.1455104293150893 0.2493674002135561 -0.1681522998561233 -0.2119655122072097 0.2581041985661292 0.01429694328666073 
0.7846107049329775 0.07818040035296099 -0.5472312873823683 0.1774522034514558 0.1249557536524892 0.1193079071826872 0.1510507974022332 -0.03706625451879916 0.3727857576240174 0.1160091812862922 
-0.2909240995821072 0.3001371479109180 -0.04018296715987942 -0.7887302194867862 -0.5470537505189441 0.4178004245656287 -0.1203555609985100 0.2310805513975236 0.2477174126262646 0.1110025732717120 
-0.6573246764136562 0.5819905382746823 0.4653664777081004 -1.051842954256802 -0.2622504112633192 0.7983736962301874 0.2927925452996208 0.01633563897980154 0.2797024611783363 0.005322060240521159 
0.1918104064618889 -0.8547032198402024 0.5898446406953256 -0.04280329124384050 0.7840788234801352 -0.5992210498723224 -0.02092774019617790 -0.2297777044860765 -0.3989158922132488 -0.1423550106574942 
-0.3210305800068078 0.5658760674231544 -0.1730536733343265 0.2140454625249778 -0.6812463766249720 -0.4311530996775240 -0.09138691139640222 0.1533631651254542 -0.1791287307774865 -0.3437008667125241 
0.3934088679786191 0.06916273163631884 -0.2225601112047302 -0.1377238654925857 -0.4577475061713440 -0.1310668818723912 0.2309388347811024 -0.4165786383904477 0.3630867698531604 0.2044994825653409 
-0.2328141794979391 -0.3437316626560041 0.3466998088237020 0.6404960971711777 0.7025452397109966 -0.1001403752289575 0.07674991198464490 0.2220940611683899 0.2286396205635057 0.4938125734585390 
0.2019094821079782 -0.04825095032681379 0.08845700255508764 0.06386521096460518 -0.2247964605167767 -0.04563129848562277 0.1726790695505390 0.03586934754197359 -0.03560780081893014 -0.2838711654111268 
-0.9610270938423399 0.2274755362523802 -0.5715685944237574 -0.1961648408303826 0.6438928565795997 0.5027671271139489 0.1813264940871477 0.06363321464967021 -0.08611497565464966 -0.6519602212251742 
0.5015916732984131 -0.3500991466045593 -1.022192013384151 0.1521386765424236 0.6434569263182315 0.1568871664558767 -0.1187901085054604 -0.2329628695951711 -0.2184813724592854 -0.1930328345820528 
-0.1843564340456314 0.04795767274378138 -0.2863593797039760 0.2631405061745412 0.03226882004597752 -0.5461842802058624 0.09157960982357768 -0.9948010037354523 -0.1115248441916376 -0.07126111406642505 
-0.1609883499644046 0.3430962311256990 -0.03683780977164147 -0.08765939617728571 0.2125667173195207 0.01552170958675966 0.03489613584024986 0.1059852298105062 0.2946288052327074 0.7065927019691326 
-0.2409252105190549 -0.9028659603325956 0.8267701922332062 -0.2598860822999382 -0.04727933973240510 -0.1921650981158412 -0.01943106487348510 0.04627943742584508 -0.2005967827435982 -0.2795379957140417 
0.2867852906868827 0.05791542150423611 0.05821395355092107 -0.1589337580403846 -0.6083687800947841 -0.5469992264747585 -0.5052765009180661 -0.7387128778863741 -0.6010574866541014 -1.181598071708872 
0.8950664269920212 -0.3240467786481587 -0.2254457298166137 0.2899454177629814 -0.01209261104772967 0.7142588719222582 -0.5675614901009458 -0.5645678413743432 -0.01124329808097950 -0.4163046242973074 
-0.04329770318825714 0.4364829169172935 -0.2099451590564349 0.7430534315382942 0.7571742504989254 -0.2581950904477675 0.3358791794374972 0.4198101322964817 0.6267668745198394 -0.1569447349053575 
-0.1492215463243254 0.6123377271156865 0.02725221936792888 -0.2392848861535444 -0.1964039648470070 0.3232297198246142 0.2147251391538863 0.3458427683572826 0.2764772768306024 0.5963536319176084 
0.4943986022689970 -0.2440571155312605 -0.3651239808251585 -0.2581340913156511 -0.2795223542341674 0.09071531947122737 0.2970449495473664 -0.4436898105711284 -0.3403981024451756 0.2399964686464841 
-1.118149804722207 0.5752640904318278 -0.5659229334810945 -0.4799692689500518 -0.05792918391923198 0.5110576326493816 -0.1109824406291739 0.2304118030005212 0.2265310379717361 0.08340727165939228 
-0.01192159287819058 0.1440101603984564 0.2724329544908538 -0.2279889383387486 -0.2274842540860377 -0.4340637358780148 0.2563472383002911 0.3963792884086450 0.2114173401400442 0.4616069714361294 
-0.5188009679676940 0.4126795107641731 0.3293515917550461 -0.09514145368474317 -0.4314090170661227 0.2576249277860647 0.001375530028438624 0.1237302511584971 1.169884424439200 0.1667898780207431 
-0.4000494719216032 1.234742144517425 -0.5591845777860811 -0.5825589586387323 -0.06810685858129018 -0.3140870291046603 -0.7906866349770719 -0.7172403048508803 -0.4445736035211657 -0.3288176195688957 
0.2481836154460027 -0.5669026910777029 -0.4675235267406260 -0.3484738985832375 0.3255976629130661 0.2161215655479626 0.3754981518737013 0.1833604829329715 0.7428007650971810 0.4820183819142589 
-0.05240339936359242 -0.3056724288404529 -0.4506424714595734 -0.2708815793532208 0.6697981218952636 0.05103365322833980 0.4929038735375888 0.1193291378652836 0.1152731807223019 -0.2317019671108578 
-0.06793923969509462 -0.8676202216989112 0.5682067650058534 -0.2227370844098624 0.4253488208149311 -0.3348609006157070 -0.1124979143629454 0.02532989452177961 0.3034881312691189 -0.2250674492909782 
0.1617173416237426 -0.3700686002935859 -0.08447686752300360 0.4376280348261354 -0.5530907787576069 -0.6377047020527143 -0.1592312251211911 -0.3942998321840229 0.01552567237154418 0.05522953644297012 
-0.1703235493236284 0.2186477499432857 0.3755792905805864 -0.7556280915016078 -0.1502426541874106 0.3236800707475641 0.1378782366326316 0.1874306601686048 -0.3028229816414467 -0.1174855429648369 
-0.2434321056847731 0.5524043982621223 -0.1412641069731803 -0.1164121793480945 -0.6956018442361089 -0.5271952309493224 -0.01172045273845061 0.2070322780157930 0.1082027613428225 -0.01768774192986240 
-0.2043196324873668 -0.07688843416976807 0.6023662785408000 0.8672047083809568 -0.005988285131379586 0.01286833001496079 0.1436846662161417 -0.1697203319807593 0.1326368217089267 -0.03533225242182661 
-0.6418738835127559 0.2495781532947754 0.3024445531827662 0.08916300102330729 -0.3071165301224597 0.2430551465057813 0.2660714397401690 0.01164576491332764 0.1360874247774302 0.1584486247780596 
0.1754444025546673 -0.1372106236160149 0.04917363862597440 0.2616156269305443 -0.08069594763135224 -0.9931361862349707 -0.2408836236992358 -0.03210523563799454 0.03138608498944661 0.05822830996504533 
0.3026346724489100 -0.2150587499454288 0.3346563509493847 0.6044570356535741 -0.1331793870742486 -0.3215072484926396 -0.3921877806867004 0.03054752512700232 -0.8968754918771122 -0.4989256134139486 
0.1903950277009799 -0.001979355180485185 0.9427751464730972 0.3217080783666618 -0.3495663409020349 -0.7055749308938621 -0.2164325349918193 -0.1296909614756747 0.4691872677722578 -0.04218164078951200 
-0.2138558618686491 0.05553413087479591 0.07637225470487470 -0.6179579556546970 0.2091547297585344 -0.1038268448904708 -0.2943006673627843 -0.2642590738205582 -0.1026940951952691 -0.4975554802291927 
0.5066493381239777 -0.5537346982162117 0.5152963638723707 0.6574855197269965 -0.2380830794409241 0.3792385682324762 1.086167788697930 0.09931196903847259 0.3790591214127634 -0.009906636708404071 
0.3672985382248651 0.3425197113792135 -0.9188848294704325 0.2671952448962475 -0.6319567786656817 -0.4515628263472761 -0.2082387426112045 -0.3541140837158593 -0.4385277318890097 -0.4833662301539557 
-0.09176461035067467 0.4504203035442255 -0.2932443361265856 0.7792141929472608 0.1617841847578091 -0.2388841777834634 0.1317420177721062 -0.03127329183465768 0.4595747549541637 0.1043370274752538 
0.1804281993950969 0.1148162213637679 -0.3158227179338263 -0.5874584710513678 -0.1871526850271186 0.1973493831780307 -0.02415488981549891 0.3454697429759440 -0.05427500089664345 -0.4334699770195110 
0.06375425785844595 -0.1585503844175361 0.5433667333015381 -0.3244625736791604 0.7115716793979239 -0.2568446009044240 0.1217565690577428 0.1894183925471554 -0.2778777951096678 -0.3579757500294112 
-0.4437365207923139 0.6525814525015020 -0.1755989710762990 -0.1527629882068756 0.8262361377676957 -0.3025738743410351 -0.2924616781302494 0.2089189617613856 -0.2380519296740083 -0.008579739502654280 
0.2862060878109902 0.1490704574189938 0.2423843442360965 -0.5531742211628923 0.4869140758799346 0.1956488906979981 0.1370305629594720 0.2901445041235055 0.4253968002588799 0.6720536370409113 
-0.6892602532277964 0.2981415640414365 -0.2365356849848466 -0.4449689812209853 0.02610512501038715 0.2190233076603953 -0.3044870897957272 0.2624377333373675 -0.5085286737315365 -0.3890231320297579 
0.07730007774680912 -0.08794372484912084 0.1226246298329604 -0.02797777935775960 -0.5389817985327965 0.1487045739839405 -0.08720794053931714 -0.5590128175528918 -0.02720649622959219 0.2376403824897883 
0.03336516382538517 -0.2353398598163572 -0.2771492263345126 0.5940915910302206 0.5882904197811000 -0.02800314694800243 0.1161845607260501 0.1523566362563412 -0.3057109874444452 0.06627374075566722 
-0.3216589736426557 0.2641722403567576 0.3265678732123767 -0.1596813549685575 -0.6605490428206515 -0.2309428343847881 0.2032602431584590 -0.2352895541044291 0.1357979823529903 0.2804658711761360 
0.1553011846533458 -0.1119499499209900 -0.3782064797173121 0.6394731754470767 -0.5403267275312611 1.088428557363448 -0.7393297264962394 -0.4993518061737858 -0.2505648547692671 0.08962304194583537 
0.5311306610246188 -0.4690189337141098 -0.02033797452654037 0.5567603708534559 0.2129504641831016 0.01026192114452064 0.1572723009722538 0.2049106324336003 0.8103972564149929 -0.1645045543862259 
0.4139388298780695 -0.5811137363535098 -0.1930165780890999 0.4778326841023264 -0.3483412883163634 -1.009780216347652 0.4060054464208749 -0.005064897669172837 -0.04331623133853450 0.08313808144887735 
0.1603562065331326 -0.6294237338132281 0.4542481668889937 0.4006626449950874 -0.5666900963051330 -0.1185454605384223 0.007595394025946179 0.03414518937934780 -0.2176871093843415 0.01928095867525405 
0.2965325127591865 0.02402977102375704 0.9373258459695182 -0.2369519741699104 -0.8720857143731386 0.1981352741745174 0.2476813811227707 -0.04296486356773909 -0.2974468375671366 -0.05424021836609987 
0.2787822257540642 -0.2951958065633136 -0.5792532458416629 0.0007679881947358812 0.4063192462800419 -0.3426761658186774 -0.2245508629450641 0.2191380414967478 -0.2116565423735729 -0.02814738321780147 
1.091723407091362 -0.5040221170686452 -0.3420835258749352 -0.4153326595798494 -0.6811911420772262 -1.209499994206643 -0.6749240903918328 -0.4260058390633804 -0.6611212888426854 -0.7491221295762000 
0.3243907947147185 -0.1336098985025023 0.1297467231570033 0.5501382179260075 -0.3941879375122073 -0.2959466765256041 -0.1915195816845545 0.5626309138963509 -0.2307601123289644 0.8081948349435872 
-1.002809791218515 -0.3858931918661676 1.267052307258334 -0.2558529811111235 0.08939053753991840 0.3932961847836688 -0.3180749524533174 -0.2466910047194144 0.01491539059729930 -0.01798083668532601 
-0.04686901484611680 0.01868623381364344 0.4369715534950642 -0.7122337319447489 0.2334920939275424 0.7902038918108634 0.07805999642917545 0.5141858661988195 0.3606452746762440 0.08759982162386185 
-0.09054607174189942 0.2191995601402088 0.1994351333809865 -0.5201125382663435 -0.1434949958483252 0.8267106148407406 0.1208576359937487 0.3892578843074840 0.2860064367250573 -0.4005867383350666 
-0.5831090614673087 -0.2060268757187406 -0.02226070353755193 0.3198532519165444 -0.2182011671604694 1.638957640863496 0.2177153421393969 0.3846046423102990 -0.3025113064080533 0.3371703501559747 
-0.7333094785054491 -0.001535649646608691 0.1246685202600464 0.1738930649846191 0.08293616722761815 0.8178190407372959 0.3151088382520947 -0.1106853028946425 -0.1986804352805002 0.5920432509093316 
0.2219315457703541 -0.1710192905723628 -0.3560095893610825 0.09473528784168235 -0.6912547522751255 0.6150357807985749 0.1871895474300931 -0.2817551049246068 0.1241291054817940 -0.2127250954223835 
-0.4773663513637258 -0.2367979923739662 0.3436481129837650 0.1946499896161287 0.2264113453352928 0.7631795510323943 -0.2168392942657599 0.3329107725205192 -0.1128126410699218 -0.3751622308507395 
-0.4396059528989167 -0.1191510783789780 -0.1710895577189082 -1.249902761639973 1.099057272167399 0.5979256676900947 -0.5718334159397194 -0.2361161954746851 -0.3739632582711249 0.3025529496405520 
-0.3877258396329567 0.7917681376294945 -0.7227199111392143 -0.3865921842526648 -0.6880882958221218 -0.2529209783951988 -0.05489050321463137 -0.3171436796037558 0.2201896525129284 -0.8127874182547968 
-0.09657694558449866 -0.1909618131922336 -0.7521198353933329 -0.07391850276265680 -0.7523374937039038 0.06958246945701589 -0.6852306457700136 -0.2021548774156179 -0.5660756447684707 -0.7234334840650325 
-0.4123872213229851 0.4677961158479822 0.2172157455198222 -0.4261449412293258 0.1237960359436720 0.7878177244224331 0.3241274639941754 -0.02716762364435366 -0.04545613963343417 0.4342628472886340 
-0.1881489516271030 -0.4290017891850020 -0.2497674992225470 0.7572555859531921 0.4269070141670427 0.5963436272510249 0.03451451675351725 -0.6466256399871823 0.4363629889465067 0.3965463753587668 
0.1196364487583963 0.4892921913897284 0.2608711694498353 0.01980053669801670 0.1120016674039078 -0.03801123375023299 0.3771908259775555 0.3956620733301707 0.3664950758130497 0.3201008634938330 
-1.203995807154912 0.4866272530493830 -0.1878427873341285 -0.7402113962101973 0.9540961105702130 0.7500582510983688 -0.1965551375792057 0.4659175338886296 -0.04427295374979005 0.09748272480268418 
1.249627587786585 -1.289501309710874 -0.1621796410515204 -0.8048728816057290 -0.3526430534159935 -0.3925198735574916 0.3688791234284755 -0.2911995857971735 -0.1572978017320589 -0.1614853770310459 
-0.8325468909054285 -0.3051145262202688 0.1372547143848185 0.1584033439459689 0.2771661313401228 -0.2848500484873028 -0.5412780892799312 0.5398264347929790 -0.1523868193191443 0.1783327540247884 
-0.2672965490902842 -0.1413002771217374 -0.2038462379830880 -0.2815132585279412 -0.07986807048979010 0.02010216141217686 -0.8962621663988267 0.1727745011809364 -0.05489736131957481 -0.2525936829341081 
0.7630426689681089 -0.4527938117646527 -0.5005415832524054 -0.09418046293807208 0.02442597003900851 -0.1540589190680654 -0.03094733075141741 0.1136866180752295 0.7755047862313982 0.3261341976515140 
-0.9519928433517911 0.6214490522863446 0.3120523364626960 0.009313788983649054 0.7165439557765141 -0.5630333476485048 -0.03698005713887799 -0.7247944307825015 -0.5386813982581021 -0.4712936841143885 
0.8551871176112059 -1.127267266775003 0.8668925130537652 -0.5980081668439913 0.2456213334208970 -0.2749944884258362 0.5376487602904648 0.6065080589410239 0.1759046892013223 0.06260620842697255 
0.1150096118596970 -0.4135179987378798 -0.1206583618196489 1.026539001183310 0.02315184806254070 1.158723165761916 0.4455242650430256 0.06729749017216093 0.2918137806313713 0.6942943710459143 
0.6960004293162760 -0.5523372156551554 0.6269228881660693 -0.3982984349165010 0.04898883503321883 -0.07342349120362639 -0.1992652427829997 -0.05799852641166715 0.2228936117519459 -0.1473717166790287 
0.3142694860171205 0.01770799517184363 0.1533256463336407 -0.3914810578879844 0.2970772014260221 -0.09660811729645500 0.6321539065224949 0.2072532800838333 0.4364298937380375 0.3008479218599167 
0.04013097256275452 -0.5764905629155339 -0.1433370103839968 -0.5632144571252092 0.1467180822466218 -0.8586928317048054 -0.3071172900622098 0.06248496186719189 0.3949357181229597 0.3987848020196195 
0.07058096695701100 1.038043790175009 -0.8927246882112584 -0.1575350326568563 0.5360934638007471 0.1143406487349873 0.3643758820333833 0.2272229286514924 -0.08279365887214630 -0.2782866965326763 
-0.3528635907449563 0.1455808413688637 -0.8759566802904710 -0.07880302733360682 1.597635602414827 -0.6318414501451382 0.1942858806506815 0.1244104399908411 -0.3515750513014570 -0.6399708678271007 
0.3047980772555558 -0.004971022569513201 -0.7625237987637035 0.5905130220149538 0.1463499408859417 -0.5335124070984576 -0.2752175788511831 -0.2627252922140981 0.3922512509956438 0.2437962198039714 
-0.06872129155537095 -0.7636689330754628 -0.01399707543285998 -0.5758169750453958 0.3510244553879823 0.3704688330700411 -0.03937663614868226 -0.3938374847514696 0.02857275975258973 0.4054949978736517 
-0.06450444930106417 -0.6694892599677118 0.8439896605435264 -0.5247931990447715 0.5205835233594219 -0.7869328499239340 -0.6425307416855456 -0.5058948224779103 -0.1100709387627036 0.1856110792045374 
-0.02802855483984552 0.6243473645268046 -0.1637973539502344 -0.1530060540518551 0.1383838731425401 0.2263967773344035 0.4335737268888881 0.4474432074208525 -0.1307727604236401 -0.1349065374722435 
0.4768693538725895 0.1115388842892904 0.7577683309414874 0.3677193883676720 -0.1485428611740931 0.7143532099540480 -0.03376663597246631 -0.1525093533685807 -0.07877689781264444 0.1279621113950158 
0.2942742213241274 -0.1019559149885496 -1.315564216335149 0.4155984387610461 -0.02946515183566870 0.04024738538923761 -0.4331648074238026 0.07119686456412497 -0.3907227981670259 -0.4728440287610745 
-0.5151564821640205 0.4460588088891200 -0.6963105911347499 0.4500437644586399 -0.4100814646099526 -0.4841471832615709 -0.1302822869201803 0.02534342648258219 -0.2512488062353708 -0.5503714737711525 
-0.2539760954516974 0.4087438189715960 -0.1794069759427027 -0.4315548460434961 -0.3188577427593740 -0.03738205065120267 -0.1051109332334017 0.09460186167658277 0.5924477337737770 -0.1239134140708705 
-0.5906760830312235 0.1263975076921940 0.9147378031513562 0.9829058309885003 0.1496995006829149 -0.1215078358019610 0.7685409792627328 -0.2502610171276055 0.4518017258041284 0.5503617594778270 
-0.05589566279055815 0.4047286691369912 -0.2408815719601231 -0.2121735559328109 0.6429634071384366 -0.7304118441427596 0.05282800853532988 -0.1877032549127307 0.07866542464332836 0.2694055867305706 
0.3541190162133861 0.3128300839878948 0.4466180279915079 0.2454817683380857 -0.4019678571931056 0.4680688942710664 0.09837836319532103 1.104104434563185 -0.02245317198129533 0.3340629189087837 
-0.1062324370423794 -0.4697520848612039 0.1358492077851069 0.7957519628867799 0.3636205710774046 -0.2561358756304391 -0.2904902051617226 -0.01665820661399915 -0.1766675837991056 0.03032634743962981 
0.007928606643475160 -0.1407509592793670 0.7607580252570797 -0.9055757323230985 0.3648688805959588 0.7219678235622862 -0.03808670330428043 0.003310885607708095 -0.05178745254111816 0.3608315715649519 
-0.3532704948382255 0.2972235102153720 0.2343915165366312 0.2597737683437266 -0.1887557343648073 0.6738576540287828 -0.2580807761782559 -0.1312552939286587 -0.2304014208121532 0.06332158440632017 
-0.2107996254426168 -0.2576321185103338 -0.4310553738968910 0.01380726929593308 0.1952488430112006 0.5088063479385665 0.07816020074749568 -0.4135455181996687 0.6476669731012479 -0.04141734695544851 
-0.1806259796064331 0.2020598751724660 0.1119827528028604 -0.4819445820691128 -0.05572474340086035 0.2989508940447440 0.5602726985151173 -0.3899659873214059 -0.1214417759704024 0.05574529857212721 
-0.02222773701862479 0.1019409422428830 0.3825748211937696 0.3415289728807615 -0.2767743289470934 0.02763359001878961 -0.1306540858140636 -0.3738433872787241 -0.3158459691366157 -0.2739271170046529 
0.2717688835833208 -0.5274505054399726 0.4231068915920141 0.2632699219931833 -0.4976011100347679 0.01941288399612470 0.1482021395430486 0.01087931955445779 0.2742243981460326 0.05272813683001527 
0.2794179866621564 0.1270411979378947 0.03806456863048570 0.2577532079043566 0.03325573771486613 -1.130002357901960 0.2211612970816482 -0.2091145953354500 0.4152153450120464 -0.09551000545252399 
-0.5824431426087389 -0.5553200689604814 -0.2232338697142735 0.3723878429784195 0.5728563239352416 0.4004821819161133 0.1536610027616276 -0.1502952498748677 -0.8319616423987819 -0.4104121481059386 
-0.5126679910198131 0.005595681769915245 -0.2514309797932078 -0.3463275467562405 0.4722643667290045 0.5240342282322990 0.2014527883755539 0.2257187026367966 -0.2522742244775151 -0.08143079466837452 
0.09179028299665740 -1.235811376915436 0.7037837620924774 0.8267850301686283 0.1239433613714649 0.05209557536427947 -0.01296719661299186 0.1789916522903368 -0.03549063887262289 0.01558331935977013 
0.8572341341044185 -0.5149948407540261 -0.2167270588248886 0.4437061961901181 -0.1374287350845462 0.1754284675487662 0.1725852105270055 0.6021433641731315 0.1430516101917271 0.009371477966238382 
1.176061820005162 -0.3096513072486296 -0.8425958092411628 -0.5528963022100821 -0.6577456880476595 0.3882920265573356 0.5290978466782409 0.04930653238819521 0.7076770351079901 0.002867949365909751 
0.7141810201355877 -0.7237903909708229 -0.4544525268228890 0.04839353798208018 0.08782040969075577 -0.1659061779024716 -0.07096818733457139 -0.3785548624596989 0.08459561823188595 0.01481244814526663 
0.8889758158666950 -0.05137252821547039 -0.6705034243712802 0.5174277542820087 0.6553428631833024 -0.3292228800905113 0.1530501792034962 0.4595301262061555 0.2179591458360241 0.6205398148632819 
-0.1558201045730800 -0.1470044257771671 -0.7060199688911033 -0.6048102897750033 -0.6561025294244074 0.1005579723446624 -0.4892197994380859 0.1865290488968679 -0.6357705333602989 -0.3957528454107441 
-0.09778898885643424 -0.1342547977242836 -0.1332500684828060 -0.4441489232576819 0.3454028156740071 -0.6581537527249953 -0.4113172630923035 -0.2493275007589904 -0.4131815471546513 -0.4758260627165069 
0.7822190223807477 -0.1973659259906014 0.5560797583685312 -1.086788995454242 -0.1105348522601580 0.8605120216767754 -0.2305142599080599 -0.1299538086924104 -0.5647344296581024 0.2386931584535765 
-0.3041156375626807 0.8595545652080283 -0.01033372717258942 0.4688396558999390 0.4543010676198554 0.5719733586732075 0.5791925880599282 0.4505421924704574 -0.2825892162862310 0.03214148001318903 
0.2391764324974345 -0.4714257413427478 0.2504899999799587 0.08058166903898886 -0.7431532916736080 0.5189178589211517 -0.1842470928572023 -0.2010611427008361 0.08858824654263396 -0.2623325768121016 
0.2374704831834214 -0.01251444903894929 -0.1089382742526367 0.2152349447104377 -0.8930826504686105 -0.8819097010575792 -0.7021364647589717 -0.2648389669958661 -0.5963118104378223 -0.4816072111827537 
0.3073377307884588 0.6061290942875377 -0.008679977349527093 0.01721162637050708 0.6320622190888036 0.1488484176568987 0.3110091216664430 0.4873810883623490 -0.4960347591481023 0.6126070723844982 
-0.3280559901573508 -0.6378301549959860 0.9052806425731025 -0.2203157241777584 -0.4589904567005783 -0.08113699680301731 -1.202989879545471 -0.1249590768368582 -0.1610156840969612 -0.3680883889951887 
0.5425997287137733 -1.450247146882693 0.6177111148812182 -0.1754811263455553 0.6332113597957794 -0.8913429514328100 0.04553400900308371 -0.2753961208797520 -0.5997325133885725 0.08667031062789393 
0.5663904854823046 -1.055524841949071 0.4059650203852036 -0.1066714126275799 0.7765242949650706 0.02204957482546609 -0.3971439209847874 -0.07760479149693532 -0.6286333170041095 -0.2968285682995205 
-0.08987620758559627 0.5847506226176375 -0.4193093015177127 0.4381391723563932 -0.3673064168722560 0.1252117805455949 0.3583566456961455 0.2824144184194910 -0.1581605351432173 0.2645786201778141 
-0.6502234410230990 0.5586622624279632 -0.6628320563117767 0.4491309093877294 0.8014480873251575 0.4411395272095095 0.07836527572327974 -0.5369509802094109 0.1313190208896095 0.5146122312204191 
0.7683796675653052 -0.4924760713305779 0.009857087828304370 -0.5803374520842633 -0.4699819007425284 -0.1499666271337557 0.1371643714600115 -0.2732896692907669 0.1254933151852058 -0.3902153318474219 
-0.5664367601889971 -0.8784927038166844 0.3036584432624874 0.2737777909911031 0.07882285164257406 0.03612138509933378 -0.3730944010760228 0.3893441290572003 -0.9665019949052593 -0.1428117209597734 
0.3350420856029357 -0.8857752984907221 -0.4052075952684896 -0.2401094367285163 0.7608735653762709 0.1483239251639096 0.1247597285560108 -0.2352909534863582 -0.1382829045241164 -0.03193474472433816 
0.09263760008578974 0.09537119274966911 -0.03136136396632520 -0.3368210755896828 0.3564999604930588 -0.1237074479253996 -0.1256457047058937 0.3147389718486320 -0.3475184936255935 -0.2480585284566028 
-0.7613299475661165 0.5953246346720871 -0.9575200998995667 0.2692814044372983 0.4552365745204512 -0.1846567644751374 -0.06278287571100775 0.6977604463942818 0.03899819980261309 0.2681622729492029 
-0.05994194128707868 0.1519907047612629 0.7575997485888151 0.2868640708020090 0.6444928657063991 -0.7231647054804600 -0.09025527916322067 0.2952902784257014 0.004983949309967663 0.1575946176427469 
-0.4300733393912530 0.5425431777624796 -0.2212066974462421 0.6947329202847367 -0.3525969911750097 0.5094730264934325 0.3893446865444521 0.5042029197830993 0.4075537558818768 0.09646118368228902 
-0.2018778226402075 -0.4002519263878401 -0.5140121481020600 -0.4220803974633690 1.085574792637393 0.4862033447923660 0.1007966726548731 -0.003071126196124879 -0.2993509195744728 -0.2774970201266754 
0.4026946091646191 0.6021288722450887 -1.195850420950806 -0.5016162510231987 0.1989625025575164 -0.6079800796767859 0.5343173802889328 0.08517705700395575 0.1136902482620136 0.4119747798957304 
-0.1649716202577733 0.1238478878901748 0.5928270995901186 -0.1776483710152264 -0.01473893795048688 -0.1578090418162458 0.007808760584076007 -0.5698691443341932 0.2679290492468483 0.03862723706386402 
-0.3046425280031844 -0.09330062521520166 0.6043746980482037 -0.5539159543341751 -0.7124385547307048 0.2542438101140420 -0.1960768885345945 0.3862097482374082 -0.3573091581486291 0.2171190144815574 
-0.04272892491046868 0.7972657207595544 -0.1102242511661643 -0.3304980645836438 -0.6072320354454447 -0.04789912935919847 0.1041302457594258 -0.05115450015585434 0.2631344966039209 0.4395420105827008 
-0.4703153590246413 0.3319888454849514 -0.4508088765883937 0.7525928092084591 0.2559588065091434 0.3881365178146345 0.5734142090588816 0.5682688301745158 0.1918483396278160 0.1349010357660756 
-0.8609012942103715 -0.2310512340841552 0.6334033011964916 -0.8928196382970776 0.7813935552278994 1.533905938538037 0.02994901238857772 0.2493396174600061 -0.1200939371166109 -0.02530174212850444 
-0.9506764514373567 0.1130270366914866 -0.09549429703838387 0.5966232269810189 0.9376946216663383 -0.1105125751198390 0.4298604548020610 -0.1179552258356428 -0.3520564280610063 -0.05436928405882004 
-0.2962851250481994 0.1053499492436306 -0.07413005463688326 0.6857409637151439 0.7671457051110182 -0.1063504872407615 -0.008409150760712030 0.06811284256401595 0.1238266904845936 0.4608980781219504 
0.08271382990216081 -0.8842231549942858 0.5094187719299418 -0.08779137631824889 -0.2906994513361880 0.3899043344508621 0.05278855657264425 -1.044336869754375 -0.009892977421817184 -0.07377609230031236 
-0.1481681756769431 0.5203218441181704 -0.1597321995533339 0.02013093105470493 -0.1536271478925596 -0.3143631062126990 -0.3815546231855452 0.4133769575162885 0.1860919271436152 -0.1290117673253399 
0.8414945313102147 -0.5965363480130776 -0.1268072591378721 0.3827195303854117 -0.1422881150309833 -0.7802687809511550 0.1855141375156311 -0.3440206692936088 -0.3488563614674595 0.06020165953418717 
-0.2271373492267962 -0.6646224631580503 0.9017676134704163 -1.023430531457917 0.3016384059294943 0.1444533330017603 -0.06324064413116112 -0.4102599647325200 -0.05109627902868966 -0.4947294330405788 
0.3107059911583668 0.1725890768776772 -0.08654778350997355 -1.028413423446161 0.09389363131180531 -0.6475073831387632 -0.3680704823431077 0.1232619299051698 0.2365494797108363 -0.3335728880592619 
-0.09095159687347597 0.3086572460156994 -0.7822524077651685 0.6694559720285420 0.01321926679769668 -0.2225602419531685 -0.07876680299614496 -0.1093420130920596 0.005286129793342770 0.1407954155017449 
-0.3325200956377807 0.2435390204218943 -0.3801748702623783 -0.1752260635317667 -0.5008271431753051 0.9100643362142838 -0.1357488389590341 -0.1814648206020614 -0.8825988771758937 -0.5308117727490531 
-0.1094131515236295 -0.08024062570771441 0.4966444048713094 0.03283377622442474 -0.3647420134152078 -0.008107889485655731 -0.01640729422435502 -0.01081777062155421 0.4239350928989858 0.2772300934038008 
0.6081419763180699 0.2627516189604259 -0.4105054429604595 0.1796386659230261 -0.6776174108301117 -0.1013001859564485 0.1530272769096052 0.5413509243422583 -0.1726960546310249 0.6468414158696758 
-0.08513884316316268 0.2737697752832910 0.6598688638869565 0.7154401649872019 0.5442398527775033 -0.1485847770121663 0.4728098834607712 0.4298659096783648 0.6738855149528857 0.2254614700165591 
-0.09555650341190883 0.4420205689963334 0.09660238545234802 0.2430041086327848 0.6360525444387475 0.1939810543006993 0.2359880020982707 0.9004505198932438 0.2138362891777665 0.2408315379765162 
0.04048684662248112 0.2037650068459527 -0.7346662028376797 0.4804374088031107 -0.2884783363404489 -0.4203383706989363 0.1069827758848328 -0.2380254405955684 -0.04911540136853842 -0.4371435083212760 
-0.4543134851636880 0.2976364823758437 0.4953206219355475 -0.8481960634389646 -0.8192839921766608 1.010751258168597 0.08655548115403089 0.2333967142158271 0.8519631640250388 0.01106136364138437 
-0.6181363346455607 -0.6409484091488109 -0.4870217644847404 0.04363142642184219 0.7131991305635540 -0.2992474244271052 0.06977748388714279 -0.1960979189940935 0.4029227830540972 0.06833729211014125 
0.4093832269775650 -1.088815459634953 0.7308779731543944 -0.02424953210048029 0.04703226369545829 0.9087760276941360 0.3052803456142838 -0.4442610681545717 -0.3751199507963358 0.07823303540277451 
-0.9627735503777213 0.1131550375394719 0.4940021472764272 -0.5447321635621162 0.7871301062988959 0.2109223295880824 0.1893895190601833 0.05991332968807219 0.2254201063869242 0.6645733780917230 
0.2240612479634400 -0.4742383939950347 -0.4313376296423156 0.06675148919788512 0.4113604610957873 -0.1257614590712608 -0.08851747657018530 -0.03295828522861268 -0.3508477887122769 0.01550823477215519 
-0.1444294697914802 0.1703988121899002 0.5873354698370135 -0.9339953304252289 -0.3012364582529664 0.5397280532943038 -0.04331776311765093 0.4042943034244135 0.03172222653097547 0.009371972885506590 
-0.7423271694869862 0.3972956726791991 0.8308763574489132 0.3507384294128216 0.2457155101600204 0.06419983171207821 0.02858413117911273 -0.4782858043357801 0.2977752988980409 -0.1601883084149449 
-0.4624690877533210 0.2033086855291700 0.2628159644878612 -0.5643638801125510 0.3689552849614096 0.5460348023006719 -0.3024541120683093 -0.4785272130743629 -0.2931586103595200 0.008719031868965277 
-0.0003877979199697384 0.01447672981194100 -0.3131205536713241 1.111673110210198 0.2067781595167571 -0.6927675367275277 0.6544907811491538 0.09576963988523320 0.7198403075354972 0.4051363143167732 
0.1567243750612135 0.6634203428653316 1.069365004799390 -0.6246835650795393 0.1554911480764019 -0.2930419942114417 -0.05124651976219612 0.1937540388113766 0.05932382008110384 0.09878573101660704 
-0.4357985890328331 0.3367702141657368 -0.4459246703765886 -0.4841990070511150 -0.4325813587115710 1.453689348262101 0.2002827245963636 -0.01737261726731395 -0.3282689616940030 0.1213356430947534 
0.1107304794050065 0.4561370088418535 -0.5264161617860468 0.3440657502108772 0.2559606802588214 -0.4762045666351463 0.1393830100869196 -0.2380699829373610 0.3942771308637840 0.03114358603798599 
0.2323513732348955 0.5655418337266740 0.3485272202245569 0.4361401967586256 -0.5889947940560353 -0.4083324339200762 0.1420585660627166 -0.1901506252144070 0.5528314260459410 0.9193861834244922 
-0.4728601860263991 0.1332237572232964 -0.3950440862335741 -0.1704646812515758 0.2887449246540167 0.07262365139388645 -0.07627666898634240 -0.2734039118574012 -0.7752401495185515 0.3438006453316592 
-0.4198649757812703 0.2607242280632672 0.2963394611497635 -0.005753201983374871 0.5125976344364885 0.07684583589083535 0.3133068148854658 0.8650943812811868 -0.01946261935357850 0.1067122421004147 
-0.1793249284270772 -0.006909801464336563 1.828817202757991 0.2862446499537296 -1.496635018820513 0.6099516074288244 0.4575980190149018 0.3885707251667626 0.3179271646889307 0.3769836500908532 
-0.7206532306430053 0.7613354341882803 -0.3384182575815902 0.2601034034352270 0.2233162273567640 0.8350545734912155 0.007780046677618709 -0.03516062633398332 -0.03924374235086721 -0.2006519807797112 
-0.2926871873321936 0.02566826526979176 -0.8513339726589954 0.8236555419871274 0.04606920130676388 0.6805321760347656 0.2730784737284027 -0.2823839031075016 -0.08266756509219005 -0.3748968428020590 
-0.2382102711923544 0.2396265612004712 0.5233420262377122 -0.5805056788036194 0.4028263598232579 0.2320833740403673 -0.03944495968220674 0.5360788650922722 0.4895297690923176 0.3221510727457174 
0.09885471868672374 -0.3307809799647525 -0.2536681794322522 0.7721538049159649 -1.273417730294803 -0.3071478107551956 -0.09442820887120425 -0.1726971893042652 -0.4227117811005752 -0.8235970232405975 
-0.09416645330356631 0.1142639850512311 -1.065748540189498 0.8624965379438739 -0.4106757606145054 0.009042289135172535 0.5508065477197813 0.01707935144186288 0.5109009581615204 -0.3488846039078188 
-0.3425723383302078 0.02355033314632135 -0.5535390527858751 -0.05293934454009919 -0.01137175094809058 -0.005363471594013181 -0.1976648033155802 0.1086095009065164 -0.3745248160679249 0.1092811483141540 
0.4142987474907119 0.2875224385869054 0.1454386256045465 0.04226548510892671 -0.5019084111060874 -0.08881189242622789 0.09790449805530185 0.06663833705996546 0.4454284512819989 -0.3804637374892150 
0.4821488482107820 -0.9635879319186281 0.4466309866388389 0.4509327986382474 -0.05444831258045144 0.4102587261874282 0.01624904395300827 -0.1497651738615684 -0.1292187195123541 -0.1373853115864825 
0.7161977336630043 -0.9094889456943970 -0.1387806724698736 -1.102039786491903 0.3004319247493495 -0.4028579510692800 -0.4872507674336626 -0.3727671927658899 -0.2104741046145671 -0.5645083581721518 
-0.4741309000456649 0.6162192728597529 -0.1766168675194290 -0.8047366604144545 0.7163113925853354 -0.2284234527118733 -0.3473860993119402 0.4802564703293432 -0.1777646886791189 -0.2232068948393247 
0.8402566097215419 -0.5957474670803011 -0.4426920586043798 0.6789267615426780 1.070218993825953 0.3967928254615605 0.2838812645978607 0.6056215919236410 0.3284933208777967 0.3852294370692612 
-0.9619005954401726 0.9061722451483877 1.505592530922709 0.2146968063964713 0.9807604645904280 -0.8396741880116420 -0.2969741039508657 0.5324409783948237 0.6549706059451919 -0.1550622835240986 
-0.3086886604748219 -0.08315496849996028 -0.4554609454998438 0.5305464902588253 -0.07253295873232467 0.6787264815951395 0.2284944435684554 -1.088851701908110 -0.7434907691610421 -0.3766162082968376 
0.6261106618892180 -0.1506729122870208 -0.1681147510051672 -0.07635346490107212 -0.3126258277932654 0.02876470202248233 -0.5064405935046845 -0.6859721167788082 -0.6714735687532776 0.04478745252909792 
1.117183782442217 -0.04002221882664318 -1.202443290816081 -0.4626733522911993 0.02859772858159645 -0.1110660485257043 -0.2837334950269685 -0.04010775355328639 -0.1534093195658898 -0.1163850589785954 
-0.5592746858654429 0.1469708889031377 -0.9162922746441294 0.2025343744429789 -0.5110505218510035 0.2680089991844054 -0.09468602355160481 0.3131126733216384 -0.5479793127084210 -0.3050009374055772 
-0.3539973658448902 0.5537222712934002 -0.1233517410099398 -0.3164738172001518 0.05948384559945096 -0.9439126864188891 -0.4203194312243356 -0.1486794956304109 0.1980417869253988 0.3653544041111311 
0.3707425269886326 -0.4485869943242263 -0.9448272347877552 -0.3701786171974086 0.9103716666437104 0.8085758903713247 0.4153708192863618 0.1594846543629769 0.06452548751183673 0.3060994379011456 
-0.3281399434659350 0.5621765828799208 0.2475781975630871 -0.5370621022136473 0.3671102157943310 -0.1348549376780039 -0.08679463409449482 0.07536800683464495 -0.2911590470304910 0.5810996812478343 
-0.3386036175883725 -0.3745126850329219 1.128935436386476 -0.1812050915659881 0.05585923037992694 0.2861376792726466 -0.3545850766950108 -0.06729342040086947 -0.3916630150212722 -0.2883940782671725 
1.248119410654956 -1.103531764269428 0.1137224207561442 0.6344102882691551 -0.1200968553815358 -0.5758036175773190 -0.3601701717456369 -0.002528244023122115 0.2880722199195563 -0.2308264363828991 
-0.2327597634232994 -0.3842581050292703 -0.3651295705273058 0.9987044794644873 -0.1798902462635864 0.2105953846531850 0.7420230251498520 -0.4073556764084904 0.3424421341645418 0.7268663051510507 
-0.02402685322680967 0.01016285719246667 0.8396279880438292 -0.1798670419590789 -0.1926293598987553 0.3975583806761686 0.4654153927856679 0.2959455734206909 0.4655111065622765 0.6345332448703679 
-0.1187451578063061 -0.3273537149989662 -1.006272154942429 -1.019510206029026 0.1205835385977606 1.778839637373818 -0.2098945618029903 -0.6362314377021843 -0.3241981568225368 -0.5705875749066797 
-0.2229910241950943 0.8158787368050474 -1.198418378477932 -0.3514106448440705 0.2860398139543606 0.5635714639145825 0.2517474612936674 -0.2516402798962994 -0.6104110307552141 0.1191861506517619 
-0.7223411536168647 0.5155063019095567 -0.3739645561205815 0.2756622262386704 -0.1691306589398462 -0.2062318304279949 0.4204415599472725 0.06470211899560106 -1.064159416095635 -0.1550745003607739 
-0.3018353341782116 0.3487261953801549 0.3487440205454826 -0.2518534590553916 0.1908666668151076 -0.3782575640005218 -0.5495297189131598 -0.7270629410772173 -0.7049428393440382 -0.7349695041739155 
0.6417927868387433 -0.1941729973230670 0.3111728310709446 -0.3706667920347533 -0.4789787380498300 0.05221083958821557 0.09472487022576165 0.2401215794510830 0.04976518415275490 -0.04014509872480666 
0.5251022640602423 0.1724434731221695 0.1429919184107795 -0.06932200984048367 -0.4281422723264713 -0.5543180056778919 -0.3063908148910308 -0.2699937846046663 0.1856203976682730 -0.1443597936847051 
-1.058805756154457 1.319128598488930 0.5977681940878508 -0.02442310647528702 -0.5605818760626189 -0.1752241991665560 0.2201192963505619 0.1015034356986174 -0.2141116734589010 0.1378268024410509 
-0.1069439201286840 -0.1664161211008063 -0.09216439621708883 -0.4416766455877892 -0.3135854493862367 0.6494714340337964 -0.2141770645690705 -0.0008112285308829475 -0.1892556186237099 -0.02711017922266909 
-0.04004827233244937 0.5093338681246191 0.6624992575173212 0.3227829273330828 -1.236354543983122 -0.04481706806538056 0.4005274865481865 0.5214735313600214 -0.1792779499260355 0.4697068085298130 
0.2695894680221790 -0.7920806850569340 -1.038211938571777 1.092672627596949 0.07287239746314138 0.7632113078885349 -0.1224300414017694 -0.5210737706154582 -0.03777974951801805 -0.2436313532068837 
-0.3766653555592062 -0.5072130025052042 -0.004668472144088372 0.1429439342037429 1.163941001266593 -0.007301486721251392 -0.1625826503892678 -0.2272264822159405 -0.5071419585675001 -0.02809311361490790 
0.1663759742594818 0.4191648418876595 0.5053738932830081 0.1102738280967378 -0.6323623177557117 -1.005928033381602 0.09942365894551689 -0.2376773575431785 -0.1434063844716058 0.07100423877293359 
0.2004529671587050 0.1165320115428045 -0.3752562005446042 -0.1789997807629393 0.3031275266373177 -0.3813947772592586 0.2580326566991422 -0.04497687802443753 0.4304721040256371 0.3862406302473220 
-0.03794146134093285 -0.02688116970686060 -0.6311800664758653 -0.1368963789149916 0.6065437459504048 -0.09045452079695020 -0.03525756807774669 -0.2718609077169842 0.05511375360077914 -0.1617866943164897 
-0.2143527530912662 0.1075588459332331 -0.01492844309337372 -0.2415785515438958 0.4717713014641385 0.2319530743689138 0.1750412638592143 -0.02882854030383619 0.2873533208769857 -0.2105682296707397 
0.1258042900406969 0.01299887980253282 0.7549059410468987 -0.9741267304865610 -0.2610487240641610 -0.8827767446513177 0.5427531043915369 -0.04827173082470336 -0.007667985981666450 -0.1799234525185752 
-0.1250179264305129 0.05301760534991364 0.3104757190335307 0.6589345702652614 -0.4392161195703335 0.07290733075683761 -0.4029131304276494 -0.2073634489094477 -0.06724100881378836 -0.06625689225230579 
0.08357361101779338 -0.3617806121093398 0.1147445254406228 -0.3183748858943457 0.2615030198008245 -0.06724456749850964 -0.6748028030667256 -0.2862312659485600 -0.09256047264623510 0.3290766403166212 
0.2929563415836267 -0.01870049255369533 -0.2597630716340154 -0.006164476050937039 0.4487084517165138 0.9493182607457280 0.2228877675127318 -0.3554938220262954 -0.6089606329225360 -0.05849621490401469 
-0.4197056431822577 -0.4915766563558581 0.9176340800381717 0.5837842539066055 0.2014318599719317 0.3350584866085252 -0.01741246774051056 -0.4838112952880098 -0.02474804052530624 -0.3775097474419856 
0.6554348927428049 -0.4099449448400497 0.1059186885200996 0.5871113373918513 -0.2393948054193763 0.2661230485648380 0.2970939830129927 0.2296625041867752 0.3223289486173096 0.2694551629596556 
-0.4202332695536234 0.2907701525996789 0.2486803597244091 -0.8261795070986206 -0.4357783880847184 0.5778667676233443 0.02954528943705584 -0.3826516809469082 0.3608515673585618 -0.4813552108987922 
0.1291808992244103 -0.5445246210705872 -0.1177785613517546 0.4468215387263057 1.008046430281764 0.007109521289241409 0.01619572267707924 -0.2036687325028309 0.1022654201165164 -0.1725942517009582 
0.02228786350753551 0.6269679932841349 0.006831004502360085 0.2482438590882573 -0.6682060079769898 0.1003590362411476 -0.4648495287099502 0.3528277744213826 -0.04434443778794949 -0.4361389900820437 
-0.4137552969851144 0.2143058832411237 -0.1840581051350309 -0.5229565325644950 -0.1824591238154840 -0.5985519087486900 -0.3780917250905502 0.3089051606303844 -0.3829314282192396 0.6134495016068792 
0.8640431546203106 0.1870152882941811 -0.3021969910306263 -0.2902218263792570 -0.3420437535377831 0.09546964678497596 -0.4729995381052689 -0.4320952752345976 0.04096721935888171 -0.1696677935500071 
0.2646281760492814 -0.01234609027803976 -0.5749819586134038 0.3820158688492668 -0.2143290901085216 0.2190530051601686 -0.08756505686047641 0.05911806414027093 0.2344226539522620 -0.3095167319883954 
-0.1133837578126003 0.7100528521696736 -0.2043908990105580 -0.5768867009034250 -0.01105256030997181 -0.5365089471435820 -0.01355732791526192 0.1397866821175842 -0.6702933379437969 -0.2025774786424096 
0.2797150927240681 0.1431246040364858 -0.2875878284209930 -1.258091457691445 -0.4580238478138006 0.4170208712603916 0.3640292515570398 0.08292849939307653 -0.04829425520144084 0.09198354011058393 
0.4517022714691910 0.2322610746909632 0.08566553456524173 -0.7030687978721781 0.2987611097660264 -0.3430042899369953 -0.3825185805088250 0.3137823357729531 -1.072458405960797 -0.6299785053913860 
-1.041669007220160 0.7436147910032617 0.3767631896728679 0.08071950805678281 0.2099806269967582 -0.1878490101977693 0.05470083682047618 -0.1614380270137786 -0.1507316406404276 0.1687730021152056 
-0.8361437226751024 0.08325192549883345 -0.4933085893049085 -0.009990681808722148 -0.06825946478039004 -0.6916899111197060 -0.7399041238134617 -0.4555688738327228 -0.1589682365102322 -0.4271379083125709 
-0.5956935853533163 0.3107573363738282 0.2006432702718881 0.1875975721399485 0.2764386902623239 -0.01523380282508261 -0.1164617438393709 -0.7321397532465868 -0.3951888110404309 0.003124003882438738 
0.1382133039208579 -0.2820637614237068 -0.001040434996695859 0.4294525664600983 0.1097752641725644 0.4521803323441406 0.1754684673566425 0.3180094706682919 0.3492526290717194 0.1834932299209193 
0.07319092617952734 0.3426140789415482 0.3899898509107988 -0.4852415857672061 -0.3636027533771600 -0.5190792016280101 -0.7162935984219251 -0.1632011603283002 -0.2960953260712430 -0.09499854000521317 
0.1092616143074551 0.8001066725541508 -0.3217930505008769 -0.3715667570528247 -0.7787024851776074 -0.08236649782603397 0.2940998092716148 0.7491124683003715 -0.2135673036316898 -0.1186706201578392 
0.1207016104612555 -0.4576949895954963 0.1969225744304507 0.01578564006920250 0.4444013844938054 -0.6034938662130804 -0.2766479991665884 0.2543085036444113 0.2262915318037387 -0.4836764462059500 
1.136729069758979 -1.005507676787112 -0.07224335782466300 -0.9397807062924993 0.1780538190868475 0.4455095718715108 -0.04873739640509895 0.08876796247439211 -0.1052529050574230 0.09196203338291740 
0.4026792610588097 0.2154820904045335 -0.06220451148980698 -0.4444864983146769 -0.1585605799563319 0.2572435483019065 -0.2943919063470675 0.6097702049730426 -0.1710302891567754 0.06455452753224881 
-0.1233951230953803 0.8217300447450581 -0.09022993823156376 0.1627988615012542 0.4725138284890637 -0.9285097496866068 -0.5021313726975549 -0.1427058440039933 0.1631024961820419 0.3341693311301862 
0.3121709986279639 -0.3575225422981082 0.3723388947711967 0.5608621622641574 0.2471595198626403 0.2003512911517584 0.6199482866714909 -0.2116938594654106 0.1719988343708693 -0.1947125828516677 
0.8094513132327258 -0.7511079266289108 0.4608062785601075 -0.3679335635390019 -0.05915541290668341 -0.5701539521658465 -0.1445390198190392 -0.1878538571631230 -0.1734823266099000 0.4496168932904480 
-0.8735467179201226 -0.02183393084700663 0.5794293772639213 -0.6147807071043726 0.2997621800808036 0.2127921792355627 -0.2243242857018431 0.02044830699033944 -0.4202171592176893 -0.1802328715104886 
-0.02774647420755934 -0.3955981318061302 -0.4818219223957367 -0.5282115988907630 0.9070899394303203 0.3690028232879608 0.5611986944438380 -0.5490884982607676 0.4323378701498699 -0.1997513767680157 
0.6426882131512545 -0.1556364376763228 0.2730654118620677 -0.5548529223923134 0.01575978832210639 0.7833783517600995 0.5340666586355601 0.2809507705854926 -0.1061807743316359 -0.4885327465695428 
-0.2981806843631072 -0.1416689660959544 0.2409221115367022 0.4354094485334712 0.02278489269827839 -0.2923721345852620 0.1343218582987175 0.4558843655566328 0.6086144594469329 0.1178075794340556 
0.1732712422650917 0.1344635609679040 0.1813446539105948 -0.2069352780945392 0.1420440762840111 0.5433784995899840 0.01285482636294083 -0.1590987072280803 0.02433683560938087 0.2795039503212137 
-0.1809624201536252 0.08410079049420353 0.5261513666948351 -0.5532814286298638 0.5276372968798297 0.07584994133035670 -0.5108976712900978 -0.03540056427124216 0.06757320347561130 0.5825554718672579 
0.4878415866823140 0.4833594999221385 0.09135332997937434 -0.5846662469623639 -0.09528750290839758 -0.5475690701416068 0.02405781483418044 0.02343349588887812 0.1232831563333618 0.5108325776442800 
-0.1622250301102424 -0.1581620624713383 -0.002849512989287454 0.2007834061848373 -0.2051216830939362 -0.1186634015205032 0.1419331439643474 -0.3589041953729474 -0.2434318049970678 0.08002392234725720 
0.1223195958187508 0.2647621210057101 -0.2130907281075110 0.1625277713034024 -0.1543550994759525 0.1262487736409308 -0.1312958118889487 -0.2795117435991940 -0.6405432843421395 -0.4808539442965849 
0.7836673192140305 -0.3814645903679633 -0.1758618739428725 0.1708496315135251 0.1699033878179221 -0.2175228445476786 0.5906475101532492 0.3345700263996745 0.7662044596869599 0.08349285905010935 
0.3408039440803053 -0.1194207253254649 -0.6257421999265614 -0.2356797864770918 -0.3955975744601731 -0.2537571934472874 -0.1168200150171671 -0.5388543617292005 -0.3992187731993201 -0.02246939496247415 
0.4994454013035626 -0.9011664594070905 -0.1533242171224384 0.3950386705600593 0.1123758722237376 -0.2176355182476962 0.2290803430562932 -0.3700438174360740 -0.07922882255373884 -0.7790731636427547 
-0.07742904699074193 0.5981558294840460 0.5489121319125965 0.1441649747354090 -0.4381734575114581 -0.3603524488357898 -0.1466643898385946 0.6720654075314201 -0.5081952467337574 -0.06405745046975352 
0.2728820543141975 -0.1187051285975166 -0.8608488186884901 -0.1651633155512673 0.5410177679280653 0.3919675571508534 -0.09036623874590989 0.3478969381011452 0.05737380651726638 0.8229640859934084 
0.5773965284909813 -0.04201024942241519 -0.7952149552123621 -0.01777729336909680 -0.3540552032956506 0.3147852155072173 0.6090272058631218 -0.4886344564248887 -0.2177068980191824 -0.03784266875625653 
-0.2114629269222308 -0.3926737295460775 0.5656882437413671 0.1156712102858870 -0.3627210855658462 0.3459556213995518 0.04600801394195901 -0.4331992756563072 -0.4511561261336145 -0.1309668828523110 
0.3950415482252490 -0.4241761764638385 -1.188062374114471 -0.5686301772306828 -0.4700584293050429 1.830809612160786 0.1368205815682654 -0.2934679602118965 -0.3648547218996743 0.1426844479262271 
-0.7518660937458028 0.5985027237540909 0.8609219408766414 0.6717699769535836 0.03503688133403258 -0.02985403653364370 0.2521936447168904 -0.2988630278536792 0.7570024446282382 0.05618266656352275 
-0.6363906348817633 -0.01485010371662414 0.9885679143445788 -0.2990564600749315 -0.2957373188083746 -0.2235213796372731 0.3973786473704893 0.8499002412040260 0.5169485082418959 0.7404597450387087 
0.3572203649936874 0.6583790768387384 0.1380021831091018 0.3740701532486423 -0.9176768645720088 -0.4609167995193807 0.1524781301876442 0.1678925533503598 -0.1056903570337718 -0.1684883048292588 
-0.9644442619844876 0.4210414363707604 0.3521328427759520 -0.06698847811285405 0.6862933823891000 -0.4187061111454309 0.1198086548239622 -0.2503513676970555 0.7802409423291954 -0.1207498260244565 
-0.1064967107073036 -0.8207642359225628 -0.07523310236670944 -0.4974194384542084 0.3614807206972825 -0.3567612547609841 -0.6682061457797493 -0.6229682055902686 -1.060397752201765 -0.02038044940099264 
-0.3082268975551064 0.5560145656479532 0.1121152284466259 0.06272877786216802 -0.2510527857459335 0.4692455686138144 -0.4713608953949542 -0.2212060647728123 -0.6764744261972255 0.2549275746638772 
0.1926739309874118 -0.3440955051311025 0.6260413816311216 -0.2927270373220398 0.4219183813585098 -0.1220016175188846 -0.01254662199605017 0.3646843287359129 0.4815021530257683 -0.7219423810783335 
0.5310103110563456 -0.06831202087883163 -0.1128970478044803 0.2603719873868438 -1.165424034275719 -0.7312915692381612 -0.3426519769942564 -0.3269318479820604 -1.262961026790975 -0.4027757963359733 
-0.5236970070817830 -0.2085399213286624 0.3177653967227475 -0.009123065791913161 1.084907935196435 -0.3941386377826592 -0.02027602041268413 0.1343150658856064 -0.1496566875909805 0.1404291237808474 
-0.3183965447324258 0.8540137443076270 -0.2578548692748177 0.2246144081543244 0.4105701393283937 0.6819106983025767 0.03913525061908622 0.1379472176701723 -0.01950327563476265 -0.3105898726449576 
0.7716799451344320 -0.09562323275515773 0.5986032170759625 0.2358335054815535 -0.2999462527776790 0.003146013157797470 -0.3574742020778587 0.5077607068667165 0.1921114490063676 0.1693428954554688 
-0.06153746533640511 -0.03631374294181958 0.7420406277603598 -0.02698739107823272 0.1230267496480210 0.5521206127866107 -0.1885933401711619 0.5408268528862239 -0.2714265657807097 0.2233495590440857 
-0.07540193617610368 0.8167405328963758 0.7775839723475360 0.3743983372674149 -0.6743558085733895 -0.09254715580505977 0.1317857388352731 -0.1461171997059010 -0.06539253724127689 0.2794306263617051 
0.6155465628033683 -0.1126291138408738 0.01391530548501776 0.8341160587286721 -0.1679874101901457 -0.1276783054083668 0.5696721939754685 0.01565211815941572 -0.2478449118706961 0.3634735735619230 
0.5985464634637025 0.3858275675712059 -0.4338318140666742 -0.7106161870486208 -0.8349606891803889 -0.1561245965094229 0.1196359365049862 -0.2981315450892506 -0.7297539928678604 0.4907089546772123 
-0.4615308478799124 0.1489989314358312 -0.4269339682023695 0.2162084391035808 0.1646551576029632 0.3121594040280592 -0.01784507511507529 -0.2165332054260107 -0.6641720890407447 -1.024216869345054 
-0.1414727677237216 0.04290679230178519 0.4964738309654931 0.1413477886821013 0.05875374290638742 -0.8971096433034003 -0.4850171204271956 -0.2366939657204536 0.5590059741710968 -0.4141011766436530 
-0.8916328877680478 0.4695457134027010 -0.3240259997114541 0.2395972749942729 -0.04748241120531840 -0.1649440063129493 0.4050634013284168 0.7395669292552549 0.3636570639913354 -0.3721271163657503 
0.3005106410214489 -0.1028444731375467 -0.1865285756795904 0.09709428924364781 -0.3267543434590929 -0.3207086144531037 0.2621931486470296 0.3533220652938666 0.6952163664739975 0.1939147738415608 
-0.4996972958701004 0.7754218854570458 0.4119552226457836 0.8122268080831964 -0.2038739883176279 0.3696608219218923 0.2654028177205701 0.3970875530923105 0.4910235695014457 0.1606638227930780 
-0.8748086540909742 0.4091061849782522 -0.09619610367481890 0.6404952511023807 -0.7406668476494316 0.003312424973054296 -0.001913996039549563 -0.6885990308723360 -0.1409398015151377 0.06362508546194699 
-0.2020920333327696 0.1784119998775751 0.1722756492602003 0.04599676637780138 0.4091403005604163 -0.2227826726450906 0.07706976087839851 0.4814021173413292 0.7278076605513144 0.4639280349047129 
0.1783091833197205 0.1681287353865550 0.1973000644641002 0.6248176171509167 -0.6298768017304017 -0.1855219002792368 -0.3146922184975521 -0.2562833061508944 -0.4723278446478482 0.04813673456726684 
-0.4925482828557820 0.5720658767294187 0.03757792530126061 -0.5643636697980350 0.09100134229064805 0.09833178780070645 0.6359322530636890 0.3953124604378481 -0.04531023756530353 0.5386587081354202 
0.2688462302800151 -0.2389637619310102 0.2155106525889272 0.8596318149502535 -0.3610605391729834 0.7258505286108018 -0.1074102369082820 -0.02333656007662311 0.2898892938775940 0.4167851074700870 
-0.6308730016568697 0.3171868403340473 0.7834845605172699 0.6578067146570787 0.7301273015239229 -0.04715592792185499 0.4159332834246299 -0.3747864933465044 0.2255459094732262 -0.1092064400204584 
-0.1252796357454277 0.1868293363970991 -0.6165340244639965 0.7792522508815408 -0.8229581053981022 0.2813312087100651 -0.03046443992012526 0.4551897399798333 -0.06913201306895750 0.1123435857659605 
0.7078700477780908 -0.3366962826315827 -0.3539801695378567 0.2448772133156485 0.1162287043610432 0.2742752893236132 0.4959210120104872 0.3070599461089602 0.5922898318805774 0.09215659734002887 
-0.3082010884663555 0.1239290683234794 0.4325017703650638 -0.09130501852331983 0.1416948516812627 -0.3368557603051090 -0.2266010849694303 -0.05735946601691123 -0.1706672502141759 -0.1041503647754141 
0.4900265515204680 -0.7846078802322619 -0.1227124660354454 -0.4699161538433333 0.06858822082822232 0.9989616851195239 0.08337319899263415 0.3789394179737009 -0.5521898607367891 0.5643391367967455 
0.3955094752971318 -0.1756549690417102 -0.4536337308249774 -1.158474986710239 -0.8982581833058497 0.4332730457106189 -0.6939650014897938 -0.1861418413396483 -0.3403903852841363 0.3965268565900027 
-0.2030781629766939 0.3911278246591742 -0.1348021860510957 1.102492436004802 -0.4815515148237497 0.6325832607362543 0.03603038475068197 0.2204863854384259 -0.2031291503388951 0.2938154861212325 
0.08254621161214806 -0.02230223838913384 0.1800299793067655 0.3095612497826699 -0.02372582044654567 0.5743101048290971 0.2230962769849980 0.5547981165979771 0.2795293152410077 0.3558018807019746 
0.6318511406116565 -0.1722472201730244 0.1982021939540413 -0.2862675505589743 -1.247685330865635 0.2211148756005365 -0.07692348396210406 0.03560854244094507 0.2436643693797567 -0.2953388223513933 
-1.155479126544309 0.8201456337738273 -0.05153314452770829 0.6739233402749392 -0.2037381746083806 -0.02841686992413290 0.9320364045262217 0.2018670954522738 0.1061794548533308 0.7969061208478027 
0.5776289349360295 -0.6497005382940079 0.09760399579782796 -0.2599936120177697 -0.01800124628759774 0.4962930451168846 -0.01369113911538614 0.2708006731811110 0.08722687443104192 -0.2830910983570475 
0.4189712754898315 -0.4537832234540529 -0.06737260494988172 0.001083241606355919 -0.05908313537287737 -0.5988638556987531 -0.1213427017787467 -0.8367431419952142 0.06024232033687124 -0.1738073121429945 
-0.5502470420187486 0.7951759464567713 -0.3072539634610674 0.4476126849697092 0.5047533590865244 0.5413245230148371 -0.2221106525002966 -0.03640312291239584 0.02870385452668002 0.2637627303037107 
0.6005639955388078 -0.07812515013089791 -0.6447982164614840 0.7023475656680318 -0.6966559940361141 0.2204068787703455 0.3054659167539944 0.1240328254872779 -0.5639552625394655 -0.4565963939381276 
0.009893500270575813 -0.01177932988449171 -0.3430149956927533 -0.1289206984710497 0.09984877420825962 0.3666216994498581 0.2239163199874479 -0.1801328168587189 0.5790886333036095 0.1505561629311537 
0.1878601951219044 0.3849313176377960 -0.3031781883608334 -0.8523435648386969 0.1190108209906345 -0.1728610503788740 0.5266792337568184 0.7791083934454800 0.09254209350267723 0.3337480952048943 
0.1534834299679531 -0.2405452779068021 -0.04678978248008653 0.3038895284677818 -0.1253086374476267 0.2701573800303205 -0.2536540836169149 0.04853122254674071 0.1659716381094791 -0.5455507365557004 
-1.258652165153520 0.4231523373750548 0.06596218159228980 0.1093961367583912 0.5916369644032228 -0.8391982746067533 -0.5224422254478441 0.1865131092647633 0.02746190574929483 -0.1291059057577892 
-0.2555700403711191 0.05710073539556617 -0.7276596298290068 -0.3317456850749480 -0.1159770639128832 0.1121709183804953 -0.1954696264412369 0.02522357930181313 -0.1796052122578122 -0.9565968873451596 
0.4705550231155552 -0.1446292919869485 -0.3023596234158615 0.4274631307230978 -0.2760294927677208 1.041716995234434 -0.3361055123144487 -0.4709380733386073 -0.4218084066034455 -0.2319240568709491 
0.04245011061829892 0.7766853314680964 0.6161974253793367 -0.3697732069001486 0.04751709583938799 -1.023199305432008 0.2216434883201396 -0.5151448801405454 -0.3271761236716487 -0.08177752121184842 
0.02822862627974064 0.8568644403290859 -0.5646752005870519 -0.4583232854005935 0.02173233097875315 -0.4458852382649269 -0.1928967917069653 0.1607808980460931 0.05294207258272734 0.1205948285761280 
0.6911969279314591 -0.6154850050332425 1.154493564969100 -0.03561979312485494 -1.049109149153614 0.01261188963050359 -0.1110100301734135 0.2168178022327591 -0.005593810262175482 0.2724826047723790 
0.08595874222852850 0.1049356613753976 -0.02454556962952798 -0.1769570175268900 -0.09064382110363270 1.110100160436971 0.5566991364392326 0.4332799329107898 -0.3314946711067369 0.4855443914986127 
-0.5189583819674962 -0.07027281459674140 -0.3880892152316633 -0.03761083383801219 0.3985839258804925 -0.5891538688328414 -0.2184545357946458 -0.4012194139516831 -0.1497837300850305 0.08097158573864727 
-0.002375028583551833 0.1195873027379480 0.7358887734721844 -0.3885873867006696 -0.3412239763483212 0.3660071011888819 -0.7060547048619042 0.03137056801949414 -0.08327919248034440 -0.8018312002899166 
0.4659384965104836 -0.04901708623919266 0.4397212475501569 0.1627072007454952 -0.1362772648866738 0.5242459431179230 -0.08204033784645900 -0.1118116324831491 0.6356864414957624 -0.1547774947893482 
-0.1694410011931857 0.1420935833967915 -0.1768368999542501 -0.3282946052077608 0.2582859546133250 0.1281521973227202 -0.3424489055890834 -0.2501618421568244 -0.2067144921188454 0.2309177354668605 
0.5090804412950206 -0.9425500679579115 -0.2748983481554816 0.9498803968023571 0.1641189059967653 0.1327412033428892 0.3209979753025892 0.4395757780298767 0.8535704731637180 0.2243089857348875 
0.3213246675822780 0.1980535491487006 -0.1472311866706982 -0.2818396974617337 -0.09405621365505426 -0.1670845699193449 -0.07007612659432783 -0.3968839952546738 -0.2573431727901827 -0.02189555653604890 
0.2401156398418998 -0.3769008784323530 -0.7231254755699177 -0.07666924405831706 0.1861399516864978 -0.6544480667572992 -0.1212105616813955 0.008405586960849580 0.2804523952469707 -0.3849302159550507 
-0.2775738849174728 0.4136471613617180 0.2676541206526542 -0.05533426760647581 0.1164938338639237 0.1825976617741767 0.1639408904088874 -0.1015513654932210 -0.2285001148355518 -0.5300914720062200 
0.08075196857946813 -0.006237916963365879 0.7468518062150447 0.2351052231815651 -0.1890089995299396 -0.4379388634036842 -0.2479798739886126 -0.6042757308449815 -0.05917079862506833 0.2020998725335256 
-0.1713827953802110 0.9750009103642711 -0.6768142483201450 0.3354136839275175 -0.7910392815657429 -0.5088656791949093 -0.2113309260739615 0.3065088807172273 -0.5385201341688876 0.2141862369039133 
