solver_type L2R_LR_DUAL
nr_class 10
label 1 11 2 5 8 7 6 12 13 14
nr_feature 299
bias 1.000000000000000
w
0.3502444252268793 0.2109052296919180 -0.1027317404753988 0.3456986335545398 0.1301397241674380 0.06786430151838824 -0.3909970862588311 0.1228737667355827 0.1702033122406635 0.2831710141040926 
-0.8159142424784873 -1.131579445939646 -0.5845377355646500 -0.7759315587982761 -0.5647040865718604 -0.9147226810895566 -0.2606672462432327 -0.9232253701572342 -0.8427979311367726 -0.9380089867912776 
-0.4909741033294209 -1.215575393921983 -0.4777063886609623 -1.436257676516719 -1.391219240500886 -1.490936714947281 -0.8356374114822276 -1.386450314337181 -1.366847035509587 -1.258532652970966 
0.4357415687720478 0.05678200328027876 -0.2177900355158944 -0.08189734262090394 0.4571092701117431 -0.02850067416178431 0.07016745146675668 0.2494571822975750 0.04442439933962275 0.2833595890344356 
0.3847826965297350 0.1732154390165607 -0.1531549090926202 -0.01654741144512337 0.4407300496413041 0.05851973951981138 0.5028358315920929 0.1936070360245200 0.2114328060319124 0.2766870366583272 
0.8232380403874606 -0.3586574624587951 -1.006427082949488 -0.3901103720725168 -0.5849946638106396 -0.4442669466513969 -0.3347565813328265 -0.5683713726020468 -0.4104129099982348 -0.5033961876372666 
0.7693038666782510 -0.2011924927091812 -0.8931452192538859 -0.1493985804138768 -0.03246671458983901 -0.5872640760386136 -0.4545635157183851 -0.2845554100295437 -0.3171254279142110 -0.4090855419542654 
0.8122424530324954 0.4368018882211746 0.2916426352161622 0.2204203151561995 0.3547025331894252 0.2358756192857457 0.03373617211496331 0.3316812069748304 0.1558908502119415 0.4098206974572444 
0.2029257868814914 -0.6736867516784658 -0.4768750146150865 -0.1458201938945832 -0.1145584935874117 0.1068478240498773 -0.6997298827422306 -0.06709463386979920 -0.3953506190550314 -0.2234409161669970 
-0.1484027333175770 -0.2883488816301509 -0.4045038044910480 -0.2365302186341497 -0.3908835966449942 -0.01339910147920807 -0.4563781513464608 -0.4264764105666054 -0.3680821458706286 -0.3475183988838559 
0.5042198688252102 0.4066096331071581 0.3000682083482596 0.3888004572089406 0.1270644398114929 0.8884863272092667 -0.02477371264952832 0.5058395367201594 0.4171730593178407 0.2893149483369891 
0.04718339134095428 -0.6767295323036880 0.04334756674332300 -0.5635559698331577 -0.1642122840441725 -0.7601585622784498 -0.3675884508124854 -0.4775629018926919 -0.4716098255038919 -0.5323867871564565 
0.06842437265858507 -0.3933201867569364 -0.4037432890428596 -0.3266270908259797 -0.2933380974599064 -0.1115745186044062 -0.4432895623422159 -0.4967303455775779 -0.3627793767921619 -0.5931309844282493 
1.646170164638942 0.06132527449708206 -0.9832864109750042 -0.07477986924344972 0.2382275424405120 -0.2889341080710411 -0.1689219073470606 0.09753345497143832 -0.06045445639089767 0.09350723244234042 
0.5304191125653388 -0.07187413667121036 0.3188544889887381 -0.2385227307428448 -0.1947246869324899 -0.07000401174483585 0.1369479741584236 0.1816397219785189 -0.07169972015274656 0.1354459642818892 
0.02822771168347343 0.6067818268765623 -0.05331007830802911 0.9358527906693176 0.8160978119165361 0.6215780996718618 0.5084641365630916 0.6982495998047683 0.5756086584959137 0.7666915365977767 
0.01668944898027120 -0.2038848200417824 -0.7328816186583017 0.1415667928316493 0.08148545687997227 -0.5234163771653538 0.7022549564217215 -0.1641466020190906 -0.1156038400014366 -0.2506812400540965 
0.8113475951959632 0.2405704418595747 -0.8291398640520139 0.4457891572774161 -0.02701369234382845 0.3750124426237753 0.7275664934860783 0.1555564107749391 0.1792342151692121 0.2824399224107302 
0.7296244902339055 0.5777466115937839 0.1695135109589475 0.5010444510812934 0.3867138434618409 -0.006802473439303733 0.4288557062946135 0.3591741925132639 0.4998634607688408 0.4271008260847685 
-0.5947811577265232 -0.08214759482096393 0.9382227693381258 -0.7431332256591293 -0.2225963305887972 0.4325737868251675 -0.3437931527495593 -0.04920865061082541 -0.1431470780438102 -0.3718490488748257 
0.5693016402366180 0.6600963463249224 -0.3152282142944609 0.8591593007812309 0.7319995578656048 0.7769469374691632 0.7084523534210352 0.5305663818273253 0.7569535946000937 0.6143645128643069 
0.1386142987009153 0.2436436760466697 -0.3089342059160476 0.4278718508461606 0.6715885706640825 0.4058396152900549 0.4053179937048532 0.4257017378109633 0.3777672592019473 0.4549246373709440 
0.1328306168447185 -0.5012223282220833 -1.092110657131729 -1.102451399018475 -0.6508830348388603 0.3627685551372804 0.2072691417258720 -0.5142749756957787 -0.5710527795108997 -0.5861385760397175 
0.7990448622332018 -0.1310966626596104 -0.03256236171373013 -0.2344355384286436 -0.4185188261950421 0.1772453722844261 -0.05315068270184373 -0.0003479097275287311 0.08404186838209297 -0.01460307745426088 
-1.066352950572461 0.1392414560559984 0.3331949890334665 -0.3313862200535974 0.3038906827141485 0.1752314084983864 0.5195877224339535 0.2220979340928560 0.1154505892320272 0.03198833861475593 
0.2714308384098422 0.2762273165856268 -0.05066697006449322 -0.02422054716760285 0.6685147181406959 -0.5575366879560097 0.6273700748460009 0.2177610248525266 0.2163373865747242 0.4076960407679290 
-0.8110446121150909 0.07257028335341864 0.09692965546114528 -0.07540974019560923 0.2224454380656661 0.1271236097823733 -0.1427159128611593 -0.1337518775093867 0.07698175129402327 -0.1230803453876536 
-0.05307234423360936 -0.2984426177628199 -0.2812918591183197 0.07451011008527615 -0.3015646764854573 -0.2649910684780005 0.1307782637107693 -0.2378535417334837 -0.2253532293094837 -0.2699393706149889 
0.5688746854281914 -0.8360680331166549 -0.5463148484604900 -0.9328039306918853 -0.7716186977682830 -0.8079757972427053 -0.6927947209871238 -0.8163873681051839 -0.7713670750419239 -0.8543126773486555 
0.1104319193314151 -0.4690326155539158 -0.8877065751495341 -0.1606745285419578 -0.2685020018946345 -0.5725579556295132 -0.3127082016504229 -0.6042131736190534 -0.4741704701169896 -0.7738962214272652 
-0.3720685350407968 0.1131306323171763 0.8639740099556538 0.06818622917153606 0.07022465728097420 0.2367712085232415 0.2768922372811545 0.1981673699083730 0.2074766641726727 0.1380881470946480 
0.3422051210285907 -0.08531502349189853 0.3189202739524914 -0.1587100421419354 -0.07751253136038294 0.1750398259395870 -0.1699570849595462 0.1207642727397644 0.01950823222756049 -0.06335404774739910 
-1.057117683122563 -1.241247127758128 -0.4240772209974856 -0.6955313851919219 -0.6585789335096247 -1.060464825522572 -0.7234645730098592 -1.059504670111435 -1.077421407454507 -0.8051750036703286 
-0.6397783704132316 -0.2066912236302135 0.06166411432343680 -0.1178212054027821 -0.6120709893964298 0.02894536654234833 0.09801691596790332 -0.3304793513013740 -0.2000096152827683 -0.2658670758407398 
-0.3215961367748059 -0.6413210732985394 -0.9234281904517623 -0.2923968891182970 -0.01179787618883229 -0.5915903053071345 -0.1026287584359143 -0.3883122023495758 -0.3649671345272477 -0.5098727587713060 
-0.4385431766241293 0.5941760046843710 0.6804985095846677 0.3226915055459616 0.8012982702464273 0.6858675660298639 0.1970620547093974 0.5277693076152571 0.5270535688643510 0.4156703658396687 
0.4360962358870075 0.7039173885516915 -0.2301164794079590 0.7934807109566465 0.5651017910790727 0.8883409010175591 0.2181926633942684 0.7077785877114489 0.7790846931294340 0.3251888789909300 
-0.4577107402361413 -0.2118038906369275 0.8408892073730743 -0.5299603962096396 0.01713983350860285 -0.1758627899366800 -0.6861960710587406 -0.4487999221452938 -0.4725085188773650 -0.07770275959164200 
0.7463295362539066 -0.1128477035579611 -0.05445222946887884 0.07285504306552791 0.03161748441419985 -0.3768022206622044 0.3604395689551867 -0.01392716701114131 0.09926095228658197 -0.1295751901986631 
0.1061994170397386 -0.5319069691120515 -0.7601458756254066 -0.3172101528310770 -0.6297914304525556 -0.5574718459011111 -0.5681591221452765 -0.6569335454552607 -0.6140404755303971 -0.7202376563323526 
0.5452210766443957 0.4450218909128577 0.4698677228021503 0.2222725581946396 -0.3673283751061172 0.07395879485178113 -0.1684639819122930 0.1660075297769912 0.1391538249754425 0.3384986293056159 
-0.06567897815617123 -0.02183791229817192 0.2258431733662885 0.2540212102570305 -0.02272297444776376 -0.3442045409977445 0.07136610560654363 -0.1321385422450094 -0.1362580306209915 -0.02355684591049568 
-0.5996681335154939 -0.3730240137250324 -0.07492784620589152 -0.07100886275630740 -0.2507328787652552 -0.1867542394161481 0.2648211184051886 -0.2875649895299895 -0.09184295610643309 -0.2278639970381129 
0.3971384290786789 0.7673797830022685 0.4578988502596130 1.237100227262268 0.7409016271833297 0.2139686589793944 0.4539569819830162 0.9526404873243546 0.6669909054235762 0.8207274841979450 
-0.005216965496755511 0.4800205943375940 0.3881279910665361 0.8372971481636150 0.6580581308477791 0.5733617762156183 0.4824258225926936 0.6921569265253957 0.9258337237599933 0.8420129836464154 
0.01364410395605215 0.8612299723052075 1.308972906211956 0.5731349865423457 0.7731038219766917 0.1781112956498527 0.4070747870108006 0.6291390132158137 0.7253346494868429 0.7068890438009542 
-0.8606448746801729 -0.9939964693103437 -0.3607195124674874 -0.7018145708942539 -1.346937168305529 -0.7368152399231364 -0.1691303890252475 -1.114454303763367 -1.163303867361414 -0.9429139163645774 
-0.5665804710661411 -1.421496926244531 -0.3705021341435320 -1.137742841508558 -0.8047728606621927 -1.054447368044717 -1.403651097581704 -1.497959837254508 -1.415498649481311 -1.405101441787487 
0.2980905160606154 0.3010187853254435 -0.2185635091880589 -0.008601335779485190 -0.2427277018399765 0.7158023300679707 -0.6237717217598830 -0.1025011353532822 -0.08018591338558925 0.2918435144519770 
-0.9591622806485489 -0.5687186164182508 -0.8482102044196496 -0.5233697636468640 -0.4199367733879040 -0.8366973357337076 0.07129767710166106 -0.7551202511674867 -0.8329121652970424 -0.6171911726937793 
0.9100075866905082 -0.4004077250878071 -1.312218280701789 0.1817513843972338 -0.2313947628729281 -0.3429161595636824 -0.01927721455592438 0.02992109242215481 -0.1642508919264100 -0.4578223861634226 
-1.145889071279487 0.06407578325801085 0.4834582984845237 0.1440089829598035 -0.1397448149101560 0.02875971375745039 0.2951214916363572 0.01666506774544298 -0.08053157600422844 -0.2275716905330974 
0.3425040705853855 0.8592701546786504 0.1618563837960107 1.007764492551715 1.244448958744329 1.152799847768864 1.022597342902900 1.122915857952298 1.208864653194173 0.9964764400106066 
-0.05779479661581465 0.1213261336031436 -0.2202102536168980 0.3265394563496952 -0.1682109596081398 0.2863393915552140 -0.6268770424793992 -0.03749145342075311 0.05722909055450993 -0.2520300399829296 
-0.1247981889872081 1.138655833390148 1.373067027122957 1.241179293163943 0.9857339747618860 0.3834517318805605 1.261444766461237 1.108729664712348 1.072800995032100 1.039090961861733 
-0.5666080091382493 0.2044478338177843 0.4341063352920357 -0.01717025964281994 0.1888417276260951 0.3617432112938729 -0.06551449830569218 0.1510941769418866 0.1245535076365315 0.1634328271533629 
0.4339267709417742 0.2524320200379326 0.05323035680868322 0.005949529915115430 0.2924019232986509 -0.2318003860953737 0.3540876704637045 0.3179400853470232 0.1231472585193847 0.3853129469326322 
-0.3566795409036954 0.04109073784785103 0.8285486542627813 0.2155151352037474 -0.1584488451244828 0.1856604394830299 0.0004612215747898998 -0.05187962396850383 -0.02338492612876662 -0.004731815502564772 
-0.5432705168170033 -0.1638081087890444 -0.2999715705841526 -0.08026134707625603 0.008364737359638372 0.9685322771252337 -0.2924100949584004 0.01486058322668979 0.05598233446284364 0.1218547746904229 
0.3323283371204091 -0.04666185331922482 -0.2057781263591474 -0.4553726456225175 -0.1554342293322746 -1.150163725759733 0.3958378959321584 -0.3720587029158206 -0.2228273762923738 -0.4557788897970207 
-0.2163720888422657 0.5385447932141568 0.9437497481757242 0.2813288922478437 0.5429248450439175 0.1231955554419378 0.2959313418342318 0.7192945582383394 0.4804830714831386 0.5629748974833015 
-0.7620981820298904 -0.1137893260076445 0.1241213484050573 -0.1022654668262887 -0.1705359568496084 0.2911911766398215 0.06970120879876562 0.01083667045880933 0.05870247132094770 0.1797999923125957 
-0.6398598338079295 0.1143656511947608 0.8252371911072176 0.2007428451240127 0.1240110548727651 0.02489675925080383 0.5061849569193579 -0.009302974675063986 0.1662331936281317 0.2812085976887825 
-0.1056951675857530 0.8320762320668939 0.4783883139367327 0.5739239922974543 1.057165658385905 0.9911077121056386 0.2744891822015406 0.7753977236795129 0.8537834500958882 0.6106682058756372 
-1.169456729561738 -0.4841742395236638 0.2018950051099515 -0.4489375216415742 -0.4848120171319796 0.03390764748781082 -0.5753368878954684 -0.5248172000443078 -0.5160145917998085 -0.4569170894594123 
-0.1097785815696190 -0.6309408761303166 -0.5010455587689193 -0.7676221155134225 -0.08327325141254856 -0.1458836972035325 -0.4169645321973791 -0.5872523656506142 -0.4746508607558818 -0.7013940872979137 
-0.2723291435719751 -0.1725037922459450 -0.4339488409688319 -0.5056585020887961 -0.2170647866382154 0.2111553897556313 0.2573961162495133 -0.1814194515127992 -0.3519953721547620 -0.001688639298852899 
-0.9128647220396986 -0.3134499027371919 0.5680749243470999 -0.4934538806165706 0.04840297865440629 -0.3910836876718671 -0.3690540306884124 -0.3532623616236595 -0.2278295481635164 -0.1395229898203403 
0.3871674764257651 -0.02668732502282158 0.1500712280064019 -0.2404805339347792 0.1893669407533923 -0.2631341016855102 -0.2447196666948263 -0.2284142433664186 -0.002899893726822621 -0.09610460305811233 
-0.04146050662874208 -0.1570631908478314 0.1314966618147269 -0.2327943756928468 -0.2015901247424855 -0.1347603507187961 0.3297472676575849 0.1649767501554221 0.07011155304630286 0.1238936720385818 
0.3768828879536487 -0.06987307088282424 -0.2285874870912827 -0.1841821333994995 -0.1096178482367667 0.03959949610809629 -0.2750312539437153 -0.3090158092935413 -0.1608964946086005 -0.2498663697346629 
0.4729063107054530 0.3323408103270937 -0.3528073232089456 0.4936014105324605 0.6156772928876327 0.7473586423721295 -0.1138477122284311 0.4815064350488436 0.3660732500716585 0.3831835159034621 
0.8179892837980267 -0.6175623342250890 -0.8099785163307048 -0.04758642645209274 -0.8308042809512621 -0.5210463044792493 -0.2258529432087733 -0.5845068293774835 -0.5729322490138913 -0.4900635620991147 
-0.5627434117076491 -0.4033183852355093 -0.09182196309912093 -0.3810292581948402 -0.4536460956646767 -0.09983016900835692 0.1944080791292922 -0.2992234922721357 -0.4250701801255796 0.003888412625837008 
0.2984012628235535 -0.2872278649635305 -0.4276988658179144 -0.6373316020614356 -0.1842514838420634 -0.08514852862229573 0.05363776127802578 -0.3255510392033564 -0.3606359661951289 -0.2443787089681305 
-0.4358136022294862 -0.05388285428281699 0.1109497392845367 0.05770145418620338 -0.08946790015387583 -0.2325496511207091 0.1057283456094086 -0.1238386697158056 -0.3379460687663703 -0.1075470969856540 
-0.5737968306236325 0.3053388461888337 0.4338524150524243 0.3970276403451291 0.2419786854086246 0.3879762072542741 0.5998306003650118 0.4391006456560360 0.5774617137197587 0.01407772859887281 
-0.06200214975717702 -0.6339828826692623 -0.7349505401948534 -0.6699611625027085 -0.7986998646260013 0.1855686117742362 -0.6493929326421390 -0.5810943195996066 -0.8119584966671161 -0.5936189636461175 
0.7266283903064297 -0.03447878194152663 -0.8076529492741112 0.2528001295397624 0.1186543986210998 -0.1749479162285988 0.08855048330550616 -0.04170707534906956 -0.03600160760461166 0.04855656324379430 
-0.6389825304208352 -0.1946495090260820 0.3395052529388172 -0.2802911245846647 -0.01448404753971617 0.1518797463321627 -0.4369482855667266 -0.1499274151570690 -0.1671562352231298 -0.06321087808280587 
-0.9349722253885187 0.1966328714612419 0.4633282425420647 0.1936213488169895 0.01306672363733521 0.3462464754554805 -0.05034135296987809 0.2470274176294100 0.1570164304404593 0.02362980421962325 
0.2505573153924268 0.9190743160122086 -0.1249591223534538 0.6026664280792887 0.9021395459821793 0.8406139852835608 1.498877405658694 0.9053044890544384 1.102102166878222 1.142744418516356 
-1.153248103468291 -0.6196402962745976 0.2012361054036188 -0.06733562501787142 -0.8015525108777047 -0.3498781247889291 -0.1756911835375558 -0.4430148369039276 -0.6227645964913273 -0.4513529963606318 
-0.02873951172498458 0.04250869248074024 -0.5469546651643874 0.1669800078593300 -0.3009569540500915 0.7723160014986103 -0.2700127527595675 -0.1979926323514407 -0.01178260547686283 0.04404687999609882 
0.9021844140048114 0.07563523622188700 -0.9340349403070572 0.1698188619156169 0.2890207217709729 -0.5907715982660398 -0.1401145720394937 0.02107034763647668 0.08243599557060190 -0.02035873183729799 
-0.1920836326932468 -0.03640913654478426 0.02296277304173503 -0.2894981997503105 0.4159869811151628 -0.3521732757936100 0.1193335322909436 0.01266941255493407 0.05797102454292417 -0.2956650066472957 
0.3963996936468919 0.4323646770755893 -0.3860440891150281 0.5260409306755819 -0.1071620161022640 0.3510119557159735 0.006693368436178432 0.3058000809905940 0.1145069200440747 0.3281794988356014 
0.4217761868803167 -0.04121817009529761 -0.2632900735168381 -0.1869743537854719 -0.4305340612685826 0.2934789506405845 -0.2152949885158954 -0.1485956348491413 -0.05650722623346106 -0.2019232075145253 
-0.4052247268601328 0.4240423630744494 1.311075700413641 -0.01749964450099049 0.4563413953297509 0.9361054097072589 0.9717920883564968 0.7308657141461704 0.7998288276898928 0.5880681132785659 
-0.4999718338021523 0.3270055164023911 0.8803421337822607 -0.008242851553468910 1.034997464035647 0.1741381952128973 0.3131109340020938 0.6445379224001946 0.6148196763221979 0.6281068417694373 
0.04835930811762677 0.006766851720931544 0.2568289934145236 0.4860099542197489 0.1191430346915871 0.1645745786769561 0.8447637052454294 0.1831730676132317 0.3833416549259383 0.1122083706511261 
1.428091832356697 -0.09916633948195397 -0.6957152287550243 -0.09912402699796902 -0.2588759572553425 0.2051769533285552 -0.2918531585778018 -0.01926635854034459 0.05103534055063119 0.08861072528578420 
0.7127950223571895 0.3292937237418009 -0.2806805615446377 0.4886357662725144 0.2666529705044226 -0.1650002781974196 0.2174341724380971 0.2969838590840194 0.1657362267474627 0.03478445577352453 
-1.207131338191030 0.2404794562297114 1.529033613484757 0.03077812159821593 0.6899699901284523 0.3544675871173197 0.4439628634327409 0.2845013123828892 0.4176062754404391 0.4107227706201619 
-0.3387799758958490 -0.4074783647672646 -0.8942825382787910 0.2838760744221375 -0.5721067499031417 0.3752505123092826 0.1498130579103794 -0.2569516056769704 -0.3010548831721353 -0.2722199762104037 
1.085565151804118 -0.1793303704095648 0.01848554854055674 0.2809896402859042 -0.1425329576914670 -0.2491893382183441 -0.3994350668637622 0.02527767704589934 0.1294994321694181 -0.07432492209736039 
0.7063105236103762 0.07340339628618670 -0.3926441354388759 -0.002811130292437819 0.3955044500774929 -0.008164260468671249 0.1838418169771725 0.2638812911265677 0.1626452317919574 -0.1240200639606486 
-0.1814475372548147 0.2763010941705265 -0.2254868068632969 0.6470810916058550 0.4674371686992552 0.5303583004885062 0.6888376529017348 0.4491124400016320 0.6381913223544905 0.6017441434842513 
-0.3604899219876757 -0.3781024467708252 -0.2537306565333025 -0.1151041736390383 -0.08737096887434550 -1.290502344274606 -0.05219859395082085 -0.4333282918299705 -0.3297752599509593 -0.4132250494182977 
-0.2837923555645299 -0.8676167488807899 0.05623730528295533 -1.082204778524933 -1.088084366227478 -0.9857449404753624 -0.7660741332174670 -0.9405034349242379 -0.8116764066576133 -1.034772488033563 
0.1882476599265028 0.6426191579275669 0.6668280463229470 -0.1084050088810274 0.6564353642583286 0.03106959274443395 0.9222823768442514 0.5356578737661237 0.6628267578466706 0.4768692898635564 
-0.3733435979994277 0.05419477770454607 0.007499458953828440 0.1048628257087647 -0.4504572976493815 0.1483586003026452 0.2752918098222791 -0.2355282949768670 -0.1179245240680529 -0.05425729608357049 
-0.2267951319441733 -0.3198635714290402 -0.05590075356389005 -0.05412901116284782 -0.9509004198131373 -0.1716881937816735 -0.1823376031388309 -0.3857649324122192 -0.3447710815457888 -0.4413055524769730 
-0.9776493570469251 -0.3793185565565742 -0.3258686216082438 -0.1553909351503926 -0.1371222460776734 0.2501010467434701 -0.2548073654922580 -0.3081086502299177 -0.4550419116239054 -0.1842016756349920 
0.1925096005450284 0.4231126768824927 -0.006863761748833306 0.1324008769016845 0.1491239705161960 -0.03084438702475868 0.4079672940076999 0.4728628093750772 0.1547673202394008 0.5715073756971818 
-0.7974648906987021 -0.3741602480395392 0.4096343864079821 0.06623270372171192 -0.1512184062745614 0.2911663637612975 0.1000478464812587 0.06551403036812062 -0.06356418792169806 -0.09130246515119154 
0.02516401063318381 0.2610663955455795 -0.02957635999110874 0.4129996509693303 0.1959871270032693 0.8730446049896613 0.2861170640685926 0.04930192775833924 0.4051608227033225 0.1297975249088642 
-0.1416319733760759 -0.1544889208834308 -0.2344969663191078 0.3419136694478833 -0.3687323882546685 -0.4054739572400888 -0.5445447387736873 -0.3684514300071390 -0.2512060720534197 -0.3926248741549386 
0.1120640979043731 0.1082450624109437 -0.2728158881326453 0.4329235313508622 -0.06731671850766950 0.5650398634034083 -0.2981887907121302 0.03943843690716344 0.1938437315118205 0.07344133936123644 
-0.4446235551649910 -0.8190827356721367 -0.02984439113101109 -0.9646772068901487 -0.6582877506465513 -0.2962403040990299 -0.4649543168296696 -0.7481271969047827 -0.8265936956690546 -0.8569576971013262 
0.5010164963430206 -0.01071517258497850 0.4716756077884320 -0.2197296418727096 0.1118297366214271 -0.1990896332567129 -0.6005779354316324 -0.1747987306995550 -0.3077649540583557 0.01083913442193551 
-0.03697292040481624 -0.2521474371123103 -0.08297433378920310 -0.02430108805263508 0.2416987594659397 -0.04611296530590193 0.3949838193561990 0.05293358474255466 -0.1024220162621658 0.08371701926524290 
0.4454254332028524 -0.6120560870332032 0.2208037176713190 -0.7080042700927086 -0.4802010721944823 -0.6890502014108572 -0.4638661590600539 -0.6293025107679111 -0.6025712444995076 -0.7054048112295807 
-0.4877822154820170 -0.1399976517576425 -0.3213120646478587 -0.2191151833400883 -0.3788221230375706 0.2653711715301864 -0.3836616004010960 -0.3737435150426767 -0.3068785383162657 -0.2674403925159181 
-0.2072416357249134 -0.2872029803927654 0.6916681585206644 -0.2336445530422859 0.1922981303337887 -0.04255005660383947 -0.3195198948061582 -0.1719948452055402 -0.09486125703170988 -0.2400620510943311 
0.1202637458976436 -0.4550026327113680 -0.2284540685862052 -0.1189870649686668 -0.7264159699699990 -0.2999693497467351 -0.6236328568927760 -0.3881265873942215 -0.3471661580685292 -0.5448166141033862 
0.1312848413831314 -0.2541929893036946 -0.3106050774830612 0.06733092656900384 -0.4938753207954442 -0.4117634169106182 0.1119302448307213 -0.2346148583480389 -0.3062988979803444 -0.2153082906893846 
-1.052083176390926 -0.2669810923969933 0.3611051410072152 -0.07606271150914408 -0.4351352557941406 -0.3135355316655688 0.2463922420480518 -0.3445311460496279 -0.2955708766903556 -0.4321002887800047 
-0.5665079379689333 -0.09231073988003220 -0.6204440337687639 0.2197505906910197 0.4845638809996428 -0.3660015780075974 0.2284042542220055 -0.1707378378360134 -0.1711504738759910 -0.2404273977330082 
-0.9121315871532676 -0.4606969722373865 -0.1756822488909490 -0.2423101517209289 -0.1466479682557822 0.06929243118218400 -0.3621397027126546 -0.3433696418162470 -0.3611105228714521 -0.4264294945208751 
0.2013004031758306 0.7484232234288969 -0.1517146910724686 0.4462535214915147 0.7489589332997105 0.1770652887080839 0.4907668972855816 0.6875989272906259 0.5251345235756933 0.8453687817128598 
0.2279132578917384 0.3303778628114480 0.04320951671578228 -0.01646930656687790 0.1683412757959040 -0.03840014721315298 0.3098315187348225 0.3240183132865693 0.1439914441132772 0.3112908039628944 
-0.06711324113719170 0.05210589014081084 0.8697831928380534 -0.1277800641572872 -0.1829021039333957 0.2630432983882407 -0.2663229705808811 0.09627445299275819 0.07499184198758346 0.4075898208957371 
-0.5017687816142551 -0.1583383658644879 -0.2928059176202761 -0.05957581725097865 -0.2874891669094868 -0.7748200021532881 0.1084978784950932 -0.3928899663525276 -0.3459582007719889 -0.3068764819601953 
0.5170502624178510 -0.7428545701029531 -0.6212280968461433 -0.2942903780234163 -1.081621716343033 -0.6404776062546863 -0.2660657817470467 -0.5107627484846940 -0.6815075670319332 -0.5045642834759343 
-0.1123546625035251 -0.8987668310136335 0.05040095826238263 -0.9239909791425228 -1.185272669476511 -0.2623076348356858 -0.7103956509875633 -0.8898738045255241 -0.9054431587647446 -0.6850145253222325 
0.2273517430747755 0.5756345354534437 1.086860872804748 0.8538062707952140 0.7363615445426160 0.2523209195866236 0.5000929078109518 0.7288152020545936 0.6141643199517685 0.6845003732175723 
1.116577622040921 0.5654154474075478 -0.4565026003646106 0.7785393893385454 0.8641849866151958 0.3635180173041030 -0.05848385775854085 0.3788793235559355 0.7174572521187990 0.4162644104815190 
0.8334163362822611 -0.04416963143045213 -0.5474204854188583 0.09315609106756759 0.3041907750600114 -0.3818998706586329 0.3325620572327317 0.2625845770836714 0.1617919224575070 0.2766092711599243 
-0.3535299239837397 -0.1158083039096747 0.5303645319885416 -0.008828828738360581 0.1467812416119938 0.3834339497201242 -0.3285998935832261 -0.02550264460606754 0.04168192814249191 0.01424833902578842 
-0.09730799053746347 0.1439864450722481 -0.5180397760958734 0.09357231529109620 -0.07431104209863150 -0.2384012736955793 0.5130482433133499 -0.1095480951544105 0.1209630362265341 -0.2168160743397134 
0.6651419243785470 0.4857452845853393 -0.2308388033759043 0.7195929403421212 -0.05532928667147275 1.179824464499610 0.4381561420762033 0.5631507870699934 0.5474093976889980 0.4305265369043947 
-0.5963086527306141 -0.1813544946823078 -0.04144195103595548 0.1120250065278532 -0.1013627696725945 -0.3350228691791401 -0.8930769732899906 -0.2328052924754351 -0.3268128223482715 -0.1627219755398113 
-0.5375114363433424 0.9920193374463180 0.9506949796692008 0.8393476232732496 0.7830184161043353 0.5813858728407180 0.7474218648001371 0.7627569687665476 0.7370253076974032 0.9052007380418847 
-0.8586338138795795 -0.4265077999812714 -0.2328787266561952 -0.3300438473253494 -0.6688403813548360 0.02377548646398063 0.001324597209039001 -0.4419356782816097 -0.7131132735023354 -0.5361572099443364 
0.4128799060946790 0.1852645656792042 0.8551276881585468 0.05324834874489309 -0.08758366260872655 0.09767535794127427 -0.02471073393980647 0.2820375080401149 0.2052085211651159 0.1613558803720567 
0.3281048304514935 1.099236390098093 0.6283264884992280 0.6224852652213352 0.9720978156563665 0.5784832826303234 0.6863771043601056 1.000520201134225 1.022249233354684 0.9323177815456005 
0.6043089759646258 0.06503964085148753 0.3014692847401416 0.1518609940309994 0.4259730087552096 -0.2955008386793506 0.1222992256851397 0.1052366049797805 0.2097855344370235 0.1766728668146303 
1.724147889161912 0.8645945021111714 -0.6993512428646746 0.6643551409888268 0.5692205826870217 0.5243549881822700 0.5310174863568013 0.8160205740625114 0.9407356427489362 0.8224964196400165 
-0.6930754983171970 -0.8993170824489470 -0.3499175157565005 -0.8034825100964363 -0.9714012570316802 -0.3650814586348798 -0.4715841126169282 -0.7581092688611102 -0.8558020820971310 -1.121799448786836 
0.6490992105245623 0.2459540833986760 -0.7478908716107512 0.05469685083509036 0.5472087252826225 0.4729330480073360 -0.2314694483429616 -0.03981812488118140 0.1641100491221733 0.1998865589929064 
0.1054381817701950 -1.123861075104561 -0.6538913238278328 -1.085900930687023 -0.6811704972457223 -0.9668723170810025 -1.094961240437684 -0.9300016907414674 -1.007129617343924 -0.7864054430346046 
-0.1442636249658059 0.01253089683775258 -0.3371760161701130 -0.4182659056639275 0.1343387774259818 0.1749156856011485 1.072145900188233 0.2012374690810727 0.03889967355483088 0.1636112303033202 
-0.3127736672379585 -0.7149949766696608 -0.1965827229272069 -0.5488151321149247 -0.6955789199579576 -0.1825107789280579 -0.9573771950428837 -0.6613349806942808 -0.5473734517472157 -0.8764349476155007 
-0.9131492542152608 -0.6221665178453610 -0.5778214573710955 -0.5429794590636129 -0.7751024250764597 -0.4830891742484287 0.07012116584072557 -0.7135333391619378 -0.6763559430496610 -0.5641293659580842 
0.5085559066963248 0.6049656421128933 -0.3613733124640524 0.06638312737142521 0.1837249327380598 1.275864663659402 0.7152350340274736 0.5420218433238430 0.7127035763133398 0.4425997270420597 
-1.051231277890420 0.2008239316742031 0.8511198430102779 0.9205190778933624 0.3872293638561495 -0.07626482380669278 -0.4159066097119450 0.09565856233295220 0.1278596146932154 0.04573543264560696 
-1.136206681425781 0.2246988117465373 0.09067485588490756 0.9260151964070941 0.4432435168210311 0.02838198419359673 0.5523824347558787 0.3981471623006301 0.2335185167064964 0.5488363102730671 
0.8512339821200825 0.1262838483734430 0.1521397879345331 0.2843043695683729 0.01351987005043704 -0.2776488891388043 -0.07137691532576597 0.1683788639995960 0.3919175427351749 0.1276520234484646 
0.05322952930050472 0.6154731106625126 0.3802251437951141 0.2189544607355362 0.4305601249719089 0.4924871392069483 -0.03112568111789900 0.3614438507512919 0.4091105543147429 0.1106680861313152 
0.8810354143657704 -0.003332168555168743 -0.2877339553867667 0.2059920850193277 0.06611231248227735 0.01255476074162899 0.1241913525129111 0.1947162413607267 0.1693234632902706 0.1013225236544602 
-0.5409489435075865 0.2360714089018810 0.2831322724976547 0.4796678242976643 -0.02516525439909011 0.6031942118003764 -0.4274086977108261 0.1276583080009318 -0.03121310350725886 0.07355950359217021 
-0.2197195984793567 -0.1467767305379612 -0.7420961111583878 -0.3282526412830310 -0.2362362128071344 0.1102798575616402 -0.1535380275243678 -0.3672547829497730 -0.3632356616755835 -0.1399624926947228 
0.3612536953671742 -0.8892432675102258 -0.5342455371012861 -0.3832337271331647 -0.8759019905030181 -1.185121002967525 -0.5186283462723680 -0.7335397535634233 -0.6238243963471853 -0.7847771619594163 
-0.2381622026288467 0.2868049257422852 -0.2466502119082613 0.3364361230390624 0.1626196786270398 0.4135814218142821 0.7948963175212349 0.2762042415086619 0.1189578608572268 0.2196342372393229 
-0.5785714033482630 0.1391272702901792 1.006332121404370 -0.02781386222390627 0.1987093990779813 0.2869450823902393 -0.1204071207291653 0.1159999085049358 0.09977095713022162 0.1474557825098611 
0.4223652314521832 -0.6125697654050901 -0.7272087657286572 -0.2563662394752752 -0.8283243805386571 -0.5567824251789818 -0.4579702178213014 -0.7964374134152941 -0.6970147647187199 -0.3918352464473857 
-0.4068408888474029 -0.1519986731402812 0.5944905585385254 0.3799572830714736 -0.2642738444627847 0.2680705228588562 -0.3695957320773899 -0.1962415261797759 -0.1318624686380823 0.02280253861069362 
-0.09682333951512283 0.4163706612948497 1.302291729799582 0.6337140692774065 0.5683378568439345 -0.2962761257259425 0.1477728663294531 0.4956248591270748 0.5406338707546424 0.4379987967862271 
0.6118619429642387 -0.007198332728518486 -0.06896197975769358 -0.1110631204325517 0.01060703519349568 0.2086387229925856 -0.1443618640533059 0.1298853105315422 0.1446389593624795 0.1993602615480906 
0.2927751523038794 -0.1642526895586911 -0.3033721956353022 0.1692568117692329 -0.3491428063319818 0.07591031445637390 0.2534160370759691 0.06766853483534703 -0.004932002012161935 0.01633733948445001 
-0.1028048323562665 0.2644558606119964 0.2517765330709041 0.4188344627288382 0.4152654741276910 0.1243371655141138 0.2264468467779782 0.05011412542194974 0.3346444567761837 0.09114863498867758 
0.3370548510348813 0.6551706220792706 0.2500394250068265 0.7142595110177551 0.3579560958726384 0.02289807353269562 0.7317662776855041 0.4679244305520302 0.3173427671404129 0.4403513657487737 
-1.012999408303233 -0.9313530985146985 0.2064153616248823 -1.495059083648063 -1.006912285666210 -0.9108040844436557 -0.6452927707088509 -1.219729219199377 -1.138339871445675 -0.9677771302255354 
-0.01223204717959960 -0.7513890467362309 -0.7687788671193920 -0.4244355553434680 -0.5240556449123684 -1.069070945364676 -0.4427413067136166 -0.8677976234058060 -0.6687526169896183 -0.7087436374770965 
0.1477878072661358 0.7956321470639581 0.8264421719549966 0.1315966618643602 0.8731500623054420 0.5076740485986100 0.08136449660860565 0.6591439188606713 0.6063964668070282 0.6456758250808556 
0.2220332700028621 0.3516557222756937 0.1688752685946820 0.2332100905590628 0.9619650240652317 0.08084630918241055 -0.1154148320609298 0.4493746106265615 0.4609776830430816 0.1553921733836250 
-0.1431850202055222 0.4652599987249604 0.2333404389236709 0.4990053411242568 0.2111979465200473 0.06731573493083440 0.5394933481539146 0.2949383289599600 0.3846218842318616 0.4203907787884764 
0.1267350569179423 0.8190715318986449 1.029388179601467 0.7399541619609357 0.8590528393945540 0.4951909575226539 0.4896909017318781 0.8253403880530249 0.6064698425845847 0.8642903274347665 
-0.4489574002297524 0.07325564793874446 0.06270916239306522 0.2713209998210140 -0.1434157872141644 -0.2862457808717249 0.2638612182696534 0.04249532875167078 0.02597494000710587 0.1544811268149556 
0.05266269664002277 -0.9876743186810405 -0.8949667173436490 -0.7605087082975180 -1.022093191539274 -0.4053307572921881 -1.709116944264266 -1.202070302489454 -1.121493325588922 -1.073160854315685 
0.2521934351966128 -0.1282998703202996 -0.08166714167693417 0.03996025464666236 -0.1376476939892573 -0.5793156849517830 -0.3007180349581037 -0.2764874833365283 -0.2737491486355965 -0.4561391558137564 
-0.01747493685093840 -0.4623765873156709 -0.03863000656415531 -0.5220470042662392 -0.1647348885462275 -0.3745552020576431 -0.6277849660450316 -0.4018046020881954 -0.4544079741506363 -0.5523957420394710 
-0.3997135205350575 -0.4836240687577521 -1.081821912597293 -0.2540654032951248 -0.2618462850021610 -0.009542306305072398 0.2284232204700009 -0.4765192107733904 -0.5302623812606388 -0.4480826602085292 
0.1029111253455217 0.9041627885501471 1.191421870503853 0.5728207578725420 0.5635768116224394 0.9349577166960142 0.4617691594043413 0.8624194989384012 0.8534012911134037 0.7788745135584114 
1.181788787979636 -0.1948613865316534 -0.5221253361563848 -0.1065719453826050 -0.4345630062766489 0.1818099316946852 -0.07987514423560678 -0.01310260857592100 -0.08956260756096299 -0.03907972300749301 
0.3690571516879928 0.1385569859818647 -0.2555814327301688 0.2273268315908903 -0.2261134399060606 0.5518909453676915 0.1921973511482316 0.2189397958444747 0.09528796284682789 0.07402436181707930 
-0.2923491523274969 -1.076996589455304 -0.7656341723972783 -0.6234272444884480 -0.6011446445137086 -0.8647025623188380 -0.7286432645622234 -1.053143969584028 -0.9976593025682349 -0.7801572755366704 
0.1929349410070403 0.2470402971579584 0.08473124381895710 0.01852136009336006 -0.06540048435267268 -0.02210346615638270 0.06924684563747929 0.1002803757421897 0.1317063408607139 0.1699648070562922 
-0.01354795419191865 0.5600797174573932 0.3141884251942185 0.9823411002736010 0.3114759697118212 0.6228971065506544 -0.01433655310929369 0.5821356984814688 0.6490240385059130 0.4183477257043450 
0.4056572617538181 1.175403644175539 0.7481111387901085 0.9810414469637120 1.546951691668569 0.9175085257110703 0.4461961546334157 1.396902735110978 1.375429968179857 1.205199259097213 
0.1446530265067529 0.2711411636012300 -0.1480055517548956 0.4848388545721648 -0.04548989774463484 0.6374789443394157 0.4244707475412307 0.1354329254031550 0.2082779821913214 0.2287526226062009 
0.8726755084975499 0.4297546989174937 0.05770046871915547 0.2605686772646835 0.1918110818113180 -0.4081771219401634 -0.1427772532143538 0.2387944756736370 0.1613626716326239 0.007448409509599387 
-0.03803829807939434 0.2641798758027779 0.4032307302197081 0.1409670079670043 0.1123858599970314 0.2586915649283088 0.09620469916947060 0.3019927934084538 0.1297218335526972 0.03705719590056659 
0.8908542826471877 0.5123278715398365 0.6086196597256457 -0.2439219726492050 0.5127399063666644 0.4223604067721731 0.01681023383818451 0.3873794403825441 0.5850460464010798 0.5671764341045656 
0.01021345200340209 -0.5981162403407351 -0.5869845227231669 -0.5811712956086016 -0.7975137892134110 0.05727749933125381 -0.5571719754963629 -0.5190604626911790 -0.5798383130332878 -0.5315308311855138 
0.5112236209177741 0.03229916228523163 0.1040706005103732 0.2154828137917163 -0.2976843233955533 -0.02203416557547938 0.02212110316001663 0.1046177090318899 0.09301808330219638 0.009251687166718082 
-0.7070495512856081 -0.7791648874758689 -0.7962929807204289 -0.2144816151706525 -0.9188190085825226 -0.5739754634562747 -0.7320913580747871 -1.032417331285461 -1.016614338479994 -0.7671347896451375 
-1.099958266323695 -0.2064647795704978 0.2275049583636369 -0.2711754885006271 -0.03546970151353506 -0.3847344825683493 0.0008800401903792007 -0.3023432701596985 -0.4451612906895182 -0.1607705099150271 
-0.2647455625992885 -0.3627328190354925 0.05548021528584209 -0.2582853315878059 -0.5376541172406857 -0.01186034253016801 -0.4246369531199610 -0.6389689964749746 -0.5213811796331289 -0.4264839779073843 
0.7800123863231880 0.4871265619569594 0.3514062076431309 0.7285864579981997 0.4502232043873790 0.7511475481022098 0.01668956445228748 0.5789754415334669 0.6185137116359958 0.5557585548963051 
-0.2259942705108846 -0.3512612399027971 0.9621308174623839 -0.2976140378634687 -0.06381977732667074 -0.7278521270622007 -0.4994230711619374 -0.2563289916093040 -0.2053497358654764 -0.4074739973302441 
-0.1038024374903735 -0.6760856850858267 -0.3864671191006918 -0.5537349750981543 -0.4845190774944179 -1.068617024331409 -0.2577700479327184 -0.5817922899543416 -0.7254068467950840 -0.4519040371481858 
0.5938772272224286 0.6387234255467550 0.01698740336708332 0.7123991607591807 0.9336047818198390 0.6098335671195961 -0.2727366645261073 0.6767230398256063 0.5850076227640691 0.6461402480180908 
0.1083819176375489 0.1356636875953888 0.2849883939770576 -0.1799385374351111 -0.2324351776941526 0.6959905391111034 0.3988206681979997 0.3606563651989678 0.1983419836393195 0.2656636467615895 
-1.223421671922196 0.1530356574299382 0.3036222921416990 0.1496056346041888 -0.1729067136617304 0.3232544720258854 0.3277109936303799 0.1852398216342332 0.1176243725738599 0.09390854015683950 
0.2166915407210566 0.2182487586732195 -0.01319232125331108 0.6885830356216757 0.01480597239716366 0.5411771541861230 -0.4280185665398812 0.1098106152639560 0.08297179333093664 0.1495029528419573 
-0.08510003953068346 -0.3630185478136223 -0.4015366016611227 -0.2081531232431819 -0.6786375411202136 -0.01060092054989060 -0.01202593310299291 -0.4310217481690704 -0.5436461051016239 -0.4812169937697502 
-0.1999345531109220 0.3545751407440648 0.1573901423783055 0.3324573366236174 0.3720700227686303 0.06868987719363963 0.4237581951672031 0.2987804458912681 0.1858081349307155 0.2563202858973762 
0.2734738129887865 -0.5698975051466668 -1.141375485913688 -0.8400565301273225 -0.5566943245949354 -0.4167046516948859 -0.02236419627698548 -0.4633166348401900 -0.5725279934587802 -0.2326332432457363 
0.6827093227513203 0.1853654421907308 0.4877364937150914 -0.2654865621247600 0.1335956552885052 0.3087131593732346 -0.1765850091331770 0.2814700791575616 0.2536596679393193 0.2766360953593741 
0.1922609697134103 1.026865967881022 0.4455134873919597 0.3625151984902566 1.058375504693745 0.1660738259288078 0.6356244192305253 0.8033778672029537 0.6612429607387929 1.023591734093591 
-0.5649727535940472 -0.6647524394636573 0.4794574777153309 -0.6923757373408123 -0.3269662794987016 -0.5999322642730667 -0.6813000615093581 -0.6520971119531951 -0.5550348256399484 -0.4967166391192086 
-0.07391231003220486 0.02604538732589376 0.08422637147197400 0.3122838246556164 0.1944054005066538 0.09609555678128666 -0.03570588960532686 0.1933743943839759 0.02923945645253965 -0.08939642449151354 
-0.2991150053848519 0.1175519766904039 0.8454271084764520 0.08809337807452224 0.7567629046611999 -0.3142166016210681 -0.2032634940369147 0.2104006508029953 0.2165365556482124 0.3103711897634117 
0.3833136916476536 0.2012796657907535 -0.02401894042078601 0.1609568042126988 0.6545809318486133 0.1582163810222464 0.02634111633696788 0.4134432599622043 0.2873909816068517 0.03567716164641510 
-0.9848052452039344 0.3321203937305134 1.416691055822182 0.01769761506080378 0.2271712179610191 0.5060386091245856 -0.03615306762126019 0.3174484503375251 0.2306695951561091 0.2173609928034595 
0.6721166041419919 -0.02095796220978709 -0.4355909605261312 -0.2351491021305184 0.07847787574196162 0.09276017849864320 0.2431017756239375 0.01375995755542392 -0.07977785054478218 -0.03122540076743217 
-0.2099055000717844 -0.1366754371371276 0.05276617327912478 0.2608682836755697 0.1574873684273984 -0.03555125598732153 0.2673551341655609 -0.07807499112553398 -0.1426323129930025 0.03068021691301410 
-0.9110498224164700 -0.8938167783166308 0.3359861663090547 -0.5110739125715899 -1.052145754066437 -0.9097966893351845 -0.4400200657650177 -1.050832161634253 -0.8731937474485938 -0.8854296213764719 
-0.1655199407747538 -0.1778389519306827 0.4018874839968017 -0.1988156947589663 -0.4973134969161793 -0.5194901195157554 0.08848096817440443 -0.1918736799188510 -0.2054784697028890 -0.3012121291690577 
1.004652517378247 0.5822464443070523 0.3719229909013653 0.7604132675145062 0.5221371529206932 0.2105918761506786 0.6074652045112491 0.9344688375704988 0.8050048010289003 0.7275625232232890 
-0.3581336256957237 -0.3001996360321647 0.4580941443307869 0.1978942246531053 -0.3140512357273720 -0.1263293125664287 -1.148728161098834 -0.2524523857475424 -0.3065192779737248 -0.1271053454596688 
-0.2507241627560071 -1.371964730504337 -1.524241836764896 -1.290944664888713 -1.208220249184570 -0.9446856252301465 -1.293323195227067 -1.589616397651089 -1.538703645097391 -1.283245793443440 
-0.1231750866203322 -0.3071618290483104 0.1482591526879563 -0.7944009168841660 -0.005290797549797802 -0.8849030156378772 -0.05132653640958212 -0.5257504815186179 -0.2910071246601310 -0.3699191716235057 
-0.3144654334212717 -0.4617007093481250 0.8771788806872560 -0.3551529056983269 -0.3965564544368231 -0.1966998915181660 -0.7056948785869310 -0.3150411796900264 -0.4236925560886781 -0.3954788194230509 
-0.1618764488354259 0.2846265735475013 0.09945662917934618 0.05168808186892308 0.06529294404277351 0.7103759237612689 0.3006795714615028 0.4322010178344806 0.2133540104835160 0.3821710202716680 
-0.6374064616001982 0.009054749841887718 0.08230004412483001 0.2760361295745231 0.1600475766279640 -0.06429704531859771 0.1196041530353492 0.08149556925665147 0.2211980558050985 0.1152343752810058 
0.5240628489370451 0.3552952857984219 -0.2753899555437541 0.1604431517303804 0.1909942120704806 0.3523735854116569 0.04448525368166299 0.4519073183769976 0.3079696760822138 0.2245764396876676 
0.2563777669684501 0.5875637314701233 -0.2996668594885516 0.6295873553486192 0.4499042669798972 0.2130236149382165 0.6639404435958625 0.5008029276895067 0.6684436909306131 0.6644636372188217 
-0.4382155225415552 0.6743878899404303 -0.2327161789395844 0.3802823562670377 0.5661938858551351 0.8751417710786699 0.8693489742807543 0.4920479642380058 0.4498968740908036 0.8007336996549631 
0.3900300271414189 -0.8023153712788081 -1.114880494356082 -0.3341101520633864 -0.7042800986640692 -0.9930696250572745 -0.5482785695174961 -0.7690911316842277 -0.6468915128787751 -0.6977063307028621 
-1.062492466764883 -1.107131369436642 -0.1995124778268351 -1.065027091867403 -0.8086382191435328 -0.6666122249978296 -0.7486702182883220 -1.269978996795233 -1.208386359217959 -1.246704147034145 
0.5324869056290407 -0.8112676602701301 -0.2853376886554622 -0.6477492537963107 -1.007500467120869 -0.4405784937573781 -0.6741522537954707 -0.6480006548286406 -0.7941893942383500 -0.7968360949707589 
0.8834743571851140 0.7676033987256449 -0.6470574156192813 0.6295479311865234 0.5140546699874028 0.8091379716030426 0.6667377093676299 0.6694244409843341 0.8592594986357195 0.7242860682461402 
-0.3909423814970559 -0.7636278233238323 0.1098082804674753 -0.2871970726920224 -0.2177556827863827 -1.040218982091311 -0.7596660794598893 -0.7488096239455740 -0.7100370755994836 -0.7791116895557789 
-0.1145147036611407 -0.5134147591987978 -0.4734794448084585 -0.08787938841526877 -0.2078540227628219 -0.3871054513342758 -0.5189308105863231 -0.3421601751921542 -0.4824026804273675 -0.3673816791215648 
-0.07089319896247212 -0.7101877771675120 0.2172196869439630 -0.6801559799552165 -0.6234316712994404 -0.5923124147647386 -0.9297983280937927 -0.6931240145582541 -0.4834765393264089 -0.6155845774860442 
-0.5142408133839953 0.2566253228684690 0.2230159917485602 0.5634452189019311 -0.1541571874553710 0.4705046796111086 0.8941090934967649 0.1966282722164640 0.4956968816343459 0.4431441245485205 
0.3109584690090601 -0.4827870693739981 -1.335058796431815 -0.1971953430992137 0.03035532236376863 -0.9922541755558433 -0.4047624874783307 -0.3872320897939960 -0.3244557170758985 -0.3189575200004976 
0.3705066521650995 0.4391444381740550 -0.2131218250301344 0.2368245597218362 0.6117819150867490 0.04578117562410852 0.8674445143432931 0.4645010995790943 0.5563840844230759 0.3387066048153911 
-0.2345919821653395 -0.1580234736697761 -0.01651924676794378 -0.04883039990852563 -0.3922625616491369 -0.2138915832186325 -0.2786609897125769 -0.1746170042372086 -0.2037827321146002 -0.2970501460014932 
1.198503023534097 -0.2671466159943082 -0.3352917929201928 -0.3588175217961028 -0.7176160892943132 -0.6607246240042512 0.1386548675005423 -0.3490403324368173 -0.2386900145657056 -0.4110554474719833 
-0.6762383030141967 0.4048646146461181 -0.2718588406537029 0.3071556029392864 0.5053272834735709 1.226216956428149 0.8199065050612185 0.4401860699189806 0.2788000165536083 0.009876943553316154 
0.4905791632820042 0.5362001026654750 0.1600272664324467 0.3469130145996691 0.2874241611606507 0.2493656862115848 0.3197860048714087 0.4723916943082933 0.3845141591963426 0.4100201798557522 
-0.4547706493314884 0.01387756752622044 0.2160491790580256 -0.1668736887270330 -0.01585648716628614 0.5452222915577639 -0.1510291453704021 0.05606247262475637 0.1559165111264698 0.09201521879905204 
-0.5178700709382811 0.4136043465740426 0.6868109590110568 0.3225929861697914 0.9312137195849952 0.2813329715776982 0.9972361189426654 0.6789757919093913 0.7415898568347776 0.6924027243336467 
-0.5971182351989821 -0.1509417114009962 0.07483661180629399 -0.1375182182940852 -0.4236182130290445 -0.3893013257190638 -0.003236172251349752 -0.2240000067974443 -0.3899866670945690 -0.06116038440681834 
0.1486814999031454 0.7397191444372576 0.1911475455222431 0.6777897822548374 0.3992735720863634 0.4906363313624238 0.7687104074148244 0.5739230740325213 0.5789187277882571 0.6311373280632498 
0.5417721636057333 -0.04667739905827412 -0.9484987944932094 0.4340938365026017 -0.09565585705361997 -0.1518743099264446 0.3151242368295044 0.2445254060832765 0.1551428482803818 0.4028958884248581 
-0.1773630799367036 0.6980181822209931 0.09735030124815772 0.9089419386934902 0.9558375253628172 0.4222537170212232 0.7767807387106338 0.7741165196759956 0.6713083527835902 0.6645119887133956 
-0.05757578883669859 -0.7589460782564302 -0.2021171727550559 -0.6075874292567086 -0.6894195507143603 -0.2967387573826080 -0.4611533765449286 -0.6709795451799223 -0.8957981619574112 -0.7639176070944891 
0.9823435660475699 -0.1407155448831789 -0.8827185334923715 -0.2415540625360648 -0.3021998369625911 -0.1072632321199359 -0.5346957678738418 -0.2051405981059594 -0.4093256743005740 -0.3512508222635648 
-0.7281537027200682 -0.3971754208873389 0.1482447432190200 -0.5526037295833163 0.09951129368600437 -0.1204253757656331 -0.1702805405267623 -0.3659454549763971 -0.4013480445346616 -0.2741336258694324 
0.2323772281443229 -0.07421405319474005 -0.9295845256323031 0.1789010180989388 0.01060543709954124 0.1607846114983218 -0.04276161740252132 -0.07426139915565186 -0.1258378503826423 -0.1970941019790720 
0.2810471919029361 -0.4585754557759346 0.3893451535371791 -0.1747488975400964 -0.5343064685723236 -0.8254227954449116 -0.1754306700798025 -0.5736624612831310 -0.3052557806054911 -0.2975126683533171 
-0.9536845591583964 0.3015721534480544 0.7013809644509453 0.6861456977399017 -0.2410867538054616 0.4403898139039211 -0.1273768222134028 0.1205405640463075 0.1834580284344328 0.2354137214175745 
0.1766350091917716 -0.1359493335377165 -0.6496476055376743 -0.3025324251024266 -0.2230782656166267 0.3830127583113928 0.3538359979425734 -0.2650854225096575 -0.3229332028221406 -0.3952218900864906 
-0.7690466965531455 -0.3845361156130884 0.1104943983460141 -0.04326925324620227 -0.4157284686059863 -1.037197992022592 -0.06609060821090855 -0.6029608881159433 -0.5507372457744882 -0.3758368111627360 
-0.07786795131331735 -0.6851824330444132 0.02325281865362750 -0.6301155674955644 -0.5270376447088592 -0.3859111420031950 -0.5558207812315639 -0.4672133260952454 -0.5078776226279184 -0.6782473360482988 
-0.09107942693096681 1.271663270784748 0.7773911588265523 1.115468871903392 0.7645111341080860 1.630626488524068 0.6094920265790466 1.123259631039536 0.8233068196903063 0.9616654191117304 
-0.6491204957914485 -0.2171361934288286 0.7394152852708931 -0.5647141812961961 -0.3328459589234927 -0.07849257341685664 -0.008336434510858666 -0.1982869206867861 -0.3534676689760254 0.07834976676431472 
-0.2794544241660733 0.003446017020526125 -0.3688210078428307 -0.08712088889677254 -0.04914633788024106 0.07973645795761364 0.3257762828958470 -0.003837390101699668 -0.03438588814670376 0.1048999833801680 
-0.4122376871780485 -0.4229780805500130 0.1134159423518953 -0.6781641864259146 -0.3645786664330318 0.5816971446738534 -0.3707755569584839 -0.4423448343859928 -0.1843570982287412 -0.4327517369107280 
-0.9063872657976559 -0.3665074593705965 0.2500185329479877 -0.4745699455221186 -0.1733358296992543 0.02998498072601514 -0.3652624449309539 -0.3002909633794270 -0.3387358835743318 -0.3139915820232028 
0.3071907091419199 0.1426611575620227 -0.2660879459243344 0.09209992717312278 -0.2530137361191936 -0.3703238402617748 -0.07987366760047573 -0.1884103940718317 -0.07933341330345839 -0.2195664193345405 
1.193567079831504 0.7396967754877979 0.5099391686786696 0.08993108869375858 0.8475604848963587 0.01748704290497264 0.3924831502691782 0.6564261818975894 0.6818673377652410 0.6437400560409086 
0.3562313819112364 -0.3365969024980666 -0.2896131884230239 -0.3574707845551916 -0.5107038290350296 -0.3547983475465295 -0.2969093554189289 -0.4486860707986899 -0.3496793156757405 -0.4719721298794212 
-0.5523424714631835 -0.5103630944492223 -0.03895492483095211 -0.5209757159953995 -0.07290702537982420 -0.2500007599351893 -0.1107801781891921 -0.2627681736895859 -0.2643583295187403 -0.6444613188647842 
-0.1704117696655472 -0.4050848965647713 -0.3912107481128724 -0.3796447446158463 -0.3951274147482273 -0.8648829232530073 0.2911435810621000 -0.3729321644359173 -0.3911750551979549 -0.2296915314938716 
-0.03097700723684186 0.02872658102930039 -0.5804839071088989 0.2699439505801554 0.2541211427450221 0.2097459894915165 0.1909320869185333 0.04365014707443934 0.1273921539654686 0.2067416781066652 
-0.9063128693373497 -0.01783490290300322 -0.1202553711496354 0.1857985771720507 0.1305741393020552 0.1271235024232785 0.6959597858838376 0.2795977830682981 -0.07157849474634530 0.1983347777516014 
1.004780888730130 0.8427422824897822 0.07475507040979974 0.5210765840744417 0.7834839228487873 0.6478058639293179 0.09968986844355748 0.8268562318200716 0.7482602553129234 0.4855847542820117 
0.6875500218132764 0.3942458095329338 -0.06335334837847316 0.07047136206554802 0.8928607611484438 0.2436355413514038 -0.01026908252180172 0.3241392058072100 0.4346938326198878 0.2475224640562307 
1.362588323990463 -0.1270644819754055 -1.554863903718474 -0.07725557429182620 0.4275335544560777 -0.2775495399658475 0.1012610326950478 0.05455015841340615 0.03660591749828368 0.2531492214857678 
0.9839849275355090 2.103043028675371 2.276693827792202 1.999228062122021 1.773179844404144 1.063455800481717 1.299581503444365 2.122954754526713 2.299553793093308 1.870102402645489 
1.169585470024654 -0.1607761038514973 -0.6393551719901915 0.2039992976811342 0.1579136862947375 -1.069584662107150 0.001026768712055368 -0.2201116015392893 -0.1959928838069111 -0.1400584779586851 
0.3344257378325463 -0.2359234697334962 0.2426537508991313 -0.2821368688931704 -0.2715107321974530 -0.1144055796164834 -0.8223342350966160 -0.2717552762182130 -0.1747807615540853 -0.03389629478189716 
-0.2459406379500868 -0.2842524982880017 0.03331057023654155 -0.8416441550442667 -0.7872676353867380 -0.5102827701758877 0.2517084656047277 -0.4540236570492077 -0.3523370449480283 -0.1261403068961920 
0.4511395577789120 -0.2310516165072586 -0.8202696089342182 -0.4523296908202833 0.3762779560891129 -0.2137376033849251 -0.1251770226341218 -0.2434972484320410 -0.07098733367175616 -0.2813971906852903 
-0.2607007580418941 0.6102046696103006 0.7531249345074723 0.6643255520217403 0.7720826476281819 -0.001964261899261608 0.5562922990264361 0.5612456927284034 0.4832949769968879 0.8228125670127900 
-0.1894192667478011 -0.1397951506204002 0.3378455247219351 -0.1367432860409079 -0.08093853814739309 0.1193383683585958 -0.2691398845887556 -0.2010317403040411 0.01445585155843577 -0.2192921720632128 
0.2779501629225796 -0.1776725825410526 -0.09347719047554645 0.007880237427508567 -0.1254399441360056 0.1396398782317842 0.1414356401698898 0.02165083033186293 0.3540076008390202 -0.1357336618372902 
-1.384665420038569 -0.3817129672493599 0.5723080133976680 -0.002898566598358767 -0.4772287944122277 -0.1227853492828134 -0.2504589283303323 -0.4141196936110593 -0.2938938272050248 -0.09920892847702951 
0.5167429040716496 -0.3358574855359977 -0.8188727164220196 -0.5684860154566466 -0.3954902439637407 0.003995852417898475 -1.018987965368693 -0.4586955478278422 -0.4319954825141637 -0.4777038187623780 
-0.2413613551075761 0.1004213671533832 0.3825696793939799 -0.1571788478421226 0.3844129328170283 -0.06129618629035902 -0.3018247567877086 0.08028604718511341 -0.07770659488518564 0.07261851338995964 
-0.5202308724549705 0.1545002030656655 0.7228473446878304 -0.1165028551072059 0.1960887075778026 -0.4605491582527749 0.3107877648599876 0.1364057497613832 0.07941681896739400 0.2311049837243738 
-1.733469714192602 0.4069817409919346 0.9785625703517049 1.092745958317792 0.7057914923906053 0.6637703792875140 0.1030262241412930 0.5233375847382743 0.5080448045871616 0.3046150643900550 
0.2338066285716385 -0.6652059966035112 -0.7249957039316844 -0.1672565932416716 -0.3385125808010518 -0.2653036925127361 -0.4516919867481850 -0.4870626166966546 -0.6132489578890353 -0.5930670769943813 
-0.1547448407372018 -0.2799303219837826 0.3717436692792674 0.09106345112092132 -0.02209693790674134 0.09685241220835045 -0.5692700941605248 -0.2105496608511536 0.01590250126449773 -0.2098461586386770 
0.2255278729413690 -0.9270652138357401 -1.215179814542905 -0.7295672914755383 -1.057899111915459 -1.245893587141151 -1.103267119969578 -1.156556248668235 -1.371413275627676 -1.316217970433792 
0.4300295257008872 1.070475177957811 1.755329580404326 0.9079523466162792 1.019291050783824 0.7569063085684304 -0.06191548655597005 1.192533805518552 1.226906355410713 0.7629472215295412 
-0.4551322877444664 -0.1216056572643587 0.4098272393207413 0.1698033407980852 -0.4725944074907257 0.2221523265948726 -0.03195915507869906 -0.1232671863327363 0.02591264505163328 -0.1928771654421158 
-0.3950204920396929 0.01395803215231108 0.3935277484401348 0.7413285880503894 0.5384122608701922 0.4981812416070749 -0.2771716851279784 0.02237972978257574 0.2637210760119615 0.2709867386206115 
-0.4579604736817065 -0.3979825731148459 -0.3378846840745356 -0.4027887182391978 -0.2126945922902123 -0.2385820311961942 -0.4718606032859481 -0.5982106976529085 -0.3453225111883040 -0.4751153076370423 
0.5299978692389504 -0.1155336928098585 -0.5720148442896531 -0.2431287202773808 -0.6816120128084825 -0.2095909363393680 -0.2321355538156859 -0.2912211158229608 -0.3541074835223851 -0.3523763790875270 
-0.6368683502229129 -0.2836969989814010 3.290053509411007e-05 -0.6781244818036426 -0.5710377092009205 -0.3592602568213181 0.09771259157652802 -0.2602952798621980 -0.3651796056703394 -0.3572082066240644 
0.4456108151011226 1.338413217252615 0.4117995479385536 1.514742336658868 1.199724063903549 1.309511727059887 0.8258466313971566 1.454304154906023 1.452463394193263 1.423606708583365 
0.8202971974816358 0.7068784690318114 0.4076945889428231 0.4065409320742630 0.3780919837863311 0.4011540577508314 0.3694667635179788 0.6081199581181074 0.4922460852608772 0.5378839787604680 
0.8693355502712463 -0.1717893696166839 -0.1411236767347296 -0.3475476454518034 -0.08978570418093293 -0.5853446952160509 0.1340154005129952 0.02292772753945115 -0.006112209489655277 -0.1496921222888969 
-0.1514327830258261 -0.9006247645289446 -0.6990577642793399 -1.119494238573271 -0.9630357664452679 -0.4895356150743940 -0.2482068561930446 -0.8814038150335110 -0.8818736508166566 -0.7689150197444880 
0.2681221524581249 -0.3023983330649448 -0.3893366880415109 -0.2348743444332552 -0.3745810470372742 -0.02031089097680791 -0.4069829615469777 -0.3912644922498520 -0.4690398282130420 -0.2209399870989074 
0.1909588933181710 0.3219613040048351 -0.1050415018039118 0.3170372027902569 0.3287520922995038 -0.01619048929304917 0.6039282010413222 0.3007431458338802 0.3033514007165336 0.02705331880781548 
0.5517028689779806 -0.2599354346293914 0.2734457708237658 -0.3078866083036790 -0.7256393204808692 -0.5975047365902528 -0.3198756075529244 -0.5183898963403776 -0.4546469528914566 -0.5363753875390326 
0.1920251267549473 0.01279756690009090 -0.5676614000283537 -0.2188640257527981 -0.02221855294261530 -0.3085116222565236 -0.1872614005054863 -0.1623384523246886 -0.2280309093393431 -0.1182554631628526 
0.1607201516763359 0.04300474295603986 -0.07096197423237333 0.2986553290298347 -0.2002687072319750 -0.2296942252484742 0.1266839848065459 0.03182047413277443 0.01920700299333008 0.1203947518811572 
-0.5537029855649034 -0.5845289318392184 0.03692825738314265 0.2445094220435793 -0.4283922746809777 -0.3810251161492730 -0.5350986314831501 -0.2452058502983130 -0.3119562474647314 -0.2622524690800027 
0.2275833106391111 0.7506851425744169 -0.06079568750057169 0.6004871324852531 0.8399943625893153 0.9435181451205102 0.6883899573261035 0.8133969670955763 0.5382726749290011 0.8676753894346297 
0.4036203475033577 0.08585481015530931 -0.2623317456968944 -0.5922721092303173 -0.3464498377362030 -0.005770703405863387 0.1269822807627886 -0.1084465018310990 -0.1624392772799377 -0.2008934914184991 
-0.6678211525760476 0.1720587239517931 0.6984557641608720 -0.3857016016012432 0.06497385605937703 0.2389962910429133 0.7614059504630545 0.3763184576828784 0.2264213011118281 0.1731009318741993 
