solver_type L2R_LR_DUAL
nr_class 10
label 1 11 2 5 8 7 6 12 13 14
nr_feature 299
bias 1.000000000000000
w
0.3733999551184691 0.4980773851691972 0.1530827762161642 -0.4994380091468302 0.3281196987352823 -1.190872001029334 -0.06619257423377306 -0.2219279608058384 0.2868593061505492 -0.3957112288499387 
-0.4233067153777359 -1.034185901541828 -0.4800040353532724 -0.8297065019554040 -0.8433035129158316 0.4101671657212582 0.08254000297566139 -0.8978196514972903 -0.7983334524953515 -0.9586613196387901 
-0.9579205140046079 -0.5081279860133338 0.8144172521339877 -0.3091983662064595 -0.2174709524134500 1.342832806074294 0.1117739096599560 -0.1670951381506577 0.3347474160382497 -0.2734443993851174 
-0.1365998221698662 0.1535477898583892 -1.211814429390614 1.156510486704115 0.3127428180787922 -0.04999464046693265 -0.1622610203610291 -0.1822378239336532 0.06822064549332446 0.3902530120385735 
0.1022843770032147 0.2536493894450042 -0.2813648712827935 0.4167873635879878 0.02119714399250889 1.319829735518512 -0.6305994612346886 0.5007792708728352 0.2353961431998783 0.5496588757452750 
0.7079365179420108 0.3768170420095038 0.2273178651571269 -1.292825571301968 -0.2869305096379423 0.7221252324102230 -0.3957094283553448 0.1095667947359526 0.5743330609012600 0.4994451440301391 
0.1991282712967286 -0.4559586691452434 -0.6583882436074668 -0.5770104472480501 0.6671089629737784 0.2419174018013481 0.03487731313503752 -0.6304459554732604 -0.4252630203921488 -0.5445536068148376 
1.011148382557056 0.2854538742682429 -0.3591787610094858 -0.5629104268360230 1.243509995631376 -0.3217003383409409 1.483311355066856 0.9913992330265573 0.6815489908430841 1.449971240886775 
-0.5306608581324892 -0.5034607634794440 -0.3361789192731769 -1.130413719095910 -1.126194867621787 -0.9446685584936632 -0.2394683728840105 -1.581813136527051 -0.7778596735983209 -0.3329830808768409 
-0.2460296089761070 -0.8426644873351021 -0.1555962670103709 0.02888794605859860 -0.4570275167433505 -0.9640601389764650 0.5789881755519241 -0.8381329381093008 -0.6692221954590644 -0.9695243805250106 
0.8815119187593906 -0.1928966741456437 0.1006833719630570 0.7338684161190668 -1.076592244385380 -0.03833368601392788 0.07508106624144625 0.08185613977175896 -0.08849785874767019 0.04012744362036719 
-0.5381185094613785 0.4527807926585928 0.8560058146861360 0.3192024922073944 0.8229050219858163 1.051844810012502 0.3074874349283612 0.4163693887166416 0.8776755853367574 1.015086486580078 
0.2200928224849934 0.2885340475848379 -0.4482403330850757 -0.06813211433033782 0.3729914761881544 -0.2676795288694445 -0.1867242265864967 -0.04096522564155612 -0.5815034516607502 0.3214270323884852 
-0.4007476264922500 -1.393178028717667 0.4090203042587431 -0.1911898761474024 -0.7497078986219875 -0.5282379930471901 -1.086751699445527 -0.8396193086797182 -0.9142712347658928 -0.6691314731444045 
-0.03936373520870640 0.2178070753246238 0.07651519162563089 0.2696135765434561 0.2512560758062933 0.6831771302647223 1.151380471911639 1.215985574444914 0.8014031874729053 0.7922365277749738 
-0.6031141082492499 -0.3052469838056797 -0.4631007609361589 0.9014448776254771 -0.6728924254513895 -0.1885007838238980 -0.9027218552238239 -0.9090050215715223 -1.081092466985479 -0.8079425205609928 
0.2302882711538559 0.02042528525814699 -0.9106336949544547 0.8329382232740430 -0.01279876242128577 -1.030257306587990 -0.06762876468379077 -0.1818484843873140 -0.2574227158300010 -0.2616214912471057 
-0.7933668613316182 -0.6596573586473807 -0.2517688425158984 0.1722836473659582 -0.1498557096255938 -0.3264653963412488 0.3126319682020922 -0.5517327467487194 -0.4470046877930256 -0.2775121540979179 
-0.2050484162770583 -0.2630194153113865 0.9018670284949883 -0.4249790565317911 0.7378572284058534 0.7628882430384520 -1.175589723475740 0.5592504461899953 0.5063899390952882 0.4511391477593589 
0.1382641525499048 0.1616581159815020 -0.02277256471235433 0.3754232334344900 0.2017978058358765 -1.058171565649305 1.219556270338972 0.4662670343689905 0.4715419154084877 0.007085640376250958 
1.208566063488514 0.2505401861901017 -0.8437917795738085 -0.6429022591637691 -0.7486853981894697 -0.4170916134007153 -1.139557504355454 -0.2536988174146841 -0.1379624193103652 -0.3456154441483380 
-0.2405011394657911 -0.8579544528303394 -1.064336078276945 -0.3560044371052933 -0.01551591895273934 -0.06827742125216146 -0.1294285240502317 -0.5549323825467699 -0.7551043823541963 -0.4334933766954330 
0.3224222912771501 -0.2309898043781411 -0.1974098943053993 0.8809015734530836 0.1701309378918917 -1.126271575559044 0.3774525587919123 -0.02014953678754591 -0.1348289138125222 0.1364039396986368 
0.08600070058697426 0.1196537963505778 -0.05539378574693664 -0.2939770680357695 -0.1286787269550547 0.2667069591088626 0.2042893242458679 -0.3135246869658003 -0.04085154782515266 0.1425618744053644 
-1.006596712936988 -0.1518067372811500 1.752631551118361 -0.8808407759399332 -0.1767727441149893 -0.9465887911080129 0.2173906225531519 -0.7250064257616414 0.03561756553185131 0.7874566097455395 
0.3881180507947058 0.1932837637666083 0.1187852495840121 1.200198857041917 -0.2634684795661701 0.5322999746856100 0.3403201531764818 0.5807098524041714 0.5941710298744306 0.6504786567247678 
-0.09292064576980481 0.1798632612081529 1.481667280438044 0.2515145764631510 -0.1976003151185296 0.04331560291455814 -0.2873962437938414 0.4994946707081428 0.3417076901517437 0.6191523137414855 
0.3066055640022097 0.1563479655728906 -0.8431832615181416 -1.499141374187596 0.1134525069328401 0.2888518528342131 1.312062780069939 -0.01036870975658886 0.4775785043764861 -0.0007205206247369809 
-0.2768535420195394 0.5110520590440564 0.8160384165485589 -0.6426419678020230 -0.04320516457013623 -0.7512330295743994 -0.3253213577260501 1.045415893568801 0.5647852198326998 0.05182510384507340 
0.5680306868187477 -0.001090664162494173 -0.9327955311886647 1.202558089684345 -0.4860413780474133 0.8391193727552259 0.09998830650988513 0.2984672155650313 -0.3703246693003390 -0.7978714759971997 
-0.3521454820502399 -0.5422244121264459 -0.8002533504637954 0.1032821664831879 -0.3736270862748073 0.08611546503298748 -0.02653642120788407 -0.04190427824043182 -0.4389608285461234 0.7127146821709005 
0.5820499267775344 1.195612336240542 0.09082934630583840 0.1473105531040504 -0.2450658569010842 0.2069904923161902 0.3770187025410040 0.6506329138821796 0.8706214232511770 0.6333573087725808 
-0.1095491285558089 1.183424543483428 -0.1852109859721465 -0.4938582982614130 0.1354717196794929 0.9158606743300457 0.3606318554716328 0.2514401273680560 0.7911686143914388 0.4062949690201602 
0.1088669874683090 -0.3995498466998580 -0.1430667191222100 0.7141456736698459 -0.4553868592171305 0.9364526349322928 0.0005470451327342076 0.001947190105177426 -0.1827092687201515 -0.3523526441620679 
-1.178004417935774 -0.1421909165159917 0.6145388533444843 -0.6930529086290645 0.6231460860676467 -0.006991099407185503 0.7738203087327199 -0.4190549560789875 0.07952675776427953 -0.2201486449294713 
-0.4868796833651232 0.1840348464643978 -0.01071130996319071 0.3959591074993448 0.8120431736217222 -0.6094852947573270 0.5231144282235304 0.7942062426025838 0.06487443577485692 -0.04514755005654612 
0.1928567556051480 -0.4446504677979708 -0.5641627510948707 -0.4471672440189766 0.1673670730467318 0.08592473938367225 -0.4081130852537694 -0.6012498599318925 -0.3293723326368206 -1.316215011645829 
-0.1928212818686537 0.2482271862490757 0.3491199161991674 0.3469331776624072 0.08992558730719498 -0.9381227841829869 0.4371004844340486 -0.3416976949391655 0.01182464725301226 -0.08265926413064455 
0.03871602226993657 0.2643787184900404 -0.08857075040746375 -1.050532528241134 0.1524455191725752 -0.6573401781100700 -0.02953972173578632 0.2753457840695770 -0.2077463116058649 0.2222287716112132 
0.01563103680527911 -0.2943847644134666 -1.093580545088887 0.6080495534732210 -0.7320515008206445 0.09503543295866537 0.1949520066507237 -0.7198711022716288 -0.5915422498314076 -0.5422322979637730 
0.1470031010271454 -0.2083194113345081 -0.05945276954444484 -0.5509607415616186 -0.3255273885595472 -1.157524434491554 0.3366820169312119 -0.7672481542781172 -0.3874398916431676 -0.05398767912472458 
0.02181121994635230 0.09016112329699366 0.5870166913271282 -0.4721254129819019 0.7533904629275406 0.4665727739899831 -0.2658394767263702 0.1846525179701036 -0.3855109047728072 -0.1438159589885372 
-0.7760680039694814 -1.509772879311360 0.4158468253593232 -0.4743005199401332 -0.4606368940306324 0.4455720073235859 -1.098145536426050 -1.241594061352373 -0.9378965851144201 -1.115948160365320 
-0.2643194499007392 0.9340566223539516 0.07446297660922320 0.1442400728219430 0.4076351966939952 0.6224864824630373 -0.3887864925495380 0.6938915047511143 0.5544263721852840 0.4134352683306749 
0.6113091538771251 0.6655671115510404 0.7256924175013270 -0.6016714293478549 -0.1303873769317468 0.04701928801227624 -0.8665494977777927 0.8810266179229194 0.4216444002981155 0.6837918818063764 
-0.09187146355141280 1.042126922936792 0.3276510631042671 0.8448506947495980 0.5993107663875172 0.9313221660274502 0.6744010039995282 0.7965871097811167 1.100049938649526 1.032722407272659 
0.003603896747651116 0.03598469636099011 0.6999387210349297 0.2751109802829596 1.152556284397903 -0.2813464286352614 0.9125043043363191 0.9372222388095268 0.9042523938776421 1.346741446955047 
0.2812019208662085 0.2483592286779196 0.3472347340980468 -1.151542952211404 -0.1580000124343073 -0.2978289948617048 -0.5941895724094294 -0.3004536389555697 0.2500576773543922 0.04279352112037925 
-0.1554437895763509 0.5999330677642414 0.08518815115366496 0.7857387316258858 -0.1672067277497306 -0.2710281837960863 0.3796761141891942 -0.06474380771164027 0.2796215279120796 0.2281336247215735 
-0.5889141943043251 0.4711924771668006 -0.6407063675425089 -0.2942332244926545 -0.8735396119734417 -0.3698900876445913 -0.01121705484890573 0.07769379443923052 0.1435767339111415 -0.5213503209928989 
-0.6705795879004992 -0.2452170401645218 -0.2950664759778972 0.6309202239605831 0.7912425743964457 1.233018695405904 -0.6682096597492888 -0.4605566379540544 0.1644330539426269 -0.4742317709901854 
-0.3410998811598118 0.1365940652290719 -0.02867498853905486 0.2937507838726498 -0.5137514039965175 -0.5024459635011856 0.5378955664140797 0.2164270173375114 0.4873124300308590 0.2724247288305960 
0.3702553762735506 0.2772780106452703 -0.5602076533886112 -0.03487323471597698 0.4809946562396285 -0.1817461924002593 -0.1789662068037282 -0.2614778163830377 0.2344147849247926 0.1846809673993558 
-0.4399933033204825 -0.08347146347840786 0.7863901334102437 -0.09328702289027181 -0.9048617189233338 0.6448330746022995 0.03092268953761099 0.1589730355101397 -0.4573576017149995 0.6923641308466651 
-0.7833036837113141 0.5573260541980459 -0.5018594985697975 0.6768244373508077 0.5337862057515527 1.209396884807491 0.2040363227245923 0.06866707221337466 -0.07309515018850692 -0.4423418598311694 
-0.2764256616814613 -0.3494785523472649 -0.3118031347183390 -0.2942761973791971 -0.5803810007179306 -0.1906642479177784 0.7748530306337704 -0.1772506893650963 -0.7300067058856734 -0.3865696671975384 
-0.09298022788649166 1.198803391994648 0.1798111471848463 0.5919214894354389 1.495921391873821 -0.7563445136815672 0.6296743452913467 0.6770889702139945 1.159454525052336 0.4983683140600071 
0.3928712916543782 -0.1579853045644450 0.4748029256653133 1.511833577591541 0.3215186066884527 -0.01980252257329428 0.4134165807557174 0.3433047359910631 0.3791890649341813 0.8243078372512168 
-0.7378998056960556 -0.1916164796418013 0.4814069109679577 9.231479949790006e-05 -0.04929967240538783 0.1955915168483290 0.3131355359268706 -0.4238284733284601 -0.03637582557154690 -0.2264346192008262 
-0.06426392568928863 0.2251787803702040 1.342590441554113 -0.5066428589930712 0.2070475910599067 0.7931283173261374 0.06625392945369549 0.3935506523474531 0.5747210263619442 1.057682480083371 
0.9642270125416877 0.8706787971836654 0.4178924508140613 0.5513824078724958 0.1284143081437046 -0.5638837764186128 -0.7848442009094164 0.3323342097795118 0.7279271014772088 -0.7833761271539181 
-1.000212089476538 -0.9254018223440893 -0.1282688045858302 -0.6864476944306841 -0.02063066504747762 0.8696192980094376 0.04367949955967312 -0.2718248209159408 -0.4407028478835284 -0.9496441445983251 
0.4311488869540375 -0.001576992710508136 -0.05472647390066026 0.3189426982020099 0.6844873823578729 0.06875880010727040 0.05621864577973043 0.4979474979061296 1.087308824071762 1.160339895500291 
-0.5269069714796237 0.6017855139656736 0.7465524506593108 2.411813635854026 0.3642243949129942 0.7005661190406100 -1.630460352970494 0.4224829533981223 0.3427819719488994 0.5565096558772002 
-0.3219188492397253 -0.04101819190951667 0.5146064105450716 -0.7646237434289411 0.1867483577580559 0.7573159656553549 0.8847305155877607 -0.2295883567519879 0.2777588827888998 0.008518454953522480 
0.1400458898722006 -0.3296577879124126 0.1579119989886359 -1.021271773424205 0.5079306198098231 0.3692670071312992 0.2313258284546627 -0.3194772743026380 -0.5139566494998592 -0.3028009079946741 
-0.1626017437849475 0.6295717903947425 0.5576932959345722 0.4011492468320909 -0.1378275998858126 0.9071638205206230 0.4259243239064189 0.5638314729699236 0.3010948293013193 0.4006551433525437 
0.7871433017253308 -0.6713365864740419 -0.6593797863834328 -0.2854430833689978 -0.1656496494571088 -0.6380185557295877 -1.542998180225459 -1.582903110537713 -0.2677653427118174 -0.5571107744365631 
0.01998355966386488 0.5518006048393845 -0.3533786662941966 -0.9538630788975578 0.9148211532132828 0.7303055398332045 -0.3393154470130639 0.2687848813427280 0.6685763925251775 0.2967342407390604 
-0.4777935818771762 -0.2053889036911301 0.4203907787777471 -0.3998961350186431 0.07243674443140247 0.5668319404730028 -0.7078294641053630 -0.07330145209043751 -0.1368945069714311 -0.1622705561423569 
0.1636290002275677 0.3286810505007439 0.5355755009497021 -0.1688619872707989 -0.04709196259252725 -0.5173464919636162 -0.7042353201228002 0.2323969870129264 -0.09386340655523080 0.3775671981726164 
1.161474622101651 -0.1427497178742121 -1.407195261140814 0.2760329713705948 -0.02350145153287293 0.5599050434066346 0.8145733732488698 -0.2653253336184131 0.2843619905326709 0.1700615377546907 
0.7758094118054160 -0.4871095414484796 -0.7611727840635263 -1.056741827469595 -0.9587851980033227 -0.4612778979632648 -0.4424465993487336 -0.8184799349288876 -0.8602480829691920 -0.1971039463597107 
-0.05092125260468359 -0.5559875784090444 1.046913425956905 -0.1620292747814213 -1.490975883323120 -0.08146967659294856 0.02860167956058972 -0.5078175806175077 -0.1886538499041437 -0.03873575561925427 
0.1963462969655991 1.155483206988657 0.4625088689220639 0.1227851370206942 1.109380398393808 0.08680475587924537 1.217875857254292 1.102417807161848 1.150404224861202 1.232199370051188 
-1.589547279872581 0.3838119644741084 1.337695135934169 1.705161226521876 0.7689559742803882 -0.5419118259635068 0.8992512695280135 0.4220164485219394 0.2069327021543961 0.7086419985849622 
0.4125545079795881 -0.8526978111333682 -1.031507550260566 -1.080532433201707 0.3321452158826440 0.4732912438448714 -0.3861728377352083 -0.9549200381730975 -0.8150355966252195 -1.271362716315036 
0.4219586299184978 -0.9453910903200223 0.3080625776229537 0.1709511116627156 0.1988679979251620 -0.6922591490003104 -0.3897872370948523 -0.6202877837604044 -1.021109240691828 -1.152901654991599 
0.6100941539101371 -0.3426326761574633 -0.05816388404239965 -1.606410477012020 -0.2039555581087436 -0.02723543215119112 0.1310375975299279 -0.05869945357285523 0.1543109553114304 -0.02843483671467773 
-0.4399287311858244 -0.7198594535322813 -0.3814932311181318 -0.8765598906216334 -0.3241134093474610 0.2795939766569889 -0.5497410786616616 -0.7352236088217321 -0.3010120021010561 -0.4007475723040839 
0.03851917575843445 -0.01332359547019929 0.8417323602517889 -0.3397544662426894 -0.8747728013763209 -1.650237802077585 0.2265672598131036 -0.2986906774422857 -0.8035406616927213 -0.5477142189073401 
0.4459637720343854 0.1882008871520595 -0.1693015575012072 -0.6827585620321145 -0.5253015271066254 1.143155765720920 0.7282524553836290 0.7579455730934511 0.3206452952619139 0.09496890295173585 
-0.3265656450907276 -0.001395066634161299 0.8793900740261770 0.8777395701118764 -0.4061451928578073 -0.8265727939973501 0.04551629156903619 0.3387236934497923 0.09398595768374109 0.04597480832604186 
-0.5120045139888784 -0.7131511735764445 -0.3373363260561743 1.537612844764508 -0.4320547925988704 -0.7063189832699422 0.02302060263887319 -0.4291629961092435 -0.6710835787655877 -0.3486227596349192 
1.405509579185765 0.1771653644464687 -1.401001652600669 -0.06201935305446831 -0.02913219447243804 0.3063533695757219 0.01136262734010304 -0.3777230344208607 -0.4154884232384173 0.5237691440924138 
-0.08998160907684953 1.121391648257087 -0.4890353897318419 -0.2258724305370947 0.8244889126214030 0.7646716164068553 -0.4720374842087397 1.047559578810169 1.273736028999214 0.4897722455459956 
-0.2158983069538414 0.6963761137555474 0.2329003147414623 0.9543964070518449 0.9539241260132192 0.6037728440875472 0.7206590519478838 0.9968700772146950 1.288331780330204 0.7416871343561673 
-0.4743769863205548 -0.8858840521224534 -0.7523016989475892 -1.239656013081696 -0.6789041222868856 1.450370644568548 0.3459642379695102 -0.9386392485202819 -0.5428793812506268 -0.9516210374658917 
0.4101368621253178 -0.4387527924941835 -0.08820729637577984 -0.8109646236901891 0.1262216840746993 -0.1964755194515388 -0.1715401194623757 0.2016288332523019 -0.04052238847584818 -0.03349642993357525 
-0.2301675721911159 -0.8730049777523343 0.04834824451365945 0.1035616766121177 -0.5996888669254667 0.2234316868912024 -0.2118616250606904 -0.6688088262530012 0.001086288111623275 -0.3908851874291565 
-0.5481484145559624 -0.9193183247970826 0.3642043436830156 -0.04168817571316515 -0.3507126064456880 -0.6639888319505987 -0.1495511662053572 -1.261759598570915 -1.512070307075372 -1.266556948052019 
-0.2168617605181586 0.5372091196225416 0.8477085492346574 0.2578943006761062 -0.3218118095082846 0.4968653841910911 -0.2760645883669605 0.5146401424527828 0.6174793392890147 0.7866385037325643 
0.3767472522589058 -0.1188063288541742 0.4200270152975815 -0.3697329350522564 -0.3651714401206448 -0.02326325275083481 0.04363667968530120 -0.4723802059648754 0.05393636642375913 -0.5623134333394220 
-0.8527328581066895 0.1103769841965444 0.4990015062067099 1.290785343118210 -0.3639591942744429 -0.01622248099059578 -0.7219936356502222 0.3985261631501926 0.4736086049191091 0.07865747411902271 
0.06166234503324146 -0.002358001167525703 0.8117509519061350 -1.128184316207622 -0.1431386393097854 0.1644421657226282 -0.3575532225442913 0.2493981071629059 -0.1326596777192468 -0.1190406830819820 
-0.1528980592669704 0.8435186096801888 0.6234172122378275 0.1314581875365516 1.180795553492106 0.4143892245511593 -1.092135477140750 0.8013251486458973 0.4091074315863391 0.7911667478847673 
0.2964699034835452 -0.3414321518657693 -0.6679509359950748 -2.004387332427101 1.100737585034649 0.7077914135027671 -0.3563324609201188 -0.9881376242372510 -0.1062987304004332 -0.4951517253075549 
-0.4365080512236546 -0.4046698928569721 -0.01920224442983928 0.03043304896856062 0.3702163984181226 0.1227856984290755 0.5991693401066428 -0.7505593279621147 -0.7766362219653005 -1.126885699770258 
0.3771930197429741 -0.3287003867334753 0.4055064610211473 0.8675984759520000 0.3870955560828935 0.08087115153271364 -2.291304404667391 -0.1339106270473693 -0.02425623877385266 -0.4028315214402985 
0.08831910792382354 0.4412713574563875 -0.2017828881368508 0.04205734603395478 0.4204426858958036 0.07210700329955244 0.8011074595468755 0.6324186938824815 0.1199204761567338 0.1986401525379634 
0.1059858631597777 -0.04655862550687671 -0.08619806796355728 -0.1266228981719212 0.01573850085078412 -0.1061894038364034 -0.3207120576574858 0.1109868036507763 0.1442540769899942 -0.4211931328429952 
0.4984524343448440 0.4310798391475382 0.006948497347568044 -0.1145346769098827 -0.06826386094425137 -0.2093778530866469 0.2994956378292049 0.2496975348334908 0.1724954055938956 -0.2248013434807672 
-0.1942975221183320 -0.03376601663655977 0.4122823097877266 0.4734814433101439 -0.8362633772604642 -1.381356088178603 0.2585501387048725 -0.5168910330568806 0.2008051414728846 0.08142219641502420 
0.2450188007869939 -0.04820226870858403 -0.1275257983016456 0.1492530990244610 0.1633564096845842 -0.9515315154027704 -0.1036238714831455 -0.4114204970691578 -0.7839580689715768 -1.082476981631336 
0.4292135692370418 -0.8813245358608502 -0.5228369208387738 0.2174784940001671 -0.8742054305565088 -0.1908246051651254 0.05695014268009690 -0.5313935542678582 -1.084258052828692 -0.8721802623368438 
0.5645594830494778 -0.2565298947484915 -0.3683826728663739 0.1939102564915154 0.2992026140389938 0.8810302404493524 0.9731809662257742 -0.1475592488760529 0.1321727179558815 -0.2774098598026003 
-0.3465942420401326 -0.2289710220272697 -0.6945155860230691 0.8551378765432911 0.5737735404886450 -0.2891597221557890 0.3423965464484485 0.06697276969552035 -0.01938045824580812 0.1147205709383053 
1.069758732890487 0.3974382020801764 -0.4326949823061563 -0.6496271283434201 0.7115683461538101 0.04438223474296510 0.2167521717791643 0.6347511190564169 0.2200675341936908 0.5273200841988405 
-0.8033324514058460 -0.09792095260417995 0.4896756938395778 -0.1027783686662043 -0.6881597356649337 0.1734641334492122 -0.1161132750343768 -0.1814487656740747 -0.1276545971213077 -0.5131937400334547 
0.4184292451979119 0.1221852604518743 -0.6202654245018929 0.3669652744572301 -0.1733892062272513 -0.5373925385596604 0.7740053952904431 0.06832774860283597 0.4276239200476755 0.4003641578245282 
-0.4012915167046824 0.2282829885961657 0.08637122046132925 0.3684973930719495 0.3572134517675181 0.7721600025977335 -0.8345507040003350 -0.03659175464696382 0.6033428464101738 0.8841516746430629 
0.01098884361645557 0.5597859735742086 0.3328841724017620 -0.5299033060121605 -0.3671641499927377 -0.6547784005895635 -0.005861131022499663 0.7969419389129612 0.1456018794500619 0.7156960265440712 
0.7209225215763443 0.2250293156265403 -0.5097326236875226 0.2147958356319878 -0.5281560735038404 0.5337382524510915 -0.4326248878558835 0.1832617240547475 -0.7399276002113860 -0.2774647163262478 
0.1769118640144382 -0.8327670914587976 0.8630698934543405 -0.05382705758766921 0.5514856723207051 -0.01991607681327222 -0.2509475814041340 -0.5721134924355700 -0.1532149325548633 -0.2934538389291705 
-0.1395932923669230 -0.09754826386364326 0.2719985816638459 -0.4783927313645210 -0.6890820760140025 -1.006851598294671 -0.08287714736279306 -0.3908135993796365 0.09248606550272186 0.4718774874668799 
0.4713855986474799 0.2494480387055244 0.2301596528671278 -0.5478258463603949 -0.3535448792070267 0.1418035059827462 -0.2688121796048136 -0.006369122041443412 0.3130600342999897 0.6704007072955220 
0.5432762203489061 -0.8770006120991146 0.4905242365919628 -0.1386219015250647 -0.6564055345268609 -0.6896933748263060 0.5041508885557544 -0.5447672143683044 -0.4676007131198302 0.02889604682397530 
-1.108728324489701 0.1061476115975275 0.5679235779690128 0.7877506840616583 -0.1517489476631326 0.08756815664393854 -0.5353889518129599 0.3039890391078418 0.3095422275260739 -0.5107428455302949 
0.002279622874760993 -0.7183868381137671 -0.1246876091671950 -1.904080805700585 -1.412778948776403 -0.8979127584467607 -0.4944605952969021 -1.318856438270599 -1.235069028329516 -0.9115505182375112 
-0.1986811063691159 -0.1962110615306593 -0.03074898772796769 0.2417028752979845 -0.8879695025395037 -0.6456838784237393 -0.1041898260772400 -0.2539889606326033 -0.8824570813770468 -1.295677645048331 
-0.4660234581816382 -0.09384541318454806 -0.5197994429310484 0.1034226467115494 0.7734170720969469 1.564177573628942 0.6851056067033051 -0.2486568201999586 0.2771177441232527 0.3529003279339448 
-0.6404869794002285 -1.064092592452443 0.3418845661174420 0.5831781445464908 -0.9983616364228821 0.01211692664642829 -0.1535383384306795 -1.064284917680142 -1.327017814581767 -0.9084226006964319 
0.7070765266410066 0.1763653708087397 0.3715246245210384 -0.5538270526275344 -0.07540843934324828 -0.4759485093146326 -0.6554187276803018 0.08599681345544595 0.5694223819029922 0.7733590371501560 
0.6039491019324871 0.2443213696784626 -0.7101994991179407 -0.04494010772232988 -0.6932132393349839 -0.4867651386853429 0.3122181259409177 -0.6830814771328318 -0.5668248799339631 0.5160522138195279 
1.023352045953877 0.3365145934778473 -0.6803720580881928 -0.5106128969002118 -0.6854688663899501 0.8474339271976950 -0.3145956407863703 -0.3923890563665109 0.06722803505533356 0.07485641147227384 
0.7688424549488397 0.5825222240008108 0.1106976682536791 0.3618134090848930 -0.1637755514907347 -0.01427861848562355 -0.2321142046551349 0.4670043558154960 0.3815680845264234 0.8164893993605485 
0.05081398417799543 0.4126054355879829 0.9984074298400343 -0.2298587991846023 -0.3707737606466405 -0.7450348999544600 0.4392874829336359 0.3448146683349919 -0.2128657202472980 0.2094975601248131 
-1.133214372567516 0.5278029108872903 0.3975381970714177 0.7359659418556563 0.3451168372008004 1.035318577195092 0.9421213150632971 0.3177847892229174 0.6621343619625848 0.7108373843022660 
0.1152669615791897 0.5238738073084069 -0.1017645698508748 0.6101585047099892 -0.8760103530772297 0.1175503849573759 -0.7494339410164320 0.1360624868648119 -0.2577893591510727 -0.7527139135648991 
-0.7522988832122509 -0.2083156647523923 -0.5449626482463195 0.4198487205093401 -0.9111153255285356 -0.2571902550828837 0.7983216521671306 -0.3584437247492339 -0.4352179356386561 0.1334845655078250 
0.5562455735026063 0.3165901588329910 -1.137338038121375 -1.108492188625497 -0.8345770711994480 0.4465934573559382 0.6907319221171595 0.03915718531312337 0.2396827572636749 -0.04724546384241597 
0.6034636524548763 0.1807025613602144 0.1467590043678923 0.6652429301354511 -0.6444610077258254 -0.2575669648394688 0.3425519246865338 -0.5434061933389780 0.5012980634307674 0.5582394407127256 
-0.1459288751990392 0.1771708636503744 0.1012546326401265 0.1406119449717108 0.3716325421310599 0.2565993556044230 0.3921104113141085 -0.1092992372492188 -0.08449435970754514 0.3734001512803206 
0.1230842396550733 -0.02031192420856305 0.4519603256853358 -0.3704845481424521 -0.09077998192950619 0.5437275024972651 0.02431813831425611 0.3996139436645591 0.1177913332701211 -0.3201102392069136 
0.03072847728035143 0.2679090681745354 0.4296594760356422 0.5051772302747677 0.3135182295596236 -0.03274021709079875 0.7529865024064037 0.4109249815782625 -0.5105516906963267 0.3375433115161581 
-0.1702073965434763 0.3551662357749253 -0.4684132069384563 0.8987859151006481 0.05133680946759060 -0.6368226768875170 0.2852431615512471 0.3521079173181112 0.1401982573542497 0.1416358722691715 
0.1749233467727280 -0.1451966579967877 -0.8775863133394344 0.1803344888996868 0.7277668357875012 0.3396447126728233 -0.9048433500182025 -0.1389104617991025 -0.2872908059615356 -0.5435612651520215 
-0.4817726827961569 -0.8865605024452725 0.4092441332011389 -0.1969814144261468 -0.2287107728059721 0.9068484519697170 -0.4576859649097103 -0.1369213870399573 -0.1863552779521979 -0.8195885392626141 
0.03115981150176799 1.162361333470431 0.09265389834459081 -0.3840063823505088 0.4647635667932780 0.5250760748735690 0.4611899997620602 0.1129932031440855 0.4195327983318525 0.5344088126281832 
0.7189661268415537 -0.9645558256252915 -0.4993019410088697 -0.5288532732442317 -0.3738151596912900 -0.3919665848860968 -0.8846218709493750 -0.9754292349252730 -0.04762412253266086 -0.4950639082548692 
0.1817044308038414 -0.2998865195746405 -0.5598598391548941 -1.386864625342235 -0.6590602542961627 0.2674477022163168 0.8232351857723816 -0.5986855854721532 -0.1795434264629618 0.01937214258491415 
-0.06994346243211200 0.08990700124322006 0.07269329281139720 0.6902625175732069 -0.4556918320385187 0.8713611041036838 -0.1198045817390666 0.3984137720888364 0.1750664101812260 0.4031068129548620 
0.9014701588337788 0.4927180123692548 -0.6412575711221378 -0.2270008772150833 -0.2609558155160230 0.6322317462553734 0.6415424937857824 0.9074910267226424 0.3689666162883342 0.5101719206348280 
0.3861848296035321 0.1623252368956786 -0.1030604750213269 -0.7433653244120823 -0.5328257200374124 -0.4773810337993106 0.4539359730686928 -0.1359869392615840 0.2764182181211468 -0.3307634459618611 
-0.03328464274138786 -0.1473823053526897 -0.4312202147310293 0.6152034589936828 0.2740841120924589 -0.05785285332853255 -1.379902221512666 -0.7139310589959609 0.2076421081592500 -0.6755917365550195 
0.1859881911701330 -0.5600928806874615 -0.2089558000682145 -1.127488558446188 -0.1258130100330155 0.7857430261497814 -0.7193139402038401 -0.3722953665710050 -0.1808078017982467 -0.6516439941193531 
-0.1493362743713214 1.057960293936647 -0.4737815104349313 0.2373863356508576 1.605983281371196 -0.01462841093842065 0.8445858094974575 0.5118036070471480 0.1679392944654504 0.2595475559406106 
-0.1088174160366081 1.462549647690361 0.2147467644564804 0.6811026625076805 -0.5587837016707292 0.2685572971699768 -0.6298281126849272 1.110548265753928 0.6856862462286867 0.5152686250628771 
0.03161530018700952 0.1315430935253662 1.048021674627999 0.2827906541039462 0.3661976996020775 -0.5964472127593159 -0.8131571223165459 -0.5818292262681809 -0.3061148552867331 -0.1735850729115579 
-0.6070211982917221 0.2238364376541530 0.8241452622140598 0.9388368549853113 0.1353058254629181 -0.3469376116826005 0.5679733659835738 -0.08969280308428255 0.08698986837070394 0.3075643391632730 
-0.8983404945422450 -0.9038162532940616 -0.7683668196617067 0.2860447050425146 -0.9482961461045619 -0.7182931503618833 -0.5991767884264155 -0.3675543588017417 -1.015271317060878 -1.046667988095916 
0.1919934786323324 -0.5058443702661660 0.6911944717938537 -0.3953826622849764 0.4530204688148810 -0.6788874961442853 0.2646817687084416 0.3146493799426114 -0.6448629362177130 -0.03863596252829068 
0.1862446573813532 -0.1012991185871172 -1.044809395261825 0.8195591786666250 -0.3968493771895073 0.01387864067775205 1.033559462204122 -0.5808460855218605 -0.1064268666340747 0.5041412860275494 
0.9247680624006870 -0.6060824543879444 -0.1139336887545154 -0.7603444860460189 0.4262038938809744 -0.6409322941141053 -1.637824929774856 -0.8865929536438405 -0.4252729713699214 -0.7983977126280456 
-0.2101660724623147 0.003346987546678515 -0.2538929767252989 0.04373264596147828 -0.3862839979878840 -0.5001671622686644 1.250723634844159 0.08276897674202022 0.04268082417620837 0.1180717122319449 
0.5131846491256261 -0.05562669598985080 -0.2563014489860670 -0.3204399344996303 -0.1276749447083652 0.7534807662993204 0.5346164226699595 -0.3343808688764026 0.3506164063119650 0.2898514970539859 
0.7392594523394752 0.8526584225375832 0.3429282401871584 0.3124865500717072 0.4573854789283733 0.2302326929598083 -0.1371272075132558 1.044077889833565 0.3347794360101435 0.4390276453998539 
0.07813865821386560 0.1850282062403439 -0.9183543691954705 0.3917719860452138 0.4345472500161523 0.9059322178153416 0.5069966121464415 0.1244660309557210 -0.1400088632920506 0.5311503191538355 
-0.5758908345749547 -0.05423150805872358 0.9177757782698109 0.5991397285469268 0.2531872674044745 1.140470346047924 -0.4290496009963926 0.5622019648028578 0.009741731854961027 -0.1905177101009526 
0.4213821253996530 -0.01276743951751031 -0.2634242664916577 0.3620211269919350 0.9289247991453203 -0.2658940503652910 1.142317947369153 0.2722743484571165 0.9185234240137744 0.2111586555849944 
0.3950451233032835 -0.3948774010963796 1.152943653252862 -0.8478519165582362 -0.4730174561636297 -0.04467484966897202 -1.005869555102900 0.03091685496700494 -0.4851163840671675 -0.3936319727206492 
-0.1898974336300655 -1.229266456623054 -0.3810782778887476 -0.4084752815331300 0.2870677431152474 0.008869351888369873 0.3111908167812177 -0.9513441563304255 -0.2451996264331465 -0.06266419812323673 
-0.6769458150759060 0.1908300839515689 0.3747471954172919 0.5103490472251994 0.2085877639661418 -0.8439551354092554 -0.8854406933811042 -0.5084721720870523 -0.7794229134976551 -0.4388842527224557 
-1.457269421015118 -0.2304933573272933 0.5382255968871610 0.8965981437072710 0.7596087003144084 -0.1132118371672204 -0.1700698410502156 -0.04738819009229475 0.9140222964713028 0.9948111082330575 
0.4772445460641805 0.6019219373989778 0.9782257020338051 -0.8804865477013023 0.2218569878474507 -0.1503760238107868 0.3251426974734396 0.2748684110071953 0.4195050540806511 0.5370090668874204 
-0.4000819087374133 0.2543057166998654 0.1224886741098220 0.5835848173369348 0.7395331977024949 0.4084983261050448 0.5428884973658393 0.2651866181854057 0.4602839309158809 0.8165727703539676 
-1.128225449737314 -0.4951581976805501 0.5894411421877758 0.4274572915367050 -0.3611962676205163 -0.5089377194170566 -0.7325442715944684 -0.5008341441247309 -0.3976695615242145 -0.8989829167337497 
-0.2350394031402355 0.8968844870394136 0.9359344347651427 -0.06396730030291106 0.5682712138465087 0.3096723856570500 0.2420977216671657 0.8395136971842608 0.3089888746918330 0.5192916727290173 
0.5209486153489672 -0.7049258929154437 -0.4687440117394928 0.04520686398672616 0.7381534499276668 0.2081305652397157 -0.7424682637229900 -0.3340690620727341 -0.4042263614810409 -0.5570049196517075 
-0.4105210269256761 -0.1230209193894790 0.5230653108038172 0.1187374000702546 -0.07115718218095109 0.3340465030317063 -0.07558066675963936 0.4526671547732368 0.6595441041506312 0.2947045675232108 
-0.02992203920749321 0.2379569422922656 0.1299548956944854 0.3396415682616756 0.8427336011709613 -0.2245026403206967 1.226006048691886 0.4528356491017931 0.4242640095160242 0.04861326701326732 
-1.036879298888331 0.004354226947666588 0.3282330691101933 0.4033359640273343 1.300444238476965 0.3326915176524743 1.207634386135648 -0.3273097472402246 0.5799990839351843 -0.2159624207790414 
-0.1608361869443836 -0.2553049040984390 -0.1870639405077951 -0.2390290591645309 0.9651999887109374 0.3189297145747718 -0.6987991326439151 -0.03495970858027143 0.1836509272573015 0.05255394029554846 
1.465657347186832 0.5258469875600076 0.4883988419532801 -0.3183551501201357 0.01200087596448727 0.2689229783735888 -0.4022907625106204 0.6562372126019793 0.8174351962753496 0.6233007678018063 
-0.1774289635374109 0.2090099682688305 -0.2174975539846078 0.08395384596075091 0.7486893681178597 -0.3694509015512444 0.2680992825179118 -0.4791631386332484 -0.1284385272075680 -0.008356840007494579 
0.07817903843192299 0.3542686458509307 -0.4248534885305225 -0.04278274707159760 -0.1696130042828659 0.6736610087845242 0.5122736810284004 0.5539092316044167 0.2861394027092448 0.5345959131952869 
0.4159813565970301 -0.6991976211014451 0.5056209991656337 -0.8927123820585239 -1.334402072079461 -0.7456608395941825 -1.114939113795405 -0.05479880795365961 -1.137766226970967 -0.9177371993453040 
0.3780125487275132 0.2849793793367441 0.2935496833714398 -0.5850158178368121 1.362332963489508 0.5972354722944921 -0.3890281560223397 0.8255064407337973 0.3805357653652026 -0.2421060539700549 
-0.1026022732981193 0.5488163440243087 -0.03088374549178738 1.228791540619216 0.5758490984405205 0.7163253715480022 -0.1466139698131714 0.7315935544335640 0.2446632546574996 0.6861716138955100 
0.7471500819991790 0.3241501836706006 -0.4318314706718080 0.2018177481159348 -0.8274705677693406 0.2693564139379691 -0.9696361283167374 -0.06430679976742318 -0.3331454797094747 0.1747612907650928 
-1.301197907183823 1.172118805802603 1.178678389292925 0.5485794064785828 0.8990520922082226 0.7995549818971174 0.8373517676047822 1.414563321410196 1.312054324889727 0.7698468496239116 
0.8625890668155162 -0.2253058577587474 -0.1808515227050178 -0.3833002054888511 0.1017739916308131 0.1233843047845760 0.08156610412962548 -0.04626695592004958 0.05833321160463879 0.2976287339636057 
0.3433757755288418 -0.6480581145251530 -0.6604025376823272 0.3889902015758797 -0.1404347826097160 -0.3555225149962176 0.3539038920662315 -0.1013292028932674 -0.3858394354047557 -0.6471696250583294 
-0.7701500414330910 -0.2146200350735365 0.7996412381788882 -0.3487182746743257 0.3154173528582787 1.050313863316774 0.7596917231821918 0.1290004948295750 0.07139013033393450 0.3643010309252190 
0.8450616190803186 -1.058548535279523 0.02414888362321508 0.2294326222251154 0.8218410932151338 0.1466680610270160 -0.7845196051294758 -0.6653053888786525 -0.6625397443557783 -0.4206503933342307 
-0.1214809660609538 1.028901151367595 0.6915598654877901 0.003540884570545930 0.3823136717681095 -0.2980560653073308 -0.3797964490776659 0.2182898944621366 0.3891025458186653 0.3589917237345028 
0.5521788076317624 0.3803355088585725 0.2513091358361663 0.3598671488206659 0.06182399704456180 -0.9864344743041227 0.1935665109932166 0.2891201700037741 0.7094325694054867 1.003015274343218 
-0.3789611099333601 -0.4706561818379874 0.6605486564574986 -0.2384844831705847 0.6226863155994061 -0.5766360628658806 -0.2865514252915891 -0.2238669943225899 -0.2504164770121877 -0.1477340455331541 
-0.8704523308923567 -0.05465279308660992 0.1294619407617865 0.5248714051679877 -0.4066845887677966 -0.9141831537362425 0.05757155964811196 -0.3071607090582760 -0.2873415286810588 0.05025594757488059 
-0.4226382224694369 -1.081825438233342 -0.3736131611886293 -0.6564881464651976 -0.7267528163123239 -1.057039121907418 0.1253277712366333 -1.092236932170924 -0.4144066667849435 0.1635758686723063 
0.1405154087763765 0.02417752205889306 -0.2274041038714934 -0.6111822435132301 1.101896858500089 0.9277442686555605 -0.04501835575570082 -0.4118110555390669 -0.3182516541221823 -0.1452775239372093 
0.5622731726375213 0.1023127417955856 -0.2891071026974986 0.6329073572535344 -0.4723255469017395 -0.9585786118200355 0.5883478141291182 -0.2134380444791084 -0.2148131571262183 0.05178012209784243 
0.5264460383759967 0.1051590900468497 0.5381420153099546 -0.8106687735383036 -0.8841056608659045 0.2550833263303567 -0.9266574397270237 0.1764713694684716 -0.5569397553191655 -0.3590926423187583 
0.7874951190862931 0.03005084037135402 -0.9119666587136026 0.6527870650759000 -0.6189233093489324 0.2862633493542555 -0.6920178931860104 0.1268463496897240 -0.1082379770069482 -0.07273202991766366 
0.4313559190562357 0.1681562936303226 -0.04820577921854253 -0.1291393539531114 1.025639484295408 1.218722146553067 -0.3368476073277696 0.2766341471471865 0.8420170001993283 0.6449849839752911 
0.3099864483790655 -0.6122873059383028 -0.001642812212189716 -1.468840866214175 0.2137986003937519 -1.170607430460352 -0.3783275301348411 -0.4396772283463961 -0.8573075708074097 -1.115010747688742 
0.2505826523897053 -0.7370515381859646 1.018821541163152 -0.5077689950476748 -0.5378384632329363 -0.2365040673409850 0.07533818696842800 -1.014392752834319 -0.5538186637906407 -0.4726605545533242 
0.5418318233483017 0.8224145379894323 -0.8890467549314083 0.6465386357152763 1.020553389880027 0.8726391749387087 0.1520270105460665 0.2400831054187358 -0.08178939308652797 -0.08199925900420693 
-0.4666297345237162 -0.3151921485807264 0.3127212416466028 -0.4222546390381583 -0.2954007826050952 0.4288577987971279 0.3745034644350628 0.5948011456991693 -0.4819116373996228 -0.3776097936483152 
0.6406815387501429 1.526456988925152 -0.5063937180084161 -0.1843011978980582 1.282988877123191 -0.08966180947248430 0.3529499394955060 0.3073829039304662 0.6021157265962309 0.9024493691629369 
0.1551529540769042 0.1158451697234711 -0.3319192222815937 0.4911742730322490 -0.3948576308382782 -0.2242038587630100 -0.6943726590454387 -0.3941016975957015 -0.4667944591583095 -0.6291670359638694 
-0.2479415363992633 -0.5883667559358019 -1.041381701097140 -1.106959015652707 -0.01397623981173071 -0.2670358431382406 0.8032567926639991 -0.6636931644533425 -0.2084120384709270 -0.1209791694141751 
-0.4158852603018484 0.06377324765497384 0.1588035785891516 0.7342754340805345 0.1777095506928555 0.5334535120542890 0.2997064638353609 -0.4092257425600101 -0.1096812259539108 -0.01635765980255395 
0.5831304727180908 0.5288450183941316 -0.1935023236082732 0.6972385596578664 0.5020711249303252 -0.4006128791936761 0.3441645637048584 0.2306599856691620 -0.2301202012581643 -0.4861398940466524 
-0.4483569492862713 -0.1886723851930408 0.7925965557318234 -0.1611141628308838 0.04234620998312171 -0.3259035731914166 -0.7908888331089318 0.3539763131297462 -0.08958038571939463 0.6485356384536719 
-1.137901749163329 0.4110961890544080 0.9569656319290215 1.111556916033019 -0.2996787917968588 1.011339679818613 -0.8197629004075278 0.9014634207352683 0.7285042323707851 -0.1731388688038135 
-0.3156672028319604 -0.3489014511004380 -0.2614636591543478 0.07208068210112173 -0.02029999628194289 -0.3545608870508709 0.7330729725422421 -0.7024269621180892 -0.3364868082144632 -0.8349590936053807 
0.9393751414580334 -0.6754476448680445 -0.6803716602048189 -0.6875586987555594 0.4308789721365570 -0.1877750119948074 -0.6057897103316666 -0.4359504254958523 -0.1171989489017581 -0.1400279745341282 
0.5078068250378395 -0.2643566046369014 -0.2162355338766489 0.2474191982565444 0.5331822437207588 -0.2215607560229664 -1.279889992541929 -0.01782646074143354 -0.6491433247972935 -0.7971525725937659 
-0.3306490951624512 0.3008390580932698 0.4084318691989136 0.8000232786615527 0.2779574985819894 -0.2391767688168020 0.5405674198815997 0.4647123901917122 -0.1323052738414705 0.03196977055904213 
0.8116682022404427 0.1403738102014963 0.5799013127235596 0.5187856678219718 -0.2675789250922696 -0.4870527855442445 -0.07317995468588136 -0.1393785919041014 0.1570079122471159 -0.09203384918276510 
-0.1962744422146024 -0.8739076637371963 -0.3431389208076203 -0.2739720647146337 -0.1617445493335119 -0.1131255514872408 0.01187881890988071 -0.8474143041191855 -0.3134455212205855 -0.4087367871960568 
1.063994848171716 0.04699391800570943 -0.1257769008825381 -0.4808123631555454 0.006097101941931509 -0.5529012968467272 -0.1948493771958121 -0.6137814200604039 -0.4246711927156988 -0.1274833911575664 
-0.4754761872794888 -0.4008279044513965 0.4201617943876947 -0.6996564618332058 0.4646629975701384 -0.5486464684307218 -0.4373068493148503 -0.5773078768892675 -0.2888186915267045 -0.8520819210539302 
0.2151169482941336 0.6854707823344581 0.5213887009180580 -0.8982547818944052 1.254530523710630 -0.4899714060702817 0.2015777411846389 1.234606281137838 0.8510223787652121 0.3463954042210004 
-0.7086384368037147 -0.3004887988956941 -0.4194544760224820 1.270515355589866 -0.2236999858579355 -0.1699002549921363 -0.6294580990646034 -0.5747545369150288 0.1936141029869553 -0.05088950049091469 
0.4270530399715372 -0.6403406441767571 0.06821399309693658 -0.6170399711248445 -0.7383782802177519 -0.4452699308622640 -0.7934282035164061 -0.6298215774378205 -0.9816435295090976 -0.8011791180067940 
0.6398903283134917 -0.1594919759813376 -0.5755092213897435 0.4259548772739969 0.1679965897803990 0.3175766459900565 0.01958823534518056 -0.2302965135598090 -0.4555630321129260 -0.3413046079297215 
0.1336594088070968 1.207194243179806 -0.005657952064161751 0.3600087146550624 1.241494894897323 0.3477655965230612 0.3938751164142746 0.6762390900061128 0.9953958202716338 0.8648177688138508 
0.03311697688578764 0.4867599970278846 1.076937667013739 0.1618520646105752 -0.7795474548177731 -0.2714337175679673 0.2607329099435944 1.032155236839082 0.8658215084386399 1.055762143891007 
-0.2609118206227256 -0.03004559635242268 -0.3389678716867924 -0.09263564428925357 0.09751859327153431 0.2728460772659898 0.4531567260007148 0.3685590901012807 0.04976615682775595 -0.2201537821441110 
-1.928257131376895 0.3035429453174588 0.05718750409634927 -0.2061026030817743 0.1297258233529811 0.2545729586917650 0.5094259905743880 0.1077569097807177 0.1560023514044730 0.5582260048116960 
-0.4338292846489148 0.02743810524810273 0.1459379747896107 1.085057759559729 0.4553749024660894 0.03646336533396866 -0.2565426302190867 0.2263601353701658 0.2552660427447478 -0.1103770357981386 
0.04439143138260096 0.9681621536667184 0.5895384645764312 -0.1638401796120249 -0.5691284262907276 -0.7545002729778283 -0.9202899037119975 0.4311243265516010 -0.4854795700122874 0.06790302057067851 
0.8621738970966960 -0.6617646654111916 0.1400102297552500 -1.531252377689787 -0.1477698488879504 -0.6045890622710874 0.1295142845547768 -0.7473316793698367 -1.262949407410457 -0.6835397459032095 
0.3471162917969257 1.242380081063621 -0.2045648866392165 -0.05681767487720921 -0.1574205362416060 0.4665704848163683 -0.1798820953868835 0.7445445198096927 0.7414380311760723 0.2854006361509850 
-0.1690348158899477 -0.09152445414344028 -0.7812504765054344 -0.1094210758185113 0.07835654974279480 -0.05420156833001889 0.8515706901787271 -0.3932373261427822 0.3324633380007421 0.3456902608439741 
0.2894996127803162 -0.4524160992493327 -0.3748859179618486 0.2709608416563730 -0.3379184561281308 -0.4248826278418002 -0.06083816778470975 -0.5944622654212190 -0.06534461645151952 0.06100587299506816 
-0.4489272588010611 0.1941089324076034 -0.9550450099680600 0.8528972422691659 0.1542763549820259 -0.7076529109399525 0.07732057841968326 -0.5562683852093330 -0.01243049803615951 -0.1389594242338353 
-0.4322776397714442 -0.3470339773395423 -0.7733671947151411 0.7364361425713662 0.06390966926472640 0.3745697824375463 0.1219890071410419 -0.3348518814257447 0.6892675856289714 0.5715622987359413 
-0.6149274282660449 -0.1773428971443510 0.1867717073103313 0.4158463652812549 0.1413681593848532 -0.6193603280219983 -0.4211482378840890 0.09555942475572528 -0.1969350066675312 -0.6090674928898594 
-0.1520903122157047 0.1542456874544772 0.1299855699500411 0.009970200035315572 -0.01476741608349192 0.3860347119330218 -0.1804527564155668 -0.1563793423926257 0.4491146737698755 -0.02960081083612573 
0.6090365983217741 -0.3566171138142487 -0.5665481082026971 -0.4210928189209028 -0.5124529129897298 -0.3940660070143656 0.2665923280983866 0.01868929482128868 0.1719204028438889 -0.1911693434969203 
-0.2259533886362083 -0.2187411980741998 -0.2938655145073896 -0.008642246469690845 0.3469024326037470 -0.8143461525916653 0.6411016194796447 0.1167139410691513 -0.6082409960482245 -0.7830194989922633 
0.08037762563970711 -1.167588559007969 -0.1955140735123116 0.2918574462655219 0.5587456692214761 -0.5998626484568204 -0.5982789697330563 -1.062240868713835 -0.5108603421248145 -0.4528444025046354 
0.1465514459038988 0.5236612108911023 0.3922453502108013 0.3898293160129462 0.5650360056789581 -0.4540674733706556 -0.5302869239448219 -0.03890328065197583 -0.1637785380251163 0.2949842975284521 
-1.582935386228338 -0.8073050549889718 0.7649164673147487 -0.3793710745624364 -0.3600118003679068 -0.4012632051936253 0.6722403915738437 -0.09116079898717823 -0.2167000706283367 -0.3854698423114962 
-0.09485062966393096 0.5853178858986978 -0.4116954460305631 1.161305458795538 1.800910322897753 0.7867420693702922 -0.5864614643228570 0.6102724234472058 1.537427393695848 0.6585748963741264 
0.3224237319742075 -0.4158596414495449 0.4457744646874445 -0.9931381210081599 -0.5813246919425091 -0.4825552808175574 -1.559934596354202 -1.162305823360708 -0.6626466779388669 -1.001515519013117 
0.5231663777393848 0.001157216660933125 0.01615058068290345 -0.4761080318978838 0.2218559571657397 -0.5296335980328761 0.4873245708265491 0.5804491150084172 0.3940712315301761 0.7482904695730179 
-0.2682876924153412 -0.4846103233478561 -0.01059763095855829 -0.08515027486388327 -0.1797912983849714 -0.4633943104219783 -0.1334312885961138 -0.1972847765485601 0.1486138186715697 0.6704819330440877 
0.1074397265861146 -0.4170033834304837 -0.2251077306657254 0.7799870384026498 -0.5886313226230943 -0.2016931353056743 1.689844938062654 -0.3798456455563224 -0.5535228393074576 -0.1582938573492656 
0.5667345325679127 -0.01437021621502803 0.5335914485731087 -0.8170942729692290 0.4249261168215878 0.08597333214259396 0.9865825505624432 0.2757928602091803 -0.5472139176562095 0.3815201267648437 
-0.3503815200921226 0.9495718072027852 0.2746180106224544 0.8364141911776436 0.6190608272925673 0.8752992559050239 1.303180023643184 1.030823700632885 0.5595904899597410 0.4422261555218994 
-0.9816059785074098 -0.4790131829993590 -0.4900701803570494 0.2164416849904526 -0.1005019626556579 1.194748250773462 0.1743416985463143 -0.1988093443397064 -0.06554926178281803 -0.05951860442090057 
0.3198244497619270 -0.3440043958684733 0.2703162339558236 0.2706780355323600 -0.4050823960351414 -0.1287253449252788 -1.112811877552038 -0.3632202972896506 -0.3182956848083373 -0.7642971439712960 
-0.9069545203452417 -0.1197344495260628 0.5413976832728933 0.5445934293248339 0.6824841084874954 0.7449111651193799 0.4814511017685035 0.2620468357917359 0.2217946297667849 0.6029583800660021 
-0.5472123072448167 -0.06369802981546800 -0.4047393933276543 0.5667762595899397 -0.2427011430357038 -0.2172022378981874 0.4085025518595453 -0.01810398365295685 -0.4993006516007199 -0.5769695337012289 
-0.2495279411899304 -0.2097957843824111 0.1927484736286245 -0.04160645501558306 0.6066038354989532 0.4694165706198525 -0.7244160275963387 -0.5824678031685910 -1.205072422747025 -0.6918967800518793 
1.075037631624212 0.9720007218656744 -0.4711810094168735 0.2230926722687651 0.7331253950683704 0.3756776500263193 0.2608818457527862 0.2215098483732227 0.6850804873651355 0.3475163481032608 
0.3937746942690506 0.5706292982803848 -0.5867126061343019 -0.1169257787741267 0.4432104740902850 -0.03047740143067713 -0.9488919231350399 0.5064027517427693 0.3365867540944907 -0.2534508055841109 
-0.07196889696699496 -0.5058561880869115 0.2600149127349084 -0.9754008144494773 0.3184006326348209 0.6315817650528408 -0.8009431309510700 -0.3666017533719064 -0.6040501931023948 0.3971575880635427 
0.7309898228089639 -0.4109379424557245 -0.8600181813617596 -0.1807002267457239 -0.2172711142584700 0.3997814307961729 -0.1114246398985158 0.1903762801914442 0.3415785442031047 0.5103815599426963 
0.01362283324964207 -0.6675985651226434 0.4317537038653488 -0.8087336434977003 -0.7086872189237059 -0.006214373450447155 0.05540800817931810 -0.3213127867818239 0.2127563860775851 -0.3900445701852985 
0.9787620247431920 -1.229386340985126 0.2298457384156650 -0.06668477811762354 -0.04210888999913386 -1.341668613132548 -1.509540568476003 -0.9292290010257903 -0.9470797517689146 -1.024770995637760 
0.7496558339873557 0.3862759565188584 -0.5949000264568767 0.6316145371535237 0.6095568994020063 -0.4560748266486140 -1.151075047841994 0.8286815184094283 -0.3096668230968778 0.6540023464849355 
-0.6587640948148191 -0.2375645775818082 -0.6020929452454861 0.9200662379523866 -0.4292135429420823 -0.1653317365861507 -0.5955721884831862 -0.1056820657055054 -0.5687912790541978 -0.4076503173726330 
0.08233345041148850 0.2619891569627731 -0.05788728073025126 0.4270791846652601 -0.3043312590790456 -0.05637744377724471 0.7821229945622750 0.01751899090704456 0.2554370649151474 0.3967885969840841 
-0.5892483642154879 0.09085705362955707 0.1601518531706299 0.3571285657032932 0.2225512126549086 1.185416521421646 -0.2157455287544288 0.2571928504874207 0.6674785819210268 0.4057186074467178 
-1.105942793892646 -0.3640993685147538 0.2433170166044891 -0.6642184361753807 0.7382350732333752 1.361964274413291 0.2458307852466684 0.3003352357347500 0.4670585835448657 0.9963609374194728 
-1.467226069710472 -0.5296983600171229 -0.4940849550275998 0.9323512970188216 1.019610912651530 0.6720936541189225 0.3452805997015482 0.6547544443568649 0.6425531674995520 0.1300129902454701 
-0.6336491369666126 0.02310638002714560 -0.2242631862587402 -0.6459202946534701 0.7037935001365714 0.5846255078869133 -0.7589901308659833 0.1920140279521307 0.2365959918554724 -0.005212118702429530 
-0.6778271318294274 -0.1369657867346640 -0.4115017339983335 0.4527459201315847 0.8179981263171600 0.2998663132079391 0.1351800020191135 -0.1663381190990332 0.3248840738967097 0.1538010727593546 
-0.3431503854329518 -0.4004087986326059 -0.6055787727960442 -0.3778663233113943 -0.9646414329951439 0.8076636277018994 0.8425969570052421 -0.2708068765874845 -0.8421470969257746 -1.154862081362671 
0.7167844472741931 -0.1459840496902031 -0.7402986624108393 -1.133139243626229 0.1062828899234882 -0.8329302128978081 -0.01105219309799372 -0.8409021781501459 -0.3934141618831707 0.2246251598229072 
-0.4138645337965570 -0.9287255882846891 -0.2141846538145645 -0.7047409841723121 0.1053337017892604 0.03640572835647473 -1.427595175440316 -1.349510758633642 -0.7120207615802477 -1.133620930779884 
-0.1223975348868664 0.02199196497438723 1.294416017222642 0.3613048631328809 0.05068393061516741 0.03101811597264528 -0.3266927256187049 -0.02292781393375932 0.1121456832475368 -0.3125306265620187 
-0.1376973269579486 0.5315537906296541 0.4166088073734691 0.1590318645590556 0.6943425998977070 1.023262092706371 -0.4356861238386203 0.01283250632313661 0.03048947698700161 -0.2891146668952452 
0.2570248036530044 0.9153004752351324 0.4494865160632512 0.1657933536625625 -0.4104026863183043 -0.006254415604947067 0.9113373701835276 0.2976311942511289 0.8211158000592382 1.116491155930782 
-1.066343414792708 -0.1005619778234137 -0.6462134773395323 0.3903984978045423 0.5012273226060338 0.5147876767694968 1.413786465730713 0.3343568874084704 0.1521688351634713 0.5487025138903568 
1.405737066280368 -0.7154400759218906 -1.353482360027408 1.127583363260498 -0.6203150760441088 -0.4553452458698680 -1.211274418361393 -0.2794113874203936 -0.01185194327003641 -0.03090686048028132 
-0.9666473384892065 -0.4902320201944825 -0.1008943561141544 -0.2503755706800839 0.4563256898509259 -0.9592253902352909 0.1450626525358978 -0.4879298434727135 -0.4787278142513928 -0.1947831359211115 
0.1521507022517214 -0.2383179085011048 0.1651614050911225 -0.3739701416723439 -0.4865683319996931 0.1782710847254702 -0.5226057100569526 -0.4205361295334802 0.07875571651745920 -0.4017217549704876 
0.05445804413099061 0.8208896731316195 0.2764846512383751 0.3926498693388372 0.2925070858346047 0.1679488418709078 -0.1559982045234982 0.5092545680534566 0.1202534383757838 0.4981634599544271 
-0.4641301898635258 -0.8234118883296961 -0.1264261074754626 0.09045128215676917 0.3604266856360482 -1.022279539775335 -0.06061190256838658 -0.3482517590886013 -0.5527114528277208 -1.086231733333614 
0.9938866903484789 0.4914627077671240 -0.9725513883979060 0.7816361748616040 0.06136938406146501 -0.6437124628729952 0.9510774140546115 0.6719872477718217 0.7732095122577957 0.5247246455608154 
0.4380262310730951 0.5964140114411850 -0.3851499562358783 -0.05887782724615580 1.309920767523600 1.241047324496195 0.2319014928257061 1.265655875627829 0.4446975423701243 0.6602306256198529 
-0.5300414332694805 0.09817881254414154 -0.1919275200293007 1.342631725872710 0.5120490295619760 0.5007335678333152 -0.01644971096845680 0.04280345314766047 -0.01207727670311115 -0.1711513965947708 
0.8129602734484530 0.2781237787662864 -0.3443386584547290 0.6768485561579417 0.09210729914071211 -0.3523676206202286 0.2907995985444507 0.5483124347888265 0.6860012314345311 0.4857608886567933 
0.06868060735572040 0.07758074010589805 0.6024344314732420 -1.222372585889837 -0.3801866034593547 -0.7504945133442350 -0.7026210432379650 0.3304055162319285 -0.1378142693389359 -0.4169850405466746 
0.6047301823946134 0.5842991207608149 1.148977830020132 -1.220134687748609 0.2780140532785222 -0.6874130768625382 -0.2816654606559254 0.06455797999420336 0.7358622554569962 0.05225437838261089 
-0.7561557852619241 -0.4746238732914673 1.242543325267804 -1.041993870435766 -0.1031903503098819 -0.7392136171198728 0.9927409483950259 -0.6139456775205955 0.1377602962757220 -0.3282939471763747 
-0.1127249416099417 0.5906495061018247 0.9434039876732402 0.002824735515189800 -0.4390645886519292 0.03219663661608074 -0.2175228354758644 0.5758992245847621 0.07336563683952874 -0.6651729794341987 
-0.7968927167585754 -0.4615860813733957 -0.6716354496743937 0.7834174890150933 -0.6181073444207222 0.7996168482679439 -0.2487599044897443 -0.4419611898757120 -0.6655639190152662 -0.7326731454983040 
-0.2560564284923062 -0.1131371157673968 -1.398247218117462 0.3233027965641770 0.4003490890531651 -0.3073583920311239 0.7941037630676513 -0.3298273030320278 -0.9627960835979091 -0.4151816514419284 
0.3434910367533894 0.5083872590949985 -0.1671080451457427 0.04072780707723903 -0.6702232747350357 0.2367276424467187 0.1504332061249679 0.01114056012013305 0.4936776343629948 0.4708605140239814 
0.5772169202968103 0.5255192100675116 0.2250496269637948 0.1716638243870598 0.5453740474038891 0.7255291702397213 0.08376830196972392 0.7740735233125978 0.2191063889624939 0.1171925637434295 
0.007320103639022876 -1.055112189832772 -0.4605768304506582 -1.994831476368745 -0.02881163242358101 0.1964315934838872 -0.2057758238389848 -0.5209897433838125 -0.7197655563075123 -0.2437796650224323 
-0.5392764778680691 0.1486781335119230 0.5289402233268125 -0.9893516080648203 -0.2087627111156777 0.3027704224002557 0.2918159525394190 -0.6646850214920577 -0.7586951059667149 -0.3986910558710146 
0.6319934646817164 0.2516946436130728 0.3302419951739148 -0.5503007577768962 -0.8990862933800406 -0.3959859673487644 -0.5993368664020025 0.1704123935249550 0.08607906147495770 0.1085647306798054 
-0.4770722595310855 0.7220688496299729 0.09895920820336732 0.5852428751914730 1.083906120852941 0.4860666021561171 0.4348561188446538 0.7455651788493957 1.032921893764228 0.1939431734434098 
0.2893593171405951 -0.2838982054205347 0.1258915142383973 0.2194117042346594 -0.1211208989602136 -0.5129570075839445 0.3781714715812060 -0.08447637379697642 -0.1926471377811627 0.04654275019660428 
0.4116251751657289 0.2790630239740371 -0.2457216793596944 0.4715733827933945 0.5631194468486862 1.542041150335698 0.09892970956428208 0.6385060926046369 0.8605634600294434 0.7827224956813916 
-0.3177488959641295 -0.4449435684017266 0.3956600445898067 0.01000060472594337 0.06639624347763705 -0.6214601604685053 0.2059124243831349 0.2201238352747159 -0.4990227073955127 -0.3059722499788165 
-0.1715951721548541 0.4767337071849797 -0.7925435157661929 0.2405443597039101 -0.3857721878276164 1.213656110481159 0.1027524782760103 0.5271581153556223 0.2063311613019031 -0.009273817870071150 
-0.2124966178347631 -0.4270164434890598 -0.01370432758929346 1.175720761527492 -0.5670118722485584 0.1974714452477747 -0.8295636363381879 -0.2152539255857371 -0.6275375345252887 -0.1762297183225897 
-0.2325474515373431 0.2379745853129729 -1.108144092618569 0.3080591348221252 0.09339324453200554 0.02243676938702768 0.5414380386582850 0.04788679177215607 0.6326583660043624 -0.4636445256476918 
-0.4968677426129315 0.5408118118975959 -0.2261933847451348 0.2055627570764012 0.2389495151925209 1.048010314653141 1.080203512540125 0.8709768528223107 0.5955601813153071 0.5011051708833971 
1.097492096053523 -0.4211894631514420 -1.010348562644486 -0.1731853090659492 -0.07450793895701728 -0.5670532869626425 0.09153828693346347 -0.6675813470765695 -0.8005632587345048 -0.7014555886983185 
-0.2612133845011712 0.4679284707467894 -0.4522939084964731 -0.2978263920087678 -0.1010994431769953 0.8707944832781178 0.03746316693331994 0.2007022171035068 0.5250068370754314 0.02236872828286829 
