svm_type c_svc
kernel_type rbf
gamma 0.00458716
nr_class 10
total_sv 3974
rho 0.940081 -0.339943 -1.00962 -0.12649 -0.923919 -1.02334 -0.272314 -1.01411 -1.00423 -1.15213 -1.00258 -1.46744 -0.981247 -1.00491 -1.28824 -0.990802 -1.00565 -0.753094 0.719223 -0.937449 -0.969638 0.764862 -0.979675 -1.00434 0.787126 -0.306434 -0.965109 0.725256 0.0916687 -0.985142 -0.946345 -0.978703 -0.375211 -1.00495 -1.00869 -0.861861 0.90702 0.732158 -1.00456 0.902627 0.814223 -0.976798 -0.992996 -1.00402 -1.00985
label 6 8 2 13 1 14 11 7 12 5
nr_sv 258 1443 334 65 1087 55 23 637 67 5
SV
1 1 0 1 0 0 1 0 0 1:1 79:1 129:1 139:1 148:1 149:1 151:1 157:1 160:1 169:1 170:1 173:1 
1 1 0 1 0 0.5491782697958721 1 0 0 57:1 79:1 124:1 139:1 148:1 149:1 151:1 156:1 160:1 169:1 170:1 173:1 175:1 
1 1 0 1 0 0 1 0.2999405042186718 0 17:1 124:1 148:1 158:1 160:1 169:1 170:1 171:1 207:1 
1 1 0 1 1 0 1 1 0 54:1 125:1 148:1 158:1 160:1 169:1 170:1 171:1 175:1 
1 1 0 1 0 0 1 0 0 54:1 124:1 148:1 156:1 160:1 169:1 171:1 175:1 
1 1 0 1 0 0 1 0.6255991073790111 0 1:1 66:1 132:1 142:1 150:1 157:1 160:1 169:1 170:1 171:1 
1 1 0 1 0 0 1 0 0 17:1 124:1 148:1 152:1 160:1 169:1 170:1 171:1 
1 1 0 1 0.3174996345648678 0 1 0.4454861033042994 0 54:1 125:1 148:1 158:1 160:1 169:1 171:1 175:1 
1 1 0 1 0 0 1 0 0 17:1 124:1 148:1 158:1 160:1 169:1 170:1 171:1 
1 0 0.7720901765638564 1 0 0.6178302345669087 0 0 0.1072134939002119 58:1 62:1 66:1 80:1 125:1 138:1 139:1 151:1 152:1 160:1 167:1 170:1 173:1 175:1 217:1 
1 1 0 1 0 0 1 0.3962233933148596 0 17:1 124:1 148:1 157:1 160:1 169:1 170:1 172:1 
1 1 0 1 0 0 0.6938163630145329 0 0 56:1 62:1 65:1 79:1 125:1 138:1 139:1 150:1 158:1 162:1 169:1 170:1 171:1 
1 1 0 1 0 0 1 0.3453056398017573 0 54:1 72:1 80:1 89:1 94:1 125:1 138:1 139:1 150:1 158:1 160:1 169:1 170:1 173:1 175:1 
1 1 0 1 0 0 1 0 0 57:1 124:1 148:1 152:1 160:1 169:1 170:1 172:1 175:1 
1 1 0.368753283289193 0 0 0 0 0 0 54:1 62:1 65:1 66:1 79:1 125:1 138:1 140:1 141:1 150:1 158:1 163:1 169:1 170:1 173:1 
1 1 0 1 0 0 1 0 0 18:1 62:1 127:1 139:1 151:1 158:1 162:1 169:1 170:1 173:1 
1 1 0 1 0 0 1 0 0 18:1 62:1 127:1 139:1 151:1 158:1 162:1 169:1 170:1 173:1 
1 1 0 1 0 0 1 1 0 19:1 124:1 148:1 158:1 160:1 169:1 170:1 172:1 207:1 
1 0 0 0 0 0 0 0 0 17:1 65:1 66:1 72:1 80:1 124:1 138:1 139:1 150:1 157:1 160:1 169:1 170:1 173:1 207:1 217:1 
1 1 0 1 0 0 1 1 0 17:1 124:1 148:1 158:1 160:1 169:1 170:1 172:1 207:1 
1 1 0 1 0 0 1 0.7095146015673515 0 56:1 127:1 148:1 158:1 162:1 169:1 170:1 172:1 
1 1 0.7192272523682159 1 1 0 1 1 0.05760885099013456 55:1 79:1 81:1 124:1 138:1 150:1 154:1 159:1 169:1 170:1 172:1 
1 0 0 0 0 0 0 0 0 55:1 62:1 65:1 80:1 124:1 138:1 139:1 150:1 157:1 159:1 169:1 170:1 171:1 184:1 218:1 
1 0 0.6945094211645514 1 0 1 0.01993812427058879 0 0 55:1 63:1 72:1 80:1 89:1 124:1 138:1 139:1 150:1 158:1 159:1 169:1 170:1 173:1 175:1 
1 1 0 1 0 0 1 0 0 18:1 62:1 127:1 151:1 158:1 162:1 169:1 170:1 173:1 
1 1 0 1 0 0 1 0 0 54:1 63:1 72:1 78:1 80:1 89:1 125:1 138:1 139:1 150:1 158:1 163:1 169:1 170:1 173:1 217:1 
1 1 0.4499641803199377 1 0.5808156372192721 1 1 0.3524739180231694 0 58:1 80:1 125:1 138:1 150:1 158:1 159:1 169:1 170:1 173:1 175:1 
1 1 0 1 0 0 1 0 0 17:1 124:1 148:1 156:1 160:1 169:1 170:1 172:1 
1 1 0 1 1 0 1 0.7146260153359234 0 17:1 127:1 148:1 158:1 162:1 169:1 170:1 172:1 
1 1 0 1 0 0 1 0 0 17:1 124:1 148:1 158:1 160:1 169:1 170:1 172:1 
1 1 0 1 1 0 1 1 0 58:1 125:1 148:1 158:1 160:1 167:1 170:1 172:1 175:1 
1 1 0 1 1 0 1 1 0 18:1 127:1 148:1 158:1 162:1 169:1 170:1 172:1 
1 1 0 1 1 0.2951117394369879 1 1 0 58:1 66:1 72:1 80:1 125:1 138:1 139:1 150:1 158:1 160:1 167:1 170:1 173:1 175:1 217:1 
1 1 0.5132756849711618 1 0 1 0 0 0 5:1 65:1 79:1 89:1 125:1 138:1 139:1 144:1 150:1 158:1 162:1 169:1 170:1 173:1 
1 1 0.8600304605670028 1 0 0 1 0 0 18:1 72:1 127:1 139:1 151:1 158:1 162:1 169:1 170:1 173:1 207:1 
1 1 0 1 0 0 1 0 0 18:1 62:1 127:1 151:1 157:1 162:1 169:1 170:1 173:1 
1 0.728626623099031 1 1 0 0 1 0 0 55:1 72:1 80:1 124:1 138:1 139:1 150:1 158:1 159:1 169:1 170:1 173:1 175:1 
1 1 0 1 1 0.2623368257567638 1 1 0 18:1 126:1 148:1 158:1 162:1 169:1 170:1 171:1 
1 1 0 1 0 0 1 0 0 56:1 124:1 148:1 155:1 160:1 166:1 170:1 171:1 175:1 
1 1 0 1 0 0 1 0 0 56:1 124:1 148:1 158:1 160:1 166:1 170:1 171:1 175:1 
1 1 0 1 0.6055066574172114 0 1 0 0 18:1 127:1 148:1 158:1 162:1 169:1 170:1 171:1 
1 1 0 1 0 0 1 1 0 56:1 124:1 148:1 158:1 164:1 169:1 170:1 171:1 
1 1 0 1 0 0 1 0 0 17:1 124:1 148:1 158:1 160:1 169:1 170:1 171:1 
1 1 0 1 0 0 1 0 0 56:1 124:1 148:1 158:1 162:1 169:1 170:1 171:1 181:1 
1 1 0 1 0 0 1 0 0 56:1 124:1 148:1 158:1 164:1 169:1 170:1 171:1 175:1 
1 1 0 1 1 0 1 1 0.2721467126235868 18:1 81:1 127:1 139:1 148:1 149:1 151:1 158:1 162:1 169:1 170:1 171:1 
1 1 1 1 0 0 1 0 0 55:1 62:1 124:1 139:1 148:1 151:1 152:1 159:1 169:1 170:1 173:1 175:1 
1 1 0.1824955631973583 1 1 0.720916177807461 1 1 0 58:1 72:1 80:1 125:1 139:1 150:1 157:1 159:1 167:1 170:1 173:1 
1 1 0 1 0 0 1 0 0 54:1 66:1 124:1 143:1 150:1 156:1 160:1 169:1 170:1 171:1 175:1 
1 0 0 0 0 0 0 0 0 54:1 62:1 63:1 65:1 80:1 89:1 124:1 138:1 139:1 150:1 158:1 160:1 169:1 170:1 173:1 
1 1 0.9681391978899557 1 0 0.6471271145638332 1 0 0 56:1 72:1 79:1 127:1 139:1 151:1 158:1 162:1 169:1 170:1 173:1 
1 1 0 1 0 0 1 0 0 18:1 127:1 148:1 158:1 162:1 169:1 170:1 171:1 
1 1 0 1 0.4275141312414352 0 1 1 0 56:1 125:1 148:1 158:1 160:1 168:1 170:1 171:1 175:1 
1 1 0 1 0 0 1 1 0 56:1 79:1 125:1 138:1 150:1 153:1 160:1 166:1 170:1 171:1 
1 1 0.1376720520952549 1 1 0.1556442370210001 1 1 0 54:1 79:1 125:1 138:1 148:1 151:1 158:1 163:1 169:1 170:1 171:1 
1 1 0.4036217645594886 1 1 0 1 1 0 54:1 79:1 125:1 138:1 148:1 151:1 158:1 163:1 169:1 170:1 171:1 175:1 
1 1 0 0 0 0 0 0 0 54:1 65:1 79:1 125:1 138:1 139:1 150:1 157:1 160:1 169:1 170:1 173:1 
1 1 1 1 0 0 1 0 0 55:1 79:1 124:1 138:1 150:1 154:1 159:1 169:1 170:1 171:1 175:1 
1 0 0 0 0 0 0 0 0 56:1 62:1 65:1 72:1 80:1 124:1 138:1 139:1 150:1 158:1 164:1 169:1 170:1 173:1 217:1 
1 1 0 1 0 0 1 0 0 56:1 62:1 65:1 72:1 80:1 125:1 138:1 139:1 148:1 150:1 158:1 160:1 168:1 170:1 173:1 175:1 
1 0 0 0 0 0 0 0 0 56:1 62:1 65:1 72:1 80:1 125:1 138:1 139:1 150:1 158:1 160:1 168:1 170:1 173:1 175:1 217:1 
1 0 0 1 1 0 1 0 0 55:1 62:1 79:1 124:1 138:1 139:1 150:1 157:1 159:1 169:1 170:1 171:1 175:1 202:1 
1 1 0 1 1 0 1 1 0.250250904238134 57:1 81:1 124:1 138:1 148:1 149:1 151:1 156:1 160:1 169:1 170:1 171:1 175:1 
1 1 0 1 0 0 1 0 0 17:1 124:1 148:1 158:1 160:1 169:1 170:1 172:1 
1 1 0 1 0 0 1 0 0 57:1 124:1 148:1 157:1 160:1 169:1 170:1 172:1 
1 1 0 1 0.2421518174034281 0 1 1 0.07451326070132226 58:1 66:1 125:1 142:1 151:1 155:1 160:1 167:1 170:1 171:1 175:1 
1 1 0 1 0.4585709742214358 0.3454114778685792 1 1 0 58:1 63:1 72:1 80:1 89:1 125:1 138:1 139:1 150:1 158:1 160:1 167:1 170:1 173:1 175:1 217:1 
1 1 0.6006736256457416 1 0 0.6307060800395284 1 1 0.8608852182832835 18:1 79:1 123:1 127:1 138:1 151:1 158:1 162:1 169:1 170:1 171:1 
1 1 1 1 0 0 1 0 0.0961869483110088 55:1 80:1 124:1 138:1 150:1 158:1 159:1 169:1 170:1 173:1 
1 1 0 1 0 0 1 0 0 56:1 66:1 124:1 142:1 151:1 158:1 160:1 166:1 170:1 171:1 175:1 
1 1 0 1 0 0 1 0.09015440513677371 0.1994510247040747 1:1 66:1 129:1 142:1 148:1 149:1 151:1 156:1 160:1 169:1 170:1 171:1 
1 1 0 1 0 0 1 0 0 56:1 66:1 125:1 142:1 151:1 158:1 160:1 166:1 170:1 171:1 175:1 
1 1 0 1 1 0 1 0.711317600221226 0 56:1 128:1 148:1 158:1 162:1 169:1 170:1 171:1 
1 1 0 1 0 0 1 0 0 57:1 124:1 148:1 158:1 160:1 169:1 170:1 171:1 
1 1 0.4186086034935553 1 0 0.4766894388950607 1 0 0 18:1 72:1 79:1 130:1 139:1 151:1 158:1 159:1 169:1 170:1 173:1 207:1 
1 1 0.03186080211004427 1 0 0.6443635802436817 1 0 0 18:1 72:1 79:1 132:1 139:1 151:1 158:1 162:1 169:1 170:1 173:1 
1 1 1 1 0 0 1 0 0 55:1 65:1 79:1 124:1 138:1 139:1 151:1 158:1 159:1 169:1 170:1 171:1 
1 1 0 1 0 0 1 0 0 56:1 65:1 80:1 124:1 138:1 139:1 150:1 158:1 164:1 169:1 170:1 171:1 
1 1 1 1 0 0 1 0 0 18:1 62:1 65:1 79:1 127:1 138:1 139:1 148:1 150:1 158:1 162:1 169:1 170:1 171:1 
1 1 0 1 0 0 1 0.2253423667447887 0 17:1 124:1 148:1 157:1 160:1 169:1 170:1 171:1 192:1 
1 1 0 1 0 0 1 0 0 17:1 124:1 148:1 157:1 160:1 169:1 170:1 171:1 
1 1 0 1 0 0 1 0 0 17:1 124:1 148:1 158:1 160:1 169:1 170:1 171:1 
1 1 0 1 0 0 1 0 0 58:1 124:1 148:1 158:1 160:1 169:1 170:1 171:1 175:1 
1 1 0 1 0 0 1 1 0 58:1 124:1 148:1 158:1 160:1 169:1 170:1 171:1 
1 1 0 1 0 0 1 0 0 17:1 124:1 148:1 152:1 160:1 169:1 170:1 171:1 
1 1 0 1 0 0 1 0 0.06726446064738739 17:1 124:1 148:1 152:1 160:1 169:1 170:1 171:1 
1 1 0 1 0 0 1 0 0 17:1 124:1 148:1 158:1 160:1 169:1 170:1 171:1 
1 1 0 1 0.05388270276440957 0 1 0 0 54:1 79:1 81:1 124:1 138:1 139:1 151:1 154:1 160:1 169:1 170:1 172:1 
1 1 0.7716411898830119 1 1 0.3980042333649617 1 0.4276595583187812 0 56:1 79:1 81:1 124:1 138:1 139:1 150:1 154:1 164:1 169:1 170:1 172:1 201:1 
1 1 0 1 0 0 1 0 0.1612877151848616 55:1 66:1 124:1 142:1 151:1 158:1 159:1 169:1 170:1 171:1 175:1 
1 1 0 1 0 0.1462592563760554 1 0 0 58:1 66:1 129:1 140:1 151:1 152:1 162:1 169:1 170:1 172:1 
1 1 0 1 1 0 1 1 0 55:1 72:1 81:1 124:1 138:1 139:1 150:1 158:1 160:1 169:1 170:1 171:1 
1 1 1 1 1 0 1 1 0 58:1 72:1 81:1 124:1 138:1 139:1 150:1 154:1 165:1 169:1 170:1 171:1 
1 1 1 1 0 0 0 1 0 18:1 65:1 72:1 80:1 127:1 138:1 139:1 150:1 158:1 159:1 169:1 170:1 173:1 
1 1 0 1 0.4756980496295035 0 1 0.3229894219947058 0 55:1 62:1 72:1 124:1 138:1 139:1 151:1 158:1 159:1 169:1 170:1 171:1 175:1 218:1 
1 1 0 1 1 0 1 0.9230365633510366 0 55:1 62:1 72:1 124:1 138:1 139:1 151:1 158:1 159:1 169:1 170:1 171:1 175:1 218:1 
1 1 0.3045826097560514 1 1 0 1 1 0 18:1 65:1 72:1 79:1 127:1 138:1 139:1 150:1 158:1 162:1 169:1 170:1 171:1 218:1 
1 1 1 1 0 0 1 0 0 18:1 62:1 79:1 127:1 138:1 139:1 150:1 158:1 162:1 169:1 170:1 171:1 
1 1 0 1 1 0 1 1 0 54:1 72:1 81:1 125:1 138:1 139:1 150:1 158:1 163:1 169:1 170:1 171:1 175:1 
1 1 0.6198043715281475 1 0 0 1 0 0 55:1 66:1 124:1 142:1 151:1 155:1 159:1 169:1 170:1 171:1 175:1 
1 1 0 1 1 0 1 1 0 58:1 72:1 80:1 125:1 138:1 139:1 150:1 158:1 162:1 169:1 170:1 171:1 175:1 218:1 
1 0 1 0.6841236370568091 0 0 1 0 0 18:1 62:1 127:1 139:1 151:1 157:1 159:1 169:1 170:1 173:1 
1 1 0 1 0 0 1 0 0 18:1 72:1 80:1 127:1 139:1 150:1 157:1 162:1 169:1 170:1 173:1 
1 1 0 1 0 0 1 0 0 57:1 66:1 124:1 142:1 151:1 157:1 160:1 169:1 170:1 171:1 
1 1 0 1 1 0 1 1 0 54:1 79:1 125:1 138:1 150:1 158:1 163:1 169:1 170:1 171:1 
1 1 0 1 0 0 1 0 0 55:1 62:1 124:1 139:1 148:1 149:1 151:1 158:1 159:1 169:1 170:1 171:1 175:1 
1 1 1 1 1 0 1 0.1681434849833701 0 18:1 65:1 79:1 127:1 138:1 139:1 150:1 158:1 159:1 169:1 170:1 171:1 
1 1 0 1 0 0 1 1 0.2424237280746023 18:1 62:1 127:1 138:1 151:1 158:1 162:1 169:1 170:1 171:1 
1 1 1 1 0 0 1 0 0 18:1 62:1 127:1 139:1 151:1 158:1 159:1 169:1 170:1 171:1 
1 0 1 1 0.1708155149953391 0.565168019067838 1 0 0 18:1 65:1 66:1 79:1 127:1 138:1 139:1 151:1 157:1 159:1 169:1 170:1 171:1 204:1 
1 1 0.168621549482956 1 0 0 1 0 0 18:1 62:1 127:1 139:1 151:1 158:1 163:1 169:1 170:1 171:1 
1 0 0 0 0 0 0 0 0 58:1 62:1 65:1 79:1 125:1 138:1 139:1 150:1 158:1 159:1 169:1 170:1 173:1 175:1 217:1 
1 1 0 1 0 0 1 0 0 58:1 66:1 125:1 142:1 151:1 158:1 160:1 169:1 170:1 171:1 175:1 
1 0 1 1 0.7680208301116855 0.6699944012581854 1 0 0 55:1 65:1 66:1 79:1 124:1 138:1 139:1 150:1 158:1 159:1 169:1 170:1 171:1 175:1 
1 1 0.3652597749928886 1 0.4615071251706847 0 1 0 0 54:1 65:1 79:1 125:1 139:1 150:1 155:1 161:1 169:1 170:1 171:1 
1 1 0 1 0 0 1 0 0 18:1 62:1 127:1 151:1 155:1 162:1 169:1 170:1 173:1 
1 1 0 1 0 0 1 0 0 17:1 124:1 148:1 157:1 160:1 169:1 170:1 171:1 
1 1 0 1 0.5603355295118728 0 1 1 0 56:1 124:1 148:1 157:1 164:1 169:1 170:1 171:1 
1 1 1 1 1 0 1 1 0 58:1 72:1 81:1 124:1 138:1 139:1 150:1 154:1 165:1 169:1 170:1 171:1 
1 1 0 1 0 0 1 0 0 17:1 124:1 148:1 158:1 160:1 169:1 170:1 171:1 
1 1 1 1 0 0.5114777442072939 0 0.260968284381905 0 58:1 62:1 65:1 66:1 69:1 79:1 125:1 138:1 139:1 150:1 158:1 161:1 169:1 170:1 171:1 
1 1 0 1 0 0 1 0 0 55:1 62:1 65:1 72:1 80:1 124:1 138:1 139:1 148:1 149:1 151:1 158:1 159:1 169:1 170:1 173:1 175:1 
1 0 0 0 0 0 0 0 0 55:1 62:1 65:1 72:1 80:1 124:1 138:1 139:1 151:1 158:1 159:1 169:1 170:1 173:1 175:1 218:1 
1 0 1 0 0 0 1 0 0 58:1 62:1 65:1 79:1 124:1 138:1 139:1 151:1 157:1 165:1 169:1 170:1 171:1 
1 1 0 1 0 0 1 0 0 18:1 62:1 127:1 138:1 151:1 157:1 162:1 169:1 170:1 171:1 
1 1 1 1 0 0 1 0 0 55:1 65:1 78:1 79:1 124:1 138:1 139:1 148:1 149:1 151:1 158:1 159:1 169:1 170:1 171:1 175:1 
1 0 1 0 0 0 0 0 0 19:1 62:1 65:1 79:1 127:1 138:1 139:1 150:1 158:1 162:1 169:1 170:1 171:1 
1 1 0 1 0 0 1 0 0 17:1 124:1 148:1 157:1 160:1 169:1 170:1 171:1 
1 1 0 1 0 0 1 0 0 17:1 124:1 148:1 157:1 160:1 169:1 170:1 171:1 
1 0.158036462282052 0.3502100718293918 1 0 0 1 0 0 18:1 65:1 79:1 127:1 138:1 139:1 151:1 157:1 160:1 169:1 170:1 171:1 
1 0 1 0 1 0 0 0 0 18:1 62:1 65:1 79:1 127:1 138:1 139:1 150:1 157:1 159:1 169:1 170:1 171:1 
1 1 0 1 0 0 1 0 0 17:1 66:1 124:1 142:1 151:1 158:1 160:1 169:1 170:1 171:1 
1 0 1 1 1 0 1 0 0 55:1 65:1 66:1 79:1 124:1 138:1 139:1 150:1 157:1 159:1 169:1 170:1 171:1 175:1 
1 0 0.9302117438184289 1 0 0.237761440757202 1 0 0 55:1 65:1 79:1 124:1 138:1 139:1 148:1 150:1 157:1 159:1 169:1 170:1 173:1 175:1 218:1 
1 0 0.4296236122096012 1 0 1 1 0 0 18:1 62:1 65:1 79:1 127:1 138:1 139:1 148:1 151:1 157:1 162:1 169:1 170:1 173:1 
1 1 1 1 0 1 1 0 0 19:1 62:1 65:1 79:1 126:1 138:1 139:1 148:1 151:1 158:1 159:1 169:1 170:1 173:1 
1 1 0 1 1 0 1 1 0 58:1 65:1 79:1 125:1 138:1 139:1 150:1 157:1 160:1 167:1 170:1 171:1 175:1 
1 1 1 1 0 0.6712140863446021 1 0 0 56:1 65:1 79:1 124:1 138:1 139:1 150:1 158:1 164:1 169:1 170:1 171:1 
1 0 0 1 0.9585401207423282 0 1 0 0 55:1 72:1 80:1 124:1 138:1 139:1 150:1 157:1 159:1 169:1 170:1 173:1 217:1 
1 1 0.3846760558051932 1 0 0 1 0 0 55:1 62:1 124:1 138:1 151:1 158:1 159:1 169:1 170:1 171:1 175:1 
1 1 0 1 0 0 1 0 0 18:1 62:1 127:1 139:1 151:1 157:1 162:1 169:1 170:1 171:1 
1 1 0 1 0 0 1 0 0 18:1 62:1 127:1 139:1 151:1 157:1 159:1 169:1 170:1 171:1 
1 1 1 1 1 0 1 1 0 19:1 62:1 127:1 138:1 151:1 157:1 159:1 169:1 170:1 171:1 
1 1 1 1 0 0.3526453215511772 0 0 0 18:1 66:1 72:1 80:1 127:1 138:1 139:1 150:1 158:1 162:1 169:1 170:1 173:1 217:1 
1 1 1 1 0 0.8942504351299295 1 0 0 55:1 65:1 78:1 79:1 124:1 138:1 139:1 148:1 149:1 151:1 158:1 159:1 169:1 170:1 171:1 175:1 
1 1 0.07255305373208887 1 0 0 1 0 0 19:1 62:1 127:1 138:1 151:1 157:1 162:1 169:1 170:1 171:1 
1 1 0.457669190637582 1 0 0 1 0 0 19:1 62:1 127:1 139:1 151:1 157:1 160:1 167:1 170:1 171:1 
1 1 0 1 0 0 1 0 0 55:1 62:1 124:1 151:1 158:1 159:1 169:1 170:1 171:1 175:1 
1 0 0.3863559256535791 0 0.2610207704554076 0 0 0 0 19:1 62:1 65:1 72:1 80:1 126:1 138:1 139:1 150:1 157:1 159:1 169:1 170:1 173:1 
1 1 0 1 0 0.03284924372956294 1 0.2983621623349563 0 54:1 62:1 79:1 125:1 138:1 139:1 148:1 149:1 151:1 154:1 161:1 169:1 170:1 171:1 194:1 
1 1 0.6764294351119196 1 0 0 1 0 0 55:1 65:1 79:1 124:1 138:1 139:1 150:1 158:1 159:1 169:1 170:1 171:1 181:1 
1 0.7318169388388672 0.1633411226085031 1 0 0 1 0 0 55:1 65:1 79:1 124:1 138:1 139:1 150:1 158:1 159:1 169:1 170:1 171:1 218:1 
1 0 0 0 0 0 0 0 0 18:1 62:1 65:1 79:1 126:1 138:1 139:1 150:1 157:1 162:1 169:1 170:1 171:1 
1 0 1 0 0 0 0 0 0 55:1 65:1 72:1 80:1 124:1 138:1 139:1 151:1 158:1 159:1 169:1 170:1 173:1 175:1 218:1 
1 0 0 0 0 0 0 0 0 19:1 62:1 65:1 72:1 80:1 127:1 138:1 139:1 150:1 158:1 162:1 169:1 170:1 173:1 217:1 
1 0 0.6444592172725906 0 0 0 0 0 0 55:1 62:1 65:1 72:1 80:1 124:1 138:1 139:1 151:1 157:1 159:1 169:1 170:1 173:1 175:1 
1 1 1 1 1 0 1 1 0.2441314949891072 19:1 62:1 127:1 138:1 151:1 157:1 159:1 169:1 170:1 171:1 
1 0 0.02596074062963694 0.7121209858581539 0 0 0.09070354220805679 1 0 56:1 62:1 65:1 72:1 79:1 88:1 124:1 138:1 139:1 144:1 150:1 158:1 164:1 169:1 171:1 
1 1 0 1 0 0 1 0 0 18:1 62:1 127:1 151:1 155:1 162:1 169:1 170:1 173:1 
1 0 1 1 0 0 1 0 0 55:1 65:1 79:1 124:1 138:1 139:1 151:1 158:1 159:1 169:1 170:1 171:1 175:1 
1 1 0 1 0 0 1 0 0 18:1 62:1 127:1 139:1 151:1 157:1 160:1 169:1 170:1 171:1 
1 1 0.02488642961749218 1 0 0 1 0 0 19:1 62:1 127:1 138:1 151:1 158:1 162:1 169:1 170:1 172:1 
1 1 0 1 1 0 1 0.03631120177339865 0 1:1 66:1 127:1 142:1 143:1 150:1 157:1 162:1 169:1 170:1 171:1 
1 1 0 1 1 0 1 1 0 1:1 62:1 81:1 129:1 138:1 139:1 148:1 151:1 157:1 162:1 167:1 170:1 171:1 
1 0.1656371227090593 0 0 0 0 0 0 0 58:1 62:1 65:1 72:1 80:1 94:1 125:1 138:1 139:1 144:1 150:1 158:1 165:1 169:1 170:1 173:1 217:1 
1 0 0 0 0 0 0 0 0 19:1 62:1 65:1 72:1 80:1 127:1 138:1 139:1 150:1 158:1 162:1 169:1 170:1 173:1 181:1 
1 0 0 0 0 0 0 0 0 18:1 62:1 65:1 79:1 127:1 138:1 139:1 150:1 158:1 162:1 169:1 170:1 171:1 218:1 
1 1 0.009125215205886952 1 0 0 1 0.3697888393014249 0 56:1 65:1 79:1 125:1 138:1 139:1 150:1 158:1 160:1 166:1 170:1 171:1 
1 1 0 1 0 0 1 0 0 18:1 62:1 127:1 139:1 151:1 158:1 162:1 169:1 170:1 171:1 
1 1 0 1 1 0 1 1 0.3566480955085237 55:1 81:1 124:1 138:1 150:1 158:1 159:1 169:1 170:1 171:1 175:1 218:1 
1 1 0 1 1 0 1 1 0 54:1 72:1 80:1 125:1 138:1 139:1 150:1 158:1 163:1 169:1 170:1 173:1 181:1 
1 1 0 1 1 0 1 1 0 18:1 72:1 81:1 91:1 127:1 139:1 151:1 155:1 162:1 169:1 170:1 171:1 
1 1 0 1 0 0 1 0 0 17:1 124:1 148:1 157:1 160:1 169:1 170:1 171:1 
1 1 0.8208601610750885 1 0 0 1 0 0 55:1 65:1 79:1 124:1 139:1 150:1 158:1 159:1 169:1 170:1 171:1 175:1 
1 1 0.6305962572035022 1 0 0.2028124390338573 1 0 0 55:1 65:1 79:1 124:1 138:1 139:1 148:1 151:1 158:1 159:1 169:1 170:1 173:1 175:1 217:1 
1 1 1 1 1 0.4976229750430238 1 1 0 1:1 66:1 79:1 128:1 138:1 139:1 148:1 150:1 157:1 159:1 169:1 171:1 
1 1 0 1 0 0 1 0 0 17:1 124:1 148:1 158:1 160:1 169:1 170:1 171:1 
1 1 1 1 0 0 1 0 0 18:1 62:1 79:1 127:1 139:1 148:1 151:1 158:1 159:1 169:1 170:1 171:1 
1 1 1 1 0 0.4692098479744983 1 0 0 18:1 62:1 65:1 79:1 127:1 138:1 139:1 148:1 151:1 158:1 159:1 169:1 170:1 171:1 
1 0 0 0 0 0 0 0 0 18:1 62:1 65:1 79:1 127:1 138:1 139:1 150:1 157:1 163:1 169:1 170:1 171:1 
1 0 0 0.1550846357252311 0 0 0 0 0 18:1 62:1 65:1 79:1 127:1 138:1 139:1 150:1 158:1 162:1 169:1 170:1 171:1 181:1 
1 1 0.8079041244773891 1 0 0.05741205207493791 1 1 0 54:1 72:1 78:1 80:1 89:1 125:1 138:1 139:1 150:1 158:1 160:1 169:1 170:1 173:1 
1 0 1 0.5878389877513298 0 0 0 0 0 55:1 62:1 65:1 79:1 124:1 138:1 139:1 151:1 158:1 159:1 169:1 170:1 171:1 
1 1 0.2675642021567083 1 1 0.7039254297971036 1 1 0 18:1 69:1 72:1 89:1 127:1 138:1 139:1 150:1 158:1 162:1 169:1 170:1 171:1 
1 1 0 1 0 0 1 0.06574289411790971 0 57:1 66:1 124:1 142:1 150:1 157:1 160:1 169:1 170:1 171:1 
1 0 0.9624751804352414 0 0 0 0 0 0 18:1 62:1 65:1 72:1 80:1 127:1 138:1 139:1 151:1 158:1 162:1 169:1 170:1 173:1 
1 1 0 1 0 0 1 0 0 17:1 66:1 124:1 142:1 151:1 157:1 160:1 169:1 170:1 171:1 
1 1 0 1 0 0 1 0 0 17:1 66:1 124:1 142:1 151:1 157:1 160:1 169:1 170:1 171:1 
1 1 0 1 0 0.8485850575195532 1 0.4519141602982925 0 58:1 62:1 65:1 72:1 80:1 125:1 138:1 139:1 148:1 151:1 155:1 160:1 167:1 170:1 173:1 182:1 
1 0 0 0 0 0 0 0 0 58:1 62:1 65:1 72:1 80:1 125:1 138:1 139:1 151:1 158:1 160:1 167:1 170:1 173:1 182:1 
1 1 0 1 0 0 1 0 0 18:1 62:1 65:1 79:1 126:1 138:1 139:1 148:1 150:1 158:1 160:1 166:1 170:1 171:1 192:1 
1 1 0 1 0 0 1 0.6363237682800894 0.01555410892426275 1:1 62:1 123:1 129:1 138:1 151:1 157:1 160:1 167:1 171:1 
1 0 0.1456532941575306 0 0 0 0 0 0 55:1 62:1 65:1 79:1 124:1 138:1 139:1 151:1 158:1 159:1 169:1 170:1 171:1 175:1 199:1 
1 0 0 0 0 0.08988261614609677 1 0 0 57:1 62:1 65:1 79:1 80:1 88:1 124:1 138:1 139:1 144:1 148:1 151:1 157:1 160:1 169:1 170:1 173:1 194:1 
1 0 0 0 0 0 0 0 0 55:1 62:1 65:1 79:1 124:1 138:1 139:1 150:1 158:1 159:1 169:1 170:1 171:1 218:1 
1 1 0.4967356079046835 1 0 0 1 1 0 55:1 62:1 124:1 138:1 151:1 158:1 159:1 169:1 170:1 171:1 
1 0 0 0 0 0 0 0 0 55:1 65:1 72:1 80:1 124:1 138:1 139:1 151:1 158:1 159:1 169:1 170:1 173:1 175:1 217:1 
1 1 0 1 0.6618883177750997 0.6173411949502854 1 0 0.3363003527079919 55:1 65:1 79:1 124:1 138:1 139:1 148:1 149:1 151:1 158:1 159:1 169:1 170:1 171:1 175:1 
1 1 0 1 0 0 1 0 0 55:1 65:1 79:1 124:1 138:1 139:1 149:1 151:1 158:1 159:1 169:1 170:1 171:1 175:1 
1 0 0 0 0 0 0 0 0 56:1 62:1 65:1 79:1 124:1 138:1 139:1 150:1 158:1 164:1 169:1 170:1 171:1 218:1 
1 1 1 1 0 0 1 0 0 55:1 65:1 78:1 79:1 124:1 138:1 139:1 151:1 158:1 159:1 169:1 170:1 171:1 
1 0 0.358382417200475 1 0 0 1 0 0 56:1 65:1 78:1 79:1 124:1 138:1 139:1 150:1 157:1 164:1 169:1 170:1 171:1 175:1 218:1 
1 0 0 0 0 0 0 0 0 55:1 62:1 65:1 79:1 124:1 138:1 139:1 151:1 158:1 159:1 169:1 170:1 171:1 175:1 218:1 
1 1 0 1 0 0 1 1 0.6075878834113786 55:1 62:1 124:1 138:1 151:1 158:1 159:1 169:1 170:1 171:1 
1 1 0.7514106940395788 1 1 0 1 1 0.0487794158754345 54:1 72:1 125:1 138:1 148:1 150:1 154:1 161:1 169:1 170:1 171:1 
1 1 0 1 0.3524168512055981 0 1 0.8871566786993333 0 58:1 62:1 125:1 138:1 148:1 151:1 158:1 160:1 167:1 170:1 173:1 175:1 182:1 
1 0 0 0 0 0 0 0 0 54:1 62:1 65:1 79:1 125:1 138:1 139:1 150:1 158:1 160:1 169:1 170:1 173:1 
1 1 0 1 0 0.3434890678313038 1 0 0 18:1 62:1 73:1 79:1 126:1 138:1 139:1 150:1 158:1 164:1 169:1 170:1 171:1 181:1 
1 0 1 0 0 0 0 0 0 55:1 65:1 72:1 80:1 124:1 138:1 139:1 151:1 158:1 159:1 169:1 170:1 173:1 175:1 218:1 
1 1 0.08438243524373741 1 0 0 1 0 0 55:1 62:1 124:1 138:1 151:1 158:1 159:1 169:1 170:1 171:1 175:1 
1 0 0 0 0 0 0 0 0 55:1 62:1 65:1 72:1 80:1 124:1 138:1 139:1 151:1 158:1 159:1 169:1 170:1 173:1 175:1 218:1 
1 1 0.2046422942804206 1 0 1 1 0.2941047683655448 0 55:1 65:1 72:1 80:1 124:1 138:1 139:1 148:1 149:1 151:1 158:1 159:1 169:1 170:1 173:1 175:1 
1 0 1 0 0 0 0 0 0 55:1 65:1 72:1 80:1 124:1 138:1 139:1 151:1 158:1 159:1 169:1 170:1 173:1 175:1 218:1 
1 0 0 0 0 0 0 0 0 55:1 62:1 65:1 79:1 124:1 138:1 139:1 150:1 158:1 159:1 169:1 170:1 171:1 218:1 
1 1 0.8034530422594875 1 0 1 1 1 0 55:1 65:1 72:1 80:1 124:1 138:1 139:1 148:1 149:1 151:1 158:1 159:1 169:1 170:1 173:1 175:1 
1 1 0 0 0 0 0 0 0 54:1 62:1 65:1 72:1 80:1 125:1 138:1 139:1 150:1 158:1 163:1 169:1 170:1 173:1 
1 1 1 1 0 0.9886385591365183 0 0 0 18:1 65:1 80:1 127:1 138:1 139:1 150:1 158:1 162:1 169:1 170:1 173:1 
1 1 0 1 1 0 1 1 0 18:1 62:1 72:1 126:1 138:1 139:1 148:1 150:1 158:1 160:1 169:1 170:1 171:1 
1 0 0 0 0.7225728279359411 0 0 0 0 19:1 62:1 65:1 79:1 126:1 138:1 139:1 150:1 157:1 163:1 169:1 170:1 171:1 
1 0 0 1 0 0 0 0 0 55:1 62:1 65:1 72:1 79:1 124:1 138:1 139:1 151:1 152:1 159:1 169:1 170:1 171:1 175:1 218:1 
1 1 0 1 0 0 1 0 0 56:1 125:1 148:1 158:1 160:1 166:1 170:1 171:1 175:1 
1 0 0.7194466314939976 1 0 0 1 0 0 17:1 65:1 78:1 79:1 124:1 138:1 139:1 151:1 158:1 160:1 169:1 170:1 171:1 
1 1 1 1 1 0.1806477799869017 1 1 0 58:1 72:1 81:1 124:1 138:1 139:1 150:1 154:1 165:1 169:1 170:1 171:1 
1 1 0 1 0 0 1 0 0 17:1 124:1 148:1 157:1 160:1 169:1 170:1 171:1 
1 1 0.7810650348543559 1 0 0 1 0 0.6115430275507188 18:1 66:1 127:1 142:1 151:1 158:1 162:1 169:1 170:1 171:1 
1 1 0 1 0 0 1 0 0 57:1 62:1 65:1 79:1 124:1 138:1 139:1 148:1 151:1 154:1 160:1 169:1 170:1 171:1 
1 0 0 0 0 0 0 0 0 17:1 62:1 65:1 79:1 124:1 138:1 139:1 151:1 157:1 160:1 169:1 170:1 171:1 
1 1 0.4363398859481527 1 0 0 1 0 0 18:1 62:1 127:1 139:1 151:1 158:1 162:1 169:1 170:1 173:1 
1 1 0 1 0 0 1 1 0 58:1 124:1 148:1 158:1 160:1 169:1 170:1 171:1 
1 1 0 1 0.03684237426722413 0 1 1 0 58:1 124:1 148:1 158:1 165:1 169:1 170:1 171:1 
1 1 0 1 0 0 1 0 0 54:1 62:1 65:1 79:1 125:1 138:1 139:1 148:1 151:1 158:1 163:1 169:1 170:1 171:1 
1 1 0 1 1 0 1 0 0 1:1 128:1 148:1 157:1 160:1 169:1 171:1 
1 1 1 1 1 1 1 1 0 58:1 72:1 81:1 124:1 138:1 139:1 150:1 154:1 165:1 169:1 170:1 171:1 
1 1 1 1 1 0 1 1 0 55:1 72:1 81:1 124:1 138:1 139:1 151:1 158:1 159:1 169:1 170:1 171:1 175:1 
1 1 0 1 0 0 1 0 0 17:1 124:1 148:1 158:1 160:1 169:1 170:1 171:1 181:1 
1 1 0 1 0 0 1 0 0 17:1 124:1 148:1 158:1 160:1 169:1 170:1 171:1 
1 1 0 1 0 0 1 0 0 17:1 124:1 148:1 156:1 160:1 169:1 170:1 171:1 
1 1 0 1 0 0 1 0 0 17:1 124:1 148:1 157:1 160:1 169:1 170:1 171:1 181:1 
1 1 0 1 0 0 1 0 0 57:1 124:1 148:1 158:1 160:1 169:1 170:1 171:1 175:1 
1 1 0 1 0 0 1 1 0 54:1 66:1 125:1 142:1 151:1 158:1 160:1 169:1 170:1 171:1 
1 1 0 1 0 0 1 0.1152509752505151 0 18:1 127:1 148:1 158:1 162:1 169:1 170:1 171:1 
1 1 0 1 0 0 1 0 0 17:1 124:1 148:1 158:1 160:1 169:1 170:1 171:1 
1 1 0 1 1 0 1 1 0 58:1 125:1 148:1 158:1 160:1 167:1 170:1 171:1 175:1 179:1 
1 1 0 1 0 0 1 0 0 17:1 124:1 148:1 158:1 160:1 169:1 170:1 171:1 
1 0 0.1670077374529367 1 0.4678498110034868 0 0 0 0 58:1 62:1 65:1 79:1 80:1 88:1 125:1 138:1 139:1 144:1 150:1 158:1 160:1 167:1 170:1 171:1 
1 1 0 1 0 0 1 1 0 58:1 124:1 148:1 156:1 165:1 169:1 170:1 171:1 
1 1 0 1 0 0 1 0 0 57:1 66:1 124:1 142:1 151:1 158:1 160:1 169:1 170:1 171:1 175:1 
1 1 0 1 0 0 1 0 0 56:1 125:1 148:1 158:1 160:1 166:1 170:1 171:1 175:1 
1 1 0.8032592433105282 1 0 0 1 0.4117954422744378 0.390223303373975 19:1 127:1 148:1 158:1 160:1 166:1 170:1 171:1 
1 1 0 1 0.9753902343577749 0 1 1 0 56:1 125:1 148:1 158:1 160:1 168:1 170:1 171:1 175:1 
1 1 0 1 1 0 1 1 0 1:1 72:1 129:1 138:1 148:1 151:1 157:1 164:1 169:1 170:1 171:1 
1 1 0 1 0 0 1 0 0 58:1 62:1 65:1 79:1 125:1 138:1 139:1 148:1 150:1 156:1 160:1 169:1 170:1 171:1 218:1 
1 1 0 1 1 0 1 0 0 18:1 62:1 127:1 139:1 148:1 151:1 157:1 162:1 169:1 170:1 171:1 
1 1 0.852488378495917 1 0 0 1 0 0 58:1 62:1 79:1 124:1 139:1 151:1 158:1 165:1 169:1 170:1 171:1 
1 1 0 1 0.4411600880059933 0 1 0.4144681412264667 0 56:1 125:1 148:1 158:1 160:1 166:1 170:1 171:1 175:1 
1 0 0 0 0 0 0 0 0 55:1 62:1 65:1 79:1 124:1 138:1 139:1 150:1 158:1 159:1 169:1 170:1 171:1 175:1 218:1 
1 0 0 1 0 0 1 0 0 55:1 62:1 65:1 79:1 124:1 138:1 139:1 149:1 151:1 158:1 159:1 169:1 170:1 171:1 175:1 
1 1 1 1 0 0.1754936227234346 1 0 0 19:1 62:1 79:1 126:1 138:1 139:1 150:1 158:1 162:1 169:1 170:1 171:1 
-0 1 0 1 0 0 1 0 0 56:1 125:1 148:1 158:1 164:1 169:1 170:1 171:1 175:1 
-0 0 0 0 0 0.5208246311849054 0 0 0 18:1 72:1 80:1 126:1 138:1 139:1 151:1 158:1 162:1 169:1 170:1 173:1 
-0 0 0 0 0 0 1 0 0 58:1 62:1 65:1 72:1 80:1 125:1 138:1 139:1 148:1 151:1 158:1 160:1 167:1 170:1 173:1 218:1 
-0.4582342063289501 0 0 0 0 0 0 0 0 58:1 62:1 65:1 72:1 80:1 125:1 138:1 139:1 151:1 158:1 160:1 167:1 170:1 173:1 175:1 218:1 
-0 0 0 0 0.04868194620059562 0 0 0 0 28:1 81:1 132:1 138:1 150:1 157:1 162:1 169:1 170:1 171:1 
-0.4206168667808413 0 0 0 0 0 0 0 0 18:1 62:1 65:1 72:1 80:1 127:1 138:1 139:1 148:1 149:1 151:1 158:1 162:1 169:1 170:1 173:1 
-1 0 0 0 0 0 0 0 0 55:1 62:1 65:1 72:1 80:1 124:1 138:1 139:1 148:1 149:1 151:1 158:1 159:1 169:1 170:1 173:1 175:1 
-0 0 0.03968753596971645 0 0 0.3334069311821184 0 0.007423328780122194 0 58:1 62:1 65:1 72:1 80:1 125:1 138:1 139:1 148:1 149:1 151:1 158:1 160:1 167:1 170:1 173:1 175:1 
-0.6096289230298622 0 0 0 0 0 0 0 0 58:1 62:1 65:1 72:1 80:1 125:1 138:1 139:1 151:1 158:1 160:1 167:1 170:1 173:1 175:1 218:1 
-0.4480008513307919 0 0 0 0 0 0 0 0 58:1 80:1 125:1 138:1 150:1 156:1 163:1 169:1 170:1 173:1 175:1 
-0 0 0 1 0 0 0 0 0 58:1 79:1 125:1 138:1 150:1 158:1 159:1 169:1 170:1 171:1 175:1 
-0 1 0 0 0 0 0 0 0 54:1 81:1 125:1 138:1 150:1 158:1 161:1 169:1 170:1 171:1 175:1 218:1 
-0 0 0 0.2251715810192074 0 0 0 0 0 56:1 79:1 125:1 138:1 150:1 158:1 159:1 166:1 170:1 171:1 
-0 0 0 1 0 0 0 0.01396926922686261 0 18:1 79:1 123:1 127:1 138:1 150:1 158:1 162:1 169:1 170:1 171:1 199:1 
-0 0 0.05528214114861888 0 1 0 0 1 0 18:1 72:1 81:1 127:1 138:1 139:1 150:1 158:1 159:1 167:1 170:1 171:1 
-1 0 0 0 0 0 0 0 0 18:1 62:1 127:1 139:1 151:1 158:1 162:1 169:1 170:1 173:1 
-0 1 0 0 0 0 1 0 0 54:1 81:1 125:1 138:1 148:1 150:1 154:1 160:1 169:1 170:1 171:1 218:1 
-0 0 0 1 0 0 1 0 0 56:1 79:1 124:1 138:1 148:1 151:1 155:1 164:1 169:1 170:1 171:1 
-0 0 0 1 0 0 0 0 0 55:1 79:1 124:1 138:1 151:1 155:1 159:1 169:1 170:1 171:1 175:1 
-1 0 0 1 0 0 1 0 0 56:1 132:1 148:1 152:1 162:1 169:1 170:1 172:1 
-0 1 0 0 0 0 1 0.8789188016659156 0 54:1 79:1 125:1 138:1 151:1 158:1 160:1 169:1 170:1 171:1 
-0 0 0 1 0 0 1 0 0.08629588564774451 58:1 66:1 125:1 142:1 151:1 158:1 160:1 167:1 171:1 
-1 0 0 1 0.2631948076076107 0 0 0 0.04687868595910649 18:1 66:1 127:1 142:1 150:1 157:1 162:1 169:1 170:1 171:1 
-0 0 0 0 0 0 1 0 0 17:1 66:1 124:1 142:1 151:1 157:1 160:1 169:1 170:1 171:1 
-1 0 0 0 0 0 0 0 0 1:1 72:1 81:1 127:1 139:1 151:1 158:1 162:1 169:1 170:1 171:1 
-0 0 0 1 0 0 1 0 0 17:1 124:1 148:1 155:1 160:1 169:1 170:1 172:1 
-0 0 0 1 0 0 1 0 0 19:1 124:1 148:1 156:1 160:1 169:1 170:1 172:1 
-0 1 0 1 0 0 1 0 0 56:1 124:1 148:1 158:1 164:1 169:1 170:1 172:1 
-0 0 0 1 0 0 0 0 0 55:1 81:1 124:1 138:1 148:1 149:1 150:1 152:1 159:1 169:1 170:1 171:1 175:1 
-0 0 0 1 0 0 0 0 0 18:1 72:1 127:1 139:1 151:1 158:1 162:1 169:1 170:1 171:1 
-0 0 0 1 0 0 0 0 0 55:1 81:1 124:1 138:1 148:1 150:1 158:1 159:1 169:1 170:1 171:1 175:1 
-0 1 0 1 0 0 1 0 0 58:1 125:1 148:1 156:1 160:1 169:1 170:1 172:1 175:1 
-0 1 0 1 0 0 1 0 0 56:1 125:1 148:1 154:1 164:1 169:1 170:1 172:1 175:1 
-0 1 0 1 0 0 1 0 0 58:1 124:1 148:1 158:1 162:1 169:1 170:1 172:1 
-0 0 0 1 0 0 1 0 0 57:1 124:1 148:1 156:1 160:1 169:1 170:1 172:1 175:1 
-0 0 0 1 0 0 1 0 0 57:1 124:1 148:1 156:1 160:1 169:1 170:1 172:1 175:1 
-0 0 0 -0 0 0 1 0 0 58:1 62:1 80:1 125:1 138:1 139:1 148:1 150:1 158:1 160:1 167:1 170:1 173:1 207:1 218:1 
-0 0 0 1 0 0 0 0 0 55:1 124:1 148:1 152:1 159:1 169:1 170:1 172:1 175:1 
-0 0 0 1 0 0 0 0 0 55:1 124:1 148:1 152:1 159:1 169:1 170:1 172:1 175:1 
-0 0 0.27688707969038 0 0 0 0 0 0 18:1 62:1 79:1 127:1 138:1 139:1 150:1 158:1 162:1 169:1 170:1 171:1 186:1 
-0.04591037989948543 0 0.06381593428023521 0 0 0 0 0 0 55:1 62:1 79:1 81:1 124:1 138:1 139:1 151:1 158:1 159:1 169:1 170:1 171:1 175:1 
-0 0 0 1 0 0 0 0 0 55:1 72:1 124:1 138:1 148:1 150:1 154:1 159:1 169:1 170:1 171:1 175:1 218:1 
-0 0 0 0 0.3613540779002303 0 0 0 0 18:1 72:1 81:1 91:1 127:1 138:1 139:1 150:1 158:1 162:1 169:1 170:1 171:1 218:1 
-0.93077108613722 0 0.7149421008360082 0 0 0.6473262488917229 0 0 0 55:1 69:1 80:1 124:1 138:1 139:1 150:1 158:1 159:1 169:1 170:1 173:1 
-1 0 0 0 0 0 0 0 0 54:1 62:1 65:1 72:1 80:1 125:1 138:1 139:1 150:1 158:1 163:1 169:1 170:1 173:1 
-0 0 0 1 0 0 1 0 0 55:1 124:1 148:1 156:1 159:1 169:1 170:1 172:1 
-0 0 0 0 0.04700374467290482 0 1 0 0 56:1 81:1 125:1 138:1 151:1 155:1 160:1 168:1 170:1 171:1 182:1 
-0 1 0 1 0 0 1 0 0 58:1 125:1 148:1 156:1 160:1 169:1 170:1 172:1 175:1 
-0 0 0 1 0 0 0 0 0 55:1 72:1 124:1 138:1 148:1 149:1 151:1 154:1 159:1 169:1 170:1 171:1 175:1 
-0.6426792800051588 0 0 0 0 0 0 0 0 18:1 62:1 79:1 81:1 127:1 138:1 139:1 148:1 151:1 158:1 162:1 169:1 170:1 171:1 
-1 0 0 1 0 0 0 1 0 55:1 72:1 124:1 138:1 150:1 158:1 159:1 169:1 170:1 171:1 175:1 
-0 0 0 0 0.009274829293471835 0 0 0.529429305821523 0 56:1 72:1 124:1 138:1 150:1 158:1 164:1 169:1 170:1 171:1 182:1 
-0 0 0 1 0 0 0 0 0 55:1 81:1 124:1 138:1 148:1 150:1 158:1 159:1 169:1 170:1 171:1 175:1 
-0 0 0 1 0 0 1 0.3881311027218233 0 58:1 81:1 125:1 138:1 148:1 149:1 151:1 155:1 160:1 167:1 170:1 171:1 175:1 
-0.8288730869229844 0 0 0 0 0 0 0 0 58:1 62:1 65:1 124:1 138:1 139:1 151:1 155:1 160:1 167:1 170:1 171:1 175:1 218:1 
-0 0 0 0 0 0 1 0 0 17:1 81:1 124:1 138:1 148:1 151:1 155:1 160:1 169:1 170:1 171:1 
-0.4413716016871553 0 0 1 0 0 0 0.1925945626191843 0 55:1 72:1 124:1 138:1 151:1 158:1 159:1 169:1 170:1 171:1 175:1 184:1 
-0.799722628492757 0 0 0 0 0 0 0 0 1:1 62:1 79:1 138:1 139:1 148:1 151:1 158:1 162:1 169:1 170:1 171:1 
-0.1554421526143377 0 0.2276572435883522 0 0 0.3352595820293268 0 0 0 55:1 62:1 79:1 124:1 138:1 139:1 150:1 158:1 159:1 169:1 170:1 173:1 175:1 
-0 0 0 0 0 0.03616619680686275 0 0 0 58:1 62:1 81:1 125:1 138:1 139:1 148:1 150:1 158:1 159:1 169:1 170:1 171:1 175:1 184:1 
-1 0 0 0 0 0 0 0 0 18:1 72:1 80:1 89:1 127:1 138:1 139:1 150:1 158:1 162:1 169:1 170:1 171:1 
-0 1 0 1 0 0 0 0 0 55:1 81:1 124:1 138:1 148:1 149:1 151:1 152:1 159:1 169:1 170:1 171:1 175:1 188:1 
-0 0 0 0 0 0 0 0 0.02010966525387684 18:1 81:1 124:1 138:1 148:1 149:1 151:1 152:1 170:1 171:1 
-0 0 0.08146393011334443 0 0 0 0 0 0 58:1 72:1 81:1 124:1 139:1 151:1 158:1 165:1 169:1 170:1 171:1 
-0.3765793803922042 0 0 1 0 0 0 0 0 58:1 66:1 125:1 142:1 151:1 155:1 160:1 167:1 170:1 171:1 175:1 
-0 0 0.6256410894575944 0.2039795598165099 0.3613166872320974 0.3731758580072899 0 0 0 18:1 72:1 127:1 139:1 151:1 158:1 162:1 169:1 170:1 171:1 187:1 
-0.6367471067613942 0 0 0 0 0 0 0.01436798105122656 0 58:1 72:1 81:1 124:1 139:1 150:1 158:1 165:1 169:1 170:1 171:1 
-0 0 0 1 0 0 0 0 0 55:1 81:1 124:1 139:1 148:1 150:1 154:1 159:1 169:1 170:1 171:1 175:1 
-0.1580306965274714 0 0.1152295235055011 0 0 0.8675881282942751 0 0 0 58:1 65:1 79:1 89:1 125:1 138:1 139:1 144:1 151:1 156:1 159:1 167:1 170:1 173:1 
-0.09379610064386333 0 0 0 0 0 0 0 0 58:1 81:1 124:1 138:1 150:1 158:1 165:1 169:1 170:1 171:1 175:1 
-0 0 0 1 0 0 1 0 0 57:1 124:1 148:1 152:1 160:1 169:1 170:1 172:1 175:1 
-0.7067713060146799 0 0.07410276825714417 0 0 0.1419728128831191 0 0 0 58:1 78:1 81:1 124:1 138:1 139:1 148:1 149:1 151:1 158:1 165:1 169:1 170:1 171:1 175:1 
-0 1 0.02297925675731849 0 0 0 0 0 0 58:1 65:1 79:1 125:1 139:1 150:1 158:1 161:1 169:1 171:1 
-0 0 0 -0 0 0 0 0.2178088977134041 0 58:1 62:1 65:1 72:1 80:1 125:1 138:1 139:1 148:1 150:1 158:1 160:1 167:1 170:1 174:1 175:1 
-0 0 0 1 0 0 0 0 0 19:1 62:1 127:1 138:1 150:1 158:1 162:1 169:1 170:1 171:1 
-0 1 0 0 0 0 0 0 0 54:1 81:1 125:1 138:1 150:1 158:1 163:1 169:1 170:1 171:1 
-0 1 0 1 0 0 1 0 0 58:1 125:1 148:1 156:1 160:1 169:1 170:1 172:1 
-0.3568265355816009 0.1850684476067838 0 1 0 0 1 0 0 1:1 148:1 156:1 160:1 169:1 170:1 172:1 
-0 0 0 1 0 0 1 0 0 17:1 124:1 148:1 156:1 160:1 169:1 170:1 172:1 
-0 0 0 1 0 0 1 0.3387442238524992 0 56:1 125:1 148:1 155:1 160:1 166:1 170:1 172:1 175:1 
-0 0 0.03089325041118884 0 0 0 0 0 0 55:1 78:1 81:1 124:1 138:1 139:1 148:1 149:1 151:1 152:1 159:1 169:1 170:1 171:1 175:1 
-1 0 0 0 0 0 0 0 0 58:1 62:1 65:1 79:1 125:1 138:1 139:1 151:1 155:1 159:1 169:1 170:1 171:1 
-0.9360356880176604 0 0 0 1 0 0 0.9300631949621729 0 18:1 72:1 81:1 126:1 138:1 139:1 150:1 157:1 162:1 169:1 170:1 171:1 
-0 0.7995446418567996 0 1 0.2061995162818178 0 1 0 0 58:1 125:1 148:1 154:1 160:1 167:1 170:1 171:1 175:1 182:1 
-0 0 0 1 0 0 0 0 0 19:1 66:1 126:1 142:1 148:1 151:1 158:1 162:1 169:1 170:1 171:1 
-0 0 0 1 0 0 0 0 0 55:1 66:1 124:1 142:1 151:1 158:1 159:1 169:1 170:1 171:1 175:1 
-0 0 0 0 0 0 0 1 0 58:1 72:1 125:1 138:1 150:1 158:1 165:1 169:1 170:1 171:1 207:1 218:1 
-0 1 0 1 0 0 1 0 0 17:1 125:1 148:1 156:1 160:1 169:1 170:1 172:1 
-0 0 0 1 0 0 0 0 0 18:1 81:1 127:1 138:1 148:1 149:1 151:1 158:1 159:1 169:1 170:1 171:1 
-0 0 0 1 0.4623071725175248 0 0 0.08959796674015487 0 58:1 81:1 125:1 138:1 148:1 149:1 151:1 152:1 160:1 167:1 171:1 175:1 
-0 0 0 0 0 0 1 0 0 17:1 81:1 124:1 138:1 148:1 149:1 151:1 158:1 160:1 169:1 170:1 171:1 
-0 0 0 1 0 0 0 0 0 19:1 81:1 127:1 138:1 148:1 149:1 150:1 158:1 159:1 169:1 170:1 171:1 
-0 0 0 1 0 0 0 0 0 55:1 81:1 124:1 138:1 148:1 150:1 152:1 159:1 169:1 170:1 171:1 175:1 
-0 0 0 1 0 0 0 0 0 58:1 81:1 127:1 138:1 148:1 149:1 150:1 158:1 162:1 169:1 170:1 171:1 
-0 0 0 1 0 0 0 0 0 58:1 81:1 125:1 138:1 148:1 149:1 150:1 158:1 159:1 169:1 170:1 171:1 
-0 1 0 1 0 0 0 0 0 58:1 81:1 125:1 138:1 148:1 149:1 150:1 158:1 165:1 169:1 170:1 171:1 
-0 0 0 1 0 0 0 0 0 19:1 81:1 127:1 138:1 148:1 149:1 150:1 158:1 159:1 169:1 170:1 171:1 
-0 0 0 0.1631678616622992 0 0 0 0 0 55:1 81:1 124:1 138:1 148:1 149:1 150:1 158:1 159:1 169:1 170:1 171:1 
-0 0 0 0 0 0 1 0 0 57:1 81:1 124:1 138:1 148:1 149:1 151:1 158:1 160:1 169:1 170:1 171:1 
-0 0 0 1 0 0 0 0 0 55:1 81:1 124:1 138:1 148:1 151:1 158:1 159:1 169:1 170:1 171:1 
-0 0 0 0 0 0 0 0.01697356089416592 0 19:1 72:1 81:1 127:1 138:1 139:1 150:1 158:1 160:1 169:1 170:1 171:1 
-0 0 0 0 0.0504555938305687 0 0 0 0 19:1 72:1 81:1 126:1 138:1 139:1 150:1 158:1 159:1 169:1 170:1 171:1 
-0 0 0 1 0 0 0 0 0 55:1 81:1 124:1 138:1 148:1 150:1 158:1 159:1 169:1 170:1 171:1 175:1 218:1 
-0 0 0 1 0 0 1 0.2042015420285473 0 58:1 79:1 125:1 138:1 148:1 149:1 151:1 155:1 160:1 167:1 170:1 171:1 175:1 181:1 
-0 0 0 1 0 0 0 0 0 58:1 79:1 125:1 138:1 148:1 149:1 151:1 158:1 159:1 169:1 170:1 171:1 175:1 
-0 0 0 1 0 0 0 0 0 58:1 79:1 125:1 138:1 150:1 158:1 165:1 169:1 170:1 171:1 175:1 
-0 0 0 1 0 0 0 0 0 55:1 81:1 124:1 139:1 148:1 149:1 151:1 152:1 159:1 169:1 170:1 171:1 175:1 
-0 1 0 0 0 0 0 0 0 54:1 66:1 125:1 143:1 148:1 149:1 151:1 152:1 160:1 169:1 171:1 175:1 
-0 0 0 1 0 0 0 0 0 55:1 66:1 124:1 143:1 148:1 151:1 152:1 159:1 169:1 170:1 171:1 175:1 
-0 1 0 1 0 0 0 0 0 54:1 66:1 125:1 143:1 151:1 158:1 162:1 169:1 170:1 171:1 
-0 0 0 1 0 0 0 0 0 55:1 81:1 124:1 139:1 148:1 149:1 151:1 152:1 159:1 169:1 170:1 171:1 175:1 
-0 0 0 1 0 0 1 0 0 18:1 72:1 80:1 127:1 139:1 148:1 149:1 151:1 158:1 162:1 169:1 170:1 173:1 
-0 0 0 0 0 0 1 0 0 56:1 81:1 125:1 139:1 148:1 149:1 151:1 158:1 160:1 166:1 170:1 171:1 175:1 
-1 0 0 0.3524776134580509 0 0 0 0 0 18:1 62:1 127:1 139:1 151:1 158:1 162:1 169:1 170:1 173:1 
-0 0 0.4801303409459064 0 0 0 0 0 0 58:1 72:1 80:1 124:1 139:1 150:1 158:1 165:1 169:1 170:1 173:1 175:1 186:1 
-0 0 0 1 0 0 0 0 0 18:1 62:1 127:1 139:1 151:1 158:1 162:1 169:1 170:1 173:1 186:1 
-0 0 0.5591086096596842 0 0 0.3587321067732783 0 0 0 56:1 72:1 80:1 126:1 138:1 139:1 151:1 158:1 162:1 169:1 170:1 173:1 
-0 0 0 1 0 0 0 0 0 55:1 81:1 124:1 139:1 148:1 149:1 151:1 158:1 159:1 169:1 170:1 171:1 
-0 0 0 1 0 0 1 0 0 18:1 81:1 127:1 139:1 148:1 151:1 158:1 162:1 169:1 170:1 171:1 
-0 1 0 1 0 0 1 1 0 58:1 81:1 125:1 138:1 148:1 149:1 151:1 158:1 160:1 167:1 170:1 171:1 
-0 0 0.212798054681021 0 0 0 0 0 0 55:1 81:1 124:1 138:1 151:1 154:1 159:1 169:1 170:1 171:1 175:1 186:1 
-0.3118097925888615 0 0.6439299369730044 0 0 0.05130993793673153 0 0 0 19:1 65:1 79:1 127:1 138:1 139:1 150:1 158:1 160:1 169:1 170:1 173:1 
-0 0 0 0 0.2030884178970589 0 0 0 0 19:1 72:1 81:1 127:1 138:1 139:1 148:1 149:1 150:1 158:1 162:1 169:1 170:1 171:1 
-0 0 0 1 0 0 0 0 0 55:1 81:1 125:1 138:1 148:1 149:1 151:1 152:1 159:1 169:1 170:1 171:1 175:1 
-0 0 0 0 0 0 1 0 0 57:1 81:1 124:1 138:1 148:1 149:1 151:1 155:1 160:1 169:1 170:1 171:1 175:1 
-0 0 0 1 0 0 0 0 0 58:1 81:1 125:1 138:1 148:1 149:1 151:1 158:1 159:1 169:1 171:1 
-0 0 0 1 0 0 0 0 0 58:1 81:1 125:1 138:1 148:1 149:1 151:1 155:1 159:1 169:1 171:1 181:1 
-0.05556699906769254 1 0 0 0 0 0 0 0 54:1 81:1 125:1 138:1 151:1 158:1 163:1 169:1 170:1 171:1 175:1 
-0 0 0.3679227591070731 1 0 0 0 1 0 55:1 72:1 124:1 138:1 148:1 150:1 158:1 159:1 169:1 170:1 171:1 
-0 0 0 0 0 0 0 1 0 18:1 72:1 127:1 138:1 150:1 158:1 162:1 169:1 170:1 171:1 
-1 0 0.2760097255509721 0 0 0 0 0 0 19:1 62:1 127:1 138:1 151:1 158:1 163:1 169:1 170:1 171:1 
-0 1 0 0 0 0 0 0 0 54:1 62:1 125:1 138:1 150:1 158:1 163:1 169:1 170:1 171:1 
-0 0 0 1 0 0 0 0 0 18:1 81:1 127:1 138:1 148:1 149:1 151:1 158:1 162:1 169:1 170:1 171:1 
-0 1 0 0 0 0 1 0 0 54:1 81:1 125:1 138:1 148:1 149:1 151:1 158:1 163:1 169:1 170:1 171:1 
-0.09681788242202807 1 0 1 0 0 1 0.113658888216626 0 54:1 125:1 148:1 158:1 160:1 169:1 170:1 172:1 175:1 181:1 
-0.03523723616273604 0 0 0 0 0 0 1 0 56:1 81:1 124:1 138:1 151:1 158:1 164:1 169:1 170:1 171:1 207:1 
-0 1 0 1 0 0 1 0 0 58:1 125:1 148:1 156:1 160:1 169:1 170:1 172:1 175:1 
-1 0 1 0 0 0.1029807133152475 0 0 0 55:1 65:1 66:1 79:1 124:1 138:1 139:1 151:1 157:1 159:1 169:1 170:1 171:1 175:1 
-0 1 0 1 0 0 1 0.285775757081132 0 54:1 124:1 148:1 158:1 162:1 169:1 170:1 172:1 
-0 0 0 1 0 0 0 0 0 55:1 124:1 148:1 152:1 159:1 169:1 170:1 172:1 175:1 
-0 0 0 1 0 0 0 0 0 55:1 124:1 148:1 152:1 159:1 169:1 170:1 172:1 175:1 
-0 0 0 1 0 0 0 0 0 58:1 80:1 125:1 139:1 150:1 153:1 159:1 169:1 170:1 171:1 
-0 0 0 1 0 0 0 0 0 55:1 124:1 148:1 152:1 159:1 169:1 170:1 172:1 175:1 
-0 1 0 1 0 0 1 0 0 55:1 125:1 148:1 152:1 159:1 169:1 170:1 172:1 
-0 1 0 1 0 0 1 0 0 55:1 125:1 148:1 152:1 159:1 169:1 170:1 172:1 175:1 
-0 0 0 1 0 0 0 0 0 55:1 124:1 148:1 152:1 159:1 169:1 170:1 172:1 175:1 
-0 0 0 1 0 0 0 0 0 55:1 124:1 148:1 152:1 159:1 169:1 170:1 172:1 175:1 189:1 
-0 0 0 1 0 0 0 0 0 55:1 124:1 148:1 152:1 159:1 169:1 170:1 172:1 175:1 
-0 0 0 1 0 0 1 0 0 55:1 124:1 148:1 155:1 159:1 169:1 170:1 172:1 
-0 0 0 1 0 0 1 0 0 58:1 62:1 72:1 80:1 125:1 139:1 148:1 150:1 158:1 165:1 169:1 170:1 174:1 
-0 0 0 1 0 0 1 0 0 18:1 62:1 72:1 80:1 127:1 139:1 148:1 150:1 157:1 162:1 169:1 170:1 174:1 
-0 1 0 1 0 0 1 0 0 20:1 127:1 148:1 158:1 162:1 169:1 170:1 172:1 
-0 0 0 1 0 0 1 0 0 55:1 124:1 148:1 158:1 159:1 169:1 170:1 172:1 175:1 
-0 1 0 1 0 0 1 0 0 54:1 125:1 148:1 158:1 162:1 169:1 170:1 172:1 175:1 
-0 0 0 1 0 0 0 0 0 55:1 124:1 148:1 152:1 159:1 169:1 170:1 172:1 175:1 
-0 1 0 1 0 0 1 0 0 58:1 124:1 148:1 158:1 165:1 169:1 170:1 172:1 
-0 1 0 1 0 0 1 0 0 57:1 124:1 148:1 158:1 160:1 169:1 170:1 172:1 
-0 0 0 1 0 0 0 0 0 55:1 124:1 148:1 152:1 159:1 169:1 170:1 172:1 175:1 
-0 0 0 1 0 0 0 0 0 55:1 124:1 148:1 152:1 159:1 169:1 170:1 172:1 175:1 
-0 0 0 0 0 0.0362382371954108 0 0 0 58:1 81:1 125:1 138:1 150:1 153:1 159:1 169:1 170:1 171:1 
-0 0 0 1 0 0 0 0 0 55:1 124:1 148:1 152:1 159:1 169:1 170:1 172:1 175:1 
-0 0 0 1 0 0 0 0 0 55:1 124:1 148:1 152:1 159:1 169:1 170:1 172:1 175:1 
-0 0 0 1 0 0 0 0 0 55:1 124:1 148:1 152:1 159:1 169:1 170:1 172:1 175:1 
-0 0 0 0 0 0.4714695654368778 0 0 0 18:1 65:1 79:1 126:1 138:1 139:1 150:1 158:1 162:1 169:1 170:1 171:1 
-0 0 0 1 0 0 0 0 0 55:1 124:1 148:1 152:1 159:1 169:1 170:1 172:1 175:1 
-0 0 0.2338585147397059 0 0 0 0 0 0 18:1 66:1 72:1 80:1 127:1 139:1 150:1 158:1 162:1 169:1 170:1 171:1 
-0 0 0 1 0 0 0 0 0 18:1 66:1 72:1 80:1 127:1 139:1 148:1 150:1 152:1 163:1 169:1 170:1 171:1 
-0 1 0 0 0 0 0 0 0 18:1 72:1 81:1 127:1 138:1 139:1 148:1 149:1 151:1 158:1 161:1 169:1 170:1 171:1 
-0 1 0 1 0 0 1 0 0 58:1 125:1 148:1 158:1 160:1 167:1 170:1 172:1 175:1 
-0 0 0 1 0 0 1 0 0 56:1 124:1 148:1 152:1 164:1 169:1 170:1 172:1 
-0 1 0 1 0 0 1 0 0 58:1 125:1 148:1 158:1 159:1 169:1 170:1 172:1 175:1 
-0 1 0 1 0 0 1 0 0 56:1 125:1 148:1 158:1 164:1 169:1 170:1 172:1 202:1 
-0 0 0 1 0 0 1 0 0 17:1 124:1 148:1 152:1 160:1 169:1 170:1 172:1 
-0 0 0 1 0 0 1 0 0 17:1 124:1 148:1 152:1 160:1 169:1 170:1 172:1 
-0 1 0 1 0 0 1 0 0 18:1 127:1 148:1 158:1 160:1 169:1 170:1 172:1 
-0 0 0 1 0 0 1 0 0 17:1 124:1 148:1 152:1 160:1 169:1 170:1 172:1 
-0 0 0 1 0 0 1 0 0 17:1 124:1 148:1 152:1 160:1 169:1 170:1 172:1 
-0 0 0 0 0 0.77424082277961 0 0 0 58:1 65:1 66:1 79:1 125:1 138:1 139:1 151:1 158:1 159:1 169:1 170:1 171:1 175:1 
-0.002784677432874333 1 0.1508751756692165 0 0 0 0 0.3356870283444794 0 54:1 66:1 72:1 80:1 125:1 138:1 139:1 148:1 150:1 154:1 160:1 169:1 170:1 171:1 175:1 
-0 1 0 1 0 0 0 0 0 54:1 81:1 125:1 138:1 148:1 150:1 158:1 163:1 169:1 170:1 171:1 175:1 
-1 1 0 1 0 0 1 0 0 57:1 124:1 148:1 158:1 160:1 169:1 170:1 172:1 175:1 
-0 0 0 1 0 0 0 0 0 55:1 124:1 148:1 152:1 159:1 169:1 170:1 172:1 175:1 
-0 0 0 1 0 0 1 0 0 56:1 124:1 148:1 156:1 164:1 169:1 170:1 172:1 181:1 
-0.2762787873873848 0 0 0 0 0 1 0 0 57:1 79:1 124:1 138:1 151:1 158:1 160:1 169:1 170:1 171:1 181:1 
-0 0 0 1 0 0 1 1 0 18:1 72:1 127:1 138:1 148:1 151:1 158:1 162:1 169:1 170:1 171:1 
-0 0 0.08529002076698246 0 0 0 0 0 0 55:1 72:1 124:1 138:1 151:1 158:1 159:1 169:1 170:1 171:1 
-0 0 0 1 0 0 0 0 0 55:1 72:1 124:1 138:1 148:1 150:1 157:1 159:1 169:1 170:1 171:1 218:1 
-0 0 0 1 0 0 0 0 0 55:1 124:1 148:1 152:1 159:1 169:1 170:1 172:1 175:1 
-1 0 0.5118556313891459 0 0 0 0 0 0 55:1 65:1 66:1 79:1 124:1 139:1 151:1 157:1 159:1 169:1 170:1 171:1 175:1 
-0 0 0 1 0 0 1 0 0 55:1 124:1 148:1 158:1 159:1 169:1 170:1 172:1 175:1 
-0 1 0 1 0 0 1 0 0 18:1 127:1 148:1 158:1 159:1 169:1 170:1 172:1 
-0 0 0 1 0 0 0 0 0 55:1 124:1 148:1 152:1 159:1 169:1 170:1 172:1 175:1 
-1 1 0 1 0 0 1 0.00273466026787017 0 57:1 124:1 148:1 157:1 160:1 169:1 170:1 172:1 
-0 1 0 1 1 0 1 0 0 58:1 125:1 148:1 158:1 160:1 167:1 170:1 172:1 175:1 
-0 0 0 1 0 0 0 0 0 55:1 124:1 148:1 152:1 159:1 169:1 170:1 172:1 175:1 
-0 1 0 1 0 0 1 0.6036393667126175 0 18:1 127:1 148:1 158:1 164:1 169:1 170:1 172:1 
-0 0 0 1 0 0 1 0.09182778047154973 0 56:1 124:1 148:1 155:1 164:1 169:1 170:1 172:1 
-0 0 0 1 0 0 1 0 0 55:1 124:1 148:1 158:1 159:1 169:1 170:1 172:1 175:1 
-0 0 0 1 0 0 1 0 0 55:1 124:1 148:1 157:1 159:1 169:1 170:1 172:1 175:1 
-0 0 0 1 0 0 0 0 0 55:1 124:1 148:1 152:1 159:1 169:1 170:1 172:1 175:1 
-0 0 0 1 0 0 0.7747550055132285 0 0 58:1 81:1 125:1 138:1 148:1 150:1 153:1 165:1 169:1 170:1 171:1 186:1 
-0 0 0 1 0 0 0 0 0 58:1 80:1 125:1 139:1 150:1 153:1 159:1 169:1 170:1 171:1 
-0 0 0 1 0 0 0 0 0 55:1 124:1 148:1 152:1 159:1 169:1 170:1 172:1 175:1 
-0 1 0 1 0 0 1 0 0 54:1 125:1 148:1 152:1 162:1 169:1 170:1 172:1 175:1 
-0 0 0 1 0 0 0 0 0 1:1 81:1 125:1 138:1 148:1 150:1 158:1 159:1 169:1 170:1 171:1 
-0 0 0 1 0 0 1 0 0 55:1 124:1 148:1 152:1 159:1 169:1 170:1 172:1 175:1 181:1 
-0 1 0 1 0 0 1 0 0 55:1 124:1 148:1 152:1 159:1 169:1 170:1 172:1 175:1 188:1 
-0 0 0 1 0 0 0 0 0 55:1 72:1 124:1 139:1 148:1 151:1 158:1 159:1 169:1 170:1 171:1 181:1 
-0 0 0 1 0 0 0 0 0 55:1 72:1 81:1 124:1 139:1 148:1 151:1 158:1 159:1 169:1 170:1 171:1 
-0 0 0 1 0 0 0 0 0 55:1 72:1 81:1 124:1 139:1 148:1 151:1 158:1 159:1 169:1 170:1 171:1 
-0 1 0 0 0 0 1 0 0 54:1 81:1 125:1 138:1 151:1 156:1 160:1 169:1 170:1 171:1 
-0 0 0 1 0 0 0 0 0 55:1 124:1 148:1 152:1 159:1 169:1 170:1 172:1 175:1 
-0 0 0 1 0 0 1 0 0 58:1 81:1 125:1 138:1 148:1 150:1 155:1 165:1 169:1 170:1 171:1 
-0 0 0 1 0 0 0 0 0 58:1 80:1 125:1 139:1 150:1 153:1 159:1 169:1 170:1 171:1 
-0 0 0 1 0.1316157601465066 0 1 0 0 58:1 125:1 148:1 152:1 160:1 167:1 170:1 172:1 181:1 
-0 1 0 1 0 0 1 0 0 55:1 125:1 148:1 152:1 159:1 169:1 170:1 172:1 175:1 
-0 0 0 1 0 0 1 0 0 55:1 124:1 148:1 152:1 159:1 169:1 170:1 172:1 
-0 1 0 1 0 0 1 0 0 54:1 125:1 148:1 152:1 160:1 169:1 172:1 175:1 
-0 0 0 1 0.2277825546171702 0 0 0 0 19:1 81:1 127:1 138:1 148:1 150:1 158:1 162:1 169:1 170:1 171:1 
-0 0 0 1 0 0 0 0 0 55:1 124:1 148:1 152:1 159:1 169:1 170:1 172:1 175:1 
-0 0 0 1 0 0 0 0 0 55:1 124:1 148:1 152:1 159:1 169:1 170:1 172:1 175:1 
-0 0 0 1 0 0 0 0 0 55:1 124:1 148:1 152:1 159:1 169:1 170:1 172:1 175:1 
-0 1 0 1 0 0 1 0 0 58:1 125:1 148:1 158:1 159:1 169:1 170:1 172:1 175:1 
-0 0 0 1 0 0 0 0 0 55:1 72:1 124:1 139:1 148:1 151:1 158:1 159:1 169:1 170:1 171:1 181:1 
-0.7296392075244991 0 0 0.8515604523360075 0 0 0 0 0 18:1 72:1 127:1 139:1 151:1 158:1 162:1 169:1 170:1 171:1 181:1 
-0 0 0 1 0 0 0 0 0 55:1 72:1 81:1 124:1 139:1 148:1 151:1 158:1 159:1 169:1 170:1 171:1 
-0 0 0 1 0 0 0 0 0 55:1 72:1 81:1 124:1 139:1 148:1 151:1 158:1 159:1 169:1 170:1 171:1 
-0 0.9319033748219091 0 1 0 0 1 0.1293902045094044 0 58:1 125:1 148:1 155:1 160:1 167:1 170:1 172:1 175:1 
-0 0 0 1 0 0 1 0 0 18:1 127:1 148:1 158:1 160:1 167:1 170:1 172:1 
-0 0 0 1 0 0 1 0 0 58:1 81:1 125:1 138:1 148:1 150:1 156:1 165:1 169:1 170:1 171:1 
-0 0 0 1 0 0 0 0 0 58:1 80:1 125:1 139:1 150:1 153:1 159:1 169:1 170:1 171:1 175:1 
-0 0 0 1 0 0 1 0 0 55:1 124:1 148:1 152:1 159:1 169:1 170:1 172:1 
-0 1 0 1 0 0 1 0 0 54:1 125:1 148:1 152:1 160:1 169:1 172:1 175:1 
-0.1541357728997085 0 0 0 0 0.1764257961047342 0 0.1028395742143146 0 58:1 72:1 81:1 124:1 138:1 139:1 150:1 153:1 165:1 169:1 170:1 171:1 175:1 
-0 0 0 0.8974085217390828 0 0 0 0 0 55:1 81:1 124:1 138:1 148:1 150:1 156:1 159:1 169:1 170:1 171:1 175:1 
-0 0 0 1 0 0 0 0 0 55:1 79:1 124:1 138:1 148:1 151:1 152:1 159:1 169:1 170:1 171:1 175:1 
-0 1 0 1 1 0 1 0 0 58:1 125:1 148:1 158:1 160:1 167:1 170:1 172:1 175:1 
-0 0 0 1 0 0 0 0 0 55:1 124:1 148:1 152:1 159:1 169:1 170:1 172:1 175:1 
-0 0 0 1 0 0 1 0 0 17:1 124:1 148:1 152:1 160:1 169:1 170:1 172:1 
-0 0 0 1 0 0 0 0 0 55:1 124:1 148:1 152:1 159:1 169:1 170:1 172:1 175:1 192:1 
-0 1 0 1 0 0 1 0 0 58:1 125:1 148:1 158:1 165:1 169:1 170:1 172:1 
-0 1 0 0 0 0 0 0 0 54:1 81:1 125:1 138:1 151:1 158:1 163:1 169:1 170:1 171:1 182:1 
-0 0 0 1 0 0 0 0 0 55:1 72:1 81:1 91:1 124:1 139:1 148:1 151:1 158:1 159:1 169:1 170:1 171:1 
-0.9169648768474415 1 0 1 0 0 1 0 0 57:1 124:1 148:1 158:1 160:1 169:1 170:1 172:1 175:1 199:1 
-0 0 0 1 0 0 0 0 0 55:1 124:1 148:1 152:1 159:1 169:1 170:1 172:1 175:1 
-0 0 0 1 0 0 0 0 0 55:1 124:1 148:1 152:1 159:1 169:1 170:1 172:1 175:1 
-0 0 0 1 0 0 1 0 0 17:1 124:1 148:1 155:1 160:1 169:1 170:1 172:1 
-0 0.6978707808552066 0 1 0 0 1 0 0 56:1 124:1 148:1 158:1 164:1 169:1 170:1 172:1 
-0 0 0 1 0 0 0 0 0 55:1 124:1 148:1 152:1 159:1 169:1 170:1 172:1 175:1 
-0 0 0 1 0 0 0 0 0 55:1 124:1 148:1 152:1 159:1 169:1 170:1 172:1 175:1 
-0.7536608195783103 0 0 0 0 0 1 0 0 58:1 62:1 72:1 80:1 125:1 139:1 151:1 157:1 160:1 167:1 170:1 173:1 
-0 0 0 0 0 0 1 0 0 58:1 62:1 72:1 80:1 125:1 139:1 150:1 158:1 160:1 167:1 170:1 173:1 
-0 0 0 1 0 0 0.8318756609568546 0 0 55:1 124:1 148:1 152:1 159:1 169:1 170:1 172:1 175:1 200:1 
-0 0 0 1 0 0 0 0 0 55:1 124:1 148:1 152:1 159:1 169:1 170:1 172:1 175:1 
-0 0 0 1 0 0 0 0 0 55:1 124:1 148:1 152:1 159:1 169:1 170:1 172:1 175:1 
-0 0 0 1 0 0 1 0 0 58:1 124:1 148:1 152:1 165:1 169:1 170:1 172:1 
-1 1 0 1 0 0 1 0 0 17:1 124:1 148:1 158:1 160:1 169:1 170:1 172:1 
-0.4225639605776414 0 0 0 0 0 0 0 0 56:1 62:1 79:1 124:1 139:1 150:1 158:1 164:1 169:1 170:1 171:1 
-0 0 0 1 0.5874294905411757 0 0 0 0 55:1 72:1 81:1 91:1 124:1 139:1 148:1 151:1 158:1 159:1 169:1 170:1 171:1 175:1 
-0 0 0 0 1 0 0 0 0 19:1 72:1 81:1 91:1 127:1 139:1 151:1 158:1 159:1 169:1 170:1 171:1 
-0 0 0 1 0 0 0 0 0 55:1 124:1 148:1 152:1 159:1 169:1 170:1 172:1 175:1 
-0 0 0 1 0 0 0 0 0 55:1 81:1 124:1 138:1 148:1 150:1 158:1 159:1 169:1 170:1 171:1 175:1 
-0 0 0 1 0 0 0 0 0 55:1 79:1 124:1 138:1 148:1 149:1 151:1 152:1 159:1 169:1 170:1 171:1 175:1 
-0 0 0 1 0 0 0 0 0 55:1 79:1 124:1 138:1 148:1 149:1 151:1 152:1 159:1 169:1 170:1 171:1 175:1 
-0 0.1984462901317883 0 0 0 0 1 0 0 56:1 79:1 125:1 138:1 148:1 149:1 151:1 158:1 162:1 169:1 170:1 171:1 
-0 1 0 0 0 0 1 0 0 56:1 79:1 125:1 138:1 148:1 149:1 151:1 158:1 164:1 169:1 170:1 171:1 
-0 0 0 0 0.008468796583495669 0 1 0 0 54:1 79:1 125:1 138:1 150:1 158:1 163:1 169:1 170:1 172:1 175:1 
-0 0 0 0.9799427915680876 0 0 0 0 0 55:1 79:1 124:1 138:1 150:1 152:1 159:1 169:1 170:1 171:1 175:1 
-0 0 0 0.0226688692604185 0 0 0 0 0 18:1 79:1 123:1 127:1 138:1 150:1 158:1 159:1 169:1 170:1 171:1 
-0 0 0 1 0 0 0 0 0 55:1 79:1 124:1 138:1 148:1 150:1 158:1 159:1 169:1 170:1 171:1 175:1 
-0 0 0 1 0 0 0 0 0 55:1 79:1 124:1 138:1 150:1 152:1 159:1 169:1 170:1 171:1 175:1 
-0 0 0 1 0 0 0 0 0 55:1 124:1 148:1 152:1 159:1 169:1 170:1 172:1 175:1 
-0 0 0 1 0 0 0 0 0 55:1 124:1 148:1 152:1 159:1 169:1 170:1 172:1 175:1 
-0 0 0 1 0 0 1 0 0 55:1 124:1 148:1 153:1 159:1 169:1 170:1 172:1 175:1 181:1 
-0 0 0 1 0 0 0 0 0 18:1 81:1 127:1 138:1 148:1 151:1 158:1 159:1 169:1 170:1 171:1 
-0 0 0 1 0 0 0 0 0 55:1 81:1 124:1 138:1 148:1 151:1 156:1 159:1 169:1 170:1 171:1 175:1 
-0 0 0 1 0 0 0 0 0 18:1 81:1 127:1 138:1 148:1 151:1 158:1 162:1 169:1 170:1 171:1 
-0 0 0 1 0 0 0 0 0 18:1 81:1 127:1 138:1 148:1 151:1 158:1 162:1 169:1 170:1 171:1 
-0 0 0 1 0 0 0 0 0 18:1 81:1 127:1 138:1 148:1 151:1 158:1 162:1 169:1 170:1 171:1 
-0 0 0 1 0 0 0 0 0 55:1 124:1 148:1 152:1 159:1 169:1 170:1 172:1 175:1 
-0 0 0 1 0 0 1 0 0 57:1 124:1 148:1 152:1 160:1 169:1 170:1 172:1 
-0 0 0 0 0 0.06608515436443334 0 0 0 56:1 66:1 71:1 79:1 124:1 138:1 139:1 148:1 151:1 152:1 164:1 169:1 170:1 171:1 
-0.1581740823948666 0 0 0 1 0 0 0 0 18:1 72:1 81:1 91:1 127:1 138:1 139:1 151:1 157:1 162:1 169:1 170:1 171:1 
-0 1 0 1 0 0 0 0 0 58:1 81:1 125:1 138:1 148:1 151:1 158:1 159:1 169:1 170:1 171:1 
-0 0 0.9531562678021276 1 0 0 0 0 0 18:1 81:1 127:1 138:1 148:1 150:1 158:1 159:1 169:1 170:1 171:1 
-0 0 0 0 0 0 1 0 0 1:1 119:1 128:1 142:1 151:1 157:1 160:1 169:1 171:1 
-0 1 0 1 0 0 1 0 0 18:1 127:1 148:1 158:1 162:1 169:1 170:1 172:1 
-0 0 0 1 0 0 0 0 0 55:1 124:1 148:1 152:1 159:1 169:1 170:1 172:1 175:1 
-1 0 0 1 0.2189461406083456 0 1 1 0 17:1 124:1 148:1 157:1 160:1 169:1 170:1 172:1 
-0 1 0 1 0 0 1 0 0 58:1 125:1 148:1 158:1 159:1 169:1 170:1 172:1 
-0 0.8933062036225559 0 1 0 0.01907661890387778 1 0 0 18:1 126:1 148:1 153:1 159:1 169:1 170:1 172:1 
-0 1 0 1 0 0 1 0 0 18:1 127:1 148:1 158:1 159:1 169:1 170:1 172:1 
-0 1 0 1 0 0 1 0 0 55:1 124:1 148:1 158:1 159:1 169:1 170:1 172:1 
-0 0 0 1 0 0 1 0 0 28:1 132:1 148:1 157:1 162:1 169:1 170:1 172:1 
-0 0 0 1 0 0 0 0 0 18:1 72:1 127:1 139:1 151:1 158:1 162:1 169:1 170:1 171:1 
-0 0 0 1 0 0 0 0 0 58:1 72:1 124:1 139:1 150:1 158:1 159:1 169:1 170:1 171:1 
-0 0 0.6083470903258392 0 0 0.2896037433640157 0 0 0 55:1 62:1 79:1 124:1 138:1 139:1 150:1 152:1 159:1 169:1 170:1 173:1 175:1 
-0.5473077732207137 0 0.9027247649632303 0 0 0 0 0 0 55:1 65:1 79:1 124:1 138:1 139:1 150:1 158:1 159:1 169:1 170:1 173:1 
-0 0 0 1 0 0 0 0 0 55:1 81:1 124:1 138:1 148:1 149:1 151:1 158:1 159:1 169:1 170:1 171:1 175:1 186:1 
-0 0 0 1 0 0 0 0 0 55:1 81:1 124:1 138:1 148:1 149:1 151:1 155:1 159:1 169:1 170:1 171:1 175:1 
-0.6190599073306272 0 0.08843317997089059 1 0 0 1 0 0 18:1 62:1 127:1 151:1 158:1 162:1 169:1 170:1 173:1 180:1 
-0 0 0 1 0 0 0 0 0 55:1 81:1 124:1 138:1 148:1 151:1 158:1 159:1 169:1 170:1 171:1 175:1 184:1 218:1 
-0 0 0 1 0 0 0 0 0 18:1 81:1 127:1 138:1 148:1 149:1 151:1 158:1 159:1 169:1 170:1 171:1 
-0 0 0.09044010465314639 0 0 0 0 0 0 18:1 72:1 80:1 127:1 139:1 151:1 158:1 162:1 169:1 170:1 173:1 186:1 
-0.2945631266892244 0 0.6151859817160505 1 0 0 0 0 0 18:1 62:1 127:1 139:1 151:1 158:1 162:1 169:1 170:1 173:1 186:1 
-0 0 0 0 0 0 1 0 0 17:1 66:1 124:1 142:1 148:1 149:1 151:1 156:1 160:1 169:1 170:1 171:1 
-0 0 0 1 0 0 0 0 0 55:1 66:1 124:1 142:1 148:1 149:1 151:1 158:1 159:1 169:1 170:1 171:1 175:1 
-0 0 0 1 0 0 0 0 0.1879552683105458 55:1 66:1 124:1 142:1 148:1 149:1 151:1 158:1 159:1 169:1 170:1 171:1 175:1 
-0 1 0 0 0 0 0 0 0 54:1 66:1 125:1 142:1 151:1 158:1 161:1 169:1 170:1 171:1 
-0 0 0 1 0 0 0 0 0 55:1 81:1 124:1 138:1 148:1 149:1 150:1 155:1 159:1 169:1 170:1 171:1 175:1 
-0 0 0 0 0 0 1 0 0 17:1 66:1 124:1 142:1 148:1 149:1 151:1 156:1 160:1 169:1 170:1 171:1 
-0 1 0 0 0 0 0 0 0 54:1 66:1 125:1 142:1 151:1 158:1 161:1 169:1 170:1 171:1 
-0 0 0 0 0 0 1 0 0 17:1 72:1 80:1 127:1 138:1 139:1 148:1 151:1 155:1 162:1 169:1 170:1 173:1 
-0 0 0 0 0 0.3197240525153712 0 0 0 18:1 72:1 80:1 127:1 138:1 139:1 148:1 151:1 158:1 162:1 169:1 170:1 173:1 
-0 0 0 1 0 0 1 0 0 58:1 66:1 125:1 143:1 148:1 150:1 158:1 160:1 167:1 170:1 174:1 175:1 
-0 0 0 1 0 0 1 0 0 19:1 66:1 127:1 143:1 150:1 158:1 160:1 167:1 170:1 174:1 
-0 0 0 1 0 0 0 0 0 55:1 81:1 124:1 138:1 148:1 150:1 158:1 159:1 169:1 170:1 171:1 175:1 
-0 1 0 1 0 0 0 0 0 58:1 81:1 125:1 138:1 148:1 151:1 158:1 159:1 169:1 170:1 171:1 
-0 0 0 1 0 0 0 0 0 55:1 81:1 124:1 138:1 148:1 151:1 158:1 159:1 169:1 170:1 171:1 175:1 
-0.9112933960090401 0 0 0 0 0 0 0 0 58:1 62:1 66:1 79:1 125:1 138:1 139:1 150:1 156:1 160:1 169:1 170:1 173:1 
-0 0 0 1 0 0 0 1 0.2227129100390286 55:1 66:1 124:1 138:1 148:1 149:1 150:1 152:1 159:1 169:1 170:1 171:1 175:1 215:1 
-0 0 0 1 0 0 0 0 0 55:1 81:1 124:1 139:1 148:1 149:1 150:1 152:1 159:1 169:1 170:1 171:1 175:1 
-0 0 0 0 0 0 1 0 0 56:1 81:1 125:1 139:1 148:1 149:1 150:1 158:1 160:1 166:1 170:1 171:1 
-0 0 0 1 0 0 0 0 0 55:1 81:1 124:1 139:1 148:1 149:1 150:1 158:1 159:1 169:1 170:1 171:1 
-0 0 0 1 0 0 0 0 0 55:1 81:1 124:1 139:1 148:1 149:1 150:1 152:1 159:1 169:1 170:1 171:1 175:1 
-0 0 0 1 0 0 0 0 0 18:1 72:1 127:1 139:1 151:1 158:1 159:1 169:1 170:1 171:1 
-0 0 0 1 0 0 0 0 0 55:1 72:1 124:1 139:1 148:1 151:1 158:1 159:1 169:1 170:1 171:1 175:1 
-0 0 0 1 0 0 0 0 0 58:1 72:1 124:1 139:1 151:1 158:1 165:1 169:1 170:1 171:1 
-0 0 0 1 0 0 0 0 0 18:1 81:1 127:1 138:1 148:1 149:1 151:1 158:1 159:1 169:1 170:1 171:1 
-0 1 0 0 1 0 1 0.07328564394168204 0 54:1 72:1 81:1 124:1 139:1 148:1 149:1 150:1 158:1 160:1 169:1 170:1 171:1 216:1 
-0 0.3043172489789601 0 1 0 0 1 0 0 58:1 81:1 124:1 138:1 148:1 151:1 158:1 165:1 169:1 170:1 171:1 
-0 0 0 0 0 0 1 0.3413670246178493 0 56:1 81:1 125:1 138:1 148:1 149:1 151:1 158:1 160:1 166:1 170:1 171:1 175:1 
-0 0.919713093592239 0 0 0 0 0 0 0 54:1 72:1 81:1 125:1 138:1 139:1 151:1 158:1 163:1 169:1 170:1 171:1 
-1 0 0.252658364718834 1 0 0 1 0 0 18:1 62:1 127:1 151:1 158:1 164:1 169:1 170:1 173:1 
-1 0 0.2723746542358919 0 0 0 0 0 0 54:1 72:1 79:1 125:1 138:1 139:1 150:1 158:1 160:1 169:1 170:1 173:1 175:1 
-0 0 0 0 0 0 0 0.2391641211823446 0 58:1 72:1 81:1 125:1 138:1 139:1 148:1 150:1 158:1 165:1 169:1 170:1 171:1 175:1 
-0 0 0 0 0 0 0 1 0 18:1 66:1 72:1 80:1 127:1 138:1 139:1 148:1 150:1 158:1 162:1 169:1 170:1 171:1 196:1 
-0 0 0 1 0 0 0 0 0 18:1 81:1 127:1 138:1 148:1 150:1 158:1 162:1 169:1 170:1 171:1 
-0 0 0 1 0 0 0 0 0 55:1 81:1 124:1 138:1 148:1 149:1 150:1 158:1 159:1 169:1 170:1 171:1 183:1 
-0 0 0 1 0 0 0 0 0 55:1 81:1 124:1 138:1 148:1 149:1 150:1 152:1 159:1 169:1 170:1 171:1 175:1 
-0 0 0 0 0 0 1 0 0 17:1 66:1 124:1 142:1 148:1 149:1 151:1 156:1 160:1 169:1 170:1 171:1 
-0 1 0 0 0 0 0 0 0 54:1 66:1 125:1 142:1 151:1 158:1 161:1 169:1 170:1 171:1 
-0.04523156550904336 0 0 0 0 0 1 0 0 17:1 72:1 80:1 127:1 138:1 139:1 148:1 151:1 155:1 162:1 169:1 170:1 173:1 
-0 0 0 0 0 0.3498449693847662 0 0 0 18:1 72:1 80:1 127:1 138:1 139:1 148:1 151:1 158:1 162:1 169:1 170:1 173:1 
-0 0 0 1 0 0 1 0 0 58:1 66:1 125:1 143:1 148:1 150:1 158:1 160:1 167:1 170:1 174:1 175:1 
-0 0 0 1 0 0 1 0 0.119712982205463 19:1 66:1 127:1 143:1 150:1 158:1 160:1 167:1 170:1 174:1 
-0 0 0 1 0 0 0 0 0 55:1 81:1 124:1 138:1 148:1 150:1 158:1 159:1 169:1 170:1 171:1 175:1 
-0 0 0 1 0 0 0 0 0 55:1 124:1 148:1 152:1 159:1 169:1 170:1 172:1 175:1 192:1 
-0 0 0 1 0 0 1 0 0 17:1 124:1 148:1 152:1 160:1 169:1 170:1 172:1 
-1 0 0.02638928893412492 0 0 0 1 0.506048983917021 0 58:1 62:1 72:1 80:1 125:1 139:1 151:1 157:1 160:1 167:1 170:1 173:1 
-1 0 0 0 0 0 1 0.3741742286275421 0 58:1 62:1 72:1 80:1 125:1 139:1 150:1 157:1 160:1 167:1 170:1 173:1 
-0 0 0 1 0 0 0 0 0 55:1 124:1 148:1 152:1 159:1 169:1 170:1 172:1 175:1 
-1 0 0 1 0 0 1 0 0 17:1 124:1 148:1 155:1 160:1 169:1 170:1 172:1 
-0 0 0 1 0 0 0 0 0 18:1 72:1 127:1 139:1 148:1 151:1 158:1 159:1 169:1 170:1 171:1 
-0 1 0 1 0 0 0 0 0 58:1 72:1 125:1 139:1 148:1 151:1 158:1 159:1 169:1 170:1 171:1 
-0 0 0 1 0 0 0 0 0 18:1 72:1 127:1 139:1 151:1 158:1 162:1 169:1 170:1 171:1 
-0.4576562847322627 0 0 0 0 0 0 0 0 55:1 81:1 124:1 138:1 151:1 158:1 159:1 169:1 170:1 171:1 175:1 
-0 0 0 1 0 0 0 0 0 18:1 81:1 127:1 138:1 148:1 149:1 151:1 158:1 162:1 169:1 170:1 171:1 
-1 0 0.1023025252717786 0 0 0 0 0.2157570427037767 0 58:1 62:1 65:1 72:1 80:1 125:1 138:1 139:1 151:1 158:1 160:1 167:1 170:1 173:1 175:1 217:1 
-0 0 0.06189264168074107 0 0 0 0 0 0 56:1 72:1 81:1 124:1 138:1 139:1 151:1 158:1 164:1 169:1 171:1 
-0 0 0 0 0 0 1 0 0 56:1 65:1 79:1 125:1 138:1 139:1 148:1 150:1 158:1 160:1 168:1 170:1 174:1 175:1 
-0 0 0 1 0 0 0 0 0 58:1 66:1 124:1 143:1 150:1 158:1 165:1 169:1 170:1 174:1 
-1 0 0 0 0 0 0 0 0 58:1 72:1 81:1 129:1 138:1 139:1 148:1 149:1 150:1 158:1 162:1 169:1 170:1 171:1 
-0 0 0 0 0 0 0 0.5032878742061691 0 58:1 72:1 81:1 125:1 138:1 139:1 150:1 158:1 159:1 167:1 170:1 171:1 175:1 218:1 
-0 0 0 1 0 0 0 0 0 18:1 81:1 127:1 138:1 148:1 149:1 151:1 158:1 162:1 169:1 170:1 171:1 
-0 0 0 0 1 0 0 0 0 55:1 72:1 81:1 124:1 138:1 139:1 148:1 150:1 152:1 159:1 169:1 170:1 171:1 175:1 
-0.1499462025530268 0 0 0 0 0 0 0 0 55:1 62:1 124:1 138:1 151:1 158:1 159:1 169:1 170:1 174:1 175:1 
-0.4523070511568185 0 0 0 0 0 0 0 0 56:1 65:1 79:1 124:1 138:1 139:1 151:1 158:1 164:1 169:1 170:1 171:1 
-0 0 0 1 1 0 0 0.04032475331915208 0 58:1 72:1 125:1 138:1 148:1 150:1 158:1 159:1 169:1 170:1 171:1 216:1 
-0 0 0 1 0 0 0 1 0 58:1 72:1 125:1 138:1 148:1 150:1 158:1 159:1 169:1 170:1 171:1 215:1 
-0 0 0 0 0 0 0.9200884904456578 0 0 57:1 81:1 124:1 138:1 148:1 149:1 151:1 158:1 160:1 169:1 170:1 171:1 175:1 
-0 0 0 1 0 0 0 0 0 55:1 66:1 124:1 142:1 148:1 150:1 152:1 159:1 169:1 170:1 171:1 175:1 
-0 0 0 0 0 0.0610549218428643 0 0 0 58:1 62:1 81:1 125:1 138:1 139:1 148:1 150:1 158:1 159:1 169:1 170:1 171:1 175:1 186:1 
-0 0 0 1 0 0 0 0 0 55:1 81:1 124:1 138:1 148:1 149:1 151:1 158:1 159:1 169:1 170:1 171:1 186:1 
-0 0 0 1 0 0 0 0 0 55:1 81:1 124:1 138:1 148:1 149:1 151:1 158:1 159:1 169:1 170:1 171:1 175:1 186:1 
-0.04052795409757139 0 0 0 0 0 0 0 0 1:1 81:1 127:1 138:1 151:1 158:1 162:1 169:1 170:1 171:1 
-0 0 0 1 0 0 0 0 0 55:1 81:1 124:1 139:1 148:1 149:1 151:1 152:1 159:1 169:1 170:1 171:1 175:1 
-0 0 0 1 0 0 0 0 0 55:1 65:1 79:1 124:1 139:1 148:1 150:1 155:1 159:1 169:1 170:1 171:1 175:1 
-0 0 0 1 0 0.00939115400062778 0 0 0 58:1 81:1 124:1 138:1 148:1 149:1 150:1 158:1 162:1 169:1 170:1 171:1 175:1 
-0.8428158169708058 0 0 0 0 0 0 0 0 18:1 62:1 79:1 127:1 138:1 139:1 150:1 158:1 160:1 166:1 170:1 171:1 
-0.5947107834931589 0 0 0 0 0 1 0 0 56:1 81:1 124:1 138:1 148:1 149:1 151:1 156:1 160:1 166:1 170:1 171:1 175:1 
-0 0 0 0 0 0 1 0 0 56:1 81:1 125:1 138:1 148:1 149:1 150:1 158:1 160:1 166:1 170:1 171:1 175:1 
-0 0 0 0 0 0 1 0 0 56:1 81:1 125:1 138:1 148:1 149:1 151:1 158:1 160:1 166:1 170:1 171:1 
-0 0 0 1 0 0 0 0 0 55:1 81:1 124:1 138:1 148:1 149:1 150:1 152:1 159:1 169:1 170:1 171:1 175:1 
-0 0 0 1 0 0 0 0 0 55:1 81:1 124:1 138:1 148:1 149:1 150:1 152:1 159:1 169:1 170:1 171:1 175:1 
-0 0 0 0 0 0 1 0 0 57:1 81:1 124:1 138:1 148:1 149:1 150:1 156:1 160:1 169:1 170:1 171:1 
-0 0 0 1 0 0 0 0 0 58:1 81:1 124:1 138:1 148:1 149:1 150:1 158:1 165:1 169:1 170:1 171:1 
-0 0 0 1 0 0 0 0 0 55:1 65:1 79:1 124:1 139:1 150:1 152:1 159:1 169:1 170:1 171:1 175:1 181:1 
-0 1 0 0 0 0 1 0 0 58:1 81:1 125:1 138:1 148:1 149:1 151:1 158:1 160:1 169:1 170:1 171:1 
-0 0 0 0 0 0 1 0 0 58:1 62:1 125:1 139:1 150:1 158:1 160:1 169:1 170:1 174:1 
-0 0 0 0.01783151327160908 0 0 0 0 0 55:1 81:1 124:1 138:1 148:1 149:1 151:1 152:1 159:1 169:1 170:1 171:1 175:1 
-0 0 0 1 0 0 0 0 0 55:1 81:1 124:1 138:1 148:1 150:1 152:1 159:1 169:1 170:1 171:1 175:1 
-0 0 0 1 0.4388704657994223 0 0 0 0 58:1 65:1 79:1 125:1 139:1 150:1 158:1 159:1 167:1 170:1 171:1 175:1 
-0 0 0 0 0 0 1 0 0 58:1 62:1 125:1 139:1 150:1 158:1 160:1 169:1 170:1 171:1 
-0 0 0 0 0 0 0.8532057172254548 0 0 57:1 81:1 124:1 138:1 148:1 149:1 151:1 158:1 160:1 169:1 170:1 171:1 175:1 
-0 0 0 1 0 0 0 0 0 58:1 66:1 124:1 139:1 150:1 158:1 165:1 169:1 170:1 171:1 
-0 1 0 1 0 0 0 0 0 58:1 81:1 124:1 138:1 148:1 149:1 151:1 158:1 165:1 169:1 170:1 171:1 
-0 0 0 0 0.7905199049912336 0 0 0 0 18:1 66:1 81:1 127:1 138:1 139:1 150:1 158:1 162:1 169:1 170:1 171:1 182:1 
-0 0 0 0 0.7260036445514794 0 0 0 0 55:1 66:1 81:1 124:1 138:1 139:1 148:1 150:1 158:1 159:1 169:1 170:1 171:1 175:1 182:1 
-0 0 0 0 0.2940347864538119 0 0 0 0 56:1 72:1 81:1 91:1 124:1 138:1 139:1 148:1 150:1 152:1 164:1 169:1 170:1 171:1 218:1 
-0.6394768320034057 0 0.2089979473837395 1 0 0 0 0 0 55:1 80:1 124:1 139:1 148:1 151:1 158:1 159:1 169:1 170:1 173:1 175:1 
-0.4958104970817635 0 0.4541549667888929 1 0 0 0 0 0 55:1 80:1 124:1 139:1 151:1 158:1 159:1 169:1 170:1 173:1 
-0.9473089185319536 0 0 0 0 0.4953085723320089 0 0 0 18:1 63:1 66:1 72:1 80:1 89:1 127:1 138:1 139:1 142:1 143:1 148:1 149:1 151:1 158:1 159:1 169:1 170:1 173:1 
-1 0 0.1540278276865119 0 0 0.283516275128364 0 0 0 55:1 63:1 66:1 72:1 80:1 89:1 124:1 138:1 139:1 142:1 143:1 150:1 154:1 159:1 169:1 170:1 173:1 
-0 0 0 1 0 0 0 0 0 58:1 81:1 124:1 138:1 148:1 150:1 158:1 165:1 169:1 170:1 171:1 
-0.5046415000785521 0 0 0 0 0 0 0 0 54:1 65:1 79:1 125:1 138:1 139:1 150:1 158:1 160:1 169:1 170:1 173:1 
-0 0 0 1 0 0 0 0 0 18:1 79:1 123:1 127:1 138:1 148:1 149:1 151:1 158:1 162:1 169:1 170:1 171:1 
-0 0 0 0.03560373699167604 0 0 0 0 0 55:1 81:1 124:1 138:1 148:1 149:1 151:1 158:1 159:1 169:1 170:1 171:1 175:1 
-1 1 0 0 0 0 0.1857790951109889 0 0 54:1 79:1 124:1 138:1 151:1 158:1 160:1 169:1 170:1 171:1 
-0 1 0 0 1 0 0 0 0 54:1 81:1 125:1 138:1 150:1 158:1 163:1 169:1 170:1 171:1 207:1 
-0 0 0 1 0 0 0 0 0 55:1 79:1 124:1 138:1 148:1 149:1 151:1 152:1 159:1 169:1 170:1 171:1 175:1 
-0 0 0 1 0 0 0 0 0 58:1 79:1 124:1 138:1 148:1 150:1 158:1 165:1 169:1 170:1 171:1 175:1 
-0 0 0 1 0 0 0 0 0 55:1 79:1 124:1 138:1 148:1 150:1 152:1 159:1 169:1 170:1 171:1 175:1 
-0 1 0 1 0 0 1 0 0 54:1 79:1 125:1 138:1 148:1 150:1 158:1 163:1 169:1 170:1 171:1 
-0.1080673514673134 0 0 0 0 0 0 0.1323117435179611 0 58:1 62:1 65:1 72:1 80:1 125:1 138:1 139:1 150:1 158:1 160:1 167:1 170:1 173:1 
-0 0 0 1 0 0 0 0 0 55:1 65:1 79:1 124:1 139:1 150:1 152:1 159:1 169:1 170:1 171:1 175:1 
-0 0 0 1 0 0 0 0 0 55:1 81:1 124:1 138:1 148:1 150:1 158:1 162:1 169:1 170:1 171:1 218:1 
-0 0 0 0 0 0 1 0 0 54:1 65:1 72:1 79:1 89:1 125:1 138:1 139:1 144:1 148:1 149:1 151:1 153:1 163:1 169:1 170:1 172:1 
-0.3061061933440886 1 0.387313702346291 0 0 0 1 0.1548803714041573 0 54:1 65:1 72:1 79:1 89:1 125:1 138:1 139:1 144:1 150:1 158:1 161:1 169:1 170:1 172:1 
-0 0 0 1 0 0 0 0 0 55:1 81:1 124:1 139:1 148:1 149:1 151:1 152:1 159:1 169:1 170:1 171:1 175:1 
-0 0 0 1 0 0 0 0 0 55:1 79:1 124:1 138:1 148:1 149:1 151:1 152:1 159:1 169:1 170:1 171:1 175:1 
-0 1 0 0 0 0 1 0 0 54:1 79:1 125:1 138:1 150:1 158:1 160:1 169:1 170:1 171:1 
-0 0 0 1 0 0 0 0 0 55:1 79:1 124:1 138:1 148:1 150:1 158:1 159:1 169:1 170:1 171:1 175:1 
-0 0 0 1 0 0 0.1729733669591381 0 0 18:1 81:1 127:1 138:1 148:1 151:1 158:1 162:1 169:1 170:1 171:1 
-0 1 0 1 0 0 1 0 0 18:1 81:1 125:1 138:1 148:1 151:1 158:1 164:1 169:1 170:1 171:1 
-0 0 0 0 0 0 1 0 0 58:1 72:1 80:1 125:1 139:1 150:1 158:1 160:1 167:1 170:1 173:1 
-0 0 0 1 0 0 0.4005245437873997 0 0 56:1 79:1 127:1 138:1 148:1 149:1 151:1 158:1 162:1 169:1 170:1 171:1 
-1 0 0 0 0 0 1 0 0 1:1 66:1 129:1 143:1 151:1 157:1 160:1 169:1 170:1 171:1 
-0 0 0 1 0 0 1 0 0 58:1 124:1 148:1 156:1 165:1 169:1 171:1 
-0 0 0 1 0 0 0 0 0 55:1 81:1 124:1 138:1 148:1 150:1 155:1 159:1 169:1 170:1 171:1 175:1 200:1 218:1 
-0.0811125585383338 0 0 0 0 0 0 0 0 17:1 79:1 124:1 138:1 150:1 158:1 160:1 169:1 170:1 171:1 
-0.4575636123679405 0 0 0 0 0 0 0 0 54:1 62:1 65:1 125:1 138:1 139:1 150:1 154:1 163:1 169:1 170:1 171:1 
-0 0 0 1 0 0 0 0 0 57:1 124:1 148:1 152:1 160:1 169:1 170:1 171:1 175:1 
-0 0 0 1 0 0 1 0 0 17:1 124:1 148:1 152:1 160:1 169:1 170:1 171:1 
-0 1 0 1 0 0 1 0 0 58:1 125:1 148:1 156:1 160:1 169:1 171:1 175:1 
-0 0 0 1 0 0 0 0 0 55:1 79:1 124:1 138:1 148:1 150:1 154:1 159:1 169:1 170:1 171:1 175:1 
-0.06813426706236672 0 0 0 0 0 1 0 0 54:1 65:1 66:1 79:1 125:1 138:1 139:1 150:1 158:1 163:1 169:1 170:1 172:1 175:1 
-0 0 0 1 0 0 1 0 0 17:1 124:1 148:1 156:1 160:1 169:1 170:1 171:1 
-0.06954848856211586 0 0 -0 0 0 1 0 0 58:1 65:1 66:1 79:1 125:1 138:1 139:1 148:1 150:1 156:1 160:1 167:1 170:1 172:1 175:1 
-0.3281412386544194 0 0 0 0 0 1 0 0 17:1 65:1 66:1 79:1 124:1 138:1 139:1 148:1 149:1 151:1 155:1 160:1 169:1 170:1 172:1 
-0.6557666734968439 0 0.01653498439974617 0 0.248513264125049 0.05683178046493396 0 0 0 55:1 65:1 72:1 79:1 88:1 124:1 138:1 139:1 144:1 150:1 153:1 159:1 169:1 170:1 171:1 194:1 
-1 0 0.1549207016843228 0 0 0 0 0 0 55:1 62:1 65:1 72:1 80:1 124:1 138:1 139:1 150:1 158:1 159:1 169:1 170:1 173:1 175:1 
-0 0 0 1 0 0 0.5375682475182422 0 0 56:1 127:1 148:1 152:1 162:1 169:1 170:1 171:1 
-1 0 0 0 0 0 0 0 0 18:1 62:1 72:1 127:1 139:1 151:1 158:1 162:1 169:1 170:1 171:1 
-0 0 0 1 0 0 1 0 0 17:1 124:1 148:1 152:1 160:1 169:1 170:1 171:1 
-0.9574161629221041 0 0 0 0 0 1 0 0 56:1 66:1 125:1 142:1 151:1 155:1 160:1 166:1 170:1 171:1 175:1 
-1 0 0 0 0 0 1 0 0 17:1 62:1 79:1 124:1 139:1 148:1 151:1 158:1 160:1 169:1 170:1 171:1 
-0 1 0 1 0 0 1 0 0 57:1 125:1 148:1 156:1 160:1 169:1 170:1 171:1 
-0 0.6366928258130307 0 1 0 0 1 0 0 57:1 124:1 148:1 155:1 160:1 169:1 170:1 171:1 175:1 
-0 0 0 0.08415438397890729 0 0 0 0 0 55:1 79:1 124:1 138:1 150:1 158:1 159:1 169:1 170:1 171:1 175:1 
-0 0 1 0 0 0 0 0 0 55:1 79:1 124:1 138:1 151:1 154:1 159:1 169:1 170:1 171:1 
-0 0 0.4547498011774624 0 0 0 0 0 0 55:1 79:1 124:1 138:1 151:1 154:1 159:1 169:1 170:1 171:1 175:1 
-0 0 0 1 0 0 1 0 0 57:1 124:1 148:1 156:1 160:1 169:1 170:1 171:1 
-0 1 0 1 0 0 1 0 0 18:1 127:1 148:1 158:1 163:1 169:1 170:1 171:1 
-0 0 0 1 0 0 1 0 0 17:1 124:1 148:1 156:1 160:1 169:1 170:1 171:1 
-1 1 0 1 0 0 1 0 0 56:1 125:1 148:1 158:1 160:1 166:1 170:1 171:1 
-0 0 0 0 0 0.3235565700028254 0 0 0 18:1 79:1 123:1 124:1 138:1 148:1 149:1 151:1 154:1 164:1 169:1 170:1 171:1 
-0 0 0 1 0 0 1 0 0 17:1 124:1 148:1 156:1 160:1 169:1 170:1 171:1 
-0 0 0 1 0 0 0 0 0 55:1 124:1 148:1 152:1 159:1 169:1 170:1 171:1 175:1 
-0 0 0 1 0 0 0 0 0 55:1 79:1 124:1 138:1 150:1 152:1 159:1 169:1 170:1 171:1 175:1 
-0.5927705601545862 1 0 1 0 0 1 0 0 58:1 124:1 148:1 158:1 165:1 169:1 170:1 171:1 
-1 0.04116737251259741 0 1 0 0 1 0 0 17:1 124:1 148:1 154:1 160:1 169:1 170:1 171:1 
-0.7702615676417659 0 0 0 0 0 0 0 0 54:1 62:1 65:1 80:1 125:1 138:1 139:1 150:1 158:1 163:1 169:1 173:1 
-1 1 0 1 0 0 1 0 0 1:1 128:1 148:1 157:1 160:1 169:1 171:1 
-0 1 0 1 0 0 1 0 0 5:1 130:1 148:1 157:1 162:1 169:1 170:1 171:1 
-0 1 0 1 0 0 1 0 0 5:1 130:1 148:1 157:1 162:1 169:1 170:1 171:1 
-1 0 0 1 0 0 1 0 0 56:1 125:1 148:1 158:1 160:1 166:1 170:1 171:1 175:1 182:1 
-0 0 0 0 0 0 1 0 0 56:1 79:1 125:1 139:1 150:1 158:1 160:1 166:1 170:1 171:1 175:1 182:1 
-0 1 0 1 0 0 1 0.6212754448465702 0 54:1 125:1 148:1 157:1 162:1 169:1 170:1 171:1 175:1 181:1 
-0 0 0 1 0 0 1 1 0 56:1 72:1 124:1 138:1 148:1 150:1 158:1 164:1 169:1 170:1 171:1 
-0 0 0 1 0 0 0 0 0 55:1 81:1 124:1 138:1 148:1 150:1 158:1 159:1 169:1 170:1 171:1 
-1 0 0.005192323334211201 0 0 0 0 0 0 56:1 62:1 65:1 72:1 80:1 125:1 138:1 139:1 148:1 150:1 158:1 160:1 168:1 170:1 173:1 175:1 
-0.08618411454938868 0 0.1275300275904079 0 0 0 0 0 0 55:1 81:1 124:1 138:1 151:1 154:1 159:1 169:1 170:1 171:1 175:1 
-0.4061313225894003 0 0 1 0 0 1 0 0 17:1 124:1 148:1 156:1 160:1 169:1 170:1 172:1 
-0 0 0 1 0 0 1 0 0 55:1 124:1 148:1 156:1 159:1 169:1 170:1 172:1 207:1 
-0 1 0 1 0 0 1 0 0 58:1 125:1 148:1 156:1 160:1 169:1 170:1 172:1 
-0 0 0 0 0 0 1 0 0 1:1 81:1 124:1 138:1 148:1 149:1 151:1 156:1 162:1 169:1 170:1 171:1 
-0.08794589693122826 1 0 0 0 0 1 0 0 1:1 81:1 125:1 138:1 148:1 149:1 151:1 156:1 160:1 169:1 170:1 171:1 
-0 0 0 0 0 0 1 0 0 57:1 81:1 124:1 138:1 151:1 155:1 160:1 169:1 170:1 171:1 
-0 1 0 0 0 0 0 0 0 54:1 81:1 125:1 138:1 148:1 149:1 151:1 155:1 162:1 169:1 170:1 171:1 175:1 
-0.3560760020245354 0 0.7245564768889834 0 0 0 0 0 0 58:1 62:1 65:1 80:1 124:1 138:1 139:1 148:1 151:1 155:1 165:1 169:1 170:1 173:1 
-0 0 0 0 0.4999418200238263 0 0 0 0 55:1 66:1 72:1 124:1 138:1 139:1 144:1 150:1 158:1 159:1 169:1 170:1 172:1 
-0 0 0.2399853218055032 0 0 0 1 0 0 56:1 79:1 81:1 125:1 138:1 139:1 148:1 150:1 158:1 159:1 166:1 170:1 172:1 
-0 0 0 0 0 0 1 0 0 58:1 79:1 81:1 125:1 138:1 139:1 150:1 158:1 159:1 169:1 170:1 172:1 
-1 0 0 0 0 0 0 0 0 58:1 62:1 65:1 66:1 80:1 125:1 138:1 139:1 150:1 158:1 159:1 169:1 170:1 171:1 
-1 0 0 0 0 0 0 0 0 19:1 62:1 65:1 72:1 80:1 127:1 138:1 139:1 150:1 158:1 162:1 169:1 170:1 173:1 
-0 0 0 1 0 0 0 0 0 55:1 81:1 124:1 138:1 148:1 150:1 154:1 159:1 169:1 170:1 171:1 
-0 0 0 1 0 0 1 0 0 56:1 124:1 148:1 154:1 164:1 169:1 170:1 172:1 
-0 1 0 1 0 0 1 0 0 19:1 127:1 148:1 158:1 162:1 169:1 170:1 172:1 
-0 0 0.1023394460563162 0 0 0 0 0.4972465728585845 0 55:1 66:1 72:1 80:1 124:1 138:1 139:1 150:1 158:1 159:1 169:1 170:1 171:1 
-0 0 0 0 0 0 0 0.5122211641930636 0 18:1 66:1 72:1 80:1 127:1 138:1 139:1 148:1 151:1 158:1 164:1 169:1 170:1 171:1 
-0 1 0 0 0 0 0 0 0 54:1 65:1 79:1 125:1 138:1 139:1 148:1 149:1 151:1 155:1 163:1 169:1 170:1 171:1 175:1 
-1 0 0 0 0 0 1 0 0 56:1 72:1 80:1 125:1 138:1 139:1 150:1 158:1 160:1 168:1 170:1 173:1 217:1 
-0.04332011161213703 0 0 0 0 0 0 0 0.1339333780089068 17:1 66:1 124:1 138:1 151:1 152:1 160:1 169:1 170:1 171:1 
-0.2372849509459583 0 0 1 0 0.3149131497160722 1 0 0 58:1 62:1 72:1 80:1 125:1 139:1 148:1 150:1 157:1 160:1 167:1 170:1 173:1 175:1 
-0 0 0 1 0 0 0 0 0 55:1 81:1 124:1 138:1 148:1 151:1 158:1 159:1 169:1 170:1 171:1 
-0 0 0 1 0 0 0 0 0 55:1 81:1 124:1 138:1 148:1 151:1 158:1 159:1 169:1 170:1 171:1 175:1 218:1 
-0 0 0 1 0 0 0 0 0 18:1 81:1 124:1 138:1 148:1 151:1 158:1 164:1 169:1 170:1 171:1 
-0 0 0 0 0.01253971412639757 0 0 1 0 19:1 72:1 127:1 138:1 150:1 158:1 162:1 169:1 170:1 171:1 
-0.2312905476941654 1 0 1 0 0 1 0 0 18:1 127:1 148:1 158:1 162:1 169:1 170:1 172:1 
-0.7421634455750193 0 0 0 0.5273613367506855 0 0 0 0 55:1 81:1 124:1 139:1 150:1 158:1 159:1 169:1 170:1 171:1 202:1 
-0 1 0 1 0 0 0 0 0 54:1 81:1 125:1 139:1 148:1 150:1 154:1 162:1 169:1 170:1 171:1 175:1 
-0.3576922518458219 0 0.0917169071364427 1 0 0 0 0 0 58:1 62:1 79:1 125:1 139:1 150:1 157:1 159:1 167:1 170:1 173:1 182:1 
-0 0 0 1 0 0 0 0 0 55:1 124:1 148:1 152:1 159:1 169:1 170:1 172:1 175:1 
-0 0 0 1 0 0 0 0 0 19:1 72:1 127:1 139:1 151:1 158:1 159:1 169:1 170:1 171:1 
-0 0 0 1 0 0 0 0 0 55:1 72:1 124:1 139:1 150:1 155:1 159:1 169:1 170:1 171:1 
-0 0 0 1 0 0 0 0 0 55:1 124:1 148:1 152:1 159:1 169:1 170:1 172:1 175:1 
-0 0 0 1 0 0 0 0 0 55:1 80:1 124:1 139:1 148:1 150:1 158:1 159:1 169:1 170:1 171:1 
-0 0 0 1 0 0 0 0 0 55:1 80:1 124:1 139:1 150:1 158:1 159:1 169:1 170:1 171:1 
-0 0 0 1 0 0 0 1 0 58:1 72:1 124:1 138:1 151:1 155:1 165:1 169:1 170:1 171:1 
-0 0 0 1 0 0 0 0 0 55:1 72:1 124:1 138:1 148:1 150:1 154:1 159:1 169:1 170:1 171:1 196:1 218:1 
-0 0 0 1 0 0 0 0 0 55:1 124:1 148:1 152:1 159:1 169:1 170:1 172:1 175:1 
-0 1 0 1 0 0 1 0 0 55:1 124:1 148:1 158:1 159:1 169:1 170:1 172:1 
-0 0 0 1 0 0 0 0 0 55:1 124:1 148:1 152:1 159:1 169:1 170:1 172:1 175:1 
-0.5170794618238835 1 0 1 0 0 1 0 0 18:1 124:1 148:1 158:1 162:1 169:1 170:1 172:1 
-0 0 0 1 0 0 1 1 0 56:1 124:1 148:1 157:1 164:1 169:1 170:1 172:1 
-1 0 0 1 0.1295895993402281 0 1 0.6422535764245685 0 56:1 127:1 148:1 157:1 162:1 169:1 170:1 172:1 
-0 0 0 1 0 0 1 0 0 55:1 124:1 148:1 152:1 159:1 169:1 170:1 172:1 
-0 0 0 1 0 0 1 0 0 55:1 124:1 148:1 158:1 159:1 169:1 170:1 172:1 175:1 
-0 0 0 1 0 0 1 0 0 55:1 124:1 148:1 152:1 159:1 169:1 170:1 172:1 
-0 0 0 1 0 0 0 0 0 55:1 124:1 148:1 152:1 159:1 169:1 170:1 172:1 175:1 
-0 0 0 1 0 0 0 0 0 55:1 124:1 148:1 152:1 159:1 169:1 170:1 172:1 175:1 
-0 1 0 1 0 0 1 0 0 58:1 124:1 148:1 158:1 165:1 169:1 170:1 172:1 
-0 0 0 1 0 0 1 0 0 55:1 124:1 148:1 158:1 159:1 169:1 170:1 172:1 175:1 
-0 1 0 1 0 0 1 0 0 54:1 125:1 148:1 158:1 163:1 169:1 170:1 172:1 207:1 
-0 0 0 1 0 0 0 0 0 55:1 124:1 148:1 152:1 159:1 169:1 170:1 172:1 175:1 
-0 0 0 1 0 0 1 0 0 55:1 124:1 148:1 158:1 159:1 169:1 170:1 172:1 175:1 
-0 0 0 1 0 0 0 0 0 55:1 124:1 148:1 152:1 159:1 169:1 170:1 172:1 175:1 
-0 0 0 1 0 0 0 0 0 55:1 81:1 124:1 139:1 148:1 149:1 151:1 158:1 159:1 169:1 170:1 171:1 
-0 0 0 1 0 0 0 0 0 55:1 81:1 124:1 139:1 148:1 149:1 151:1 158:1 159:1 169:1 170:1 171:1 
-0 0 0 1 0 0 0 0 0 55:1 81:1 124:1 139:1 148:1 151:1 155:1 159:1 169:1 170:1 171:1 
-0 0 0 1 0 0 1 0 0 55:1 124:1 148:1 158:1 159:1 169:1 170:1 172:1 175:1 
-0.7571553330632723 1 0 1 0 0 1 0.914865808830374 0 58:1 124:1 148:1 158:1 165:1 169:1 170:1 172:1 207:1 
-0 0 0 1 0 0 1 0 0 55:1 124:1 148:1 152:1 159:1 169:1 170:1 172:1 175:1 207:1 
-0 0 0 1 0 0 1 0 0 55:1 124:1 148:1 152:1 159:1 169:1 170:1 172:1 175:1 207:1 
-0 0 0 1 0.2526543342173254 0 1 0 0 58:1 124:1 148:1 152:1 165:1 169:1 170:1 172:1 175:1 
-0 0 0 1 0 0 0 0 0 55:1 124:1 148:1 152:1 159:1 169:1 170:1 172:1 175:1 
-0 0 0 1 0 0 0 0 0 55:1 124:1 148:1 152:1 159:1 169:1 170:1 172:1 175:1 
-0 0 0 1 0 0 0 0 0 55:1 124:1 148:1 152:1 159:1 169:1 170:1 172:1 175:1 
-0 0 0 1 0 0 0 0 0 55:1 124:1 148:1 152:1 159:1 169:1 170:1 172:1 175:1 
-0 0 0 1 0 0 0 0 0 18:1 81:1 127:1 138:1 148:1 149:1 151:1 158:1 162:1 169:1 170:1 171:1 
-0 0 0 1 0 0 1 0 0 55:1 124:1 148:1 155:1 159:1 169:1 170:1 172:1 175:1 
-0 0 0 1 0 0 1 0 0 55:1 124:1 148:1 152:1 159:1 169:1 170:1 172:1 175:1 207:1 
-0 0 0 1 0 0 0 0 0 18:1 81:1 127:1 138:1 148:1 149:1 151:1 158:1 162:1 169:1 170:1 171:1 
-0 0 0 1 0 0 0 0 0 55:1 124:1 148:1 152:1 159:1 169:1 170:1 172:1 175:1 
-0 0 0 1 0 0 1 0 0 56:1 124:1 148:1 158:1 164:1 169:1 170:1 172:1 
-0 0 0 1 0 0 1 0 0 55:1 124:1 148:1 158:1 159:1 169:1 170:1 172:1 175:1 
-0 0 0 1 0 0 1 0 0 55:1 124:1 148:1 152:1 159:1 169:1 170:1 172:1 
-0 0.9856742824938465 0 0 0 0 0.3310338845346742 0 0 54:1 62:1 79:1 125:1 139:1 150:1 158:1 160:1 169:1 170:1 171:1 
-0 0 0 0 0 0 1 0 0 56:1 81:1 124:1 138:1 148:1 151:1 155:1 164:1 169:1 170:1 171:1 185:1 
-0 0 0 1 0 0 1 0 0 55:1 124:1 148:1 158:1 159:1 169:1 170:1 172:1 175:1 181:1 
-0 1 0 1 0 0 0 0 0 58:1 72:1 125:1 138:1 148:1 149:1 151:1 158:1 159:1 169:1 170:1 171:1 175:1 
-0.150878455175545 0 0 1 0 0 0 0.4302730854394342 0 55:1 72:1 124:1 138:1 148:1 149:1 151:1 158:1 159:1 169:1 170:1 171:1 175:1 192:1 
-0 1 0 1 0 0 0.4362643102626471 1 0 58:1 72:1 124:1 138:1 148:1 149:1 151:1 158:1 165:1 169:1 170:1 171:1 
-0 0 0 1 0 0 0 0 0 55:1 72:1 124:1 138:1 148:1 149:1 151:1 157:1 159:1 169:1 170:1 171:1 175:1 
-0 0 0.7187346905070958 1 0.4875170901994327 0 0 1 0 58:1 72:1 125:1 138:1 151:1 158:1 159:1 167:1 170:1 171:1 
-0 0 0 0 0 0 0 0.0260832756774764 0 18:1 72:1 127:1 138:1 150:1 158:1 163:1 169:1 170:1 171:1 
-0 0 0 1 0 0 1 0 0 56:1 72:1 124:1 138:1 148:1 150:1 155:1 164:1 169:1 170:1 171:1 218:1 
-0 0 0.3581945585972882 1 0 0 0 0 0 55:1 81:1 124:1 138:1 148:1 151:1 158:1 159:1 169:1 170:1 171:1 175:1 
-0 0 0 1 0 0 0 0 0 55:1 124:1 148:1 152:1 159:1 169:1 170:1 172:1 175:1 
-0 0 0 1 0 0 1 0 0 55:1 124:1 148:1 157:1 159:1 169:1 170:1 172:1 175:1 
-0 0 0 1 0 0 0 0 0 55:1 124:1 148:1 152:1 159:1 169:1 170:1 172:1 175:1 
-0 0 0 1 0 0 0 0 0 55:1 124:1 148:1 152:1 159:1 169:1 170:1 172:1 175:1 
-0 1 0 1 0 0 1 0 0 54:1 125:1 148:1 152:1 160:1 169:1 172:1 
-0 0 0 1 0 0 0 0 0 18:1 81:1 127:1 138:1 148:1 149:1 151:1 158:1 162:1 169:1 170:1 171:1 
-0 1 0 1 0 0 1 0 0 54:1 125:1 148:1 152:1 160:1 169:1 172:1 175:1 
-0 1 0 0 0 0 0 0 0 18:1 81:1 127:1 138:1 148:1 149:1 151:1 158:1 161:1 169:1 170:1 171:1 
-0 0 0 0.1892968024462651 0 0 0 0 0 18:1 81:1 127:1 138:1 148:1 149:1 151:1 158:1 162:1 169:1 170:1 171:1 181:1 
-0 0 0 1 0 0 0 0 0 55:1 124:1 148:1 152:1 159:1 169:1 170:1 172:1 175:1 
-0 0 0 1 0 0 0 0 0 55:1 124:1 148:1 152:1 159:1 169:1 170:1 172:1 175:1 
-0 0 0 1 0 0 0 0 0 55:1 124:1 148:1 152:1 159:1 169:1 170:1 172:1 175:1 
-0 0 0 1 0 0 0 0 0 55:1 124:1 148:1 152:1 159:1 169:1 170:1 172:1 175:1 
-0 0 0 1 0 0 0 0 0 55:1 72:1 124:1 139:1 148:1 149:1 151:1 158:1 159:1 169:1 170:1 171:1 175:1 
-0 0 0 1 0 0 0 0 0 55:1 72:1 124:1 139:1 148:1 151:1 158:1 159:1 169:1 170:1 171:1 
-0 0 0 0.2056423967323009 0 0 0 0 0 20:1 72:1 127:1 139:1 151:1 158:1 162:1 169:1 170:1 171:1 
-0 1 0 0 0 0 0 0 0 1:1 81:1 125:1 138:1 148:1 149:1 151:1 158:1 163:1 169:1 170:1 171:1 
-0 0 0 1 0 0 0 0 0 55:1 124:1 148:1 152:1 159:1 169:1 170:1 172:1 175:1 
-1 0 0.9278369829565015 0 0 0.06732590135613206 0 0 0 18:1 65:1 66:1 79:1 127:1 138:1 139:1 151:1 158:1 162:1 169:1 170:1 171:1 
-0.4956248871558137 0 0.06231761279288186 0 0 0.08311735893104652 0 0 0 58:1 65:1 66:1 79:1 124:1 138:1 139:1 150:1 158:1 159:1 169:1 170:1 171:1 
-0 1 0 1 0 0 1 0 0 54:1 81:1 125:1 138:1 148:1 151:1 158:1 163:1 169:1 170:1 171:1 
-0 0 0 1 0 0 0 0 0 18:1 81:1 127:1 138:1 148:1 151:1 158:1 163:1 169:1 170:1 171:1 
-0 1 0 1 0 0 1 0 0 54:1 81:1 125:1 138:1 148:1 151:1 155:1 163:1 169:1 170:1 171:1 
-0.01554700383897542 0 0 0 0 0 1 0 0 19:1 81:1 124:1 138:1 151:1 156:1 160:1 169:1 170:1 171:1 
-0 0 0 1 0 0 0 0 0 58:1 81:1 124:1 138:1 148:1 151:1 158:1 159:1 169:1 170:1 171:1 
-0 0 0 1 1 0 0 0.1068482580306935 0 55:1 81:1 124:1 138:1 148:1 150:1 157:1 159:1 169:1 170:1 171:1 175:1 
-0 1 0 0 0 0 0 0 0 18:1 81:1 127:1 138:1 148:1 149:1 151:1 158:1 162:1 169:1 170:1 171:1 206:1 
-0 0 0.02897552413034375 0 0 0 0 0 0 55:1 81:1 124:1 138:1 151:1 158:1 159:1 169:1 170:1 171:1 207:1 
-0 0 0 1 0 0 1 0 0 57:1 124:1 148:1 152:1 160:1 169:1 170:1 172:1 175:1 
-0 0 0 1 0 0 1 0 0 57:1 124:1 148:1 152:1 160:1 169:1 170:1 172:1 175:1 
-0.04844496806561807 0 0 0 0 0 0 0 0 19:1 72:1 80:1 127:1 139:1 150:1 158:1 162:1 169:1 170:1 173:1 
-0 0 0 1 0 0 0 0 0 55:1 124:1 148:1 152:1 159:1 169:1 170:1 172:1 175:1 
-0 0 0 1 0 0 0 0 0 55:1 124:1 148:1 152:1 159:1 169:1 170:1 172:1 175:1 
-0 1 0 1 0 0 1 0 0 58:1 124:1 148:1 158:1 165:1 169:1 170:1 172:1 
-0 0 0 1 0 0 0.6573138464658692 0 0 55:1 124:1 148:1 152:1 159:1 169:1 170:1 172:1 175:1 
-0.03646176160677558 0 0 1 0 0 1 0 0 17:1 124:1 148:1 152:1 160:1 169:1 170:1 172:1 
-0 0 0 1 0 0 0 0 0 56:1 80:1 127:1 139:1 150:1 158:1 162:1 169:1 170:1 171:1 
-0 0 0 1 0 0 0 0 0 58:1 80:1 125:1 139:1 148:1 150:1 153:1 159:1 169:1 170:1 171:1 
-0 0 0.04882267719466205 0 0 0 0 0 0.2122347268762528 18:1 62:1 79:1 127:1 138:1 139:1 151:1 158:1 162:1 167:1 170:1 171:1 
-0 0 0 1 0 0 1 0 0 55:1 124:1 148:1 152:1 159:1 169:1 170:1 172:1 175:1 
-0 0 0 1 0 0 1 0 0 55:1 124:1 148:1 152:1 159:1 169:1 170:1 172:1 175:1 
-0 0 0 1 0 0 1 0 0 55:1 124:1 148:1 152:1 159:1 169:1 170:1 172:1 175:1 
-0 0 0 1 0 0 1 0 0 55:1 124:1 148:1 152:1 159:1 169:1 170:1 172:1 175:1 
-0 0 0 1 0 0 1 0 0 55:1 124:1 148:1 152:1 159:1 169:1 170:1 172:1 175:1 
-0 1 0 1 0 0 1 0 0 19:1 126:1 148:1 158:1 162:1 169:1 170:1 172:1 
-0 0 0 1 0 0 1 0 0 55:1 124:1 148:1 152:1 159:1 169:1 170:1 172:1 175:1 
-0 0 0 1 0 0 0 0 0 55:1 79:1 124:1 139:1 148:1 149:1 151:1 158:1 159:1 169:1 170:1 171:1 
-0 0 0 1 0 0 0 0 0 58:1 79:1 125:1 139:1 148:1 149:1 151:1 158:1 159:1 167:1 170:1 171:1 
-0 1 0 0 0 0 1 0 0 54:1 79:1 125:1 139:1 148:1 149:1 151:1 158:1 163:1 169:1 170:1 171:1 
-0 0 0 1 0 0 1 0 0 56:1 79:1 125:1 139:1 148:1 149:1 151:1 155:1 159:1 166:1 170:1 171:1 
-0 0 0 1 0 0 0 0 0 55:1 79:1 124:1 139:1 150:1 158:1 159:1 169:1 170:1 171:1 
-0 0 0 1 0 0 1 0 0 55:1 124:1 148:1 152:1 159:1 169:1 170:1 172:1 175:1 
-0 0 0 0 0.545031442495584 0 0 0 0 58:1 72:1 81:1 91:1 125:1 138:1 139:1 148:1 150:1 158:1 159:1 169:1 170:1 171:1 175:1 186:1 
-0 0 0 1 0 0 0 0 0 55:1 81:1 124:1 138:1 148:1 150:1 155:1 159:1 169:1 170:1 171:1 175:1 
-0 1 0 1 0 0 1 0 0 58:1 124:1 148:1 158:1 165:1 169:1 170:1 172:1 
-0 1 0 1 0 0 1 0 0 58:1 124:1 148:1 158:1 165:1 169:1 170:1 172:1 
-0 1 0 1 0.4666485889368928 0 1 0 0 58:1 125:1 148:1 158:1 159:1 167:1 170:1 172:1 
-0 0 0 1 0 0 1 0 0 55:1 124:1 148:1 152:1 159:1 169:1 170:1 172:1 
-0 0 0 1 0 0 1 0 0 55:1 124:1 148:1 152:1 159:1 169:1 170:1 172:1 175:1 
-0 0 0 0 0 0 1 0 0 56:1 62:1 125:1 139:1 150:1 158:1 160:1 166:1 170:1 174:1 
-0 0 0 1 0 0 1 0 0 55:1 124:1 148:1 152:1 159:1 169:1 170:1 172:1 175:1 
-0 0 0 0 0 0 1 0 0 56:1 79:1 125:1 139:1 148:1 150:1 158:1 160:1 166:1 170:1 174:1 188:1 
-0 0 0 1 0 0 0 0 0 58:1 81:1 125:1 138:1 148:1 149:1 151:1 158:1 159:1 169:1 171:1 175:1 
-0 0 0.3444918761655894 0 0 0 0 0 0 58:1 81:1 124:1 138:1 151:1 158:1 165:1 169:1 170:1 171:1 
-0 1 0 1 0 0 1 0 0 58:1 124:1 148:1 158:1 165:1 169:1 170:1 172:1 
-0.9850432690398635 1 0 1 0.3600909474408567 0 1 0.5646695504981718 0 58:1 125:1 148:1 158:1 160:1 167:1 170:1 172:1 175:1 
-0 1 0 0 0 0 1 0 0 18:1 81:1 126:1 138:1 148:1 149:1 151:1 158:1 160:1 169:1 170:1 171:1 
-0 0.7248993047652152 0 1 0 0 0 0 0 18:1 81:1 127:1 138:1 148:1 149:1 151:1 158:1 162:1 169:1 170:1 171:1 
-0 0.2177758302856276 0 1 0 0 1 0.4320230633414215 0 58:1 72:1 124:1 139:1 148:1 149:1 151:1 158:1 165:1 169:1 170:1 171:1 207:1 
-0 0 0 1 0 0 0 0 0 55:1 72:1 124:1 139:1 148:1 149:1 151:1 158:1 159:1 169:1 170:1 171:1 175:1 207:1 
-0 0 0 1 0 0 0 0 0 55:1 72:1 124:1 139:1 148:1 149:1 151:1 158:1 159:1 169:1 170:1 171:1 175:1 
-0 1 0 1 0 0 0 0 0 58:1 81:1 125:1 138:1 148:1 149:1 151:1 158:1 159:1 169:1 170:1 171:1 175:1 
-0 0 0 1 0 0 0 0 0 55:1 81:1 124:1 138:1 148:1 151:1 152:1 159:1 169:1 170:1 171:1 175:1 
-0 0 0 1 0 0 0.6228488353102551 0 0 18:1 81:1 127:1 138:1 148:1 151:1 158:1 162:1 169:1 170:1 171:1 
-0 0 0 1 0 0 0 0 0.08060433179425415 18:1 72:1 127:1 138:1 148:1 149:1 151:1 152:1 159:1 169:1 170:1 171:1 
-0 0 0 1 0 0 0 0 0 55:1 72:1 124:1 138:1 148:1 149:1 151:1 158:1 159:1 169:1 170:1 171:1 
-0 0 0 1 0 0 0 0 0 55:1 72:1 124:1 138:1 148:1 149:1 151:1 158:1 159:1 169:1 170:1 171:1 
-0 1 0 1 0 0 0 0 0 18:1 72:1 127:1 138:1 148:1 149:1 151:1 158:1 162:1 169:1 170:1 171:1 186:1 
-0 0 0 1 0 0 0 0 0 55:1 72:1 124:1 138:1 148:1 149:1 151:1 158:1 159:1 169:1 170:1 171:1 186:1 
-0 1 0 0 0 0 1 1 0 19:1 72:1 127:1 138:1 148:1 149:1 151:1 158:1 160:1 169:1 170:1 171:1 
-0 0 0 1 0.05217343929746106 0 0 0.8865660596539168 0 55:1 72:1 124:1 138:1 148:1 151:1 157:1 159:1 169:1 170:1 171:1 
-0 0 0 1 0 0 0 0 0 55:1 72:1 124:1 138:1 148:1 150:1 155:1 159:1 169:1 170:1 171:1 175:1 218:1 
-0 0 0 0.01826746979167589 0 0 0.6671500224709043 0 0 56:1 72:1 124:1 138:1 148:1 150:1 158:1 164:1 169:1 170:1 171:1 206:1 218:1 
-0 0 0 1 0 0 1 0 0 56:1 72:1 124:1 138:1 148:1 150:1 158:1 164:1 169:1 170:1 171:1 206:1 218:1 
-0 0 0 1 0 0 1 0 0 55:1 124:1 148:1 152:1 159:1 169:1 170:1 172:1 175:1 
-0 0 0 0 1 0 0 0 0 58:1 72:1 81:1 91:1 124:1 138:1 139:1 148:1 151:1 158:1 165:1 169:1 170:1 171:1 
-0 1 0 1 0 0 1 0 0 54:1 125:1 148:1 158:1 163:1 169:1 170:1 172:1 
-0 1 0 1 0 0 1 0 0 18:1 127:1 148:1 158:1 159:1 169:1 170:1 172:1 
-0 0 0 1 0 0 1 0 0 55:1 124:1 148:1 152:1 159:1 169:1 170:1 172:1 175:1 
-0 0 0 1 0 0 1 0 0 55:1 124:1 148:1 152:1 159:1 169:1 170:1 172:1 175:1 181:1 
-0 0 0 1 0 0 1 0 0 55:1 124:1 148:1 152:1 159:1 169:1 170:1 172:1 175:1 
-0 1 0 1 0 0 1 0 0 54:1 125:1 148:1 158:1 163:1 169:1 170:1 172:1 
-0 0 0 1 0 0 1 0 0 56:1 125:1 148:1 158:1 159:1 166:1 170:1 172:1 
-0 0 0 1 0 0 1 0 0 55:1 124:1 148:1 152:1 159:1 169:1 170:1 172:1 175:1 
-0 0 0 0 0 0 1 0 0 18:1 72:1 127:1 139:1 151:1 158:1 160:1 169:1 170:1 171:1 
-0 0 0 1 0 0 1 0 0 55:1 124:1 148:1 152:1 159:1 169:1 170:1 172:1 175:1 
-0 1 0 1 0 0 1 0 0 18:1 127:1 148:1 158:1 162:1 169:1 170:1 172:1 
-0 1 0 1 0 0 1 0 0 18:1 126:1 148:1 158:1 160:1 169:1 170:1 172:1 
-0 1 0 1 0.851782289060942 0 1 1 0 54:1 125:1 148:1 157:1 165:1 169:1 170:1 172:1 
-0 0 0 1 0 0 1 0 0 55:1 124:1 148:1 152:1 159:1 169:1 170:1 172:1 175:1 
-0 0 0 1 0 0 1 0 0 55:1 124:1 148:1 152:1 159:1 169:1 170:1 172:1 175:1 
-0 0 0 1 0 0 0 0.4238575712266152 0 55:1 72:1 124:1 138:1 151:1 158:1 159:1 169:1 170:1 171:1 184:1 
-0.4981423802979297 0 0 0 0 0 0 0 0 17:1 79:1 124:1 138:1 150:1 158:1 160:1 169:1 171:1 
-0 0 0 1 0 0 1 0 0 55:1 124:1 148:1 152:1 159:1 169:1 170:1 172:1 175:1 
-0.05500830948005694 0 0.01941203955646234 0.217038271502362 0 0 0 1 0 58:1 72:1 124:1 138:1 151:1 158:1 165:1 169:1 170:1 171:1 
-0 1 0 1 1 0 1 0 0 58:1 125:1 148:1 158:1 159:1 167:1 170:1 172:1 
-0 0 0 1 0 0 1 0 0 55:1 124:1 148:1 152:1 159:1 169:1 170:1 172:1 175:1 
-0 0 0 1 0 0 1 0 0 55:1 124:1 148:1 152:1 159:1 169:1 170:1 172:1 175:1 
-0 0 0 1 0 0 1 0 0 17:1 126:1 148:1 158:1 159:1 169:1 170:1 172:1 
-0 1 0 1 0 0 1 0 0 55:1 124:1 148:1 158:1 159:1 169:1 170:1 172:1 
-0 1 0 1 0 0 1 0 0 18:1 127:1 148:1 158:1 162:1 169:1 170:1 172:1 
-0 0.7496255655206647 0 0 0 0 0 0 0 54:1 80:1 117:1 125:1 139:1 150:1 158:1 163:1 169:1 170:1 173:1 
-0 0 0 1 0 0 1 0 0 55:1 124:1 148:1 157:1 159:1 169:1 170:1 172:1 175:1 
-0 0 0 1 0 0 1 0 0 56:1 125:1 148:1 152:1 162:1 169:1 170:1 172:1 175:1 
-0 0 0 1 0 0 1 0 0 55:1 124:1 148:1 152:1 159:1 169:1 170:1 172:1 175:1 
-0 0 0 1 0 0 1 0 0 55:1 124:1 148:1 152:1 159:1 169:1 170:1 172:1 175:1 
-0 0 0 1 0 0 1 0 0 55:1 124:1 148:1 156:1 159:1 169:1 170:1 172:1 175:1 
-0 0 0.03094019825040561 0 0 0 0 0 0 19:1 79:1 89:1 126:1 138:1 139:1 148:1 149:1 151:1 158:1 170:1 171:1 
-0 1 0 0 0 0 1 0 0 54:1 79:1 89:1 125:1 138:1 139:1 148:1 149:1 151:1 155:1 160:1 169:1 170:1 171:1 
-0 0 0 1 0 0 1 0 0 55:1 124:1 148:1 152:1 159:1 169:1 170:1 172:1 175:1 
-0 0 0 0 0 0.01702633751521708 0 0 0 18:1 79:1 89:1 127:1 138:1 139:1 148:1 149:1 151:1 158:1 160:1 169:1 170:1 171:1 
-0 0 0 1 0 0 1 0 0 55:1 124:1 148:1 152:1 159:1 169:1 170:1 172:1 175:1 
-0 1 0 1 0 0 1 0 0 54:1 125:1 148:1 158:1 163:1 169:1 170:1 172:1 181:1 
-0 1 0 0 0 0 0 0 0 54:1 79:1 89:1 125:1 138:1 139:1 150:1 158:1 161:1 169:1 170:1 171:1 181:1 
-0 1 0 1 0 0 1 0 0 54:1 125:1 148:1 152:1 163:1 169:1 170:1 172:1 181:1 
-0.1527066002665027 1 0 1 0 0 1 0 0 18:1 127:1 148:1 158:1 159:1 169:1 170:1 172:1 181:1 
-0.05295915049243333 0 0 1 0 0 1 0 0 55:1 124:1 148:1 158:1 159:1 169:1 170:1 172:1 175:1 181:1 
-0 0 0 1 0 0 1 0 0 55:1 124:1 148:1 156:1 159:1 169:1 170:1 172:1 175:1 
-0 1 0 1 0 0 1 0 0 55:1 124:1 148:1 158:1 159:1 169:1 170:1 172:1 
-0 1 0 1 0 0 1 0 0 55:1 124:1 148:1 158:1 159:1 169:1 170:1 172:1 
-0 1 0 1 0 0 1 0 0 18:1 127:1 148:1 158:1 162:1 169:1 170:1 172:1 
-0.1282260199597799 0 0 0 0 0 0 0 0 55:1 81:1 124:1 138:1 151:1 158:1 159:1 169:1 170:1 171:1 175:1 199:1 
-0 0 0 1 0 0 1 0 0 56:1 124:1 148:1 158:1 164:1 169:1 170:1 172:1 181:1 
-0 0 0 1 0 0 1 0 0 18:1 127:1 148:1 158:1 160:1 167:1 170:1 172:1 
-0 1 0 1 0 0 1 0 0 18:1 127:1 148:1 158:1 162:1 169:1 170:1 172:1 
-0 0 0 1 0 0 1 0 0 55:1 124:1 148:1 152:1 159:1 169:1 170:1 172:1 175:1 
-0 1 0 1 0 0 1 0 0 58:1 125:1 148:1 158:1 159:1 169:1 170:1 172:1 175:1 
-0 1 0 1 0 0 1 0 0 58:1 125:1 148:1 158:1 159:1 169:1 170:1 172:1 
-0.4353857988594 1 0 1 0 0 1 0 0 55:1 124:1 148:1 158:1 159:1 169:1 170:1 172:1 207:1 
-0 1 0 1 0 0 1 0 0 19:1 127:1 148:1 158:1 162:1 169:1 170:1 172:1 
-0 1 0 1 0 0 1 0 0 58:1 125:1 148:1 158:1 159:1 169:1 170:1 172:1 175:1 
-0 0 0 1 0 0 1 0 0 55:1 124:1 148:1 152:1 159:1 169:1 170:1 172:1 175:1 
-0 1 0 1 0 0 1 1 0 54:1 125:1 148:1 158:1 160:1 169:1 170:1 172:1 
-0.8993547675814443 0 1 1 0 1 1 0 0 58:1 72:1 79:1 124:1 139:1 148:1 151:1 154:1 165:1 169:1 170:1 173:1 
-1 0 0.9104814034952025 0 0 0.2237408093881036 1 0 0 18:1 72:1 79:1 127:1 139:1 151:1 157:1 164:1 169:1 170:1 173:1 
-0 1 0 1 0 0 1 0 0 56:1 124:1 148:1 158:1 164:1 169:1 170:1 172:1 186:1 
-0 1 0 1 0 0 1 0 0 55:1 124:1 148:1 158:1 159:1 169:1 170:1 172:1 
-1 1 0 1 0 0 1 1 0 54:1 124:1 148:1 158:1 160:1 169:1 170:1 172:1 
-0 1 0 1 0 0 1 0 0 55:1 124:1 148:1 158:1 159:1 169:1 170:1 172:1 
-0 1 0 1 0 0 1 0 0 55:1 124:1 148:1 158:1 159:1 169:1 170:1 172:1 
-0 0 0 1 0 0 1 0 0 55:1 124:1 148:1 153:1 159:1 169:1 170:1 172:1 175:1 
-0 1 0 1 0 0 1 0 0 18:1 127:1 148:1 158:1 162:1 169:1 170:1 172:1 
-0 0 0.01284259962969853 0 0 0 0 0 0 56:1 81:1 124:1 138:1 151:1 154:1 164:1 169:1 170:1 171:1 
-0 0 0 0 0 0 1 0.8737169330178365 0 56:1 66:1 72:1 125:1 138:1 139:1 148:1 151:1 158:1 164:1 169:1 170:1 172:1 
-0.1757104292172841 0 0.3550160672762849 0 0.411883125128255 0 1 0.741785690941438 0 55:1 66:1 72:1 124:1 138:1 139:1 151:1 157:1 159:1 169:1 170:1 172:1 
-0 0 0 1 0 0 1 0 0 55:1 124:1 148:1 152:1 159:1 169:1 170:1 172:1 
-0 1 0 1 0.3604495748400968 0 1 0 0 54:1 125:1 148:1 152:1 163:1 169:1 170:1 172:1 175:1 
-0 0 0 1 0 0 1 0 0 55:1 124:1 148:1 158:1 159:1 169:1 170:1 172:1 175:1 
-0 0 0 1 0 0 0 0 0 58:1 72:1 125:1 139:1 148:1 149:1 151:1 158:1 159:1 169:1 170:1 171:1 175:1 
-0 0 0 1 0 0 1 0 0 58:1 72:1 125:1 139:1 148:1 151:1 158:1 159:1 169:1 170:1 171:1 181:1 
-0 0 0 1 0 0 0 0 0 58:1 72:1 125:1 139:1 148:1 149:1 151:1 158:1 159:1 169:1 170:1 171:1 175:1 
-0 0 0 1 0 0 1 0 0 58:1 72:1 125:1 139:1 148:1 151:1 158:1 159:1 169:1 170:1 171:1 181:1 
-0 1 0 1 0 0 0 0.07112948649215364 0 58:1 72:1 125:1 138:1 148:1 149:1 151:1 158:1 159:1 169:1 170:1 171:1 175:1 
-0 1 0 1 0 0 0 0.9166517282648307 0 58:1 72:1 125:1 138:1 148:1 151:1 158:1 159:1 169:1 170:1 171:1 181:1 
-0 0.7529309903990883 0 1 0 0 0 0 0 58:1 80:1 125:1 139:1 148:1 149:1 151:1 158:1 159:1 169:1 170:1 171:1 175:1 
-0 1 0 1 0 0 0 0 0 58:1 80:1 125:1 139:1 148:1 149:1 151:1 158:1 159:1 169:1 170:1 171:1 181:1 
-0 0 0 0 0 0 1 0 0 56:1 80:1 124:1 139:1 148:1 149:1 151:1 158:1 164:1 169:1 170:1 171:1 181:1 
-0 0 0 1 0 0 1 0 0 56:1 72:1 124:1 139:1 148:1 150:1 158:1 164:1 169:1 170:1 171:1 181:1 
-0 0 0 1 0 0 1 0.08917067313560252 0 56:1 72:1 124:1 139:1 148:1 150:1 158:1 164:1 169:1 170:1 171:1 181:1 
-0.2827199392046907 0 0 0 0 0 0 0 0 56:1 72:1 124:1 138:1 150:1 158:1 164:1 169:1 170:1 171:1 181:1 218:1 
-0 0 0 0 0 0.1363552430439885 0 0.01310414421917312 0 55:1 66:1 72:1 124:1 138:1 139:1 150:1 153:1 159:1 169:1 170:1 172:1 
-0 0 0 1 0 0 1 0 0 55:1 124:1 148:1 152:1 159:1 169:1 170:1 172:1 175:1 
-0.05978988877420562 1 0 1 0 0 1 0 0 18:1 127:1 148:1 158:1 162:1 169:1 170:1 172:1 
-0 0 0 1 0 0 1 0 0 55:1 124:1 148:1 152:1 159:1 169:1 170:1 172:1 175:1 
-0 0 0 1 0 0 1 0 0 55:1 124:1 148:1 152:1 159:1 169:1 170:1 172:1 175:1 
-1 0 0 1 0 0 0 0 0 56:1 80:1 125:1 138:1 150:1 158:1 159:1 168:1 170:1 173:1 217:1 
-0 0 0 1 0 0 0 0 0 55:1 81:1 124:1 138:1 148:1 150:1 152:1 159:1 169:1 170:1 171:1 175:1 
-0.2401496209390243 0 0 1 0 0 1 0.8518156318529888 0 17:1 124:1 148:1 155:1 160:1 169:1 170:1 172:1 
-0.06484172196250321 1 0 1 0 0 1 0 0 18:1 127:1 148:1 158:1 160:1 169:1 170:1 172:1 
-0 1 0 0 0 0 1 0 0 54:1 62:1 79:1 125:1 138:1 139:1 148:1 150:1 154:1 160:1 169:1 170:1 171:1 
-0 0 0 1 0 0 1 0 0 57:1 124:1 148:1 152:1 160:1 169:1 170:1 172:1 175:1 
-1 0 1 0 0 0 0 0 0 55:1 72:1 80:1 124:1 138:1 139:1 150:1 158:1 159:1 169:1 170:1 173:1 175:1 
-0 1 0 0 0 0 0 1 0 54:1 72:1 81:1 124:1 138:1 139:1 148:1 149:1 151:1 158:1 162:1 169:1 170:1 171:1 192:1 
-0 1 0 0 0 0 0 0 0 54:1 72:1 81:1 125:1 138:1 139:1 148:1 149:1 151:1 158:1 163:1 169:1 170:1 171:1 192:1 
-0 0 0 1 0 0 0 0 0 55:1 80:1 124:1 139:1 150:1 158:1 159:1 169:1 170:1 171:1 
-0 0 0 1 0 0 1 0 0 55:1 124:1 148:1 152:1 159:1 169:1 170:1 172:1 175:1 
-0 0 0 0 0 0 0 0.1115843748051728 0 56:1 72:1 81:1 124:1 138:1 139:1 151:1 156:1 164:1 169:1 170:1 171:1 
-0 0 0 0 1 0 1 0 0 18:1 72:1 81:1 127:1 138:1 139:1 148:1 151:1 157:1 162:1 169:1 170:1 171:1 
-0 0 0 0 0 0 0 0.2047308713036637 0 58:1 72:1 81:1 125:1 138:1 139:1 150:1 158:1 159:1 169:1 170:1 171:1 175:1 
-0 0 0 1 0.3088310280777904 0 1 0 0 55:1 124:1 148:1 152:1 159:1 169:1 170:1 172:1 175:1 207:1 
-0 1 0 0 0.1716383565056158 0 1 0.5939462854726065 0 54:1 81:1 124:1 138:1 148:1 149:1 151:1 157:1 161:1 169:1 170:1 171:1 175:1 
-0 1 0 1 0 0 1 0 0 18:1 127:1 148:1 158:1 163:1 169:1 170:1 172:1 
-0 1 0 0 0 0 0 0 0 54:1 81:1 125:1 138:1 151:1 152:1 163:1 169:1 170:1 171:1 
-0 0 0 0 0 0 0 1 0.3886527514983342 18:1 81:1 127:1 138:1 150:1 158:1 160:1 167:1 170:1 171:1 
-0 1 0 1 0 0 1 0.2317724581451299 0 58:1 125:1 148:1 155:1 160:1 167:1 170:1 172:1 
-0 1 0 1 0 0 1 0 0 54:1 125:1 148:1 158:1 163:1 169:1 170:1 172:1 
-0.651641947009597 1 0 1 0 0 1 0 0 18:1 127:1 148:1 155:1 162:1 169:1 170:1 172:1 
-0 0 0 1 0.2627325986810376 0 1 0.01755736574836457 0 55:1 124:1 148:1 157:1 159:1 169:1 170:1 172:1 175:1 
-0 1 0 1 0 0 1 0 0 54:1 125:1 148:1 158:1 163:1 169:1 170:1 172:1 
-0 0 0 1 0 0 1 0 0 58:1 125:1 148:1 155:1 159:1 167:1 170:1 172:1 
-0 0 0 1 0 0 1 0 0 55:1 124:1 148:1 152:1 159:1 169:1 170:1 172:1 175:1 
-0 0 0 1 0 0 1 0 0 18:1 81:1 127:1 139:1 148:1 149:1 151:1 158:1 162:1 169:1 170:1 171:1 
-1 0 0 0 0 0 0 0 0 18:1 81:1 124:1 138:1 150:1 158:1 160:1 169:1 170:1 171:1 
-0 0 0 1 0 0 0 0 0 55:1 81:1 124:1 139:1 148:1 150:1 158:1 159:1 169:1 170:1 171:1 
-0 0 0 1 0.1819629415826712 0 0 0.5721309646456478 0 58:1 81:1 125:1 138:1 151:1 155:1 159:1 167:1 170:1 171:1 
-0 0.8939265190218002 0 1 0 0 0 0 0 55:1 81:1 124:1 138:1 148:1 149:1 151:1 152:1 159:1 169:1 170:1 171:1 175:1 188:1 
-0.4842684110246888 0 0 0 0 0 0 0 0 56:1 72:1 80:1 126:1 139:1 150:1 158:1 162:1 169:1 170:1 173:1 
-0 0 0 1 0 0 0 0 0 55:1 79:1 124:1 138:1 148:1 149:1 151:1 152:1 159:1 169:1 170:1 171:1 175:1 
-0 0 0 1 0 0 0 0 0 55:1 79:1 124:1 138:1 148:1 151:1 152:1 159:1 169:1 170:1 171:1 
-0 0 0 1 0 0 0 0 0 18:1 81:1 127:1 138:1 148:1 149:1 151:1 158:1 159:1 169:1 170:1 171:1 
-0 1 0 0 0 0 1 0.4433112458076145 0 54:1 72:1 81:1 125:1 139:1 148:1 149:1 150:1 158:1 160:1 169:1 170:1 171:1 
-0 0 0 0 0 0 0 0 0.6660662661315894 55:1 81:1 124:1 138:1 148:1 149:1 151:1 158:1 159:1 169:1 170:1 171:1 
-0 0 0 1 0.1087837269823712 0 0 0.2113851379639558 0 55:1 81:1 124:1 138:1 148:1 150:1 158:1 159:1 169:1 170:1 171:1 207:1 
-0 0 0.3982076216406761 0 0 0 0 0 0 18:1 72:1 80:1 124:1 138:1 139:1 150:1 158:1 165:1 169:1 170:1 173:1 
-0 0 0.04014625884816726 0 0 0 0 0.2893428913444819 0 56:1 72:1 80:1 89:1 125:1 138:1 139:1 148:1 150:1 155:1 159:1 166:1 170:1 171:1 
-0.2314406182996762 0 0 0 0 0 0 0 0 18:1 72:1 81:1 127:1 139:1 151:1 158:1 162:1 169:1 170:1 171:1 
-0 0 0 1 0 0 0 0 0 55:1 81:1 124:1 138:1 148:1 150:1 158:1 159:1 169:1 170:1 171:1 175:1 
-0 0 0 0 0 0 0 0.1330955432437983 0 17:1 72:1 81:1 124:1 138:1 139:1 148:1 149:1 150:1 158:1 160:1 169:1 170:1 171:1 
-0 0 0 0 0 0 0 0.3220548710705862 0 55:1 62:1 65:1 79:1 124:1 138:1 139:1 150:1 158:1 159:1 169:1 170:1 171:1 184:1 
-0 0 0 0 0 0.1886315679092882 0 0 0 18:1 62:1 66:1 79:1 81:1 127:1 138:1 139:1 144:1 151:1 158:1 162:1 169:1 170:1 171:1 206:1 
-1 0 0 0 0 0 0 0 0 54:1 65:1 79:1 125:1 138:1 139:1 150:1 158:1 160:1 169:1 170:1 173:1 175:1 
-0 0 0 1 0 0 0 0 0 55:1 62:1 80:1 124:1 139:1 148:1 150:1 155:1 159:1 169:1 170:1 171:1 175:1 
-0 0 0 1 0 0 0 0 0 55:1 66:1 124:1 142:1 151:1 152:1 159:1 169:1 170:1 171:1 175:1 
-0 0 0 1 0 0 0 0 0 58:1 80:1 125:1 139:1 150:1 158:1 159:1 169:1 170:1 171:1 
-0 1 0 1 0 0 1 1 0 54:1 72:1 125:1 138:1 148:1 150:1 158:1 163:1 169:1 170:1 171:1 
-0 0 0.05048467030966076 0 0.0265782427777955 0 0 0 0 58:1 65:1 72:1 79:1 81:1 88:1 125:1 138:1 139:1 144:1 148:1 150:1 155:1 159:1 169:1 170:1 171:1 189:1 
-0 0 0 1 0 0 0 0 0 55:1 81:1 124:1 138:1 148:1 149:1 150:1 152:1 159:1 169:1 170:1 171:1 175:1 
-0 0 0 1 0 0 0 0 0 55:1 81:1 124:1 138:1 148:1 149:1 150:1 158:1 159:1 169:1 170:1 171:1 175:1 
-0 0 0.2915487329407574 1 0 0 0 0 0 55:1 81:1 124:1 138:1 148:1 150:1 158:1 159:1 169:1 170:1 171:1 175:1 186:1 
-0 0 0 0 0 0 1 0 0 56:1 79:1 81:1 125:1 138:1 139:1 148:1 149:1 151:1 158:1 160:1 166:1 170:1 171:1 
-0 0 0 0 0 0.3509471966480875 0 0 0 57:1 81:1 126:1 138:1 148:1 149:1 150:1 152:1 162:1 169:1 170:1 171:1 
-0 0 0 0 0 0 1 0 0 17:1 81:1 124:1 138:1 148:1 149:1 151:1 158:1 160:1 169:1 170:1 171:1 
-0 1 0 0 0 0 0 0 0 54:1 81:1 125:1 138:1 148:1 149:1 151:1 158:1 163:1 169:1 170:1 171:1 182:1 
-0.03092937105976107 0 1 0 0 0.8602024769510206 0 0 0 55:1 72:1 80:1 124:1 138:1 139:1 148:1 150:1 158:1 159:1 169:1 170:1 173:1 175:1 
-0 1 0 0 0 0 0 0 0 54:1 81:1 124:1 138:1 148:1 149:1 151:1 152:1 160:1 169:1 170:1 171:1 175:1 
-0 0 0 -0 0.08801864333849163 0 0 0 0 58:1 81:1 125:1 138:1 139:1 148:1 150:1 158:1 165:1 169:1 170:1 171:1 175:1 
-1 0 0 0 0 0 1 0 0 18:1 62:1 127:1 139:1 151:1 158:1 160:1 169:1 170:1 173:1 
-0 0 0 0 0 0 1 0 0 17:1 81:1 124:1 138:1 148:1 149:1 151:1 156:1 160:1 169:1 170:1 171:1 
-0 1 0 0 0 0 0 0 0 54:1 79:1 125:1 138:1 151:1 154:1 163:1 169:1 170:1 171:1 
-0 0 0.1320231962579955 1 0 0 0 0 0 55:1 81:1 124:1 138:1 148:1 149:1 151:1 152:1 159:1 169:1 170:1 171:1 175:1 203:1 
-1 0 0 0.9374204929485431 0 0 0 0 0 18:1 62:1 127:1 139:1 151:1 158:1 162:1 169:1 170:1 173:1 
-0 0 0 1 0 0 0 0 0 55:1 81:1 124:1 138:1 148:1 150:1 158:1 159:1 169:1 170:1 171:1 
-0 0 0 1 0 0 0 0 0 55:1 81:1 124:1 138:1 148:1 150:1 152:1 159:1 169:1 170:1 171:1 175:1 
-0 1 0 0 0 0 0 0 0 54:1 81:1 125:1 138:1 150:1 158:1 160:1 169:1 170:1 171:1 182:1 
-0 0 0 1 0 0 0 0 0 18:1 81:1 127:1 138:1 148:1 150:1 158:1 162:1 169:1 170:1 171:1 
-0.4829357485721511 0 0 -0 0 0 1 0 0 56:1 66:1 125:1 142:1 148:1 149:1 151:1 158:1 160:1 166:1 170:1 171:1 175:1 
-0.4696811858935094 0 0 1 0 0 0 0 0 56:1 66:1 125:1 142:1 151:1 158:1 162:1 169:1 170:1 171:1 175:1 
-0 0 0 1 0 0 0 0 0 5:1 66:1 123:1 124:1 142:1 150:1 158:1 162:1 169:1 170:1 171:1 
-0 1 0 0 0 0 1 0 0 54:1 81:1 125:1 138:1 148:1 149:1 151:1 158:1 160:1 169:1 170:1 171:1 
-0 1 0 0 0 0 1 0 0 54:1 81:1 125:1 138:1 148:1 149:1 151:1 155:1 163:1 169:1 170:1 171:1 
-0.1929729813873872 0 0 1 1 0 1 1 0 58:1 81:1 125:1 138:1 148:1 150:1 158:1 160:1 167:1 170:1 171:1 175:1 
-0 0 0 0 0 0 1 0 0 17:1 81:1 124:1 138:1 148:1 149:1 151:1 156:1 162:1 169:1 170:1 171:1 181:1 
-0 0 0 0 0 0.1413277796505698 0 0 0 57:1 65:1 79:1 124:1 138:1 139:1 150:1 158:1 160:1 169:1 170:1 174:1 175:1 181:1 
-0 0 0 0 0 0 1 0 0 57:1 65:1 79:1 124:1 138:1 139:1 151:1 155:1 160:1 169:1 170:1 174:1 
-0 0 0 1 0 0 0 0 0 55:1 81:1 124:1 138:1 148:1 149:1 151:1 152:1 159:1 169:1 170:1 171:1 175:1 
-0 0 0 1 0 0 0 0 0 55:1 81:1 124:1 138:1 148:1 149:1 151:1 152:1 159:1 169:1 170:1 171:1 175:1 
-0 0 0 1 0 0 0 0 0 55:1 81:1 124:1 138:1 148:1 149:1 151:1 152:1 159:1 169:1 170:1 171:1 175:1 
-0 0 0 1 0 0 0 0 0 55:1 81:1 124:1 138:1 148:1 149:1 151:1 152:1 159:1 169:1 170:1 171:1 175:1 
-0 0 0 1 0 0 0 0 0.1884772636806744 18:1 66:1 127:1 142:1 148:1 151:1 158:1 162:1 169:1 170:1 171:1 
-0 0 0 0 0 0 1 0 0 57:1 81:1 124:1 138:1 148:1 149:1 151:1 158:1 160:1 169:1 170:1 171:1 
-0 0 0 1 0 0 0 0 0 55:1 81:1 124:1 138:1 148:1 149:1 151:1 152:1 159:1 169:1 170:1 171:1 175:1 
-0 1 0 1 0 0 0 0 0 58:1 81:1 124:1 138:1 148:1 149:1 151:1 158:1 165:1 169:1 170:1 171:1 188:1 
