svm_type c_svc
kernel_type rbf
gamma 0.00390625
nr_class 10
total_sv 4668
rho -1.0033 0.725931 -0.719995 -0.00791868 -0.776412 -0.218569 -0.99181 -1.00923 -0.982293 1.00079 1.0102 1.00084 1.00409 0.995368 -0.627999 -0.969711 -0.789807 -0.815108 -0.264784 -0.89179 -0.618348 -0.99396 -1.01334 -0.994463 0.334598 -0.573271 0.525627 -0.980872 -1.00771 -0.973421 -0.741626 0.118734 -1.01323 -0.980729 -0.991295 0.908289 -0.97215 -0.998286 -0.949918 -0.973494 -1.0062 -1.0021 -0.830553 -0.82481 0.764741
label 6 11 1 7 5 8 2 14 13 12
nr_sv 599 48 1468 462 580 262 1132 46 33 38
SV
0 1 0 1 0 0 0 0 0 57:1 118:1 123:1 124:1 136:1 148:1 154:1 161:1 165:1 172:1 181:1 185:1 186:1 187:1 188:1 189:1 190:1 191:1 215:1 256:1 
0 1 0 0 0 1 0 0 0 55:1 116:1 123:1 124:1 136:1 156:1 157:1 164:1 171:1 181:1 185:1 186:1 187:1 189:1 190:1 191:1 215:1 
0 1 0.1444125208786256 1 1 1 0 0 0 54:1 80:1 125:1 139:1 156:1 163:1 165:1 172:1 181:1 185:1 186:1 187:1 188:1 189:1 190:1 196:1 208:1 215:1 
0 1 0 0 0 1 0 0 0 55:1 116:1 123:1 124:1 136:1 156:1 161:1 164:1 171:1 181:1 185:1 186:1 187:1 189:1 190:1 216:1 225:1 
0 1 1 1 1 1 0.7209603720312874 0 1 18:1 119:1 127:1 137:1 156:1 159:1 167:1 172:1 181:1 183:1 186:1 187:1 256:0.25 
0 1 0 1 0 1 0 0 0 54:1 115:1 123:1 125:1 137:1 149:1 151:1 158:1 166:1 172:1 181:1 185:1 186:1 187:1 188:1 190:1 215:1 216:1 256:1 
1 1 1 1 1 1 0 0 0.5221152088071404 58:1 79:1 125:1 139:1 148:1 156:1 162:1 164:1 174:1 181:1 185:1 186:1 187:1 200:1 256:0.25 
0 1 1 1 1 1 0 0.5055059963507756 0.3652585179613994 18:1 79:1 123:1 126:1 139:1 155:1 163:1 167:1 174:1 181:1 185:1 186:1 187:1 189:1 190:1 
0 1 1 0 0 1 0 0 0 1:1 117:1 126:1 136:1 156:1 163:1 167:1 176:1 181:1 185:1 186:1 187:1 188:1 
0 1 1 1 1 1 0 0 0 56:1 62:1 124:1 138:1 156:1 163:1 169:1 174:1 181:1 185:1 186:1 187:1 188:1 
0.4877706969293372 1 1 1 1 1 0 0 0 19:1 117:1 126:1 136:1 148:1 149:1 156:1 163:1 167:1 176:1 181:1 185:1 186:1 187:1 188:1 256:0.25 
0 1 1 1 0 1 0 0 0 55:1 116:1 123:1 124:1 136:1 148:1 149:1 150:1 160:1 164:1 171:1 181:1 185:1 186:1 187:1 189:1 190:1 215:1 216:1 
0 1 1 1 0 1 0 1 0.8399882790428329 18:1 119:1 127:1 137:1 156:1 161:1 165:1 172:1 181:1 185:1 186:1 187:1 189:1 190:1 197:1 209:1 216:1 256:0.25 
0 1 1 1 1 1 0 0 0 58:1 117:1 125:1 139:1 156:1 163:1 165:1 174:1 179:1 185:1 186:1 187:1 188:1 201:1 215:1 
1 1 1 1 1 1 0 1 0 56:1 79:1 124:1 139:1 156:1 163:1 169:1 176:1 181:1 185:1 186:1 187:1 188:1 189:1 190:1 196:1 208:1 
0 1 1 1 0 1 0 0 0 56:1 116:1 124:1 136:1 150:1 157:1 169:1 171:1 181:1 185:1 186:1 187:1 188:1 190:1 216:1 
0 1 0 1 0 1 0 0 0 55:1 116:1 123:1 124:1 137:1 148:1 153:1 157:1 164:1 171:1 181:1 185:1 186:1 187:1 189:1 190:1 191:1 215:1 
0 1 1 1 1 1 0 0 0 55:1 119:1 124:1 137:1 148:1 149:1 150:1 157:1 164:1 171:1 181:1 185:1 186:1 188:1 189:1 215:1 216:1 
0 1 0 0.4197393956378817 0 1 0 0 0 55:1 116:1 123:1 124:1 136:1 156:1 163:1 164:1 171:1 181:1 185:1 186:1 187:1 188:1 189:1 190:1 233:1 
0 1 1 0 1 1 0 0 0.3390180739548686 56:1 116:1 124:1 136:1 150:1 163:1 169:1 171:1 181:1 185:1 186:1 187:1 190:1 233:1 
0 1 1 1 0 1 0 0 0 55:1 118:1 124:1 136:1 148:1 150:1 161:1 164:1 172:1 181:1 185:1 186:1 187:1 190:1 196:1 208:1 215:1 
0 1 1 1 0 1 0 0 0 18:1 117:1 127:1 136:1 156:1 163:1 167:1 176:1 181:1 185:1 186:1 187:1 188:1 
0 1 1 1 1 1 0 0 0 55:1 118:1 124:1 136:1 148:1 150:1 163:1 164:1 172:1 181:1 185:1 186:1 187:1 190:1 215:1 243:1 
0 1 1 0 1 1 0 0 0 58:1 116:1 124:1 136:1 156:1 157:1 170:1 171:1 181:1 185:1 186:1 187:1 190:1 216:1 223:1 
0 1 1 0 1 1 0 0 0 58:1 116:1 124:1 136:1 156:1 161:1 170:1 171:1 181:1 185:1 186:1 187:1 190:1 216:1 
0 1 1 1 1 1 0 0 0.360260482730655 18:1 119:1 127:1 136:1 156:1 163:1 167:1 177:1 181:1 185:1 186:1 187:1 188:1 
0 1 0 1 0 1 0 0 0 55:1 116:1 123:1 124:1 137:1 156:1 157:1 164:1 171:1 181:1 185:1 186:1 187:1 189:1 190:1 191:1 215:1 256:0.75 
0 1 0 1 0 0 0 0 0 55:1 116:1 123:1 124:1 136:1 148:1 149:1 150:1 157:1 164:1 171:1 181:1 185:1 186:1 187:1 188:1 189:1 190:1 215:1 216:1 222:1 256:1 
0 1 1 0 0 1 0 0 0 55:1 117:1 124:1 136:1 153:1 160:1 164:1 176:1 181:1 185:1 186:1 187:1 188:1 190:1 215:1 
0 1 0 1 0 1 0 0 0 55:1 116:1 123:1 124:1 136:1 148:1 150:1 157:1 164:1 171:1 181:1 185:1 186:1 187:1 188:1 189:1 190:1 215:1 256:1 
0 1 1 1 1 1 0 0 0 58:1 116:1 124:1 136:1 148:1 156:1 157:1 165:1 171:1 181:1 185:1 186:1 187:1 190:1 216:1 240:1 
0 1 0 0 1 1 0.1634608160440006 0 0 55:1 62:1 124:1 140:1 152:1 162:1 164:1 171:1 181:1 185:1 186:1 187:1 189:1 190:1 215:1 
0 1 0 0 1 1 0 0.4071058383714158 0 55:1 117:1 124:1 138:1 154:1 163:1 164:1 174:1 181:1 185:1 186:1 187:1 193:1 205:1 
0 1 1 1 1 1 0 0 0 55:1 119:1 124:1 136:1 148:1 149:1 153:1 160:1 164:1 177:1 181:1 185:1 186:1 187:1 188:1 190:1 215:1 216:1 256:1 
0 1 0 1 0 1 0 0 0 55:1 116:1 123:1 124:1 136:1 149:1 150:1 157:1 164:1 171:1 181:1 185:1 186:1 187:1 188:1 189:1 190:1 215:1 216:1 256:1 
0.07242172812427322 1 0 1 0 1 0 0 0 17:1 78:1 123:1 124:1 136:1 148:1 149:1 155:1 162:1 165:1 172:1 181:1 185:1 186:1 187:1 188:1 189:1 190:1 
0.6836737811146534 1 0 1 0 1 0 0 0 17:1 119:1 124:1 137:1 149:1 155:1 162:1 165:1 172:1 181:1 185:1 186:1 187:1 188:1 189:1 190:1 216:1 
0 1 1 1 1 1 0 0 0 18:1 116:1 127:1 136:1 148:1 149:1 156:1 163:1 167:1 171:1 181:1 185:1 186:1 187:1 188:1 216:1 
0 1 1 1 0 1 0 0 0 55:1 116:1 123:1 124:1 136:1 149:1 150:1 160:1 164:1 171:1 181:1 185:1 186:1 187:1 189:1 190:1 215:1 216:1 
0 1 1 1 1 1 0 0 0 55:1 116:1 123:1 124:1 136:1 148:1 149:1 153:1 157:1 164:1 171:1 181:1 185:1 186:1 187:1 189:1 190:1 216:1 
0 1 0 0 0 1 0 0 0 55:1 116:1 123:1 124:1 136:1 153:1 157:1 164:1 171:1 181:1 185:1 186:1 187:1 189:1 190:1 
0.5716383701653877 1 1 1 1 1 0 0 0 19:1 117:1 127:1 139:1 156:1 163:1 167:1 174:1 181:1 185:1 186:1 187:1 188:1 189:1 190:1 
0 1 1 0 0 1 0 0 0 19:1 78:1 124:1 136:1 156:1 162:1 165:1 172:1 181:1 185:1 186:1 187:1 189:1 190:1 248:1 
0.1014160373695838 1 1 0 1 1 0 0.009139328457635387 0 54:1 117:1 125:1 137:1 148:1 153:1 163:1 165:1 176:1 181:1 185:1 186:1 187:1 190:1 216:1 
0 1 1 1 1 1 0 0 0.6198933231673934 56:1 79:1 125:1 139:1 156:1 163:1 165:1 174:1 178:1 185:1 186:1 187:1 188:1 256:0.25 
0 1 1 1 0.5597237087258418 1 0 0 0 56:1 78:1 127:1 136:1 148:1 156:1 163:1 167:1 172:1 181:1 185:1 186:1 187:1 188:1 248:1 256:0.75 
0 1 0 1 0 1 0 0 0 58:1 119:1 123:1 125:1 136:1 148:1 152:1 159:1 165:1 172:1 179:1 183:1 186:1 187:1 188:1 189:1 190:1 191:1 
0 1 1 1 1 1 0 0 0 57:1 116:1 124:1 136:1 148:1 154:1 157:1 165:1 171:1 181:1 185:1 186:1 187:1 190:1 196:1 208:1 216:1 
0 1 1 1 1 1 0 0 0.4426081410071019 18:1 119:1 127:1 136:1 156:1 163:1 167:1 177:1 181:1 185:1 186:1 187:1 188:1 223:1 256:0.25 
0 1 1 1 0.7966716767660104 1 0 0 0 56:1 116:1 124:1 136:1 148:1 153:1 157:1 169:1 171:1 181:1 185:1 186:1 187:1 190:1 195:1 207:1 216:1 
0 1 0.8281039377327456 0 1 1 0 0 0 58:1 78:1 125:1 136:1 148:1 153:1 161:1 165:1 172:1 179:1 185:1 186:1 187:1 190:1 
0 1 1 1 0 1 0 0 0 55:1 116:1 123:1 124:1 136:1 148:1 149:1 153:1 157:1 164:1 171:1 181:1 185:1 186:1 187:1 189:1 190:1 215:1 216:1 
0 1 1 1 0 1 0 0 0 56:1 116:1 124:1 136:1 148:1 156:1 163:1 169:1 171:1 181:1 185:1 186:1 187:1 188:1 190:1 195:1 207:1 216:1 
0.262480687434636 1 1 1 1 1 0 0.5855143696993361 0 56:1 79:1 124:1 139:1 156:1 163:1 169:1 176:1 181:1 185:1 186:1 187:1 188:1 189:1 190:1 196:1 208:1 
0.0402161236741764 1 1 0 0.7964737903829135 1 1 0 0 55:1 115:1 124:1 137:1 152:1 163:1 164:1 175:1 181:1 185:1 186:1 187:1 190:1 194:1 215:1 216:1 
0.9014677000223681 1 1 1 0 1 0 0.8509016695852973 1 19:1 119:1 127:1 137:1 156:1 160:1 164:1 172:1 181:1 183:1 186:1 187:1 190:1 
0 1 1 1 1 1 0.9688763649716559 0 0 18:1 62:1 124:1 140:1 148:1 156:1 162:1 165:1 171:1 181:1 185:1 186:1 
0 1 1 1 1 1 0.1488000497848059 0 0 18:1 116:1 127:1 136:1 148:1 156:1 157:1 166:1 171:1 181:1 185:1 186:1 187:1 190:1 216:1 
0 1 1 1 1 1 0 0.01330734091237802 0 55:1 79:1 124:1 139:1 149:1 155:1 163:1 164:1 173:1 181:1 185:1 186:1 187:1 190:1 
0 1 1 1 0 1 0 0 0 56:1 115:1 124:1 137:1 149:1 150:1 157:1 169:1 172:1 181:1 185:1 186:1 187:1 188:1 190:1 216:1 256:1 
1 1 1 1 1 1 0 0 0 58:1 115:1 125:1 137:1 149:1 156:1 161:1 164:1 172:1 181:1 185:1 186:1 187:1 190:1 216:1 
0 1 1 0 1 1 0 0 0.03357308034476354 58:1 116:1 124:1 136:1 156:1 160:1 170:1 171:1 181:1 185:1 186:1 187:1 190:1 216:1 
0 1 0 1 0 1 0 0 0 55:1 116:1 123:1 124:1 136:1 148:1 149:1 153:1 160:1 164:1 171:1 181:1 185:1 186:1 187:1 188:1 189:1 190:1 215:1 216:1 222:1 
0 1 1 0.4724709142235404 0.8153407154815021 1 0 0 0.2118821056527483 1:1 119:1 128:1 137:1 148:1 154:1 163:1 164:1 171:1 181:1 185:1 186:1 189:1 
0 1 1 0 0 1 0 0 0.1484550497548384 54:1 117:1 125:1 136:1 156:1 163:1 166:1 176:1 181:1 185:1 186:1 187:1 188:1 190:1 201:1 229:1 
0 1 1 1 0 1 0 0 0 56:1 116:1 124:1 136:1 156:1 163:1 169:1 171:1 181:1 185:1 186:1 187:1 188:1 190:1 248:1 256:0.25 
0.02915894307589931 1 1 1 0 1 0 0 1 19:1 116:1 127:1 136:1 156:1 163:1 164:1 171:1 181:1 185:1 186:1 187:1 188:1 189:1 190:1 197:1 209:1 256:0.25 
1 1 1 1 1 1 0 1 0 55:1 79:1 124:1 139:1 156:1 163:1 164:1 171:1 181:1 185:1 186:1 187:1 188:1 189:1 190:1 196:1 208:1 256:0.25 
1 1 1 1 1 1 0 0 0.3998683180543161 18:1 117:1 127:1 139:1 156:1 163:1 167:1 174:1 181:1 185:1 186:1 187:1 188:1 189:1 190:1 
0.242644204030232 1 1 1 0 1 0 0.3343894359598552 0 58:1 117:1 125:1 137:1 156:1 163:1 170:1 176:1 181:1 185:1 186:1 187:1 188:1 190:1 199:1 211:1 225:1 256:0.25 
0 1 0 1 0 1 0 0 0 58:1 116:1 125:1 136:1 156:1 163:1 164:1 171:1 181:1 185:1 186:1 187:1 188:1 189:1 190:1 215:1 225:1 256:0.25 
0 1 1 0 0.8339337907477832 1 0 0 0 56:1 116:1 124:1 136:1 156:1 157:1 169:1 171:1 181:1 185:1 186:1 187:1 190:1 216:1 
0 1 1 1 0 1 0 0 0 19:1 119:1 126:1 136:1 156:1 163:1 167:1 177:1 181:1 185:1 186:1 187:1 188:1 256:0.25 
0 1 1 1 1 1 0 0 0 54:1 117:1 125:1 136:1 148:1 156:1 157:1 168:1 176:1 181:1 185:1 186:1 187:1 190:1 
0 1 1 1 1 1 0 0 0 55:1 79:1 124:1 139:1 148:1 156:1 163:1 164:1 174:1 181:1 185:1 186:1 187:1 188:1 201:1 248:1 256:0.25 
0 1 1 1 0.4705758824174099 1 0 0 0 55:1 116:1 123:1 125:1 136:1 148:1 149:1 150:1 157:1 164:1 171:1 181:1 185:1 186:1 187:1 188:1 189:1 190:1 216:1 
0.8917918811029728 1 0.1523236301366757 1 1 1 0 1 0 54:1 79:1 125:1 136:1 152:1 159:1 168:1 172:1 181:1 185:1 186:1 187:1 188:1 190:1 
0 1 0 1 0 1 0 0 0 55:1 116:1 123:1 124:1 137:1 148:1 153:1 160:1 164:1 171:1 181:1 185:1 186:1 187:1 188:1 189:1 190:1 191:1 215:1 
0 1 1 1 1 1 0 0 0 58:1 79:1 124:1 136:1 148:1 156:1 160:1 170:1 176:1 181:1 185:1 186:1 187:1 190:1 215:1 256:0.25 
0 1 1 1 1 1 0.4520757415498064 0 0 54:1 116:1 125:1 136:1 148:1 149:1 154:1 157:1 168:1 171:1 181:1 185:1 186:1 187:1 190:1 216:1 
0.05736325729172465 1 0.9131999107197418 1 1 1 0 0 0 55:1 80:1 124:1 139:1 152:1 163:1 164:1 174:1 181:1 185:1 186:1 187:1 202:1 215:1 256:0.25 
0 1 1 0 0 1 0 0 0.2336427339812688 56:1 116:1 124:1 136:1 156:1 163:1 169:1 171:1 181:1 185:1 186:1 187:1 188:1 190:1 192:1 248:1 
0 1 1 1 1 1 0 0 0 54:1 115:1 123:1 125:1 139:1 148:1 151:1 160:1 168:1 174:1 181:1 185:1 186:1 187:1 
0 1 0 0 0 1 0 0.0191006570661738 0 54:1 115:1 123:1 125:1 136:1 151:1 160:1 168:1 172:1 181:1 185:1 186:1 187:1 190:1 193:1 205:1 
0 1 0 1 0 0 0 0 0 55:1 116:1 123:1 124:1 136:1 148:1 149:1 150:1 157:1 164:1 171:1 181:1 185:1 186:1 187:1 188:1 189:1 190:1 215:1 216:1 256:1 
0 1 1 1 0 1 0 0 0 58:1 116:1 125:1 136:1 156:1 163:1 164:1 171:1 181:1 185:1 186:1 187:1 188:1 189:1 190:1 
0 1 1 1 1 1 1 0 0 54:1 80:1 125:1 139:1 148:1 156:1 163:1 166:1 175:1 181:1 185:1 186:1 187:1 188:1 190:1 215:1 
0.1495072236040889 1 1 0 0 1 0 1 0 58:1 117:1 125:1 137:1 156:1 163:1 170:1 176:1 181:1 185:1 186:1 187:1 188:1 190:1 193:1 205:1 215:1 216:1 223:1 
0 1 0.1417920041260084 1 1 1 0.5711012801825807 0.9202124635598302 0 56:1 79:1 124:1 139:1 156:1 163:1 165:1 172:1 178:1 182:1 186:1 187:1 188:1 189:1 190:1 196:1 208:1 215:1 256:0.25 
0 1 1 1 1 1 0 0 0 17:1 79:1 124:1 137:1 156:1 163:1 165:1 175:1 181:1 185:1 186:1 187:1 188:1 190:1 
0 1 1 1 0.6300796518798684 1 0.580895121698071 0 0 54:1 118:1 125:1 136:1 156:1 163:1 168:1 172:1 181:1 185:1 186:1 187:1 188:1 190:1 
0.9900197937505626 1 1 1 1 1 0.2112268101865368 0 0 54:1 79:1 125:1 138:1 156:1 163:1 168:1 174:1 181:1 185:1 186:1 187:1 188:1 222:1 
0 1 1 1 0 1 1 0 0 56:1 115:1 124:1 137:1 156:1 163:1 169:1 175:1 181:1 185:1 186:1 187:1 188:1 190:1 
0 1 1 0 0 1 0 0 0 56:1 117:1 123:1 124:1 136:1 156:1 163:1 169:1 176:1 181:1 185:1 186:1 187:1 188:1 189:1 190:1 195:1 207:1 215:1 
0 1 0 0 0 1 0 0 0.2316255266868323 55:1 116:1 123:1 124:1 136:1 150:1 163:1 164:1 171:1 181:1 185:1 186:1 187:1 189:1 190:1 192:1 215:1 
0 1 0 1 1 1 0 0 0 58:1 119:1 123:1 125:1 139:1 156:1 163:1 164:1 174:1 181:1 185:1 186:1 187:1 188:1 191:1 
0 1 0 1 1 1 0 0 0 58:1 62:1 125:1 139:1 156:1 163:1 164:1 174:1 181:1 185:1 186:1 187:1 188:1 191:1 256:0.25 
0 1 1 0 0 1 0 0 0 55:1 119:1 124:1 136:1 150:1 163:1 164:1 177:1 181:1 185:1 186:1 187:1 190:1 191:1 215:1 
0 1 0 1 0 1 0 0 0 55:1 116:1 123:1 124:1 136:1 148:1 156:1 163:1 164:1 171:1 181:1 185:1 186:1 187:1 188:1 189:1 190:1 191:1 215:1 
0 1 0 0 0 1 0 0 0 55:1 116:1 123:1 124:1 136:1 156:1 163:1 164:1 171:1 181:1 185:1 186:1 187:1 188:1 189:1 190:1 191:1 215:1 
0 1 0 1 1 1 0 0 0 54:1 79:1 125:1 138:1 150:1 157:1 165:1 174:1 181:1 185:1 187:1 188:1 191:1 215:1 248:1 
0 1 1 0 0 1 0.1882090026815578 0 0.1378134168680182 56:1 116:1 125:1 137:1 156:1 163:1 169:1 171:1 181:1 185:1 186:1 187:1 188:1 190:1 195:1 207:1 216:1 
0 1 1 1 0 1 0 0 0 55:1 116:1 123:1 124:1 136:1 148:1 149:1 156:1 163:1 164:1 171:1 181:1 185:1 186:1 187:1 188:1 189:1 190:1 216:1 241:1 
0 1 1 1 1 1 0 0 0 55:1 119:1 124:1 140:1 149:1 156:1 163:1 164:1 174:1 181:1 185:1 186:1 187:1 188:1 215:1 216:1 
0 1 1 0 0 1 0 0 0 19:1 78:1 127:1 136:1 156:1 161:1 167:1 172:1 181:1 185:1 186:1 187:1 191:1 
0 1 1 1 1 1 0 0.2800656463990486 0 18:1 79:1 123:1 127:1 139:1 156:1 163:1 164:1 171:1 181:1 185:1 186:1 187:1 188:1 189:1 190:1 248:1 256:0.25 
0 1 0 0 0 1 0 0 0 55:1 116:1 123:1 124:1 136:1 156:1 163:1 164:1 171:1 181:1 185:1 186:1 187:1 188:1 189:1 190:1 191:1 
0 1 0 0 0 1 0 0 0 55:1 116:1 123:1 124:1 136:1 156:1 163:1 164:1 171:1 181:1 185:1 186:1 187:1 188:1 189:1 190:1 
0 1 0 0 0 1 0 0 0 56:1 117:1 123:1 124:1 136:1 156:1 163:1 169:1 176:1 181:1 185:1 186:1 187:1 188:1 189:1 190:1 191:1 225:1 256:0.25 
0 1 1 0 1 1 0.5108727633493338 0 0 56:1 116:1 125:1 136:1 150:1 163:1 164:1 171:1 178:1 185:1 186:1 187:1 190:1 215:1 225:1 256:0.25 
0 1 0 0 0 1 0 0 0 55:1 119:1 124:1 137:1 156:1 163:1 164:1 177:1 181:1 185:1 186:1 187:1 188:1 190:1 191:1 215:1 
0 1 1 0 0 1 1 0 0 55:1 115:1 124:1 137:1 155:1 163:1 164:1 175:1 181:1 185:1 186:1 187:1 190:1 215:1 240:1 
0 1 1 1 1 1 0 0.5901195174348788 0 18:1 79:1 123:1 127:1 139:1 156:1 163:1 165:1 174:1 181:1 185:1 186:1 187:1 188:1 
0 1 0 0 0 1 0 0 0 56:1 117:1 123:1 124:1 136:1 156:1 163:1 169:1 176:1 181:1 185:1 186:1 187:1 188:1 189:1 190:1 191:1 256:0.25 
0 1 1 1 1 1 0 0 0 1:1 79:1 125:1 139:1 156:1 163:1 164:1 174:1 181:1 185:1 186:1 187:1 188:1 
0 1 1 1 1 1 0 0 0 58:1 80:1 125:1 139:1 156:1 163:1 165:1 174:1 179:1 185:1 186:1 187:1 188:1 215:1 223:1 256:0.25 
0 1 1 1 0 1 1 0 0 55:1 119:1 124:1 137:1 156:1 163:1 164:1 171:1 181:1 185:1 186:1 187:1 188:1 189:1 190:1 215:1 256:0.25 
0.3412424631048236 1 1 1 1 1 0 0 0.192593937472003 58:1 117:1 125:1 137:1 156:1 163:1 164:1 171:1 181:1 182:1 186:1 187:1 188:1 190:1 256:0.25 
0.1186849612404594 1 1 1 1 1 0 1 0.1046231673531997 58:1 79:1 125:1 139:1 156:1 163:1 164:1 176:1 181:1 185:1 186:1 187:1 188:1 190:1 
0 1 1 0 0 1 0 0 0.1259836438779248 58:1 116:1 125:1 136:1 153:1 157:1 165:1 171:1 178:1 185:1 186:1 187:1 190:1 216:1 
0 1 1 0 0 1 0 0 0 54:1 115:1 123:1 125:1 136:1 148:1 156:1 160:1 168:1 172:1 181:1 185:1 186:1 187:1 190:1 191:1 256:0.25 
0 1 1 0 0 1 1 0 0 56:1 115:1 125:1 137:1 153:1 163:1 169:1 175:1 181:1 185:1 186:1 187:1 190:1 194:1 215:1 216:1 
0.9434513223895127 1 1 0 0.01593065158438009 1 0 1 0 55:1 117:1 124:1 137:1 156:1 160:1 164:1 176:1 181:1 185:1 186:1 187:1 190:1 193:1 205:1 215:1 216:1 
0 1 0 0 1 1 0 0 0 54:1 115:1 123:1 125:1 137:1 156:1 163:1 165:1 174:1 181:1 185:1 186:1 187:1 188:1 191:1 
0 1 0.2492629932930039 1 1 1 0 0 0 58:1 80:1 124:1 138:1 156:1 163:1 170:1 174:1 181:1 185:1 186:1 187:1 188:1 
0 1 1 0.358761593616815 0 1 0 0 0 56:1 119:1 124:1 136:1 156:1 163:1 169:1 177:1 181:1 185:1 186:1 187:1 188:1 190:1 
0 1 1 1 1 1 0 0 0 18:1 116:1 127:1 136:1 148:1 156:1 160:1 167:1 171:1 181:1 185:1 186:1 187:1 216:1 256:0.25 
0 1 1 1 0 1 0 0 0 18:1 117:1 127:1 136:1 156:1 163:1 167:1 176:1 181:1 185:1 186:1 187:1 188:1 256:0.25 
0 1 1 0 0 1 0 0 0 56:1 117:1 123:1 124:1 136:1 156:1 157:1 169:1 176:1 181:1 185:1 186:1 187:1 189:1 190:1 191:1 256:0.25 
0 1 1 1 1 1 0 0 0 56:1 78:1 125:1 136:1 148:1 149:1 156:1 163:1 165:1 172:1 178:1 185:1 186:1 187:1 188:1 190:1 
0 1 1 1 0.7124214684334043 1 0 0 0 56:1 116:1 124:1 137:1 156:1 163:1 169:1 171:1 181:1 185:1 186:1 187:1 188:1 190:1 224:1 256:1 
0 1 1 0 0 1 0 0 0 58:1 117:1 124:1 136:1 156:1 163:1 170:1 176:1 181:1 185:1 186:1 187:1 188:1 190:1 248:1 256:0.25 
0 1 0 0 0 1 0 0 0 56:1 117:1 123:1 124:1 136:1 156:1 163:1 169:1 176:1 181:1 185:1 186:1 187:1 188:1 189:1 190:1 191:1 256:0.25 
0 1 0 1 0 1 0 0 0 55:1 116:1 123:1 124:1 136:1 148:1 150:1 163:1 164:1 171:1 181:1 185:1 186:1 187:1 189:1 190:1 215:1 224:1 
0 1 0 0 1 1 0 0 0 54:1 115:1 123:1 125:1 137:1 156:1 163:1 165:1 174:1 181:1 185:1 186:1 187:1 188:1 191:1 
0 1 1 1 1 1 0 0 0 58:1 80:1 124:1 138:1 156:1 163:1 170:1 174:1 181:1 185:1 186:1 187:1 188:1 
0 1 1 0.9017392941049605 0 1 0 0 0 56:1 119:1 124:1 136:1 156:1 163:1 169:1 177:1 181:1 185:1 186:1 187:1 188:1 190:1 
0 1 1 1 1 1 0 0 0.5468039503208636 18:1 116:1 127:1 136:1 148:1 156:1 160:1 167:1 171:1 181:1 185:1 186:1 187:1 216:1 256:0.25 
0 1 1 1 0 1 0 0 0 18:1 117:1 127:1 136:1 156:1 163:1 167:1 176:1 181:1 185:1 186:1 187:1 188:1 256:0.25 
0 1 1 1 1 1 0 0 0.3563534176584927 58:1 80:1 125:1 139:1 156:1 163:1 165:1 174:1 179:1 185:1 186:1 187:1 188:1 215:1 223:1 256:0.25 
0 1 0 0 0 1 0 0 0 55:1 116:1 123:1 124:1 136:1 156:1 163:1 164:1 171:1 181:1 185:1 186:1 187:1 188:1 189:1 190:1 191:1 
0 1 1 1 1 1 0 0 0.1008081175663984 56:1 116:1 124:1 136:1 148:1 156:1 157:1 165:1 171:1 178:1 185:1 186:1 187:1 190:1 216:1 
0.06002861066756405 1 1 1 1 1 0 0 0 58:1 79:1 125:1 139:1 156:1 163:1 164:1 181:1 186:1 187:1 188:1 224:1 
0 1 1 0 0 1 0 0 0 56:1 117:1 123:1 124:1 136:1 148:1 156:1 157:1 169:1 176:1 181:1 185:1 186:1 187:1 189:1 190:1 191:1 222:1 
1 1 1 1 1 1 0 0.4027853637527128 0 18:1 117:1 127:1 137:1 148:1 149:1 156:1 163:1 167:1 172:1 181:1 182:1 186:1 187:1 188:1 256:0.25 
0 1 1 1 0 1 0 0 0 57:1 78:1 124:1 136:1 148:1 150:1 157:1 165:1 172:1 181:1 185:1 186:1 187:1 188:1 189:1 190:1 215:1 224:1 
0 1 1 0 0 1 0 0 0 56:1 117:1 123:1 124:1 136:1 148:1 156:1 157:1 169:1 176:1 181:1 185:1 186:1 187:1 189:1 190:1 191:1 
0 1 1 0 0 1 0 0 0 56:1 119:1 124:1 136:1 156:1 157:1 169:1 177:1 181:1 185:1 186:1 187:1 190:1 216:1 240:1 
0.4641435260341262 1 1 0 1 1 0 0 0.18223392184327 58:1 116:1 124:1 138:1 156:1 159:1 170:1 174:1 181:1 185:1 186:1 187:1 
0 1 1 1 1 1 0 0 0 55:1 79:1 124:1 139:1 148:1 156:1 163:1 164:1 174:1 181:1 185:1 186:1 187:1 188:1 215:1 
0.4521872439281004 1 1 1 1 1 0 0.18471837154816 0 1:1 79:1 127:1 139:1 153:1 163:1 167:1 174:1 181:1 185:1 186:1 187:1 189:1 190:1 
0 1 0 1 0 0 0 0 0 55:1 116:1 123:1 124:1 136:1 148:1 149:1 150:1 157:1 164:1 171:1 181:1 185:1 186:1 187:1 188:1 189:1 190:1 215:1 216:1 256:1 
0 1 1 1 0 1 1 0 0.5254697789090649 54:1 117:1 125:1 136:1 156:1 163:1 168:1 176:1 181:1 185:1 186:1 187:1 188:1 190:1 192:1 256:0.25 
0 1 0 1 1 1 0 0 0 55:1 79:1 124:1 136:1 156:1 163:1 164:1 171:1 181:1 185:1 186:1 187:1 188:1 189:1 190:1 215:1 225:1 
0.1417513482881267 1 1 0 1 1 0 0 0 58:1 117:1 125:1 136:1 156:1 163:1 167:1 176:1 181:1 185:1 186:1 187:1 188:1 201:1 
0 1 0 1 0 1 0 0 0.02921189410413657 55:1 116:1 123:1 125:1 136:1 148:1 153:1 160:1 164:1 171:1 181:1 185:1 186:1 187:1 188:1 189:1 190:1 192:1 215:1 
0 1 1 1 1 1 0.4874290106468746 0 0 18:1 79:1 123:1 127:1 136:1 148:1 156:1 163:1 167:1 174:1 181:1 185:1 186:1 187:1 188:1 189:1 190:1 256:0.25 
0 1 0 1 0 0 0 0 0 57:1 118:1 123:1 124:1 136:1 148:1 149:1 154:1 161:1 165:1 172:1 181:1 185:1 186:1 187:1 188:1 189:1 190:1 215:1 216:1 256:1 
0 1 0 1 0 1 0 0 0 54:1 118:1 124:1 136:1 148:1 149:1 154:1 161:1 165:1 172:1 181:1 185:1 186:1 187:1 188:1 189:1 190:1 215:1 237:1 256:1 
0 1 0 1 0 1 0 0 0 55:1 116:1 123:1 124:1 136:1 148:1 149:1 153:1 160:1 164:1 171:1 181:1 185:1 186:1 187:1 188:1 189:1 190:1 215:1 216:1 
0 1 1 1 0.1261809622266234 1 0 0 0 55:1 116:1 123:1 124:1 136:1 148:1 149:1 150:1 160:1 164:1 171:1 181:1 185:1 186:1 187:1 189:1 190:1 215:1 216:1 241:1 
0 1 0 0 0 1 0 0 0 55:1 116:1 123:1 124:1 136:1 156:1 163:1 164:1 171:1 181:1 185:1 186:1 187:1 188:1 189:1 190:1 192:1 215:1 248:1 
0 1 1 0.2037429792430632 0 1 0 0 0 54:1 117:1 125:1 136:1 156:1 163:1 165:1 176:1 181:1 185:1 186:1 187:1 188:1 190:1 256:0.25 
0 1 1 1 1 1 0 0 0 58:1 80:1 125:1 138:1 148:1 154:1 163:1 165:1 174:1 181:1 185:1 186:1 187:1 
0 1 0 0 0 1 0 0 0 56:1 117:1 123:1 125:1 136:1 153:1 160:1 168:1 176:1 181:1 185:1 186:1 187:1 188:1 190:1 201:1 215:1 256:0.25 
0 1 1 1 1 1 0 0 0 17:1 116:1 124:1 137:1 150:1 157:1 165:1 171:1 181:1 185:1 186:1 187:1 188:1 190:1 191:1 
0 1 1 1 1 1 0 0 0 57:1 62:1 124:1 140:1 148:1 149:1 150:1 161:1 165:1 172:1 181:1 185:1 186:1 187:1 189:1 190:1 215:1 
0.5186780581996815 1 1 1 1 1 0 0.5976977149982324 0 18:1 79:1 123:1 125:1 139:1 151:1 163:1 168:1 175:1 181:1 185:1 186:1 187:1 189:1 190:1 196:1 208:1 
0 1 0 1 0 1 0 0 0 54:1 115:1 123:1 125:1 137:1 150:1 158:1 165:1 172:1 181:1 185:1 186:1 187:1 189:1 190:1 
1 1 1 1 1 1 1 1 0 54:1 79:1 125:1 139:1 156:1 163:1 168:1 175:1 181:1 185:1 186:1 187:1 188:1 189:1 190:1 196:1 208:1 
0 1 1 0 0 1 0 0.04341520679935765 0.06849689251904195 56:1 117:1 123:1 125:1 136:1 148:1 156:1 160:1 165:1 176:1 178:1 185:1 186:1 187:1 190:1 193:1 205:1 215:1 223:1 
0 1 1 1 0 1 0 0 0 18:1 117:1 127:1 136:1 156:1 163:1 167:1 176:1 181:1 185:1 186:1 187:1 188:1 243:1 256:0.25 
0 1 0 1 1 1 0 0 0 58:1 80:1 124:1 139:1 156:1 163:1 170:1 174:1 181:1 185:1 186:1 187:1 188:1 256:0.25 
0 1 1 0 0 1 0 0 0 55:1 117:1 124:1 136:1 156:1 163:1 164:1 176:1 181:1 185:1 186:1 187:1 188:1 190:1 195:1 207:1 215:1 
0 1 1 1 0 1 1 0 0 55:1 117:1 124:1 136:1 148:1 156:1 163:1 164:1 176:1 181:1 185:1 186:1 187:1 188:1 190:1 195:1 207:1 215:1 223:1 256:0.25 
0 1 1 0 0 1 0 0 0 55:1 117:1 124:1 136:1 156:1 163:1 164:1 176:1 181:1 185:1 186:1 187:1 188:1 190:1 195:1 207:1 215:1 256:0.25 
0 1 1 0 0 1 0 0 0 55:1 117:1 124:1 136:1 156:1 163:1 164:1 176:1 181:1 185:1 186:1 187:1 188:1 190:1 195:1 207:1 215:1 256:0.25 
0.3355193562163288 1 1 1 1 1 0.7944987703163077 0.4531552180407614 0.2042744340610848 58:1 80:1 125:1 139:1 156:1 163:1 165:1 172:1 179:1 183:1 186:1 187:1 188:1 189:1 190:1 196:1 208:1 
0 1 1 1 1 1 0 0 0 58:1 116:1 124:1 136:1 156:1 163:1 170:1 171:1 181:1 185:1 186:1 187:1 188:1 190:1 222:1 256:1 
0 1 1 1 1 1 1 0 1 18:1 116:1 127:1 136:1 156:1 163:1 167:1 171:1 181:1 185:1 186:1 187:1 188:1 
0.7676885476552295 1 1 1 1 1 0 0.445178317263397 0.959524094712235 55:1 119:1 124:1 137:1 148:1 152:1 163:1 164:1 171:1 181:1 183:1 186:1 187:1 190:1 225:1 
0 1 1 1 0 1 0 0 0 1:1 78:1 128:1 136:1 148:1 149:1 154:1 161:1 167:1 172:1 181:1 185:1 186:1 187:1 188:1 
0 1 1 0 0 1 0 0 0 56:1 116:1 124:1 136:1 156:1 157:1 169:1 171:1 181:1 185:1 186:1 187:1 190:1 195:1 207:1 216:1 248:1 
0 1 1 1 1 1 0.1061495267299055 0 0 58:1 116:1 125:1 136:1 148:1 156:1 163:1 164:1 171:1 181:1 185:1 186:1 187:1 188:1 189:1 190:1 243:1 
0 1 1 0 0 1 0.3616075146201167 0 0 1:1 117:1 128:1 136:1 148:1 154:1 163:1 165:1 176:1 179:1 185:1 186:1 187:1 190:1 195:1 207:1 
0 1 1 0 1 1 0 0 0 55:1 118:1 124:1 136:1 150:1 158:1 164:1 172:1 181:1 185:1 186:1 187:1 190:1 215:1 
0 1 0 1 0 0 0 0 0 55:1 116:1 123:1 124:1 136:1 148:1 149:1 150:1 157:1 164:1 171:1 181:1 185:1 186:1 187:1 188:1 189:1 190:1 215:1 216:1 256:1 
0 1 0 1 0 0 0 0 0 55:1 116:1 123:1 124:1 136:1 148:1 149:1 150:1 157:1 164:1 171:1 181:1 185:1 186:1 187:1 188:1 189:1 190:1 215:1 216:1 223:1 256:1 
0 1 1 1 0 1 0.05633552861257708 0 1 19:1 119:1 126:1 137:1 156:1 163:1 164:1 171:1 181:1 185:1 186:1 187:1 188:1 189:1 190:1 197:1 209:1 223:1 256:0.25 
0 1 1 1 0 1 0 0 0 56:1 116:1 124:1 136:1 150:1 157:1 169:1 171:1 181:1 185:1 186:1 187:1 188:1 190:1 195:1 207:1 216:1 
0 1 1 1 0 1 0 0 0 55:1 119:1 124:1 137:1 148:1 150:1 161:1 164:1 171:1 181:1 185:1 186:1 187:1 189:1 190:1 215:1 
0 1 1 1 1 1 0 0 0 55:1 115:1 124:1 137:1 148:1 150:1 163:1 164:1 174:1 181:1 185:1 186:1 187:1 215:1 222:1 
0 1 0 1 0 0 0 0 0 55:1 116:1 123:1 124:1 136:1 148:1 149:1 150:1 157:1 164:1 171:1 181:1 185:1 186:1 187:1 188:1 189:1 190:1 215:1 216:1 256:1 
0 1 0 0 0 1 0 0 0 55:1 116:1 123:1 124:1 136:1 156:1 163:1 164:1 171:1 181:1 185:1 186:1 187:1 188:1 189:1 190:1 215:1 225:1 
0 1 1 1 1 1 0 0 0 55:1 79:1 124:1 139:1 148:1 156:1 163:1 164:1 174:1 181:1 185:1 186:1 187:1 188:1 256:0.25 
0 1 1 1 1 1 0 0 0 54:1 118:1 125:1 136:1 148:1 156:1 163:1 167:1 172:1 181:1 185:1 186:1 187:1 188:1 225:1 
0 1 1 1 0 1 0 0 0 57:1 116:1 124:1 136:1 154:1 157:1 165:1 171:1 181:1 185:1 186:1 187:1 190:1 196:1 208:1 216:1 222:1 
0 1 0 1 0 1 0 0 0 57:1 118:1 123:1 124:1 136:1 149:1 156:1 161:1 165:1 172:1 181:1 185:1 186:1 187:1 189:1 190:1 215:1 256:0.75 
0 1 1 1 1 1 0 0 0 57:1 116:1 124:1 136:1 148:1 149:1 156:1 157:1 165:1 171:1 181:1 185:1 186:1 187:1 190:1 215:1 216:1 222:1 
0 1 1 1 1 1 0 0 0 57:1 116:1 124:1 136:1 148:1 149:1 150:1 157:1 165:1 171:1 181:1 185:1 186:1 187:1 188:1 190:1 215:1 216:1 256:1 
0 1 0 1 1 1 0.4464614518239119 0.09914649141953025 1 58:1 79:1 125:1 139:1 155:1 163:1 164:1 174:1 179:1 185:1 186:1 187:1 223:1 
0 1 1 1 1 1 0 0 0 18:1 79:1 123:1 126:1 138:1 156:1 163:1 165:1 174:1 181:1 185:1 186:1 187:1 188:1 191:1 256:0.25 
0 1 0 0 0 1 0 0 0 56:1 117:1 123:1 124:1 136:1 156:1 163:1 169:1 176:1 181:1 185:1 186:1 187:1 188:1 189:1 190:1 191:1 
0 1 0 1 0 1 0 0 0 55:1 116:1 123:1 124:1 136:1 156:1 163:1 164:1 171:1 181:1 185:1 186:1 187:1 188:1 189:1 190:1 192:1 215:1 248:1 256:0.25 
0 1 1 0 1 1 0 0 0 58:1 116:1 124:1 136:1 156:1 157:1 170:1 171:1 181:1 185:1 186:1 187:1 190:1 216:1 
0 1 1 1 1 1 0 0 0 55:1 80:1 124:1 138:1 156:1 157:1 164:1 171:1 181:1 185:1 186:1 187:1 189:1 190:1 215:1 256:0.25 
0 1 0 0 0 1 0 0 0 58:1 118:1 125:1 136:1 156:1 161:1 168:1 172:1 181:1 185:1 186:1 187:1 190:1 198:1 248:1 
0 1 1 0 0 1 0 0 0 55:1 117:1 124:1 136:1 156:1 157:1 164:1 176:1 181:1 185:1 186:1 187:1 190:1 215:1 256:0.25 
0 1 0 1 0 0 0 0 0 17:1 78:1 123:1 124:1 136:1 154:1 161:1 165:1 172:1 181:1 185:1 186:1 187:1 188:1 189:1 190:1 191:1 256:0.75 
0 1 0.5238715405438445 1 1 1 0 0 0 55:1 79:1 124:1 139:1 156:1 160:1 164:1 171:1 181:1 185:1 186:1 187:1 189:1 190:1 224:1 256:0.25 
0 1 1 0 1 1 0 0 0 55:1 119:1 124:1 136:1 156:1 163:1 164:1 177:1 181:1 185:1 186:1 187:1 188:1 190:1 
0 1 1 1 0 1 0.3144464330316576 0 0 55:1 119:1 124:1 137:1 156:1 163:1 164:1 171:1 181:1 185:1 186:1 187:1 188:1 189:1 190:1 215:1 225:1 
0 1 1 1 0 1 0 0.4042089390437625 0 55:1 62:1 124:1 137:1 149:1 156:1 163:1 164:1 171:1 181:1 185:1 186:1 187:1 188:1 189:1 190:1 
0 1 1 0 0 1 0 0 0 54:1 117:1 125:1 136:1 155:1 163:1 166:1 176:1 181:1 185:1 186:1 187:1 190:1 222:1 
0 1 1 1 1 1 0 0 0 55:1 117:1 124:1 139:1 148:1 153:1 160:1 164:1 174:1 181:1 185:1 186:1 187:1 188:1 215:1 
0 1 1 0 0 1 0 0 0 56:1 116:1 126:1 136:1 156:1 160:1 167:1 171:1 181:1 185:1 186:1 187:1 195:1 207:1 216:1 
0 1 1 0 0 1 0 0 0 55:1 117:1 124:1 136:1 156:1 163:1 164:1 176:1 181:1 185:1 186:1 187:1 188:1 190:1 195:1 207:1 215:1 248:1 256:0.25 
0 1 0 1 0 1 0 0 0 55:1 116:1 123:1 124:1 136:1 148:1 153:1 157:1 164:1 171:1 181:1 185:1 186:1 187:1 189:1 190:1 191:1 
0 1 0 0 0 1 0 0 0 54:1 115:1 123:1 125:1 136:1 156:1 163:1 166:1 172:1 181:1 185:1 186:1 187:1 188:1 190:1 191:1 
0 1 0 0 0 1 0 0 0 55:1 116:1 123:1 124:1 137:1 153:1 160:1 164:1 171:1 181:1 185:1 186:1 187:1 188:1 189:1 190:1 191:1 
0 1 1 1 0 1 0 0 0.08502418514131804 55:1 116:1 123:1 124:1 136:1 148:1 150:1 160:1 164:1 171:1 181:1 185:1 186:1 187:1 189:1 190:1 215:1 
0 1 1 0 0 1 0 0 0 55:1 117:1 124:1 136:1 156:1 160:1 164:1 176:1 181:1 185:1 186:1 187:1 190:1 215:1 
0 1 1 1 1 1 0 0 0 56:1 80:1 124:1 138:1 156:1 163:1 169:1 174:1 181:1 185:1 186:1 187:1 188:1 256:0.25 
0 1 1 0 1 1 0 0 0 55:1 118:1 124:1 136:1 148:1 156:1 161:1 164:1 172:1 181:1 185:1 186:1 187:1 190:1 256:0.25 
0.2084525626254833 1 1 0.3613026474568967 1 1 0 0.2982228941202954 0.05022031795218027 55:1 117:1 124:1 137:1 156:1 163:1 164:1 172:1 181:1 182:1 186:1 188:1 
0 1 0 1 0 0 0 0 0 55:1 116:1 123:1 124:1 136:1 148:1 149:1 150:1 157:1 164:1 171:1 181:1 185:1 186:1 187:1 188:1 189:1 190:1 215:1 216:1 256:1 
0 1 0 1 0 0 0 0 0 55:1 116:1 123:1 124:1 136:1 148:1 149:1 150:1 157:1 164:1 171:1 181:1 185:1 186:1 187:1 188:1 189:1 190:1 215:1 216:1 256:1 
0 1 0.1737317911906213 1 0 0.6003855659841746 0 0 0 55:1 116:1 123:1 124:1 136:1 148:1 149:1 150:1 157:1 164:1 171:1 181:1 185:1 186:1 187:1 188:1 189:1 190:1 215:1 216:1 225:1 256:1 
0 1 0 0 0 1 0 0 0 55:1 116:1 123:1 124:1 136:1 156:1 163:1 164:1 171:1 181:1 185:1 186:1 187:1 188:1 189:1 190:1 204:1 216:1 248:1 
0 1 0 1 0 1 0 0 0 57:1 118:1 123:1 124:1 136:1 148:1 149:1 154:1 157:1 165:1 172:1 181:1 185:1 186:1 187:1 189:1 190:1 215:1 216:1 
0 1 1 1 0 1 0 0 0 17:1 118:1 124:1 136:1 148:1 149:1 150:1 157:1 165:1 172:1 181:1 185:1 186:1 187:1 188:1 189:1 190:1 216:1 256:1 
0 1 1 1 0 1 0 0 0 17:1 78:1 123:1 124:1 136:1 148:1 149:1 150:1 157:1 165:1 172:1 181:1 185:1 186:1 187:1 188:1 189:1 190:1 256:1 
0 1 1 1 0 1 1 0 0 56:1 115:1 124:1 137:1 153:1 163:1 169:1 175:1 181:1 185:1 186:1 187:1 190:1 194:1 256:0.25 
0 1 0 1 0 1 0 0 0 58:1 119:1 123:1 124:1 137:1 148:1 149:1 154:1 161:1 165:1 172:1 179:1 183:1 186:1 187:1 188:1 189:1 190:1 215:1 216:1 
0 1 1 1 0 1 0 0 0 17:1 78:1 123:1 124:1 136:1 148:1 149:1 150:1 160:1 165:1 172:1 181:1 185:1 186:1 187:1 189:1 190:1 
0 1 0 0 0 1 0 0 0 17:1 118:1 124:1 136:1 150:1 161:1 165:1 172:1 181:1 185:1 186:1 187:1 189:1 190:1 
0 1 1 0 0 1 0 0 0 55:1 117:1 124:1 136:1 156:1 163:1 164:1 176:1 181:1 185:1 186:1 187:1 188:1 190:1 
0 1 1 0 1 1 0 0 0 55:1 119:1 124:1 136:1 150:1 161:1 164:1 177:1 181:1 185:1 186:1 187:1 190:1 215:1 
0 1 0 0 0 1 0 0 0 58:1 117:1 125:1 137:1 156:1 163:1 165:1 172:1 181:1 182:1 186:1 187:1 188:1 190:1 191:1 215:1 
0 1 0.7608287042188691 1 0 1 0 0 0 54:1 115:1 123:1 125:1 136:1 148:1 156:1 163:1 168:1 172:1 181:1 185:1 186:1 187:1 188:1 190:1 191:1 256:0.25 
0 1 1 0 0 1 0 0 0.1052057989666801 54:1 115:1 123:1 124:1 137:1 156:1 159:1 165:1 175:1 181:1 185:1 186:1 187:1 190:1 
0 1 1 1 1 1 0 0.2362130211319171 0 57:1 117:1 124:1 137:1 148:1 149:1 150:1 163:1 165:1 172:1 181:1 182:1 186:1 215:1 216:1 
0 1 1 1 1 1 0 0 0.09409246385988762 56:1 117:1 123:1 125:1 136:1 148:1 156:1 163:1 165:1 176:1 178:1 185:1 187:1 188:1 215:1 
0 1 0 0 0 1 0 0 0 56:1 115:1 125:1 136:1 156:1 163:1 165:1 172:1 178:1 185:1 186:1 187:1 188:1 190:1 193:1 205:1 215:1 248:1 
0 1 1 0 1 1 0 0.1348746063617221 0 54:1 117:1 125:1 136:1 148:1 152:1 161:1 168:1 176:1 181:1 185:1 186:1 187:1 190:1 215:1 
0 1 1 0 1 1 0 0 0 56:1 115:1 124:1 136:1 156:1 163:1 169:1 174:1 181:1 185:1 186:1 187:1 188:1 216:1 
0 1 1 1 1 1 0 0 0.03075236405357839 18:1 79:1 123:1 127:1 139:1 156:1 163:1 169:1 174:1 181:1 185:1 186:1 187:1 188:1 256:1 
0 1 1 1 1 1 1 0 0 54:1 117:1 125:1 136:1 148:1 156:1 163:1 168:1 176:1 181:1 185:1 186:1 187:1 188:1 190:1 215:1 
0 1 1 0 0 1 0 0 0 56:1 117:1 123:1 124:1 136:1 156:1 163:1 169:1 176:1 181:1 185:1 186:1 187:1 188:1 189:1 190:1 
0 1 1 0 0 1 0 0 0 56:1 117:1 123:1 124:1 136:1 156:1 163:1 169:1 176:1 181:1 185:1 186:1 187:1 188:1 189:1 190:1 201:1 
0 1 1 1 1 1 0 0 0 56:1 116:1 124:1 136:1 148:1 156:1 157:1 169:1 171:1 181:1 185:1 186:1 187:1 190:1 210:1 216:1 
0.3903933380722538 1 0 1 0 1 0.3663901160322099 0.2955754044839514 0 54:1 115:1 123:1 125:1 137:1 148:1 152:1 159:1 168:1 175:1 181:1 185:1 186:1 187:1 188:1 189:1 190:1 256:1 
0 1 0 1 0 1 0 0 0 55:1 116:1 123:1 124:1 137:1 148:1 156:1 157:1 164:1 171:1 181:1 185:1 186:1 187:1 189:1 190:1 191:1 215:1 
0 1 1 1 1 1 0 0 0 56:1 116:1 125:1 136:1 148:1 153:1 163:1 164:1 171:1 178:1 185:1 186:1 187:1 190:1 216:1 248:1 256:0.25 
0 1 1 1 1 1 0 0 0 54:1 80:1 125:1 136:1 156:1 163:1 166:1 172:1 181:1 185:1 186:1 187:1 188:1 190:1 198:1 229:1 
0 1 0 1 0 1 0 0 0 54:1 115:1 123:1 125:1 137:1 148:1 153:1 160:1 168:1 175:1 181:1 185:1 186:1 187:1 188:1 189:1 190:1 
0 1 1 0 0 1 0 0 0 55:1 117:1 124:1 136:1 148:1 154:1 160:1 164:1 176:1 181:1 185:1 186:1 187:1 190:1 215:1 
0.8037832169927623 1 1 1 0 1 0 0 0 18:1 78:1 127:1 136:1 153:1 163:1 165:1 172:1 181:1 185:1 186:1 187:1 189:1 190:1 197:1 209:1 256:0.25 
0 1 1 1 1 1 0.3376434859696446 0 0 55:1 79:1 124:1 139:1 148:1 153:1 163:1 164:1 175:1 181:1 185:1 186:1 187:1 190:1 222:1 
0 1 1 1 1 1 1 0 0.1322990044020225 54:1 115:1 123:1 125:1 137:1 156:1 163:1 165:1 175:1 181:1 185:1 187:1 188:1 194:1 
0 1 0 1 1 1 0 0 0 54:1 80:1 125:1 139:1 151:1 163:1 165:1 172:1 181:1 185:1 186:1 187:1 189:1 190:1 196:1 208:1 215:1 225:1 
0 1 0.534014600176181 1 0 1 0 0 0 58:1 118:1 125:1 136:1 148:1 156:1 163:1 165:1 172:1 179:1 185:1 186:1 187:1 188:1 190:1 191:1 215:1 
0 1 1 1 1 1 0 0 0 19:1 79:1 127:1 139:1 156:1 163:1 167:1 174:1 181:1 185:1 186:1 187:1 188:1 189:1 190:1 191:1 256:0.25 
0 1 1 0 0 1 0 0 0 57:1 119:1 124:1 137:1 156:1 163:1 165:1 177:1 181:1 185:1 186:1 187:1 188:1 190:1 210:1 216:1 243:1 
0 1 1 0 0 1 0 0 0 54:1 117:1 125:1 136:1 156:1 163:1 166:1 176:1 181:1 185:1 186:1 187:1 188:1 190:1 195:1 207:1 226:1 256:0.25 
0 1 1 0 0 1 0 0 0 1:1 115:1 128:1 136:1 156:1 163:1 164:1 172:1 181:1 185:1 186:1 187:1 188:1 190:1 
0 1 0 0 1 1 0 0 0 58:1 78:1 125:1 136:1 153:1 163:1 170:1 174:1 181:1 185:1 186:1 187:1 
0 1 0 1 0 1 0 0 0 54:1 115:1 123:1 125:1 136:1 156:1 163:1 168:1 172:1 181:1 185:1 186:1 187:1 188:1 190:1 256:0.25 
0 1 1 1 1 1 0.5033600592119639 0 0.6781922365667219 55:1 79:1 126:1 139:1 148:1 156:1 163:1 167:1 174:1 181:1 185:1 186:1 187:1 188:1 189:1 190:1 256:0.25 
0 1 1 0 0 1 0 0 0.1049632953656311 56:1 119:1 125:1 137:1 156:1 161:1 165:1 172:1 180:1 185:1 186:1 187:1 190:1 191:1 
0 1 1 1 1 1 0 0 0 54:1 115:1 123:1 124:1 137:1 156:1 163:1 165:1 173:1 181:1 185:1 187:1 188:1 
0 1 1 0 1 1 0 0 0 56:1 118:1 156:1 161:1 167:1 174:1 181:1 185:1 186:1 187:1 189:1 190:1 
0 1 1 1 0 1 0 0 0 19:1 78:1 125:1 136:1 149:1 156:1 157:1 165:1 172:1 181:1 185:1 186:1 187:1 189:1 190:1 229:1 256:0.25 
0 1 1 1 0.1722047996817853 1 0.8696706482043103 0 0.6402751784733316 18:1 116:1 127:1 136:1 148:1 156:1 161:1 164:1 171:1 181:1 185:1 186:1 187:1 189:1 190:1 197:1 209:1 216:1 
0 1 0.5197475901910753 0 0 1 0 0 0 58:1 118:1 125:1 136:1 156:1 161:1 165:1 172:1 179:1 185:1 186:1 187:1 190:1 215:1 
0 1 1 0 1 1 0 0 0.06747990566938081 54:1 119:1 124:1 141:1 151:1 163:1 167:1 174:1 181:1 185:1 186:1 187:1 189:1 190:1 222:1 
0 1 1 1 1 1 0 0 0 1:1 79:1 128:1 139:1 149:1 155:1 163:1 171:1 185:1 186:1 187:1 
1 1 1 1 1 1 0 1 0 55:1 79:1 124:1 139:1 152:1 163:1 164:1 171:1 181:1 185:1 186:1 187:1 189:1 190:1 196:1 208:1 215:1 
0 1 1 0 1 1 0 0 0 19:1 119:1 126:1 136:1 156:1 158:1 167:1 177:1 181:1 185:1 186:1 187:1 
0 1 1 1 0 1 0 0 0 17:1 115:1 124:1 137:1 156:1 163:1 165:1 175:1 181:1 185:1 186:1 187:1 188:1 190:1 
0 1 1 0 1 1 1 0 0 55:1 115:1 124:1 137:1 154:1 163:1 164:1 175:1 181:1 185:1 186:1 187:1 190:1 194:1 
0 1 0 1 0 0 0 0 0 55:1 116:1 123:1 124:1 136:1 148:1 149:1 150:1 157:1 164:1 171:1 181:1 185:1 186:1 187:1 188:1 189:1 190:1 215:1 216:1 256:1 
0 1 1 0.4596355229098409 1 1 0 0 0 54:1 119:1 124:1 136:1 148:1 153:1 163:1 166:1 177:1 181:1 185:1 186:1 187:1 190:1 
0 1 0 1 0 0 0 0 0 55:1 116:1 123:1 124:1 136:1 148:1 149:1 150:1 157:1 164:1 171:1 181:1 185:1 186:1 187:1 188:1 189:1 190:1 215:1 216:1 256:1 
0 1 1 1 1 1 0 0 0 55:1 118:1 124:1 136:1 148:1 149:1 150:1 161:1 164:1 172:1 181:1 185:1 186:1 187:1 190:1 215:1 216:1 
0 1 1 1 1 1 0 0 0.9360559108518659 19:1 79:1 126:1 139:1 148:1 156:1 163:1 165:1 174:1 179:1 185:1 186:1 187:1 188:1 256:0.75 
0 1 0.7149342749679548 0 1 1 1 0 0 58:1 78:1 125:1 136:1 156:1 159:1 165:1 172:1 179:1 185:1 186:1 187:1 190:1 192:1 215:1 248:1 
0.1503916398939144 1 1 1 0 1 0 0 0 54:1 115:1 123:1 125:1 137:1 148:1 149:1 153:1 163:1 166:1 173:1 181:1 185:1 186:1 187:1 189:1 190:1 216:1 
0 1 0 1 0 0 0 0 0 55:1 116:1 123:1 124:1 136:1 148:1 149:1 150:1 157:1 164:1 171:1 181:1 185:1 186:1 187:1 188:1 189:1 190:1 215:1 216:1 256:1 
0 1 0 1 1 1 0 0 0 54:1 79:1 125:1 139:1 153:1 160:1 166:1 173:1 181:1 185:1 186:1 187:1 188:1 189:1 190:1 196:1 208:1 
0 1 0 1 0 0 0 0 0 55:1 116:1 123:1 124:1 136:1 148:1 149:1 150:1 157:1 164:1 171:1 181:1 185:1 186:1 187:1 188:1 189:1 190:1 215:1 216:1 256:1 
0 1 0 1 0 0 0 0 0 55:1 116:1 123:1 124:1 136:1 148:1 149:1 150:1 157:1 164:1 171:1 181:1 185:1 186:1 187:1 188:1 189:1 190:1 215:1 216:1 222:1 256:1 
0 1 0 1 0 0 0 0 0 55:1 116:1 123:1 124:1 136:1 148:1 149:1 150:1 157:1 164:1 171:1 181:1 185:1 186:1 187:1 188:1 189:1 190:1 215:1 216:1 256:1 
0 1 0 1 0 0 0 0 0 55:1 116:1 123:1 124:1 136:1 148:1 149:1 150:1 157:1 164:1 171:1 181:1 185:1 186:1 187:1 188:1 189:1 190:1 215:1 216:1 256:1 
0 1 1 1 1 1 0.08555271766752653 0 0 54:1 79:1 125:1 139:1 156:1 163:1 168:1 174:1 181:1 185:1 186:1 187:1 188:1 223:1 256:0.25 
0 1 0 1 0 0 0 0 0 55:1 116:1 123:1 124:1 136:1 148:1 149:1 150:1 157:1 164:1 171:1 181:1 185:1 186:1 187:1 188:1 189:1 190:1 215:1 216:1 256:1 
0.3204938850421772 1 1 1 1 1 0.7884699885307437 0.3774913438017767 0 54:1 79:1 125:1 139:1 148:1 149:1 156:1 163:1 166:1 172:1 181:1 183:1 186:1 187:1 188:1 190:1 
0 1 1 1 1 1 0 0 0 19:1 80:1 123:1 127:1 139:1 148:1 149:1 156:1 163:1 165:1 171:1 181:1 185:1 186:1 187:1 188:1 190:1 256:1 
1 1 1 1 1 1 0.1752904337158332 0.0007228884288839003 0 18:1 80:1 127:1 139:1 148:1 149:1 156:1 163:1 164:1 172:1 181:1 185:1 186:1 187:1 188:1 190:1 
0.4009336759516477 1 1 0 0 1 0 0.4265080927416967 0 55:1 115:1 124:1 136:1 156:1 159:1 164:1 172:1 181:1 185:1 186:1 187:1 190:1 193:1 205:1 256:0.25 
0.3825558201140491 1 1 1 0 1 1 0.1933137241970369 1 18:1 119:1 127:1 137:1 156:1 163:1 164:1 171:1 181:1 185:1 186:1 187:1 188:1 189:1 190:1 197:1 209:1 216:1 222:1 256:0.25 
0 1 0 1 0 0 0 0 0 55:1 116:1 123:1 124:1 136:1 148:1 149:1 150:1 157:1 164:1 171:1 181:1 185:1 186:1 187:1 188:1 189:1 190:1 215:1 216:1 256:1 
0 1 0 1 0 0 0 0 0 55:1 116:1 123:1 124:1 136:1 148:1 149:1 150:1 157:1 164:1 171:1 181:1 185:1 186:1 187:1 188:1 189:1 190:1 215:1 216:1 256:1 
0 1 0 1 0 0 0 0 0 55:1 116:1 123:1 124:1 136:1 148:1 149:1 150:1 157:1 164:1 171:1 181:1 185:1 186:1 187:1 188:1 189:1 190:1 215:1 216:1 256:1 
0 1 0 1 0 0 0 0 0 55:1 116:1 123:1 124:1 136:1 148:1 149:1 150:1 157:1 164:1 171:1 181:1 185:1 186:1 187:1 188:1 189:1 190:1 215:1 216:1 256:1 
0 1 1 1 1 1 0 0 0 58:1 116:1 124:1 136:1 148:1 149:1 150:1 157:1 170:1 171:1 181:1 185:1 186:1 187:1 188:1 190:1 216:1 
0 1 1 1 1 1 0 0 0 58:1 116:1 124:1 136:1 148:1 149:1 150:1 157:1 170:1 171:1 181:1 185:1 186:1 187:1 188:1 190:1 216:1 
0 1 0 1 0 1 0 0 0 55:1 116:1 123:1 124:1 136:1 148:1 156:1 163:1 164:1 171:1 181:1 185:1 186:1 187:1 188:1 189:1 190:1 198:1 215:1 224:1 
0 1 1 1 0 1 0 0 0 55:1 116:1 123:1 124:1 136:1 148:1 149:1 156:1 163:1 164:1 171:1 181:1 185:1 186:1 187:1 188:1 189:1 190:1 215:1 216:1 
0 1 1 1 0 1 0 0 0 55:1 116:1 123:1 124:1 136:1 148:1 149:1 156:1 163:1 164:1 171:1 181:1 185:1 186:1 187:1 188:1 189:1 190:1 215:1 216:1 256:0.25 
0 1 1 1 1 1 0 0 0 18:1 116:1 127:1 136:1 148:1 149:1 156:1 163:1 164:1 171:1 181:1 185:1 186:1 187:1 188:1 189:1 190:1 248:1 
0 1 1 1 1 1 0 0 0 18:1 116:1 127:1 136:1 148:1 149:1 156:1 163:1 164:1 171:1 181:1 185:1 186:1 187:1 188:1 189:1 190:1 216:1 248:1 
0 1 0.6948238921162085 1 0 1 0 0 0 54:1 115:1 123:1 125:1 137:1 148:1 149:1 156:1 163:1 166:1 173:1 181:1 185:1 186:1 187:1 188:1 189:1 190:1 215:1 216:1 256:1 
0 1 1 1 0 1 0 0 0 55:1 117:1 124:1 136:1 148:1 150:1 157:1 164:1 176:1 181:1 185:1 186:1 187:1 188:1 190:1 195:1 207:1 215:1 
0 1 0 1 0 0 0 0 0 55:1 116:1 123:1 124:1 136:1 148:1 149:1 150:1 157:1 164:1 171:1 181:1 185:1 186:1 187:1 188:1 189:1 190:1 215:1 216:1 256:1 
0 1 0 1 0 0.9069942843848799 0 0 0 55:1 116:1 123:1 124:1 136:1 148:1 149:1 150:1 157:1 164:1 171:1 181:1 185:1 186:1 187:1 188:1 189:1 190:1 215:1 216:1 256:1 
0 1 1 1 1 1 0 0 0.8111606975582368 18:1 79:1 123:1 127:1 139:1 156:1 159:1 165:1 174:1 181:1 185:1 186:1 187:1 256:1 
0 1 0 1 0 1 0 0 0 55:1 116:1 123:1 124:1 136:1 148:1 149:1 150:1 157:1 164:1 171:1 181:1 185:1 186:1 187:1 188:1 189:1 190:1 215:1 216:1 256:1 
0 1 1 1 0 1 0 0 0 55:1 116:1 123:1 124:1 136:1 148:1 149:1 150:1 157:1 164:1 171:1 181:1 185:1 186:1 187:1 188:1 189:1 190:1 215:1 216:1 229:1 256:1 
0 1 0 1 0 1 0 0 0 55:1 116:1 123:1 124:1 136:1 148:1 149:1 150:1 157:1 164:1 171:1 181:1 185:1 186:1 187:1 188:1 189:1 190:1 215:1 216:1 256:1 
0 1 0 1 0 1 0 0 0 55:1 116:1 123:1 124:1 136:1 148:1 149:1 150:1 157:1 164:1 171:1 181:1 185:1 186:1 187:1 188:1 189:1 190:1 215:1 216:1 256:1 
0 1 0 1 0 1 0 0 0 55:1 116:1 123:1 124:1 136:1 148:1 149:1 150:1 157:1 164:1 171:1 181:1 185:1 186:1 187:1 188:1 189:1 190:1 215:1 216:1 256:1 
0 1 1 1 1 1 0 0 0.7682754073832933 18:1 79:1 123:1 126:1 139:1 156:1 163:1 167:1 174:1 181:1 185:1 186:1 187:1 188:1 189:1 190:1 256:0.25 
0.04691497735729983 1 0 1 1 1 0 0 0.3423716732640777 58:1 79:1 124:1 138:1 156:1 163:1 164:1 174:1 181:1 185:1 186:1 187:1 188:1 200:1 256:0.25 
0 1 1 1 0 1 1 0 0.4341088133034846 18:1 119:1 127:1 136:1 148:1 149:1 156:1 163:1 164:1 171:1 181:1 185:1 186:1 187:1 188:1 189:1 190:1 256:0.25 
0 1 1 1 0 1 0.6558438062846983 0 0.4884450472273117 18:1 119:1 127:1 137:1 156:1 163:1 164:1 171:1 181:1 185:1 186:1 187:1 188:1 189:1 190:1 248:1 
0 1 1 1 0 1 0 0 0 55:1 116:1 123:1 124:1 136:1 148:1 149:1 150:1 157:1 164:1 171:1 181:1 185:1 186:1 187:1 188:1 189:1 190:1 215:1 216:1 
0 1 0 1 0 1 0 0 0 55:1 116:1 123:1 124:1 136:1 148:1 149:1 150:1 157:1 164:1 171:1 181:1 185:1 186:1 187:1 188:1 189:1 190:1 215:1 216:1 256:1 
0 1 0 1 0 1 0 0 0 55:1 116:1 123:1 124:1 136:1 148:1 149:1 150:1 157:1 164:1 171:1 181:1 185:1 186:1 187:1 188:1 189:1 190:1 215:1 216:1 256:1 
0 1 0 1 0 1 0 0 0 55:1 116:1 123:1 124:1 136:1 148:1 149:1 150:1 157:1 164:1 171:1 181:1 185:1 186:1 187:1 188:1 189:1 190:1 215:1 216:1 256:1 
0 1 0 1 0 1 0 0 0 55:1 116:1 123:1 124:1 136:1 148:1 149:1 150:1 157:1 164:1 171:1 181:1 185:1 186:1 187:1 188:1 189:1 190:1 215:1 216:1 256:1 
1 1 1 1 1 1 0 0 0 58:1 79:1 125:1 139:1 148:1 156:1 163:1 164:1 174:1 181:1 185:1 186:1 187:1 188:1 201:1 215:1 
0 1 1 1 1 1 0 0 0 55:1 116:1 123:1 124:1 136:1 148:1 149:1 156:1 163:1 164:1 171:1 181:1 185:1 186:1 187:1 188:1 189:1 190:1 216:1 
0 1 1 1 0 1 0 0 0 55:1 116:1 123:1 124:1 136:1 148:1 149:1 150:1 157:1 164:1 171:1 181:1 185:1 186:1 187:1 188:1 189:1 190:1 216:1 256:1 
0 1 1 1 0 1 0 0 0.4184268855203258 55:1 116:1 123:1 124:1 136:1 148:1 156:1 157:1 164:1 171:1 181:1 185:1 186:1 187:1 189:1 190:1 198:1 215:1 256:0.25 
0 1 1 1 0 1 0 0 0 55:1 116:1 123:1 124:1 136:1 148:1 149:1 156:1 163:1 164:1 171:1 181:1 185:1 186:1 187:1 188:1 189:1 190:1 215:1 216:1 222:1 
0 1 1 0 0 1 0 0 0 55:1 119:1 124:1 136:1 156:1 163:1 164:1 177:1 181:1 185:1 186:1 187:1 188:1 190:1 215:1 222:1 
0 1 1 0 0 1 0.04035292160201704 0.04111939000866459 0 57:1 115:1 124:1 137:1 152:1 163:1 165:1 175:1 181:1 185:1 186:1 187:1 190:1 194:1 215:1 216:1 244:1 
0 1 0 1 0 1 0 0 0 55:1 116:1 123:1 124:1 136:1 148:1 149:1 150:1 157:1 164:1 171:1 181:1 185:1 186:1 187:1 188:1 189:1 190:1 215:1 216:1 256:1 
0 1 0.3726988618813596 1 0 1 0 0 0 55:1 116:1 123:1 124:1 136:1 148:1 149:1 150:1 157:1 164:1 171:1 181:1 185:1 186:1 187:1 188:1 189:1 190:1 215:1 216:1 256:1 
0 1 1 0 0.06034080138807826 1 1 0 0 55:1 78:1 124:1 136:1 156:1 163:1 164:1 172:1 181:1 185:1 186:1 187:1 188:1 190:1 215:1 
0 1 0 1 1 1 0 0 0 58:1 79:1 125:1 138:1 155:1 160:1 165:1 174:1 179:1 185:1 186:1 187:1 215:1 
0 1 1 1 1 1 0 0 0 1:1 79:1 126:1 139:1 155:1 160:1 165:1 174:1 181:1 185:1 186:1 187:1 
0.1363902164972475 1 1 1 0 1 0.05254090698540317 0 0 18:1 117:1 127:1 136:1 156:1 163:1 164:1 176:1 181:1 185:1 186:1 187:1 188:1 190:1 
0 1 1 1 0.8160575093855328 1 1 0 0.04433427610365585 54:1 119:1 125:1 137:1 156:1 163:1 165:1 177:1 181:1 185:1 186:1 187:1 188:1 190:1 
0 1 1 1 0 1 0 0 0 55:1 116:1 123:1 124:1 136:1 148:1 149:1 150:1 157:1 164:1 171:1 181:1 185:1 186:1 187:1 188:1 189:1 190:1 215:1 216:1 256:1 
0 1 1 1 0 1 0 0 0 55:1 116:1 123:1 124:1 136:1 148:1 149:1 150:1 157:1 164:1 171:1 181:1 185:1 186:1 187:1 188:1 189:1 190:1 215:1 216:1 256:1 
1 1 1 1 1 1 0 0 0 58:1 115:1 125:1 136:1 149:1 156:1 163:1 164:1 173:1 181:1 185:1 186:1 187:1 188:1 190:1 216:1 
0 1 1 1 0 1 0 0 0 55:1 116:1 123:1 124:1 136:1 148:1 149:1 150:1 157:1 164:1 171:1 181:1 185:1 186:1 187:1 188:1 189:1 190:1 215:1 216:1 
0 1 1 1 1 1 0 0 0 54:1 117:1 125:1 137:1 148:1 149:1 156:1 163:1 166:1 172:1 181:1 182:1 186:1 187:1 188:1 190:1 216:1 256:1 
0 1 1 1 0 1 0 0 0 55:1 116:1 123:1 124:1 136:1 148:1 149:1 150:1 157:1 164:1 171:1 181:1 185:1 186:1 187:1 188:1 189:1 190:1 215:1 216:1 256:1 
0 1 1 1 0 1 0 0 0 55:1 116:1 123:1 124:1 136:1 148:1 149:1 150:1 157:1 164:1 171:1 181:1 185:1 186:1 187:1 188:1 189:1 190:1 215:1 216:1 256:1 
0.2374949393847639 1 1 1 1 1 0 0 1 18:1 119:1 127:1 137:1 148:1 149:1 153:1 163:1 167:1 177:1 181:1 185:1 186:1 187:1 
0 1 1 1 1 1 0 0 0 19:1 79:1 126:1 139:1 148:1 149:1 156:1 163:1 166:1 173:1 181:1 185:1 186:1 187:1 188:1 189:1 190:1 256:0.25 
0 1 0 0 0 1 0 0 0 54:1 115:1 123:1 125:1 136:1 156:1 163:1 168:1 172:1 181:1 185:1 186:1 187:1 188:1 190:1 191:1 215:1 248:1 
0.3731857276445356 1 1 1 1 1 0.2485116696246436 0 0 19:1 79:1 126:1 138:1 148:1 156:1 163:1 164:1 174:1 181:1 185:1 186:1 187:1 188:1 256:0.25 
0 1 1 0 1 1 0 0 0 18:1 117:1 126:1 136:1 148:1 156:1 161:1 164:1 176:1 181:1 185:1 186:1 187:1 190:1 
0 1 1 1 1 1 0 1 0 18:1 79:1 123:1 127:1 139:1 156:1 163:1 164:1 174:1 181:1 185:1 186:1 187:1 188:1 256:0.25 
0.4562849760172103 1 0 1 1 1 0.3255760787388214 0 0 55:1 79:1 124:1 139:1 154:1 163:1 164:1 171:1 181:1 185:1 186:1 187:1 189:1 190:1 196:1 208:1 
0 1 1 1 0 1 0 0 0 55:1 116:1 123:1 124:1 136:1 148:1 149:1 150:1 161:1 164:1 171:1 181:1 185:1 186:1 187:1 189:1 190:1 215:1 216:1 
1 1 0 1 1 1 0 0 0 55:1 79:1 124:1 139:1 153:1 163:1 164:1 171:1 181:1 185:1 186:1 187:1 189:1 190:1 196:1 208:1 215:1 
0 1 1 1 1 1 0 0 0 55:1 116:1 123:1 124:1 136:1 148:1 149:1 153:1 163:1 164:1 171:1 181:1 185:1 186:1 187:1 189:1 190:1 215:1 216:1 
0 1 1 1 1 1 0 0 0 55:1 118:1 124:1 136:1 148:1 149:1 153:1 160:1 164:1 172:1 181:1 185:1 186:1 187:1 188:1 190:1 216:1 
0 1 1 1 1 1 0 1 0.5662195655887445 18:1 79:1 123:1 125:1 139:1 148:1 156:1 163:1 167:1 174:1 181:1 185:1 186:1 187:1 188:1 189:1 190:1 
0 1 1 1 0 1 0 0 0 55:1 117:1 124:1 136:1 148:1 150:1 157:1 164:1 176:1 181:1 185:1 186:1 187:1 188:1 190:1 195:1 207:1 215:1 239:1 256:0.25 
0 1 1 1 0 1 0 0 0 55:1 116:1 123:1 124:1 136:1 148:1 149:1 150:1 157:1 164:1 171:1 181:1 185:1 186:1 187:1 188:1 189:1 190:1 215:1 216:1 227:1 256:1 
0 1 1 1 1 1 0 0 0 54:1 115:1 123:1 125:1 137:1 156:1 163:1 167:1 175:1 181:1 185:1 186:1 187:1 188:1 
0.6506774737758444 1 1 1 1 1 0 0.4331681422951429 0.3767971247239387 54:1 115:1 123:1 125:1 137:1 156:1 163:1 168:1 174:1 181:1 185:1 186:1 187:1 188:1 
1 1 0 1 1 1 0 1 0 54:1 79:1 125:1 139:1 156:1 163:1 165:1 172:1 181:1 185:1 186:1 187:1 188:1 189:1 190:1 196:1 208:1 256:0.25 
0 1 1 1 0 1 0 0 0 55:1 116:1 123:1 124:1 136:1 148:1 149:1 156:1 163:1 164:1 171:1 181:1 185:1 186:1 187:1 188:1 189:1 190:1 216:1 240:1 256:1 
0 1 0 1 0 1 0 0 0 55:1 116:1 123:1 124:1 136:1 148:1 150:1 157:1 164:1 171:1 181:1 185:1 186:1 187:1 188:1 189:1 190:1 215:1 
0 1 1 1 0 1 0 0 0 55:1 116:1 123:1 124:1 136:1 148:1 149:1 150:1 157:1 164:1 171:1 181:1 185:1 186:1 187:1 188:1 189:1 190:1 215:1 216:1 256:1 
0 1 1 1 0 1 0 0 0 55:1 116:1 123:1 124:1 136:1 148:1 149:1 150:1 157:1 164:1 171:1 181:1 185:1 186:1 187:1 188:1 189:1 190:1 215:1 216:1 256:1 
0.0431647173877512 1 1 1 0 1 0 0.2761272910179541 0 58:1 117:1 124:1 137:1 156:1 163:1 165:1 172:1 179:1 182:1 186:1 187:1 188:1 190:1 210:1 216:1 
0 1 1 1 1 1 0 0 0 19:1 80:1 123:1 127:1 139:1 148:1 149:1 156:1 163:1 164:1 172:1 181:1 185:1 186:1 187:1 188:1 190:1 256:1 
0 1 1 1 1 1 0 0 0 19:1 80:1 123:1 126:1 139:1 148:1 149:1 154:1 161:1 164:1 174:1 181:1 185:1 186:1 187:1 188:1 231:1 256:1 
0 1 1 0.7265035646070673 1 1 0.3049344602103226 0 0 58:1 117:1 125:1 136:1 148:1 156:1 157:1 164:1 176:1 179:1 185:1 186:1 187:1 190:1 195:1 207:1 215:1 
0 1 0 1 0 1 0 0 0 55:1 116:1 123:1 124:1 136:1 149:1 156:1 163:1 164:1 171:1 181:1 185:1 186:1 187:1 188:1 189:1 190:1 216:1 222:1 256:1 
0 1 0 1 0 1 0 0 0 55:1 116:1 123:1 124:1 136:1 156:1 163:1 164:1 171:1 181:1 185:1 186:1 187:1 188:1 189:1 190:1 191:1 215:1 242:1 256:0.75 
0 1 1 1 0 1 0 0 0 55:1 116:1 123:1 124:1 136:1 148:1 149:1 150:1 157:1 164:1 171:1 181:1 185:1 186:1 187:1 188:1 189:1 190:1 215:1 216:1 
0 1 0 0 0 0 0 0 0 56:1 117:1 123:1 124:1 137:1 153:1 160:1 169:1 176:1 181:1 185:1 186:1 187:1 188:1 189:1 190:1 191:1 
0 1 1 1 0.6751018398659892 1 0 0 0 55:1 116:1 123:1 124:1 136:1 148:1 149:1 150:1 157:1 164:1 171:1 181:1 185:1 186:1 187:1 188:1 189:1 190:1 215:1 216:1 
1 1 1 1 1 1 0.1516055350222998 0.04865113881696965 0.4495955833649269 18:1 119:1 127:1 137:1 148:1 152:1 163:1 167:1 171:1 181:1 183:1 186:1 187:1 243:1 
0 1 1 1 1 1 0 0 0 55:1 116:1 123:1 124:1 137:1 148:1 150:1 163:1 164:1 171:1 181:1 185:1 186:1 187:1 189:1 190:1 215:1 239:1 
0 1 1 1 1 1 0.8033116998448225 0 0 17:1 62:1 124:1 140:1 148:1 154:1 162:1 165:1 174:1 181:1 185:1 186:1 187:1 256:0.25 
0 1 0 1 0 1 0 0 0 17:1 78:1 123:1 124:1 136:1 148:1 153:1 157:1 165:1 172:1 181:1 185:1 186:1 187:1 189:1 190:1 191:1 
0 1 1 1 1 1 1 0 0 54:1 115:1 123:1 125:1 137:1 148:1 156:1 163:1 167:1 175:1 181:1 185:1 186:1 187:1 188:1 256:0.75 
0 1 1 1 1 1 0 0 0 54:1 80:1 125:1 139:1 148:1 149:1 156:1 163:1 168:1 174:1 181:1 185:1 186:1 187:1 188:1 
0 1 0 1 0 1 0 0 0 17:1 78:1 123:1 124:1 136:1 148:1 153:1 163:1 165:1 172:1 181:1 185:1 186:1 187:1 189:1 190:1 191:1 256:0.75 
0 1 1 1 1 1 0.2319196860551241 0 0 19:1 79:1 127:1 138:1 155:1 162:1 171:1 185:1 186:1 187:1 188:1 
0 1 1 1 1 1 0 0 0 1:1 62:1 123:1 128:1 141:1 148:1 149:1 154:1 162:1 165:1 171:1 181:1 185:1 186:1 187:1 190:1 222:1 
0 1 1 1 0 1 0 0.6855289710053728 1 18:1 119:1 127:1 137:1 156:1 163:1 165:1 172:1 181:1 185:1 186:1 188:1 189:1 
0 1 1 1 0 1 0 0 0 56:1 115:1 125:1 137:1 148:1 149:1 156:1 160:1 165:1 172:1 178:1 185:1 186:1 187:1 190:1 216:1 222:1 256:0.25 
0 1 1 1 0 1 0 0 0 55:1 116:1 123:1 124:1 136:1 148:1 149:1 156:1 163:1 164:1 171:1 181:1 185:1 186:1 187:1 188:1 189:1 190:1 215:1 216:1 256:0.25 
0.1672269994144775 1 0 1 0 1 0 0 0 55:1 116:1 123:1 124:1 136:1 148:1 156:1 162:1 164:1 171:1 181:1 185:1 186:1 187:1 189:1 190:1 216:1 
0 1 1 1 1 1 0.3151009971164767 0 0 18:1 80:1 127:1 138:1 155:1 163:1 167:1 174:1 181:1 185:1 186:1 187:1 189:1 190:1 256:0.25 
0 1 0 0 0 1 0 0 0 56:1 117:1 123:1 124:1 136:1 156:1 163:1 169:1 176:1 181:1 185:1 186:1 187:1 188:1 189:1 190:1 191:1 
0 1 1 1 0 1 0 0 0 58:1 116:1 125:1 136:1 148:1 153:1 160:1 164:1 171:1 181:1 185:1 186:1 187:1 188:1 189:1 190:1 
0 1 0 0 0 1 0 0 0 55:1 116:1 123:1 124:1 136:1 156:1 163:1 164:1 171:1 181:1 185:1 186:1 187:1 188:1 189:1 190:1 198:1 215:1 224:1 
0 1 1 0 0 1 0 0.3801581763576931 0 17:1 117:1 124:1 136:1 156:1 161:1 165:1 176:1 181:1 185:1 186:1 187:1 190:1 193:1 205:1 224:1 
0 1 1 1 0 1 0 0 0 56:1 116:1 124:1 136:1 148:1 153:1 160:1 169:1 171:1 181:1 185:1 186:1 187:1 188:1 190:1 195:1 207:1 216:1 
0 1 1 1 1 1 1 0 0.6519192835704203 56:1 62:1 125:1 137:1 149:1 156:1 163:1 164:1 171:1 178:1 185:1 186:1 187:1 188:1 190:1 
0 1 1 0 0.8600335588350514 1 0 0 0.3089878128879186 17:1 117:1 124:1 137:1 148:1 154:1 160:1 165:1 172:1 181:1 182:1 186:1 187:1 190:1 
0 1 0 0 0 1 0 0 0.1525647908752866 56:1 117:1 123:1 125:1 137:1 156:1 163:1 165:1 172:1 178:1 182:1 187:1 188:1 189:1 210:1 216:1 240:1 
0 1 0 1 0.1018082847106374 1 0 0 0 55:1 116:1 123:1 124:1 136:1 148:1 149:1 154:1 163:1 164:1 171:1 181:1 185:1 186:1 187:1 189:1 190:1 215:1 216:1 
0 1 0 1 0 1 0 0 0 55:1 116:1 123:1 124:1 136:1 156:1 163:1 164:1 171:1 181:1 185:1 186:1 187:1 188:1 189:1 190:1 210:1 216:1 256:0.25 
0 1 0 0 0 1 0 0 0 55:1 116:1 123:1 124:1 136:1 148:1 156:1 161:1 164:1 171:1 181:1 185:1 186:1 187:1 189:1 190:1 204:1 216:1 
0 1 1 1 0.2822698406951637 1 0 0 0 55:1 116:1 123:1 124:1 136:1 148:1 149:1 156:1 161:1 164:1 171:1 181:1 185:1 186:1 187:1 189:1 190:1 215:1 243:1 
0 1 1 1 0.5738707530089755 1 0.9568463081569272 0 0 18:1 115:1 127:1 137:1 148:1 154:1 161:1 167:1 172:1 181:1 185:1 186:1 187:1 188:1 213:1 
0 1 0 1 0 1 0 0 0 55:1 116:1 123:1 124:1 136:1 156:1 163:1 164:1 171:1 181:1 185:1 186:1 187:1 188:1 189:1 190:1 198:1 215:1 224:1 256:0.25 
0.6736423672620698 1 0 1 1 1 0 1 0 57:1 79:1 124:1 139:1 154:1 162:1 165:1 172:1 181:1 185:1 186:1 187:1 189:1 190:1 196:1 208:1 215:1 256:0.25 
0 1 0 1 0 1 0 0 0 55:1 116:1 123:1 124:1 136:1 148:1 150:1 161:1 164:1 171:1 181:1 185:1 186:1 187:1 189:1 190:1 210:1 216:1 
0 1 0.2448085982471459 1 0 1 0 0 0 55:1 116:1 123:1 124:1 136:1 149:1 153:1 157:1 164:1 171:1 181:1 185:1 186:1 187:1 189:1 190:1 215:1 
0 1 1 1 1 1 0.4884806480694885 0 0 58:1 79:1 125:1 136:1 156:1 163:1 165:1 174:1 179:1 185:1 186:1 187:1 188:1 215:1 256:0.25 
0 1 1 1 1 1 0 0 0 55:1 80:1 124:1 138:1 148:1 156:1 161:1 164:1 174:1 181:1 185:1 186:1 187:1 202:1 215:1 256:0.25 
0 1 1 0 0 1 0 0 0 54:1 118:1 125:1 136:1 156:1 161:1 168:1 172:1 181:1 185:1 186:1 187:1 190:1 225:1 
0 1 1 1 0 1 0 0 0 1:1 115:1 128:1 137:1 148:1 149:1 154:1 163:1 167:1 172:1 181:1 185:1 186:1 187:1 190:1 216:1 
0 1 1 0 0 1 0.4225728635624799 0 0 1:1 115:1 128:1 137:1 154:1 163:1 167:1 175:1 181:1 185:1 186:1 187:1 190:1 225:1 
0 1 0 1 1 1 0 0 0 54:1 80:1 125:1 139:1 156:1 163:1 168:1 174:1 181:1 185:1 186:1 187:1 188:1 201:1 248:1 256:0.25 
0 1 1 1 1 1 0 0 0 56:1 78:1 125:1 136:1 148:1 149:1 156:1 161:1 165:1 172:1 178:1 185:1 186:1 187:1 190:1 256:0.25 
0 1 0.3889701204138792 1 0 1 0 0 0 55:1 116:1 123:1 124:1 136:1 148:1 149:1 156:1 163:1 164:1 171:1 181:1 185:1 186:1 187:1 188:1 189:1 190:1 215:1 216:1 222:1 256:1 
0 1 1 1 0 1 0 0 0 55:1 116:1 123:1 124:1 136:1 148:1 149:1 156:1 163:1 164:1 171:1 181:1 185:1 186:1 187:1 188:1 189:1 190:1 215:1 216:1 256:1 
0 1 0 0 0 1 0 0 0.8563014735472989 55:1 116:1 123:1 124:1 136:1 156:1 163:1 164:1 171:1 181:1 185:1 186:1 187:1 188:1 189:1 190:1 
0 1 1 1 0 1 0 0 0 55:1 116:1 123:1 124:1 136:1 148:1 149:1 156:1 163:1 164:1 171:1 181:1 185:1 186:1 187:1 188:1 189:1 190:1 215:1 216:1 256:0.25 
0 1 1 0 0 1 0 0 0 18:1 117:1 125:1 136:1 153:1 160:1 164:1 176:1 181:1 185:1 186:1 187:1 188:1 190:1 
0 1 1 1 1 1 0.3387658864422965 0 0.06858278489524995 55:1 115:1 124:1 136:1 148:1 156:1 159:1 164:1 172:1 181:1 185:1 186:1 187:1 190:1 
0 1 0 1 0 1 0 0 0 55:1 116:1 123:1 124:1 136:1 149:1 156:1 163:1 164:1 171:1 181:1 185:1 186:1 187:1 188:1 189:1 190:1 215:1 216:1 256:0.25 
0 1 1 1 0 1 0 0 0 55:1 116:1 123:1 124:1 136:1 148:1 149:1 150:1 157:1 164:1 171:1 181:1 185:1 186:1 187:1 188:1 189:1 190:1 215:1 216:1 256:0.75 
0 1 0 0 0 1 0 0 0 55:1 116:1 123:1 124:1 136:1 153:1 161:1 164:1 171:1 181:1 185:1 186:1 187:1 189:1 190:1 210:1 216:1 
0 1 1 0 0 1 0 0 0 56:1 117:1 123:1 125:1 136:1 156:1 160:1 165:1 176:1 178:1 185:1 186:1 187:1 190:1 191:1 215:1 
0 1 0 0 0 1 0 0 0 58:1 119:1 123:1 124:1 137:1 155:1 163:1 170:1 172:1 181:1 183:1 186:1 187:1 190:1 195:1 207:1 216:1 256:0.25 
0 1 1 1 1 1 0 0 0 1:1 117:1 128:1 137:1 148:1 155:1 163:1 165:1 172:1 179:1 184:1 187:1 216:1 248:1 
0 1 1 0 1 1 0 0 0 54:1 117:1 125:1 137:1 156:1 157:1 167:1 174:1 181:1 185:1 186:1 187:1 189:1 190:1 195:1 207:1 215:1 216:1 
0 1 1 1 1 1 0 0 0.6437888714319698 18:1 119:1 127:1 137:1 148:1 149:1 156:1 160:1 165:1 173:1 181:1 185:1 186:1 187:1 190:1 256:0.25 
0 1 0.8948978377419841 0 0 1 0 0 0 58:1 78:1 124:1 136:1 156:1 161:1 170:1 172:1 181:1 185:1 186:1 187:1 190:1 
0 1 0 1 0 1 0 0 0 55:1 116:1 123:1 124:1 137:1 148:1 153:1 157:1 164:1 171:1 181:1 185:1 186:1 187:1 189:1 190:1 191:1 215:1 
0 1 0 1 1 1 0 0.5783240608008281 0 58:1 79:1 124:1 139:1 156:1 163:1 170:1 174:1 181:1 185:1 186:1 187:1 188:1 
0.9948224922349189 1 1 0 0.2962229968835923 1 0 0 0 55:1 117:1 124:1 136:1 148:1 152:1 157:1 164:1 176:1 181:1 185:1 186:1 187:1 190:1 195:1 207:1 215:1 
0 1 1 1 0 1 0 0 0 55:1 116:1 123:1 124:1 136:1 148:1 149:1 153:1 157:1 164:1 171:1 181:1 185:1 186:1 187:1 189:1 190:1 215:1 216:1 
0 1 1 1 1 1 0 0 0.3572269933321006 55:1 116:1 123:1 124:1 136:1 148:1 150:1 163:1 164:1 171:1 181:1 185:1 186:1 187:1 189:1 190:1 192:1 215:1 
0 1 0 0 0 1 0 0 0 58:1 119:1 123:1 125:1 137:1 156:1 161:1 165:1 172:1 178:1 185:1 186:1 187:1 190:1 191:1 215:1 
0.7596478387581739 1 1 1 1 1 0 0.9902898998341655 0 55:1 79:1 124:1 139:1 156:1 160:1 164:1 171:1 181:1 185:1 186:1 187:1 189:1 190:1 196:1 208:1 215:1 
0 1 1 1 0 1 0 0 0 55:1 116:1 123:1 124:1 136:1 148:1 149:1 156:1 163:1 164:1 171:1 181:1 185:1 186:1 187:1 188:1 189:1 190:1 215:1 216:1 256:1 
0 1 1 1 1 1 0 0 0 55:1 116:1 123:1 124:1 136:1 148:1 149:1 150:1 157:1 164:1 171:1 181:1 185:1 186:1 187:1 188:1 189:1 190:1 215:1 216:1 
0 1 1 1 0 1 0 0 0 55:1 116:1 123:1 124:1 136:1 148:1 149:1 150:1 157:1 164:1 171:1 181:1 185:1 186:1 187:1 188:1 189:1 190:1 215:1 216:1 256:1 
0 1 1 0 0 1 0 0 0.4403991088404478 17:1 117:1 124:1 136:1 155:1 163:1 165:1 176:1 181:1 185:1 186:1 187:1 190:1 198:1 
0 1 1 1 0 1 0 0 0 54:1 78:1 125:1 136:1 155:1 162:1 167:1 172:1 181:1 185:1 186:1 187:1 188:1 
1 1 0 0 1 1 0 0 0 54:1 115:1 123:1 125:1 137:1 156:1 162:1 165:1 174:1 181:1 185:1 186:1 187:1 191:1 
0 1 1 1 0 1 0 0 0 55:1 116:1 123:1 124:1 136:1 148:1 149:1 150:1 157:1 164:1 171:1 181:1 185:1 186:1 187:1 188:1 189:1 190:1 215:1 216:1 256:1 
0 1 1 1 0 1 0 0 0 55:1 117:1 124:1 136:1 148:1 156:1 163:1 164:1 176:1 181:1 185:1 186:1 187:1 188:1 190:1 195:1 207:1 215:1 256:0.25 
0 1 1 0 0 1 0 0 0.4456781912828532 56:1 119:1 124:1 137:1 156:1 160:1 169:1 172:1 181:1 183:1 186:1 187:1 190:1 216:1 
0 1 0 1 0.3063323644567074 1 0 0 0 1:1 62:1 123:1 128:1 140:1 148:1 154:1 161:1 167:1 174:1 181:1 185:1 186:1 187:1 188:1 189:1 190:1 
0 1 1 0 0 1 0 0 0 17:1 117:1 124:1 136:1 148:1 154:1 163:1 165:1 176:1 181:1 185:1 186:1 187:1 190:1 248:1 256:0.25 
0 1 0 1 0 1 0 0 0 55:1 116:1 123:1 124:1 136:1 156:1 163:1 164:1 171:1 181:1 185:1 186:1 187:1 188:1 189:1 190:1 192:1 215:1 224:1 256:1 
0.2136356056020236 1 1 1 0 1 0.4763549903247241 0 1 18:1 78:1 127:1 136:1 156:1 163:1 165:1 172:1 181:1 185:1 186:1 187:1 188:1 189:1 190:1 197:1 209:1 
0 1 0 0 0 1 0 0 0 55:1 116:1 123:1 124:1 136:1 156:1 163:1 164:1 171:1 181:1 185:1 186:1 187:1 188:1 189:1 190:1 191:1 256:0.25 
0 1 1 1 1 1 0 0 0 56:1 78:1 132:1 136:1 148:1 149:1 150:1 157:1 167:1 172:1 181:1 185:1 186:1 187:1 188:1 
0 1 1 1 1 1 0 0 0 58:1 116:1 124:1 136:1 148:1 156:1 163:1 165:1 171:1 179:1 185:1 186:1 187:1 188:1 190:1 198:1 215:1 248:1 
0 1 1 1 1 1 0 0 0 17:1 78:1 123:1 124:1 136:1 148:1 149:1 150:1 157:1 165:1 172:1 181:1 185:1 186:1 188:1 189:1 233:1 256:1 
0 1 1 0 0 1 0 0 0 56:1 117:1 123:1 125:1 136:1 156:1 163:1 165:1 176:1 178:1 185:1 186:1 187:1 188:1 190:1 195:1 207:1 215:1 249:1 
0 1 0.9557798257906847 0 0 1 0 0 0 56:1 119:1 125:1 137:1 156:1 161:1 165:1 172:1 181:1 185:1 186:1 187:1 189:1 190:1 215:1 
0 1 1 1 0 1 0 0 0 56:1 115:1 124:1 137:1 148:1 156:1 163:1 169:1 175:1 181:1 185:1 186:1 187:1 188:1 190:1 216:1 248:1 256:0.25 
0 1 1 1 1 1 0 0 0 57:1 116:1 124:1 136:1 148:1 150:1 157:1 165:1 171:1 181:1 185:1 186:1 187:1 188:1 190:1 210:1 216:1 224:1 256:1 
0 1 1 1 0 1 0 0 0 17:1 119:1 124:1 137:1 148:1 155:1 161:1 165:1 172:1 181:1 185:1 186:1 189:1 
0 1 1 1 0 1 1 0 0 55:1 119:1 124:1 136:1 148:1 156:1 163:1 164:1 171:1 181:1 185:1 186:1 187:1 188:1 189:1 190:1 215:1 
0 1 1 1 1 1 0 0 0 55:1 80:1 124:1 139:1 156:1 160:1 164:1 171:1 181:1 185:1 186:1 187:1 189:1 190:1 196:1 208:1 215:1 
0 1 1 0 0 1 0 0 0.01833762885291913 56:1 117:1 123:1 124:1 136:1 156:1 160:1 169:1 176:1 181:1 185:1 186:1 187:1 189:1 190:1 195:1 207:1 227:1 
1 1 1 1 1 1 0 0 0 55:1 79:1 124:1 138:1 156:1 160:1 164:1 171:1 181:1 185:1 186:1 187:1 189:1 190:1 196:1 208:1 215:1 
0.3635547745174255 1 1 1 1 1 0 0 0 55:1 117:1 124:1 137:1 148:1 149:1 156:1 160:1 164:1 171:1 181:1 182:1 186:1 187:1 190:1 215:1 216:1 222:1 
0 1 1 1 1 1 0 0 0.02158247687565167 58:1 119:1 123:1 125:1 136:1 149:1 156:1 163:1 165:1 177:1 181:1 185:1 187:1 188:1 215:1 239:1 
0 1 1 1 0 1 0 0 0 55:1 116:1 123:1 124:1 136:1 148:1 149:1 150:1 157:1 164:1 171:1 181:1 185:1 186:1 187:1 188:1 189:1 190:1 215:1 216:1 256:1 
0 1 0 1 0 1 0 0 0 54:1 115:1 123:1 125:1 137:1 156:1 163:1 166:1 173:1 181:1 185:1 186:1 187:1 188:1 189:1 190:1 224:1 256:1 
0 1 0.9528539470674029 0 0 1 0.1144056381328368 0 0 54:1 117:1 125:1 136:1 155:1 162:1 166:1 176:1 181:1 185:1 186:1 187:1 188:1 190:1 201:1 215:1 
0 1 0 1 0 1 0 0 0 55:1 116:1 123:1 124:1 137:1 148:1 150:1 157:1 164:1 171:1 181:1 185:1 186:1 187:1 188:1 189:1 190:1 191:1 215:1 222:1 256:0.75 
0 1 1 1 0 1 0 0 0 55:1 116:1 123:1 124:1 136:1 148:1 149:1 150:1 157:1 164:1 171:1 181:1 185:1 186:1 187:1 188:1 189:1 190:1 215:1 216:1 222:1 256:0.75 
0 1 1 1 1 1 0 0 0 55:1 118:1 124:1 136:1 148:1 149:1 150:1 161:1 164:1 172:1 181:1 185:1 186:1 187:1 190:1 215:1 216:1 
0 1 1 1 1 1 0 0 0 55:1 116:1 123:1 124:1 136:1 148:1 149:1 150:1 157:1 164:1 171:1 181:1 185:1 186:1 187:1 188:1 189:1 190:1 215:1 216:1 
0 1 1 1 0 1 0.6570727574287526 0 0 56:1 115:1 125:1 137:1 148:1 149:1 153:1 160:1 166:1 175:1 178:1 185:1 186:1 187:1 188:1 190:1 216:1 
0 1 1 0 0.5831653918653902 1 0 0 0.05797890435685189 58:1 117:1 125:1 136:1 148:1 154:1 163:1 165:1 176:1 181:1 185:1 186:1 187:1 190:1 
0 1 1 1 0.8896941785597403 1 0 0 0 55:1 116:1 123:1 124:1 136:1 148:1 149:1 150:1 160:1 164:1 171:1 181:1 185:1 186:1 187:1 189:1 190:1 215:1 216:1 
0.2501868016016955 1 1 1 0 1 0 0 0 56:1 117:1 123:1 125:1 137:1 148:1 149:1 152:1 161:1 169:1 172:1 181:1 182:1 186:1 187:1 190:1 216:1 
0 1 1 1 1 1 0 0 0 58:1 116:1 125:1 136:1 148:1 149:1 156:1 160:1 164:1 171:1 181:1 185:1 186:1 187:1 189:1 190:1 215:1 216:1 256:0.25 
0 1 1 1 0 1 0 0 0 1:1 119:1 125:1 137:1 148:1 149:1 156:1 163:1 164:1 171:1 181:1 185:1 186:1 187:1 188:1 189:1 190:1 216:1 
0 1 1 0 1 1 0 0 0 55:1 116:1 123:1 124:1 137:1 156:1 163:1 167:1 171:1 181:1 185:1 186:1 187:1 188:1 191:1 215:1 
0 1 0 1 0 1 0 0 0 55:1 116:1 123:1 124:1 137:1 156:1 163:1 164:1 171:1 181:1 185:1 186:1 187:1 188:1 189:1 190:1 191:1 215:1 235:1 256:0.75 
0 1 1 1 0 1 0 0 0 55:1 116:1 123:1 124:1 136:1 148:1 149:1 156:1 163:1 164:1 171:1 181:1 185:1 186:1 187:1 188:1 189:1 190:1 216:1 256:0.25 
0 1 0 0 0 1 0 0 0 55:1 116:1 123:1 124:1 136:1 156:1 163:1 164:1 171:1 181:1 185:1 186:1 187:1 188:1 189:1 190:1 191:1 256:0.25 
0 1 1 1 1 1 0 0 0 55:1 116:1 123:1 124:1 136:1 148:1 149:1 156:1 163:1 164:1 171:1 181:1 185:1 186:1 187:1 188:1 189:1 190:1 216:1 
0 1 0 0 0 1 0 0 0.01282272443337113 58:1 119:1 123:1 125:1 136:1 156:1 163:1 168:1 177:1 181:1 185:1 186:1 187:1 188:1 190:1 
0 1 1 1 0 1 0 0 0 55:1 116:1 123:1 124:1 136:1 148:1 149:1 156:1 163:1 164:1 171:1 181:1 185:1 186:1 187:1 188:1 189:1 190:1 215:1 216:1 
0 1 1 1 0 1 0 0 0 55:1 116:1 123:1 124:1 136:1 148:1 149:1 156:1 163:1 164:1 171:1 181:1 185:1 186:1 187:1 188:1 189:1 190:1 215:1 216:1 256:0.25 
0 1 1 1 0 1 0 0 0 55:1 116:1 123:1 124:1 136:1 148:1 149:1 156:1 163:1 164:1 171:1 181:1 185:1 186:1 187:1 188:1 189:1 190:1 215:1 216:1 
0 1 1 1 0 1 0 0 0 55:1 116:1 123:1 124:1 136:1 148:1 149:1 156:1 163:1 164:1 171:1 181:1 185:1 186:1 187:1 188:1 189:1 190:1 215:1 216:1 
0 1 0 1 0 1 0 0 0 55:1 116:1 123:1 124:1 136:1 148:1 149:1 156:1 163:1 164:1 171:1 181:1 185:1 186:1 187:1 188:1 189:1 190:1 216:1 248:1 256:0.75 
0 1 0.3913978582621409 1 0 1 0 0 0 55:1 116:1 123:1 124:1 136:1 148:1 149:1 150:1 157:1 164:1 171:1 181:1 185:1 186:1 187:1 188:1 189:1 190:1 215:1 216:1 222:1 256:0.75 
0 1 1 1 1 1 0 0.3491648945683762 0 18:1 79:1 123:1 127:1 139:1 156:1 163:1 167:1 174:1 181:1 185:1 186:1 187:1 188:1 189:1 190:1 191:1 
0.5600335165313425 1 0 1 1 1 0 0 0 58:1 79:1 125:1 139:1 156:1 163:1 164:1 174:1 181:1 185:1 186:1 187:1 188:1 201:1 215:1 256:0.25 
0.04858050511550982 1 1 1 0 1 0 0.8874967026114912 0 58:1 117:1 124:1 137:1 148:1 155:1 163:1 170:1 172:1 181:1 182:1 186:1 187:1 190:1 216:1 256:0.25 
0 1 1 1 0 1 0 0 0 55:1 116:1 123:1 124:1 136:1 148:1 149:1 156:1 163:1 164:1 171:1 181:1 185:1 186:1 187:1 188:1 189:1 190:1 216:1 222:1 
0.04957763118777764 1 1 1 1 1 0 0.1976999114049266 0 18:1 79:1 123:1 127:1 139:1 148:1 156:1 157:1 164:1 174:1 181:1 185:1 186:1 187:1 256:0.25 
0 1 0 1 0 1 0 0 0 58:1 119:1 123:1 125:1 137:1 148:1 149:1 153:1 160:1 164:1 171:1 181:1 185:1 186:1 187:1 188:1 189:1 190:1 215:1 216:1 222:1 256:1 
0 1 0 1 0 1 0 0 0 58:1 119:1 123:1 125:1 137:1 148:1 149:1 153:1 160:1 164:1 171:1 181:1 185:1 186:1 187:1 188:1 189:1 190:1 215:1 216:1 222:1 256:1 
0 1 0 1 0 1 0 0 0 17:1 78:1 123:1 124:1 136:1 148:1 152:1 159:1 165:1 172:1 181:1 185:1 186:1 187:1 188:1 189:1 190:1 191:1 248:1 
0 1 0 0 0 1 0 0 0 58:1 119:1 123:1 125:1 136:1 156:1 163:1 165:1 177:1 179:1 185:1 186:1 187:1 188:1 190:1 191:1 
0 1 1 1 0 1 0.1739882170040331 0 0 54:1 119:1 125:1 137:1 148:1 149:1 156:1 163:1 166:1 173:1 181:1 185:1 186:1 187:1 188:1 189:1 190:1 215:1 216:1 256:1 
0 1 1 1 0 1 0 0 0 56:1 115:1 125:1 136:1 148:1 149:1 156:1 163:1 165:1 172:1 178:1 185:1 186:1 187:1 188:1 190:1 215:1 256:0.25 
0.8744413086931804 1 0 1 1 1 0 0 0 17:1 62:1 124:1 140:1 148:1 152:1 162:1 165:1 172:1 181:1 185:1 186:1 187:1 189:1 190:1 248:1 
0 1 0 0 0 1 0 0 0 1:1 78:1 128:1 136:1 154:1 161:1 165:1 172:1 181:1 185:1 186:1 187:1 188:1 189:1 190:1 
0 1 1 1 1 1 0.05394452185747466 0 1 56:1 116:1 124:1 136:1 148:1 156:1 163:1 169:1 171:1 181:1 185:1 186:1 187:1 188:1 190:1 
0 1 0 1 0 1 0 0 0 55:1 116:1 123:1 124:1 136:1 149:1 156:1 163:1 164:1 171:1 181:1 185:1 186:1 187:1 188:1 189:1 190:1 215:1 216:1 256:1 
0 1 1 1 0 1 0 0.35398296675028 0 54:1 115:1 123:1 125:1 137:1 148:1 156:1 163:1 168:1 172:1 181:1 185:1 186:1 187:1 188:1 190:1 191:1 
0 1 1 1 0 1 0 0 0 55:1 116:1 123:1 124:1 136:1 148:1 149:1 156:1 163:1 164:1 171:1 181:1 185:1 186:1 187:1 188:1 189:1 190:1 215:1 216:1 
0 1 0 1 0 1 0 0 0 55:1 116:1 123:1 124:1 136:1 149:1 156:1 163:1 164:1 171:1 181:1 185:1 186:1 187:1 188:1 189:1 190:1 215:1 216:1 
0 1 1 1 0 1 0 0 0 55:1 116:1 123:1 124:1 136:1 148:1 149:1 156:1 163:1 164:1 171:1 181:1 185:1 186:1 187:1 188:1 189:1 190:1 215:1 216:1 
0 1 1 1 0 1 0 0 0 55:1 116:1 123:1 124:1 136:1 148:1 149:1 156:1 163:1 164:1 171:1 181:1 185:1 186:1 187:1 188:1 189:1 190:1 215:1 216:1 256:1 
0 1 0 1 0 1 0 0 0 55:1 116:1 123:1 124:1 136:1 149:1 156:1 163:1 164:1 171:1 181:1 185:1 186:1 187:1 188:1 189:1 190:1 215:1 216:1 256:0.25 
0 1 0 1 0 1 0 0 0 55:1 116:1 123:1 124:1 136:1 149:1 156:1 163:1 164:1 171:1 181:1 185:1 186:1 187:1 188:1 189:1 190:1 215:1 256:1 
0 1 1 1 0 1 0 0 0 55:1 116:1 123:1 124:1 136:1 148:1 149:1 156:1 163:1 164:1 171:1 181:1 185:1 186:1 187:1 188:1 189:1 190:1 215:1 216:1 256:1 
0 1 0 1 0 1 0 0 0 55:1 116:1 123:1 124:1 136:1 149:1 156:1 163:1 164:1 171:1 181:1 185:1 186:1 187:1 188:1 189:1 190:1 215:1 216:1 256:0.25 
0 1 1 1 0 1 0 0 0 55:1 116:1 123:1 124:1 136:1 148:1 149:1 156:1 163:1 164:1 171:1 181:1 185:1 186:1 187:1 188:1 189:1 190:1 216:1 256:1 
0 1 1 0 0 1 0 0 0 56:1 78:1 124:1 136:1 156:1 161:1 169:1 172:1 181:1 185:1 186:1 187:1 190:1 195:1 207:1 
0 1 1 1 1 1 0.3584060912609842 0.1103390935638672 0.7646817988982118 58:1 117:1 125:1 136:1 148:1 156:1 163:1 165:1 176:1 179:1 185:1 186:1 187:1 188:1 190:1 198:1 215:1 
0 1 1 1 0 1 0 0 0 55:1 116:1 123:1 124:1 136:1 148:1 149:1 150:1 157:1 164:1 171:1 181:1 185:1 186:1 187:1 188:1 189:1 190:1 215:1 216:1 256:1 
0.3157556335528778 1 1 1 1 1 0 0 0 58:1 117:1 124:1 144:1 148:1 149:1 156:1 157:1 170:1 174:1 181:1 185:1 186:1 187:1 256:0.25 
0 1 1 0 0 1 0 0 0 56:1 78:1 124:1 136:1 148:1 156:1 161:1 169:1 172:1 181:1 185:1 186:1 187:1 190:1 195:1 207:1 
0 1 1 1 0 1 0 0 0 56:1 116:1 124:1 136:1 156:1 163:1 169:1 171:1 181:1 185:1 186:1 187:1 188:1 190:1 248:1 256:0.25 
0 1 1 1 1 1 0 0 0 58:1 117:1 125:1 144:1 148:1 156:1 163:1 165:1 174:1 179:1 185:1 186:1 187:1 188:1 
0 1 1 1 1 1 0 0 0 55:1 119:1 124:1 137:1 148:1 149:1 156:1 163:1 164:1 171:1 181:1 185:1 186:1 187:1 188:1 189:1 190:1 216:1 
0 1 1 0 0 1 0 0 0 58:1 116:1 125:1 136:1 156:1 163:1 164:1 171:1 181:1 185:1 186:1 187:1 188:1 189:1 190:1 215:1 
0.07568430278468469 1 1 1 1 1 0 0.04927196795949746 0 55:1 79:1 124:1 139:1 156:1 163:1 164:1 171:1 181:1 185:1 186:1 187:1 188:1 189:1 190:1 196:1 208:1 215:1 256:0.25 
0 1 1 1 1 1 0 0 0 55:1 116:1 123:1 124:1 137:1 148:1 149:1 150:1 157:1 164:1 171:1 181:1 185:1 186:1 187:1 188:1 189:1 190:1 215:1 256:1 
1 1 1 1 1 1 0 0 0 55:1 118:1 124:1 136:1 149:1 156:1 162:1 164:1 172:1 181:1 185:1 186:1 187:1 190:1 215:1 216:1 
0 1 1 0 0 1 0 0 0 55:1 117:1 124:1 136:1 150:1 163:1 164:1 176:1 181:1 185:1 186:1 187:1 190:1 195:1 207:1 215:1 256:0.25 
0.1502104632181875 1 1 1 0 1 0 0 0 19:1 117:1 126:1 137:1 150:1 160:1 168:1 172:1 181:1 182:1 186:1 187:1 190:1 256:0.25 
0 1 0 1 0 1 0 0 0 54:1 115:1 123:1 125:1 137:1 150:1 157:1 168:1 175:1 181:1 185:1 186:1 187:1 188:1 189:1 190:1 191:1 215:1 216:1 
0 1 1 1 1 1 0 0 0 1:1 79:1 128:1 139:1 155:1 163:1 167:1 174:1 181:1 185:1 186:1 187:1 189:1 190:1 256:0.25 
0 1 1 1 0 1 0.07257679086504799 0.04812969486928727 0.620431814074127 18:1 119:1 127:1 137:1 156:1 158:1 164:1 171:1 181:1 185:1 186:1 187:1 189:1 190:1 197:1 209:1 216:1 224:1 
0 1 1 1 1 1 1 0 0 18:1 116:1 127:1 136:1 156:1 163:1 167:1 171:1 181:1 185:1 186:1 187:1 188:1 214:1 216:1 
0 1 1 1 1 1 0 0 0 18:1 116:1 127:1 136:1 156:1 157:1 167:1 171:1 181:1 185:1 186:1 187:1 214:1 216:1 
0 1 0 0 0 1 0 0 0 1:1 117:1 128:1 137:1 148:1 154:1 161:1 165:1 172:1 181:1 182:1 186:1 187:1 188:1 190:1 191:1 248:1 
0 1 1 1 1 1 0 0 0 55:1 117:1 124:1 136:1 148:1 149:1 156:1 163:1 164:1 176:1 181:1 185:1 186:1 187:1 188:1 190:1 215:1 
1 1 0 1 1 1 0 1 0 54:1 79:1 125:1 139:1 156:1 163:1 165:1 172:1 181:1 185:1 186:1 187:1 188:1 189:1 190:1 196:1 208:1 256:0.25 
0 1 1 0 1 1 0 0 0.1712827432433449 54:1 116:1 125:1 137:1 156:1 157:1 165:1 171:1 181:1 185:1 187:1 191:1 215:1 
0.1038901900769226 1 1 1 1 1 0 0 0 55:1 119:1 124:1 137:1 149:1 156:1 163:1 164:1 172:1 181:1 185:1 186:1 187:1 188:1 190:1 216:1 
0 1 1 1 0 1 0 0 0 55:1 116:1 123:1 124:1 136:1 148:1 149:1 156:1 163:1 164:1 171:1 181:1 185:1 186:1 187:1 188:1 189:1 190:1 215:1 216:1 256:0.75 
0 1 1 1 0 1 0 0 0 55:1 117:1 124:1 136:1 148:1 156:1 163:1 164:1 176:1 181:1 185:1 186:1 187:1 188:1 190:1 195:1 207:1 215:1 
0 1 0 0 0 1 0 0 0 55:1 116:1 123:1 124:1 136:1 156:1 163:1 164:1 171:1 181:1 185:1 186:1 187:1 188:1 189:1 190:1 192:1 215:1 224:1 
0 1 1 1 1 1 0.4069597438720843 0 0 55:1 78:1 124:1 136:1 148:1 150:1 162:1 164:1 172:1 181:1 185:1 186:1 187:1 190:1 215:1 
0 1 1 1 0 1 0 0 0 55:1 117:1 124:1 136:1 148:1 156:1 163:1 164:1 176:1 181:1 185:1 186:1 187:1 188:1 190:1 195:1 207:1 215:1 248:1 256:0.75 
0.6066264078340963 1 1 1 0.2358891659957915 1 0.5205931573581495 0 0 18:1 119:1 127:1 137:1 156:1 163:1 167:1 172:1 181:1 183:1 186:1 187:1 188:1 216:1 
0 1 1 1 0 1 0.7691670143275007 0 0 18:1 78:1 127:1 136:1 156:1 163:1 165:1 172:1 181:1 185:1 186:1 187:1 188:1 189:1 190:1 197:1 209:1 256:0.25 
0 1 1 1 1 1 0 0 0 55:1 79:1 124:1 139:1 148:1 150:1 163:1 164:1 174:1 181:1 185:1 186:1 187:1 215:1 
0 1 1 1 1 1 0 0 0 55:1 79:1 125:1 138:1 148:1 150:1 163:1 164:1 174:1 181:1 185:1 186:1 187:1 
0 1 1 0 1 1 0 0 0.1028588370895186 17:1 116:1 124:1 137:1 156:1 157:1 165:1 171:1 181:1 185:1 186:1 187:1 190:1 191:1 
0 1 1 1 1 1 0 0 0 55:1 78:1 125:1 136:1 149:1 156:1 163:1 164:1 172:1 181:1 185:1 186:1 187:1 188:1 190:1 256:1 
0 1 1 1 1 1 0 0 0 55:1 116:1 123:1 124:1 137:1 148:1 156:1 163:1 167:1 171:1 181:1 185:1 186:1 187:1 188:1 191:1 215:1 
0 1 1 0 0 1 0 1 0 54:1 117:1 125:1 136:1 155:1 163:1 165:1 176:1 181:1 185:1 186:1 187:1 190:1 193:1 205:1 256:0.25 
0.5948384679246148 1 1 1 1 1 0 0.1996501233274675 0.6574057800059241 54:1 79:1 125:1 139:1 156:1 163:1 168:1 174:1 181:1 185:1 186:1 187:1 188:1 201:1 
0 1 1 1 1 1 0 0 0 55:1 117:1 124:1 137:1 150:1 157:1 164:1 174:1 181:1 185:1 186:1 187:1 188:1 195:1 207:1 215:1 216:1 
0 1 1 1 0 1 0 0 0.1683497107546245 18:1 78:1 126:1 136:1 156:1 163:1 165:1 172:1 181:1 185:1 186:1 187:1 188:1 189:1 190:1 197:1 209:1 
0 1 1 1 0 1 0.4191776210071018 0 0.929040325139283 18:1 119:1 127:1 136:1 156:1 163:1 170:1 177:1 181:1 185:1 186:1 187:1 188:1 189:1 190:1 197:1 209:1 216:1 
0 1 0 1 0 1 0 0 0 55:1 116:1 123:1 124:1 136:1 148:1 150:1 157:1 164:1 171:1 181:1 185:1 186:1 187:1 188:1 189:1 190:1 215:1 256:0.75 
0 1 1 0 1 1 0 1 0 54:1 117:1 125:1 137:1 156:1 163:1 169:1 174:1 181:1 185:1 186:1 187:1 188:1 193:1 205:1 
0 1 1 1 1 1 0 0 0 18:1 117:1 126:1 136:1 148:1 156:1 163:1 167:1 176:1 181:1 185:1 186:1 187:1 188:1 248:1 
0.3775747443811094 1 1 1 1 1 0 0.2825952600273355 0 19:1 79:1 127:1 138:1 156:1 163:1 165:1 174:1 178:1 185:1 186:1 187:1 188:1 
0.8667049095058255 1 1 1 0.7317597373399736 1 1 0 0 18:1 115:1 127:1 137:1 148:1 156:1 163:1 165:1 175:1 181:1 185:1 186:1 187:1 188:1 190:1 
0 1 1 1 0 1 0 0 0 54:1 117:1 124:1 136:1 156:1 163:1 168:1 176:1 181:1 185:1 186:1 187:1 188:1 190:1 230:1 256:0.25 
1 1 1 0 0.2893679946597882 1 0 0 0 17:1 115:1 124:1 137:1 152:1 163:1 165:1 175:1 181:1 185:1 186:1 187:1 190:1 194:1 
1 1 1 1 1 1 0 0.07606827767281424 0 58:1 79:1 124:1 139:1 148:1 156:1 163:1 170:1 174:1 181:1 185:1 186:1 187:1 188:1 201:1 
0 1 1 1 1 1 0 0 0.2655960631434413 1:1 80:1 128:1 139:1 155:1 160:1 165:1 174:1 181:1 185:1 187:1 
1 1 1 1 0 1 1 0.8313076762686668 0.198345432734641 18:1 115:1 127:1 137:1 156:1 163:1 166:1 173:1 181:1 185:1 186:1 187:1 188:1 189:1 190:1 197:1 209:1 
0 1 0 1 1 1 0 0 0 55:1 79:1 124:1 138:1 155:1 163:1 167:1 174:1 181:1 185:1 186:1 187:1 189:1 190:1 215:1 
0 1 1 1 0 1 0 0 0 55:1 117:1 124:1 136:1 148:1 150:1 157:1 164:1 176:1 181:1 185:1 186:1 187:1 188:1 190:1 195:1 207:1 215:1 256:0.25 
0.6873978208442755 1 0.5938172903629076 0 0 1 0.07539978787278662 0.01283860625668981 0 54:1 115:1 123:1 125:1 137:1 152:1 163:1 165:1 175:1 181:1 185:1 186:1 187:1 190:1 194:1 
1 1 1 1 1 1 0.191845416716669 0.2372585948489735 1 18:1 115:1 127:1 137:1 153:1 163:1 172:1 185:1 186:1 187:1 197:1 209:1 216:1 
0 1 1 0 1 1 0 0 0 55:1 117:1 124:1 136:1 148:1 150:1 163:1 164:1 176:1 181:1 185:1 186:1 187:1 190:1 215:1 
0 1 1 0 1 1 0 0 0 55:1 117:1 124:1 136:1 148:1 150:1 163:1 164:1 176:1 181:1 185:1 186:1 187:1 190:1 195:1 207:1 215:1 256:0.25 
0.08511101139363146 1 1 1 0.8688315621321389 1 0 0 0 58:1 115:1 124:1 137:1 156:1 163:1 170:1 173:1 181:1 185:1 186:1 187:1 188:1 190:1 222:1 
0 1 1 1 1 1 0 0 0 55:1 80:1 124:1 138:1 156:1 163:1 164:1 174:1 181:1 185:1 186:1 187:1 188:1 
0 1 0.2771839039578022 1 0 1 0 0 0.162710693585899 56:1 117:1 123:1 124:1 136:1 156:1 163:1 169:1 176:1 181:1 185:1 186:1 187:1 188:1 189:1 190:1 192:1 256:0.25 
0 1 0 0 0 1 0 0 0 55:1 116:1 123:1 124:1 136:1 156:1 163:1 164:1 171:1 181:1 185:1 186:1 187:1 188:1 189:1 190:1 191:1 245:1 
0 1 1 0 1 1 0 0 0 55:1 119:1 124:1 136:1 156:1 163:1 164:1 177:1 181:1 185:1 186:1 187:1 188:1 190:1 215:1 
1 1 1 1 1 1 0 0 0 19:1 79:1 127:1 139:1 148:1 149:1 156:1 163:1 164:1 174:1 181:1 185:1 186:1 187:1 188:1 222:1 256:1 
0 1 1 0 1 1 0 0 0 55:1 117:1 124:1 136:1 148:1 156:1 157:1 164:1 176:1 181:1 185:1 186:1 187:1 190:1 195:1 207:1 215:1 
0 1 1 1 1 1 0 0 0.1614620848329764 58:1 119:1 123:1 125:1 137:1 148:1 149:1 156:1 163:1 164:1 171:1 181:1 185:1 186:1 187:1 188:1 189:1 190:1 256:0.75 
0 1 0 1 0 1 0 0 0 58:1 119:1 123:1 125:1 137:1 156:1 163:1 164:1 171:1 181:1 185:1 186:1 187:1 188:1 189:1 190:1 191:1 215:1 233:1 256:0.25 
0 1 1 1 1 1 0 0 0 55:1 116:1 123:1 124:1 136:1 148:1 149:1 150:1 163:1 164:1 171:1 181:1 185:1 186:1 187:1 189:1 190:1 215:1 216:1 222:1 
0 1 1 1 0.2589922102351548 1 0 0 0 55:1 116:1 123:1 124:1 136:1 148:1 149:1 156:1 157:1 164:1 171:1 181:1 185:1 186:1 187:1 189:1 190:1 215:1 216:1 256:0.75 
0 1 0 1 0 1 0 0 0 58:1 119:1 123:1 125:1 136:1 156:1 163:1 165:1 177:1 179:1 185:1 186:1 187:1 188:1 190:1 215:1 256:0.25 
0.9547931753943903 1 1 1 1 1 0 0 0 55:1 79:1 124:1 139:1 148:1 149:1 150:1 163:1 164:1 174:1 181:1 185:1 186:1 187:1 215:1 
0 1 1 1 1 1 1 0 1 58:1 116:1 125:1 137:1 156:1 163:1 165:1 171:1 179:1 185:1 186:1 187:1 188:1 190:1 191:1 215:1 256:0.25 
0 1 0 0 0 1 0 0 0.2601199846673737 58:1 119:1 123:1 125:1 136:1 156:1 163:1 165:1 177:1 179:1 185:1 186:1 187:1 188:1 190:1 191:1 
0 1 0 1 1 1 0 0.6850478689373555 0.5948684428958089 58:1 79:1 125:1 139:1 156:1 163:1 164:1 174:1 181:1 185:1 186:1 187:1 188:1 202:1 256:0.25 
0 1 1 0 1 1 0 0 0 55:1 62:1 124:1 136:1 156:1 163:1 164:1 174:1 181:1 185:1 186:1 187:1 188:1 215:1 256:0.25 
1 1 1 1 1 1 0 0.1371914288663613 0 18:1 79:1 123:1 127:1 136:1 148:1 149:1 156:1 163:1 164:1 176:1 181:1 185:1 186:1 187:1 188:1 190:1 256:0.75 
0 1 1 0 1 1 0.1639607766628142 0 0 55:1 62:1 124:1 136:1 156:1 163:1 164:1 174:1 181:1 185:1 186:1 187:1 188:1 215:1 
0 1 1 1 1 1 0 0 0 55:1 80:1 124:1 139:1 151:1 163:1 164:1 171:1 181:1 185:1 186:1 187:1 189:1 190:1 196:1 208:1 
0 1 1 1 1 1 0 0 0 58:1 119:1 123:1 124:1 137:1 148:1 156:1 163:1 167:1 171:1 181:1 183:1 186:1 187:1 188:1 215:1 
0 1 1 1 1 1 0 0 0 55:1 79:1 124:1 139:1 150:1 163:1 164:1 174:1 181:1 185:1 186:1 187:1 202:1 215:1 
-1 1 1 1 1 1 1 0.595309497357279 1 17:1 79:1 124:1 138:1 156:1 163:1 165:1 174:1 181:1 185:1 186:1 187:1 188:1 201:1 256:0.25 
-1 1 1 1 1 1 0.2307730024667992 0 1 58:1 79:1 125:1 139:1 153:1 162:1 164:1 174:1 181:1 185:1 186:1 187:1 201:1 
-1 1 1 1 1 1 1 1 1 54:1 117:1 125:1 137:1 152:1 163:1 165:1 176:1 181:1 185:1 186:1 187:1 190:1 193:1 205:1 
-1 1 1 1 1 1 1 1 1 18:1 115:1 127:1 137:1 156:1 163:1 164:1 172:1 181:1 185:1 186:1 187:1 188:1 190:1 197:1 209:1 
-1 1 1 1 1 1 0.8939959678951557 0 0 55:1 79:1 124:1 138:1 152:1 162:1 164:1 171:1 181:1 185:1 186:1 187:1 189:1 190:1 196:1 208:1 
-1 1 1 1 1 1 1 1 1 56:1 79:1 124:1 139:1 156:1 163:1 169:1 176:1 181:1 185:1 186:1 187:1 188:1 189:1 190:1 196:1 208:1 222:1 
-1 1 1 1 1 1 1 0 1 18:1 115:1 127:1 137:1 148:1 149:1 156:1 163:1 167:1 175:1 181:1 185:1 186:1 187:1 188:1 256:0.25 
-1 1 1 1 1 1 1 0 1 19:1 117:1 127:1 137:1 148:1 149:1 156:1 163:1 164:1 172:1 181:1 182:1 186:1 187:1 188:1 190:1 216:1 256:0.25 
-1 1 1 1 1 1 1 0.7129203951947265 1 55:1 78:1 124:1 139:1 152:1 163:1 164:1 171:1 181:1 185:1 186:1 187:1 189:1 190:1 196:1 208:1 215:1 227:1 
-1 1 1 1 1 1 1 0.9773653318166493 1 19:1 115:1 127:1 137:1 148:1 156:1 163:1 165:1 172:1 181:1 185:1 186:1 187:1 188:1 189:1 190:1 197:1 209:1 256:0.25 
-1 1 1 1 1 1 1 1 1 18:1 79:1 123:1 127:1 139:1 148:1 149:1 156:1 163:1 167:1 174:1 181:1 185:1 186:1 187:1 188:1 189:1 190:1 256:0.25 
-1 1 1 1 1 1 1 0.8144698292625506 1 18:1 115:1 127:1 137:1 156:1 163:1 167:1 172:1 181:1 185:1 186:1 187:1 188:1 256:0.25 
-1 1 1 1 1 1 1 1 0.6122909804167551 58:1 117:1 125:1 137:1 148:1 149:1 156:1 163:1 164:1 172:1 181:1 182:1 186:1 187:1 188:1 190:1 216:1 256:0.25 
-1 1 1 1 1 1 1 1 1 18:1 119:1 127:1 137:1 156:1 163:1 167:1 172:1 181:1 183:1 186:1 187:1 188:1 216:1 
-1 1 1 1 1 1 1 1 0.7134251533986569 58:1 117:1 125:1 137:1 148:1 149:1 156:1 163:1 164:1 172:1 181:1 184:1 186:1 187:1 188:1 190:1 216:1 256:0.25 
-1 1 1 1 1 1 1 0 1 18:1 116:1 127:1 136:1 148:1 156:1 163:1 167:1 171:1 181:1 185:1 186:1 187:1 188:1 256:0.25 
-1 1 1 1 1 1 1 0.9580759648429069 1 58:1 79:1 125:1 139:1 148:1 149:1 156:1 163:1 170:1 174:1 181:1 185:1 186:1 187:1 188:1 222:1 256:0.25 
-1 1 1 1 1 1 1 1 0 54:1 79:1 125:1 139:1 150:1 163:1 168:1 175:1 181:1 185:1 186:1 187:1 189:1 190:1 196:1 208:1 256:0.25 
-1 1 1 1 1 1 1 0.3073418703003639 0.1387028895615678 58:1 79:1 125:1 139:1 148:1 149:1 156:1 163:1 164:1 174:1 181:1 185:1 186:1 187:1 188:1 215:1 256:0.25 
-1 1 1 1 1 1 1 1 1 58:1 119:1 123:1 125:1 137:1 148:1 149:1 156:1 163:1 164:1 172:1 181:1 183:1 186:1 187:1 188:1 190:1 215:1 216:1 
-1 1 1 1 1 1 1 1 1 18:1 115:1 127:1 137:1 156:1 163:1 166:1 173:1 181:1 185:1 186:1 187:1 188:1 189:1 190:1 197:1 209:1 216:1 
-1 1 1 1 1 1 1 1 1 58:1 117:1 124:1 136:1 156:1 159:1 170:1 176:1 181:1 185:1 186:1 187:1 190:1 
-1 1 1 1 1 1 1 0.4536865816893384 1 55:1 117:1 124:1 136:1 148:1 156:1 159:1 164:1 176:1 181:1 185:1 186:1 187:1 190:1 195:1 207:1 215:1 
-1 1 1 1 1 1 1 0.4313252339980206 1 54:1 115:1 123:1 125:1 137:1 148:1 149:1 156:1 163:1 168:1 174:1 181:1 185:1 186:1 187:1 188:1 215:1 256:0.25 
-1 1 1 1 1 1 1 1 1 18:1 79:1 123:1 127:1 139:1 148:1 156:1 160:1 167:1 174:1 181:1 185:1 186:1 187:1 189:1 190:1 256:0.25 
-1 1 1 1 1 1 1 1 1 19:1 79:1 127:1 139:1 152:1 163:1 165:1 174:1 178:1 185:1 186:1 187:1 256:0.25 
-1 1 1 1 1 1 0 1 0 17:1 79:1 124:1 139:1 152:1 163:1 165:1 172:1 181:1 185:1 186:1 187:1 189:1 190:1 196:1 208:1 
-1 1 1 1 1 1 1 1 0 55:1 79:1 124:1 139:1 152:1 163:1 164:1 171:1 181:1 185:1 186:1 187:1 189:1 190:1 196:1 208:1 215:1 
-1 1 1 1 1 1 0.8752310296380452 0 0 54:1 79:1 125:1 139:1 148:1 149:1 152:1 162:1 168:1 174:1 181:1 185:1 186:1 187:1 
-1 1 1 1 1 1 1 0 1 55:1 119:1 124:1 136:1 148:1 149:1 156:1 163:1 164:1 172:1 181:1 183:1 186:1 187:1 188:1 190:1 
-1 1 1 1 1 1 1 1 1 18:1 117:1 127:1 136:1 156:1 160:1 164:1 176:1 181:1 185:1 186:1 187:1 190:1 
-1 1 1 1 1 1 1 0 1 18:1 115:1 127:1 137:1 156:1 160:1 164:1 175:1 181:1 185:1 186:1 187:1 190:1 
-1 1 1 1 1 1 1 1 1 55:1 79:1 124:1 139:1 156:1 163:1 164:1 171:1 181:1 185:1 186:1 187:1 188:1 189:1 190:1 196:1 208:1 
-1 1 1 1 1 1 1 1 0.516910254075147 54:1 80:1 124:1 138:1 152:1 160:1 165:1 172:1 181:1 185:1 186:1 187:1 189:1 190:1 196:1 208:1 
-1 1 1 1 1 1 1 1 0.5951575294254654 55:1 79:1 124:1 139:1 156:1 163:1 164:1 171:1 181:1 185:1 186:1 187:1 188:1 189:1 190:1 196:1 208:1 215:1 
-1 1 1 1 1 1 1 1 1 18:1 117:1 127:1 136:1 156:1 163:1 168:1 176:1 181:1 185:1 186:1 187:1 188:1 190:1 
-1 1 1 1 1 1 1 1 0 54:1 79:1 124:1 139:1 153:1 163:1 165:1 172:1 181:1 185:1 186:1 187:1 189:1 190:1 196:1 208:1 
-1 1 1 1 1 1 1 1 1 54:1 115:1 123:1 125:1 137:1 156:1 162:1 165:1 172:1 181:1 185:1 186:1 187:1 189:1 190:1 199:1 211:1 
-1 1 1 1 1 1 1 0.327252245655779 1 19:1 118:1 126:1 136:1 156:1 157:1 165:1 172:1 181:1 185:1 186:1 187:1 189:1 190:1 197:1 209:1 216:1 
-1 1 1 1 1 1 1 0 1 55:1 119:1 124:1 137:1 148:1 149:1 152:1 163:1 164:1 172:1 181:1 183:1 186:1 187:1 190:1 216:1 233:1 
-1 1 1 1 1 1 1 0 0.03056190114432449 55:1 115:1 124:1 137:1 156:1 162:1 164:1 173:1 181:1 185:1 186:1 187:1 190:1 215:1 
-1 1 1 1 1 1 1 1 1 55:1 79:1 124:1 139:1 156:1 163:1 164:1 171:1 181:1 185:1 186:1 187:1 188:1 189:1 190:1 196:1 208:1 256:0.25 
-1 1 1 1 1 1 1 1 0.3929512919780834 58:1 79:1 125:1 139:1 153:1 162:1 164:1 174:1 181:1 185:1 186:1 187:1 193:1 205:1 215:1 222:1 
-1 1 1 1 1 1 1 0.3334119170363019 1 58:1 79:1 125:1 139:1 153:1 162:1 164:1 174:1 181:1 185:1 186:1 187:1 215:1 
-1 1 1 1 1 1 1 1 1 54:1 79:1 125:1 139:1 156:1 163:1 168:1 174:1 181:1 185:1 186:1 187:1 188:1 201:1 228:1 
-1 1 1 1 1 1 1 0.08884113284608375 1 17:1 115:1 124:1 137:1 152:1 163:1 165:1 175:1 181:1 185:1 186:1 187:1 190:1 194:1 
-1 1 1 1 1 1 1 1 1 55:1 79:1 124:1 139:1 156:1 163:1 164:1 171:1 181:1 185:1 186:1 187:1 188:1 189:1 190:1 196:1 208:1 
-1 1 1 1 1 1 1 1 1 54:1 79:1 125:1 138:1 156:1 163:1 168:1 174:1 181:1 185:1 186:1 187:1 188:1 201:1 
-1 -0 0.812258437203104 0 0 1 0 0 0 56:1 80:1 125:1 138:1 156:1 163:1 165:1 174:1 178:1 185:1 186:1 187:1 188:1 201:1 215:1 256:0.25 
-1 -0 0 0 0 1 0 0.01304526987533139 0 18:1 117:1 127:1 137:1 156:1 163:1 165:1 172:1 181:1 182:1 186:1 188:1 
-1 -0 0 1 0 0 0 0 0 55:1 116:1 123:1 124:1 136:1 148:1 149:1 156:1 163:1 164:1 171:1 181:1 185:1 186:1 187:1 188:1 189:1 190:1 216:1 
-1 -0.02124683406925711 0 1 0 0 0 0 0.3579874353097948 18:1 117:1 127:1 137:1 156:1 163:1 165:1 172:1 178:1 182:1 188:1 189:1 190:1 197:1 209:1 216:1 256:0.75 
-1 -0 1 1 0 1 0 0 0 57:1 117:1 124:1 136:1 156:1 163:1 165:1 176:1 181:1 185:1 186:1 187:1 188:1 190:1 256:0.75 
-1 -0 0 0 0 1 0 0 0 55:1 116:1 123:1 124:1 136:1 156:1 158:1 164:1 171:1 181:1 185:1 186:1 187:1 189:1 190:1 191:1 215:1 233:1 
-0 -0 1 1 0 0 0 0 0 18:1 78:1 127:1 136:1 149:1 156:1 163:1 167:1 172:1 181:1 185:1 186:1 187:1 188:1 
-0 -0.6788187883004341 1 1 1 1 0 0 0.1554035940548099 17:1 79:1 124:1 139:1 148:1 149:1 153:1 163:1 165:1 174:1 181:1 185:1 186:1 187:1 
-1 -0 0 0 0 1 0 0 0 1:1 79:1 124:1 138:1 151:1 163:1 167:1 174:1 181:1 185:1 186:1 187:1 189:1 190:1 
-1 -0 1 1 0 0 0 0 0 19:1 78:1 124:1 136:1 148:1 149:1 150:1 160:1 167:1 172:1 181:1 185:1 186:1 187:1 
-0 -0 1 1 0 1 0 0 0 18:1 80:1 127:1 136:1 148:1 149:1 156:1 157:1 167:1 174:1 181:1 185:1 186:1 187:1 189:1 190:1 
-1 -0 0 1 0 0 0 0 0 54:1 115:1 123:1 125:1 136:1 149:1 156:1 163:1 167:1 172:1 181:1 185:1 186:1 187:1 188:1 256:1 
-0 -0 0 0 0 1 0 0 0 55:1 116:1 123:1 124:1 136:1 148:1 154:1 163:1 164:1 171:1 181:1 185:1 186:1 187:1 189:1 190:1 216:1 
-0 -0 0 0 0 1 0 0 0 54:1 116:1 125:1 136:1 156:1 163:1 167:1 171:1 181:1 185:1 186:1 187:1 188:1 216:1 
-0 -0 0.4289512187652758 0 0 0 0 0 0.1002128187645615 18:1 115:1 127:1 136:1 156:1 159:1 172:1 185:1 186:1 187:1 197:1 209:1 216:1 
-0 -0 0.134325969169942 0 0 0 0 0 0 54:1 115:1 123:1 125:1 136:1 148:1 149:1 156:1 159:1 168:1 172:1 181:1 185:1 186:1 187:1 190:1 216:1 
-0 -0.04027655329663055 1 1 1 0 0 0 0.1724249740604676 18:1 119:1 127:1 137:1 148:1 149:1 156:1 162:1 165:1 177:1 181:1 185:1 186:1 187:1 190:1 216:1 
-1 -0 0 0 0 1 0.4837368442493221 0 0 56:1 119:1 124:1 137:1 148:1 153:1 162:1 169:1 177:1 181:1 185:1 186:1 187:1 190:1 216:1 
-0 -0 1 1 1 1 0 0 0 54:1 79:1 125:1 139:1 148:1 149:1 156:1 163:1 168:1 172:1 181:1 185:1 186:1 187:1 188:1 190:1 223:1 
-1 -0 1 1 1 1 0 0 0 55:1 79:1 124:1 139:1 150:1 163:1 164:1 172:1 181:1 185:1 186:1 187:1 190:1 215:1 223:1 256:0.25 
-1 -0 0 0 0 1 0.285274620992077 0 0 54:1 62:1 125:1 140:1 156:1 161:1 168:1 175:1 181:1 185:1 186:1 187:1 189:1 190:1 
-0 -0.3048639907560907 1 1 1 1 0 0 0 54:1 115:1 123:1 125:1 148:1 149:1 156:1 163:1 168:1 174:1 181:1 185:1 186:1 187:1 188:1 
-0 -0 1 0 0 0 0 0 0.1841638295327353 58:1 117:1 125:1 137:1 149:1 156:1 160:1 165:1 176:1 179:1 185:1 186:1 187:1 190:1 216:1 222:1 
-0 -0 0 0 0 1 0 0 0.4510703597681613 58:1 116:1 125:1 136:1 148:1 153:1 163:1 164:1 171:1 181:1 185:1 186:1 187:1 189:1 190:1 216:1 223:1 
-0 -0.1942572139903789 0 0 0 1 0.4750597085672535 0 0 58:1 116:1 125:1 136:1 156:1 163:1 164:1 171:1 181:1 185:1 186:1 187:1 188:1 189:1 190:1 228:1 
-0 -0 0 0 0 1 0 0 0 58:1 119:1 123:1 124:1 137:1 148:1 156:1 163:1 170:1 171:1 181:1 185:1 186:1 187:1 188:1 190:1 216:1 
-1 -0.08997574837407876 1 0 0 1 0 0 0 55:1 117:1 124:1 136:1 156:1 157:1 164:1 176:1 181:1 185:1 186:1 187:1 190:1 195:1 207:1 215:1 233:1 
-1 -0 0 1 0 0 0 0 0 55:1 116:1 123:1 124:1 136:1 148:1 149:1 153:1 163:1 164:1 171:1 181:1 185:1 186:1 187:1 189:1 190:1 215:1 216:1 233:1 256:0.75 
-1 -0 1 0 1 1 0 0 0 55:1 117:1 124:1 137:1 150:1 161:1 164:1 176:1 181:1 185:1 186:1 187:1 190:1 215:1 
-0 -0 0 0 1 1 0 0 0 58:1 80:1 125:1 138:1 156:1 163:1 164:1 174:1 179:1 185:1 186:1 187:1 188:1 
-1 -0 0.9871673675068217 1 1 1 0 0 0 55:1 116:1 123:1 124:1 136:1 148:1 149:1 150:1 159:1 164:1 171:1 181:1 185:1 186:1 187:1 189:1 190:1 215:1 216:1 
-1 -0 0 1 0 0 0 0 0 55:1 116:1 123:1 124:1 136:1 148:1 149:1 150:1 157:1 164:1 171:1 181:1 185:1 186:1 187:1 188:1 189:1 190:1 215:1 216:1 256:1 
-0 -0 1 1 0.6968420962298969 1 0 0 0 18:1 80:1 127:1 139:1 148:1 153:1 163:1 167:1 181:1 186:1 187:1 256:0.25 
-1 -0 0.2470015504776012 1 0.2439024113317299 1 0.1640822947283324 0.9687491245953647 0 18:1 79:1 123:1 127:1 139:1 155:1 163:1 167:1 174:1 181:1 185:1 186:1 187:1 189:1 190:1 256:0.25 
-0.7070512071230848 -0 0 0 0 1 0 0 0 55:1 116:1 123:1 124:1 136:1 148:1 156:1 157:1 164:1 171:1 181:1 185:1 186:1 187:1 189:1 190:1 191:1 215:1 
-0 -0 0 0 0 1 0 0 0 58:1 119:1 123:1 125:1 137:1 156:1 163:1 165:1 172:1 179:1 183:1 186:1 187:1 188:1 189:1 190:1 
-0 -0.09804604158618704 1 1 0 1 0 0 0 18:1 81:1 127:1 138:1 148:1 149:1 156:1 157:1 167:1 174:1 181:1 185:1 186:1 187:1 189:1 190:1 
-1 -0 0.3773583292538644 1 0 0 0 0 0 55:1 116:1 123:1 124:1 136:1 148:1 149:1 153:1 160:1 164:1 171:1 181:1 185:1 186:1 187:1 188:1 189:1 190:1 
-0 -0 0 1 0 1 0 0 0 55:1 116:1 123:1 124:1 136:1 148:1 149:1 153:1 163:1 164:1 171:1 181:1 185:1 186:1 187:1 189:1 190:1 
-0 -0 1 0 0 1 0 0 0 18:1 116:1 127:1 136:1 156:1 157:1 167:1 171:1 181:1 185:1 186:1 187:1 216:1 
-0.1079901792481402 -0 0 1 0 1 0 0 0 18:1 79:1 123:1 127:1 139:1 156:1 163:1 167:1 174:1 181:1 185:1 186:1 187:1 188:1 189:1 190:1 191:1 235:1 256:0.25 
-1 -0 0 0 0 0 0 0 0 55:1 116:1 123:1 124:1 136:1 148:1 153:1 157:1 164:1 171:1 181:1 185:1 186:1 187:1 189:1 190:1 196:1 208:1 216:1 
-1 -0 1 1 1 1 0 0 0 55:1 79:1 124:1 139:1 148:1 149:1 150:1 160:1 164:1 174:1 181:1 185:1 186:1 187:1 215:1 
-1 -0 0 1 1 1 0 0 0 54:1 79:1 125:1 139:1 156:1 163:1 168:1 174:1 181:1 185:1 186:1 187:1 188:1 215:1 256:0.25 
-1 -0 0 0 0 1 0 0 0 18:1 116:1 127:1 136:1 156:1 163:1 164:1 171:1 181:1 185:1 186:1 187:1 188:1 189:1 190:1 197:1 209:1 216:1 248:1 256:0.25 
-0 -0 0.6991048613423649 0 0 0 1 0 0 55:1 115:1 124:1 137:1 148:1 156:1 163:1 164:1 175:1 181:1 185:1 186:1 187:1 188:1 190:1 194:1 215:1 256:0.25 
-0 -0 0.1455949861248491 1 0 1 0.07479424063793524 0 0 18:1 79:1 123:1 127:1 139:1 148:1 156:1 163:1 165:1 172:1 179:1 183:1 186:1 187:1 188:1 189:1 190:1 256:0.25 
-0 -0 0 0 0 1 0 0 0 58:1 116:1 125:1 136:1 148:1 149:1 156:1 160:1 164:1 171:1 181:1 185:1 186:1 187:1 189:1 190:1 215:1 216:1 256:0.25 
-1 -0 0 0 0 1 0.2740782230626183 0 0 55:1 80:1 124:1 138:1 153:1 163:1 164:1 171:1 181:1 185:1 186:1 187:1 189:1 190:1 215:1 256:0.25 
-0 -0 0 0 0 1 0.01318340031080622 0 0 55:1 119:1 124:1 137:1 153:1 163:1 164:1 171:1 181:1 185:1 186:1 187:1 189:1 190:1 215:1 256:0.25 
-0 -0 1 1 0 0 0 0 0 18:1 116:1 127:1 136:1 149:1 156:1 163:1 167:1 171:1 181:1 185:1 186:1 187:1 188:1 216:1 
-1 -0 0 1 1 1 0 0 0 55:1 80:1 124:1 139:1 156:1 163:1 164:1 174:1 181:1 185:1 186:1 187:1 188:1 201:1 248:1 256:0.25 
-0 -0 0 0 0 1 0 0 0.03912337574587689 58:1 119:1 123:1 125:1 137:1 148:1 156:1 163:1 165:1 174:1 181:1 185:1 186:1 187:1 188:1 243:1 
-1 -0 0 0 0 1 0 0 0.1659503050846503 58:1 119:1 123:1 125:1 137:1 148:1 156:1 163:1 165:1 174:1 181:1 185:1 186:1 187:1 188:1 210:1 225:1 256:0.25 
-0 -0 0 1 0 1 0 0 0 55:1 119:1 124:1 137:1 148:1 149:1 156:1 163:1 164:1 172:1 181:1 183:1 186:1 187:1 188:1 190:1 215:1 216:1 256:0.25 
-0 -0 0 0 0 1 0 0 0 55:1 119:1 124:1 137:1 149:1 156:1 163:1 164:1 172:1 181:1 183:1 186:1 187:1 188:1 190:1 215:1 216:1 256:0.25 
-1 -0 0 1 0 0 0 0 0 55:1 116:1 123:1 124:1 136:1 148:1 149:1 151:1 163:1 164:1 171:1 181:1 185:1 186:1 187:1 189:1 190:1 216:1 
-0 -0 0 0 0 1 0 0 0 55:1 116:1 123:1 124:1 136:1 156:1 157:1 164:1 171:1 181:1 185:1 186:1 187:1 189:1 190:1 191:1 215:1 
-0 -0.5838877664750184 1 0 1 1 0 0 0 18:1 116:1 127:1 136:1 156:1 162:1 167:1 171:1 181:1 185:1 186:1 187:1 222:1 
-1 -1 1 1 1 1 0 0.7405173623887366 0 55:1 79:1 124:1 139:1 152:1 163:1 164:1 171:1 181:1 185:1 186:1 187:1 189:1 190:1 196:1 208:1 215:1 222:1 
-0 -0 0 0 0 1 0 0 0 55:1 79:1 124:1 139:1 153:1 163:1 164:1 171:1 181:1 185:1 186:1 187:1 189:1 190:1 196:1 208:1 215:1 
-0.3683668279508489 -0 0 0 0 1 0 0 0 18:1 119:1 127:1 137:1 156:1 163:1 167:1 172:1 181:1 183:1 186:1 187:1 188:1 216:1 224:1 
-0 -0 1 0 0 0 0 0 0 19:1 116:1 127:1 136:1 156:1 160:1 167:1 171:1 181:1 185:1 186:1 187:1 216:1 
-1 -0 1 1 1 1 0.02137637584720703 0 0 55:1 117:1 124:1 144:1 150:1 157:1 164:1 174:1 181:1 185:1 186:1 187:1 188:1 195:1 207:1 215:1 
-1 -0 0 0 0 1 0 0 0 58:1 119:1 123:1 125:1 137:1 156:1 163:1 165:1 172:1 179:1 183:1 186:1 187:1 188:1 189:1 190:1 210:1 216:1 256:0.25 
-0 -0 0 0 0 1 0 0 0 58:1 117:1 125:1 136:1 153:1 163:1 164:1 176:1 179:1 185:1 186:1 187:1 190:1 
-1 -1 1 0 1 1 0.1525079072788916 0 0 55:1 117:1 124:1 136:1 148:1 152:1 160:1 164:1 176:1 181:1 185:1 186:1 187:1 190:1 195:1 207:1 215:1 256:0.25 
-0 -0 0 1 0 1 0 0 0 58:1 116:1 125:1 136:1 148:1 149:1 156:1 163:1 164:1 171:1 181:1 185:1 186:1 187:1 188:1 189:1 190:1 256:0.25 
-0 -0 0 0 0 1 0 0 0 58:1 116:1 125:1 136:1 149:1 156:1 163:1 164:1 171:1 181:1 185:1 186:1 187:1 188:1 189:1 190:1 216:1 
-1 -0 0 1 0 0 0 0 0 55:1 116:1 123:1 124:1 136:1 148:1 149:1 156:1 163:1 164:1 171:1 181:1 185:1 186:1 187:1 188:1 189:1 190:1 215:1 216:1 256:0.25 
-0 -0 0 0 0 1 0.03274635542595747 1 0 58:1 79:1 125:1 139:1 156:1 163:1 165:1 172:1 179:1 183:1 186:1 187:1 188:1 189:1 190:1 196:1 208:1 215:1 
-0 -0 0 0 0 1 0 0 0.9837614746403839 58:1 119:1 123:1 125:1 137:1 156:1 163:1 165:1 171:1 179:1 185:1 186:1 187:1 188:1 190:1 215:1 237:1 
-0 -0 0 1 0 1 0 0.006947282208382834 0 58:1 79:1 125:1 139:1 156:1 163:1 165:1 172:1 179:1 183:1 188:1 189:1 190:1 196:1 208:1 256:0.25 
-0 -0 0 1 1 1 0 0 0 55:1 116:1 123:1 124:1 137:1 148:1 149:1 156:1 163:1 164:1 174:1 181:1 185:1 186:1 187:1 188:1 215:1 222:1 
-1 -0 1 0 0 1 0 0 0 55:1 117:1 124:1 137:1 150:1 157:1 164:1 174:1 181:1 185:1 186:1 187:1 188:1 195:1 207:1 215:1 216:1 
-1 -0 0 0 0 1 0.04528552718458978 0 0 55:1 119:1 124:1 137:1 148:1 156:1 163:1 164:1 171:1 181:1 185:1 186:1 187:1 188:1 189:1 190:1 215:1 256:0.25 
-1 -0 1 0 0.8729476192143832 1 0.03352972258202421 0 0 18:1 116:1 126:1 136:1 148:1 155:1 160:1 167:1 171:1 181:1 185:1 186:1 187:1 
-0 -0 0 0 0 1 0 0 0 58:1 115:1 125:1 137:1 148:1 155:1 163:1 165:1 174:1 181:1 185:1 186:1 187:1 215:1 223:1 
-0 -0 0 0 0 1 0 0 0.5389444950010327 58:1 115:1 125:1 137:1 148:1 155:1 163:1 165:1 174:1 181:1 185:1 186:1 187:1 215:1 223:1 
-1 -0 1 0 0 1 0 0 0 56:1 117:1 123:1 124:1 136:1 156:1 163:1 167:1 176:1 181:1 185:1 186:1 187:1 188:1 222:1 
-0 -0 1 0 0 0 0 0 0 18:1 119:1 127:1 137:1 148:1 156:1 163:1 167:1 172:1 181:1 185:1 186:1 187:1 188:1 213:1 216:1 256:0.25 
-0 -0 0 1 0 1 0 0 0 55:1 119:1 124:1 136:1 148:1 149:1 156:1 163:1 164:1 177:1 181:1 185:1 186:1 187:1 188:1 190:1 
-0 -0 0 0 0 1 0 0 0 55:1 116:1 123:1 124:1 136:1 156:1 157:1 164:1 171:1 181:1 185:1 186:1 187:1 189:1 190:1 216:1 219:1 
-0 -0 0 0 0 1 0 0 0 55:1 116:1 123:1 124:1 136:1 150:1 163:1 164:1 171:1 181:1 185:1 186:1 187:1 189:1 190:1 215:1 
-0 -0 0 1 0 0 0 0 0 55:1 116:1 123:1 124:1 136:1 148:1 149:1 156:1 157:1 164:1 171:1 181:1 185:1 186:1 187:1 189:1 190:1 216:1 
-0 -0 0 0 1 1 0 0 0 58:1 116:1 124:1 136:1 156:1 157:1 170:1 171:1 181:1 185:1 186:1 187:1 190:1 216:1 
-1 -0 1 0 0 1 0 0 0 56:1 116:1 124:1 136:1 156:1 157:1 169:1 171:1 181:1 185:1 186:1 187:1 190:1 216:1 
-1 -0 1 0 0 1 0 0 0 55:1 117:1 124:1 136:1 148:1 156:1 163:1 164:1 176:1 181:1 185:1 186:1 187:1 188:1 190:1 195:1 207:1 
-1 -0 0 0 0 1 0 0 0 58:1 116:1 125:1 136:1 148:1 154:1 157:1 164:1 171:1 181:1 185:1 186:1 187:1 189:1 190:1 216:1 
-1 -0.07964071115465465 1 1 1 1 0 0 0 19:1 117:1 127:1 140:1 148:1 149:1 156:1 163:1 164:1 174:1 181:1 185:1 186:1 187:1 188:1 
-0 -0 1 1 0 1 0 0 0 58:1 116:1 127:1 136:1 148:1 156:1 163:1 167:1 171:1 181:1 185:1 186:1 187:1 188:1 256:0.25 
-1 -0 1 1 0 1 0 0 0 19:1 119:1 127:1 137:1 148:1 149:1 156:1 163:1 164:1 171:1 181:1 185:1 186:1 187:1 188:1 189:1 190:1 256:0.25 
-1 -0 1 0 0 1 0 0 0 1:1 116:1 127:1 136:1 156:1 157:1 167:1 171:1 181:1 185:1 186:1 187:1 216:1 
-1 -0.09635882220866335 1 1 1 1 0 0 0 18:1 62:1 127:1 139:1 148:1 149:1 156:1 163:1 164:1 174:1 181:1 185:1 186:1 187:1 188:1 256:0.25 
-0.8219510438348935 -0 1 1 0 1 0.1410895410897248 0 0 18:1 119:1 127:1 137:1 148:1 149:1 156:1 163:1 164:1 171:1 181:1 185:1 186:1 187:1 188:1 189:1 190:1 256:0.25 
-0 -0 0.8765391158225841 1 1 1 0 0 0 18:1 79:1 123:1 127:1 136:1 148:1 156:1 163:1 164:1 174:1 181:1 185:1 186:1 187:1 188:1 
-0 -0 1 0 1 1 0 0 0 17:1 116:1 124:1 136:1 148:1 156:1 157:1 165:1 171:1 181:1 185:1 186:1 187:1 190:1 196:1 208:1 216:1 
-1 -0 1 1 0 1 0 0 0 19:1 117:1 127:1 136:1 148:1 156:1 163:1 164:1 176:1 181:1 185:1 186:1 187:1 188:1 190:1 243:1 256:0.25 
-0 -0 0 0 0 1 0 0 0 19:1 62:1 127:1 136:1 148:1 156:1 163:1 164:1 174:1 181:1 185:1 186:1 187:1 188:1 
-0 -0 0 1 0 1 0 0 0 20:1 81:1 123:1 127:1 139:1 156:1 163:1 167:1 174:1 181:1 185:1 186:1 187:1 188:1 189:1 190:1 
-0 -0 0 1 0 1 0 0 0 19:1 81:1 127:1 139:1 148:1 149:1 156:1 163:1 167:1 174:1 181:1 185:1 186:1 187:1 188:1 189:1 190:1 
-0 -0 0 0 0 1 0 0 0.0575568469777141 20:1 116:1 127:1 139:1 156:1 163:1 167:1 174:1 181:1 185:1 186:1 187:1 188:1 189:1 190:1 191:1 
-0 -0 0.2185487564508955 1 0 1 0 0 0 19:1 81:1 127:1 139:1 148:1 149:1 156:1 163:1 167:1 174:1 181:1 185:1 186:1 187:1 188:1 189:1 190:1 
-0 -0 0 1 0 1 0 0 0 19:1 81:1 127:1 139:1 149:1 156:1 163:1 167:1 174:1 181:1 185:1 186:1 187:1 188:1 189:1 190:1 
-0 -0 1 1 0 0 0 0 0 19:1 116:1 127:1 136:1 148:1 149:1 156:1 157:1 164:1 171:1 181:1 185:1 186:1 187:1 189:1 190:1 216:1 256:0.25 
-0 -0 1 1 0 0 0 0 0 19:1 116:1 127:1 136:1 148:1 149:1 156:1 157:1 164:1 171:1 181:1 185:1 186:1 187:1 189:1 190:1 216:1 
-0 -0.2965017258454321 0.1752350741715349 1 0 0 0 0 0 19:1 118:1 127:1 136:1 148:1 149:1 156:1 163:1 164:1 172:1 181:1 185:1 186:1 187:1 188:1 190:1 
-0 -0 0 0 0 1 0 0 0 19:1 116:1 127:1 136:1 156:1 163:1 164:1 171:1 181:1 185:1 186:1 187:1 188:1 189:1 190:1 256:0.25 
-0 -0 0 0 0 1 0 0 0 19:1 119:1 127:1 136:1 148:1 156:1 163:1 164:1 177:1 181:1 185:1 186:1 187:1 188:1 190:1 
-0 -0 0 1 0 0 0 0 0 19:1 116:1 127:1 136:1 148:1 156:1 157:1 164:1 171:1 181:1 185:1 186:1 187:1 189:1 190:1 197:1 209:1 216:1 256:0.25 
-0 -0 1 1 1 1 0 0 0.04274232720271908 19:1 79:1 127:1 139:1 148:1 156:1 163:1 165:1 174:1 181:1 185:1 186:1 187:1 188:1 256:0.25 
-1 -0 0 1 0 1 0 0 0 18:1 79:1 123:1 127:1 139:1 156:1 163:1 167:1 174:1 181:1 185:1 186:1 187:1 188:1 189:1 190:1 191:1 256:0.25 
-0 -0 0 1 1 1 0 0 0 18:1 79:1 123:1 127:1 139:1 156:1 163:1 167:1 174:1 181:1 185:1 186:1 187:1 188:1 189:1 190:1 256:0.25 
-0 -0 0.0731406917854327 1 1 1 0 0 0 19:1 79:1 127:1 139:1 148:1 156:1 163:1 165:1 174:1 181:1 185:1 186:1 187:1 188:1 
-1 -0 0.8410094747834577 1 0.4283304594160955 0 0 0 0.6299115572347822 19:1 116:1 126:1 136:1 148:1 156:1 163:1 164:1 171:1 181:1 185:1 186:1 187:1 188:1 189:1 190:1 197:1 209:1 216:1 256:0.25 
-0 -0.1622116544513708 0 0 1 1 0 0 0 58:1 119:1 123:1 125:1 137:1 149:1 156:1 160:1 164:1 172:1 181:1 183:1 186:1 187:1 190:1 215:1 216:1 222:1 
-1 -0 0 1 0 0 0 0 0 55:1 115:1 124:1 137:1 149:1 150:1 157:1 164:1 172:1 181:1 185:1 186:1 188:1 215:1 216:1 
-0 -0 0.3624327552659613 0 0 1 0 0 0.07676062688163304 19:1 119:1 127:1 137:1 156:1 163:1 167:1 171:1 181:1 183:1 186:1 187:1 188:1 256:0.25 
-1 -0 0 1 0 1 0 0 0 55:1 116:1 123:1 124:1 137:1 148:1 150:1 157:1 164:1 171:1 181:1 185:1 186:1 187:1 188:1 189:1 190:1 191:1 215:1 
-0 -0 0 0.9781207847369467 0 0 0 0 0 19:1 115:1 127:1 137:1 156:1 163:1 166:1 173:1 181:1 185:1 188:1 189:1 190:1 197:1 209:1 256:0.25 
-1 -0 0 1 0 0 0 0 0 55:1 116:1 123:1 124:1 136:1 148:1 149:1 153:1 157:1 164:1 171:1 181:1 185:1 186:1 187:1 189:1 190:1 215:1 216:1 
-1 -0 1 0 0 1 0.08161890536969399 0 0 55:1 115:1 124:1 137:1 148:1 153:1 159:1 164:1 176:1 181:1 185:1 186:1 187:1 190:1 215:1 222:1 256:0.25 
-0 -0 0.07147713877940175 0 0 0 0 0 0 55:1 115:1 124:1 137:1 153:1 157:1 164:1 175:1 181:1 185:1 186:1 187:1 190:1 194:1 215:1 222:1 
-0 -0 0 0 0 1 0 0 0 58:1 116:1 125:1 136:1 156:1 157:1 165:1 171:1 179:1 185:1 187:1 216:1 
-0 -0 0 0 0 1 0.7434264394404515 0 1 18:1 119:1 127:1 137:1 156:1 163:1 165:1 172:1 179:1 183:1 188:1 189:1 190:1 197:1 209:1 
-1 -0.08964390666323509 1 1 1 1 0 0 0 19:1 79:1 127:1 139:1 148:1 149:1 156:1 163:1 167:1 174:1 181:1 185:1 186:1 187:1 188:1 189:1 190:1 248:1 256:0.25 
-1 -0 0.6642994618296866 0 0 0 0 0 0 54:1 115:1 123:1 125:1 137:1 156:1 163:1 168:1 175:1 181:1 185:1 186:1 187:1 188:1 189:1 190:1 194:1 215:1 222:1 256:0.25 
-1 -0 1 1 0 1 0 0 0 55:1 116:1 123:1 124:1 136:1 149:1 150:1 160:1 164:1 171:1 181:1 185:1 186:1 187:1 189:1 190:1 215:1 216:1 222:1 
-0 -0 1 0 0 1 0 0 0 55:1 79:1 124:1 136:1 156:1 163:1 164:1 176:1 181:1 185:1 186:1 187:1 188:1 190:1 215:1 
