solver_type L2R_LR_DUAL
nr_class 10
label 1 2 5 8 6 7 13 14 11 12
nr_feature 268
bias 1.000000000000000
w
-0.2221741446911232 0.1227212217240870 -0.6360096408770546 -0.7544626057465661 0.5017367182657257 -0.5418295746828743 -0.3179133343716201 -0.6130576922246330 -0.4314625831995458 -0.5893864812179103 
-0.1201790385118369 0.2556868149972389 -0.005140837742853373 -0.002574269426573859 -0.1910242972648175 -0.01526729678154693 -0.03985734090295524 -0.009627907156314580 -0.008845162385456380 -0.01803631209966709 
0 0 0 0 0 0 0 0 0 0 
0 0 0 0 0 0 0 0 0 0 
0.1819507334476152 0.2468789884086669 -0.2238954805950156 -0.1752668094507369 -0.5047620693844985 0.1123860984246296 -0.01304760994404290 -0.04704620688573934 -0.02634212723697614 -0.04851091554195031 
0 0 0 0 0 0 0 0 0 0 
0 0 0 0 0 0 0 0 0 0 
0 0 0 0 0 0 0 0 0 0 
0 0 0 0 0 0 0 0 0 0 
0 0 0 0 0 0 0 0 0 0 
0 0 0 0 0 0 0 0 0 0 
0 0 0 0 0 0 0 0 0 0 
0 0 0 0 0 0 0 0 0 0 
0 0 0 0 0 0 0 0 0 0 
0 0 0 0 0 0 0 0 0 0 
0 0 0 0 0 0 0 0 0 0 
-0.2469876414816925 -0.09948647340383834 -0.1057701025050424 0.06752013211514340 -0.1243921120923958 0.2820347529779629 -0.6419635037154747 -0.6074229900275638 -0.001469046253013882 0.2151506248088161 
-0.5328968300918340 -0.1042625536006959 -0.06176833014487772 0.1235824680382778 -0.1325690383225548 0.08464165040751917 0.06953977932298754 0.7058177201901353 -0.09060438326164194 0.3515395610301296 
0.1739696833802409 -0.5990864203666139 -0.2578829687132638 -0.07372284102844448 -0.08226397038115357 -0.2934265696055822 -0.2008425970956119 -0.9091899056849005 0.008958627422990046 -0.1774876478903935 
0.5207945868965778 -0.5284901989501753 -0.2449753735036658 -0.07958283373387008 -0.2720974020189657 0.2867161413214125 -0.02547671535143923 -0.01461058750265566 -0.03388463036564015 -0.05158963827113297 
0 0 0 0 0 0 0 0 0 0 
0 0 0 0 0 0 0 0 0 0 
0 0 0 0 0 0 0 0 0 0 
0 0 0 0 0 0 0 0 0 0 
0 0 0 0 0 0 0 0 0 0 
0 0 0 0 0 0 0 0 0 0 
0 0 0 0 0 0 0 0 0 0 
0 0 0 0 0 0 0 0 0 0 
0 0 0 0 0 0 0 0 0 0 
0 0 0 0 0 0 0 0 0 0 
0 0 0 0 0 0 0 0 0 0 
0 0 0 0 0 0 0 0 0 0 
0 0 0 0 0 0 0 0 0 0 
0 0 0 0 0 0 0 0 0 0 
0 0 0 0 0 0 0 0 0 0 
0 0 0 0 0 0 0 0 0 0 
0 0 0 0 0 0 0 0 0 0 
0 0 0 0 0 0 0 0 0 0 
0 0 0 0 0 0 0 0 0 0 
0 0 0 0 0 0 0 0 0 0 
0 0 0 0 0 0 0 0 0 0 
0 0 0 0 0 0 0 0 0 0 
0 0 0 0 0 0 0 0 0 0 
0 0 0 0 0 0 0 0 0 0 
0 0 0 0 0 0 0 0 0 0 
0 0 0 0 0 0 0 0 0 0 
0 0 0 0 0 0 0 0 0 0 
0 0 0 0 0 0 0 0 0 0 
0 0 0 0 0 0 0 0 0 0 
0 0 0 0 0 0 0 0 0 0 
0 0 0 0 0 0 0 0 0 0 
0 0 0 0 0 0 0 0 0 0 
0 0 0 0 0 0 0 0 0 0 
0.09486059374197506 0.3009026964619317 -0.4599849468208156 0.02498038828327161 -0.4063977256251951 -0.7649984465165115 -0.4249009990646989 0.6105197079660600 -0.07855993815634725 -0.6357433938444472 
0.2311884304761207 -0.003486428117261607 -0.3738879470920940 -0.3487507591008389 0.08468677116125728 -0.4502363075137101 -0.3848417569044921 0.1719885492835980 -0.3945029156080944 -0.1774456817748582 
-0.2480282828973144 -0.3000346927601154 -0.05674107484687881 -0.3771479403241176 0.3127724469293571 0.04346182269767533 -1.267082604214550 0.3220305049955473 -0.9156524383664090 -0.03199379261831094 
-0.2582797887728621 0.2467154394662635 -0.4959897297463317 0.5835896165290707 -0.4578092885374668 0.1711523287782946 1.137859782604134 -0.4335986604515867 -0.5771192944182106 -0.2532572612952773 
0.2478095745771829 0.03684434022626128 -0.08009735952364941 -0.5999787266431909 -0.1045864065194899 -1.326037331599489 -0.09494161983471228 -0.9188215449766759 0.1614396371738790 -0.1784479514078613 
0 0 0 0 0 0 0 0 0 0 
0 0 0 0 0 0 0 0 0 0 
0 0 0 0 0 0 0 0 0 0 
0.1147057501374836 -0.04192336170491123 -0.4267856523715253 -0.9342145945906870 0.3946619003080729 -0.6745657880300094 -0.2394170167312424 0.6887878148003949 -0.5932776599566275 -0.3833752036631133 
-0.07718678571989047 -0.05519774826313739 -0.2783656254445442 -0.1055542280144406 -0.03190104366263200 0.3103915640201719 -0.0009384755539057928 -0.03623199125818774 -0.05839144956955836 -0.003756022356302157 
0 0 0 0 0 0 0 0 0 0 
0 0 0 0 0 0 0 0 0 0 
0.6036837455759699 -0.2771084689464189 0.1481062720577824 -0.2835603413699939 -0.4682761508227838 -0.3623319298690987 -0.01869326686989070 -0.1083659086209855 -0.1451726791324972 -0.06050520201399380 
0 0 0 0 0 0 0 0 0 0 
0 0 0 0 0 0 0 0 0 0 
0 0 0 0 0 0 0 0 0 0 
0 0 0 0 0 0 0 0 0 0 
0 0 0 0 0 0 0 0 0 0 
0 0 0 0 0 0 0 0 0 0 
0 0 0 0 0 0 0 0 0 0 
0 0 0 0 0 0 0 0 0 0 
0 0 0 0 0 0 0 0 0 0 
0 0 0 0 0 0 0 0 0 0 
0 0 0 0 0 0 0 0 0 0 
-0.2397075840308066 0.07861777179927880 -0.4213048900090525 0.1998147950093324 0.2075435779923651 0.1418332478715339 -0.3733273747169326 0.3817766302795897 -0.03256555997283341 0.06142396612536916 
-0.2576829398759780 -0.1892564930796112 0.6437070543677177 0.3746599952120671 -0.4114773564803448 -0.4441051098391357 1.050365953520409 -0.03956547911345565 0.1853849047175788 -0.1174833709279426 
-0.9074947419301138 0.2605980374609012 0.5804641698496409 0.2075209468410042 -0.1308687586028653 -0.1776213290468722 -0.8118557801060614 -0.1593567890320025 -1.005534826423842 -0.5857909636080852 
0.9516861378786534 0.01658067513756126 -0.2445139784416851 -0.5218121246633200 -0.4476081852686044 -0.7936076415211883 -0.03714445479041404 -0.03130564308350406 -0.2969876546909068 -0.08009612567658447 
0 0 0 0 0 0 0 0 0 0 
0 0 0 0 0 0 0 0 0 0 
0 0 0 0 0 0 0 0 0 0 
0 0 0 0 0 0 0 0 0 0 
0 0 0 0 0 0 0 0 0 0 
0 0 0 0 0 0 0 0 0 0 
0 0 0 0 0 0 0 0 0 0 
-0.4156477647273584 -0.2360109350583209 0.4375369524220479 0.4864371004639445 -0.2784282239602339 -0.07196577343080152 -0.004548082440115468 -0.01359450763383822 -0.06212574447986693 -0.01283713083362670 
0 0 0 0 0 0 0 0 0 0 
0 0 0 0 0 0 0 0 0 0 
0 0 0 0 0 0 0 0 0 0 
0 0 0 0 0 0 0 0 0 0 
0 0 0 0 0 0 0 0 0 0 
0 0 0 0 0 0 0 0 0 0 
0 0 0 0 0 0 0 0 0 0 
0 0 0 0 0 0 0 0 0 0 
0 0 0 0 0 0 0 0 0 0 
0 0 0 0 0 0 0 0 0 0 
0 0 0 0 0 0 0 0 0 0 
0 0 0 0 0 0 0 0 0 0 
0 0 0 0 0 0 0 0 0 0 
0 0 0 0 0 0 0 0 0 0 
0 0 0 0 0 0 0 0 0 0 
0 0 0 0 0 0 0 0 0 0 
0 0 0 0 0 0 0 0 0 0 
0 0 0 0 0 0 0 0 0 0 
0 0 0 0 0 0 0 0 0 0 
0 0 0 0 0 0 0 0 0 0 
0 0 0 0 0 0 0 0 0 0 
0 0 0 0 0 0 0 0 0 0 
0 0 0 0 0 0 0 0 0 0 
0 0 0 0 0 0 0 0 0 0 
0 0 0 0 0 0 0 0 0 0 
0.6414119574211878 -0.9955785951891460 -0.6005009289183325 -1.026726955401377 -0.6969807323576000 0.2033090729690926 -0.8047884055492401 -0.1554011548723153 0.4839679830896452 -0.8475255946529546 
0.1621272603980413 0.4641402795977904 -0.7046004022680878 0.4789940540223306 -0.4108001406530254 -0.3383363850347031 -0.5641072262178493 -0.6828348973117773 -0.8360132560908874 0.5351007288049450 
-0.4894111933370260 -0.3916563013646837 -0.4899554904282709 0.3400419840813911 0.8051798773003109 0.1481705124083650 0.2738537170557612 -0.7659879335702408 0.3048607916225768 -0.4304488621342307 
-0.2192496734024118 0.2879118827264421 -0.6518208449694605 -0.6261159295737600 0.3224535018989364 -0.07976588758764516 -0.1617337557181243 -0.7018719323906474 0.3261960911847317 -0.2482824206692479 
-0.04520629231470439 0.6537859909699935 -0.9941104279577870 -0.2012988825050381 -0.2302046394818037 -0.2728072850019166 -0.5111343513548868 -0.1190672206677610 -0.6583851949519863 0.5783673114828985 
0 0 0 0 0 0 0 0 0 0 
0 0 0 0 0 0 0 0 0 0 
0 0 0 0 0 0 0 0 0 0 
-0.01956331974708133 -0.1588305922073505 0.1127498623547293 -0.1250968683444537 0.2601247142673113 -0.4887625986219403 0.03221940889735843 -1.673814035365729 -0.5655650379041491 -0.3506376443312984 
0.04823392716831865 -0.09281249070935335 -0.5447101557138845 0.1670394112767124 -0.2001861830261289 -0.4450578637181381 -0.4360217012546390 -0.8525563554137459 -0.8684737957686323 -0.9885255880748461 
0.03299747943815286 0.1837946603552539 -0.9389940589086336 0.09071572457910154 -0.2151021940668757 -0.6949241659500143 -0.5284841258140388 -0.3492276512728486 -0.7274158033546806 -0.2787641656750572 
-0.1796001067488399 -0.3127936279952071 -0.07906879644242276 0.02890774859336287 0.07408397940418385 -0.005346696880603867 -0.6113147606641395 0.1251590721986468 -0.1419765416275212 0.5853593589776576 
0.3341728509259660 -0.2258139036612796 -0.1925958924084609 -0.6057471760941522 -0.9084668117514696 0.1485303509328288 -0.2896789710061036 -0.1326090729598320 -0.02140795199926538 -0.4705581862297154 
-0.3919741244885557 -0.5390688388238126 -0.9571258730464410 -0.4102419858812081 1.136453451703119 -0.8071318661763671 -0.1542533648023971 -0.3419549799369374 -0.2004662218547043 -0.2353495042958699 
-0.2045955042880940 1.031836523349829 -0.3580936140900954 -0.3039681823262802 -1.248388488049291 0.4846861332530835 -0.06861913781715243 -0.1432722036260530 -0.1256013265787364 -0.1139351710565743 
-0.3791517955335598 0.3689958944966745 0.5866726838717036 -0.1281293251171374 -0.4872855911543184 -0.4894755992139899 -0.03193942128837202 -0.02057606705372821 -0.07840189130630765 -0.01793241244582046 
0 0 0 0 0 0 0 0 0 0 
0.4349648889842792 -0.7038387678233030 -0.2625420077482581 -0.2313225685916870 0.1502555256415574 0.2265316723717976 -0.01441315260609096 -0.01420178689896261 -0.05058934538532946 -0.03609451055243149 
0 0 0 0 0 0 0 0 0 0 
0 0 0 0 0 0 0 0 0 0 
0 0 0 0 0 0 0 0 0 0 
0.1721025034753431 -0.06939636130676970 -0.9145277867486223 -0.7142509462088660 -0.1994687166948909 0.003825922468061783 -1.192158959824404 -0.3670365239900562 -0.8236370163916573 -0.4873952976560868 
0.2246623690256780 -0.2278467317271463 -0.7397143105071005 -0.5067674306272714 -0.4257134708563437 -0.3714622922165130 0.004535669538128354 -0.3592129729865309 -0.3337748439613122 0.1877623763175977 
-0.01171324124475520 -0.3586002802699643 -0.1140621116405818 -0.07236174614907376 0.1757107962774156 -0.2339385433131162 -0.8832176183384497 -0.5096649995941746 -0.04870497845755607 -0.7226965697517219 
-0.5455045337812954 0.2793172315186200 -0.4287501907260606 0.6144615920074300 -0.4438325059888987 -0.6808329718663936 0.01700840028342516 -1.033604947640800 -0.3220297002304053 -0.1670706874659645 
-0.06609465247310208 -0.1577350662772901 0.4681658229441431 -0.06358264656587272 -0.02577404748763661 -1.049654828535404 -0.07169958844090421 0.2561282316020945 -0.4686834541979399 -0.09353393402444782 
-0.2771755003609951 -0.5336988997021541 -0.3541496675003940 -0.3471144895222148 -0.1422701130649592 0.7077972239624346 -0.02243262702762839 0.4268917438022670 -0.1346323666298770 -0.1393321724587876 
-0.3450480194018642 0.5570475503251275 -0.1788332924732266 -0.06076625303302320 -0.2505192361656795 -0.2706734683565808 -0.007906051861526021 -0.05478220628624519 -0.05572132239650204 -0.01944660541690015 
0 0 0 0 0 0 0 0 0 0 
0.2014887521972123 -0.7228641362070038 -0.2672352656567583 0.02120344841789370 0.5681885272463477 -0.4904508597659366 -0.01795087709840400 -0.02269989643229015 -0.09294780526963363 -0.04168781960474046 
0 0 0 0 0 0 0 0 0 0 
0 0 0 0 0 0 0 0 0 0 
0 0 0 0 0 0 0 0 0 0 
-0.05886175889562258 -0.02836869283106050 -0.03013800026459022 0.3820583855178090 -0.2547425973879716 0.1766927637077783 -0.1427061509957834 0.4943974086860406 -0.5831284917423459 -0.04874221866399944 
-0.4802096642206292 -1.178602337244294 2.358265890231688 0.8232771288528269 -0.8673754877842005 1.042169427584901 -1.045795582709602 -0.2916420302930059 -0.3664056615246221 -1.347635726851953 
-0.1991596289629199 0.5652773957254508 -0.7539043691724454 0.1160818259583644 -0.9158366489719876 -0.09793247790282571 -1.106747575971232 -1.272729883445187 -1.160612547027530 -0.6093585890066822 
0.4596321849824365 -1.008513946552073 -0.6522310312335939 -0.3733901464158671 1.008454575571874 -0.6007230499504252 -0.1736521686135580 -0.1659237631601397 -0.1781433242192562 -0.1718740443436336 
-0.7863136704353162 -0.3382654762730815 -0.02018386018676075 0.3465444606207818 0.008323817865484178 0.2195715660963152 0.8281920824582560 -0.3722861481169671 1.450871649394868 -0.4567768410676764 
0.1932560905575560 -0.1684226353335563 -0.06567063011860688 -0.4243041080325326 -0.2736774161142750 -0.4092686930035563 -0.8799119901304934 -0.2427887411639111 -0.05806901979662071 -0.1693957915451439 
0.3591886989169044 -0.1171153250873080 -1.086043274577369 -0.03182339864798141 -0.2782518793314237 -1.180828094264226 -0.9252289658537150 1.188930074440121 -1.055555927985242 -0.1623788388349001 
-0.4562475942501379 0.3183809071324931 0.1678289084591099 -1.150232038398790 -0.1316411936043038 -0.1501288270650242 0.05199585995984447 -0.2099813585096942 -1.180737177109631 -0.02910597357597267 
0.2516717952645338 0.3235618144738365 -0.5919395352818893 -0.09469077557253616 -0.7940776292055610 -0.1920931560024687 0.001884238678420662 -0.6682391925189310 -0.2057979079110748 0.003681188251143405 
0.1700562336581275 -0.2309538066611548 0.1804336557818337 -0.2977997173022893 -0.6794354346067799 -0.2612385466389207 -0.5967926245457624 -1.171105711157520 -0.7660735142931345 -0.7613363528433974 
-0.01079276075288956 0.3041188699546279 -0.7133469851413519 -0.3154920800778522 0.3980309296489398 -0.8120864599101082 -0.09941691418775007 -0.1300465620681451 -0.2687266989947721 -0.2116046217025581 
-0.04796578287894165 -0.4873014239329437 -0.5709092106178992 0.09804092014729433 -0.1700019269837120 0.004517227870787772 0.5458025065637611 0.8366578108693359 -0.5047468739557420 0.5122803170865525 
0.04426049529382595 -0.2744386967566689 -0.3182892314997154 -0.4038999112210592 -0.08105896058593741 -0.01299886179846992 -0.09735643136824469 -1.092440518864102 -0.3006970541805290 0.08376297622052740 
-0.4125762152108029 0.1551405072674678 -0.4849686189374910 -0.1719267489611275 0.2673384107084822 -0.1253011569327970 -0.7723397045592336 -0.6364875661148924 -1.078691998243917 -0.5099029341933240 
-0.3361508158289691 -0.2131017647079487 -0.2908124508942592 0.2368349772298460 -0.4049038059997895 -0.6896738599678741 -0.8002618233310385 0.5883634701661034 0.9360716820009591 -0.6993924284330296 
0.4151967217927012 0.3214390489223647 -0.8042509508026450 -0.7575716203033793 -0.7066755859714188 -0.5146210747148166 -0.3831035280442078 -0.1379599353054983 -0.4051797969873314 -0.009015846257632009 
0.1108339892670300 -0.06241994544537015 -0.1825792891103284 0.02563073393582725 -0.5783886769081790 -0.2841396875059726 -0.1551825437383462 -0.1423951120933610 0.3464184587424762 -0.1482146472566847 
0.02782799849483437 -0.1272861704588657 -0.1357282189885413 -0.2236960639375596 -0.3278447417117729 -0.2205912288524963 -0.8924138492509490 -0.7123958823011892 -0.3704587062006954 -0.1516964560107345 
-0.2230645271334882 -0.1015402812907384 -0.1180681868461959 -0.5409896933767251 0.09577132315698657 -0.1670018723647237 0.1743368592865759 0.09521218797112531 -0.5903762012526516 -0.6692853946570445 
0.07744868094172076 -0.03766632959051086 -0.2310222825195193 0.0002118779585425671 -0.3856082754186549 0.08797915819413590 -0.9907652963515228 -0.1330146214979336 -0.4717113102310841 -0.2059876365256685 
0.09666609723554027 -0.4467672183470384 0.1467157122850835 -0.1776727360151310 -0.1704565293957980 0.06616323716443842 0.05643487764143550 -0.4979061857880468 0.1386972874193014 -0.2194872486315296 
0.3671173899341297 -0.3537353740827566 -0.2405218581540690 -0.3881376720977892 -0.3954050913749845 0.05606579622141220 -0.3090800660168309 -0.02781247176309947 -0.5881960319343740 0.3330255449657186 
0.09348156969976110 -0.2130847950966037 -0.5034886009312672 0.4600405727506010 -0.2339993590254642 0.2496480156729453 0.1609459509860784 0.1629968994142228 -0.3893850166092918 -0.08897359837524453 
-1.206764629200105 0.5167812004949635 0.0001484772368368968 0.3826864500218169 0.003031390378391810 0.01039443974753374 -0.7450084502214521 0.1921836016082457 -0.4319416258776680 0.1334591941017342 
-0.05756777332345304 -0.1423889239930741 -0.02034049054692137 -0.2727470057938722 -0.06373416279422278 -0.6842734690504421 0.5710042153106206 -0.8380084814868425 -0.01939321303146349 -0.7885452256116098 
-0.2193390253321026 -0.2124317516270820 0.3328334502657455 -0.009016999631130177 0.2876071974832632 -0.6124747541589488 -0.5651192663131231 -0.1836379408519314 -0.3112997330323830 -0.5190946015183593 
-0.5589421541346573 0.8907029828220375 -0.6525123011431218 0.7307617353122823 -0.3172226247384378 -0.1865395285437151 -0.2271162926039979 -0.2906411115970757 0.1484084630002551 0.3709976632929636 
0.4332170250815224 -0.2244680095770505 -0.1298936767216024 -1.204566774910586 -0.3951616155459477 -0.7612616966750448 -1.346202932166623 0.5500830577864212 -0.6158703166063425 -0.8861769902651813 
-0.7184637525209518 0.6054855434240501 0.01776437080431119 -0.3815062996946775 -0.5371069743010788 0.3208312163142124 0.8169069817217761 0.1525814383878223 0.2162343047911472 0.1794169426098694 
-0.7284908347696917 0.3308878521102417 0.2720295448563966 0.03452709314064916 0.1549149533802608 -0.4721963451692863 -0.3483598828945750 -0.5537483093079434 -0.4741113173138826 0.2409426593059508 
-0.3285241534260181 0.2716524915196321 -0.01160858046351323 -0.2372114194835056 -0.3957121478114827 -0.4683447522117875 0.04445143723258853 -0.1686324247072304 -0.1381895000127667 -0.1153853065563432 
0.4507206503765084 -0.6898281438496736 -0.1854716059147301 0.2662841463376187 -0.7292599375572826 -0.01707996994009545 -1.144640587488633 0.2534406165300737 -1.603272336658390 -0.4572647097005720 
0.6747963703718136 -0.9419209354256803 -0.6564306875281153 -0.6356470418622384 -0.6590811642603747 0.7992843681297250 -0.06431748473696575 -0.2513414121063802 -0.08065455548709183 0.3413584481891815 
-0.2466816688827759 0.01759647344382824 -0.4111818503584767 -0.2380386657741164 -0.2118781010487308 -0.5257362274480892 -0.7912174324505530 -1.088781965774708 -0.1028951279080671 -0.9193278684234569 
-0.9971541341298474 0.4126641570275311 -0.1831004956274087 0.3274337040941516 -0.03296287016188115 -0.2469934686196655 -0.07322140333471042 -0.1758187108662573 -0.3854018137735898 -0.2730499459911697 
-1.187320257620077 0.8031695840647304 -0.1056904386127669 -0.5640689009413069 -0.5287035284529615 -1.048456152475692 -0.6299858132608407 -0.2847484257628791 -0.1038761795849546 -0.2996589481828577 
-0.4936695195075099 1.234866623884679 -0.1615969166888232 -0.4232681759309006 -0.6268185132205320 -0.6562134355196281 -0.2301468614672104 -0.05729248236710647 0.2188700405384977 -0.09846994720919590 
-0.3782072329420135 -0.6861314713228681 0.2704172256806449 -0.05995842877744636 0.3208130756976164 -0.4338570809207218 -0.9105415491046157 -0.4533281264650573 -1.217565485250309 -0.5978215167014213 
0.1028047583643400 -0.3285363697846306 -0.4516705175907498 -1.059011499159247 0.06204522055295147 0.2622461593940033 -0.5548846225665401 -0.9426852325116771 -0.6879526498733765 -0.8010135265990875 
0.2288227421821161 -0.3632967421147459 -0.7475488467088467 -0.8126028817583965 -0.1729145440973804 0.1614937001893923 -1.033032977010892 -0.9534439259189004 -0.5097728521182694 -0.9328071129693996 
-0.3082795461057701 -0.3853692268853762 1.049974748689849 -0.2038565889304930 0.5396072622816103 0.02611528216080225 -0.1389358654808466 0.5108170837755258 -0.3559292104087033 -0.5082188629293005 
0.4802653222574683 -0.3315101328092298 0.06627730651859315 -1.207091403157127 0.4701931828846934 -0.1983878184751316 0.5011102964001728 0.1938430565603962 0.2059882952023701 0.1785445889307816 
-0.2340437943744922 0.4020725599969023 -0.07761636064152586 0.5570546520740562 -0.07533098914409894 -0.03370505779326233 0.1132959619693687 0.5554608187491510 0.08265672114120606 -0.06092194664152947 
0.6160404474939876 -2.486216288784023 0.3731859557927045 -0.3966487620345088 1.097258633384109 -0.9512645175271657 -0.2551981719788859 -0.2210922841542700 -0.3381496196938083 0.1436021917156551 
-1.790899676317177 0.7912026535400922 -0.5355820058601423 0.04747382209690248 0.3542920897831147 -0.5273327826869992 -0.08282971042477148 1.237338123389319 -0.1670746805439466 0.3484762260701842 
-0.4551178044096743 -0.5765417345207118 -0.3239444677098483 0.6385163595067849 0.05973451691290246 -0.3602654003959409 2.440511240061007 -0.2453502081548675 0.4593324607265277 -0.2041079120575559 
0.3453168457602650 -1.300065612115722 -0.2622849354424168 1.134604070274714 -0.03803347358130021 -0.2551927767011998 -0.08800437174018223 0.4362464398781654 -0.04323950376022351 -0.2314582661730883 
-0.5035841102928683 0.5336105717602713 -0.1325825676710486 0.3944574397524257 -0.9743490906554939 0.5438107278854674 -0.01213133255206338 -0.09572841093594561 -0.03262805276601477 -0.04447911412540632 
-0.4459246438840811 -2.360761270322946 0.8949688170753524 -0.8936743461460762 0.7318019524149854 1.285793950216352 -0.3834348743905680 0.6058398924681679 0.3539980476149244 -0.2922364854210903 
-0.003524730668186593 -0.3056868615146197 0.8463485375977156 0.03180336494553896 -0.5180096583998905 0.8518211304134589 0.8158491075310585 -0.1908847569202530 1.190661131272469 -0.7507837771360374 
-0.4343301913720700 -1.193052300653384 1.976965939497925 0.5180907619745008 -0.1918203104333212 0.1592961894726426 0.04237020428009705 -0.07911296923452833 0.3200785801389280 1.090701602887851 
-1.574203514702455 0.5017612662568918 -0.2993962010087627 -0.3488630212412865 0.6642530174962493 -0.6066101111755248 0.8832552180100457 -0.1744159490886373 -0.05854401306360525 1.288480627288412 
0.6843052974978776 -1.551990828214597 0.2303596602836146 -0.1412594654660074 0.6908566070491550 -0.1056838631587963 -0.1466555188390561 -0.1621327019464065 0.5539398053786062 -0.3192266581617230 
-1.336476738399907 0.5174531234093649 1.098268380333275 -1.076351442913380 0.2934737756013026 -0.2149873750184939 -0.1624384181141485 -0.04547415200036944 -0.2717133883906908 1.448745419493541 
0.5278649295801862 -0.02314543593563911 -0.3417718955453459 -0.5137291053351473 -0.2548870933660586 -0.1269956114631999 -0.4325497844800623 -0.4087764599592976 1.148711119450592 0.07573396233003342 
-1.078672732298527 -0.8855968789962405 -0.6327778831293010 2.414567966899980 -0.1063132704569004 -0.3815262425349933 0.2203514861841499 -0.1432835698812628 -0.3743997450238519 0.3025857621689169 
0 0 0 0 0 0 0 0 0 0 
0.3132431208302275 -0.8097129314495383 -0.04957171337342961 -0.1846817796540385 0.3017330775646723 -0.2005817638027694 -0.02980548716546542 -0.03098488059867065 -0.03736844359542926 -0.02917371426917169 
0 0 0 0 0 0 0 0 0 0 
-0.5455291078995705 0.8420801597924157 -0.02323927923814263 -0.01036226299121302 -0.04025626429633270 -0.03434659908611716 -0.004478398075023185 -0.006928931435827821 -0.006385116649079138 -0.001273548163549176 
0.06521423655686190 -0.9397129852841059 -0.2222323886113351 -0.4673146040479305 0.9483999660642013 -0.6229088014156291 -0.1141954767326278 -0.05288468706402730 -0.1865798431187808 -0.1235629190654314 
0 0 0 0 0 0 0 0 0 0 
-0.6380529670486867 -0.1235256144530613 -0.04415946299463130 -0.1251865232623677 0.3651902429043082 0.9028661263046152 -0.02494630545625226 -0.09149192082522409 -0.06566503130383662 -0.09023445718506029 
-1.146922814583618 -1.455473496066027 -0.2813705594984922 -0.5092639655695017 -0.8744418727311626 1.989117328000465 -0.02406358534518506 1.339162654940886 -0.1812202698051438 -0.2095295160482986 
-0.1367362355541651 0.2131509167463896 -0.1183388070041754 -0.4761253303451198 0.2158458736167163 0.3123107122578822 -0.4565604651382686 0.2618821934863274 -0.3344156150491648 -0.8557899164844001 
0.5714816662429292 -0.5438500725581550 -0.6784444171141375 -0.08425233943807406 0.6778939606420631 -0.01468882283010705 0.01391252793223123 -0.04266548273031783 0.1258034893626754 -0.7061866799986859 
-0.5711371609550755 0.3436224079821669 0.5977078911867940 0.2657542319706965 -0.2988401016423786 0.4580702812848653 -0.6094126483477083 0.06677898438974722 -0.2416150756831053 -0.03454743331381487 
1.055393709584028 -1.062162419696488 -0.7330264094822814 -1.199596210243294 -0.3865902511807819 -0.6714364814761973 0.1074186326953227 -0.8910400871016460 0.6609631069382531 -0.2451892570882977 
0 0 0 0 0 0 0 0 0 0 
0 0 0 0 0 0 0 0 0 0 
0.7196512927555716 -0.3305061221986844 -0.2252109891886100 -0.03187555811425008 -0.1730140279733318 -0.08485505987263571 -0.001168344306546624 -0.0001475035098752538 -0.0009843002032932488 -0.001591745904729821 
0.7963631642631446 0.1514990965206355 0.06746264896663029 -0.3128571631343202 -0.2739625969958943 -0.2390122782827344 -0.09066449990781701 -0.008211353839561822 -0.04922711659152792 -0.05857900794622986 
-0.7598082622797718 -0.1378680167698836 0.3584413627517987 -0.09091633664758773 -0.08997923136476582 0.7428143587227420 -0.02889075218610735 -0.006275500473509782 -0.06116326862736436 -0.01508378197326529 
-0.5143602511463890 -0.1649990145505239 0.1221455373251361 0.2329137938308181 0.5250319074219485 0.2205162809373609 -0.6425748098996853 -0.02444786179990516 0.3681417874548011 0.03879216494789423 
0.1618105766070614 -0.7631320185539467 -0.6080101795316888 0.2577968960905085 0.3903209586112785 0.7422005164703156 -0.4108065760100892 0.5987301226955616 -0.4574095275586585 1.152015505067682 
-0.2538181735359070 -0.6777862235634897 0.2554020117348404 0.1472133339403796 1.264857577585497 -0.1578789716723721 -0.1086742501396440 -0.3045977759041960 -0.1669811015780773 -0.2498455786025945 
-0.4931136163451143 -0.2704941937326240 -0.2075804770678922 0.7303849463652026 0.8676103396430312 0.3884414921241275 -0.1982415370763669 -0.4319563800802202 -0.3043317934714759 0.2938771607262178 
0.3801241810947577 -0.7054650853078882 1.044309517874158 -0.1889266432100069 -0.2129311993634850 -0.7915690341009921 -0.05922345692366283 -0.06705595351237605 -0.09169107012344070 0.8680284522688930 
-0.4672719652453581 1.062683526142788 -0.3276322743586811 -1.215245525629263 -1.066787639405042 0.07396487644577374 0.4101542126540370 -0.5122608989032472 0.1567228196491855 -0.5548585458172555 
0.6910985241518080 -1.068827180794545 -0.06979119544491487 -0.4524397256605672 -0.9919342743312150 -0.5000158747307113 -0.1092085403174758 1.709908998893373 0.6118158322453847 -0.1742451972511731 
0.6260433954812585 -0.04136639396255293 0.01720690303866419 -0.1399926982015188 -1.146495402813470 0.2969076091717803 -0.2836647120740263 -0.4274814264307817 -0.2993647928569845 0.1397133211911204 
0.9852779107967644 -0.9813832266146685 -0.4192960729928947 -0.2167021827215311 0.03117536656160259 0.5850810749478301 -0.04252209821040599 -0.05916479728513450 -0.06667366669012047 -0.05651977594177202 
-0.2692478665339044 -0.1494914179726015 -0.1956017908068728 -0.1543740898891311 0.4070661630247056 -0.09249314612514119 -0.0006345997673297378 -0.04114500523603017 -0.005436766180015008 -0.007191785008981479 
0 0 0 0 0 0 0 0 0 0 
0.1942156748532648 -0.3400957602373031 -0.1216597806388624 0.1350276452825987 0.1532369808532434 -0.4170326744175309 -0.08662457812337065 -0.1157275215096376 0.3612086411027696 -0.1324079165385456 
0.4970160675549292 -0.3676324253737445 0.2816127210863214 -0.1176719066233585 -0.05432824910138366 -0.1059001752910906 -0.01244101953136505 -0.006033178476733674 -0.04712262004169110 -0.01852196739024174 
-0.1808054732454428 0.3021336207493727 0.5450926925279824 -0.4428711027619056 -0.3700486627515863 0.5447772021739692 -0.07656314229325883 -0.1013191740045485 -0.1201646292075300 -0.08696463198626418 
-0.1052305231169939 1.300287573456686 -0.4410035202538181 -0.2968858035973278 -0.5930021792523386 -0.4174919893979803 -0.02074062200436744 -0.09901060883984988 -0.1537806611257068 -0.09247518041456951 
-0.1775594295264998 0.6480099367955967 -0.05626236035273927 -1.126554166205010 -0.4576880093138788 -0.1200079584213372 -0.2102702641765461 -0.2894193139553396 -0.2388581996573695 0.9236020862250449 
-0.1436949336930232 -0.1226967856752284 -0.3140520795352691 -0.02019614626508601 -0.05364356668252329 0.9284929855299446 -0.0006003207448851863 -0.003939756291658909 -0.002173452890645764 -0.004783760969424547 
-0.6559891055088017 0.8690400897831647 -0.8489247611379866 0.6391708768570026 0.5047147389527366 -0.2773058190424105 -0.009956317264089142 -0.01606528029586502 -0.04799161370223250 -0.01978769359809662 
0.2372673647815882 -0.05404962456176177 -1.072533906348518 -0.2350019104792382 0.1805847318221616 0.3032560334809869 -0.08381197769254257 -0.1284871082006518 -0.1283317622781875 -0.1151202106821814 
-0.7321501036525460 0.2565210176874265 0.3847915494453628 -0.1468335929992209 0.2783799017734874 0.2819234279084127 -0.02438866583304740 -0.05644106731751084 -0.03533666728089371 -0.01716144074539323 
0.6419487319801132 -0.05204701564632747 -0.2952317502659183 0.4495411359122715 -0.2245637201846776 -0.6238393398690603 -0.06868244435845751 -0.07074339167945039 -0.07063013351901029 -0.04270097959942593 
0.05335502030156350 -0.6300232202501367 -0.2918568770844298 0.1634530560542289 0.9731271948476147 -0.003859102548045029 -0.07008101614939746 -0.1793564200896803 -0.1551317490109054 -0.1585677725571266 
-1.303730688764915 1.648985550438815 0.4476459593396373 -0.09021553213147460 0.0004033133371325690 -0.5037790421096894 -0.1088933923465928 -0.07907662187739956 -0.1394131867170906 -0.04375103438111907 
0.5992656067935193 -0.5850002758269116 -0.03554200287151202 -0.2486678872268133 0.2254151842754869 -0.2856047657685084 -0.006739952410509613 -0.01984022863187920 -0.04190061673134513 -0.04223618300523829 
0 0 0 0 0 0 0 0 0 0 
1.010870518863536 0.04246400392156182 -0.4359237412203783 -0.3679578664982357 -1.154331635909490 -0.7652962055725703 -0.1883896608748286 -0.2286670572829648 -0.1753959441760526 -0.2263363217548497 
-0.2806340449766028 0.09854240578598180 -0.03761110604505040 0.4640205556013977 0.7176457657817102 -0.3379043882511765 -0.5433971681176830 -0.7782870838020021 -0.9037115774522847 -0.6038116396141413 
-0.8967824404343405 0.3400661452485021 1.277871156268090 0.4962868042976205 -0.1707341506370876 -0.4604886767844382 -0.03813605043294346 -0.05797175747142036 -0.05789793815064121 -0.08798190776714303 
0 0 0 0 0 0 0 0 0 0 
0 0 0 0 0 0 0 0 0 0 
0 0 0 0 0 0 0 0 0 0 
0 0 0 0 0 0 0 0 0 0 
0 0 0 0 0 0 0 0 0 0 
0 0 0 0 0 0 0 0 0 0 
0.3380009825965877 -0.2193172171377399 -0.2804434597056839 -0.06050833496608415 0.08292679496873498 -0.1333641375518472 -0.2797149681567008 -0.2390787897665607 0.3227662529196786 -0.3033349942216896 
-0.1950593722039025 0.4906026797667845 -0.4382272201413757 0.4632564552518550 -0.1837053648044408 -0.3035287479794732 -0.3590558119820073 -0.3625145299617784 -0.3801773991885503 -0.3466921010476539 
0.09184055611716206 -0.1810159541639359 0.3748066731679523 -0.04036088067838679 -0.05004430735347022 -0.4360632815456506 -0.1015151678668763 -0.2086632398092405 -0.1373902542897926 -0.06883783770376187 
-0.2319648028461858 0.2835084089479669 0.1481928434269396 -0.1733080188198866 -0.06706710489940763 -0.3895457618365663 -0.04979727562705048 -0.2008514125844396 -0.1615243479654875 -0.07060429251235377 
0.1555045419760193 -0.3126443055564285 0.07119331426880904 -0.4008221192763418 0.007438466270024953 0.06659710464902796 -0.5004804405505140 0.06982817962388686 -0.3201141251582701 -0.2900126871840876 
1.038634197163285 -0.6727497237090522 -0.09819089486656380 -0.2101311193955871 -0.1762359014680386 -0.1801868315045621 -0.0007365958181110627 -0.01742615364159151 -0.03771262096533588 -0.03170396270005492 
0.07589884958591045 -0.03348578075859914 0.07625662150699414 -0.7885946434970479 0.008090174619287774 -0.3689172042098549 -0.4708037232818774 0.4109857531972581 -0.5048998253656527 0.4628963680950764 
0.5467797969649244 -0.2194326622679668 0.5335212342052918 -0.2363306235385724 -0.6188055058792200 -1.069876864377864 -0.1569299926770067 0.2462481257888781 0.6406156400515897 -0.1989868765986200 
0.4317328958974741 0.04191706965290650 -0.1475029684135507 -0.7350493010425393 -0.4281227282991501 -0.2677970275243078 0.1964141249505451 -0.6950990499943742 -0.2537424420689984 -0.1119056308422964 
-0.4429327954716790 0.2332830789286157 -0.008074485160089344 0.07440896396947849 0.1845801527242671 0.09922918129018918 -0.6581213070457900 -0.2984477688938227 0.6215232931228655 0.2493359096654461 
0.3375682027575773 -0.6954534425830807 -0.03600477138257533 -0.4500066411264537 0.5462820907639292 0.3317692017780671 -0.06446659307445442 -0.02386464637422010 -0.06385970314358579 -0.09262425880651842 
0.4684300826886826 -0.1122910938464769 0.2944367704741238 -0.5191844487774324 0.007830116377403853 -0.5966494928235455 -0.03190760073403513 -0.1091749732161802 -0.05359320385264531 -0.1228407463340195 
-0.1124928447253595 -0.5893173755826498 0.4872867652790434 0.3061646986759395 0.4806557894235897 -0.2811148948859741 -0.08184795442303333 -0.1497828131539521 -0.2322620820238556 -0.2712080331802931 
0.2879470496648635 0.4391062142366764 -0.4030269921817601 -0.3817086522932384 -0.5609376154194314 0.1896775343013765 -0.02718333796035547 -0.09631456647262267 -0.1065520543153312 -0.05935291259375487 
-0.9706364405805141 -1.055877940689988 2.164190357527493 -1.198681407754909 0.1699409750982018 -0.7948712031237504 -1.421831712029850 -0.3945528306369649 -1.076857434021543 -0.1084584723758864 
