solver_type L2R_L2LOSS_SVC_DUAL
nr_class 7
label 8 6 2 1 14 7 12
nr_feature 169
bias 1.000000000000000
w
-0.2438440081158166 -0.6925522395256958 -0.1143842962034350 0.1650644733405327 -0.1436499348530098 0.1177139975715182 -0.2500154798281183 
0 0 0 0 0 0 0 
0 0 0 0 0 0 0 
0 0 0 0 0 0 0 
0.2981491150197071 -0.08077213264845551 -0.4817729186953689 0.1801749832440316 -0.07866706498395423 -0.1855002085012201 -0.07266718682330361 
0 0 0 0 0 0 0 
0 0 0 0 0 0 0 
0 0 0 0 0 0 0 
0 0 0 0 0 0 0 
0 0 0 0 0 0 0 
-0.2641881210457465 -0.04934540590222213 -1.387778780781446e-17 -0.2876505462900261 0 0.7225093781156671 -3.469446951953614e-18 
0 0 0 0 0 0 0 
0 0 0 0 0 0 0 
0 0 0 0 0 0 0 
0 0 0 0 0 0 0 
0 0 0 0 0 0 0 
0.01801796163517011 0.1473711408743572 -0.03424362454773619 -0.3654820319266139 -0.08767745847724306 -0.0007788148153614616 -0.01845060180292999 
-0.09751643062256224 -0.04546312903054536 -0.01691735323074873 0.1327511744294124 -0.1502882676615158 -0.2697692540494208 -0.07899597725562400 
-0.06703142244427379 0.005150958540004635 -0.09027157685995181 0.1710311788137178 -0.1446973736499268 -0.2753963243441863 -0.3782569011257202 
-0.1035813745315642 -0.2225434084135734 -0.2318183549943712 0.005296918890670632 0 0.04481198334309511 -0.3352699668255833 
0 0 0 0 0 0 0 
0 0 0 0 0 0 0 
0 0 0 0 0 0 0 
0 0 0 0 0 0 0 
0 0 0 0 0 0 0 
0 0 0 0 0 0 0 
0 0 0 0 0 0 0 
0.3864279052361802 -0.07763130107998005 -0.2914723307285240 -0.1660738794372435 -0.09122353642647550 0.3470026185036101 -0.07289427418001060 
0 0 0 0 0 0 0 
0 0 0 0 0 0 0 
0 0 0 0 0 0 0 
0 0 0 0 0 0 0 
0 0 0 0 0 0 0 
0 0 0 0 0 0 0 
0 0 0 0 0 0 0 
0 0 0 0 0 0 0 
0 0 0 0 0 0 0 
0 0 0 0 0 0 0 
0 0 0 0 0 0 0 
0 0 0 0 0 0 0 
0 0 0 0 0 0 0 
0 0 0 0 0 0 0 
0 0 0 0 0 0 0 
0 0 0 0 0 0 0 
0 0 0 0 0 0 0 
0 0 0 0 0 0 0 
0 0 0 0 0 0 0 
0 0 0 0 0 0 0 
0 0 0 0 0 0 0 
0 0 0 0 0 0 0 
0 0 0 0 0 0 0 
0 0 0 0 0 0 0 
0 0 0 0 0 0 0 
-0.1908746465031956 -0.07059552447095430 0.4539014936686926 -0.3568881274999527 -0.03890831539707092 -0.2377355460742134 0.2083661909915043 
-0.2302128139654370 -0.2570941957243281 -0.01308750673397049 0.1515742059495829 1.561251128379126e-17 -0.1861401379548048 0.07595580765068097 
-0.07606863915553544 0.1805265270732643 -0.1455222572910710 -0.2365346752957107 -0.1620372108720621 -0.03011269268464002 0.2420127523778999 
0.03776165992888964 -0.1461931273944528 0.07459120056617943 -0.3698457073272697 0 0.1422764711096146 -0.1841857106368920 
-0.1992251351992920 0.08282223740191705 0.02529194444687163 0.08782307019356280 0.02599208292006524 -0.1608112284839209 -0.4871510236210623 
0 0 0 0 0 0 0 
0 0 0 0 0 0 0 
0 0 0 0 0 0 0 
0 0 0 0 0 0 0 
0 0 0 0 0 0 0 
0 0 0 0 0 0 0 
0 0 0 0 0 0 0 
0 0 0 0 0 0 0 
0 0 0 0 0 0 0 
0 0 0 0 0 0 0 
0 0 0 0 0 0 0 
0 0 0 0 0 0 0 
0 0 0 0 0 0 0 
0 0 0 0 0 0 0 
0 0 0 0 0 0 0 
0 0 0 0 0 0 0 
0 0 0 0 0 0 0 
0 0 0 0 0 0 0 
0 0 0 0 0 0 0 
0 0 0 0 0 0 0 
0 0 0 0 0 0 0 
0 0 0 0 0 0 0 
0 0 0 0 0 0 0 
0 0 0 0 0 0 0 
0 0 0 0 0 0 0 
0 0 0 0 0 0 0 
0 0 0 0 0 0 0 
0 0 0 0 0 0 0 
0 0 0 0 0 0 0 
0 0 0 0 0 0 0 
0 0 0 0 0 0 0 
0 0 0 0 0 0 0 
0 0 0 0 0 0 0 
0 0 0 0 0 0 0 
0 0 0 0 0 0 0 
0 0 0 0 0 0 0 
0 0 0 0 0 0 0 
0 0 0 0 0 0 0 
0 0 0 0 0 0 0 
0 0 0 0 0 0 0 
0 0 0 0 0 0 0 
0 0 0 0 0 0 0 
0 0 0 0 0 0 0 
0 0 0 0 0 0 0 
0 0 0 0 0 0 0 
0 0 0 0 0 0 0 
0 0 0 0 0 0 0 
0 0 0 0 0 0 0 
0 0 0 0 0 0 0 
0 0 0 0 0 0 0 
0 0 0 0 0 0 0 
0 0 0 0 0 0 0 
0 0 0 0 0 0 0 
0 0 0 0 0 0 0 
0 0 0 0 0 0 0 
0 0 0 0 0 0 0 
0 0 0 0 0 0 0 
0 0 0 0 0 0 0 
0 0 0 0 0 0 0 
0 0 0 0 0 0 0 
0 0 0 0 0 0 0 
0 0 0 0 0 0 0 
0 0 0 0 0 0 0 
0 0 0 0 0 0 0 
-0.1482046427818696 -0.05544183341168278 -0.1651642716415155 0.04193351900809068 -0.1188233702834156 0.1265040829531001 -0.1728906556112037 
-0.1099428227089187 -0.4390301598112205 0.07020073244912567 -0.08934977047600343 -0.1233508692814146 0.1818194460764482 -0.3369081648705309 
-0.1142174717816317 -0.2641754279152523 -0.1675371195412857 -0.1769072214035213 -0.1586429608909867 0.2937463637112722 0.2060506597555543 
-0.1850655328360437 -0.1366035681073621 -0.1068448960475477 -0.0004943463618992117 -0.1502882676615158 0.2082866916021544 -0.3908730969213788 
-0.1181140264629553 0.7055574127379882 0.4168825729672390 -0.4118593128925427 -0.1351318748518147 -0.1832553022671982 -0.08690139494293232 
-0.1583005842467899 -0.3312707796728815 0.1076687114752939 -0.1130757486953147 -0.01502913502161680 0.1575133679533678 -8.631074466902632e-05 
0.2948236489136011 -0.2363091423422309 0.5086595185130127 -0.6299136655882875 -0.05540623086084866 -0.2737784181529038 -0.07289427418001060 
-0.5123410213412830 0 0 0.9983146628813436 -0.05659246815728455 -0.7136462579757510 -0.07266718682330361 
0.5106499929124064 -0.2376266154083613 -0.1457771078612394 -0.03780019550802659 -0.05789190239229655 -0.9961811231349335 -0.1765605743434320 
0 0 0 0 0 0 0 
-0.3574307586169024 -0.2314194863696557 -0.05749018001596612 -0.4992406156603398 0 1.024111686323841 -0.2446096903369864 
0 0 0 0 0 0 0 
0 0 0 0 0 0 0 
0 0 0 0 0 0 0 
0 0 0 0 0 0 0 
0 0 0 0 0 0 0 
0 0 0 0 0 0 0 
0 0 0 0 0 0 0 
0 0 0 0 0 0 0 
0 0 0 0 0 0 0 
0 0 0 0 0 0 0 
0 0 0 0 0 0 0 
0 0 0 0 0 0 0 
0 0 0 0 0 0 0 
0.09599497764184367 -0.2607819085111027 -0.2895930582449444 0.1440270644526625 -0.04071757056116263 -0.5291056716751860 -0.3292889807410065 
0.2220674395782289 -0.1314042170607687 0.2363381538950616 -0.8370946175346696 -0.1594152530159818 0.1263915768577870 -0.2501802362521629 
-0.1980264251394659 -0.4037659661776780 0.04494075599545541 0.04231590544605852 -0.1335937442921201 -0.06502245231580134 -0.06636897024427789 
-0.2182230649347867 -0.2780937275724256 -0.09661474602720590 0.1874558914639593 -0.2949874508541847 -0.07507763338513840 -0.01466897131794436 
-0.06713695704310751 -0.2421956517575991 -0.3473415900194241 -0.2238766127357418 -0.1534896903587678 0.2840366668789293 -0.3442359694730133 
-0.3545533508066852 -0.001325473711942060 -0.3582094773871196 -0.4320810865112353 0.02933107316377471 0.5239934257735701 -0.1451020375166069 
-0.2123085690595074 0.09124734449085448 -0.05522561881526104 0.2304944925036657 -0.1182844434827501 -0.2371456703984146 -0.2017072055341474 
-0.002517166246282291 -0.2461802408111003 -0.4169963918433741 0.6006795138937920 -0.3778806137023572 -0.3597281492585740 -0.2073958487961117 
0.06195540756073567 0.1247753277518030 -0.2557076527258375 -0.2216163887162015 -0.2976013609993523 0.2845972141634086 -0.06053488257060405 
-0.2549534292142950 -0.2438327242579668 0.7621666539749160 -0.6926105985876734 -0.04043810161333270 -0.3116040351679036 0.1475639746110459 
0.06859846661859871 0.09656330716526647 -0.3605379035751221 0.2464721589271588 0.005596573135223477 -0.07164178751592142 -0.1285052421377361 
0.03564151102462090 -0.09058310569742936 -0.3094239179821958 0.1041070620001804 0.1527327010358957 0.03580481566363386 -0.3788723977921556 
0.1104697492800787 -0.1835206729920626 -0.07805811134860251 0.1406184343233482 -0.006767693772946056 -0.01504245486578888 -0.4946576167210048 
-0.006039215963042030 -0.1711006431075723 -0.3094392164454100 0.4606658569054380 0.06289718823239403 -0.2528205826980206 0.3007530456057291 
0.03557838264165440 -0.2330024713950956 -0.2268926310482095 -0.3295521034722609 -0.1620372108720622 0.3708888339075571 -0.3989859473383708 
-0.003740694137022596 -0.4026993715788221 -0.4206247593036352 0.8682996806187739 0.02553758308276641 -0.7422726060199858 -0.1337342539952501 
-0.2154513490084353 0.1081005670208252 -0.3318073806198515 0.1250193135628634 6.505213034913027e-19 -0.005287707813520337 -0.1828502759346258 
0.1967689835642175 -0.1862774759959688 0.01132823102607816 -0.02545085196333766 -0.3649616798951798 -0.3137634997532270 -0.1060784905325892 
-0.09871956182176114 -0.09873052648292280 0.1508914669780850 0.07276236425197150 -0.08198125512251035 -0.09293881960237768 0.009511092698060719 
-0.3899697335032590 -0.4888783882539181 -0.3506774350284698 -0.3491629141183616 -0.4474540948613628 -0.1815545277594030 -0.9028747640125667 
-0.3422162162602151 -0.7374412120467500 -0.5150281455749812 -0.5395960487969369 -0.4237029845398310 0.2096247694951400 -0.4486776070665943 
0 0 0 0 0 0 0 
0 0 0 0 0 0 0 
0.04329806240963561 0.1739683571176436 -0.1240302209179956 0.05726510044416423 0.03906318211016611 -0.08943382709454092 -0.1364759961747757 
