solver_type L2R_L2LOSS_SVC_DUAL
nr_class 3
label 3 1 2
nr_feature 374
bias 1.000000000000000
w
-0.2454140498369474 0.1673449460930134 0.3421139067287826 
1.734723475976807e-18 -0.1182775880330760 0 
0 0 0 
0 0 0 
-0.8925279461628460 0 0.9802711326551319 
0 0 0 
0 0 0 
0 0 0 
0 0 0 
0 0 0 
0 0 0 
0 0 0 
0 0 0 
0 0 0 
0 0 0 
0 0 0 
0.6988532944399304 -0.01936599497076822 -0.9624380362267427 
0.2971530881039786 -0.2779317345670987 -0.3215257311181568 
0.1255449404275659 -0.1334021624731113 -0.08351126836752233 
-0.1744564862914149 0.6442194373696040 -0.5289608481930245 
0 0 0 
0 0 0 
0 0 0 
0 0 0 
0 0 0 
0 0 0 
0 0 0 
0.1502584802078023 0 -0.1753700320791206 
0 0 0 
0 0 0 
0 0 0 
0 0 0 
0 0 0 
0 0 0 
0 0 0 
0 0 0 
0 0 0 
0 0 0 
0 0 0 
0 0 0 
0 0 0 
0 0 0 
0 0 0 
0 0 0 
0 0 0 
0 0 0 
0 0 0 
0 0 0 
0 0 0 
0 0 0 
0 0 0 
0 0 0 
0 0 0 
0.2404677478755264 -0.03333868968488882 -0.2429083734736126 
0.3664659396967352 -0.6502249811348985 -0.1228217730189235 
0.2133518019508004 0.01569971753197010 -0.2738649499985361 
0.5488945900095770 -0.5987123660120524 -0.2690795329023478 
-0.06093542771603294 0.2389381554780027 0.1413963574687818 
0 0 0 
0 0 0 
0 0 0 
0.2462957850407509 -0.07162597398750273 -0.2252763528829314 
-0.001235931497323746 0 0 
0 0 0 
0 0 0 
0.1335296536003872 0 -0.2893454024930927 
0 0 0 
0 0 0 
0 0 0 
0 0 0 
0 0 0 
0 0 0 
0 0 0 
0 0 0 
0 0 0 
0 0 0 
0 0 0 
0.2231424007114750 -0.1857756269457773 -0.2311809060266214 
0.2422150781155682 -0.3618902895766469 -0.2138372384735430 
-0.07300756632205031 0.07151271195087812 0.1751590318600469 
-0.06611344861167986 0 0.05915904465711919 
0 0 0 
0 0 0 
0 0 0 
0 0 0 
0 0 0 
0 0 0 
0 0 0 
0.1984457738773514 0.1808389645637555 -0.1667630640700842 
0 0 0 
0 0 0 
0 0 0 
0 0 0 
0 0 0 
0 0 0 
0 0 0 
0 0 0 
0 0 0 
0 0 0 
0 0 0 
0 0 0 
0 0 0 
0 0 0 
0 0 0 
0 0 0 
0 0 0 
0 0 0 
0 0 0 
0 0 0 
0 0 0 
0 0 0 
0 0 0 
0 0 0 
0 0 0 
-0.1569468110331962 0.5158075384498451 -0.1488331944892575 
0.2296592012182151 -0.3466442857986789 -0.09938817954832134 
0.1515615766728816 -0.4350205994145332 -0.1667345439133086 
0.1518632866402480 0.1814335256741483 -0.3459948310499406 
-0.01175302570795650 -0.3136872253187888 0.1363364879046511 
0 0 0 
0 0 0 
0 0 0 
-0.1288687827591660 0.3344579264744738 0.1228660148880847 
-0.07267866583883036 -0.1948215833861899 0.1568830888370785 
0.1085680904796016 -0.4777583006044688 0.08818387393073386 
0.2494197766987349 -0.02515433960994024 -0.1059204421503042 
0.05928175471843045 -0.01841718589059908 0.1593712799356329 
0.3702829718803312 -0.09288041862252834 -0.1517537869075182 
0.3777425114603857 0.06215237937480056 -0.3595016325958460 
0.4837477122871065 0 -0.4568866270240505 
0 0 0 
0.1502584802078023 8.673617379884035e-19 -0.1753700320791206 
0 0 0 
0 0 0 
0 0 0 
0.2955334807081480 -0.3104392506423089 -0.1108354075237260 
0.4783383659912154 -0.5343129097591384 -0.3393509335462518 
0.2446759890665178 -0.1823654011180150 -0.1452925009688149 
0.2123459686163162 -0.1080121765077534 -0.1070858703907555 
0.3901204928427260 -0.01091871092615623 -0.4886482861319993 
0.1183364034217629 0.1671898079352705 -0.2337441767872622 
0.2774953614204264 0 -0.2893454024930927 
0 0 0 
0.2192016773236828 0.1808389645637555 -0.4264302776456017 
0 0 0 
0 0 0 
0 0 0 
0.05489011266256069 0.07089099753979197 -0.01508599285803257 
0.3364925133229495 -0.09446044955796953 -0.4719413601266124 
0.7316455600088065 -1.126003945055049 -0.6008839349285386 
0.5125851008605564 -0.02027990574644721 -0.5935811162646141 
-0.04511063490617501 0.1091000459346576 0.04839224918829431 
0.004338681127161169 -0.005858590886870720 -0.03715390756584074 
0.4102653754250524 -0.1292320132455712 -0.6543193240914821 
-0.2776887338439679 0.2255178261145296 0.2526730183844226 
-0.06837937596676046 0.1817053224814514 0.06817386675247279 
0.7814192839131314 -0.6738603758584245 -0.6267114609279152 
0.3393809262436666 4.510281037539698e-17 -0.05563003610159407 
-0.07943336438451265 -0.1610834946064557 0.1462306604518060 
0.1302178612755738 0.1015963625668635 -0.5141961097134427 
0.1414649712057593 -0.2911000761628483 -0.2507802574708112 
-0.2050325389634299 0.4049154631848392 0.05892706239324248 
0.1596388334144869 -0.1455191395272751 -0.2745390071565708 
-0.08522314984456451 0.3791397623133364 -0.1998245107285775 
-0.1252427870834776 -0.1785068195123606 0.03779117421955953 
-0.09570364030222589 -0.6033706480328974 0.1924280416567760 
-0.3045697669656324 0.5169321432992239 0.1550412046947065 
0.07491008517833526 -0.5213452001708827 -0.2204005681695722 
0.05446144673275991 -0.02284147959347904 -0.09844446819602441 
0.3215156415378299 -0.08190844776606790 -0.4965787104284501 
-0.02481145623896781 -0.1476067498429452 0.02056984877026272 
-0.09225224195663720 0.1543138872539527 0.02803697576607559 
0.06576486256530395 -0.2693649028025569 0.1271780669154226 
-0.2984472775230163 0.1439696280958207 0.5132172447465785 
0.5922783027985727 -0.3365391459350797 -1.145427029126419 
-0.08165225975141370 0.1417953104410803 0.2214401034612236 
0.4384299384894158 -0.4516192876135672 -0.4617889489432573 
-0.1962827129823461 0.2757005581287346 -0.1031248436786079 
0.1502156548895204 -0.1580590426043576 -0.7803585192672874 
-0.1251844398309568 -0.04572674827845007 0.3583076925967432 
0.01139932717680791 -0.5838154567090605 -0.1048121666024317 
-0.03326833635490491 -0.01290130757245393 -0.1214188477121922 
0.2632600738738208 -0.4155545944912527 -0.5157283417144561 
0.3994563326797133 -0.09843572898926797 -0.01955543675844221 
-0.03013820181537128 -0.2381596293503254 -0.04007111222501658 
0.002445888134779761 -0.2684760028048665 -0.04244689560066854 
0.1911809063411674 -0.4190533485921348 -0.3044008304657850 
-0.06722110711306360 -0.1741573402997633 0.1109789695060453 
0.1249158621905289 0.1368496088585334 -0.3185941701704325 
-0.3574881481872562 0.5522719844401381 0.3978414375417600 
0 0 0 
-0.5441551656008818 7.806255641895632e-18 0.5503046420485184 
0 0 0 
0 0 0 
0 0 1.734723475976807e-18 
-0.01320005334720404 0.3498767133410671 -0.2596672135755180 
0 0 0 
0 0 0 
-0.01351897342891868 -1.214306433183765e-17 0.4005151854878434 
0 0 0 
-1.167187854020403 -0.2294396954832189 1.436448533088712 
0.2370503854100155 -0.5442223444336551 -0.2643726187651014 
0 0 0 
0 0 0 
7.372574772901430e-18 -3.469446951953614e-18 0 
0 0 0 
0 0 0 
0.6808946111469822 -0.7068115072146640 -0.3540227252527093 
0 0 0 
0.01832994686864211 -1.734723475976807e-18 0 
0.03758318925235697 0 0 
-0.03635895614551891 0.3254026412521375 0.05453953870974906 
-0.1541602074325092 0.4628981456374034 -0.3189944627349255 
0 0 0 
0 0 0 
0 0 0 
0 0 0 
0 0 0 
0 0 0 
0 0 0 
0.3485863621536176 -0.2251116422712382 -0.3829340284351456 
0 0 0 
0.3927219710700483 1.561251128379126e-17 -0.4347224127948470 
0.1308484997186202 -0.5618919837492419 0 
0 0 0 
0 0 0 
-0.1338375960545041 0.4274964088644694 -0.09636630094350111 
-0.03639396263178281 -0.1353856843333013 -0.08223108002576522 
-0.1751947068353917 -0.1446022819563729 0.3245520292446353 
0 0 0 
0.01677317429015689 -0.1783765591303224 0.03757709437272752 
0 0 0 
0 0 0 
0 0 0 
0.3229457107484650 -0.2435354287604032 -0.4089415459663684 
-0.1843940129841427 0 0.3214239566560173 
0 0 0 
0.2245384893787217 -0.05155624860222587 -0.2365795244255060 
-0.04335152671616603 0.1275834800104752 -0.03649324727522926 
0 0 0 
0 0 0 
0 0 0 
0 0 0 
-0.1431949836950976 0.4984825338831629 -1.387778780781446e-17 
0 0 0 
-0.1751947068353917 -0.1446022819563729 0.3245520292446353 
0.3485863621536176 -0.2251116422712382 -0.3829340284351456 
0.1637033427552764 -0.08235515122630521 -0.1926074693187592 
-0.02545377137870608 -0.1542661951967925 0.1402128952952504 
0.2245384893787217 -0.05155624860222587 -0.2365795244255060 
0.3927219710700483 1.561251128379126e-17 -0.4347224127948470 
-0.1338375960545041 0.4274964088644694 -0.09636630094350111 
0.1184198752433119 -0.02662658387234402 -0.2217268165037694 
0.002893945669355242 -0.1009488838009270 -1.734723475976807e-18 
-1.040834085586084e-17 -2.168404344971009e-19 0 
0 0 0 
0.01215123526839483 0.3104943277386207 -0.3630273437884696 
-1.029570440040905 0 1.014092385417703 
0.3229457107484650 -0.2435354287604032 -0.4089415459663684 
0.5443559801509830 -0.3509392933553936 -0.2410841588451554 
-0.03639396263178281 -0.1353856843333013 -0.08223108002576522 
0 0 0 
0.01677317429015689 -0.1783765591303224 0.03757709437272752 
0 0 0 
0.03020467989956507 0 0 
-0.1843940129841427 0 0.3214239566560173 
0.1783025249518398 -0.4240879367641155 -1.387778780781446e-17 
-0.5775456169622251 0.5636529399461478 0.7280196771936460 
-0.04335152671616603 0.1275834800104752 -0.03649324727522926 
0 0 0 
0.1308484997186202 -0.5618919837492419 0 
-0.1196006002944140 -0.1102778742137389 0.3569446608002492 
0 0 0 
0 0 0 
0 0 0 
0 0 0 
0 0 0 
0 0 0 
0 0 0 
-0.5228819769155016 0.6356064534760042 0.4157098268236250 
-0.3217613777020239 0.6410026421464160 0.3046405712222094 
0.1170770078247326 0.1328620628078814 -0.3537311969610730 
0.1580203316487188 0.02334492402253667 -0.1796887979242770 
0.1173527252333715 0.009773852998329722 -0.1189428944215536 
-0.0003433564905695628 -0.4545503637805379 0.1896012230537957 
0.2945831673179851 -0.8727007936376572 0.08815044856273560 
-0.06162982532460472 -0.1201578435714149 -0.1251516923235104 
-0.2186050354658692 0.1531870858634163 0.2814191522239300 
0.06258521468286168 0.1380787499678731 -0.04864012712742970 
0.5302132918839225 -0.03538087209784658 -0.1879763718733333 
0.2744017778099817 0.1155163799835079 -0.5400010108520916 
0.3656750979803585 -0.1741132197467449 -0.4858291401499615 
0.3616099194427713 -6.938893903907228e-18 -0.6305723169781606 
0.09721446864993260 0.2642512150492036 -0.1699077406970012 
-0.2871240918741873 -0.9656962177788693 1.172374771877674 
-0.4432308815602324 0.7523801307244047 -0.1879763718733334 
0.4935521111455287 -0.7045763431097924 -0.5011556731511176 
0.4344696964034246 -0.7087713503606521 -0.06996931730800518 
-0.4249978825084823 0.5986910115442823 0.4039140190894169 
0.4536904669462230 -0.4157187538554860 -0.3923945212815809 
0.03060486782080903 0.3926640867827243 -0.1879763718733332 
0.3172726887550317 0.2825223615543589 -0.6909222897814733 
0.07335608330669724 -0.2149144189441778 -0.1355823165691399 
-0.1431949836950976 0.4984825338831627 1.387778780781446e-17 
-0.2423595198326376 -0.2354229133718857 0.2991233808617977 
-0.7403958071605999 1.450723622642018 0.2142839357531934 
-2.428612866367530e-17 3.469446951953614e-18 -0.1740701592951939 
0.2984137992461639 -0.2013837290700709 -0.4390613160281001 
0.2008893407027380 -0.2220330069815442 -0.1919057245782360 
-0.3920349719043976 -0.0008992769874210134 0.6530756836408429 
0.3975621632264575 0 -0.3375751393679695 
-0.1002178470257132 0.1051110711423334 0.2359088822341255 
-0.3112909736343126 0 0.2388579706961522 
0.1303805287479682 2.428612866367530e-17 -0.01904912023571390 
0.6631218570174760 -0.7319250024369799 -0.4030697327744148 
0 0 0 
0 0 0 
0 0 0 
-1.026486432610978 1.257738303909443 0 
0.01156371528636341 0.1816072561233858 -0.4105534318952111 
0.5103780072791650 -0.9169513912812295 -0.1734276240777753 
0.1287881272758450 -0.3728210138759486 0.3335701686188509 
0.2308868318473713 -0.1542386279323661 -0.4243650196520096 
-0.2432040343376803 0.5490617410164926 0.1963571948432068 
0.5070439060261305 -0.1663947122054972 -0.5931817346946335 
0.2618619555620786 -0.09192287182389461 -0.1822802052544031 
0.1890950719637789 -0.2231573832726249 -0.1788211771420936 
0.3038021947842068 -0.1566438628891102 -0.4121493853584640 
0.4382661926337408 -0.2907895646835937 -0.4537872258981178 
0 0 0 
0.3364925133229495 -0.09446044955796953 -0.4719413601266124 
0 0 0 
0.3657844951596809 -0.6722680071650271 -0.1494415076573646 
0.1907087088815276 0.09757504343028081 -0.5618269980341906 
-0.03012952411270173 0.5805833588705107 -0.1766826224133928 
0.1046360955513524 -0.2430734706601213 0.08761307927777504 
0.0004802967520987310 0.2569419343103504 -0.1021766112545334 
-0.6901527638272397 0.3514889984644186 0.7373960982921604 
-0.03566032215851353 0.5867729358019654 -0.2829437553772315 
0.07669954679560437 -0.5753020839111260 0.008285324074956990 
0.4885942413803389 0.05026872069247182 -0.5433146103527915 
-0.09071582186611785 -0.02063437586867852 0.2118410026255797 
0.03069762747972265 0.1806180179085829 -0.1187607379397952 
0.4761747966644295 -0.08891551937390806 -0.5152400940687988 
0.2165413592151893 -0.2934645390161679 0.02446360823232290 
0.05749110432935028 -0.1809080880690970 0.01023338860000421 
0.1298316562046983 -0.1552070839615260 0.09020336625870830 
0.3524203672012977 0.09776519511981419 -1.003325363081563 
-0.2801099382963645 0.4284324341982891 0.1129143125847114 
0.07358333543426578 -0.4891853651176012 0.3512228723459100 
-0.1139370348057813 0.3830690286390693 -0.2094357296730227 
-0.4861292822856124 0.8887898965723395 0.1656395769251587 
-0.3808602955559709 0.2135969167741398 0.4022609231185723 
0.6911363050992960 -0.1434081001817056 -1.022344400330741 
0.4377153284274377 -0.4793971537748095 -0.3424168585383479 
0.06721403071532517 -0.6665520704364875 0.04133691125677115 
-0.004966401526244439 -0.2542859499069861 0.09505796433665407 
0.1578666684325791 -0.05059777755474908 0.02067493396458296 
0.2486164920011897 0.2266327965138745 -0.3580540662082205 
0.2878483572191937 -0.3313737760222848 -0.3304188219777278 
0.08968838433615856 0.3061740948933225 -0.4807475201209421 
-0.2203779493603198 0.7227011603562261 -0.07240861724297575 
-0.5711315690564751 0.1295203622648594 0.6053819493067648 
0.2257700739703442 0 -0.03825077012620907 
-0.2516597782658400 0 -0.04281600727392948 
1.036728448177435 -0.07912287795770757 -1.174703427275129 
-0.1326816732857511 -0.02844530294029174 0.2637897925468701 
0.3477720148293699 -0.1045210834033192 -0.4853201387412239 
-0.1454260586311016 0.5452311095091195 0.07585294051299099 
0 0 0 
-0.1586312100000290 0 0.4008942203727499 
0.1866112364005651 0 -0.1227026539843994 
0.1772775874766269 0 -0.2703662489895828 
0 0 0 
0.07859412612975547 -0.1783765591303223 0 
